-2766
-5578
-179
2778
-185
-30
-745
1058
2294
1641
-843
2512
-715
1844
-899
899
-1756
660
2543
2168
70
1331
-883
92
-2404
1996
-1078
3512
38
627
70
-1693
2101
1476
-2781
-2950
-3965
2089
253
3144
-3941
616
337
-64
-5938
1563
-20
259
-1727
-1182
2572
-2103
1215
2747
1251
1409
647
2457
630
3435
1514
1380
-5161
-877
-1516
-787
-913
193
1264
-2526
408
1320
-6255
-1588
3034
624
2146
-43
-773
385
-373
3349
725
-1080
1162
2549
1769
1791
1665
1376
2393
-2499
-3898
-233
-2255
3168
4276
547
-5279
-2940
4352
-398
2000
5963
-1544
-1555
1773
-106
-10709
500
1082
624
4791
1101
738
622
-113
40
506
-1951
1274
-1324
-1658
-3568
1165
1715
-1792
-2707
1289
-5223
-2717
-4091
-7020
1908
-1560
1136
-2994
-4103
3231
4669
-2220
-4347
-5265
-498
1168
1814
-621
1219
-1990
1103
2589
-1866
-1446
-4044
-2505
-5038
1699
-649
-2044
2144
527
931
-4286
475
-1492
-2866
1108
-2549
744
958
730
-5597
-4452
775
674
-1835
-423
-1896
-1267
-3079
1562
-312
3778
1191
-1050
1032
-5305
-570
1752
3069
295
-2559
-1289
3080
-433
568
4795
-719
-2459
-3397
-2575
-3018
1535
2329
-61
1112
-1099
-3457
-3599
-4431
-2340
1948
-897
-580
-80
1316
1254
-817
-1049
-371
-535
-2480
-4476
3435
2201
-2070
250
1968
-681
-1955
-5336
-581
-1737
1222
4356
1460
-1151
-285
-93
-835
-1272
-2594
-354
1801
14
4048
-4063
-1288
3515
-208
-5993
-3534
4026
1426
384
1963
992
-3394
-2607
-5024
636
1094
-927
1045
5049
736
5140
-976
-23
319
1130
-626
364
35
907
-1976
-3917
2678
3196
-1715
993
1843
-1961
1665
1922
1327
1889
3337
-1432
-3163
3006
990
2239
-3805
1258
1685
646
3003
-1016
-2627
-635
-1841
924
2117
-3620
-23
1494
1836
3679
472
-2442
-785
-4908
-4136
2939
-3060
2364
-3508
4101
-2582
1741
558
-1351
-7047
-3015
1555
483
-2254
-1048
-1928
1054
-238
-1228
9
-1026
582
1611
-2934
3343
590
-1993
-132
-1559
-1497
1415
1114
4229
-1282
-1368
1020
-1495
-2474
-346
-790
-1902
-259
-1004
529
-404
2187
1057
103
-356
-2099
2277
-1022
-889
3296
-336
-787
-3379
-1259
869
1419
-835
744
888
-640
-344
-214
1090
-1707
269
927
3441
651
-3254
645
-1234
-2108
439
1074
2211
116
-2230
-691
-550
-118
-685
-4486
-1138
3920
1802
-700
-3433
-2131
-4406
1588
1605
891
728
-182
-1221
3009
161
-777
-235
-1482
578
653
1424
-2376
-1737
730
-333
3622
-85
-893
1426
-516
2039
763
2270
-385
-36
-3769
58
-2903
-214
3716
-4077
-658
-2402
1241
719
1159
-1404
-2406
-296
-946
4448
1715
108
1770
-2245
-1856
-930
2460
-391
-108
-1880
-478
-3207
-2951
580
-7688
-685
1757
2757
-1909
3348
-2600
-2492
1730
-2262
-2542
357
2233
-6884
1433
2129
1747
1327
-2033
904
-1149
3973
-3175
-1126
-2564
1426
2317
-2125
-3568
-598
1862
-489
1098
-1791
-192
-1279
3663
-1159
2643
-4017
1205
-144
1292
4392
-774
1040
3968
-977
-3506
4692
-687
-705
985
288
-747
-1501
-2793
-355
57
-2265
-817
-460
-1426
-2
-1808
370
-1507
3006
-4128
3553
-2604
2358
4831
314
2574
2935
1861
370
-444
-4122
2530
66
-3198
672
2398
379
-167
1175
-2121
-818
1897
3783
168
-3963
-157
2467
-2325
-704
355
1397
490
4408
1091
1727
3537
989
-1104
-2539
238
785
-347
-1222
158
-878
1878
1909
-2247
407
-408
2302
3972
1995
1579
1490
1299
-902
2797
584
1471
487
691
1901
653
-427
-2944
-965
-2850
1291
-8298
-2376
-2929
1668
-2025
-3631
1727
-2683
1592
-3725
1755
1293
1131
-1533
1202
-3436
2253
955
-2361
4355
-1623
720
-2327
-1440
961
3598
-2979
-1619
-1351
-1414
-655
357
162
2547
-1274
2518
-1183
1546
1891
586
4288
1093
-170
-2581
2052
-108
-494
-807
5706
1092
-2411
2335
542
2702
6169
2804
849
-3183
5642
1166
-698
34
1140
5310
1762
2482
1306
-2980
2827
4443
467
794
1238
2768
4750
1083
-1260
30
2268
2903
854
-367
-2239
2478
-3407
-958
-37
-3158
3665
-184
2376
1914
3500
-2603
-1322
2050
107
377
3318
-4742
-2185
-2695
-966
875
-5101
620
-2889
1091
1010
6553
-1134
4083
-8382
-2168
-5492
-2237
4725
-812
-1304
3840
-1152
1664
5137
5817
3382
521
2426
2282
623
-456
1490
1164
-1440
4406
3238
-1947
-789
-905
4752
270
-934
-4467
931
932
-1526
-1448
994
246
1257
1840
2018
-945
-2325
145
1394
-5637
-1931
2220
-998
4887
957
1778
-189
-2399
956
