0
0
0
0
-1
1
0
-1
0
1
-1
4
0
4
0
-1
0
0
0
-1
0
-1
0
0
0
0
-117
0
-135
1
-1
0
-1
0
-1
-8
-2
-1
0
-3
-8
0
0
0
0
-1
0
0
1
0
-127
-1
-1
0
0
0
0
0
0
2
0
0
-11
0
0
0
0
0
-1
0
0
0
0
-68
0
0
0
0
0
0
0
0
0
0
0
0
0
0
0
0
0
0
0
0
0
1
0
0
0
-1
0
0
0
0
0
0
0
0
0
0
0
0
0
0
-1
0
0
0
0
0
0
0
0
0
-46
0
0
-1
6
1
0
0
0
0
-9
0
0
0
15
0
-2
-2
-229
0
0
0
1
1
3
-1
0
0
-4
2
0
0
0
0
0
253
0
0
-1
-1
0
0
0
0
-1
6
0
3
0
10
0
-6
0
-3
-31
0
-1
0
0
0
-1
2
0
0
-1
0
1
0
0
-1
-1
0
0
-3
0
0
0
0
0
1
0
0
0
0
-1
0
104
-98
0
-1
0
1
-1
0
0
0
0
0
0
0
0
0
0
0
1
0
-1
-1
0
-3
0
-3
0
0
0
0
0
0
0
3
0
0
-1
0
0
0
0
0
0
0
0
0
-8
-1
1
-1
0
-346
1
-1
0
0
-1
0
0
0
0
0
0
0
1
133
1
-1
0
-3
-1
0
6
0
1
107
0
1
-1
0
0
0
0
0
1
0
-1
15
0
0
0
-1
0
0
0
-126
-2
0
-4
0
-1
0
0
1
0
0
0
0
0
-9
-3
-5
1
-3
-9
0
3
54
26
2
-1
1
0
1
-4
-1
0
-6
0
-4
-2
-13
-3
-38
26
0
-3
-4
-1
0
14
3
66
0
-3
0
-3
-80
-5
4
-1
4
56
-2
0
-6
0
1
3
0
-3
9
-12
-4
-2
0
-112
0
-68
0
-1
-37
-7
-18
-2
0
-21
0
0
-14
0
0
42
0
0
0
2
0
0
1
-34
-1
0
1
0
0
0
0
0
0
0
1
0
0
-3
0
0
0
0
0
0
1
-24
0
-1
1
-8
0
1
0
2
-12
0
0
0
0
0
-2
0
0
0
0
0
0
0
248
0
0
0
0
3
0
0
-14
-56
0
0
0
0
-63
-74
0
1
-3
0
-11
0
-2
0
0
0
0
0
0
0
-1
0
8
0
1
1
-1
0
0
0
-1
0
0
0
0
0
-1
23
0
0
0
0
0
0
-5
1
-1
-92
0
0
0
0
1
0
0
0
1
0
-84
0
1
3
4
-1
-1
-22
-1
-82
0
-4
-81
2
-80
-11
4
4
0
0
0
0
-93
-4
-25
0
4
30
0
0
95
-30
-81
-4
1
-54
1
1
8
0
2
0
3
-26
0
0
109
-237
0
-4
0
4
1
2
229
0
1
1
-1
59
0
0
0
-19
0
1
-72
-6
28
0
0
1
-6
0
1
0
91
-79
-10
3
0
-1
0
-2
0
1
0
5
0
0
0
-3
0
-75
-4
-4
0
0
-9
-24
0
0
0
1
0
1
0
0
-90
0
0
-72
-1
2
4
0
1
1
0
-21
0
0
0
3
5
19
4
0
-15
0
19
0
27
0
0
1
0
0
0
-3
0
0
0
0
0
2
0
9
0
0
0
0
-15
0
0
0
0
0
0
6
0
0
0
8
-2
0
20
9
0
0
0
0
0
0
0
-117
0
-1
0
0
0
-156
-10
0
-3
25
1
0
0
0
-2
0
0
0
-3
0
0
1
0
0
1
0
-5
0
0
1
1
1
0
0
1
-1
0
-1
-1
-7
-1
96
1
-1
-2
0
0
11
1
0
2
0
0
0
0
0
0
2
0
0
0
-1
1
0
0
-1
0
-1
0
0
-1
-1
0
-1
0
1
0
-175
0
