3172
-2083
-1201
-2623
-3
-191
325
-878
2975
-1613
524
52
-103
-588
801
1408
-2372
872
-1325
-178
854
-1743
-439
-1543
174
3164
2915
2341
-2235
1511
-1821
821
1434
-652
1773
-450
2810
2344
704
1421
423
-46
2142
-3367
-1019
-102
-1638
-268
553
-1836
-57
-5279
-402
622
1929
-849
233
-2043
-1309
-1223
-716
-2865
-2640
-2074
991
2979
-2510
-1155
1137
1872
400
-2213
-4301
462
-832
3876
-2803
3266
904
-209
-123
-1520
-4001
238
4104
493
-1304
2377
3501
-774
-924
4945
-3564
874
-2083
-1877
-24
432
2296
268
-767
1088
1604
1262
-2450
942
-543
-2014
-4476
1829
-316
-661
-930
351
-3552
-1529
-849
-1244
3547
375
-1529
583
906
977
479
671
1089
-1245
55
886
2054
-240
-2390
-1167
-2267
-778
148
-1488
758
2718
-526
-2390
-1832
1162
-1376
-7658
767
-3762
4888
-241
677
-946
1069
501
1215
834
440
-2578
3434
1096
1158
-2050
-4993
207
558
1940
212
-1631
-2337
977
486
1389
-367
-1861
966
-4647
3184
-1288
-1328
-5274
-2343
-1278
1041
-1405
-483
43
-3432
1417
1022
7843
3310
3650
1171
-1076
1016
-2031
2444
-77
-4073
-1786
-2781
1368
-983
636
-2459
719
1038
4206
-1063
1388
-351
-2421
1529
1382
1597
3284
1122
1079
-283
-11
150
2632
-2122
548
1197
111
1799
3320
-969
-106
-894
-799
9
2459
3845
-72
-3948
-1932
2583
4134
2095
-3232
-132
-1874
3094
-600
133
2654
585
-3727
-1728
-1161
1819
-3768
-1206
11887
-560
1380
-1485
148
1656
130
-65
-146
3105
-875
-396
252
-3218
2233
-853
1085
25
-696
972
-179
-7813
3127
2438
-1375
-256
3815
-2108
-303
-214
6883
7504
2687
4085
484
4426
2354
-182
-4130
-3080
2968
-677
1427
-872
2418
-1720
-5201
-212
-1268
1487
-1365
-1639
-2667
-195
-255
-3402
-1051
605
-395
-4472
-699
447
-62
4505
-298
-4204
-3038
129
-237
-270
-595
811
2360
333
-4028
2346
672
-2271
-1039
4664
2897
-1020
-1684
-1587
2025
1306
778
272
-1004
2684
1909
236
-1872
238
4455
-678
-34
1089
-843
1200
2757
-1061
-2180
2890
226
445
-166
-760
3131
-1635
-1122
2388
1144
646
67
7369
-1136
3288
547
-2144
6551
-1802
-810
2127
312
-3595
-4945
1964
-103
-4380
-1108
-408
505
3650
-1439
-1990
-1699
2115
-1679
-842
-1412
-498
4203
-714
-4345
98
-301
-1654
-1147
6222
-1425
1255
702
-994
2203
437
1049
728
-1290
-1677
4054
-1580
1005
-1103
-567
-214
-3018
-2501
6152
343
4847
49
1239
-2676
-1048
260
2919
-777
795
-1587
-6204
3377
-2320
4012
1249
-1909
4666
-673
1094
-2426
3768
-1186
3509
2128
440
-1715
1794
-4875
14530
-800
-1373
-1699
-3681
-269
-2617
1674
221
3140
-1360
-3292
-4996
-260
2470
675
1481
-1342
-4821
-6532
-509
-815
69
-2857
969
-582
1672
-25
-2536
1607
-157
3299
870
468
-1115
633
-3011
-2636
-208
2
3601
-464
5618
363
-572
3223
889
783
1306
1652
4040
-3025
1458
-7121
-4496
2700
-3100
1825
-208
-1961
-1225
-2604
764
507
-890
-16
383
-4243
1849
-1424
1554
513
1383
565
1039
735
-432
2856
307
1157
-2251
3555
4103
-3093
-2374
-195
-2940
-3180
1524
-1431
-2114
3683
5047
-399
-102
2354
1802
-330
-3369
2293
5870
1320
400
2925
-353
-1371
-989
-172
-4651
3223
3818
-534
1678
3070
2205
-3129
1530
3770
-1309
-384
-459
-403
-1048
5733
186
2383
-718
2271
1196
2336
-404
-2556
1055
472
689
-4849
1687
-1658
619
742
-2670
-1039
-1832
151
-964
-4582
-3811
-3049
-2006
-2175
-856
-423
-540
2154
-319
-2473
-666
-4048
939
195
3824
-792
1804
-2488
-702
3157
176
-3957
-4859
2234
-516
3140
834
3983
317
-3689
-1264
-1019
-4932
-1583
-4516
599
415
1521
-236
37
-3393
109
281
4626
2742
522
-4602
-5919
-1700
-2392
1871
-78
464
1542
-730
-971
95
68
2967
-1388
432
-1397
-26
878
-2297
2332
-1633
397
1912
-2504
448
-2707
-2550
2949
-974
409
-669
1757
-283
-1542
-162
-587
1831
1408
271
-9
1324
386
-4241
1827
-269
-509
-216
-386
271
2351
4304
3995
-2792
-936
544
1331
-1439
1196
-790
1446
-1642
-3393
-2015
3147
2707
751
3297
-1129
-2558
1818
365
552
-6211
-2058
936
357
-322
-1737
189
4515
-2455
561
2316
-4830
-45
-318
-1921
-536
-824
-338
3920
-907
140
-74
1737
2366
-767
1837
-95
2724
-1657
2971
604
2586
-600
-615
1190
3158
3086
-3557
1937
1231
195
-1250
-189
2588
-317
30
-1296
-2753
843
-4325
-1245
