934
-322
-1196
-849
-347
23
772
652
110
776
-973
161
140
-234
-196
-584
551
-340
-974
-708
660
-79
-901
-1055
603
322
271
128
-841
102
-907
964
1082
269
-133
644
-1347
-853
54
346
487
84
-237
-85
-86
1158
-477
715
536
101
302
594
-28
-1108
801
-1275
-959
517
814
658
1093
-710
-721
593
-471
383
296
235
-561
-82
431
206
174
145
126
687
-600
-15
-188
-593
512
324
-147
-455
803
-61
40
204
168
135
607
-412
290
-87
377
-110
366
-576
-241
-299
-583
-17
-615
-68
63
122
-911
-505
224
-696
-238
-116
-535
-250
-672
-37
-91
388
-339
-386
60
191
127
-365
-35
237
-41
-137
-943
-459
-664
-963
785
839
1109
710
1009
-1176
-942
-1407
697
655
1363
1041
-1245
-1181
-780
848
830
329
1042
991
1076
-1012
537
-825
845
1159
-1009
-929
-1059
-1008
-1103
867
-198
1034
-1161
-1116
1067
-637
974
1088
-730
1072
313
-335
1171
-503
-769
-1113
-798
-1026
790
1033
-1306
-487
-559
-336
1228
-558
898
988
327
248
282
-113
-12
191
-211
121
82
77
-379
88
-52
357
-48
-345
121
-222
-9
153
-226
113
-117
-52
220
154
75
121
-520
-209
23
48
188
-44
-139
-320
434
-10
52
-239
82
-17
-19
136
20
-346
-11
10
167
60
520
180
573
96
19
236
-331
129
-245
40
-16
-40
-130
36
223
-811
268
40
50
-556
139
429
621
254
6
424
3
130
657
-237
-446
340
489
-752
130
131
131
589
-199
-30
76
-71
-239
-500
373
-96
-533
-145
-143
817
200
246
84
616
-32
-204
283
-480
-616
-167
16
206
17
208
94
17
-123
626
-373
327
348
-546
-66
-41
179
-290
233
249
9
17
152
135
385
-129
-746
367
228
35
-348
-455
217
-167
101
364
-162
-138
-195
947
-285
-203
-46
48
600
-94
89
163
390
-239
248
-31
34
32
315
-538
464
-138
85
-35
38
405
-277
-352
110
-606
-186
-313
244
276
-320
209
128
-207
379
-175
-604
41
-8
321
92
81
88
176
371
-89
429
-50
-109
-89
186
-42
-123
-234
-287
-457
-87
-191
550
647
125
37
376
273
94
14
-296
109
80
-3
9
-198
-216
-22
-150
68
165
-437
-10
479
301
-2
-211
51
306
-66
246
-36
-442
382
245
604
213
-281
566
190
101
329
280
-269
2
732
-26
-421
38
-73
191
-49
-93
47
-173
162
-324
254
263
10
46
-658
324
168
-1
6
-121
232
7
217
-67
-94
114
-243
51
-180
568
55
-11
9
-358
-117
-317
-160
-1
109
72
67
-43
49
366
15
78
-20
347
-56
210
-10
4
-48
-136
-37
355
-436
71
-113
204
331
-357
138
-152
-91
-124
222
225
57
404
261
-146
128
-58
126
-119
-273
-164
-1
-527
-128
95
-333
130
-601
-91
-154
534
433
-455
125
-142
-47
516
266
-122
-177
502
44
313
409
163
-110
-295
-255
358
112
-177
222
252
-152
-26
-526
201
485
-147
200
-31
-171
-161
96
253
6
92
72
-232
-39
229
170
-33
466
-335
-503
264
236
-1
-293
-85
153
-171
0
-108
-177
52
-495
289
-151
-25
188
4
-135
99
-113
344
-74
-100
81
-15
36
-103
-29
36
-305
-179
143
9
-305
-29
76
-151
340
-39
-91
50
-20
-21
163
-89
-82
-53
12
12
33
518
16
-71
-281
-574
-158
-338
-60
22
117
21
-272
214
-29
44
-619
219
-160
322
-50
115
-58
29
313
-156
-348
-230
198
-19
258
-193
100
-55
303
-75
-210
262
-135
269
55
-34
-78
109
-41
-46
-308
-72
35
181
277
-63
-123
141
-54
-103
11
50
-19
133
37
141
-4
8
180
-256
42
66
-277
-90
73
350
203
-1
186
-244
-137
-61
-19
-393
72
438
452
-345
260
-135
-428
380
-242
-365
-258
-154
62
194
-102
97
-339
-39
-20
440
-161
-159
366
-19
750
-527
632
10
-108
-117
-43
140
-337
-107
-445
-134
21
-111
48
-101
-75
10
-2
-216
28
295
407
-723
161
359
23
-311
-153
-11
193
10
108
56
108
-241
222
-302
-502
