595
376
1390
-485
50
1796
7117
2066
257
539
1492
-7
-855
-617
-418
-606
-492
109
-845
4670
-522
936
176
165
-521
314
1476
-1622
519
2693
277
-326
233
262
292
633
-416
-2165
-4965
-127
116
67
-962
1468
-3268
167
-263
266
-956
239
-1656
-5000
-1800
233
411
1359
400
-305
831
278
3991
-415
-914
-294
-13
-157
268
69
-851
-172
-489
166
262
22
-769
152
199
3
389
368
71
-293
-913
-27
-665
299
-103
-463
866
-121
-12
49
-388
-221
-594
574
14
-354
338
-15
603
-52
-169
-15
114
-198
-64
83
-328
271
-120
-270
15
-108
-357
182
100
-182
57
-53
225
121
-297
-241
11
-3
-770
384
-265
30
-460
19
-72
-34
70
561
183
-46
-555
-145
-402
-387
1297
526
243
130
63
-84
199
-424
-210
-1363
-1579
198
23
-135
262
-54
15
-519
-2306
-465
-28
275
235
-125
-282
-272
-227
-835
6
-94
-22
3
-129
10
1653
786
97
-832
136
503
-112
533
128
477
-248
-1393
360
310
560
-324
167
621
-113
-458
211
-1013
184
-402
77
233
-2
11
-56
1508
-361
12
11
47
471
333
-46
-315
219
-279
-170
-225
-76
166
356
421
-207
-430
216
-292
-150
-358
-642
88
237
-684
0
533
505
12
433
-726
245
-31
-1083
-4
-413
-92
8
392
-126
7
139
-223
-32
274
-270
411
157
-321
144
14
224
638
2191
-361
203
-402
-153
-131
-58
77
135
1072
34
416
497
-512
568
687
-365
-462
-488
-62
-2
916
-631
1811
219
796
10695
214
-738
27
-68
-503
-697
537
383
-31
134
-706
7
453
487
1056
1017
570
318
261
-519
547
-49
1083
253
-42
-350
66
-5213
235
-56
1237
1151
142
1056
679
-280
238
2430
-2200
-194
507
-2671
-1388
-592
-181
-1275
10334
483
776
-860
-34
-78
-548
-2064
1342
5518
-570
754
907
1488
-1248
-704
-831
-1345
914
-1268
959
1163
658
184
-4362
-572
-298
-96
-1264
341
567
-2231
742
-2520
-1831
-254
-484
346
-41
-924
701
-276
214
321
528
171
-629
-349
891
-357
861
-165
1383
2217
401
-1679
837
1803
113
-91
-706
3537
521
-647
-489
-190
-414
1901
-903
-860
1491
549
-810
917
-152
1429
1182
-589
-840
-29
652
-640
246
172
-746
-1870
4042
1927
443
-856
779
1128
-684
-252
495
-847
565
-76
-162
1633
-995
-2429
-962
-1485
1526
170
-696
-536
-363
-2585
624
-981
-169
-631
1110
100
715
486
-214
-59
111
287
278
-466
666
65
169
-99
598
-569
-298
817
-961
830
403
35
1
672
-313
166
-86
-104
171
-217
-232
-1280
-203
614
-246
165
-905
53
1372
-318
-575
-421
-688
-195
-727
-287
122
294
89
-29
180
1060
-11
-324
449
-22
-363
-1074
162
89
721
-564
-248
580
-71
-267
-1153
-127
51
-113
1215
10
238
129
433
67
229
199
18
627
-160
-506
60
286
60
-199
-737
160
-231
-305
-559
254
-368
-411
458
142
317
-5
224
301
-271
351
19
-268
-207
471
-201
-432
-533
1068
-136
-266
-2041
196
-796
582
154
594
18
-377
-12
475
453
20
272
20
61
1135
-583
-645
1391
-2119
552
922
1629
-15162
-98
308
-149
-414
3253
-230
-1660
356
9242
654
-948
96
-98
-540
-864
280
-365
-122
-183
-619
655
-275
-18
-111
-370
208
-167
-344
-423
38
-566
104
3031
395
-1277
154
1214
68
-438
1044
3187
306
754
1157
-5
-7545
-662
-104
-2406
-342
-217
1670
-457
-2123
-195
-1148
-7578
101
-121
314
707
-710
-230
169
356
-581
-158
260
575
87
751
-122
139
199
-28
726
39
-436
-51
-1160
1377
-607
133
194
-148
-64
-299
-470
138
-225
446
-11
-1382
-685
-1350
238
-232
1624
548
-756
1349
-1198
-682
-72
-219
-1112
-638
-709
500
297
-143
-622
711
312
-11
-946
290
-68
-282
-1263
-21
40
220
789
192
8
-228
1378
427
-257
-789
19
-349
175
371
-1418
-290
226
-143
34
-138
-56
-1101
-11165
-2723
-376
-201
-656
-94
-1064
6968
-13472
3078
79
260
-9619
-464
7002
-554
243
-3007
-174
4585
-2449
-516
-412
-1076
-6819
423
165
-191
1
-238
254
-8083
51
729
89
-340
-2565
798
25
-1664
263
403
