-195
-86
-125
640
265
-710
-212
-1005
-98
-134
252
-289
-1171
598
216
-579
278
-178
-553
-934
-376
316
-719
404
319
-950
651
-182
-280
567
-757
865
10
185
385
51
-676
-827
189
-502
-415
-354
184
349
-68
1289
-229
-456
-348
147
257
-5
-528
316
-612
406
-907
265
1136
-346
870
-7
781
169
677
-662
-940
-95
-806
323
-302
489
111
1037
207
-485
1074
-492
-488
523
141
-611
254
-20
-351
-595
-936
64
-378
648
138
-815
729
666
380
792
-572
-101
-159
-693
726
-123
-1065
119
529
9
-306
153
-129
-455
-88
-112
-916
549
-104
-246
-20
717
-1175
853
-766
-299
-695
336
939
92
69
-346
51
87
420
455
267
40
561
735
860
758
193
-255
-560
634
434
-971
366
181
631
-97
-303
112
95
436
178
-215
-264
1089
72
1098
107
441
-142
668
801
-1120
-1312
1073
122
526
-532
-410
189
347
134
-84
-699
-469
387
1138
-543
1171
271
-357
-191
1421
116
-59
41
-567
-433
-420
33
-352
22
-279
-59
445
761
-80
571
396
413
31
-645
-393
350
295
221
-354
623
472
585
33
419
-46
-538
35
-1337
-159
-136
39
897
-368
927
280
-119
535
-463
-318
-264
602
-3
244
514
-762
-943
185
150
254
-24
245
-700
137
-647
432
309
240
452
-674
-919
1579
305
418
-36
-437
666
-1201
552
116
351
-432
-596
-543
1326
1081
30
-234
-509
-320
489
152
-362
551
-335
584
429
-484
-497
-1173
-248
-365
783
-1179
468
420
334
-731
-488
-652
-428
534
-91
-890
-104
-1248
-449
-1067
-141
272
201
823
1591
578
-208
1102
685
-417
839
-421
1381
312
1178
-1205
-1030
-50
752
1016
-437
425
-553
-374
35
-275
-15
676
43
889
-76
210
-689
367
14
-212
162
214
-202
435
193
409
-1240
-89
-29
29
-137
-460
-399
-1457
-1231
967
122
-43
-1223
482
269
-231
-176
52
406
-240
591
-591
-780
92
-525
-877
-78
-293
-952
-130
-461
-167
778
-392
334
-325
203
-91
577
522
-320
-286
813
1407
-496
141
45
192
881
-288
-5
406
39
-114
-770
34
660
-551
182
-227
-447
1399
-232
-328
968
121
-10
-572
-42
-436
-96
-331
-660
471
82
450
737
119
-479
214
-588
800
-209
346
676
-623
1298
-384
220
-184
-782
-290
-1096
263
-70
284
1410
506
248
-262
-701
-113
342
-365
855
555
-454
-714
169
-87
-272
797
260
-701
165
-960
-262
326
332
97
376
1192
-1191
174
130
-297
730
1205
390
-528
-450
814
-243
675
600
-1159
659
103
-467
982
147
-275
-517
660
-191
364
-121
676
219
-528
402
92
-111
-203
-167
-441
-33
-453
-298
-581
-724
-325
-254
-294
-70
-556
1370
-261
1085
-211
-445
-300
1171
538
-475
142
1249
240
-981
-884
-592
-27
-216
74
-1171
1091
535
64
663
11
245
-52
1210
-912
507
472
-808
-859
434
-8
110
22
-93
-924
-667
-301
-15
-162
742
640
-23
-257
252
386
-159
-1246
-722
-498
943
32
949
-260
267
292
-1164
-1262
-404
272
-499
-143
749
235
-328
-439
-258
424
434
-971
295
-523
32
144
-305
1201
-43
-107
-531
-309
-319
-402
875
-84
172
-1219
267
709
-128
1288
650
-100
-231
1149
-881
-244
-78
-385
-756
339
-576
1398
326
864
468
966
144
431
-15
-173
759
-20
-219
-370
-329
-98
-84
219
-291
-133
517
585
-639
799
375
-595
-527
-1465
-1178
436
-441
106
483
-909
-1045
-358
-68
202
-61
-450
150
797
-73
-12
-590
-1022
-416
-371
102
406
-390
262
-335
-736
-141
543
-796
156
309
-154
-1137
-762
711
406
-583
62
311
489
-347
-258
-767
436
-292
-528
-15
-58
-195
-110
-142
169
-783
609
-631
-630
-54
228
335
945
-122
-170
-439
830
-210
-256
-383
569
-1235
318
-23
313
744
1200
-778
981
-978
-1472
274
105
1230
-100
-5
259
42
676
401
567
480
256
-186
1054
-104
-134
-454
-582
691
-275
758
-517
-337
49
-155
-1104
778
-1289
-873
697
170
896
-407
726
198
-1485
1469
-43
710
-403
125
80
1456
582
-979
-321
-59
82
-1159
548
-643
750
-303
476
463
-13
