956
1845
3743
-2326
-456
2003
-1271
-292
958
1038
1529
-526
2293
-2498
-3376
-2011
-98
49
388
1539
-2529
-1480
1584
593
-1426
-1054
-1922
2749
-946
-629
-341
-4750
241
819
1996
3576
2504
-771
-1351
1013
2107
1903
-946
-2849
3540
3703
-894
-415
1697
-1795
956
1682
-3134
-248
1744
-1035
-4760
-3329
2649
-332
-626
-3838
-1979
1535
-3807
2601
-258
26
-3127
2893
-3051
-2367
-2425
1515
3122
1515
2109
10429
1306
-5859
1497
1031
3379
71
2390
-672
-609
-1469
-2036
899
256
1636
948
-822
-1791
-2875
3599
5053
-1248
897
-1740
2138
1111
-1559
-118
-2465
-1314
-439
2360
-923
-282
-1141
-601
-1135
-819
529
-2087
-1145
-7
-1955
29
2846
3138
-1112
-396
-798
-3750
133
-1377
2839
916
2332
-3023
2908
1003
-1250
974
-677
1293
2368
1665
-699
-4126
2005
-3728
-722
-1036
1609
1591
-1201
-1028
-1176
-2112
-3628
-46
-1164
-1936
-1721
2093
3675
-1616
-170
1743
-1630
-923
2887
-60
-1632
-468
189
973
323
2503
1465
1686
-3179
469
-969
-638
-3267
-367
1520
1034
1002
-2374
179
-3449
1165
1109
3226
833
1064
-1946
-1683
915
-1456
-857
3028
-2148
2575
791
-356
963
894
214
1015
2681
1545
-1139
-2589
-3323
1591
-75
728
440
-1644
-1717
2894
-276
-537
-690
829
269
2179
-1165
-2157
-1426
-174
-544
-614
1624
-859
-681
-1753
1207
1187
-1841
2059
-3467
1258
2833
-2476
-2957
-161
185
1858
-45
4224
4154
-1165
-2396
1714
-262
-410
-1201
-903
-1339
-1504
1135
-3196
1826
4635
-957
-1778
1080
71
679
-435
-985
553
-2116
2377
2069
-1172
-48
2866
741
2632
2677
-2390
-1892
-594
1621
-815
-1426
2997
-1608
-1076
-2211
-2009
431
440
-2330
3889
-318
6321
-2503
-933
-315
704
-1049
-1345
-2406
-3258
158
601
-153
-1032
1885
-709
776
-564
-769
-1695
3770
1606
2172
360
-174
-2023
-2092
-3107
3036
-2129
2155
-1686
40
1796
-1235
-4939
-1468
547
3132
1376
-1694
1770
2730
-2031
640
724
-1533
2986
-849
-1373
-4049
1091
291
397
667
967
1423
-1071
-1212
2639
-176
-988
-238
-106
1211
3892
829
-2974
-295
4110
-2362
965
4182
1982
-1621
1672
-5348
-1884
2935
296
256
1328
138
517
3203
-2127
-260
-1902
1132
5082
1980
2283
-1444
-669
-632
3141
-2469
1101
-964
551
-723
755
-563
2020
3025
-1402
-1185
-190
-5701
-417
-2136
-676
1949
1125
1022
3196
210
-1572
2323
-2336
710
-5762
-1147
-464
883
-2351
401
-623
-3601
-187
75
-1020
2146
567
-1471
2128
1918
-2889
-1362
-1862
-3507
-1132
-872
-227
2514
-779
2157
-2331
-987
-1137
922
-139
-1395
150
2449
-4735
5645
-1237
-4163
9994
-3616
-676
-1385
-953
1881
1742
-3423
-231
1048
183
1758
-4083
-1568
-872
-1015
-1237
-7037
-917
65
2125
-4251
-568
-145
162
835
-428
1758
-2046
1980
-182
-2114
2581
-1619
-955
1818
-1259
2239
-581
170
-77
-6817
334
3657
2508
3252
2036
-2316
-4529
895
619
6133
1332
-1549
-2221
448
-4917
-3057
1163
1128
-2500
341
5024
1239
-994
693
609
-4303
-49
139
44
1034
-2397
74
-2026
5096
-562
-1274
2199
2193
2554
4513
-3045
-1939
437
84
4866
-407
1868
3471
825
1546
695
-3995
-307
-1911
1132
-2599
-12406
-1836
-1182
-715
1161
-3138
1022
-393
-2128
2770
2272
3558
-2633
-152
1383
394
170
4331
-1445
2096
-2944
3912
-781
-4269
1503
-1524
2978
2093
-2856
-32
4409
396
487
-3542
1974
-106
1638
-2180
1056
1327
1833
4460
-867
-3385
-2169
145
-1211
-4771
-1154
2743
2537
3935
-172
-1438
1725
4141
-2812
-324
-1103
-2623
-1752
-2027
-3026
426
-332
450
-1840
4486
2047
-1573
-316
-1749
-555
2270
2157
-4924
367
-54
1833
1252
-1616
679
-4032
1257
2241
-1681
-1937
-1709
-6819
1020
-1476
-1579
1983
1009
-890
-3590
-996
-220
-717
2192
1129
768
-2110
3013
-1606
1324
-2928
-718
-414
-2019
-504
-1786
-1435
-280
1393
1654
3795
-2726
-2019
1288
-3753
3783
-18
2779
950
-235
2345
2021
2497
-4274
2247
-260
-804
-1306
2862
785
-2014
2217
437
2834
-220
-629
-317
-814
-1127
-2231
-2576
567
1988
-2670
2272
941
-3304
2159
-1404
2255
-1935
1171
3134
1633
-413
-625
184
-2124
1167
994
-488
2371
2208
475
-330
1664
-1116
1307
1019
-44
1246
-93
-2594
2382
-1098
-1521
-1499
295
2158
1945
1725
-2002
3544
4199
331
3080
-1746
102
528
1910
3065
-3170
1831
2449
-1021
266
3975
-2308
-3154
-2082
3984
-1074
1234
-1013
3079
1579
89
-2009
184
1045
1481
