11
28
-13
-162
-87
217
40
158
124
-24
-227
-91
-38
168
-219
-218
-101
70
41
-320
-66
-136
-175
64
39
-29
-49
140
-68
189
242
-46
-50
-67
111
251
23
-75
312
131
144
-240
-54
141
196
173
-151
-205
-145
-92
-3
26
-272
-262
-36
-113
-73
12
48
201
28
99
121
138
150
86
-239
122
16
-160
234
-7
122
-77
180
-316
3
-251
-283
143
-46
-417
163
-20
19
120
302
92
313
-473
12
-74
45
-134
34
-94
-263
378
-271
209
-416
7
4
157
257
-52
-207
-220
91
-1045
15
-31
-56
-77
953
-59
338
7
405
24
679
877
-13
-57
-443
162
152
-170
-38
49
69
28
82
-182
-84
56
-160
70
60
233
91
-36
131
117
220
-16
113
-22
-26
-78
-73
31
-52
117
-16
-197
-96
19
-33
63
-272
89
-105
-50
-13
123
485
85
70
112
-112
79
-121
-28
34
-53
57
-90
-34
-43
12
-606
-93
-146
-45
-477
103
74
0
-20
48
-296
-3
-57
-103
376
89
-309
205
89
-6
162
292
-157
23
435
-20
-449
40
-74
125
-82
-90
-291
-153
291
-339
-155
70
230
120
89
-37
-99
-149
-103
-180
46
136
-58
-85
152
52
7
-271
36
618
78
-325
-64
37
4
81
31
-24
27
303
-233
-27
-274
25
-118
-138
103
85
4
205
-195
-89
-7
1
-163
-213
166
86
60
407
-130
64
-294
-94
-77
4
1
-186
-51
-40
96
18
-109
40
-9
75
69
237
19
-57
26
-48
137
50
47
-117
-114
67
-97
52
-292
-2
-240
69
121
109
130
113
-111
-37
-582
-62
53
-136
98
14
4
48
-21
250
192
-58
199
-76
-138
58
52
212
89
-127
-364
184
-107
-34
-324
-8
34
186
-107
41
-177
-166
-83
-159
185
-45
-66
-160
119
-275
-2
183
45
178
161
-75
-225
-23
95
41
50
10
12
10
-69
-230
-90
8
-272
145
625
-89
-7
-153
9
-171
-262
-167
-129
-48
225
-67
-22
-91
17
119
64
-90
-17
63
190
36
-375
-137
53
57
119
121
207
202
-58
-122
-142
131
299
-17
-158
48
-26
23
49
-132
-73
-82
-161
-178
-228
121
-394
-126
113
49
-54
-105
-56
6
-7
-115
-50
-173
-100
108
-120
128
69
-136
10
7
181
27
-44
-95
46
-33
-184
-57
-30
50
-14
-71
27
-190
-205
-142
429
-94
-247
-96
-92
544
181
8
-65
-302
-22
-114
-250
49
-116
62
393
59
229
96
-26
28
-28
-293
43
41
-5
15
153
-53
356
-23
107
106
-151
-27
-311
543
5
265
-429
36
227
-15
-312
-127
-109
-143
101
225
-113
108
-14
630
86
-108
-225
4
26
-150
21
13
-47
-92
168
98
47
-73
82
21
-135
10
-41
10
30
47
-54
-92
26
-99
-14
2
-42
-11
-3
80
11
-12
8
47
109
19
-70
-39
19
123
-76
84
-73
-103
40
-38
-4
-103
-18
-43
-3
103
39
106
-53
-43
-53
-119
-37
-55
77
39
-43
6
-13
-153
-63
24
-71
-145
120
93
13
140
28
113
27
-103
-173
26
279
-531
237
240
16
-317
39
595
158
-101
-29
-10
358
20
-137
115
32
-1
133
170
-61
-5
-170
-64
-133
-181
149
183
-38
16
-129
-220
76
-57
-9
261
345
-84
-151
91
-231
-141
32
238
64
-12
-37
-136
283
7
101
-394
131
248
1
-144
317
199
369
139
43
-118
44
-246
90
110
79
72
-413
166
-126
322
-24
246
420
120
-130
-71
-89
166
-195
-559
-252
-167
590
-169
162
-17
228
-166
-185
-363
164
655
-120
-8
-196
581
-171
10
88
-276
-50
-286
165
237
-108
191
-234
109
222
-41
-305
90
118
-266
-93
149
-139
47
283
162
66
490
205
121
35
74
-49
-202
331
182
42
137
403
40
160
145
205
9
-156
-204
-24
-279
-228
192
-314
26
38
211
15
-104
57
-4
63
-295
177
-226
-47
-93
31
-330
-168
-71
90
246
11
309
262
-103
-45
-124
-531
-157
-171
-50
-206
-96
310
-304
-120
