1255
-3785
-687
2093
-2888
1985
-4017
-1438
1935
3548
-1401
-767
-1198
-515
2298
-1432
-4214
-185
4088
-1296
-2141
-2355
324
-2935
635
-1325
-1459
1095
-2817
-1878
-755
-364
345
-1820
1583
2140
2817
-2588
-189
1062
1156
-3654
1303
-2278
4100
9297
-885
-335
-3298
-37
-269
3054
-58
-2736
-1834
-1444
-1627
-1620
1598
-103
414
-1346
-1202
-580
-147
-2684
-1689
171
-164
413
-50
-4432
1843
1790
-600
1414
-1298
1426
4575
-144
732
-1448
5087
2292
-2528
-128
2056
-312
-3308
498
-476
1437
-5558
1693
1688
6285
-651
3174
1909
-4321
1719
936
4871
2348
-1247
-1344
-378
108
-914
-2566
1221
-1737
2594
3693
-1763
509
-1948
-61
489
-1539
1036
5590
1091
201
-423
475
-4869
2026
-394
-2432
222
1272
-545
-4
-637
106
2521
617
777
1117
-1407
-823
-3559
244
1426
-971
1763
-3470
1266
1499
-3914
-2683
-829
-1823
1904
369
-1348
4289
2340
2064
2224
970
-1674
886
-654
1897
275
1303
-4418
1985
-2158
-1198
-1090
1858
-877
-2065
1767
-737
-2746
-408
1006
-659
-2524
-3461
-5814
-279
-5031
-719
-1409
2072
5925
-5041
-2333
2127
-1197
-2315
259
-4266
-537
144
3063
1086
-666
-3630
348
-2382
1467
4960
344
-4221
-1145
-2182
-3004
3413
-219
2284
1776
-586
2067
-2273
555
-2802
3397
472
1309
-126
2113
-2309
501
-1698
-1404
-2303
2342
647
-612
4332
-2900
416
-289
926
-3015
-225
2294
198
-178
3678
694
3305
4308
4014
-6355
1182
2173
233
2846
-1165
576
190
-1081
-3470
4419
1140
-146
-5820
35
961
240
3297
-3169
-1625
1316
1846
-1576
-3878
-2964
1885
1565
4142
948
1728
-1333
-1232
-379
60
1520
5669
2045
-1044
1231
1491
-2316
-1813
-711
-3036
-5307
-540
-614
-1827
-435
280
-329
-2631
-2392
-2103
-1736
542
-1164
-4733
1940
261
-711
-3544
-1798
2917
155
-545
-1289
-3627
4210
79
-1416
-3717
333
1950
2939
-453
-1735
-676
-215
1713
-1441
4724
3084
556
1397
-949
-1767
341
1529
-2125
-676
4712
-1171
-1226
1611
-892
-1146
4072
-1413
2822
1053
255
2251
1563
1521
-1994
2637
-1136
3035
3523
1440
-68
-974
1999
-1894
3238
-3194
3685
1283
-2229
1889
-217
-2323
1065
1860
-3206
1512
-3834
-1939
5184
2589
-3171
-4239
-1397
-2436
3014
-236
98
-1907
-5676
-1182
496
2589
-1941
3867
72
789
-1349
2721
-422
967
-4054
-995
-875
-1951
-3172
3256
-1859
933
1049
2300
457
-2435
-838
4066
-378
-2774
968
1196
-1289
-2673
-646
1330
245
2862
-613
1036
-5265
-754
-2594
-2684
463
-217
-293
-3385
2991
-2000
-209
-2958
-1313
476
2180
3356
1719
71
1934
512
-2428
3404
-537
5505
-2663
-4103
7014
-3482
-204
749
-501
5774
-2020
-143
-1261
739
-2503
-604
-387
-3946
3631
-1074
-4145
-2719
1539
523
-3034
-2622
-1506
3847
4184
-904
1090
2121
-2235
-758
-1468
0
-4212
-168
-395
1762
-1362
-2068
-1178
870
-187
-795
-2542
38
-2757
-462
-3459
507
-233
-3203
1300
1679
2514
-176
-2789
2627
397
-2718
1507
399
-3695
1225
1200
-61
-3409
-339
-837
-2199
2830
-4447
-208
-4151
-860
363
-583
1458
348
-1083
-3508
287
3554
316
2329
-44
1953
-2150
507
-1086
2160
-588
3933
6625
1714
-655
-348
-1740
1388
4873
-255
281
-604
-3064
3880
-1348
111
-3128
-2734
388
1309
-809
1086
2059
-170
25
2201
380
1038
-2876
-1526
-4792
-190
-1889
4344
2171
-270
219
680
-1911
-1198
1844
1609
4171
3995
-1745
-3058
-1230
-1313
-1673
1822
247
1247
1061
-1613
2916
908
-315
4667
-1763
-766
1559
480
-254
1971
2059
-1475
805
-304
1595
6298
-2348
-3841
2404
-1157
-2676
-2588
1365
-2125
-3821
-3851
-1015
3367
434
-3217
-847
620
-922
-3501
-2907
-40
4345
-3865
379
-1996
-4043
4434
-982
-3973
147
1927
473
3549
85
-64
3291
-255
-253
2815
1628
4592
729
-1077
-265
308
183
-1361
349
2046
-4749
1392
-209
-1867
-2900
348
-753
3676
1762
379
-589
-4850
3687
-1257
1881
-1843
1454
-3075
1686
3293
1144
-904
-2259
-579
-2756
-3589
926
4335
3239
-1490
-1172
-1011
750
1109
1478
-3737
5250
-796
-4081
-540
3614
1084
975
-256
-1777
772
-606
-3605
-2346
384
-1259
2637
-1774
168
-1979
-1194
-306
1347
-2633
2727
-576
-1121
6825
-485
-133
5511
-1985
223
-1210
-2203
-1720
-1799
5312
-2153
713
854
3590
-2324
-857
-1829
2680
3943
1672
-1706
-454
-557
-11
-5527
-1492
1694
911
1342
3046
-411
-1646
223
-1805
1073
-1935
-3453
4452
512
-807
1327
-2668
563
-227
-486
