-36
62
90
-42
9
124
115
12
15
222
23
102
-59
85
51
-53
101
18
-49
-57
95
-20
-30
8
38
48
49
24
-9
70
37
-94
48
-43
16
120
70
11
50
-80
-85
-157
-99
-41
-168
-700
24
169
16
-39
-234
0
69
-259
70
111
-39
-19
-25
37
-82
18
-43
29
689
-51
2
-167
-132
-88
-73
-181
-315
451
-207
-69
-87
67
561
-190
65
-109
-179
-2
-222
-100
39
-296
-343
222
47
-122
318
-132
153
-108
405
121
-311
83
520
26
14
-728
46
342
-15
238
-324
-50
-139
62
96
-254
-134
-87
-65
-322
121
176
-106
64
215
415
-60
67
-3
561
-22
66
-207
-3
-32
12
2
-29
5
37
62
-12
-33
10
10
-18
-66
-35
-163
-66
1
-8
5
1
188
31
47
-29
28
-43
-13
13
24
-37
102
-6
-31
-56
-14
-38
55
11
-21
37
14
19
19
5
36
0
76
-9
90
-61
-42
-42
11
-22
-30
-67
-60
28
-13
13
135
106
-92
-29
-11
-90
103
39
75
-59
-106
-5
-24
60
-80
20
51
-25
-39
-69
-28
21
-12
63
26
-36
-31
8
-26
65
80
22
120
-86
99
-8
23
62
5
-18
-7
-97
40
-140
-101
82
43
101
-75
-26
-58
153
113
40
-10
102
158
24
118
-39
26
16
-85
22
-16
123
100
22
67
1
101
2
-180
-52
161
31
-195
-29
129
-119
-88
14
-168
-24
93
-158
-35
-106
-7
51
48
56
143
87
-43
-111
-178
12
23
-23
-79
-152
141
-104
-173
94
-12
43
-41
-221
-186
69
33
240
-21
-24
44
143
-44
1
83
-55
-202
107
51
-73
231
41
4
34
89
10
22
-54
46
27
-76
7
40
-11
48
46
20
-10
-57
80
10
-26
79
-27
-105
14
59
21
23
-11
-13
-36
37
-31
-15
-13
-63
67
34
-41
43
-123
45
13
-17
5
-25
-63
-44
-33
-31
65
-86
40
-46
-3
-61
-1
13
-14
-228
-12
129
-61
-21
37
-122
-122
-134
-19
32
24
-49
21
143
-76
53
-92
178
34
196
-25
31
-27
-49
-128
-152
26
8
-195
-239
-40
-25
-5
-97
-7
115
-57
57
124
-212
85
-80
-47
66
178
14
-62
-125
109
-27
-201
-4
-6
23
-59
-99
-21
69
95
6
-238
225
127
3
-146
-38
90
130
-108
-59
-15
-108
-96
-54
275
-159
0
62
-18
-74
82
-34
32
123
7
4
14
120
-21
-59
132
88
-55
31
-2
-78
-544
-43
43
19
-9
11
137
38
-2
-40
98
10
-119
-179
-149
-49
4
-73
15
38
-35
-127
-40
-77
-165
5
56
-1
21
35
-58
-95
13
-24
125
-15
-9
-24
8
53
17
19
56
5
43
-57
-9
-71
-12
-61
73
-69
-43
132
-72
-19
-45
-46
42
-24
42
-136
0
-1
65
-18
37
60
-36
-38
121
35
41
70
-63
-8
68
39
-15
25
47
13
52
-11
-94
36
3
17
7
38
79
-37
60
32
-10
-54
-24
88
-75
131
83
117
-119
373
116
68
-57
-354
192
64
18
74
-188
-1
-73
-221
-52
42
-113
263
-73
214
-193
-169
-126
15
-103
18
109
78
-31
-272
48
-349
227
31
158
226
-121
70
-118
70
17
-28
-285
155
67
431
-73
1
-83
34
161
-17
-129
52
28
-59
-778
24
44
-139
189
-150
-65
33
-58
-10
-229
1
4
-24
-82
-37
-37
5
-13
16
-31
-23
14
10
34
-1
11
35
-55
26
-16
20
92
60
5
4
-27
-18
-12
-35
3
-31
22
92
14
20
-28
75
-18
-16
37
-24
11
14
35
-68
-4
-80
13
-56
-46
-56
-75
34
55
1
-67
-34
-41
21
-11
2
158
-22
60
80
-77
-58
-238
63
-33
0
16
35
-351
41
-32
-50
-29
36
-84
-68
133
-102
-144
5
-1
57
45
-23
134
2
108
-1
-2
-99
42
29
41
-25
40
49
93
-2
54
-72
55
-49
-59
-28
32
83
-226
-166
-155
4
-153
9
178
-123
-89
64
-32
-106
-49
