-9 25 19 31 7 -13 11 49 -29 -3 13 47 4 -18 16 -24 18 2 -9 1 19 107 4 6 -14 17 -19 12 57 18 -7 9 -75 20 -12 -49 37 3 49 -10 9 -30 -35 10 21 -3 -8 -31 3 36 21 -43 -25 50 -6 -26 -44 19 -26 2 -1 4 -69 8 72 -5 65 7 -69 31 -18 -54 -37 32 54 -8 -2 1 -16 17 49 20 29 -20 -22 14 33 -5 8 -5 15 7 36 0 -25 14 -5 50 -26 36 37 7 7 -7 54 21 -10 -10 -90 29 12 -31 -12 -9 -15 26 17 -21 14 -15 34 -21 -9 6 20 -21 -18 10 -16 -43 71 -31 -21 -18 -14 -16 5 20 58 -16 -21 -43 4 -98 -16 -11 -48 -56 17 3 -3 -26 -17 33 -8 -25 8 9 -24 -8 27 -23 3 -42 4 -20 40 -43 8 -12 17 -10 -16 -9 33 39 25 44 -27 -42 5 6 1 -15 -38 -12 15 22 17 -17 -16 37 22 22 26 10 -18 24 4 51 -22 28 46 -93 12 -29 1 2 25 27 -49 22 26 2 2 -24 7 39 -1 36 -32 -44 -8 -26 -10 -26 -33 37 -23 4 7 -11 13 36 -4 -35 -64 30 22 -4 -10 -59 25 -19 60 23 -2 11 17 -63 -17 5 -8 1 32 94 -39 -34 -1 1 -74 -18 5 87 -9 5 36 12 -31 93 7 -56 -33 15 -53 -40 -2 9 1 36 -37 -30 -35 -29 -16 -33 3 19 -36 16 56 -20 -14 -22 15 52 -8 -31 7 1 13 33 23 -15 -47 5 -3 17 3 41 19 3 35 69 -2 -10 9 -1 -7 -45 -20 60 -1 -12 18 -18 -24 -9 -13 -50 26 -21 66 -11 -44 -17 96 -37 1 -36 12 -37 5 17 -48 19 65 1 36 3 27 1 42 -4 -45 33 -41 24 -2 -24 12 -19 -47 13 -20 -7 32 -6 10 38 -5 -34 -15 -3 6 -25 -6 13 -40 71 -26 22 8 -25 49 -6 16 -13 -18 19 -29 8 -5 32 -127 50 -6 -3 -1 -27 1 -29 8 -11 -42 -11 43 -59 -12 -19 -69 21 0 0 -9 -42 9 14 -2 41 -20 69 41 -48 -7 -12 -67 28 -10 7 -37 7 -3 36 -19 -18 -7 3 -15 -14 9 39 27 -3 -16 26 3 24 7 25 0 -14 -3 11 109 44 -12 -15 -14 11 3 -27 2 -29 26 -15 -2 74 31 20 33 38 -13 17 -49 -10 15 -45 39 54 38 5 -12 95 62 -14 33 5 42 -8 -46 1 12 -9 -82 33 3 21 6 -35 -44 -38 20 9 51 -9 16 -123 -18 -34 -17 0 -6 6 2 -42 26 0 29 -23 31 -2 0 -38 2 -56 -24 -18 17 40 4 -24 31 -29 10 -50 -14 10 -8 14 -29 -21 60 39 20 30 15 -56 -22 2 60 0 20 72 11 -20 -60 -14 6 18 45 5 -13 -31 -7 -11 15 3 -9 13 -70 44 60 5 -8 -20 45 0 -6 35 -2 38 16 7 -41 -1 23 1 -3 -14 -36 -21 11 -10 81 -32 -19 -27 -7 -58 -32 -12 26 -3 13 16 -13 -29 25 -26 -46 -12 5 -31 9 53 8 8 -41 4 37 17 -77 21 53 41 -28 -39 -36 -21 5 -11 -53 21 -1 58 -46 -46 12 -56 -26 35 -2 17 55 38 14 -21 -31 11 -58 31 5 -16 20 -23 12 -42 35 52 -31 -7 1 -2 -34 28 34 12 55 11 23 32 -13 -22 -9 15 16 0 12 1 12 66 16 2 -23 -16 21 37 18 -11 13 -113 -42 39 27 22 -14 2 -34 -17 19 -8 -4 36 -41 -66 37 8 -5 28 72 -52 24 37 -17 14 15 -31 -22 9 -28 -14 54 12 -24 2 -31 13 -51 -7 19 14 30 20 18 -14 19 14 -13 73 -42 10 19 6 -53 3 -6 -9 4 34 37 -26 7 -36 -1 25 -24 -41 1 -11 65 -40 8 13 8 20 50 11
-19 14 -28 -5 -29 15 18 -60 73 18 -27 27 -18 36 3 1 19 -4 -30 -9 -25 -72 -28 -54 2 73 76 76 -18 -34 53 12 79 10 -9 -47 -59 15 -6 35 0 11 -3 -15 0 -34 -16 -22 84 -4 -10 -29 -6 -5 -7 -31 6 27 59 -11 -7 8 36 78 32 -10 -35 -24 -48 -15 26 52 44 -8 39 -13 4 11 39 -30 -39 -2 -36 -5 -16 -40 26 1 20 44 17 -2 35 17 -20 22 20 36 -14 -11 7 -13 -27 22 39 -24 51 -17 9 46 -8 12 84 23 27 -32 -18 -29 -21 -40 -37 6 -4 28 -30 43 50 20 5 96 -69 -22 20 21 119 -6 -6 109 59 33 -10 10 40 -20 -19 67 25 -23 10 50 -63 -12 -27 -14 -18 -17 -56 50 20 -51 90 -5 22 -11 23 -51 -12 -12 28 -67 21 3 -89 -38 26 42 28 3 59 -34 23 23 -21 14 20 33 -23 -7 34 -17 -61 -32 -26 5 20 -20 29 -49 26 -3 25 3 25 59 63 12 24 7 39 30 -97 -15 10 -9 21 -17 -4 14 19 1 -22 -55 -19 4 44 3 47 -19 -10 -13 43 18 -20 5 12 22 26 11 19 21 11 -23 -17 6 -15 31 -34 -31 -127 7 39 -21 13 37 17 38 40 64 42 4 -3 -26 4 42 -23 27 -33 -16 -34 -22 63 77 72 -23 -9 59 -38 -13 -14 76 18 8 33 23 -56 66 8 -22 102 12 29 -5 30 9 37 14 22 -39 97 -11 -44 -30 -4 26 -40 43 -3 107 -6 66 -81 -33 -24 15 56 22 -24 -1 -13 -30 0 37 31 93 29 3 -16 19 7 110 11 -25 -50 -29 -25 -2 -80 -22 -50 46 1 31 -29 -11 23 25 -54 -3 -22 -12 -2 -53 9 -17 9 9 -27 26 54 4 -22 -3 -108 11 27 36 22 19 -65 16 -37 -66 24 2 -20 -40 61 28 6 -17 14 32 8 10 39 29 -8 -2 -9 35 12 -11 4 81 -74 -27 17 50 -38 12 -14 18 -23 2 -20 -3 -18 33 7 3 19 6 -52 -15 -28 12 37 29 -21 6 -36 25 -20 39 11 -14 15 -56 0 47 6 34 -25 26 -7 77 35 -59 -17 10 -18 -23 33 -22 11 7 10 49 15 -23 50 10 -18 9 -61 45 -42 13 25 -14 52 0 -24 11 27 -34 -19 46 -37 11 2 26 30 57 -17 -29 1 32 12 -5 80 58 -9 -38 -66 -7 -9 29 -33 4 9 3 -11 14 45 49 14 -4 1 21 -25 8 -9 -9 9 -8 44 -43 -34 5 26 3 9 -15 -64 3 29 21 13 19 38 -58 -16 -29 6 -7 -22 -24 -79 -3 -14 0 45 3 -83 19 21 -7 14 89 -6 28 -63 -35 -20 18 -4 -31 49 9 -9 -3 -18 44 -10 23 -44 -5 -46 -14 74 -39 -1 8 -30 -14 11 25 52 7 -67 -13 -55 2 -40 43 31 19 44 -3 59 -51 18 10 -27 10 -14 94 -3 83 -26 -17 15 27 20 -1 44 12 95 -2 12 24 15 18 -16 -16 38 -1 -57 9 35 -19 53 49 -7 46 16 6 -11 3 -52 41 13 -32 16 -35 0 -22 74 3 36 -56 32 39 5 12 -13 -23 -51 -35 24 5 -15 -30 59 -20 -12 41 11 -20 9 -39 -16 -13 -33 -13 11 -34 -20 -28 10 -24 14 -9 -26 12 6 12 47 -50 -16 51 -25 38 -25 13 -7 -5 -30 39 -44 -43 12 37 29 15 28 -34 52 -2 -20 8 -7 38 10 5 34 22 8 -5 -45 -27 26 -37 23 17 44 -4 20 -44 3 56 -1 -32 -32 5 40 97 19 7 -7 25 -25 -8 -8 40 19 14 3 17 8 13 -34 -10 -36 31 -15 21 32 -4 13 34 2 4 -6 -5 -38 10 -4 29 -4 9 25 -7 -6 -4 -9 -3 33 28 -33 34 2 -29 -4 1 16 58
-59 -7 -11 13 5 3 -26 -4 -16 24 -28 -13 -34 27 0 15 -20 10 24 6 5 37 17 -7 34 -33 20 0 7 -9 -11 -2 2 2 -25 -54 5 33 -14 -12 -9 7 -18 34 -20 16 -22 -11 31 27 23 -8 -19 -25 10 20 7 20 21 17 17 -5 40 12 22 39 -9 12 -35 -19 -8 8 19 -1 29 -14 11 8 -1 2 -9 14 78 19 19 -15 -1 37 -6 -39 -3 -13 11 20 -2 42 -24 -1 -31 -13 20 23 3 -39 33 -16 16 3 -29 3 9 1 21 -5 10 -3 19 7 15 -7 -7 -24 6 6 -16 17 -1 -17 17 37 -50 -44 -24 -10 43 -22 1 -12 13 9 -17 -28 -7 -8 25 -72 0 40 -2 33 -35 18 22 -13 5 20 -15 7 -7 13 24 2 -5 1 -63 -21 -3 -13 6 5 38 20 13 25 45 -24 -10 14 -14 29 21 23 -29 -8 -13 8 -6 3 4 -44 42 4 8 17 10 -3 7 1 12 -16 10 3 -4 -18 -7 10 1 -52 21 2 -62 23 16 -1 -17 -4 2 -20 -29 -29 27 36 28 15 -11 10 11 -55 15 -13 34 2 20 -15 14 31 -6 -29 -12 30 -55 4 9 50 -6 15 -37 -31 9 -3 -4 -15 39 17 12 -54 -20 1 2 -28 -3 28 -48 34 -3 39 19 -3 -11 14 17 -15 30 15 3 -15 -2 20 27 -37 22 -28 6 46 -13 -31 12 27 -13 5 -18 2 -7 2 -4 2 -5 21 3 -7 6 -3 18 29 -11 48 6 12 4 1 3 -10 -34 15 13 18 8 -33 9 -6 11 -10 -28 36 -19 11 -4 -1 1 68 -15 48 45 15 22 0 29 -4 -10 -19 19 10 -18 5 -4 7 -21 -4 -11 -8 19 1 11 -7 -16 13 2 -23 61 41 13 60 -19 3 7 24 -26 1 95 2 10 -6 -7 13 3 20 0 -2 19 28 26 -3 -8 0 6 -47 -21 8 0 -21 -18 52 -6 -5 34 -3 3 -65 14 3 10 14 -6 -18 26 -9 -5 43 -2 21 39 0 -18 -15 26 -19 0 7 -16 2 -9 -5 -45 3 -4 6 19 -12 -8 -19 -7 8 33 18 23 -36 12 -13 -40 -6 -11 14 14 -2 5 20 -17 5 24 10 -53 -11 -3 7 21 1 -1 1 -13 -29 17 -6 17 -7 -22 -12 14 -8 -9 -28 6 52 23 23 -43 32 -14 5 15 8 12 -25 23 14 8 -17 11 61 -35 18 24 19 -5 6 20 -5 -3 12 12 36 41 8 -4 9 36 1 11 49 20 -21 5 7 -7 -1 -40 -3 5 15 -16 -2 -4 7 10 0 -31 7 29 -24 22 4 11 27 22 -34 9 -102 21 1 10 9 -1 -37 22 80 -49 40 17 -4 0 26 5 -6 -6 -16 0 19 -5 32 -31 -17 16 7 -9 -39 -5 7 3 24 42 -22 33 -42 12 19 2 -14 20 -21 10 9 -17 47 -6 3 -2 -11 10 -1 0 1 0 -6 3 11 -6 -4 17 5 12 14 -6 -14 -29 -15 10 -3 12 -6 5 20 11 44 50 13 -17 -11 44 3 -24 2 -1 89 1 33 28 -1 -25 17 10 -6 -23 54 43 -3 -1 3 -42 0 -4 -36 33 1 -4 25 36 8 17 -4 7 -12 -13 -8 0 -9 2 -7 -38 0 -28 8 -4 14 -3 -2 -13 -37 -37 10 38 -24 -13 24 15 19 -16 -27 -33 3 6 8 -12 -14 14 -4 0 -12 -93 -47 -1 13 25 -17 9 -2 13 5 4 -1 2 -28 11 15 -12 126 -26 9 -11 16 8 -7 20 41 8 12 12 -3 -5 6 -5 0 2 30 12 25 12 -12 9 18 -15 13 2 -14 -6 -23 -3 29 34 4 10 7 2 6 11 30 -50 33 2 3 28 41 0 -42 11 8 -17 -4 -6 33 -23 -6 45 11 -10 -12 21 18 6 -37
29 -9 7 -50 0 -32 11 11 39 34 13 7 32 -32 -34 13 7 18 -44 -7 -4 -28 -4 -33 -5 -8 25 -33 -42 2 4 -12 -30 -58 3 50 -3 29 6 -71 33 38 -24 -9 5 12 0 -13 -29 15 8 -43 30 -7 53 -15 -78 -49 10 -33 -3 17 9 -59 54 -5 -25 -1 -25 -26 -10 -65 41 18 23 -22 44 -5 42 -77 66 -29 12 26 9 8 -17 10 -30 -58 6 -10 -17 17 -45 8 -38 6 -45 -2 -39 -6 -16 -16 13 37 -18 27 -6 -43 4 -10 -24 -14 52 31 -23 25 -52 -6 23 11 0 15 16 18 -12 -31 -6 -36 21 13 13 -7 25 -47 35 -3 15 -30 0 45 -4 -64 -15 -21 -7 38 5 7 -55 -11 -52 37 -10 -17 13 12 22 -11 2 -12 6 -14 -29 -54 -29 14 -47 -10 -5 -15 12 41 -50 21 24 -36 8 -13 -3 15 -11 25 37 17 9 3 30 -17 -16 -20 -42 -10 21 37 -11 50 -1 64 34 -38 -12 -19 -10 26 -17 -25 -30 2 -14 -2 -17 14 -4 14 13 -13 -65 -9 -30 -10 42 -60 -7 38 25 40 -33 -51 -43 20 9 -15 -4 -39 26 40 13 -24 -10 28 -28 10 26 1 2 -16 -70 7 33 -12 11 10 -2 -67 -38 0 -1 17 14 -5 -36 39 -39 55 14 -20 16 -42 -55 31 -29 -22 -24 8 25 -8 -11 -5 -16 -13 30 53 23 -46 8 -24 -29 -16 -33 50 71 -10 1 -16 7 -9 -12 -23 -2 26 -11 -8 -25 -26 3 -5 21 -49 -20 39 -31 14 7 8 -47 -26 -43 48 34 67 -12 9 -1 -17 -19 -2 73 22 -22 2 -40 -28 -44 -20 -32 -24 25 29 -1 -57 -21 -2 13 37 -25 20 11 -18 -53 -5 32 -25 -26 24 18 -29 2 -16 -10 -24 -24 19 -18 6 -24 17 -11 7 -7 -23 2 -8 5 -6 17 -38 -12 46 -1 53 -27 -3 25 23 33 6 30 -8 41 -19 -38 -5 46 41 -8 5 7 -62 20 19 -33 -12 1 15 16 -28 -10 -16 -34 -4 36 20 17 55 0 -1 35 2 52 31 -49 -8 -22 61 -4 26 6 -8 -8 -20 3 -17 -23 6 -27 53 -47 -37 -22 24 17 -15 -73 65 46 1 51 -9 55 -10 -27 -4 32 28 19 -22 22 -56 -19 58 -26 6 0 59 -40 -25 22 44 45 30 -11 28 -6 26 55 -27 4 70 -15 5 52 -14 -39 5 0 -56 45 -11 -45 18 -17 21 35 23 1 -22 -10 65 -23 17 20 9 -41 44 53 -2 2 3 -20 -14 13 -20 -50 47 -19 2 0 31 64 35 -27 -2 -46 12 -5 46 14 -11 32 23 16 31 21 126 -20 10 -24 -12 -19 -24 -9 2 -26 -28 -37 7 -41 28 1 3 -18 0 -34 -33 20 14 44 8 45 7 -26 -21 33 26 -35 18 70 8 27 -3 -11 22 16 5 25 -12 50 -17 2 0 22 6 -33 -22 -23 -70 2 -37 -3 -32 -8 -67 -21 -3 -48 -33 35 -41 26 -7 -40 -1 -6 24 22 -5 -17 -15 71 16 -26 13 -41 -41 25 -14 -24 10 -36 -13 -21 -27 29 20 4 -7 22 -47 -42 -97 7 -6 -3 -5 57 23 25 1 -23 -23 50 10 -15 -17 21 14 -13 -43 -21 -12 -11 -7 36 26 -15 -13 7 41 -2 1 -8 28 -4 -38 -35 11 32 -26 28 -15 -10 13 -1 24 -23 20 -26 93 15 68 -37 -9 38 8 -71 -93 11 13 76 10 -79 4 -5 7 15 26 -7 7 23 12 -47 11 -40 7 18 22 20 14 -32 -59 -8 -20 -17 -45 2 2 -11 52 9 17 39 42 -11 -11 -1 7 -24 -10 -54 -4 -15 -8 -50 12 -4 5 17 12 8 -10 -2 9 -26 -12 -31 -2 -5 -11 20 -25 -43 44 -5 -51 -25 26 7 -27 19 -26 6 12 -8 -10 -44 -26
6 -9 -16 -24 -31 -52 0 -50 -18 -45 19 -16 33 15 -39 31 -24 -11 22 9 1 61 25 0 45 -48 -1 69 -15 10 0 15 8 2 -10 -12 -15 -6 -17 13 -1 -11 18 -7 28 19 16 19 -1 -66 -21 -30 -16 19 -69 22 27 8 -1 10 -13 7 -5 15 1 -9 -24 1 40 17 25 12 74 -10 -11 0 0 0 7 -3 -20 -10 25 -38 -19 19 -34 -2 -13 38 17 -14 26 0 56 2 -1 0 -25 3 58 -3 -17 40 -10 4 13 -27 3 27 3 6 -2 1 7 22 -20 22 -16 -8 -15 18 -21 14 1 22 12 24 0 75 -108 -35 20 2 47 2 -32 0 0 3 43 27 22 40 5 8 -15 -80 12 -10 28 10 -45 -12 -57 11 7 23 -24 -14 -4 16 5 30 -10 -3 33 -18 -56 7 22 2 -22 53 3 -2 -28 -31 -1 -16 -25 -20 -29 -22 2 -40 11 16 -9 3 -7 -24 11 -2 10 -15 -2 -56 -33 -2 39 -19 26 7 -21 19 -4 60 0 -23 -43 -4 23 6 -5 -21 -38 -21 -17 -20 -10 0 62 47 6 33 46 1 -16 -2 -34 21 22 9 -25 0 -20 -12 24 -61 -9 -74 -11 23 20 -7 66 -16 -23 0 39 27 42 24 -10 27 -81 19 -18 36 34 -16 19 21 -16 2 5 1 31 54 -57 20 6 -4 -21 3 53 -39 -5 20 12 22 -2 33 -11 66 -24 10 25 -36 4 26 -1 -70 36 -8 8 -6 -17 4 -4 3 -5 22 26 -30 17 33 -13 -10 -22 45 -29 10 34 -27 -16 -35 -8 -9 -58 -3 16 -1 -36 9 -5 -10 -4 52 1 21 -48 -29 53 -30 14 24 23 -26 1 43 -6 -19 -60 -8 17 -9 -15 38 39 -16 28 -1 3 22 -4 9 -73 -18 -72 17 34 -39 -18 7 -4 -5 54 4 -75 16 -10 36 -36 12 29 -29 0 -48 16 14 -1 -49 25 47 43 24 -24 44 -4 68 -8 6 65 -12 14 -15 20 0 -6 27 1 -23 4 -13 22 12 24 -7 -7 2 14 -2 28 9 3 -26 47 10 -10 -127 21 8 3 9 -14 -20 -25 -13 0 -51 -15 9 -57 -10 -18 -18 45 30 16 38 68 66 33 12 57 4 -51 8 -2 0 14 -1 18 -62 42 -54 -5 -3 18 -5 -101 4 -45 -14 15 -39 -25 16 -15 -27 45 -22 38 5 -29 23 27 -8 -10 -28 46 -8 4 8 35 24 -9 1 39 10 -32 6 -12 64 1 21 38 -2 -6 -29 4 4 23 -24 -28 -30 5 -43 -9 -17 -27 46 43 14 7 -26 -15 -38 12 -3 29 -8 -8 -106 -9 -10 0 -23 -4 46 14 2 11 72 -6 21 -18 -14 25 0 -1 -42 -18 -23 -24 11 49 -39 -9 -1 6 9 -18 -55 50 -21 6 1 -34 22 -11 6 0 2 -27 26 6 29 18 21 29 -2 2 -16 -21 22 -10 32 -31 23 -23 -2 9 28 -29 18 0 -20 12 -64 11 -30 -11 16 14 -21 -6 -2 8 5 44 -12 -4 9 -6 42 -10 32 11 3 33 30 -30 -29 26 37 -12 5 16 -31 -58 -36 -14 -29 -15 -37 49 -77 -26 -12 -36 20 -16 28 35 6 0 -5 -29 16 44 -21 -45 -6 -59 -12 21 28 22 1 -44 -10 -33 -2 -2 11 12 18 -49 -2 29 8 5 -53 -57 -24 -20 1 49 -21 -6 -4 30 -21 7 12 -37 -50 6 -48 51 -23 -5 -8 26 -35 -60 -21 1 5 -11 5 4 0 -91 -15 -3 8 29 54 -1 3 21 14 20 18 11 -5 31 -60 22 -29 5 -1 8 -26 -5 5 -9 48 8 11 23 -57 -38 21 16 5 -18 4 -13 4 20 -8 -48 38 -3 17 -19 52 0 14 -20 3 -21 -17 6 4 33 -13 4 -26 -31 -32 -26 -23 -17 -14 24 4 -38 20 28 7 -64 7
-12 -36 -26 7 34 39 -45 56 -50 -24 38 24 -40 13 -4 -10 47 23 19 16 17 22 -42 1 -9 -85 -43 86 -22 8 26 88 1 20 2 4 0 -16 34 -16 9 47 0 49 12 51 43 9 0 -127 3 23 49 -43 -52 -26 -10 30 36 31 3 -3 -7 11 91 -37 36 -38 15 -19 56 11 -18 14 44 7 15 5 -69 53 43 -10 46 16 -59 10 -1 -14 -11 -7 21 -2 -30 36 -1 40 43 4 -9 -32 -3 57 56 -45 15 23 -20 37 -40 6 7 -21 -15 54 57 -23 -9 39 -26 21 26 -8 38 -21 30 -4 61 -35 -7 56 59 -11 39 20 40 -58 81 34 -24 44 16 -14 -15 41 -32 1 -42 43 -6 83 16 -18 -6 96 37 22 1 -19 22 0 24 -7 -53 -50 26 -17 126 41 3 5 46 -11 -93 -24 -22 7 -23 -6 21 -114 29 -4 15 26 -52 7 101 3 -3 12 21 -60 -15 23 -79 -3 -23 -41 27 -37 -4 45 -27 11 39 2 -23 43 1 4 -18 10 -16 -13 1 -37 -36 -2 41 -11 10 -43 -8 -62 12 -16 -44 62 -5 -18 83 -12 -12 20 -86 16 41 -35 68 -19 44 -19 -77 13 -5 16 -28 49 3 -12 -3 38 7 25 -13 38 -60 -43 29 27 2 -6 -22 55 -21 12 -23 10 80 106 42 -53 -1 -19 11 -111 -20 -16 -45 -19 -20 -30 1 96 43 33 66 8 29 4 -19 52 4 -2 32 18 -48 -26 5 -8 27 -13 -21 24 -64 62 24 37 60 35 14 6 -2 -14 -26 -30 72 43 36 22 20 -41 -6 -2 -10 -26 -26 -7 -25 21 47 71 51 4 -56 -28 -6 -11 35 44 -14 -69 -14 7 -55 -40 24 -7 19 -11 15 -51 -12 24 30 -55 57 -19 24 -21 26 -12 -88 -24 1 -19 -47 -32 -20 -17 33 -47 15 28 -3 21 38 29 10 -34 26 -10 -52 0 -20 -25 32 -43 15 -83 -11 12 31 7 35 14 35 3 -29 9 55 -39 -116 11 -81 7 -24 14 -27 -10 43 39 10 -28 19 41 -43 3 5 23 -24 5 34 5 -17 -19 -7 -6 -14 24 -33 -11 3 -78 18 11 25 -39 58 12 -7 92 -3 -41 -45 20 -5 -23 -73 16 -24 39 -14 6 25 36 52 60 47 31 98 -59 -63 1 -10 73 69 -43 -27 13 -11 -36 -58 -41 3 7 66 -10 -35 69 36 6 76 43 40 49 -46 51 29 -41 -59 -27 -16 21 -38 33 0 -31 48 28 -20 2 -47 -54 -9 24 -28 55 60 49 7 20 29 12 70 11 46 37 28 -1 -62 76 4 -61 -22 2 18 5 -15 25 -19 42 -4 54 -16 7 -34 14 1 -23 -2 -25 5 -49 -55 25 -15 -42 0 7 0 2 2 -40 22 35 12 -26 17 51 -25 44 3 45 -30 14 -22 -19 -59 -77 -22 -14 -7 13 45 9 7 29 -36 59 -9 26 -67 1 -18 45 30 23 -3 7 20 28 32 31 16 -19 -35 20 -4 -11 20 11 -16 -21 18 46 -20 21 43 -13 71 -6 -30 59 -5 16 22 -29 -10 36 -17 125 71 34 8 17 -58 7 -53 -57 -12 -7 -37 44 -3 101 39 -51 -7 22 56 -17 44 -43 7 2 -33 -12 38 45 29 28 9 8 -3 10 3 51 -23 18 -21 36 1 29 -10 -6 -49 -3 22 17 76 -17 15 29 34 -80 -23 33 -51 -44 -4 -31 -33 18 -23 -20 29 10 -68 8 -61 22 -21 29 7 -14 -2 35 -61 27 110 60 5 17 34 3 50 -3 50 60 -5 23 83 -1 4 -97 -4 -19 -5 33 -26 71 -35 59 -40 24 17 86 5 6 -49 -19 27 -9 14 26 -52 3 24 -5 -8 8 48 26 24 -6 -54 -62 13 -10 -18 40 14 -2 -1 -14 9 -15 -56 3 42 17 -11 45 9 -3 -1 -6
3 -19 14 1 14 -16 -36 50 38 -1 -5 43 -78 -12 50 28 30 3 72 -6 -70 57 28 -53 -17 23 13 -42 13 -3 -17 8 0 28 -4 5 -62 -9 -5 -6 23 -12 -46 -33 5 62 19 -15 7 14 -11 -31 -65 -22 9 -75 16 -36 -95 52 12 -27 51 23 -7 -38 29 -6 35 28 -2 15 1 19 83 -71 12 4 11 60 71 50 0 -4 16 -8 31 7 -28 -40 35 -3 -61 11 12 -22 -58 -37 97 13 15 -64 -1 5 -8 23 16 -10 69 37 -22 22 43 7 12 14 13 14 -1 28 -15 72 54 12 -10 -17 74 -9 -11 -8 51 11 22 33 10 6 30 -33 -77 58 49 -42 -13 -35 -23 20 42 14 16 3 66 4 -10 120 32 -12 34 31 -3 21 35 -9 123 5 26 -5 -34 -24 -63 54 25 19 9 4 44 -99 10 -1 8 -32 -29 18 -71 -3 -24 5 -42 34 -43 57 54 20 24 -32 -51 -8 -11 -60 12 -94 -75 35 -28 22 -31 0 14 98 92 59 -69 11 -46 -35 38 -5 15 19 -7 23 -5 56 -43 9 -53 -24 93 15 27 -14 51 77 -46 83 13 -6 -37 12 16 65 -25 -26 -21 13 51 -13 -20 18 28 6 24 0 -59 -6 12 -23 -47 -50 -44 25 119 -2 -4 23 27 24 -14 -23 34 -5 -94 -43 -39 10 -7 -23 -30 -21 13 21 37 9 -54 -23 -39 58 21 -12 70 -25 -2 35 23 -6 26 37 -17 16 10 16 -30 -38 2 16 66 24 -36 30 63 -74 25 -26 38 9 45 58 39 -16 71 -37 35 18 -84 15 -12 10 11 15 24 6 11 -24 5 -41 -68 12 -12 29 15 31 -2 6 55 -39 38 36 -47 41 -19 -45 104 -40 11 -25 3 13 56 65 -12 12 -36 -2 -25 -57 -4 -5 17 31 42 -70 -68 -33 -55 -19 -25 83 -3 -17 44 -50 -21 -58 -21 55 -4 -8 27 1 3 19 8 -24 14 -3 126 22 0 -29 11 92 -34 -20 -60 -10 -18 39 -26 -14 -34 -8 61 35 -5 51 -49 19 -15 18 -8 8 -4 -66 54 -1 48 -21 31 57 4 -27 53 -18 2 20 16 26 42 40 -14 65 -41 -75 -88 -32 4 -14 68 -77 23 -26 60 -30 21 10 28 6 6 29 -1 -24 6 38 44 11 14 29 1 30 -29 -12 72 -48 60 25 2 25 28 -8 -24 33 14 15 49 63 48 40 8 -36 27 -27 49 -17 37 45 -4 -37 14 29 13 38 57 -9 -26 65 9 5 -1 43 -72 -9 9 8 24 48 -26 -38 -18 -66 45 33 -45 32 36 0 45 -23 -16 -42 19 5 -49 39 45 -9 31 -60 -22 -5 -40 40 22 -29 33 23 42 19 2 45 84 27 33 2 30 -17 -31 -39 -10 -6 -19 -12 14 10 2 17 -10 10 -14 24 -1 29 6 14 -44 -40 10 -10 25 30 24 -71 -32 -30 -38 33 9 8 3 50 1 79 1 51 -9 -47 -30 3 26 0 -39 61 21 -10 45 11 14 55 -22 50 18 31 69 26 50 -33 -73 39 -46 -19 -52 23 81 9 -30 39 16 -11 -26 -10 54 103 17 45 91 41 52 -28 17 29 1 -36 -42 -61 -39 -37 -26 45 52 8 55 69 4 -54 -15 0 -11 -29 46 20 2 -4 -24 36 -3 5 40 17 -24 -8 -28 -21 32 19 -11 -13 -35 -102 -46 -4 -28 67 -15 -5 -65 -25 13 -37 -25 10 -4 -14 67 -23 -26 43 -38 -51 63 57 8 23 -68 10 54 22 8 -21 -18 -22 57 0 -78 -23 -3 65 -16 -74 -25 -62 7 -59 -2 93 -49 -25 -13 4 22 -3 -39 -21 14 41 14 1 18 6 -21 -8 -10 -8 -13 14 -11 -41 -6 15 -44 48 -56 -24 26 -15 -6 -58 -8 2 56 27 35 -20 -35 -12 -17 17 16 0 88 42
-55 15 4 5 21 -4 -1 13 3 -3 -25 -2 0 10 5 14 0 -2 -28 -3 -12 16 -17 -9 -14 35 15 -6 -37 1 34 -17 15 14 16 -27 5 -8 -11 -15 15 -5 43 -7 -32 24 2 -2 1 -10 16 24 -17 29 33 -7 20 -22 -21 -9 27 -31 -3 -12 -43 -7 -5 -13 -23 38 -4 1 -19 2 12 -16 -6 -9 -31 -7 -31 2 25 4 -23 0 12 -9 -5 1 -25 -3 10 -3 18 8 -5 11 -39 -7 1 5 10 -12 5 9 -10 -38 -25 -17 -6 9 4 -19 4 -6 -36 0 12 3 4 -55 0 -9 -8 5 29 28 -1 -19 16 12 19 -17 12 -24 3 23 -5 18 11 20 -3 -1 35 16 7 1 -22 15 -16 -1 -18 -1 14 -33 -13 -7 -14 0 -10 -3 -14 11 -8 -8 10 2 -36 35 17 -9 14 -14 -27 4 -16 18 -32 -31 -18 9 6 -14 -17 -10 27 -9 -3 -28 -21 -11 19 5 4 15 -9 -8 0 -12 -43 -13 -11 68 7 8 2 34 -8 15 -16 -14 -8 -5 -3 -2 29 -9 -15 -15 3 41 -2 12 28 -17 56 -24 -3 -16 -8 -15 -20 51 -23 -9 18 4 -10 -8 -14 -8 4 -21 -11 2 -11 -10 10 23 6 -29 21 -24 -7 4 -28 5 28 1 -36 -36 -9 -32 13 8 32 19 -43 -13 -17 39 -3 -16 -43 6 20 6 2 19 8 -10 12 1 24 30 2 -41 -37 11 26 4 -20 28 -22 -4 -3 15 27 -16 25 -25 -38 -7 1 -6 16 12 39 -29 -39 27 -20 -14 16 6 0 4 32 -5 15 7 -23 -10 -22 0 30 21 -44 6 -30 12 50 6 20 13 33 -53 17 22 -2 -3 0 2 4 -20 41 9 4 10 19 -39 1 -26 4 -42 2 11 8 0 21 -25 34 11 12 0 -34 -1 31 -8 -1 13 7 -18 -7 -8 11 -8 3 12 2 2 12 -8 6 19 -15 -4 4 -11 -21 -3 5 10 -2 9 13 -11 -5 -26 -24 -16 11 16 32 -36 -23 -30 8 -27 -8 19 -10 25 0 18 15 -2 2 -3 -55 -1 55 -18 -4 4 -2 10 3 -47 50 -4 -4 14 12 -15 -23 16 3 32 50 44 17 12 11 3 8 4 6 -5 3 15 -9 -5 30 -35 16 25 4 2 18 11 -36 -39 18 -1 21 -24 -12 -3 18 10 16 -41 -24 26 -29 18 38 -9 -34 -34 19 4 11 -7 8 -25 9 1 13 -6 -5 -28 -4 -29 -8 -20 10 -4 17 68 35 -10 8 6 -16 -28 -52 7 27 20 -16 26 -21 7 30 -12 -7 10 -8 4 29 -31 30 -12 -22 -3 2 11 23 19 -16 24 -12 52 -48 -9 10 -31 13 5 10 -26 1 -19 -10 21 7 0 -5 3 23 -54 -10 -13 8 -57 25 0 -4 8 -16 21 24 5 12 6 9 5 46 -27 30 1 -17 17 33 1 17 12 -25 14 3 -12 22 -3 9 58 2 10 -2 -12 -2 -24 29 -32 -23 -22 7 -26 -27 9 23 -13 9 27 -13 26 17 22 0 6 -26 4 8 -3 4 -6 20 -25 -26 -12 46 2 12 -37 22 13 -10 14 -6 -16 20 17 -6 -21 -12 34 0 -27 18 3 4 -12 -60 24 53 5 -1 -6 -27 5 16 0 -14 17 -12 5 36 -9 9 22 -21 14 7 62 -34 -1 -11 -2 2 34 4 7 -10 15 11 -20 -12 51 -15 21 12 -6 -13 -3 -31 11 23 8 -9 -127 -20 -17 -6 -17 9 13 -23 19 23 9 2 -11 -19 -5 28 -11 -26 28 -14 34 -23 -23 24 -2 -1 23 18 -27 3 -19 13 10 4 -52 -2 -4 -2 -21 -8 -26 -23 -4 7 8 -14 -32 -10 7 -16 -1 -10 -24 -14 -10 -4 3 11 -13 -7 2 40 17 -12 49 6 8 5 -5 12 22 -18 15 0 14 -12 14
-54 -27 53 -26 -45 5 -49 7 31 -31 -14 -40 -17 18 11 18 -32 21 -22 -9 13 -15 -52 -7 -4 -36 -9 44 28 -3 4 55 -22 6 -12 -99 78 -2 2 -13 73 -6 -39 11 37 58 -2 8 73 -16 27 7 -31 -6 24 -5 -7 -12 18 43 2 -16 -19 28 2 54 3 13 11 -20 -24 -72 -8 0 -76 16 -20 4 -38 -22 -7 19 -36 34 69 22 -5 -7 -44 -17 4 46 -59 -10 22 18 18 68 40 1 -17 57 -23 -46 -12 30 2 9 49 -13 -9 10 -22 5 17 0 46 55 41 -14 -45 30 3 31 36 -41 -27 3 55 52 -83 52 8 18 -36 21 23 19 -15 7 -32 -57 -5 59 -32 46 11 8 19 -7 -13 16 8 -21 27 -8 9 -37 -10 -7 26 3 -32 28 -3 -7 1 15 -10 25 4 25 48 -34 47 5 -21 33 -66 21 -17 14 56 -12 34 22 29 13 -19 96 3 -23 -3 -19 -20 -12 -10 11 -8 -23 80 17 -7 32 30 -21 -21 -13 2 5 47 25 -26 -32 -42 -47 -59 -5 -21 -9 37 41 10 41 -23 10 31 -36 31 -5 20 -9 -28 -25 40 0 21 4 -62 6 27 -13 49 -32 23 -25 49 23 -66 49 -30 13 -1 -35 31 -32 7 47 35 6 -36 3 -10 -47 96 -8 -30 -9 20 -107 -6 36 39 -14 46 0 -7 -57 -12 15 13 5 11 -16 0 -23 4 -19 28 -32 -46 16 15 -4 -53 -45 -20 9 -92 -20 8 -2 0 6 -58 -27 -11 6 27 -36 73 12 -17 55 -7 -20 46 25 -4 -5 12 48 0 13 -6 12 16 15 12 -28 11 -106 -34 -35 -18 55 14 -7 -37 -27 -27 85 34 -21 -32 -39 17 66 34 -45 -37 -31 -5 -34 -28 6 -63 -27 -17 -5 15 -32 37 -28 -37 10 -17 -6 126 47 42 34 14 4 18 36 68 -12 -10 83 48 9 37 -24 -36 52 43 21 -62 -60 -27 36 39 85 -70 54 28 20 -19 -30 45 37 30 -6 17 -6 -17 -39 8 -7 23 30 34 -23 5 -10 8 -2 -25 -7 -3 -62 -71 -9 24 -99 -33 9 -7 7 35 54 41 -43 9 -27 -12 1 13 45 5 49 27 -15 36 -17 11 31 47 2 -7 3 -47 0 65 43 -15 12 -15 -7 6 -39 24 -3 -27 29 30 -39 58 -15 45 -29 41 12 -62 -17 -16 45 -33 43 22 60 15 23 -10 54 13 -7 2 17 25 12 4 39 -19 12 3 -18 7 24 -45 -30 59 -42 28 -3 22 59 -34 85 -62 5 -5 42 -3 38 -16 -59 13 9 -25 -16 -28 -42 20 -11 -31 -127 44 0 8 28 -43 -10 49 -3 -11 -4 -16 27 -25 -2 -30 27 29 18 -19 -47 -26 -9 -44 0 31 -33 69 -45 3 -79 -17 -12 -43 -20 14 65 16 -37 4 67 38 23 -29 -51 6 15 -41 -23 9 -18 -9 6 -1 -3 75 -17 65 -8 8 -20 -2 -30 -49 33 56 22 -47 9 -32 -5 36 -22 34 35 33 58 25 -51 6 -19 9 39 -28 20 74 13 -55 -44 77 -1 19 12 44 -23 -42 -25 9 7 -40 -5 46 60 10 70 18 -15 -9 77 56 27 20 -28 -35 56 -8 -42 4 -53 11 -14 -34 -17 31 -36 -15 -8 -61 0 -1 14 -40 19 58 14 -20 33 -23 25 -17 76 25 35 -34 -34 -5 29 31 3 -27 41 -26 -29 13 8 11 7 24 17 -6 -7 -8 29 -43 107 24 -19 13 -32 30 6 85 -61 94 38 -22 -64 2 -26 45 40 43 64 56 -33 33 31 12 -59 0 65 4 25 4 98 -15 4 2 -14 -35 -5 -23 -3 15 -4 -13 -9 16 -18 -11 17 -21 -9 -4 -27 16 -13 -38 -56 -69 -5 3 24 -12 40 -26 27 37 62 -4 48 -2 2 -11 27 -17 39 0 2 45 -44
-9 11 8 56 -17 -18 22 27 9 4 30 50 -31 -15 15 -42 -10 25 -36 -6 6 -59 -48 -18 2 -29 -33 -10 -8 -11 23 -1 15 21 -9 -4 -51 -20 10 26 8 5 -28 3 4 -2 33 0 15 -6 -45 9 -9 -53 62 22 5 43 4 41 23 -27 21 26 -26 -12 39 22 -19 -6 -29 -40 49 5 2 4 19 9 29 -23 9 -12 49 68 6 7 48 -6 37 41 36 0 -59 31 49 -18 78 8 -44 13 -45 7 46 -68 9 -35 -4 -20 39 10 11 8 44 -13 -66 -10 61 7 -6 4 59 -1 2 -24 -23 -9 -4 35 21 126 -69 27 10 2 -5 1 9 -17 50 38 50 39 17 26 21 -13 -34 42 14 34 44 11 42 -50 -4 14 3 50 2 8 23 50 -15 0 57 -18 -13 -9 30 6 43 46 14 38 34 77 -4 24 6 26 29 73 36 58 36 60 30 16 -26 -8 46 -18 -23 32 -38 -1 -29 26 -14 44 15 -58 -25 88 4 38 2 -29 -35 10 -67 -33 22 27 -15 25 7 3 -30 -17 -20 -52 22 3 21 29 0 27 68 -11 83 6 43 1 6 31 37 42 -7 -127 12 -53 26 -19 -25 31 -7 4 -10 20 -10 45 -58 37 13 -32 76 55 31 38 -15 12 -15 -16 36 -13 47 5 -19 -22 17 43 0 18 22 4 9 -11 -10 -23 9 16 25 8 72 -16 -7 -17 35 -9 -35 -1 54 1 -7 16 -34 38 -18 13 46 -9 10 -35 37 29 36 -1 5 8 -9 0 -17 48 -7 13 14 23 49 24 14 15 -10 35 36 -19 15 -39 -17 56 -18 40 -19 21 19 42 -16 52 -6 22 0 20 19 -42 -25 -28 30 -20 19 3 -123 96 6 25 24 19 12 19 -18 -12 31 7 2 35 26 2 19 -13 43 -31 51 -5 26 -26 -3 47 -15 -6 20 -46 0 -5 37 46 50 24 26 10 1 -29 38 23 31 -14 62 15 11 -1 -6 -21 31 33 -10 -18 25 14 6 6 -2 24 75 26 -30 -17 -17 24 -12 24 -51 -14 11 38 -22 -18 15 -3 33 -18 -18 23 -11 33 -7 -33 44 42 39 53 -14 17 -11 20 33 -14 -48 -15 30 51 49 -25 -11 -10 8 7 -21 -3 3 51 35 -31 12 34 7 8 -16 -13 17 36 -6 -28 3 -4 9 -25 12 6 13 -4 6 38 -48 -11 10 59 45 39 7 -11 20 42 -14 16 8 12 -40 -39 3 -9 -23 3 76 17 46 11 -25 12 -2 10 18 1 -18 38 6 28 -17 22 0 45 37 -3 27 29 5 -8 -26 10 39 4 14 9 -42 -19 24 -2 -52 -76 29 18 46 5 38 -19 42 -4 -95 39 3 -29 -36 -30 0 -7 -75 -8 15 -4 15 -17 -23 19 -1 30 40 -14 23 -41 -43 34 -15 23 -27 -20 31 -10 13 -19 27 3 3 51 21 -10 -38 13 79 54 2 48 -5 31 4 12 18 -20 -3 16 25 35 23 7 7 -6 37 20 56 57 -14 20 5 -6 60 13 93 33 56 -38 -4 -6 4 -30 -31 44 55 -3 -40 -39 -11 -10 -25 59 6 23 -30 -20 -10 11 10 -14 15 -23 18 20 79 -6 9 -7 -21 52 2 -39 34 49 43 -17 -32 27 -15 34 -8 -12 39 32 57 14 -12 10 36 49 28 37 42 -30 25 24 14 1 10 -16 30 1 -45 11 -9 -13 19 7 95 37 -23 18 18 -7 -39 10 9 -54 -23 -20 43 52 -4 -43 13 62 38 -7 -18 1 68 -10 80 18 12 -16 -22 11 20 13 0 -22 -8 -66 24 0 2 19 0 50 11 44 25 -33 17 -57 -4 56 5 14 -3 -8 18 20 24 24 -32 2 1 31 10 -12 13 10 -21 -9 2 -46 4 32 29 -24 43 4 28 -22 2 48 9 -6
12 31 45 -19 21 -12 -12 -13 45 -18 13 -18 10 10 23 7 -13 20 -12 27 4 -11 31 35 9 -50 -10 -30 8 9 29 -4 -6 27 -10 15 -10 11 2 -22 6 10 29 22 50 5 15 8 -9 0 19 126 -45 -17 -24 24 -9 6 -6 24 3 36 -33 -13 -16 0 47 15 11 25 -31 0 -26 3 -3 -10 31 13 2 29 6 -11 -29 8 -8 -17 -28 17 -30 35 -2 15 15 -7 12 -15 14 5 -58 -24 0 57 -15 15 0 1 -39 -20 -23 9 1 -6 -3 12 -12 -20 17 0 32 -23 -6 -37 -29 15 9 -17 39 35 -7 46 -25 -8 7 -4 -11 -9 -34 40 -4 56 0 10 -1 39 -2 -13 -19 0 26 66 42 -32 4 -19 -34 -12 20 -13 9 9 14 -20 -24 -11 27 -4 -6 34 -31 -2 5 -42 53 -64 40 14 19 -14 -32 -4 10 2 -2 10 25 8 -11 15 -9 -17 9 18 0 18 -17 24 6 -22 6 22 52 -34 13 29 8 25 2 36 -14 6 -29 -13 9 20 9 -25 7 -7 19 -13 -20 -3 -27 -5 0 5 45 18 -2 15 0 16 -5 -9 2 16 16 27 25 30 12 -9 18 -17 -13 -1 -6 7 -18 -20 13 19 -4 -11 31 -84 45 -5 -13 6 35 -10 34 -27 40 -11 26 -17 20 -23 -9 -15 17 -27 -65 -45 -24 -9 1 1 12 10 6 40 -7 22 24 -9 29 12 35 -5 -64 -18 -26 10 -13 31 9 -62 16 22 27 29 6 -16 -18 8 -9 -34 21 12 -26 -13 5 16 30 7 7 -9 -14 0 -39 13 -25 10 24 12 12 21 -11 -26 84 6 41 -30 -11 -5 -15 -35 12 24 -28 46 -4 -16 -3 5 24 6 36 19 -3 -9 12 2 11 17 -29 13 29 -4 36 23 11 -1 26 -31 -25 -9 25 38 49 -4 1 4 24 1 -5 0 26 27 -26 -34 -63 25 -27 -30 -13 32 -11 8 18 29 42 -50 6 19 -15 1 -5 7 -10 5 -20 1 31 50 -13 11 -53 5 8 2 3 0 -12 -18 17 -47 2 66 5 -1 0 2 -17 26 36 -64 20 -33 13 30 -22 -4 -32 11 36 -20 -15 39 -42 29 -11 8 -29 -10 20 -7 24 12 8 5 -11 -7 -6 22 21 47 20 2 -3 1 -2 -16 -37 60 8 -24 -26 4 13 1 11 -33 3 -2 0 21 2 -40 48 -10 -35 -4 20 -19 12 20 2 0 10 12 36 -11 14 19 15 64 2 15 24 -4 -7 39 33 -32 3 3 -11 2 2 38 -44 12 11 24 29 10 -31 -16 -17 48 0 22 -19 49 -24 24 15 -10 -28 -51 2 -36 -45 10 1 -15 -22 26 -24 -19 -37 -41 -21 -46 16 -10 -12 -4 -46 38 -4 7 -19 4 0 -49 -11 10 -10 35 -4 26 21 -6 25 -3 -31 36 -15 -3 22 -8 -47 9 -7 -1 18 4 -7 -25 5 19 4 -54 -2 27 32 -38 12 -4 -34 -14 -16 -17 -3 20 6 32 3 34 -13 47 -3 16 -14 -4 -42 -16 -14 -19 18 46 22 -6 37 16 -24 -6 53 -11 11 11 -19 13 -29 31 1 19 -51 -1 27 -15 -25 12 -27 59 12 -20 25 -38 39 5 -16 10 -20 -49 -23 -35 -21 4 46 -24 6 -55 -39 -15 -8 -14 17 -20 -11 -12 23 1 -31 8 28 -10 -11 11 13 56 -24 3 -5 -10 16 15 -36 14 -7 -33 15 -35 1 3 -25 4 35 14 -14 -3 -20 5 -14 21 25 57 -10 -21 -30 -7 -5 21 23 -8 33 -18 29 -1 4 40 14 -10 18 -45 9 24 -10 48 13 22 -5 20 -11 -41 8 20 2 -5 -2 11 39 27 7 -4 -1 -21 -5 30 -68 21 -30 -4 -19 3 -28 7 11 8 8 36 -23 -24 23 15 -5 26 10 -2 -39 -25 2 4
9 -42 -6 37 -30 82 -127 0 -15 -7 -37 47 45 32 -26 -26 49 4 109 22 -10 7 18 -2 14 59 43 88 -8 44 -14 -38 25 41 21 -81 -73 45 70 -4 35 -4 30 -17 -23 63 -23 12 99 12 10 -57 -19 -87 38 20 -8 -30 -56 -15 23 23 1 52 22 62 27 39 -54 37 29 -10 82 5 10 3 6 14 22 21 0 -39 -49 -52 14 9 76 -11 -34 -67 50 48 -58 -17 9 -29 -11 20 -116 -18 31 -12 -35 118 81 23 -3 14 40 -23 12 -4 19 -71 -21 57 47 -12 -10 -2 -2 12 -8 11 -31 27 16 71 -13 53 43 7 -12 23 87 -1 11 12 32 43 -2 32 -14 -48 15 12 -38 72 -23 -25 37 38 -9 -52 83 0 25 -2 26 16 69 10 -27 0 16 -9 23 59 31 -33 -32 1 -56 -1 -30 61 -23 -48 36 27 -55 20 124 -23 1 -23 -27 -17 -10 -8 64 36 -48 32 26 -16 8 40 13 69 -2 25 20 26 39 12 -9 75 -42 7 -7 10 35 -30 -28 -17 30 6 -39 13 34 51 -25 36 28 20 -27 -96 38 20 54 -29 -19 -63 35 18 -86 -16 3 -85 6 -1 -44 -5 26 -15 -4 13 42 -6 -9 28 -29 -22 -10 -13 -1 6 29 -36 -50 39 -46 -28 31 22 35 18 -57 34 30 -56 -49 10 54 -65 -32 85 12 -75 19 -71 30 90 -24 51 3 13 81 -18 -58 10 -46 -36 -8 14 -9 79 45 7 7 -12 -11 24 17 -30 67 21 -8 33 -67 28 -27 -73 -26 33 18 40 37 -34 -19 -32 -19 -18 -31 39 11 19 -18 30 37 18 25 0 35 -13 -102 15 41 5 45 3 -19 -69 6 -5 14 11 -27 74 -54 -58 20 21 -41 4 -13 -65 -23 -26 26 -27 -25 34 17 14 28 -17 -24 -12 70 91 -46 -50 3 -36 21 -23 -4 17 28 36 -74 48 -50 -66 18 22 14 58 -21 36 4 32 38 -58 1 10 -1 -24 23 10 -20 22 -37 14 -51 30 -21 -14 19 24 1 6 26 33 34 12 -10 56 -18 -38 -13 -32 35 -30 28 19 -51 -17 29 30 50 21 -46 -32 -3 11 64 38 -30 21 -41 35 -91 44 64 -71 56 14 88 18 1 9 -50 -39 -17 19 25 -49 -2 -36 76 -40 -16 -10 49 63 5 -36 31 30 -56 18 -5 -15 -7 -15 70 20 17 -18 47 -30 67 18 5 116 -21 -12 38 -28 26 43 68 -35 23 38 45 44 -15 -28 4 16 23 5 -18 -32 -49 74 27 -31 -39 -12 60 -12 -30 -68 -41 -4 -4 -45 40 9 -86 -23 30 3 -16 39 -8 -84 -34 -32 30 119 -15 22 69 -31 9 -12 -8 -33 19 -59 8 17 10 -4 31 -5 8 30 -13 29 15 -40 83 39 -16 -34 -7 -34 13 4 21 -38 97 9 -59 -44 -23 26 48 0 -29 8 7 16 28 18 -49 26 -55 -45 -20 44 -3 -10 69 52 42 -56 -36 4 -37 -47 41 65 1 29 5 83 4 50 -21 -35 8 -4 -63 21 -86 -1 22 10 62 110 -33 -34 -14 -37 32 34 -13 -47 89 57 20 64 26 -69 -9 -8 6 -48 -38 14 40 56 0 -7 7 -4 6 -4 58 46 2 -27 22 37 -25 48 26 24 14 20 28 23 21 -81 31 -41 6 93 18 28 60 -5 -23 -17 2 76 -44 -23 29 -13 1 38 -26 -26 -26 -44 18 12 -33 -56 -16 -52 -15 73 19 -33 24 22 35 17 25 9 14 14 19 -89 -12 -24 -31 -22 -3 -4 -86 -6 8 -46 -4 -16 39 5 11 2 -14 -12 52 -15 -3 -12 9 46 -39 6 -66 43 -19 -20 4 0 22 25 -23 1 31 10 8 -40 61 -80 23 -43 3 -3 4 25 19 -29 16 26 -6 48 -21 -43 -40 -33 -55 -15 -4 27 -23 -56
27 -22 20 3 45 -13 -37 -2 3 31 -6 -13 -23 -51 11 7 12 -25 30 17 40 -20 -22 -10 8 0 21 -16 5 8 37 8 34 3 4 61 10 -4 -24 24 10 25 -14 18 2 -46 -22 -13 -2 30 2 24 -5 -56 -58 0 11 8 -48 9 -2 17 3 -5 -78 20 -23 -31 4 -31 3 20 -7 8 58 -6 -3 -5 8 -19 -13 10 -8 20 12 -5 1 -35 41 -18 -10 -4 -33 20 38 -2 31 -2 -61 -18 -7 -39 5 43 -10 4 33 22 8 -24 3 -10 30 -1 35 -9 -15 -13 32 5 0 36 31 -2 -3 6 -13 -22 -13 35 126 -39 14 -3 27 -20 10 18 -40 33 3 4 -7 -10 -22 16 -25 17 25 -17 -4 28 18 -18 7 32 29 6 -11 -11 -42 -4 1 1 -61 -6 -32 2 9 -25 15 8 41 -2 31 15 19 -29 -17 22 -32 -25 11 -30 31 -18 -47 -3 -2 -1 8 39 -23 -10 3 -9 2 17 34 -31 -9 28 -5 -17 2 15 15 47 -5 -14 18 25 -28 -48 35 1 -36 5 51 6 24 74 -6 28 -17 -23 51 -16 -7 18 -42 -11 15 -3 19 25 7 -30 -15 54 -18 -53 -9 13 -11 -22 16 -4 -63 -3 8 33 11 11 -4 2 52 12 6 -1 -24 29 1 -18 12 -20 -33 -24 13 41 -52 8 0 -29 28 -36 21 27 -41 22 31 32 -8 -5 -20 -67 0 -5 33 12 10 -13 -32 6 -8 38 -8 -9 48 22 -29 24 -38 28 6 1 -15 48 -8 25 18 44 39 34 42 -1 14 -11 28 12 48 -49 5 30 -22 -4 21 -7 -42 25 -10 11 24 -13 12 -4 46 -11 7 11 2 52 5 -36 -7 -19 8 -17 9 -10 -6 14 -4 17 34 7 22 -9 -25 0 -1 -13 -13 -35 -11 -9 -2 -9 19 3 -11 20 19 3 -2 43 46 -47 2 37 3 -54 -33 -22 -9 29 64 -3 -19 -37 30 -25 7 7 3 -11 -41 9 14 -24 -5 23 -20 -24 -2 -14 -38 -23 25 -23 -8 -38 5 -16 21 4 20 -8 5 6 7 13 18 16 -30 12 -48 -29 3 27 27 4 6 -21 -6 41 -35 -26 16 14 16 6 11 24 61 -2 -19 -73 34 0 30 -1 -42 0 -17 -8 -8 -30 23 -52 -45 -22 -11 -9 -54 42 1 -56 -3 12 -53 13 28 -35 11 34 59 -32 32 14 9 34 12 -23 -39 -5 11 4 74 -30 5 -47 -11 -3 -26 -7 0 -17 -2 10 -9 -12 -19 -36 -16 -49 1 -40 -13 8 -37 -12 -19 -6 15 -23 15 -25 23 -23 31 25 -15 -7 -6 28 -47 28 6 18 4 -19 -10 -20 -10 28 -53 -23 -9 33 -15 -12 -40 8 25 -15 0 40 -14 -62 5 2 -42 3 -28 -8 1 -41 -42 -12 14 17 -22 5 -22 -27 25 16 -2 -15 8 5 18 -12 -21 17 -4 -14 -37 -21 -8 -22 -54 -2 1 -17 3 -54 1 32 11 0 -1 46 20 -20 -9 19 43 -12 -44 34 -33 -32 -21 -15 25 -22 0 17 -51 -3 -20 -18 12 -13 -25 -28 0 -17 35 -54 -36 -5 -3 44 10 16 30 35 25 -41 -5 -61 20 1 -35 -16 3 -10 -33 37 12 19 -3 -73 16 8 28 24 16 30 6 15 -24 -13 10 -51 7 -40 35 9 6 -34 -22 13 29 -35 0 74 -17 4 38 6 12 11 -14 -41 -5 62 5 -19 9 -7 6 4 -20 -30 20 -1 24 -83 -29 2 -33 1 -39 -2 -23 -46 -87 46 -18 -32 38 22 -40 0 28 -26 6 27 -20 50 0 -44 -9 7 -9 -5 14 12 30 7 -11 11 -3 22 -13 -18 8 4 4 -2 -33 -14 -15 17 -26 -6 3 12 45 -40 -28 -38 28 -3 -8 -2 23 -15 3 35 -2 -42 -4 12 -26 17 -2 -7 -34 13 -9 -29 5 -16
-27 32 -13 39 -16 -5 43 -20 31 7 -4 14 10 -19 16 3 0 14 9 22 -13 8 -1 3 52 -46 -17 27 -10 -11 24 17 -25 9 -15 -50 -37 -56 -1 -56 -3 -28 3 -6 13 -16 5 15 40 -32 -1 -12 11 -69 17 12 -15 65 -21 -6 -9 22 27 -24 -19 9 -20 18 -28 50 -32 -5 -23 7 -20 -33 -18 9 23 -5 -19 -28 16 -22 27 2 -9 48 7 1 54 54 -11 10 -2 -10 41 17 -19 -44 31 14 3 -1 -39 39 4 -20 20 -6 5 -7 -32 13 -35 -3 0 22 -12 14 -36 -43 -5 -18 2 -25 -6 51 -1 -33 22 26 19 10 42 -7 12 -42 20 25 8 -15 -28 9 19 -21 -13 -4 -13 -28 7 21 1 1 -55 -1 2 18 -28 -23 -8 1 6 -50 -17 -17 -45 -11 68 -26 -9 26 13 30 -2 30 45 30 12 21 -29 10 -2 -16 50 -5 -68 17 1 -47 19 -32 28 35 -21 -13 -41 -17 50 -24 -15 -30 10 -127 -39 61 30 27 -25 -5 14 -11 -25 16 44 -5 5 24 19 26 -35 -59 1 25 21 21 -7 -41 20 37 14 6 -7 10 4 18 -73 -1 0 19 -19 12 7 -24 21 -7 13 -3 17 29 -22 -11 -56 -37 9 -24 30 27 -10 -14 36 17 -15 -22 33 36 28 8 11 74 24 -4 2 -7 -32 38 -21 7 8 -57 -4 -1 -5 0 9 -17 -37 23 -7 26 29 -20 30 -34 -33 12 12 76 101 -20 -26 24 8 -23 -14 -14 24 -12 -4 -68 16 15 -24 -7 -26 74 -33 -2 27 -17 -28 -14 -14 -51 -24 6 19 -17 27 19 -31 -6 -14 3 -46 -9 4 -63 19 10 2 -13 -13 -15 4 24 56 -20 25 43 24 4 -76 32 -14 -27 -11 -10 13 8 3 -21 44 32 1 13 23 -4 14 -10 -23 7 36 7 13 -1 -20 -11 -50 53 15 20 -14 34 34 -20 16 13 -53 -35 13 52 -5 43 -66 39 8 7 -2 8 30 39 -8 -7 1 10 -4 -54 22 7 -2 28 -56 13 -4 52 11 37 -18 -5 9 -68 41 -6 -25 -20 -33 7 6 11 12 -21 -16 40 -19 48 21 -3 43 2 -34 27 43 17 23 17 -6 -50 12 8 0 1 -21 8 -16 -34 4 23 -44 1 -3 47 -10 -19 -19 -5 42 46 -8 -10 52 25 54 27 -28 21 -9 -12 48 36 24 36 -32 54 34 45 -8 -57 10 -8 -10 -39 -11 4 -4 -31 6 18 16 -41 -14 -33 2 -27 -25 49 -67 -46 -19 -53 33 12 54 57 -54 15 -17 -9 -12 5 -4 50 40 -42 0 -26 -5 2 64 13 34 -4 -66 -30 15 -23 74 45 41 13 23 3 24 44 16 0 28 7 -6 -17 34 -7 34 -29 58 -10 16 49 -15 12 35 25 12 -33 47 -7 -34 -9 27 14 -42 -24 30 -2 -19 -40 29 31 2 -2 9 13 -31 18 -17 45 -22 -25 -3 64 -7 -9 -2 59 -27 0 -38 4 -13 -3 15 7 -14 23 9 -9 33 19 25 16 19 5 52 51 81 -21 -22 -46 -17 6 53 51 -81 6 8 -23 -22 -15 -23 22 -21 48 -59 -12 4 -16 33 23 -49 68 29 5 49 5 -23 -27 19 -19 -20 -55 -24 -41 3 0 -16 4 62 36 51 0 0 8 18 12 -1 -4 -30 35 -36 54 -12 -12 9 8 -11 -21 -16 18 29 46 -24 37 -17 -22 5 -3 94 20 -9 -27 9 -19 18 22 13 28 7 39 10 2 -30 5 0 -1 30 -5 7 2 -9 10 -37 -34 -36 -20 -13 -39 -2 17 -31 -11 0 -45 -15 20 14 -7 -33 -18 1 22 42 16 4 11 37 9 40 8 16 2 6 13 14 -39 -1 -1 8 -34 -1 16 -9 15 5 12 -46 -4 10 14 -14 24 5 -8 25 19 -15 48 3 -10
-48 12 21 26 -32 -10 49 5 45 34 30 -15 -40 -1 -17 -30 -19 -4 -16 -13 -66 61 0 -127 -15 -35 15 -11 -21 20 -2 -36 36 -36 2 -3 71 -7 -49 28 -7 48 -61 42 -58 -58 -1 -5 -2 29 -32 66 -51 -27 19 27 -13 -39 103 -49 -18 16 25 28 52 -40 -73 8 -49 4 16 21 99 -7 -3 22 -12 0 -5 -16 -4 32 9 -23 23 14 -7 0 -23 -2 3 14 -21 41 107 19 -8 25 43 -5 -12 39 31 -54 67 37 20 -72 15 -53 -1 -24 -6 35 34 -7 -30 20 20 26 -17 -2 -46 10 2 60 -103 -54 24 1 13 -21 76 25 12 -50 -30 -74 -27 5 37 3 9 -48 -41 59 36 17 13 -27 25 -15 -27 24 -63 21 33 7 19 24 1 50 -7 -41 9 -30 53 39 79 49 -48 -3 -31 -104 63 102 -11 75 -40 -78 -22 6 28 32 -50 -17 -41 -38 17 57 50 -43 3 -7 14 8 19 71 1 -85 21 6 23 24 7 -15 -31 -3 0 3 -18 -34 -44 8 40 12 77 -5 -49 6 -17 92 -32 74 -1 0 20 40 55 47 -9 25 7 -96 -68 33 4 51 114 102 -15 -22 -55 41 -12 17 26 29 -49 -28 -24 -25 -31 -9 27 61 -75 -65 -46 9 -82 51 -3 -7 101 -10 26 58 -44 -101 41 -76 -52 -2 8 -30 -26 61 25 38 8 -76 0 -2 14 22 54 -1 67 -70 -17 31 23 -16 -50 -23 6 62 -5 22 -7 -8 -1 -11 14 -38 24 -55 -1 -2 34 -34 -28 16 -11 24 -26 0 -33 -66 26 13 18 -31 1 18 -7 1 -21 -45 -4 69 17 34 31 79 -7 17 62 -25 -48 62 -29 37 -8 -25 39 6 89 -26 18 -25 64 -25 -7 19 44 -55 37 -16 24 -28 88 -30 -13 -15 -19 -12 90 32 32 14 -64 -1 1 43 32 -11 19 -27 45 38 -21 -54 -23 -48 -1 -30 8 87 -21 9 8 -42 -9 34 -37 -1 27 80 -3 1 25 -5 -54 -39 -9 58 11 1 -49 -26 50 6 -8 -10 39 -15 -45 49 -14 -78 37 13 -65 -18 3 32 -4 -2 -51 -23 15 -37 -28 -47 4 54 -52 7 -25 17 -19 27 -87 90 -13 77 -3 -50 24 9 -16 4 41 74 57 5 -12 1 -21 35 22 56 59 -23 -16 -17 46 32 16 -18 70 22 58 43 0 86 -19 -37 -83 7 8 67 2 -60 23 33 109 34 90 -87 11 22 -46 -49 4 -4 12 13 60 -35 -45 26 -30 65 -22 16 17 21 45 15 -60 -5 31 -70 11 17 15 -33 34 -8 45 -18 25 -31 46 -81 -10 14 0 -22 -10 -56 10 -6 -3 -8 26 -23 43 -24 39 53 -85 -10 23 92 33 -71 8 13 8 63 -11 30 -22 -55 1 41 58 46 -4 84 7 -39 69 11 -38 73 29 10 -5 -42 -35 -75 42 -21 -26 -75 40 47 47 -13 47 42 26 58 -3 6 93 18 -11 -12 -12 42 68 -60 -59 49 4 51 67 31 29 -3 60 19 34 -7 -28 -13 -50 -16 -48 34 -56 1 36 -16 -12 -6 27 4 31 46 -18 -68 -45 42 48 11 -39 9 -9 60 -67 -66 30 -22 72 5 -4 -65 -35 24 -27 43 -10 67 -21 22 5 -32 4 -9 -38 -17 -14 -43 15 28 13 4 -7 73 13 36 -5 -62 29 -10 -33 -12 -13 63 41 -32 -46 -9 -22 -52 -1 -40 69 -2 -38 -60 11 3 -22 69 -5 -31 11 102 12 40 -18 -5 -9 33 -17 2 -15 0 -33 8 -10 -8 73 -18 22 28 -52 23 -20 6 -8 29 46 47 39 -45 1 41 -22 4 31 -58 -56 21 65 23 65 3 32 11 -48 32 0 4 -10 -14 -52 17 43 -8 -8 12 74 -38 -57 -62 -7 -32 -32 -19 -5 17 -32 26 -49 23 -9 -10 -70 53
54 -23 29 9 69 -33 -39 -11 -52 28 -6 -11 -33 -2 7 -5 5 15 -12 39 -9 -53 -23 -28 23 -41 11 3 -17 -21 -3 -31 -67 7 14 -38 28 37 26 -21 2 -1 -21 24 17 -54 -10 5 83 -26 5 18 -39 -49 32 11 48 -42 -36 -14 -2 0 16 -18 26 35 0 24 -12 -49 -45 34 45 0 -24 -11 -24 3 -56 9 -18 17 -2 -12 43 -31 -47 -3 -38 17 0 97 51 -3 -26 33 41 10 -88 8 9 31 8 38 7 -10 20 -22 36 -5 3 6 -4 43 -2 -44 18 -8 13 -31 -25 -13 -19 -13 26 28 25 1 -36 -102 0 -2 4 -15 -3 58 -39 24 -17 -13 13 -52 81 25 -15 -8 -36 -46 4 11 -10 60 -85 -8 1 3 5 -30 17 37 56 -6 -38 -34 11 41 75 14 17 17 -2 3 -15 9 16 19 -19 24 -56 -90 48 -22 -18 81 16 28 -45 -9 -33 62 -49 0 -16 1 -35 -22 -13 78 13 -71 46 0 -13 74 15 21 -5 28 -26 -10 73 5 15 17 20 22 -4 -9 -28 -5 69 77 -4 -44 20 -5 -44 -8 13 18 -77 -26 -14 12 3 27 -17 -35 -37 -27 -19 -33 -39 -7 8 7 -1 8 6 -21 3 22 36 -82 -3 32 48 -55 -15 10 106 -34 -14 21 -1 -1 34 -69 100 -11 10 -29 -28 15 -6 -14 -6 -4 18 72 -14 17 -14 32 44 4 -12 -6 6 -48 -2 -31 -4 -31 41 40 -15 5 31 -40 -1 8 5 2 -15 55 11 64 -37 -6 34 -21 -53 -58 11 17 9 -37 -20 27 60 2 11 44 48 109 -7 15 0 -80 5 18 90 -26 -98 -25 35 4 87 -36 30 14 38 58 -55 -35 -6 25 6 -6 -16 -10 -4 37 -5 -5 29 69 61 25 -22 0 2 -38 1 -38 -14 -17 -17 -12 19 -19 42 -16 34 -1 4 -32 4 59 -1 -57 -63 -8 16 24 -36 2 -44 106 3 6 3 -38 -49 -45 -22 -13 -32 -21 37 -16 -5 41 28 -19 9 -5 -52 7 35 1 16 -10 -13 123 31 9 -15 10 25 30 -31 46 27 -8 12 16 6 -54 -13 15 8 -8 -26 -10 42 46 45 -51 20 -53 3 -34 19 -6 3 64 -38 -23 29 24 41 -2 -15 -4 -47 26 -1 45 -15 5 -25 -32 -27 18 11 -1 35 -12 22 50 -24 19 29 20 -127 -28 2 -4 -30 -4 29 -74 -58 18 -5 -34 -39 6 -43 -2 8 -14 50 16 1 42 -21 -31 73 73 4 -22 51 2 45 19 3 -43 -27 2 -35 1 -14 17 -18 -42 20 4 -74 -23 0 -30 -47 -44 -13 -34 -18 49 16 -45 -12 -14 -20 -61 16 12 12 28 5 -25 -1 -9 -34 -48 14 58 -22 6 -3 -3 18 -60 26 -49 63 -4 -18 25 -59 -40 -15 8 -19 70 -90 -118 -31 17 33 36 28 7 -31 -26 -25 14 10 2 20 -49 -4 16 60 -22 -32 30 2 3 62 -16 13 30 4 -2 -4 -25 -21 9 14 -12 -106 6 -1 -20 68 8 -1 39 18 47 -2 -54 13 6 -32 -14 36 39 9 35 -48 1 -15 -44 -8 30 1 -22 39 2 -19 4 15 10 23 -31 36 -55 23 18 -70 2 -35 18 -25 5 1 -32 -51 14 0 -31 -29 10 4 16 -4 11 -32 -41 -2 -13 7 -23 -29 91 -24 -26 -50 -7 11 -42 -44 -33 14 -25 25 -1 -45 9 -17 14 -10 3 8 -49 9 11 51 -5 -78 12 33 -47 -51 15 -23 -46 -34 51 13 41 70 -9 12 -35 -4 59 76 -67 37 -19 -16 7 9 -4 5 54 -10 -20 17 -34 13 -44 0 10 -50 17 -61 2 -61 9 -25 32 -17 17 -91 22 -10 -1 22 -34 -14 7 27 0 -4 11 -20 4 -32 35 21 -2 15 -35 6 -5 24 -10 -53 44 -23 -3 34 10
-29 -13 -33 -2 -16 -35 -22 13 10 5 1 -22 -10 15 -24 -1 -2 -13 12 30 15 54 44 -1 12 35 -17 11 -66 -3 20 -16 -8 -29 -14 28 23 44 8 -47 -26 -21 29 -52 35 -38 -27 5 86 -7 35 -5 50 30 -58 -1 14 15 10 55 -7 24 -29 -11 -17 12 -28 -16 -38 15 -18 -33 65 -4 50 -3 -9 13 -2 -22 48 0 -4 -15 20 -17 61 49 1 59 38 -5 21 -21 9 -16 -26 23 0 -1 13 -3 7 40 33 4 -43 -6 -19 36 0 18 -42 17 52 -23 1 53 6 16 17 55 -15 -17 2 5 3 -3 25 20 -26 26 28 -12 17 43 3 -35 45 31 61 -29 -17 -19 13 45 45 -51 -22 -7 -20 -20 -11 -6 17 -27 7 -8 -9 21 -26 2 29 -74 12 9 5 10 18 -5 -2 0 21 10 -36 34 16 32 11 23 62 -7 16 7 8 3 18 20 -15 47 48 1 14 -13 -6 -25 25 52 48 -22 -8 -3 -36 -30 -9 28 10 126 15 18 -47 20 18 9 10 -19 -4 1 -31 -7 -60 2 -30 3 12 -30 -22 24 12 19 34 19 -24 0 7 14 31 34 20 12 5 31 23 -5 -14 -7 -1 10 -1 47 -24 33 24 -3 8 -3 8 14 -51 -10 -7 34 -18 31 3 -5 -19 41 -17 32 103 16 -10 -13 13 12 -34 72 16 0 -26 2 15 36 26 15 -6 17 -20 30 42 -10 -21 -34 -23 8 1 -9 95 24 2 0 8 11 -10 -13 5 20 -32 1 1 38 1 -37 -19 2 16 8 0 -1 12 -64 -23 26 1 -30 18 62 -5 26 -33 6 -19 38 -14 14 -6 15 2 -9 -21 -20 -11 -15 80 42 -4 17 13 11 -72 85 26 19 -15 -14 19 -10 -7 2 27 9 15 -47 27 -3 19 -42 -8 -50 -17 30 99 10 22 -15 3 -24 -50 -9 39 -13 -4 36 -21 14 -12 -16 -11 -21 -3 -7 -30 41 7 8 14 38 -28 25 85 19 -22 -2 47 -28 14 5 21 26 20 -10 -2 13 5 -5 -9 -14 29 -35 -9 -33 26 8 0 15 -41 27 46 24 37 48 -15 -15 -24 20 0 29 -46 51 7 25 67 -22 -11 24 -3 -58 -35 -5 -18 -7 -8 5 27 1 -11 16 23 41 -47 30 16 -14 11 40 -21 -7 -16 15 -23 49 -44 -22 10 8 9 24 -64 -13 -26 17 25 38 72 49 32 29 -50 11 32 15 -24 -13 12 -3 1 -9 -5 -19 3 -9 -3 22 71 -6 -32 22 7 19 17 -5 8 -23 89 29 10 -40 9 -22 22 40 28 26 -26 -28 -18 -24 -39 22 12 -7 -11 -22 -25 -73 -22 40 -1 43 -7 47 21 17 39 -5 4 8 1 -16 2 -10 -51 74 2 -24 -19 7 -46 -3 -32 8 -12 42 7 -48 29 16 12 -6 -8 -31 3 10 14 12 -11 -7 4 -7 6 -19 41 6 57 -7 -32 6 -4 10 1 12 29 34 22 -20 -12 76 57 48 35 13 9 -16 28 23 20 1 -9 30 3 -2 20 -31 1 1 -35 -45 -26 16 -26 -25 20 -22 -4 17 68 -30 19 -42 -2 48 -43 25 11 -36 43 -59 16 11 -39 -27 53 0 11 -83 6 21 46 35 -17 0 10 16 21 0 -11 -27 16 -19 30 -42 44 15 -1 -11 -27 18 -18 -49 22 -5 47 20 -42 2 1 -34 5 21 57 -20 -6 9 16 -23 -7 60 -3 -10 -38 13 17 5 30 27 -5 26 22 10 -28 11 -38 60 22 -10 -19 58 -37 -11 -23 38 -8 -22 9 14 -4 -42 17 12 -16 -7 -2 -40 2 44 -10 39 13 -7 31 -21 7 -11 -12 -2 -23 -4 16 -10 -2 -8 -16 33 45 21 23 -6 -29 8 8 31 8 -13 40 10 3 -22 10 24 -19 37 23 42 33 33 -8 17
-33 34 -11 10 48 17 29 -7 -3 -1 16 -15 11 18 7 -4 45 -33 -115 -1 -15 -42 7 31 -2 -20 17 -45 -14 13 -8 61 55 48 31 -16 -41 -7 -19 -1 7 20 -59 -47 11 -41 31 -2 -49 -34 -14 125 81 -44 21 -10 -17 14 26 -18 -14 24 2 10 -13 -9 -37 -26 -36 31 43 -16 36 -25 -1 4 -31 -7 -54 -22 36 -33 -10 -30 -36 -64 -69 -19 24 9 1 -34 -37 21 -25 -6 6 -11 -122 3 6 -14 17 31 -24 10 35 36 -33 -79 11 -8 -21 26 53 -76 -34 -8 -15 36 -14 -14 23 25 12 3 -9 16 -52 -45 67 -15 -33 -2 -1 -37 -4 40 -6 4 -40 52 -39 45 23 -56 -4 -41 -1 -21 0 -25 13 -14 23 6 15 7 25 30 30 -3 24 88 -16 -38 -57 -17 69 -32 -3 60 37 -27 -24 -4 10 3 -44 -20 -33 -19 -5 22 -16 8 23 -22 29 -41 -64 -51 20 13 -11 -11 -47 -13 15 -19 -38 2 25 -52 5 65 20 -101 -62 15 -52 19 35 51 33 -16 21 12 -1 29 6 0 -58 -42 -13 12 -1 5 7 -14 43 8 -7 -70 -62 1 -18 -17 -17 62 25 -5 19 -6 8 -14 21 4 -67 0 -22 36 26 -23 -22 -22 -42 4 18 -27 -49 7 28 1 73 -2 38 -57 5 -33 91 0 -18 -7 3 34 -71 -8 2 -21 -24 1 -18 32 -58 -20 24 -18 42 95 1 -5 27 -6 1 12 20 -5 14 -28 -2 37 -27 2 16 26 14 -6 13 -1 -34 43 -47 71 4 -54 12 21 -88 -2 8 39 14 21 24 -4 22 -4 41 30 -17 66 61 9 -56 -25 -13 -26 -23 42 -3 -29 3 57 4 -41 -5 7 -4 47 -81 -73 -45 16 -4 -28 -1 33 15 -16 70 -7 2 -14 -7 -20 27 7 7 78 22 -32 31 38 -7 -52 46 54 -10 -37 13 26 -50 14 27 -35 30 15 15 -36 76 18 5 39 -62 23 15 -5 -11 7 -17 25 30 33 -9 -25 -47 -22 5 27 -7 9 -33 43 -47 -11 38 11 20 -2 -45 -58 -2 -10 -6 2 -26 12 43 43 35 11 -10 -127 30 -19 7 -31 59 -34 20 2 -16 20 0 -14 -47 -18 -14 -33 -54 17 -3 4 -47 -78 7 60 -25 62 -8 -8 -34 17 19 -5 -28 12 -6 19 15 -1 -67 -16 26 2 -91 22 67 69 10 6 -51 -27 -26 12 -17 4 49 -6 -41 -27 16 6 -18 11 6 -3 -20 15 -16 7 47 1 -24 29 -6 -7 35 0 3 -14 -54 2 -90 23 -19 53 8 -3 -18 -27 -3 -14 -3 58 24 21 -18 17 35 -3 -22 -25 2 -22 20 64 11 13 13 -6 17 33 -35 17 -3 29 -5 30 -56 2 -36 -34 -8 5 -9 1 -19 -21 -27 -42 -65 -20 20 -16 -11 -36 31 12 -36 54 30 11 -9 -12 4 12 1 13 2 -29 46 14 -23 46 1 -57 -1 -15 92 20 37 37 -34 3 27 -52 53 -49 -10 -60 63 -12 -15 -41 35 -40 15 -6 -8 -21 -32 27 48 -2 -50 13 -20 6 -11 -22 17 -7 40 56 -32 -35 -6 21 -22 -78 -33 9 -11 34 78 -33 -2 85 12 -16 -5 -31 -33 -54 37 -17 8 -2 12 28 -9 22 48 14 23 37 -32 -16 -14 13 -7 9 8 16 11 -21 26 58 -106 -39 -21 0 22 -11 3 -56 -8 -17 -2 21 -18 -28 -28 -27 -50 -30 60 -37 1 -9 25 -22 24 -12 12 5 22 -3 27 -19 37 -102 73 67 -22 25 47 26 -23 -80 25 -51 -6 -20 12 40 -1 24 26 4 2 2 11 -5 46 -28 5 -5 52 41 18 2 13 14 27 1 -9 -17 15 4 19 13 -11 15 3 6 -3 -13 24 -36 13 -4 -6 35 14 -44 -17 -3 26 -5 1 8 -45 2 -1 -13
-3 65 -11 55 6 0 -85 -4 23 -49 30 31 -31 -8 -39 66 15 20 -26 -36 -35 -4 -20 6 9 -14 -7 7 10 -13 -27 -38 78 12 31 18 -1 -66 3 -57 -21 43 18 -37 62 -37 6 36 18 -15 30 -70 7 -23 -2 -10 -8 -30 31 3 23 -12 -59 -25 -94 -23 -1 21 -19 -36 51 55 -26 -18 14 4 -20 -3 -34 -48 -4 -7 -26 3 15 -14 -15 23 19 47 -11 -23 32 -32 -10 -42 26 -10 -39 5 6 7 -23 48 -33 12 12 16 26 -68 7 -4 -25 -7 -15 14 -46 -8 8 12 -30 -1 14 -3 -11 13 -90 -47 -23 -4 -105 5 14 16 68 -45 11 18 -15 -63 11 24 -26 -54 28 -61 67 -66 -37 20 -22 42 21 27 39 -15 -2 -8 3 -32 -41 -2 35 -4 -76 65 -14 9 53 -62 -33 5 -35 17 -17 -41 -2 28 13 10 21 -32 44 -38 28 -32 -27 13 -29 38 -4 25 14 -13 -30 -42 -23 40 29 16 -34 -1 24 40 -2 -37 6 23 72 -68 31 -38 13 83 5 -33 34 -4 -10 -8 -2 33 15 -100 25 7 6 43 51 27 65 -11 20 -24 -22 -33 -114 55 13 38 -3 -14 -25 4 18 37 -25 -40 7 6 -12 9 -30 46 -3 -97 -21 30 -34 14 15 13 4 7 -13 21 -22 -4 -6 22 -23 19 -6 -17 -13 -24 7 49 -2 -66 -88 5 13 47 -25 -12 -17 -34 -38 51 -58 -3 22 20 6 20 26 -18 -9 -47 16 6 1 14 -40 46 -25 6 45 47 56 6 -30 -35 -7 -11 43 10 61 -3 19 -65 -21 -17 25 -42 -10 20 -73 67 -45 46 -16 26 -19 9 -2 -3 5 -16 -38 -31 58 18 -60 39 5 12 -2 60 20 -42 15 -37 11 -31 57 -20 -37 -6 -76 18 68 46 -18 11 -22 -10 -47 -7 14 -22 -17 -2 -32 8 18 0 -15 21 -13 -43 43 -6 59 27 1 1 -1 47 21 -31 4 48 51 -20 -23 -17 9 14 1 -8 5 57 8 -6 2 -24 1 -25 -37 -19 3 -14 -50 19 -14 -42 -19 54 -10 40 8 33 -13 -31 27 -6 5 -88 -10 -54 16 23 44 56 21 13 -18 -5 -3 -127 -58 -20 -25 -16 14 -42 5 -58 -17 -4 22 -2 91 27 -1 -28 -8 12 -10 13 -15 -20 14 -2 -8 -31 40 8 -1 -52 -33 -40 65 -58 115 -21 3 12 42 -23 -55 27 -34 -27 11 20 19 -118 -11 -37 -84 -8 -28 -39 -3 -13 16 -56 -47 67 -18 22 -55 40 -32 -4 4 2 18 -46 1 -48 45 0 -14 -23 1 -7 -28 -24 -16 18 18 -22 17 -64 12 -15 -20 4 -104 35 -46 10 7 -42 44 32 -17 34 3 29 36 -6 -16 30 40 18 31 0 -1 -16 75 11 9 -14 -46 55 -39 -31 -1 -59 -58 -22 51 -33 -79 27 -12 -3 4 19 -11 20 -7 9 5 -16 2 -89 -52 21 -9 67 -32 -28 2 -38 5 -14 70 -4 -1 35 -65 18 -12 -19 11 15 -20 -25 -62 -31 -29 56 7 21 23 9 -6 43 4 8 76 -34 -19 12 -10 10 31 6 3 35 6 -2 -6 -16 60 -22 2 38 -5 47 -27 -10 8 -12 -7 -29 11 4 8 71 4 7 0 10 34 10 -29 -18 -35 -6 4 43 10 -8 34 0 2 62 5 -29 8 42 50 5 2 -25 -32 -13 -25 26 3 1 19 17 -14 -53 -29 37 48 3 -23 52 9 0 5 6 -19 -48 -1 16 15 -2 -45 9 -21 25 -30 -6 77 -41 15 28 -8 27 60 33 37 -15 33 -9 12 -56 35 50 48 -9 24 28 1 4 -87 47 -3 -22 7 -1 -7 38 2 3 -12 30 106 -22 -13 -2 -27 7 8 -11 26 -58 21 7 -45 -19 44 -30 4 -36 -37 40 13 -72 -24 25 36 2 -7 0 -29 0
-77 -6 56 31 7 -5 -12 -16 -33 3 -12 -42 20 -41 -28 -13 -2 3 45 21 2 50 -15 -55 11 -4 -16 -36 -48 27 -11 47 14 34 0 6 -1 -8 26 38 -3 37 -21 78 -14 -20 4 -4 71 -24 -22 -125 -43 18 -3 17 52 22 -13 24 1 -65 19 -12 33 -13 -13 14 -4 10 -20 37 -8 43 4 11 14 -18 13 15 -10 -1 45 -6 -5 -11 11 44 -39 -40 -10 -18 52 7 -12 10 -22 -8 110 -24 -24 58 21 8 20 49 1 -14 7 -8 -2 -27 24 68 29 35 -54 -53 32 37 -54 -11 0 -1 -32 13 5 22 5 57 -70 1 8 2 -9 8 21 23 -86 17 31 -13 30 -10 -10 25 50 -38 4 23 -38 -3 -5 6 -33 15 -35 -40 -10 -18 -89 -25 11 1 -35 -39 -44 -6 -17 -50 -10 5 -18 -73 -46 -73 19 8 -12 -3 0 -18 -27 -10 3 -38 -24 8 -17 -3 21 54 -10 -33 -2 15 7 21 9 -12 -29 19 -19 -36 -22 -24 -23 -5 -29 -12 80 -23 -16 -29 15 16 -1 -29 -33 -15 24 -17 -12 -20 59 28 -33 33 3 -5 -1 -26 -24 11 -7 29 0 -36 7 10 -12 7 14 54 10 -26 -37 62 13 21 -20 -19 28 1 16 -7 -73 -29 -5 -27 -26 -4 -79 12 -57 16 -44 -25 67 -44 31 -35 51 58 49 -54 72 -35 -38 -6 -10 -61 -33 2 37 -27 -17 7 -48 -42 17 25 -37 -1 24 -29 6 -9 -57 29 -31 6 -37 8 -21 -20 -20 -8 -24 23 17 28 36 2 -7 -9 -22 -15 -21 12 -19 -36 17 -9 -2 -41 40 3 -47 -61 -26 -16 -80 5 38 -33 -5 -13 -41 0 29 -3 -7 -2 2 -15 -68 19 15 -14 77 6 -21 -34 4 -14 28 -6 -29 -7 0 -25 26 31 26 35 -38 35 -9 -83 -21 -39 -8 -14 27 8 13 7 -20 19 -29 -10 -77 34 -32 -37 -29 -10 23 -78 -41 -12 22 -52 27 -19 -7 -29 -34 -22 -11 -6 20 -35 -27 -18 -14 -8 -22 -52 -43 -10 110 16 22 18 -7 0 11 0 -20 -61 -33 42 -42 32 -16 -24 -8 -69 -22 -1 -4 30 6 -2 -74 -30 -25 1 -40 -14 1 -27 12 45 -2 40 -2 -9 6 8 -12 -16 -27 8 11 -4 -8 -44 14 -26 -5 -33 8 65 54 -45 19 -68 -41 -16 -22 -19 -42 -8 21 6 -2 -5 -4 29 -38 -20 -42 -14 -18 -44 9 -16 -23 -28 10 -31 60 -3 -22 29 25 14 117 2 -17 -10 20 10 -35 33 -11 -39 2 -19 -12 9 -1 -8 4 19 16 44 -21 -14 -6 25 -18 25 6 -39 12 2 21 -22 -67 -11 21 19 -1 -10 -13 28 0 -22 -36 8 -24 5 -16 -21 -43 -47 6 7 -19 11 -32 34 1 -1 -47 9 -82 44 6 32 18 -22 -7 96 15 -20 126 -30 36 1 -8 3 13 -16 -28 19 -54 22 1 -1 36 -43 9 9 7 41 -17 -31 -21 53 -14 6 38 40 -70 -28 29 -49 -75 -11 -14 3 -43 26 12 15 2 37 -39 11 42 -46 70 10 -20 -20 4 16 -5 43 21 -24 -42 32 34 -43 -37 -9 21 -30 -32 6 26 -5 -1 -4 19 -8 4 -14 30 12 -11 6 1 -58 24 -11 -24 -23 4 3 72 22 9 48 -49 3 -11 5 -27 7 -29 6 8 -53 17 19 -13 7 0 29 -20 -7 -13 -3 -14 2 19 53 5 59 -23 -19 -56 -25 27 43 67 -6 -3 14 0 -9 13 22 -39 21 -39 116 -22 7 -2 -24 15 -48 -46 99 -5 -18 -6 10 -38 17 -46 -56 6 31 19 -3 9 -56 -17 29 -14 -32 -58 -25 -5 10 6 -37 8 -33 35 -16 25 -17 -32 -11 -30 -22 23 43 22 -40 -19 48 -18 -25 -25 -13 -42 63 -8 21 16 -28 -21 -54 0 -31 -19 -35
11 31 0 18 39 8 79 -5 -5 -32 33 7 19 -16 19 42 -7 -13 54 48 104 -13 30 7 -6 -85 50 32 14 -2 65 -37 -21 15 -12 -39 -4 -32 9 -33 35 -1 55 -7 -8 53 21 36 15 -19 -12 47 3 -11 68 -1 26 1 -13 16 13 9 22 -17 -20 45 -12 14 29 12 2 33 -89 14 11 26 5 2 47 1 -20 -33 2 -15 30 -29 10 -19 8 18 -1 13 -36 -11 22 5 -1 34 79 -8 -22 -21 -59 -13 -38 -18 -17 -27 -13 -1 13 12 12 15 37 3 23 22 -37 -30 -1 -31 -3 11 -19 24 14 7 82 -10 59 -30 21 -31 -22 -45 -46 -25 -7 -26 -3 17 10 -10 1 -32 -46 8 2 31 20 0 16 -10 -48 -13 3 -18 -27 -49 -23 18 43 -14 2 10 16 15 4 24 -25 -11 -15 -51 -92 9 -17 -11 30 -42 44 7 32 -26 8 -3 40 -19 -36 -26 56 -19 56 22 38 -9 45 -5 -11 37 22 -18 61 37 19 -55 24 -19 -67 1 40 -21 -13 -59 11 -15 -19 21 89 16 9 16 -23 57 -10 -24 21 -20 -29 21 -69 5 -11 -42 10 33 -50 -12 -4 -33 29 -12 -33 -8 16 11 22 -2 41 29 33 -39 30 39 11 83 66 30 -22 -13 -34 19 79 -9 -21 21 -1 74 34 24 19 22 -9 33 72 44 7 -13 27 -13 6 12 35 28 26 -7 -32 -66 26 102 12 21 18 -42 -9 -12 27 -20 -37 39 40 -4 0 55 -30 23 30 70 28 4 63 -19 -5 -25 -54 0 5 64 40 5 -35 26 -30 -8 12 -3 -5 -7 12 -27 4 19 -56 36 -68 -5 69 -39 44 8 -4 -30 -12 -51 22 -7 21 29 -42 8 30 1 -44 33 35 35 16 -38 60 10 -61 -20 8 -45 10 -3 -8 17 105 -35 43 3 -24 29 3 -59 -2 1 7 30 -2 30 -15 64 -9 31 35 -2 62 14 -60 -31 -40 -12 4 88 15 5 17 33 50 -21 -31 46 -10 -4 16 -12 27 -8 -10 3 -29 15 3 6 16 -28 15 11 38 22 1 -8 -17 -42 9 -33 26 -3 -24 -54 -14 7 22 25 -9 -48 5 -13 -34 67 -61 -25 -30 -21 -4 -47 -62 56 37 -89 5 8 2 49 23 -14 1 39 -2 16 -12 7 -26 -4 42 57 -13 19 3 -72 35 -19 -6 -77 50 -14 58 46 -26 44 17 -21 11 47 48 101 27 26 -16 53 9 17 -79 -27 2 -1 12 -39 18 36 23 -31 -52 75 -27 49 -58 7 6 5 2 42 -19 34 79 -11 4 22 30 51 -3 12 38 40 -27 63 53 -13 29 -2 8 11 -29 8 43 -28 -11 -31 0 52 -55 -24 -42 -45 30 39 44 -38 -12 -4 33 48 -13 23 -8 -6 -32 -18 57 -33 83 -27 -31 38 -12 -14 -18 -10 -17 4 -9 -10 0 16 25 42 1 -17 25 11 24 -14 -47 16 1 23 -5 5 34 9 -34 66 0 17 16 -17 13 54 38 48 -63 -21 -14 13 0 -11 -57 11 13 -9 126 9 -1 25 0 4 21 44 14 23 66 64 -14 -31 -23 4 -92 0 31 80 -16 17 16 2 15 -38 -26 9 31 25 45 40 16 -26 -9 10 -49 8 -39 -32 21 2 19 -11 -52 5 34 4 -5 -17 25 -2 -5 2 -47 65 22 72 45 28 -8 14 -7 59 49 -8 20 16 -25 -8 31 -19 42 -32 24 -26 13 -6 -3 8 -10 -13 16 30 87 -10 -7 -7 17 -45 17 83 57 16 -37 -4 15 -20 -33 3 -12 17 70 69 26 29 12 30 2 -25 -6 18 9 -11 -36 5 15 -29 -9 -1 -34 3 44 -28 -11 -21 14 4 -16 -45 -22 -10 23 -24 -21 -54 -53 17 -29 12 4 88 21 5 -10 65 -14 88 -22 -21 12 34 -1 3 20 2
-1 4 -24 -38 -67 36 -14 6 -13 -16 -8 -20 2 18 -4 -3 -16 -16 -38 6 8 -31 17 61 -23 23 -7 30 -15 -5 2 58 51 -19 -13 -70 11 -26 -17 -80 -31 -12 23 41 -1 1 -5 -24 -71 -5 -20 -14 21 -17 22 -35 -15 -9 -3 14 3 19 -9 -1 16 -24 -20 11 -11 -17 69 37 -84 -4 -62 7 -13 1 -1 -5 -6 2 -17 -24 17 55 -82 10 -28 4 -12 -6 33 -20 -31 38 -48 15 -43 -10 -6 19 -5 14 -35 -11 13 -20 59 32 10 15 -2 -3 -20 -10 -31 2 -26 -22 6 -27 22 10 11 -3 -40 -80 18 -45 -9 -35 -8 -22 -14 -24 -29 -5 -65 41 11 16 -10 -10 -43 -7 -55 63 -8 34 -30 40 -2 -21 0 35 3 36 29 31 44 -33 -41 -55 -38 22 -2 9 16 41 -36 22 -49 9 14 22 25 -5 72 12 -6 -37 17 -45 5 15 -25 -24 7 70 -18 -61 9 27 -26 10 -1 -46 49 -49 24 -16 -3 -96 -10 -7 14 -54 -75 15 20 -26 -45 25 -9 0 52 -9 31 -7 47 63 13 40 2 14 -14 -15 0 -12 -27 -23 38 19 43 32 -46 -1 27 67 -56 -28 -28 -12 -24 32 33 -25 16 -39 -9 -16 -6 -28 2 -70 35 -7 -19 -31 36 -5 -10 -25 -27 -14 5 19 -4 54 19 40 58 -12 -4 -24 35 -6 -32 -3 -17 -3 1 61 34 14 -43 23 -15 14 17 42 22 30 -48 -44 -47 34 34 -15 -30 -42 27 -55 -46 69 7 -11 33 6 10 -34 16 -48 47 32 18 -6 -12 -9 12 76 4 -45 20 -3 -2 18 12 62 -1 11 53 -13 65 40 -24 24 45 -54 25 30 -47 39 -18 69 5 -25 -7 -4 38 -41 -1 8 17 -25 -1 15 30 12 20 -2 -65 -17 -1 -28 12 30 23 11 22 40 48 29 -6 34 -52 11 6 1 -8 3 -12 -10 29 6 -32 -10 -1 -31 -3 9 26 10 -54 -54 -23 34 -23 21 -1 40 30 -26 -50 -5 -24 -6 5 25 23 1 -51 -2 -15 -19 -28 23 -8 -15 -11 126 -9 33 7 16 19 -54 15 -2 5 23 15 25 -4 -12 7 26 23 -25 -10 17 -18 1 -5 -4 -36 70 -21 -5 65 32 -4 4 -3 14 19 34 19 -18 44 60 -21 10 14 -13 37 -34 11 10 13 31 20 -13 -15 20 3 -8 -65 -38 27 -40 -14 5 29 11 -23 -37 4 -16 7 -28 -34 38 63 -6 7 -40 29 1 -35 -19 3 3 11 -12 88 -14 -8 22 -9 -10 67 -24 6 23 -17 28 -35 -12 -18 -33 25 -20 -28 27 7 26 -36 -13 -7 18 2 50 -7 -38 59 23 16 -12 9 2 -4 21 4 -30 11 64 -20 4 14 -2 34 -75 -17 -23 4 -2 15 -16 -14 -21 35 -8 10 3 -13 11 13 2 -46 -21 -40 -11 40 -18 -20 -35 -4 -11 -17 -15 -52 -23 -41 -11 18 -10 -1 -17 11 -23 44 60 -30 -4 -40 7 37 12 6 42 -28 3 -7 3 29 18 -20 19 -27 -46 -5 -30 -36 -14 32 -2 8 7 9 15 9 23 16 -25 -3 0 -10 61 1 -13 22 -18 18 9 -31 27 -25 0 -9 -31 -2 -42 -19 13 30 -18 5 -24 12 7 11 46 -38 -4 -17 -14 -6 -10 19 58 -26 17 -50 -29 -12 -23 -21 11 -53 7 -12 -30 -11 -2 18 18 -15 -17 19 -47 -44 2 -11 29 71 -8 -47 -13 -46 42 -14 13 0 31 -25 -1 -19 -24 -42 26 -1 -76 -46 -16 -2 -6 -16 8 -13 72 31 33 -21 -36 -46 -23 21 21 -31 -9 -31 18 -14 1 1 -15 19 29 3 23 -10 -33 -27 7 -44 20 8 -23 21 -4 -8 -58 28 -11 -45 -26 58 15 -8 34 16 49 -31 -11 -2 19 21 -11 -47 28 17 33 -11 -2 2 -54
-30 16 8 -26 2 23 4 5 22 10 15 -20 8 24 14 14 -8 31 -22 3 27 22 -29 16 -14 48 44 7 -11 9 9 -22 -43 7 -7 126 47 8 -1 8 -16 -37 27 25 7 10 -44 -27 24 -4 37 86 -31 -67 1 -20 8 1 27 23 -11 33 6 -7 -10 19 18 -4 -6 -20 -3 9 -77 13 -21 -8 6 0 22 28 9 34 28 23 15 39 -50 31 40 20 29 2 15 40 25 -22 37 -6 79 -20 6 -53 15 62 -1 -29 -28 56 4 -38 -5 -24 15 9 -74 19 -20 -45 7 15 7 -4 -14 51 30 2 -24 -11 -19 -22 -41 34 -10 4 25 -3 24 -51 40 -37 6 -46 -45 11 -5 30 -19 38 41 13 -39 9 -35 -68 -41 2 -20 -9 -7 26 -40 7 43 -40 -41 57 -14 58 8 -20 0 -4 39 33 -31 4 12 14 -30 -22 27 53 -9 62 -36 18 31 22 -15 -36 15 -2 -76 -15 -12 -43 -1 -19 18 -34 -15 17 -24 83 -9 40 -6 -23 -1 4 -28 10 -37 -21 -10 -22 -30 -12 3 -10 44 -90 3 24 -23 4 34 27 27 -11 -18 11 1 -32 8 2 29 7 -16 11 -45 -55 9 -20 -63 17 51 -5 6 -11 10 29 24 -3 9 4 -25 -57 -5 -15 -22 -4 17 -38 -42 22 -9 78 -19 54 41 26 40 -17 -39 0 -44 -57 -13 39 3 20 10 8 -34 5 7 18 9 6 -62 -8 -10 -34 10 0 -69 -3 12 -46 7 -29 -9 -13 -9 -7 -24 -46 -2 -9 7 -20 -20 -35 -1 8 10 0 -33 39 39 -26 41 -46 -8 -26 -15 -15 9 -8 -11 48 -7 12 43 -34 15 -18 31 -51 12 -1 -2 -72 -70 -24 -13 -35 22 7 12 12 40 -16 -24 -4 -3 -27 -4 7 -36 9 26 9 14 0 -14 32 -8 48 37 5 13 6 21 -25 22 3 15 43 -56 24 28 4 1 -41 -8 -23 -36 96 7 9 -44 5 15 21 20 -16 -10 15 13 3 26 -1 -29 25 14 -12 -17 11 59 -2 -15 0 -22 30 -2 -3 -24 -13 -42 -99 -22 31 -7 79 30 28 -5 -72 44 -40 1 -3 19 56 29 -38 20 20 -18 15 -48 -40 1 36 -11 -26 49 -6 42 7 7 -3 -26 -16 18 38 16 -38 -11 3 -16 0 38 20 -14 -1 -3 -19 -22 -55 34 37 -2 -4 -22 13 -32 -53 -28 1 -13 -47 -16 7 -13 8 -33 -13 -5 4 -20 -52 -104 64 -10 -9 -9 10 42 -12 58 -12 -11 0 -68 -41 16 76 -2 -29 -11 44 -8 12 -26 5 -2 -26 48 -13 2 -63 -2 -90 -1 44 -55 0 -32 20 -41 40 -51 7 28 3 26 -59 -20 14 -2 -76 13 -8 -4 30 26 7 13 -7 -2 -24 49 -27 -35 -2 -15 -6 -16 -57 -32 49 -14 -3 13 -4 -17 20 34 26 2 7 3 -24 54 -44 47 -28 -4 10 -3 2 -24 -29 -7 -98 2 -1 -32 51 -5 55 8 -12 7 20 -8 -36 -27 20 -35 12 18 -1 10 -3 22 1 -48 -9 55 27 19 41 -23 4 13 8 -36 17 -45 3 26 51 1 11 34 3 14 49 24 -24 0 -17 -8 8 -6 19 33 2 50 -11 -18 -14 -27 21 14 -16 -14 -9 -18 18 1 -11 7 31 39 30 13 -41 25 -20 30 -22 3 -76 -2 -5 2 -24 -19 27 -50 0 -34 39 -30 34 -26 8 15 -6 -11 -66 44 27 -20 30 -1 -88 -8 32 -25 -21 11 -3 43 2 3 -36 8 -2 -1 -28 4 10 -41 -11 -26 22 -10 -27 -27 -13 22 11 -5 -40 13 16 14 -19 -4 -21 -8 -11 17 -1 -9 -26 -41 11 37 -2 -4 67 28 13 9 -25 -37 -37 -50 10 14 -9 2 5 33 -4 -1 -20 25 -24 24 13 14 -21 21 11 -32 -9 -23 -6 49 -18
28 28 19 -5 11 -3 -48 -11 26 -8 18 -49 59 -8 13 -30 -40 27 -30 -43 -30 -7 20 27 27 -18 89 20 2 33 38 44 -25 17 0 -112 18 -5 24 -8 -22 -35 26 -51 12 5 -55 11 50 -48 29 0 15 34 1 49 19 -15 -17 15 25 -1 2 18 -51 22 -28 28 28 39 31 15 -11 22 45 5 42 -2 53 23 4 -24 -15 27 0 -23 16 5 -27 -10 -13 -32 68 28 44 12 39 20 -61 -29 13 -25 7 -60 16 -35 -7 -1 -58 -4 -5 38 38 40 9 -44 -37 54 -63 -48 0 5 12 19 38 2 -26 1 1 -43 0 -23 -27 -5 -14 83 80 62 41 -7 26 24 73 51 -21 -108 64 -12 -52 10 -28 29 -68 -25 -6 -47 -14 36 71 22 61 -28 37 43 37 14 26 -16 -16 43 -11 -11 -72 -6 27 -69 11 -30 -2 11 -14 -13 55 39 -26 -2 -30 8 -18 0 1 47 -30 26 26 -34 -68 2 25 38 3 0 -20 28 -12 -6 -24 -91 -77 -23 16 -18 53 -32 -36 -10 -17 29 -13 34 36 88 18 -43 -37 23 -22 9 71 21 9 48 4 43 24 37 33 69 33 -33 -33 -37 -18 3 -41 18 -19 2 -49 21 13 22 -10 -2 58 -9 -18 -45 5 -21 -52 -18 47 9 14 -16 5 -12 -45 -87 30 -32 15 -12 50 -66 22 25 -8 39 -5 21 -47 -57 -18 21 73 5 -14 -51 -12 6 13 29 -6 48 13 -24 -57 -41 33 46 17 5 -27 60 5 32 12 30 1 99 82 -12 0 -42 22 12 21 -52 24 5 -45 49 12 31 32 -16 -18 -38 7 31 15 11 -59 -13 -20 1 57 -16 -40 13 -43 -52 0 21 43 -27 16 -7 -83 20 -104 -5 -5 15 -10 3 -59 21 -54 -19 -29 -16 -4 -25 -21 -12 -16 -6 10 5 3 27 55 21 -44 5 23 -31 2 -12 46 42 -44 -60 51 1 26 39 0 2 11 31 -12 -15 26 14 27 11 43 1 13 -26 47 -25 -12 44 11 29 -59 1 17 18 -13 9 -20 16 -6 21 -37 85 5 -3 4 46 -33 56 13 -74 21 10 -14 -27 -3 -57 3 -58 -59 12 28 -6 -33 -44 13 6 37 72 -74 -31 -25 25 19 6 0 -2 0 -32 -37 -44 -13 0 -75 23 2 14 43 11 43 35 21 26 -8 66 -21 -11 -25 13 -11 28 -21 -27 38 89 14 -10 43 34 56 -39 -11 38 18 -13 -49 -35 6 -24 -11 -10 29 70 -25 8 -88 -61 39 -16 -33 6 14 -11 12 22 -10 -24 16 51 17 -32 34 20 33 1 -37 -23 8 58 70 11 -20 40 83 126 15 -7 -21 -21 7 -11 -13 18 50 15 -57 -68 1 -27 -15 -21 -8 -5 0 32 22 -22 15 11 12 21 -14 -31 -4 47 -3 0 20 -27 29 8 -17 17 -14 -2 -5 89 -101 1 -33 -18 -50 7 76 -13 -30 99 1 -36 -2 3 3 19 3 -59 -15 59 -19 2 34 -8 -34 28 65 -13 0 -23 -8 11 46 70 10 10 62 -25 13 -24 15 -5 23 -26 32 -56 -20 5 9 -1 -39 -34 -37 -7 -56 8 11 17 -16 -36 89 -25 -19 39 26 -13 51 -41 37 -68 8 11 29 -35 -9 -7 -13 31 -47 15 15 -52 -7 -29 15 37 27 5 -11 -48 -16 -10 -19 -7 -38 -8 5 38 12 42 13 -1 -5 -68 55 3 -13 30 2 14 -25 -22 -16 -8 -17 38 7 13 8 -31 32 2 13 27 -21 0 -23 73 26 -64 -27 3 -56 -43 -5 -50 -54 -31 -41 -16 -31 -107 -6 38 -15 -95 -45 -3 -11 -46 21 -42 29 46 -18 29 40 11 -4 -37 10 -9 33 -60 11 18 -10 28 -46 3 -45 -34 -37 26 21 10 22 -32 -26 36 14 52 -30 -21 41 15 12 21 -27 11 -30 48
86 -23 3 25 16 7 10 31 18 -19 -23 24 84 -14 -43 -17 -18 -14 -74 0 -22 -3 1 -2 15 -27 -12 38 6 -36 -15 -75 -16 -30 -32 -54 -8 32 -2 4 -49 14 60 -76 42 47 -8 6 -58 22 35 56 32 13 0 -12 53 -42 16 -18 1 29 7 -11 -13 -25 -33 -28 -35 -3 -48 -11 17 15 37 44 -16 2 14 -30 29 11 21 9 7 28 -77 18 12 -35 -28 -29 62 51 11 3 -1 36 -51 14 -6 -3 87 -17 -43 12 -17 -5 68 -47 -12 -22 -34 -55 5 23 14 -4 -10 19 -4 34 21 23 22 -45 -28 -45 10 43 36 -3 -4 4 -59 33 38 16 62 -52 31 -14 -25 -44 -1 40 44 2 -24 -14 -10 18 54 -4 -47 2 8 -17 -10 21 -19 33 33 -26 18 18 -1 3 -22 -3 3 -17 -2 45 -43 -1 -40 53 20 -20 -35 27 17 -42 -19 39 -13 -2 49 -76 -15 80 -64 4 28 -18 46 -48 -22 24 19 -53 -21 -3 31 -20 -9 17 16 29 -95 24 -43 40 -16 -14 -11 -6 7 23 -15 -32 -3 39 -23 31 40 -23 58 38 -23 -43 -3 -17 -5 -14 -85 126 -31 -98 36 -29 37 10 14 -6 -37 35 -55 -28 35 8 -50 -20 20 57 40 14 15 3 34 -14 33 -75 28 -50 13 7 -8 -83 6 -15 40 -3 5 -1 31 2 -9 29 13 12 16 -52 -33 17 5 48 17 -21 24 6 -60 -7 1 19 35 -43 96 -17 34 32 9 49 36 9 0 60 23 33 21 1 63 40 27 23 14 -12 15 54 -52 21 76 -64 -1 25 -9 -45 18 -9 -52 -92 -34 -55 24 -36 46 30 8 70 -20 29 -17 1 54 4 -52 9 -34 -3 -17 45 -19 13 -61 -21 28 24 -32 -1 -2 -14 12 -2 -46 -10 15 3 -32 -7 86 9 -5 -38 17 -20 15 6 -5 38 41 -25 -57 -28 -31 -11 -17 6 5 -79 -2 -78 50 12 -53 -5 12 15 -15 26 41 -38 6 -18 11 21 -2 9 24 2 83 17 -10 -15 8 11 -7 -2 55 1 20 -14 119 -39 -2 -15 -31 0 32 -61 -34 27 -32 30 6 28 17 -66 2 -21 -28 16 -59 -16 -19 -56 -10 -89 33 -18 -37 77 -12 5 -9 -56 9 -27 -5 15 60 -11 50 -10 15 -20 32 27 28 22 2 -16 14 -41 -13 12 26 54 121 -46 -88 -41 15 -37 -1 -59 -2 26 -15 12 21 6 -20 21 35 13 26 13 -26 -54 24 -9 16 -6 -36 -2 9 -51 -56 -18 14 17 -23 11 55 -7 -17 44 -10 -2 -15 10 -17 46 66 -49 -26 21 -46 16 19 -7 46 31 -37 60 25 -71 13 7 -19 -24 -41 9 -14 69 -74 63 -20 -33 0 3 24 13 -60 -6 21 -18 -40 7 69 13 15 9 14 53 49 -13 -1 9 26 -26 -18 10 20 -46 74 -26 -6 41 -17 -10 -4 35 0 -8 -1 -22 0 -1 29 21 11 -30 -77 -42 -7 1 53 -9 54 10 -63 4 -2 -10 22 43 27 -46 21 -26 -23 -62 -12 -44 15 14 -43 3 23 41 98 -2 6 15 -9 22 -36 48 79 -60 -18 63 -46 -43 -42 39 43 71 36 -13 16 -59 4 61 -73 10 39 -35 49 1 -14 6 23 17 22 -70 -50 -16 47 16 -4 -13 28 55 -55 39 45 -7 -52 -17 6 -27 -65 -32 13 -8 14 25 -38 23 -18 -1 -1 17 -28 -18 -49 -14 -17 18 -30 -3 -10 1 0 116 40 19 -15 47 18 -37 79 2 15 -38 -37 -49 55 -28 13 5 2 -14 -25 12 -24 76 7 64 -41 65 58 -27 -9 17 4 19 -6 60 -30 47 22 -19 27 -19 37 52 -2 -27 2 48 -7 17 -29 -52 49 18 14 -4 2 -2 -39 10 32 -26 -38 -33 26 88 -6 -2 30 39 4 44
8 9 18 7 8 22 38 -4 18 17 9 5 -26 -3 -9 -13 1 26 35 -13 -21 -89 44 -56 14 20 11 -23 15 39 -16 -12 6 7 20 61 -60 12 11 11 -17 48 -33 2 -37 -27 9 3 -6 -2 6 -12 12 -5 96 -15 84 -2 29 42 36 28 -22 -18 -35 4 32 18 0 -40 22 6 -4 33 -14 -10 -5 3 25 20 -45 -38 17 -56 -1 17 35 -24 2 11 -29 -41 -67 26 15 22 61 -12 72 -29 -18 -24 1 32 -25 25 18 -28 -21 -13 0 20 -2 -33 -4 9 45 26 -15 9 -10 -24 -1 -18 -7 40 -17 45 -77 110 -58 -39 3 -38 58 5 17 -83 -17 -69 49 33 37 -11 -19 98 -42 57 10 1 -32 0 22 2 32 11 -19 2 42 9 13 -23 -23 78 40 -27 -12 15 -27 -2 -50 -68 24 33 26 53 -3 39 37 -37 -39 24 17 27 -39 14 5 -30 1 -7 25 10 -40 -29 -28 12 -21 -60 -22 -40 21 -34 28 27 -27 15 -41 3 34 -30 1 3 12 -11 21 11 -32 6 -23 9 7 -127 50 54 -43 21 -11 -47 -71 -6 -56 -1 5 25 7 -17 -36 -33 -47 74 -18 -12 1 44 9 3 -56 -14 -89 5 -45 -24 86 33 23 -27 -77 -17 -5 -19 65 5 54 -10 6 17 44 38 33 -62 10 -19 29 -30 15 4 73 -22 15 78 21 22 -29 22 35 20 -16 51 14 16 28 24 -11 0 -27 -18 13 20 -27 4 -8 -27 -29 -16 34 38 20 15 -16 21 37 13 -32 -33 -38 61 18 15 5 64 54 7 13 17 9 -4 8 32 -19 -8 -24 -19 -25 -20 10 2 30 3 8 -25 -10 -41 11 -72 -43 17 4 35 19 -21 -53 -12 15 -25 3 -52 65 23 -21 0 -21 7 -33 11 -41 13 9 -3 19 -48 -24 6 63 -16 41 3 5 43 -34 18 -54 -18 20 70 -61 -4 12 16 -12 -15 -3 -19 -4 -26 -46 -10 -9 20 33 0 -18 -24 -35 -25 -10 9 -9 -21 26 10 -53 8 -14 -34 21 12 18 -20 21 16 -3 -9 -4 -9 -32 -12 -49 24 0 41 0 -15 16 7 32 -10 51 34 -43 37 6 -25 -51 49 -37 -69 -41 -39 -15 10 -16 -45 -11 4 0 4 -19 -10 13 29 7 57 -17 -28 -30 36 16 29 34 7 42 -78 -48 -2 -11 24 30 18 21 -47 12 2 -3 -17 40 13 44 -59 -13 16 1 -18 9 16 -60 18 10 4 16 -1 39 -34 13 15 -10 -15 -2 21 29 45 9 -24 -42 -14 62 15 20 -37 37 -21 -14 -48 9 58 50 24 12 37 -17 -11 -31 -42 58 19 79 -10 2 -45 24 10 36 53 31 7 -38 -26 -5 26 -74 -8 -15 -1 -27 18 23 90 26 -5 67 43 -61 -1 47 9 30 -33 -20 -48 10 8 -5 -79 -14 -2 -57 -9 20 10 -6 28 10 -6 34 19 14 20 6 8 -2 -13 -7 14 -21 30 28 -81 8 6 -23 4 58 -1 -20 16 -6 8 -16 12 -42 -42 -115 -28 74 -59 71 -50 27 -56 -53 3 -53 79 -22 -4 34 -26 -19 13 -17 -12 0 51 -2 32 -16 -30 55 -78 12 -12 -39 18 -53 -39 -23 20 28 -3 -13 -20 36 -1 5 -58 29 17 15 19 -14 -5 -18 1 6 -10 8 66 17 9 52 -52 24 0 -19 6 5 17 -13 3 7 56 21 -9 -19 11 11 0 7 73 10 39 38 60 62 -41 27 -34 5 -62 -22 0 30 0 -32 63 -50 -47 28 -47 16 60 87 9 38 -49 9 24 11 19 24 -83 5 20 5 -5 -4 15 -2 -27 -11 2 39 11 8 14 -27 9 39 -20 -59 -21 -53 -20 -18 8 2 14 30 -24 -15 5 -23 18 2 7 5 -36 -31 -54 14 -6 28 13 -32 0 8 -29 33 23
-26 -14 -21 46 -8 17 -27 -7 5 -7 12 12 -26 -10 8 -9 -3 21 -10 4 -8 44 17 2 17 -17 22 37 8 -5 -10 32 5 -4 11 -63 9 -6 8 -21 2 11 -3 -3 26 -1 -11 -9 -6 16 19 14 32 -4 22 10 -11 29 -3 1 23 -45 14 -12 -14 -2 27 2 -39 6 -22 -21 -11 5 14 26 -7 5 15 27 31 16 13 4 2 -18 34 -12 -1 5 23 10 22 35 -26 24 -54 5 -72 -11 7 -16 -12 -37 15 -19 12 3 16 10 9 13 17 -4 5 5 -20 32 32 2 -24 5 -17 18 -16 4 7 15 15 60 -67 -28 26 -15 26 -8 8 12 0 0 34 8 2 -14 8 -53 -52 2 3 11 8 12 17 32 -35 -4 12 -7 5 -10 24 -13 30 7 -20 5 16 3 -13 -6 14 9 8 -6 24 24 6 30 1 -1 -11 17 -6 23 -42 14 29 12 4 -50 26 44 -26 -19 13 13 -1 -5 13 26 -6 -18 -11 -36 -3 -21 -27 9 -37 -2 -89 7 33 6 -7 17 7 -22 13 -41 33 -22 4 -7 -2 6 11 17 -16 23 -9 -14 28 12 -14 38 -11 6 6 -37 -21 -10 -7 20 12 29 -40 -29 -13 -21 -24 1 22 30 -1 -36 -8 0 1 -12 34 5 -15 5 -8 8 -6 -5 -9 6 -8 4 -20 14 10 1 23 -6 16 1 -13 -23 5 23 -14 -7 18 3 -1 -4 -14 15 21 6 -8 25 29 -7 41 -7 4 -40 20 38 12 13 25 15 8 15 40 32 12 33 -17 27 17 1 69 23 -41 113 0 7 -12 14 1 15 -1 28 -11 42 -3 -21 9 20 -22 -2 -1 -15 1 22 -14 -17 -8 19 3 -10 -21 -19 -33 -6 14 -6 -23 -12 -29 7 -1 24 17 55 14 4 -1 15 3 -9 92 34 35 -11 -51 -21 10 4 7 9 0 19 15 26 -16 40 10 -6 -2 7 -8 -55 7 -24 14 -8 58 -10 -16 -31 18 -16 5 -38 -30 4 -6 -13 -27 29 -11 17 2 9 -36 3 6 2 -13 27 8 11 35 -24 -40 -36 -7 19 -8 6 -5 3 17 -28 -1 35 7 1 0 -6 -6 39 18 40 30 10 7 38 5 22 -25 16 -23 4 0 -5 43 32 -5 -9 9 -13 18 4 10 -8 -10 26 21 -4 -12 -8 4 -6 -23 -6 12 13 25 -34 74 63 3 8 -22 8 -3 23 -7 -19 -20 -5 9 -1 -10 18 -21 14 -16 21 33 4 79 -10 2 15 12 19 5 -35 -34 -32 -20 -6 21 1 -15 0 5 -4 -44 -26 -9 8 16 5 -17 10 23 -21 14 -25 3 -7 20 -3 1 14 -17 2 18 17 -15 -35 28 2 -42 71 14 -19 12 10 20 -5 7 -12 -4 6 -12 8 -1 -8 47 3 -2 -46 -8 -4 -4 34 39 -14 -30 -38 23 4 -17 -21 18 -26 31 6 8 -36 -2 -14 -4 -16 21 -34 -2 38 10 5 36 -16 15 29 21 20 41 27 7 -11 -40 -6 0 -25 -2 -11 4 -6 38 0 64 9 -12 -9 56 32 -24 -29 22 40 -24 19 -14 5 -28 30 -43 5 3 22 11 17 -40 17 34 -9 13 13 -12 13 48 11 24 1 -1 12 -9 10 -3 -7 43 -24 4 -13 -39 -14 7 15 -13 11 3 4 -1 12 -33 38 13 13 19 17 28 6 3 1 -8 4 -15 -18 50 17 -25 20 7 -10 -39 9 0 -12 38 126 -5 -8 7 -7 -12 -7 -1 8 3 15 -10 47 7 -9 -24 -19 8 -14 -1 -27 -3 6 31 -36 14 34 8 25 5 -6 23 29 9 -3 -26 13 -8 -2 -33 -71 -18 -9 -19 47 -18 8 -7 -6 2 15 -21 15 -63 11 26 16 23 17 1 -12 12 9 0 21 8 27 -32 -7 4 -3 -7 -15 -11 1 -12 -46
7 34 -12 15 17 -12 -13 -8 -7 -23 16 9 43 49 -29 -55 69 -32 -29 20 10 55 -6 35 5 6 2 37 14 7 -46 23 0 24 2 25 -45 -5 17 17 6 30 6 -2 -25 -37 -72 9 -9 -17 -29 -21 -64 38 -33 -1 -12 21 -29 -8 -34 21 0 -32 25 -12 -106 -32 0 60 -77 49 38 49 -4 76 20 6 -19 5 -35 -2 2 -22 4 -4 14 -13 22 -55 -59 -38 64 17 -15 20 -44 17 29 -26 -43 56 1 -2 -4 -44 -2 31 90 -40 -2 -38 48 9 -48 -17 -1 0 20 -37 28 -25 8 14 -11 5 8 9 -35 8 109 5 -47 -27 -8 16 7 -12 39 -25 26 -6 -47 52 3 -21 5 13 7 5 -47 34 6 44 -14 -30 -1 7 21 4 52 -15 52 0 47 12 -55 -27 30 -50 22 43 57 -62 -32 43 48 -21 8 45 -15 -36 -10 14 15 -34 38 18 -33 17 8 -1 46 -22 36 -24 -2 55 8 5 12 26 -9 -69 61 7 0 -14 -5 11 -18 19 -16 5 -42 1 4 30 61 24 -28 -41 0 60 31 9 9 9 53 0 -8 -4 -23 -15 37 2 -23 -26 60 59 -14 -24 -29 -3 28 -18 3 35 -25 15 47 -1 41 60 48 1 23 -36 14 4 31 -16 8 -41 12 -39 0 44 60 24 26 -47 -7 -17 -28 43 -14 -45 13 -27 6 -1 -18 -41 -31 6 -16 -26 -33 -12 -41 -23 6 19 43 -69 12 -24 28 52 -45 -13 22 39 10 -98 -17 -27 17 5 13 -46 -19 -36 -5 -5 11 -17 -52 20 3 -10 21 -56 35 -3 -45 69 -6 48 -23 -16 49 23 0 -35 45 -33 12 21 22 -21 31 -18 27 -45 11 -52 42 32 -82 -84 117 -9 42 11 59 -36 19 -5 -28 -1 -23 4 57 12 17 13 -36 9 -5 -56 30 -17 12 -60 -24 -25 1 -14 56 -8 11 117 -28 -4 -7 -13 1 -86 -12 -20 -56 13 62 53 42 -31 -2 -13 4 -44 22 52 12 15 -81 30 -14 2 -3 -6 13 -2 16 111 0 -45 -10 -17 -26 -75 -51 -24 41 43 43 -12 13 55 79 18 -10 -51 2 -36 45 10 -22 -13 5 20 -17 18 52 -33 1 82 -42 35 35 17 27 8 -28 -21 -44 41 -17 -63 10 26 -60 -4 -8 24 -17 -33 -10 -3 -2 -59 -37 7 2 -18 12 43 112 -9 91 -24 69 -32 -10 24 -26 22 47 -23 -5 -12 -22 24 1 64 4 -22 -29 51 -1 1 -5 -16 -29 9 -60 -38 65 -14 -11 -69 -15 32 11 -23 -23 47 17 11 -26 25 -16 53 94 38 3 -30 -52 42 -17 -62 28 11 52 -101 -21 -1 68 27 2 25 -51 -33 -77 -5 8 -50 -26 -5 -14 -1 50 -44 -40 -24 30 -21 19 -16 -42 -11 -34 -39 -26 -15 44 19 24 38 -41 -22 53 5 47 -102 -24 17 -32 38 3 -43 59 -3 34 -75 12 28 -1 -31 6 20 -35 8 -44 28 -17 27 -40 -31 -14 39 -57 18 -19 20 -46 -18 37 24 6 -22 95 9 -38 -57 34 41 9 39 13 31 25 -18 13 16 65 15 65 38 36 -127 -8 -1 -17 2 -8 33 16 13 19 23 0 -45 -42 38 -1 28 -44 7 55 -2 28 9 7 -37 -2 36 47 8 14 14 54 9 -24 25 -79 49 -47 -28 49 -24 -9 -57 5 15 32 -19 15 -52 -7 -26 28 22 -46 14 22 92 20 -21 -33 -114 -70 22 -24 7 16 32 29 -30 -37 87 22 -10 -43 15 -19 10 -29 9 27 18 -5 9 -6 -27 14 1 55 -16 15 -36 -17 -8 -9 -31 22 -50 -10 50 28 -21 38 -8 18 -39 37 29 24 -44 9 14 -5 60 14 50 -34 47 6 33 36 8 -33 25 37 1 -25 36 11 49 46 24 25 10 -20 14 2 10
61 -18 -14 7 -27 -48 15 -3 -12 -19 30 -19 -18 -6 18 14 0 29 44 9 34 -1 24 9 28 -24 35 -35 -30 13 3 14 -10 -5 -17 -48 -67 -36 19 39 2 14 6 71 12 13 -43 -13 88 -28 -12 -48 -58 -27 33 -40 14 -40 28 -5 -6 -8 -68 3 55 -81 -13 28 76 8 -17 -6 82 -44 20 -10 5 -10 31 5 0 -31 34 -21 0 26 76 51 -37 80 -21 -18 -12 5 29 16 41 -38 -48 -16 -30 68 -19 81 -12 31 -25 4 -14 -127 -12 6 -11 3 -17 15 -18 -8 -21 -5 40 1 56 44 3 26 -3 10 17 11 -46 50 21 7 -11 -18 21 7 -13 29 4 -8 14 -21 -28 -71 -4 21 19 1 -48 23 -14 -12 13 -36 -7 -1 49 -10 59 -8 -17 -64 3 -12 11 25 -21 2 26 -14 -20 -53 -88 -1 3 19 67 33 -24 -3 5 -45 -58 -18 57 -23 54 74 -13 -18 14 -16 -33 6 45 -41 -15 -11 -17 5 -20 19 -9 15 36 27 26 9 82 10 -10 -8 -23 -14 -6 -13 -24 -15 5 57 23 16 27 41 20 29 -23 24 -48 -7 -16 0 40 34 -61 26 -23 8 -10 -2 -16 13 -42 -48 30 -13 -16 -16 13 46 7 -57 -1 -28 2 3 19 13 -9 9 -10 -18 -1 -23 49 6 10 -51 -45 -38 35 6 10 -43 -2 -9 -34 2 56 -19 35 -28 -57 -24 -21 0 -23 -42 74 -14 26 19 17 20 24 -9 -32 54 15 -31 10 -31 -39 -22 3 70 -14 -27 -47 1 19 36 40 25 -23 16 38 4 -1 23 -62 66 11 13 43 -11 31 25 1 -5 70 5 -38 33 -88 -5 35 26 -46 -30 13 -6 28 -11 -31 5 55 -2 -63 53 8 14 7 12 -22 -5 12 41 4 -1 -72 -4 21 23 10 -2 -28 -38 22 -14 1 3 -29 72 1 -33 12 -13 18 -44 -17 9 17 7 -17 20 14 103 -18 -36 -24 36 107 -53 -10 -17 -16 -42 -22 -2 -15 6 -42 0 -8 -59 6 8 -19 -48 18 4 24 -49 16 12 -17 79 -24 -5 24 6 -12 51 -10 -8 -13 49 -41 -7 -34 47 -21 -26 18 17 -51 -56 -21 27 -24 27 16 18 6 -35 32 22 -65 39 -21 -4 -62 -29 -20 -6 -57 38 43 24 -31 -29 -3 38 17 77 -20 45 2 -9 3 17 -34 31 -67 48 -45 12 8 -7 -4 11 0 37 -26 15 6 -24 -21 6 0 23 -21 50 -6 -4 -29 21 -17 -28 7 -7 25 -16 -2 -56 -44 -30 5 -18 -24 -17 -3 -35 -5 -13 13 18 -17 -67 4 2 3 22 11 4 -20 40 0 -17 19 -43 42 19 -29 -21 12 58 -11 -66 49 -6 -44 -17 -18 19 16 24 -38 7 -71 -67 10 -19 7 -14 -43 25 -104 31 36 64 13 30 68 -74 -27 32 39 42 -49 -11 -4 -14 36 -26 -23 54 -13 -13 -44 19 -2 -2 4 -38 2 -49 -1 -20 16 41 22 -48 -9 39 80 17 -28 5 -7 -20 -30 17 -21 54 -2 10 -59 -20 -60 -27 -46 53 45 -1 -18 19 52 -10 -65 47 -7 0 -35 35 -32 38 -31 6 25 -12 -15 -12 -71 -43 1 -15 -21 -16 48 73 -27 -31 19 59 50 -29 37 49 -28 1 -16 -27 -39 -36 36 2 -46 33 -21 25 28 -14 28 31 -28 -4 83 2 2 27 15 26 15 -28 21 -36 -36 51 -25 -53 45 13 -55 31 -15 13 -28 -38 39 -31 -62 1 -8 -10 -83 9 -73 32 21 85 28 -27 6 33 32 8 69 54 5 15 -13 15 30 -25 21 2 25 -12 -33 18 5 30 -14 15 -44 -1 66 -7 32 61 41 15 -67 -13 12 -82 27 -11 -12 -6 -20 -15 -79 60 6 -32 1 -16 -12 -12 25 10 -15 13 14 21 -29 8 2 -72 -15 -17 47 -8
81 14 -12 -11 13 -38 1 -35 23 55 -3 12 -3 19 10 22 24 5 -14 12 -2 -105 18 23 19 -38 5 8 27 7 -29 -17 -2 -56 18 16 25 -6 -17 20 -8 -29 60 -72 -14 -68 2 -5 12 50 0 12 48 -37 -1 8 5 -17 3 -5 -20 -18 19 -26 -6 -10 -11 -13 -59 -40 8 33 -54 -5 -20 -6 -14 -4 30 35 -28 17 24 33 15 33 -15 -1 -8 -15 -8 -2 38 11 5 -27 14 -19 -46 -41 20 -10 0 -1 30 32 15 -4 35 -83 4 -23 -26 9 42 2 -33 -2 58 32 -20 -44 -13 9 -12 -20 -39 9 39 -5 -21 28 23 26 29 24 7 7 3 0 17 -15 45 7 -1 -14 -1 82 1 -11 9 -49 15 25 -31 28 10 -31 -9 18 37 -17 -18 6 11 -29 3 42 21 24 26 13 5 22 -48 -24 -43 38 19 25 -16 11 -14 26 -3 12 35 -2 3 -1 -3 23 -6 -19 5 -3 -10 -9 -8 -24 -9 7 -15 -22 26 -2 -6 -35 7 -17 -6 -20 0 -20 26 22 3 -4 12 -10 22 4 -11 29 8 -21 -43 4 -19 -19 -34 11 -33 -40 13 4 70 2 18 41 34 43 -11 31 -24 -9 -7 5 16 -35 31 5 -8 -25 -12 -6 17 29 11 -4 2 6 28 9 25 -10 27 22 28 51 5 33 -15 -24 6 36 18 2 24 0 19 -7 17 -4 -56 -17 24 11 6 -8 -28 -25 -3 -16 17 19 37 7 -66 6 -14 -49 -36 -20 -37 -31 3 24 -9 -8 -8 -4 -6 11 -35 29 4 35 21 -11 -3 34 44 -42 -25 38 -32 1 9 17 16 -6 126 -8 20 -5 -49 -5 -23 -41 28 11 -8 8 17 -6 7 17 25 -22 -52 26 -41 -14 28 10 20 40 -12 -37 3 -24 3 8 53 -10 -28 -31 -18 63 36 -7 41 2 17 -34 -11 -1 -3 -35 -13 -24 32 -32 -11 40 13 6 21 -33 -8 75 -11 38 63 14 -5 8 3 46 -3 28 4 -4 -27 15 19 63 -16 -4 4 -11 2 -20 8 20 40 7 25 -3 -7 -10 -28 2 -8 29 -4 -31 14 20 -29 7 6 0 -19 22 16 -32 4 1 -36 -17 -5 7 43 -10 14 7 2 5 15 19 6 -3 -27 35 -24 33 57 -3 34 2 12 -11 -12 10 13 52 13 30 9 -10 16 10 21 6 5 -16 -53 -69 -5 13 53 9 48 61 13 28 3 -15 0 -1 -11 -19 -36 -34 -8 44 6 -23 -13 41 -2 6 22 -8 22 12 22 10 64 4 32 1 -87 2 57 11 -50 22 15 21 18 14 4 -37 26 7 -33 9 4 -14 -21 2 37 79 28 -43 10 14 -18 0 4 -41 -17 0 -20 -68 -14 11 -33 3 70 22 1 33 3 48 -3 -10 1 25 -22 16 14 27 -15 -31 -7 9 11 -42 -70 13 4 -18 -10 4 7 0 0 -19 -21 2 -26 4 14 -28 -1 -9 -31 16 -22 -2 6 0 5 6 16 3 -51 5 -36 -11 -11 -57 -14 41 -1 33 28 5 -13 19 10 -15 28 10 -6 8 56 11 -88 48 35 8 0 -3 26 34 16 11 20 -11 -17 8 32 17 -32 28 14 16 -53 39 44 -10 -6 -14 -2 48 10 -24 -20 -15 14 14 -7 -8 -16 -24 -8 12 -60 -19 30 92 -23 12 2 -13 7 -15 -34 26 3 13 -7 29 -7 -10 -2 -20 16 3 26 8 -38 -1 7 4 33 3 24 17 -4 -19 -31 45 65 -16 -53 -42 33 -7 -52 9 -11 -13 -22 -45 -26 0 -26 31 30 0 5 34 -4 44 2 -2 3 -5 -9 48 -3 33 -10 0 10 -21 44 4 -3 1 13 2 -17 -59 8 32 -16 -3 26 -14 25 1 -40 -39 26 20 27 48 4 -4 1 4 13 -33 -33 -12 6 26 11 34 -6 2
-89 -21 -16 7 38 60 17 72 -38 8 -43 20 62 -8 11 14 -28 21 30 -11 6 46 5 -42 22 60 -21 12 -12 30 30 57 -20 57 -1 89 1 17 -33 -38 22 33 -22 -1 51 41 35 -9 32 -27 -22 -98 -10 53 -127 -19 -31 8 -4 13 37 9 -43 -32 24 23 14 -4 27 -15 49 -27 28 -7 -24 -6 50 8 56 26 38 58 12 -17 34 21 24 -22 27 60 -67 6 41 28 34 9 4 9 76 -27 -27 29 54 -52 -5 -19 -29 13 50 36 5 46 -23 59 -54 28 -1 11 71 -9 -29 23 -3 -10 18 -9 -23 47 -50 -16 -20 18 77 -1 -58 -17 -29 8 6 -40 44 -28 24 5 1 73 8 -49 -14 10 0 43 -4 20 4 -55 -37 5 -28 17 -19 -23 -17 -13 15 -101 -9 -27 2 10 -30 -4 -8 24 -35 -30 -8 -39 22 14 -25 -34 -87 -32 -36 21 23 -27 14 57 50 -50 -9 48 -50 24 27 11 13 -31 38 -13 -2 13 -9 21 -45 -38 -9 -39 -30 21 12 8 4 27 16 -2 -20 1 8 -69 -51 20 0 24 6 -17 -52 25 56 -23 -43 21 12 -41 39 13 -31 -39 -5 -16 -53 -36 -50 -22 -10 3 -25 21 -1 -7 -84 43 20 103 18 2 47 -8 4 -5 -34 39 -30 8 57 -51 -16 9 31 64 -24 57 -34 64 114 -8 33 4 -20 61 -29 -32 -53 21 22 -28 7 34 3 -32 -8 24 -90 -39 -32 -48 -28 -37 -6 -40 -48 -20 -63 -104 22 -7 35 -11 -31 44 31 -21 -4 49 22 -14 -46 -14 11 39 -25 12 -48 23 -7 -4 -32 -23 -40 22 -66 -31 21 -3 38 42 -39 2 -23 53 -19 1 -27 22 -8 18 -7 1 44 56 40 -14 7 33 -34 12 35 -21 11 9 72 45 46 19 5 40 59 -23 5 9 -87 -29 6 39 25 -22 52 -15 -55 0 19 -50 16 31 17 -4 -10 -19 -14 -17 -24 -11 -18 10 -14 -23 -23 30 101 -49 -13 -15 -10 13 20 17 28 3 -5 18 7 -59 32 12 -30 40 23 -14 29 0 1 61 38 7 -2 40 6 -91 18 -2 29 -33 -33 32 18 22 -22 28 28 1 -51 29 -54 59 -6 -27 -30 -19 35 0 16 7 43 -73 -66 -11 -9 -87 9 -13 34 -28 41 -3 -47 -50 -19 -19 -10 19 -13 -60 25 -103 -10 -27 -15 49 57 44 33 -4 -16 4 21 -35 11 36 30 8 -8 -67 -8 -30 2 23 -3 -19 61 42 1 -12 -11 -15 -27 46 49 -12 11 -15 -16 24 63 -66 12 -19 -10 -6 0 0 -15 -39 0 -46 8 14 10 -41 21 9 29 35 -26 -50 4 -8 -1 24 42 3 -18 -2 -18 -4 2 -29 -11 -11 -58 -1 1 -21 -40 20 38 19 -37 -28 -8 -18 -36 15 -1 -6 -42 -8 20 -13 14 46 38 21 -21 -3 8 -13 -52 10 8 44 -53 39 9 36 -16 -27 -2 18 14 -8 11 2 37 42 44 -11 92 24 15 50 68 -7 -31 -37 -36 40 14 10 77 -19 -84 -14 0 -29 89 -32 11 40 31 -62 -24 15 -11 -19 -9 45 99 -19 -53 68 93 -22 54 59 30 5 14 83 29 5 4 -20 -14 93 -3 -2 55 -50 -60 12 7 -13 -6 17 -23 26 -2 59 -7 54 -21 -7 24 26 -10 71 9 -32 22 27 1 -49 4 1 32 -14 31 -62 -85 -8 18 -27 13 -44 -88 -29 -28 6 -5 79 18 28 -14 -6 -20 12 38 5 -63 43 -52 11 -14 47 -22 -27 -5 -47 -8 -23 -16 23 37 -53 41 38 4 -66 -3 59 -71 63 -35 -21 30 98 12 2 42 5 46 41 -54 20 6 75 8 18 2 11 -16 -2 -5 26 20 -10 15 23 0 -30 14 -31 24 34 71 -50 -32 -17 66 -14 -1 68 5 -26 -7 -41
-50 -43 -65 36 -18 -27 9 12 7 -26 35 -9 -12 9 -13 3 22 -40 -68 35 -15 -22 43 37 -37 -91 -12 -20 -1 -2 44 -14 -5 -28 5 -50 3 5 5 16 -5 43 -68 53 -5 84 2 -11 -79 33 38 -19 23 0 -43 -35 -44 -15 -65 -29 28 -46 31 36 95 -23 -67 -19 -11 33 -17 25 29 33 55 0 1 0 -23 8 20 -35 29 54 23 -13 1 -1 14 15 -8 -27 48 -26 -20 12 36 -22 -48 22 7 25 7 21 -24 9 -48 30 10 22 1 -34 4 -46 -4 21 -33 44 -40 4 23 1 23 2 -12 1 -12 26 1 4 76 -8 -44 -25 -25 41 -28 -23 14 25 -74 -33 30 20 8 -15 7 0 20 28 17 -30 38 19 34 43 5 -18 23 14 -103 11 -1 61 -7 -70 -29 -17 14 21 33 17 -42 -1 25 74 -21 9 -34 -27 -8 -4 19 30 38 -9 15 -18 -27 1 -74 36 19 -22 25 12 54 -43 -13 -59 73 14 -14 15 -48 -42 -15 105 6 -24 -37 -6 -52 -27 1 2 -14 -10 -19 -8 19 4 22 11 -8 -24 -65 -64 -45 -18 -8 -28 14 -10 -28 38 -22 57 25 10 -23 -32 46 -25 5 17 -51 25 27 -17 -4 -11 31 23 10 -14 -48 44 -10 -14 1 -42 -45 -6 -11 -14 21 33 15 4 22 3 49 -18 -79 -9 34 -33 -37 27 -46 -11 -6 42 -17 23 -19 23 1 4 60 46 10 -10 -55 -7 -68 3 -25 12 0 32 -28 30 -42 -19 -4 83 -7 27 -18 -21 56 5 38 -3 -22 -23 62 24 -56 59 -63 -20 -8 -28 23 -3 31 18 -19 -28 26 33 -13 42 -66 34 -16 -62 31 74 -43 -101 42 30 -55 -20 -12 27 -9 40 -34 -43 9 -18 39 -31 55 17 3 16 -20 -26 53 -4 -28 27 -11 -8 -51 -10 -60 -24 -39 -4 -41 -4 -21 3 20 19 6 -15 -43 -57 4 29 -7 -98 -36 -8 81 -43 36 -38 -7 -42 -23 -49 18 -7 16 -20 -24 -19 19 3 7 -19 -56 -23 -16 -27 -15 -18 -31 33 -21 -7 40 -20 12 -9 -15 -24 9 20 53 -85 -4 -52 1 -21 -22 -52 19 18 17 10 20 38 26 12 1 -13 39 -20 -2 13 -57 -6 28 -5 6 65 -6 27 12 -30 91 -3 -20 31 70 -12 -21 10 26 4 47 -47 74 -40 -8 -30 -6 -44 -25 -17 -34 -21 35 16 66 -4 34 6 2 -28 -7 16 46 22 12 -60 -17 -16 -8 14 51 18 32 9 64 28 3 -13 -45 63 -36 0 -19 11 18 1 39 4 5 4 59 9 -26 -2 -21 27 46 40 9 9 1 -32 -30 -48 40 -17 18 1 -37 28 34 20 -52 0 -55 -8 -1 -18 -22 -7 12 -3 -4 -56 -32 2 -36 -45 -11 -2 -20 -23 12 -37 45 63 27 15 21 8 32 65 69 0 67 -3 -15 -4 19 8 60 8 51 -7 -9 28 -27 -27 4 -33 -2 73 -31 35 24 51 -74 -18 0 56 43 -22 -45 -15 -9 -23 21 2 -26 22 -67 23 0 8 -41 -26 28 13 -69 0 3 76 -82 -5 26 59 -127 -31 17 -24 59 -4 59 37 14 23 71 -21 12 -55 -49 -7 77 -7 -51 -43 27 25 20 -18 24 -17 17 -13 13 15 -1 51 4 60 33 -48 14 1 24 -20 -23 18 -22 -80 -16 -10 11 -31 40 52 10 -29 43 61 -90 -30 5 43 0 10 -36 -21 -45 -34 33 43 18 23 -12 -31 16 -63 0 7 32 3 -33 72 20 39 -14 7 -57 73 29 -92 52 -54 -10 -20 1 59 -17 -11 25 24 62 -16 -6 -67 9 18 -17 -26 4 -40 15 -27 5 -2 32 7 47 29 -5 40 -5 -33 13 -63 -19 19 21 -3 -53 17 -27 -25 0 49 -32 25 -45 -22 -42 5 -16 49 0 -14 -22 7
27 -21 -18 -24 -14 2 11 -10 14 21 4 13 23 27 -15 12 3 18 -37 -10 9 22 23 -5 11 16 17 23 -7 8 26 7 21 48 -5 32 -14 -11 19 -12 -2 -31 -23 -16 23 20 -15 22 28 -17 -1 14 -3 -21 38 6 12 13 6 -12 10 4 -12 -2 -2 14 -8 20 -5 11 19 23 -15 -20 19 -9 19 5 -11 -13 24 12 -22 6 1 -3 -39 4 -15 -20 35 -10 11 -22 7 14 29 -9 26 15 28 39 -1 33 -5 -7 4 1 -5 -8 7 -19 14 -18 -12 1 18 -24 -9 -7 -24 39 15 -23 7 -10 -10 -22 -13 55 -4 5 19 32 -1 27 0 21 22 -10 -1 25 28 -13 9 -22 11 6 -13 27 -3 6 22 3 7 -29 7 22 13 -18 14 6 -6 28 29 -23 13 -12 -18 15 7 11 15 -23 -8 2 -3 -2 -5 -17 17 17 16 -7 21 -24 -25 -3 -25 32 -6 0 -18 -20 1 8 -4 -31 9 23 5 -25 9 -4 -2 18 20 -58 -34 13 -36 -16 -14 16 1 7 -15 19 15 14 15 -47 19 -15 20 6 -15 20 -2 -3 -49 -25 -9 3 20 -10 3 -6 7 -2 -15 0 7 1 23 18 -3 -19 53 5 8 -8 0 17 -8 -13 -31 -11 29 1 -2 10 23 7 6 7 6 -11 31 -27 22 6 -14 -6 -15 -13 16 -13 18 -8 -7 8 -2 -38 13 14 -9 20 -14 6 -25 12 7 8 -2 7 6 20 13 -14 -2 5 16 0 -31 -11 6 -31 0 6 -37 -10 5 -2 -6 19 11 0 9 0 -4 26 -1 5 29 10 -4 2 44 -15 -13 55 -127 -1 5 -31 66 -7 10 28 -4 -22 10 5 4 -15 42 7 -17 -2 43 -10 15 -1 19 -1 -28 5 -2 24 -3 8 14 -14 0 -17 13 2 4 25 3 3 14 -13 18 11 5 0 -5 -4 -13 35 -10 22 6 -13 -19 12 5 -100 6 8 5 -1 108 0 -2 18 -7 -3 -4 -5 -15 20 3 -19 -24 17 24 18 1 -8 0 -10 -15 7 -6 10 4 -37 -12 -58 6 -12 -2 16 36 -4 -18 8 -26 0 7 -9 -5 -10 -4 -16 -4 10 3 16 0 -13 -15 46 0 21 -19 -2 31 12 -2 7 -24 4 1 -8 25 -37 -22 1 19 -9 20 6 26 5 -22 -8 20 17 -11 0 -4 25 54 -6 -11 12 12 10 -10 50 -6 -19 4 19 -14 -32 26 0 -15 -8 -28 9 5 14 27 -2 -3 -2 -3 -1 18 -10 26 -19 -29 24 15 0 -3 -21 -38 12 1 4 -1 -19 7 14 10 -8 -4 7 -3 1 -15 0 12 25 -11 6 -5 -35 -46 0 -12 -2 -16 -1 -2 -31 -32 -27 12 40 -2 29 12 -3 58 -5 4 36 -1 18 8 2 29 -1 -26 -12 -12 5 23 -5 21 7 -46 12 -39 -12 -2 7 30 12 -18 -2 7 5 6 -2 33 15 -7 -45 -2 54 30 -17 -15 52 23 27 5 -11 19 -1 -14 -27 -35 13 -15 -14 16 -10 2 -11 39 -13 38 -3 -28 0 51 4 -6 11 2 -2 6 -3 -5 -9 -4 -4 4 -22 -15 -4 2 32 -3 8 7 3 -8 23 24 17 5 -40 22 32 0 -1 -9 -2 10 7 4 2 29 9 -13 -3 2 18 8 -2 -7 -18 24 -28 -7 -9 13 -9 -3 15 2 -3 -8 6 -8 4 7 17 -7 31 -11 1 2 14 -41 14 16 2 -13 86 13 12 3 9 3 -8 -11 -24 -10 3 -3 -63 -36 21 15 13 4 14 -2 -39 -13 39 2 3 14 -7 -2 17 13 2 9 14 2 1 -13 14 6 25 4 10 -19 12 22 20 3 19 12 -4 18 -1 -1 14 -1 7 26 10 25 12 4 11 15 8 13 32 -7 -7 12 -5 4 -5 9 34 0 -12 26 -6
-52 -45 15 26 -8 4 -30 -64 58 27 -4 -2 -25 -9 -25 -21 -28 9 18 -31 43 -37 15 21 6 42 56 -89 -16 24 -31 7 -57 -7 -12 -35 -36 -16 21 29 -9 9 42 -73 42 -26 2 31 46 19 -22 -70 35 -35 40 11 -14 12 42 4 -3 16 -54 -15 -68 -44 30 18 -17 58 23 1 31 -1 -20 -16 30 -10 54 7 -34 -9 -2 16 -2 -20 -125 -15 -42 -9 -21 -41 55 -5 -43 26 28 -12 -30 22 -29 -22 14 -45 11 42 33 -19 22 24 -3 26 20 30 -45 -26 1 -13 -6 -3 -3 22 22 -17 -10 19 -2 -34 23 25 51 19 60 -52 -78 -25 23 -10 49 9 -53 21 21 -41 6 -9 -6 23 -3 48 5 31 -64 -46 64 -17 29 65 31 -23 -37 -41 8 70 -20 52 -29 13 -4 12 3 16 28 46 -13 -40 18 3 59 -59 -21 46 27 11 38 -8 -66 -6 37 -79 39 7 36 6 -36 50 23 -23 -21 -2 -33 -94 62 -4 4 33 52 32 -9 -7 -15 -22 -26 -60 -7 -15 -24 4 7 13 -16 4 -15 -42 -21 29 -51 -37 52 47 -8 -36 23 -11 48 -8 18 -52 36 19 14 -43 -9 20 36 3 29 38 20 28 -34 -44 38 -3 -1 -17 -72 -32 -13 -29 5 3 -17 49 8 -48 10 -12 -6 7 -14 -41 -11 4 37 27 11 -40 -41 45 -5 12 -33 9 -10 -36 -17 0 30 73 -28 31 -37 17 -1 -28 -47 1 -30 29 24 -32 30 16 44 -31 4 -37 0 27 32 -37 -18 -13 59 -98 -71 -35 -14 32 29 3 -90 -3 -8 -20 -23 -7 -17 0 -38 10 14 -14 -10 72 -26 6 33 -43 -15 63 59 37 -82 -22 -11 23 -55 9 -37 32 -37 -49 31 3 114 -40 -44 -17 -23 1 -50 -16 6 14 5 19 -11 -41 -53 91 -90 -9 22 23 -17 -70 -19 29 -24 35 -49 -25 -8 47 1 16 -39 -88 3 13 9 61 -8 -127 -21 -26 -6 18 35 -74 -12 -14 -12 -3 -22 1 2 7 24 38 -41 -40 -1 -41 -55 -5 3 33 -27 -39 -51 -33 -5 -1 14 -25 -12 -24 -12 -13 -10 5 1 32 -11 -37 27 20 -39 -53 20 -19 46 -44 39 -14 7 34 27 21 -6 -3 60 33 21 60 -14 30 -40 21 -27 14 82 -83 -69 -32 21 26 65 1 -84 -12 45 -40 -58 11 11 -56 71 -46 71 -7 3 16 4 -2 7 -33 -14 32 -2 -65 53 38 -2 -45 -27 -55 -16 -31 37 7 -9 45 -36 -117 -19 30 45 10 -11 -23 -28 -2 -16 -4 -5 25 17 8 54 -19 50 -78 4 -46 -37 -19 36 -35 -6 -19 -25 -14 0 62 -17 -121 21 43 39 -25 20 -16 15 -30 24 11 -28 7 40 15 54 -55 -7 -23 8 15 16 -38 5 -55 -22 5 36 28 -47 -32 -19 26 10 -4 41 -28 -35 -27 25 0 15 -14 -56 18 -14 -2 15 -51 1 5 12 -3 7 -13 12 -23 40 -14 54 16 48 -23 -65 -42 -1 36 1 -57 39 -13 2 21 23 15 -12 60 -31 29 19 5 56 10 -89 12 14 -28 -69 27 -38 -43 40 -10 -22 -92 23 -19 61 -17 12 20 16 0 -11 -4 16 -54 -51 18 6 -1 39 12 -16 -15 25 1 -29 -21 -47 11 11 43 -32 -60 0 -4 -46 1 -23 44 -1 -13 -86 4 -32 -60 13 -7 15 27 -17 -81 46 5 -57 -52 67 14 36 -34 67 9 -45 -35 -10 26 56 41 -54 17 -113 41 -67 -17 -8 41 34 -12 2 56 40 37 -24 -2 28 -5 -30 55 15 28 11 17 64 64 -7 -55 28 -14 -52 -26 -17 -6 17 25 30 8 67 15 -25 -44 47 -12 -25 2 1 -56 36 -77 -22 -3 -14 -25 12 10 39 5 36 -56 16 -38 17 -30 -3 34 -5 25 -12 38
-37 39 -6 -1 12 -3 18 45 -22 7 6 16 -5 11 5 16 -9 9 34 1 51 15 -11 -29 31 -33 47 16 -21 -20 -49 -15 -18 4 -12 126 22 -88 -12 -55 -32 14 -6 -58 -22 10 46 4 45 -17 4 -25 -10 -24 0 8 15 35 5 7 -42 0 -30 36 1 27 -31 9 29 30 42 3 -11 -2 31 6 -8 0 5 -44 13 -12 14 -10 -33 32 10 -15 24 9 -7 -15 61 13 19 -9 -9 -2 25 -22 -15 -55 0 47 -28 -12 -14 7 5 -1 -6 -17 5 -24 15 -12 11 50 1 21 -11 21 4 22 1 -19 -53 34 12 -14 -3 11 8 -3 47 20 3 -28 -18 -29 0 21 39 -22 1 56 -22 -35 -11 -1 23 30 -11 9 3 31 42 17 -30 -21 2 12 20 -25 7 -6 13 22 -36 23 1 -34 38 21 -35 4 21 -1 11 7 6 18 39 -35 56 7 1 -6 -54 -33 30 -51 -39 -1 -11 14 29 10 16 -35 -47 -29 13 -35 -12 -14 -6 53 -26 11 11 -1 22 7 -6 19 -16 10 66 18 36 16 7 -4 -19 36 32 -37 21 -6 -9 21 -12 -23 -12 -47 34 -32 26 -10 13 -24 23 -18 -25 -16 -39 38 -38 -14 43 -41 0 -52 -16 16 -39 24 -10 33 11 28 14 30 -10 9 48 -2 -7 -18 7 -26 -30 24 -35 -29 26 0 2 11 -21 -47 34 -12 10 7 26 -23 21 5 19 7 -44 50 -48 -15 -12 -56 -5 23 17 10 25 -5 -33 3 0 20 -21 40 -39 46 18 1 -25 31 41 13 -10 -25 -55 3 -31 -77 17 11 16 -6 0 -8 -17 29 6 44 -44 -54 -21 -69 -27 -41 5 4 41 27 16 21 -17 -16 -41 -30 18 36 34 26 14 -23 -36 4 -6 10 17 -3 44 -38 42 -17 21 -20 25 -11 -23 16 12 5 26 -11 15 -39 1 24 -67 -8 34 53 -45 5 -31 -3 -23 -45 -12 16 16 67 13 -18 -31 28 -27 -48 33 33 -1 23 -8 -8 25 1 22 -11 12 -41 18 9 16 -45 -6 -25 12 30 12 -26 18 -18 -24 -26 -21 2 1 47 39 -16 14 26 -45 -9 11 16 36 -2 0 -18 1 57 -75 -36 -3 -47 40 -8 45 -32 -16 -4 0 37 -14 10 29 25 -45 -5 8 9 4 -3 -32 -37 19 -53 20 -74 8 1 -20 -27 -64 4 -67 -40 -4 36 -79 22 -20 26 -4 34 0 38 -17 17 -14 -31 -19 -8 -16 -15 -30 -48 28 51 -28 -6 19 6 -65 44 13 -27 9 -15 11 7 -11 -8 -43 -16 -14 6 7 -15 -3 30 8 76 19 37 -50 22 32 -8 -15 26 -20 -66 1 34 -11 5 14 -35 19 40 -16 37 12 51 48 6 -14 6 2 22 7 27 26 19 75 43 14 -40 -23 20 -1 -24 -94 6 -19 -19 24 -17 -52 -12 9 -54 -22 -28 26 20 -5 17 1 16 -20 -64 40 46 0 -5 -35 -45 44 14 22 14 22 16 -67 -14 67 -45 5 21 -1 20 0 -16 10 51 -21 4 -45 7 1 2 47 49 -19 -36 -16 -17 8 -22 -5 22 23 -5 6 -26 -53 7 49 34 -21 -47 30 25 -8 5 65 15 20 16 -38 -13 -12 -9 -2 -6 -20 -22 4 3 48 7 -14 47 -56 -13 -13 -15 -27 -18 1 7 34 -16 -4 6 -17 14 -22 -44 -25 38 -16 59 29 -1 28 -4 -5 22 0 3 41 0 -5 -24 27 29 -33 9 -28 -19 -44 49 1 8 21 36 -15 11 -25 -54 -5 23 -29 -9 -70 -47 30 -31 11 3 16 25 33 31 -2 61 -20 -33 -25 39 17 14 25 19 74 -24 -18 -33 -33 35 -15 59 5 -33 -22 -6 -19 47 1 -26 -81 -30 -3 -2 5 -2 -2 -38 -24 59 -9 1 5 7 44 51 -2 16 22 16 22 -19
24 9 9 -17 34 18 -2 -19 -41 0 -14 3 33 -31 -27 -8 0 32 1 4 10 -12 6 37 -11 32 39 -15 -15 7 29 -1 13 -7 -8 45 -13 -1 -18 -3 -21 -31 3 30 8 0 14 -19 4 -24 1 10 -2 13 39 9 -41 5 1 1 22 -7 1 -9 11 -33 -9 52 -20 17 43 -4 4 6 23 18 -21 4 -13 21 28 6 13 9 38 10 -34 6 -21 25 -7 4 -8 -15 3 4 -12 -12 22 -31 21 25 -2 29 -13 4 -1 -11 -21 -36 12 16 -14 -29 23 -10 -36 -4 14 18 -37 7 13 32 39 -21 -14 38 -13 -4 -76 -19 -13 11 -4 30 -20 54 -30 14 40 28 7 -50 11 26 -15 -23 -2 25 -36 -6 28 1 37 11 6 0 32 -1 -34 5 -15 26 32 13 26 3 -3 1 -55 23 -9 29 10 13 -1 0 21 -2 -9 41 -5 29 -22 16 39 12 12 11 -20 0 22 7 12 -38 18 3 -35 52 -17 8 23 -65 35 -7 2 -19 -8 4 32 28 23 12 19 9 19 5 -36 2 13 17 9 -24 8 24 -15 12 13 12 -11 34 -7 -2 15 -4 28 47 4 -28 25 26 2 21 -14 -17 22 16 26 -2 -29 21 25 41 -20 26 -11 27 9 19 -18 -10 -5 -7 -2 6 7 39 49 22 10 45 48 12 -10 -35 -11 -14 -3 14 -8 -7 -23 7 40 -38 24 -7 -25 52 -9 14 9 18 -16 -29 -32 27 -83 26 11 13 1 32 1 8 6 1 -4 42 10 12 1 17 5 -4 41 22 -21 -60 19 -44 -17 -16 10 -4 17 -10 -3 -2 -11 -17 -59 -1 -6 -13 -4 27 20 34 25 3 18 4 -19 38 -29 29 20 -22 7 56 4 -23 5 30 13 -5 -45 7 13 -16 -9 -19 -44 18 42 5 8 11 -41 38 -13 -6 -10 -5 63 -5 -2 13 10 16 1 -19 28 -37 11 17 -6 28 21 -14 18 -5 -13 17 4 -7 -8 0 -5 6 20 5 10 4 -16 33 14 -9 -5 -26 8 -9 -13 15 23 5 -12 8 25 59 1 39 11 62 6 10 11 39 19 30 -15 8 -3 -74 23 -1 7 29 -39 -7 -13 8 7 -12 -10 126 -16 1 45 -19 10 5 36 -24 31 -14 -19 32 -8 2 5 23 -41 17 -88 55 26 -30 2 26 -19 -28 -9 17 1 38 30 56 45 -18 12 -44 37 18 25 -24 -21 -24 24 11 24 -11 -47 44 -1 35 5 11 93 10 -31 5 12 14 15 11 -22 -23 -3 2 -6 17 10 30 41 -2 -4 16 11 2 -15 8 -13 -21 5 -44 38 10 -1 -1 11 -42 -8 -10 -4 53 6 9 5 -4 24 -10 -9 -35 9 7 18 41 -18 -3 50 21 -20 -61 -28 4 -59 -4 -5 -6 29 -29 -5 9 -6 25 17 -10 -5 16 45 -5 -30 -13 -16 -15 29 5 -45 -43 -15 8 46 -1 24 50 -1 61 -26 -48 -27 23 -3 -8 -3 25 -43 12 -33 16 9 -56 -5 -30 -5 -4 -1 3 -33 -3 -48 24 -7 50 28 4 11 34 10 -3 -28 -2 -24 8 42 5 33 22 30 -12 17 0 27 -22 15 20 19 -17 16 -29 3 23 -25 -9 -17 9 36 9 32 -4 -1 49 -3 3 19 -63 6 8 12 -5 23 4 -7 -15 -7 -27 -28 0 -7 2 1 -13 26 4 -10 7 -18 0 -9 -25 -58 20 -23 21 -7 -10 -9 0 -18 8 -30 -6 -14 31 12 -17 28 -4 2 2 -11 -28 -19 10 16 3 14 -17 -46 6 -43 13 -7 24 -2 -22 -17 -35 6 34 9 -25 -20 -57 7 19 10 -12 -1 -10 -8 -3 -33 18 -16 -14 11 -10 21 -1 6 -4 37 10 -10 45 19 -23 -4 8 -23 15 2 -31 -2 3 -14 -25 34 -16 6 -5 16 -7 15 -2
10 -18 11 -8 10 -4 28 -35 1 -7 16 -17 40 6 6 18 31 -3 17 41 -8 41 11 -21 2 23 -51 -11 -29 -4 -8 7 -3 51 42 15 10 23 -16 5 7 21 26 34 3 17 29 -6 35 -5 -23 5 -8 35 52 20 16 -30 10 2 -12 10 -9 2 -32 -6 31 -10 33 4 29 -30 21 -3 -29 20 -17 4 -18 -8 27 19 -7 -20 7 -39 -14 17 14 32 14 -1 1 -2 -20 -13 -3 10 14 -1 -1 -72 -2 101 -4 18 9 10 12 24 -2 28 -8 -14 -50 -4 0 -9 8 21 6 59 -25 7 22 10 -25 -44 35 -19 -21 16 11 8 -38 15 21 6 -23 -2 10 -1 21 17 1 81 -6 -68 -11 -14 -4 9 -10 5 14 38 1 -13 -9 39 8 -15 13 21 -17 18 -2 -22 -21 -17 -30 -24 50 -40 -28 -127 4 33 3 34 11 38 -47 14 -30 26 -11 -35 2 13 -2 -15 -23 -3 -25 8 13 15 26 -50 -2 14 10 19 -17 42 -4 -116 -17 -8 -4 41 34 -21 2 10 -14 28 -17 26 25 -13 -25 30 -6 23 51 22 -18 18 5 -13 5 -16 46 18 -18 -12 -19 -27 5 17 -17 15 33 -17 -11 3 13 1 11 15 14 -15 3 30 -12 -31 -23 -37 4 -9 -50 28 25 0 -78 -14 3 8 2 -9 35 47 1 -2 26 -13 -11 -13 19 -62 -19 -1 24 9 18 19 22 19 -7 -23 -1 -1 5 -7 29 -4 -23 -23 37 -34 17 -9 34 -46 -21 7 28 -8 20 7 -24 5 67 17 37 -21 0 16 -19 -1 -9 14 3 28 15 -6 35 -15 27 -11 -62 -9 2 19 24 13 -3 10 0 -32 -16 21 46 -9 -3 20 -12 -21 10 -20 17 -23 21 -21 -4 -23 -12 -1 -2 -23 17 34 -1 -16 19 22 37 -5 -21 8 9 50 -1 9 33 16 0 14 -7 12 -10 27 2 11 13 -15 61 -48 -3 -26 -24 -5 -22 -20 2 -40 6 -13 -36 -3 27 -1 -6 -32 -14 -18 11 -9 -6 -6 0 66 37 29 13 9 -16 24 -10 84 10 22 -14 -15 -1 -11 15 -24 31 2 -28 8 -2 39 -7 11 11 21 22 100 38 -5 -24 -10 -32 39 34 13 -33 37 19 10 -35 36 18 12 19 -24 8 11 36 -22 -6 0 -2 16 15 5 -14 -26 11 40 25 21 -33 20 4 4 -25 21 -41 -37 -34 16 -9 39 -9 10 -4 -5 -13 34 -12 -2 9 -35 8 -1 68 7 -25 -5 14 23 -17 -12 23 1 17 -14 0 -10 3 5 -22 -4 -9 -22 -10 -34 5 7 4 -40 2 29 -1 -37 -48 14 7 35 -31 -26 35 2 -25 1 22 10 -9 3 15 15 26 -18 20 -21 -5 1 -34 -15 28 27 4 1 -1 -30 -6 -12 8 -27 -24 14 -25 30 -21 12 -38 12 6 1 -5 20 2 3 -6 -8 6 -8 2 15 -11 -12 -21 -51 -2 -20 17 29 7 8 27 -13 12 3 2 -29 21 -5 5 5 -21 14 26 22 -6 19 -27 -8 -29 0 7 -18 -38 11 -31 16 -10 -2 -62 32 -19 -15 14 -10 -14 37 26 6 -22 19 12 -22 28 57 40 3 -3 -6 27 20 19 19 9 -18 3 -18 -38 38 -26 34 38 9 -3 20 4 31 -45 18 43 25 -12 22 -39 3 20 -9 -37 -6 -21 -7 -27 17 10 0 -4 6 15 15 27 -1 -29 -19 23 2 31 -18 10 72 45 -26 -7 -2 -12 -20 52 33 -13 -28 3 8 20 -4 -22 3 13 3 -37 16 22 14 12 -5 5 22 25 -22 17 -17 -1 -19 21 61 22 -42 24 7 -17 23 -27 16 60 -34 -3 16 -3 3 9 2 -15 -17 10 -23 -18 -4 -13 9 -24 45 14 8 36 28 13 14 3 19 -17 58 -2 -27 -9 -2 7 30
115 -13 12 7 2 -3 -61 -56 -9 -26 22 62 29 -13 -18 -2 34 8 10 -4 -49 -31 18 -59 3 31 -12 -64 -23 7 -13 13 -21 5 25 37 -7 40 -23 -4 45 -46 11 21 -9 -3 48 -8 69 26 3 26 -11 59 -30 57 -22 -18 -24 -31 2 -24 -14 -4 -48 17 -2 -9 -55 29 9 -35 -7 -17 47 11 5 -6 19 -31 29 9 -22 0 -6 -3 23 -24 31 -39 -16 -17 29 -5 28 -18 11 6 -33 -16 11 27 -12 64 -33 34 -2 -3 -85 2 -2 25 13 0 -10 -41 4 11 2 -27 57 2 -9 3 -2 -42 -20 7 -15 36 1 41 -34 19 -33 18 -8 59 -24 -31 15 -40 22 -33 -7 36 1 43 0 -8 -18 26 -21 19 20 20 -20 -2 -8 -17 -8 27 24 2 -42 -24 -10 36 0 -5 16 -51 -1 33 26 -16 8 -8 -58 26 -4 -38 -18 -15 -13 6 40 -28 -15 22 -24 -23 8 -20 -57 -20 -26 53 21 12 -90 -36 9 71 49 -40 6 56 1 16 -25 -10 14 0 6 5 20 18 -12 25 19 23 20 24 8 25 19 22 1 -21 7 -24 7 6 4 6 44 -2 25 -28 48 38 18 22 34 24 -52 17 20 32 54 -15 1 15 -12 6 23 13 -1 8 28 4 31 38 26 -37 -25 -29 38 52 -2 -7 16 34 2 -12 23 51 18 -42 60 13 -39 -16 -30 12 0 -44 11 14 4 9 -21 14 24 25 13 8 -15 -51 -11 -16 -8 40 28 -19 -28 -24 -34 10 -32 -31 -45 9 -14 7 -23 29 8 2 6 -127 -39 -72 -27 -24 41 10 19 -24 -3 17 7 22 37 -3 -36 -31 2 -42 14 -8 43 -18 -7 2 23 -21 13 4 42 -4 14 10 -20 -34 37 -13 40 8 -16 -33 -41 17 8 -11 41 -15 -40 55 -43 -23 70 4 -20 0 42 1 -27 9 20 -22 55 -22 -19 40 -53 28 -12 -1 4 21 34 17 -14 -3 14 8 15 35 -24 6 44 12 30 25 17 59 25 -30 -51 -12 -32 -31 18 43 18 4 20 23 -18 55 -11 40 -15 29 -19 5 7 -53 -29 -21 -24 15 -10 -54 0 -28 -37 -33 22 17 43 -4 10 -46 -12 10 35 4 10 10 18 5 -15 23 6 24 -4 -9 17 71 -5 -24 17 -16 -53 36 26 43 -6 41 37 36 -9 71 -49 11 -25 -44 14 -24 -2 5 5 -9 25 29 45 27 -1 -11 -12 12 -3 -12 -1 -23 -17 -49 -50 39 33 -5 16 -17 -2 49 34 -46 36 -37 78 52 16 10 9 2 -6 -11 47 52 -13 14 38 9 1 43 -21 -34 -14 -19 21 38 40 29 3 -18 -45 52 -12 -43 18 -7 -54 -26 21 -6 3 -3 -29 0 24 70 -11 -95 0 2 43 -27 29 14 58 -37 34 -12 -24 15 11 -3 -59 -13 -7 -1 -22 -14 -35 -8 5 32 23 51 -37 18 25 -29 11 44 -3 -21 -1 13 -26 -13 8 -60 12 49 -2 -12 8 79 -25 -36 -21 -6 6 49 8 -39 -14 21 -86 -33 -35 6 -82 17 -35 8 -9 18 -12 27 -24 17 66 -23 -16 8 12 -17 -48 56 -15 -45 -29 43 27 37 2 41 -7 -16 -13 63 -11 12 25 1 -60 7 22 12 -11 25 -1 -47 -3 -5 -37 -5 0 -22 8 16 -25 -26 20 -14 25 -8 20 -21 8 -6 11 -6 -16 -44 -3 -44 -11 6 -26 49 -12 22 -29 -36 11 -122 -43 0 13 -29 -7 -2 -5 -40 -2 -13 -17 39 -42 -22 28 17 18 64 60 17 14 -6 23 27 17 19 1 16 9 -92 -16 -2 -11 -14 5 -19 -1 -35 15 21 -20 19 7 1 -18 -3 -9 -46 -26 3 3 25 1 20 8 -29 17 -19 -17 52 12 17 18 -12 24 -21 -39 -14 -8 -24 -2 -28 16 26 44 -3
-80 -5 1 -38 -35 9 -28 -49 -29 10 6 3 17 22 -16 6 -44 16 -19 23 22 -22 -3 1 -25 -24 31 -3 -4 6 -26 -29 -37 -18 -2 -18 -12 -10 -4 -12 13 54 61 -65 16 15 -48 -4 -25 61 -6 -31 -5 10 -28 -43 38 4 -15 26 -4 14 12 -12 31 3 12 -21 -37 -17 73 -18 7 5 -39 -12 -17 5 -3 11 -15 21 -26 -22 -4 -7 -14 -18 -7 -8 -17 29 46 6 -3 -6 77 -24 126 36 -37 -40 -12 101 -79 -3 0 -27 32 29 4 -21 -3 4 -24 -45 -11 -50 8 30 -45 -39 37 29 -67 -25 -30 -27 10 -68 0 5 -77 11 29 6 -13 -19 38 -14 -5 19 40 11 42 43 22 -82 -23 -1 99 -6 -27 10 -19 45 29 31 26 27 -13 -31 64 -8 13 -45 -74 -8 -54 -28 5 32 -14 120 32 -37 16 16 7 -35 -3 39 -40 -7 40 -24 24 41 -24 26 28 0 40 -22 32 8 -5 27 -20 -20 39 9 -26 -86 22 17 -32 -28 -5 36 41 -30 41 -13 -23 -39 59 5 25 2 16 -34 -13 18 45 -9 -45 0 16 -43 -43 -18 -25 -39 -47 10 42 114 -97 14 -35 41 -39 6 1 -13 15 -6 -29 -21 67 -35 9 -40 -25 -8 69 85 -20 17 55 25 39 44 49 51 26 38 -9 -32 6 18 -41 -51 -15 44 33 -40 4 -13 -47 42 -10 -54 -28 -86 -18 -12 16 28 55 6 35 46 35 11 1 50 -75 46 15 -4 25 26 14 33 -13 2 -3 -71 31 34 -103 31 -38 10 9 44 10 16 40 -11 30 63 -3 59 24 0 14 25 20 -62 34 -1 65 -48 39 -5 3 -4 -6 23 -25 -51 -85 -11 14 -18 -65 18 0 -32 -37 4 21 34 22 -40 41 -16 -17 56 92 77 -64 27 40 -38 -93 -69 64 16 23 -15 17 -13 11 -7 -2 58 1 39 3 -46 16 24 27 -18 -8 -16 19 -15 0 -75 -43 44 8 13 1 -22 -4 -11 -41 -13 8 -40 -43 4 -15 -15 4 12 30 -19 -14 0 -63 -36 5 -15 -1 23 -24 -18 -20 6 -5 -17 32 33 -2 0 -30 0 -57 32 -21 2 -1 -6 -63 22 80 34 24 9 -43 39 12 -68 75 12 -17 7 72 -15 26 6 -14 -29 0 -25 38 -13 16 16 -48 32 -48 -51 -21 40 -38 -37 -54 -18 76 -6 -12 -6 -27 47 -52 20 26 -31 49 -87 25 105 16 -54 -44 51 -53 -48 7 21 -6 32 -79 87 59 -22 21 53 -52 -29 28 -49 -57 -1 -25 -27 41 -6 -38 33 8 21 11 -14 -21 -20 -81 -36 25 -26 -66 -32 19 -34 -29 -27 66 -30 -17 20 -36 25 35 -11 11 30 53 -2 -32 -111 31 -3 18 -3 -73 65 -14 -16 -8 -23 28 4 -102 -55 67 105 -2 57 -61 38 -29 -68 -63 -40 12 -12 -1 -23 35 -6 10 -40 5 8 -45 -24 -14 31 34 40 -1 -48 -19 41 -26 -110 -5 -47 7 81 -15 -56 -8 4 19 -2 5 46 17 17 -25 -22 30 -19 -18 -91 -22 41 11 -19 -35 -15 -43 77 -62 1 38 18 -33 36 -5 -41 -3 20 -1 -18 -12 7 60 -13 -34 -7 -10 -14 -28 48 -92 42 0 17 103 17 -4 0 -34 -7 -11 11 3 55 27 15 15 -13 -19 9 -11 25 -27 58 51 1 90 24 21 11 1 10 18 -19 23 32 -72 -9 2 29 58 43 18 17 -10 -60 5 40 25 70 7 12 -14 -32 -46 -26 -27 11 -11 61 61 -19 -23 3 -19 59 92 -42 -25 -16 31 48 -13 -34 -5 -1 -30 -13 -11 -21 17 48 43 22 -20 25 -45 17 10 -57 -5 4 -4 -30 3 -1 0 -6 -19 -17 2 -15 -51 48 -15 33 -7 -31 9 4 17 65 9 22 12 17 24 -57 20 -57 48 26 45 12
30 22 -17 25 -2 17 -2 73 5 21 -48 11 -56 -28 -21 -5 26 -21 35 46 40 -22 20 -25 -3 15 63 97 32 33 -47 14 -38 -40 22 -15 -27 5 -2 -7 21 -26 21 -19 29 61 4 16 19 -49 -11 5 58 -8 24 -31 83 -23 1 31 -13 -13 45 4 33 -10 -5 25 -37 58 -56 111 17 -26 13 -3 -23 -3 55 6 11 14 -18 -10 -9 -17 18 -9 35 36 -12 -43 -50 -8 2 -15 -5 -14 60 -1 -21 -30 16 -61 -75 -34 -16 8 46 15 -1 -16 3 -3 -18 20 -43 22 64 -67 30 78 11 -41 8 -16 -1 -22 -44 56 -81 -5 -44 10 -10 -61 10 2 23 -54 -10 21 -27 -11 15 7 26 3 -5 30 -2 20 -23 11 -27 34 10 -6 9 8 -110 -7 2 14 -19 8 -42 -71 -26 -33 -73 23 45 -13 -33 -17 1 -14 42 3 38 -31 -7 -55 -37 57 22 12 -25 19 8 -26 21 12 58 -54 -52 31 -4 0 -64 28 -36 41 -37 33 31 -55 -70 -36 -60 19 9 -2 -39 -3 -40 -8 -42 -10 24 12 -22 -23 -19 4 48 19 8 -55 -5 -13 1 28 -47 -34 14 -10 19 -40 -27 -10 -30 40 -8 48 -42 -37 63 -1 -21 27 -10 19 -21 -63 0 34 -37 -34 -77 -48 7 65 30 -32 45 -105 37 -23 -48 4 46 -39 -28 59 -25 1 15 -70 -48 34 27 12 35 59 -17 -12 67 117 -46 -28 0 -21 -41 45 -73 -28 -33 -8 44 -10 10 3 0 6 19 47 -7 -24 7 -31 -21 8 12 19 0 -16 28 -113 -9 -14 2 -16 -4 -5 27 -20 -1 12 12 22 -28 25 108 -34 95 38 13 -9 24 20 54 1 -60 30 -11 38 3 45 26 33 -11 -12 -24 -8 -10 27 -41 -14 16 -12 -27 -3 42 -59 17 -49 21 66 -20 29 8 -24 -15 27 -20 -9 -66 -28 93 -51 -33 -54 -51 -4 -24 28 -50 -33 20 54 9 -33 -111 34 -48 -11 -32 -2 6 -19 -37 31 -55 -12 -61 -27 -35 -12 14 -2 -56 17 11 -45 45 0 -41 -41 -74 -20 79 31 39 2 -67 -40 13 -42 -22 -49 12 -8 45 89 -16 -109 -43 24 -9 10 18 -15 -87 19 -14 38 -3 1 8 -28 21 -3 17 -57 -26 21 -15 45 14 23 -44 -14 89 4 -15 21 28 -34 15 -2 -26 -9 -3 72 16 -2 16 44 -28 3 -24 -11 17 46 10 53 33 11 126 44 -17 -11 -38 -5 -6 1 50 -50 -25 -22 -11 -21 -12 -3 -46 5 19 -30 36 13 67 -6 93 -9 36 -35 20 -26 35 -11 -32 85 52 71 -24 19 -6 -22 -4 -26 6 6 0 -6 -44 20 -38 88 17 7 -126 28 52 -19 63 49 -24 0 41 3 -28 12 -16 -89 36 49 -44 -52 -47 -44 51 1 30 16 -17 -1 50 -16 0 42 -23 -48 34 -27 -49 -24 26 32 17 59 8 -4 9 26 14 59 2 -87 30 7 -17 -95 -72 -56 6 6 26 -76 87 -4 -39 -38 -29 -60 6 -37 7 9 4 -20 29 -60 7 -6 82 17 21 -11 -19 -13 24 -2 50 -17 -19 -34 -20 10 -5 -36 64 6 -44 -11 18 -19 19 -7 24 1 -20 -13 9 -36 55 25 -54 9 16 -7 -29 -25 -62 38 20 19 -83 -8 11 12 2 -24 4 -11 -30 70 28 -8 37 -47 1 8 -60 -37 -36 10 -1 -9 4 -28 -14 -31 20 1 19 -17 8 3 -44 38 -37 20 22 17 -45 37 -24 4 -26 51 30 36 -28 -35 1 29 14 -10 40 21 -27 4 12 8 -26 16 -13 -23 -9 -27 -52 -24 20 -24 1 -4 -25 -63 18 8 54 -9 -7 -8 39 -48 -63 -107 1 -5 -30 -33 -15 42 -13 -31 -49 1 9 -35 -28 34 -29 -49 47 77 -25 29 -45 -17 27 -23 -46 43 3 -14
