-270
-87
49
74
-17
-278
91
-13
-402
42
174
-18
-617
321
-218
61
45
56
43
-110
-432
-707
339
299
42
-686
-106
150
-113
80
149
-164
90
-308
155
207
-59
-1
174
-125
-275
136
74
70
-140
112
59
339
-305
-73
296
-38
-277
-65
-176
165
-369
-62
225
127
-63
-354
-36
28
221
-572
-92
-64
-364
606
225
57
-511
510
-53
-9
87
59
-255
-228
-136
371
135
-15
-398
78
394
88
-213
387
168
55
301
260
-48
-68
-166
19
-109
-223
-62
-38
-156
-114
-130
-430
0
-11
89
-138
68
-78
283
-87
-378
50
423
202
231
-246
15
-715
-84
1
150
-66
-204
-270
3
88
32
-48
509
85
187
-24
108
-29
-47
-75
177
-163
143
-491
-180
-491
-7
259
-46
-1
226
421
-86
146
-178
-31
-221
163
-62
6
-105
-70
123
-119
132
-169
195
-122
121
-115
283
350
379
389
177
385
24
292
-81
360
195
-173
57
334
-109
-51
71
-220
-66
-58
121
-178
-192
-32
319
77
186
-45
30
-215
-89
-265
83
2
-250
104
149
-95
-61
-105
-140
-114
296
61
257
268
210
142
49
40
153
-29
214
7
-114
4
-291
-150
235
-190
250
-193
-252
140
-103
107
-37
-156
95
332
157
6
-111
119
-204
12
10
71
-224
165
-145
136
152
-471
67
-425
160
-491
194
-403
20
683
283
277
-45
304
141
-235
265
-182
-92
177
-107
-33
65
-220
259
-470
282
30
-24
-319
155
581
-177
-4
-265
42
64
-330
122
-252
282
-151
-513
-42
-156
-151
-309
266
282
29
161
308
265
-35
361
-123
377
149
-89
-446
51
-172
13
608
117
-132
-120
165
101
-52
110
121
173
-184
63
-67
-531
256
-110
-581
-110
-83
215
29
389
-1
-587
-288
-36
-175
21
-27
-97
-294
101
-368
-92
-38
831
-13
176
145
-295
-117
-137
-418
174
140
-24
-184
-160
-257
-101
-1
-37
337
-11
-225
-52
-248
-182
187
-154
-70
-80
-364
-344
123
58
206
120
357
-1
88
93
-53
106
250
-342
-758
-32
325
44
-707
-33
-48
222
411
113
-440
323
-123
209
-360
-127
-374
519
326
140
467
111
52
387
87
147
253
9
18
-103
-371
-409
113
163
111
75
141
-179
-313
-15
-101
-185
-8
-272
193
79
93
-192
207
8
-336
-30
62
179
97
-55
427
293
-93
572
-81
21
126
-331
-314
145
108
153
19
-537
78
-441
-10
335
75
122
-264
-60
254
-146
259
325
120
98
14
368
251
424
-226
-31
101
-203
-159
-207
-185
275
29
-162
281
-25
15
-50
147
-80
-506
-9
-101
172
-26
-244
341
-306
-99
529
-253
76
-11
-133
474
268
297
137
418
160
25
-223
-71
-3
-269
-84
-140
-288
256
402
-278
107
-387
361
44
88
-290
103
-261
-54
-695
332
-141
-157
132
75
-156
-147
-132
577
-617
95
448
-74
-190
130
-106
290
-699
-474
111
-167
156
-139
-192
-3
103
-332
-68
-52
18
-425
97
58
-211
20
-225
-100
-208
19
73
-223
-215
173
178
-62
-120
29
24
182
-54
14
65
367
-95
349
-685
102
322
-194
51
-305
-110
342
324
-252
-263
79
-157
-323
22
-84
329
-205
145
483
255
-647
89
-297
278
80
143
-192
-227
-77
-94
-184
200
289
142
198
113
-339
-42
143
-510
-125
-205
36
-156
-125
188
-324
-206
636
120
10
-30
-197
-239
19
160
431
76
-220
-138
121
-196
32
-234
-396
42
-23
143
-136
694
-51
11
-88
45
-226
-159
579
-528
239
26
154
-80
95
-61
123
206
347
37
-220
371
110
5
-190
-116
-306
16
-314
101
-231
-334
155
230
48
-26
-48
-454
-202
123
54
410
-177
112
-238
-150
152
174
-25
-82
-361
-599
-217
-102
121
-81
67
-439
-174
133
-103
-136
291
181
-102
159
27
72
-112
-349
-267
-164
25
-47
-5
183
96
-297
244
-208
11
113
183
86
128
341
-115
142
-83
120
479
-94
314
-51
151
88
-143
-202
-60
75
-109
208
-160
118
-237
104
-597
-330
