382
971
-1256
-1812
-1311
1005
-2775
-671
-578
-1788
74
1663
-1339
-2760
-1957
-2193
-822
861
-3130
2224
-2734
-317
4608
498
1154
907
2092
4679
377
-1526
-2764
-1371
2284
-1902
589
6316
719
1278
222
4197
173
2157
247
-3352
2991
2434
-2596
-1686
514
-1448
506
2205
-1114
-2409
3256
-2161
-4077
-1943
1197
3477
-1626
-4003
-941
-1599
-4798
2255
1931
837
-2671
4852
-1627
-2620
-5208
-1502
404
-281
1453
3082
-980
-3791
3174
2289
-191
832
506
-715
1787
-497
-3352
306
633
1132
-698
-661
-3863
-4697
4544
702
-1389
81
1311
6557
2613
2838
-1016
-3547
-2073
-1232
1247
1336
1119
-1976
-950
-1827
-117
1941
782
-5163
120
-3191
-654
548
1329
2210
1033
-1952
-4605
979
2703
2150
-182
-2904
-1229
623
-555
-2742
435
68
1214
-1183
1578
100
-982
183
-648
-4927
2246
-28
-712
1030
-2357
-1989
1120
-6344
-998
-5382
1843
-3112
1299
3152
2529
1468
-1310
4640
649
4627
-278
-1889
-2432
-771
4296
127
2948
-130
2177
-3967
826
-1246
540
-1001
284
-362
883
2217
-2552
2296
1164
1287
1860
3037
153
-579
-1948
-872
-1068
-874
-1741
148
-2717
1417
-831
-3452
694
333
1975
890
-691
-1880
-938
-2584
-1682
562
-3062
1451
2011
1950
-2418
463
964
22
2418
1768
-3396
747
-677
-2864
-1273
-3366
1664
-717
417
-856
-2787
990
661
-1173
-540
-472
-644
2150
1324
422
-1721
-509
-1476
2899
-2178
3411
3441
32
-1545
2493
-2714
-646
1097
-711
-1597
1240
1763
-1805
2109
1576
-1652
2513
220
2415
1264
1140
1665
1438
1504
1171
221
-195
138
-456
908
-1256
1951
-1514
-2671
-1264
-190
219
-5423
1429
1011
2816
-2676
-23
1348
-346
-2920
2137
-1251
2564
-2838
-1853
-1640
-1392
-2215
-2630
-1966
-2171
2033
-2712
2385
1571
1211
-744
-2744
-543
-341
881
705
1851
-481
-1699
3681
332
-4321
1556
2903
-1823
1155
253
-1676
-3248
-3856
-2228
-1380
1290
2168
1431
217
982
1269
-2255
711
584
70
326
-2836
-157
791
-850
-112
-1820
-690
222
3138
-28
492
-1585
-1347
1810
-730
-725
1586
1679
789
-1019
5123
2154
-3489
1859
3881
-1041
-1931
201
-3010
-1058
4389
2728
-3113
-147
758
-1551
-402
1769
-2181
-2526
2631
5086
-2978
389
1047
-1784
2155
1841
-145
-2284
-982
-857
-881
1411
319
371
2417
1497
-462
-814
-5592
3273
242
-789
172
747
2419
1753
2104
-1757
-2721
-1453
-2033
-708
-936
1174
-375
-3770
1618
3587
-2700
-686
32
-357
589
-3718
-957
590
-278
343
-1374
473
-1135
-2542
1378
-1478
2259
-2072
1064
757
-913
-1063
-2670
478
-3294
2534
2730
-1973
3388
2115
-2642
6098
-4420
-1769
-649
400
-610
531
-1285
576
1521
-403
-2257
-4832
-3762
-146
1388
-1357
-5505
-6679
-457
1367
-3428
-1664
637
3334
3149
616
1895
-2036
620
986
554
-619
759
576
3794
357
-68
-1704
-376
1867
-1202
2191
360
1082
3911
888
-694
1290
1155
-518
1685
2915
1638
497
-2174
-5977
-2626
814
-1616
1085
-1982
687
3585
329
1904
-756
-3384
-2487
-2560
-3488
192
-2283
1437
-2657
2744
-1606
-3738
4657
509
3078
5129
-3983
-880
332
-1522
-1303
-604
3024
2165
-1587
-1064
2512
-1216
3073
305
-504
-872
-2968
990
1482
-119
3704
-3345
-385
498
-1101
159
-2725
849
-1414
-1111
1773
5344
416
3373
-1773
1160
-3525
4933
-1104
-4412
3758
2467
1799
4022
-1596
-1615
-2058
1097
898
2128
2117
-460
1505
-2109
2628
515
241
1823
-886
368
-1358
-48
345
-3768
212
2184
2143
3256
-1350
-3334
2588
-552
-751
59
-437
-407
97
21
-4307
-140
778
-960
-3290
3128
495
-1378
1369
327
1048
2105
5713
-3419
-294
-671
2050
-2867
1338
-1597
544
1278
4327
-1081
1161
-2668
-4195
756
527
4
-282
-1089
491
-1429
-910
642
-708
3410
1308
676
-1539
2812
-1002
867
3328
3892
-1159
-1547
739
956
1524
2520
153
-240
541
-1192
-2264
566
-2993
2098
-2387
-911
-3132
2077
1355
2497
-316
-6116
746
-515
-2231
-1038
1483
834
-1180
959
2542
5718
3341
-508
630
-2051
-24
-1718
1085
2624
2681
-382
1694
-694
373
-621
244
2554
-240
-1293
3224
1147
-1383
365
-1246
-2391
3515
3709
558
-2066
1083
1063
-175
-2300
-262
193
3501
-3486
1640
-1208
-3101
-411
-724
-68
-3273
-138
2736
-1409
1898
-2704
3591
3560
-1060
1902
47
-1209
1484
-2308
2004
-1965
226
2612
67
2814
3680
-1929
-5675
-1937
2828
52
-2598
8
1328
-716
-235
-1781
594
-916
2469
