2
1
-1
1
1
0
-1
-2
-1
0
-2
-1
0
2
-3
1
3
-2
0
-2
1
3
0
1
1
2
1
1
-15
-2
0
0
-2
-1
0
2
0
3
0
1
-1
0
2
0
1
-2
1
1
1
-3
0
-1
-1
0
0
0
0
-1
0
21
1
3
2
-3
0
0
0
1
-1
0
0
0
0
1
0
0
0
-1
1
-1
0
1
1
-1
0
0
1
0
1
1
0
0
0
0
0
-1
0
-1
1
0
1
0
0
0
0
0
-100
0
-1
0
1
0
1
1
0
0
0
-1
-1
1
0
0
0
0
0
1
-1
0
-1
-2
0
-2
1
1
0
1
0
1
-2
-2
0
-1
0
0
1
0
-1
-1
-1
-1
0
1
-2
0
-2
1
-3
1
2
0
1
3
-1
-1
-3
0
1
-1
1
-2
-1
1
-1
0
-1
1
1
1
-2
-2
-1
-1
0
3
0
0
-1
2
1
0
0
0
0
0
0
0
1
0
0
1
1
1
0
1
0
0
0
1
0
1
0
-4
-1
0
1
0
0
0
1
-1
2
0
0
-1
0
0
0
1
0
0
-1
-1
-1
1
1
1
0
0
0
0
-1
0
-1
1
0
1
-1
1
1
0
-1
0
0
-1
0
0
-1
2
0
1
1
0
0
0
1
0
0
0
1
0
20
0
1
0
0
0
0
0
0
0
0
1
0
0
1
1
0
-1
0
-1
1
0
1
0
0
1
0
0
1
0
-3
1
0
-1
0
-1
0
1
-1
0
0
-1
0
-1
0
0
0
1
-1
-1
0
0
0
0
1
0
0
0
0
-1
0
0
0
0
-1
0
0
0
0
38
0
0
0
0
9
1
0
0
0
0
0
0
0
0
0
0
0
0
0
0
0
1
0
0
-1
-1
0
-1
1
0
0
0
0
0
0
0
0
0
0
0
0
0
0
1
1
1
-1
1
-2
-1
1
-1
0
0
-1
-1
-1
0
1
2
0
0
1
1
-1
0
1
0
-2
-1
0
0
0
1
-1
0
0
0
1
5
-1
0
1
0
-1
0
0
0
1
1
-1
1
0
0
0
0
2
-1
0
1
1
39
0
0
-1
-1
1
1
0
1
-2
0
0
0
1
0
-1
11
0
0
1
0
0
0
0
-1
1
0
-1
0
-1
0
1
1
-1
-1
1
0
1
-1
-2
1
0
1
0
-2
0
0
1
1
1
0
0
0
2
-1
-2
-1
0
0
1
2
2
0
0
0
1
1
1
0
-1
0
-1
-3
1
1
0
-1
1
0
0
-1
0
-2
-1
1
-2
0
-1
0
0
0
1
-1
0
0
-1
0
-1
0
-1
-1
2
-1
0
0
1
0
1
0
-1
0
0
1
1
0
-1
-2
0
0
-1
0
0
1
0
-1
1
1
0
0
0
0
0
3
-1
0
-1
0
-2
1
-2
0
1
-1
-2
3
0
11
1
3
-2
1
0
-3
-2
0
-1
0
-2
2
0
3
0
1
2
2
1
0
0
0
2
-1
0
1
-2
1
0
-1
-1
-2
-1
-1
-3
2
-1
-1
-37
1
0
1
2
1
1
0
-1
-2
-3
-3
0
1
0
54
2
-1
0
0
-1
-1
1
-1
0
1
1
-1
0
-4
-1
-3
1
-1
0
0
2
1
-1
3
1
1
0
0
2
1
-1
0
-2
1
0
1
-1
1
-1
0
0
2
-1
1
-1
1
1
-2
1
0
0
0
-1
0
-3
0
0
2
-1
-2
0
2
1
0
0
0
0
-1
0
-1
0
0
0
0
-1
1
0
0
0
1
1
0
-1
1
1
0
0
0
-1
-6
0
0
0
-1
-1
-1
-1
0
1
0
1
0
0
0
0
0
0
1
-3
-1
0
0
1
0
-1
-1
0
0
1
0
0
1
0
1
0
1
