-3597
-4119
-1915
-124
-406
-1336
3277
-853
974
2598
-4850
2283
-137
2845
-2036
1974
-1737
1058
-2091
4260
-60
724
346
1722
-323
754
-1581
2176
931
170
678
573
1526
-376
-272
-697
1773
-1080
936
-1580
-3219
-2624
-830
-3130
-5677
-1113
-1470
-843
-1097
515
4069
1528
-3379
156
-50
5304
1146
-35
2364
-2218
1607
673
-3243
123
-3016
-528
-1876
-1406
1281
1706
1380
328
-3189
-1009
1176
-3030
1239
1785
-1196
291
-1097
3192
-105
-1268
-2156
1685
-896
3100
3328
-734
1770
-720
-200
12
876
3380
2915
845
-4755
-706
5088
584
71
1138
946
-2108
2476
2069
-6148
1762
809
-843
1313
-2599
-549
3765
-293
-1027
1540
-4595
-1108
1229
-1074
312
2049
1029
-2841
143
-199
-2261
1696
-3129
-1296
828
1606
-1420
-2680
472
2520
-907
-1839
-1983
2867
-678
2915
-2491
1936
-388
-2902
2369
3402
-461
-1273
-4208
-1550
-385
-1040
-453
-984
4882
2038
-679
-4495
517
-2082
-222
4319
-3857
-1938
1837
1553
949
-452
-402
252
-3864
-575
1559
-4457
-1203
1119
958
143
-784
-625
-1510
-2037
-1751
616
6605
153
-1315
-2465
3904
-1118
-1636
4444
-1932
-4636
-688
1169
2607
533
1575
-2942
1045
-1190
-598
-1082
-2415
-4004
719
1815
4569
-25
2322
1878
112
-5143
61
-1713
-3393
-93
889
2872
-5630
-1858
385
-2481
-1797
-2817
-2060
-2797
6208
2049
2554
895
-3026
-4191
2870
583
-6250
-433
1444
23
4822
-1716
-1534
1093
1320
-2603
-4019
1958
-1057
3054
2678
182
-3155
56
-5459
1975
1072
1390
4988
3539
2197
1920
-622
-284
1038
342
492
1617
2736
2459
794
-482
4207
5774
-2444
464
1574
-3124
1460
238
1964
-1061
4338
-632
-535
2859
516
3908
-2678
-3877
-1167
392
-1207
-161
-2120
-579
-1314
3
1596
-2355
2624
3000
-1744
3215
-1433
-2114
767
-5763
-3613
3225
674
1136
-1
1778
1166
1659
506
1215
-2041
-3119
802
756
-2211
-2858
-2519
1061
-3206
-1274
-830
2286
-953
3959
-488
-4384
-2309
-2255
-1434
-1562
-298
-857
1465
2287
-6748
-1430
1167
-371
2055
-1137
-298
-2710
-2354
-3220
-1875
883
2775
1916
250
-1371
-1203
1975
-1076
-4586
728
689
-705
-976
-1327
846
1888
529
589
-1775
898
-260
3291
-742
116
-2640
423
2264
-5309
-2584
557
1084
1749
-2507
551
607
-3153
-3000
-2760
844
383
1712
-1610
-586
1751
-3047
-780
-3151
-5500
-2638
998
4051
3916
1348
1063
-1456
-549
-759
-4965
-220
-2258
-1142
68
-689
-1526
-1276
-138
-576
2116
2286
-1652
2540
570
-1064
500
3520
297
-1135
-2416
2408
-2990
129
96
-607
-1665
-1360
2845
3095
-279
-3165
-636
-5
-1706
1310
1988
-538
1341
1337
2005
-1357
-615
1563
-180
-1756
1409
-240
-3669
1638
-4255
516
-914
3529
-948
690
-1797
-788
2209
-1993
-1593
2479
-1075
1484
-683
1442
-451
-3190
-430
5282
-3149
3062
-2085
-2709
1172
1381
3592
-4064
-1182
-1088
-3161
981
-833
-584
-822
-3010
1903
-1594
2986
164
-3709
1969
-1548
575
-1302
2331
2972
-1508
-2829
1403
628
1425
-2644
-912
-1558
-2960
-941
3358
1968
2675
-629
-229
1484
1508
-854
871
1290
3809
-705
3003
-1430
-523
3738
1238
-951
1212
1907
-2157
-187
-35
1489
989
-2810
1966
150
2044
-1527
4130
-2464
-1981
5066
1149
-369
-2487
-2079
-163
-5503
-4010
-1207
591
3384
-693
-609
2197
-2054
2091
-3388
-974
257
-1
1884
-890
239
-168
1397
1411
75
-1608
965
2377
1704
2603
907
-1511
1019
-509
-615
5513
-2167
-3339
1229
-255
-186
-1525
-1133
-1063
-3204
2211
-7469
-2945
-2505
659
-2209
-2210
2289
2272
2560
-1154
1464
-452
-360
-541
-1364
-3979
601
-645
1424
3006
834
3764
-447
1795
1449
510
-4710
3975
-4375
512
-226
-725
617
-4797
1705
3338
-965
-1094
31
2077
3472
2242
-1206
-1471
-460
34
-1989
634
1150
2014
-420
61
-1850
192
2764
237
-1771
-880
5326
1671
-1967
2236
1028
-295
408
3498
-444
907
2342
1618
1139
632
-1017
4346
3911
4261
-1354
-1822
-2244
2614
1451
-600
-1644
1270
-1287
-1094
1062
-636
1125
-81
528
3758
1800
-291
-212
866
1125
1334
-1409
-1976
1029
-4396
-215
-2130
-772
-1090
-1962
-235
-1490
-3301
-32
285
-2521
3288
-5156
-3163
3465
-555
1203
541
-1305
-3487
1111
2473
2064
271
983
3467
81
-485
149
2448
-958
2719
4033
-1835
1206
1161
1825
2522
-3694
-3176
229
860
-2399
-690
573
1450
-1021
6093
4105
-1755
313
1467
-1743
-1307
-1773
2452
-2033
853
326
-1235
1036
-4977
-2276
