18
60
-131
179
213
-194
-155
-158
24
-42
-175
-74
-69
124
129
-185
126
-29
-201
24
-225
-70
-150
170
72
-154
67
-312
85
147
-73
262
81
-152
-207
-128
-116
-153
95
-31
90
-187
170
-244
-137
-169
-43
-140
-52
-117
-171
26
170
33
60
94
-238
117
-74
144
36
193
96
-79
209
145
-140
-106
75
-248
82
-46
307
-106
216
-164
1
-137
-11
226
7
-280
14
-151
112
-346
110
3
-80
5
70
91
122
268
201
135
84
-146
153
-121
238
67
-157
210
183
143
-98
81
-157
77
-144
204
-115
103
-131
39
140
-28
-69
212
-58
-1
-207
292
244
296
343
-52
105
-223
-206
-25
217
-200
-81
169
78
110
-21
86
51
107
123
-141
181
-258
119
-116
-270
32
-61
3
-10
103
-39
312
130
93
50
120
7
214
-124
157
97
-7
1
-98
86
110
-102
-86
142
-73
157
109
105
44
-3
121
-13
-22
-20
-209
-145
184
-99
37
-215
-220
-30
81
-42
84
11
43
-2
-143
111
16
-122
-212
-205
-172
181
231
-143
28
25
127
136
-147
0
27
-151
104
-87
-61
0
-152
69
209
27
-279
89
65
-135
-144
-206
88
114
40
-143
-124
-281
22
20
162
4
15
-243
387
36
-111
142
77
-18
-134
-328
141
-50
20
-331
-59
119
-145
-109
261
-79
-62
-70
-234
79
174
29
-102
52
175
-77
22
-37
115
-195
130
-175
137
-1
-292
-180
376
264
44
-32
65
123
-154
68
-282
-62
150
199
42
-112
-244
-150
-255
-60
79
231
83
136
-61
38
117
246
35
97
18
-182
169
116
-29
330
81
-78
-170
-142
-122
-102
-163
59
107
-134
-167
-123
188
-186
-52
139
318
149
199
-175
133
-1
-67
12
299
274
11
50
-157
-126
-299
259
45
315
97
-154
244
-35
-10
-54
-225
-2
67
149
224
-36
-70
239
95
-80
-283
61
-115
-211
-40
-222
-156
304
53
-111
-203
-66
-45
165
24
-107
27
42
145
-26
-125
5
59
55
63
-105
-134
72
-136
139
71
193
287
135
-23
-126
-82
39
-62
241
99
74
-228
-250
10
-116
-235
135
80
-71
32
-221
145
-178
-120
-241
88
-159
248
147
-216
153
42
-97
-28
-40
-31
-15
289
-79
69
-61
-219
13
-69
-65
82
-9
54
302
58
-27
117
142
127
-13
231
-207
-75
77
-45
232
-8
-8
86
82
-86
46
-6
-14
-93
-55
385
-29
16
-32
22
243
74
154
-57
75
-197
-176
214
-126
-3
-88
135
-88
70
137
-34
13
89
-1
98
-149
-79
183
7
366
35
-61
-168
-275
-216
357
-6
-33
-1
-73
-53
243
72
-101
21
-114
312
-199
-86
-242
38
-120
-109
8
-2
211
108
-210
-218
123
219
290
-139
-177
-67
198
-8
-150
188
-242
-232
-30
-30
92
-115
-98
3
-226
2
-97
-23
216
-116
93
-179
140
87
57
-7
-97
-122
10
-42
236
-71
-137
-20
-343
237
-22
15
-101
185
68
0
-102
-38
116
194
176
-48
-80
-144
116
122
-115
-88
84
-71
-114
-56
126
-145
238
-90
-227
-92
-157
-138
-93
170
236
146
73
152
-293
100
-111
103
-56
174
18
77
61
162
-92
216
266
233
-147
-23
33
247
-106
-114
-299
134
65
1
-127
111
186
3
-165
-153
216
-37
148
-2
-270
175
250
60
67
52
113
132
237
-227
-22
113
146
142
-75
78
-249
42
16
95
88
167
-30
-20
92
165
-36
-31
-189
-26
164
-51
5
-338
133
217
-137
51
-101
133
-104
-156
-106
-217
-145
-2
226
-150
101
-18
3
74
-145
-179
-88
-24
-99
2
26
87
64
-115
52
-96
-112
-13
-37
120
-142
-8
63
94
285
89
-325
20
73
-141
-134
-71
87
-153
-128
60
123
58
152
-67
50
294
-231
144
174
-65
-146
-92
-44
-210
170
-143
-6
-160
9
-174
127
-223
-212
200
-108
165
-52
43
-11
-236
120
-129
-42
-180
18
-220
56
60
-169
-10
15
82
55
-69
-73
65
74
52
66
144
