2419
381
-2192
-1015
-2571
2159
-332
-745
2454
-307
-4111
-1344
1651
391
-127
1852
-4809
-1629
-1905
3133
-1392
-1572
5387
755
-2071
1123
-1837
1024
-776
386
-1627
-1479
1199
-1308
-424
-1003
3713
-1665
-903
-523
-855
-1120
-224
-709
-790
-4343
-1158
-610
344
-4553
492
-2715
2417
-1926
2886
627
1548
-2754
-2195
-506
-2547
-3356
-1828
-1630
-3769
-1864
-966
-1470
-239
1579
36
-472
642
-2048
3607
1659
-4312
3256
2684
-1873
-1699
2303
-1472
-741
318
1526
2776
1642
2546
-3555
2309
2070
-3091
-403
-1916
-1437
3607
574
-866
428
1415
539
3314
240
785
-2226
2016
-868
30
2149
234
23
635
-3132
-3073
1286
404
-3235
5340
-3241
259
3785
1797
494
-1226
185
-741
-1740
755
878
2308
-4804
-653
-3306
-1436
-3085
-5172
-380
1328
-3631
74
-2101
-3110
747
-168
366
542
-592
1339
358
-45
-4122
-1569
-798
2272
-3688
3439
-2884
1376
2478
315
-2154
-1653
1222
-308
-496
-2253
-2145
-3694
297
-2126
962
1485
-1169
713
-2087
401
-125
595
-6028
-4616
1073
893
-3392
1265
-1773
-1574
1264
2340
2918
-846
978
-3319
4631
-688
-3414
1846
-1381
-4088
-4287
654
698
2100
-759
-2330
575
319
-1148
-688
-1245
-1232
-3440
577
5580
3280
4445
1503
853
-1085
616
-350
-797
-4716
-3027
-970
-1516
1307
-360
819
-1332
1576
-1523
-476
2127
2501
182
-2999
1121
645
838
3696
-2135
-2100
101
2472
-101
-1711
440
1565
-3109
-1336
-2774
-602
-2935
653
7832
-1882
-719
-1020
-558
330
3441
-1452
1004
2207
2220
1814
1412
-1866
-820
3508
645
247
-939
-29
476
-172
2406
6828
2714
1415
4707
-2668
-1470
417
2523
1484
3854
4167
-5021
756
3402
-284
139
-2013
612
1304
-329
-1834
-2313
-2915
-2472
-1081
-219
-2410
3148
2231
301
-803
-571
-755
-741
4041
704
-3402
1719
2311
-3691
1257
-345
-474
3802
2295
-2739
-73
924
690
-1066
-2312
856
-1104
-373
454
-2179
113
-1566
-2490
-811
1715
588
23
1241
-836
1540
1092
4104
-337
-2110
-1772
2470
-25
1557
-803
2290
4344
2327
-319
966
-860
1225
2087
-354
1065
1598
-1606
-1253
2835
1268
3319
-660
-2357
-399
1390
2240
-1271
3229
-2877
973
2991
-1629
-2912
-3323
-429
-78
86
43
-3230
1608
1812
3396
-1532
1862
2506
-369
-242
-223
-787
2966
2639
-4907
-710
362
-3172
-980
2896
-202
-378
630
2501
4330
1159
-616
1669
-704
657
-2474
285
266
691
-321
-121
-1810
-5725
6477
-1754
2457
-1964
-320
-481
-1891
1569
603
664
2326
-1264
-2757
1035
-1635
3455
13
-287
1733
-1200
157
-343
518
-3210
3357
229
-3483
-573
4132
-1938
10618
-2461
-1326
-583
-5975
-1664
-2359
1703
-4388
1772
-2455
-3616
-6476
133
815
655
-3090
820
-3483
-3028
2304
-436
877
1365
-64
-2277
956
1947
-2041
-1367
1125
2249
-3934
3415
1115
-1569
-3127
515
-237
852
1846
1687
1667
762
1557
3427
951
-4025
-174
-1105
2019
-428
-930
-1145
-1104
533
-1847
-2994
-1659
151
9
-815
2011
2174
938
-940
-1179
-1265
-3016
864
-60
1089
-1220
-2144
-617
734
-45
588
1958
1902
-722
3045
2312
-1533
870
-1681
-1221
-3224
3762
2833
-1796
17
4579
554
-2278
-493
1319
-1884
-3166
1258
741
699
2415
-142
3207
-2598
-1928
160
-7126
738
-3488
-2232
5516
1091
3190
-845
146
4373
-885
-654
-2458
-2277
1922
1299
-172
2190
-750
1408
124
-812
-1527
617
2154
1338
2077
-4043
-246
-373
2907
2863
-5273
-1910
-4608
4700
1184
2381
-4456
639
-3225
2055
779
-555
-21
2339
-1472
-2564
-751
-4765
929
1011
1005
1072
3029
161
-2084
2616
374
-2373
-1231
759
-919
3319
2398
5348
-397
415
-70
135
-1551
-1729
1296
-1295
3277
2450
3427
-747
-3159
-123
1397
1584
597
1315
-1489
-2191
-4340
851
393
3225
1575
2412
-828
-3030
-1871
-654
888
2550
-4210
-3662
-975
650
-4861
463
-2778
1337
1745
-3471
-337
-2552
1271
682
-3567
2629
683
5196
891
708
-953
-1968
-211
2481
-56
-1906
778
2115
-1228
3480
864
1084
-1555
-2148
-54
1679
-464
2688
-1542
4127
1315
1609
-4022
2187
3552
4740
3320
1026
-2587
4014
-318
1114
3596
-3414
-1487
-1951
-1757
1767
-2878
-1632
-1685
-176
-2545
-1032
-382
1395
522
752
-1819
-3956
1585
195
-19
-40
-1095
1124
4567
-690
5903
-2448
2925
2808
-554
2608
466
-1454
-1511
251
952
-526
544
1433
-1007
6095
2174
-2975
1668
1128
-1325
-636
-3610
3296
-2417
1492
-706
-603
1724
-2902
-6091
