-187
-94
-287
411
94
-249
-221
-362
364
-199
-240
-126
-225
-10
245
-367
400
-189
-225
-264
-158
45
-352
520
120
-402
1
-354
-192
313
341
235
95
7
-111
-413
-339
-391
112
-362
-32
-177
222
13
-3
13
-17
-351
342
85
-94
253
344
-199
29
-203
-177
241
182
10
-77
65
97
-108
311
58
-144
-135
-121
-85
284
-197
348
139
-203
-157
222
-286
-114
361
358
-146
118
-278
507
-429
-130
-55
-184
11
263
415
143
248
130
362
196
-12
-18
-211
143
-329
-415
130
191
277
-156
81
43
-48
129
0
-343
319
-312
111
71
-24
-469
359
-119
-340
-376
330
276
259
126
-126
307
-362
-247
-223
141
-129
107
-46
297
93
278
-328
-5
278
266
-363
210
-316
-253
-166
-398
-68
158
272
63
-121
-64
311
36
106
-220
298
14
502
41
-227
165
130
37
205
295
-34
94
201
46
-190
44
-465
-133
272
-318
505
267
-303
57
-25
-194
181
-62
-114
-151
-573
-333
-134
23
123
31
471
199
-444
66
-178
-123
50
-413
-210
366
113
-85
265
151
357
225
41
235
151
-38
198
-265
-15
-220
-67
57
402
193
-317
69
304
-379
-314
-150
281
-162
186
-135
-366
-317
160
15
310
36
35
-314
131
120
409
210
117
-239
-279
-126
151
86
48
-446
-154
-50
-274
76
532
-141
22
-47
-220
188
235
-107
-141
-140
332
294
391
-119
-12
-244
409
-109
49
138
-550
-297
390
770
-455
32
14
199
-67
59
-343
50
402
275
-115
88
-264
-387
-154
-46
114
66
222
337
-79
-53
394
56
183
322
35
16
212
-58
-407
83
286
-58
-254
-411
271
34
-136
298
-243
-486
-156
-75
22
-183
86
132
424
10
216
-21
323
-41
219
108
94
-213
14
420
-285
-122
-241
-87
-162
94
346
-250
77
-242
68
22
-352
60
214
275
223
158
-109
-83
-1
-607
-231
-74
-225
-256
-323
-405
-159
453
-259
-176
-420
-218
100
279
160
-119
212
21
194
-100
262
-40
10
168
-106
-250
-164
144
-437
128
-110
204
312
226
-188
-231
422
-16
-5
715
238
160
-300
37
256
-202
-272
88
36
134
160
-414
472
-334
-49
-462
224
-174
497
238
-308
307
-454
-315
-162
15
-35
-179
88
-279
145
340
-329
318
-213
-159
-253
12
46
176
43
-65
-274
132
-13
-249
374
-117
-50
111
-412
40
-123
187
-227
268
373
-163
-27
108
539
-161
263
-14
-314
176
76
-35
-295
309
-192
-21
-164
-240
488
309
-202
137
15
26
-242
-6
338
121
-9
66
171
-224
-34
-25
-156
358
6
-202
-210
-425
-247
362
-5
140
-248
81
50
81
428
-404
149
106
516
-348
-94
-76
96
-435
-436
-29
67
658
72
-379
7
369
232
448
-232
-62
131
123
-320
38
117
-394
-487
97
-288
376
-179
-139
-381
-251
-60
314
87
349
-43
227
-355
318
252
-101
-123
-310
23
256
-134
257
-164
-172
30
-102
-3
-16
-29
93
259
55
135
-83
-336
377
107
117
-434
266
-143
135
185
12
-58
352
-24
-240
-146
-113
-175
430
-18
-313
-231
-208
-104
45
397
576
-321
-220
225
-476
363
-81
-192
-301
287
-297
411
160
191
-299
464
397
361
-243
121
209
173
-195
-454
-427
555
253
223
-273
121
-74
65
-6
-85
227
152
-68
-231
-247
587
-179
237
139
-197
-62
-57
-61
-417
76
-63
499
251
-205
-5
-145
-336
-152
66
249
90
-66
280
364
185
0
-198
-430
244
250
-339
-195
-266
103
305
25
-54
154
243
-229
-225
-515
-243
-385
-137
408
3
-121
-356
5
281
-420
131
55
-146
-266
282
-103
189
-125
-503
-199
80
-105
-72
-320
38
-147
139
25
502
426
280
-460
43
52
-428
-172
-45
39
-69
-173
247
112
60
118
-130
-44
41
-362
-183
-22
-239
-338
-27
-21
-166
230
-425
-224
-124
-31
-443
419
-497
-319
255
-233
245
398
-90
160
-383
441
-28
100
-185
-338
-164
264
-13
-173
-159
-4
268
-431
96
279
345
121
222
239
-161
