-36
307
-287
-51
-179
24
141
-169
150
432
413
89
20
-103
-114
-15
164
-188
147
68
-39
106
44
-154
150
14
71
332
477
106
-11
22
-329
81
55
-136
-29
309
249
-68
-225
-70
298
52
-70
110
645
10
12
12
57
83
65
-234
93
17
-84
-4
-42
35
63
135
-224
224
-38
-370
145
121
206
-85
30
308
-117
809
348
383
48
166
-7
-420
-342
-375
274
-296
301
123
4
-164
485
-73
549
-86
-4
183
269
-8
-309
-157
-63
101
-300
235
-17
194
-200
110
-6
-241
-128
98
-569
43
543
416
-491
-89
-83
405
129
-63
500
-355
40
311
-550
168
-38
70
-145
-196
-39
-134
-532
-50
296
-67
69
306
64
-86
-47
29
-120
284
-136
-138
26
144
164
354
-175
-18
277
155
3
-17
234
430
83
-250
-71
109
239
-60
237
-200
179
-256
-31
357
-166
53
55
257
-185
-318
-587
422
14
242
-163
-60
23
3
-335
-115
-150
-260
-98
78
36
202
-88
-202
-366
29
22
-189
307
289
-248
9
19
211
-46
-105
-360
243
130
-221
-104
170
-15
367
-42
-39
92
14
-29
-133
-101
-68
-276
-44
-43
226
538
96
106
-100
14
-8
-121
-38
30
-111
175
-106
-94
-196
-14
74
-140
126
37
309
241
-180
43
-46
-114
125
-60
-323
-358
160
71
-384
299
17
390
-4
107
-130
134
99
44
29
-13
-306
46
-121
108
40
0
103
-411
-111
74
-204
-83
219
13
243
179
18
10
211
-68
38
-397
-151
17
154
-387
210
130
-257
114
-194
102
-57
2
-121
491
327
10
-6
-474
7
-249
119
200
-411
148
-157
53
-436
40
-2
-874
863
351
1257
-1206
1194
897
-111
-592
1090
936
-997
1064
-857
-772
-425
1228
-113
965
861
1059
-903
1240
-918
967
-1106
939
-707
-1207
-1099
625
1218
99
-489
-781
71
754
1337
138
-1329
1269
1297
804
-76
1229
-848
-700
454
536
-1102
-389
-632
-138
1370
-754
-818
-959
826
834
1143
914
785
364
-242
32
325
321
149
-578
-350
-42
-68
-52
132
-400
-113
-162
-346
-116
147
144
89
-540
-252
-51
-135
-401
-11
432
63
35
-146
312
-422
123
301
-35
506
-95
156
1
-59
-596
-205
315
-397
314
-644
-215
27
-311
33
-284
687
89
-7
553
-279
-391
-323
297
-7
188
-111
-36
262
130
-280
334
0
27
79
9
175
-100
72
12
209
-11
121
-44
37
-115
-182
-77
120
357
91
-180
-100
150
202
56
273
289
-290
87
-182
-89
172
218
-96
140
220
364
20
-19
349
77
-190
189
15
346
303
-166
749
125
264
-142
-10
271
-364
413
24
26
-323
-219
-45
64
181
-334
69
-211
-46
-299
-655
-320
-710
-458
55
-341
361
-555
495
-121
-544
269
258
568
249
68
-199
-155
-72
354
156
366
125
-312
240
-129
-71
-128
120
201
-90
289
123
622
291
120
75
-467
58
564
-395
-344
-67
138
-223
272
-113
-105
-11
176
132
-257
-2
378
-110
286
-23
374
209
133
-58
-229
191
26
-119
-285
372
-49
695
-120
173
593
90
-297
-62
-93
427
413
-46
203
297
-69
403
25
-157
198
575
-219
-9
117
70
-191
-251
-65
-88
-270
202
-35
-441
-98
22
-335
-136
55
-84
-138
734
-278
-7
188
43
-50
72
660
-113
-650
10
-241
-37
-294
-5
-138
-56
-147
-37
125
-180
237
-4
7
-26
4
180
-168
111
191
198
68
-82
-218
19
98
-59
-286
42
49
-55
156
209
-71
142
203
45
-400
-678
143
-31
18
-6
187
-14
-57
199
-40
92
-169
-433
7
8
94
310
48
10
-241
30
-271
-292
-14
-96
100
-85
40
174
123
-105
-17
-20
322
-205
59
296
-105
-288
466
40
245
-3
106
-122
-314
-327
126
-545
66
-128
-127
112
-597
-115
-36
-238
54
-33
-122
115
-222
226
-94
-51
-85
-299
-315
-35
555
-625
335
532
366
-139
33
-68
105
51
102
-357
259
-48
-432
-191
-260
-49
-367
86
252
-535
87
68
-180
68
98
-200
41
-222
