31 -16 -20 -2 19 3 -45 -30 27 -1 -14 36 -21 -21 0 8 -10 -31 56 -15 9 54 -21 -38 16 -4 44 13 -22 -17 18 24 -13 31 -23 43 -18 -39 8 -28 16 18 -50 24 11 3 21 26 -4 -4 22 9 35 -20 -7 -13 30 24 -6 28 -7 -2 3 11 -2 -41 30 35 -56 0 18 -26 12 29 -40 -26 45 -5 12 -5 -27 -41 58 6 33 -18 69 10 57 6 5 -46 -46 -36 5 -15 40 11 52 33 21 -9 3 63 -7 12 -9 -6 -20 -1 -1 15 32 7 62 23 2 26 49 -12 -20 -12 5 10 -3 13 40 -19 -14 -54 3 13 -19 6 4 26 -30 -35 -7 56 -14 -28 -45 42 2 -108 -66 7 17 -4 6 43 -55 -20 -16 11 1 -11 17 12 -73 2 -5 -5 -18 -5 -17 29 10 9 31 -23 54 -11 -49 26 -14 -21 6 38 17 -14 0 -15 29 9 -16 -17 4 4 6 -73 14 10 -17 0 -37 89 1 -3 -14 24 24 29 17 4 4 -68 30 -23 32 5 58 -42 -1 -18 -46 -7 -2 -9 8 67 37 3 10 -23 -46 -1 -27 2 50 28 -20 26 31 13 42 -11 12 84 3 26 -18 6 -108 14 14 -5 29 15 19 34 -9 -21 -36 -48 9 29 -19 -22 4 -3 -42 -27 9 -4 39 33 22 126 -50 57 -25 10 -9 53 -45 -13 -18 -14 25 -37 1 47 41 -2 1 -23 -53 -39 3 -26 -11 -33 49 20 15 44 -55 -7 -12 6 2 8 24 -48 -29 -11 1 7 -40 30 -32 -32 28 16 -12 -9 37 17 10 -53 -45 -51 -11 15 -6 5 -16 23 -13 17 -35 2 19 6 -27 2 13 12 41 26 35 -65 -11 -12 -28 -23 -26 -41 44 -4 47 51 23 -2 2 -26 -26 -6 66 -14 43 35 22 23 17 -7 -34 -4 4 54 -55 -34 16 -68 3 -9 -12 -4 -51 -47 -6 -20 33 26 20 -8 13 69 0 -64 -2 -67 -66 -53 -14 -40 16 8 -33 13 -8 -8 48 7 -1 -13 13 -20 6 17 -48 2 -19 -26 22 -16 -2 -5 -24 30 12 -14 18 -5 9 -19 5 115 -30 44 14 -63 -33 -15 7 -6 -43 46 1 -33 6 28 13 -71 23 38 -15 -5 -10 -25 13 -6 22 10 17 18 1 -48 -7 -12 -6 9 8 20 0 18 12 -40 12 -8 -19 16 22 16 14 -25 -13 16 -9 43 12 29 14 -53 1 -18 -68 26 4 29 11 8 8 16 -13 15 -14 8 21 -15 -12 27 41 -2 -6 40 27 -14 -11 15 -35 30 -43 -27 -15 -8 8 6 17 -19 12 1 54 -18 4 -16 25 -22 -49 -28 -15 14 9 -39 35 -33 -14 23 -13 -5 46 -111 5 0 -36 -24 -17 12 -2 3 38 -32 -24 33 5 -33 -17 10 -45 -2 22 19 7 -26 -36 -40 62 -43 -23 -7 29 -9 35 -39 -12 6 -12 -5 -6 14 -60 7 9 -22 5 -46 -2 3 -13 -52 4 4 14 -83 74 -39 -51 15 -4 31 10 -53 -4 -10 -16 -55 60 -21 62 11 34 -20 16 -8 1 -32 6 -12 -46 38 39 -16 -18 -22 5 0 20 -47 4 1 -30 -9 4 38 59 -13 21 -27 42 14 -36 -1 22 -13 14 16 49 13 -41 21 -11 14 49 -8 11 -29 -2 -62 -11 -5 -1 19 -33 -4 48 30 5 4 37 -11 18 2 2 45 -23 -26 15 3 -31 31 -1 -21 4 -13 48 -19 26 22 40 68 39 10 11 39 -5 28 -80 -6 -9 35 -47 49 -37 -19 19 36 -1 -81 25 -19 -22 38 -49 20 -22 48 9 -25 -14 18 21 -10 -12 -29 27 16 7 15 -18 -17 -5 -22 -20 -29 -27 3 -27 25 1 6 20 -9 -56 -21 20 -7 -1 -9 -13 4 2 30 9 36 -16 92 15 10 33 1 31 7 10 -26 1 5
-68 1 -24 20 23 -6 52 -26 20 50 42 5 -6 14 -20 9 3 -23 14 19 3 4 30 27 -20 24 6 -31 25 7 -6 2 -21 6 2 -57 -10 31 -31 12 21 22 -24 -9 73 -1 7 3 73 3 40 -59 -10 -108 27 11 89 -20 29 31 5 -27 -7 5 24 -37 10 2 -4 0 38 17 -58 20 17 17 -9 2 33 -40 68 -11 116 11 12 -57 -41 -5 -88 12 2 11 21 -28 -27 11 23 7 -33 -21 14 -32 -11 -75 52 -16 2 24 -42 1 -5 -15 14 -77 9 -22 -49 -15 -5 1 23 -6 -3 18 33 12 -13 49 37 -47 -46 1 -52 -2 -19 -54 -19 32 -62 -64 56 -34 15 -14 32 47 4 12 39 33 -18 -73 -5 -23 8 49 19 0 -14 21 24 22 -25 -37 24 32 -1 20 4 9 8 23 1 -57 -15 -54 -27 -35 59 -36 4 -13 10 -9 -20 23 -6 -5 11 -46 -42 -17 -54 12 -32 18 60 -13 5 -16 -58 10 -4 13 8 -78 -1 36 46 -18 33 0 -17 21 -17 3 17 3 -10 -2 -28 -56 24 80 15 -7 40 -26 64 -6 44 -22 8 -12 -33 28 51 17 83 -47 -14 37 8 24 13 7 -1 -9 2 -16 -41 -13 26 33 31 -1 65 94 13 -72 34 -8 -39 -15 26 -19 -6 81 36 119 14 28 14 14 7 -25 33 -32 13 -53 13 -30 -4 77 30 -62 -13 -19 5 76 -22 -26 -22 3 9 9 45 18 -75 12 4 36 9 3 -39 17 16 19 5 30 -73 74 22 -8 -54 -57 33 -7 1 16 24 28 -29 -6 -1 52 42 0 46 -8 -40 17 -46 12 61 -14 -66 -11 59 6 9 18 -19 28 18 -54 35 78 -33 -13 -80 -20 -7 -45 -34 -33 -12 25 34 13 -25 11 23 -23 -30 17 3 9 91 -28 102 26 -21 3 0 35 -23 -30 26 1 39 14 0 72 -4 -34 7 -26 29 -69 11 7 21 46 -7 47 37 -72 -12 -1 -5 -17 37 -24 -22 4 17 -2 13 27 -48 12 -1 31 15 -13 -11 12 -15 13 8 39 35 33 -42 -16 30 0 9 1 31 3 -10 -22 66 -48 -3 -20 41 -52 -5 60 6 4 -7 56 34 -3 4 48 4 -23 38 23 -10 -70 60 -17 18 -63 17 -8 52 9 -23 -40 -14 -16 -5 38 38 -35 5 22 -27 -5 31 3 23 51 -19 -10 -1 54 43 38 18 59 -25 -26 -5 29 7 -20 35 -3 -4 -2 -10 37 24 49 -16 25 -11 15 -48 24 -1 -37 43 49 37 -3 -23 18 21 5 4 17 37 42 17 67 -13 114 0 -28 14 12 -53 52 -9 5 -8 -97 -6 1 15 45 12 -5 -28 44 113 7 23 -45 -20 17 -32 -5 35 -74 -28 80 4 -18 54 34 -4 26 -11 2 30 17 47 2 57 33 -46 -48 26 18 6 -55 -17 2 -12 30 -20 126 -8 -17 -51 -29 -7 11 2 -30 -45 -56 -30 -16 21 4 -65 -10 20 -46 17 11 19 -5 34 -28 36 40 8 9 45 26 1 43 -28 -44 42 32 10 41 -22 44 37 4 -41 -17 -18 -43 50 -50 6 16 94 -26 -12 -50 30 -16 20 -65 -27 -3 -13 -29 -17 -68 9 15 11 -2 -15 -2 -24 -14 -29 14 -57 -27 -15 -34 15 -35 -4 1 15 -67 -41 3 69 39 -68 -24 14 0 36 -43 0 -12 -12 53 18 -12 -21 -37 10 8 83 -11 38 -36 23 97 37 -1 21 -11 -8 0 52 -19 -11 -26 38 46 13 21 -6 31 -14 -1 16 -41 28 79 17 14 -30 -33 28 -31 6 -45 -37 22 20 -33 4 10 5 0 8 -24 -12 8 -42 19 -38 31 43 25 14 5 2 1 15 6 -65 85 17 6 1 -17 26 -33 17 -49 -13 16 5 47 -36 -12 -2 49 -12 -27 -19 -6
42 31 -21 -3 14 27 -18 -22 6 35 40 -17 -43 14 21 -11 -19 16 -18 -31 4 30 16 3 -22 58 -13 31 42 16 12 59 -35 14 41 0 0 -35 -27 -62 -4 6 -45 -15 -27 -29 3 28 -27 -5 -21 -22 -16 -4 -4 24 -23 0 -2 22 10 -24 24 -20 -5 11 -2 20 -8 -58 -6 -25 14 28 -2 47 32 9 61 4 -6 -30 38 18 -12 8 57 8 -9 0 11 -10 22 16 -11 15 22 -12 -27 7 -36 7 39 3 -48 -20 -28 -19 -21 -75 2 -3 25 23 -32 0 10 21 -34 -18 11 52 16 -41 13 12 14 25 31 61 -17 27 43 29 7 55 36 -8 -78 -11 18 -45 37 18 -8 48 -33 7 -10 18 -15 -27 -3 -63 -3 -1 15 -7 19 -17 63 -17 47 12 2 4 15 33 34 15 -27 -8 3 -9 40 -10 49 7 26 41 -16 4 48 38 25 -18 -15 11 -21 28 -49 35 67 -9 -7 20 19 20 -25 -32 -72 -29 -18 -24 -6 -8 6 -43 -19 23 -28 16 14 -8 -20 19 -13 -2 31 -10 -38 -13 10 -37 28 4 34 31 73 -14 33 -3 -15 -32 -4 19 27 16 -4 8 -24 42 -23 12 -51 -31 14 22 -8 -19 26 1 -5 49 23 -26 62 90 -27 4 -35 32 39 10 25 -15 108 -49 41 -17 30 -9 14 -20 -7 63 94 11 -22 22 -15 33 -28 -4 -71 34 -77 -14 -8 14 -30 4 -9 4 32 -11 -42 -20 -28 -20 18 56 10 15 3 -15 -18 -25 -6 -27 44 1 -40 -16 -59 27 7 22 -21 72 -66 -37 35 -114 -1 34 -13 16 28 -31 -4 17 3 -11 43 76 6 19 6 8 -27 -1 14 -37 11 -51 -12 41 -58 -19 22 -70 -18 -42 11 -6 0 62 -18 -18 -14 7 68 25 9 4 -15 40 -26 11 -1 -38 -8 5 30 0 -16 28 37 12 -2 -17 16 42 -76 44 24 6 -18 10 -20 -75 -50 2 16 -7 12 -31 33 -25 -14 12 -32 -12 47 20 -5 -13 -13 -5 8 -12 15 28 -10 -18 -6 -5 36 -17 -30 -39 51 15 18 45 47 11 12 -49 18 34 10 43 -1 31 26 -106 17 -34 -28 -25 5 -9 5 19 -22 20 21 11 61 19 7 8 49 -14 6 32 -1 7 -34 -19 -17 42 -63 -15 40 30 -4 -43 -7 -89 6 10 29 18 62 5 21 -8 13 -11 -30 -33 9 -27 -16 -91 -6 38 32 -8 13 29 18 20 0 -36 -6 -21 -45 20 42 -9 28 -4 14 -48 -13 -4 17 -6 97 -3 -40 5 -2 15 1 5 -64 13 -51 13 50 26 -60 -3 -4 27 -37 71 -29 43 -8 -57 18 -58 2 26 11 50 17 -40 42 -26 -2 76 2 9 49 -6 38 -19 7 -21 -31 -2 -57 10 -2 12 -22 -33 -27 -23 46 4 5 -62 -4 -70 10 17 -13 -6 28 -12 4 -3 -28 -84 -36 -4 15 32 16 19 2 -47 -27 51 -45 -44 57 -24 46 21 31 -21 -53 -32 -85 -71 -12 15 -15 -27 52 1 53 11 -10 -8 -42 54 -27 67 -20 0 70 3 37 -25 -9 44 -10 8 24 9 56 -27 114 -4 19 0 -7 17 53 -87 11 -9 -17 7 28 13 -5 28 -11 35 77 -2 29 21 53 -11 4 -61 -42 32 -3 27 17 -39 22 6 7 1 15 11 -7 -3 29 -3 10 17 17 12 18 12 26 50 12 16 -1 -6 -32 -9 3 26 12 26 21 22 0 -7 -7 24 30 -34 104 -27 3 126 54 -24 -21 -22 -6 -34 -29 -63 53 -21 18 34 -19 19 -5 25 52 -26 -13 19 11 -3 -28 -26 7 36 -28 -13 33 55 69 17 -6 -3 0 16 65 -30 2 -6 54 -23 24 -17 8 -3 -7 -17 0 33 1 34 24 -1 18 -33 4 55 -16 33 -18 -10 28 -1
-12 -16 -19 2 -11 0 13 -49 -21 31 2 3 -68 14 -21 8 20 11 -15 -26 -5 -35 15 -18 21 43 -11 6 -7 -19 -15 19 26 74 -24 46 -19 -7 11 -54 -10 -36 -25 -23 -31 71 -3 -7 65 -31 -11 -15 -37 -40 -79 20 76 4 -27 -2 1 -2 -25 -3 -60 -21 26 -3 28 54 13 30 18 33 32 -12 4 -1 -6 9 -21 -24 28 27 -44 3 -62 -18 6 20 -24 -8 70 -1 -14 -6 -39 -20 88 -49 4 11 -12 -69 10 -8 21 16 -20 -100 -2 -4 31 70 17 -12 -59 -6 36 -11 51 -24 -13 11 23 4 62 53 2 29 -41 -4 -10 -10 -13 23 -17 -1 52 3 86 95 35 -7 0 -18 6 47 1 30 -11 -9 -68 -6 32 -2 0 44 -1 -18 32 11 29 8 5 0 19 0 16 31 12 -4 -13 122 46 98 16 -20 94 39 12 -23 20 29 20 10 27 -4 9 -38 64 -24 31 5 -23 -22 -12 -92 12 7 -6 24 11 -52 33 -53 3 82 5 28 -16 -13 -48 11 -11 -10 -31 17 1 16 38 24 -13 -50 15 -7 73 31 -4 19 12 24 11 -18 28 19 -39 38 -2 -18 -27 54 33 -5 -26 -6 -51 -11 52 23 25 -6 -2 32 16 -19 -20 61 14 -13 4 -24 33 -35 8 0 8 -61 9 32 -34 7 -19 28 -22 17 0 -6 15 64 20 -4 14 66 45 -2 -1 7 -31 -9 -34 70 5 24 79 16 -1 3 -24 -15 24 17 15 10 18 19 7 46 12 -16 -56 -19 44 -18 61 -61 -20 43 70 46 -19 -3 14 -69 11 112 -8 -2 -14 -52 -10 61 22 24 29 -17 -35 -8 82 22 19 -9 7 -46 -72 70 62 -70 -20 -35 -8 68 -2 -3 21 1 54 -16 35 32 9 -2 51 27 -1 8 29 -10 15 5 22 45 -4 -14 -11 -28 -34 -24 -4 30 -16 -30 10 -4 -13 -34 26 11 -43 -42 -27 41 -11 33 37 52 11 7 -2 -35 71 65 69 32 20 28 -2 -31 0 16 73 -31 -28 31 -33 -82 -24 -8 -19 42 -21 27 40 -40 -17 18 58 -12 15 -7 54 51 -29 28 -56 -51 0 58 40 -44 2 61 44 -7 -30 -11 -34 0 1 20 0 16 -16 -1 -9 -31 -91 -35 -2 5 -8 -25 -3 15 18 77 -48 31 -2 -15 45 -13 17 49 -30 43 3 20 -12 -14 5 16 91 -1 54 -103 41 126 -7 58 -27 -30 -10 -22 25 10 -3 12 -30 25 -8 44 28 -67 -7 1 58 -95 -79 -33 13 -11 14 2 81 -14 -27 26 -13 4 -18 -11 25 38 11 -26 12 69 -24 20 24 -41 -1 42 34 -18 -14 31 14 -93 -13 11 13 41 24 45 40 38 -14 -6 -24 3 5 13 18 0 1 -15 2 13 -12 4 51 -37 -13 17 1 36 -32 18 -27 -88 6 10 13 -61 27 26 18 8 12 -33 13 4 44 -6 -34 -42 -5 49 -13 7 -8 30 -64 56 -20 18 -8 -7 12 4 -50 -42 17 0 -14 24 1 9 -35 27 -70 56 53 79 16 6 -25 5 5 -19 -16 -10 16 18 98 41 -26 17 -61 -9 -26 -10 -26 5 -33 8 13 -5 29 19 12 11 65 -3 -34 9 60 -6 49 -22 10 21 35 -13 21 -24 7 -19 55 -11 21 -4 -7 42 -22 44 -38 43 7 39 -8 -47 -7 23 10 21 31 62 -16 20 -31 -7 -28 -12 7 -6 72 36 -25 -6 -17 -8 6 5 53 42 -38 40 -2 87 34 56 67 37 1 -11 -20 0 16 10 10 42 -28 44 24 -93 41 -23 2 12 16 23 -33 -30 -54 36 30 27 41 -18 74 -8 12 -13 9 -4 -25 24 18 -2 5 -59 8 12 39 -44 -38 -9 4 36 18 18 -11 -25 -5 48 46 47 0 -19 -14 -15 1 -10 52 -81
-14 8 1 -9 13 7 -2 16 -20 -6 11 -26 16 -13 -11 -4 -25 -42 19 -14 -13 -2 29 -31 5 -31 33 79 -3 -6 0 50 -28 6 -7 35 -52 35 -26 -45 -13 -1 20 33 -61 -16 -5 9 71 -27 34 -38 -35 -27 -19 -18 -67 -26 -33 -9 -15 19 -24 -13 27 -22 41 -35 9 49 27 24 27 20 -17 -25 -29 -2 -24 -17 -6 -39 -16 -21 19 29 -44 -21 63 -37 8 -44 -53 -26 14 15 4 -11 -85 -2 -12 -19 33 -49 29 -4 3 -12 1 13 -3 -6 33 16 68 13 41 -33 24 -26 -21 -27 -3 6 5 14 29 -13 -61 -10 -44 19 -25 -21 -3 -7 13 -1 5 8 -7 -13 -13 1 -9 48 -54 -13 16 -21 -43 -49 -14 6 45 -14 6 -7 12 -13 68 0 -42 -21 -18 -15 11 20 23 -7 -2 5 23 12 44 -41 -22 -7 -27 -31 -23 -31 -22 11 33 9 -55 -37 -38 -26 5 -3 -8 -12 -11 7 17 21 -33 -37 34 11 -14 9 -13 23 5 47 -53 -13 9 -7 -52 -13 4 5 13 -2 12 -2 -39 17 -16 -10 -11 -7 -16 -31 36 -1 -55 -6 -23 4 15 -3 -17 -13 8 -61 -2 30 67 -9 -17 -32 -3 4 -35 -9 -33 -32 -9 18 -17 -1 28 24 -5 13 42 -13 4 -26 -60 -21 -19 -33 7 44 -17 64 -20 1 -55 85 -53 -20 9 -9 9 -51 10 3 9 18 -35 -8 41 -5 37 -29 -22 -24 18 28 -37 25 70 40 -9 -25 16 -8 47 -54 -3 2 -28 -14 -50 70 4 23 13 -8 -9 -36 -16 21 23 16 -62 -33 -27 -29 52 23 26 -66 6 -16 -26 9 2 4 4 5 -52 35 10 -5 15 -17 -31 -17 -32 25 -64 -8 43 40 -4 27 -12 -9 1 9 11 23 -4 3 -67 -6 -11 -3 -24 25 2 30 23 60 -34 7 0 30 42 -10 23 68 -22 45 -2 4 -5 -16 -11 -12 -19 6 2 55 -2 -17 40 8 -1 10 -45 -36 -26 -17 16 -21 -58 -3 -5 -40 17 -1 -51 20 20 -24 3 -26 9 -5 -26 -18 5 -4 24 -29 -47 -17 55 5 -13 36 24 52 9 18 32 5 24 19 -16 -58 -2 -3 -76 -9 -67 -7 -19 -25 10 -27 -54 48 13 -1 -31 41 -27 21 4 -11 -44 10 22 -67 28 9 -30 -17 6 -49 1 22 -6 25 -15 37 12 -29 -54 1 9 19 -4 -10 25 -39 -29 27 -98 -25 -12 21 19 67 -15 18 2 -3 -12 -18 15 -33 44 22 -14 16 40 -6 -8 8 -31 -5 -14 -28 -38 63 -32 -9 4 -3 -24 -33 -89 17 18 -5 -9 27 -53 16 22 -3 8 16 4 58 -47 46 -9 40 14 31 -50 29 16 35 -33 61 -8 1 8 -1 17 34 -45 -18 -47 8 10 -24 0 12 53 -44 -28 -20 10 -14 -47 16 3 -27 22 -1 35 -13 -34 -4 10 -13 34 -19 7 9 33 -4 -22 24 2 19 -1 -65 -8 -55 -3 41 -2 59 32 33 -55 39 1 30 40 31 25 -46 -37 8 -59 18 29 -13 -30 26 114 -20 -25 -3 -15 -127 18 -5 -23 15 -23 8 -5 -11 -34 34 7 11 9 -18 15 4 7 -11 -1 -17 25 0 10 6 -7 5 -31 -52 -51 -31 10 -2 41 -8 -11 37 41 -49 5 6 -12 9 11 58 21 3 46 -13 -52 -9 6 -27 -38 -2 22 -13 15 39 -18 27 21 0 -40 -54 -55 -7 2 7 38 -35 -31 11 17 20 31 35 16 -11 -24 -32 16 4 -20 44 50 5 49 -26 0 -41 -34 -8 -15 15 12 20 3 -3 11 -26 35 -14 -1 -30 22 -22 -20 3 -1 5 5 -3 1 18 -38 27 27 -32 23 -15 -11 12 -20 11 10 6 -13 -6 -27 -24 6 -21 18 63 3 -77 4 39 -10 17 17 21 -35 -7 4 -15
-81 40 -2 -5 -5 -22 42 24 8 -1 5 -23 31 -2 24 5 -2 1 -12 -18 -3 -41 -22 0 -2 -38 56 -48 11 27 37 -7 -47 8 9 1 -17 17 18 -32 10 -28 -57 48 -17 -39 21 6 -76 42 -20 12 23 -20 -67 26 -48 -10 -8 -31 18 7 -13 22 -14 -5 17 -16 -47 -2 -28 42 -29 -5 -1 -7 40 5 -4 -16 0 -5 28 42 -18 -4 -34 -5 12 50 26 -21 -13 16 33 -10 8 5 -9 13 7 -9 53 6 3 0 14 -20 1 69 0 -6 40 30 -23 -33 28 -16 15 -7 -72 24 17 9 20 -10 -23 -32 -28 -48 54 8 40 9 66 -46 -7 -26 22 83 -27 -58 37 -30 17 22 12 22 -21 13 4 -32 30 10 3 8 -3 17 14 -6 7 -2 11 -37 18 3 -24 -12 -72 -13 9 18 28 19 31 60 9 8 -55 0 -6 21 44 -18 62 10 33 -5 18 37 -6 -26 -44 -1 16 -24 -31 -10 -8 34 9 -25 -10 -19 12 -13 0 15 24 -22 59 -23 23 -17 18 21 22 18 24 17 32 -16 11 24 21 36 -37 38 0 -21 -16 2 -15 15 25 -6 -63 17 1 -31 -14 -42 24 3 50 5 -30 1 23 14 -18 30 -48 33 -3 44 21 -7 15 -34 -37 -43 -3 -21 22 12 31 -34 -28 10 25 30 60 50 57 -4 9 3 0 17 -1 27 -2 0 15 3 -38 -10 22 4 -10 22 2 22 -14 19 -42 23 27 1 -16 -32 8 31 21 5 -19 -25 14 -5 -31 -69 26 -28 21 15 -14 3 9 12 31 -44 15 11 8 21 5 -23 -34 -127 -4 45 0 8 -22 -25 31 1 45 24 -8 12 -19 38 51 -4 -28 57 -6 4 54 29 -24 10 -37 -10 47 -5 0 -4 4 -13 3 29 21 -1 14 14 -23 92 -61 57 -29 23 21 25 14 -8 29 21 38 5 11 27 -19 -49 14 -4 -3 52 28 -25 -16 -1 5 -27 11 -18 12 -4 -11 -1 -39 -9 12 -11 -22 -26 3 -1 2 17 -14 -8 -34 -29 -34 -8 -36 -7 16 -15 -34 11 -4 14 26 -18 18 -8 51 5 -11 -9 -1 42 8 -18 30 -28 1 -90 4 14 44 -38 5 21 -15 3 43 -13 -12 16 -46 11 -78 -50 -47 -1 -1 -26 -35 -59 -73 46 14 -28 -18 33 18 -10 9 4 33 83 24 18 13 59 -1 -6 45 -32 9 25 -17 47 1 17 -20 -16 -2 -47 6 -41 1 -23 -26 -11 -24 6 70 0 -69 9 36 25 -31 -43 9 2 17 -23 25 4 -2 -29 35 1 15 -15 8 -12 27 -44 11 -57 23 13 10 -52 -1 20 -68 -3 -10 -21 -22 -68 1 28 40 -39 54 7 -10 24 26 6 38 -6 -25 -65 45 28 -37 48 -53 0 1 -16 17 -67 36 -16 41 8 7 34 -10 63 -6 -16 14 46 26 19 -38 -22 -13 34 32 23 36 13 0 26 2 -4 15 37 -1 -28 10 45 16 25 -6 -63 -48 -23 -22 19 -12 15 30 36 -9 -9 -19 28 -14 -1 -34 33 1 19 1 -42 -14 103 -92 17 -20 -18 -35 37 -26 73 19 11 61 -6 19 11 -57 -9 -4 -14 -15 -2 15 39 -48 21 -46 -4 -2 9 -12 21 9 5 -8 7 -19 -14 -41 -27 68 13 -11 47 -13 2 -31 20 9 -42 -3 -25 11 -30 31 23 3 -18 -4 -35 -2 -13 24 -12 -23 6 -8 -2 17 36 -19 18 19 17 -11 -20 10 -19 -27 -16 25 -50 -29 4 -50 -18 40 -50 81 -24 36 -10 -5 0 -25 17 8 1 -13 -23 19 -59 2 -16 31 10 9 -6 20 -40 -24 -20 -27 -26 15 -1 13 -30 -3 -48 23 8 -3 47 -2 2 25 -53 2 -4 10 -12 13 28 32 -21 56 -17 -24 -2 34 -11 15 -43 -14 -4 -51 10
-21 19 40 -5 1 -3 -22 18 -50 -64 -8 -6 -9 -3 26 4 25 22 -104 1 20 15 -4 26 -11 4 19 7 -13 -9 -9 -26 37 -9 17 -59 -5 -18 6 -6 0 -19 -54 -44 12 14 1 11 63 44 13 96 71 -35 -19 2 -37 -8 -14 3 17 -16 23 -4 20 25 -34 -2 19 19 -40 -43 21 0 30 0 -19 -1 45 6 -42 -10 10 -29 -33 -27 5 29 70 1 9 -30 12 14 -59 8 -10 0 -60 10 30 46 -10 -6 -25 26 -8 3 -13 17 4 21 30 10 9 -20 47 -41 51 -6 -18 -23 10 -22 10 12 30 -9 73 -22 -11 -16 33 -17 49 -28 18 -19 109 40 16 22 38 87 10 21 -34 44 4 13 -26 -27 11 62 42 -26 -2 23 6 30 18 -38 6 -12 17 -20 -10 12 -48 10 8 -13 -24 -69 36 -5 47 -61 23 -7 -15 35 8 -10 56 -5 -38 13 -3 -86 53 -7 -107 6 5 -17 -1 79 24 35 -10 55 27 15 -5 -11 19 -34 94 -36 -28 -12 -12 14 -12 -28 8 -19 57 -15 122 -42 11 -15 -22 0 -22 -74 27 15 62 -14 5 16 31 28 -17 5 19 -11 -22 45 -42 3 33 -8 -41 2 13 -4 6 -8 30 18 26 -32 2 52 2 -16 33 -25 26 -35 -38 25 -13 -11 -72 -4 -28 -11 -68 -2 40 14 1 -59 -14 33 20 19 31 -31 8 -17 18 10 -28 -14 66 19 -27 30 -12 -14 13 31 3 -17 -14 1 -17 -12 12 7 -2 8 -42 -3 -56 -23 7 -10 18 -9 2 -22 2 2 15 -38 -2 -65 10 -6 4 10 5 -27 -8 20 -10 -2 -36 19 -37 -34 90 28 -6 19 -3 26 22 6 -20 15 -27 10 110 25 -20 3 0 -20 -46 -6 -20 12 -19 0 14 -12 2 -28 10 29 55 -14 35 -63 26 27 44 -15 0 8 -13 57 -26 -20 -31 33 -40 -6 11 10 15 -14 -23 40 -4 10 -21 -62 -21 1 10 -16 -30 -5 33 3 2 -19 -20 -30 -4 -19 3 10 7 40 -23 14 -10 7 5 1 5 -37 60 -28 -11 15 -6 -11 2 -24 30 -7 -1 33 -20 49 32 29 -15 15 4 19 7 -8 21 24 13 80 21 5 -44 25 -7 -12 0 5 -19 54 34 -49 -5 25 10 3 -12 -26 29 -57 7 -23 13 -20 -30 5 11 -38 11 -9 84 -12 -44 -33 -61 30 33 34 -22 -8 -34 -60 -39 3 -23 -31 -16 -79 -2 -28 11 37 90 64 9 -1 -34 16 27 24 -5 25 23 -15 -22 -99 -58 50 -21 -10 -1 0 -67 25 -2 -5 -34 -3 -61 24 26 21 5 -57 -12 -30 16 51 19 -42 12 -24 -8 51 -37 -1 8 49 -3 40 -19 -2 0 4 -20 21 49 -56 22 -37 17 7 -29 16 19 0 -8 0 63 -10 -36 3 -20 -50 -6 -20 4 -34 -90 27 -22 -9 -16 19 -28 -15 -20 28 -45 -42 -1 -10 -1 -25 -15 -17 59 -46 -1 -17 3 3 126 38 48 30 10 -8 1 24 32 9 1 8 -2 -11 25 -4 52 -21 22 -3 52 31 -28 0 -2 -16 42 28 45 3 55 -74 -65 -7 -6 -21 13 5 16 16 31 2 33 -3 -26 4 -59 -25 -20 -21 -36 -13 19 -1 -4 -27 38 -94 -55 -86 4 44 -14 -4 -25 40 23 -28 18 -30 -34 2 -14 8 -12 19 -5 -1 -21 8 -2 -48 2 1 -1 -9 -1 -10 -15 -18 32 97 35 11 25 -32 14 -19 34 -6 -26 17 38 45 -8 -50 -27 -9 41 1 -86 22 -17 -7 -25 -24 -20 -70 -10 43 -34 36 20 16 11 24 -36 -32 -2 -8 19 0 -33 -9 -35 -9 19 -15 -32 -60 -9 -2 3 7 -20 -26 -75 55 -6 -6 -38 27 4 17 -18 -14 -7 14 -33 27 -70 -1 21 18 -19 17 -3 40
19 48 38 -3 10 -1 -30 -3 -58 26 -20 1 -6 -7 0 2 -35 6 -8 25 -25 6 -41 4 7 -60 -26 52 1 -11 -32 -41 26 -17 -3 123 50 -63 4 2 31 -18 -74 74 40 -32 -9 -5 -19 -57 -28 6 -70 -42 36 -24 66 28 20 2 -27 -15 2 36 -74 27 -30 24 3 -3 -2 -14 -2 30 -9 -25 -21 -8 -10 34 18 -17 3 -2 16 6 -62 -2 24 -44 8 34 -9 38 -46 12 -81 -21 5 11 -8 -42 -23 -17 -11 -17 18 16 -90 29 -3 -29 1 -10 -17 28 14 -22 -84 1 -49 28 27 8 59 35 31 52 -50 -114 15 21 4 10 17 5 -25 -11 6 23 -35 39 16 -5 32 94 26 -41 18 -26 -7 74 8 3 -19 -28 -4 46 -31 5 -1 -6 -8 -30 32 -29 11 -9 25 -13 -6 -44 -61 -87 -8 -10 -3 -63 70 -22 20 58 -10 19 1 -11 -37 -23 -2 -8 15 -17 -32 7 -41 -51 -17 51 -41 -11 -50 -9 23 5 -37 2 3 -17 55 -12 66 -13 -85 6 31 9 -36 -4 -3 -2 9 -37 12 42 -22 33 26 66 -4 -15 41 1 2 9 -44 -8 -32 -17 29 -18 -7 -6 -3 -14 26 34 37 6 -50 -16 -30 22 34 -30 -12 33 -33 22 41 39 -115 7 -4 -24 -43 13 126 15 -64 -86 -53 44 -27 23 40 -11 31 -45 -17 25 23 -10 1 -9 2 51 -3 2 -6 18 54 -7 -15 25 5 -17 -20 22 15 23 43 15 0 -28 8 -6 21 -57 0 16 3 36 20 -33 -11 32 45 -54 -66 10 53 53 44 80 10 -13 -5 -34 8 89 0 1 114 7 -45 39 -65 31 53 -61 12 49 -15 50 5 90 23 -43 -13 -10 19 -23 -31 -10 -12 -9 -51 -13 -4 -24 12 -1 74 -23 -27 11 17 -25 -39 -43 10 16 -76 -4 28 6 47 -2 -49 -15 16 14 5 -38 43 -15 70 -31 36 70 27 -9 5 -15 -11 -20 -1 -15 -21 -33 -25 -40 2 3 -37 5 2 52 -21 1 38 -4 13 -1 -4 14 22 21 4 10 13 -6 68 7 4 -54 67 -19 -34 85 24 28 72 -17 -57 -7 -94 -4 -46 -12 -29 111 1 6 37 -14 2 -14 11 47 29 -3 -49 -7 27 -36 2 0 13 -30 -22 25 -113 61 33 -19 2 -50 0 -15 -58 26 -34 30 -65 -12 -3 -26 40 -30 41 -50 -12 -54 -16 -67 -43 28 4 70 36 -27 7 -26 3 26 -14 13 44 -12 -61 25 -15 18 -1 -44 -52 -52 10 -55 -19 -25 -65 -17 27 -27 5 -31 6 -22 -37 -14 9 27 -52 -13 -26 15 3 9 0 14 -3 -50 -30 -17 2 3 -21 4 12 10 -27 -21 -50 -3 9 26 -30 12 -13 -3 0 79 -22 11 -45 4 -37 -37 38 -11 -55 32 1 20 1 6 -49 12 5 -87 -51 -30 -6 -44 46 -47 8 -20 21 23 -54 -9 0 5 -3 -7 2 -16 -79 2 15 44 9 -5 -37 10 43 13 -31 -24 -23 8 -43 31 10 -17 -62 1 -5 27 37 28 -39 2 25 7 9 -2 41 17 19 4 29 -43 -49 10 13 4 23 -28 -55 -27 -15 8 -1 -23 -29 -41 41 14 -12 -1 58 37 -103 9 -65 -23 -50 2 -11 44 -1 2 -10 -77 1 -6 6 -2 6 -72 7 24 13 -91 29 -22 -37 10 -33 3 5 -6 17 -9 -4 58 -21 -7 -31 -28 -35 -32 -75 33 20 -43 50 -38 60 -3 5 71 -30 -79 -20 -7 -20 12 2 -53 6 56 -32 16 6 -19 -56 11 5 68 -66 32 34 -31 -7 -31 17 6 -44 13 -28 10 36 44 -10 11 -38 -23 -14 9 -30 15 -66 51 -15 -18 2 -19 16 -90 -33 -19 1 24 -13 -20 -11 10 4 -19 13 10 -6 24 10 -3 25 7 -14 -43 -17 3 -114 -34
40 1 18 -5 18 -9 -88 -57 2 1 -25 -23 8 31 25 7 -49 -76 -24 10 -11 -55 27 -20 18 -8 -14 12 -36 -8 -50 4 -30 -20 21 12 48 29 -43 -9 -10 -13 36 0 -2 -12 -4 -1 7 3 -49 -64 38 -14 -11 2 -1 0 -31 47 30 5 22 2 22 43 10 -22 -83 -15 72 8 51 -9 -29 12 15 -2 13 -29 -6 -8 -20 17 -6 -6 54 -25 -16 19 27 12 39 8 -4 -31 -25 13 -52 42 7 -26 49 -84 4 -12 -14 -33 14 48 0 -10 -8 34 2 -4 -31 -8 -58 -13 -9 -3 0 17 -43 22 -69 -13 9 -61 -31 10 0 -22 26 -20 25 -32 -12 24 94 -39 -70 41 14 -47 -14 1 2 -12 -37 -21 68 6 -51 31 23 2 18 38 -15 -11 30 -32 -4 25 81 -55 34 -14 6 15 10 85 -4 23 -37 -8 16 -36 -13 -47 40 48 -61 -5 -23 -12 3 -44 -69 52 69 8 13 -43 17 -60 -5 20 10 39 20 19 14 18 29 -28 -25 -26 -21 22 -18 -9 6 -55 18 -6 39 -12 30 -35 8 43 -42 5 -57 -35 -8 -40 -37 18 1 -3 9 2 71 10 -25 -23 6 -75 17 -5 -6 17 21 8 3 4 13 24 -10 0 9 44 13 -1 -11 -36 -53 -3 -2 -84 28 24 -68 -11 8 22 2 30 -23 -14 48 19 8 -36 17 2 8 -24 43 69 -100 38 -39 -34 -23 5 -58 11 3 -19 1 -65 48 -16 36 -39 -14 51 -18 -22 15 -70 -11 -27 14 -30 -23 22 -61 -14 19 44 -19 -14 -40 -13 28 95 -31 -34 -29 68 -31 8 -24 -84 -6 16 92 -4 69 -11 126 -83 -50 -45 -4 -21 -25 -53 -28 -11 3 30 -7 7 29 -88 59 -9 -64 30 -51 -10 -17 -29 -28 6 -18 -6 31 -37 -23 5 0 28 -27 -24 2 36 51 -11 9 -21 34 32 -26 -40 14 79 22 38 -18 14 15 13 5 -40 26 64 14 47 18 -37 -11 13 -20 20 22 11 42 19 -22 -12 -18 -19 3 29 -47 -18 16 38 -9 -9 0 9 21 -29 -33 87 25 -8 -13 -23 -10 -7 -32 -13 -6 -15 35 34 15 -13 -1 -3 2 -13 76 -26 -43 14 -32 -30 23 1 -70 -35 7 -11 26 2 4 -57 -35 -68 -12 -29 0 18 14 8 -49 51 -14 42 3 27 -6 38 -81 -5 -20 44 -107 -58 12 7 -15 -73 45 -10 9 61 33 -11 -8 6 27 0 -13 -35 -9 -2 22 7 -49 35 -4 24 42 2 -19 25 35 19 -8 28 -12 -33 -18 35 -20 58 -21 13 -39 -38 -1 -36 -25 -30 -1 7 -27 -9 36 9 10 -12 58 13 -1 18 -4 -31 -6 24 0 39 47 34 24 23 126 -5 -23 7 53 75 -42 -44 -36 -8 -58 5 32 -10 27 45 -65 101 20 38 43 -41 9 -16 11 29 11 -33 -1 32 14 -9 -12 -20 -43 -22 -23 -12 4 -20 0 31 28 -33 -10 57 11 -22 -18 -27 -93 4 10 6 -32 -19 -25 22 42 2 2 30 56 -39 58 10 9 0 8 -21 38 -18 -1 62 30 2 -6 -32 42 -40 25 28 65 -63 -42 -14 -30 27 -53 17 7 -18 -35 -9 -8 15 46 70 51 12 9 47 6 -31 0 -21 -29 10 -37 64 -24 20 14 0 -28 -1 -27 -20 -2 51 -1 0 -37 -19 -28 17 55 25 1 -7 9 -10 54 25 41 18 16 19 -33 40 -38 25 -6 -28 23 -12 -1 56 33 -4 17 -14 3 9 -4 -30 15 -40 7 0 -13 28 14 30 11 -33 -35 -9 19 24 -4 9 -1 24 50 63 11 -8 -66 35 -13 -1 -15 -8 -60 -52 -20 -6 -6 6 23 -110 29 19 5 12 -40 -29 -43 31 -54 15 -23 -29 -15 10 -21 -19 -12 79 6 56 -27 -9 -22 -11 -5 -16 37 -29
-28 -26 21 -4 6 37 67 -23 -31 24 1 11 -22 -12 48 26 -25 11 40 -2 -5 -80 58 37 28 -13 -6 12 -2 24 13 -44 0 -8 -19 -16 -12 30 -23 -10 23 -41 -110 70 -56 36 -28 10 -38 12 3 -76 -37 -26 6 -41 -100 28 12 3 -44 -1 -7 -20 -46 9 -72 11 -6 29 -57 -25 32 -10 -54 -17 36 -10 3 -17 1 41 -20 -37 -13 -15 50 6 9 46 39 -34 11 -28 -29 -22 47 -35 -13 -5 18 -53 -36 21 -12 6 -20 -5 -61 -18 -1 -26 -4 -41 -20 -1 -33 -4 0 43 0 33 8 -9 37 -14 0 -11 33 26 -12 18 42 -9 39 52 -6 -67 -91 17 -54 -41 33 22 21 20 -18 65 5 18 -45 -8 -35 7 -4 -23 -2 -19 -14 -4 -29 -10 36 14 77 16 -63 27 37 1 -9 0 -2 28 33 -6 -27 12 41 6 -24 -30 51 5 -70 9 -37 31 13 -37 66 0 29 3 -19 -1 -51 -35 41 9 71 -78 8 -33 -71 42 8 28 37 6 78 -22 15 -7 15 -29 -19 -1 -18 5 49 -90 -39 19 -26 -10 -15 15 -9 12 10 4 9 -21 -5 13 -7 -71 13 -66 25 -18 37 46 -12 -46 -7 -58 39 -43 30 6 30 13 -9 -78 1 23 -23 29 33 -9 -7 -9 24 22 -32 91 -71 1 -23 21 -19 26 6 27 -36 -21 -6 -35 1 6 6 -66 17 20 40 15 37 73 61 -12 -20 15 -84 37 30 -3 -74 -53 0 14 -10 20 -9 -24 -10 -74 -19 -27 -28 13 31 -59 48 1 70 22 46 -63 51 121 -10 8 -21 16 6 -7 -23 100 23 -22 -7 -24 -3 -8 4 -8 -10 36 5 14 17 -42 60 -17 5 -28 7 -11 -56 -60 -34 30 35 -10 -14 9 -16 32 -8 19 16 -4 -5 -11 51 0 -40 -99 32 52 -84 -35 13 -20 8 17 -11 -5 22 -24 41 21 -66 21 18 32 -8 -34 35 -79 -17 44 -93 22 20 -3 22 74 59 -20 43 -12 5 48 -8 -32 11 9 74 18 -11 5 -9 16 45 24 35 -42 -11 -32 25 -11 -46 -18 9 46 -13 20 -40 -63 -13 -7 12 0 -23 0 16 -31 -17 -127 -76 13 2 8 -46 -27 -11 -2 -99 -4 8 -15 -1 69 35 -17 -10 -62 -12 -73 29 -26 -11 29 -41 1 -2 8 25 -45 -109 49 -36 26 -55 36 -11 48 14 20 -58 -30 45 -15 -1 53 -52 -29 4 1 18 -53 -16 -16 4 20 12 -68 -11 -19 -57 40 -32 -25 -22 71 7 -8 17 -13 12 17 -34 -33 -26 1 -44 2 0 37 32 12 -24 6 -59 4 -19 -43 3 25 33 44 -26 43 -23 -11 -3 -76 -28 31 -5 -26 -27 15 12 78 -18 17 -27 8 -49 -35 23 -60 -1 11 -35 7 -99 -20 -39 -7 -16 -37 48 11 100 5 22 2 41 -31 -18 47 -68 -9 40 -25 22 -93 21 -25 15 -17 -3 -31 0 69 -17 -41 12 -64 14 64 43 -16 12 22 67 52 -30 23 7 -46 37 26 7 -35 35 -8 -90 75 -6 -36 25 45 -38 -17 -9 13 44 -1 -4 0 -19 19 50 5 -25 124 22 27 26 3 15 41 55 62 -13 -23 -8 -15 -71 81 -8 -22 -13 43 40 -6 18 44 77 28 -18 11 -11 -83 53 -56 8 -24 1 -55 -97 -70 -40 58 70 -1 -29 11 -2 5 -40 7 -43 20 -13 22 -70 5 30 38 95 -26 -30 -25 -9 36 -16 -21 -5 17 1 -42 -35 -10 30 -80 28 -93 -43 -22 36 -12 51 27 0 8 6 23 -13 -47 -37 -2 -4 -44 11 -44 -24 37 -14 -58 -38 -8 0 62 -37 8 31 2 36 10 105 -10 14 -26 26 -35 14 -68 -52 -7 -48 -6 -7 -12 9 1 -18 -50 18 -3 19 15 2 59 22 -38 2 14 26 -12 16 -16
-43 15 36 -1 -27 30 -24 20 -42 -11 33 -17 -8 9 -4 -2 -8 15 -78 -3 -5 -7 3 7 -18 37 -17 -62 17 15 47 9 -39 -7 4 -62 10 53 -8 11 24 -5 -20 -5 10 32 -4 7 47 40 10 -66 13 17 -10 -7 4 -10 1 26 -22 6 -6 -34 -13 -16 18 -58 -41 -8 23 2 -17 -2 0 30 -4 4 12 -17 1 -10 -38 -14 6 29 -25 -24 37 47 1 -29 -32 -17 4 -25 -20 -8 -89 -6 -8 -6 -11 -24 17 7 -10 -3 19 54 4 -11 12 -58 -11 -4 -17 21 -3 -18 -6 -47 -7 -31 -7 -23 -12 -23 32 51 51 23 25 2 -11 21 7 46 -2 -69 -54 5 44 7 -49 26 -72 49 -10 -8 -23 -47 10 -4 -10 0 -24 3 -22 -15 53 -17 -22 2 -62 32 9 2 -47 14 -64 36 -9 -24 -16 13 -6 -13 12 -25 -8 18 -14 5 14 -24 -18 -7 44 -15 -65 29 -11 -33 6 9 -18 68 -7 0 -2 -21 -17 1 13 -12 -15 73 -10 15 10 -7 -35 -20 7 -14 -20 -2 17 7 -10 -20 -3 45 -17 -24 -71 -12 -24 -11 15 -4 -4 -15 12 -4 13 -43 -14 42 -10 -89 7 -22 11 -15 -32 -13 -4 -9 -19 15 6 7 -23 -29 73 -35 5 27 -31 28 -9 26 14 -15 1 18 20 17 -12 67 10 -39 28 -26 -34 -25 0 34 -22 31 -6 -4 18 27 -18 -2 40 31 -23 30 -14 -15 -44 -4 -18 18 35 12 -15 -24 9 8 12 1 -14 -9 10 7 -20 19 -32 88 14 -35 -24 -3 -14 13 26 32 -77 -112 -6 12 6 -1 13 -38 -13 -21 -33 5 3 -43 -16 -3 -20 6 8 17 -1 -28 -2 -11 -8 -12 9 15 93 12 -50 46 -5 31 -23 11 -17 -11 8 -3 -35 -17 10 33 15 -22 54 39 -51 -16 88 -13 -37 -21 11 -19 -7 19 45 -2 13 -127 36 3 -7 25 -20 45 6 -47 -47 -19 -20 -20 -27 26 35 -9 -17 -3 -14 -13 -10 -7 28 2 -1 -13 -21 -27 -2 -1 -13 -47 2 6 20 -8 -35 19 33 26 -25 19 17 -40 -2 -15 -12 31 -10 -9 -33 -30 13 65 -59 3 -10 79 81 -19 -14 19 28 -5 6 -26 30 -12 -2 -12 -6 -43 1 -54 -17 -65 8 -9 -21 28 -40 13 14 13 -12 -27 7 39 13 2 6 0 21 -7 13 40 12 -18 12 -23 -33 17 -15 -6 22 24 -33 1 -15 3 20 10 0 -16 16 2 12 9 -37 -35 33 -10 15 -36 -24 -48 -4 -23 -18 -51 60 -28 -2 -7 -4 -15 -8 -42 6 -55 -40 -52 -17 26 -17 5 -33 -27 59 14 4 -38 17 36 -7 -32 6 -10 -10 -24 -25 16 -1 48 11 -18 -16 1 14 65 18 11 -8 18 2 8 11 9 -5 59 7 -17 42 -11 20 17 6 19 18 -11 12 -27 -5 -21 -11 -31 2 -51 5 26 -1 36 -2 -39 1 -55 41 -28 -3 27 57 25 -19 -19 18 24 -16 3 -57 10 12 -13 14 27 -1 7 -46 -29 37 1 58 -56 -6 22 16 -16 -41 -64 -8 -10 19 -43 -12 -3 8 17 -22 -50 -1 -11 7 18 -35 40 6 -21 -84 5 -14 -1 -43 -4 8 1 -23 24 18 -30 25 6 41 -17 -39 -26 -32 -48 -11 -2 -6 3 -24 -66 -11 -7 -26 5 7 9 8 -3 -26 30 -10 6 -25 -20 6 64 -32 -5 -27 -4 7 31 7 12 -25 15 -8 10 -4 -37 20 25 4 -20 -15 -9 -4 -46 44 -15 -54 -16 49 -10 -85 41 35 51 20 1 -8 -23 2 -11 -36 19 13 -4 -58 18 -10 -4 1 -24 -26 2 -18 -5 1 8 19 15 25 63 -24 13 -10 31 -8 0 -44 -10 -13 8 34 0 1 24 15 -21 -7 -11 -8 10 -5 7 -8 1 23 -9 32 -9
-19 5 -96 25 6 2 26 15 -2 -29 -7 -9 67 20 -22 7 18 -3 -48 -11 -1 27 -11 34 -29 20 -22 -7 -39 -45 -30 -19 17 -8 11 -45 -20 18 -17 33 6 -4 -25 91 4 46 21 12 1 -29 10 78 -14 -15 -20 13 13 -13 27 0 2 20 18 3 -20 20 -21 23 10 23 -23 31 -28 29 -24 21 -4 2 2 -41 3 0 -5 -4 4 12 -43 6 42 50 -7 -12 -10 -28 76 -10 -36 -5 -55 -11 14 12 25 0 -66 0 18 -31 -26 33 -2 1 18 -27 -69 -21 52 28 -78 5 -31 34 -12 11 -17 3 33 13 4 -59 -87 8 24 5 27 37 13 -16 20 -7 -60 56 18 49 -2 9 9 11 4 -2 -20 3 40 52 6 7 -3 21 -2 -19 64 30 -34 29 35 28 -19 31 -37 -25 22 -15 -10 66 -30 28 -39 45 43 31 -39 -16 -27 -23 30 -11 32 -16 51 37 -9 10 -20 -6 59 -21 16 17 -26 61 12 17 3 -36 -4 39 -8 117 -8 -14 89 -6 -40 9 -22 4 -13 -6 -33 -9 54 63 17 -2 4 18 55 -15 -3 -52 -15 -6 -7 -30 0 11 -33 -11 -12 20 15 -14 39 11 -9 -41 -24 -17 8 17 -22 -37 -52 51 17 27 -27 -7 -2 -47 25 -1 56 3 -43 -2 48 10 -18 -61 -19 17 46 -15 1 5 101 9 20 19 39 16 60 -66 -16 -7 -26 -13 0 -36 34 8 8 3 78 -7 -47 4 31 10 33 -2 -12 -5 -8 -53 16 3 -13 52 23 -22 -2 33 59 -2 -16 -2 -44 49 38 18 66 -44 9 -31 11 -11 -42 38 16 -22 51 8 23 51 -31 -36 5 5 8 43 19 -18 40 29 9 -11 4 6 -20 14 11 19 48 -27 2 -41 -40 -22 -1 3 -26 10 -16 -11 -15 -2 -31 52 18 32 11 18 -37 -26 8 -24 -5 -9 44 9 28 -64 19 -13 -22 31 -9 -13 11 27 14 -6 -21 -30 17 12 -3 -11 23 19 -1 -26 -8 21 23 25 32 1 39 18 0 27 13 -33 -17 -7 -1 46 -31 -2 -14 -19 -4 -54 -20 -22 11 -14 7 7 -3 11 22 -8 18 4 25 -10 -29 -18 -8 31 53 -33 16 -9 33 -14 -44 1 13 10 -6 90 -47 39 5 30 15 92 -24 20 9 -11 -19 16 9 27 -13 40 24 -7 40 3 26 -23 39 -25 -23 -11 -43 53 -23 -14 -3 -61 -4 9 -3 -6 10 -14 5 -10 10 15 -17 -2 36 -12 -5 8 -25 -35 33 9 56 4 -42 -23 -19 -7 -27 3 43 1 -9 -1 -6 34 20 18 13 -8 14 42 1 24 -47 67 -59 -2 -34 -11 -25 -13 30 30 1 -3 -19 6 43 22 -17 19 25 30 -19 5 13 -69 -10 -37 3 -23 -23 16 0 11 44 32 -6 3 52 -13 22 32 11 -2 7 14 -14 38 7 18 -5 3 -33 20 17 52 40 3 40 1 -1 -76 2 -15 2 -24 25 -52 23 -12 -2 53 43 0 -28 -3 1 -29 -16 5 -1 -6 -30 8 4 -5 2 17 6 68 -43 -16 3 -1 -14 6 -19 54 -18 -12 -20 92 4 -19 -13 59 -10 -4 34 -12 14 -21 -60 -1 -29 40 11 69 43 13 6 12 8 -19 5 -16 -13 -1 -4 81 -3 -63 41 -7 24 -26 -5 0 46 4 -11 -35 -58 -20 20 -21 34 4 -26 6 -4 9 16 -64 4 4 -28 47 40 43 -32 -9 12 19 12 -43 -7 -12 -15 26 -10 3 5 33 -24 6 1 7 -13 21 -16 -57 126 5 36 -32 50 10 5 -2 18 21 16 -23 45 20 -8 -16 36 28 19 -13 4 30 1 3 -27 12 18 3 13 19 -22 3 8 35 29 -38 -28 -5 -15 -5 -9 3 -11 -7 9 44 2 -2 12 -12 28 31 -60 61 -34 5 -12 -46
-67 -15 -31 3 4 -8 5 -22 -33 11 30 -14 -8 0 -20 11 -17 -16 70 1 -60 -37 19 -46 19 32 33 -26 4 -31 38 -3 5 -15 -21 -40 -6 -14 1 9 29 29 -55 3 34 -63 7 8 -64 19 22 -33 17 -22 21 -35 -53 -34 -27 12 -20 18 -11 -9 -68 -8 -9 -42 41 -12 4 -17 -21 12 -11 12 0 -8 38 -15 -48 -2 -27 -6 -4 -20 19 -25 88 -54 18 -24 -34 -6 14 -19 -42 -12 35 16 -33 10 29 -44 -40 -5 -33 18 24 34 -4 3 -8 10 11 -22 -33 -53 43 10 16 50 -8 1 -14 -3 41 -24 67 -49 8 9 -72 -14 3 67 17 11 -53 -24 39 51 -1 -20 -15 -3 66 -34 -8 4 -18 -44 -20 11 5 -7 0 3 -34 9 -36 -14 -19 -15 -71 -8 -7 -5 38 14 -12 -24 24 -29 -45 -4 -10 16 84 -50 -16 23 -39 -12 21 -13 -43 -20 -23 10 -7 -60 43 1 20 5 41 52 -10 -26 39 -8 9 -10 -23 -17 8 16 -19 24 11 -4 -2 -24 -3 3 16 2 6 5 -33 53 -17 -13 10 -21 61 15 13 12 -52 13 27 3 -40 -2 51 -22 -38 33 -11 23 -11 19 13 -5 -62 10 13 0 -12 -17 -27 22 -28 -40 -27 -68 -35 -15 -8 -13 -31 -18 -13 0 -127 -33 -38 -26 -8 -10 11 -19 5 -38 -39 65 -11 -37 9 -14 9 17 4 1 -25 -9 2 -11 0 -3 -24 11 7 -24 10 9 46 25 11 35 -8 -6 -39 40 -10 28 -9 -5 51 -32 -51 -36 -15 -19 6 0 -52 -31 -5 42 36 -73 -7 -48 1 3 6 -10 -14 5 53 -19 22 1 21 38 2 -19 10 -77 17 21 -86 -24 15 50 -3 4 32 10 0 32 4 -8 -32 -7 -49 28 -12 9 10 -27 -17 -5 -19 -1 62 24 19 50 -33 20 10 0 -11 15 12 27 48 9 -3 -17 -2 19 -10 10 23 -13 -22 58 -11 -20 29 34 0 -5 -1 -19 0 -26 14 -18 76 -8 30 12 -2 31 22 -14 12 -38 22 -24 -17 -26 -11 -3 11 14 22 -52 2 -15 4 -27 29 -2 49 -8 -29 10 -27 -3 -22 -61 37 57 -35 22 12 -21 -22 34 25 -26 -36 0 0 -2 2 -14 -7 69 -17 17 17 10 1 4 -3 -20 -35 2 10 -1 17 -53 -36 1 -20 16 -33 -8 38 -17 27 -65 -9 -14 -104 31 7 -14 5 -35 -4 29 2 26 14 -35 -13 -42 -8 1 1 -3 76 2 -29 -40 1 -18 34 -36 9 53 -24 -10 -61 33 -71 -4 -13 -22 13 17 -6 3 34 -12 -9 -23 3 37 6 12 20 7 1 78 -31 -23 15 43 -5 -2 -8 12 -19 19 32 7 -19 -17 -7 0 2 3 32 -38 12 -29 20 -29 0 -11 -1 -13 10 -18 36 6 -38 -5 16 3 15 9 6 -22 4 1 -16 5 -20 11 -21 -37 -19 -17 -38 13 -18 -27 -1 5 29 -12 53 25 5 11 -42 -21 34 14 4 16 -30 13 38 -9 -9 9 10 -1 43 8 -60 25 30 -12 -11 -22 7 0 -20 -23 37 15 5 5 -39 -33 -37 29 18 11 -46 14 -5 3 17 -20 1 -15 17 -5 26 6 -31 58 -34 -15 36 -6 -33 20 7 -2 -26 -3 -32 -23 15 13 -9 -20 -6 3 -8 -54 -24 26 1 25 44 40 -5 -30 11 -9 12 -16 -27 -54 -1 2 30 -1 4 -20 28 -28 -9 -2 49 -35 15 -16 -40 -29 8 -1 2 46 29 -12 -20 -93 15 26 4 -8 -20 -24 3 -19 -2 -52 -11 31 -14 39 7 -40 6 44 3 -6 7 -21 10 10 -4 11 -57 -4 -3 -17 -1 1 -42 -55 23 5 -5 4 6 -33 61 -34 -2 -20 -4 1 -5 -1 8 12 24 -21 13 -15 42 -6 31 -1 9 -5 -13 -3 0 21
1 3 0 -17 6 17 -18 -16 -14 27 19 29 -37 -3 15 22 20 28 -16 -1 -50 -55 -13 4 16 -61 4 34 -5 -21 57 -11 -25 -38 -11 7 19 61 33 9 10 -18 -7 17 -10 34 10 -18 -12 -8 2 -54 33 -14 -9 -34 -125 23 10 18 16 43 13 6 -17 -25 75 -9 -27 10 35 -24 68 15 -9 -42 -7 0 -12 -7 30 20 1 -14 4 2 4 1 0 -4 -46 8 24 -14 41 -22 32 43 -53 -44 -6 1 -12 -3 -33 39 13 16 38 -21 -1 15 2 -16 -13 4 -24 3 29 29 29 -6 0 -7 -21 -14 12 -22 -36 39 -42 -34 36 -2 -18 39 30 15 -16 -20 19 -10 80 -30 8 56 28 29 17 17 41 -4 14 31 -21 -32 7 30 2 -6 115 7 19 14 23 -4 -33 -10 -9 8 -14 -27 47 2 18 -33 4 21 29 13 11 8 30 54 -21 -9 -26 -11 -14 -24 8 -13 -10 8 -32 -2 22 -16 37 -39 -17 -24 27 4 -10 15 13 62 -62 13 89 -32 12 -18 -18 5 22 -9 11 4 -9 -1 21 41 4 -7 82 12 -38 19 -38 8 8 -32 15 -9 43 -5 -15 31 19 -8 28 0 35 -38 10 -29 -10 -21 88 19 -28 -32 -2 -7 3 -84 9 18 -85 -4 26 -48 -4 11 30 29 -48 2 -75 -55 -7 -27 -34 7 -20 54 -15 7 28 -9 -6 -21 -11 -11 29 0 36 13 -9 8 14 20 -52 -18 -46 -10 48 29 11 0 13 17 24 21 -14 -10 -10 -7 11 -36 -36 -46 -17 17 -1 34 19 23 -41 45 -34 2 -4 -12 14 11 26 -4 20 32 -65 -4 -32 23 51 31 1 -21 3 -64 -4 -66 7 -10 3 -37 13 -28 24 13 13 -9 56 -29 -5 -8 2 4 -37 -8 0 -18 49 22 -10 29 -53 -42 41 13 -64 11 24 -10 -27 -2 0 0 41 9 39 3 3 2 12 11 15 48 -20 -17 -23 22 -9 -7 0 13 2 -24 -21 -3 17 -7 -17 -23 35 25 -3 -7 -1 -5 -55 -24 -17 -33 -5 -15 26 7 22 85 -13 -18 -2 10 21 -7 0 -3 9 60 12 -49 43 -5 7 -38 0 -8 3 -15 -23 -39 25 -62 -5 -80 11 -8 -53 16 -19 0 -25 -53 4 -28 5 35 -15 4 -48 -31 -39 -8 -5 17 -17 -27 -12 -11 -3 17 29 7 65 6 -65 -20 -38 3 51 -22 1 23 -15 117 4 50 -26 9 6 -18 -25 0 2 9 0 17 -44 80 7 -16 61 25 -14 42 33 -38 18 26 -39 8 -64 -12 0 -22 -18 -3 -19 10 -10 -8 17 -28 21 -2 -57 0 9 -13 -26 -24 -34 -53 9 -9 20 -19 22 -37 -40 -7 42 -64 -7 84 18 -1 -20 6 -15 46 42 -24 -4 -34 8 17 11 17 -30 -10 16 -13 -12 12 12 13 -6 18 24 20 11 36 61 7 -1 -39 25 1 33 9 -62 2 14 -17 -3 -10 -12 -17 23 -21 -1 9 -16 35 -44 40 12 -9 -51 35 -16 7 -3 -3 33 -25 40 -22 -15 11 -45 -7 58 -13 29 11 2 62 -73 -10 26 69 -22 -18 -17 21 8 -127 -22 -32 14 -10 35 -40 -7 75 62 7 -29 21 -21 -3 -15 8 -88 -1 -1 -9 -17 3 21 -9 9 0 23 50 6 8 27 18 -8 -36 -57 4 58 16 34 -3 -22 -10 12 15 8 -27 28 -30 -19 21 -8 -18 -15 -28 -23 41 1 -9 28 28 0 17 -16 -48 -10 -2 -28 11 34 -19 -11 -3 20 13 -19 11 -9 14 -78 46 3 18 1 8 -23 24 -14 -13 -14 -66 -6 -7 -4 17 43 0 13 5 -5 23 20 -15 8 -13 5 25 -36 34 5 -6 -22 57 38 -4 11 -21 -3 2 7 7 11 53 25 16 29 22 3 -23 -24 -10 13 -12 8 17 7 -7
-16 1 21 -11 -31 -33 -77 -29 10 -20 -12 -18 48 4 -5 -28 -22 -8 -66 17 -11 -12 -8 0 2 -9 -28 -25 1 -37 1 -13 -48 -29 -21 24 1 -13 -22 8 -12 -13 -57 -34 -33 -13 18 -15 -37 -1 21 -32 -1 23 64 15 29 18 31 25 -27 -21 -13 11 -23 -13 -11 14 43 -19 -35 -44 33 0 59 14 9 -3 -65 -12 28 32 -5 10 -13 2 1 7 9 38 -12 37 -7 17 -51 31 -49 9 14 -12 -4 -22 -6 -18 -14 -11 -3 -17 -2 27 -1 3 -28 -56 -29 -12 4 1 40 2 -24 25 -6 43 -9 2 -9 -7 7 126 -42 -5 20 12 -37 60 12 -20 -14 77 -35 41 -35 11 -5 19 -52 -45 11 18 -51 -22 -23 37 -3 4 -6 -29 -6 28 45 -6 35 27 -75 57 -26 -8 2 4 -18 16 -19 11 -9 -1 -34 -57 8 16 17 17 -14 14 -43 -5 49 6 -13 -11 -33 -5 2 17 2 -26 -31 -43 11 -17 -16 -29 -25 56 3 -6 -30 -32 48 2 61 23 29 4 -21 7 -18 -6 -34 -3 8 -23 -7 -59 1 6 41 -1 -26 16 21 -8 7 -39 -24 -6 -6 -5 -25 -21 11 44 -24 6 19 -14 24 3 22 15 2 -3 -16 -10 8 -8 8 -42 38 -10 -65 29 -31 45 -89 -9 35 -11 -72 29 -12 -6 11 -20 -14 55 -52 -2 0 14 3 6 6 16 -1 -13 -11 -8 -28 26 1 5 -30 -66 38 -19 19 9 -37 -16 0 8 -15 14 75 22 -27 -46 -20 -10 -112 -37 61 11 42 40 -4 -13 -63 -34 18 47 -10 -97 20 24 -25 3 43 -28 10 -20 11 18 -20 -8 41 15 -29 -38 -14 26 -42 13 1 19 -14 38 9 -24 48 -44 53 36 -36 3 33 -26 21 10 22 -2 -35 7 -12 -17 -1 30 90 20 7 47 36 20 64 -21 -23 -2 17 -86 41 -8 -53 -28 -18 26 -20 15 5 -60 19 -52 6 24 7 55 2 -23 -3 -6 -33 -4 -22 -35 -18 -4 15 -12 5 17 -1 -17 57 -27 12 -24 -12 1 7 -14 26 -10 -10 -47 -3 60 80 15 17 -24 -39 48 -3 -10 -7 -5 -11 -34 -45 -76 11 -45 -4 -13 22 33 -35 -15 -46 8 -39 -18 10 -11 18 8 -5 -10 -3 -20 -33 -7 -19 -29 45 -28 38 -2 5 19 -73 5 12 -2 -32 5 15 -32 11 -26 -11 -8 -51 -39 -2 -40 -26 106 -52 30 -14 18 20 -39 -15 21 -3 5 -25 44 -69 -2 -3 -5 -37 8 18 30 76 -77 -2 12 -42 -24 19 -55 -34 -23 -5 3 -21 -17 -37 -6 21 21 -1 -21 -49 10 4 5 18 31 -45 -2 -1 59 -16 -36 -19 7 -13 32 1 52 -48 -38 6 27 -33 4 15 -33 2 7 26 36 -77 -26 50 9 -20 3 -13 50 4 -26 56 -11 26 7 -26 -2 3 -2 48 6 -17 12 -8 -34 54 -2 -56 -23 21 -38 1 -34 -47 -44 -33 25 5 11 -29 -31 -1 -6 -8 18 -4 6 -16 -25 2 -15 12 -8 -105 15 -76 5 -45 3 44 -5 1 9 -55 64 -89 -17 -6 34 -8 37 -72 -53 11 51 19 -82 -26 -6 42 -37 -26 111 20 -5 -4 3 19 -30 -31 -18 -19 2 5 -20 2 -22 1 -11 -1 11 37 -25 -7 -30 8 1 -12 -32 -3 39 -44 -53 -84 -20 14 -53 52 -4 10 -9 0 12 4 -8 4 15 30 -23 -19 -46 14 10 -51 -89 -7 1 -13 0 21 -10 5 -18 23 2 -8 119 -43 19 -14 -9 3 -23 -52 -25 2 6 -38 55 6 -63 -20 -28 0 -52 -54 22 26 29 47 30 9 -9 59 9 4 0 -16 -11 -11 -54 -6 21 -5 -20 5 114 -33 12 -10 -32 13 6 -2 4 -28 -7 18 -70 -7 -2 21 -21 45 7 23 -2 -23 -18 -46 -15
-82 5 96 -22 19 8 0 -58 17 7 -7 -28 14 15 -6 -20 15 15 12 -17 -18 -28 -2 3 -13 -21 48 19 25 -5 1 -14 -46 2 5 -41 -2 -69 -20 27 17 21 14 -81 -11 73 0 28 42 -5 -18 -38 -77 26 -19 15 -57 16 39 27 15 -6 -41 7 -13 -35 -50 68 33 43 -32 53 -66 10 -9 12 38 7 11 3 56 18 -1 25 21 29 -57 8 33 52 19 22 56 -9 55 32 13 -2 11 -16 -13 -23 -1 -16 30 21 -3 11 22 31 4 21 34 -27 -10 16 39 -6 1 35 -37 -23 20 -4 18 -24 34 -34 -6 37 44 56 6 20 103 -8 -12 20 0 -7 -2 15 24 -41 21 10 -43 23 22 11 -10 -26 -30 18 43 39 4 2 27 -2 76 17 71 -33 37 -15 -49 49 17 6 -16 -33 37 50 -66 23 5 55 30 -41 35 45 -8 -26 -45 6 -96 13 -15 0 -4 10 -10 19 -13 56 41 26 9 35 -80 -5 26 2 15 49 45 87 23 -35 43 12 41 -8 -17 14 17 8 -27 5 50 26 5 28 36 17 -6 -13 69 -8 23 -23 19 -8 37 -18 27 49 -5 46 2 -11 -15 -3 60 -21 -2 5 -3 -20 21 4 11 0 7 -3 -11 -42 13 35 56 44 42 27 13 12 -8 15 8 61 16 -1 -48 -11 -14 -19 9 -8 -7 29 4 -4 13 -47 45 -2 11 -14 -30 51 -42 -25 -1 19 -20 7 35 9 11 47 17 -13 33 -16 17 38 -7 77 -23 -24 20 1 -58 -16 -27 -1 24 -23 -23 -95 -8 -19 28 -19 24 -5 -23 19 22 -11 -4 30 117 21 59 27 4 4 10 13 10 58 27 126 -23 -7 8 32 36 42 10 2 -2 -25 54 0 51 46 1 -23 43 0 -55 0 -3 53 -6 -2 60 16 31 -14 -18 -21 -19 19 40 -14 10 27 -63 16 36 -60 3 -4 15 40 -15 -92 46 23 -28 0 65 27 0 -10 8 -38 72 17 47 26 -61 16 3 28 6 -10 7 -45 -1 1 4 -45 23 4 -19 -10 11 12 12 84 10 -31 12 10 -26 8 76 -20 18 36 -14 23 -25 55 2 -2 28 -79 68 15 -62 36 12 6 44 32 -26 20 3 0 -27 48 45 -8 3 -15 -6 -13 -39 -5 70 -41 78 35 -17 17 -4 69 50 -48 28 -8 -30 16 -1 31 15 57 10 43 -43 -9 -15 -24 37 39 71 -25 30 -30 6 40 2 9 -5 62 45 78 -18 -31 22 29 -4 4 -46 16 -19 -3 48 -100 48 -8 10 13 0 14 -22 4 8 -25 12 -54 1 -28 -24 4 -15 13 -22 -27 29 35 -19 3 -34 7 15 27 17 -20 83 47 5 -27 13 30 -14 2 34 60 -27 2 2 -14 -58 33 15 11 61 -23 1 -32 57 49 21 -38 7 6 7 3 26 0 -12 19 -20 37 23 -24 -3 13 13 -56 35 48 -6 -1 15 -11 13 5 11 -12 20 19 35 15 -26 -2 -9 7 -12 73 -17 -66 17 -8 14 7 54 -32 -20 -11 6 11 33 15 -10 62 -82 6 -19 11 46 -6 15 -53 16 -56 -5 24 -16 -6 -31 -22 -12 90 -38 15 21 -8 14 44 -9 13 -26 99 2 49 -20 34 -12 19 27 -54 -8 26 72 1 0 1 -8 21 25 43 3 18 63 36 17 -31 -14 12 -1 1 -28 1 19 -66 -33 7 -7 10 3 14 -39 -18 -11 51 42 3 6 42 19 -34 1 1 -8 -4 2 -63 12 33 6 5 19 -31 -33 76 24 40 8 20 -8 13 -19 -29 38 -2 21 -3 34 37 11 2 -4 -11 28 -14 48 26 17 -7 -31 -1 2 65 37 -26 15 41 46 -7 -20 -38 30 -6 49 -4 -2 -24 19 -1 -25 6 -7 4 26 -62 -19 2 26 14 41 37
-51 -10 7 -41 -16 0 -31 -16 6 7 -9 -17 6 -3 9 3 -23 4 7 -8 -24 48 13 13 5 21 -3 -13 6 -11 -1 25 -9 10 -17 73 -8 -9 -6 -1 -21 -13 -7 -45 27 -58 0 -1 50 5 -4 -84 -23 -11 -6 12 24 -15 -11 1 9 24 9 2 27 -7 0 10 -11 -4 23 1 69 -31 24 -12 -12 -4 41 -6 -31 -2 -18 12 -6 6 -43 4 -15 41 -21 -25 6 3 -25 -6 2 -17 -14 -17 16 -15 1 2 -28 -13 3 2 -18 -86 0 -6 -18 -23 24 0 -3 2 -12 13 -9 -32 1 3 -6 -5 -45 -14 10 -95 36 -4 82 1 -28 -12 -13 -32 -34 39 -30 4 -10 -40 10 -21 10 -12 -5 -39 5 -3 15 21 14 -3 -7 3 14 -20 -30 27 -5 13 -53 18 19 25 -20 13 19 7 -25 -15 -28 -45 -14 -22 4 -7 3 -10 16 52 -67 -6 -46 -13 -32 -8 -26 29 28 -9 30 3 -17 40 -2 6 26 -42 -10 -10 -14 2 -13 -81 1 -3 102 -7 -6 -6 -14 2 2 -24 -15 -6 28 -42 -3 7 5 6 -44 27 8 6 25 -3 -4 15 -15 15 -75 -48 37 -34 4 -9 8 -1 -6 10 9 -29 -15 1 -1 -18 -48 48 1 -1 36 51 4 -15 5 -3 20 -38 -14 3 -36 -68 32 61 -21 24 1 -17 -4 -46 26 8 4 -36 12 -1 1 -34 -17 -21 -22 8 -42 -26 -20 -11 -4 16 -34 -13 -2 -12 -51 -2 3 -28 10 -15 -15 -17 1 -62 10 -8 -2 9 11 8 3 -29 1 -5 -73 27 -19 -104 19 -105 -20 24 2 -8 -9 44 2 -1 17 -9 35 -10 11 50 -25 10 -19 42 -22 22 6 -28 4 -1 5 8 71 29 -48 -11 -17 -29 -60 -16 -18 1 -7 1 -2 11 31 8 -20 4 -41 -60 -24 -17 22 -6 3 18 -16 -4 -8 1 -21 -17 -6 -29 -42 12 -1 5 -32 -19 22 23 11 20 57 -56 9 24 -8 50 -3 -7 12 -3 11 -17 -12 24 8 21 21 -14 -12 12 -11 -13 -7 6 28 -13 15 41 -38 -54 7 24 44 12 8 39 3 16 -2 -4 -15 -36 9 53 1 35 0 103 5 -16 -22 12 -30 34 -27 -13 45 8 -22 -4 -50 75 9 -15 7 -37 -26 58 -29 -17 2 -4 20 38 -19 -11 7 -25 18 7 -6 17 -18 -3 -19 -22 -25 36 -9 42 -28 -6 -4 -84 3 -5 11 -22 5 1 -14 38 7 1 -7 -22 -56 21 11 -19 -24 -19 -42 42 -55 -17 -10 11 58 21 64 -1 1 20 -13 -20 9 -9 11 -19 -23 0 -3 34 55 -18 -2 38 16 19 4 -77 -3 18 11 -2 -1 -16 -24 -32 6 -15 -8 -49 32 11 -14 -4 32 34 -6 -7 26 21 -42 -7 56 -3 -51 31 -1 -17 -36 -13 5 -6 13 10 43 11 -5 1 1 1 7 2 10 8 19 -1 -13 8 15 10 3 -57 32 37 -19 -23 -10 0 -17 -14 27 21 10 -5 -13 14 -10 -5 15 23 -6 -12 -76 -11 86 -3 17 -9 -58 7 -19 -20 -31 -80 65 2 -4 -11 -127 -14 -28 -42 -34 13 32 -51 -16 -56 -27 -12 -26 79 1 -9 82 -9 -10 -54 -28 -3 -15 30 23 0 -4 -8 -32 0 -4 -59 8 10 9 4 -23 -6 3 26 -34 -19 -13 -7 69 -4 -15 -12 1 -10 -7 -5 6 -4 -5 12 9 -6 19 -12 -8 43 -6 9 9 -8 0 3 -23 13 -20 -22 -11 13 -17 12 -20 -51 3 9 -29 -8 16 9 6 82 -22 -23 -20 4 19 -87 -16 0 5 22 -10 -18 -8 23 -19 -32 20 1 8 5 -2 6 -5 -1 -86 -10 5 -12 -10 -9 -30 4 -17 4 -8 -17 0 0 -1 11 9 2 -1 -9 23 19 -2 -20 -33 -1 -11 -13 -19 -14 -19 8
-18 39 43 -16 -8 -22 -66 8 4 -39 11 3 44 -12 10 -24 -3 -5 53 -14 13 -4 -8 10 -42 -34 49 -5 15 -15 5 -3 8 -20 5 -7 -10 -5 27 -24 -40 0 -7 -85 16 -29 -21 -15 45 16 28 14 -15 -13 11 -23 30 13 -30 -6 -31 17 22 -1 1 17 -48 2 24 -22 27 18 -5 -39 -8 13 29 -12 18 12 -27 12 -42 -13 8 7 -1 3 10 26 -39 -11 -4 -25 27 -3 -10 8 -38 6 2 -7 47 -12 8 0 -29 -3 -31 -3 -4 -17 32 -8 -35 -24 28 7 -13 25 -19 6 -21 13 -34 1 4 32 -6 91 -32 -8 70 -15 -43 -30 -16 0 40 -44 6 20 4 -38 25 72 -45 -3 -4 -6 4 -33 16 16 28 -45 5 -20 20 -7 62 -15 -40 -11 17 14 -5 9 -11 9 -2 9 -12 13 1 23 2 4 -44 -110 33 -59 23 31 -29 -4 -42 1 -30 6 -15 40 14 -13 -31 -4 -11 39 -22 -16 2 9 -3 -23 -2 -16 2 126 -20 -20 39 -22 -9 11 -14 -63 -14 -4 32 6 -54 -42 -20 -7 -5 12 2 -4 -25 -1 -13 -33 -35 0 -24 8 27 0 -44 111 5 -39 -1 -25 -20 4 -39 -44 -39 12 3 -29 36 10 13 29 22 -25 1 15 37 -25 -17 -24 -1 23 63 76 22 49 -24 9 -2 -13 -23 27 -67 -10 -4 -30 20 8 17 71 9 -29 -3 7 23 -7 63 -7 15 -5 10 21 -22 -8 -16 -17 -17 15 -6 5 -40 10 -20 -50 -22 56 -56 -34 1 16 -19 44 8 -7 13 32 6 -40 -66 5 50 -1 -20 -12 -7 11 5 -17 -43 0 65 -1 -27 26 12 -40 11 -3 37 2 -8 -35 38 -9 -1 -51 -22 8 34 -1 -7 -24 13 11 -12 4 6 -14 -25 -1 -36 -7 -24 26 -25 7 27 28 48 -2 1 16 -28 -10 0 36 -8 1 4 -27 -55 34 44 -8 12 33 -37 27 -10 0 55 6 -9 31 -37 -13 2 6 -35 -19 -15 -4 -3 -26 -12 -23 -12 5 11 -51 -29 -6 -19 -4 -1 20 -41 3 7 42 -28 -44 18 1 -8 -5 -29 -21 6 6 -18 -36 -15 -58 -25 -11 -3 -21 -29 -22 54 -16 -8 -97 -31 -42 -18 -45 -27 -10 -10 39 -39 29 -40 -11 7 -30 53 52 1 31 -40 -35 10 37 -7 -52 49 -44 19 18 55 -12 58 0 17 -28 42 -17 16 8 0 -53 -12 32 15 -6 2 -22 -16 12 -2 -5 -6 10 -33 47 6 8 -5 -1 1 5 8 11 67 8 -44 11 -14 21 21 -25 7 -2 6 12 29 14 34 -38 -12 12 -11 -3 -2 28 -5 -19 -21 44 -22 10 11 -29 29 11 26 -13 36 4 -27 -52 17 21 -18 6 43 21 9 -14 -49 -58 26 -16 52 -13 -28 -16 -26 -1 -9 8 -19 -5 3 -15 18 -5 -22 -45 -2 7 12 28 4 58 35 3 33 21 -35 -2 -2 -12 1 -1 13 -61 50 6 14 -41 -43 31 -19 -7 24 21 -1 -29 -28 4 11 -28 22 -6 3 48 30 4 3 4 14 12 4 39 52 10 3 -3 -53 41 36 -52 -24 -24 35 -14 6 -36 2 -20 -8 23 0 25 -72 -3 -36 -32 -70 34 -34 18 48 -12 23 -11 -33 -3 29 -13 5 24 15 -27 18 -11 -8 -23 -9 -14 -1 -54 23 16 -42 -14 16 -7 -9 16 5 19 5 -61 -5 -18 -1 8 -15 -31 13 10 -48 -14 13 14 -30 18 56 -3 38 -15 -8 -56 -34 -63 -6 43 63 -10 -16 2 0 -31 -26 -44 -80 5 -5 -3 5 -24 -33 -93 -10 -42 -9 33 -13 -19 -28 -28 3 10 28 18 -12 -18 30 8 -26 -41 4 49 -14 -32 -4 2 45 -24 -16 -7 -27 -21 -8 -37 0 -66 19 -24 6 34 19 5 10 5 7 19 -38 -10
24 10 -52 -13 20 19 -17 -2 59 19 8 -10 -16 -18 2 -3 21 6 49 1 61 76 32 17 -25 -12 7 -20 3 22 -15 11 11 10 5 -11 -2 -26 -9 23 -22 3 14 7 52 70 1 1 29 -5 6 28 -71 -39 40 40 -19 27 21 62 4 21 -5 -22 -5 30 64 -48 32 30 5 59 40 -33 -91 13 29 1 24 -3 -23 -10 20 20 17 19 36 32 9 -11 7 44 2 31 40 11 6 1 -42 7 -1 -68 -19 36 -22 -11 -32 -20 25 -16 0 -48 22 -18 -20 -14 21 -23 -84 52 31 49 -12 -27 10 -10 -5 10 -39 -30 -17 -15 21 -20 -51 4 14 13 29 16 -59 42 46 39 35 -11 -2 -34 16 -65 -1 -6 52 -31 20 27 5 31 17 -2 -10 -4 16 2 -2 -24 -24 -20 -5 -9 -14 -37 47 50 61 -24 13 28 -14 35 -11 -1 -60 3 9 -2 -18 -5 -10 29 -14 24 17 8 15 2 12 65 -13 -14 -30 -6 0 25 -6 15 19 -59 33 17 43 13 31 20 -6 16 8 5 25 11 29 11 44 46 -16 -9 13 -37 29 0 -47 -40 -3 -47 -14 -5 37 108 -13 13 -9 39 -15 45 15 -28 5 -31 59 -26 -29 4 26 28 18 -7 49 -80 18 -6 -27 -54 -31 24 -1 18 -69 -127 -3 31 -20 25 -17 24 36 41 -38 14 7 -26 34 -18 17 46 9 7 9 12 54 -81 15 6 24 -15 20 -4 -15 22 1 18 -34 20 -23 -18 28 96 5 8 -1 33 -40 28 -19 13 69 62 90 31 -42 19 -40 45 -91 67 7 34 -7 -15 1 34 -10 -3 -16 11 -13 30 58 45 -31 4 6 -21 0 45 -1 14 58 25 17 13 -11 -30 -12 -11 -21 2 -2 55 17 19 35 7 25 -50 -5 -33 -3 31 -3 -36 16 76 -73 10 14 29 -7 10 -16 -29 50 -29 -31 -18 12 13 -4 31 23 80 -6 -42 -31 83 -32 -13 -31 6 -7 0 -54 -27 -4 -27 -28 12 16 2 15 -26 -31 30 25 -6 78 -33 -11 -7 -3 16 21 -50 54 -44 -37 50 60 27 -34 33 33 8 -26 -23 -7 -40 -15 105 -14 -44 -7 -47 3 14 50 -25 -13 29 -12 -48 -76 -4 -15 -3 -66 -23 34 -37 5 26 -22 -12 29 -5 -12 -34 -10 3 3 19 -2 49 63 -21 35 23 -18 -9 9 36 -79 -51 38 106 -17 -12 14 -86 -22 -33 -22 14 11 -3 21 -7 2 45 -10 27 15 -16 1 -4 15 16 -82 11 54 13 65 -19 31 -59 80 3 -26 -21 9 -14 12 -38 23 -30 43 -52 32 38 28 10 2 15 71 -24 41 15 29 -41 16 16 6 13 -27 -32 38 -9 26 -21 6 31 -18 -2 -50 92 -35 -20 15 16 21 -39 80 6 -27 -24 6 22 -59 57 -1 -65 -4 -23 -28 -2 -18 -34 57 -1 20 -16 16 7 -33 -17 28 26 -10 13 -2 70 -11 -48 -33 16 -38 -38 20 13 1 30 21 -7 -4 7 -5 -10 27 -10 61 -4 -9 30 7 28 35 -8 -64 39 -5 -25 -25 -12 14 -3 -17 -15 10 6 -6 20 44 -65 -4 13 18 -10 -54 2 20 40 1 3 -10 44 -25 -10 4 19 3 -91 7 9 20 9 -75 11 -10 57 -47 -65 13 24 -13 -4 9 10 28 -6 28 45 -7 1 -2 18 -13 -18 -16 81 -14 -87 -5 34 22 -10 9 -36 -13 -62 22 -14 4 52 1 -35 -6 -14 -46 88 6 -16 29 17 17 -31 12 -20 7 -16 -16 -33 -27 55 -49 27 -30 -7 -17 -7 -17 9 15 26 -37 18 -22 66 1 -28 15 15 53 6 21 -22 37 -2 27 -30 -8 -49 9 -23 38 -41 -59 7 -32 -2 9 4 -1 -24 -7 -40 18 28 -16 -2 -45 2 64 -35 -14 -64 27 -7 29 -62
-3 -40 -11 13 21 -26 -25 23 -23 -49 2 -22 -52 -8 16 -15 4 23 14 -28 -27 -4 -5 -2 0 6 -19 -13 -5 26 10 14 12 18 -44 16 24 19 9 7 17 8 -54 -11 3 -46 16 0 57 -18 -7 -68 -7 31 -21 2 21 8 23 -13 24 14 -27 0 8 11 20 -16 -29 -6 50 9 88 8 -35 -9 26 7 -15 16 14 2 60 -16 -5 -28 9 -15 -58 -51 -9 -10 8 18 -48 17 13 -12 23 37 -17 -4 -1 -28 -19 26 36 -12 55 30 6 9 2 19 -37 -22 30 -1 -26 -6 43 -32 2 4 25 3 -3 19 2 7 -42 7 -31 25 -17 27 2 17 19 17 -63 12 -17 -20 -28 29 -5 -10 14 32 6 22 -3 33 11 11 9 2 17 24 20 11 -6 -25 4 -33 25 22 -15 18 28 28 4 43 -2 50 9 12 56 4 -19 16 -12 -34 -8 -11 -17 2 8 21 17 -1 -28 8 8 35 -42 30 -14 7 -18 -3 33 -9 -6 -49 -12 66 28 -12 -60 1 1 -6 2 -26 -33 4 -7 9 -14 -9 3 37 30 -10 -61 -2 -1 20 53 1 26 -17 4 -18 -80 40 13 62 -2 16 39 20 38 -20 -19 3 -22 16 5 14 -24 -25 -12 -1 -1 -28 -15 -8 73 30 0 17 -17 16 -20 5 32 -3 -13 -20 -26 -19 12 -21 -18 -30 -14 -11 -10 2 -7 47 -22 10 29 4 -9 19 11 28 24 15 31 17 33 14 49 -8 21 3 11 -13 28 -16 -4 -2 -46 -8 21 3 -55 3 -7 -26 -17 -20 -4 -47 -6 -19 27 17 -11 10 -28 -1 11 47 4 54 -16 -21 66 -44 -43 -55 -27 -14 24 -32 14 34 -51 4 -25 -24 -25 14 5 9 11 22 1 -2 2 -18 11 26 -11 9 -31 19 -40 -26 -16 -35 -29 42 14 43 -23 4 29 71 3 -4 -10 21 16 24 -30 15 -25 26 -12 14 -26 -59 27 16 4 -11 -4 12 -8 -2 8 33 9 -30 -27 4 -32 9 -5 13 2 -17 25 21 37 0 -18 -9 7 -3 18 20 23 57 20 -5 19 8 -1 4 -4 126 -8 17 4 -9 -49 11 -12 0 39 34 -19 17 7 21 -35 7 4 9 28 8 -14 21 -3 8 27 -5 2 -5 26 -41 10 9 -2 -8 -1 33 16 -33 9 40 25 43 -61 59 -18 56 -35 15 69 50 22 -50 15 -28 28 52 -3 -15 -34 68 22 -23 4 22 14 -8 0 22 3 9 35 -10 40 -9 1 -32 -20 -30 -4 -33 -21 4 57 9 38 -16 -32 -1 -2 6 8 46 24 -38 -42 -12 1 -40 -39 15 3 -22 10 -6 -11 24 9 -5 22 -40 21 6 2 -23 24 14 -15 9 27 22 19 6 32 66 -15 13 36 32 -29 -7 30 28 -1 -60 -2 49 14 14 28 -2 -24 0 9 15 -6 2 -27 27 8 -10 21 1 5 4 20 29 27 -16 -3 22 -2 35 20 31 -39 -53 3 68 -54 16 -18 -21 -27 10 11 -40 13 -33 -48 1 -7 21 0 52 -16 37 -18 47 -3 19 17 37 -29 -9 -12 -37 -11 8 2 21 -55 -37 44 -64 14 8 27 -36 -5 26 -67 5 57 -28 -22 9 -94 -13 -15 6 29 33 5 25 5 5 16 -32 -26 2 -5 -13 6 6 -4 -27 33 -12 15 26 16 -11 16 20 -2 -13 -21 -11 -18 12 -22 31 20 19 19 -8 -8 11 34 6 3 45 5 0 -10 10 -51 -30 18 10 1 4 -2 68 -5 -3 -4 -12 74 29 -18 -2 31 -3 -10 -15 -2 7 2 61 10 -9 39 -3 3 -44 4 -27 12 18 -3 0 19 15 -21 1 34 8 -2 -17 -15 -7 12 5 -2 -8 -6 -15 0 -2 5 8 -9 10 26 31 -4 -25 -20 1 -8 -31 -14 2 12 -30 3 29
14 -60 -26 -11 6 -18 -26 38 32 -42 1 11 87 28 -18 -5 39 16 -30 8 17 -19 -9 -21 -23 23 14 60 -2 21 57 47 -52 80 -34 -111 -13 -64 -47 27 -20 -3 26 15 -34 18 0 28 -51 -55 -12 -60 -56 0 32 -31 -68 -14 9 -66 -7 -2 -26 11 -42 -44 69 -11 59 -10 -36 50 52 -14 -19 -8 15 -2 13 -11 -105 44 -69 -8 -29 -16 -35 1 -90 -92 43 -3 34 -30 -8 27 -59 -9 88 3 -13 22 -3 2 -35 11 -16 49 -46 15 -4 -16 30 -37 38 -3 42 13 -61 -54 -47 92 -21 -42 -12 -7 -44 -9 15 62 44 -6 84 12 -65 -35 -28 -40 37 6 -35 -61 71 -24 -7 -95 -43 29 31 29 15 -19 -7 -61 6 -8 -3 18 29 -11 39 -23 12 5 22 4 33 5 -31 -28 22 -24 -81 -9 14 -28 32 -12 16 29 -30 17 -21 -4 -30 -4 14 -15 13 -24 71 -40 49 -31 35 40 36 57 -32 -103 -77 -44 34 -25 4 19 4 18 -71 4 -51 4 -27 51 -11 -25 20 6 31 -11 71 0 20 19 9 4 11 -46 -27 2 -46 -10 21 16 65 -36 -43 -20 -19 -40 -13 60 -18 17 -36 3 -6 -1 -45 21 -24 -36 5 -23 1 -69 -61 -18 0 7 19 28 44 45 12 -55 -33 31 35 -32 -1 64 51 -22 4 -6 -39 -19 11 -2 -14 10 -15 38 72 17 -34 -8 -25 -49 8 55 48 6 10 -62 -28 -25 -8 13 7 -28 -29 -52 -26 16 8 6 -61 21 -120 -13 11 13 33 31 41 8 -1 -25 -22 57 49 8 19 42 -27 9 -58 -16 3 -4 35 -19 -33 -3 91 -69 -41 -5 -10 32 -6 -61 72 -15 -14 -25 -18 9 -48 108 44 -2 -23 6 -57 -37 -11 17 -15 0 33 13 10 -12 37 23 22 -29 11 -39 5 16 42 -57 3 16 8 -21 14 49 15 50 -26 -35 0 -16 -31 -91 -31 52 6 -81 -100 -58 -5 32 -32 -64 -7 -49 -31 20 -66 32 -1 35 14 18 -37 14 -20 66 -9 -7 -15 14 17 -34 -3 17 18 -20 -17 16 42 -26 1 -127 -25 5 4 2 -32 -34 56 18 17 -45 -66 -64 32 -34 38 43 12 95 -39 2 9 85 -14 -13 -73 6 34 23 0 23 28 -48 47 -1 51 11 -26 64 -12 -1 -48 45 -69 19 1 -56 118 22 24 -29 -65 -16 50 31 14 -42 31 9 -87 20 15 11 -7 -17 -13 -20 0 -34 3 23 -49 -62 -7 13 111 21 71 5 -80 -39 17 4 23 -7 -19 -8 -5 65 -20 10 -58 -38 -71 -79 -2 64 -29 -36 -48 11 11 -47 12 -22 -30 19 34 17 -7 0 -36 10 -9 -101 -28 -18 -1 24 -52 -17 -27 -2 32 -13 -11 -5 23 23 13 -1 -50 -2 -26 -49 -19 -17 -123 -113 12 -23 4 46 -11 -21 -25 -26 14 9 -8 6 31 88 -19 15 2 37 -17 61 2 -8 107 94 19 2 52 28 37 -46 58 35 -112 40 69 -52 0 -22 41 2 -73 -3 47 3 -5 -33 -31 -5 15 -74 -8 18 10 -5 -22 -23 -24 -7 5 17 17 43 31 -31 31 32 55 15 -27 53 1 21 39 -14 47 -46 -14 37 -103 -3 12 20 12 42 0 1 30 -9 -34 34 -4 41 16 -69 6 -40 21 69 29 4 24 -1 -63 6 -25 -6 10 6 8 5 14 -6 34 -55 -24 2 -37 13 8 -13 44 7 -25 -114 -22 -41 12 6 -37 -12 26 -40 -7 32 -60 17 11 34 2 -38 38 34 3 35 -32 -10 -31 57 -29 24 18 41 -8 49 -50 -5 8 47 -7 -16 25 17 23 7 -35 3 -27 19 -39 -24 -48 -6 24 -6 11 -45 33 -28 65 21 14 0 9 -16 -15 52 -26 26 -23 52 -28 -14 25 30 -26 15 -15 -17 3 -58
82 -4 29 -12 -23 -31 -17 -33 2 24 37 17 16 -6 9 -12 30 19 -63 42 3 -24 -13 -59 -1 22 -51 29 -32 -15 45 53 -36 60 25 -42 34 -62 -5 13 -9 20 -4 -17 47 14 -2 -7 51 -48 -29 41 -22 21 50 -9 86 5 0 -45 19 14 35 -9 -39 8 -7 -13 -23 32 -11 -28 -56 -7 -19 -20 -36 6 11 -27 -21 -8 -9 -15 2 -20 -7 -3 44 -66 -10 30 -44 15 -20 -10 -3 10 17 2 -4 39 -54 -31 -10 33 -6 -36 6 -26 1 19 -22 -8 9 7 -14 -33 -63 17 -45 29 14 -24 6 -9 10 34 0 126 -20 10 -2 -1 80 44 8 -19 18 -20 47 -28 -68 28 21 -29 -39 -12 25 -40 7 -28 2 23 -21 -41 4 16 9 -22 -3 -12 -41 34 -55 1 -11 1 -2 -5 25 14 2 -25 56 57 14 48 30 -8 14 -34 -20 -39 16 -12 67 -7 -6 40 -19 99 15 -28 -13 -43 -18 -19 20 -40 25 45 -26 67 -34 36 -6 37 56 13 -80 -15 -8 16 -1 -12 31 -9 -9 -16 -40 -48 36 28 -15 25 -28 6 -28 40 -61 12 12 -16 -19 -3 -25 10 1 -53 3 -20 15 13 2 8 32 8 -9 23 31 19 25 40 13 -19 81 -30 20 24 10 5 -20 -49 64 -1 -44 -31 -53 20 62 62 8 -31 22 -4 -41 -49 -24 -10 30 0 -19 -10 -6 -10 2 23 -106 75 44 -6 12 -29 35 38 23 49 17 31 -12 -5 23 10 19 -34 -7 -9 -26 -14 1 1 7 -34 -16 -16 11 4 -20 -34 8 6 9 75 18 -17 38 25 0 -24 -1 8 65 15 40 9 -47 80 2 -11 -38 -44 8 -3 27 0 22 -1 -3 8 -90 -26 14 -21 24 -14 -35 -12 37 10 10 -3 -53 -18 -15 18 4 -2 4 -44 40 -41 17 -10 -6 29 1 -23 10 -13 -22 11 78 -2 61 57 35 -18 -1 14 28 -76 -2 -18 -38 0 1 0 -58 -81 38 20 -104 4 -2 -15 -49 14 -1 22 48 -4 49 -11 8 -16 -22 18 30 -51 33 -27 12 -40 -17 -41 -46 -1 2 -68 8 -19 -11 -43 19 1 8 18 -31 5 -5 -9 -20 12 -35 -19 -24 -88 -11 32 55 7 -17 -6 -28 58 50 72 -18 -5 2 15 41 -45 -11 12 -22 -51 -29 39 15 17 -27 16 54 22 25 -36 -43 27 -52 -45 30 5 22 -14 -55 5 21 30 55 -21 -33 -19 -5 1 7 -34 14 -34 -7 -49 -13 12 6 15 0 21 70 70 -6 23 49 -64 13 40 -9 21 19 -4 -93 22 24 -3 -2 7 23 43 54 -19 -36 35 11 67 23 32 36 -15 -1 39 7 -13 34 -19 -104 -12 23 -3 16 -5 -5 3 -58 -43 37 -6 20 -6 -37 16 67 30 -56 -1 -7 13 -13 51 -44 -15 4 7 -9 32 59 45 4 25 9 -11 -2 -84 -83 7 23 -35 -13 46 -1 7 23 26 -11 19 61 57 -45 -22 0 -4 36 24 45 16 8 -23 6 6 -59 -10 -23 -25 45 -43 -42 39 -45 3 -31 22 -26 -114 0 6 -22 -35 -25 -21 -39 -70 -56 49 -66 -63 7 -35 -2 5 -4 56 -37 -52 3 -37 -2 -17 0 -11 119 -2 -39 -4 -16 -22 -51 -21 19 73 -18 -23 -20 -10 25 6 9 37 18 -4 -34 32 -21 21 -24 -32 1 -49 -24 -1 -10 -6 33 -2 24 10 12 -12 -6 31 34 10 47 0 -11 5 -6 -13 25 -52 -12 -14 -26 24 13 7 13 26 -34 8 28 27 22 -75 10 -60 -16 -22 15 30 -9 12 -15 -15 -2 -19 -34 -73 2 8 0 1 71 8 -14 9 -18 -5 23 -14 -24 -25 16 42 -17 -13 -8 14 71 -3 1 -2 -32 35 7 0 13 -26 10 46 37 -44 -4 41 12 4 5 -9 22 -48
-53 27 -47 16 -18 32 16 2 -3 -40 5 9 -2 -29 -4 -45 60 -16 9 -13 -30 6 -20 10 14 3 -22 -71 -2 -20 17 -71 -4 22 7 68 25 27 -14 7 26 -16 -4 59 -35 5 3 -7 38 43 -25 -46 32 -14 -4 -28 -1 -3 -3 -30 21 -37 -41 -15 59 -42 21 22 56 24 1 -80 42 -2 -10 24 10 -19 17 -14 10 32 -32 24 -20 31 -31 -1 9 -21 -39 -3 -10 2 -73 0 -10 35 8 -11 -18 9 2 -20 51 48 3 -5 -78 -8 0 8 -13 60 -21 6 48 20 41 30 4 -3 1 11 -6 -30 -37 43 -4 21 106 -34 0 10 12 -36 34 -28 -50 126 -53 -35 -112 70 -26 82 -27 -36 -4 23 3 0 -47 9 -61 0 20 -29 -29 -6 -5 -17 -23 5 19 8 8 0 35 -20 -15 -71 70 36 -31 -16 5 30 14 15 -11 -42 21 61 -6 32 -23 -11 31 9 -24 35 91 -16 61 -7 10 -43 0 -27 36 -32 -10 -87 27 42 9 47 53 12 5 -8 22 -31 -7 19 -11 9 -5 4 -16 -17 43 -10 -28 1 -42 -15 46 39 -8 29 16 -18 -3 -28 -45 -24 38 -85 8 24 9 -9 -3 -11 52 36 -8 -7 23 18 17 -19 -28 1 -40 49 -13 38 -42 30 -38 71 56 -10 40 -59 -41 31 -20 50 36 2 -18 75 26 41 -23 -35 5 -9 -2 -34 29 2 27 11 68 -47 25 -46 -36 -17 -13 8 5 12 -28 12 -10 44 -41 30 -47 -72 -34 25 31 17 -6 87 7 101 -5 15 35 -2 37 19 -25 -67 -3 -24 10 47 3 5 18 3 -15 -33 -34 -22 -16 -9 8 28 33 -5 -10 26 -7 -2 -8 2 -41 0 4 -33 -61 49 -59 10 -64 -3 -12 -6 -20 -10 -3 -85 -23 4 44 14 -18 11 -14 93 12 80 -92 -22 67 26 46 8 -9 -33 84 2 -11 -7 -63 -29 -22 -10 -20 0 -12 2 -35 -5 -18 -4 -9 11 -18 -15 -11 -4 2 0 -17 9 15 -5 -11 -45 -34 31 11 7 29 66 -29 8 -44 -6 1 -36 36 -45 -8 -20 17 -58 15 31 79 15 -13 -15 -22 57 -4 -20 -24 36 -35 61 5 14 60 -44 -25 86 -50 0 41 20 -21 -9 7 13 -48 -29 4 13 -3 49 -22 9 -14 26 -29 4 26 -46 57 -8 30 5 47 4 -26 18 49 4 3 31 -45 -99 -58 6 10 -18 -52 -11 13 -18 29 -19 10 1 -3 -12 14 -63 47 -7 41 46 -11 -17 19 -68 -42 41 -10 7 58 -21 46 14 -13 8 -12 22 -33 -48 -47 32 -39 5 17 33 50 -18 21 6 81 -65 -30 63 71 10 -13 -11 19 -12 5 -56 -58 11 7 -4 77 21 -20 7 4 16 75 -43 6 -36 -47 -4 -1 31 -17 -63 -15 -4 -65 7 30 -7 -51 -33 62 -13 28 -81 -9 19 -30 33 -42 -13 44 -4 -26 7 -47 -1 -3 -51 50 50 58 -17 -59 14 -81 120 -11 -48 -18 20 49 22 6 -41 30 53 16 -12 -30 -12 58 15 17 2 -12 21 1 42 -43 11 75 -16 -33 48 -37 -51 38 37 -9 58 22 6 13 67 -26 26 -19 -89 -56 7 -20 13 -26 -20 -14 19 2 15 -71 -9 -24 15 21 2 37 -29 18 -5 30 3 13 9 -5 51 5 9 9 42 42 9 -11 6 39 9 -3 -14 -31 -2 72 53 -9 -5 -36 44 -11 -25 9 37 -24 98 23 -21 21 9 25 -9 10 -50 47 -56 -11 19 -10 23 -22 41 21 3 13 -37 5 -2 47 -14 -24 -68 -7 -24 -27 -47 0 -3 32 6 -25 70 5 -13 -42 23 13 -4 19 -30 24 13 -24 31 -45 4 -9 0 43 -7 53 55 -5 -8 22 51 -51 -50 16 -38 6 -31 -8 -23 -18 21 62 -5 -9 -12 17 -27
43 27 17 17 -39 -28 -48 -31 4 9 -10 -17 -23 2 -13 4 -6 -13 6 9 -41 -123 39 2 -4 8 11 -74 9 26 -46 -8 55 -6 12 -60 -42 35 24 -29 16 -15 64 18 0 -37 -29 23 50 1 14 12 -15 5 -3 7 11 -21 -11 6 -11 -25 -12 -14 45 32 -42 16 -13 21 -31 -3 -57 -22 -27 -13 13 -13 26 11 -43 28 -17 -17 -23 3 -69 -25 12 73 0 36 -29 6 -39 -34 -7 -19 17 31 -18 36 3 -23 46 -13 29 -27 20 31 1 28 -24 -25 -89 38 -3 25 -23 -37 7 28 -17 5 -34 10 -18 53 -44 37 -60 13 21 -9 63 -65 3 17 49 -46 5 54 20 -46 2 -18 34 -53 -13 -42 29 12 -18 17 11 -26 3 6 -12 -1 -28 -2 16 -29 26 -7 -14 -15 44 29 7 -13 -19 -42 1 -22 -6 -8 39 42 24 11 -8 -20 -59 -43 -24 -12 3 43 53 4 -8 15 -55 -19 17 10 7 26 -46 -35 -6 53 -19 14 -1 -5 72 18 34 1 -22 34 -18 12 -20 23 -7 17 -35 5 -3 19 8 -21 -17 -18 25 8 46 6 -16 23 -30 5 -72 11 -55 -12 7 -33 -32 -37 -14 -10 -10 -8 -4 14 31 19 18 25 18 -1 31 1 10 41 -23 -10 -17 44 -30 16 23 -21 -2 2 -59 54 -56 -54 -4 35 -27 -47 14 -3 -2 9 3 1 -28 3 -16 -30 -53 38 -16 -12 -1 -31 -25 20 -10 -22 29 -17 2 12 29 -3 4 -64 -1 -4 12 -25 32 -26 10 -34 15 -23 -1 -12 0 57 -39 -9 -38 -14 -14 -52 -4 38 24 -4 -3 51 -99 1 -30 47 64 8 62 20 -16 -67 19 25 47 -13 -1 -1 5 -14 -28 -8 76 4 30 -19 35 -9 20 10 13 15 69 7 -6 8 41 -16 -1 13 5 -55 8 11 32 -9 -21 -20 25 -61 -22 8 16 -3 -18 44 -21 -11 4 -53 -4 11 -35 2 -1 3 25 -19 20 -4 22 19 -9 -10 43 15 34 -41 -9 -2 46 -33 -24 -11 -24 36 4 -24 19 -2 -12 93 24 12 -6 39 21 8 -19 -61 62 23 -2 -11 -28 55 -15 32 -1 61 -4 27 -10 -32 -85 -93 16 -24 8 -19 -56 16 16 5 5 13 -26 7 -27 -37 -45 -45 -17 13 -33 16 44 19 5 0 -49 -8 10 -6 -44 -3 -127 9 16 -72 -34 -45 -110 -40 44 -13 -29 -60 -17 41 -10 -2 6 67 0 13 5 -17 6 -10 -46 -65 -27 -16 -3 2 17 22 -14 65 -19 7 21 18 -23 7 -29 9 -4 -11 -11 43 15 -18 -19 -28 12 -42 2 3 11 -33 1 18 -1 60 4 -27 -1 -44 -9 0 9 -59 8 9 6 -14 9 -15 34 -2 -32 37 -29 57 34 14 -22 0 -41 3 18 -9 -17 -2 -26 -11 -24 -8 -18 -14 -43 -3 6 8 -18 20 14 -20 10 20 -8 -6 24 -7 16 36 3 -21 -57 -22 25 87 -51 30 -38 -50 39 -2 -11 -7 35 -30 -5 4 24 -20 -35 14 10 5 -85 -23 -1 -5 -79 3 -6 7 -3 44 105 -10 -6 -10 36 26 63 -47 50 35 -23 -6 7 -7 -11 36 1 -19 25 9 -9 21 5 -27 -5 -18 -35 8 28 4 -34 27 -65 -4 -18 -55 3 52 -42 -17 10 25 -2 -5 -26 -22 -38 -12 -11 9 7 21 -29 17 23 8 1 -30 56 24 -20 12 28 24 -31 -66 -31 4 -6 4 -40 7 -13 -2 -31 23 45 33 4 -53 40 6 -12 47 -43 8 -28 -14 -47 -24 13 -65 -18 -2 2 -29 29 -40 -2 -7 -6 -40 9 -14 24 -63 16 -19 9 17 -53 -9 10 -17 15 -44 12 -31 -43 24 -14 -69 -10 -6 -51 -28 -7 13 -10 1 6 0 20 48 5 -41 26 -3 -3 4 9 -20 12 -12 13 6
14 -13 -12 -33 1 4 30 -30 -24 2 -4 5 10 1 -1 13 -5 -3 14 3 10 -27 4 -17 10 27 -17 -46 21 16 46 7 18 0 -3 29 -6 10 -9 -14 -2 -21 -15 -7 -70 -4 8 -5 -38 3 -4 33 -20 -13 62 18 103 21 35 -38 14 16 9 15 -18 -8 -39 15 20 5 -20 27 -96 -26 -32 -9 -7 7 23 4 38 4 -9 2 16 -4 -37 22 5 -60 -14 -23 -47 -11 2 -9 37 21 64 -26 5 17 -7 -74 -20 11 0 -2 43 90 -3 2 -9 2 -57 -8 -12 20 -15 5 2 -7 -12 -6 5 -6 -51 -16 41 -90 47 -8 33 -3 -8 -29 -1 -10 6 16 35 14 -51 49 7 -38 17 -31 7 -14 -16 3 20 -20 2 0 -10 19 6 -24 17 13 0 -18 -18 28 -13 11 28 0 -19 -5 -14 -2 -31 -33 -1 3 41 24 19 24 -27 -23 -26 3 -1 -8 -15 -15 2 31 37 4 16 -5 -21 8 10 49 8 5 20 -20 3 -22 -7 -39 -14 6 28 -5 -35 3 -18 -13 -18 -1 -16 -21 -7 50 -1 -21 6 -2 -38 -26 11 0 -21 -6 17 0 18 7 -50 15 50 -16 14 -8 14 -11 -28 -1 8 -30 -4 -2 14 -10 25 37 -5 13 -8 -37 -21 -2 43 -5 4 25 9 -5 53 -44 -39 37 6 -20 17 -12 11 48 -25 42 -9 -31 38 -36 -10 -11 21 -5 -11 24 -21 -1 -5 -10 3 5 56 -3 -3 -10 14 -29 15 -10 7 -32 -11 -53 -7 -31 -1 1 7 34 -2 -24 54 -4 3 3 24 -27 -31 -3 -18 -28 -16 -103 6 -14 32 6 -4 -3 -75 -14 2 -2 25 -65 5 -34 8 -27 -13 -4 0 -22 -30 12 13 -37 -9 -34 22 4 1 -14 -2 6 -3 4 -17 -11 -13 2 16 10 -5 -7 -25 43 29 22 -21 -3 -17 -19 -4 20 -27 27 -19 52 -10 -16 4 30 -31 20 1 -59 8 -21 13 2 14 -43 -2 32 -14 -3 5 -6 -15 6 9 -20 7 -6 -9 4 21 -6 13 6 8 7 0 1 2 -12 12 -83 9 37 -4 9 55 5 4 -6 -19 -23 2 -11 -41 -5 -30 -7 4 -40 -17 2 -32 -1 -12 -3 -14 -15 48 -1 -3 0 -10 -8 -62 -44 28 -34 26 38 -7 53 -21 13 38 -24 -57 35 -14 -27 -3 -59 23 0 40 12 11 -13 25 6 19 -22 58 -50 54 -4 -13 -1 6 -38 -1 -13 3 -49 -4 6 -1 3 -4 -36 17 -16 1 -24 -42 -3 23 -127 -49 22 -60 -7 -41 -14 -9 -12 -2 -2 -24 -17 8 4 21 16 -4 -37 -9 -11 -35 -13 -2 -5 -29 12 -9 12 -3 -32 1 40 3 7 -55 -40 -84 -13 10 -52 31 8 -21 0 -17 4 7 22 12 -11 -54 10 6 21 29 -14 -5 -29 3 30 -35 9 8 -30 -25 15 -12 23 14 -8 2 8 11 28 13 -13 22 14 12 -35 2 59 -3 -49 19 14 8 -16 1 5 13 12 44 -14 2 20 -10 -14 15 10 15 -18 57 -15 -43 -2 28 -26 -3 -4 -6 -5 1 -42 38 8 -1 -7 49 -13 18 -5 -22 19 44 -12 -24 -31 -4 46 0 -127 -12 11 -49 -27 -8 5 75 0 66 -16 -21 1 -11 8 9 3 -7 -29 -44 13 -13 -17 -34 -27 -23 -12 3 0 0 0 -101 -2 -13 -12 4 15 4 5 2 13 11 -15 -2 5 0 -1 17 -64 -14 9 -14 -33 0 3 -9 1 -39 70 -14 -8 18 -16 -36 18 -20 35 1 0 -16 -22 10 -94 -10 -10 -19 -35 3 5 -22 -22 -15 -8 -31 25 3 54 -18 -22 5 -6 2 5 -16 20 4 -8 -15 -11 -39 19 -18 3 -15 -69 18 -3 0 11 -2 9 -10 3 12 -2 16 -11 18 -52 -7 4 7 -1 5 10 -4 -10 -24 4
69 24 -3 -9 -5 -7 -17 6 6 -31 17 -2 5 -12 14 6 21 6 18 26 -8 -9 46 33 -4 24 -5 45 35 -3 -17 -10 14 -1 -18 43 23 1 6 38 12 -12 59 9 3 -51 -3 3 -53 7 31 0 23 31 9 5 -36 2 -24 6 -24 -6 11 -34 -38 -45 4 -9 12 36 15 -5 -15 -4 -12 12 -4 2 2 11 25 15 -18 -7 25 0 18 -13 -9 25 2 -30 -18 -13 -31 -17 2 3 -34 -13 -18 8 -14 84 30 10 -29 23 13 41 4 29 13 -22 -1 -9 18 11 2 -12 29 -8 3 -14 -20 0 -7 -4 2 -82 2 4 -15 4 -35 -11 -23 38 7 18 41 8 17 36 4 17 -8 13 5 -24 19 20 31 -20 52 -11 23 -14 6 16 -37 -1 37 56 10 11 16 3 32 22 -16 17 48 66 27 -39 -5 -32 -2 -4 22 -12 3 14 -14 -4 -19 -29 36 -8 -31 -12 3 -27 16 -23 -37 -8 -26 28 -5 13 13 -41 -19 -46 25 102 2 4 -12 18 21 -4 4 16 9 6 3 4 -20 -55 17 -1 -19 -19 -24 40 5 -10 -1 12 -14 21 -30 -4 20 36 18 5 -7 -20 -7 28 -38 -10 -5 -33 -22 -6 -47 0 -20 -48 17 49 42 12 23 3 6 5 18 50 35 5 25 12 26 -24 12 -5 -38 13 53 -23 24 27 11 44 -17 -15 -12 -30 26 9 8 13 -19 33 40 -20 10 -7 -37 -5 -27 28 42 35 -2 34 -21 -22 22 -3 6 43 -16 -5 -24 6 60 29 -18 2 -13 22 13 -81 -13 -19 26 -40 -9 10 -6 3 -19 63 -17 -40 42 7 21 -9 -15 -13 -36 27 -9 -23 -1 -27 13 45 23 -39 -13 -6 1 19 29 5 64 0 -51 -14 -53 18 -31 -16 -64 6 45 -13 -3 -28 35 -14 -14 -84 47 14 -35 9 12 3 -9 -8 -21 3 7 -14 -21 -24 27 5 31 -120 -11 19 -41 -13 -25 38 -7 8 55 28 13 19 12 35 -19 7 13 -3 -29 -11 40 -13 -14 15 -7 -1 13 3 24 4 18 -25 7 5 -27 -8 12 -16 0 -14 -7 -30 -7 38 8 41 14 -12 4 -17 25 -39 -27 49 -31 0 -21 -18 12 46 15 4 17 -8 30 45 18 -20 8 46 -24 2 -11 -20 53 14 -19 -26 21 38 14 14 9 0 37 18 -71 23 32 -28 0 -59 36 1 -14 7 16 -10 7 54 -16 -8 11 -18 5 26 -1 17 20 -13 25 -22 -17 1 -38 -11 7 29 -3 -34 -12 16 -14 20 -15 -12 11 65 -9 6 22 -30 -23 41 11 49 18 -5 -22 15 19 -19 29 12 14 6 -20 47 -9 -13 17 46 10 -17 2 4 -25 41 -39 -7 15 4 18 61 -4 71 -11 44 16 14 -30 -4 22 -8 -16 12 -24 -20 -42 -1 -6 39 17 -20 12 -30 -1 -1 14 21 -1 -74 -20 30 -16 -31 -3 27 -2 -22 20 -21 -42 12 6 -28 -27 28 27 -25 48 -17 -22 0 -4 -19 0 -15 6 -7 4 -25 67 -5 -61 -1 -127 22 3 -10 28 28 25 -25 8 -1 27 -11 0 27 -12 5 3 -2 -8 -47 50 8 4 18 -13 -10 34 -24 -20 -35 -17 -11 5 16 -10 2 9 10 -16 13 -7 47 27 24 12 -14 -13 -1 13 10 -27 33 -22 19 74 8 -15 -30 -10 1 25 1 -21 8 21 8 8 -12 -18 20 -6 9 -1 -14 -60 16 41 1 -25 43 22 27 12 5 -11 -27 -3 48 33 38 -4 -18 -47 21 34 -4 -3 70 -22 33 -15 -17 12 25 13 -34 3 7 18 -45 -3 21 2 -20 10 2 -13 -22 -26 -22 52 -35 -8 -24 19 39 -2 11 -16 -3 7 -24 -9 2 2 -2 22 30 20 -37 6 -37 -1 5 -3 35 13 20 -2 12 4 20
-18 -1 22 -1 -8 -10 -29 14 40 -27 -8 -6 25 0 -12 -2 28 20 -36 11 -3 40 -4 16 8 -26 -45 -5 -13 -10 -68 -8 0 -29 -36 32 -45 7 -6 19 22 15 2 -44 -33 -84 -26 6 24 2 -4 -11 13 3 -12 15 4 4 10 32 -18 -21 25 -11 5 15 3 10 -22 -33 3 -13 -9 15 -65 5 35 1 11 -12 23 14 39 -23 10 9 19 13 -15 -30 -8 -20 -8 -11 -9 0 -23 13 -36 -21 -10 -7 13 28 -29 29 26 49 -49 21 0 -4 40 -17 -1 24 -25 -18 41 12 13 51 -19 -5 1 -4 -69 5 2 -38 -33 29 -44 -18 23 8 -2 -71 -30 -110 62 13 -8 -54 -22 -40 27 35 41 -36 19 -3 -12 -24 5 -12 -7 3 33 20 -4 12 38 31 -35 5 31 36 4 26 72 -32 63 32 -33 -7 16 -10 10 8 11 1 31 16 31 -32 29 -13 0 -74 -14 -13 -15 -10 -43 24 21 -48 -17 111 9 48 -6 63 -2 37 -4 -83 -38 -1 74 -17 -12 -32 5 11 3 -10 -9 -5 8 58 33 39 -12 -21 37 7 -29 12 29 -17 17 -15 -23 5 -82 67 -18 25 -15 22 1 23 12 -6 -36 -21 1 35 9 -26 24 -10 14 18 29 21 4 4 -20 -1 -7 2 -32 16 -42 19 8 -40 0 17 69 14 43 -20 27 -34 10 -4 -4 -2 26 -25 86 -2 29 20 -14 27 18 25 29 24 -25 -4 -31 42 -11 -25 12 -17 -11 -1 13 -22 10 13 7 25 -13 37 72 13 30 -11 -21 33 4 -3 -102 28 26 68 23 17 -21 9 19 -23 -2 -5 4 -25 18 17 -35 1 34 3 -21 -11 17 -53 21 -42 -30 -39 10 -13 2 16 -39 8 2 4 27 12 -5 -5 -41 -9 -34 36 5 41 -20 1 15 -22 -45 -12 -52 14 80 27 -1 2 1 -7 -32 9 30 32 -3 29 21 0 -32 42 3 -12 9 33 4 51 -15 -16 29 -5 50 39 -91 14 11 -23 -17 21 0 -13 -30 5 25 -2 2 3 12 19 -40 -27 5 53 23 -5 -25 -49 -22 18 -12 47 -10 17 -16 30 -19 38 -18 -32 -37 -11 3 41 -17 -1 19 -55 -4 -68 14 23 3 0 8 6 -2 -19 4 6 -43 -10 1 -45 27 20 11 6 18 -80 12 -37 0 -15 54 35 -39 11 35 7 -8 -14 -9 21 -11 30 -43 3 -20 23 62 70 17 16 27 -28 -2 23 5 -3 6 50 126 -24 8 17 33 43 -33 -8 -48 -8 27 44 0 5 44 38 21 9 -14 12 37 -35 25 9 16 52 1 29 -35 23 -19 -17 8 21 -25 -9 -18 -19 -4 3 -4 -30 -38 31 -63 0 -15 21 -12 32 -21 4 7 -14 -26 -45 14 -27 -20 6 -77 48 -9 -26 16 -22 -4 -4 -29 -27 0 -29 -19 0 -5 2 88 -5 12 9 -8 21 -22 6 -24 11 -3 9 -1 -42 -1 -40 15 -14 54 -11 35 27 -30 -13 38 -17 -24 -20 5 48 31 8 -32 2 60 -43 -11 42 -8 -4 -2 -34 -1 3 25 60 24 17 22 7 -36 55 -6 30 -37 -85 21 17 -49 -10 37 62 13 39 55 14 5 -16 -6 34 -38 33 7 -6 3 -29 -5 -39 -10 5 23 -17 43 65 -40 15 14 2 -40 -30 12 23 -9 -2 32 12 28 30 3 -4 -18 15 31 -36 16 20 13 10 4 -46 -7 -24 20 -38 -15 -29 -8 20 -8 9 -48 25 15 -18 34 7 -1 45 -35 1 2 21 37 -77 -39 59 -42 -10 23 38 33 57 -14 4 -34 -50 4 43 -22 1 66 11 3 -37 -67 9 -12 19 5 3 -56 -26 -6 0 17 10 -25 -22 -28 15 16 -7 6 7 -31 10 -5 -48 -21 6 -16 -7 2 -45 19 4 29 -20 -19 7 37 -8
31 27 38 7 -45 -21 48 4 42 4 8 -52 -37 5 8 1 -12 15 -38 -39 25 -43 33 17 -29 16 -38 37 36 -14 -25 -77 40 -54 1 -42 22 -58 50 -51 -10 1 22 39 -24 -7 -27 18 -1 -83 25 -127 -7 -12 42 -4 -67 -16 28 -35 -21 -36 12 -14 -51 -9 -63 -11 -37 -42 18 38 48 -30 -19 0 -38 0 32 4 -2 25 -23 -49 12 7 27 18 -68 -44 -12 32 4 -7 14 -25 -33 3 -30 -6 -21 -13 1 50 -52 7 38 -9 67 50 -2 -23 -13 12 7 -34 -27 3 33 -2 -48 27 20 20 4 -2 -20 2 21 -3 -30 24 4 8 61 -44 -5 -23 2 18 -20 -72 23 84 -14 -55 40 61 -7 -28 36 18 -21 21 -26 -45 3 27 18 -5 25 7 -26 1 24 24 -11 45 34 10 -51 -11 11 -53 -25 -25 -9 16 -30 85 18 30 14 -26 47 -9 -1 13 -16 -22 -68 -12 104 3 17 -1 -16 35 -43 56 55 -50 -31 -107 -16 -20 21 49 45 10 79 -20 -36 -23 11 -30 -22 3 0 6 -31 -64 -4 -57 -11 2 -26 -10 -31 12 -41 -23 10 22 18 -11 15 45 -17 -105 -3 1 -38 -19 3 -14 9 12 65 -18 5 -51 -2 8 -4 14 32 39 -27 -29 59 -4 15 -44 -9 1 -41 16 -19 -82 13 25 35 20 16 92 -66 4 27 36 -20 -5 -14 -50 26 -43 -44 3 11 -24 18 -21 18 -35 14 1 -18 -6 -82 31 1 -59 14 -14 19 29 57 59 24 15 6 11 83 5 -50 -34 -23 -1 -21 -15 -61 -53 -37 -29 -7 -8 -24 22 -11 26 21 -21 -14 1 55 9 3 -25 -98 -50 11 24 -4 -43 -15 9 -14 -8 14 33 25 -68 50 -41 -10 3 4 -48 36 4 -6 -15 62 49 9 -23 1 -9 75 -33 -21 -30 -14 -4 41 -22 -34 -19 -34 -41 14 -26 27 58 81 17 -24 -32 11 -53 -14 2 -5 11 -50 67 -30 11 -31 65 -9 -3 -31 4 -38 -11 -3 15 25 11 -7 -10 -58 -5 -32 -61 2 -14 16 -11 20 27 -41 -60 -3 -61 21 4 -45 31 -59 10 10 31 -7 -27 -47 -21 10 43 -15 7 -9 17 -29 -29 -8 40 -32 -8 44 12 -13 3 -86 9 -3 -26 26 21 1 -25 51 -11 -25 0 0 30 -23 93 -30 -25 -59 -36 8 -35 -46 8 -17 24 -30 51 28 -13 -33 14 -15 -40 -29 33 -1 21 24 16 -6 59 -1 22 -2 -6 26 31 -2 15 -22 -19 74 1 -110 25 21 -15 15 57 16 49 -39 32 7 4 23 -43 -24 -31 1 -16 27 1 45 11 -44 9 -1 9 32 -112 -15 -4 13 -52 -2 2 -27 18 -18 -9 8 -12 -34 34 67 0 58 37 29 9 -6 -70 -40 5 -45 8 10 -48 -10 64 23 5 -20 30 7 20 45 -5 -47 -17 -14 17 25 -25 -8 -80 84 -29 -50 14 4 -38 3 -25 -63 -76 -6 -1 -15 1 24 -32 28 12 39 -35 15 27 -7 -75 -11 -22 -10 16 71 -2 -11 31 3 -66 -16 -11 35 -15 -20 47 -42 -7 29 -8 -112 9 64 -28 17 -80 -5 -10 8 10 16 -54 -54 -19 18 14 26 22 -22 52 -8 -28 22 -68 -22 -27 4 -17 38 -12 9 -18 -2 -43 32 33 -37 -32 1 30 47 37 52 -25 -14 27 -33 -25 11 -26 -8 31 -9 -54 -14 -4 -32 23 -19 -43 -95 58 30 -9 62 -1 18 -33 2 12 5 22 19 -6 4 13 -4 50 -17 -11 -8 22 -26 2 -31 76 6 4 4 0 40 -22 -20 11 -5 70 -18 32 -49 -17 26 -52 -9 -33 14 27 -15 -35 20 -11 41 -47 13 -19 12 9 11 -51 31 -19 15 -16 9 9 3 1 7 -38 9 2 -32 -48 4 -16 26 -22 8 6 -18 3 28 -3
13 5 5 -38 28 -4 10 25 31 37 0 -22 -55 15 -23 -16 8 -41 61 -6 -26 16 -6 -24 -32 2 33 13 -53 45 19 5 -33 -71 -8 -100 9 45 14 -27 -53 -17 -8 2 -2 -37 -11 11 8 36 4 98 13 5 -47 5 2 6 27 16 22 9 -20 25 -7 -42 -56 -22 53 45 39 -85 61 18 72 -14 0 -6 -29 16 -13 1 -7 -16 0 26 -7 5 6 23 18 -3 -5 6 -10 -19 -89 46 25 1 5 -33 52 20 -27 22 19 22 -89 8 -2 4 25 -42 -28 33 -6 -51 -57 12 -71 57 -6 -34 0 -2 -11 -20 1 9 -110 -40 -2 -5 -24 -105 -1 29 37 -6 -16 0 -55 -62 -4 -81 23 1 1 -21 -3 61 3 4 2 13 3 -36 -23 -8 37 8 -62 -8 74 3 0 75 -90 -1 -34 -8 31 59 -47 24 -5 -20 32 3 18 3 16 -73 24 25 32 -7 22 2 -47 23 -15 26 74 33 48 71 51 35 -33 -6 -2 96 3 40 -14 -104 -1 11 -30 2 12 -15 -27 13 26 0 24 1 -45 -40 -97 31 2 -22 3 29 68 -51 -79 20 34 -19 81 -25 -48 38 13 -10 4 -44 -20 7 -47 13 -47 -9 -24 -30 -1 22 -45 81 1 13 -57 94 -4 -3 -78 6 16 -52 11 16 -11 14 -35 30 43 -85 -15 1 3 0 33 19 -32 -11 21 15 11 17 -70 29 -7 2 52 -34 -24 -46 -36 43 -77 -40 5 39 -60 -1 21 72 8 35 10 -43 22 14 -21 13 5 -15 32 -29 -41 27 33 -24 -84 18 -47 126 -43 -26 -23 15 5 3 -13 19 1 12 88 14 37 -48 -13 -37 12 -7 18 -25 -15 -28 -5 8 -16 -66 -11 -30 94 -21 -67 3 -9 -50 -62 -8 43 -48 -5 -17 -78 -41 -12 -18 -20 -13 -64 17 73 67 23 -24 31 7 3 8 -11 -36 78 22 -51 -9 69 17 -47 -17 -8 -81 12 29 34 61 -80 -14 5 8 20 24 44 63 -17 -3 -13 -21 17 15 -18 -28 7 -15 28 34 -16 20 27 -8 1 13 -51 3 -14 8 46 -11 -22 -8 35 59 18 -41 26 -18 -28 69 25 -44 35 -53 35 -80 -93 32 -85 -26 -46 -22 -31 33 -13 -14 2 -6 -21 -48 90 -17 24 17 -59 19 43 14 -26 30 53 -43 -5 39 -48 28 -5 -5 60 -69 11 11 -3 49 47 71 -2 27 36 108 -9 -10 -20 -22 -4 -61 4 -5 6 32 -8 13 17 54 57 27 -10 23 5 1 -29 45 -19 33 -5 18 -11 -2 32 34 -27 -37 -12 -7 16 -9 1 -15 19 -47 -22 24 -27 40 -34 41 -64 -11 -9 -39 -62 -67 -7 -28 4 -25 -15 0 57 -19 -4 -8 1 -1 43 1 2 -3 -38 4 28 -32 5 5 38 -11 -60 -10 2 19 -31 16 -4 -56 15 -10 -14 14 22 -81 -30 20 11 -55 34 35 22 -51 -28 -58 26 -68 0 73 88 13 0 90 11 45 -52 -37 19 -3 -11 47 -9 36 11 -27 -15 -78 -5 -5 28 3 7 9 -73 -60 -95 38 -35 -5 2 -27 -31 8 -1 60 -5 -53 -50 -25 -45 40 -12 -22 8 -2 49 14 -50 -63 -37 -46 16 4 -29 -38 -28 35 -36 11 25 -30 7 -1 -37 -25 38 -53 -34 22 -26 -39 -4 -57 -29 -16 -47 -49 9 98 -6 24 -16 -26 14 -1 4 -19 -8 -6 74 -56 -12 13 24 -13 65 -78 46 -11 -109 -32 -1 -2 11 21 -79 52 85 -32 24 -55 13 -64 1 24 -19 46 -12 -78 20 39 -18 -91 -4 -25 -15 -25 6 1 -23 13 8 31 -36 -51 35 29 2 54 28 -24 31 -41 1 -12 -12 -26 -2 -31 15 -28 -36 26 -4 -10 -109 53 -4 14 7 -7 -8 24 17 21 48 -62 -6 -24 5 6 30 -11 18 -21 14 -23
-25 -11 18 15 10 6 -52 21 -14 15 -1 -26 3 -29 11 0 10 -16 -9 31 -6 16 -4 13 1 46 -2 -15 -16 24 -15 7 -6 0 24 -10 22 -6 2 -39 9 -1 -26 -39 -57 26 31 -19 -10 -2 -6 25 -54 -14 67 16 6 19 17 5 -20 -1 -7 -31 -17 -36 18 -6 -15 6 31 -3 6 17 -19 15 -7 -2 2 -18 23 3 -47 -13 25 -10 -41 15 -25 31 -6 42 18 2 -51 -26 -18 16 87 -14 2 21 -9 -35 3 22 11 25 -27 32 4 -2 -14 -17 -33 2 -43 23 13 -14 -54 13 -15 -3 -11 2 1 -33 31 -36 -35 -29 29 3 -21 -11 10 15 -20 -5 -59 23 56 -25 13 26 -46 -44 3 24 -10 1 -19 -9 4 -18 15 -26 -12 31 -1 -2 48 14 31 28 -3 15 8 -10 -14 -5 12 -63 37 22 24 -28 -27 53 -15 17 9 -19 34 -8 -5 2 -6 16 -28 -2 -5 31 41 -2 10 27 2 16 4 -29 1 -3 -5 -13 15 -37 84 0 65 10 -3 -4 6 12 16 5 4 2 -7 61 -1 27 1 -13 38 -13 -38 6 -5 4 -20 1 -8 -6 -22 -62 14 126 -13 -13 0 9 63 -5 20 -8 1 27 -15 13 35 0 -20 -29 20 39 -33 12 30 -16 -6 13 7 6 21 58 6 -18 24 15 27 -40 8 36 42 -2 -1 -9 -21 -9 -30 48 14 22 -47 6 -16 6 35 -27 21 -18 19 21 -45 24 -14 -15 23 22 -7 12 -38 8 8 12 -18 -8 56 -51 -49 68 15 82 -10 -12 43 -34 10 35 20 -18 -7 12 8 -12 13 43 -5 -18 -16 7 25 10 -15 -3 5 27 19 5 14 -18 -34 18 25 -30 -31 33 -26 -22 0 1 13 25 -25 -7 -19 8 11 -8 21 21 -36 -11 15 5 8 -20 22 36 6 16 -7 -12 12 50 2 42 -13 -1 -16 -26 7 -1 7 2 -24 5 16 25 -12 14 86 -42 -8 -6 13 -33 -23 -23 26 -3 -1 13 13 -53 -16 -20 -13 -3 -8 59 39 -65 11 -13 19 2 -50 -18 -24 64 0 -16 32 7 6 -48 -34 9 -2 8 -8 40 -23 24 -9 7 -9 3 -3 -27 30 -4 -13 -22 3 -4 2 19 14 -4 -48 -1 -41 -4 23 50 -15 9 31 -54 -1 -20 -38 -10 -4 -24 24 5 19 -23 22 -1 -36 -1 12 -23 -16 -18 4 36 -19 0 -11 -9 27 63 30 2 13 -6 -8 26 7 24 18 31 -10 31 -13 13 13 16 81 2 -8 14 12 -25 -26 65 16 -3 -10 -9 -2 -6 -29 17 34 2 21 19 -1 -20 -8 -7 28 1 4 -39 8 25 27 32 -3 -24 5 1 32 -5 61 4 16 -1 17 -10 11 1 -12 11 7 31 -1 -3 15 10 -22 -21 -27 -29 -5 34 19 49 -18 -6 2 -89 27 -1 -8 -19 -12 9 11 1 -22 0 2 -16 23 30 -11 -27 -2 -25 12 12 -36 -2 -9 -30 39 -4 -27 -5 -20 6 25 -33 12 33 1 -8 1 -23 -30 11 30 -13 15 42 -5 21 41 10 24 -29 -19 24 -9 -5 -53 13 9 41 36 6 -45 -25 3 -54 -7 41 0 21 -12 -15 18 44 3 7 52 -20 25 17 0 -59 -13 14 21 9 -7 81 -10 21 -15 -37 33 -8 -10 3 10 19 55 18 29 28 11 13 -18 10 5 -6 6 46 -38 -31 60 7 1 -40 -46 -1 31 -4 -44 -87 -15 5 -2 -4 32 -28 6 21 -15 -2 -17 32 18 -18 5 -38 13 15 -26 -32 -30 -6 46 -3 -17 15 -5 18 -8 -6 16 -24 9 22 1 -14 7 -29 -29 18 -10 -1 7 -7 -27 -41 -17 13 -6 26 15 4 15 8 49 19 -20 18 10 -10 5 -9 -10 31 25 9 17 48 -19 11 22 -14 8 14 -1 23
25 -15 27 22 -3 -19 -4 -8 -11 -24 5 6 -3 3 -3 2 -2 -26 20 14 28 23 -10 -6 -9 -31 -17 40 -13 10 -8 -26 40 9 8 -39 16 18 -14 -10 10 16 -8 -61 11 -27 16 8 9 -1 0 -12 -7 30 25 18 -127 19 18 -21 6 -11 -2 5 0 29 -31 29 4 2 4 -6 76 -10 -3 14 -6 5 -27 -5 36 -9 -5 6 16 -20 14 20 -25 -41 -8 -22 10 -4 20 0 13 7 -57 11 -10 -1 -3 50 -31 5 7 1 -39 -68 -1 9 10 23 39 -7 20 -15 -24 -14 9 -11 -6 4 8 1 -12 -3 10 42 -96 -17 -25 -3 -32 25 -1 -10 7 -32 -39 -17 38 -26 -7 46 -37 12 23 -3 7 14 35 -13 4 -2 -10 5 -5 -20 -36 3 -3 5 22 -8 -22 -34 14 -18 -22 -34 -2 14 9 -6 -12 17 -35 56 19 46 -22 25 -5 14 -17 -7 9 11 -30 42 -8 4 10 -20 31 -38 16 -56 68 3 23 -5 16 39 0 45 -26 8 -44 18 4 3 -8 -22 -2 -3 -17 11 0 5 4 3 -17 5 41 -18 -5 -21 10 12 18 12 -10 22 28 -21 -18 -3 2 -10 62 -4 6 14 4 15 26 6 6 -4 23 -40 3 8 -3 26 -17 -5 12 -15 -16 -50 -2 -17 -5 -29 -11 -53 7 -13 -8 -8 -12 -51 25 7 -16 11 -24 -50 13 -24 -44 -29 -20 3 -24 16 23 -21 -6 11 11 14 13 -4 -10 -18 5 22 4 -1 -5 -30 -18 -2 4 38 8 17 -73 -29 -53 -4 -12 -6 -19 -21 -2 4 13 -10 -8 4 19 -16 23 -47 -11 -21 34 7 -20 10 28 106 37 -22 25 -44 -3 -2 61 -23 4 -48 -12 -24 79 -1 -5 33 42 0 -15 33 16 24 -15 5 -5 16 -29 -18 16 -13 42 -56 -5 10 -34 8 -40 -34 17 5 -15 16 -14 21 -36 21 32 38 -26 -11 -12 34 -7 31 25 -4 18 -29 -14 0 11 -10 -1 1 -20 4 -7 12 -8 -3 0 4 6 2 0 1 23 -20 -15 0 -20 4 -3 121 17 -6 -13 -3 2 8 15 -15 18 -26 -19 8 -44 -61 -23 -12 -28 -10 -10 83 -6 6 -36 -26 14 -32 -21 14 -36 -28 24 8 11 41 -44 -4 -2 -36 -8 -15 0 28 -5 7 84 -25 -3 -8 24 39 3 -1 -7 -8 -40 2 1 -8 -16 7 52 24 -29 -12 -6 -50 -20 -52 -7 -5 10 13 18 19 11 -8 6 -57 -7 -7 15 -9 -7 -13 -60 16 52 -39 9 -24 5 25 40 -12 2 29 -13 -10 10 -10 17 33 41 14 -6 19 3 -14 -23 0 16 -18 -28 2 6 -25 -13 13 -7 8 4 36 35 34 -3 61 43 -8 14 -4 -19 30 -1 -26 0 9 -47 15 -3 5 -20 8 -11 13 9 16 -22 -17 -16 71 35 9 5 45 -1 4 2 21 -29 15 -13 -21 10 -35 -12 -13 3 -17 3 48 -39 -2 18 36 22 -25 -71 13 48 -14 -14 -28 -4 -4 8 -3 6 -11 -37 1 -6 -14 17 11 22 -25 8 8 -5 13 -28 6 -14 -16 -66 -3 -29 36 -21 -41 14 -11 -7 26 36 -34 -31 6 47 -10 27 -25 0 18 -35 -10 -43 3 14 5 -8 20 28 7 -23 -57 -4 23 -17 -23 1 -25 -32 46 9 -31 20 29 19 -8 -7 -4 -21 24 -5 7 -4 8 16 -56 4 20 -13 27 6 55 21 22 23 -25 -19 -3 -11 -1 13 -37 -34 -10 20 6 -9 -8 -36 -8 9 -3 17 18 -6 81 39 27 -14 -18 -13 11 -4 -32 -4 -75 5 25 17 8 -13 3 5 -6 -2 7 2 8 -8 4 -11 4 -38 9 -11 -11 5 34 12 -2 -27 -29 4 -3 -20 15 3 -18 7 -13 -1 -10 22 24 1 -5 22 -3 14 4 -31 -3
-50 -15 -8 -18 -8 2 -14 -8 -64 4 4 2 13 -11 20 -29 6 6 -27 16 18 -7 -41 -28 -36 -41 -56 -51 -28 -44 1 44 18 35 -21 -8 -68 46 24 8 1 23 14 27 65 -1 20 -4 24 -50 16 84 -59 -6 55 -38 122 48 41 26 -1 -25 -29 -33 41 -30 -97 -7 17 7 49 28 -114 -10 66 8 41 -6 50 -39 18 -5 17 -25 7 -1 -85 10 -28 -39 -6 -3 8 -2 -27 38 0 -12 71 2 -25 12 13 -80 -73 30 -15 34 52 94 -4 -15 49 -3 -47 19 27 4 59 38 4 4 46 10 -23 15 0 -26 10 31 26 -23 70 -8 24 30 -40 24 -58 -79 34 23 -4 18 -14 -101 4 -14 8 32 -2 -32 25 38 2 -49 -4 -28 2 8 -48 12 -10 5 -5 3 -8 -5 -32 18 38 13 17 -26 48 -52 -35 10 -22 -67 -17 56 -8 48 -66 15 -7 5 -8 17 -12 -93 33 -1 8 18 4 -10 27 63 -8 -43 15 33 -15 27 19 -20 -27 -21 75 6 -24 14 27 -32 22 -1 -2 -18 35 -14 27 48 -10 6 -14 -5 -34 -56 -35 20 -9 17 -6 6 -72 37 -27 -2 -29 -68 3 -1 19 -18 12 17 32 -9 3 9 44 27 -25 -22 -25 -35 3 44 95 -6 12 59 0 -19 84 -37 -14 45 -6 -87 -10 7 54 -69 12 -28 -19 58 24 11 39 11 -1 -28 9 -13 -44 12 -12 32 35 4 -23 -38 -20 25 -34 29 -29 15 -29 8 11 16 18 71 -36 33 -74 -76 -3 -23 -14 -79 -10 -15 4 -34 -77 -93 -5 14 15 14 12 0 7 -59 4 -16 -62 15 4 7 24 -48 -20 -34 11 -9 8 -50 19 -23 -57 52 -24 9 62 48 61 16 41 14 90 -4 -40 51 6 -14 -30 -6 -31 -21 -18 5 -15 -14 15 -54 43 -17 22 34 33 -12 -11 33 24 -8 42 -108 -23 35 -10 27 40 -38 24 -41 -44 18 -5 3 34 11 22 43 -34 -34 18 -12 -6 9 -30 2 -29 -16 57 7 -55 26 -22 -74 -8 6 20 -23 8 67 -31 -42 33 19 8 -13 -2 15 -36 -8 33 -53 20 11 -42 -9 2 -55 12 16 -39 13 2 -109 -2 -11 4 23 13 -9 3 -2 -42 48 -18 4 7 18 6 40 21 3 42 3 -22 -72 2 -40 -17 7 -62 -8 20 25 4 8 -44 -52 12 -46 10 41 13 8 8 -21 24 58 3 -12 52 22 -19 -43 -10 41 23 39 -11 -25 -14 1 -114 26 12 42 -78 -1 -26 25 -10 57 -47 5 -2 27 0 19 25 -3 -23 -15 35 9 2 -25 16 6 3 9 57 -50 41 -15 -53 -23 -31 29 -2 2 -9 37 77 -64 -18 37 -1 6 -29 -3 -56 29 8 21 -20 -53 23 -25 7 42 44 96 -20 8 -24 10 -26 7 -15 27 34 -8 9 -3 42 13 2 -16 5 29 18 17 17 -28 -4 -40 2 126 12 34 -45 9 -31 -54 -30 0 103 43 -45 -35 -35 -13 -9 8 -4 11 -19 -6 -4 -1 -2 -16 -25 13 38 3 29 28 -24 -61 -62 12 -23 47 -76 24 49 6 -13 55 1 -21 -15 -6 -13 -39 -5 39 -46 -15 31 -67 -57 -6 60 43 -36 -14 37 -26 25 21 4 8 27 42 -15 15 -5 -16 26 -10 -20 -3 -54 -7 24 -2 -54 1 14 25 32 43 -25 17 14 -26 -22 -11 -8 -10 -25 53 39 30 2 -10 44 -16 -33 11 -24 -9 19 -38 -97 -38 -65 58 -16 -46 -52 -14 9 11 -34 35 77 23 -1 47 13 51 -45 -20 -8 -30 -3 17 16 22 -14 2 27 -4 18 -28 -20 -14 7 3 -56 4 -28 23 5 56 17 6 -6 -36 68 8 12 5 6 -14 -13 30 -41 46 29 32 1 -19 -24 25 28 31 64 19 27 -29 16 -39
-47 -22 -7 38 -14 -7 72 -8 -24 -5 -4 4 -24 -5 -30 4 22 -16 -41 3 1 23 -44 25 -5 9 -30 2 -27 10 -30 -41 7 66 -13 -35 13 -49 1 10 -28 2 4 -6 0 14 -1 -4 -24 37 10 19 10 -13 22 12 -2 22 -6 -31 4 -14 14 -15 -20 -52 -90 13 42 15 -18 31 30 4 46 15 25 5 -6 -7 39 -10 47 9 -26 2 -8 14 -39 29 -14 33 -44 12 -2 -3 -21 -15 -72 6 19 -22 19 -34 40 0 10 -32 -6 -9 2 -12 -21 -19 25 59 10 -28 -8 0 11 26 -2 -11 12 24 4 33 -26 -49 -23 18 82 -4 20 71 0 20 2 4 35 4 10 -22 -1 -17 -11 -17 9 -17 -15 -18 -1 -1 -37 -10 10 -16 -28 25 14 -3 29 44 13 22 -27 -14 -23 6 -68 -26 5 -22 40 -12 -25 1 6 34 -26 -10 19 62 -6 -3 -70 43 -10 45 2 36 -14 17 2 -7 32 40 27 -25 21 47 -2 -6 -4 -2 10 -112 64 -29 -7 0 -14 14 33 44 -24 -4 -1 4 -50 -17 -17 -76 10 -2 -57 3 -27 12 -17 6 13 1 15 5 55 2 0 30 -4 15 12 -30 -56 -2 25 46 -21 17 -17 16 19 -73 0 26 -5 12 12 -21 21 14 -31 -9 -33 -12 11 90 -11 49 -14 21 -31 20 22 -7 -45 8 -12 11 -14 15 -25 -24 -49 34 0 -14 -5 51 -34 16 60 5 -36 19 8 -3 66 -17 14 -19 20 -3 -93 14 22 -16 27 -10 -39 -34 8 23 -36 34 15 16 31 38 17 -9 32 -7 7 2 13 7 4 -9 -10 -34 -43 14 31 -16 5 -37 -22 -51 -5 -2 -5 -37 16 -2 -49 -10 14 1 -53 -5 -10 17 22 6 -15 31 33 7 -7 1 -13 3 40 -9 -23 0 -8 32 53 39 -16 11 -9 11 -3 5 7 -50 -2 -4 20 32 11 -6 -11 -10 35 -15 4 -9 36 -22 -33 -38 -19 -21 -6 1 76 -33 12 -21 -12 -11 -6 -25 4 -8 -9 -29 11 -26 11 -29 10 5 -26 32 3 -79 19 25 -10 45 21 -15 11 126 -11 0 19 -1 35 -10 -9 26 -42 -3 -8 46 32 13 30 18 -4 77 -28 -26 8 -9 17 11 -26 -31 23 14 6 58 -3 -1 33 16 13 -26 18 -30 -1 -26 -17 -24 57 40 21 -79 -48 7 -58 -34 3 3 -5 13 9 -30 -6 23 33 8 -47 -1 12 -6 16 73 -2 21 -23 -23 92 29 0 -21 69 1 31 42 -2 15 12 8 -25 36 2 34 -11 -75 -5 5 -4 28 -12 -81 -30 47 11 -35 25 -6 10 21 -32 30 -12 -39 16 39 23 -60 28 -7 5 26 -26 17 37 69 25 10 18 4 28 33 1 -32 10 3 -16 11 9 11 -44 59 1 7 -48 1 22 -39 -9 1 1 -11 -14 43 12 7 3 -43 10 13 21 -13 -33 12 -1 42 -1 19 -8 -8 -15 -41 -3 75 3 14 11 -11 21 6 -80 -11 -8 -2 12 -12 10 47 28 23 9 1 38 -31 35 -26 -19 -3 -34 13 44 19 -4 -12 86 30 -21 -21 18 25 -3 23 23 3 38 4 -20 -56 -45 -12 -27 -17 -11 32 1 0 -39 84 -21 21 -13 23 -22 -22 18 -67 39 -13 -41 -21 5 26 5 18 -33 37 30 15 24 4 -4 -16 -5 -45 6 7 8 26 15 -31 34 27 12 -8 59 -6 26 28 26 28 7 -3 -1 -1 -2 29 29 21 29 -7 23 12 21 42 14 -24 67 -33 9 69 -24 -18 -23 -54 12 -33 -11 15 1 15 -10 -47 -14 -25 1 -11 24 7 6 11 3 5 13 -28 -30 50 -8 22 4 1 -3 -14 -20 -6 -14 -45 11 -5 -5 17 -25 -6 28 -33 11 62 -17 -4 9 -4 15 -26 -4 3 -18 16
44 21 33 7 -4 22 -8 -15 -15 -13 -13 -21 -11 2 9 28 -4 12 -77 23 45 8 -57 15 -44 -57 -16 10 -29 -12 -25 47 18 11 2 -20 -15 -7 4 -30 39 15 -19 -22 28 -14 3 13 -17 16 -53 -43 -6 46 69 12 44 -56 -38 13 7 8 -7 4 -23 -32 -48 27 4 -1 63 28 -15 -6 5 6 7 -3 -38 7 -4 -4 -31 53 -3 -11 8 4 -21 36 21 39 4 -12 -37 3 36 6 -11 28 25 -43 -17 -44 8 -36 28 -19 -51 -14 2 -13 -1 14 -69 6 -53 -36 34 -19 -41 -5 12 29 -11 -9 12 -3 3 48 26 22 -20 -4 -86 -5 -31 -38 44 -8 -13 4 46 102 -25 22 107 -94 -24 -17 18 -23 -24 -7 52 38 11 -19 -40 11 85 -23 -49 47 -4 35 30 -16 -10 27 68 -34 4 7 5 -43 20 -2 46 -30 26 -60 38 11 5 41 9 23 -21 63 58 -10 43 15 1 25 43 -19 -22 5 26 -52 5 43 -33 8 6 10 -54 -10 -27 -5 -26 -31 21 15 23 -7 5 -7 15 11 -26 21 -11 5 49 53 12 21 -13 4 9 -1 42 25 -44 -15 -48 54 23 3 -38 15 -32 4 -30 2 -24 -20 -28 -25 -64 -17 -46 -9 -17 70 -27 13 2 -24 5 42 55 -24 -41 1 74 10 -64 20 24 24 40 -24 23 -46 3 12 24 35 27 23 -55 47 30 -35 -7 63 -70 28 23 4 9 -45 20 -13 -39 8 -5 0 6 -21 6 -22 -19 -40 24 15 -24 17 -28 13 15 -49 1 -28 -62 46 -2 -36 -10 -11 13 15 31 -15 12 29 -8 -70 45 2 26 5 29 -9 -4 43 19 -2 60 66 20 62 48 35 24 1 -46 54 -37 -20 24 28 52 11 1 -39 -23 5 8 10 -16 -1 29 -22 12 21 -10 -7 18 4 -13 22 6 -1 12 23 1 -35 14 -2 -24 6 19 0 26 -76 -13 15 17 14 -36 -78 -6 22 22 8 18 -24 43 46 -78 -8 8 5 -6 -11 -17 9 -14 -41 -19 65 -2 2 -53 -25 -78 -24 12 16 28 -35 -20 13 0 54 45 -28 14 -8 -3 14 -2 -24 13 1 31 39 13 -40 18 -45 -31 -25 -41 4 53 27 12 -8 29 -12 -36 -3 -8 12 68 8 2 22 11 14 -21 -64 -27 -20 66 16 -14 25 30 20 -67 37 22 20 29 -7 20 -20 13 38 20 69 16 11 0 -21 -8 59 4 1 3 21 -35 -6 -29 -11 8 -16 -60 31 -91 48 9 -27 -61 11 19 16 25 69 36 -5 9 1 -9 47 3 -28 4 -23 -18 14 -34 -23 -4 -66 -13 60 43 25 -17 49 -24 -48 12 -17 -6 23 -24 -11 19 31 -25 41 -21 2 -7 -40 30 16 -14 16 68 -22 36 -15 1 -19 7 23 -1 -35 -46 -55 5 -14 23 -20 -27 4 -37 -25 -19 -22 -10 -47 6 -20 45 0 -21 -31 -4 32 -16 -9 -1 -65 3 10 -4 -37 35 47 -18 -15 35 31 8 -9 -18 -27 4 -15 46 11 5 9 31 -22 28 39 38 -21 7 -35 30 21 -15 -36 -74 34 18 36 -50 -71 -35 -18 19 32 -39 17 8 -11 -13 15 22 20 -15 3 2 -23 22 -25 -4 15 -4 20 -79 16 12 126 10 -13 35 -13 43 -12 -4 -19 30 -2 33 -19 -62 13 7 0 17 21 -13 1 40 -9 -45 64 -1 -12 -11 21 -12 24 -11 -36 -26 2 -41 -40 38 -22 17 2 -12 40 30 30 77 96 30 38 -23 9 38 -20 -7 48 62 -30 64 -15 7 61 6 -57 -24 -22 6 29 28 89 -14 59 -1 -14 -19 14 -2 4 -34 -15 0 -13 17 -107 13 -7 -6 36 38 -23 -26 0 -5 6 -9 8 -3 22 -19 81 8 49 -29 2 -30 19 5 59 -20 5 -50 -53
-4 17 -27 4 -15 33 6 -4 38 18 10 -5 26 17 7 -17 -25 -23 -21 -16 -2 7 -6 -55 -18 -22 32 18 8 12 1 28 9 37 7 -9 -27 -10 6 31 -23 0 19 1 4 -67 9 5 8 -13 28 32 -16 35 -28 2 20 -31 -12 -3 -5 -26 -13 -6 -32 -9 -15 3 34 9 53 -45 6 10 -4 2 28 -7 -17 -9 19 -10 2 7 -27 8 31 -20 -56 -29 6 -46 -7 10 -4 5 -9 -9 18 17 -3 -3 -12 -44 11 -1 4 15 39 22 -3 -4 -22 -44 29 5 26 9 48 -2 -34 23 -11 6 3 -2 13 -16 27 2 -26 1 13 19 18 -24 31 14 13 45 8 -22 16 8 -25 -27 -17 -25 -4 16 -29 -21 12 19 0 -37 -3 -17 -18 -2 59 -8 -18 -12 -40 16 -2 -1 5 29 28 29 6 -55 -20 62 -15 34 -7 20 -13 -13 -8 32 34 -21 -16 -41 31 -13 22 39 -51 5 10 26 16 -12 -14 -21 -10 -5 -19 -2 7 30 -23 -15 -17 -11 73 -11 5 11 -9 3 5 -5 12 -1 -2 -80 -13 3 25 19 -19 -9 -5 11 21 -27 20 -36 -5 4 -36 73 8 -51 9 36 -37 10 -15 -13 0 -8 37 5 -29 -35 11 32 -17 -32 -46 -31 -15 -21 -4 -2 -30 -21 8 12 -10 -69 -10 30 -6 -26 10 -11 3 17 -19 50 -11 16 26 12 24 -14 45 -28 -52 -2 23 -13 -3 21 2 9 -17 30 14 -3 -68 -14 19 21 -3 -2 30 -31 -4 37 -15 -33 5 11 34 5 8 31 -19 2 -20 10 33 -45 -63 50 -6 -57 -1 -5 -11 3 -17 -20 57 -9 -35 6 2 -8 -38 -22 -12 25 -25 -4 9 4 39 -65 -10 12 2 46 -10 4 63 -1 10 -6 3 6 11 7 10 -20 25 23 -25 -2 22 -69 16 -8 15 2 55 -30 5 -18 23 1 9 2 5 -28 21 45 19 -4 -14 85 -11 -30 -27 -11 -43 11 15 7 9 -21 15 -12 -51 7 29 -2 -27 6 18 -5 31 15 6 20 -19 -41 7 10 -4 11 11 -20 -41 -24 -17 32 32 0 5 44 23 1 26 40 8 19 23 -57 17 -33 8 14 -17 -10 22 -52 22 0 25 -41 0 -21 -9 -7 23 -16 -2 -7 18 15 -18 -15 38 38 -11 28 -6 -16 -5 19 0 -1 -13 -19 -10 -23 -24 24 -1 -15 -19 23 25 -9 39 4 18 20 -54 -68 20 -10 -14 -74 14 19 -8 -14 -34 -5 28 -15 12 -13 -34 17 19 14 91 50 -23 4 -59 70 -21 -53 -8 6 -24 6 33 -37 24 1 -7 25 11 42 50 2 -1 -18 -5 -8 -4 12 -18 -38 16 32 -6 -2 -30 31 42 -14 -23 -7 33 -47 8 5 40 -16 3 -10 -41 -23 3 3 32 -1 -57 -18 -25 -50 -31 33 20 -17 -4 49 15 6 40 9 19 -23 4 8 -34 2 -3 -25 -1 22 6 -4 -1 16 -16 21 20 1 -20 -45 -6 1 4 -20 9 0 -18 63 8 -17 -9 -6 11 3 51 -3 80 -67 -3 52 -51 -16 -62 -7 -18 8 -12 20 -4 -5 42 -25 -13 -9 38 -36 -23 -22 -28 9 -25 1 -46 7 41 -12 50 2 -27 -21 31 -3 12 27 10 18 -7 27 -18 -20 5 -40 -51 -11 -4 -20 -6 13 -14 -5 -26 -14 23 10 -19 13 2 38 2 15 8 12 -10 11 -2 -59 28 24 35 -29 -1 23 -4 -16 -35 -127 -32 -17 2 -21 7 -25 -21 -3 14 -34 21 6 -20 18 36 -5 2 20 -2 -82 6 77 -17 -23 0 -69 -3 14 -5 8 31 -20 9 42 22 -5 -8 -6 -8 -4 24 15 -44 -15 -14 -15 -26 11 4 -10 -8 43 -6 -20 -26 -27 -10 -5 15 4 15 -23 -2 5 -4 44 24 6 -39 6 -10 -1 -14 6 2 31
-10 -54 -33 27 20 29 -58 36 -31 -26 -8 -16 25 31 15 3 5 6 50 0 -5 -25 -41 14 11 49 -9 9 10 -18 -13 -27 17 25 -18 4 8 -27 -5 -15 7 27 42 -8 22 79 -6 8 16 23 -13 -21 -45 -26 6 -24 -47 -21 -17 5 -32 0 11 -24 -23 20 -2 38 42 -23 -94 -6 -4 -2 14 29 62 0 33 -4 -41 -24 13 18 15 2 -35 8 56 40 13 -18 -26 -3 -6 -13 -26 -13 -38 13 -11 -17 -9 47 30 3 -10 2 4 8 -4 19 47 26 -45 28 -36 -21 81 -7 52 -13 15 7 22 14 -24 9 -80 -11 -85 11 10 23 -56 -12 -17 -43 -63 9 10 -22 -115 24 41 -2 3 15 -13 -4 -17 -42 -15 17 38 65 29 -14 45 -10 42 4 -21 -48 -47 23 53 20 -55 31 -43 -28 -7 54 4 51 3 -7 -66 -9 34 -46 -55 26 8 24 -22 -30 11 2 -43 -16 70 -6 -18 -29 -10 -26 41 -28 -16 40 -27 -45 14 -3 16 18 38 23 13 -5 -22 2 -1 -8 -9 -5 8 -1 28 -19 -21 -33 9 10 24 -6 4 40 -52 22 28 -42 33 19 -59 -40 -2 -33 0 31 1 -10 9 12 19 -7 -10 -15 30 -2 -31 54 -4 36 -56 -66 -39 -20 -51 49 -5 -6 19 -10 -66 23 -7 -41 -33 25 3 11 23 11 -9 -1 -9 21 -13 -51 16 -23 53 -1 -46 -38 -64 0 66 -9 -26 -3 12 7 0 38 64 29 -4 27 -27 -26 -123 21 -32 -89 39 9 -27 19 13 16 69 -9 -4 -17 -76 -4 -2 -17 -36 -61 -53 -36 -27 -3 -16 12 -22 64 -34 2 -11 32 -38 33 -9 -14 -2 -3 28 -29 0 -15 -20 9 -28 20 -6 -44 15 41 -11 19 -53 36 -17 37 52 4 -3 11 -33 -49 -22 50 16 44 -14 -66 31 32 2 42 3 -15 39 8 -15 24 35 24 -29 -8 28 9 51 -29 -30 35 -17 67 57 -7 -9 4 1 -20 42 -35 62 24 -10 32 -20 34 4 -20 55 6 68 -5 -13 -28 13 -25 -50 -23 54 70 30 -34 13 16 4 25 -21 -62 -36 -11 26 3 24 61 20 -23 6 -21 35 3 -23 14 -52 -59 54 15 -19 -20 -11 -25 15 -6 9 40 61 -45 12 26 14 46 47 51 -9 -47 18 40 13 -18 -20 10 -111 -24 18 -29 20 6 33 16 -40 -20 126 -39 -37 45 -2 3 -39 39 -19 -5 -3 -7 -1 26 3 -24 16 49 -35 -8 -22 -16 -30 5 28 -69 -29 18 17 0 -23 33 -69 0 -16 29 4 -1 -17 58 38 75 28 84 -21 0 58 -2 28 -44 -55 15 8 31 -9 -2 -2 -42 8 -1 35 24 -39 97 11 8 36 -40 34 2 40 -20 11 21 4 -16 33 43 -35 -13 -98 62 20 -31 -2 -68 -34 -10 10 25 -92 3 -1 -53 -7 -18 -27 -24 48 12 7 25 61 -26 12 -22 1 -8 26 27 -9 -33 -56 7 -10 20 -4 47 -11 -3 1 11 2 16 -35 60 -27 41 -28 16 -31 64 25 10 -9 -13 49 15 9 6 -24 45 -6 -10 29 61 6 13 -39 -74 -46 62 -44 -12 -68 -4 -17 4 -14 15 23 -33 -33 -47 19 -49 -1 -53 -30 -8 -4 8 9 31 -22 -19 -21 -10 -11 -44 -7 24 1 -7 44 -5 99 63 -17 50 6 -8 3 25 2 -18 -7 30 10 -21 20 -32 -35 24 -15 47 -6 -14 27 -22 20 39 -16 -3 -20 33 43 -21 30 -9 -15 9 17 -38 -3 -23 -11 -9 51 10 1 82 -1 -18 0 -19 -11 13 11 -24 -49 -18 -2 -55 -13 32 9 8 -31 4 -5 -8 5 -8 50 3 27 -29 5 -13 -52 27 -56 3 20 10 7 -12 16 -8 1 -7 -7 51 -18 37 -7 -34 0 10 34 -21 37 1 -24 -1
36 23 -26 13 -8 18 34 -22 17 11 -30 6 -12 2 11 -24 9 36 26 0 -33 -37 39 17 16 -3 37 54 -3 -18 16 -37 -6 18 -7 34 -20 -63 -13 -28 -41 21 47 50 32 -27 -2 -31 -22 65 18 -99 -26 38 83 -6 25 14 28 29 -36 16 -40 -10 -68 68 42 33 -65 -66 63 -7 -102 18 -113 -15 -13 3 -47 2 -6 -14 -33 -47 -35 22 -8 42 11 -11 -2 -19 -41 12 47 -3 5 -3 58 29 20 -72 -20 23 -12 -6 14 -9 54 33 0 -10 18 -23 83 16 -21 31 72 17 79 -54 -21 38 17 11 33 16 -15 11 -42 -48 -44 44 8 30 -10 -18 66 76 45 -33 4 5 30 108 -4 -57 -14 17 -62 -7 26 -17 -46 19 9 -4 -18 -18 63 39 102 -45 28 0 11 37 87 -8 11 -24 -38 39 29 -47 32 -26 -47 -106 -11 18 7 5 20 -7 28 8 7 29 76 -14 -1 32 75 -4 86 2 20 39 22 -79 -33 -61 -16 10 0 -26 -56 16 46 12 51 51 5 13 -20 9 11 7 11 -121 -9 -21 6 19 50 16 64 -4 8 6 17 0 -6 -4 -9 -32 27 68 -17 -11 -52 -28 -3 11 11 -5 -58 -49 -26 20 -26 36 1 7 87 100 -18 -32 21 70 32 6 24 12 51 22 23 -20 49 -13 13 78 -18 -17 -58 -69 -15 79 3 -10 30 7 38 22 45 -3 -23 57 -33 38 -51 24 74 -9 0 18 -41 23 44 31 -40 38 5 -113 20 28 22 29 -33 -17 1 -12 -69 13 13 2 4 -2 -24 -26 18 -22 7 -55 -1 -5 -116 43 28 32 -28 1 1 -9 -126 6 31 -14 35 -19 16 49 -46 24 6 -6 -56 -18 -29 57 27 -54 -64 29 -10 -21 -96 -23 -39 10 -78 13 -76 -10 70 -31 -1 -3 60 65 26 2 5 -12 -1 -24 -1 9 54 -70 61 -15 88 -16 15 -8 39 -23 -39 30 -4 -10 44 55 11 23 -28 1 -21 -20 24 -3 42 11 10 43 37 -6 -58 9 15 -41 -4 -34 -8 -13 -29 -18 13 32 57 36 43 41 62 3 -29 -48 -50 9 -51 -13 -44 14 33 65 44 31 6 1 18 1 -22 70 32 79 -43 10 -66 -43 -18 -1 -26 26 -81 -15 39 -22 -31 -53 -101 -27 -6 23 -10 -10 -36 -20 -10 -55 83 15 -42 44 -91 2 5 -105 36 82 78 -89 87 68 0 -122 0 27 -13 -6 16 20 2 52 10 -6 -3 30 -39 35 -26 2 70 -29 27 82 -23 88 26 -17 10 -2 38 15 4 18 -10 1 28 48 68 66 -27 5 16 58 -6 22 17 -51 -21 -8 -32 -36 8 -19 7 11 -4 29 51 51 -123 0 60 68 -49 -27 -7 1 -39 11 -16 -51 11 -12 10 -15 51 -5 -71 71 28 -59 10 65 11 15 20 22 -72 -15 23 -16 1 39 1 -4 -22 48 -84 35 -7 16 -13 15 -2 -57 -23 -69 -55 53 16 -26 20 -13 -7 21 -25 -6 -41 39 29 -2 -52 18 46 11 -123 21 -22 12 4 -63 8 6 -11 6 24 95 -34 2 -26 -18 126 17 -32 73 45 86 125 9 14 34 -37 -13 69 -94 54 15 84 -56 5 -21 -46 12 68 -33 -30 -22 -2 29 79 22 5 25 10 2 31 -10 33 34 -11 -2 48 -6 30 40 -33 27 12 -1 -24 -16 -11 26 13 -10 7 -29 -25 -4 -21 -34 14 -8 -21 9 -62 -65 -20 -10 -25 -27 78 -69 33 -31 68 -48 16 93 -93 -92 -20 39 41 -16 87 29 -33 58 2 37 6 -2 51 4 -32 10 0 59 74 -77 8 15 46 -25 -4 15 -34 -7 12 2 4 45 -26 32 -53 6 -4 106 22 7 -15 -47 15 9 3 -18 -19 16 -3 -30 18 22 12 45 90 35 -22 -16 13 14 70 10
48 -4 6 51 0 25 -17 -62 -13 -19 27 63 12 -6 4 -43 -54 9 52 12 25 36 36 18 -29 -25 -27 -20 46 -33 45 44 14 4 5 -2 41 -44 6 -24 -27 -14 11 85 22 -36 30 -5 -29 5 8 -71 12 59 -28 41 4 9 28 -18 -6 -89 22 -43 -86 -30 26 38 38 -13 4 30 61 -1 50 50 15 -8 63 45 0 -6 -16 -18 5 -2 -28 -37 5 37 23 30 -27 -1 19 67 -76 7 -25 8 -12 -39 20 -28 10 -24 1 14 2 20 5 9 -4 26 -23 28 8 17 90 22 -10 -8 -32 54 -7 9 -10 -23 -61 3 -104 8 59 -24 -39 34 -28 18 -64 2 35 44 78 -26 65 27 29 -49 11 18 -3 50 16 28 -35 5 27 0 6 -30 74 32 24 53 18 -6 35 40 13 30 39 5 17 14 59 75 -27 24 72 55 8 4 53 25 1 8 -20 -7 23 -14 65 36 -23 -17 29 23 91 -32 -10 22 45 -9 18 -34 17 -50 12 28 41 15 56 -4 13 27 -7 42 45 -12 40 -39 -59 68 18 45 -3 33 -22 62 -41 13 16 -51 35 -14 24 44 -16 75 51 19 50 -18 20 -18 36 -1 -42 -15 -71 -17 -24 13 10 -22 -8 13 -17 -86 54 8 60 4 7 -22 6 -3 5 75 3 113 -38 8 -1 16 9 -1 24 39 35 -10 22 -19 9 13 81 -60 -5 -37 4 23 64 -3 16 33 15 21 15 -21 81 41 -13 -37 17 20 -44 26 29 -12 37 43 45 -20 -3 14 -40 -13 29 20 44 56 -35 -34 48 -19 -7 -17 8 13 -24 -43 53 -25 51 -7 -76 7 -15 49 -52 -41 24 27 -32 -45 22 -61 -17 36 -18 6 42 1 -75 26 15 -17 16 29 55 46 44 72 -1 -9 21 34 35 22 3 15 -12 47 47 3 -41 -8 38 36 44 25 -45 53 2 9 42 20 2 13 11 13 44 13 46 -5 30 -9 16 -22 24 25 18 -64 -8 31 43 13 -18 40 17 26 -28 23 -46 9 18 -23 -3 37 -15 8 48 67 -109 -21 67 26 18 -33 15 38 -39 23 -3 85 8 8 -69 -2 44 59 72 46 44 48 39 -36 27 3 8 4 47 10 8 -24 -18 -46 -12 -35 43 -20 23 10 -6 2 4 4 -10 1 -16 -19 -53 -42 98 10 115 54 -26 -26 44 43 -9 -10 51 13 32 21 6 65 23 -62 34 25 -4 -3 -32 -31 -40 -6 59 -49 18 83 21 17 20 -16 55 -7 19 -60 -7 -21 49 -48 -115 -36 26 -15 -76 -39 50 -2 59 5 16 50 9 -54 -15 -42 -13 39 13 68 -49 -38 1 7 1 -61 -13 9 -11 14 17 23 37 -5 40 10 16 11 4 -53 59 12 -32 0 7 -17 62 18 -10 56 -14 -10 51 -18 34 65 -58 -12 -52 -4 11 19 38 4 16 5 -4 12 42 -1 28 0 -10 -11 -9 50 57 -23 -9 -2 0 6 2 27 15 27 -50 -12 -50 -10 -18 14 2 14 39 -21 -31 16 -84 24 22 -12 37 40 1 5 -14 29 -46 21 -102 16 -28 34 1 -13 -20 2 19 -8 -21 -35 42 -18 21 20 39 18 -22 15 -1 5 2 21 23 -32 46 28 66 2 43 -15 -107 48 13 -7 -12 40 -27 -10 48 -48 -7 -5 31 58 -33 18 55 7 3 -3 61 27 -1 7 21 -16 -44 41 -14 41 73 16 36 30 -9 31 -45 -13 -4 36 -41 9 5 9 18 25 -12 93 32 10 23 -59 3 8 3 -79 0 5 23 -24 44 47 14 20 13 -109 -12 67 15 44 -20 -13 23 -10 -15 -127 -30 17 20 64 23 -27 26 0 -15 42 -3 82 -25 -5 6 -19 26 -10 -2 43 14 30 -1 52 55 -26 14 23 -51 -5 21 11 35 8 8 35
6 -21 -7 4 -7 -33 -42 -55 22 6 -51 29 -59 7 -20 -2 16 25 -1 16 -4 -12 -40 -41 20 75 58 21 -7 -29 22 -34 22 52 7 -66 -12 25 6 -8 -19 -8 -29 -44 -31 6 30 -9 -20 -10 5 35 77 -55 -12 -37 -21 12 -48 0 2 -26 14 -19 -26 11 -36 -12 -31 -5 -11 -26 95 -17 -17 -16 5 1 11 -21 49 12 16 27 -3 -3 -45 6 -25 57 -9 27 30 -11 48 2 19 -12 -13 -41 2 -35 -15 22 19 -26 -39 0 -29 12 4 -15 -5 8 -48 -23 10 -17 -39 6 -6 52 -17 -15 2 -9 55 1 -58 -28 1 6 -15 22 -24 58 8 -59 -29 40 10 -19 0 1 -4 41 -30 -21 11 49 69 -16 -3 18 32 -29 -16 20 1 1 31 4 24 -23 75 -18 -29 51 22 -16 -18 -6 28 -22 57 -46 2 52 -31 -2 7 -38 51 -16 38 -13 -34 -7 12 5 -34 12 -81 -18 -10 12 -25 50 -9 -9 16 15 13 53 -23 21 -14 -127 43 46 -63 -13 4 14 20 -26 5 -6 -37 2 57 27 -5 -32 8 20 3 50 11 27 52 17 3 20 9 -28 12 -38 43 31 37 -44 61 -11 -38 1 -8 -20 3 7 -4 24 -17 81 -5 33 -69 6 24 -29 18 -53 -22 40 -24 1 -24 -11 10 39 -1 -76 76 4 -22 -8 58 19 22 -53 7 50 -3 -9 7 25 -43 37 37 -34 -4 -35 34 24 11 7 6 12 32 -45 -20 -12 33 -50 -7 -52 -11 -67 1 23 -27 -1 10 32 -70 18 -4 12 11 -5 7 -24 -12 82 -13 -17 14 10 -16 7 -1 -39 -17 -17 -26 -9 45 -34 -50 30 6 13 44 -19 -65 -16 10 -7 -6 9 102 -42 22 25 14 5 40 -26 -9 8 -2 11 -4 -20 -4 -14 -16 -17 31 -1 6 -44 15 -20 -7 -18 15 11 -15 -44 68 10 12 -29 14 40 -22 4 -42 -41 -6 -39 -3 23 77 -21 23 13 -5 -30 -10 -3 -29 12 -22 -6 -30 44 9 -9 36 -6 5 -34 39 14 12 26 -4 36 41 8 16 -22 7 -6 16 19 0 -28 20 42 19 7 -11 -19 8 -39 -4 -8 -8 -25 -41 -26 -20 15 -21 93 -7 9 -41 17 -5 -1 18 24 16 -9 -58 23 27 23 95 -1 -71 -20 -26 -7 9 -32 29 18 -15 -8 -13 29 20 5 57 -36 40 -39 -21 -36 -55 19 -11 9 -22 -51 -14 -10 -26 16 9 -30 5 22 -1 -35 51 -3 -36 13 45 -39 26 24 7 -2 6 -33 55 21 38 7 -41 65 -17 5 10 33 29 65 -8 -55 14 -61 -41 -18 -14 -14 21 39 -7 -30 14 7 -5 -24 6 -40 -21 12 35 27 17 2 -21 -19 -12 -2 -13 61 -17 0 -9 33 36 -24 0 -15 25 -17 3 23 -38 -11 -83 32 -4 65 16 -5 -34 20 -11 -28 17 43 24 12 -42 -22 -15 20 -14 -20 -1 -3 -82 -6 -46 4 -22 -5 -71 -19 -5 -45 -34 -28 -77 29 4 -11 -9 25 -31 15 -27 -10 56 13 -58 27 -2 28 -33 28 -27 71 48 3 7 21 24 25 30 -39 -8 28 1 24 -18 68 -67 58 -17 -41 19 27 -38 26 24 -22 -12 -1 -10 -22 -15 5 12 20 -42 14 -2 -104 -32 1 -19 -16 15 -1 21 11 64 -1 0 9 -10 33 -46 11 -19 -7 3 19 -33 -29 6 -12 10 0 -11 -25 17 36 42 1 -68 13 0 -29 12 12 55 -3 25 0 11 15 7 18 -34 -17 44 10 34 -7 33 -23 -6 51 19 15 7 60 -10 10 -16 -7 4 16 -25 3 -5 20 -30 -20 13 7 -1 8 11 3 11 20 38 4 -1 41 -18 -4 60 -2 26 58 0 -2 -1 37 4 34 29 28 -10 28 25 -51 34 -26 -27 19 -1 18 15 -28
-21 -24 23 16 -7 15 -40 22 -1 4 -3 -12 1 5 0 -12 3 -18 -23 -9 -2 -7 2 -13 10 -14 13 -20 -17 -7 -18 -20 12 -18 -7 71 18 -29 3 18 -10 -2 -13 -29 -8 2 10 -6 -27 -4 -1 9 -26 -29 18 -1 12 2 -19 -38 -4 -20 -27 9 8 16 30 32 -46 -17 -12 22 -76 16 29 -7 -32 1 -14 -35 26 -33 -41 -12 -11 -16 -33 5 14 5 -25 -7 6 15 0 13 16 -17 85 -6 -6 -1 5 -20 -1 -5 -7 -14 -14 35 2 -3 -12 15 -57 -11 -13 8 -34 18 -23 -29 -24 -20 5 7 -50 -28 19 10 126 -17 -46 -10 -28 -5 -15 -25 -28 -49 -54 -23 -40 -44 18 -53 22 11 6 18 -4 13 10 -5 -4 -32 -13 6 -4 6 11 0 11 41 -50 -1 -13 21 -4 -26 -31 -25 -11 8 42 6 3 3 9 17 -2 -14 6 25 13 -8 -67 -11 -4 8 16 32 -4 33 -14 3 -11 41 12 72 3 3 -12 8 -19 2 -5 23 -14 -4 18 -14 1 -5 -12 -21 -2 14 10 28 -18 -47 -14 -69 4 14 -25 -16 9 28 -12 -13 7 10 -13 -13 -57 -11 -4 -26 4 0 22 -4 -13 -14 -10 -2 -6 -21 25 -3 17 9 2 -20 16 32 19 -27 5 -22 7 -19 0 -3 -54 -70 44 -3 7 29 -39 4 -23 -87 -9 14 -3 -27 -4 -17 -9 39 -1 -9 6 0 -15 -8 -63 1 -28 -1 11 -7 32 -12 -24 -33 -1 35 -14 4 -1 -55 -24 -65 -7 16 -18 12 -7 1 26 -16 17 2 23 3 -49 -44 -59 -71 -10 49 7 -15 8 -7 -5 -8 -1 -7 9 32 -64 9 -9 -34 -9 55 -5 -33 33 -16 -26 12 -16 2 8 3 7 3 -34 -25 -16 -27 -6 21 -45 -19 -35 -11 -14 6 -12 33 -13 19 -10 -15 -25 19 0 -13 8 -4 17 -10 -24 40 -42 -56 -12 -14 -3 -5 -9 34 -7 5 8 -26 -19 -36 6 -25 -14 5 20 17 41 -21 1 16 20 50 5 4 24 -5 20 27 18 -9 -12 3 -10 0 32 -63 7 -19 6 -33 4 -20 -5 -62 7 -12 9 13 -14 9 -18 -5 -8 6 12 62 -52 -32 40 42 -11 5 10 1 27 -7 18 7 20 19 2 -1 -24 18 -13 -17 -39 -2 -1 6 -13 9 9 -11 5 3 -8 -3 -10 42 15 16 65 19 -24 -13 4 -6 -21 -11 -17 -36 -3 43 6 20 5 -12 6 8 -1 1 8 17 -28 -7 21 14 6 -35 52 -26 29 -39 32 -22 2 -26 -4 19 -16 19 -18 13 0 18 14 -17 17 -10 -7 -26 -28 -16 6 -4 -24 -27 -18 -16 36 -37 -15 1 -18 -7 2 28 -41 17 -5 -32 0 5 -22 5 -25 38 29 30 9 -6 14 -12 11 -29 14 32 -16 3 47 -19 -18 -5 -10 19 2 3 16 0 -10 -4 0 0 -8 -32 -6 -5 -19 -20 -28 40 4 -19 22 2 -22 -15 6 31 35 -14 -8 -36 17 32 -111 6 -10 -7 -6 27 10 -17 28 28 29 17 -20 -15 -6 23 -4 15 20 -31 41 8 -13 14 15 15 -47 10 -26 2 35 -8 14 -9 -21 23 64 2 -69 -4 44 18 -41 18 -21 -12 -7 -2 2 17 -8 14 -14 4 5 -45 -4 -11 -24 7 2 -19 -2 -23 37 -36 5 11 -3 -3 3 -29 -15 -16 7 -24 12 -68 -17 -34 -1 16 -25 -5 27 -28 -19 6 43 12 7 -28 -24 -22 10 -37 6 -21 32 -11 5 -21 56 4 15 -4 -16 -11 -7 -16 23 17 0 31 -12 61 -3 -12 1 37 7 16 0 -4 11 6 9 28 20 28 39 -22 -13 -14 16 -21 -26 -20 53 4 -9 0 10 5 19 7 13 14 0 13 2 44 -16 -40 5 -16 -33 -7 34 -14 -19 -36 6 10 0 17
