-161
-326
-148
-293
-400
385
172
71
193
198
-84
-45
572
-141
-186
-70
-18
445
-484
472
-113
-98
107
7
42
-250
342
66
-98
184
-471
-130
10
84
204
-53
-7
-38
66
-327
52
-16
-91
265
-41
-134
-156
351
139
106
246
-156
-229
-273
1086
-365
-156
887
278
-91
-415
24
261
43
449
34
-445
-344
160
191
-121
121
-293
-100
-211
133
-211
-206
-96
-420
-660
-402
147
134
-394
-278
-330
-416
201
-233
1
210
-176
-399
-146
268
265
345
-113
269
51
-1
-260
-26
256
-136
125
249
-707
-95
277
-317
-169
308
234
-65
716
250
472
483
-57
211
-69
-184
216
336
-305
-280
-79
-186
-316
-126
-84
-483
-588
70
-210
-213
338
-20
308
-269
127
12
-37
92
-95
39
-433
-60
47
-233
-85
446
-325
-121
88
146
163
43
-37
323
-37
161
79
60
104
228
-166
-1
-130
103
325
-46
311
-182
-85
123
81
160
-77
46
1
-44
-126
27
-27
-65
-222
19
-172
73
62
605
-65
-618
-176
43
-161
303
-64
-49
155
123
242
-80
94
6
856
-92
-125
-74
-118
-291
38
-379
-272
308
76
-21
-79
221
-130
-122
-49
-182
-31
-171
60
154
110
-885
-14
-287
618
246
300
-59
50
205
314
80
-310
40
100
-400
-212
713
122
-54
-4
-110
-42
-206
148
164
-312
-111
193
211
114
195
-242
-78
332
-101
88
320
-138
-425
303
202
177
-75
28
28
-587
-534
-367
246
0
140
-371
116
115
128
307
-693
183
-245
-55
207
99
235
-70
203
-182
-172
142
-415
-246
-263
-254
358
-70
-155
324
210
-63
80
10
282
-184
-467
88
144
-74
12
95
183
-158
320
22
33
-107
206
-47
-283
283
241
-34
171
-296
367
334
-116
-457
-55
-490
199
-21
-237
-465
20
-753
351
336
-645
-661
-70
663
620
-632
576
-448
-12
-64
669
-593
560
-89
-514
309
19
-121
-371
553
-30
-80
251
-257
95
-452
-13
-779
91
-93
-361
427
267
282
118
-38
-2
261
-224
-528
202
-92
213
-549
88
19
-35
-111
-579
97
-337
156
198
59
133
126
1124
-114
-221
-160
-499
-703
9
145
-441
-145
-249
-123
-68
-879
-36
335
-53
-617
538
-273
647
-431
550
-108
-168
319
-553
-603
328
238
70
33
-146
251
-334
431
-281
578
227
151
274
-84
57
144
-363
-120
-111
106
92
107
147
64
-247
6
114
-158
-347
-180
-115
-94
-55
-401
-22
-73
1
171
275
-257
-48
2
288
108
32
27
-42
234
-157
15
-285
108
5
84
-2
240
-11
-8
-27
68
-217
148
15
614
77
-19
-181
59
-9
217
-209
142
242
143
-128
-54
-560
-216
134
-17
-9
-731
-9
-86
96
40
51
-75
-97
-125
-17
-5
48
-73
-19
-84
331
32
-149
112
15
-155
14
137
-141
-46
-145
-63
189
108
-50
57
115
162
420
103
-181
-389
-247
-20
-96
-144
461
-171
242
-149
-225
-53
-82
-579
71
233
-50
881
673
-283
353
10
-360
-66
104
-143
-111
105
-82
129
-719
-229
634
339
39
-89
526
258
-63
4
-356
-272
-404
92
-233
439
-63
-105
114
-163
-642
627
-154
42
448
51
136
654
369
-258
321
247
82
53
59
240
218
-33
248
-64
-418
-229
209
61
-35
159
-231
-33
-29
637
-122
-642
-95
-246
0
209
-48
106
349
8
161
429
-379
340
112
275
-162
-409
224
19
-239
-285
-73
159
-274
-480
-360
143
351
177
311
-58
-105
-470
735
373
157
126
0
-5
280
577
498
235
447
-8
135
-68
104
596
222
596
30
-283
457
27
244
358
465
151
679
-103
-34
517
-139
-221
-29
-70
-701
-461
-326
-70
-128
92
-250
-213
-57
115
57
-136
138
43
-209
9
-151
-97
-43
-45
-155
-133
-48
16
11
70
-172
-90
73
33
-13
-140
24
115
-222
10
-10
-139
-242
-21
-93
78
56
151
-16
-84
-114
83
63
121
328
173
-12
23
96
257
102
41
-33
-71
-240
-306
-349
103
-187
-72
67
-181
-11
-36
-93
-170
86
