78
201
300
168
254
-617
381
101
-155
201
56
101
287
101
351
-204
-82
326
137
242
539
-197
-339
-367
89
352
-416
-198
-370
-164
267
204
-187
281
-310
-117
-117
-187
305
-135
-381
-197
106
-4
-301
-236
-500
70
-27
-123
-354
-24
210
-228
-224
532
-256
-84
28
36
212
16
-221
453
301
-386
70
37
-278
-175
250
12
-142
-490
-41
-84
-114
-74
255
-37
418
46
197
-272
-103
143
-148
-22
97
-211
-172
152
90
-1
43
-89
16
-12
-264
-25
-32
90
312
35
35
253
139
-2
9
3
-10
122
111
-56
20
248
-94
82
-262
-89
33
-433
223
22
-699
343
131
-317
302
-5
184
-729
-167
-146
109
366
-590
57
81
317
-219
-191
-798
52
-203
23
130
390
188
-293
463
-416
-552
173
-175
81
-518
-17
-492
612
-147
-376
543
156
-182
258
-561
-272
-441
198
-196
437
-490
479
-22
-101
-98
-211
-157
-61
-102
-147
-185
5
-215
236
-170
-90
247
249
-129
-97
207
-43
-198
-16
139
-632
-158
-210
314
-67
-176
265
-278
-79
144
147
-423
-97
375
-603
139
-32
61
-408
67
349
186
190
309
371
198
36
21
253
-47
-181
218
-17
193
-194
404
-131
-4
-214
13
-255
133
34
73
118
-503
195
214
-102
-182
129
-306
331
296
-33
130
261
123
-51
-243
477
103
361
149
687
-173
-203
-65
-185
596
43
-67
-114
-238
-245
600
151
181
-495
-342
-31
433
-45
113
290
-192
-12
-58
-605
-110
146
-49
273
-127
-200
130
-499
-201
-241
-101
-625
378
-67
401
163
-318
-108
250
819
-248
29
251
1
-224
-572
184
-590
132
30
-650
440
36
553
-533
182
-579
88
542
566
286
168
-113
104
242
327
-202
-86
528
-196
283
356
51
34
155
162
346
-693
-485
130
402
-29
358
-397
-84
-4
953
-371
302
36
266
317
235
-249
263
338
107
569
177
-54
-172
80
392
-270
52
-874
217
81
-39
-343
-123
-527
237
20
274
254
-261
-252
329
35
450
87
-328
100
-128
-122
29
99
-226
-355
-217
504
38
95
121
-156
127
-256
586
-354
530
341
-317
-429
211
277
-463
-435
-361
-177
-213
327
-361
-134
467
-151
-101
215
436
-344
551
863
292
-34
-361
196
-86
530
-164
15
-41
-305
162
-27
-254
-414
235
96
276
-583
275
349
57
-122
531
264
-478
-497
-601
-748
-116
-289
-193
-493
-579
-331
480
-216
338
-871
-336
-386
105
-371
14
-88
58
-205
128
298
42
413
-91
186
485
-385
-74
357
-329
-337
146
244
223
247
-266
-79
580
456
259
132
-161
65
-270
-565
385
-206
-741
74
485
-682
550
130
-202
-711
-290
22
481
1038
941
913
-280
141
-329
-414
-102
-426
-129
-518
-806
773
-81
854
706
-623
477
-391
-638
-274
155
88
30
-20
-253
548
-191
260
-389
-798
232
631
155
-597
-100
520
145
-678
43
-311
309
-673
293
-588
-128
-534
1004
-631
428
137
535
-158
216
-813
-932
752
-457
-171
-555
-291
20
-72
-984
499
441
-16
-273
-241
319
-395
189
344
-662
731
-381
-166
628
-262
-715
-88
31
483
231
-198
-264
784
159
-55
47
-260
214
69
120
570
625
-112
-1
761
-399
-208
-97
-40
173
-430
-105
-219
-202
660
-276
-95
-174
-267
-283
245
-570
-569
409
-131
-411
6
79
65
-75
-732
-771
-1014
-420
983
-746
-238
920
137
-24
1054
788
-130
554
18
759
774
-1324
-1284
-653
475
150
1062
-813
-665
843
-228
-656
451
517
160
-998
545
-380
231
-509
-75
-280
241
-1328
653
-315
-66
-141
94
552
918
388
272
261
-1014
846
-272
1153
669
-286
-897
905
966
208
548
-1030
22
169
-622
0
-218
-333
-305
129
-375
64
-2
-469
280
197
-24
17
150
-232
-417
-41
400
-316
98
163
325
-33
-413
108
233
32
-343
663
-68
165
430
177
-139
479
172
129
176
-32
127
88
75
-186
-29
55
-505
211
142
595
-51
-302
-14
-528
-493
42
256
-117
-8
294
-239
246
148
405
-188
-771
227
