63 -17 -56 38 77 -13 55 6 -27 46 15 42 8 -31 -5 -20 8 33 36 17 -11 -11 35 -11 35 -40 -30 -34 -1 32 -11 -6 0 -22 -48 35 23 19 -42 -19 27 6 -23 -12 32 -5 21 58 34 15 27 -54 20 7 0 -15 9 -7 11 11 16 -33 -26 -22 40 14 4 12 38 60 36 -45 -49 -55 -36 78 -24 -15 42 28 -18 -10 -39 -78 16 51 -45 58 -13 64 33 21 41 27 -14 16 -37 -21 13 -28 -111 2 -23 24 22 -12 -21 4 23 -28 -23 -12 -45 33 25 6 15 27 56 -34 -6 69 -49 -29 78 9 -60 7 -47 3 -76 76 -4 -22 -72 8 28 31 53 -28 27 -33 -13 41 -1 10 24 32 31 -29 -26 51 1 3 -24 -8 18 26 -24 11 11 -28 -13 26 -43 13 -2 -37 -21 38 -11 -12 -5 -2 -18 -26 20 3 -1 -22 21 24 2 -69 3 10 -49 -50 23 -16 22 -4 -41 0 17 -16 14 -22 7 0 18 21 -13 22 6 -9 56 23 31 -43 -36 -46 4 18 33 3 -40 6 9 -4 -57 -16 11 -12 5 44 -18 25 -24 8 10 -17 -2 3 -31 52 16 -41 6 42 40 18 -7 -11 -31 15 0 -44 17 -53 6 -18 12 16 12 10 -1 24 -2 18 -13 16 -26 -45 37 20 -9 16 15 -11 -15 -34 -3 -19 -28 22 22 30 6 8 -37 -26 -18 30 -2 19 34 -14 12 -28 50 24 -34 47 24 19 -1 13 26 -18 -21 -23 37 -63 -41 -36 -23 18 -27 -33 -6 62 -20 -1 -46 35 -16 -19 -13 -4 0 10 5 -13 -58 38 -37 94 50 10 11 27 -9 10 -27 52 15 -33 5 -60 -25 34 39 -17 32 40 26 29 38 -15 -51 -67 -8 34 64 -56 60 3 -6 41 -24 -22 -41 50 -6 28 37 7 80 33 3 12 17 20 -3 46 73 -19 -74 45 -33 20 80 -22 -30 11 15 17 40 -40 -1 11 -9 5 -57 -61 -27 38 37 -68 -57 16 -64 17 0 25 27 -35 -19 -36 26 56 33 -16 -78 -2 -9 -9 39 41 -41 -20 22 -38 36 -57 24 41 -54 -13 -2 18 2 -52 -81 -21 44 -22 67 -10 15 21 -5 31 1 30 14 -65 -10 28 -33 -3 -38 16 12 26 -56 -38 17 -19 13 9 -41 36 21 -13 3 17 13 -16 28 0 14 2 -5 -27 -17 -3 -18 -7 39 34 -1 39 37 3 -13 -4 -26 9 21 13 26 50 11 -1 -50 -33 42 60 33 26 -44 -29 -14 -10 36 -45 -12 47 10 -33 -15 37 -20 30 7 -19 -54 13 7 -12 39 49 23 89 -3 8 43 22 -3 4 8 53 34 -38 -18 -90 -6 26 12 23 9 13 -51 41 69 -1 3 9 73 -50 53 1 14 31 26 -1 54 15 -37 -6 -14 20 44 35 -38 8 40 4 -3 33 86 -92 -28 68 -8 -12 -23 59 1 -55 10 5 18 9 -26 19 11 46 -3 -31 -3 -15 12 -10 50 -21 -7 -82 2 -31 20 -10 17 26 -59 21 -13 11 -20 19 -23 36 -12 37 67 8 -11 -10 -24 -22 -28 48 11 -56 20 32 -16 15 -29 2 29 30 -70 -12 16 -61 -56 8 -1 -13 -33 17 8 -4 27 -13 -66 -55 19 28 -16 34 68 -26 100 23 -5 -122 14 -16 -20 47 30 5 50 5 13 6 61 12 -45 66 45 15 5 8 13 25 -10 119 -35 44 -14 20 23 126 -40 -32 5 19 30 24 6 94 21 16 -1 -17 -45 38 -36 -26 91 -17 0 -36 -21 -38 -43 -22 -67 3 32 -4 34 -24 17 7 0 -31 -74 -50 0 -93 1 49 17 -5 -30 20 23 31 -25 -34 -28 -76 -51 -18 -49 23 71 37 31 67 31 -97 -43 10 36 18 -27 -26 -80 -8 14 -4 -46 27 58 11 57 -11 -49 -3 -17 -29
46 -35 -18 5 -6 -20 -46 33 -9 -26 -13 -26 7 81 2 13 0 -28 1 -94 28 23 -10 -59 75 -19 -41 29 -52 27 -39 -23 53 -18 45 24 57 19 6 0 -9 84 -76 32 -11 58 2 33 48 64 90 -19 8 25 -33 -12 64 97 19 -18 -11 -11 17 4 0 3 126 63 55 -66 -7 25 27 -55 38 -38 -117 -15 41 14 33 -27 -39 11 24 33 4 -19 58 -12 2 11 33 15 -2 56 16 14 -19 43 30 -41 -51 12 -59 14 19 -6 -57 -30 -6 67 28 37 24 6 -33 -14 -60 77 -15 -11 15 -57 56 29 -27 37 -39 30 1 -45 17 25 -61 -48 -3 40 -49 -51 -10 -10 5 -15 -34 -40 18 35 29 25 -4 -7 -31 -48 -42 -42 8 -51 5 0 -45 19 -1 -36 10 -31 -43 -25 3 -20 -40 -24 22 -58 31 -29 -51 -9 -53 17 68 -15 -27 18 -43 -2 -1 45 40 -17 11 39 12 -16 -38 -19 64 15 -34 36 -23 -5 -12 15 17 19 2 -16 -2 4 16 19 11 13 -49 -33 4 14 -26 2 -38 -18 -54 -6 -22 -26 -9 54 36 0 24 23 38 5 -30 -26 0 7 7 37 -10 19 -15 12 21 -13 -14 20 -2 21 0 -44 -36 -14 5 -17 -8 29 21 12 8 25 10 -27 25 -40 -13 19 0 10 16 15 12 -21 7 39 36 20 13 -26 -15 -34 -4 -24 -1 34 43 9 33 -15 17 27 61 15 6 65 24 -8 -41 10 37 1 -8 -48 9 15 23 -21 -2 -40 25 15 8 27 -40 -20 2 -36 -14 -10 -2 -5 17 -22 43 -1 15 -24 -56 0 26 -39 -33 -20 16 -14 38 23 -47 10 21 16 -4 20 -7 2 -21 15 30 30 15 -4 12 8 19 -18 18 3 -12 -28 18 -34 22 15 -30 -31 -33 31 4 -12 -15 16 -13 10 30 -6 -39 9 4 -51 21 -5 6 -9 6 22 -10 27 -42 34 -9 0 -13 -14 -15 -39 -4 19 6 12 -34 12 3 -2 13 15 22 -44 -4 -27 -15 -7 9 -1 18 -21 -36 18 13 9 10 -5 25 -26 -26 2 -15 7 -13 -43 -16 17 -15 19 -11 -25 30 -35 -4 -47 -19 24 -1 -21 -36 16 -20 15 50 34 -3 -9 57 -50 2 5 6 15 8 53 -3 -26 -47 3 -12 80 -61 -23 56 64 29 50 -19 -10 -7 -33 23 -48 13 65 22 -51 31 15 -31 14 41 -11 30 3 2 64 -46 -11 -56 35 43 24 33 33 7 32 78 34 18 -11 45 4 -3 -28 -73 61 5 12 25 14 -11 44 30 2 -38 -6 15 9 6 16 -15 -12 -10 1 -23 11 -29 -4 -9 -15 -11 -29 41 29 46 -25 59 -16 27 10 -5 42 -10 26 17 -35 5 -17 14 -11 34 -1 63 -6 -46 -15 -11 -21 64 -14 0 -10 -25 -37 6 -25 -16 -43 14 -21 2 10 -48 27 4 9 42 -6 48 43 13 13 -25 29 -7 57 -16 -72 25 12 66 -20 52 -19 5 -16 19 22 6 53 -43 -12 3 -21 -52 16 20 -12 0 23 -3 -44 7 55 28 -27 9 -31 19 2 -9 -26 9 32 37 -42 9 -1 23 7 -5 28 22 -45 15 14 -28 48 -22 -3 3 -42 -52 -25 -1 11 -9 -20 -16 -3 15 -14 2 40 -6 13 -23 43 42 15 8 28 -31 14 12 31 -2 -18 -16 1 -9 -23 -30 -12 3 -22 -61 27 38 25 -22 -1 35 4 -27 -15 45 27 -15 26 8 -27 -11 -26 4 12 16 -10 -53 7 63 44 -26 -72 12 12 -67 -25 10 40 -22 107 27 18 -15 106 -35 -25 44 5 60 -62 56 13 -97 -16 5 -51 1 -55 -55 -77 -60 -62 22 2 16 9 -33 -30 31 42 -19 -30 -49 -60 -31 -35 9 14 63 -52 -10 -32 44 -4 11 -70 -3 -21 -3 8
-29 24 32 15 -49 -73 8 -14 -22 -3 -27 17 17 -33 -33 25 10 -25 -58 0 10 12 -25 -45 21 31 7 -41 27 -12 11 -3 19 -13 42 -43 2 -23 16 -1 4 -49 62 -9 7 63 44 -5 13 23 14 32 44 -12 -8 -34 36 34 6 8 14 -33 42 18 -60 71 -29 -58 52 -12 15 -41 0 -32 -18 21 -50 -7 61 43 -34 -11 36 78 -1 32 16 19 -21 -44 -8 -3 22 -4 -39 31 -28 0 -3 7 -3 -32 16 0 -4 -26 -8 3 -26 4 16 67 -37 -16 2 -27 2 -48 -76 -16 -4 37 -6 -7 4 -38 -7 -12 54 21 -38 -53 -41 -45 3 3 8 32 -5 -27 57 -15 34 -37 17 -1 -7 -23 36 -20 44 7 38 -53 -13 26 -36 60 -15 19 -34 -2 3 -8 -33 -28 59 -53 2 67 21 -16 14 30 -13 -6 10 -42 -19 -67 -21 -12 -18 13 44 -43 -19 -24 3 -31 31 13 55 13 -27 7 -27 -1 -15 13 37 43 8 17 -4 28 1 6 13 25 -13 15 13 1 -43 -16 14 -27 11 -12 6 71 16 17 9 -2 -8 20 -15 -10 20 -27 -4 17 2 6 -13 40 -25 33 5 -11 -14 0 71 0 1 -4 11 21 -7 -19 7 35 8 -32 8 1 -33 16 -6 2 5 57 28 -6 -15 -19 -51 16 8 4 -9 -31 12 -16 -15 -25 -1 1 27 11 19 29 -8 51 -53 44 -46 -25 30 -15 25 -25 -32 47 21 2 4 -3 28 6 13 -49 2 -13 16 -12 32 -39 10 8 -21 -6 -26 16 -4 11 15 10 -20 -49 24 27 12 -7 -14 -3 -1 45 8 -20 -17 -47 16 -40 22 -77 0 17 -4 -6 13 46 30 10 24 -19 -29 3 -9 -35 27 46 6 23 -30 62 42 -7 2 14 -30 25 14 34 -20 0 -46 0 -18 19 -71 64 12 -25 -8 22 19 28 -40 21 -55 43 68 -10 -5 -43 -33 -56 -8 -15 -46 -11 -15 21 20 29 -18 14 1 -21 21 -14 17 -2 -33 -14 9 -52 4 15 -7 -7 13 -7 10 24 -15 -68 7 1 -6 -9 43 35 20 13 8 -22 -1 41 64 -16 -55 -3 -27 11 12 -14 -24 -51 19 20 7 -13 -33 21 -12 16 43 34 10 -11 -9 0 22 0 23 14 19 -12 35 -58 21 37 -13 28 -13 26 -14 21 -35 -15 33 -70 -7 6 26 -1 8 54 36 25 -33 -8 -29 -15 -10 -30 14 37 5 13 35 -26 27 3 3 -17 34 -19 55 41 22 49 12 -19 -37 -43 -23 -10 1 -45 43 16 26 -26 -4 -1 0 -41 -5 22 -7 74 65 22 -94 17 35 13 -29 -44 34 -9 32 -10 -21 5 60 -37 28 5 -26 -94 9 -1 -44 -38 -36 -37 40 -6 -29 -13 -32 -22 -16 55 -38 -35 11 33 -6 -5 53 17 5 -3 -6 -11 -6 18 -31 -23 6 3 30 -5 -32 -33 76 -46 -7 21 23 -53 -31 -7 12 -59 12 43 -18 41 -7 -3 23 -16 7 18 44 -21 10 36 -1 3 -35 56 38 34 29 19 33 50 -4 47 -43 16 43 -8 -49 -32 10 -37 49 -14 -28 13 -6 -20 22 26 10 -1 -3 12 2 -3 37 25 16 -24 -2 -6 -35 -27 -23 25 26 -9 7 63 -56 20 -17 12 11 6 15 36 1 49 -36 30 -4 45 -27 6 18 30 -7 2 -33 -5 43 60 38 -6 -25 16 24 51 4 19 66 -5 -7 -32 -3 -3 21 -43 29 -39 5 70 28 -19 37 -58 -10 12 11 -31 18 -24 -61 -26 62 -31 -50 20 6 -12 43 -39 16 34 -34 53 12 3 -54 -62 -22 -19 -40 0 -41 38 -15 -4 -25 -20 16 -28 2 41 21 -41 23 28 -1 15 -1 -57 20 12 -30 126 -3 -47 10 16 -41 34 -6 -59 -56 -53 3 -31 14 33 1 -68
11 -68 -18 20 49 -32 -1 -4 33 -20 -4 15 -11 4 65 46 71 8 -3 18 -54 -2 31 2 33 8 -18 19 -16 53 -32 -4 -14 17 -15 41 -6 15 -43 -35 -15 -21 -57 2 -26 80 0 -15 -27 41 10 -32 -41 -26 -16 39 29 3 -62 -59 -7 26 -127 -2 -76 5 -87 11 -19 -47 24 9 47 47 25 43 82 -2 74 21 -19 23 84 -27 -28 -14 -34 -9 25 -30 59 -75 45 49 -39 -49 22 -68 101 -35 -27 9 -21 -12 -79 -25 -30 -48 106 41 -37 -16 -35 -29 -21 -12 -8 -83 -28 16 16 18 4 28 49 31 -65 -58 -16 19 -32 -27 -38 38 30 -15 -24 20 -53 -40 8 -23 -12 -17 -19 -11 31 9 14 -51 -4 5 30 22 9 -25 -25 -7 -54 5 -4 -4 14 18 25 26 44 -3 19 3 14 10 8 7 18 4 7 27 41 19 15 -13 22 -22 32 -5 10 -11 18 0 -38 -14 -11 49 -19 4 -9 2 2 30 12 19 29 28 -12 32 -46 -3 18 -7 -29 -4 -3 -8 -6 24 -24 -19 17 -13 -3 30 12 -6 57 -31 6 -20 51 -12 35 -19 27 -29 0 17 7 -25 18 -13 7 44 38 10 6 -14 2 -44 -6 23 26 0 26 3 -36 30 29 -21 24 -25 27 -1 -12 -42 16 -10 -15 41 14 -24 19 8 -29 -30 22 6 23 -41 -15 44 50 -6 -10 -23 -9 35 -39 -4 14 5 19 10 -3 9 9 10 19 -47 1 55 13 0 6 -7 -26 -49 28 -12 -25 11 -6 4 -48 -21 -16 28 64 8 -10 33 -16 4 54 0 4 12 -31 -4 26 39 -39 37 -17 3 10 10 -10 10 28 10 28 6 -11 -15 -6 -21 26 5 0 19 -23 16 -16 11 3 -20 28 31 -13 20 -13 -4 17 31 24 -40 10 -8 -14 -14 -10 23 -18 36 -30 -18 -24 -18 48 -52 -5 33 -7 39 -47 -2 -53 15 -9 -44 1 3 26 27 -9 -22 -22 33 -7 -10 -37 -10 -27 22 -4 -3 -20 -8 -29 -7 -10 7 -40 -25 -6 -1 -7 21 -8 10 -14 -10 23 4 87 34 -17 -31 -35 -20 22 16 -22 -30 59 8 10 -20 20 33 27 1 48 -23 39 -26 -24 -3 -6 -71 -22 -32 5 15 -81 -26 6 21 82 -17 29 -10 -13 15 -11 -15 -17 -18 -34 37 33 -59 64 -65 -27 52 47 3 -72 -23 120 -38 8 53 -62 9 -46 -64 31 104 -12 49 57 27 -8 32 -2 -4 -3 44 -15 33 -67 -1 75 5 -79 50 -126 47 52 -58 18 2 7 -33 -13 -14 49 20 -10 -1 25 2 2 9 15 38 -53 16 0 11 -19 30 -12 -6 7 -12 -5 -9 -30 -16 -9 -7 -16 20 40 -19 11 24 -24 35 15 24 -5 0 1 -28 -21 5 -23 -71 8 -6 -11 4 4 -2 -18 13 45 31 -15 -1 0 3 27 13 -33 -25 3 -11 -42 2 -38 -18 17 10 20 8 3 17 -33 18 27 -2 28 -41 23 -12 -13 -45 0 -42 -18 19 -14 8 -42 -13 -26 -15 -16 -43 27 -15 36 -13 -28 15 -8 27 -9 -13 26 12 -27 23 15 -7 20 -46 10 -36 -15 -12 44 -1 34 -59 51 7 26 48 -10 -4 22 15 9 55 -21 -2 0 0 -24 -2 -44 -42 -10 12 -6 0 -62 7 15 47 -26 -6 -10 -14 -17 -10 12 3 7 -11 18 -36 -1 5 -27 34 7 -30 -29 -30 30 -25 -25 43 2 -19 16 46 20 -13 -6 14 17 -9 -12 2 31 -19 12 15 49 -6 0 14 -16 5 -13 4 36 -26 5 15 -57 15 22 40 62 -20 -14 -18 17 35 17 -11 41 6 -12 5 -4 29 -14 24 10 -10 -9 -49 -1 41 10 21 44 28 -53 20 -8 -45 17 27 4 -46 8 -11 -13 -14 -60 -4 -6 2 -32 14 -15 -11
-1 -38 -45 -9 5 -2 -12 -13 75 10 9 0 6 -5 -60 -38 -46 20 1 39 9 13 3 69 15 6 -30 -4 9 1 10 -29 -20 -30 -14 -12 11 3 -5 -15 2 17 18 20 -47 2 -13 -62 -8 33 -12 21 -7 -26 -30 20 6 -4 -33 17 20 -16 -16 48 -9 28 -26 14 94 10 -25 7 1 19 -47 -41 -7 -32 51 -8 14 -127 -31 -39 -25 -63 11 32 38 -19 17 62 13 13 -14 -7 -10 35 -54 -19 13 39 19 23 -34 2 -40 18 30 -13 0 -22 -50 60 -23 70 -51 -47 -58 37 -23 17 -26 -43 -16 4 -18 -25 -11 7 4 16 -36 -11 20 7 -22 9 12 16 19 -8 18 26 19 17 -1 21 -4 -16 15 -30 3 -34 -16 22 -11 -2 13 -8 7 -12 -17 -3 0 14 10 8 6 -5 9 6 3 -1 13 -10 2 18 10 5 -33 -16 -2 17 -8 -5 2 10 42 14 -3 0 27 30 48 58 6 15 7 0 -5 -22 -25 -13 -14 -14 33 21 30 -22 -68 12 0 3 0 -22 -12 5 -9 -16 -12 -12 -48 2 8 17 -52 -12 -19 -14 13 -34 -5 -9 2 -24 30 -19 2 2 39 14 -7 -52 20 -40 -15 -17 -7 31 -16 -1 -5 1 21 10 11 4 25 27 -17 24 2 -7 -8 -21 14 -44 -8 -43 -6 9 -21 10 15 -15 17 -2 12 11 -9 35 24 -42 8 -2 21 59 6 -32 -5 13 114 -4 -4 -4 0 -17 3 -7 34 -17 -16 17 -20 -50 8 9 -39 6 15 -1 -8 18 -7 16 -16 3 9 22 13 11 32 -29 0 10 -12 -12 -5 10 16 -1 1 36 -36 -45 -7 6 16 -16 2 -28 9 -14 -21 11 0 -9 15 -6 -20 -38 -44 8 11 -1 -12 -1 4 -14 12 -3 -1 -29 7 -14 -1 -33 0 46 -20 9 5 17 -18 23 -5 14 -6 29 14 -34 17 -7 -21 -8 5 3 -11 4 25 -13 -1 -31 21 7 -13 -17 -26 -16 -12 -11 -26 3 -38 -13 24 8 22 -8 -33 19 14 7 19 5 4 -6 4 -15 29 1 -19 25 -17 12 17 34 4 30 -7 11 22 -25 -32 -32 -18 3 15 -30 3 -7 -33 -31 -23 -40 -1 -6 -69 -80 15 -91 -22 -9 72 -52 -11 -5 -5 23 -7 58 -22 16 -12 19 -38 -5 84 19 -17 -58 -47 54 -27 12 6 59 -37 -26 -5 -7 2 47 -14 87 56 -25 -16 -52 15 36 -4 -11 3 -9 -8 -20 53 -71 -22 98 24 23 30 72 -36 -7 46 14 27 -21 -9 24 -13 22 -26 1 5 19 28 20 -36 -14 -9 21 1 4 8 -21 -20 11 -6 -14 5 -34 -1 -24 16 13 -4 -2 -20 -6 -19 -20 -14 -12 19 -20 2 -2 -12 4 24 31 26 24 -3 -6 -17 -22 -1 -14 -24 20 -23 8 -19 0 4 5 -5 -25 10 -6 5 -5 20 6 5 -16 42 0 -5 -3 -23 1 5 19 15 18 13 24 13 5 14 -24 -28 17 -18 -5 19 -4 0 -15 3 4 10 -6 -5 26 8 3 -15 1 11 22 -6 -2 -11 -3 5 22 8 -2 13 5 36 -4 26 -22 -21 -7 -22 -4 23 22 10 3 -22 -1 14 18 32 -16 -1 -14 18 -15 4 -2 19 -7 34 -42 8 22 -10 -18 20 18 -21 -26 16 -14 -28 21 13 -4 -40 25 5 3 -20 23 21 -7 -19 -28 8 -3 -5 1 -4 -2 21 -30 4 21 -13 -3 5 -8 -12 -18 19 -3 35 7 -20 -2 -24 -13 18 4 12 13 31 -9 -13 -30 -9 7 -9 -42 16 -6 13 11 -19 -27 9 -41 0 -14 -11 6 -10 -19 2 13 -42 -37 10 18 24 -25 49 18 -2 8 4 1 17 4 -14 3 13 -9 4 -6 18 -38 -20 0 3 6 2 -31 -24 -1 11 3 30 26 -21 14
-40 -6 -28 12 10 -10 26 59 4 0 36 68 21 -1 28 0 16 -12 -2 41 -7 7 10 -16 13 3 12 -22 43 -16 -5 -33 25 -26 21 6 29 -18 -30 13 33 -7 -13 -11 -8 0 -6 25 8 25 -9 54 49 -8 51 -10 -16 -11 -51 17 17 20 -45 48 11 99 1 -39 16 -14 41 -48 48 -14 -21 -16 5 -25 -80 -96 9 26 15 -73 47 23 32 18 -19 -28 -20 9 63 48 -33 79 18 45 13 8 27 -82 -50 11 75 -6 -27 12 55 -6 -8 15 43 -18 -91 126 25 -13 -21 -115 17 38 18 60 -13 30 31 46 -2 9 0 -21 55 28 3 1 23 -5 8 -22 -34 11 -2 43 5 11 -22 -14 11 -9 -5 8 17 11 -42 -10 15 7 1 17 5 16 6 -24 0 -25 15 1 0 25 -8 0 6 3 5 18 20 -2 -13 -3 19 -19 8 11 -18 -27 -10 -25 -37 -32 -10 15 1 -25 12 -12 -10 7 -7 2 -10 -2 -24 -45 3 24 39 -11 -22 20 -4 -17 12 28 -3 -13 19 -19 -17 -15 -30 -27 8 15 19 -60 -21 17 5 2 -5 11 19 -9 2 -29 0 -23 -7 23 -2 -31 -5 7 4 13 22 -20 -4 -15 17 -2 20 2 23 -4 -4 -8 37 19 -37 24 -30 16 -2 -11 23 -28 0 16 6 21 4 -19 4 -20 54 16 -27 14 -8 10 -17 -1 29 11 -5 -3 10 -12 12 4 22 4 0 -21 -20 -4 3 -24 -1 12 4 -6 13 4 -10 8 23 27 -18 -23 8 -21 -16 -4 7 20 7 -12 24 4 21 22 -6 -12 -12 -2 -13 -14 1 -1 -4 5 31 -42 -15 -8 -5 -9 35 5 1 -5 -8 -3 26 -7 5 8 -32 11 -9 -17 -26 16 -2 -9 -10 -8 16 -8 9 19 -23 34 8 -5 5 22 -23 -22 31 -16 -14 13 5 3 12 16 14 -8 10 -11 13 26 -9 -18 30 -4 -2 -26 -33 -11 22 -29 -35 -5 -37 7 -3 8 9 -17 -4 2 -19 -1 -8 9 -23 -16 18 23 -13 10 2 -12 -15 13 11 0 -4 21 -59 2 -27 -23 4 -4 34 24 12 24 -24 19 8 -5 43 -15 3 1 0 21 1 -13 -31 19 -15 -3 -63 -35 42 -52 10 2 2 -34 -15 -18 -32 11 26 32 65 -58 -3 -96 43 32 13 -1 -30 -71 15 -1 29 27 61 -82 66 81 -78 -33 6 24 20 -34 -6 -41 29 14 2 58 -11 -30 36 -14 -77 16 16 -4 34 -28 -36 9 17 26 -5 55 51 103 -8 26 -5 -7 -16 -20 1 19 -29 27 -22 8 7 8 10 -4 32 -24 40 15 2 -10 -41 21 -7 25 0 18 -17 -12 3 6 30 -9 7 4 -12 -2 27 3 31 11 -19 -17 19 7 -2 -5 24 43 29 7 7 8 -6 34 10 -10 10 -28 -20 -3 -16 9 -13 29 -44 16 -45 -18 -36 19 1 -18 -30 21 8 8 -11 10 7 10 -19 -9 12 -19 -1 0 10 0 1 12 -27 -5 32 -69 15 25 -22 11 -26 -30 6 26 -12 -36 -34 6 20 20 -48 -13 39 -36 14 -24 6 17 -22 -39 -6 -19 -22 -1 25 13 20 2 -23 -25 9 5 13 -1 19 9 24 -7 -21 34 10 -6 9 2 -19 7 -5 -14 -22 16 -3 -11 19 -2 18 26 34 -27 -2 -31 -5 -22 24 22 -15 18 -13 -2 -17 -35 -15 40 1 -6 -10 29 1 -1 -13 12 -6 -15 9 -2 16 8 18 -2 5 -5 -2 25 -18 -2 -39 1 -22 18 -18 4 -4 -5 9 -39 -12 13 -19 -24 3 -12 0 -16 8 11 -13 -38 14 -4 -19 8 40 -32 -23 -7 -10 -13 16 3 -11 -13 8 -14 -21 2 17 -19 32 -31 -27 -4 -35 -11 -10 15 2 -19 27 -30 8 -44 -30 -26 -20 -49 -25 48
-52 87 34 59 -13 -62 39 36 -17 -60 -70 35 -37 51 -34 46 17 5 18 17 -82 10 -18 -5 -62 66 -105 -83 87 -23 76 -53 23 -3 65 33 17 14 -20 86 4 -24 -51 61 -14 -22 -6 -14 -36 -59 43 18 6 6 -45 -56 -4 2 -46 -13 21 -12 -11 -47 -27 -11 25 -14 -7 -75 -9 -66 23 64 47 17 -15 -40 17 38 -2 53 45 -57 -56 39 -5 -43 -60 102 -20 0 44 26 -37 35 10 47 3 61 -27 41 6 -19 50 32 -17 18 -17 -89 -6 -27 -24 -3 12 9 31 37 -42 -52 -90 -4 -17 3 25 -77 32 -17 -14 -127 15 66 7 38 62 -13 11 -8 -1 -56 -26 3 26 -39 8 -44 2 86 -1 -1 46 66 100 20 30 -44 -81 -47 67 -33 32 -29 16 35 39 -1 -23 55 -84 -8 -33 -21 -44 -49 3 26 -13 17 9 31 -35 36 -2 -24 -17 25 12 -1 -1 49 -18 99 -51 -40 -7 69 -36 52 14 -12 22 -59 42 -25 17 6 47 -58 -38 -34 0 22 29 -1 4 23 -7 47 55 6 -67 26 -16 -9 9 -9 35 12 -40 4 4 40 -8 0 -34 1 8 -31 -8 -28 -7 4 -14 -44 5 9 49 -24 21 -35 28 -21 49 -63 35 7 -23 -8 -36 -21 41 -48 -31 -72 1 -43 -19 16 -26 55 28 -25 -40 -15 36 5 43 -2 41 -13 12 3 40 -14 -10 -41 -6 -1 -28 19 -5 -10 -63 -15 -30 22 13 9 47 7 21 -6 19 -1 -8 -35 -29 20 16 -11 7 -12 -47 -9 26 -25 -33 -6 31 -37 -68 26 15 28 40 -62 44 -8 33 40 38 -47 79 -17 22 81 3 -54 38 1 -29 27 -37 40 7 21 15 21 -18 46 93 59 14 16 31 -46 -1 -24 3 -69 62 77 22 12 -40 10 74 53 20 1 -19 -50 -6 87 -62 -25 64 27 61 -38 14 37 6 14 13 11 72 -66 -32 -45 12 34 84 -58 47 21 -4 -9 -53 2 65 -39 -71 23 12 88 -72 -44 -26 -29 37 -95 -47 30 -74 -33 -49 -38 86 -51 -64 -36 -21 49 10 5 86 33 57 -66 1 4 3 6 53 113 -5 33 54 17 51 38 10 -1 19 -13 -47 25 20 -80 33 50 -56 -32 8 88 32 -1 -45 -17 64 -78 18 36 19 -15 39 -51 -62 13 65 -8 -15 -10 114 -13 -43 -63 74 -25 -34 -44 -37 20 15 38 18 -71 -9 7 60 -53 12 44 51 -12 -48 -21 -24 6 23 18 -20 12 22 5 27 -9 29 -36 -12 -1 81 -19 -13 27 -64 22 -33 -17 54 -72 -85 -98 -29 104 13 25 56 -21 41 -69 -29 -29 16 72 17 38 -43 -49 -105 -61 22 -46 -48 -22 -30 42 -32 -112 55 -31 24 42 35 16 21 78 33 -1 37 -24 18 -48 -26 3 41 28 15 -70 -1 51 11 96 -53 50 31 -57 -37 39 37 54 14 -8 -101 -32 24 -45 4 -18 0 -23 -21 3 -36 -28 -22 -27 -4 11 -1 42 22 -7 -16 -46 58 23 -1 -93 -37 12 56 28 -52 -41 56 18 -24 15 -23 -48 -50 -21 5 -29 53 -7 -20 -34 -4 -20 -49 -26 -47 -43 -40 -6 -31 40 83 -59 33 6 0 13 -62 -43 30 87 -1 -1 -60 -61 -16 -4 42 -23 -9 20 30 5 6 22 -20 32 -35 13 14 -72 -49 12 -14 -82 -16 -43 -34 -75 -65 -21 68 15 -21 55 -71 -64 1 36 -31 41 25 -74 -29 58 85 29 33 4 17 29 10 42 -34 -96 -37 -75 49 25 20 -6 -50 21 -23 84 16 104 7 -26 10 9 -9 6 9 45 42 105 22 -20 48 -15 -1 15 45 24 58 -11 15 -39 47 39 52 -114 -31 -62 14 42 -20 -4 113 -48 25 -37 15 -50 53 37 -29 -58 -6 -58 64 18 39 14 61 -10 5 -31
31 6 19 23 -21 5 1 -25 -54 64 -21 27 -65 24 -49 39 62 46 -66 -38 -46 7 3 1 -39 -52 -57 11 28 50 5 23 -12 1 53 24 52 87 -33 39 4 17 -11 -50 15 -48 3 51 -30 -29 -51 15 2 103 58 28 56 35 -45 -28 20 3 -40 39 -3 -37 21 77 100 -55 -113 13 -31 69 -8 -52 -43 11 8 69 18 -26 58 -16 -82 16 -58 4 -39 -27 -34 11 -15 49 8 6 11 -57 -91 -30 -16 -51 -7 10 80 55 -23 53 -34 5 50 -18 -5 1 35 50 3 -37 7 -66 -11 29 -62 5 19 6 -75 -15 22 27 -32 7 -23 -30 -82 -3 41 -16 10 -35 49 9 -23 -36 10 4 10 -13 -39 36 -10 12 7 -51 -28 19 50 7 -8 24 -9 32 16 13 -5 -9 -8 9 13 -16 21 32 -24 -47 -22 -34 29 16 -23 -24 8 47 -18 56 74 54 -28 4 14 43 29 -44 4 -6 42 19 24 8 0 -28 -28 58 -8 2 25 13 2 -20 10 -10 -43 37 10 -7 -48 84 10 -40 3 6 -14 5 26 -43 20 46 30 47 34 40 41 2 1 23 -54 14 34 22 1 24 -63 18 -61 -1 0 20 12 37 -24 -16 3 -2 -34 15 66 41 34 -46 -47 -84 -13 38 -10 -35 1 -1 13 -32 6 -20 -71 -7 -10 -15 7 47 41 6 11 47 19 21 37 17 2 24 -39 -6 -20 -36 13 37 20 13 -10 -10 1 -1 -10 -17 -44 34 -39 49 52 -8 59 -33 12 13 10 18 24 -13 33 7 16 13 37 -9 53 -14 -41 -11 54 23 -33 -30 62 13 -2 -32 33 47 -24 -21 2 -26 -25 -30 -26 6 60 56 -2 11 25 -14 -46 -28 -24 30 -30 -6 20 27 46 -12 -6 24 51 24 68 -5 18 -15 -5 -77 14 -42 23 5 5 29 5 64 -49 -35 -15 76 7 8 -47 -16 19 37 -3 -31 35 6 62 28 3 31 10 11 -11 7 56 44 -46 18 18 -13 25 -11 2 60 -7 -30 -49 -26 41 -36 -14 76 21 -23 17 21 -27 -24 74 2 -7 -34 44 28 47 45 -52 16 -30 19 -19 14 19 -12 -31 62 -19 -24 19 7 -57 -6 2 28 61 75 -53 -41 -63 -13 5 -43 6 -2 -37 -88 60 -43 4 -21 -3 -78 0 -37 4 2 19 -33 -7 16 41 10 -19 -5 -27 -15 34 37 16 80 2 55 -36 11 22 56 16 -22 -63 29 -19 92 -2 37 -70 0 27 37 -7 -109 -7 97 -46 -40 2 32 27 -7 28 -21 27 44 2 -30 -7 -1 -53 -31 -32 25 -28 3 -12 0 -12 -7 -79 8 -15 -2 -78 -65 15 -24 9 52 9 111 -30 -9 27 26 43 -27 -24 -75 19 38 -44 41 -10 19 30 -22 57 76 -8 3 -65 -4 20 -81 -24 10 -53 1 6 50 -41 -8 -47 17 56 9 41 -37 -18 39 -37 -28 4 -5 -20 27 16 24 -47 -23 -29 28 -40 24 -9 30 68 -22 0 -9 27 -34 2 -46 15 -35 -20 -17 32 23 20 -15 17 -17 0 16 -10 -33 46 -12 23 -12 -33 -30 16 -29 21 62 2 -15 -54 -15 -31 4 44 16 0 -22 -45 23 9 60 -47 -14 -13 64 19 45 -60 -10 -10 24 15 -2 26 4 13 -27 11 5 -83 42 -68 5 -4 43 -10 14 39 -64 -1 19 25 22 -13 85 -19 -21 12 -12 -74 45 -19 22 20 -18 -85 33 -11 -47 12 32 -8 15 14 -41 -24 -2 -63 -21 -20 21 -17 21 76 11 4 38 126 15 29 6 69 -68 11 -35 74 -8 -14 -18 34 46 39 21 -50 -29 -16 -78 -96 13 24 -94 -15 -32 -58 69 22 -9 -44 18 -19 37 -15 48 -5 -70 -5 8 0 20 -77 -41 1 2 32 3 17 4 -13 -7 9 15 -18 27 22 -48
35 14 10 -14 20 -61 -36 5 45 36 23 -33 -54 -15 -9 -1 -67 11 10 -91 -20 -20 8 -48 11 6 -12 -6 15 -25 -18 53 -17 -28 -8 5 -47 8 15 24 59 10 5 8 5 0 47 61 -23 -55 -2 -6 -82 -5 5 -34 -21 10 61 -9 -10 -34 -27 -14 69 -53 25 0 -44 7 43 -44 27 -5 -19 -34 1 3 68 -52 -79 -4 0 -82 -2 -7 5 -69 -25 -1 9 31 -7 18 -19 -60 -15 34 7 78 -13 -19 74 -4 0 6 29 -2 23 10 9 25 -56 1 -15 42 62 -43 75 43 20 32 29 7 -34 -74 67 11 18 -41 -39 -7 -32 19 107 -2 -29 -6 29 -32 19 19 44 3 -30 8 58 -14 -7 -51 -38 50 -42 52 80 -7 -46 34 -27 -21 1 -47 -33 10 83 -38 102 59 3 64 -3 43 31 -15 -8 -77 -18 -10 -32 -17 -17 -6 -16 62 38 0 -8 -30 27 -41 26 -35 -27 18 -17 -23 -13 -1 -21 16 19 57 -26 6 -14 -14 -48 10 1 4 16 39 39 -53 49 26 29 2 -3 14 -20 10 17 28 -27 -4 -21 -3 -6 26 33 -27 -40 -33 47 -29 -27 28 51 -11 18 -32 12 60 -3 -5 -29 34 37 -7 8 -25 -18 -4 15 12 -24 -15 -2 -51 56 50 -10 67 21 -45 32 -20 -8 30 -3 20 90 2 27 37 -43 -17 29 -22 -28 -8 40 -21 13 30 -15 -15 23 -62 -16 18 13 -16 -13 -17 -13 -18 -18 -11 -9 -20 -3 -22 1 -72 37 -37 56 34 11 13 -41 29 -25 8 4 8 -22 16 9 6 -42 -35 -2 24 19 -26 -11 19 -5 -15 -46 41 15 50 -4 -5 11 -19 -59 30 -94 -24 -36 -88 14 9 -35 24 -2 -1 26 33 -9 18 27 2 9 -6 -8 -68 30 25 1 20 20 14 -68 -19 -27 16 -21 10 4 -39 30 51 -31 3 2 -39 9 35 -19 -34 -23 36 91 -4 -18 55 -13 33 11 17 51 21 22 8 -1 -6 39 -26 2 -3 5 -1 3 -33 26 -37 -27 34 -17 75 34 9 34 33 4 33 51 17 6 8 -4 39 -80 71 -9 34 -42 -1 -28 -27 7 -35 11 -22 3 -13 -41 -25 -10 24 33 -4 34 -1 41 51 23 12 -3 5 70 10 33 -39 -19 -100 -57 48 -22 8 3 -15 -60 21 48 -27 -19 -16 -9 -17 -32 28 -59 -60 -37 -16 2 28 -1 47 -25 29 -22 4 44 7 17 40 34 5 48 8 24 0 -4 49 21 4 -11 -28 19 1 -4 -22 37 -30 -48 19 -6 13 -24 -69 -21 -16 100 15 3 -84 13 23 27 -43 -33 28 -22 61 3 23 -31 48 37 24 -14 -31 30 17 -39 32 10 38 -24 -18 -40 -28 -11 -64 22 8 33 5 44 -9 -12 47 -12 -21 -20 14 3 -10 -10 -59 -40 1 -11 -17 -34 50 3 9 27 -21 27 -57 -4 -64 25 -12 -16 -57 64 -4 -13 33 -25 5 -7 8 8 29 18 -68 0 -8 -8 -9 39 12 -43 -44 -17 67 -2 -35 -22 -39 28 -1 -67 -77 -31 26 -11 -2 -47 -3 -29 -45 -1 40 33 -1 2 0 22 39 22 26 -26 90 -44 -12 22 -21 -10 -1 -4 19 -28 46 81 -58 -13 3 -13 -23 -60 -38 31 -4 18 35 5 -11 48 -14 -38 -16 -20 27 96 11 20 -7 -2 34 53 -1 41 65 50 -67 19 5 -27 23 3 -22 52 20 24 -33 21 -57 21 -38 34 -9 24 0 7 -42 -64 -44 76 -56 22 -36 46 31 -5 6 80 44 -58 -8 2 62 -31 30 -2 -77 -55 43 54 -14 34 30 12 -18 2 95 80 -18 32 -21 -76 73 21 -84 -36 32 -49 14 -4 -59 -57 7 -33 -36 5 29 1 12 7 -1 59 -21 -21 -7 50 15 -73 -127 -75 -17 21 -5 4 4 -70 -5
-1 -28 -22 -56 -8 -34 61 -17 -16 20 -32 0 -8 1 38 4 9 9 14 -38 -41 12 -15 23 -5 2 33 -13 3 4 18 -10 8 -10 -19 39 20 2 14 25 34 20 -19 -12 -29 27 -10 -11 -96 54 39 6 -63 27 -41 38 5 42 8 2 12 10 63 5 45 43 11 5 14 -3 -29 30 -28 -34 87 -21 -26 25 -28 10 -7 -42 -31 34 -23 8 -33 -8 52 -18 32 -3 75 25 -39 24 -74 -3 -32 -21 17 2 27 68 39 58 -80 -42 -67 -4 -51 22 -33 -13 58 -78 -7 0 -2 87 -20 -10 34 9 -34 4 0 -14 -6 23 -58 -66 -42 -10 -17 -64 -37 -24 -14 -9 -19 34 -7 20 81 11 20 -49 18 12 15 -54 3 22 -7 -19 -19 -61 -60 -3 -32 -16 -19 5 0 21 -49 1 -37 -12 7 18 1 -17 -69 -17 23 37 -11 -17 -43 -30 35 -8 -22 -22 -4 9 44 8 -12 14 -4 -15 13 7 -25 -21 -10 6 1 16 3 37 -3 -34 -33 -26 19 -49 34 -43 -93 -14 25 -2 15 -32 -3 -11 -22 2 19 8 24 5 -8 5 -2 -18 -7 -24 26 27 -6 -15 17 19 -37 13 40 27 -24 1 -35 13 27 -9 -18 46 -31 4 -14 16 -18 -25 -22 -8 29 -24 -23 -12 -19 36 40 14 -4 3 -33 -20 -10 -10 -33 -12 -32 -13 6 6 -39 11 -3 -26 24 3 33 -3 -22 5 20 25 -5 14 13 17 5 12 -42 -32 -3 -2 21 6 -14 7 26 12 31 1 -6 -15 3 -13 7 10 -2 -4 -11 -1 62 55 11 15 40 -18 -48 -6 -23 31 34 8 18 -24 -31 57 2 -4 10 -20 -55 55 -5 -21 56 -20 -12 -35 -22 59 39 -4 -5 4 35 5 7 -12 -11 -3 -41 -16 18 0 -44 1 16 -6 -28 -42 -9 37 -23 -21 2 10 -20 42 -7 5 -15 -20 3 31 -31 -2 11 -38 -9 38 -7 -10 -76 28 -53 11 3 3 35 16 13 10 -26 -3 -28 4 6 -16 -6 -23 63 -5 47 -14 89 44 -23 -68 2 6 11 1 10 -2 19 4 -2 -48 14 -4 19 -4 -17 -15 -12 -6 55 -2 -7 -16 -6 -5 28 49 -35 -9 -2 -40 -13 12 24 -20 55 -25 -38 -14 32 -34 -56 -4 2 7 4 38 -21 -14 -34 11 -26 -4 -14 -3 30 -9 -22 54 30 11 -33 53 19 52 39 -8 38 -4 17 80 -21 12 0 -24 -34 -1 -26 15 -27 53 20 -17 9 -68 19 -32 -1 -31 20 3 -8 -27 -9 -32 -23 20 23 -3 41 -14 -3 -3 -11 35 29 -4 -4 -28 -42 29 3 26 -57 -29 -69 -38 -1 5 9 -41 -12 -18 31 9 2 -23 9 -50 47 13 -19 -15 -51 -15 -14 12 -24 -28 -6 29 -30 10 -29 29 -49 34 28 -40 63 -10 -23 -46 -45 35 47 3 -33 -5 10 52 1 -8 15 -25 23 1 4 27 -3 27 -9 1 -30 -2 -29 -30 40 39 -33 3 -6 -37 -30 -29 13 2 -12 6 68 51 18 -5 3 -7 -13 -27 12 13 25 -63 15 -19 55 -30 62 5 -23 17 6 -17 -30 59 59 -2 38 -31 5 5 16 8 -19 -22 51 -43 -35 45 -21 -42 11 -53 38 -2 21 -18 38 42 -4 -35 94 39 -17 -17 17 31 68 18 -31 14 -8 20 -2 4 -21 38 32 36 -41 -29 -2 -12 -1 30 -15 70 24 35 -25 -15 30 -49 -19 -5 -15 21 -1 65 -19 -1 2 -21 -52 2 14 -14 34 32 33 -22 -63 -6 -15 78 56 -21 63 56 40 -46 -26 -11 24 -50 -9 -49 -28 51 -20 17 -8 -22 -17 27 41 8 8 -6 38 17 -3 31 -1 -30 33 0 -2 59 -22 50 -19 60 -46 79 3 6 34 -4 -50 14 -8 15 36 -4 22 16 -127 2 -36 -16 62 54 -39 8
15 -40 -27 -31 -4 -7 23 -25 -49 -7 12 61 60 17 18 11 20 -27 -43 -11 -4 -29 -4 29 -44 14 -2 -15 20 20 73 7 6 -40 38 60 -8 -21 3 -21 -44 1 -46 52 -43 -28 10 -35 -14 16 26 -13 -26 35 8 -20 7 -29 37 10 30 17 -17 36 36 -25 -16 5 19 21 -7 78 -14 -51 16 9 -31 -10 -37 27 -13 15 -23 -50 -17 -55 11 31 -19 65 98 -50 45 -16 14 6 32 78 24 -10 16 -25 -34 -15 27 31 78 -106 -32 1 3 13 32 4 32 51 53 69 -27 -40 5 16 31 15 62 -10 93 -2 15 6 -30 20 18 -3 10 0 -26 0 -6 1 17 -3 -10 31 0 -9 -11 2 6 2 -17 12 -16 -5 -43 49 -6 18 35 -13 -8 -8 17 9 14 -6 -49 19 -9 -24 7 -15 9 49 18 -10 -16 10 -17 -11 27 -22 -7 -47 -6 -13 30 -4 -12 13 -16 18 -7 -13 1 34 -7 22 -49 5 -20 7 18 0 28 6 -16 3 18 27 -6 2 8 -11 22 0 7 6 25 11 22 36 19 -39 22 14 18 -21 -7 -20 -27 -19 24 12 -2 -8 14 -24 6 -15 9 -9 5 51 -4 -2 -30 11 -11 -9 18 -32 -9 22 -7 64 -36 24 -8 6 -35 -12 9 -19 26 31 -12 -7 -2 3 -16 -30 -38 -22 14 9 -22 12 -4 10 -3 1 -21 21 -1 -9 -17 -47 -18 -11 -1 34 24 -9 47 -3 8 -12 -40 -18 50 19 15 -21 8 7 -7 -13 -33 -16 21 21 3 0 6 10 4 -29 -4 -2 -28 -16 27 -24 16 -4 1 -22 -29 -9 10 20 -6 -1 9 6 5 -9 22 -1 -6 -13 6 11 -20 -19 -17 28 24 -18 -13 -4 2 -4 -21 3 3 -14 -14 -8 -22 -2 -13 -6 -12 30 14 16 3 -7 0 -15 -6 11 -26 26 43 -20 7 -6 -6 -8 8 -4 -2 -33 -31 33 12 56 -50 19 -27 2 -56 15 1 -7 41 10 -33 -13 17 2 8 34 2 7 -7 -20 -42 4 -6 -1 -6 5 -15 6 -14 -6 8 -4 13 18 71 10 9 -23 3 -3 -4 -21 -18 12 47 -17 17 4 -26 -7 11 25 19 24 8 17 1 -23 12 18 -8 62 -41 65 116 -61 31 -91 5 35 6 52 35 27 34 35 -11 25 33 12 12 -31 34 -16 21 59 -9 -97 77 5 60 -107 106 7 47 -57 -11 -37 20 -28 -12 90 -2 2 78 3 -27 54 -3 -3 11 38 -42 -65 19 -7 -4 8 10 100 126 22 10 -22 10 -21 1 30 23 10 -3 -6 17 -17 8 2 12 -3 3 29 7 25 17 17 -12 -7 15 20 22 3 1 7 -68 1 -4 -26 11 6 -14 -6 14 -31 21 5 -21 4 14 27 18 3 -20 6 -1 7 1 8 -25 21 1 -1 -2 1 -20 8 -7 -16 -16 -30 -7 16 -52 -24 -16 41 31 -24 11 -25 -7 32 17 23 14 58 -4 -33 24 -10 35 -44 6 8 -10 9 -15 27 -3 7 -26 0 -13 38 9 -1 23 23 -8 -27 -19 -15 -17 -32 2 15 -30 17 -23 11 19 -7 -17 31 18 -5 9 4 6 -10 38 -2 -14 -16 6 4 16 15 14 14 13 4 -4 10 -16 -23 -27 25 11 5 25 17 -5 -8 7 30 6 28 -19 -27 4 -13 10 -4 13 -4 3 26 -6 8 20 -4 -1 16 -13 26 -11 22 13 -43 -17 4 5 -2 7 -23 10 -16 31 18 -2 6 -4 7 0 -14 -28 11 -37 37 -21 -10 18 25 2 17 11 -23 2 23 -1 9 24 -41 -27 46 46 12 -33 -52 -17 -41 -15 -23 25 35 50 -9 -21 -44 -12 -11 -12 37 5 -2 -16 35 16 -27 -14 7 1 -7 46 27 -4 3 8 -37 26 -18 -27 -1 -29 -9 -25 7 -41 -51
4 -23 -22 -27 29 -54 33 4 -37 21 22 3 -24 -23 75 11 4 -11 9 -78 24 15 -46 -13 33 37 2 -3 -13 -40 -16 33 -29 -29 -57 45 -52 -19 10 36 -15 13 -12 58 1 57 1 31 29 -55 -25 11 70 17 -4 13 -16 1 -34 27 -68 38 4 -12 -45 9 -3 -3 27 -18 34 -22 -38 6 -15 -1 -14 2 -28 17 -37 1 34 -13 69 -14 33 51 24 -12 -29 46 9 -72 33 23 5 -17 -44 3 27 -50 39 -13 -32 11 35 72 27 -11 -18 23 26 10 -52 78 58 28 41 25 15 9 0 -6 22 -32 -41 -37 -16 0 -27 4 -4 -27 20 10 -22 4 -24 7 -7 12 -16 14 -20 10 7 -29 -31 0 -19 19 24 -4 -7 -18 15 32 16 8 -17 -9 18 -7 16 2 5 24 8 0 -5 -29 26 -7 14 -17 22 -22 3 -23 37 0 0 0 14 23 13 -27 0 -1 36 -16 37 -45 -15 20 17 13 32 2 39 -21 -2 -24 24 12 -31 23 21 6 -41 -42 45 -14 12 13 18 6 6 25 -11 -14 11 -9 -15 -22 16 -21 -25 -6 11 6 -40 7 4 -36 36 -8 4 -43 25 -51 -7 -27 -15 -23 3 -17 27 26 -8 27 27 1 -30 -16 18 20 -28 17 -28 13 -7 27 -16 3 -9 34 -39 12 6 -3 20 51 2 15 39 -14 -5 -44 -16 32 -22 0 -16 28 21 10 -33 -8 58 -22 12 -15 -32 36 32 36 -3 -9 57 34 -24 -9 -37 -22 -11 4 22 -19 8 -35 24 -4 29 15 -2 -3 3 -67 4 9 4 -23 14 -11 -38 1 7 11 10 6 -21 -4 10 22 -25 18 -1 -3 19 25 34 24 -11 -3 8 -24 -8 15 -27 -9 8 7 -10 22 -5 -2 -9 -7 4 -7 3 25 10 -10 13 -17 -19 -27 -34 -19 14 14 -8 -13 -37 6 -23 -24 16 -10 -2 23 60 18 -28 -22 13 -18 1 3 2 44 47 -9 -6 -19 -7 -58 -14 6 -6 13 -17 -6 -22 -35 -6 20 27 -7 -6 -20 -39 2 19 23 -24 5 8 -11 -25 16 -56 -3 -39 15 41 -6 12 8 -8 -11 5 -13 6 8 21 -24 33 -13 4 -37 9 29 -35 -35 -37 108 46 -25 15 -33 13 6 38 30 21 -2 10 -36 -4 26 17 -100 -3 -51 40 32 -47 -87 9 -30 26 46 13 -19 -10 63 -39 -9 -9 -46 38 7 126 74 6 -61 2 107 -32 -68 9 12 56 15 56 28 11 1 51 0 14 -23 -42 -18 -28 21 -5 7 1 22 27 -7 32 -2 27 -16 4 -26 12 -11 -23 -9 15 -7 -21 -22 18 18 9 10 10 -12 4 17 -33 -13 4 1 -11 -5 20 -3 -16 2 -36 21 4 -1 -6 -4 -21 2 -24 -18 -9 2 -25 -21 7 -21 18 2 -34 -20 5 -5 5 28 -14 18 -38 -42 -2 33 9 14 -16 18 32 -31 -22 6 28 7 -11 4 -16 8 0 -17 -18 25 43 -39 35 6 -1 -10 19 11 27 -9 12 -4 18 7 37 -9 41 -10 -4 30 10 -8 29 21 -9 22 25 -12 -1 18 -7 -2 -2 -3 2 4 1 -8 23 -8 -30 -10 -12 -20 6 0 16 16 8 -6 -24 14 13 11 -10 -10 -14 37 -8 23 4 -12 34 -1 -23 14 -6 -8 -6 -25 7 -7 -6 -7 8 3 -7 -12 10 -21 3 -5 7 9 5 -8 -9 8 -24 -9 14 -12 -15 4 6 -4 -18 -6 15 -13 -9 -9 5 -7 21 6 -29 -5 -20 -20 15 50 -6 18 28 -1 -9 -20 29 -27 44 9 5 -20 23 10 38 4 5 -1 12 47 1 -12 -1 -32 24 7 -11 -7 6 -11 -12 19 18 9 -1 -17 -11 -39 -5 2 -1 -11 14 -7 -27 6 -21 3 6 -3 -24 -39 -28 -26 2 1 -24 3 8 -24
79 -29 -4 17 -13 46 1 17 -22 22 -47 -28 -16 -39 -28 6 8 -27 -34 1 48 50 9 -8 71 -9 -22 -6 -68 81 2 8 -33 -28 -62 -43 19 12 -16 -64 -58 -61 15 32 54 -22 -44 -2 -21 5 7 -19 -19 -43 -67 2 6 -31 -42 31 -1 -44 -32 70 20 66 9 -14 61 6 -21 32 26 30 3 49 19 -44 0 63 26 -25 26 33 35 58 6 -2 -15 -30 -69 -44 -31 50 -5 -18 -80 -94 58 -13 74 24 2 -15 -29 7 31 80 23 28 4 3 27 -115 -42 -43 -19 -127 -6 -53 -13 -15 66 13 -57 32 13 53 16 -15 58 0 -1 -3 -63 -64 7 -25 -24 65 28 -2 35 -36 27 -38 -30 10 41 -9 39 8 -20 4 54 -28 -33 -4 -32 60 -49 -32 -67 -1 0 -33 39 0 -43 66 -25 -79 33 -3 -7 -3 -52 10 58 121 -8 7 36 76 20 -12 -14 28 44 38 -6 -8 18 -9 -32 35 16 7 27 44 -5 42 14 -2 15 -20 -14 40 -25 88 -26 -56 -76 -2 5 2 67 34 -1 -47 -28 102 20 -40 -22 -20 6 4 -14 2 10 17 71 41 -19 -30 -9 -10 32 19 35 -35 16 43 23 -36 -27 29 -24 -3 -22 -32 -26 34 45 -69 13 11 -27 -15 32 10 -28 -38 -19 10 -53 15 -14 18 24 -58 -7 25 -20 -34 31 -1 35 13 -26 11 10 50 13 -3 57 -31 15 31 -18 39 14 -8 -25 -2 32 -18 13 12 -12 -17 -1 -11 -38 1 -8 27 -5 -15 -53 25 0 36 42 -70 -15 19 -61 -25 -47 38 1 -5 35 -16 2 7 12 -39 20 26 16 15 28 -21 -72 39 -9 6 9 28 -57 13 29 -16 -70 0 9 31 10 -9 25 25 -44 -49 52 17 31 -23 -105 -11 -13 -16 94 -1 -32 36 -77 11 -12 -53 43 -18 -13 63 -35 24 -49 10 -79 3 42 -85 -30 26 24 28 12 10 -9 55 23 -33 -34 29 -13 16 21 40 92 -45 12 67 52 -3 -1 49 -32 -44 -55 17 -39 17 37 -24 -11 -76 10 22 -31 32 -18 -20 -13 66 16 -51 -10 14 16 4 -13 -53 10 9 20 -23 14 -1 -8 12 -14 12 7 -59 -16 -9 25 -19 -55 -78 40 -44 -73 10 40 -13 26 -21 -10 23 -29 -24 2 73 90 65 14 26 -18 -38 -60 -3 16 -24 61 -38 -21 -33 21 56 -1 -11 21 -31 75 -9 -14 -6 31 -3 10 -47 -21 11 27 -60 -63 16 42 31 25 70 20 1 -105 25 36 49 -2 -13 -47 30 -45 -39 -23 33 -1 -35 -87 -9 39 -14 -23 5 5 69 30 -10 11 41 -6 -4 72 19 21 -47 -9 -1 -40 -9 -25 -64 10 35 -32 43 125 -24 13 24 -46 40 43 43 4 2 -13 -17 20 87 61 -60 18 70 30 -70 5 43 16 -9 26 -31 -61 2 50 -28 96 -44 2 -22 38 3 5 27 25 7 -24 26 57 -7 -43 -6 27 -64 62 59 20 -16 -26 34 -19 -23 -69 -43 19 -8 33 10 -73 12 6 -28 39 68 0 24 -15 5 -55 65 24 51 8 10 -1 -36 -1 -33 -43 -23 -6 21 33 -5 83 63 -25 10 76 27 0 34 65 -19 35 -11 -20 -25 -91 7 18 29 -12 -14 23 27 -47 2 11 -25 20 -33 -69 17 -20 20 46 26 0 -33 -24 41 6 36 0 52 22 25 55 -19 33 -13 -30 31 -33 62 -34 8 87 -11 -15 50 -18 -66 -45 9 30 15 62 22 16 11 1 -14 9 -102 -109 29 -21 2 7 -23 -5 38 -21 10 -26 -9 47 33 -8 -25 -22 -36 -10 -51 14 3 -12 66 42 -17 -23 68 35 45 43 126 -23 0 -54 -59 2 23 10 12 -65 75 -7 39 51 17 44 41 12 13 -50 -27 60 85 65 13 1 -7 31 -48
11 57 37 -13 -7 6 -99 -35 -21 44 45 -3 73 20 -34 -32 36 11 2 12 -56 43 -69 -9 13 -67 -72 -38 77 -9 4 65 33 34 -24 48 13 107 -40 -22 -81 -38 -37 54 -65 33 -64 8 -54 -41 17 -6 -20 -11 -3 14 50 -25 -17 3 -103 -36 4 -36 -35 79 -51 19 43 -86 47 10 22 13 -26 -23 -32 24 41 -38 -3 43 -27 -32 -24 13 -3 19 42 -6 51 38 -10 21 5 -57 -14 21 13 4 -56 28 110 -20 1 53 56 -46 99 30 -4 25 -57 -11 -50 6 -64 2 23 63 -15 12 -127 31 -37 -11 3 25 4 14 42 11 15 14 -31 -12 -11 4 -17 22 -15 -5 -11 8 -19 44 -18 -31 -14 -19 -1 -23 3 6 7 11 21 -3 40 -24 -20 22 -23 -8 -11 -15 23 -2 -24 4 62 -24 24 8 -23 -8 -16 -20 -5 8 26 18 22 -18 -9 28 -30 -15 15 -12 -6 -3 4 -17 -29 56 -4 18 10 -1 3 19 29 -6 -1 18 -5 4 -49 28 19 54 2 4 -26 -18 -63 -23 18 -13 13 7 -8 -42 -11 -18 -43 -13 7 -16 -7 -13 32 -29 34 -25 21 27 9 -3 39 -11 44 -21 -38 -7 -10 -2 0 -27 -11 -11 22 -22 19 2 -3 1 20 0 -21 5 -17 -51 -10 -7 -15 22 -11 -21 -14 -4 11 -4 25 -12 35 4 4 0 27 18 -17 38 -1 -13 43 -6 37 16 -14 20 -20 -17 -8 59 18 24 -17 -26 60 -2 -5 -13 25 -12 4 6 20 19 0 -25 21 -8 -7 -14 20 27 -15 -8 -4 -9 3 -12 -26 48 -2 -7 23 4 36 12 2 -4 19 11 10 5 45 1 18 12 -42 -1 2 9 3 28 -7 2 -19 -9 5 4 20 2 -10 -21 -11 -13 -36 -5 11 16 -5 30 -40 -5 7 -1 19 -10 29 7 -8 7 20 -13 -16 -13 3 5 -30 5 2 -15 7 3 32 -24 -9 -17 -12 -18 -9 -54 -16 -11 -1 2 -28 -35 40 14 39 6 32 -11 -2 -31 -5 32 -28 24 30 -30 -30 -11 25 -9 -31 3 -14 16 99 30 14 -2 0 2 -11 -14 19 -41 6 36 -38 -7 14 -17 -16 -8 3 -42 49 -72 12 -7 96 -19 67 -24 -110 53 23 25 37 31 -50 -47 45 66 -76 58 66 93 41 53 20 69 -12 -37 22 -8 108 120 9 -57 62 -75 -50 29 10 27 -113 62 13 -102 6 28 -67 -29 -6 -55 -113 58 75 37 20 -103 92 11 4 59 23 -88 9 123 15 59 -123 -43 -44 10 4 4 16 1 21 17 -16 11 27 -23 1 9 -4 17 37 -10 28 16 22 -1 13 31 17 12 -12 -2 -17 -7 19 17 19 4 -23 18 -9 -25 13 1 -4 -16 0 -7 34 -21 14 -34 43 1 8 -17 5 7 5 -12 8 -35 14 13 1 -13 15 -8 -3 13 9 -4 11 1 -39 31 43 29 34 -22 -35 7 -53 -26 0 -11 -10 5 88 47 10 37 0 11 17 31 -7 -29 5 -17 50 -11 13 -23 38 -5 39 -36 -16 4 14 0 -15 -20 12 -4 -11 75 -30 -15 9 3 -56 -24 -5 35 7 6 18 3 -35 14 13 -8 53 20 7 13 -3 36 5 0 -41 6 -19 34 6 9 4 28 -23 -5 2 -9 -34 -63 21 5 9 0 -24 1 -13 -31 29 -34 -9 -44 32 -29 19 39 -18 25 3 -12 32 10 0 -21 -23 -17 -19 15 29 14 -7 -3 -23 -13 -20 15 11 -5 -9 -9 32 20 -2 1 37 53 5 -43 1 1 39 14 -60 -7 15 -12 11 -22 31 -50 67 -15 12 -17 -33 -22 4 -13 31 -20 -2 -13 3 8 -2 -2 27 1 -39 -28 -11 9 -25 8 -9 46 -10 22 9 41 23 0 6 -43 21 22 81 20 20 4 0 14 -2 -6
-31 -23 -38 38 30 4 56 81 -42 -21 -38 -19 72 26 22 48 4 -42 -24 -10 11 -29 -12 -9 1 1 -13 -88 -23 25 -21 80 37 7 30 -22 -21 -32 -33 -80 41 19 3 84 -20 -1 -50 -78 0 35 6 -1 5 10 -50 66 -30 -1 -30 13 5 34 39 -67 23 38 -64 15 -47 -18 83 72 -58 35 -24 14 -65 20 -9 7 -32 70 -25 -17 -27 31 25 15 11 -31 -5 23 -25 -42 -2 -10 -5 -25 10 -59 -12 -64 7 36 36 27 -36 -14 -25 -5 22 17 -8 -10 -16 -53 -28 -7 90 -25 32 -48 -34 -40 70 42 -14 30 -4 30 18 -9 -16 -6 15 -18 -23 16 23 -14 33 13 -10 -16 -12 16 -18 9 29 -4 24 4 -17 -10 -14 18 8 20 -32 -9 7 -12 2 -10 18 -21 -15 11 -12 4 -2 6 -11 -3 -23 -2 11 -1 11 -23 7 8 -20 17 3 -18 -8 -9 -12 15 18 33 6 -7 14 11 21 13 16 8 -12 -1 40 -2 -39 5 -4 24 -12 -5 15 2 -31 -71 -4 2 18 -5 1 -22 2 -16 -6 -18 -11 15 8 15 20 -6 -20 -22 -1 4 14 24 3 -4 -2 -32 -28 -5 -26 55 9 -1 23 31 20 15 -14 27 6 17 17 10 -17 3 1 -40 -10 12 -20 -7 30 7 30 -2 -4 11 19 0 22 -18 8 -7 -12 -18 -7 -8 14 44 -13 -29 6 -31 5 -15 -11 -6 -18 1 -9 -22 21 -28 14 -2 10 -17 16 -6 -30 -14 -22 -3 -38 24 -5 -41 3 -3 -5 -35 -8 -13 -22 11 14 44 -54 1 -6 4 -24 33 -5 9 -40 20 4 -23 -14 14 -17 21 1 22 -9 -4 9 15 -28 -2 43 -27 20 4 -3 6 13 -14 21 -5 -30 17 39 -10 -14 1 12 17 -8 -14 16 -7 2 10 -20 6 -10 -4 -21 -18 -2 29 22 -14 5 -11 -4 -13 -13 12 3 16 -5 2 -21 4 3 7 -7 6 -3 3 -9 -3 6 -27 15 -9 -5 31 -25 -8 10 -8 41 -9 -2 11 13 9 2 7 3 14 -2 -19 11 -13 -7 0 2 11 0 21 -32 25 14 17 23 -1 7 -29 23 7 -37 -2 9 -41 -26 6 -2 34 -32 -5 -54 19 -37 8 126 46 10 -65 -35 -86 18 -90 49 31 -27 51 12 -29 -22 -26 -5 40 -40 12 16 27 74 -44 -114 24 37 -32 44 20 48 -85 -40 -36 -12 45 -5 -19 -50 11 35 7 -61 -26 -80 19 59 -55 7 -14 35 90 -25 -44 -25 -32 -1 45 44 30 23 -3 9 1 1 18 17 -18 21 12 12 -28 -20 3 -10 -26 5 37 6 7 7 -10 -29 8 -2 -16 13 7 -23 -20 -19 -32 -23 6 15 0 11 -22 17 21 14 14 -11 0 3 -18 0 0 18 -2 12 6 6 1 1 -11 -16 31 24 -18 -5 0 12 -2 8 28 3 -10 32 -33 24 -41 22 -32 7 20 -7 -4 10 -10 -4 -22 2 -38 -10 12 -31 18 18 5 13 -8 -7 -25 19 -16 -7 13 -37 30 4 -11 -37 2 62 -22 25 14 -14 36 -8 -17 -19 11 -11 -11 -11 16 -14 -30 14 -20 9 -2 12 -27 -21 -1 -4 17 -29 7 -32 -16 9 -18 -34 22 -9 -15 2 8 -12 12 -13 -18 15 -1 17 -12 2 -12 1 0 15 7 -18 -6 -4 7 13 -3 -28 -9 8 -22 -17 8 -25 -10 -33 -1 -23 -11 -10 6 14 6 -4 -14 27 -1 17 9 27 -3 -6 -22 -28 -8 16 -8 -51 12 15 -10 6 6 17 -14 23 39 13 11 -47 39 -3 7 31 -1 -16 -5 -10 -27 -6 -23 -16 -17 16 -5 -12 -18 16 -5 10 -2 12 -21 -27 -10 32 33 -13 40 -30 -13 12 -19 -36 -18 6 -6 10 17 -45 -17 27 -15 -6 -13 -4 4 -53 0 -1 -8
-40 16 -11 -5 20 -15 16 -14 44 -22 -10 -25 5 5 12 25 4 -24 32 7 -3 -23 23 -22 3 -37 51 24 53 12 4 -24 -26 9 15 20 33 -1 -17 -26 20 32 -6 -12 -7 -20 13 -18 28 -15 -11 -35 -34 -33 79 -33 -10 -6 -5 18 39 -19 11 -10 29 102 1 16 58 -70 -38 -68 12 37 25 23 47 46 -21 46 -6 -43 -19 6 11 -37 8 9 32 -7 12 75 -80 55 -15 -4 -14 -15 34 -41 -21 -37 39 47 -100 -19 -8 -80 -5 50 -9 62 57 -4 32 13 -27 0 36 28 -9 14 -55 -30 -53 -17 2 -20 44 -26 7 10 -2 -4 -9 -30 -2 8 9 19 10 13 17 17 -9 -8 -7 2 -6 -6 -13 3 -6 -32 19 2 -20 6 16 0 24 24 -21 -10 -19 0 -16 -6 10 -5 24 -13 37 -20 -32 -11 21 13 -7 -12 -38 25 -13 2 8 -24 -34 32 7 22 9 31 14 4 13 -16 3 25 -29 -16 -17 18 -5 7 22 -29 -5 42 55 -26 23 -16 1 -20 -31 1 -25 4 -8 5 13 54 19 -7 41 23 13 9 -11 1 5 -34 -21 -1 30 16 -37 7 -11 15 -10 -17 15 -26 -9 7 23 3 -6 -15 2 -24 -8 24 50 -22 2 6 25 -2 -35 4 10 20 32 3 26 -4 -67 8 -16 -9 -14 29 -3 30 4 35 -7 16 12 -20 -7 -33 -25 27 2 -22 -8 49 -9 10 21 9 -4 -11 10 12 14 -38 4 -13 -1 26 8 3 5 -19 -2 29 -10 -4 25 -15 28 -7 52 24 -17 20 10 -34 -31 -32 20 -18 31 37 -22 9 -4 -3 -13 -6 -11 1 -9 24 1 25 13 17 -13 4 25 41 10 5 5 0 -7 24 -9 -27 -11 -8 -45 10 -19 7 4 4 -13 12 21 -4 12 -22 -7 -6 -25 2 23 5 0 7 29 15 -14 18 19 30 2 -8 -8 -27 9 14 15 7 21 -6 0 -17 35 -13 -1 14 -4 19 0 16 10 -46 41 3 -28 7 0 -3 -5 29 -2 3 -18 -16 -1 -17 -21 3 -15 0 16 -12 31 -7 32 -29 14 9 -31 -26 -12 11 12 18 21 2 -33 9 -36 27 9 -23 7 26 50 -4 -80 -36 -13 -78 -40 -15 19 -60 12 -8 14 12 72 8 -2 34 78 65 22 27 51 12 42 35 110 -56 41 -31 39 -57 -13 -50 -57 23 91 32 33 -29 -70 12 20 -1 14 -127 -2 -35 10 -39 -38 3 -9 -19 22 5 71 -68 -70 47 7 -18 -37 -17 -15 5 -15 -18 -2 9 -3 1 8 -6 2 -19 -3 -58 7 -38 9 2 -4 1 19 7 0 5 35 32 -5 -29 -2 -6 -20 -1 8 -15 3 10 -15 -8 -12 -11 -15 0 6 29 -17 4 48 10 18 -20 15 -21 20 -17 -1 -6 19 7 -24 -5 -15 16 -3 15 -22 3 13 22 -7 16 -25 17 -5 22 3 4 14 -16 42 -2 2 15 -3 -18 -7 -32 -1 32 12 11 1 10 14 -13 9 25 13 -24 14 -14 26 9 -14 -4 -8 33 -5 42 -39 0 -27 -27 43 -25 19 0 9 8 -18 -5 9 28 -31 -36 9 6 -32 16 -18 10 -7 3 23 -11 -7 20 -2 -24 23 -28 24 8 13 15 -23 5 -13 -30 -15 -13 -10 -14 -12 -7 11 25 0 -22 23 -29 13 14 7 -17 33 8 16 -15 1 -3 3 50 -10 -40 4 -11 32 26 -13 23 36 -1 19 1 13 13 33 11 19 -1 -32 -3 -14 -4 16 7 -31 21 -5 -14 -42 1 -11 -23 1 7 -11 -15 -7 5 -1 -7 11 -43 1 -17 -9 -1 -18 -2 -1 0 -14 7 -4 -38 41 17 7 -24 79 -19 -8 -2 -10 0 13 -3 6 -21 -30 25 -16 3 -5 -7 14 -23 -10 -9 26 4 3 -14 21 12 -23 40
6 0 27 -24 -24 9 45 24 -37 -19 33 -6 -29 -5 -25 -38 18 -13 38 4 -17 -12 4 -22 0 -1 20 -11 -28 -12 -17 -11 25 6 -1 24 -32 33 31 9 -18 -9 13 -26 27 -41 42 -11 56 36 40 -21 1 3 7 -15 -14 53 -19 -8 -28 1 15 -42 4 -51 12 14 -10 41 31 10 -30 -2 0 -19 11 -4 12 24 55 -72 -2 29 -16 -29 -37 41 -2 -10 25 -125 -24 -23 39 35 -13 39 5 -5 1 13 -30 2 3 -1 -25 29 -26 9 45 -47 8 3 92 30 27 -41 24 -36 21 47 16 18 48 25 43 36 10 -14 3 -1 5 0 -6 -8 -8 5 -7 6 -15 13 2 7 -8 0 4 -8 9 -9 -15 -3 -3 -5 -1 -6 16 -14 -16 1 16 -5 -13 -18 7 19 -6 4 -24 2 18 -20 19 -19 -2 28 -3 -15 25 8 -10 22 -17 9 3 -1 5 -1 -2 -7 19 -3 3 0 10 10 -7 -6 -6 4 -1 -8 7 10 -3 -28 -10 -2 20 2 -21 -5 6 19 -7 -2 22 13 13 -16 15 5 11 29 5 -4 -15 -1 1 24 11 18 4 25 -26 6 -1 14 28 -7 -7 29 -12 -34 27 -9 32 20 18 -12 9 7 -6 -7 -27 27 -14 30 -3 -43 -41 31 -13 19 15 23 4 30 9 6 20 -7 15 -8 -11 2 -14 -22 0 -14 6 -9 9 -1 -18 -12 23 0 -5 -31 0 -33 2 -12 -14 -2 0 14 0 -3 23 4 -7 1 -60 -14 11 52 4 6 -3 0 -5 -21 18 -25 -5 -21 14 31 -15 -36 -3 15 -4 7 17 16 -6 0 14 8 6 5 32 18 -15 -19 -28 -16 -10 -8 -2 -5 -15 29 -17 16 24 -10 24 21 -9 -6 -17 -1 29 1 18 13 -4 -13 -11 7 -2 4 6 -2 -13 -21 18 -1 -32 3 -19 -14 12 19 17 -8 -8 39 -9 1 5 40 23 10 28 9 20 1 -5 -15 -15 8 -16 8 -3 26 30 7 8 16 -20 2 -14 -11 -24 -7 53 3 -3 18 4 -8 14 -12 -6 2 -4 45 15 -23 -36 16 -35 20 -29 -1 3 22 -29 0 -8 15 51 8 2 -10 3 24 15 29 -9 8 4 25 1 -12 13 39 10 -24 -59 14 -7 50 13 31 -39 13 -23 37 -58 -16 12 1 -20 -52 -28 -10 -2 23 -5 -54 12 -32 -21 72 126 10 -44 -71 32 -80 39 -22 6 -52 52 31 41 23 20 -44 -52 17 31 5 -34 -7 -33 -44 -16 7 27 -30 -3 -87 20 -7 8 -11 4 -11 3 -2 1 1 10 -8 -11 12 -21 18 0 -6 -3 -12 -13 3 2 -5 11 1 -10 -1 -6 7 18 26 -9 -13 11 12 7 -4 -4 20 6 -1 40 12 -14 -20 -6 -29 -1 -12 -33 12 -12 14 -20 -26 1 -20 7 7 -1 1 15 16 4 -18 -7 0 5 -13 -7 -37 -4 -1 -14 19 -2 8 -10 -19 11 26 10 12 6 -6 9 -15 4 -18 -20 -11 -10 50 7 -16 8 -3 -3 7 11 7 12 -12 1 10 -6 -23 -24 -3 -16 21 11 18 0 14 14 18 -19 -19 3 15 -10 -14 -24 -38 15 0 56 -1 6 -5 -3 -3 -14 -21 17 -15 -4 5 14 -7 2 -1 13 -3 -15 -6 7 14 -5 1 44 30 14 4 -15 -4 -6 5 -9 9 -20 -14 11 6 -16 5 18 8 28 -18 3 -9 -5 -5 -4 -3 12 26 -26 5 -26 26 3 9 0 6 -11 -8 11 -2 6 -5 -12 -10 -21 7 15 23 -23 23 10 6 -1 8 24 4 2 13 6 -14 -13 -6 21 23 -19 8 17 -30 -3 7 -18 6 21 -19 -33 -7 -4 6 8 18 13 14 30 18 7 -7 24 2 5 -8 -20 -2 -11 -13 3 6 3 21 -19 -4 14 -13 -16 -7 2 -11
-43 10 42 32 -31 11 -5 7 24 -8 13 -19 -21 -28 34 4 -24 39 16 -8 -46 52 33 24 45 11 83 -9 -13 -33 14 -10 74 14 4 -32 -5 -24 -20 1 -19 20 22 -50 -26 0 -16 -1 -49 -42 14 -17 72 -23 -26 12 -24 -9 -52 -12 18 2 9 -37 -43 -25 66 1 2 -22 0 -42 22 40 30 -5 -14 48 5 -5 -68 21 10 23 14 4 -19 -22 -15 10 42 3 61 -8 40 -33 24 17 29 -16 6 -15 -29 -33 0 -29 30 -10 1 -32 -60 -54 -45 24 -26 -84 -29 22 -35 -36 -17 17 -27 43 -1 6 6 1 15 5 11 8 -18 -10 9 10 -19 -31 3 -8 0 18 4 19 25 13 13 14 -6 -6 -8 -3 28 11 -13 29 2 12 36 7 3 -5 -14 15 8 -24 -2 -11 -9 19 22 -12 -8 24 -23 -15 21 5 -15 14 1 -14 -7 -4 6 -4 13 -30 19 9 -2 21 7 -24 5 0 -18 3 2 -28 -8 -6 30 10 14 26 -2 -1 -6 0 -12 -6 27 -30 4 9 19 8 -2 -14 6 -6 -17 22 36 5 9 35 23 11 -8 19 -19 -9 -12 -40 23 -2 15 -9 -7 -2 0 5 -13 -2 30 -2 17 -14 35 -22 -36 -18 11 13 -4 3 -23 1 -15 -13 -6 -2 10 -28 7 10 -43 -3 -9 -16 17 -9 -5 7 23 3 -21 -20 7 9 -1 8 -4 10 52 -6 0 12 17 17 6 11 -5 -27 6 12 -13 -16 -13 17 19 -10 25 43 21 -5 -14 19 13 -21 5 -11 -4 -43 -31 3 -26 11 -27 1 39 -10 -7 0 -15 16 -19 -3 11 -11 -8 -4 35 -31 -26 -3 -8 10 -11 0 1 -32 12 9 -4 -1 5 9 9 1 -1 52 19 -18 8 8 1 2 8 24 -1 7 21 -18 6 -9 23 32 -8 -17 10 4 32 4 24 -13 -7 -10 -4 -14 6 14 9 63 -55 17 35 8 -11 31 -3 -4 11 -58 -5 1 -23 17 -64 32 27 -60 43 7 -127 7 -61 3 16 3 43 -14 -27 -40 -58 26 -5 33 -24 20 51 -3 -1 19 1 -9 37 -62 39 -63 -11 12 -22 27 64 -106 0 -24 -18 -4 49 -61 -25 17 -32 55 52 -20 32 27 52 -12 -25 -8 8 8 30 -8 15 -47 13 -74 -53 -41 -3 30 -33 44 14 -10 -9 -28 15 -26 -25 -8 5 1 -35 25 -45 -20 -14 11 -3 0 -28 15 -24 0 -22 -1 15 -4 -35 -9 21 -17 16 -10 15 -48 -50 -33 -11 -3 3 21 15 23 9 3 23 0 -12 23 0 15 15 -19 -5 -35 -27 -21 14 7 10 10 -11 5 -4 -6 -1 -18 9 14 -33 7 10 -21 -20 -6 15 21 -5 40 -19 -17 -5 -37 13 32 -3 -6 -8 3 0 46 17 15 1 8 9 -11 -28 -10 -14 17 5 -11 11 24 -8 1 10 -14 29 19 19 -30 3 -17 31 -26 18 5 -1 4 9 -12 49 15 -1 -20 -37 41 2 -4 -8 -3 7 -32 -4 -22 18 -24 -12 27 5 -19 4 21 47 45 -4 4 13 1 -3 29 -11 -18 -4 1 -3 -2 24 -12 -28 -11 21 13 39 19 0 -4 32 13 -9 -17 -26 -1 3 -19 11 -15 2 11 24 7 -10 19 19 7 7 -11 3 -5 -12 25 12 -16 -6 0 -31 -20 -5 -8 17 8 -1 25 16 -22 -12 -14 -7 -2 -32 5 -18 8 12 6 -14 -8 0 5 -26 -10 7 10 -3 -5 2 -3 2 -6 15 6 -23 -16 -33 6 -9 -14 32 -12 -3 6 6 35 13 10 -9 -6 13 6 -15 -5 14 -9 -35 -24 -43 -13 1 -31 17 -36 5 13 12 5 10 21 15 17 -7 -2 -10 -14 -3 48 -23 8 -11 6 27 34 20 -2 13 -4 7 -10 22 -21 11 5 -13 -10 -28 10 -10 -8
-21 18 -17 1 6 -11 -17 55 -24 28 6 -19 14 -48 19 -13 25 -60 9 11 13 -52 35 50 12 -20 -3 18 6 -5 52 -9 -1 6 -1 23 -22 2 -12 -14 -26 -1 42 -39 1 -18 -26 -9 21 -2 -29 46 19 -7 -5 19 -12 0 34 -5 -6 36 38 -25 1 38 16 15 -57 -59 43 1 3 48 2 17 12 -16 -71 -1 70 -18 33 32 -20 50 -32 28 55 -28 9 -41 -6 -37 -28 -54 -55 -33 44 -6 -12 25 31 -15 -86 15 56 -6 -18 20 -26 31 -21 10 2 20 -43 -67 9 32 -20 65 -32 -6 10 34 52 55 -50 -14 -13 47 -24 21 26 3 -31 -55 1 12 -6 83 12 40 -10 -18 11 -40 24 -16 17 -59 6 -29 43 -11 2 -52 -73 -24 0 19 -46 46 -2 -26 -45 -5 -12 -19 7 -34 14 -12 13 -8 9 34 -8 12 -59 -41 -44 92 -16 -25 54 -71 -5 26 -30 -47 -46 79 39 -18 3 40 -34 -22 -18 15 -18 -14 -20 24 5 -43 -25 15 11 18 -24 -38 26 -27 25 -9 47 25 -2 -46 -22 34 -9 4 -9 12 -26 -1 -7 0 -11 6 -51 7 19 -47 -11 20 20 2 8 -12 -31 11 -32 -30 42 14 -7 -44 4 15 -6 -10 -51 -11 4 -28 14 -38 14 7 13 -73 -10 12 25 -16 -19 -26 -42 25 4 -10 -18 27 15 26 11 -23 -57 -26 -16 11 -48 25 20 -54 2 -11 -3 51 0 -52 -9 41 16 -14 50 -13 -63 -16 -1 -24 -9 6 -27 -55 -23 7 -1 46 -3 16 -4 -22 -3 -1 -11 -35 40 41 -24 52 -1 -44 1 -23 -28 -4 22 -10 43 39 -37 -34 -24 3 -12 23 -23 79 36 -39 -17 -7 19 45 -9 -23 -60 -12 26 -23 -42 20 -52 -6 7 0 -31 24 -12 -2 -31 8 1 -2 31 3 -33 3 10 25 -11 2 25 -35 10 -14 18 -25 -36 -26 53 -37 8 -95 10 -32 -5 -3 18 20 20 23 -19 -6 -34 17 27 10 12 37 11 -49 -18 55 8 -26 2 14 -17 22 12 -32 88 -16 -4 -18 -45 7 0 2 -3 -15 8 -45 -34 15 7 -34 60 -9 69 49 -58 -22 -39 -1 1 6 -39 10 11 81 -19 -38 -4 52 17 13 0 7 -23 -23 54 -22 -7 -1 12 -10 -31 -25 -71 35 23 -3 10 -53 -9 1 81 -11 -16 -19 -56 -5 31 -10 -13 8 22 -17 -24 12 26 -7 -14 -24 -28 -3 40 11 -12 -2 -46 -19 13 -11 43 17 -12 -27 -19 6 -22 -26 11 -88 27 -27 37 51 14 -55 -39 59 35 57 -32 60 48 33 41 -23 18 0 -71 26 37 -26 -41 47 -56 32 -38 16 -13 42 -17 -15 3 2 -61 -17 17 70 -23 -37 41 -4 4 3 3 -101 -53 -85 -24 7 -26 15 77 9 -89 39 -7 49 77 42 18 17 -26 -13 15 0 19 -34 6 -41 -26 -29 -10 12 -27 49 36 51 -8 -26 36 -9 51 12 -5 15 -28 -53 -4 15 -21 24 45 -18 -10 2 47 -69 -8 19 -26 -33 0 -38 -23 -22 12 3 17 38 -15 51 0 -28 -2 -16 20 53 11 19 -30 -28 -59 3 -38 -29 21 108 -11 -29 41 64 51 -2 5 50 -68 -7 -1 -38 7 -29 1 -15 -25 -29 48 -15 42 -50 -8 -10 3 53 -9 -8 -36 -13 -14 -18 -6 29 18 27 10 -33 -60 3 13 10 2 -17 -8 31 -20 -33 -39 -9 47 -17 23 -12 -16 13 60 6 31 8 22 -4 -54 73 -24 7 53 -5 18 37 22 -8 32 0 16 -55 33 38 -8 -36 1 -127 -47 13 -47 -7 35 -7 90 5 -31 63 -12 -16 0 0 66 -33 18 -46 33 9 42 -23 -7 29 61 82 -3 -17 -30 4 -49 -7 4 -11 36 -72 -3 73 -86 48 -46 67 65 16 -50 -46
-49 20 49 -16 -39 65 -27 30 52 -1 31 16 52 54 -43 -23 -24 -10 33 -15 8 -66 -60 9 22 22 8 -20 35 -43 43 -8 -16 -3 -26 52 35 -58 18 -26 14 16 -6 29 3 -38 -14 31 -25 7 -1 3 8 31 15 7 16 -29 38 -4 -32 19 -10 43 -69 -111 -88 64 1 -45 -2 -16 -21 24 16 23 -1 -1 13 -54 -29 16 1 17 -31 42 -4 -10 13 50 -15 22 3 -51 -49 17 -2 -35 -36 46 -15 8 13 -26 -100 73 11 -52 26 63 -15 7 74 5 81 -30 -43 -48 26 -32 8 -56 8 -28 14 5 14 23 -8 -53 11 8 -50 -10 29 5 10 40 17 -3 14 17 -6 16 13 -4 -4 23 7 -23 21 -14 -45 -18 40 -26 -15 9 -16 28 -18 -14 -2 3 -15 35 -2 -5 6 0 -6 53 -6 6 18 52 -7 21 3 2 -24 19 -21 -18 -28 -32 21 -5 15 17 13 16 27 11 -18 -26 41 -57 8 -27 10 17 -24 46 22 -6 -7 -19 -8 -13 12 1 -23 8 -39 7 24 -8 -26 1 8 -7 14 8 -5 -6 -2 -1 17 35 -14 -8 -5 3 -51 13 -4 -21 2 -27 -9 33 16 -19 -22 14 3 -23 18 -20 -33 17 -8 -49 -38 -54 -3 6 -11 1 7 1 21 42 10 6 15 49 -27 -8 -9 -35 -25 36 20 -18 6 -23 24 2 17 -12 -33 -35 12 -4 -15 -21 -16 2 18 -3 28 14 16 -6 25 -10 -10 46 -39 9 27 14 -18 3 43 29 -2 7 6 21 -5 10 -5 -22 17 -17 26 -37 -15 -13 16 -35 10 -26 13 -10 24 3 -38 -9 -12 7 31 16 0 19 2 23 20 20 -6 1 -8 2 22 -6 -15 -13 -17 4 9 3 14 -10 -23 22 17 15 13 -25 -12 1 9 10 8 21 -24 13 14 11 22 43 -24 -38 -7 -15 -12 5 27 -6 11 29 -11 16 31 -21 -24 -3 55 -10 10 -7 4 -35 -9 -20 -10 15 24 14 -8 -15 -28 -11 -8 -7 -6 18 -4 6 -9 -19 5 9 9 -17 -1 -1 19 50 0 9 -55 -11 5 26 10 15 -5 15 -16 -11 -43 -27 19 2 24 -16 -2 -37 19 9 -8 -9 4 23 -13 -2 -14 71 -41 3 31 15 75 67 -20 37 17 -21 15 3 -17 -72 -5 68 -27 -25 62 -56 57 51 4 -44 -52 35 -33 10 -5 -14 19 -48 -71 -19 12 27 9 41 32 -1 43 60 -21 -20 99 0 48 -44 23 28 33 -41 8 -41 126 -50 22 28 -47 -48 -5 -11 -30 -16 -22 -9 -39 -4 11 7 15 13 13 1 -11 -11 -23 10 -7 17 2 -11 -6 -10 -11 -21 -39 -14 -12 -14 1 -5 -30 6 22 -24 16 7 5 -22 3 -4 4 15 8 2 -12 -30 -22 4 7 -2 21 -15 -4 -13 -12 -15 -14 -2 -43 -8 18 20 13 19 6 13 -57 13 -1 21 48 -9 23 5 -20 -17 -8 23 14 -2 8 12 12 -10 -9 -12 19 -2 31 -3 -7 -9 -29 -1 -32 -3 1 35 6 22 -5 -14 18 15 -10 4 -22 14 -13 -15 2 24 -7 26 -8 15 -22 -13 -2 20 -11 16 -44 31 -1 17 -8 23 -9 -21 32 -10 -27 -20 -9 -37 33 17 29 -22 0 -23 2 30 12 -13 0 -29 -35 -12 -10 -8 -25 10 33 9 -1 0 16 -36 -5 -44 4 30 -3 -24 -11 12 4 -3 -8 -10 -4 -6 12 29 2 -26 -1 -14 8 4 7 23 13 -8 7 -6 -1 22 2 21 23 -18 6 -19 -45 14 -60 10 -37 47 34 12 -13 -5 -46 15 10 1 2 -4 48 18 13 -32 -10 27 -11 14 17 -23 24 -2 8 -12 19 8 10 13 0 -2 -31 -13 0 4 -1 10 39 -6 11 4 -29 -16 -5 20 -18 1 -24 -8 41 32 -54 -14
1 15 -3 -13 -7 -8 7 -12 -36 34 -70 52 24 2 71 41 -4 -3 33 1 21 -19 3 -20 39 99 19 5 26 -8 25 -37 -29 21 -52 48 16 -53 34 28 7 6 -23 -31 -24 -28 15 37 4 71 -47 -16 -9 -7 4 -3 13 27 15 1 -19 -36 55 -22 -10 0 -4 25 -16 -15 39 -34 -30 73 -1 -27 68 26 -16 33 -21 -31 1 11 -1 37 -41 0 38 65 -80 42 -67 -40 -59 -61 0 44 7 24 -24 -28 22 -2 23 -55 -24 12 -61 -68 25 36 52 22 26 23 -15 -8 12 27 6 -24 29 -36 46 -26 17 -30 1 12 13 19 0 -14 10 3 -37 45 1 22 46 -72 -4 2 -7 -39 10 -40 -37 -55 72 -4 -20 -9 -7 13 43 46 50 9 -1 55 -11 -23 27 110 11 -38 -37 -13 -14 14 -39 -38 -32 -28 47 -5 47 37 27 66 -15 33 -24 -18 11 -8 0 11 77 -31 -38 17 34 -52 -19 4 -40 5 -19 -6 0 42 57 -37 -47 2 -80 -14 -15 22 77 37 9 10 23 -21 14 4 -23 34 -1 -8 -4 -11 14 -12 -2 12 -6 -24 -6 -38 24 3 37 35 44 13 -14 0 -6 -14 48 18 11 2 11 -19 -15 -48 -13 -1 11 -5 -50 -23 -29 -19 13 18 -9 -9 -37 2 -35 -8 -42 -40 12 9 15 3 22 12 16 18 0 7 1 43 19 11 55 -13 15 -13 5 31 34 0 16 42 33 -7 3 -5 -9 -5 -19 -60 14 4 -29 -7 -19 0 -3 13 -38 -14 -2 -4 8 25 29 -2 16 18 7 38 26 36 1 83 -62 30 -41 18 30 26 -19 -26 23 30 -3 -9 30 22 1 9 37 58 14 47 -38 -18 2 -14 10 34 40 -7 22 3 29 4 33 0 22 16 16 70 -7 -40 45 -9 61 48 1 -55 -6 -28 7 -20 33 -36 25 4 19 27 -6 -68 -11 31 33 -14 15 -17 -22 -6 -29 -29 -1 -12 -33 17 27 13 39 -30 39 -47 -21 6 -17 18 10 3 51 -37 28 -10 19 -39 -22 0 -14 -56 -16 12 -1 26 13 -25 -44 16 -22 25 -12 -30 11 -40 -4 19 22 17 36 9 6 -27 -6 9 -17 -16 -16 16 -2 47 -13 -18 -18 30 17 29 -25 -19 -31 70 17 21 32 -11 33 -7 2 50 29 -3 46 32 -25 24 -28 -11 13 30 -21 -8 -30 -60 -42 -43 14 -47 -9 53 -24 58 60 19 11 10 36 -15 -13 -69 -14 -14 3 -18 -5 33 -19 -6 25 -34 2 -25 -14 -18 7 40 -95 34 37 10 -25 -3 21 -66 29 -16 2 -32 13 -14 -2 -38 -7 -37 17 -18 -69 -41 111 -22 -14 -34 -3 -52 -52 -52 14 -56 -1 5 -24 38 67 41 48 -7 32 -7 -45 -10 -8 26 52 30 -38 16 -41 -40 -48 -42 -23 -4 -35 15 11 6 -14 -4 4 -11 1 25 -29 -12 -6 -50 -12 -64 36 -7 -5 25 31 5 -12 -32 -26 -52 -8 -15 2 11 37 18 14 7 -14 10 -7 34 -36 3 11 -20 64 -23 -70 -48 30 47 63 -1 -16 -27 -46 23 11 36 29 75 -17 -23 -3 5 18 8 11 -6 25 -59 16 -38 10 25 -14 21 -2 29 -8 -39 40 -22 7 -13 24 15 -17 41 -64 -36 -11 -21 -29 -24 29 -29 5 21 -96 -20 -44 9 -56 35 15 -5 -22 -33 -22 12 49 21 -28 -11 -33 8 21 52 -8 40 -36 -12 -31 24 5 12 8 -8 -51 -6 -52 -15 14 31 -10 -15 -14 -81 9 13 114 -29 57 63 24 12 2 60 -8 -25 5 -30 -19 34 -11 25 -37 7 -1 52 -79 -103 -53 -36 6 60 9 53 -79 28 18 8 -29 -61 -12 -12 8 11 22 30 56 -9 -18 27 -23 35 -10 6 -53 -70 -127 -59 10 32 0 12 -35 110 50 11
-24 20 -49 -44 -56 -19 2 -9 -40 -7 -32 -15 39 30 -12 10 -8 3 -37 36 -62 46 1 25 -6 6 5 37 -2 35 32 -11 -8 -19 -8 -6 -7 0 8 58 41 12 -25 5 38 -44 28 23 -4 23 -48 -31 41 11 -31 39 67 -36 -7 -35 18 41 35 29 -44 -58 -2 -28 36 -21 -15 2 -18 -6 -35 -18 -10 56 -11 -51 54 -17 34 -21 31 12 -19 1 25 -37 -16 -1 23 36 33 -28 25 45 56 -6 51 91 -47 9 -23 13 20 -26 -36 1 40 4 56 21 -30 42 -44 -55 48 -47 -12 -127 -39 38 28 -24 -5 -43 4 -8 -9 -33 -17 60 11 -5 28 75 -36 -10 -6 -56 -8 -9 7 42 4 27 -43 -36 -8 -13 19 -20 57 14 -51 10 4 -18 45 -37 11 -6 3 43 -27 -13 -16 13 -25 -27 5 -16 39 -35 -35 -42 27 -10 -27 19 34 57 -21 12 -28 -56 -58 -24 -23 10 60 35 -40 1 -60 16 -10 -33 0 10 -19 34 -37 -10 40 -4 5 22 5 30 -43 22 -4 54 46 18 -18 -47 -5 87 18 -12 7 20 22 -2 15 26 17 18 -29 -25 67 1 15 2 43 -5 41 27 9 8 -17 -15 45 -33 40 36 25 -1 9 10 -17 -19 12 17 1 -6 -14 12 -24 -3 10 11 -12 -6 -26 -43 -13 -7 18 -40 -12 -44 25 4 40 -29 24 60 10 -4 25 27 12 12 38 -1 35 -6 22 24 22 -25 8 2 -13 3 -8 -8 8 -6 6 20 -40 22 14 24 19 16 16 1 -31 13 -17 -9 36 25 28 4 39 4 28 10 16 -26 -22 14 -67 -55 -15 -18 35 -13 17 21 3 -27 23 28 21 1 -17 78 28 4 -24 -25 23 -39 42 -17 -3 7 16 25 -46 -15 37 8 -32 -92 43 -20 -22 -8 -11 8 18 -6 6 -40 -32 -2 -28 -48 -19 10 -23 -65 27 -19 26 -7 34 -17 -21 70 18 -8 46 17 -7 -44 58 -45 8 -1 16 -27 -49 -28 -5 -1 -6 -4 -17 10 36 -8 45 -44 24 -22 -63 43 -13 16 47 25 -3 29 55 -58 -23 0 38 -27 45 60 27 -71 27 0 -13 -10 -33 24 5 -73 -34 17 -5 32 27 23 -2 7 22 46 -58 -25 -13 5 6 -26 -14 23 -9 13 11 -32 6 46 -4 -20 -11 -1 35 0 -14 57 15 -14 -42 -1 -59 2 -17 -61 -99 -34 -13 10 16 -56 -28 9 10 -22 -34 -8 6 -26 42 8 -11 -14 -8 -12 -33 63 11 -11 -23 -25 -23 -41 6 30 32 -6 38 -61 -42 -25 -28 -43 36 -1 2 -14 -25 11 9 30 -21 53 -7 -29 40 -7 -21 14 66 -7 -52 -51 37 -28 -2 8 7 -49 -21 7 37 45 41 -12 -46 -16 -30 -8 5 71 5 -31 -40 35 0 1 -7 32 1 -25 47 28 -20 -76 -44 7 21 17 2 -58 54 9 9 -1 -35 16 36 29 -29 -1 32 32 7 -25 -6 14 -3 -5 13 -88 -35 -17 13 31 -8 -21 25 -10 -5 47 -23 -6 -28 27 51 -8 51 -16 25 26 0 -40 -17 -78 -42 64 33 -2 -7 -18 10 23 -9 13 7 1 -4 -32 18 -25 -53 3 -28 24 -8 -8 -11 -62 -19 -72 15 -32 -9 6 -28 -34 -1 -1 -3 -32 27 62 7 -13 -24 -6 -3 34 -8 -7 25 75 22 14 7 -28 20 3 -76 38 3 5 -40 23 -25 -40 38 35 10 -28 25 10 34 6 0 -38 9 -27 2 12 33 -20 -55 -15 33 28 -28 52 107 -32 17 -26 -31 -7 6 5 -68 -18 6 -19 -24 -45 12 29 40 2 52 27 -14 9 -64 40 12 -9 30 27 14 39 71 -117 13 -35 4 9 -15 -47 -1 58 2 -1 27 8 -21 -15 26 33 -56 25 -39 27 -32 35 -62 -23 83 -50 39 -17 -26 -78
9 35 -14 5 -16 1 -51 6 -62 -44 -15 41 -15 12 38 24 17 12 -22 -46 51 18 48 126 -18 19 35 0 -1 -11 -1 -26 20 -1 45 15 24 -8 -20 3 -22 -33 -73 17 80 76 23 -19 2 2 53 -3 16 5 -11 -8 -18 28 -19 1 -5 -10 18 8 28 -48 24 15 -27 -23 -47 -12 18 -15 27 24 -19 39 -18 -27 29 25 -19 -8 -23 -24 41 -9 13 -33 17 29 -10 6 11 -33 69 -22 -61 7 -20 -52 38 62 67 -39 10 -13 17 0 48 26 41 79 -20 20 35 35 113 58 18 13 -56 12 -34 41 47 -23 -15 -4 2 8 -14 9 29 28 4 1 5 4 -26 -21 -6 -32 -8 41 4 17 6 8 -10 -6 9 -12 -7 23 13 -20 33 10 33 4 -29 16 6 -28 15 -7 16 -3 -5 22 -32 -23 16 20 -20 14 -45 -8 -13 -4 34 0 -12 12 8 12 -22 -13 1 -28 22 1 -1 -10 -1 -14 9 4 10 -15 26 -6 5 7 12 2 17 22 12 18 9 0 7 8 -5 -1 8 -14 62 -22 14 -13 11 58 2 -5 -22 9 -12 -4 -28 -18 -8 16 -12 14 -20 -22 6 20 -5 37 -10 4 6 -6 -4 -19 4 1 3 32 4 -15 -17 2 -6 -2 -10 6 -20 19 -7 -26 32 4 40 -7 -9 -23 -17 -2 5 10 1 -6 -18 -52 2 -34 -10 -2 6 16 1 -8 13 -4 11 28 -20 42 -25 22 -9 2 -29 13 -5 -31 7 56 5 -35 -20 -8 2 13 -36 -2 13 24 32 7 -30 12 -18 -14 38 -1 -22 8 -23 7 19 -9 37 15 37 22 -49 -11 32 -24 21 -24 2 -6 -5 -9 10 16 3 2 18 -19 -11 -8 -11 6 -40 27 4 17 7 19 14 9 -18 19 -16 23 14 41 46 26 -8 -11 23 -12 20 -12 28 9 -14 -4 18 16 6 26 10 11 3 13 8 -3 -6 -4 20 15 21 32 -5 -16 -2 1 6 2 0 30 -20 38 -1 4 20 10 -3 3 -7 48 -34 11 4 -52 21 17 4 -9 2 -1 -4 7 12 26 -27 10 -38 -23 -33 11 -30 25 68 24 28 -14 -29 -7 -35 0 32 -6 -26 -79 19 -43 30 30 -20 55 1 -50 2 -2 40 -28 -22 -6 69 -79 -21 -22 -30 11 -57 -12 97 11 -26 4 -25 -38 -10 13 -38 -30 27 13 -16 -104 -43 16 -1 22 8 18 -68 36 -71 -36 -97 -46 -34 26 -12 68 -31 -2 -11 -7 2 5 -32 38 -33 -32 -4 -14 -44 -58 4 -3 -14 -1 16 42 -15 -18 -14 5 -25 18 43 61 -4 0 -11 -24 13 2 7 -31 -5 -19 -4 17 24 -24 -21 19 27 -50 23 5 -13 -41 23 26 9 28 9 29 -10 35 -2 5 4 8 29 35 2 11 24 -25 22 -15 2 25 16 -21 -11 1 -16 4 -17 1 7 -17 16 -3 4 46 18 33 -15 -18 -31 57 4 1 21 4 -30 4 -40 12 42 21 -56 -8 4 -7 9 -13 8 12 -12 7 45 -19 -32 -27 6 -15 -10 -13 5 -14 -5 -17 5 41 8 18 -32 -7 14 6 0 -6 -14 -2 -38 -15 -33 35 18 1 -10 9 18 -28 7 18 -4 26 4 -7 1 -17 -11 26 4 -2 -11 -3 1 26 -8 -5 0 1 8 -2 23 -26 -25 21 8 -24 -7 -20 4 29 5 -2 -5 -7 -4 22 -8 -5 1 -11 19 27 -8 -30 -6 8 -17 17 -8 11 24 -13 12 21 -4 -20 0 22 -8 -21 -37 -8 24 12 15 0 27 -27 -3 -40 -28 -27 -21 -3 -47 4 50 -18 18 37 -15 -2 17 -14 45 23 9 9 -33 28 -29 33 -38 7 3 11 -27 -52 5 -15 28 22 5 11 -16 -10 57 9 -18 -29 -12 44 -9 3 -29 27 18 5 36 -3 36 44
13 -13 38 -50 37 -7 -62 -30 35 -43 -2 9 16 -36 -57 -43 19 -5 -16 -24 19 -5 -17 66 12 -6 60 52 7 -2 8 -69 17 -19 42 17 61 19 55 46 -17 50 -1 19 -1 -28 2 -32 35 67 -21 -21 57 -28 -10 -12 -20 41 34 -13 -39 68 1 -16 -41 39 85 -76 -33 59 -27 -25 -11 -32 2 24 -22 64 -3 56 -40 42 -47 15 -30 44 -37 -49 -54 -60 13 47 -20 -22 13 -28 55 -71 -127 -19 6 30 48 30 -22 8 36 43 23 0 -29 69 32 -79 93 23 75 4 -82 72 11 33 -17 -6 0 13 -2 -20 33 -6 -20 -37 -9 18 18 -18 70 4 2 -40 -20 -62 -24 25 -7 39 18 10 -52 -9 64 -30 -29 0 -14 -28 39 -14 50 17 31 29 62 44 4 -13 -8 69 -8 -39 -40 22 58 -18 19 46 18 -34 -43 12 -22 19 16 -43 19 -45 -8 -11 -13 -51 5 -6 13 -59 0 20 8 24 -6 6 -1 -22 -6 -27 -35 33 -5 0 15 -21 19 -10 0 -21 9 0 -6 54 16 -4 -23 28 -27 -75 19 7 -11 4 -4 0 37 -4 31 28 42 9 0 -40 31 6 54 -23 -61 2 10 -14 -27 4 13 10 -50 -24 12 -34 33 -25 -65 -14 -13 -45 3 24 4 0 11 47 2 5 -10 -26 -45 12 2 8 15 -8 34 -3 40 5 -13 14 12 40 36 24 1 0 -18 4 -16 28 -8 -33 12 13 27 -35 3 -6 9 5 -30 21 4 53 15 3 25 -17 -8 1 -37 -39 26 -14 -8 -11 44 -7 65 37 -30 38 7 -47 8 13 40 13 -67 -7 27 30 0 -31 18 26 40 24 1 -11 -27 9 21 11 -58 -13 35 -75 -42 28 -62 -6 36 15 25 36 -4 -9 29 7 10 -2 -41 1 19 -63 -50 1 5 -3 15 72 54 -27 -5 23 -8 33 -10 14 32 -1 -13 -26 -19 0 3 19 50 -15 15 -14 4 -3 20 12 18 -2 8 -20 22 22 -42 -10 3 40 -22 1 -2 -1 -75 4 3 -9 -19 -31 45 -19 -10 -11 -3 6 28 -15 2 11 -11 61 19 -15 -8 6 -1 -40 -16 -74 -52 -70 0 6 -6 0 0 4 22 46 -37 14 16 56 -47 -30 35 -13 -63 -22 44 -16 -35 90 -2 -26 -22 63 -15 39 10 -27 -12 -34 10 4 -12 7 -31 10 66 12 17 -9 -8 28 22 16 13 44 14 43 -47 28 -3 -54 32 -32 -16 -2 1 -7 47 -51 16 17 18 42 -5 -61 -12 -22 -103 -24 -5 49 17 4 36 6 33 43 -61 59 19 51 20 38 -26 -32 -57 -5 58 -17 -1 -52 32 -61 -41 -51 -7 -18 -35 6 -61 54 -2 39 -9 22 -41 19 -31 -47 27 -15 -3 5 -6 -40 -13 33 -32 -29 2 16 -19 24 40 -13 71 -39 27 -5 -63 73 13 49 -42 8 5 -43 10 -41 -30 49 28 -3 64 -28 1 -10 9 3 27 59 23 -3 46 25 25 -33 44 82 -20 -17 57 59 -31 28 -10 26 51 54 -38 -37 40 -18 -12 -18 -47 47 -5 -21 -18 -17 2 -1 37 25 14 -24 11 -2 31 -70 -26 -20 19 -43 -8 -24 -31 -1 -26 -39 -27 -32 -16 9 -2 -52 -52 -14 -13 -17 -30 26 -31 44 -40 13 -66 -19 -49 28 -5 14 46 3 -2 -37 6 -37 -28 -10 38 13 15 -21 31 -42 35 -96 -14 -60 4 -35 13 -57 -21 47 -3 -37 30 39 -16 -41 7 -30 18 49 21 26 -12 50 -2 36 12 17 18 -21 -2 13 -58 23 -6 38 25 34 -33 38 52 25 15 -80 6 -8 14 12 14 41 30 -62 43 -6 -10 86 -6 -2 -48 38 -38 1 -18 7 30 13 47 0 -75 29 -51 44 -21 32 -30 -2 37 11 39 30 -41 -19 18 13 17 33 -45 43
21 35 2 -102 19 -23 -5 47 -31 52 -83 -17 34 13 39 -74 6 16 45 -38 -56 -24 51 -10 -102 -80 -24 36 -10 1 14 -27 14 44 3 -62 -46 106 5 -12 -80 22 -20 -47 30 27 13 5 51 29 0 -2 7 -79 42 -16 6 14 17 -19 -127 -6 -8 -49 -8 -39 -41 17 68 56 12 -42 26 57 -48 -7 39 75 10 36 20 -59 -69 49 -101 -9 8 7 38 -22 -51 1 -91 17 3 -46 2 -3 45 -42 16 -9 1 22 77 42 18 -27 19 -16 -26 -91 -50 2 34 -62 98 22 47 22 4 -44 -68 50 -22 98 32 2 -11 39 25 3 5 17 -5 4 -27 -12 -41 40 10 22 22 38 12 41 -35 7 -16 -9 5 17 -14 -11 -11 -9 -20 -42 17 -10 -15 -22 0 -31 -22 -23 -13 6 12 51 66 17 -3 -2 -30 56 -24 13 -19 -6 -8 40 -34 21 2 56 9 -6 -10 -31 -11 8 5 4 -13 -1 -16 -15 -20 13 -9 -1 4 21 21 6 40 17 -11 -2 -13 -39 -5 -17 -18 -10 -22 18 -25 33 -24 2 14 7 35 -34 2 50 -9 17 6 -47 -42 41 5 -5 -13 8 1 5 -20 3 6 -11 23 15 9 9 17 36 26 7 -4 -45 28 -13 55 -40 -9 -15 16 -11 5 31 -11 6 9 6 -32 -49 8 -19 -22 -30 50 2 11 -17 -41 31 27 38 17 10 16 43 -3 25 11 -23 28 -15 17 -19 -20 -12 -24 -25 30 1 31 40 36 -54 -17 -1 11 -43 18 38 -22 -5 -4 -28 11 -1 57 5 50 12 8 -14 31 16 17 10 0 4 -27 16 37 -4 -6 -10 -23 14 -35 -19 5 -17 -9 11 30 -21 26 42 -22 -30 -4 4 6 14 -2 8 21 -17 -22 43 -2 -12 4 20 -4 56 28 15 21 -23 -4 -1 -8 40 26 -71 -29 -48 31 23 37 3 56 31 2 -4 -16 -6 -8 -48 -9 9 -21 -10 34 9 33 34 37 29 -21 -5 41 -11 -5 1 -15 37 68 8 20 15 11 -18 -7 -5 -2 6 18 3 -55 -15 4 -56 -22 32 13 -48 43 2 -4 68 5 22 -19 -17 28 -12 7 16 -12 13 60 -23 -37 7 21 35 50 -27 42 26 -29 36 -39 -48 -11 -56 -1 63 -44 -45 -9 28 -9 -37 -103 33 12 58 -29 -24 -48 -117 55 -41 -67 -78 112 -32 122 31 -38 -60 -41 -39 29 8 6 -57 48 29 -103 -94 120 -72 -67 1 22 -28 -50 6 -29 29 -63 -15 -7 -40 -82 -31 -39 -75 88 29 11 -15 24 21 18 39 -5 42 25 0 -25 -19 -23 6 -13 26 -10 17 -4 9 13 5 5 -21 14 15 -12 2 -41 1 4 3 -9 -1 -16 73 26 -33 4 25 -49 5 4 7 -17 2 4 12 11 -15 15 -20 38 0 22 -3 -17 9 3 -17 9 -21 -35 -10 -54 64 -33 -26 -6 35 -32 -8 33 53 11 4 -24 -23 22 -50 -28 25 -2 4 14 16 14 -3 4 8 -12 23 4 33 26 -14 -27 6 17 -7 31 6 -3 -19 -58 -35 -3 -51 -11 28 6 61 -8 49 -4 6 -2 -12 0 -25 -1 46 -1 -2 41 -24 12 8 43 31 18 24 1 4 69 5 -24 -58 25 -2 -58 -15 -54 1 -30 -21 35 47 -31 13 7 -6 -14 -9 -5 29 29 11 -2 -18 -3 57 -23 -6 18 -24 -34 -5 -16 1 27 15 -14 27 -1 5 -13 37 -9 -3 -37 -8 -5 11 -5 -19 29 -26 39 -11 -1 -14 -6 26 2 -15 47 -9 -17 -8 -22 -10 7 11 -2 23 49 15 1 10 50 -31 -5 -39 13 51 -36 -12 33 -5 0 -16 -2 6 1 5 -10 -26 -4 41 -4 -30 23 -6 -4 -65 -8 -9 -2 28 18 1 23 -18 1 -3 0 1 33 -8 -26 -6 -9 17 -45 19
-89 11 -16 -7 11 -1 5 10 19 -15 28 -14 -15 -1 16 -56 25 17 -26 18 70 -16 -20 12 9 58 -6 14 17 -27 48 13 -6 -10 -76 42 -14 16 28 -51 22 -63 8 6 52 13 -37 -30 7 25 13 -3 -18 56 39 22 -10 -10 -47 33 12 29 18 -2 -1 -20 -6 25 126 1 -16 59 9 -18 76 -23 -14 -22 38 -5 33 -45 -67 -47 45 -63 -46 -23 -21 20 -13 -5 19 38 -3 32 -39 -42 77 -8 20 18 -8 -1 18 -35 -65 8 -3 -33 -59 14 44 -12 17 35 51 35 30 9 -31 -16 15 -22 37 11 5 10 40 -53 -8 8 -32 -57 -6 39 70 0 -2 44 -29 -2 24 -23 -63 38 63 -68 -10 -52 36 -18 34 -23 -13 0 -14 33 -37 11 70 25 3 -5 -24 7 22 -41 57 -26 2 -39 -32 -2 45 -59 -3 -41 1 15 3 -25 -34 -14 -29 -9 40 -15 -12 24 19 14 29 3 27 -4 23 19 19 -22 24 55 -2 -51 -12 0 -36 -16 -26 25 -8 2 7 -14 -8 27 -9 -34 -16 -29 -4 27 -22 -6 -23 -2 11 -29 -47 -2 -23 -16 -3 8 16 -8 18 -58 23 -41 -8 13 36 22 5 1 -22 3 -45 12 -52 25 -52 -22 5 24 -59 0 47 40 -10 1 18 6 34 -32 -29 -29 18 -2 -17 31 -51 -19 15 28 24 19 25 27 -54 7 20 17 -44 -30 -14 -7 -25 -24 25 26 14 2 12 -30 -25 32 0 23 35 -14 2 -20 9 38 -29 5 2 10 23 0 33 17 -19 27 15 20 24 31 27 -5 -52 -15 18 13 12 26 45 22 -42 -42 -18 23 22 60 20 17 -15 -11 -8 34 -10 1 39 -17 -23 56 22 39 -12 -93 22 52 14 26 -7 19 15 24 -3 38 52 58 -88 -24 14 -13 -4 -4 9 -9 25 -55 24 -7 33 -12 43 -6 -14 78 -35 0 28 -3 -38 9 -84 4 12 -1 14 -8 -58 11 -48 13 7 -46 -10 26 39 -18 -6 23 -10 10 12 23 -80 -27 -38 -10 -13 -12 39 13 -7 17 5 100 -40 6 7 7 7 9 40 15 1 -50 6 -48 11 -25 2 -22 -53 6 -34 -16 15 -15 27 15 -9 -30 -42 7 14 18 -30 -15 16 18 -18 -10 -5 42 -37 -37 9 46 -16 27 -58 20 -16 -45 -10 -24 4 -94 21 46 -32 -14 -26 6 35 -17 10 -7 -7 -17 21 -17 -28 12 76 -37 -37 35 -56 -22 19 25 -14 -25 21 26 -55 -2 -3 -36 2 -22 -20 15 -14 -42 -16 47 -31 16 -16 34 -27 -2 -35 39 18 -42 25 28 8 42 -16 1 -34 19 -51 -29 -1 -1 29 -33 -2 -41 11 -29 50 46 16 23 13 -60 68 55 -31 -2 39 19 -52 -24 10 -19 31 -30 13 58 -30 4 -70 11 -61 -38 -18 41 10 3 -13 -2 13 -64 41 -27 16 46 -8 7 1 1 8 52 8 -29 -8 -8 -40 -21 -32 13 -16 -26 -25 -1 31 1 15 -39 7 5 -71 10 -22 -34 24 1 18 10 26 -65 -17 2 22 -21 -29 20 1 45 -23 12 -20 49 -52 -34 -44 -20 2 -3 -30 48 -14 -16 -47 6 17 -16 -9 24 -64 24 -22 -58 -38 48 27 -41 25 10 26 -72 28 14 24 80 9 -2 27 28 -7 -26 -34 60 -16 -9 -58 29 -27 38 62 15 14 -12 37 -6 -12 -83 15 -10 13 -16 64 16 41 -21 15 27 44 20 1 -30 23 25 -3 -11 -13 -37 0 10 -29 -26 49 -41 -33 -47 -44 15 -72 18 40 -2 89 -6 1 -27 6 20 7 35 -46 -21 -20 19 -23 -56 -5 -52 -22 -25 -51 -19 -57 -16 -5 69 -32 -29 49 -16 31 34 -9 -37 -32 -18 -12 23 -24 -12 -10 -46 46 2 7 -9 2 -7 34 -19 38 -34 27 32 97 39
32 -4 3 24 54 21 -30 16 8 -18 -16 -18 27 66 -46 -53 8 73 3 -21 19 -1 31 126 22 -8 -40 -3 -18 -32 51 2 -20 19 49 36 -16 -19 39 21 -17 -24 -7 34 -10 -2 27 -26 32 -1 17 8 23 -30 -76 33 23 21 7 -20 -9 4 79 34 -66 31 9 34 -14 42 52 20 -19 -31 24 18 63 -16 -19 -20 71 63 10 8 4 -18 -56 38 -46 -22 -7 -56 29 9 43 38 -42 -45 21 41 -21 1 89 -18 -22 55 -13 7 78 4 3 -71 -75 -16 -32 -7 56 46 -55 -47 -43 83 -42 18 -24 -14 22 70 -11 -80 -17 -56 3 -11 -52 -18 38 1 -8 -24 -41 13 27 -25 7 -26 43 -26 4 -24 -27 4 2 -38 25 -32 34 -31 6 57 20 -12 -15 -22 -27 -13 39 13 -35 -7 -5 63 28 36 -22 16 2 16 -43 27 -40 7 42 -1 15 -16 32 26 -7 68 -26 59 38 -31 12 -18 3 4 3 -5 -40 11 -48 -28 -12 18 -17 48 16 -9 -19 -18 14 17 8 25 -31 4 -20 -35 27 43 -16 41 -8 7 -42 -4 -44 -23 -30 -5 5 30 17 28 -24 -28 8 -6 -50 -15 24 -29 -20 -61 -6 -33 -9 -12 -30 -41 0 15 27 -1 -2 26 -36 23 -24 -13 -19 40 -14 -36 0 9 13 -1 41 15 32 -19 28 -33 -2 20 -8 47 -19 -53 10 2 32 -30 59 -2 -19 -6 7 -1 -7 -56 49 10 -30 24 -36 -13 -5 -8 -40 -15 -26 -58 -51 -2 -10 28 21 64 20 31 20 29 -28 55 -1 3 10 23 18 41 23 5 -33 48 32 5 9 -16 4 4 54 7 9 24 29 -37 -35 -17 -40 20 -58 36 4 -29 -56 63 41 42 -7 33 -34 25 66 44 0 -24 -76 -43 -6 -14 31 24 19 -79 -15 6 -5 15 67 10 -6 -25 -5 -12 -20 12 58 -25 -18 -10 20 61 -19 -46 7 -64 -23 32 -28 -31 14 12 24 15 -30 21 7 41 10 -2 -30 19 -13 -89 -50 19 3 -21 32 -10 -26 -11 -24 -7 11 -7 -71 21 3 34 -1 2 61 -16 5 18 -62 -64 7 -7 -23 2 -34 9 1 -6 14 -10 -30 -20 6 27 -3 -10 60 -20 23 46 42 -50 29 93 -62 -13 -53 46 19 14 -50 9 26 77 -23 44 -48 -45 2 -22 0 36 10 25 -61 -63 -36 16 28 10 -39 -19 59 38 -4 -25 44 6 -12 -20 -31 29 -10 -45 51 -83 44 -44 -12 36 -3 11 -81 -37 -4 -38 13 6 -19 -32 17 34 12 35 27 -26 -12 8 -32 -33 -56 -46 -21 -23 -37 -51 2 33 30 -6 -54 -77 11 65 41 -13 -42 -9 24 11 -37 -13 -68 16 -18 -5 -11 38 -59 -13 -81 12 16 -60 -40 42 22 -25 45 -16 -32 -73 -51 -30 35 16 -22 28 -9 -31 12 -21 44 -17 -15 13 2 -52 26 -15 -28 48 -20 14 50 -36 32 -16 -8 -21 50 -1 -35 -31 9 41 -6 25 -8 -27 -28 -15 -52 -16 32 6 -17 -2 -2 18 14 60 9 0 35 -45 39 -50 -37 22 -46 65 -58 7 -12 -23 16 -1 17 -61 60 10 -85 46 -6 -8 -14 -9 -16 34 37 4 -45 0 -46 3 -31 -13 -15 33 3 -52 20 10 -23 6 -17 -25 47 10 48 -50 13 -56 -34 -2 -38 7 40 2 -43 -33 10 -3 25 -30 5 29 -7 26 1 -14 7 -33 51 45 -13 2 -17 -43 24 -36 -34 -41 -51 -17 -17 -76 40 -19 27 10 -12 -35 -70 -15 -65 -41 -50 42 45 -7 1 33 22 -23 -24 14 -11 50 36 2 -36 4 -14 40 2 31 68 21 -67 33 1 -64 -6 -25 31 -2 -5 23 6 27 45 -4 82 -29 -56 -23 -26 1 -24 -10 29 5 -46 33 51 17 15 16 36 -73 63 -28 -19 -6
-13 -17 -26 18 3 49 -8 -68 -3 -5 -53 52 58 34 67 -3 -68 33 -10 -39 -9 -33 -7 -22 56 46 -33 -24 -8 29 20 -31 2 0 -7 2 10 -9 -4 26 27 -4 -70 -30 -34 11 -41 24 24 16 -30 29 -21 23 16 -32 23 10 -4 20 -11 -12 -16 -24 99 -56 -14 7 -44 -24 -39 52 96 8 -1 0 -3 -84 52 -35 42 28 14 69 47 -17 42 16 72 -27 26 1 93 5 64 37 -34 -8 6 -47 -65 75 -15 13 39 -67 51 -99 36 27 -87 35 10 87 -24 -57 25 -53 34 21 -43 -20 -92 -28 39 -14 45 96 -41 -49 -4 4 -31 25 14 -106 16 49 -41 -52 27 -63 -2 1 -19 28 -4 -23 -39 36 93 -3 85 49 126 -44 -37 -70 -57 70 -24 -23 -13 -84 -52 -15 -32 23 2 114 22 -43 7 -29 86 29 -61 -8 -14 64 -58 -13 18 -8 -14 36 41 -36 25 24 -8 0 39 -24 32 -49 -5 -13 -29 52 14 -23 -44 -13 62 60 27 -7 30 -30 -27 31 -11 -8 -20 -16 68 -15 48 49 -40 27 30 -70 -2 10 -37 40 -8 -33 -38 34 -12 -25 -15 -22 -22 15 -48 -56 8 52 -28 7 5 8 9 28 -46 -2 63 -26 2 -26 20 40 9 -53 -13 31 -43 -14 21 -33 -54 -51 7 1 25 54 7 5 74 35 44 -35 -27 -8 -23 -22 -20 -15 38 3 72 5 60 -63 5 9 22 11 -29 18 20 -48 -11 -56 -26 18 16 49 3 27 -27 -56 -11 -69 33 8 -17 -14 89 47 26 27 -20 -49 -28 -50 -6 21 -32 51 36 -47 -24 114 23 -12 -10 -24 48 46 31 9 -32 39 86 4 -17 -52 48 -75 24 -8 -10 -19 -40 -21 -88 -51 -6 61 16 -51 -19 -23 -81 23 -41 -57 -26 -90 -68 0 -28 -15 -28 18 -95 42 -19 -38 35 1 13 34 -17 19 -55 55 53 -23 109 16 -27 47 -12 -24 2 -63 12 -29 -50 -47 53 -7 -17 -74 50 -13 34 -25 -8 88 -15 23 48 41 29 43 -43 68 17 32 -31 -69 -12 3 8 -32 -40 -54 -11 -23 6 -3 116 38 -15 18 -42 25 1 59 -27 -6 26 -52 -28 24 22 78 -112 -8 -27 27 -24 0 60 54 17 5 37 76 -35 -9 -24 51 24 -46 7 -10 -22 -36 56 -63 -4 -10 15 1 -43 19 -27 -15 6 -32 -17 30 -1 -50 20 -20 -77 -4 29 -29 -31 -7 -1 22 -53 -23 -83 -37 -25 -20 -14 26 42 -7 57 -13 35 -16 7 40 -30 69 -68 24 33 -22 13 -51 -120 60 -15 -20 -21 -72 -29 14 5 -39 45 -58 20 57 3 43 -73 -2 -71 -53 -51 -58 -35 -24 97 -6 21 20 15 -12 -62 46 6 60 -4 -7 -6 -55 19 46 -46 106 -56 -47 27 3 34 39 -40 71 -51 59 -77 18 57 28 0 34 61 -14 14 -45 41 -21 -5 -10 -31 55 -17 55 -19 -61 56 -48 -18 9 -5 16 68 1 36 -47 23 73 70 9 44 14 38 -34 -46 -51 -87 -55 98 -16 30 -18 -16 -15 95 -99 48 16 23 12 -43 14 71 -15 -12 14 28 0 22 7 62 2 54 22 -47 56 -15 26 15 -31 3 9 -40 10 14 -43 -2 58 65 38 -13 50 63 -56 -56 -14 -9 -45 50 15 -48 -41 14 7 -19 -29 -21 -36 -26 8 11 -21 -8 7 -76 22 -44 -40 5 -13 8 46 -60 -28 86 1 -18 5 33 -37 56 -12 -61 12 23 -64 45 -23 -38 -15 51 93 28 -76 87 -66 8 39 -99 51 -7 -61 -79 -15 -37 -8 34 -44 -24 4 -34 -92 -27 13 0 42 46 25 -8 -5 -64 64 23 66 13 -62 48 -3 13 -22 100 -52 -117 97 -102 -13 21 24 -8 -19 66 70 71 -17 -1 -51 80 51 -59 -54 69 40 70 -10 -6 34
60 16 45 -34 -35 -12 -1 18 -23 4 -109 -16 -17 -52 -43 2 34 -29 -4 -5 27 -71 -34 -74 62 6 13 64 -4 -9 -15 -24 23 -21 40 15 -20 -11 -19 24 30 2 -38 12 -39 -92 -38 21 -13 -38 -41 24 -25 93 0 -35 12 18 -40 11 -11 34 -70 -16 0 82 19 52 66 -49 14 19 -28 -16 -2 -26 21 28 -19 18 33 -65 -4 46 37 -6 -16 -62 37 -8 5 -4 11 -64 -32 5 -52 14 -10 36 -24 94 10 -76 12 -25 -46 21 5 -55 44 -24 -4 80 47 -123 17 20 98 87 -15 -32 80 -25 -19 -9 -10 -29 -8 22 -5 8 -2 -4 6 3 -8 -13 -36 -4 -29 2 11 -9 18 13 6 5 41 45 17 -54 11 -23 4 3 16 -2 -11 -15 3 7 20 -8 1 9 -14 27 7 38 36 -3 -3 -42 28 -5 -13 -10 9 9 22 -42 54 26 -23 29 3 -28 -2 -26 -5 -8 4 8 0 -1 29 22 16 -13 -17 15 0 -28 -13 -4 -8 15 -3 32 19 -14 -22 -5 14 1 -13 27 -6 -25 6 -4 -23 -23 -14 -1 -6 -12 33 -12 -19 -13 8 -17 31 24 17 -13 36 -20 -11 -12 6 -36 -7 19 6 -5 -14 20 -27 -3 13 5 1 14 -27 -50 -14 15 -17 -3 -40 -9 -10 34 3 -18 28 13 5 7 -2 12 -28 -50 8 1 -12 5 12 13 23 11 -12 -22 -12 25 37 -13 18 -22 16 -25 -13 -9 -8 -18 6 5 39 6 1 -24 26 -1 19 -7 34 -9 17 -6 -31 19 -21 1 24 -11 12 17 -11 14 13 -16 26 -3 -11 -12 24 17 19 11 -34 -9 16 13 8 -15 -17 0 38 -36 -62 -5 2 -2 6 9 -17 -35 -19 27 9 21 -18 18 15 -8 -14 -13 -28 0 -4 1 -26 40 -5 1 27 -12 -14 22 8 24 5 2 -32 15 4 -15 -16 -22 -38 -4 28 -18 -21 5 2 -30 -43 -25 14 -18 4 48 -11 -24 17 11 19 -55 -1 13 25 -5 100 -37 34 -13 -25 0 -12 9 -6 -41 37 37 -10 -23 -5 -30 -16 44 -6 -13 2 -6 -19 53 0 3 3 8 50 -36 -12 6 -3 12 9 -37 -6 11 29 -16 8 -41 23 45 -15 -64 16 34 73 29 -49 -20 14 13 -26 -63 -60 -16 -31 -39 -22 -38 4 -22 48 -70 48 23 -40 -37 1 61 15 32 29 54 75 -42 31 -49 8 55 20 46 -32 -20 115 -20 66 18 -22 7 -127 31 -37 15 27 4 66 -7 7 115 38 -51 -125 -74 -19 -13 22 15 14 -5 1 -18 -10 -2 6 -12 -23 -4 7 27 6 -30 30 -6 -11 28 -70 -29 -11 25 -10 29 -11 -5 39 9 10 -14 -13 0 9 30 -13 -36 -10 3 -1 -3 9 -50 14 -4 3 -39 23 -1 44 0 -29 -5 3 -5 -1 -9 -8 -10 4 -11 10 -24 -17 12 41 -22 -30 -28 -81 -27 1 52 21 4 21 22 -20 18 27 -17 0 32 -18 -49 18 -14 5 59 10 -21 49 -2 19 5 -19 -22 -46 1 -26 27 -13 -38 32 30 8 -1 2 10 29 10 16 -27 67 -6 28 -77 -4 -59 6 -33 48 -43 -10 -2 7 -9 35 19 -11 31 4 19 0 -39 -34 11 -13 14 -11 0 1 47 22 24 -2 16 -16 -9 8 -26 -22 18 -11 16 12 5 -9 -10 26 -8 -5 -18 6 37 -17 4 31 -26 4 -15 11 37 0 12 1 0 36 36 2 9 -14 -5 12 -2 23 9 6 -13 37 39 -17 12 19 24 -4 31 37 21 -15 -34 -11 27 26 -1 30 -9 -30 -8 18 -24 -10 25 11 2 14 -11 -20 -10 -37 37 14 -11 37 -6 26 -14 37 18 -39 -24 18 -4 -22 -55 -1 -76 -41 -1 5 -48 -11 -20 10 25 14 18 -19 -10 -33 -18 22 83
-13 11 22 54 0 23 -26 -9 32 -12 -38 -54 -33 16 9 3 47 8 19 5 11 -7 81 8 22 26 13 15 96 6 -91 44 -55 15 32 51 -32 6 -35 -26 46 -12 46 -43 54 43 -86 32 22 -9 -6 -2 -1 6 -16 -20 12 16 16 -16 -33 0 17 -2 42 38 -36 -86 -80 -7 10 -3 30 6 -18 34 -10 -10 -5 -86 -70 -17 -13 9 44 -55 -36 -22 -114 48 27 57 -11 28 49 67 -5 -47 -57 8 23 -5 42 27 51 -26 -3 24 -55 -46 39 52 -67 -51 14 -61 0 50 9 20 -4 -19 48 0 -11 -31 -48 -5 44 0 -24 -26 30 -6 8 0 13 -31 -28 -12 -24 6 -33 -45 19 -32 3 30 28 -19 -26 8 40 20 21 -5 3 26 -45 -12 10 2 48 18 -21 6 -11 -23 9 -31 -27 9 22 10 -2 -6 -6 18 36 3 -4 59 16 1 12 10 25 -14 -23 -35 -33 -11 -4 -35 -23 -16 7 21 6 24 35 4 -3 27 -24 7 14 -9 -15 -10 27 13 -6 22 -26 27 11 -24 19 12 -20 29 -10 -34 -25 -7 7 4 -56 -21 19 -34 19 -6 13 22 8 -34 7 37 17 -31 -13 -10 21 -32 -8 36 -50 -13 -16 -47 -24 41 5 -16 36 7 2 33 17 30 32 18 16 28 18 -4 -1 -47 -22 -1 -7 32 -6 32 -21 10 -26 30 -20 -25 -13 -11 34 5 -25 -6 -24 9 12 55 35 -1 9 -3 -16 -5 -22 17 -16 -7 12 -1 -17 -34 -20 -27 1 -25 14 4 8 15 32 6 16 -21 3 5 30 25 -34 18 42 -15 5 -4 16 10 -19 -10 -20 6 0 -22 9 -7 13 -29 16 -18 -10 4 1 -13 16 12 21 3 0 24 -21 61 -21 31 -14 -5 2 -11 -3 -21 -12 -15 -3 -18 13 7 -42 12 2 -4 13 -19 -38 30 -23 0 -38 -9 1 10 -13 -26 -10 -36 30 23 -4 17 -16 -27 -22 2 -16 23 5 26 24 -27 7 -9 16 5 24 9 20 5 23 -28 -35 15 19 -7 18 -27 33 -3 -40 -24 14 9 1 11 -6 -13 46 10 17 -25 -22 -11 -11 -18 34 -22 -13 -17 -1 0 -8 23 27 16 39 -15 -7 -5 34 4 -43 5 1 29 -55 28 20 21 -64 -8 -37 18 -32 39 -58 -12 -52 -69 -19 -25 33 59 119 15 -20 20 -74 80 56 -34 -50 47 71 40 -18 28 -23 21 -13 34 -49 8 -93 28 48 6 30 50 -85 -47 27 -58 27 65 -55 -12 -2 -38 -127 -31 -31 22 0 -7 25 1 63 -16 -14 -11 17 14 -2 15 11 -12 17 -12 -38 -8 -20 -29 5 -15 -5 -11 12 -7 20 10 12 -18 10 16 18 12 28 -12 16 12 -14 35 6 -22 11 27 8 16 -6 13 -22 31 -22 13 -25 -23 -32 0 -51 -40 19 -12 -12 7 -1 19 10 5 -5 1 -6 20 5 9 -6 -2 4 17 3 18 -56 -26 -20 2 13 -6 23 -23 -16 -23 0 1 16 25 -6 15 -1 16 -25 -23 -11 -15 16 -27 -45 2 7 -51 0 -47 65 -37 9 -41 -20 -38 31 19 -2 -25 37 36 -7 11 20 17 -22 16 -34 -34 22 -12 26 -18 4 -11 -16 16 -5 -7 4 20 -7 0 3 1 -23 2 2 -9 -1 -19 35 9 9 12 3 -22 1 -35 33 16 16 22 6 30 -2 -26 34 13 26 3 -10 -2 -52 15 -25 11 -6 -50 -1 -5 1 -9 4 -10 -4 5 -19 21 -4 -6 11 5 5 22 71 14 -40 3 25 60 21 26 0 3 -28 -38 -2 2 -17 27 -31 54 44 0 -11 -22 6 43 -2 2 -13 -26 -1 -11 -40 16 -18 22 29 -43 24 3 8 -38 -25 35 -20 53 -29 -49 23 -1 -47 4 -3 -3 -13 -4 -48 -4 2 10 -5 -7 42 -11
-45 17 4 -8 38 -18 -41 35 -33 -7 -18 -26 22 0 30 -27 8 -28 38 -62 -34 23 -63 -13 -22 37 41 -8 10 -33 41 5 32 5 -45 45 44 -10 -21 16 40 -28 29 -33 -29 2 57 -26 31 -56 -22 6 -2 6 -17 -19 12 30 7 -14 55 33 10 26 -28 -48 10 -94 -42 -60 34 -17 16 23 -68 15 20 69 31 5 -41 2 11 -26 -43 117 25 9 -38 -53 52 30 -39 -13 -6 0 -9 19 22 -12 59 -53 -31 -62 1 34 4 27 13 -93 22 -47 22 64 17 45 122 -26 3 51 6 -31 126 -27 -14 -19 -19 31 -11 -38 -25 29 7 -12 -19 -2 12 -62 -49 -36 18 -34 28 2 -32 -55 -44 -12 25 44 6 47 -3 -17 -48 -25 31 -53 2 -34 23 -3 33 0 -12 32 24 4 -33 7 -13 -5 21 4 -15 -14 23 -1 13 18 -24 -46 -3 2 -12 -17 -26 19 8 7 81 37 37 -18 38 17 38 49 -42 -24 -3 -26 19 -50 7 10 20 45 35 0 -9 11 4 13 10 -29 12 10 -14 -29 -16 21 -11 -3 -6 12 -1 -18 16 -39 57 16 -47 -28 -13 1 -3 -6 -15 34 47 47 4 -9 16 1 -13 -42 -45 -32 -21 5 -5 16 18 9 38 23 19 -11 -16 8 52 12 -40 -35 -70 35 7 -13 19 -2 25 12 13 8 2 -18 -5 47 -8 -38 3 21 5 -16 -7 -12 -60 -22 13 -16 -5 19 6 -32 -30 -22 -6 8 -5 35 3 -7 -11 21 -32 35 -19 57 -44 -20 -38 3 23 62 -22 -21 0 -3 18 58 -11 56 -5 -27 -11 59 15 19 -28 4 -32 -4 -29 -29 -14 -5 -13 -40 51 50 -28 17 -79 -17 -6 -2 28 9 -43 4 -18 6 -32 -15 15 -50 30 9 5 44 -91 13 22 4 46 23 13 6 -23 -51 48 4 64 -6 40 -30 -62 -78 -3 -12 -55 23 22 0 -19 23 -28 0 37 16 5 -8 20 39 24 -58 -45 21 32 -59 35 -37 4 29 -8 29 9 -38 41 63 5 37 4 -79 75 41 -22 -2 27 -23 -6 38 -29 -10 -4 1 41 28 38 10 23 -41 -13 40 35 -59 15 10 12 -22 -1 20 7 18 27 13 -49 7 11 40 -16 -13 -43 44 -19 -34 -68 33 -10 -34 -19 -62 -3 -42 -43 17 52 -33 7 40 -19 -12 8 11 8 75 -28 -45 9 -7 -48 32 31 7 3 28 -31 -22 8 13 8 -45 18 -21 -41 -31 38 14 -68 -41 17 21 1 33 67 -15 -17 -2 3 -4 -15 -51 -14 -12 -3 1 -11 34 92 34 -48 -1 -33 15 41 16 34 -21 -70 -1 -37 18 17 26 -38 61 -20 36 -14 15 36 42 2 -72 18 84 39 9 -32 54 41 3 -4 -2 34 -55 23 16 41 9 -18 11 25 -67 32 -35 27 1 -41 34 -29 -7 26 -33 18 15 -1 33 -3 27 5 5 0 35 28 2 -22 -11 -13 7 13 39 -5 11 -15 -27 -1 6 -13 -58 -9 9 30 53 -38 26 13 -4 42 42 -29 13 26 48 35 -2 29 -20 15 -2 40 37 55 -45 26 -15 -28 7 -44 15 -6 29 -43 -35 -13 20 19 43 116 -20 -77 -26 39 -39 18 9 -39 8 -12 -4 20 61 24 -28 60 6 47 -23 -21 35 7 -5 -17 45 -36 -2 3 -79 -9 -37 -1 19 63 -5 -30 14 -39 6 35 -34 16 3 -14 -3 62 27 35 -8 -49 -57 35 12 2 21 -32 16 28 -5 -24 12 22 98 9 -31 -46 2 -14 60 -91 -56 -50 -22 -7 -24 77 16 49 20 -23 -99 63 57 71 -23 8 -18 -20 34 28 -17 15 -30 27 -52 -36 0 17 29 23 -24 -6 89 53 11 15 36 63 -16 33 111 -89 34 27 1 6 30 -19 49 -8 -7 54 -43 -2 -39 94 14
-13 26 -22 -4 13 -54 72 -2 -30 -51 116 22 28 11 -28 -36 61 -28 -8 -9 -18 97 3 -39 -38 11 40 -21 -25 -1 32 28 32 19 -53 -19 65 70 -71 26 20 -28 -35 -21 -18 64 17 0 63 39 -16 61 20 -20 24 -9 31 6 67 -7 -45 -20 0 14 -127 -54 -16 6 29 28 32 -7 45 -15 38 -39 -15 -15 76 0 47 -3 -12 3 106 -79 3 0 -15 90 20 -72 -35 -7 -50 -5 10 -20 39 -23 5 13 45 85 -13 3 -15 -12 -86 -9 -48 -2 45 -6 16 -94 39 -80 -42 17 -42 21 -46 -14 -36 30 -30 98 -62 -11 19 -3 -42 -72 -61 20 6 -8 25 51 -15 -10 27 56 77 32 -26 -1 30 -62 13 -29 6 7 27 22 -28 20 2 44 29 25 -38 -11 36 -1 35 21 -13 -44 3 9 -44 -3 34 -26 0 32 -7 -50 -7 -80 -13 -43 -28 -1 35 -41 -24 -23 32 44 0 -48 -12 -29 32 0 -40 61 17 4 -15 41 -11 -9 -43 -26 23 9 -18 66 -10 15 9 37 2 10 16 10 24 6 -49 33 32 29 -26 -39 -7 -20 -34 -16 15 -47 -4 -9 -32 -3 9 -31 1 26 -17 33 -3 -3 -23 -33 -21 10 19 29 33 -96 -54 -17 40 7 38 30 2 35 -18 -29 -32 -17 -27 32 23 -9 -7 -35 9 -16 -8 1 -18 13 -18 -11 -3 16 -58 -19 -36 10 23 19 6 -49 40 -10 -18 22 -2 28 38 40 9 -6 23 -18 4 -4 -24 -1 5 -18 10 -8 -23 -48 12 -21 -10 -13 -15 -26 -13 0 3 -9 -21 -33 -26 -20 64 24 39 -7 35 -19 17 16 -29 -30 -24 -64 29 -103 2 0 47 6 -25 12 5 -23 -17 -46 47 16 3 -31 -42 21 21 -33 -9 17 -28 12 21 0 13 -17 15 22 27 45 -19 18 15 -44 -6 -8 4 -16 9 10 29 8 -15 12 -91 5 70 -33 0 -1 4 3 -23 1 -41 16 -23 11 -22 -1 20 2 -30 14 5 -24 6 28 13 20 79 18 42 -11 -39 -20 -8 -59 23 -8 35 -24 41 -14 71 -18 -35 -4 15 4 -43 16 -34 -46 10 -31 -30 -6 -24 14 -41 -15 -7 48 22 -1 19 -11 -18 122 -13 -29 -115 18 -59 4 10 -1 -20 63 -39 49 44 -2 5 15 5 47 25 39 -57 19 -17 -63 -13 3 20 67 -31 63 3 -6 -11 16 -37 -26 55 -84 54 -67 -28 30 24 33 -60 -20 -8 6 37 31 7 -55 -48 6 48 -54 56 -2 -2 10 -15 -45 -20 -64 19 29 -30 -41 -15 18 -17 11 -60 46 3 -39 9 38 -16 -30 -1 -19 -64 -46 -14 58 13 46 11 24 -10 23 -7 33 29 26 42 85 28 35 38 -19 38 18 5 -28 43 3 -21 40 -60 3 -40 0 22 3 51 -58 34 -28 -6 39 -13 13 24 21 -31 24 -9 9 -8 20 1 21 -14 15 -28 -24 -2 -29 -45 36 -7 34 8 3 6 12 12 -54 38 -13 21 4 -2 53 -16 -9 64 -11 -15 -18 1 -2 -47 18 -5 26 -56 -37 -23 4 4 -54 -10 -9 33 18 -12 -49 -21 -35 54 30 -36 -18 -61 -19 -1 7 -18 -35 20 -7 12 44 69 -9 3 10 -16 -21 -39 8 -11 -18 -7 -8 12 -11 27 -36 59 16 46 -9 -8 -12 43 44 15 37 4 26 0 -36 -32 -3 15 -22 21 -43 -6 22 25 23 -42 -11 10 -36 -37 13 30 41 -47 15 17 -31 -48 -32 -26 62 17 -27 28 15 -26 -15 -32 -74 -24 31 -10 -13 29 98 -47 21 -26 -39 40 -25 -14 66 -55 25 -44 -3 43 -41 9 -34 87 -65 2 -56 12 0 4 -23 12 42 -20 -63 111 -27 -44 5 22 35 24 -12 -10 -40 30 -15 -36 -52 66 20 -36 22 14 -14 -30 -3 -28 47
-20 0 -9 -8 3 24 -60 -19 5 -43 47 -35 -9 -6 20 39 -55 11 -34 15 32 -55 38 58 62 -40 -8 35 -27 -10 13 -16 26 -32 -17 -4 1 -26 -10 -44 -39 -28 66 -72 -30 -52 24 41 63 -11 46 7 -31 -46 -33 -10 28 9 22 -9 -55 34 -56 25 -3 46 -12 -1 -97 62 19 8 115 5 7 -20 -19 11 34 0 -44 -24 -13 -57 45 5 59 6 24 19 5 -30 24 59 21 13 -32 57 -32 -58 36 8 56 -32 56 -1 -6 -9 2 -2 55 55 -20 75 70 28 13 35 -18 69 12 -8 25 -88 -21 -1 25 -46 -69 -81 -86 -6 -3 -52 -14 -23 -42 -2 -50 21 26 56 -2 44 10 -31 -52 -11 43 44 60 38 24 8 33 -11 66 33 23 74 -25 54 27 -15 -43 57 31 17 -15 11 -14 13 -8 69 20 8 1 -35 -35 -57 15 14 5 -26 20 11 2 17 -14 12 -26 -44 -14 -19 43 22 -5 40 -55 2 -2 11 -13 -24 20 -2 15 1 42 -56 0 -9 61 39 -20 13 13 -16 -18 -11 -17 -59 36 39 -30 -41 10 25 -4 37 -3 33 48 -30 -37 -12 43 26 -17 19 -20 -12 -5 6 -13 -22 23 -8 -66 34 -2 -42 2 -36 4 5 21 28 -38 24 19 18 -56 -64 42 -27 -35 38 -20 14 39 3 49 -19 -1 4 -17 -5 -11 -45 17 -7 52 13 -19 0 -27 64 -1 -59 14 -18 -44 -9 -42 -5 31 -24 -21 22 -15 31 32 5 -30 13 -31 -11 -34 33 2 -9 -5 26 -4 -6 -7 -37 -34 7 12 -13 0 -3 4 54 15 45 6 8 11 23 33 -11 -21 -22 -22 18 -52 21 16 -18 24 45 12 22 -8 54 -26 -9 16 45 14 10 2 3 65 53 53 16 11 3 -31 -8 -67 -11 -88 -21 22 -5 6 -4 -27 50 -33 55 -21 -72 -44 -29 9 53 -39 8 -11 -30 -3 -50 -35 36 51 -53 -3 45 -7 -43 -62 -29 16 -67 -10 -18 -38 3 5 -17 -91 -39 -50 -10 32 -20 -7 2 50 10 -49 19 51 -62 -30 28 -35 -17 0 21 35 12 -34 26 -10 14 -7 26 -52 -13 2 36 -5 36 61 -35 -10 9 48 -14 -41 -7 0 -28 29 0 -7 0 19 -31 14 45 -2 35 -51 66 -5 -32 -10 33 12 -7 50 22 -50 1 55 -18 18 18 6 -9 -46 -43 13 3 -51 40 -4 3 -43 32 -75 -38 72 -7 -45 -58 0 65 23 40 -42 7 -55 51 4 -87 -4 -17 7 5 -22 -18 -19 -21 -97 -20 17 -16 -21 36 -30 30 -40 47 67 32 95 26 14 29 -30 11 -28 -45 7 54 0 6 39 45 -86 -14 -77 -28 19 -7 92 -24 -18 -45 -12 46 71 -39 1 -23 19 17 -10 25 13 5 39 -66 6 12 -93 -49 -11 29 46 84 -17 17 -12 -4 -32 -17 2 13 14 -49 2 -34 30 -40 -35 -1 -42 7 74 5 7 0 -81 3 -14 3 -30 24 49 -40 52 8 43 -17 -14 -6 -40 -42 -14 0 -3 -66 86 22 -16 -32 -10 -5 -21 -11 30 -7 4 78 -7 -56 -28 24 -29 1 -31 85 23 -5 -59 22 -37 15 -9 33 -1 53 -6 -9 -11 -24 -48 38 43 -23 -1 -77 33 0 25 13 11 -36 15 16 -29 -27 7 -20 15 24 -5 17 -13 -5 56 -3 10 -9 -51 -8 79 -22 -15 -49 -2 -60 -52 -18 -63 31 -60 -39 -57 37 -8 -10 51 34 57 4 -36 8 13 -16 -4 -3 31 -7 50 -24 13 -34 -80 80 -8 93 -29 88 35 44 -79 -25 -15 -43 -25 2 61 0 -24 64 -20 23 88 -29 -51 40 -8 34 1 21 88 -114 -59 -27 -47 -40 33 -72 6 -25 79 39 -98 -104 9 126 41 32 25 11 17 -10 33 15 -62 52 -2 43 -111 -46 33 -16
7 29 13 27 -8 36 12 21 61 34 47 -12 -44 -3 21 36 -78 -23 -56 20 -3 -21 -25 55 4 -77 21 -41 -83 73 14 47 23 -17 52 -5 -59 -5 29 -15 -34 -4 -31 -35 -29 21 0 34 3 51 -15 3 14 -4 1 21 -17 4 7 64 92 -41 -76 52 125 -29 15 25 56 -73 55 41 -46 28 -8 97 -39 3 34 -24 122 -21 -49 -9 2 41 -3 55 21 24 13 52 -63 55 -30 40 -6 -32 8 24 -36 19 58 -1 42 34 -25 -34 10 -3 -19 -105 7 -64 0 48 46 -8 39 -93 -89 -27 110 -6 -47 -21 28 80 13 20 -7 33 -50 9 -74 -46 -42 -56 -36 -9 46 -24 -75 -25 54 29 28 -38 -21 -44 -30 -10 77 53 33 -77 -38 68 27 -29 33 -5 27 -18 -28 -8 20 -43 -20 5 30 -35 -13 20 -20 -40 -36 40 65 -32 -85 23 -14 -74 29 -69 -46 23 -48 -58 27 37 74 33 46 30 -10 0 -15 -62 34 19 29 47 -21 32 -6 9 -37 28 -44 -33 -19 -12 -92 -1 -11 43 5 48 -18 61 48 34 45 -12 -40 20 10 -21 -7 -13 6 26 -58 62 18 24 -16 77 -4 -8 18 -6 73 27 38 14 11 39 36 14 44 -13 7 -52 -36 -25 -3 -32 -27 20 94 -23 -53 -4 39 4 18 45 20 25 -19 16 32 -20 48 -30 -3 -4 -35 4 24 -12 18 -15 24 -43 74 -28 -18 49 -21 -29 23 -7 -16 5 34 35 -5 -8 -34 10 -6 -32 -14 -62 -42 -3 5 -32 -48 -9 -5 -1 -6 -28 -25 43 -37 75 -83 5 -63 -78 -65 -62 -48 12 -28 13 -52 3 -27 -56 15 -34 18 55 -39 -18 -11 -45 -38 -27 -91 -59 -18 -95 73 13 -37 -90 -13 -38 2 67 -18 23 -4 15 34 46 18 11 10 10 -17 -4 44 42 0 23 57 -71 10 94 34 42 24 82 -8 11 -64 33 -81 -8 -3 -8 -75 15 2 -29 8 28 -9 -17 -13 -6 -15 30 27 -33 30 18 -50 -13 -27 -9 -94 -11 -35 -6 34 44 53 -19 5 -12 -2 -34 11 -27 -8 -39 -76 63 -44 27 40 45 53 -52 80 -44 -45 -27 -7 -61 6 -2 -4 22 17 -21 84 39 35 -16 -30 14 41 13 9 -51 9 -61 -28 -11 -19 18 -24 -52 -34 26 21 15 44 -26 -15 6 -48 27 13 21 91 10 4 -1 -39 -10 60 13 -27 -35 -52 -20 23 -15 -45 -10 14 -41 -8 33 6 -82 -8 19 11 -21 62 -17 -51 24 -3 -33 48 -54 126 14 39 -26 -20 69 -64 71 23 -17 37 -2 -95 -5 13 -19 -48 14 -34 88 120 20 57 63 21 40 -16 -43 9 -23 -59 -113 -31 -55 -11 -31 -39 -11 33 -37 -7 -8 -66 58 -18 94 36 -62 11 25 17 -39 -53 -73 6 -21 -20 -36 16 61 59 -78 15 22 -66 71 -10 19 52 -4 33 30 13 -44 38 -50 3 -71 52 -5 -16 60 16 20 43 30 -27 -19 -34 12 -8 73 40 1 -16 -11 9 11 10 36 -89 80 43 -13 17 24 -7 12 65 -2 -12 -27 -53 -25 47 14 27 123 2 32 57 -42 13 43 20 22 -8 51 -1 -11 -58 16 15 -66 -40 -59 37 36 -8 41 -11 -15 4 -30 -56 -61 -116 -12 50 7 -61 72 -8 -5 -46 -13 -23 20 -1 7 14 -32 -12 -29 -21 109 38 15 1 16 21 37 11 -24 -27 32 -37 41 -58 14 -13 14 18 22 5 -26 -46 37 -9 6 -25 51 -17 -12 -11 38 59 77 -40 -58 54 4 25 19 38 -38 50 -118 23 91 29 16 -24 -75 -2 42 -20 -91 27 -47 22 40 -28 -9 96 -47 78 -11 84 25 24 37 26 88 40 48 -66 72 -24 -23 32 25 -11 -6 -73 -19 -48 64 6 -107 -16 5 -48 -40 -41 -19 -34 -70
-62 -23 -43 -45 20 -19 40 -39 -46 63 42 -83 46 38 103 -21 20 47 40 33 -6 31 -53 -52 -48 24 -12 57 55 -40 17 84 -51 -9 13 -26 18 33 5 25 -54 -40 -6 -106 -25 11 67 64 21 -1 20 0 -44 22 -6 -40 -37 -52 16 6 -16 19 -64 -102 30 -58 80 -17 2 -39 -6 0 -50 30 64 34 -15 62 27 25 109 41 -31 -42 24 -53 6 -8 46 -17 42 44 -13 25 8 64 10 21 -4 9 46 -4 -46 -44 56 35 -51 -27 105 8 -57 70 48 -65 -106 -28 50 63 -93 -39 -15 -64 8 -35 80 -67 -30 -29 20 28 -17 -43 42 -6 18 -10 -7 6 38 44 -41 -18 9 1 7 -41 -19 -32 47 12 42 42 -7 -27 23 38 61 16 -2 20 -8 -9 -19 -31 -12 12 -51 21 -48 -7 24 -8 -14 -6 -18 -19 19 -19 28 -25 10 -5 35 -22 -3 10 -5 3 -15 -14 -30 35 0 3 -21 40 3 -26 -6 11 15 -2 21 6 17 -7 1 12 35 23 -19 -18 15 5 3 -4 -1 -42 6 -34 16 29 0 -17 -22 -1 -23 -23 30 0 -9 -17 6 34 -33 -47 10 0 45 -24 49 25 -46 48 10 -3 12 -21 11 34 3 -23 -8 -11 -2 -48 -25 -16 -24 16 27 75 5 16 45 1 37 -11 16 -5 -31 -1 -19 9 23 -7 3 -3 -4 11 -50 29 -9 -6 20 -32 -3 2 17 -15 -58 5 23 -23 4 -3 12 -29 40 -7 5 4 0 -6 3 -30 -6 -45 -20 -20 -3 -20 -33 -21 -26 3 6 -1 28 -25 -7 24 -27 -2 -6 -39 -7 6 -7 -32 0 44 42 -15 11 31 4 -23 37 28 9 28 6 18 47 27 -27 37 -7 21 13 -18 0 -24 -28 -12 53 -14 15 43 -17 -20 -10 -28 -19 -45 14 -15 19 17 -45 12 -1 23 1 -30 -16 -30 -29 11 -4 -20 -14 -8 28 -23 -24 25 32 -37 1 -9 -33 7 -23 8 -36 2 -7 45 -3 12 -30 30 -13 -17 -7 29 17 7 -15 -32 50 30 -42 35 -4 -11 20 35 20 -7 -20 12 -32 12 21 -22 11 16 -11 -25 9 17 9 -39 -30 32 -33 -16 20 12 -11 31 19 -21 -6 4 71 -45 97 20 -13 20 -77 -11 18 -12 8 -12 7 -5 34 15 65 -5 67 56 -39 43 -20 27 68 -55 1 108 3 14 53 -50 9 -19 2 -69 -78 4 -52 -33 28 -16 50 -37 0 -98 -60 100 16 79 126 62 -32 26 -7 -73 -35 7 24 -17 -28 40 56 15 0 7 -48 2 -8 -2 -13 16 -12 35 -18 36 0 -11 -25 -28 -7 2 -11 -16 0 23 -12 37 -17 36 -3 10 6 10 -17 29 23 7 15 -21 -4 -43 0 9 24 -6 -7 -11 -47 20 -34 27 27 52 35 14 -61 14 -26 17 4 11 -44 -19 -17 -3 -9 36 8 26 12 -25 -9 24 -12 3 -9 41 -43 -10 3 4 -46 4 -20 -15 -68 -23 13 -17 44 -3 13 21 -10 -17 16 -58 -3 24 -41 6 30 -17 5 25 -1 -10 29 25 -48 -9 29 -7 1 -68 -2 36 27 7 13 -5 -43 31 29 44 18 55 -20 -36 10 11 -23 -8 -1 22 -14 5 11 -16 23 -3 38 7 15 -3 -4 23 -37 47 20 -3 -2 40 -8 10 4 51 38 8 21 2 7 -26 -18 18 -27 21 -1 31 20 -35 30 15 -20 -6 -60 36 18 15 23 15 1 -31 -13 -15 -5 -7 18 7 -31 2 -3 7 25 -39 20 -25 -19 33 -25 -7 -16 27 17 5 26 -1 -15 8 -4 -65 11 14 -12 37 -19 1 36 -73 44 -21 -17 -16 23 45 30 -23 -51 -8 -44 38 -37 -3 -4 7 33 -14 -46 -10 62 19 -32 -11 -74 35 -10 2 11 -2 45 8 -12 16 8 32 -6 -80 -13 12
-24 42 22 1 -25 46 4 9 -17 69 44 -40 18 -14 2 -8 33 -87 39 0 2 58 -22 3 4 -25 -42 12 -9 4 14 -51 24 -37 20 17 4 -17 -13 23 -15 -2 -46 39 46 -3 54 11 -25 21 19 37 0 -40 -18 -7 -9 61 -42 6 29 13 -14 -12 82 -2 43 36 5 -37 -41 -60 -42 -36 -17 62 -5 29 36 20 38 -16 21 21 -44 -63 11 -21 -43 82 -16 -7 16 -46 -25 3 -51 -57 -46 -39 37 33 -13 59 -36 23 -11 62 25 29 18 -96 19 44 2 17 2 23 1 -18 17 79 -52 61 -41 61 -4 -75 -4 29 -125 98 -40 13 -44 -17 3 -34 22 28 12 14 -10 37 1 -1 55 22 0 50 -36 35 7 -68 76 -38 -34 -37 -55 -39 -61 -22 -5 -44 -6 -21 13 62 29 -9 18 -15 -48 -37 24 51 46 -12 14 -7 -67 -1 19 8 -19 8 27 -56 56 -6 -27 42 24 -15 5 -17 3 -19 -31 6 -13 -20 16 -21 -5 -22 -14 -32 19 -57 46 5 -6 22 27 -39 3 -12 7 -49 3 -56 55 1 -3 26 -14 -4 -66 18 -5 -33 10 1 20 -80 9 17 32 -5 1 -45 26 -3 42 -28 -24 -69 -12 -36 1 -12 -1 -12 23 -36 -21 21 1 28 -35 11 -6 -1 30 -4 2 -3 -43 5 7 0 27 42 21 8 60 -19 -24 -28 -55 -13 -26 -26 -68 -47 44 15 34 -5 -18 -2 -42 37 -22 1 -11 -16 -51 1 13 18 31 -28 -14 7 26 28 -37 -23 -10 4 -11 -2 -31 101 15 -10 39 45 -67 -64 -17 -29 -41 -48 53 22 -34 32 -27 -22 -17 5 -10 -34 58 55 -14 8 38 -6 23 -32 81 -24 2 24 28 44 27 19 -65 -40 -12 1 -72 62 19 51 70 -51 22 43 -16 -16 -2 -3 -26 -32 5 -8 37 -33 39 2 29 -45 16 84 -13 2 -66 42 -22 -27 -99 -37 -58 23 76 -8 -25 -68 -39 -28 55 -64 8 -36 3 -30 40 4 40 73 -48 16 9 -42 126 -34 -7 -20 3 -8 25 -5 -1 -20 32 -70 -11 3 -16 70 -15 38 48 -4 -12 -51 7 -40 91 -29 55 69 63 -12 45 4 77 52 -35 44 -5 40 1 36 26 -63 -41 -30 18 71 -13 16 3 -66 1 -88 -3 35 -41 8 35 52 -8 -5 39 -26 8 14 48 -13 -5 -19 1 -11 -16 -15 -8 -58 -57 32 -29 -32 -22 9 45 -60 -1 14 -34 -43 -17 9 -16 -28 68 25 -6 6 16 22 24 34 2 -44 12 -21 10 -33 27 -23 -32 -53 85 4 -1 -44 41 17 1 28 31 -16 16 -23 -15 -42 -11 -11 -36 35 -6 24 31 -53 25 3 85 17 -3 -48 7 40 22 3 62 -63 -67 12 -18 44 58 2 29 -3 12 64 77 -15 -2 -79 -3 -6 5 56 -38 -65 55 -53 -12 2 -24 -18 -16 -15 8 -5 2 -50 -10 35 17 77 14 -12 4 -36 18 -44 1 -43 -34 26 7 54 6 4 21 24 1 10 -63 -27 -21 20 22 -1 7 49 40 -11 14 -11 -29 -31 -13 47 37 25 22 12 -40 -8 -3 -62 8 -73 -32 -49 25 1 -49 -11 0 71 7 83 -7 -14 53 -29 49 31 -6 90 28 36 53 7 -32 44 -114 -29 8 -34 -1 76 -43 -88 8 -40 36 -52 -34 109 2 -22 2 -9 -47 -61 17 -72 7 0 17 38 -20 -29 -1 9 12 -55 -36 -63 -20 26 -28 46 -1 43 -102 -31 -38 -13 31 77 75 116 -73 -17 37 0 -55 33 -41 -23 53 -23 -39 63 25 2 39 2 31 -16 -59 63 -74 11 10 19 22 57 27 -42 -36 -8 42 -14 -21 -24 -10 -33 -31 -43 -4 -43 2 -24 40 -66 -5 -16 -7 -28 28 -42 -2 16 32 75 31 -82 -32 14 53 -30 1 -9 -24 55
-5 -35 39 10 18 -25 86 -49 -21 18 -40 29 -19 78 -31 -48 35 47 -11 97 22 85 -92 1 -9 -115 37 -4 -5 -70 13 118 1 -35 102 69 42 5 -26 109 66 39 -41 -47 -49 30 -18 -1 -8 61 -22 48 27 -73 41 46 -19 -79 -20 -45 -48 -1 36 53 52 64 1 -66 -65 -47 92 37 67 66 -63 78 -31 -18 -112 47 91 37 -60 105 -66 68 -87 -12 -32 -18 76 32 -83 48 -27 -7 -29 -73 -5 -12 -3 -37 -20 85 -91 -21 -6 9 37 100 26 23 53 19 68 20 -62 -82 26 -111 89 3 67 -30 -34 -26 54 40 13 23 -57 -43 -11 45 -10 34 47 6 8 6 -3 43 -6 -1 6 80 56 -9 6 -88 -8 -14 102 -45 6 -54 -14 -34 -11 7 -11 -29 -45 38 3 11 -15 -38 7 -32 -22 -62 26 62 92 -12 -27 66 40 39 1 29 53 -42 6 3 99 -38 45 28 -58 11 25 59 0 -19 34 -23 -16 -19 -24 24 28 -42 -66 27 7 30 19 12 -43 -13 2 -16 73 39 -17 7 19 -5 24 -30 -43 19 5 -27 28 24 -20 26 2 83 24 -48 -49 7 -32 -44 -18 40 3 -29 -32 4 -21 -16 -3 -38 4 -5 81 -54 -19 23 -43 -8 -5 -27 -36 -32 -31 27 11 -15 -10 -34 45 11 -42 26 -60 28 20 39 60 6 18 24 57 24 72 -15 45 -6 34 9 -58 8 19 -35 14 -54 40 10 47 31 -25 -8 40 -65 -24 -11 -15 4 35 -3 78 -41 47 -36 31 -5 -39 26 92 -59 3 -98 -12 -6 5 42 33 57 49 38 -22 39 48 -32 43 34 -16 55 -26 -27 103 -15 -6 -50 2 -5 29 -37 -31 82 -18 8 70 28 49 65 25 6 41 -9 27 -10 52 -22 -22 15 3 65 -65 32 22 21 -3 36 37 19 13 -9 -33 -46 47 36 2 26 -21 4 -65 -38 53 -20 -1 19 30 36 -67 41 20 -25 -1 -38 70 14 3 1 19 -58 -19 41 -63 -58 62 -26 23 20 -71 -126 15 43 70 -11 -45 -56 -32 67 16 -36 68 61 -6 -8 52 23 49 -24 -21 -23 10 52 6 -28 -5 -25 24 -9 -42 56 19 -44 -42 -63 -2 30 104 1 -36 31 -24 -68 6 -22 -19 -46 39 -16 42 87 120 -28 35 -117 96 -78 91 -32 -40 37 -19 7 106 78 45 3 9 109 -32 -40 58 -33 -47 10 11 -55 60 -35 73 7 -27 59 -32 39 -4 -7 -48 -71 -44 -29 83 21 -28 -50 -34 -2 57 -23 -40 -58 -79 16 -46 30 -41 -1 93 59 -53 -86 16 85 -19 -6 -7 -61 -43 -12 36 27 30 52 -50 -15 57 -11 -36 -64 90 2 -14 8 -26 88 62 126 35 42 12 -92 -3 -94 -19 -5 -29 -4 -12 3 -18 83 -38 -38 -27 74 -5 1 -2 -7 51 37 -16 -3 -18 -14 -14 -38 -15 -12 -90 -20 -32 -39 11 -10 21 46 -70 3 -10 -18 -11 -18 -40 30 -12 -26 14 -56 5 66 -10 -8 -7 -14 43 60 66 80 -85 -53 23 16 -18 64 57 14 -45 14 -63 85 -34 24 73 -32 -21 -69 -8 -8 -22 11 30 -12 -18 2 -35 24 -13 -84 10 71 -28 -16 -84 -50 -22 -5 57 20 -2 -9 40 -18 5 3 -45 -49 38 -3 8 7 -4 -50 46 12 68 -35 -92 -43 14 24 45 -3 -31 27 -63 34 -34 -23 16 -39 -75 29 17 -36 36 8 -11 38 -36 -46 -27 23 -33 81 61 15 35 -86 -30 -47 93 -50 62 -31 74 -10 11 3 -12 61 -111 -50 18 -6 11 -78 -12 3 81 61 -43 120 -55 37 32 23 -19 9 11 -37 76 24 -36 -24 19 73 -96 58 -76 39 -53 -15 -12 -27 24 -78 38 96 -13 -10 52 -50 34 47 107 20 34 60 -69 6 -59 -68 -67 -6 -5 -22
-41 42 24 24 -6 -41 54 3 -26 5 29 -6 -6 -31 -55 37 0 65 -17 56 -32 -31 -6 35 15 -12 -1 88 -2 49 46 -19 -43 -66 0 -28 -25 56 -9 -56 43 34 37 -13 48 21 -25 11 42 -37 35 64 -20 79 -31 59 -49 -2 -34 -24 -3 16 3 13 -51 62 -2 -5 -33 -80 -58 27 -10 4 36 -29 22 -58 -33 -35 -64 -1 13 -3 22 49 14 80 48 79 42 14 -19 37 42 -118 -97 -25 -38 -24 -39 96 37 -3 20 36 -2 -42 -34 -26 6 23 3 86 22 -17 -16 -23 -7 80 -2 52 27 -78 -10 -3 57 37 -98 52 -47 42 -20 -28 15 -20 4 -37 -34 -8 12 -9 -23 16 -14 -73 -34 -57 73 -40 62 -4 -44 46 39 -21 15 -13 63 -29 -51 14 -32 -24 -27 -7 -39 27 13 -54 -59 -16 38 -20 24 -13 53 25 28 69 53 -6 -19 26 -15 20 47 -24 4 72 3 19 3 14 -16 -34 0 -23 15 30 -8 -17 52 7 20 -6 4 21 -6 -11 16 37 3 -48 14 32 40 -36 -1 -17 -34 65 1 -23 1 -2 -34 8 5 -38 -20 20 41 -19 -28 -2 40 21 59 17 -46 3 -48 -18 -12 -30 14 23 -4 -58 8 8 37 38 -2 26 3 19 18 0 -24 8 16 -24 7 -11 -2 28 37 17 71 63 -39 -33 3 -30 32 -21 -1 -8 26 -22 -40 -6 -26 -14 -29 18 -9 9 11 4 55 0 5 11 38 -27 -77 21 -30 -47 53 -46 57 -17 -43 28 4 4 9 -43 -10 12 -17 42 32 3 -4 -26 41 -13 -50 39 -18 -8 -15 -16 2 -26 -42 -24 -54 41 39 23 -15 0 44 -39 12 66 -30 -24 71 34 -14 -33 -57 -28 -13 -25 13 7 -7 3 -48 -87 -29 -34 -20 27 -18 -1 -20 39 15 -47 35 -17 -14 -36 -7 -25 -76 -16 -15 15 -2 -34 -17 -17 -21 -101 -11 34 9 5 -11 28 -75 -24 29 1 46 -12 5 -63 1 44 13 -9 -68 -43 7 -10 60 -41 -5 2 3 27 -78 15 -24 -15 -16 -16 16 -48 -22 -13 15 36 22 -12 16 36 16 -4 110 50 79 25 -29 -55 32 2 -10 -29 56 78 -3 -25 53 28 -33 54 3 44 16 -47 -19 -39 -7 -37 -13 13 -26 -4 -22 -17 -15 16 -6 13 7 -6 13 29 20 -79 55 -22 54 -28 7 -9 -21 1 7 75 -23 6 -17 3 -2 -42 -44 28 18 38 -35 0 68 49 -44 29 27 -8 48 -34 3 4 6 6 13 -27 9 -44 -7 -20 42 -59 -16 -42 -20 -46 48 -34 -72 -26 -31 99 -32 20 46 49 3 -46 -49 43 2 -19 -17 32 -26 59 -44 -28 52 17 21 38 6 35 -62 48 16 -12 -25 1 2 28 -54 -16 33 -7 33 39 -38 2 -64 -71 -44 31 -57 -62 -8 24 51 -34 -59 18 -19 41 21 -5 21 -10 52 30 60 -12 5 -40 -46 74 -21 -2 -61 29 -25 3 18 -3 -18 -13 13 -43 -12 36 1 -11 18 -70 48 -13 12 33 -32 -4 28 5 11 -14 3 54 12 -21 -36 -31 -13 -34 -15 -19 17 10 45 -9 -3 -15 23 -56 32 -8 18 -10 31 -23 -29 13 35 33 -34 -27 100 18 -30 -17 19 -22 -21 6 2 9 3 10 -50 -13 9 -23 61 -27 -40 31 51 25 -50 35 34 0 10 -14 -6 -14 36 -19 -78 -51 -48 61 106 58 18 -31 40 10 37 28 8 7 -29 -10 -13 40 -63 12 -14 -15 1 13 126 0 -13 38 29 -10 6 -16 -2 9 7 -42 -6 15 -16 8 -87 -18 118 15 -33 84 -50 -64 6 25 27 -40 56 70 116 36 60 48 16 65 65 17 -52 -5 -13 14 0 -23 -70 28 51 -37 -61 -71 -28 -14 26 -53 -7 -15 -12 -34 -35 84 1 28 55 -96 -1 34
-44 15 4 -4 1 -13 -19 1 -11 -16 -26 -10 -20 -33 17 6 -27 8 21 -9 3 7 -3 11 -4 18 -37 -17 -5 -39 -33 -4 -37 -10 -21 -4 -23 -20 -4 22 -34 -26 -17 25 1 -11 9 15 29 6 15 24 30 -23 25 -52 2 5 -14 15 33 11 17 45 28 -62 -9 2 1 -34 11 -30 -25 -32 -5 -12 -8 -59 -55 20 -37 -63 -25 -9 -18 21 41 -4 30 -15 -22 36 -25 8 -14 40 -2 -30 -10 8 -40 12 10 -38 -25 15 -35 -4 -10 7 11 41 24 -31 77 3 11 -45 -14 -21 38 42 -7 4 12 -43 12 -22 15 14 7 -16 0 -18 -27 -2 -9 -17 15 -29 -23 -4 7 5 -13 3 4 7 29 11 -36 -5 -2 -4 28 4 14 -2 21 -13 6 3 3 2 -6 5 -5 -2 22 8 -17 16 -16 15 -13 -4 2 -17 -7 20 11 -2 -15 28 25 -3 4 -12 -8 2 -4 -1 -23 17 1 -6 -7 20 12 15 23 5 23 -11 2 20 -5 -22 10 0 9 -28 14 5 -14 17 22 8 -1 9 7 6 0 44 -13 -1 -4 -6 1 -19 30 19 -8 9 10 29 9 10 -18 -10 -14 -5 -11 -8 12 27 18 22 14 5 5 -6 -19 28 -7 -24 12 8 -7 2 1 -24 -17 -17 4 7 -22 -24 17 -5 9 35 1 -30 -26 -25 9 5 -16 17 -9 -17 -35 -14 -7 -9 24 31 24 0 6 14 15 20 18 -3 22 -11 9 -14 4 9 12 15 9 -14 28 17 -11 4 -10 2 -16 14 10 -12 34 -11 6 26 8 9 -21 -16 -12 -16 8 -12 -18 15 13 3 -4 -5 -13 -10 -1 -7 12 -3 -3 3 -4 8 9 10 -8 2 1 13 -10 -21 -1 4 -10 24 12 25 15 15 -12 12 8 2 17 14 6 0 14 -24 10 -18 24 11 21 -5 -14 -6 -29 -8 25 3 9 21 32 14 -6 12 -7 7 9 23 -5 0 29 -6 18 12 10 -21 30 11 24 20 4 0 -15 26 16 -7 13 -10 21 -5 -34 25 22 -3 -25 26 11 -9 32 -9 -29 4 -48 -3 4 -19 0 14 -19 10 16 -7 32 23 1 -29 9 31 31 25 -4 42 10 -12 -37 -22 51 -65 -11 -127 -58 9 46 18 -57 -41 9 -53 -10 -34 24 24 16 9 41 -75 20 -6 -3 -15 -17 -84 -44 31 46 -12 -21 -9 32 10 66 -7 13 53 -20 -18 81 23 -10 -22 18 3 15 -63 1 -27 30 19 17 -42 20 29 68 16 24 -9 52 96 16 18 8 -13 5 -5 16 -11 10 13 -9 17 -2 12 3 -3 18 -7 4 -9 -3 3 -9 4 19 15 3 15 -4 15 9 -4 -10 1 -7 4 6 -3 4 0 -7 -1 -19 18 17 -17 5 -2 5 8 -23 10 14 -26 9 -15 -6 -9 -21 -10 -2 1 3 -3 -4 28 -3 10 16 -7 5 -8 27 -1 -3 -18 10 -23 6 -12 7 -6 -9 -17 -15 -17 -1 -13 3 6 -9 -2 7 -2 7 8 10 -3 -2 2 8 -7 -1 5 3 16 -12 3 26 -14 3 9 -9 -32 6 0 -2 -25 13 -25 -21 -5 -8 3 -1 20 13 3 -7 51 -4 -8 -7 -26 15 14 -5 -3 -6 11 -5 6 -11 6 7 -26 22 4 -9 -9 12 49 -8 -2 8 -12 -32 5 -5 -1 -19 -21 -5 -8 -16 -6 13 3 -14 3 13 13 6 -8 2 17 20 2 -2 12 -1 -7 -15 -17 11 -4 -6 6 6 16 -5 -6 16 12 12 -25 -11 7 30 -7 -13 3 -12 17 -31 -24 -6 -3 -13 -23 -1 7 -5 7 1 26 -1 28 1 -6 43 -22 6 -23 -9 -3 -19 -2 2 -31 -21 6 8 39 9 17 7 9 4 -14 -14 11 -14 -12 3 3 -41 -14 16 -8 0 -11 23 7 18 11
-31 -101 5 -11 -28 -30 9 55 91 -43 35 13 -22 72 58 16 70 29 -4 126 -78 3 4 49 -32 40 85 -37 -28 -19 62 6 10 -17 -13 -85 -15 -21 14 -6 16 -50 120 1 -23 44 35 62 -101 55 34 52 12 -7 44 -32 -14 -23 -38 -118 -41 66 0 -36 8 -9 18 -24 19 -28 21 -52 64 34 -15 -55 -10 13 -55 16 -95 13 10 7 7 106 -57 -103 4 -36 -77 -59 -21 -120 -44 -33 -7 83 22 -98 -41 -32 44 -23 105 7 -25 22 6 -33 9 22 -13 -42 -24 53 6 -61 80 -78 -90 -79 -22 40 104 49 -52 20 -26 32 -4 47 -26 56 7 -7 33 -12 -75 63 -17 22 31 -55 -2 73 -23 64 110 -11 -13 -46 0 36 15 13 8 36 -22 -64 57 4 -28 33 13 11 18 40 20 -10 -44 -13 20 -77 58 -4 -59 57 -18 13 -38 17 6 9 42 15 43 -36 -21 6 34 0 -90 -9 11 -29 78 -65 -33 45 -17 6 11 -45 -16 -11 -14 32 7 -21 34 -35 20 -15 -68 -31 69 14 39 74 -16 -14 -16 46 -54 31 4 -19 -77 -64 87 12 75 -66 39 10 -27 29 -40 1 28 -36 0 1 1 -46 16 0 7 -56 -3 3 27 -4 33 -20 -18 41 54 -32 -18 18 -22 0 -57 -3 9 -20 10 27 47 -53 39 42 -27 -15 -104 -3 -29 22 28 -16 -4 -2 -42 26 -46 27 -1 -51 -30 -48 16 -1 27 -82 11 45 37 -46 -8 33 56 -10 24 21 -18 12 -17 33 26 22 -55 -31 -52 17 -46 46 36 -30 -78 -29 -52 25 -60 20 0 11 26 85 58 -13 1 54 23 60 17 93 30 26 -2 -26 22 45 32 47 83 -32 25 10 55 -10 -21 14 72 42 3 -47 54 22 2 -28 26 30 -115 -26 -24 44 21 -8 60 21 57 12 77 -75 -32 10 11 20 -57 36 73 40 -23 -55 -48 13 -31 111 20 10 32 -72 -12 -12 -8 -109 29 -60 -18 -64 4 -13 -15 25 -30 -19 -28 -21 112 53 -32 -19 76 54 24 4 -37 57 -31 34 -60 -61 -18 -16 -36 -20 -53 26 3 34 7 -73 -43 33 -9 30 -13 56 -72 -26 -29 -19 18 10 43 29 -4 -36 95 -21 -74 26 2 35 68 24 100 -74 11 14 31 9 4 -43 -14 -28 -3 -28 -3 -48 -68 20 -6 10 -35 13 -10 -24 -54 19 -67 -49 -42 -21 19 -20 -24 -2 2 -59 17 60 -88 -19 -42 9 59 6 -34 -71 -5 -62 38 -47 -119 99 -44 -18 -1 83 30 -23 5 12 -11 8 -32 -22 -42 8 84 -56 60 -74 -13 -48 -35 38 -35 -1 106 -43 5 -15 -45 32 31 27 -7 -71 49 -9 -1 -2 5 -18 52 10 1 47 -77 -6 5 21 69 -33 -17 21 -39 18 34 -26 -15 30 29 8 68 59 0 -46 66 7 16 42 -97 -42 4 -52 21 35 -27 14 -76 5 -28 -11 -42 -20 30 12 -51 60 -1 39 24 -28 -63 62 25 58 29 45 -53 -51 64 1 -14 7 -36 3 14 -70 12 -4 -23 -69 -16 19 20 -61 -5 -7 -14 -34 7 8 -23 -26 44 15 -35 26 111 -31 -61 56 -82 23 -37 -9 -3 2 -1 -37 28 33 15 -7 -38 39 89 -21 -34 14 19 -23 25 7 -10 43 -30 61 -43 4 -66 -15 -12 -6 -8 -11 31 46 59 -31 57 28 63 97 48 -5 46 -14 -114 -54 -23 2 -65 -9 -47 -14 -33 52 3 102 57 -15 -39 -26 -28 -28 -6 -1 37 66 5 7 16 20 -13 56 49 58 70 103 -48 -8 36 101 -8 9 16 57 88 25 -21 -56 -105 -3 41 -13 -59 -34 -2 -60 62 -27 -112 72 33 -85 97 47 91 -19 1 -56 -25 -12 -26 -39 36 23 -22 -76 -31 84 32 30 -24 2 -6 30 62 12 51 69
