-2
2
1
7
2
-1
3
-1
0
-2
0
1
-3
0
3
1
-2
-1
1
0
3
2
-1
-3
-2
-4
1
1
-1
0
-1
0
2
0
-1
-30
2
-2
2
-5
1
-2
1
-4
1
2
0
-2
0
-2
-1
1
1
3
-1
-1
1
-2
2
39
4
-2
0
-3
-1
0
2
0
0
-1
0
0
-1
-1
0
1
0
0
0
1
1
-1
0
-1
0
-1
0
1
0
0
1
1
1
2
2
-1
0
1
0
1
0
-2
0
2
1
0
0
0
0
-1
0
-1
2
-9
0
0
-1
0
18
-1
0
-1
0
1
0
0
0
-2
0
-1
-1
0
-1
0
1
0
-1
0
-1
0
1
-1
0
0
-2
-2
-1
1
0
0
0
0
0
-1
-1
1
1
1
1
0
31
2
0
-2
0
2
1
1
1
-1
10
-2
0
1
0
-2
2
0
0
0
-1
3
0
-1
0
3
0
-12
-41
1
0
0
-1
-1
1
1
-1
2
0
2
0
-1
-2
-1
0
-3
0
2
-1
0
-2
0
-1
-2
-1
0
1
11
1
0
0
1
0
-1
-1
0
1
0
0
2
2
0
-1
-1
0
-1
-1
-5
-2
1
1
-1
-2
-1
-1
-1
1
2
-3
1
-2
0
0
1
1
0
-1
-1
0
2
0
-2
0
0
0
0
-1
1
-1
0
7
-1
0
0
1
-1
-1
-1
-1
0
1
2
0
1
0
1
1
-1
0
-1
-1
0
0
-1
0
1
2
0
0
0
0
0
0
1
7
0
1
-1
0
-1
0
0
0
0
0
-1
0
0
-1
0
-10
1
0
1
-1
1
-1
2
-4
-2
-2
0
2
1
-2
-2
-2
0
1
1
6
-2
-1
2
1
-2
0
0
1
0
2
2
2
-1
-1
-1
0
1
1
1
3
-2
1
-1
-1
-1
2
1
0
0
2
3
0
1
0
1
0
1
0
4
3
-1
0
-2
0
0
0
1
-2
1
0
1
0
1
1
0
1
0
3
-1
-1
-1
0
1
0
1
1
1
0
-1
3
2
-1
2
0
0
1
3
1
0
0
-1
-1
1
2
-1
-2
3
0
0
0
-1
0
0
2
0
0
1
2
0
0
1
1
-9
-3
0
0
-5
-2
1
0
1
0
2
0
-30
2
-1
0
0
0
-1
-1
1
1
1
0
0
0
-2
-1
1
0
3
0
-3
-2
0
3
0
-2
-16
0
1
1
1
-1
-1
0
2
0
0
-2
0
-1
1
2
0
1
2
0
2
1
0
0
1
0
3
0
1
0
0
0
0
-1
0
-1
0
0
0
0
0
0
0
2
0
0
0
-1
1
1
-1
0
1
1
1
-1
1
0
0
0
0
0
0
0
-1
1
0
0
1
0
0
1
0
0
1
0
1
0
-11
1
0
0
0
0
0
-1
1
1
0
-1
-1
0
0
0
0
1
0
1
-2
-1
4
2
-1
-1
0
-1
1
3
1
-3
15
-1
-3
-1
-43
1
-5
0
-4
-3
1
2
1
-4
-5
0
2
2
0
2
-1
2
-2
-1
1
1
-1
-2
-1
0
-4
-12
1
2
0
0
2
7
-6
0
2
5
2
-3
-2
0
-1
0
-1
0
8
0
0
0
0
-3
0
-2
-1
-1
1
1
0
2
1
-3
1
-1
-1
-2
3
1
-3
-2
0
0
0
0
-2
-1
0
1
-3
1
1
1
2
1
1
-1
0
-1
1
0
0
0
0
-2
0
4
0
2
-3
0
1
1
0
1
-1
5
0
0
1
1
0
1
1
0
0
-84
0
0
1
-1
1
1
0
1
1
0
-1
-1
1
0
0
0
0
0
0
-1
1
0
0
-1
-1
-3
0
0
1
0
0
0
0
1
0
0
1
0
-1
1
0
0
-1
0
0
-2
0
0
0
0
0
0
0
-1
0
0
0
