399
-217
291
-199
-11
329
-328
-12
-543
697
-57
-68
-16
695
-115
277
403
9
282
134
220
195
340
492
101
-168
-506
349
248
102
731
130
-111
-521
-559
-501
226
-236
682
-200
-502
-432
-153
434
-155
28
38
90
492
-105
240
-440
-129
-593
10
29
235
-296
-158
17
48
79
227
-324
147
293
308
-13
468
172
-405
-415
266
-297
-550
135
-365
277
70
153
-449
-106
502
222
-28
-221
-459
-488
260
-141
837
-334
570
124
-897
20
-70
140
-95
925
-65
81
448
66
-559
-68
-515
-143
466
432
808
12
-16
-19
-77
567
663
-181
-109
-208
102
-97
-64
-99
-447
-155
332
80
-307
412
608
329
55
-669
-83
250
-32
554
-354
122
-624
339
37
155
612
28
-566
-20
-452
-592
-8
-493
-186
-89
84
17
-250
-39
-143
-679
-444
-84
3
-198
-185
508
226
196
498
47
-363
542
41
-565
227
202
-130
301
-463
-187
-588
412
-30
454
332
-686
20
42
409
626
-3
-27
14
360
177
175
321
-266
-128
-331
131
-256
763
13
-202
235
-398
-690
-658
712
-272
138
28
35
-347
24
231
558
153
-146
-839
-118
311
-235
260
-77
813
-767
-91
307
69
-465
39
-4
403
596
669
160
301
-473
-156
-73
210
-439
-123
291
-67
349
387
-95
-124
427
22
68
313
-438
-64
-99
102
149
163
93
94
-19
-125
-181
123
68
376
231
205
-419
398
-230
-295
-67
516
328
99
123
-218
-135
-143
137
586
-277
78
480
203
326
-53
-133
-113
-105
507
50
-272
-71
52
91
-48
98
-137
32
446
-252
223
-184
-62
-88
184
-84
-267
-125
-33
-146
-8
-192
54
-108
168
-103
-141
452
320
-171
-118
63
-58
-189
-216
296
-34
117
20
-28
274
10
-96
258
-242
-261
186
91
-87
378
38
-149
6
-264
256
158
-175
44
29
173
22
57
64
30
70
-228
-142
-246
-10
50
70
161
110
66
238
489
339
-36
-152
225
-124
-148
-15
43
298
-201
170
-331
-97
-248
657
-400
-619
-234
-124
299
-29
-462
688
245
788
-834
-2
745
348
615
800
73
259
616
566
12
-495
220
-726
509
593
338
-54
-631
-151
-566
-691
674
-700
-15
-653
-653
363
-614
-49
332
740
-515
652
-551
-526
685
-452
-568
-718
-591
275
-354
-549
381
-322
34
523
469
-603
839
-480
876
149
429
550
-409
441
-44
-426
-505
335
-407
115
-58
539
487
-454
-134
736
-61
-103
673
69
-152
-72
-465
-645
632
300
-28
-506
-653
21
-441
374
181
727
248
-643
11
143
583
-47
-347
-495
144
-418
-664
-538
-176
175
-564
-43
447
-611
185
249
569
91
382
-585
175
70
-90
-57
290
90
-160
153
318
180
-115
-111
-2
159
-222
-190
49
-299
204
-57
-177
-288
85
-173
-68
352
-51
-169
-35
94
-242
-456
173
-286
-36
-282
-42
-562
132
-169
30
113
49
-555
171
-422
14
-122
149
-15
3
306
-217
-150
429
-34
-62
168
-316
-374
-126
279
267
101
-543
176
-167
842
681
-645
537
-100
643
-782
185
-541
-702
352
243
325
-543
413
537
-185
-668
-318
-545
-754
2
619
677
-114
-647
-867
-234
710
-285
582
-539
239
-881
-333
-609
-741
-578
700
728
644
111
-98
619
-85
466
-637
112
-664
-634
-161
650
-181
69
743
505
-782
-335
671
554
703
-220
-491
-682
-101
-125
157
242
161
-279
224
340
-304
-587
-52
-116
-128
-188
-26
-220
174
-38
389
-592
-5
136
334
114
-74
225
-19
566
309
64
-329
519
74
-147
269
-174
-172
707
-250
-137
-41
-148
-147
25
-21
495
-483
335
-830
30
-259
170
-315
-7
-704
206
148
46
402
-84
108
-291
-403
274
211
24
-74
163
-119
117
-177
-373
-359
-63
-250
71
449
42
-144
239
2
-93
-328
-88
-46
359
-268
43
-22
-343
-415
175
-197
332
-129
-440
-366
141
188
207
193
12
-108
-145
-98
362
74
-49
160
41
-49
69
59
-213
-328
-9
-312
103
-273
245
353
615
-106
29
120
100
-405
206
