-107
-33
-102
69
20
-15
-106
-14
-75
-16
-114
-26
-24
12
1
66
-27
-99
-70
-4
-118
27
-19
-185
-99
-38
84
-207
114
11
1
91
-59
-24
69
0
131
-79
49
124
-98
-122
16
-97
-16
-132
45
-73
-14
18
-1
28
76
115
-56
107
57
-6
-84
81
-7
1
123
5
-15
101
-108
-10
2
13
28
-108
-14
39
-1
-41
-2
-19
-22
-65
4
-109
-20
39
4
-38
-4
-11
-44
-21
26
26
-62
-7
-50
10
14
-12
24
-37
-23
-80
-103
13
-55
20
4
-60
-4
43
-77
-20
-43
-1
62
-43
-3
50
10
14
27
270
45
53
-9
-62
53
-52
53
-88
-66
233
-56
313
-308
-355
-89
-89
-25
-81
65
-192
219
337
-5
-116
348
-34
-205
1016
-136
-188
-139
-265
-160
107
314
271
144
106
263
63
195
-82
64
-55
77
157
119
70
-171
-152
-41
-80
138
-358
339
-2
16
-122
-21
-236
-30
-63
-415
154
44
-254
2
195
102
170
47
24
13
45
11
-28
39
95
-26
1
-15
-28
-11
-22
25
23
-7
3
24
-14
61
37
-1
53
-78
26
55
43
-15
-61
131
21
-249
83
-73
73
-17
-19
3
-26
-39
22
20
-24
6
-67
95
42
36
32
18
15
100
-26
87
73
14
63
38
30
-15
-33
4
136
-7
13
-13
35
9
-5
-22
27
-10
22
32
-26
-36
33
-10
6
7
25
-2
-46
27
-7
4
-5
16
48
49
-4
2
41
4
8
7
-2
-6
-32
-4
5
6
-18
1
21
-17
-21
23
-18
-27
16
-15
-39
-18
8
-1
21
18
-4
-133
16
-5
-62
-6
23
9
31
47
30
46
25
-72
16
-17
-128
52
-42
-72
-50
31
-212
246
-120
-60
60
-26
6
-32
-23
-30
127
28
-8
14
11
24
-42
-35
-84
-50
64
12
13
13
-66
16
23
6
-596
62
-77
-80
-125
-79
107
-142
70
-29
-5
77
66
-63
-70
37
27
58
-57
70
-155
10
-67
6
-21
-3
21
-7
3
23
-10
-44
-27
-29
-23
18
4
24
60
-13
3
28
-2
-3
13
-1
-22
9
28
-1
6
9
4
32
18
35
-4
-43
-50
0
20
-8
-18
17
-7
-16
-11
-3
21
30
0
1
-8
-15
41
-9
29
13
-25
28
5
-21
15
-47
2
-15
-14
-1
23
1
0
1
-12
-18
-12
5
1
-9
-7
-2
4
-11
7
-12
1
21
8
-14
-1
15
-2
22
1
13
17
8
-7
-11
-31
-15
12
-2
2
7
-9
-2
-22
-22
4
12
-5
-7
-6
13
39
14
-3
-11
-8
-19
19
19
18
6
7
-20
117
-5
9
-29
14
-60
-6
33
-16
34
-59
-41
-42
16
3
21
68
16
4
360
36
-16
-75
20
-8
17
-78
-35
-7
-2
64
-14
25
49
-4
73
33
12
-25
-8
35
84
-23
-55
92
49
-35
-16
-13
-65
-17
27
69
13
46
-75
-26
-57
-22
30
-32
-59
-21
-1
-14
7
2
-25
11
44
-8
-35
70
-70
47
70
8
-8
48
11
27
-31
84
-15
78
93
-86
50
10
-131
-692
-31
100
-112
54
13
82
-81
115
39
-37
-26
-26
41
19
-73
-158
40
76
68
-66
-24
-84
-145
-48
22
54
-14
-38
16
16
49
-48
-24
139
-39
-67
26
102
134
-21
-8
29
-12
11
-7
-26
-2
0
17
20
-13
-5
10
4
20
-6
17
-9
22
-11
-2
-21
11
-12
-16
-23
-24
13
-8
-14
2
-20
-5
5
-10
-9
-9
1
-5
1
34
-9
2
21
-167
0
-16
-16
40
-36
13
-10
-2
-20
0
4
-1
-1
-27
3
6
-1
9
-8
-23
-5
32
-130
-46
89
-116
-64
-144
-200
-105
126
67
227
225
-358
-320
101
117
-77
133
-206
-94
196
154
-45
-210
227
-245
-217
985
144
35
49
7
-122
16
-244
219
-32
-220
-44
-69
-200
42
15
-163
122
235
184
-59
105
118
-106
-115
315
147
-174
224
138
-35
-435
233
81
-313
12
