-17 -43 -88 9 77 -22 -17 7 -89 23 18 -3 -22 -54 -29 4 -49 15 -8 -20 -33 -14 42 47 -18 -74 10 -86 -11 -9 -32 -85 -13 5 -4 -47 10 87 -18 15 -9 6 78 92 -61 -59 -28 18 6 28 -62 61 -26 -1 -20 74 -40 -21 -57 -18 18 14 -27 -27 -50 71 29 -7 -86 28 -58 31 3 -51 69 -10 48 -8 0 21 -36 38 -8 -8 -25 8 29 26 -26 -110 18 -21 -36 10 -29 -34 -41 13 63 -39 -22 15 -8 -36 13 11 19 -9 -30 58 -88 14 -11 -14 -44 -57 6 71 -21 -33 -60 -87 36 3 51 22 10 25 -34 -17 4 -5 -25 4 113 -6 35 -21 -41 31 17 24 -3 -81 -27 -17 -11 -12 14 -30 48 34 -22 -2 -41 -5 -42 23 -8 -12 -49 -11 -39 3 -33 -42 -25 56 -31 -13 19 -9 -21 -22 9 33 34 -15 23 -22 -74 -61 10 22 -49 11 -66 9 -55 -38 21 33 -41 25 -47 5 -19 -119 -32 -53 -7 -43 46 -21 6 -11 -3 -4 -22 -83 8 -20 -7 -27 0 -61 -36 -20 2 -28 -15 55 20 72 -10 -67 43 -46 37 -10 -27 85 -40 3 7 -24 14 33 -41 -82 22 15 -18 16 -56 -18 -9 17 2 -42 16 23 -9 -6 -6 -4 -48 -110 -28 -12 -36 82 -8 -37 -27 -23 -46 -60 11 -62 -30 -88 -38 -32 75 -20 -32 54 -59 20 41 -94 -20 -37 17 26 -31 -31 -25 42 -99 -32 -15 3 5 -65 76 -37 4 -43 -50 26 4 -34 56 2 -24 45 -1 -47 -1 -32 30 2 -4 5 -42 -1 -96 4 -64 -12 29 34 -35 -68 -7 -36 -54 -2 -32 -22 -18 15 -3 -21 -41 11 -92 -25 38 -31 -62 -21 83 -49 16 -36 -9 21 -56 32 15 -2 -22 19 20 41 -57 -32 -52 -16 27 -23 25 -22 -35 -47 12 -58 -2 -24 1 -69 -2 -34 19 -50 10 18 -16 -88 -9 -83 5 1 18 -30 -1 -9 38 -24 -15 -23 -89 33 -51 16 27 -4 77 -44 37 -15 51 -14 -41 -45 -5 -13 -87 7 -3 14 -6 49 -21 -46 -29 2 -29 -23 -1 -57 32 37 -22 39 -33 -55 -25 -33 -20 3 16 -61 -56 2 -23 32 -7 18 -36 -79 45 25 15 58 -24 -68 -11 -22 30 3 37 -73 -35 -52 -47 11 -27 -82 -33 -15 -21 32 -3 4 36 -90 52 52 -58 -18 65 -2 -59 -60 26 -39 -26 9 28 -14 33 -37 -27 18 -38 -64 15 3 32 -18 -23 68 -15 19 2 -42 -68 -127 33 33 -106 -56 -42 -35 34 29 0 -38 -24 74 0 -34 73 -21 -38 9 -75 -28 -66 -72 8 -44 68 -23 40 -51 -40 -60 -1 26 -47 -54 18 39 -2 -55 -1 -22 -38 -52 59 -11 -46 -58 41 -12 16 -7 -15 -12 20 -64 21 -10 23 -11 -40 -13 11 -7 -9 -28 17 14 11 -57 3 -20 -10 -18 -38 -73 -42 23 -33 41 -13 -22 20 -24 -14 15 -15 -11 6 30 -27 13 -7 34 -42 -4 28 -39 -17 26 9 -35 -36 23 40 -71 -42 -82 103 76 -97 16 14 -28 82 35 -50 39 -16 22 -7 15 44 13 5 26 -28 35 25 -5 -87 32 12 33 45 -9 28 49 53 -5 -11 -10 -45 36 -21 72 -60 -23 1 -19 -60 33 -18 0 -20 -15 -13 75 -17 26 -38 81 -19 44 -36 -20 68 -26 -44 -24 -36 15 -35 -7 -68 -13 -19 11 -66 -15 0 36 3 -12 -41 -4 71 27 19 -4 -22 -5 -28 -22 -43 -17 78 -27 -49 -18 14 6 1 59 -32 28 22 -12 3 -26 30 -23 -9 -53 -20 39 12 -45 -42 -76 -14 17 21 -36 -37 -16 -45 -46 18 -24 1 -35 -51 -34 20 -20 2 -52 -4 -56 36 21 12 -44 -39 17 -17 -18 -17 -16 72 31 0 -78 -11 26 -83 -47 -26 -20 -30 17 -80 -60 9 51 -71 -75
-41 -11 8 -49 26 12 20 7 -21 0 -27 -22 16 -12 -19 -31 56 -11 -14 -5 -68 -28 15 -27 39 31 13 -11 -63 -71 -31 -22 -45 17 3 -5 33 -10 -32 -61 20 25 32 25 3 -53 -34 -40 -13 25 2 26 -2 -46 25 -46 14 -47 13 19 41 12 9 -77 -15 -69 -31 24 34 15 -7 2 -22 47 -69 48 -38 -5 -12 -6 9 -27 -4 -59 -7 -1 72 8 -16 -28 -60 39 60 16 -4 41 6 -9 55 -15 -30 34 -20 -8 19 38 -37 -58 10 7 4 -6 -22 29 -24 -73 -51 34 48 -23 -62 23 -23 -40 -17 33 9 10 5 0 12 -19 88 -30 42 -42 17 -17 -25 -36 -3 -21 9 -21 -20 22 -33 -8 -1 -10 10 35 6 2 -31 14 -18 -49 3 12 -33 5 -3 -30 -4 14 -22 16 -46 5 -36 -3 -1 -8 16 12 29 -2 36 -23 -24 0 2 -42 -66 22 -40 2 4 20 -3 -2 -12 -32 39 -29 22 -47 -51 -42 -1 -15 -44 -10 48 -59 -49 10 -11 -13 6 17 -26 13 -30 60 -34 -19 43 -17 17 -21 45 -40 47 -32 5 -61 -30 19 13 4 -17 -12 -15 -27 -46 47 10 -10 -2 -2 4 -48 52 -57 -21 -28 30 -7 33 -5 -34 -45 52 -5 15 -66 -5 -16 -43 -15 75 -4 -33 -5 -70 4 -2 -37 -17 -22 3 -6 -79 81 27 -54 44 36 -2 54 -12 -34 -4 16 -14 41 -2 -22 31 13 95 -7 4 36 -6 0 -58 -14 -18 49 -3 30 13 71 -48 -8 -12 -24 8 5 22 -38 9 8 44 -25 -21 41 3 45 -27 -60 -45 -20 -45 8 -3 -27 52 -18 -80 10 2 -19 -15 2 -18 40 13 17 4 -33 64 -79 -19 -21 25 -36 -21 -70 -6 64 -47 0 -50 -24 25 37 23 -8 -19 -55 -9 -25 2 -53 30 15 5 -61 12 -27 44 23 23 12 -22 -25 8 -10 23 -14 -22 -24 0 -41 -4 -3 -12 18 -68 -22 38 18 17 6 16 -9 -41 -25 58 -3 -41 21 -38 -17 8 -19 -79 -5 -55 26 29 -56 55 25 -30 40 72 -25 8 -13 -59 -21 -11 -34 1 48 16 4 -46 29 -62 -19 -19 -19 -76 39 60 60 -46 31 13 -32 5 65 -11 34 6 8 -36 -24 9 21 34 -25 -88 7 -36 18 -33 -51 0 69 8 -54 42 38 -3 62 -62 -34 8 -18 43 2 25 32 29 1 32 10 13 15 -70 -30 30 -3 -27 22 -19 -48 8 -40 3 -27 -13 -35 41 78 -24 -22 17 -35 18 -21 1 -52 7 -31 16 42 -1 -67 -19 1 5 -5 -26 -51 44 -60 5 -54 48 8 -28 42 7 -56 -33 -17 17 -15 -36 -2 9 19 48 -4 -46 -16 -60 12 -19 24 -44 -53 -6 -2 -41 -28 23 -46 -50 16 22 -45 -9 -48 -20 18 -18 23 -33 -59 -25 -32 -20 -33 -22 -28 -16 12 -2 -24 -37 22 60 -32 33 1 -64 40 -4 16 0 -69 -10 20 37 117 40 10 34 10 -1 60 1 4 -41 10 34 -35 -28 11 -35 14 0 -43 11 -63 7 -10 -1 -12 7 47 21 -50 -25 -26 -3 -15 24 -11 -85 -34 -95 -43 27 5 -24 17 -9 65 16 -25 44 -50 2 4 25 47 -26 -31 -36 54 -33 -31 1 -19 16 -40 -21 -51 -40 44 23 53 39 46 12 -17 53 -24 -6 -5 -2 -2 16 -30 -10 51 -5 -50 -6 -1 12 -8 -19 -10 1 80 91 12 -26 -53 -35 63 24 -21 4 9 -39 -99 6 -29 -15 30 3 16 11 1 -18 7 -54 126 -31 44 8 22 9 -30 -56 2 27 -28 -77 -37 5 -61 -59 28 54 -34 -48 -43 39 7 1 -13 21 -34 -38 -9 20 -14 14 -41 14 -3 -18 4 59 73 19 -14 -53 1 -12 5 6 17 -21 -11 -31 -48 20 -78 -16 -7 -15 12 -17 -72
-112 -9 -5 -23 19 52 18 -85 14 2 -29 34 -15 -1 -10 -3 5 -35 43 19 -53 7 17 46 -4 7 -72 -55 48 -54 33 87 15 57 -9 2 60 -19 -27 32 -26 14 6 11 -65 65 -10 -29 -31 -35 -1 27 11 40 -24 1 15 -19 0 -5 24 -22 -69 -7 -26 -10 -88 15 -42 -16 41 46 33 20 -121 1 -60 -5 13 6 -13 -26 -7 55 -28 3 -18 23 -39 1 6 7 57 -25 -5 7 -88 -21 -59 -58 -46 27 69 -7 -45 -7 -17 -44 -28 2 30 7 33 -8 4 -40 82 17 -22 -41 73 -22 32 18 -60 42 -43 29 18 -92 -43 8 -33 21 -14 -57 41 -38 -38 24 -30 3 -89 -44 33 21 -64 -41 3 -43 57 -53 -32 2 -10 -28 -10 22 37 -15 -12 -69 68 -48 -93 6 -22 -14 -18 -26 -14 15 40 -40 94 -22 -28 6 63 -50 6 24 -67 76 20 7 -51 -57 -9 -48 -23 -35 -37 18 -11 -26 38 -53 -39 -3 -41 75 -12 41 -53 27 27 -69 -50 -10 -18 15 41 -17 -33 6 38 -10 34 -12 -54 -16 -17 52 20 24 5 -27 17 -44 14 29 -1 -1 -4 -32 -5 58 -22 16 -33 20 -24 1 -71 14 1 18 -33 6 19 31 1 -78 -13 3 29 -59 31 -22 15 12 -77 -3 -28 12 -61 30 36 -8 -2 -15 -2 -38 5 -46 -20 30 -30 21 -32 37 -40 -14 31 -61 -1 -39 7 40 -19 -120 -4 15 -28 82 -10 -50 -83 -10 -8 12 -62 7 -8 -28 -6 16 -46 16 -23 66 -16 51 -41 -3 -20 -63 -44 -97 51 -49 21 -7 -13 -54 25 36 -2 12 22 -18 -16 -18 -79 -42 -51 -23 -24 -18 -6 73 -15 -63 26 -11 52 97 -7 -28 1 -36 -60 -10 -25 -8 -10 -21 11 -21 13 19 -9 -103 46 -16 -44 -1 -44 -28 -28 28 -40 -51 81 -69 -21 -44 17 7 8 39 12 7 -12 -21 10 -7 1 -8 -14 -30 -12 -12 -66 53 -1 -37 -68 -4 34 36 14 20 8 1 10 87 -44 0 4 -3 23 -63 -65 -8 24 -40 -9 11 -22 27 -52 39 31 -46 25 20 37 -12 61 -24 -11 -27 -24 -28 12 -39 -69 -14 -52 -51 -29 0 -20 -43 40 -29 21 44 21 -86 -17 -17 -26 -30 -25 26 -36 -41 -6 1 -32 41 -15 -60 -75 -24 -7 -11 85 24 35 -11 15 -24 8 -50 -62 -24 -99 1 -52 70 41 -9 21 -49 0 -67 -27 32 -31 -5 10 -4 -12 -24 -16 -25 44 -61 -12 -51 118 -54 5 -6 -39 -12 50 -81 53 72 -39 0 -25 -24 -25 -18 -6 -35 17 84 -60 -105 -11 -2 -15 -29 28 -127 20 -11 -35 59 49 -17 -5 2 26 -5 37 13 -7 -29 -8 -28 -4 -22 -60 -8 -22 -24 -44 51 -20 -28 -18 -14 2 -55 -4 -82 -12 -47 -43 82 77 -9 -15 -66 9 -1 13 -36 -117 -19 -34 33 -40 -18 -76 -13 37 45 22 -17 3 46 29 -2 -14 -25 19 -26 -17 26 70 -57 17 14 8 -36 18 -39 -52 7 51 23 -61 -25 -39 -40 -29 32 -55 54 -61 16 -11 -28 -30 -4 1 27 52 -26 -48 61 -12 39 -6 6 28 -22 102 -29 -8 98 76 -6 -48 19 42 4 -31 21 33 -15 5 -32 -21 -47 106 21 21 -54 23 29 51 -91 36 -11 21 25 9 49 -36 -37 13 46 -30 16 -7 14 10 -38 -18 -13 4 -54 1 39 35 -54 -7 -33 77 37 -56 -1 49 -4 -1 9 -39 -62 -5 -12 -3 39 -37 -11 -41 -81 -98 -39 -103 17 19 -72 50 -52 -51 -9 -17 -4 25 0 -15 -54 -25 26 -50 -44 47 11 -28 -52 -73 -31 1 -61 -27 9 -47 31 -12 17 -2 -5 30 -37 7 -33 78 9 12 -4 -10 12 19 -51 25 -22 -53 47 -23 23 -5 17 -33 18 -14 -38 -51 33
4 32 -8 -5 41 -29 -15 12 82 75 11 9 43 51 29 47 64 69 -35 50 34 -28 18 50 39 83 -16 44 10 -6 -12 17 11 21 36 -53 -49 6 40 -65 -36 44 16 -33 -14 76 -23 18 -8 25 9 2 48 12 40 4 126 -19 15 -53 1 13 35 26 29 36 62 -6 -31 40 -20 -2 12 -45 94 -72 26 14 -21 32 -14 -11 28 -37 22 -25 42 -22 -3 -13 58 27 37 44 -58 -31 -32 -16 9 -9 13 24 34 -43 11 35 -11 -35 50 43 36 9 10 75 -49 -27 -47 -58 26 55 22 -4 75 -58 20 1 9 -83 37 -38 -73 15 -46 21 -62 65 31 -1 16 -11 59 5 5 20 -13 33 3 -5 -57 55 87 -9 -60 24 77 9 27 6 6 11 46 -11 41 -30 14 114 -57 -45 4 0 34 7 24 33 -55 -61 7 21 79 -33 -8 -4 12 -48 -14 -70 32 18 -17 -15 9 58 -45 1 -26 24 55 -33 -4 -5 10 24 -14 22 -26 6 -32 -54 88 -8 20 15 15 -40 -29 8 83 0 -51 3 -21 43 -13 15 -6 52 -32 67 -3 -8 59 -58 21 24 3 56 0 1 57 3 51 15 3 61 -18 -40 13 6 -9 55 28 -52 -31 19 47 -28 -12 -26 -23 5 -66 -14 -14 -11 2 9 5 41 40 -76 -23 27 0 -8 42 46 -4 20 15 -33 -22 -74 71 -12 -21 -10 -17 23 30 -47 7 -39 44 -38 -2 82 -27 23 -17 66 -42 -64 -11 -37 9 14 23 20 -42 16 14 -48 -13 -27 -12 14 52 9 -8 -5 -4 28 -21 28 -22 27 -13 34 0 -2 5 56 11 19 46 -26 37 30 -9 3 61 49 19 -12 -29 -5 4 14 11 17 3 -9 -62 -33 51 -5 55 -39 34 -19 4 14 21 37 -62 -2 -22 6 -55 -49 52 27 55 -3 -38 15 8 -19 10 72 -54 -57 68 23 -32 -22 -21 -20 -30 36 5 -3 -13 -8 30 -33 28 2 23 -18 -5 -48 40 -17 -16 11 6 60 18 7 73 13 -15 -3 -4 -13 7 22 45 -1 -67 -32 55 -96 -24 16 8 5 47 -46 -17 8 18 69 -38 -104 13 -29 96 -8 11 -68 71 37 -21 28 0 -3 12 -31 -37 -22 -5 17 2 -36 2 -4 -14 -49 66 34 -28 -34 -48 5 5 -47 9 65 -50 -8 35 39 56 30 -3 1 -45 -14 75 -16 72 -50 -32 -81 -14 -10 10 -98 10 51 -43 7 12 -52 12 -6 33 9 25 25 -20 -12 -10 -29 -3 54 -62 -63 59 -45 49 -13 -96 -17 13 23 -18 44 -6 63 6 29 90 -11 33 16 14 17 -48 105 -33 37 68 -77 -63 96 -49 12 18 -17 28 -39 -86 -43 55 -22 24 -34 -50 -2 -52 47 13 -82 25 37 58 -18 -35 19 17 12 20 -23 3 -39 15 -1 45 67 16 6 45 -26 1 74 -42 9 -29 -35 41 -33 65 60 -74 13 0 -68 37 58 25 22 -44 15 43 11 -7 12 58 55 27 12 6 52 84 6 42 -20 -22 28 26 7 -23 -10 42 -7 -26 15 44 32 -34 -22 -9 12 42 12 84 -32 -82 16 32 46 32 -16 23 17 -48 -20 42 45 72 11 -4 -38 -55 -4 15 -37 9 -32 -12 3 62 22 17 -24 -2 -30 4 9 -17 15 1 25 33 21 -23 -3 -20 67 38 -4 -47 61 11 -29 3 73 25 6 -8 51 42 -35 -15 74 77 -37 19 -32 -20 22 38 54 -10 -72 -11 19 -70 47 -4 -23 0 3 24 1 2 -17 74 -30 -13 -6 73 52 -31 -2 1 -54 4 -57 21 40 -30 30 28 48 11 31 -2 8 39 -1 -7 30 12 -27 33 -41 47 27 48 -26 -10 -40 -27 -20 46 -20 37 18 -37 -3 55 46 10 56 -94 16 30 -37 -48 -15 21 51 65 40
24 19 -9 10 -3 -19 48 -12 38 27 -28 9 55 36 89 5 20 -54 7 53 -69 -47 65 4 -22 13 -20 -13 -15 -54 4 -11 43 -21 64 -11 -84 -12 -37 -97 -21 2 -60 38 16 33 8 -23 17 28 95 25 -23 0 89 -53 -36 -17 96 -31 -9 -12 1 -39 36 20 31 -25 20 77 43 -2 53 -1 58 -22 -86 1 85 -11 -9 27 -17 16 24 61 -52 13 -56 -18 -16 20 -36 58 -38 4 -54 -11 51 -15 -25 -19 3 -35 -31 -1 8 64 45 57 7 15 12 97 43 -17 11 26 59 23 63 8 26 21 -41 -9 -74 24 -44 7 88 -11 -3 16 72 -124 -73 36 -22 -12 55 -60 41 -12 -14 -6 -20 38 57 -9 109 -23 -6 54 -2 -1 18 -26 9 -33 -51 5 -41 -10 -16 41 35 59 0 86 -40 39 7 -23 7 61 -18 -47 -22 -76 21 -8 -48 4 -14 16 84 -33 -14 89 40 -11 -6 38 -18 27 -48 13 18 18 -21 47 15 -12 31 38 -16 23 -17 20 -23 -39 39 -22 -38 28 20 31 -49 36 57 64 -28 18 49 26 25 -21 -9 7 49 -19 29 -63 -20 2 -2 1 -10 -11 -32 2 7 -6 -4 -1 96 10 -22 0 -6 38 -78 -47 -12 -8 -38 -4 30 -23 -33 -31 23 51 7 -9 19 -2 37 -13 63 13 -8 -32 -54 -102 -24 -7 -5 70 80 -1 1 -52 -32 36 12 36 65 19 22 -8 -20 6 14 -4 5 21 19 -16 -13 6 12 -6 28 -47 -1 -49 66 19 51 -27 -79 8 102 30 50 -19 -18 -14 -13 18 -58 -30 12 -28 -24 28 106 28 28 24 27 42 2 7 -16 -30 40 66 57 -35 12 -36 126 72 40 -14 -12 39 21 -10 11 -5 26 31 11 -5 -23 -31 -18 4 -8 -23 18 -61 -2 15 -16 65 -43 -9 21 -42 -11 44 13 28 36 -34 -4 17 -71 24 14 -30 -46 18 -5 -4 45 11 -11 -17 -80 11 -27 20 -27 37 13 -28 9 47 13 16 -23 31 26 22 17 -5 -24 26 70 28 5 32 8 -96 1 9 82 70 16 19 11 -56 32 29 -46 -65 -17 19 42 -11 -45 1 -11 -7 10 6 -35 52 -22 -22 30 -112 2 -78 35 42 51 -5 -24 -39 -7 -10 36 1 -8 -1 9 108 27 -38 24 22 16 23 -31 -21 30 -63 -8 37 -19 -14 -41 -32 -27 -32 -75 -38 17 27 -44 -17 17 -38 30 28 -25 -55 19 58 0 9 0 -41 74 18 58 1 -91 98 -41 2 -9 39 6 37 29 52 -40 5 -38 46 1 -8 -4 65 -9 39 -76 39 -40 12 7 38 -5 74 -7 16 23 10 65 22 -9 -6 5 29 -53 31 56 39 6 -23 -1 -59 -36 4 -32 0 -24 19 -20 21 -20 -9 107 45 8 -26 -2 -51 31 29 75 -55 13 60 11 23 33 -70 -18 -11 27 51 -12 71 97 -80 48 43 -12 18 -4 -9 40 19 6 2 -6 -22 2 -62 15 51 -24 -7 -28 -29 34 -13 -9 38 58 -14 -61 -4 22 5 -19 -42 -38 34 22 24 16 82 -39 50 -15 -58 35 -45 16 -35 -26 -26 36 -2 -59 -12 -5 29 -36 40 -77 30 62 39 45 34 16 -50 44 44 30 -11 7 -8 6 4 -4 8 64 13 38 47 25 28 46 -2 1 -73 28 10 27 -13 18 -8 -71 40 -43 80 -42 -4 -46 6 -5 -21 6 -64 -30 -27 -43 -63 28 4 66 39 68 21 4 13 40 24 23 -4 15 27 63 -33 -36 22 27 -15 2 15 23 -93 46 -12 42 -7 -26 -60 10 -80 44 -27 -19 -76 20 16 -54 42 -1 8 32 -3 -10 -14 29 -11 -27 39 25 14 8 -42 25 1 -27 -24 -2 15 -29 -20 67 -62 65 -36 -87 30 62 -67 14 27 1 -20 36 1 31 7
43 10 -25 -66 0 16 -22 -31 -48 37 -4 -27 -9 -41 -25 -57 -16 23 26 6 -12 15 22 30 13 -1 32 57 9 39 24 -68 -57 -15 55 35 56 31 -8 -31 17 -1 18 -35 23 -18 -9 -11 44 1 66 -6 47 -3 -47 73 26 -20 9 25 51 -9 -60 -66 49 -31 -49 -23 8 -71 7 19 -19 -30 62 -50 9 -3 35 -47 -95 -31 -19 -9 13 -5 41 -100 -44 -21 0 -22 -70 -36 -73 45 17 7 -6 16 -39 13 1 -23 -54 52 -45 29 -32 -30 -30 -40 9 60 -31 -7 10 -17 -16 -42 100 -2 -15 -60 27 30 -9 -6 3 -46 35 6 -20 6 47 -45 32 -36 -48 -1 -35 -8 59 25 -19 -14 -52 -31 33 -46 -58 -9 43 -10 -8 -3 -11 -57 -4 16 17 -55 -2 9 -69 8 72 -25 -12 45 -62 -44 -41 21 -41 -31 -24 -3 -14 -39 24 -37 26 32 32 50 16 -28 4 -11 -82 51 -44 4 -48 18 -25 -127 47 69 -29 64 -28 -4 5 1 -40 -17 9 38 -26 -30 -19 6 -84 -22 9 5 -13 6 -113 -27 31 13 -53 20 19 -29 11 26 -53 -38 -7 -64 -43 -26 31 10 -5 -4 6 -29 -14 -43 9 32 -58 -13 22 30 0 14 76 -18 28 64 14 -63 25 -8 -44 -75 20 2 -62 -55 -28 0 -15 -1 -32 45 7 -14 -28 -22 -11 -32 -18 61 -10 -9 -28 1 3 60 9 11 35 -19 -28 -39 43 -18 40 -11 1 -25 -37 -82 20 25 -31 -3 3 -2 32 54 48 -23 -57 45 -21 37 -40 56 37 2 2 -63 -26 13 41 -54 -1 -12 -25 8 -11 -36 2 22 68 -70 -25 -68 1 74 41 49 43 9 -20 -49 -4 28 -3 -46 17 -90 -5 -34 38 -24 -40 6 14 53 -2 24 -34 -24 -32 8 24 17 12 -45 1 4 -26 5 46 62 -40 -89 -2 -13 -13 82 -33 -68 -44 5 16 24 -26 -1 -14 -39 43 -53 25 57 -9 7 -13 -34 -51 55 25 33 36 -10 -27 -59 50 -29 -29 61 -36 47 -16 55 15 2 -20 18 8 -14 -57 1 -12 -39 -12 -12 -17 21 -15 46 -9 -27 2 -55 20 -13 -17 -16 0 22 -18 77 -15 -7 -28 -35 -29 84 -32 -6 -34 1 -30 -7 -7 -59 -28 17 -103 2 11 -22 -45 65 -95 17 -48 -18 16 -7 7 81 -85 -46 5 58 6 15 46 -35 -65 6 -81 -71 -23 6 -27 -15 -50 -11 14 32 61 10 -3 -67 0 -5 -20 41 -34 -10 48 20 -12 -26 3 -4 74 -30 -24 33 -37 -75 30 36 6 -12 -30 13 -98 -76 -20 -124 49 -23 6 -31 -45 -2 40 0 -27 22 -34 37 69 -60 -40 22 -28 -46 22 33 -22 -5 -50 -13 -68 60 -46 -2 61 -32 41 -81 49 -49 -45 -82 -3 -11 36 -10 16 -17 -44 9 10 67 -36 -10 35 8 45 -4 -8 11 -49 34 24 27 57 29 8 18 -57 85 1 -74 -64 -22 98 -4 -20 57 -27 29 3 42 29 -53 -54 28 37 -28 36 13 9 -25 102 -5 11 -24 -15 -16 34 -12 10 -2 -29 25 6 -6 18 -64 -8 -63 32 42 13 34 2 -39 -20 -16 12 5 20 8 23 -47 106 -1 1 23 20 -41 -9 -9 46 -7 3 -50 -15 40 -16 -3 -21 36 17 44 13 -34 16 29 18 41 -23 6 -12 -7 -7 -70 -11 -41 -4 25 27 14 -68 -2 -31 -49 8 -24 -23 -68 -16 77 24 31 -58 -59 6 13 -8 28 -19 40 -13 38 -18 34 22 -13 44 -106 -18 32 -11 -13 -13 -6 -34 -47 18 80 3 15 -31 10 -68 -2 -31 -90 -15 4 -20 56 -37 5 -8 39 80 36 -27 26 -17 -14 -3 25 16 -50 -32 20 -76 -31 -2 2 -25 0 -13 -23 24 -32 -25 -25 -18 3 -69 30 -7 -22 17 -19 54 -13
19 6 8 -42 13 1 -9 -12 -69 -47 -19 0 52 -22 -23 9 -1 -20 6 -4 14 -10 23 -6 -51 -11 -62 33 -8 16 26 50 -54 -5 -31 20 -34 3 -34 -41 14 -18 -56 6 -84 0 23 -65 -19 -18 -23 -7 4 -1 -11 -9 -35 -32 41 25 14 2 17 12 2 -6 -27 -1 34 -51 33 -8 -14 -19 -51 -2 43 -16 -14 36 -28 -18 -15 5 -64 22 3 -58 36 39 22 -26 -20 15 1 -61 -14 1 35 -26 2 -25 -48 -67 -62 -30 -65 -53 -60 -9 55 -13 -33 -73 15 36 23 2 -39 -32 -14 96 4 -67 -13 -34 37 -8 -26 -7 -60 -51 3 21 2 19 7 -44 -2 46 -65 -48 -36 11 -43 -46 38 -39 -45 -35 72 40 -52 -23 23 2 -48 -16 42 10 -53 -11 36 -79 -42 -76 -42 -27 -91 -14 -63 -74 -56 -29 -33 19 -5 -18 2 15 -13 -48 34 -29 -23 46 4 -33 -6 -71 1 -66 -26 16 13 -58 -15 23 -27 45 23 9 -4 -10 -26 -44 -18 -40 15 -7 66 40 -4 -37 -37 -61 21 -12 -8 -6 17 -29 21 -17 -17 -36 -60 -53 -76 -127 70 -7 28 5 -52 16 -12 -37 -96 -60 12 11 -68 20 20 30 18 -5 -30 10 -7 72 5 28 -56 -9 29 45 21 -21 7 -6 40 42 -94 -1 8 16 40 32 35 -10 -25 97 29 11 -38 -19 -5 -62 17 -27 -17 -55 -8 -40 -23 -31 -65 -13 7 3 -16 -36 -34 26 -69 87 -85 -52 -72 -15 1 2 61 29 -44 85 -4 39 22 -10 -44 -19 -35 -13 -34 -38 9 -50 -29 54 -55 4 -9 39 -21 39 -13 -7 5 13 -36 -31 -30 -27 -5 11 -16 24 -27 -51 -10 -34 54 -20 -31 25 8 20 -46 17 2 -23 34 24 -9 1 16 11 -4 -1 -59 -28 8 -48 -9 -27 -26 36 6 4 -5 24 -28 -24 -39 -43 -26 -46 -21 2 -40 -108 8 -1 55 -7 39 -35 68 21 -18 -57 -15 25 16 16 1 16 -12 -42 50 3 19 7 4 -8 -25 3 -29 -1 0 47 -30 -71 -34 42 -44 82 -33 -66 -37 -8 -9 -7 -7 9 -76 61 22 -48 -12 46 -43 -54 -2 -16 -47 3 4 -29 -17 23 -7 -58 -11 -55 -15 -2 29 -26 42 6 25 -25 34 -9 -14 -4 -12 -69 -40 0 15 28 -30 14 0 -11 -41 -53 -7 19 18 8 3 -21 -44 28 -1 -23 -32 -47 -14 -18 -3 -14 51 16 -60 -12 27 64 -18 -20 -6 -34 -4 -50 -25 -54 12 26 16 -19 24 73 -1 -40 -48 -19 34 52 5 -102 11 5 -14 -39 -10 -66 65 -42 39 50 -38 35 -17 -3 -54 70 -4 38 -21 -23 -16 -25 -68 58 -21 -41 -1 0 33 -70 42 -42 -22 -27 70 4 -75 47 -51 -3 0 -55 31 -2 -24 4 -2 13 -68 -36 -35 -57 69 -51 -22 -27 0 -3 49 15 -59 -35 -61 -63 29 -69 76 -47 27 -43 -24 -34 4 57 -30 5 -38 36 -3 4 -56 -14 68 9 66 -15 59 32 -9 -11 34 -96 23 -22 -11 -26 -31 35 4 42 -66 33 14 -29 -62 28 -10 92 39 -74 -117 5 -5 85 -71 21 -6 -79 -3 -34 51 28 -50 15 -33 -27 4 33 -40 72 20 -39 -30 43 -6 32 -26 -9 -8 9 1 15 -45 -41 -15 9 7 -8 -12 20 -53 -23 34 -3 -9 -43 39 -18 -27 -23 36 3 44 -6 -38 -19 24 -6 26 4 -95 -9 42 -13 -84 9 -38 22 -34 14 16 -51 17 -58 -40 -70 29 -11 6 35 -11 46 24 18 -30 -12 -30 -80 -20 13 -30 15 -15 -60 -91 -44 60 16 -11 -8 -44 -37 -17 -45 -84 13 47 9 -18 -19 27 -8 -34 -3 -21 41 -42 -22 39 -4 13 -1 19 9 -7 12 19 13 -57 -25 -16 -17 -57 -14 27 59 9 23 66 0 -53 37
-44 11 -10 -3 23 -5 -4 -19 -2 6 5 4 35 -28 12 -10 -8 8 16 3 -62 25 49 -19 -34 53 -10 101 58 11 -53 18 -17 -53 43 -18 -22 83 -19 -13 27 -45 6 4 -35 14 -30 -2 66 -5 -25 7 25 -51 4 -20 -3 10 30 37 3 6 73 -45 -12 -12 -63 -38 -18 -23 -44 15 71 -27 45 -19 -32 -5 35 -4 41 -31 -3 -78 -33 -5 -8 -13 -33 52 19 -27 -39 -23 26 3 -8 -13 21 -17 -5 -46 8 -12 -22 0 -54 -33 24 -35 -6 -7 7 -22 49 -40 30 8 -57 9 90 -52 -32 -30 -30 30 -40 22 3 7 18 8 50 19 -5 -22 -37 -14 -5 -64 -15 66 43 -67 7 0 -70 59 -27 15 -16 -20 6 -41 3 1 -7 -12 20 21 -59 -16 20 -3 49 -39 70 21 15 4 -2 22 -52 -82 -24 0 -31 8 -68 -2 35 12 4 20 -18 34 5 13 26 -59 -15 -22 -75 8 32 33 -22 70 24 -17 -2 34 -35 3 -42 3 -17 101 4 -51 10 27 43 -73 0 -12 -30 13 -35 19 -16 38 -66 -2 5 -45 -48 11 20 42 -123 -25 -45 -10 13 8 83 -26 -9 43 16 -71 -65 -14 -52 -6 3 -11 -6 -33 -43 -13 9 -32 -14 -21 -1 48 -22 -16 66 -28 -13 -13 -19 13 -60 32 -85 1 -9 53 39 5 7 50 -7 67 2 33 -3 -59 1 12 -19 -14 -27 -23 -19 15 -1 10 -12 26 -47 21 -29 -6 49 -6 16 -77 17 3 -40 12 8 -46 -10 -18 46 -59 -32 -31 -15 2 -79 -42 43 -20 -35 22 43 31 -1 45 -20 -37 61 5 8 -8 37 23 -62 -1 37 -37 -23 23 -15 19 -30 0 46 5 11 -29 -14 36 11 -27 -25 -57 -16 -49 9 -30 -1 -17 -13 0 -81 27 24 -10 34 53 -7 -83 -10 -46 -37 14 -25 61 49 7 -22 0 -19 9 9 -9 -33 -11 -7 -11 -8 38 -31 -1 -60 -35 25 -39 27 -42 45 12 -20 -24 0 -13 -100 24 0 -4 -51 2 29 33 -10 -38 -4 -27 13 24 -66 -84 4 24 -12 -26 -39 68 -30 14 4 -47 -25 54 2 -43 41 60 71 1 3 29 -49 -28 28 19 -51 48 -15 -17 -51 -41 -17 -23 3 15 36 35 27 -44 26 36 -10 8 37 -17 28 30 -32 27 -28 5 34 -1 23 37 -15 -2 -9 -24 54 7 -9 15 46 -18 -11 -53 41 -58 -9 29 19 -64 74 -53 -18 71 -3 -8 -13 78 -30 -3 -63 21 -103 6 7 -11 26 33 -1 -1 18 -11 -72 42 1 -2 24 -15 0 -22 -40 -127 -45 25 -7 23 -13 6 -11 15 -21 -71 -31 18 22 -39 -17 27 -30 6 33 6 -86 -15 -21 24 -23 6 -8 -1 -21 4 3 -13 -6 -51 14 1 -12 -20 -2 1 -27 20 39 3 22 -25 10 25 4 7 -12 70 4 -48 19 -39 33 3 11 -6 8 31 28 14 3 31 -4 -27 -51 -29 -33 -39 65 29 -13 30 82 -5 -77 -29 -9 -57 13 46 10 28 78 -20 14 13 7 -6 -19 26 10 44 12 1 -20 -10 -4 -23 4 34 -45 -37 49 37 0 -59 9 -18 -23 40 -18 -29 36 -55 25 30 0 -7 -76 23 -52 2 102 8 -21 5 67 50 -4 -39 -54 -20 -21 30 2 -10 -19 -46 -13 -11 -32 -10 -61 19 -7 -5 -27 3 -21 -54 -36 28 -20 -44 -22 22 3 2 67 3 -23 -16 -28 73 -27 -69 20 -29 58 31 39 24 -6 -26 -64 5 -27 43 16 15 24 -8 38 -5 -30 19 14 -37 -7 32 1 3 -5 11 24 26 17 -73 -29 49 -1 10 24 8 -32 -33 -10 8 -12 -19 -57 -18 28 32 23 51 -17 -22 -24 -11 6 0 -23 3 -11 -21 9 -1 59 -5 4 -50 19 -41 -16 -43 -13 12 15 4
40 -35 2 -10 13 -17 -31 32 -90 -31 -24 3 -31 37 36 9 40 -38 19 43 22 -7 29 -10 5 47 -6 2 -33 59 47 44 -1 -4 -29 -75 -7 5 26 -36 14 -9 30 10 25 -35 9 -2 -42 -6 -15 4 45 8 12 13 14 36 -57 -9 0 9 -39 31 -24 5 -57 5 1 -32 28 -8 66 14 68 -25 24 -12 -10 11 -19 6 -12 37 -30 12 -52 -2 3 -65 16 -76 -55 -14 68 20 -27 10 1 57 -18 16 -29 17 -16 -11 1 22 9 26 -76 -5 -15 -116 62 13 82 13 36 -13 -16 11 -43 13 22 -24 -57 31 -48 64 -10 -26 -42 9 16 3 -19 -72 -28 -35 -4 52 11 19 -44 -5 -32 1 44 -66 -43 -9 1 52 5 -8 -60 -8 -10 -27 16 -35 -71 -5 -4 49 47 -18 14 26 -4 7 -46 29 -31 -21 33 -5 -69 -11 -35 -30 20 -11 -45 -31 35 12 -25 16 -28 -32 73 12 -50 9 -62 -6 -40 22 -16 1 6 -30 -10 -27 -38 23 -14 -12 -65 -5 -16 -5 -25 -28 36 -8 -41 -1 23 23 34 18 -12 -15 18 -26 -38 -25 -7 -17 -3 -61 -31 20 3 -34 -15 1 19 -11 -31 -46 -33 -16 12 -10 -53 -11 43 -6 31 72 5 -40 -1 -47 13 12 55 -15 11 -8 -44 -6 80 66 -17 -51 -49 25 44 -55 -27 29 -3 -11 20 -16 -32 11 -35 10 19 -38 0 -23 -19 7 32 24 33 -17 -25 47 36 16 -7 -31 2 11 20 38 -60 -56 -24 -50 -23 25 -57 28 -5 -55 -8 -13 -98 6 -27 -49 75 59 17 -28 47 -28 -23 -20 53 3 -18 11 -40 -44 10 -26 -2 -3 -46 -23 -19 16 35 104 -11 -29 15 14 23 -31 -32 62 47 31 12 -14 -21 -61 7 19 -8 -5 14 -42 -73 -61 -7 -3 2 -10 21 -62 -28 4 -50 22 -35 68 -16 24 -1 7 -11 47 7 -24 -26 5 22 -60 4 28 -24 -12 -39 9 19 14 -39 -6 -55 30 0 -18 3 49 21 7 0 -15 -5 5 -19 -61 19 -12 19 -43 -39 75 36 24 43 -13 22 -29 -37 15 -18 55 -1 15 -16 26 -48 -59 -51 -2 -20 40 -45 -5 39 27 3 47 43 -78 -54 60 1 -68 -41 -31 0 -48 -1 -55 34 -2 -7 -9 -20 -12 -12 -16 -41 -33 20 49 -14 -13 -17 -8 -37 -36 1 -49 8 -5 -66 -2 -41 72 -8 -41 -36 -91 14 -15 -14 -3 36 -7 -25 44 -7 -25 -38 -61 16 -71 -33 -12 -106 -20 -86 6 -28 23 -53 -19 -5 -32 -18 -4 -97 37 -2 -5 -46 12 -14 -37 57 -49 -12 23 38 -27 19 -9 23 -72 -45 24 -16 -15 11 -11 7 -24 23 24 -2 -39 14 40 -88 -42 -12 3 -24 60 7 1 49 25 -27 -14 9 23 -44 47 -33 1 -37 -60 -78 -46 20 -46 2 -46 1 -14 -72 14 -36 -34 -26 -24 -6 47 52 -37 14 -4 1 -39 35 -43 -49 -18 -41 -19 -7 36 -15 0 22 2 -81 1 -18 -82 -8 -29 -50 19 -19 9 -3 -3 18 -45 -127 14 51 -23 -34 -27 -9 15 -10 8 14 -14 -34 -28 -65 2 -51 7 49 7 -10 -45 -39 -14 -31 33 -22 -54 -33 41 -46 -43 -72 -34 6 3 17 -49 30 29 4 -34 -15 23 21 18 -58 -32 -47 -34 -1 33 -18 28 -4 12 19 9 -10 36 9 25 30 -15 17 17 -2 -16 -15 38 48 13 -5 33 26 -21 27 -26 -32 -61 -28 -42 47 17 42 -27 30 -39 14 -27 35 -40 20 -23 56 -51 -44 -13 -12 -14 1 28 -14 20 7 2 -14 7 44 28 -17 -15 34 25 -10 -8 2 -8 -2 5 26 23 17 29 8 2 -26 -32 36 -25 -34 -8 21 -5 -18 1 -7 -69 8 -73 -2 -2 -20 -32 20 -10 -36 6 6 6 -23 -10
24 -38 7 9 37 12 32 48 52 57 -12 -3 -53 -4 25 -9 -16 2 60 -5 12 -3 -46 13 69 -1 3 -102 34 -13 27 59 -29 25 -2 -18 -13 -26 13 -29 23 -38 8 45 5 -28 8 15 -47 11 6 -52 -35 41 14 4 7 -34 9 52 2 -6 61 6 -39 1 13 -16 7 -47 -4 39 -7 52 -31 -23 43 -6 36 3 -61 -12 6 8 -11 -30 17 99 -18 -57 -44 17 88 20 -52 -14 35 13 6 49 -2 -4 -26 32 30 -15 -68 39 10 -18 17 -4 51 0 -10 -34 5 -79 -15 18 89 -66 -37 27 -36 -35 -15 28 -18 -33 -96 13 43 19 1 -17 -66 -31 -46 -8 -14 -89 -14 19 -24 15 -74 28 -23 -6 51 27 39 60 37 -22 -38 -35 -7 -25 1 22 36 7 -3 1 -48 57 -18 -15 -43 20 23 -33 -9 -15 -20 -61 36 -12 4 14 -42 -32 -28 -29 -58 -14 -37 -4 -9 79 32 0 28 -29 62 24 40 6 -35 -33 -25 -40 -46 -1 -12 -91 -5 -57 -41 -44 12 -29 -8 54 -33 -3 23 -1 3 -11 4 44 -82 -44 -19 6 -42 -24 38 -32 18 23 -45 29 -29 55 71 15 -19 -41 -15 27 34 -2 16 4 23 -36 67 -12 10 -6 -23 29 47 -44 -22 19 -96 -52 35 37 -52 -35 32 1 15 24 -101 0 -7 -4 -17 78 -73 -6 -10 -15 -35 -95 -38 -77 -8 -1 -34 -23 -6 -14 -60 -26 -7 -49 37 25 1 -14 -20 -95 -27 -32 42 32 -8 20 -27 10 35 6 -26 23 -70 10 18 17 -25 26 -23 -87 -26 26 -29 75 4 -70 -15 32 -21 -2 -7 33 47 -14 -29 -37 51 -20 -86 -27 13 6 -44 16 -28 -58 22 -89 12 -7 -11 -3 59 21 26 48 21 -56 -36 3 -7 -6 45 -15 -66 9 4 71 87 10 -22 -15 9 24 -48 -80 -3 19 8 25 -35 -5 20 1 -23 63 -12 26 -40 2 -43 -40 -51 -8 -54 15 -81 8 -35 6 47 -80 -63 -22 -75 36 3 -64 -36 1 52 5 11 -20 -45 1 1 -67 1 -19 -49 -40 -15 24 15 15 25 28 -19 -23 -53 -12 17 43 -15 -7 -12 26 22 26 46 44 -15 -60 -43 26 11 -25 70 -45 -31 -9 1 -3 50 8 71 66 60 -5 -27 28 -8 -71 -27 43 36 2 -29 18 -84 7 38 19 39 26 32 24 -1 7 -42 -27 27 19 -49 -62 -40 37 -39 16 -53 37 -6 11 -14 8 1 -43 -20 -4 27 -8 -10 -38 17 -17 -19 21 -9 26 -3 -54 23 54 4 57 -1 20 15 -40 -15 -14 32 -57 -8 6 20 54 10 6 -14 -34 30 -2 -44 4 7 -51 19 20 -3 -7 27 8 -13 -22 21 -29 -36 -58 52 1 2 -16 20 37 -12 38 57 8 -27 19 99 -83 -6 43 4 -16 57 53 15 -127 -9 1 23 32 -12 -28 0 -12 -51 -1 -16 30 -33 23 2 -55 2 -4 -2 -31 -60 14 -22 31 7 -79 -80 -4 -28 -53 -113 37 -34 12 2 -17 70 26 -13 8 38 33 1 -14 41 30 20 -44 45 -7 23 20 -11 7 10 14 48 -67 -44 3 -15 -4 26 5 -20 -4 -3 17 37 -77 10 -30 22 -10 41 -18 38 39 -11 44 18 -34 -29 -34 -26 -7 -26 -6 -86 22 -28 -7 -48 6 2 49 33 12 34 -17 -62 19 46 23 17 9 4 -21 2 -54 -34 17 5 -60 31 -10 -15 8 -45 -4 -54 -22 -10 6 -3 -55 -15 -39 23 7 -13 11 -8 -17 17 34 -20 3 34 23 20 19 -22 2 52 -17 -18 14 29 -14 -16 1 -7 -23 29 23 -46 17 -32 13 2 17 -3 -25 0 -15 19 19 -23 22 -8 38 -18 6 -46 -24 -15 12 -14 27 13 5 21 -1 14 23 14 -25 30 -9 36 -23 11 -19 -4 21
-11 25 -10 48 -55 -33 -51 -8 5 -47 -46 5 -11 15 74 -37 31 -41 -43 3 27 -83 28 24 2 0 -7 -11 29 20 -24 28 -22 3 -13 -47 -66 4 -39 -56 -29 -12 101 -62 43 1 -20 -5 6 8 -63 -29 -10 38 -93 -3 -53 16 42 -58 -46 13 -51 -30 -2 5 -96 -23 21 -5 9 -22 38 -42 0 27 25 -16 -11 -1 5 -6 -5 -27 -1 -33 8 -16 -44 8 20 14 -20 7 -12 -10 -55 -23 -22 -19 -24 -16 3 -7 1 -8 -34 -105 -3 3 -19 12 66 -127 -32 23 27 52 9 5 10 8 -30 -9 -3 9 38 -14 -3 -7 -66 -2 -47 -60 9 35 -17 -41 -28 -28 -5 -21 32 20 -47 -9 31 4 8 -3 24 -22 -15 -27 45 -1 -33 -34 -25 -12 -50 4 -84 8 -2 -31 -47 -64 29 45 -10 6 26 -16 -16 -18 -10 25 4 -22 30 -44 -47 -2 7 22 -54 -61 -56 -1 28 -24 -15 -42 -46 -33 27 49 -29 -3 -29 -1 40 25 -56 50 9 0 56 -19 -10 75 -42 -13 53 52 -23 -16 -27 -15 -105 -29 2 52 -22 -38 23 -15 -16 15 -38 -51 20 13 61 -37 1 -28 -70 -4 -10 -13 -2 -22 -32 -1 -94 -12 -34 -17 -74 9 28 0 -15 16 50 -13 -8 4 -37 -35 -21 62 25 -11 -30 7 -31 -32 20 6 -47 19 20 -48 -73 -55 8 -16 9 57 -40 33 4 -13 -32 10 24 -12 -21 3 -52 32 10 11 -31 -14 -65 4 -11 -25 -4 -15 4 -64 12 -45 -22 -30 16 45 -9 -13 -27 -45 31 -67 14 15 -43 -33 13 -18 -81 -41 -23 4 36 3 17 8 16 26 -28 40 18 20 -20 -72 21 13 0 20 -14 -22 -47 -8 21 -65 -37 46 63 -14 20 48 -35 16 -57 0 -55 -10 -40 -2 23 6 -41 12 10 53 9 -33 -26 -27 38 -41 -11 6 -30 -42 -19 -18 30 -44 -36 48 53 69 -10 18 -55 31 29 14 -7 -6 -75 15 -18 -46 -33 -8 36 -30 74 30 30 -23 -11 -21 4 3 69 -18 -15 -24 -65 20 8 -60 17 34 17 -45 -12 -49 -6 15 -32 9 21 28 6 12 -27 -5 31 -19 -39 47 -58 3 -10 22 15 -24 29 -6 9 49 -84 -28 -45 -5 17 -13 -34 -5 -38 52 -28 -100 -59 -118 -62 0 -29 -3 -26 5 -34 41 -36 -31 7 -5 -63 8 5 -35 -57 -14 -67 56 -4 -37 0 -79 11 49 -30 4 29 -48 -32 57 -9 -50 -27 -34 -50 -26 -56 50 -91 1 24 -33 -42 -96 -72 2 -30 22 19 23 -27 -20 -30 16 -38 -12 58 29 -52 -17 -52 -16 38 -65 -55 -56 -55 55 -3 48 22 -1 -3 -4 35 6 -23 -28 -9 32 14 33 22 -24 32 1 17 -47 11 -95 -14 -6 41 -14 59 -5 45 31 11 -14 -23 30 6 -33 -8 25 10 -26 -41 -93 -6 22 13 12 -47 -7 -80 -15 17 29 40 21 3 -19 -4 -18 -28 -35 2 38 -12 40 29 20 34 -7 -42 65 -64 -28 57 14 31 -7 99 -23 -72 -25 -63 53 -73 21 -24 -35 -20 3 -20 -15 4 -5 -65 -24 23 -53 -30 -50 8 11 2 49 -48 -19 -34 11 -27 -35 -4 -21 -62 29 -40 -33 -18 35 -11 0 13 -16 -62 10 -49 -11 -6 -25 -13 74 -28 -26 -17 32 16 -37 -14 6 -9 51 -23 -9 -21 2 -29 21 -25 0 -10 49 -44 -18 45 37 -31 -4 -7 -12 23 -22 -15 10 -3 23 -81 34 -61 -38 -34 51 -2 17 -33 43 -37 -28 -60 38 11 -30 33 5 46 -34 8 1 -32 22 -40 -6 -58 -41 -21 4 -27 -17 13 -34 36 -2 -28 -54 21 8 -9 -21 24 -43 -7 55 -28 -29 18 37 -25 -3 -20 -17 -43 -2 -29 11 -11 -38 5 -38 -99 -39 -48 -43 -48 3 -31 -38 74 24
-7 18 17 48 -4 -58 -127 -10 23 -44 10 -56 39 -31 -19 6 31 -16 -18 -6 -32 -21 -65 -4 17 1 -61 -7 27 51 -8 7 -14 -46 -19 2 -1 -74 -3 -6 12 -29 2 -38 -14 -52 41 -10 38 6 -53 25 -2 -23 70 -56 -5 -32 2 22 -4 19 -32 -17 5 -105 43 19 78 63 -23 0 0 -54 -79 -5 25 -5 -7 -44 -72 36 -6 -32 33 -40 35 -38 2 -44 16 5 42 7 -8 30 68 -26 -38 47 -43 19 57 -96 13 -6 8 -5 53 6 -90 -60 -1 51 -7 -20 -25 -28 10 14 18 -8 -70 -32 23 28 3 -4 -28 13 22 16 -16 -24 -45 23 -49 11 -19 11 -20 23 18 -6 -15 38 -18 48 63 -19 -8 6 27 34 -51 8 -9 15 -30 6 -21 42 19 30 -78 -36 -76 -28 7 1 -52 7 -5 17 13 17 -24 -26 -13 -5 41 -14 -15 17 -4 -16 -82 22 12 -69 50 1 -88 19 1 2 27 76 7 13 2 -37 3 19 -16 54 -19 0 -58 7 -14 -22 47 -29 -16 21 13 -3 30 -1 71 6 59 -36 -3 0 -109 -65 5 -1 113 48 -3 30 68 -38 -40 -4 20 37 -5 11 4 -86 -14 0 9 6 -49 -38 44 -45 70 -67 -14 3 10 -11 -19 -10 12 -17 -15 -42 17 2 53 5 -13 36 5 24 11 11 19 27 -29 -15 27 28 -1 26 -42 -2 -67 35 24 37 52 10 -12 -52 -34 31 -13 25 -52 3 -47 41 -12 15 -13 -5 81 -8 34 49 46 -8 -19 -64 -100 -24 -4 -39 33 -27 46 67 4 39 19 48 47 -69 35 19 6 -32 -24 -34 13 -41 34 -44 -13 -37 -19 11 -60 17 -54 -14 22 -22 -38 -24 -75 28 -22 60 -18 40 -44 -55 -31 -13 -33 24 7 1 8 1 -17 -85 31 4 -7 29 53 -1 -31 14 -33 27 52 15 34 -26 -15 -71 11 -28 2 10 20 -32 14 -50 -7 -23 -43 14 -35 -37 -84 -26 -27 -25 5 19 41 -19 68 -60 -22 6 5 -10 63 53 -28 26 -11 22 12 1 15 46 39 21 50 -6 30 47 -12 -6 20 38 -11 -19 3 46 -7 -58 14 -26 -23 37 59 -43 30 36 -20 26 41 49 24 -41 -35 -5 -24 0 15 -23 -10 -22 -52 11 -47 22 -39 48 9 5 -53 -45 27 39 12 2 -36 -26 55 19 -8 -22 89 40 -57 38 32 -25 -47 -42 -54 -2 -13 -54 -33 -3 17 -58 -14 30 -4 25 14 -13 -83 -20 47 9 35 -36 66 18 -29 24 40 35 -50 74 26 9 -14 -32 36 3 35 11 -1 -31 4 1 13 -37 -39 -24 33 35 70 -12 -15 -83 -60 71 13 -20 40 33 -2 -7 76 -49 18 5 -27 -66 -35 2 1 46 -6 17 -19 -31 -58 4 18 19 25 10 10 -7 -10 -25 22 -32 16 33 -11 30 21 -41 -44 10 -6 29 -3 8 -29 -5 -27 -11 -5 64 2 47 -38 -45 -40 64 -19 -12 -66 -22 11 -26 36 -25 -7 -24 28 49 -9 -10 27 4 -80 16 1 -72 25 15 -30 -60 8 -4 25 -69 -3 -12 4 41 -10 43 -10 48 -30 -18 -10 -1 18 -55 -29 16 83 -32 25 -54 -18 -7 68 -34 -61 32 33 70 -89 44 13 -11 -38 30 -3 8 -16 31 37 31 -13 6 -19 -16 16 -17 38 11 -50 72 29 42 28 28 4 11 28 33 15 -5 -7 7 28 -7 -35 14 -81 -18 -8 -20 9 -5 71 14 -8 -59 -13 -36 -36 -71 -11 -12 29 38 -13 2 79 -34 15 -22 -23 31 -64 -13 -54 -31 -44 35 -6 -8 46 31 33 7 49 -38 12 -25 -20 -2 -37 -14 -16 30 -50 16 -50 -37 -62 -26 -39 -56 -17 -1 15 -46 -58 -20 38 -36 39 21 21 -14 -26 -33 43 38 -31 86 -19 -9 12 -3 24 -15
-1 19 23 9 -22 -6 -9 -59 -21 -48 3 19 108 36 20 -45 -43 7 29 26 -18 -51 -3 35 7 -34 -33 -33 -29 -26 32 -21 -1 27 -25 -8 88 3 14 28 -19 17 58 -68 62 -51 -40 14 16 -26 -21 13 -8 19 43 -18 -10 13 -63 -34 38 20 -37 57 0 22 -84 34 54 2 -21 -70 1 -38 -29 -26 -3 -3 -22 28 -5 -29 5 10 -6 11 -37 29 -8 8 -3 1 -32 7 50 10 30 12 -19 -2 -10 8 39 6 -11 26 -9 -58 -40 19 -9 23 53 -21 -24 2 -25 -32 -16 -52 8 -5 28 -3 -60 19 -18 -38 46 33 -27 30 7 19 -43 18 19 50 -21 -5 27 34 -3 22 -16 40 -55 -1 45 -49 -18 -19 -11 -33 43 -8 32 31 53 -5 -19 30 3 -96 -22 -14 -14 96 45 9 -27 19 -43 -71 -15 40 23 3 -5 77 -11 16 -30 -32 35 11 -10 -55 -57 -25 -19 -27 -52 32 24 -64 -19 53 50 24 -14 2 33 -23 -8 89 -50 -33 -13 -6 44 -13 51 44 27 68 43 3 -42 10 -49 4 -29 44 -5 -53 -2 -34 -55 -6 31 -37 32 -75 2 -5 41 54 -58 5 22 -27 21 -88 10 -24 -18 22 -15 7 8 -62 -1 42 7 -37 62 13 17 -39 19 25 13 19 6 -19 40 10 25 20 -24 36 -2 46 33 64 22 -15 19 -17 43 10 -15 -65 -5 18 26 -16 29 9 32 11 -17 -48 -41 -2 59 -6 -63 -111 -79 -58 48 -53 -74 20 67 54 79 -27 -38 13 -30 -38 -31 24 -58 -6 46 -44 24 -92 35 32 -17 17 -10 14 14 5 -12 -25 40 25 -22 -6 57 -12 -28 -13 -2 69 -34 -1 -59 17 66 11 22 14 -6 14 38 -33 -11 -28 -20 42 -3 -53 -25 -8 -41 -55 111 31 33 38 -11 16 56 -9 -11 -6 49 -27 15 2 -31 -18 -33 52 26 66 -11 16 12 -44 25 -1 -53 17 -82 -2 26 41 1 8 5 28 35 26 -20 8 -42 -13 31 -57 10 -3 -2 -16 20 -61 -16 12 -16 -15 -29 -32 4 102 33 7 -15 29 31 -33 33 10 -10 -45 11 40 2 13 47 -4 17 -11 43 -64 1 -20 -2 47 -3 -33 37 30 38 -48 23 -13 3 75 -25 24 -33 -52 -31 12 19 -7 -13 8 13 15 51 -17 33 -3 -32 -16 -23 0 -63 54 -39 5 4 -14 -44 43 43 -32 -4 -19 28 -18 24 -48 29 4 -7 39 -1 16 -26 21 -38 12 29 42 -57 10 -66 -42 -29 -6 4 18 -57 -53 -106 -43 -39 -19 -7 -44 -51 9 30 9 -3 10 -31 3 -29 24 -11 -26 -17 -17 34 -23 40 23 20 -65 14 27 43 44 20 -80 -20 -63 -6 -10 -12 1 -10 0 26 14 -21 -10 -4 -13 -11 10 62 -75 -15 -72 7 -25 -53 -12 4 12 28 -12 22 -40 -80 -36 34 26 11 -83 -20 23 6 12 29 12 0 -16 -29 31 -45 11 8 20 -6 -3 -48 -11 22 5 -3 38 -11 -22 -17 36 5 4 5 13 -16 -14 24 -21 76 -7 46 4 -48 -43 -26 -68 -19 -56 -27 0 55 6 -6 -26 -22 64 -49 35 76 22 8 -80 -7 26 24 25 54 -5 -8 29 78 60 27 20 -47 -68 -62 -15 -5 3 84 67 1 68 -18 14 42 -61 -17 -10 45 -15 3 -59 -7 63 -47 -23 59 1 -16 3 -15 8 13 -9 14 -26 -51 -27 -19 15 -7 58 46 9 -30 -9 21 19 126 6 25 -20 -10 18 -45 5 7 11 -5 -9 30 9 -7 -20 45 19 8 -8 61 -32 -7 20 -28 -18 -27 -53 1 1 -33 -21 35 -8 25 29 71 -59 -3 16 -2 -9 22 -74 36 27 11 -3 -46 19 6 -4 -15 -4 -19 -29 -36 5 5 1 67 -3 6 -80 -24 -26 -27 10 1 -33
-70 9 -36 -43 17 -38 28 -13 -16 -58 -13 52 -27 -6 -43 -32 -30 15 0 -14 42 -4 -44 48 14 -33 48 15 -5 -17 -74 37 24 -8 83 -5 -11 1 -17 47 23 11 8 -34 71 -22 -14 -6 -12 10 20 35 -21 -24 41 22 -41 -39 124 34 -47 8 17 11 14 22 54 9 2 19 -75 43 -52 -4 -24 7 16 -1 -10 -28 21 -2 22 -8 -64 -17 -68 43 -67 -23 -11 -12 0 -19 -9 13 -80 -9 106 -39 63 -18 -67 12 68 33 -5 -29 -36 -6 -4 14 -29 -42 61 -22 -39 39 -73 -32 27 10 -22 3 68 21 49 44 10 -17 20 -39 -57 26 -9 -31 33 67 39 -54 37 69 -49 -27 -10 -12 48 -54 -13 42 -15 -32 4 8 2 -16 -48 -31 38 -24 -15 31 56 -51 -56 -20 15 7 -15 -13 -20 -29 23 0 126 25 21 21 15 -12 73 53 28 -5 74 44 22 -45 2 19 18 -18 11 12 8 77 -21 23 17 20 17 52 -6 50 3 -102 -21 -50 25 -19 51 -6 44 -45 -21 -18 28 -14 -52 -12 -24 -13 40 -7 41 7 6 9 5 -41 69 36 11 -25 -73 2 5 -57 -80 -15 -25 -28 -44 95 -12 22 -28 9 13 -39 -14 -39 11 16 60 -59 26 34 24 26 -21 31 94 -33 30 16 -1 -1 45 -16 25 -32 -66 53 -20 43 34 0 54 51 -17 -71 -46 53 16 -19 41 -32 21 60 47 24 -34 9 -46 67 -51 -39 -23 19 -3 42 2 15 23 -70 11 -16 -58 -17 50 17 -21 71 -24 18 -41 -20 -1 55 -2 -72 -51 -62 60 -15 -83 38 -31 21 -44 -17 -16 -9 -5 -19 24 34 -28 32 -10 23 -84 -8 53 34 -1 -46 66 26 1 -35 45 -2 -22 47 2 56 -38 43 -21 2 9 -2 0 1 -32 -42 43 80 38 27 -69 58 -8 -45 -17 -50 64 11 14 -70 19 26 39 41 -77 -59 -50 -10 -38 -3 22 5 51 13 -6 27 43 -17 -3 -60 22 32 -40 20 -8 29 -29 -15 -25 -1 10 -20 -14 36 17 -9 -1 -58 -11 32 -9 22 18 0 20 33 24 -27 57 -109 -29 14 -1 -69 -26 -56 23 73 -43 44 46 18 21 -6 6 -12 27 25 -21 30 -25 -6 -57 29 29 26 -3 -43 -28 24 26 6 8 -79 -70 -6 25 -12 9 12 33 -17 -62 45 6 -19 -35 65 -7 -42 7 -28 71 17 5 48 20 35 -13 33 19 -40 0 23 4 -51 26 -4 -25 69 -40 23 35 -19 -35 -34 60 -18 -16 -45 -10 -17 -62 17 41 -28 72 -48 1 48 -3 -8 56 16 -42 -14 -79 51 -11 1 1 9 -23 -41 12 -14 33 -60 -50 5 5 -1 51 23 0 13 -57 -5 -57 3 36 1 15 -31 58 36 9 49 55 -16 13 22 -34 -28 -1 38 -55 -49 16 -67 19 37 -4 7 47 -19 -4 -49 -3 48 24 30 13 -5 9 10 -1 17 58 15 67 -20 26 54 9 60 2 -13 -35 29 10 -25 31 41 4 26 8 0 -45 21 4 -2 45 -1 -73 -23 94 18 11 -50 -20 -27 40 20 -18 -16 -20 -7 4 -76 -18 21 36 -32 28 21 16 18 -61 37 -13 -6 -4 -5 -31 36 -8 11 92 -18 28 -44 -71 6 31 -2 30 38 6 14 3 -48 3 -45 -29 -46 11 -14 -11 -28 9 -31 48 -17 13 -35 -10 12 -56 26 -42 64 14 17 -13 -1 12 39 -99 -19 -6 18 -55 25 -20 13 27 16 -64 -32 -6 -54 -2 8 -30 12 -25 -29 -34 -7 13 -57 6 -39 -36 -47 -9 34 38 -23 -3 8 -11 -26 -1 -2 -9 -21 -30 9 45 47 -38 4 -40 -19 33 0 3 -54 31 61 -65 -16 -57 -38 -51 -5 -17 -22 9 14 -56 -91 -38 -27 -12 62 -71 -1 28 103 -7 34 2 -21
77 -38 -70 -22 33 15 55 -65 12 19 38 4 -64 -41 51 16 32 16 82 38 -45 3 -40 2 -32 -12 53 0 12 65 -29 4 -50 58 51 -34 21 -84 4 -43 -75 -42 34 -94 46 19 -3 -13 -28 -51 64 62 -18 -8 49 50 33 33 -74 -95 -11 -2 2 -2 -98 38 23 -37 7 43 78 -59 -67 19 -17 -17 -11 -4 16 -12 -27 -23 8 76 11 4 52 -44 37 -46 -50 7 58 6 -60 -19 3 17 -35 -33 -44 24 -8 24 -48 -28 22 -18 3 23 -22 2 -7 -79 75 -44 54 -5 42 -61 3 -27 -30 54 -21 -34 25 -31 -26 -1 30 -8 -2 -39 -73 -38 -71 -48 10 40 45 -32 43 22 -33 2 -33 27 60 104 12 -73 -1 -33 13 10 9 50 16 -21 -83 9 14 -15 -77 11 39 -20 13 -29 -40 29 73 -46 43 -13 -45 -12 -43 -40 5 66 -21 3 -72 2 8 14 4 -88 -68 -16 13 23 57 25 -43 -19 13 -75 -32 -7 -1 87 4 6 -46 -15 77 34 27 12 12 -19 59 34 -64 -5 29 -3 23 12 23 67 17 -33 57 11 16 35 43 54 86 58 17 64 -22 123 -23 -20 13 2 20 -57 -7 -24 0 -8 5 -32 33 10 14 -30 97 31 -10 -62 26 16 44 -92 -12 -33 41 -19 24 12 61 -20 -45 -27 -7 26 -31 37 19 -62 0 -6 -78 33 31 6 15 24 -29 26 20 -52 86 65 91 -42 21 36 -26 59 -4 -59 3 -81 17 30 9 48 -3 76 -24 35 -29 67 100 -31 -33 14 28 24 -65 6 -10 11 41 -57 -37 0 5 8 8 -24 -25 -33 31 -34 48 -40 42 -49 -93 70 -85 -57 17 10 -28 -66 -10 45 60 64 -26 78 39 36 -15 56 -8 35 -52 -13 28 -15 7 -56 22 -2 -77 -19 17 -21 -46 6 -12 39 51 33 -18 -25 -2 -2 20 -21 -54 -74 77 -18 -20 1 33 -13 -34 64 -16 -4 -10 58 3 -5 -10 42 10 30 -25 4 -43 47 -26 47 -10 20 36 -4 -29 -27 -11 13 -72 -18 30 31 21 -58 -65 -20 -15 42 -31 36 57 23 23 -48 -7 -34 63 46 -25 18 16 -17 16 26 1 39 6 0 -38 50 -5 -10 23 -63 -54 -17 13 35 12 -20 -6 6 -5 8 -65 75 -59 41 -36 9 -39 13 -55 -14 -63 -6 12 -6 2 31 -8 74 20 2 -127 -105 -6 -9 -11 -35 28 34 16 -35 -100 47 6 -112 -5 -20 27 9 36 -46 11 6 -5 -2 -47 48 -10 -36 -12 26 -17 94 12 32 0 19 4 -16 -18 78 -30 11 -15 -22 -33 6 -37 -26 32 -54 36 93 -22 0 53 -12 -16 44 64 7 -107 69 -46 40 -24 42 63 -27 11 1 -22 -22 -14 8 -44 32 -78 -17 -99 7 -38 67 20 -52 2 -60 16 -6 5 42 23 6 -26 25 27 -12 56 5 9 -25 -72 -56 -23 9 77 13 -2 -15 93 50 37 -5 63 58 -11 -25 64 -6 66 -15 -33 -19 -17 7 -42 -27 -26 24 25 -16 31 22 -20 -53 40 -62 35 -11 64 -45 27 2 25 -42 -6 20 6 41 -50 -43 -36 75 65 39 54 57 -6 -8 15 13 -68 -37 -93 6 46 -24 90 7 -41 -23 -18 -5 -12 -5 19 36 38 81 -32 9 12 -10 11 90 16 3 75 -64 -79 2 -4 8 -10 43 -25 -20 -29 37 35 25 -1 -70 -5 35 -31 9 -13 -22 65 11 30 18 -24 12 59 34 28 -14 -3 -57 12 0 74 25 121 20 12 97 -29 -14 -20 4 3 3 24 -87 -26 -8 9 -22 -37 -25 -33 43 -12 74 -36 -29 47 -16 12 33 -6 0 11 76 23 34 -36 20 -41 -59 -37 21 -24 3 -60 -7 29 -16 -6 -18 -4 -3 0 5 4 100 21 -27 -51 -76 14 0 -62 19
-37 50 64 40 33 32 -17 73 -71 18 14 -2 80 -30 -11 35 10 71 -7 -8 -22 15 -50 33 4 -2 -11 9 18 -52 88 43 -3 43 -13 -55 -55 23 -55 29 59 21 14 69 -58 -20 51 29 -9 -7 -9 78 -36 0 -19 42 26 29 -62 48 -8 6 28 28 25 41 -45 -42 -41 -4 -24 -23 -40 13 35 40 -46 8 38 33 5 -39 8 -4 2 19 -34 8 -53 -20 35 49 66 126 3 70 73 27 13 -42 45 14 21 -45 -39 33 -88 -18 19 70 -1 42 1 23 -18 18 7 -64 -35 28 -9 -72 23 45 52 -11 90 -3 -52 -5 6 -2 -52 2 19 -8 -4 3 0 23 -26 20 42 34 -25 17 29 7 -43 -16 90 -47 75 10 46 11 1 8 -12 16 11 -35 2 17 8 42 -45 7 84 31 30 19 16 16 -11 -1 -20 -34 2 -66 -63 16 73 -4 -43 22 47 8 54 -46 5 25 -51 -6 16 18 19 23 -13 -59 38 12 70 3 -7 -26 14 4 36 3 -16 -7 44 33 28 3 12 -6 62 -7 46 42 -57 46 56 57 -12 54 -1 34 -16 -38 -66 -3 -91 -9 56 -18 68 9 25 84 -7 8 -36 16 -62 42 96 18 -65 -1 48 56 -44 -25 -78 -12 11 -20 -14 12 7 26 -18 72 -37 -56 -31 -38 -25 -40 -41 5 -6 34 68 19 41 10 -63 11 -7 -3 -34 -7 -28 -12 -4 37 82 2 -12 76 -17 -49 34 -12 -76 65 82 -34 33 26 17 -16 10 29 40 -29 -57 43 27 52 21 -16 -90 29 29 -11 -59 -95 53 60 -14 32 -25 0 -11 -37 -8 19 -47 23 14 39 30 -76 -9 -25 5 -67 11 -63 4 48 13 39 4 -11 -16 54 -57 -55 -25 2 -26 23 36 22 49 23 -20 -3 43 43 -33 98 -27 17 28 -26 -83 22 -4 -12 -12 -11 -8 -12 54 88 -1 25 41 8 41 71 -57 52 37 0 23 56 55 -3 -16 7 -56 13 -50 44 19 63 -27 -17 13 -25 4 4 -25 -6 -34 -26 -14 3 21 -26 9 39 -9 -47 24 -79 -17 26 -9 -48 -18 -18 18 65 -37 -31 -10 -33 23 60 -54 45 61 53 31 11 28 -31 6 -75 8 -79 -27 -24 -72 20 -17 1 10 41 17 23 -61 8 12 5 -27 25 -25 3 47 28 -13 -36 -69 -13 99 -24 32 34 -18 -45 -39 49 -42 70 47 15 23 -37 42 46 -65 10 43 58 9 -54 9 -18 10 49 -88 48 57 18 19 38 -3 19 30 -1 -11 -13 -11 65 18 -3 7 1 71 -20 -27 13 26 33 27 -25 -81 1 12 -6 -23 38 3 3 25 -21 29 6 5 -18 73 -27 -31 68 -3 16 -35 25 25 -33 16 5 73 -25 -10 25 37 16 60 -36 -24 -6 32 53 22 27 -49 -47 -83 36 -1 67 -10 20 8 -12 26 -9 33 -25 -6 -3 -12 35 59 -2 38 73 -2 16 -38 32 14 80 9 -11 -38 57 -8 -3 72 -30 13 -1 -13 10 -43 -20 43 -19 -12 3 23 10 -15 -17 42 20 -36 28 1 -27 -39 -22 20 20 25 18 2 60 -66 -48 59 56 44 7 -8 -38 -5 39 -23 27 47 -44 -9 41 12 22 -54 56 31 5 12 -32 100 5 13 -62 -69 46 -44 -64 -17 -15 0 42 70 -68 21 31 46 -54 -66 23 60 -9 7 -5 13 30 -6 -69 28 11 -56 18 -16 29 -40 1 -53 35 83 -81 -44 -4 48 -62 31 28 11 35 17 26 28 -20 59 -5 48 -53 77 53 -43 -48 37 -65 53 -59 48 16 35 48 -40 -19 55 30 -24 21 10 8 -5 15 83 -14 -19 22 -75 65 -72 -21 -17 46 -8 -19 86 75 -79 80 26 30 -18 -22 36 -24 -57 32 10 -34 -17 41 -19 15 62 4 16 45 -35 94
30 10 -27 -37 15 49 -108 1 11 17 2 -51 18 12 9 44 -55 90 -30 -10 -112 -66 0 9 37 -119 24 -72 -61 20 0 53 6 -12 47 13 61 -22 -48 72 11 17 -24 -34 44 -29 -38 33 -4 2 -38 2 -3 -17 3 33 -63 -25 56 -49 50 -22 56 42 -60 -22 -61 28 62 -73 73 44 12 10 -26 13 12 -8 -68 12 14 -8 -42 -41 58 -28 21 4 68 -1 -17 -103 -54 33 43 -6 -33 -6 20 -35 26 -57 38 -39 68 58 24 -12 78 -35 13 -50 21 86 -26 -32 55 -18 25 8 22 -107 -19 -21 4 -15 -9 -67 -115 -37 26 -12 -42 8 24 -15 -58 96 -3 -27 2 -57 -72 3 2 53 3 -2 -15 19 14 102 8 -34 -20 -6 -23 7 59 -8 -112 -9 -7 -65 27 -73 31 -20 -126 -17 -7 -11 -26 -47 -10 -20 -38 11 -86 42 -18 12 -44 -28 2 28 -10 1 -34 -30 -40 -116 -27 20 54 -32 -17 27 -108 -54 42 -31 42 -18 9 -11 12 22 -20 -33 12 -47 3 -9 36 -39 14 -4 -19 -11 22 5 -12 42 14 1 -11 -3 37 39 21 -11 15 16 -29 10 37 -31 -33 21 -31 -62 -76 12 -4 -16 19 32 13 6 4 -48 3 58 -14 11 17 -8 -1 -46 3 -30 6 39 27 -5 29 -74 -36 -16 15 50 68 -6 6 -39 -36 2 20 35 -24 -40 -13 13 59 12 -6 -20 -48 14 33 -91 69 1 -10 -20 -72 -32 -23 -38 47 -48 14 26 -36 53 26 29 -65 -52 29 15 -41 53 76 44 46 25 48 -11 -3 -71 47 20 -33 49 16 -44 18 -9 35 -5 41 28 34 -5 96 -17 -74 -102 -7 -23 -36 -80 45 -22 -1 -27 44 3 6 59 46 -17 -2 68 124 -18 -19 -29 30 18 -7 4 -68 47 34 -61 -32 -34 -40 -16 42 26 -25 -36 10 1 103 -26 -86 54 37 107 -15 -44 -2 53 44 -62 -66 -3 -41 58 -44 83 14 24 11 -14 18 21 20 46 4 -39 -43 60 10 11 -7 72 27 -6 -9 13 9 -11 -25 70 -36 17 -13 -56 -55 53 52 51 -32 -20 36 -60 -23 31 86 -49 4 46 18 12 -19 -15 -41 -41 16 50 -66 38 -5 -30 -8 -10 -61 -14 21 19 6 -5 25 -13 -16 -32 -18 33 -20 8 38 -16 -5 -19 -44 -3 38 48 35 -3 20 21 -29 19 -127 -67 -111 45 29 28 -60 28 -38 28 100 -38 -84 -28 24 -19 -4 -51 -27 -2 -43 -45 -27 12 -68 3 -28 10 -51 -101 0 -26 -6 42 21 -13 -43 2 -23 -10 0 -40 47 -4 -60 20 21 10 -77 -80 19 -21 -71 5 -30 6 35 -88 -31 14 86 20 -4 4 15 -34 -25 -53 -74 38 -19 5 -65 11 38 -13 -80 -83 17 -26 40 -4 47 21 25 42 34 -19 9 59 -35 15 25 -29 15 -67 -33 1 22 53 50 28 16 -9 -15 43 26 -70 -3 21 -5 27 -10 52 11 -15 70 15 62 -75 20 -22 -25 13 20 -1 -13 -1 1 32 70 20 -3 24 16 6 -11 5 31 47 -40 -7 64 20 7 19 -18 32 18 5 -94 56 -85 -37 -12 -45 -58 17 -4 77 -38 -6 -5 -64 -80 -100 14 -13 -16 -34 -70 -83 15 53 30 -60 19 -12 43 11 62 -9 42 67 -32 14 58 -46 -72 43 25 13 19 -29 26 -56 9 -43 -30 -12 -10 64 -22 91 -3 -14 8 17 7 -63 -26 -91 -53 25 27 -36 0 -41 4 51 -52 28 26 -8 -51 -27 55 -55 -82 44 -17 21 -31 0 -40 33 -10 -71 -22 -51 -14 23 25 92 -76 39 46 -72 5 16 2 5 -53 12 11 -29 26 7 -30 43 -54 42 15 -11 -25 -27 -125 -84 23 16 46 -20 20 -106 -21 -8 7 51 -6 66 24 -53 34 24 27 -25 59 39
29 28 28 8 -9 -45 -46 9 -21 31 2 -32 -19 38 -29 -6 -24 -17 -11 -21 -94 7 -23 9 33 -6 8 -13 48 0 19 -7 -38 1 -48 34 0 -31 -26 5 -31 -19 -25 1 -34 -23 -72 42 10 -23 -30 -13 15 48 -46 -44 0 -11 -42 -33 -20 -13 -8 25 -62 69 -6 20 -13 -37 -19 4 25 -50 -108 11 20 -12 8 -9 16 -48 -21 22 -8 -17 -3 -28 8 9 -14 4 1 -3 -24 -50 75 -7 50 3 -36 17 1 -36 -61 -18 14 -29 -3 24 7 20 -28 49 25 -21 -23 -15 -38 -25 -23 28 22 6 -4 13 2 -32 -108 39 53 -5 -38 -25 17 -13 -37 24 -11 29 -16 54 33 32 -23 7 -11 13 -57 2 -83 -23 -40 52 50 -11 49 -29 -50 -59 -45 28 -50 -11 -13 -22 -4 -27 -21 66 -51 -17 -67 -36 -40 10 -9 -68 3 36 -4 7 22 1 -7 33 -10 -29 6 27 32 -10 -30 -2 34 -41 -33 23 -27 26 -25 -36 -2 -31 -14 -78 -37 -3 -62 -63 -65 12 -11 -41 -27 -34 -13 -2 -22 0 -29 5 -30 -34 22 -22 -60 9 1 -2 -14 16 26 2 26 -16 -40 -10 0 34 -22 -10 34 11 -53 7 -41 -31 -28 89 22 -2 -4 55 18 62 -15 -49 47 0 -5 7 -39 6 25 24 -18 -12 -28 -24 -37 -3 -6 8 14 48 3 -9 37 20 0 -43 0 -3 -27 -36 -31 32 51 20 -14 -78 -49 10 40 -1 -7 -10 -25 5 25 -25 -30 2 -9 62 -56 -28 5 40 10 -73 -17 15 -67 -16 -6 68 -45 -13 -5 -56 -65 -25 38 -52 -60 10 15 -14 13 -17 -28 -5 -27 -9 21 -1 19 20 -24 11 13 -36 35 -20 36 -48 -43 -43 -17 -47 6 -32 -5 44 -18 5 -23 -6 -8 7 -15 -28 -9 33 -33 -51 64 -27 -6 -13 31 -26 19 -43 -45 -24 28 -24 -42 4 -6 -55 6 -6 63 24 6 21 -2 28 -21 32 -32 -9 -24 15 -15 42 -7 61 -65 -17 -44 -14 39 -5 41 -7 -89 -54 -6 11 11 9 29 -10 -8 5 -31 43 -13 -17 -11 9 -56 -56 -38 -25 -31 -2 -38 -26 85 -35 -15 -37 40 27 -15 22 18 -55 31 -14 -6 -11 12 -1 14 26 -6 -20 -2 -48 3 -12 41 -38 -4 -35 13 9 -4 35 2 -4 -17 -27 -38 -37 -6 -27 1 -13 2 -41 -38 30 -29 -2 -15 -68 -46 -53 29 -37 0 -33 -26 -9 -1 -55 19 -29 -8 -2 -19 -7 -34 -10 -25 27 -14 -83 16 -8 -17 -73 34 -1 -2 -59 46 18 -10 -12 12 -20 28 -9 24 -85 1 -62 -25 -4 -2 -9 -12 2 8 24 -20 9 -31 -39 30 25 -43 31 -2 47 -33 43 62 14 50 16 16 -1 -40 -46 16 48 -25 -32 -57 17 -27 23 -37 -19 -4 34 -57 -8 26 18 -27 -23 -25 2 -28 28 -14 53 3 -46 -26 30 97 25 3 13 9 -4 1 -34 -9 -1 -3 42 -44 18 -60 9 11 22 -6 -29 -17 -38 -15 37 -3 -51 -11 -7 -127 -9 -29 -25 -13 -42 6 12 -13 21 37 -19 35 48 -16 19 9 36 -27 3 19 18 -21 -56 -5 39 68 -19 -21 26 -77 -13 -73 64 -35 -28 33 1 -69 23 -21 -22 -22 -13 3 -37 16 55 48 -14 -28 30 -39 -52 -10 -20 6 -13 -16 -11 -18 -7 19 -12 16 -23 -28 -14 -18 21 -25 -14 15 3 11 65 -16 -14 -29 -36 -20 34 -9 15 -43 -1 9 -8 -46 -40 -9 -5 32 39 61 -50 -38 -46 -26 49 38 30 -35 34 17 -31 -59 -36 -3 -8 -17 11 -7 -43 54 -30 8 23 -7 26 -54 -3 -26 9 9 15 -26 -21 -68 -2 -21 27 -9 -24 8 -21 -25 -34 -25 7 -43 19 -40 -55 -25 4 3 30 15 -45 6 -40 -21 -63 -34 -10 -41 -16
-7 -30 18 -22 15 4 57 43 23 -34 33 -8 8 -41 5 26 22 -12 2 41 -10 -20 31 3 32 15 -54 8 -22 -7 -69 -35 -1 24 -40 -30 -24 10 -23 -21 -23 -62 -36 -50 -62 7 18 -25 87 -33 -26 -4 -5 -19 16 -1 -15 -36 17 -11 4 27 -36 -36 19 -1 -48 14 -37 -44 26 14 -59 -85 63 -22 -9 -8 37 27 25 17 -12 37 -31 -59 7 12 -28 40 -23 -1 11 16 1 -41 -19 13 58 -8 30 42 -11 38 36 -1 -41 -27 15 -11 -77 35 -12 -12 -24 -54 1 32 -60 -32 -2 5 -31 22 54 -53 -6 13 68 -39 -48 23 -48 27 -50 -38 -64 -41 6 41 -18 41 -11 -19 -4 -21 -10 -13 15 6 -13 3 11 -12 -16 -11 -22 4 -6 -23 -62 0 3 20 -62 -8 8 3 -74 -10 -37 21 5 -2 -54 63 32 -22 -18 -35 -15 48 -34 3 -76 -8 -65 -64 25 -37 20 16 15 -24 -1 -90 -13 13 -9 -40 0 -44 -26 44 -2 23 -3 -57 7 26 -26 -1 -14 59 42 49 -6 -6 -14 -9 -68 18 25 -11 -3 16 -37 -25 -50 -29 -79 -88 -31 30 -41 -4 -5 6 -49 -68 -18 -60 -52 -45 33 -13 16 8 -75 15 -30 54 55 -80 35 27 12 -24 -2 -41 5 -52 56 -27 -16 -20 -5 22 -3 -30 33 25 11 -26 44 -43 7 -33 -13 2 30 -38 15 -18 44 18 -29 -1 12 -28 23 20 -20 -20 -13 -64 -32 5 31 22 -10 22 35 -43 51 50 7 -57 2 9 -40 13 -34 50 18 -43 -59 -17 72 -74 -18 27 22 -38 41 -50 25 -50 -59 25 -23 -5 19 30 -24 3 3 -7 -14 -1 -16 12 7 14 -19 -6 10 14 22 -5 4 -37 -5 17 -2 16 -26 -12 -27 -11 13 -29 -68 -69 -50 4 14 -10 36 -23 -21 2 -9 29 -104 -41 -13 -28 1 -18 -67 39 -5 -32 -12 20 -60 -35 -5 43 -69 -20 -66 21 -33 91 -17 22 -35 -40 -11 27 17 21 -17 -17 -21 -28 -2 0 -37 -57 18 7 9 15 -20 20 -28 8 9 -26 83 -22 11 28 -22 -32 46 -38 -14 -53 -50 25 15 9 18 0 -7 -10 -34 -37 0 -8 9 91 10 51 -40 -22 -7 32 -39 -27 80 62 -25 -40 -27 3 -7 10 -23 17 17 -16 -14 -12 15 17 -53 -50 13 -31 -54 -9 -5 -16 6 -21 -13 7 -4 -83 -22 -42 26 -15 25 -52 -27 -33 -46 0 11 72 -7 7 -46 -27 -57 -89 2 3 -9 13 -18 44 -21 -25 21 -42 7 -52 40 -5 -43 -11 41 -4 19 -37 4 -2 -2 87 48 -10 39 8 57 -32 -36 2 36 -1 -33 -43 -52 28 -14 0 -4 31 -19 2 33 -8 53 -37 -20 -4 -36 -9 -28 -39 4 11 66 -11 42 -8 -30 27 3 -51 34 0 -29 37 -17 50 26 -6 26 -45 7 -12 -20 53 11 -26 24 15 31 -29 -20 -31 0 -62 -8 -3 6 -42 3 -12 0 10 38 -7 48 -20 86 -55 13 -46 0 12 62 32 -36 23 -34 7 14 -28 -12 45 -24 2 -42 5 -30 10 -52 39 -45 24 -42 -11 4 -5 25 -76 17 -27 13 -22 -52 0 7 7 3 -14 1 -23 -41 14 -35 0 11 18 -49 46 1 -9 -17 -10 -14 56 -50 -34 14 -22 -1 -11 -22 -1 28 26 -9 95 -27 17 -7 2 9 50 20 5 -38 4 11 -14 -33 -4 27 -41 -37 -16 9 17 -19 -38 -53 22 11 73 -31 -51 -69 -1 9 20 -28 -11 19 -41 -52 2 9 7 -34 8 -36 24 -30 6 14 -29 -22 26 5 10 -4 4 -9 41 5 -23 8 -19 37 46 -12 -22 13 -22 -10 0 69 -17 -8 75 -28 -12 2 28 -5 -16 -44 34 9 -3 -6 -16 -9 -11 -16 -13 3 36 78 -36 -127 -21 -24 -16
21 -76 -19 52 -53 23 -48 32 -71 11 -27 37 2 37 18 21 33 22 -72 29 37 -29 44 -9 -34 -27 14 -22 5 28 35 72 20 -4 -52 -38 22 -53 -4 11 17 9 -32 99 -20 -46 -43 -21 35 -3 -17 -50 31 39 -27 -9 -41 7 -57 28 -55 18 -34 17 -32 33 -20 -43 -16 51 -9 -21 -9 -34 -72 -17 3 -5 -27 -18 19 12 3 29 13 -7 81 22 -36 65 -30 -1 -28 17 5 10 -2 22 26 -26 0 76 -28 -22 32 -24 -23 4 35 30 31 -68 -22 -22 52 -46 13 -73 38 16 8 7 36 -6 -47 -41 28 5 2 -60 13 -8 17 -6 21 -94 28 56 16 -50 -52 41 45 -4 -48 15 39 1 -42 -44 -48 -19 12 -18 -28 -10 8 -38 -30 -21 -24 6 -17 19 63 -13 -46 -43 67 9 -11 -5 -25 30 -20 -10 -22 38 19 -63 4 20 37 46 30 -46 -21 67 -22 18 -40 63 44 15 22 23 -63 24 19 10 34 -12 12 26 5 -31 -36 56 -23 9 28 -15 -48 28 -31 -4 -23 -9 -16 -8 -12 -25 -15 -1 -46 -12 -2 37 -32 32 16 -10 0 -46 -36 46 45 -7 10 -47 21 40 -37 43 -33 -9 -21 12 -34 0 -33 2 0 -10 7 23 -56 23 0 -21 -27 28 16 -11 34 24 32 18 18 2 -8 27 -27 50 30 -74 2 73 -27 -50 49 -65 -14 -33 -9 43 49 35 62 28 4 -30 -21 -20 41 -8 12 10 -47 25 -72 -64 31 25 -6 -50 -5 -7 24 -32 -65 51 9 19 28 -45 15 -10 -6 43 10 31 126 -11 -36 -31 24 -49 -29 35 11 -8 -59 -10 16 21 -64 -8 12 -10 22 -8 -53 -82 29 -25 -10 90 24 1 15 48 -6 -6 -27 53 27 14 -10 -37 43 -12 -20 -14 -24 -29 -16 7 59 47 28 -39 -46 0 12 -40 -4 -15 11 -17 -7 15 44 37 -23 15 78 22 24 -53 -107 -26 -18 0 -54 -76 11 2 -11 -28 -48 -43 -54 -35 -8 13 20 -19 -16 -3 -19 -21 0 -51 59 47 -3 -10 40 -49 -21 6 -8 -10 -28 -7 31 -25 2 10 35 15 -8 -31 -41 11 7 -1 6 21 20 -30 -25 -49 -48 -47 -33 26 41 -10 32 -38 -19 17 45 29 9 -69 7 22 37 12 -44 -34 -33 16 -26 -26 26 0 4 45 84 -4 -6 -61 -40 24 31 69 44 -28 24 124 -11 -67 48 -6 -23 21 9 -45 -43 16 -33 31 -1 7 -15 0 24 26 14 -79 27 17 -5 33 85 25 -33 8 20 -52 26 -10 -25 10 -11 -27 17 39 -50 49 34 -69 32 -68 -13 -34 75 4 -5 5 -45 29 16 28 28 29 -1 -15 -6 35 64 -21 -38 -40 24 -32 31 1 -16 4 8 15 4 -26 -51 14 14 -61 38 -10 39 -30 66 14 26 22 15 -66 -23 -50 9 -62 -28 12 103 2 2 22 86 -26 34 -36 -20 -43 2 54 6 -31 62 -93 12 -26 -14 23 30 -24 -45 5 3 1 22 -16 -11 44 -4 -35 67 -36 7 -22 -8 -18 73 -58 107 -22 16 -71 -41 -30 1 20 -15 68 3 3 34 52 -70 -13 60 -29 -14 -17 6 -30 33 3 -6 47 31 -34 -42 -5 -13 32 23 53 -9 -8 -46 -19 2 36 -8 -24 -21 -28 24 14 -25 1 -42 14 -40 -43 -89 -35 -28 85 27 -52 58 23 42 8 -37 2 9 57 -25 31 57 -32 56 -22 62 1 -1 35 16 45 -8 60 54 -49 -18 -28 9 6 97 -22 26 -10 32 -19 -73 61 -98 44 4 11 -4 63 54 45 -51 20 -28 22 16 3 -18 -22 -11 50 -4 5 -13 42 -22 -22 -79 3 14 25 0 -10 -88 -21 -5 36 -87 -26 9 4 6 -12 21 56 71 -74 -14 3 -61 35 -65 -87 -8 -38 25 13 -23 -20
1 -45 -94 -16 -8 -6 -49 9 -79 -47 7 26 -53 -29 -7 21 -55 -48 50 27 23 1 0 -42 -62 -21 -23 20 15 52 -7 -57 -21 -5 16 -22 -38 9 -1 -29 -24 4 -38 -20 19 -13 39 -10 -98 -67 -41 -20 39 -10 -4 -92 -14 -52 -8 -58 -26 -17 26 3 32 -24 -55 17 -49 -14 -30 3 -33 -127 60 -49 45 -20 -58 -9 -16 -8 -11 8 10 -39 -18 59 -8 49 -29 -28 11 -4 -45 0 39 -27 2 -1 -6 -21 -3 -10 -34 10 7 84 12 50 -52 49 -20 -87 -10 -30 -47 -29 60 -15 -61 -41 -19 -15 13 24 -9 -5 -11 -84 -27 26 42 -47 -53 -13 -23 -1 -32 -24 -37 -56 34 1 24 -9 11 -17 3 -17 17 14 -42 -28 -36 -31 -7 -44 -67 -51 38 -4 -16 -53 29 -24 39 6 -67 3 2 9 68 -34 45 -45 6 -13 -2 5 -2 14 -9 -21 -65 23 -36 -35 -4 -48 35 12 12 2 -17 49 24 -39 -44 -14 21 -19 -39 -10 20 -6 10 -14 -6 -42 -40 7 -69 25 -56 -65 17 1 -54 12 -38 -53 -2 17 -37 12 -72 73 -51 9 26 -24 3 -40 33 -34 24 74 -26 -60 27 8 24 -77 -7 7 -56 -5 9 34 -43 -37 -52 56 -23 -22 -33 21 -69 12 -96 -38 -19 -1 -36 26 65 47 -75 -14 -48 -29 21 38 -82 6 20 -40 5 15 17 -3 2 -18 -23 -45 -5 21 37 -77 -70 41 59 -28 -17 -18 -13 62 15 -47 -109 -33 5 -36 -85 -33 -37 11 -50 -47 -32 -64 -13 -21 -25 -11 -51 -48 -74 9 -6 -79 34 36 55 -75 13 38 33 -16 25 -32 12 -32 24 33 27 -22 -43 -40 -9 66 18 -14 -6 -32 -95 39 -6 20 -8 41 4 31 34 8 -56 -4 -3 8 -4 1 52 9 -57 18 -48 11 29 -14 34 62 -11 30 28 13 -60 -23 -47 -28 -48 -21 -28 -100 55 -6 -48 -3 -50 -14 9 6 -12 12 16 -21 -16 40 4 17 -23 -10 32 -55 -74 -38 -76 7 -4 -5 -18 -52 31 -6 -10 43 38 -8 -2 -3 -50 -69 -19 23 -6 13 -29 22 12 -9 -26 -43 9 0 -29 21 -37 -3 -24 50 -24 24 75 -5 -2 -66 -18 -29 -65 -41 4 -4 -26 -23 15 -28 -13 -34 -27 -7 42 16 4 88 -40 6 10 48 -12 -34 -54 -43 21 -30 4 -5 -12 -13 -46 39 44 11 44 -26 -1 38 42 10 -43 -50 -17 8 46 -20 7 -11 -14 -8 -27 28 6 -33 16 8 -14 -1 -35 -21 17 -15 14 11 -40 -1 45 -34 -21 -15 14 31 -90 -29 -2 86 24 6 53 9 -6 -18 -28 -44 -17 -37 64 -55 24 0 -4 -5 -18 -32 0 6 10 14 29 -75 -23 43 -8 4 45 -24 -31 -22 4 2 -14 40 -74 -23 24 40 20 -20 7 19 -13 -22 -9 -86 13 16 -31 -119 -58 -92 54 4 -22 -50 -25 -42 -69 15 32 5 1 -23 1 49 17 -52 22 -23 -8 25 28 -19 34 -7 13 -31 41 10 -10 -88 -55 -16 -36 -16 11 -1 -28 -34 75 -28 -59 61 -30 -64 0 -13 4 -3 73 -8 26 29 -26 -30 5 17 27 -56 -40 8 105 46 8 -58 -50 9 4 66 -67 -5 29 10 -20 -6 -14 35 -49 20 -29 -95 43 -90 -6 -15 -32 -38 11 -33 19 33 37 -30 2 15 -17 -52 12 -38 -30 -21 -8 -75 -34 -28 -33 -23 -18 9 -34 7 -5 -13 -45 20 25 22 -72 -50 77 -117 95 22 -33 -26 -21 -18 -41 -80 20 -9 -6 -63 -23 -6 -33 -43 -37 -28 34 -14 -10 -23 -53 -74 -45 26 -50 8 -66 -9 -98 -8 7 -8 10 3 2 0 -20 -11 -34 -48 -33 7 22 -30 5 -5 -12 30 8 -17 -43 -44 42 -9 31 14 70 -13 -13 -84 -58 -30 38 -87 13 7 -60 -34
16 -33 -9 -28 -2 33 78 16 35 -87 -25 -40 7 8 -14 19 63 21 19 26 24 34 15 -42 -8 31 6 -4 -52 -57 -39 40 -40 8 1 -21 -1 -23 -32 126 -48 18 28 -48 11 -6 16 1 26 38 -11 -47 -53 -47 -60 -36 -19 -5 30 39 -15 9 -59 13 90 -4 -21 34 27 -16 -37 -58 72 50 20 64 19 7 2 46 -3 14 7 -9 22 -26 -62 47 25 12 -21 56 -13 30 51 11 -22 -37 23 -79 28 -35 -8 32 4 -18 -17 6 32 39 -37 42 24 79 82 -10 6 -23 -26 44 48 8 2 41 -6 10 2 26 -75 5 -44 -19 26 -10 -20 17 28 -36 -2 -58 25 -6 -8 24 33 46 -21 47 51 -3 -18 -27 32 24 -30 -1 13 26 -14 21 4 33 -20 -80 20 -55 34 41 1 4 -60 -9 65 -45 -7 23 -59 -18 -2 14 -57 33 -12 12 31 48 -32 46 -46 6 44 20 45 14 -21 -29 -35 -23 -15 -56 -11 -1 -42 47 14 6 -29 -63 50 13 15 48 4 -19 20 1 -6 -5 -26 -10 22 9 -28 19 25 -44 4 19 27 -27 8 21 -8 -43 -87 41 47 -31 54 42 -20 -63 13 -49 43 -15 -16 -2 -7 4 16 -21 5 3 9 3 -3 -5 17 -29 18 5 63 38 56 -24 -35 4 12 -10 -7 -44 72 -17 -4 11 -6 -5 16 -15 75 -40 34 -22 -48 18 -39 28 25 30 -16 49 79 -15 -47 -47 24 -12 0 -3 -20 57 -35 -26 4 28 -13 2 11 -27 2 -1 10 -60 -38 -35 -22 -18 69 -47 -34 13 67 53 28 33 44 -19 23 7 -42 12 -27 -32 41 18 50 -18 49 -26 30 45 -11 -1 72 40 -15 -46 -49 31 -44 46 115 26 93 -9 4 14 28 39 12 0 4 -24 -28 32 -10 -38 -27 32 -18 38 10 16 19 -30 -1 -8 9 -32 -66 -14 15 5 -5 4 35 -8 12 96 22 19 -67 26 3 -21 9 -13 -20 -69 -16 43 41 16 34 44 -68 -7 -46 24 -3 22 32 -14 -30 53 21 -46 29 -37 -1 -24 56 19 11 -4 -32 27 -32 -24 16 24 28 -84 57 7 5 50 34 -3 47 1 -20 -21 -73 5 8 62 -62 -29 -93 2 -5 11 -34 -42 -20 -20 -48 71 15 9 10 -38 -25 63 22 -17 -8 -38 -19 -22 -26 -20 74 -46 -37 -44 -15 6 -73 -4 -34 21 46 99 24 32 -42 65 1 1 -28 -41 5 63 6 56 23 41 8 60 -27 -23 48 -19 -12 -51 0 -22 5 26 9 40 58 -28 39 52 -1 -1 -36 -24 -14 84 35 -43 -98 -27 -32 -11 -38 7 20 7 -40 -21 6 -71 55 0 0 -18 -66 -37 25 12 -25 -7 29 -26 -14 -4 52 12 1 -58 -17 -21 1 -55 -37 2 12 -53 32 -16 45 17 44 -41 10 12 -49 -20 -12 3 -24 -26 -27 43 38 -51 -47 40 -18 -10 33 -9 1 42 -17 49 -35 -39 -20 16 -5 16 59 14 23 -9 -2 -31 1 81 18 9 -14 8 5 -11 9 10 -14 47 -58 32 -63 -9 -40 -8 -25 10 -13 -44 42 -28 -4 19 11 -39 45 6 -7 70 46 -6 48 -6 58 18 72 43 20 -75 12 34 -46 20 -33 -5 41 -43 -96 19 23 45 -9 -11 81 -27 40 -18 11 12 -38 30 -25 -99 -23 -27 2 54 58 38 4 -20 23 107 34 -18 5 22 52 14 -13 29 -12 -7 55 -29 55 45 -21 -71 -6 2 -38 29 -8 -87 41 -61 -38 54 50 38 25 52 16 -116 -60 -62 2 0 2 5 9 -47 28 -27 -26 35 11 1 15 21 31 17 -32 5 19 33 25 2 57 0 38 44 -1 25 -51 -4 28 -44 19 43 39 -29 10 61 65 46 42 36 43 10 -22 -14 -13 34 -10 3 -33 -5 8 32
47 7 -43 -46 -8 2 -59 -57 -108 9 43 0 17 25 -1 -3 -4 21 2 -18 53 -13 35 61 10 37 -46 15 5 -86 75 9 -63 -27 30 23 12 -14 -14 9 18 -10 -26 16 43 69 6 6 -68 -16 39 -91 20 -10 -5 17 62 86 -47 -20 -4 14 12 32 18 89 13 0 -2 -60 -51 35 -8 -68 41 -30 -43 -1 -6 50 -15 33 -8 27 -26 -7 59 -81 16 -16 16 -27 -12 -35 63 25 -40 -16 -41 -8 22 9 74 -120 69 54 -61 -18 -7 -18 -70 -94 11 -12 3 -80 22 -70 -64 41 2 19 -13 8 -60 14 -47 -65 27 -78 46 -10 -9 11 -27 43 -68 19 40 -85 -15 27 113 114 -30 -37 -64 60 -89 69 -17 -12 34 -39 14 -17 -95 31 69 64 -29 53 7 -2 37 -9 61 -84 -124 -15 75 -51 12 -12 38 45 -9 -11 -26 -52 -65 -5 21 -26 -10 -43 -9 -41 -10 12 -111 -88 1 -46 40 57 22 10 87 -27 -10 -14 -36 -25 39 -45 -39 -30 -27 8 -29 -18 -6 30 37 -35 -42 -8 -38 -4 40 47 9 62 24 22 -17 -40 46 -80 13 -2 -41 2 22 -21 -55 -19 -5 23 -3 -13 40 -29 47 32 -56 1 46 31 -26 49 53 6 -21 -22 31 32 -22 -51 1 42 60 -68 88 -33 15 65 -32 -48 21 -94 -13 15 -66 67 -36 -127 4 -18 -5 44 -17 3 -45 15 44 35 31 -14 -15 15 -71 -67 -20 50 -41 31 61 35 -38 49 -20 -41 -80 32 23 -13 5 -9 55 -73 75 -60 57 -10 -10 33 82 65 -45 -61 15 -20 -53 25 63 31 -67 13 11 15 80 -23 47 -5 43 29 -12 -44 10 -41 47 27 8 15 -11 4 -15 74 32 15 91 -29 15 75 12 -37 -7 -46 2 -5 37 -49 -3 20 17 11 88 -9 -57 -31 9 8 16 4 22 4 -19 5 -94 13 13 -81 8 52 -29 -15 -25 -14 18 -12 35 -46 110 -19 32 30 -1 -62 -60 16 3 27 -74 13 118 -57 -4 -16 31 -34 -90 15 -77 79 38 36 31 29 -26 -21 70 -41 -14 -27 -41 0 -47 -95 -6 -27 -8 -68 -50 31 -13 -25 -25 29 23 -67 -52 -39 34 65 -35 61 -48 29 71 21 -11 0 87 -36 6 65 38 -50 62 0 5 3 7 1 69 -69 -2 -30 -9 6 -18 1 58 81 -27 -19 -108 9 -70 -10 -8 -100 37 35 -14 14 -13 12 -20 31 26 87 28 -9 4 14 -6 -11 -73 28 11 -14 -3 10 -69 63 18 -82 -11 -74 -11 23 46 30 23 0 -49 20 -33 104 -9 115 -20 -9 65 20 -14 23 -10 -15 -92 33 -30 -51 78 -55 -27 10 -30 21 -4 -36 -38 30 15 -46 -39 -35 88 2 -17 35 -27 31 14 -42 47 -60 -25 -10 81 -60 28 19 11 5 -5 -21 32 -47 21 75 -83 -32 -68 91 -41 -41 -40 31 61 34 18 8 -33 -37 0 -82 13 64 91 -53 47 -20 -10 1 -12 8 -31 -38 21 32 25 -43 37 62 10 70 -79 10 14 23 -52 24 45 -56 -60 -25 16 -37 40 5 18 -44 83 6 32 -31 -42 8 -62 -33 -46 -22 -30 -3 51 -32 -22 -87 74 -12 0 7 -79 -22 43 -29 -73 15 29 -35 -53 -7 -12 5 -19 -5 -8 -50 -43 32 -33 -45 -25 -47 -56 -6 0 6 -56 -55 21 63 18 -44 -126 -3 52 30 1 41 20 63 18 31 28 32 19 2 14 -21 -4 41 -100 15 79 -24 69 -46 69 -65 -58 42 -39 68 -70 -26 -83 50 -2 -50 3 -59 26 -38 41 -28 -31 -74 71 -76 -45 20 -19 7 -13 22 17 18 -21 -15 83 -20 -1 62 -26 -76 36 25 -52 9 -68 16 72 -106 -15 -10 1 64 40 54 73 35 -35 7 92 85 47 48 -12 -22 11 1 -10 -31
-18 -56 -60 -17 -50 14 -10 -18 21 8 21 5 -52 45 -18 -31 -10 -39 -116 -37 -15 -8 44 -18 -14 32 16 -12 -40 65 -8 14 -63 -21 5 -16 -58 34 -35 -20 -37 -4 -33 -70 -22 27 -21 -8 -56 -15 15 13 -57 -59 -46 9 -68 26 -50 59 -22 -7 8 24 0 -48 -10 -75 -67 -44 -40 -85 -48 28 17 -29 -53 -17 -26 -9 -68 -50 -40 20 -50 27 -4 12 -88 -27 -10 -36 -54 -62 -26 9 -15 -46 -18 5 32 -62 -36 -25 -20 -20 1 10 -28 55 -29 -34 -17 45 -34 -49 23 -51 0 8 4 -29 21 -43 -15 -19 -13 -35 -33 44 -34 68 9 -2 -2 2 1 -18 4 -13 -10 -49 -38 13 22 -8 34 19 45 -24 -39 -17 -13 -43 -47 -20 -81 -22 -47 -28 -40 -22 -76 -25 28 -50 -72 27 3 12 -48 -12 14 -45 -97 3 -25 -74 -32 -19 4 -42 12 9 -43 -57 -29 16 -45 -2 -55 -60 -32 -44 -54 -51 11 -9 14 -39 -2 14 -36 42 24 -20 2 -25 16 12 28 47 18 52 -32 -34 36 -13 28 -15 -26 -36 9 -11 63 -10 17 45 -5 3 27 28 -5 16 -2 29 19 25 5 -30 -8 -18 -57 -33 -54 40 14 -4 50 -9 -40 -15 -28 -59 12 -62 -42 24 5 13 2 -71 -40 23 6 -47 -108 -37 -48 24 0 21 -29 -24 -57 -7 15 -9 45 -49 -31 -80 28 -48 1 -20 -29 -32 -11 -78 9 18 -7 -21 -12 -53 -21 -51 18 10 1 32 -28 -71 -13 1 -9 14 -37 5 -8 -68 9 -54 -12 -58 32 -8 -43 -20 -37 -47 43 47 -7 -91 -70 -30 -65 -9 14 29 -55 -2 -4 -17 15 -36 -45 -21 2 -18 9 -80 62 -6 -21 -29 -56 -14 -40 39 -13 -56 -83 -67 -41 21 -22 -3 -68 -47 -88 -20 7 -45 -13 46 60 20 -39 -47 -32 -48 -47 -23 11 -44 -40 28 -29 22 1 -27 0 -16 8 -12 -40 -2 8 11 12 43 -23 -104 38 2 -2 -35 -29 -82 5 -26 22 -6 12 -19 23 -29 0 -2 50 -107 -54 -33 -24 -9 5 -40 59 -127 29 -18 -18 7 -20 -58 -66 -22 46 40 -40 -41 41 47 35 -7 13 -69 -4 -31 4 45 0 -67 15 -57 16 -52 -17 8 -43 -35 -1 42 -30 0 3 -42 15 -36 36 -53 21 -124 -14 -18 -49 -20 1 9 17 33 -12 15 -35 -73 -50 29 -104 -39 -47 -53 -13 -10 -40 5 -5 -13 1 -36 -17 -36 -15 -79 -14 -45 8 -6 38 11 -92 0 -2 32 -28 2 -45 18 -24 -13 -2 53 48 1 29 32 -43 -55 -41 1 -38 -42 -21 -31 -12 -43 -39 14 -22 -53 -93 10 22 41 24 18 -12 27 -32 -22 30 -2 -34 -2 -26 -23 -53 27 -47 -2 -50 4 47 17 -90 -29 -27 -37 -40 -3 -29 -15 -18 6 -12 -106 60 -35 -34 -44 -13 14 -29 -15 -22 58 -6 10 -2 6 -67 3 9 -59 -60 -39 3 -27 -1 -8 -9 -16 -52 59 -17 54 -64 -22 -7 -48 67 -57 -39 11 -15 5 -7 6 -14 -60 -8 10 -64 -22 -64 24 -4 -12 37 13 8 -49 9 -19 61 -13 -33 -83 -52 -78 -11 -42 13 -32 -24 47 7 25 68 -17 -9 -65 -8 -34 50 45 26 4 -13 2 -15 3 15 22 -32 -8 47 -85 -19 -20 -30 18 9 -11 11 -36 17 -69 5 -9 -47 12 -11 -7 -3 38 21 27 50 15 53 65 -78 22 -7 43 -43 -48 -72 -24 -35 -10 22 2 46 -76 10 -72 -2 18 -34 37 -12 2 9 28 -34 -43 26 28 4 12 18 28 -39 -19 -14 1 8 -2 -10 58 -44 20 33 -9 11 27 -33 -13 0 -10 32 54 -26 1 32 -38 23 -9 -48 -21 -125 -35 -40 -35 -31 -56 -8 -37 9 -36 -61 80 -20 -1 42 -19 14 -34 -68 68 -18 9 -99 -14
-12 22 -62 66 -7 -1 35 14 1 66 -24 20 -7 -85 -25 -22 21 -3 30 8 -38 70 -19 -33 -87 -1 63 -11 -19 -3 -9 -95 -80 31 22 -48 -39 -76 -3 15 41 6 79 11 24 15 22 -18 71 35 76 18 -18 10 -8 -30 -10 -2 -17 -46 45 3 -29 -36 68 -42 -65 -17 23 12 -28 7 -34 39 -6 -5 1 -5 -24 -21 7 43 -24 -3 -13 25 82 10 40 -53 -20 -8 26 -4 23 -25 29 -19 30 -9 19 20 34 -7 -10 5 33 -18 -8 -14 8 -70 46 11 22 -30 15 26 66 -8 -11 -37 31 0 -26 10 -26 -2 -53 31 48 9 39 -26 18 -53 1 -47 -3 32 14 21 13 -6 6 18 54 -34 -62 -26 -20 28 -29 -27 37 -9 10 -4 8 11 28 -28 19 14 -71 -35 4 -6 -8 -13 -2 -19 -2 76 -39 -8 0 30 45 12 -48 -11 4 -16 12 11 -13 -39 -7 -9 47 16 -28 -20 6 8 9 41 -10 -25 -1 6 -18 -40 -93 -30 -52 -7 -50 33 -27 4 -44 -4 -41 6 37 -4 8 -8 10 35 -24 21 25 -28 -23 -3 24 -5 -33 -11 -38 -88 4 -18 30 37 -67 -4 -13 -15 19 -24 10 33 -26 44 28 -19 -45 48 27 21 -63 0 16 -41 -2 -49 35 -18 -7 21 -16 -14 75 -25 -4 5 -39 8 11 -19 -45 10 28 41 18 43 -24 64 -8 -12 -20 -41 -6 -36 -50 -34 -35 73 29 11 -37 7 -47 29 29 -1 -10 -16 23 64 -32 -23 -44 -1 -45 -39 21 -23 -40 11 39 -24 -13 8 -19 -14 -18 -72 -56 15 12 -45 -14 -13 -48 20 7 12 -3 -93 3 -6 66 -26 -84 -22 17 45 33 10 -11 -46 -29 -7 8 -16 -30 8 -42 -29 16 9 25 -7 -32 3 -47 -5 -24 -8 6 19 -18 35 -5 0 34 -10 19 1 -27 -92 -33 12 25 -43 -12 -25 10 -19 50 -30 4 -47 -27 55 -65 35 38 18 -3 -70 8 -5 -46 -10 66 0 18 -13 -75 46 -56 -24 -5 7 -84 25 -30 54 29 45 28 13 -44 -41 14 42 29 -20 38 18 -44 -9 -4 -49 -69 -9 -29 -32 48 -72 -2 42 7 22 19 -8 -81 21 -70 33 -11 -36 27 -20 -43 26 -24 -31 2 36 -2 40 0 0 17 -23 13 -61 11 -12 16 -6 21 -12 -67 47 27 9 79 26 68 -3 31 -16 23 -55 -26 -3 -55 -42 10 38 -58 -17 -8 2 26 12 7 -3 -7 -7 -19 9 -87 58 -17 -17 -9 8 -3 -48 19 11 -33 -19 27 31 55 46 -16 -33 -36 -16 -80 -5 -28 -37 -3 55 46 52 -16 -12 0 -49 -25 -34 -52 6 24 -16 -48 4 -4 31 -20 -3 -22 28 -33 24 5 -5 21 -4 -61 -28 -13 43 -5 9 28 -22 12 11 -25 41 -2 -55 -41 18 -52 -54 -17 90 -22 -41 -19 -31 -36 -5 -44 12 -5 -10 -13 12 -4 -47 -3 -19 1 -24 13 -14 -37 38 -3 -50 -24 62 -18 -13 -4 44 -14 -21 -22 18 20 -54 -2 3 -58 -35 -82 -11 30 -62 -14 -32 -11 0 -16 -22 -21 1 -8 -82 -56 -1 -48 6 21 27 -7 18 8 -9 8 -22 53 -109 -32 1 -19 -38 11 -5 -4 14 -2 32 -127 -14 -10 -5 5 41 -30 3 -13 34 0 18 63 8 22 20 -31 0 12 75 54 -60 -13 9 -5 -8 -2 -51 10 21 -36 7 39 10 -49 -62 10 1 -30 -64 12 -45 -9 -10 -55 23 37 41 -70 -51 -61 -10 -34 -18 34 30 40 -22 19 -43 29 12 6 6 18 -58 14 -21 -72 -5 -4 -43 21 -22 31 -61 72 -35 -17 0 -40 -16 -31 33 -92 17 -15 49 0 -52 -19 -48 25 -27 -33 -34 -9 -14 -48 -14 -43 15 -36 -77 -20 -43 -3 8 -14 -12 -32 38 -84 -2 7 -6 -30 4
-13 -15 -12 0 -5 32 -66 20 60 -30 16 -25 -5 -7 -44 -17 -75 -63 -11 -23 -53 -31 19 -4 18 -12 42 11 -5 -17 31 -36 24 -60 50 38 -45 -17 14 10 -2 7 17 -62 -46 39 29 -27 -90 -2 -75 51 28 54 43 3 42 32 2 4 0 22 -40 -33 -34 -2 -40 -16 -65 10 -34 33 -36 -19 -11 30 25 -5 -48 -38 -41 38 -8 -62 35 18 -60 -6 -5 -36 -27 -13 18 75 31 12 17 -3 -5 -42 56 -69 -21 -24 -54 -21 43 -2 11 -28 21 36 -1 43 -44 64 -11 43 10 37 35 2 23 60 23 -13 -67 30 52 7 19 47 38 47 -38 -2 -42 8 12 25 -86 38 36 47 -21 -45 30 -27 3 -13 -39 -6 17 0 -17 11 0 1 10 22 -84 -42 -5 3 37 -70 -47 70 -6 -17 -34 37 -57 -20 -65 -63 68 78 3 16 -39 34 49 0 18 -57 -30 17 17 28 10 -23 -15 -21 18 -34 -36 -71 34 1 -2 -18 20 -9 10 35 -25 20 62 -23 -5 -32 7 -39 26 11 29 -3 5 6 -27 -12 20 34 48 3 26 -1 -8 -42 12 6 -9 14 -69 -13 -17 -12 -37 10 23 20 6 -56 -20 9 -4 -64 -7 18 17 29 0 -19 11 -6 -18 30 9 12 -44 -54 -18 2 32 48 46 -31 1 -22 -7 -54 -15 -39 85 26 34 -69 -22 25 18 -2 55 13 4 -32 28 47 -8 -26 31 11 -46 -15 -23 47 75 39 -43 1 -20 -119 -86 4 -18 16 -23 -70 -43 14 4 -32 89 -55 -17 37 59 -5 -1 -115 30 -12 -8 57 26 -62 34 41 -61 -24 3 -31 -45 -30 15 -30 42 46 39 -44 17 -44 -21 -67 -18 -27 -41 3 -39 32 23 57 66 48 -22 -106 -75 -48 5 11 63 15 -25 -39 -54 -9 5 46 11 -45 -38 -28 52 22 -4 -48 2 23 1 -24 17 -2 3 -47 62 -32 -21 27 27 -81 69 95 31 -35 -21 -25 1 43 14 -23 -30 0 35 17 11 -5 40 22 -17 29 73 21 57 -49 -89 81 -22 0 -22 -35 -5 -64 36 19 -78 46 -25 -108 17 30 70 24 53 13 -38 58 -77 -64 51 20 19 -54 -31 -31 -37 -22 -29 37 -7 14 -14 59 -39 -18 1 -10 126 -34 75 47 -14 -7 49 -64 -16 23 5 37 -2 -92 9 34 108 7 -42 48 -74 29 21 -46 2 -44 -4 -34 40 16 -60 26 38 -21 40 -31 -5 28 13 -58 1 21 -2 -21 21 25 32 16 -19 26 -75 -27 -13 -63 75 -97 3 -23 -33 3 11 -16 -67 42 -70 0 -55 121 69 -62 28 -27 22 39 -28 7 66 4 -48 -3 9 -1 18 -23 13 -12 -29 -8 28 -24 5 -36 18 -1 -69 5 -34 14 -24 15 -64 -29 2 86 75 -13 -47 -33 -17 26 24 4 98 7 2 15 -3 -15 28 45 29 0 -33 46 3 -39 -74 -69 -55 -46 6 -18 -2 -6 -72 -23 2 51 21 -13 38 -1 52 -10 2 109 -103 -63 -14 -28 14 -15 12 25 -17 33 26 22 -43 75 -3 14 10 -29 31 0 15 -13 -21 6 44 -36 -5 -33 -52 -35 -53 -41 8 18 -33 -57 55 22 42 14 -5 -39 -10 -18 20 -63 47 19 -1 5 22 -27 -59 -7 -23 56 35 22 29 -18 15 -12 37 -7 -23 -16 31 -13 -61 10 7 22 33 13 10 -34 43 -28 -4 50 -42 11 2 -19 -26 -13 1 -29 -78 -75 -41 69 -27 37 -7 -71 51 -40 -55 -58 20 -12 -7 84 64 -4 33 -22 9 -51 -23 15 70 2 27 -50 32 -5 -1 43 5 3 7 -8 -45 -11 -39 60 11 5 5 3 -11 5 -9 -9 -32 43 7 1 -34 12 -15 34 -91 35 25 2 -50 -3 -6 7 17 -67 -54 67 -54 -45 -9 -18 13 12 0 75 9 -5
72 17 12 31 26 15 49 -7 19 14 -8 22 40 43 22 -15 9 12 12 -34 -27 -28 11 22 61 58 -11 8 24 36 -12 43 17 -18 -19 26 -15 16 36 74 23 16 1 -4 -16 -4 -15 -15 -4 -18 18 58 29 -16 11 3 14 -23 -18 -12 13 7 -33 8 -4 -32 70 40 11 24 24 61 -29 -4 22 -6 34 10 -9 12 12 -21 11 -15 -5 26 50 14 5 -35 -55 29 37 52 58 28 5 -22 -27 3 34 33 4 0 -19 -5 7 39 47 85 22 -14 -2 -29 -13 27 31 23 23 -5 -6 18 -10 8 35 19 -29 -33 7 -55 26 -10 31 31 -29 -1 11 -38 27 19 2 2 -85 -3 -6 41 6 -33 -29 17 -11 23 -50 21 57 6 -7 -33 23 3 -74 33 27 46 45 -14 -1 23 -39 44 32 17 -2 20 -28 11 -20 7 20 15 -10 14 16 -35 -18 57 -36 24 13 11 47 10 -18 1 39 26 14 18 9 -61 -2 0 -13 42 30 20 -10 16 -3 20 -23 26 37 13 16 -43 -17 3 14 1 -47 38 -15 -17 -6 -22 39 57 9 17 126 22 6 41 50 40 3 -23 -35 -62 1 43 23 -4 52 33 3 -16 -49 23 -41 4 -12 40 10 -7 -39 16 23 -22 -18 -4 11 38 4 7 -17 9 17 48 24 -64 29 -20 -5 70 -17 -8 11 -8 -16 18 -27 -43 30 -9 -7 15 30 -45 33 -50 2 76 7 -3 22 -24 -42 -2 15 -30 -18 36 21 -26 9 33 -12 27 -86 16 -6 68 19 31 26 -27 -3 -57 3 18 -10 40 33 -1 -23 -11 -16 5 11 1 48 14 21 29 42 40 -21 5 -22 29 31 9 -7 14 20 -23 28 -1 15 -39 -44 -17 -29 23 18 62 45 12 -12 12 3 41 -11 25 -2 30 7 22 4 91 -15 -9 1 34 -1 13 47 7 -33 -18 40 64 21 -14 65 29 -1 -6 -27 46 -16 31 109 57 13 -12 -24 -8 0 -30 9 -34 17 25 -1 17 44 -8 56 5 -75 -3 -34 1 2 -1 14 -14 -3 31 -25 24 19 -7 -4 -7 52 1 52 -4 13 0 -3 4 -15 92 14 1 -47 3 2 72 -42 49 -34 55 -56 -14 6 40 -8 24 -25 -10 -38 -34 36 33 -21 -59 9 24 -26 7 101 31 32 -19 6 -13 -13 4 52 4 24 28 -56 -5 -19 4 30 20 -12 -4 -8 77 6 15 20 47 27 9 13 0 12 23 16 24 -21 41 4 12 -15 -1 12 17 6 73 -1 40 -21 25 32 -19 -59 -15 15 37 17 -16 -1 32 28 24 -13 -5 1 -14 6 -13 -10 -29 -13 49 49 25 27 -20 3 -28 64 58 -41 -12 22 38 -1 21 -28 3 29 -15 -9 -11 34 -1 -57 0 9 42 55 12 23 67 -8 -3 8 -63 17 1 -10 26 -24 6 31 33 -7 8 5 23 58 52 -27 -7 0 2 -2 7 21 -10 -19 20 25 -21 -48 -37 -38 6 -30 -19 0 -7 21 -3 -9 -15 15 12 -6 -17 21 46 18 4 98 9 33 -35 35 -58 9 37 32 37 -32 0 47 -32 -11 5 -23 -70 57 25 49 7 -63 -5 9 11 25 36 29 -1 39 9 -10 0 16 -16 -6 -40 -29 19 -22 4 6 38 -23 -5 -22 31 -20 8 9 27 4 19 -59 40 3 17 18 -13 -10 -1 -4 16 31 -29 -2 10 3 48 77 -2 -3 -3 12 19 59 -6 9 -18 -68 2 -21 -19 13 8 17 -64 100 2 38 -50 -18 -16 -1 16 85 -16 -16 6 14 15 -9 -32 -13 23 -5 4 -21 -33 -16 3 27 19 -34 27 2 0 -3 17 20 21 36 10 -2 -3 47 56 48 59 -38 -13 -17 -2 28 -17 2 7 19 -8 -4 13 -14 -38 43 -28 -16 10 6 -9 -63 23
-32 -33 21 3 -21 -40 -31 -22 12 12 -10 -8 -12 7 -33 -22 -35 -1 24 -27 -36 29 3 -33 -34 35 -73 -21 -40 0 -65 -25 -24 44 -13 29 21 -11 -33 -11 -62 6 -15 -35 -67 -10 -27 -17 0 -46 -9 -43 8 -45 -7 -30 29 -21 29 -1 -15 5 -14 -48 15 -70 -17 -20 18 -18 10 -39 -26 -25 14 -10 -57 22 23 5 21 15 34 -13 -35 -24 -45 -25 17 53 -24 13 -5 -53 -88 -3 3 1 -45 -16 -10 -22 -19 29 -51 -11 19 -13 27 -35 63 -47 14 38 -9 2 19 -53 -17 0 -34 -20 9 -13 -45 -12 -25 -40 20 -12 31 21 -28 -31 -45 -32 1 -24 6 12 -36 -48 -6 -45 -43 7 -48 -3 -30 -21 20 -2 -48 -22 -27 0 -15 -11 2 -38 -1 -19 -7 -29 -34 -4 9 -40 -56 -5 -45 -15 14 36 -29 -22 -43 22 -33 -18 -21 -45 -60 -7 -51 -29 -46 -15 -34 -20 -25 -56 19 -31 -4 -18 -24 -42 -44 -46 -20 4 -44 -18 -16 -51 28 -10 -24 22 -27 -33 -45 -27 4 -12 5 -6 5 -17 37 -81 -34 0 4 -10 13 2 -20 -8 53 -6 -12 -30 -26 1 -49 -99 -42 -11 9 50 -24 -36 25 -34 -9 8 14 -26 -16 20 -83 14 -43 -52 -10 25 -7 -36 -64 -25 -69 13 -4 -14 0 -24 -24 -39 -13 -41 -26 -45 -25 -14 -21 -43 -13 6 -55 -13 14 10 -19 -12 6 -31 -56 -57 62 -39 -20 -6 -5 -55 -41 -35 -57 -7 -34 -4 -14 -32 -11 29 -18 9 -54 23 47 -4 13 -38 -29 -58 44 -15 -26 -19 -20 -43 -24 -20 -8 -45 21 -4 2 -6 -39 -1 -5 -46 -65 -23 -37 -59 -12 -29 -14 -16 -32 -70 -46 -22 -22 11 22 -34 11 15 -20 -42 35 -28 -57 -15 17 -37 2 -27 -26 -35 -39 17 9 32 19 3 -39 -46 -17 -57 -38 27 -32 7 -21 23 -3 -6 8 -11 -60 -29 -36 -30 -16 21 -25 13 -29 -12 -38 -29 24 8 -7 -22 -24 -2 -20 -13 11 1 3 1 -22 -23 41 -18 18 -37 -4 -46 -16 -18 1 9 -13 -25 -9 -6 8 -33 39 -22 -17 -1 -13 -32 -61 25 -41 -3 -40 -8 -18 -55 0 -30 -55 0 -8 -33 14 -5 -36 2 35 -36 -47 53 -88 -19 -27 12 41 -53 -14 21 37 28 -16 -9 -30 -45 -8 19 -47 -37 1 -27 13 -22 19 -18 -83 -70 -68 -27 45 25 -24 25 -21 -62 -5 -47 -54 -20 -8 0 -33 -46 10 -20 -28 -40 -20 -1 -73 -55 36 25 -23 -3 -59 0 -23 -8 -50 -2 -46 -48 7 -31 -30 -22 -28 7 18 19 -21 -20 -16 -2 -2 -10 -31 -16 -39 -26 29 -20 -35 -14 -27 -10 -15 -1 -2 -17 -38 7 -30 -70 4 13 -26 -40 -31 18 -23 -18 -10 -31 -68 -16 -40 3 4 -37 1 16 -32 0 -35 7 -30 -47 -21 -23 -3 -15 16 -5 -24 -56 3 24 -47 -15 -46 -10 -18 -15 -11 20 -27 43 -5 -25 -4 -12 -31 18 -17 -11 -18 -9 7 0 -25 -33 -28 26 2 -23 -64 -29 -33 -20 -2 -21 -20 -7 -32 -32 15 -38 -11 -18 -20 -11 20 -26 -46 -4 -31 -19 16 2 -15 -25 -9 5 -44 -9 31 -46 10 -15 -18 -71 67 9 -10 -3 2 -14 27 -10 -25 -25 -20 -77 20 -44 -14 -33 -17 -67 -25 -74 -1 -37 -13 4 -42 -22 10 5 -33 -1 -23 -26 16 -8 -13 -27 29 -9 -8 23 8 -1 24 -16 -40 -73 13 -22 -4 -25 14 -127 -25 6 -27 5 -2 14 -26 27 -24 6 -4 -92 -5 -4 -36 -21 7 10 -4 -64 14 -41 -17 10 -5 -27 -41 -37 23 -26 -45 11 -96 -6 4 -5 -24 -20 33 37 -28 -10 13 23 -27 -18 -58 9 10 49 -39 -17 -2 12 -43 -3 -16 -7 -64 -26 4 8 9 -8 -9 -13 -18 -20 -7 9
-26 53 -16 37 6 -62 18 5 11 85 18 38 -52 -4 -2 -7 -8 7 -31 18 10 58 -4 27 -54 96 -66 27 55 -48 29 0 63 53 -1 -14 -26 18 -50 6 37 -4 -17 32 -10 56 -15 -6 24 6 38 -34 21 -40 4 53 22 14 18 39 63 3 -45 31 7 52 45 31 -10 15 2 -21 47 25 94 46 -3 15 0 -13 23 9 30 44 1 16 22 58 37 -14 31 34 57 -24 29 -16 89 25 69 62 -16 84 -19 17 7 36 -20 -55 1 34 31 53 19 35 -43 17 67 26 22 -3 32 5 37 -5 26 -25 9 -3 -1 24 22 13 -92 25 54 -45 -10 30 72 72 72 18 -18 72 45 -13 -10 36 1 -5 20 64 -15 61 -9 18 29 24 -71 -19 21 -2 36 6 43 38 34 73 -39 8 -7 14 13 80 49 66 -12 56 -7 36 7 -5 -17 -5 -20 50 2 -35 16 75 20 20 -5 49 70 -11 -29 43 -39 -24 -17 -41 -24 -4 -3 -3 56 67 -17 52 -56 16 -6 52 42 30 63 7 -13 0 66 57 -42 -4 44 -1 61 41 0 -23 -3 42 44 -6 30 85 49 43 -33 59 -12 6 -33 -18 -21 -6 61 -3 30 -2 6 11 -29 26 5 13 68 55 11 18 34 27 56 -31 -38 -21 43 -7 42 8 7 13 18 -14 62 10 10 -11 -33 72 27 -20 16 2 31 73 21 25 9 2 38 -24 6 0 44 20 -21 10 23 36 -14 30 23 49 50 36 35 50 -25 -2 71 36 22 17 63 3 6 -25 108 -14 3 65 59 7 53 83 -13 9 34 22 25 5 33 19 -34 -10 8 55 -18 -19 -23 -6 -17 70 1 5 49 63 19 -14 -34 3 8 10 -13 19 -9 40 -8 -7 -14 -20 2 38 -11 -19 6 -50 47 -5 7 -43 25 -30 -6 -1 24 -15 43 44 99 -61 37 19 8 19 -18 62 -5 44 22 -29 -4 -45 -9 -45 -5 46 -54 28 -16 2 18 -22 28 6 -40 -15 -8 -6 -10 0 -1 38 -49 0 9 15 -24 14 29 108 13 5 23 -13 4 -13 15 40 33 98 -13 39 75 4 58 14 -12 89 25 126 76 7 28 12 4 -3 8 -16 59 -35 23 -2 48 -19 38 35 39 -14 -29 67 34 2 -59 60 -25 11 39 -9 22 45 1 6 62 18 -38 1 -34 11 -43 -1 37 -11 77 26 11 -32 -51 21 -31 -53 3 -25 7 -15 5 -31 24 79 23 -44 -34 -16 12 -21 -69 17 55 0 -21 27 -10 -32 11 40 35 11 15 14 24 62 -18 7 -102 70 -78 10 -39 43 38 0 -50 39 5 -11 -37 -49 72 42 -5 -4 -2 76 12 8 -6 41 41 -22 0 -1 -26 17 52 -49 1 6 56 43 8 -9 -38 28 8 42 -1 -18 -14 44 0 7 21 -18 18 22 -1 45 19 12 -9 3 35 24 -25 29 13 62 -5 12 55 -35 -2 35 -29 23 -17 58 55 30 15 -83 -7 -3 44 88 -53 -1 27 -26 -16 -21 35 -26 -29 17 39 -98 5 -73 -41 -74 -15 23 33 -18 -5 -2 32 -22 11 -23 32 -2 4 32 -18 28 -7 -31 -37 -46 42 44 8 -37 -41 41 3 22 56 -19 -29 8 22 43 -41 47 33 25 -5 23 30 73 0 -26 48 59 -16 29 -35 55 25 10 -30 38 37 -11 28 1 41 -5 -3 4 69 -48 22 66 31 51 24 49 -6 28 22 -34 7 19 -29 21 -27 -17 30 60 58 52 -10 12 65 -22 8 -37 28 -37 2 15 19 -24 -22 14 -4 46 8 12 30 -37 18 5 -7 40 -14 -22 36 -12 11 6 6 39 5 21 22 57 39 -26 -49 -66 47 29 59 0 2 -15 -6 3 14 19 15 -21 -32 13 -43 -12 25 35 18 58 21 -15
49 -5 47 -6 38 4 7 -9 47 8 -10 14 19 -28 24 -18 6 18 -45 13 -31 23 -62 6 -16 48 38 19 -62 -72 75 -36 -3 -59 21 23 3 22 16 -20 22 5 45 -96 43 -2 -7 -40 -41 17 -20 8 44 -3 -8 2 -18 -55 -48 -26 43 9 24 26 -48 70 -39 42 5 66 -18 29 47 13 -2 -26 45 2 52 3 -61 13 11 -24 20 24 -70 -27 -35 -9 12 -64 -44 -17 -11 -39 -17 -22 38 -10 -43 82 -11 36 0 26 -19 3 -12 17 -31 -15 28 -2 28 -34 -48 -78 38 -27 23 18 14 -16 11 95 73 -8 -7 -39 5 40 25 -43 -14 31 4 -17 -53 14 -47 0 84 76 35 50 -39 -24 -41 28 -9 -26 8 41 22 2 17 12 -24 -9 47 -28 31 -41 -4 15 40 -4 2 19 62 15 34 -2 -29 20 65 -12 -60 -87 14 -20 2 -25 21 21 43 9 -11 -8 57 -40 20 -15 83 -9 21 55 -39 -62 17 72 0 -61 3 19 23 -36 70 -49 61 -19 15 27 -13 -29 -32 -1 26 4 -81 -32 -47 19 22 12 -12 -34 -16 -41 22 34 -6 79 -26 24 25 27 14 54 27 -43 10 -5 27 57 40 -4 29 42 38 -19 1 72 -12 -47 -3 24 41 17 -15 32 28 41 -40 -45 29 -116 25 -5 -10 57 -42 -70 23 10 -53 -25 13 24 63 -64 -42 38 -69 3 5 11 -40 -4 -43 -39 30 -26 -84 9 126 46 -2 26 -12 -3 -47 36 -8 -24 16 -41 -30 -40 28 15 72 -44 -69 6 34 -6 18 46 70 1 26 -23 7 -90 -42 -16 -97 -24 -7 11 37 2 -28 38 19 -9 -14 28 22 5 3 14 -36 -14 24 7 20 -31 21 -12 39 31 -39 -54 -31 58 5 4 -37 14 -35 -9 -11 9 -42 -75 31 -27 -37 51 -36 -14 -9 -12 84 -74 -6 -31 2 -24 27 15 15 -9 36 37 44 26 17 -8 6 23 15 14 13 -11 -18 2 22 10 29 49 -18 9 -38 -14 88 6 21 50 31 23 7 -48 -4 -12 -6 15 -25 9 -16 83 15 -84 21 -89 12 10 35 38 15 8 18 13 -47 -63 -30 24 20 -5 -43 -36 18 6 31 -1 27 -4 -66 -22 -11 -3 -12 -9 -32 -4 24 9 6 10 47 -36 54 42 27 13 -1 -17 26 -30 -14 22 -28 31 17 4 -24 18 -7 16 37 72 19 67 -13 -40 17 85 28 14 35 16 -8 16 2 -70 0 -71 -88 0 39 -47 -33 -42 -11 11 -16 -43 -57 18 -21 10 93 -36 17 -40 44 11 47 61 49 -52 -4 117 71 -35 16 -35 19 16 36 9 -34 10 -51 0 1 -15 8 -13 -9 28 -33 63 28 35 -14 -25 -7 0 -72 1 62 36 -29 -9 -59 35 47 -20 31 27 -28 -77 41 6 18 24 6 67 25 44 -20 -5 -21 -6 31 -47 25 31 -16 -65 -32 -21 31 37 0 -42 20 -8 -31 7 31 -44 -62 6 16 -5 4 -25 9 -23 45 67 -1 -8 -5 -35 -50 8 -7 29 15 -27 50 1 36 -7 -16 -11 51 -29 18 -41 37 5 -15 -24 -6 -39 -48 75 -12 -11 46 -1 13 -16 -21 -3 -57 0 -30 -12 -26 22 40 -63 -55 60 12 1 53 17 -12 22 17 -47 1 -61 24 4 -4 -25 20 -14 -30 -8 -86 39 -47 18 -36 -29 -23 -8 50 37 26 1 -4 48 -16 6 34 -16 39 -38 -2 35 -26 -6 -10 -25 30 7 54 -8 -4 24 -49 -19 -13 -4 3 -24 -31 -100 57 54 23 -23 -94 9 21 14 3 63 -14 63 -23 -5 13 5 -15 15 8 7 -64 1 25 -7 26 -17 60 -14 15 13 -17 61 -53 -14 7 31 91 -53 14 -11 -7 7 12 -60 -3 67 -42 -46 -40 -17 31 58 -39 -43 9 -19 31 3
-72 2 -7 -41 1 -6 -8 -3 -17 17 7 39 12 -32 16 -57 10 45 -69 -55 64 9 -11 -4 -33 -16 17 10 61 -4 18 -4 -31 -30 53 -29 -80 -2 2 15 16 18 40 52 -43 -40 19 29 51 -88 -18 24 -34 14 16 -4 -35 -21 48 40 1 -22 -45 0 -5 40 60 -15 -9 -29 -66 -24 16 -2 23 -26 -8 -10 -19 41 -14 69 -6 -2 32 -59 39 -63 56 -97 -25 62 -12 -3 -16 34 -12 4 -47 6 -5 -23 -75 -8 11 -33 47 23 14 51 -36 27 25 4 5 -24 -31 -16 -34 12 4 -13 -49 11 -13 49 -56 -20 -67 -2 -29 5 56 7 45 -30 -19 -3 -16 -54 8 -17 41 7 9 5 9 -53 49 -45 -9 27 -5 -32 -7 -4 -21 2 0 46 -8 -6 0 -12 9 -19 -60 -48 30 33 7 -52 25 -22 25 2 -23 32 32 -36 25 -53 -15 -16 54 -31 -61 -24 4 1 50 21 26 23 -96 7 -6 -46 16 88 34 29 -35 -23 2 30 -5 61 0 -17 19 -3 3 8 -5 -17 16 8 -90 26 11 18 40 -35 -41 9 43 54 -24 -3 -26 67 -8 -19 49 37 -12 27 6 46 13 75 7 9 -17 4 -55 21 -2 44 -24 -5 -53 30 44 6 -7 -16 -32 1 11 82 -13 23 5 13 -21 -19 65 -57 38 12 -38 13 -34 -25 6 -70 14 38 8 -17 6 21 -32 -24 -12 35 -12 -9 -12 51 18 1 22 -1 31 -14 21 -44 34 -45 9 27 -2 -22 14 -69 -35 35 54 21 26 -1 -30 -29 -2 -43 -16 38 -10 25 52 -20 -27 -18 21 29 -12 -9 7 -49 25 26 -37 79 10 66 -43 -38 5 -25 -8 -46 6 -4 -85 38 89 39 82 51 16 65 29 -6 6 26 -29 39 -5 -7 -40 -19 29 9 25 -2 18 35 -29 -26 18 31 -24 47 -13 -5 37 -23 7 -13 -15 1 -27 23 -5 -9 46 21 82 20 -19 0 -17 -31 24 -36 -8 9 -45 -77 -21 -17 5 2 -43 -21 -57 -18 4 31 14 -46 -1 -6 34 -11 -31 -38 -42 -43 -54 -56 22 25 62 -5 17 47 53 -15 2 -57 -27 -38 8 -16 -64 -12 44 -38 -38 6 -38 14 48 73 6 35 -10 -14 68 -35 33 13 11 -57 28 8 -62 19 -32 9 -25 9 23 -10 -23 60 -18 -33 21 23 70 -13 -21 30 -22 31 -21 14 10 3 37 44 -15 23 13 -26 -24 5 126 36 30 -31 6 3 -18 9 -23 -6 14 -17 -40 14 23 47 1 60 -64 63 47 -2 -62 63 -18 -34 -30 32 -31 8 -18 -72 43 -91 35 60 -62 -3 -54 29 76 -47 72 -42 36 15 -41 -6 -10 -20 2 -12 7 19 41 32 -11 42 10 13 -46 -48 34 51 7 4 5 4 -44 -16 27 33 29 -31 -12 31 93 17 -8 -18 22 -22 -5 9 57 100 -15 -32 -36 6 85 -67 13 8 -39 50 -6 -13 -41 66 4 29 -23 18 8 52 64 -12 -9 27 -44 14 -1 15 40 -22 -15 -3 24 47 5 1 -9 28 59 -26 -17 3 -6 39 2 -20 10 64 -11 60 73 66 -56 -60 20 39 3 5 19 22 -42 -5 38 -15 -9 16 -10 -38 45 1 -34 11 24 28 -7 -41 12 55 -17 -22 67 -10 27 9 23 5 -66 59 61 -8 16 -38 -66 -24 58 99 9 -23 -40 10 -20 46 20 -19 8 -16 50 -70 32 100 -99 -1 -23 -58 21 -80 17 21 -5 -30 -13 35 -60 -55 15 70 15 -21 -33 36 7 -2 74 68 18 -9 1 -27 31 -14 53 -2 -11 39 -34 17 -5 -42 -46 -37 -31 -38 49 43 85 -2 -53 -2 96 9 -52 -15 -32 2 38 -11 -64 9 -29 7 6 12 -12 16 -32 13 6 -17 29 7 -17 75 -8 -10 42 40 35 40 13 -18
-3 -45 19 1 -3 1 43 -9 73 22 31 33 57 26 6 1 59 1 -39 40 16 59 30 69 -4 48 79 -63 58 54 -52 -1 -11 -3 -21 -22 71 -50 -7 -27 9 -12 71 32 0 2 -44 -15 -18 2 -27 21 52 35 -38 39 -20 -16 -18 -37 8 2 23 -24 5 10 22 -10 68 42 -43 42 37 11 73 -19 -43 9 -15 -29 30 -42 19 6 41 -12 -74 -11 81 24 36 -39 -27 -17 -36 -47 56 20 45 94 50 3 16 22 -13 1 -27 16 11 56 12 -6 12 64 -36 38 23 -73 33 40 58 -15 2 -2 -1 29 13 13 -18 80 20 -19 44 -30 19 85 -20 -19 -27 84 -9 -23 -27 -18 30 32 -32 45 31 -47 -70 -26 -40 -14 -34 7 -26 -54 63 0 -30 50 7 -31 -22 -9 64 -8 -42 -6 -48 4 61 40 17 4 -42 -20 -11 -12 21 30 -33 6 -52 0 24 -37 13 -17 -60 64 -6 -25 7 15 -28 32 38 10 -44 -20 5 -1 12 -29 33 -45 20 -38 -41 -8 25 19 -37 18 20 -4 -19 -6 -46 36 0 -22 3 20 11 -45 88 18 48 -29 36 -13 -9 -18 -46 -19 65 -52 12 44 -31 36 23 -2 -12 19 15 -12 26 19 2 -33 -6 34 -18 -33 -8 -14 -71 44 8 40 -1 46 -44 85 89 -34 -36 17 -8 -21 13 70 15 -22 5 -2 12 93 -6 -5 2 -46 8 17 4 52 11 25 39 24 30 1 70 -44 -84 7 23 -28 -27 -22 86 -12 10 46 70 -48 109 -51 -18 14 14 -28 -27 0 28 6 -37 24 41 19 18 33 39 22 -2 0 0 14 -6 16 -35 52 34 27 39 25 56 22 15 58 -18 -70 32 12 -11 28 14 38 37 -12 62 -15 -31 29 -94 16 16 17 -20 -36 -27 13 -29 64 -13 -25 42 -48 -25 -53 -27 117 14 -28 10 -8 -17 -17 66 -65 27 4 16 5 -27 12 -2 46 22 37 15 -28 2 24 39 60 2 -23 84 8 73 10 84 -34 -3 39 -11 11 -36 26 -27 61 14 11 -16 34 -75 25 19 -81 29 32 45 0 42 59 10 36 -14 -53 36 -10 13 20 12 -55 -13 -2 -30 -51 -38 9 5 -17 8 8 5 -5 -2 9 15 34 -49 17 -53 24 39 -21 4 -62 105 8 -14 -13 0 -1 5 -11 12 8 59 8 15 38 -40 54 -28 -25 39 14 9 -58 17 -4 -19 59 -5 37 42 21 21 -8 9 51 -10 -69 -43 -21 14 -3 17 -7 -23 -6 -46 45 -12 1 24 25 -50 -18 -127 -15 -6 -10 -63 -26 16 71 24 -12 29 20 -26 6 19 10 30 -27 31 47 4 -1 -6 41 -15 16 -28 26 22 38 -40 -11 -15 20 44 2 -17 8 46 31 -36 38 -3 42 37 -1 -23 -77 -30 -22 11 -2 -42 91 -6 37 -1 50 -5 -26 15 1 26 -35 23 -34 15 -17 91 -9 36 -26 -4 -18 33 41 20 -77 -19 -22 12 25 5 -29 -10 -40 -15 5 -7 6 32 31 56 -20 -7 24 32 53 -10 6 -67 23 -8 66 -23 62 98 3 26 26 72 -11 -54 22 -75 -15 34 -10 -55 116 56 25 5 23 -11 21 -66 22 7 23 56 -63 64 22 -63 29 -19 -2 48 48 -19 35 1 70 82 70 -28 -34 25 20 53 10 51 0 46 -4 18 32 22 40 14 -11 79 76 46 7 8 -14 45 43 -20 -18 -13 -5 39 29 -24 26 -11 33 91 35 15 7 -12 49 21 -123 58 36 95 3 -26 50 -71 -25 28 1 60 7 -8 -5 -40 11 22 46 62 -25 31 -28 -19 11 54 83 -20 8 24 12 -26 -9 -21 2 -1 38 0 23 13 -17 31 40 -34 48 23 20 28 -10 55 9 53 -33 9 -50 60 -10 -22 25 87 30 49 22 53 -11
-37 40 -59 -20 -16 -22 33 -1 -13 -95 -12 17 31 -54 2 -9 22 25 -28 4 25 -64 15 -67 -39 -6 -2 27 -17 -40 -11 3 2 -17 47 58 7 -40 -19 -53 -14 -2 -23 -48 7 -16 -15 10 20 -41 23 12 40 -11 33 21 -5 -27 -17 -26 2 -31 18 -2 -24 46 -61 -33 -28 11 -28 20 -18 12 -23 -10 1 -7 -50 5 -5 -2 -3 -69 -36 -41 4 -14 -5 -45 27 -24 28 -1 -71 -19 15 12 0 26 -36 -50 4 -14 -21 -1 -21 1 43 44 16 -24 -25 -39 -6 -5 -8 2 64 -7 -50 -38 56 -64 -10 -18 -45 2 8 16 -11 -12 41 -10 20 -62 8 9 40 -5 -20 -6 -66 13 -30 40 -9 -8 22 -12 20 -43 -12 -16 -36 -10 -17 -32 -22 -1 -18 1 -16 11 56 -7 -29 7 -14 -13 2 -39 -17 18 29 -34 -85 -25 8 -17 12 -11 19 -44 10 -27 1 6 20 12 -8 -38 -14 32 -12 -23 -6 -17 53 -4 -5 20 8 2 -41 -41 -40 -3 -9 -34 -19 15 -40 43 45 0 -33 0 14 -3 -38 43 -47 48 -11 -9 -34 -73 17 23 10 -6 -20 42 22 11 -5 -21 33 23 -10 18 19 25 -35 -12 21 -2 -21 -2 2 53 -21 80 18 -18 33 126 -26 16 -15 42 14 -31 8 28 -55 22 -27 -18 -30 12 -20 -8 -26 -13 47 -54 -14 -46 -12 -1 38 34 -67 -20 -14 -74 -1 -35 -33 -13 -21 -38 54 -9 0 10 -45 -40 -14 -25 5 9 -69 -18 12 -12 -10 -48 -16 -43 -55 -11 8 24 24 -32 13 -16 13 -46 40 -15 -25 7 13 -14 27 -11 -1 12 -18 68 3 5 -32 59 -13 -32 8 24 14 -33 -41 17 -47 15 -17 1 -29 -34 40 6 13 -24 2 36 -1 22 28 -32 -43 -9 -6 5 -4 -30 67 9 13 -70 -12 -18 15 -13 -15 -20 5 -11 -25 -31 -7 -49 -6 -45 -34 3 13 -8 54 22 5 -44 -21 -4 -29 -1 -7 -44 -2 57 8 1 -42 0 -11 10 2 24 23 -3 -22 -5 -4 7 -11 20 -18 -1 -32 36 7 -17 -54 -68 -4 -32 50 -37 -67 25 -10 11 -7 -28 7 -36 22 -13 -4 -16 -25 54 16 -58 1 -2 -33 -7 -13 -2 49 4 -51 7 -55 -39 5 -45 0 -11 -67 -36 26 23 -17 -34 -36 56 -36 95 -14 44 4 -30 -2 8 -25 -4 -95 1 25 27 -2 50 -47 15 -5 -36 -3 -5 12 -7 3 -15 -7 -24 16 -10 17 24 24 11 -53 -3 15 -11 18 -33 -45 49 -35 29 -5 30 9 -17 44 -62 4 62 -20 40 -9 11 -27 23 -42 -38 17 34 -2 9 11 8 -3 -55 3 -28 -29 4 23 -1 35 -6 5 -55 -41 15 20 0 -19 2 -16 -38 -16 -10 17 -61 -5 8 32 -6 -11 -32 -3 -13 -9 7 2 -4 -45 -23 30 16 57 8 -18 34 31 -13 -3 2 -59 -68 22 -41 3 -67 15 -36 -33 -28 -18 -22 -19 15 -22 8 -40 -24 -10 34 27 -29 9 15 2 -17 -32 13 9 -5 -16 7 -47 -35 -5 -52 -79 -13 -10 10 -30 9 6 26 12 16 7 -13 0 43 35 -18 0 8 27 -10 -38 63 36 50 35 -26 -77 24 22 5 -8 43 -10 -29 40 -4 -11 -3 -27 -13 -39 -79 -1 2 8 50 11 -42 10 -61 2 16 0 4 15 50 17 -23 30 2 -31 75 -13 -29 29 -45 -27 0 -22 -16 47 -38 9 14 -5 -12 -31 -46 -26 -14 23 38 -26 -20 -45 21 79 19 21 -2 -31 4 3 -3 -52 -8 -16 -15 -8 29 -36 -4 -28 1 -22 -40 -2 -21 22 33 -28 0 -48 -24 25 9 -48 2 -14 -4 41 29 -14 -7 3 -22 -43 4 49 -6 -33 16 -21 -11 -18 -14 -15 -5 5 6 -10 -5 -36 53 -28 -34 -50 36
7 -44 -37 27 -16 -57 -61 13 15 0 -71 43 68 35 -36 27 3 5 -17 -29 15 -22 13 -15 -22 -19 -3 -16 -19 -66 -30 55 78 -4 3 -51 6 -18 -26 -23 -40 -13 -41 28 -8 -13 -37 5 15 -1 -41 58 -87 18 -37 -38 3 10 -54 10 15 21 43 57 -36 63 55 44 -69 -22 12 79 -73 50 11 -31 -37 -1 28 -41 -59 -13 -22 -14 32 10 -16 -83 -81 -66 42 34 67 -11 24 38 12 -26 30 5 -4 -21 8 54 114 16 6 -70 14 100 -26 -14 2 -37 63 5 61 -50 -34 -11 1 -48 -4 1 -32 29 21 10 -64 25 -36 7 -10 57 -56 25 6 20 -14 10 35 9 -1 -41 -22 38 18 -24 49 -72 25 -2 6 14 -4 -9 2 56 -8 29 46 20 76 -56 -16 10 36 -7 88 12 -1 -55 19 0 11 -2 -78 -74 -39 -16 -7 -75 -70 -21 -73 -105 27 -26 53 30 -76 -116 -24 -81 31 -19 -27 23 -56 -73 35 26 -24 69 -60 -35 -25 -19 62 -38 53 -34 -69 -59 3 -22 -37 8 -25 6 12 82 47 -4 -11 18 -28 56 -19 29 38 -70 56 35 -113 21 -32 -35 -42 -88 -1 -34 -74 -87 60 3 -75 -19 11 52 -13 -1 33 -9 1 -33 5 95 -9 72 21 -11 74 31 -61 -2 63 42 -8 9 -28 -7 14 45 -3 -15 -72 7 5 -14 -32 13 37 21 -5 6 6 40 105 -16 -50 38 6 -10 37 8 79 -36 -5 1 21 -53 5 17 28 -36 8 79 31 13 -10 -17 28 57 -8 -20 3 -44 2 25 -81 6 -88 16 -7 -52 -13 -37 -45 17 25 -18 -19 -43 53 -43 -35 -24 13 -31 -21 4 -51 75 33 -54 -35 -20 -37 14 15 37 -50 -45 13 -25 63 5 -15 37 34 1 -70 -62 -27 60 -6 28 -56 -33 51 4 25 -80 -4 8 -6 0 2 17 -62 29 -59 -16 3 -49 -92 9 -28 46 -21 -11 63 73 -63 22 27 -28 66 75 12 -4 -71 24 75 -9 -11 57 -15 23 -15 8 -71 -21 94 -25 55 32 -6 7 -27 -87 88 -23 -32 -42 -9 30 15 28 -35 38 -15 54 -19 -16 -54 -4 -7 41 -16 -47 27 27 -32 -46 14 47 -44 -15 -43 -1 -37 -29 -49 32 -29 -12 -12 6 -21 69 50 -54 57 26 -19 9 -32 -55 24 -50 -33 14 -88 53 -23 33 -5 -14 -15 -1 24 -6 -22 21 -17 -18 -45 44 58 46 75 50 2 57 -4 -21 -47 19 -62 6 -20 21 -15 -19 -38 -9 44 106 -50 53 -31 -9 -1 2 -12 2 -59 80 -48 -12 -16 51 -28 28 45 1 6 38 -25 -72 1 -3 -14 11 54 -39 23 -3 6 -75 16 0 57 -53 8 -58 -52 18 -65 -5 44 -36 -46 -40 22 -68 4 19 -40 10 -54 -59 -11 -20 -26 -22 91 -2 -19 -93 1 -12 48 52 -7 9 33 38 36 -7 -8 75 -83 46 -44 -57 0 30 36 7 47 5 35 58 7 -3 -95 -31 23 -45 20 54 49 17 -2 -8 -13 16 25 -44 -24 26 -1 57 19 -4 42 -31 56 -105 -1 -127 0 39 -38 -33 46 -64 -32 -16 -31 -7 -57 -36 14 0 20 20 7 -7 -25 -7 -23 -72 -84 -26 68 -26 13 40 -9 -66 -80 -12 -25 -56 -8 74 5 -2 -61 -7 -2 11 54 54 -7 59 5 21 14 20 -17 -29 -38 -8 -34 18 93 20 -61 -8 -65 -9 -73 -33 -5 -68 -32 -72 -35 -54 -86 37 -47 5 40 -30 10 -20 -1 15 24 -32 -23 31 -44 -35 -81 61 -20 -53 -17 -5 -12 13 -1 -60 -13 63 54 -21 34 -80 -44 8 -28 10 -21 -21 38 56 30 -4 -20 26 -31 -26 -44 90 10 -57 -15 -62 7 -18 -69 -16 39 31 -4 -14 -83 21 32 -18 -33 -13 -78 -32 -51 -7 27 -26 -69 53
-27 -21 30 33 18 16 69 -33 54 -56 13 -3 9 -15 26 1 -10 27 1 12 27 -34 -23 3 -8 -14 26 10 -31 60 -33 -12 60 -31 13 4 -36 69 24 -8 -19 13 32 -25 8 8 27 36 -57 21 6 6 24 -23 9 24 29 -3 11 42 -3 10 61 1 -44 -14 48 37 -24 68 28 0 -19 9 55 -37 -30 13 30 37 -4 33 -4 -24 48 -37 18 6 -38 14 67 8 -46 -33 27 38 1 -7 44 -11 9 24 15 -47 -1 29 24 26 -17 23 32 -12 36 -22 -53 4 28 31 -19 32 54 14 -12 13 -46 30 9 -19 -14 63 8 21 -4 15 9 23 -7 28 30 46 48 51 12 4 4 4 -19 -22 -8 13 57 -14 -27 13 25 8 -25 11 34 -11 68 5 -38 -3 32 33 -21 59 -11 -3 -8 18 -13 6 71 -25 8 31 1 34 -29 -10 -35 83 17 39 -41 1 21 35 -43 55 11 -13 8 -29 -21 -8 -25 -20 17 -5 37 -16 3 -31 -26 77 -12 0 41 -8 9 33 3 24 56 5 -12 -1 31 45 36 -13 45 16 54 4 -9 -13 13 12 -35 23 -26 16 64 38 47 7 15 64 3 -26 63 -4 -24 10 45 -40 57 -32 28 -24 26 1 45 52 -27 3 82 0 -28 -22 -4 59 -1 15 -22 -27 -6 -18 -68 -1 18 8 18 -14 4 22 -38 -45 23 11 42 18 9 9 -5 50 -27 59 14 47 -37 82 1 34 40 -7 -4 86 12 -28 9 12 -10 -3 -22 45 13 35 -23 -11 -4 16 -36 42 56 1 48 -2 -58 0 3 5 -22 -16 4 -1 -2 -6 29 29 83 6 41 25 64 6 -19 49 45 69 29 -37 20 6 30 17 -15 13 1 18 -36 -16 -65 11 26 4 -15 7 3 71 -49 -6 22 2 -1 -7 -22 54 63 -3 39 11 35 -52 13 -5 15 16 -40 12 -27 -18 0 -12 5 9 9 5 1 5 67 -31 43 25 -4 2 -70 -14 -63 29 1 -12 -10 7 14 -7 -39 -21 7 -7 -19 15 31 14 2 -9 3 110 25 104 6 30 12 21 24 -21 -18 -17 -2 -50 -23 -41 18 -20 98 -12 36 50 2 0 20 27 -63 81 -17 23 -15 29 82 14 54 62 -22 -2 -3 3 3 -18 -40 44 43 63 27 -10 31 -2 28 8 -5 -23 -80 35 -23 11 41 23 51 -2 -42 21 -38 26 -22 41 27 7 22 12 32 50 3 -36 8 -9 -16 11 26 78 16 41 43 11 2 -10 46 -34 16 -7 -38 27 17 19 -22 39 21 4 1 21 -2 36 47 51 7 -16 -18 -11 -22 6 39 57 -11 76 60 0 -7 -43 37 -3 23 22 23 49 -15 46 -23 30 -28 -1 27 44 13 7 -56 -65 4 6 4 13 26 -5 11 -27 25 36 -42 38 -5 -2 20 13 -4 28 -8 12 -8 -18 -47 -8 48 5 14 -14 -15 27 -2 -23 10 -38 -23 4 -13 -47 25 -1 -20 -66 -11 52 126 -4 -13 42 47 -29 58 -7 10 7 60 10 4 33 10 0 -26 30 -18 -1 27 66 -7 5 -37 -55 7 -25 25 25 -39 73 12 4 55 -72 -5 8 17 -35 -30 15 16 54 43 -5 -47 48 -28 22 13 13 33 -17 22 6 9 -40 23 34 42 -24 7 -12 19 35 39 -23 -17 -38 4 44 -33 -13 -28 24 7 34 -33 33 8 -33 -17 18 29 29 -21 -64 40 7 48 25 -20 12 18 43 -40 7 33 -40 -25 8 -23 8 -27 -16 13 62 -9 -12 23 0 2 19 -25 50 20 36 -6 -3 4 67 -13 -5 6 -21 10 -19 44 1 -36 -13 9 31 5 16 -38 24 49 22 -9 13 8 26 10 2 40 -8 -20 10 28 43 -17 -10 43 15 11 -126 3 -71 -37 64 10 1 -12 57
5 -30 50 -7 3 -22 6 11 2 11 -17 6 -18 -10 -40 2 3 -39 -4 23 14 -2 -8 24 21 -34 -13 23 34 -21 57 4 -13 0 0 -2 -7 -12 -42 1 -6 -30 58 -26 18 17 35 -24 77 -6 -9 -39 -22 -2 -36 9 8 -8 12 28 -51 0 -31 25 -45 56 -13 -1 -22 -3 -75 29 21 8 -4 -1 -15 0 8 -17 -19 0 0 11 -38 -24 -27 -11 -33 -8 -29 -54 31 -17 24 -10 -11 3 -38 6 -20 34 -32 29 -4 21 -23 -3 -14 1 -24 -18 11 34 -34 42 -39 11 23 1 2 -52 18 -11 -5 15 -65 -14 -18 34 26 -5 -19 54 26 -10 38 33 -36 26 -14 25 24 26 10 26 23 22 -25 13 8 -37 5 6 -20 6 -16 -6 3 -1 22 14 -11 -12 0 -4 29 0 24 0 18 49 -6 3 45 2 37 -39 -12 -62 37 51 -23 -31 -14 -13 16 14 -32 -25 -27 -37 19 -7 -21 -45 -8 5 33 22 -11 -27 -18 -7 29 22 -19 -29 -29 3 -21 5 -27 24 12 -11 72 -8 -2 -9 54 35 -11 11 17 -4 24 19 25 44 -50 20 24 -51 10 -10 -45 -49 54 22 24 22 -14 13 11 21 37 3 38 25 9 33 44 18 5 -2 0 -8 -15 -29 -9 -13 0 10 24 -37 27 85 -16 -12 -13 8 33 5 -8 25 7 48 6 33 7 -49 29 -36 3 6 -37 -34 35 5 12 -4 23 11 -8 13 -9 -42 23 -2 7 -33 28 -11 24 -9 -19 -54 -40 -10 -6 -33 -13 -20 22 -11 -3 -31 -48 -34 28 37 26 -21 -20 1 -15 6 6 14 10 -15 41 4 16 -7 39 18 13 -16 -7 -16 18 -27 48 44 20 -26 13 34 -12 -13 -32 4 32 -5 -38 35 -34 -10 24 -22 45 -29 39 -12 -23 87 13 1 22 8 16 21 37 -8 34 31 -30 -33 -21 12 0 11 -11 -16 0 -12 -10 -17 61 -23 -36 -22 -33 -2 8 -19 -17 35 -24 17 28 28 -14 14 11 4 9 -5 -23 24 -48 35 11 9 51 18 -7 50 16 -13 3 1 -59 32 19 -16 36 -28 -2 -12 -14 55 8 -10 17 -36 18 -19 -16 30 -47 -4 -17 10 1 47 -3 63 12 3 15 10 6 45 -26 -4 14 26 -34 -7 -31 1 87 -11 56 32 12 -59 17 -43 23 34 50 -49 31 4 29 -63 36 -5 -32 1 -20 -2 34 33 -10 7 17 1 24 18 19 20 2 -29 9 27 13 -49 -5 15 -54 -35 -14 -33 35 -18 -27 -16 6 -45 43 -25 -52 -24 28 5 -22 -46 -52 -14 -52 18 2 10 17 -18 -6 -43 -1 -9 31 9 17 -18 -25 -18 -24 16 -44 -41 32 42 31 29 -25 0 -40 3 -37 -3 20 70 -32 26 19 14 -31 -20 -1 35 22 -7 -10 -10 19 -6 37 22 24 38 8 -29 25 -27 8 42 22 -46 -48 26 -30 7 30 -19 -1 9 79 -3 27 -34 -4 19 -3 -13 -5 -12 19 48 -42 11 14 8 20 -47 30 5 -32 -16 -58 -11 4 15 36 27 35 -12 17 -47 -8 26 8 -9 -25 -8 0 31 -18 126 -1 41 -2 17 -6 -7 -17 -4 9 1 24 -4 -10 1 -21 6 -6 -19 -16 -23 -2 -28 12 37 -6 -83 -17 -47 9 -16 14 23 34 29 -14 13 -13 8 33 17 3 -42 6 28 2 -6 45 6 -12 -7 -11 16 26 -34 1 49 -1 3 19 17 5 20 30 -18 -67 -51 7 25 7 -18 3 37 30 -25 27 -4 47 7 -8 37 -15 7 -36 36 -5 -76 -10 25 -7 24 -22 -13 -18 43 -22 -6 -12 -18 3 8 40 1 47 34 4 -28 12 5 -2 -33 -9 -16 -12 39 23 -54 -40 -14 -7 8 31 5 -38 -28 37 -26 9 -6 -7 57 -47 -64 2 30 -13 -12
65 -13 23 53 68 -7 -37 -1 55 -26 17 -7 33 22 32 39 19 -40 61 60 39 53 0 6 -10 -21 -28 -4 -45 -3 -1 23 40 58 19 4 -29 113 22 -23 64 -42 31 126 0 5 6 19 102 36 56 6 66 48 -76 29 99 33 60 -57 55 0 24 72 -53 -37 15 -22 53 37 -75 -63 14 41 -22 26 -26 20 43 38 -54 60 26 60 22 53 14 13 -68 50 -37 44 -30 74 33 -7 49 -3 15 -1 4 -18 -21 43 -102 20 3 -2 39 -4 -7 -4 -39 28 -7 -15 73 19 50 38 -59 26 -13 -1 14 89 32 73 35 14 49 -37 -11 18 -43 -30 67 49 36 -12 -85 -18 23 40 -3 26 -34 34 -98 52 2 -22 57 0 25 3 26 34 4 34 12 68 18 71 10 35 4 23 -71 27 50 5 -10 6 -1 35 53 -18 -32 31 -16 14 -23 21 86 59 48 -33 4 33 26 -58 58 54 9 29 -11 -8 47 3 -14 64 11 49 -14 47 -11 17 -39 43 17 46 -58 -30 2 -8 5 -4 42 -11 40 -11 52 16 -52 30 -7 -13 -16 41 48 17 49 -45 57 6 32 -22 -44 70 -7 -37 61 47 -75 -15 -24 32 -16 -39 -5 -13 25 -7 -31 -23 -80 13 18 12 52 26 115 19 34 -4 83 54 -27 2 46 19 -29 62 -33 34 2 30 45 19 -7 29 -15 23 3 111 10 -38 -10 25 12 -46 27 50 33 27 82 -51 -5 59 43 -36 29 -16 13 63 21 2 -10 -1 -45 43 43 99 -45 7 24 6 -17 49 14 4 -17 -6 33 72 45 39 -28 46 25 8 -53 -61 -11 -4 8 53 30 28 9 50 14 -52 -8 36 120 -25 -29 26 -28 -40 24 22 30 50 -30 -17 -24 14 -32 3 32 22 -29 -13 92 53 35 71 70 61 87 46 6 16 53 70 -47 51 -6 -37 29 -30 20 25 12 6 -23 43 -4 38 34 -15 -35 75 21 -12 67 2 78 10 21 -88 33 18 16 -3 -1 9 72 -20 7 -73 -5 -2 39 16 -13 36 33 -33 -18 -4 57 33 28 -10 29 -20 -24 30 -13 49 26 33 73 -20 44 89 21 45 -15 3 11 -48 -2 62 51 -38 72 46 52 20 77 68 -10 -32 66 -61 -16 56 27 69 -23 61 2 14 15 8 -15 7 26 40 -35 -28 -53 -22 56 108 112 73 -3 12 9 36 7 27 12 50 45 22 14 14 42 8 19 48 25 77 58 3 64 16 8 10 0 -24 -38 -9 16 -12 33 -2 39 -14 -47 -18 -24 11 14 56 24 33 9 45 57 85 -47 -14 23 -41 8 91 41 -70 8 50 98 -17 45 -72 -8 -2 -17 -37 80 93 -37 5 42 2 62 36 -27 106 -57 -29 88 -76 -18 -20 58 -40 7 27 25 -25 -9 -27 -14 78 -59 -31 -39 26 -7 -82 48 83 8 -36 66 -15 6 -24 -18 -3 -6 -28 8 107 78 -40 -50 -20 107 25 85 -18 0 1 34 15 5 -67 -18 -10 63 55 -5 -7 71 1 -14 2 9 101 47 24 -39 -10 53 32 15 -35 14 44 49 17 7 -22 -23 67 20 79 81 -47 32 -5 -19 22 -67 -24 -14 -37 104 50 5 -15 30 86 -10 -17 -19 -6 14 -27 46 29 24 37 19 -22 -5 -9 45 19 56 2 -5 51 -1 16 32 -1 -44 -17 77 13 -85 36 36 28 -44 21 -58 44 7 50 11 -4 87 -51 47 -15 5 -64 -29 -57 -21 19 -7 -116 -48 27 -11 74 46 28 8 -75 -30 38 -9 57 2 27 8 14 -8 7 -36 48 -26 42 -12 38 48 8 20 23 -70 1 -10 53 -59 52 -1 59 39 18 6 33 15 62 68 -20 31 -4 64 29 31 -14 44 -32 10 67 -2 -50 4 30 6 46 -10 -78 -22 -1
-9 31 8 54 16 5 2 -10 -18 14 -2 -16 -11 -15 76 -25 2 -81 64 39 -16 -7 -18 -5 -47 -14 22 -6 4 -70 19 -6 -4 -13 40 -32 47 -20 -42 13 -78 3 -10 -47 67 -21 -40 -41 -53 -80 38 15 29 54 -22 -59 -55 -5 8 2 66 -1 -10 -33 -5 21 23 -52 60 32 44 39 -68 -37 7 61 -63 -2 -11 1 -28 39 -29 -28 -16 71 63 -60 62 -81 -103 28 -1 61 73 -33 32 -29 7 -40 -18 -84 44 26 -14 -67 -20 5 -74 104 27 28 -42 4 41 -6 23 -25 -11 14 -1 13 -18 -50 1 -17 -9 -80 -17 16 51 -15 10 -54 -24 -31 -23 6 -9 -16 8 34 -49 -20 3 30 -68 -35 -42 -49 -9 33 4 13 -11 -19 -52 8 36 1 -56 -32 -35 -9 -26 4 -8 -40 41 -55 29 46 21 0 -16 -18 -66 33 31 -8 -50 14 27 -15 -31 -13 15 -44 5 -3 -14 17 24 12 -2 -8 17 -10 7 2 -48 -35 -15 -67 -51 15 -8 1 -33 -36 -11 -5 18 -20 -24 14 -12 -17 3 -23 -4 77 1 -6 -66 61 1 -29 -16 -3 -37 -31 33 -40 -28 39 -60 -26 48 -60 -21 -63 -8 -45 -17 -5 9 16 -5 -56 -33 -2 38 -5 11 25 -43 -58 -18 -45 7 -11 18 -6 3 3 -105 51 59 -17 -43 42 3 -28 -99 0 -11 -36 -36 -52 31 19 -54 53 -76 -13 17 47 19 89 -27 -24 0 -18 -48 20 44 -19 -7 -17 -17 6 13 -18 55 -3 -17 -82 3 -47 -43 -47 -48 -37 -29 71 -55 9 47 23 -6 14 26 -54 36 -8 17 -33 3 7 15 22 8 -10 -14 -1 -50 -44 22 5 -15 -9 -40 -18 -7 -3 3 31 59 21 42 -39 -12 -10 10 14 -11 32 -24 -12 -51 33 -80 26 -12 -5 -29 55 -67 48 64 -3 -47 -19 -20 36 -25 -42 -41 -10 -76 -29 28 -2 15 -12 52 27 10 41 -30 -24 38 -36 14 0 -6 -15 -34 -21 -27 13 -38 -21 -41 33 -21 -29 -66 11 -26 16 16 -57 -28 0 7 22 11 49 -20 -57 2 27 4 -47 -36 -57 26 -127 -58 -92 -29 -9 -82 27 1 -74 -9 17 -46 4 -64 -4 -27 -46 -1 22 27 -55 13 -35 51 -37 14 56 78 30 21 -28 -78 -21 36 -34 2 -30 -41 -48 17 -32 -23 41 49 -19 -20 -18 -4 -1 -30 22 -20 -32 3 -71 30 -3 -29 38 53 19 -56 -39 16 -37 -11 52 -6 -9 -5 17 56 13 -19 -6 -70 -55 17 -29 25 28 -23 -96 -3 -68 111 -47 -4 9 -54 -27 38 -69 -27 26 26 -39 20 -26 -10 -30 -6 -38 -1 48 3 30 44 1 11 26 -30 -21 0 7 74 14 7 31 -45 -21 -9 -8 -12 20 -51 -21 -26 -64 13 22 -55 1 95 -1 20 24 -4 -39 -61 -12 -68 52 19 3 26 4 -47 -32 -11 -65 11 24 -44 -30 -23 37 8 -2 3 -9 -51 44 4 62 -40 35 3 46 -37 -63 -9 -54 -33 15 3 -52 10 -41 -53 21 -42 -11 -28 33 -14 -36 -13 -9 -39 -52 5 -51 -71 3 10 -10 -72 29 -94 -2 98 13 34 -66 -24 61 -69 -57 27 12 12 28 38 -27 40 -26 90 -16 -27 -9 4 49 10 21 52 -13 33 -33 -43 -9 -14 -70 15 57 -4 37 -20 1 -3 -44 25 7 7 18 -65 23 11 28 25 -41 -22 11 -42 -3 7 9 -55 18 -27 -22 -111 -68 -58 -7 5 -23 -3 -25 43 34 6 12 -3 -41 1 -16 -26 -51 -4 -80 -21 13 -44 31 -89 7 17 -39 -27 49 -16 49 -32 -60 -1 2 -48 10 41 45 28 -26 17 -9 25 -17 9 -47 -23 -61 9 -17 10 -21 -70 28 -127 4 -9 -5 2 7 -22 -21 -103 53 94 -8 -48 35 -11 44 -10 -32 -10 -2 23 -49
-18 -4 45 -3 33 10 -49 30 27 15 -6 -6 28 0 16 -41 -1 -14 23 21 32 29 -54 10 -33 -29 -11 37 -6 53 17 22 -34 4 16 -11 -4 8 -23 -3 6 24 22 -70 -7 76 23 -23 -11 21 -1 -8 25 -8 -16 17 70 -31 -45 38 25 -2 -13 7 24 -17 -7 -41 -8 84 2 35 16 57 -11 3 -2 0 -13 9 7 -12 1 51 23 -27 -19 32 -6 48 -33 58 0 91 -14 11 -35 33 -25 -70 6 -52 36 12 -41 -22 26 31 19 8 16 32 75 -51 7 25 17 50 24 0 12 -24 -8 33 32 19 61 33 51 27 -45 -2 35 -59 12 -7 -52 -77 1 15 14 5 -5 51 -15 19 -17 25 21 -15 -24 13 -51 -71 10 1 -13 3 7 -24 -14 10 7 12 116 26 -44 -71 -9 -12 13 -6 40 14 -17 -9 21 15 -40 -40 -19 12 112 -6 6 18 15 -14 -4 -43 25 59 46 29 36 29 1 57 -63 11 24 1 -9 -33 6 -31 -30 61 -2 -14 33 -5 -43 -51 34 53 6 7 2 4 21 10 -53 37 31 -18 12 -9 -33 26 24 31 20 -4 -10 -11 21 -37 21 -6 23 39 -13 -21 10 16 1 0 11 5 22 4 63 80 6 -18 51 -40 26 -25 -43 18 8 9 -11 -9 -7 74 -45 34 29 -23 -45 -19 -21 -60 -20 -36 -7 4 -4 35 1 -28 16 -22 -4 21 34 -22 16 2 -33 -15 15 -1 54 -34 16 -13 -40 82 -30 -10 -4 -23 -3 -16 -27 45 52 58 73 20 24 12 33 -3 15 -4 -46 31 -49 -104 -53 -21 -20 16 18 -5 -21 -22 -20 -39 -32 4 11 1 -13 20 63 -79 36 11 31 39 -4 18 33 -21 23 32 44 -19 10 -39 10 2 71 24 -39 0 81 -21 -32 -28 51 -13 7 39 5 -9 -19 -18 7 -72 11 6 -5 7 41 -14 14 19 -12 -10 -33 -42 -18 62 -22 -102 53 -28 42 126 13 23 1 32 26 -39 39 -49 20 -20 -5 21 8 20 32 -17 -17 33 -6 57 23 76 -38 37 -40 13 31 -9 -21 0 11 -5 5 -60 -4 52 -59 11 -3 -13 55 3 -4 17 19 -33 9 -39 36 0 -7 2 4 34 20 5 -40 9 -31 15 -5 42 26 -14 -10 56 -39 8 -21 12 -18 40 45 -24 -59 44 16 49 11 -21 1 -10 -30 14 11 -26 61 -5 -37 -40 37 -44 29 24 -9 7 35 -49 5 12 -5 14 41 -66 -108 -42 -11 -40 31 -52 -28 -46 2 -36 31 48 -10 -25 72 8 -17 16 -16 -51 5 -35 15 32 -9 8 22 -5 46 25 7 16 22 -51 -21 -4 21 -2 32 27 17 -2 16 40 -18 -19 -18 -43 -21 -3 -11 2 3 12 -18 -17 65 20 -37 36 -30 -57 5 -56 60 9 27 -45 5 48 -20 -69 33 47 -3 -7 -50 -27 2 -40 40 -10 35 4 55 8 18 16 -1 8 -40 49 25 -34 -38 36 -28 60 -53 -16 2 26 2 53 17 19 -23 57 -10 -1 0 -25 -8 -22 40 13 -63 -45 19 43 -25 27 -11 1 -10 62 -1 1 -33 47 -6 10 43 -31 59 -19 -34 56 -78 -39 37 -11 15 -81 31 -47 55 49 -27 -64 25 -25 -2 8 -46 1 -38 -13 3 26 30 96 -10 7 -21 24 -61 3 -13 -60 -5 -63 -35 31 36 -52 10 -50 14 -23 50 -5 -8 -52 -19 8 16 12 87 21 80 -17 -23 -23 15 -4 47 -2 -37 24 43 2 47 -23 21 32 37 -23 -13 -49 78 14 52 10 39 -36 -10 -31 5 7 -9 2 -38 -13 15 -44 42 -48 43 33 48 -14 27 1 3 -7 5 5 -32 70 55 -58 -60 -35 12 27 -16 20 -72 16 -41 16 -4 -1 25 5 17 -25 -38 36 16 16 -25 -36 -6 0 -9 17
