18
-1652
-1132
-977
-6993
-1345
1571
222
4604
-1380
-6813
-1696
872
4377
-492
-844
-6351
-1000
-697
4968
-2505
-2861
4585
-2579
-556
1298
-274
7039
825
1398
-1192
-3490
2242
-929
946
1268
320
1690
5939
4578
-747
-2623
2100
-3026
900
-3475
-6631
-540
115
1093
2027
1564
-5725
-2075
926
3216
-1746
-1480
-3173
-1621
-690
-5873
-2027
677
-3322
-1875
1347
-785
185
1873
-3254
-104
-1840
-3883
2677
-1167
-2045
3923
2953
-2432
817
1659
-1870
-837
1508
1146
2147
2052
2897
3822
1678
-1119
-1703
3154
-2703
779
-32
915
-1971
-633
4973
1956
740
1285
1862
-8879
1693
2601
523
1384
-7048
1315
-259
123
1748
4303
-466
-1189
-419
-8681
-289
3802
2046
1595
1092
-346
396
-589
-934
1071
3334
-5890
-4750
3934
-644
-2279
-7476
932
5444
391
-876
-3321
319
-804
707
-2266
-567
-1170
-2065
-363
-1635
953
-114
-3790
1507
-677
2967
-3133
-780
9830
-742
-1214
-2015
4383
-1234
332
48
-2435
-6227
2891
1040
888
-1362
-2936
3010
-2369
486
-2167
-212
-2879
-2624
2125
3194
-1383
-837
620
-2106
1489
2333
3533
782
1195
-2881
6721
2020
-2002
-524
2591
-5787
-1135
-1138
-2118
680
-597
-3617
1370
-3908
-2479
-2115
-1005
-3133
232
-1407
3277
1655
4236
-1844
326
-2554
-147
2513
-1457
-3822
-1258
2234
-4828
1069
3434
2598
-2050
1638
-1389
-7526
5619
3789
731
-2493
-3683
673
4309
-2710
1368
-4280
-247
-145
6735
2988
286
-455
-1918
-7283
-823
881
-1209
4433
767
854
-675
-64
-5601
-109
2788
-3403
2455
4523
4722
383
988
3237
480
2421
1010
-606
4743
2108
-2181
-2900
1231
8543
2252
-2078
3055
-5552
-581
-408
2565
834
6814
2869
-1500
-566
1833
-2645
781
-1461
169
1881
-626
-4680
-2544
-7270
-5481
-1400
-3130
-1208
-215
5242
714
2375
-5637
1713
-3442
-82
-3199
-433
4388
1832
-1295
46
-2883
-1291
723
5073
-2640
-1509
1131
-4059
-5779
-1227
-595
30
3932
1764
1385
293
-470
-2050
294
-752
1056
-2815
1782
-3763
-982
892
5501
-937
-924
-1365
3777
3844
-1203
-3289
565
2481
1113
-748
-233
3169
3369
-301
-13
4305
3203
-2039
-495
-271
4650
1343
-1175
-2301
-1896
127
5361
1221
1333
998
286
2808
484
-3081
-2972
-1276
-1210
-1951
-1584
-1374
-2951
1823
1112
-364
2785
2478
979
-566
-2088
-3696
1596
2933
-2199
2424
343
-4690
-812
-1739
-2364
-1014
818
709
6664
561
-453
1244
766
729
-1583
-274
-695
-1138
-3337
-544
320
-4805
6169
1448
134
-3087
-444
-1750
-299
-2095
-1481
926
855
-383
-1504
1881
1127
-558
-226
-966
4287
335
-4058
471
1662
-3470
1310
806
-3662
64
6946
891
8671
-2740
1550
262
766
60
211
-554
-1455
372
-751
-566
-4163
-1338
-1748
-742
-1912
-1734
-1898
-1876
-2209
514
-1603
693
4846
422
1790
353
-20
2611
289
3967
-3933
2380
749
1956
-1135
2399
-68
-2339
-155
247
2596
-1094
-14
2346
3149
-2774
-2082
-205
796
954
236
-217
790
1955
-3298
-742
285
-2463
385
521
1571
1965
-385
3616
-5580
-6771
-5279
242
3569
771
-2683
5346
-1126
1362
260
-771
855
6289
-3197
6841
2746
-148
632
686
-1259
-2909
2175
824
-289
-1258
-745
-960
-773
-3991
-2545
-896
-2948
-751
1544
1249
3736
196
4914
1151
-3215
-1650
-10805
724
-916
-3454
3732
1163
3505
219
96
8827
358
-1629
-2660
-3739
-797
328
4329
4078
-1250
-557
2112
-1378
1002
1211
1634
1390
500
-2308
-729
-2579
1288
1702
-1986
-2322
-4720
5195
-1259
-1780
-567
2431
828
5358
-4046
-3638
682
2910
-153
484
3510
-3596
2224
403
-2560
-1995
1446
56
-3638
-829
53
-4826
129
-208
2285
5283
2274
4726
5241
-135
2423
2
-805
-1023
-1883
-2631
127
1613
-152
-1850
-1708
2887
1347
1288
-51
335
-2470
-1637
-1913
1924
-387
87
2210
189
-1484
1160
-1969
1687
-1462
1682
-2086
-2703
1511
82
1778
7440
-4432
1793
-181
-1357
-1661
-3645
1389
3568
-651
-451
-230
5124
5385
-808
2214
-709
-1847
164
-4821
1055
1136
1286
-946
3584
-909
1650
-532
1006
1143
1030
74
-1678
351
3008
8711
516
-1197
661
3170
4206
2835
255
-5199
2568
1159
-2236
903
-1560
-244
397
-4640
3550
-3503
-3388
-78
2213
-196
-1501
333
448
3362
4356
-3498
840
-4874
615
-640
-2577
-2787
-275
3889
-1485
1795
-1621
881
4827
2930
917
-534
-2457
76
1255
1554
-3230
1255
7153
-4164
6376
1757
-4177
-1144
-1699
758
-3394
795
370
-276
-836
-326
-631
882
-3228
132
