-24
-156
-140
231
210
48
-28
-21
53
-64
-94
-117
117
209
65
-82
169
-199
-141
-8
59
46
-151
-24
-40
-26
93
-202
43
22
102
239
149
43
-215
103
-150
-198
117
-107
211
-345
95
-224
-121
119
-6
-101
-86
-144
-180
-34
26
0
129
114
-44
120
-73
83
28
141
-11
-4
89
-78
-56
-178
-49
-218
-128
-91
124
-21
-171
80
-61
-297
-231
136
74
-215
-147
55
28
-430
46
71
-200
4
222
90
36
154
-53
57
-36
-127
-9
-109
16
33
-133
68
73
119
-125
-4
-88
77
-29
164
-118
299
-122
-22
168
74
-117
132
98
-103
-101
384
296
219
159
-76
-21
-150
91
-51
89
-155
64
90
206
109
91
127
-162
-66
98
202
125
-110
3
-177
-149
-17
-63
22
26
-66
-80
-16
52
183
7
304
-91
193
-79
-50
56
190
-15
-8
33
196
112
-78
63
-73
278
-1
-14
99
-53
61
42
-187
-9
-103
93
63
21
-30
-75
71
-80
24
78
115
-154
3
-69
2
204
-43
-143
-40
-195
-135
187
141
-56
63
111
51
222
-255
55
209
-276
-49
142
-144
75
-89
59
162
48
-201
35
133
-30
130
30
84
-30
-10
-85
-112
44
-79
-103
144
-27
-48
-350
163
-48
130
-51
-13
52
-162
-137
283
-43
-123
-93
-49
178
-51
59
3
-218
23
-76
142
57
47
61
36
-15
143
41
-64
-115
-58
-7
-66
-136
107
-82
158
-151
338
308
76
45
126
122
-35
78
-182
-124
166
-57
115
-119
35
73
-246
-65
184
-86
-16
237
-13
5
107
61
164
63
38
-16
124
26
-73
136
148
6
-154
-6
-19
29
11
-42
109
-250
12
-88
192
-208
102
96
-41
138
-54
-115
99
126
9
134
63
192
-16
194
-155
192
-180
180
-91
54
-17
36
224
-131
-170
-118
-61
-33
123
59
94
-22
-73
-58
149
98
-178
80
-55
2
-8
-39
-118
173
-56
-167
-103
30
48
130
-21
10
-8
93
19
-332
-22
-164
113
42
147
-125
-268
46
-162
46
54
115
85
522
-10
48
-17
-17
25
232
110
-27
-89
-431
-69
-98
-189
100
58
-242
-141
-171
110
-182
-90
-212
41
-159
-9
88
-196
232
198
1
17
-6
9
-55
187
-93
-24
214
-47
-9
205
31
-136
-73
6
104
51
-4
-169
74
-71
-101
173
-64
-105
-14
-444
144
8
92
76
1
-60
-105
-53
-40
62
166
175
-145
257
-64
64
131
135
180
-81
148
-189
-110
222
-21
-14
91
122
-43
66
-104
-17
10
33
265
137
-225
-89
96
37
340
118
-236
-220
-337
20
-57
116
-48
-55
-59
174
154
-15
-173
119
-63
115
-125
35
-35
-117
-40
37
-3
79
111
73
-260
109
-29
103
50
120
-213
-219
140
-39
32
-17
-192
-28
55
40
73
-27
-93
23
-120
291
-45
2
283
63
32
-265
272
287
-154
67
-251
97
48
143
108
-61
-6
-127
-240
-9
-92
247
-18
100
79
-15
-39
187
-94
130
117
66
-116
-168
182
136
-7
-189
13
-4
64
9
16
-77
245
-148
46
-177
-141
78
-85
15
111
43
41
160
-282
-131
27
72
-19
276
43
27
77
-7
30
517
121
178
-54
-65
-23
-43
-109
-91
88
179
4
19
-1
20
82
-174
113
3
-140
-161
166
29
-39
102
42
-50
-102
106
2
18
160
-168
-15
140
-30
122
47
-75
-113
-28
-89
54
-93
153
9
9
195
150
54
-111
-57
46
-2
115
-55
-102
225
147
-99
132
-40
1
33
-87
53
-96
18
163
103
-11
79
-18
-50
186
-174
70
-242
31
62
207
56
-35
11
-204
53
-121
-180
-72
-24
17
19
-127
49
110
10
-79
-227
121
-43
202
-40
-4
95
-230
-270
-8
-48
247
-3
12
101
9
-62
46
-2
71
-21
-204
136
-171
-5
-188
21
-29
158
-139
111
-174
-235
200
30
-34
20
40
91
-128
175
-34
34
-161
105
-101
10
-100
-107
44
-90
-22
-47
15
-31
-28
34
154
-76
63
