0
1
-1
-1
0
0
0
1
0
0
-1
0
11
0
0
0
-1
1
0
0
0
1
0
1
1
0
0
0
1
0
0
0
1
0
1
0
0
0
0
0
0
-1
0
0
0
-1
-1
-1
0
0
0
0
-1
-1
44
-1
-1
86
1
1
0
0
1
-1
14
3
-3
1
0
-1
-1
0
0
1
-1
3
1
0
0
0
-204
-3
0
1
-2
-1
0
-27
1
-1
0
0
-4
0
0
0
4
0
0
-1
1
0
1
0
0
0
0
0
-228
0
-1
1
-1
1
0
4
0
0
0
-1
1
0
0
-1
1
3
0
0
1
-1
0
1
0
0
-74
0
0
-1
11
0
0
1
0
0
-1
-1
0
2
0
0
0
-2
-1
46
-1
-1
0
0
-1
0
0
1
0
0
0
0
1
1
-1
1
0
0
1
1
-1
-1
-1
0
0
0
0
0
0
0
-1
0
-1
0
2
1
1
0
0
0
0
1
0
0
0
0
1
0
0
0
0
0
0
0
-26
0
0
0
0
0
0
-1
0
0
0
0
0
0
0
0
0
0
0
-1
0
0
0
4
0
0
0
1
0
0
0
0
0
-1
0
0
0
0
-1
0
-1
-1
0
-1
0
0
0
0
3
0
0
-8
0
-1
0
0
-97
1
-5
0
0
1
-1
-1
0
1
0
1
206
-1
0
1
1
0
150
0
0
0
-1
250
0
0
0
-30
-11
-12
0
0
0
0
-1
70
30
0
0
-76
0
40
-109
0
0
-5
-1
1
0
0
0
0
0
0
0
0
-5
0
0
1
1
0
0
-2
0
2
1
2
1
-1
0
0
0
0
0
1
-6
0
0
0
0
1
0
0
-39
0
1
1
1
159
1
1
0
0
-3
0
0
-7
0
1
1
1
1
0
0
0
-3
-1
-1
0
-181
1
0
-95
2
48
-1
0
0
0
-1
0
-1
-1
1
0
-1
0
0
1
0
0
0
0
0
0
0
0
0
65
1
0
0
0
-1
0
-1
-12
0
0
-1
0
0
0
0
0
-112
0
-1
-1
0
-1
0
0
0
0
0
0
-1
0
-1
1
0
-1
0
1
3
1
0
0
1
0
0
1
0
0
0
2
-1
-1
1
-65
0
0
0
-1
0
0
0
0
-1
0
0
0
5
0
-8
-3
-1
0
0
0
0
0
2
-1
0
-1
0
0
0
0
1
-1
0
0
-1
0
1
0
382
0
-1
-1
0
0
28
-2
0
1
0
-3
0
-364
0
0
0
1
-175
0
0
0
-1
0
0
0
0
0
-1
0
1
-1
0
0
0
0
0
0
0
0
0
0
0
0
0
0
0
1
0
0
1
0
0
0
0
0
0
0
0
73
1
0
0
0
0
0
-2
0
0
1
149
133
0
0
0
-1
-1
1
0
0
0
0
1
-147
0
1
-1
4
2
1
1
1
-1
2
0
0
-1
0
-1
0
0
-2
0
-1
0
1
0
0
2
-1
188
-1
1
1
1
0
-1
0
0
0
-1
1
0
0
-1
0
1
-1
0
-1
-1
-2
0
0
-109
-1
-1
0
0
0
0
1
0
0
0
-1
0
0
0
-1
1
1
1
0
0
0
0
1
0
-4
0
-1
0
0
1
0
0
3
2
0
0
-1
0
1
10
104
0
76
1
0
0
0
1
0
0
0
0
0
-1
0
0
1
0
92
0
-1
2
0
0
-1
0
-175
-7
1
0
0
0
-1
0
0
23
0
-1
0
-1
0
0
-22
0
0
0
0
0
0
-4
-1
0
-1
-1
-1
84
0
1
0
71
0
1
-1
1
1
1
-1
1
-1
1
-1
0
1
-1
0
0
296
-1
-1
-2
74
0
74
1
-1
0
-4
-5
-1
0
0
-63
8
0
0
0
0
-1
4
