133
4
-359
49
72
22
46
-67
-75
-10
-66
62
-287
301
68
12
186
35
40
64
8
-37
83
-69
135
130
-112
18
-1
-335
89
46
213
-132
-586
504
-161
-31
38
45
67
-143
-75
10
-141
8
152
-111
30
401
-41
-37
74
-79
57
30
-132
197
490
-17
5
-168
18
-32
88
-3
-57
363
-4
-136
-83
53
-35
68
144
-126
22
-70
-30
6
-33
-34
93
43
30
174
63
108
26
-26
288
-23
28
30
-80
203
86
187
34
-17
-31
-169
36
86
-20
-43
-54
264
99
-408
34
-153
145
-129
25
231
-105
45
54
42
-14
-92
108
227
-94
-19
-66
113
-1
109
405
-259
138
-171
-188
211
-99
-67
378
-65
-476
232
563
-374
553
147
255
373
324
12
108
101
-539
309
401
-284
-518
-97
332
510
-69
-208
-442
277
-281
-28
-501
52
-87
264
-117
8
54
60
-119
-345
230
-85
532
-113
26
27
-260
134
-66
251
631
170
102
70
-32
244
-127
-214
-27
137
25
84
-158
-85
71
27
-387
48
357
563
-107
71
164
47
49
-79
46
111
-260
-71
-4
23
-15
-10
128
-102
227
-44
-28
74
-7
-396
-14
60
-72
-67
169
73
68
-57
-53
-156
-162
-235
93
-36
2
-9
292
61
-69
245
126
444
65
86
-84
-96
158
39
-304
-24
-64
-256
66
-262
259
14
445
-435
-432
152
-365
-407
164
-129
7
269
17
102
441
-147
120
-14
167
689
-168
153
89
-68
17
42
109
-4
290
189
-406
373
-58
8
-72
-187
-123
43
489
-56
52
-256
214
-141
-466
-36
-57
77
-191
-181
137
-306
130
-220
20
-244
-146
-43
-12
6
255
19
86
-208
-5
-2
-36
-42
149
-96
-72
-69
33
71
-108
-179
163
12
-288
-36
148
-126
-112
74
-6
108
-127
-461
49
70
78
-104
332
-45
124
194
9
205
95
79
114
-58
75
64
146
210
-35
-288
-224
-68
-14
38
-52
337
-48
151
-743
-181
165
-9
-93
46
-98
-82
-30
34
0
98
97
-158
-98
-261
-73
-9
114
-176
-78
-66
-138
-30
-233
49
11
-228
294
-28
36
-72
47
-80
90
-517
-21
-9
46
-26
150
125
50
109
132
-14
216
234
-22
-19
85
-129
-170
114
112
-152
8
-303
-208
29
-208
39
98
-18
-60
40
-203
83
-174
59
403
40
-181
165
-101
23
-14
113
-164
-92
-50
40
-163
-219
292
-113
169
382
-280
103
-348
-124
-255
76
554
10
492
-184
-182
517
-70
67
-63
-76
86
504
-307
-373
-150
74
-174
521
-142
476
-328
-146
337
220
132
547
21
278
-133
-36
265
454
233
271
-169
554
18
-139
-200
142
-10
-245
-29
-149
-146
590
29
-97
118
-6
-69
57
89
-96
-123
90
-34
-44
18
-39
-1
116
-73
-38
90
-10
-31
-344
3
114
25
-137
-100
16
-64
43
-42
-68
-535
100
-172
-33
175
-46
-83
-105
14
219
58
56
-14
1
29
31
-226
-112
96
-75
-130
14
-51
127
-21
-24
-55
118
-25
-83
-75
-87
-77
-186
74
-136
62
-156
-9
-19
-12
426
-64
162
39
139
-30
-214
85
-40
-123
23
-117
19
-74
-65
57
-74
-82
-164
132
30
-53
196
182
50
15
100
127
32
-45
-38
-21
-72
-25
53
-22
116
-72
34
-18
352
90
-66
-64
95
-108
-103
60
205
-552
22
85
-226
26
86
58
-24
-70
10
17
-71
-43
304
-125
25
-93
-105
-353
92
-70
-37
291
-19
75
392
-17
-53
169
120
-163
0
-176
-163
-592
-129
-46
34
-21
-110
228
-220
-121
-114
-141
-97
-254
-77
121
15
30
81
270
-236
16
36
-31
46
-34
-37
-108
-142
-329
279
73
22
43
201
-26
-9
40
41
-20
-150
63
-280
42
-57
-174
20
-70
191
-302
-2
1
10
-104
-111
-69
74
5
13
-193
145
-508
66
-57
93
215
11
78
202
-76
205
-54
-102
140
242
152
-15
139
-18
-126
-38
-1
-205
138
211
12
173
37
-210
-139
-248
140
-44
103
28
