7 23 1 -2 -35 0 41 -44 47 15 29 -18 42 65 33 21 -30 46 32 -57 36 11 17 -33 -20 -4 -40 -64 28 16 67 45 -7 -50 2 -20 17 18 8 -82 -16 -13 -58 9 36 61 -11 23 -15 0 -6 23 31 64 -4 27 -53 -10 -9 25 5 1 -41 -9 -60 -2 -21 49 -73 -8 -19 -24 -41 -21 -49 -3 41 10 -28 -19 -39 20 19 18 -12 0 5 31 68 -89 -34 -6 14 -10 -30 -11 -84 -48 20 2 27 53 34 -33 35 -9 -6 31 -8 82 3 39 -21 -41 58 -2 26 49 101 -23 -83 13 -8 7 -18 12 -51 24 75 31 35 18 -2 -22 -37 -58 -30 64 -36 46 72 -76 22 3 -18 34 -57 -16 22 -44 -34 12 69 -7 -5 15 -15 17 3 -54 -22 -50 -13 28 61 -12 6 -9 19 -13 15 5 -28 33 -18 -17 20 9 55 7 16 56 37 -39 -62 -2 -57 10 22 11 -28 5 4 -14 38 33 2 -7 -4 -77 15 -22 -18 23 -10 31 24 121 -62 -52 1 -16 -31 18 23 -32 14 14 -10 12 23 -9 -4 -13 9 3 9 67 2 6 -41 -30 13 38 25 16 -4 16 5 -26 -22 -60 31 -26 8 -1 5 -42 3 -17 15 -55 17 -22 12 -18 -27 -7 -38 -19 -32 -24 -2 -47 16 21 -26 71 -39 40 -23 -32 43 1 43 86 30 -10 6 38 -19 18 8 -91 40 29 -16 17 9 -48 62 -8 -12 37 37 23 3 -16 -21 22 5 -2 -1 -36 -2 25 14 -4 -28 16 0 -2 58 -94 101 32 22 20 10 13 3 -19 42 64 3 -27 41 13 5 -39 19 53 14 40 34 6 29 49 33 77 18 -15 27 -5 -19 13 -42 -5 7 32 -10 -14 -13 -12 35 -21 23 11 -8 21 0 12 6 1 33 50 9 -9 30 58 28 -7 -39 6 -1 23 34 10 8 7 5 -57 34 20 13 33 -25 19 -6 53 -44 -24 22 -15 66 111 11 -4 3 15 62 -38 36 -29 -8 -22 51 43 41 60 25 10 19 -1 -5 -14 -9 18 -15 0 -9 -32 -5 -5 32 17 -44 5 15 66 9 -29 -25 23 32 115 21 -5 -44 -19 35 -10 86 35 34 -30 -7 30 -3 1 40 -39 27 -13 -78 -127 30 25 -49 -37 -30 -32 107 7 24 0 49 -13 -47 -23 42 8 -5 79 -52 -34 13 -58 -72 50 35 -20 36 -22 -14 -86 49 31 21 -72 7 -24 -22 2 -37 13 -9 29 -3 23 -8 -53 -48 -7 -18 -20 45 -33 37 0 8 67 -43 14 -50 -30 -6 32 -30 -15 -31 16 22 -22 -25 84 -10 -17 -24 15 -28 -32 47 41 18 -5 -4 36 -21 -24 -25 16 -5 20 -67 25 22 7 -11 -4 -48 7 -14 24 -44 53 32 -23 -45 -11 -1 -12 2 13 -7 -11 38 21 71 -22 -13 -50 32 38 -9 -5 43 30 -5 -32 12 -26 -55 -15 19 12 16 -81 -3 -16 18 47 -4 35 50 53 -66 3 -9 30 22 -13 -30 -59 -20 14 -8 63 -24 -10 -69 23 19 -5 -10 5 50 0 24 18 -7 65 -23 -10 -36 -60 60 25 2 72 -52 34 -42 7 -5 -15 -33 -15 -14 41 -44 12 -49 43 20 33 -21 10 65 66 -23 -24 -17 -6 12 -27 -21 -20 47 -49 58 -1 -44 -29 -26 -47 -30 38 -41 -40 -23 9 8 6 -51 16 -49 16 16 55 10 -22 -11 29 27 6 4 0 -13 -4 -2 91 62 11 -9 -3 5 84 -3 16 -37 48 5 11 -15 -29 -48 -1 -19 -52 -92 -9 -14 -39 -22 0 -2 21 -10 36 -31 46 -7 31 -30 -19 15 -3 -23 -11 39 9 -2 3 -35 2 -16 28 80 61 -14 -1 35 11 26 9 -36 -31 23 23 28 -6 -9 22 -43 -14 42 -21 -2 -39 10 3 -37 93 -30 -17 28 37
-61 -28 5 0 13 3 57 24 23 -29 -16 -40 50 26 -5 15 -9 4 -3 -46 -51 -29 -59 -13 26 -47 53 -14 13 10 -64 6 23 -21 1 17 -33 -38 9 15 -35 -16 30 3 -63 -7 -38 -17 55 -49 -34 40 -17 -46 -2 -58 -127 16 44 -1 -16 2 28 -6 -2 16 18 3 -30 13 -28 13 30 18 32 16 -22 1 -5 -13 -2 -38 8 -17 -14 -10 -53 32 5 -31 26 -78 -43 15 -9 -69 14 21 -1 -6 -7 40 8 4 -84 -6 -44 -27 -28 -24 1 8 28 -19 53 -14 2 50 38 15 68 -6 13 12 0 -32 26 -3 -26 -19 -29 -16 36 10 -7 -1 -4 -28 -8 8 33 21 -6 -79 28 40 12 16 -26 12 -11 -5 -20 -46 11 -20 -16 2 31 -44 -54 16 31 7 14 28 17 41 53 -2 -5 11 -23 -32 -22 3 33 -15 -18 65 -21 30 4 -28 54 24 -13 20 -74 8 -42 11 -27 -10 13 -22 -35 12 -6 -8 -10 -21 4 -24 -13 -2 -34 16 33 9 10 19 27 -24 -9 -18 -32 1 27 8 -19 8 80 -7 4 -4 -36 -45 24 13 -65 53 -1 11 -7 8 7 62 -61 -5 -27 80 -16 -11 37 15 -4 -11 -49 -55 -47 -56 -46 14 -29 38 9 -45 -6 -21 44 29 -3 -34 16 -20 -21 -34 78 17 13 -6 -14 11 -15 -48 -61 -32 2 58 -17 56 10 -15 -40 -43 40 -7 20 3 23 68 -37 2 38 8 -10 -27 73 -8 -4 32 -3 20 27 -30 -29 -23 25 -18 34 -11 64 26 53 35 -19 -27 52 24 49 10 -80 3 6 -44 -15 -20 5 11 -18 -51 28 -3 31 15 41 31 0 8 7 -11 -22 -22 -18 -36 18 -38 9 30 19 40 79 -9 -10 40 27 17 2 19 7 38 -8 15 -31 64 -30 7 -64 -9 7 -11 -40 -2 6 51 -24 66 3 24 -39 38 -40 -54 -81 13 13 13 49 -1 -21 -68 -8 -30 26 48 -7 23 -19 -14 10 -9 -7 -9 12 1 -29 41 -20 31 -17 27 27 12 -11 -26 -18 -5 -5 -21 -21 19 -6 54 15 -8 55 -10 -12 -43 37 27 -13 -8 1 4 5 -22 21 -23 25 -14 -13 9 20 -32 4 -86 20 8 -27 -20 -12 -25 -34 40 -30 -10 10 -2 4 19 45 9 -16 22 39 -34 -22 27 -42 -14 -52 -15 32 -33 62 27 62 12 10 36 86 29 31 35 -37 -4 76 16 25 5 14 -35 11 -28 4 25 16 -28 -13 -16 -3 24 -36 -35 -21 12 58 29 52 38 -45 34 62 2 44 -6 -9 8 -29 -5 6 19 -28 12 10 11 37 0 -75 -26 -37 -19 18 -44 -14 -29 2 -11 -26 -16 8 -6 -24 1 -16 19 -27 65 0 11 -29 36 -7 12 -16 -12 -7 -17 -65 -2 5 51 -9 -37 26 20 22 27 12 12 60 -6 -4 -30 5 29 27 -21 -20 10 -16 33 4 -29 8 -33 0 -33 -73 -27 30 -15 49 -31 17 3 56 13 16 -27 11 36 -19 15 5 -25 -34 12 76 -9 -60 2 -4 -44 -41 -11 45 -22 57 22 31 35 0 15 -13 7 16 -1 39 32 -19 -71 -26 53 36 -28 27 -10 59 -40 35 -57 -26 -53 -9 0 -9 -2 22 -25 21 27 -57 -16 -9 -59 38 -32 -90 -6 24 13 22 -6 -10 -39 -14 45 39 -45 5 55 -38 14 -17 5 13 -36 -53 46 -15 -32 -13 -7 14 -69 12 2 -4 -35 -26 -30 -16 -85 15 23 -22 -5 74 -15 -23 -13 21 2 -20 21 29 5 -45 -10 12 9 -18 -4 6 8 -3 -28 8 -64 -13 54 21 -19 31 -15 -44 -30 7 -12 11 -11 -14 36 36 22 36 -4 -62 -11 15 40 0 22 55 -38 -11 -13 -28 18 7 -10 -18 38 -6 -104 -71 8 -75 2 -45 -34 -42 -9 40 -21
-24 -43 -26 -19 -29 42 42 14 2 59 -19 1 46 57 -31 53 -63 2 -37 43 -11 52 -13 -6 5 85 -31 -20 6 -10 -58 -17 8 -31 27 -30 9 16 -12 64 19 -33 -22 68 -45 -41 -15 11 -24 -57 -19 -56 -31 46 -12 22 36 29 -40 49 19 15 34 -18 -28 13 21 62 -6 -36 10 -33 3 -13 -5 1 -20 24 8 -15 0 -23 -59 -16 46 3 -14 9 58 40 -16 -27 -84 -41 35 -34 -10 38 36 -45 -1 56 -3 102 68 -18 25 5 -55 13 -7 9 -29 -38 -18 -30 -58 66 -28 -12 38 15 -30 13 -9 -16 -71 -31 -24 32 -15 -20 -65 6 -2 15 -9 -82 9 -27 8 -20 35 60 13 14 93 -26 56 -40 -25 -11 2 -13 3 -6 11 53 2 -36 -94 -19 -1 8 1 -28 -31 -7 -33 -9 -42 25 11 7 -23 -18 -4 43 98 -103 10 -24 -14 -52 -2 -49 -60 -81 41 -25 65 -23 8 -23 -36 -78 -60 13 4 34 122 -6 11 -2 -47 -21 1 92 -17 18 -127 -16 -58 -70 7 -22 -2 6 -13 -21 14 -42 -51 51 -43 38 -6 21 -18 -21 48 6 4 -3 -24 -5 -89 -67 -10 28 31 -27 19 -37 16 18 -16 -18 25 18 -42 -61 45 -5 21 25 19 -2 -33 -12 24 -7 -74 -103 6 10 -71 -10 -5 -40 37 37 60 -55 -23 -17 30 1 12 -63 37 16 -33 16 -10 1 38 55 3 -24 -34 17 -4 59 27 -10 -7 15 -13 -34 -6 -22 44 19 50 28 -27 -36 -1 6 -28 10 4 36 -30 -46 -39 -7 -3 -12 37 36 19 8 6 -1 26 -9 32 -79 27 2 -34 -64 -61 -26 71 -5 -4 -44 -4 -68 -8 -51 35 -15 -23 -33 -28 -20 37 -49 -3 24 -31 42 -50 -10 -56 -15 -14 31 -6 -3 37 49 30 -16 32 21 0 9 -72 -31 -14 -74 -38 -13 -11 -57 -43 -71 -40 12 -10 41 36 2 -6 -102 -23 -16 -19 -42 -90 -23 4 25 -30 -21 -43 6 -23 11 -45 32 10 31 26 29 5 23 -7 -1 -8 35 43 12 4 -37 3 1 -25 27 -20 -3 -15 -34 -31 -51 -28 -30 -21 -34 14 49 75 31 28 51 -17 -30 -32 -19 4 -33 -7 68 66 -5 -24 -71 -50 -1 -67 -27 37 12 6 -39 16 -33 -53 -56 -52 50 28 1 -48 10 42 -13 41 -39 -17 16 12 -28 -74 -42 31 -33 39 25 -91 -6 -8 35 -8 -37 -82 -11 13 69 -82 24 15 -55 22 -7 -5 -51 -90 13 -7 -72 -35 6 21 44 -17 -5 3 -39 -23 -58 49 24 -49 -21 45 16 90 19 -29 46 25 -9 -58 -53 -1 0 -3 -45 -1 6 -3 21 -33 -17 19 15 3 -82 -63 13 49 18 62 7 -13 44 27 -39 -3 -43 1 12 -48 36 -36 -45 -46 68 2 -38 29 -74 -11 -23 47 -49 -87 18 58 -43 -54 2 -6 -11 27 -53 13 -15 -27 20 0 -16 -14 22 6 28 69 38 3 -58 -52 16 -3 -20 -18 -39 4 -8 6 -49 78 71 -24 -12 -85 -74 30 -65 7 -8 -25 -29 22 0 8 -17 12 -49 42 23 -11 -67 -58 -12 -56 -42 10 -11 20 -41 -69 -34 9 66 10 -30 74 -29 19 42 -22 -30 34 -46 -28 38 -29 20 22 31 -30 70 -7 24 20 -21 -8 25 -79 -30 -2 49 27 -38 13 67 -47 -85 1 -15 0 -29 -41 -36 -11 49 -27 2 -50 26 -49 -27 -2 -22 -42 -45 47 29 -22 30 -31 -44 9 -31 -42 -14 -37 -32 -34 -50 -5 35 57 -2 -74 -26 14 -48 -18 -10 27 5 -16 -6 -32 -2 -6 42 -26 -18 -25 -6 37 -42 -39 -36 -39 6 5 14 -24 49 -18 -18 10 21 9 -43 30 -60 -87 -5 -29 27 -26 3 69 63 -65 8 8 46 5 22 46 -14 -24 78 4 24 -98 -49
-26 52 -72 22 1 -4 -24 -91 39 15 -14 8 -36 6 -7 35 6 -27 -12 -66 -12 -46 -11 -14 4 20 22 33 24 -10 -36 30 -41 33 32 -114 12 27 74 51 -16 -21 5 -9 -7 -20 19 -10 -1 60 35 56 52 -12 -43 -18 84 -30 3 -62 -25 35 41 50 37 -59 -4 6 -53 -49 -20 -49 -10 31 -14 -29 65 10 4 4 47 -34 -12 -12 79 -7 23 5 2 -44 45 38 5 -37 38 -16 12 35 50 -32 -16 57 -30 5 -54 -5 -13 56 51 46 4 -51 15 -9 -26 -15 23 39 13 10 -7 62 29 -5 -10 0 6 13 8 29 54 64 56 5 85 44 35 50 45 5 -30 55 6 14 -34 -32 29 -44 0 29 -60 -3 33 14 7 11 -14 52 9 6 3 6 40 29 2 24 11 30 62 38 -15 -15 3 -36 67 -15 -6 33 2 23 -4 -45 -49 -19 -39 -16 -25 -18 -38 -90 52 7 -38 -38 65 14 -12 54 -18 43 28 8 21 -6 -17 40 13 14 26 -30 16 -6 10 28 13 23 -10 11 -25 16 -2 -10 36 39 24 6 55 41 -66 14 -6 4 -59 36 -2 36 74 27 -50 -32 12 -9 -29 -38 -67 -17 -4 -9 -110 55 -32 -7 -17 63 -8 -64 -63 -51 27 -10 -1 29 53 11 -35 -32 -29 -35 73 80 -37 55 16 16 43 -39 29 2 43 13 47 -35 33 79 38 -74 20 -19 -37 60 -63 -15 -26 -30 -4 -31 -42 -28 -40 42 15 44 23 28 -2 -41 -6 18 -42 3 19 24 -80 34 31 25 -54 62 66 -43 -53 38 -22 46 -15 -33 11 14 -4 17 -17 0 -2 32 16 -10 9 37 59 -35 -5 -25 35 -16 11 14 -48 -83 2 -52 -30 -13 -75 -4 -110 42 35 8 39 27 -19 -1 -45 -13 -30 -35 13 36 58 13 -16 -32 2 -23 -31 -7 27 14 12 0 -29 3 -19 -17 -28 -10 8 16 54 24 12 27 23 16 -112 51 -16 36 -38 46 -26 48 92 7 -46 13 1 -1 10 -2 -13 26 50 11 35 29 11 -4 -39 -19 -32 -18 32 -6 33 -28 69 1 -10 1 -4 -6 -6 -9 20 47 16 -23 -20 -35 20 -21 -44 -33 -25 54 -20 -85 -7 -62 24 12 75 9 -35 -31 11 7 38 -35 42 -17 42 -27 -6 10 -35 6 -10 -47 -66 -75 -29 -24 -33 -80 -127 -1 -10 1 -57 43 27 -63 6 -37 79 66 -45 -9 8 -2 19 29 66 15 -7 -12 -79 -46 -57 101 0 -38 11 26 113 -24 -35 -77 -85 20 39 -41 46 19 -33 36 20 31 13 78 -7 -67 37 9 37 -44 43 22 -8 -19 -81 48 -16 -57 -13 -40 32 -17 10 -32 19 25 -53 -26 -1 18 -16 16 -16 3 -24 -34 8 63 -25 -16 39 -21 100 16 2 2 26 -13 -86 10 18 7 24 -26 20 -22 -2 -24 -47 -29 35 54 21 44 31 26 3 -36 2 -16 -5 15 -48 20 36 -22 -8 24 -31 -51 -5 17 -25 29 -22 -81 11 29 -3 -15 -5 -34 72 -22 17 -63 35 -33 3 -15 -17 6 -9 -1 -14 39 -6 -10 -55 20 107 13 54 26 -25 24 -3 31 3 -8 74 -5 12 20 -22 9 1 69 -30 43 16 -60 48 -15 -62 -34 -8 -42 -12 -6 -26 20 -63 -55 -7 6 27 9 33 52 65 14 -64 1 -39 92 12 -9 -12 38 48 26 77 15 -18 -72 72 -1 8 -31 -61 -35 10 -26 51 40 1 -57 4 1 24 6 -41 107 33 53 36 -41 0 -40 -12 -10 -19 -117 -28 -76 16 -31 -32 15 5 -80 25 12 13 -3 -44 85 27 -24 9 -28 -22 -22 5 -18 -29 6 64 -31 -57 -3 -10 56 -22 -20 51 16 34 35 -14 -11 -37 -17 31 -33 19 -24 -46 85 17 -18 54 15 -23 2 -5 -56 41 -2
126 39 1 -29 -9 -5 -13 0 56 -27 -16 -16 -10 23 13 28 -22 -8 -21 9 -34 -21 -17 13 3 13 -31 -32 -3 -21 10 -17 24 -4 -6 -92 -22 16 -13 -44 -3 -12 4 53 11 27 23 14 -4 -22 34 79 53 38 -19 -8 -52 27 29 2 21 41 27 -17 37 28 0 6 -46 67 -8 32 75 -5 -12 -20 -51 -56 11 -29 24 35 4 -8 30 11 2 26 44 -15 11 7 8 11 12 6 52 1 3 8 35 22 25 2 33 6 16 -18 4 -31 7 -23 -17 7 -34 -23 20 23 2 -4 1 -17 -13 23 51 -31 18 -25 48 22 -77 -41 -37 -12 -23 -22 0 -10 40 -36 -1 17 10 -14 40 45 35 7 35 46 -25 66 -21 -36 -7 -6 -38 9 -4 3 82 18 35 23 36 1 1 -28 -36 -40 10 20 -24 34 1 31 -14 33 17 -36 -14 -1 0 -17 3 24 26 -22 6 -16 73 -22 -69 46 12 -17 -16 34 43 7 -27 30 57 -47 -37 -4 8 17 -6 22 6 -23 -3 22 -3 15 -12 3 -4 21 -18 8 -7 22 13 19 42 -8 -21 -1 5 3 17 -21 -46 -7 13 41 -10 4 6 70 -19 1 28 46 -7 -43 68 19 7 -10 30 34 27 20 -96 -44 8 -13 48 16 4 -26 -35 0 3 -4 -87 -4 28 5 20 10 -8 22 6 -27 40 -16 58 15 -3 -9 21 37 -17 27 13 -33 36 -13 -6 67 -5 -14 56 23 46 34 30 41 -26 -18 6 17 28 12 40 -42 8 35 -29 -31 -2 -49 3 10 -35 -28 47 49 18 28 -14 38 -2 -38 -1 24 0 -3 -40 4 -104 -66 84 -29 45 14 -18 -11 -19 -17 52 4 -24 -31 -12 -13 -8 -61 38 12 44 52 11 45 6 -32 -4 -29 48 -20 -3 1 -13 12 32 -55 26 6 -24 44 6 -22 4 42 -17 1 16 37 -20 25 -22 -7 38 -10 1 -59 9 5 37 3 -43 6 25 3 -2 -19 -47 -66 -32 -4 -22 -25 -13 29 35 25 19 10 -2 20 35 25 10 23 28 -24 -21 18 30 19 -12 -31 58 10 36 -19 31 -2 42 19 19 18 -63 -2 -49 -3 -26 -64 -25 48 -30 -16 -23 -8 56 -67 -29 22 -1 13 11 34 36 33 29 12 81 40 31 54 -42 -21 -29 32 27 4 4 83 22 -19 -7 -7 -17 5 -80 -67 -16 15 0 -43 18 -19 7 30 -15 -26 -16 19 -19 6 10 55 66 5 3 -19 -20 -10 0 54 -69 -6 34 -7 -26 -5 -31 -28 -53 -25 -33 -54 24 -21 8 0 5 46 1 -38 -23 30 -10 9 -30 -15 11 -2 -46 -4 -31 13 -35 -21 3 24 -20 6 17 26 64 -13 12 -26 31 40 -25 -4 -35 -51 3 30 41 -53 -62 1 -1 -4 8 -75 -18 -22 -11 -54 -24 24 -32 -6 -19 13 36 17 7 -21 -7 17 20 -9 -14 -26 -31 8 -26 -1 -6 59 61 2 39 72 15 28 -12 8 -15 -22 11 -9 59 -10 32 49 -15 40 2 16 -33 28 -39 -1 7 -23 28 0 -29 -3 -31 -36 44 22 18 31 37 14 -31 -6 55 7 -58 -23 38 33 34 -4 25 9 31 4 -10 -7 -10 -17 -8 0 -16 -21 38 -39 -28 -14 -23 8 -9 30 -31 15 1 6 13 -6 33 5 50 5 -13 -34 -27 87 -23 -13 10 -37 -3 -15 14 21 28 -6 -4 -4 -26 -7 -105 -42 -15 10 -12 -8 41 65 -16 18 -13 -13 33 -5 -24 -45 -27 -19 -40 13 36 14 22 -2 -73 -60 -4 -17 -41 2 27 27 -11 -58 21 -68 -22 24 -18 10 -7 5 0 12 6 22 12 23 37 -11 -15 26 -61 11 -35 36 21 -14 1 23 1 -23 21 31 -30 5 44 13 8 44 -6 29 -32 11 -41 0 -49 30 -16 43 3 1
50 -10 -10 -20 9 23 4 -25 41 11 1 5 9 -45 -42 -41 -14 2 67 -1 27 -16 -3 -48 7 20 31 -10 21 -25 47 25 -25 -28 26 -2 18 11 3 -14 49 27 -25 11 -11 52 -3 17 -21 -9 15 24 22 23 49 -19 -1 -5 13 6 -1 -41 -13 6 60 22 -30 28 -23 14 12 -12 -26 2 -9 30 11 4 -2 -26 26 -8 21 -6 -5 -3 47 -23 20 3 3 23 10 7 -20 1 31 17 -6 -16 -28 -5 -15 -29 7 -13 -17 -15 -7 -32 -3 38 6 58 -41 12 -10 -19 -70 -13 -11 19 -27 -13 17 5 43 3 39 -72 -27 8 -6 -9 -41 12 22 -22 17 56 11 -45 -56 -5 -17 -25 36 -6 17 41 4 28 4 -27 12 -1 9 -44 8 25 8 15 12 -43 -19 -28 -9 23 0 -31 -27 1 -4 54 0 -11 -22 11 -54 33 6 12 -38 -100 -46 30 -49 25 18 -9 14 44 22 6 31 -1 -21 8 9 54 -35 -7 12 61 58 0 -2 34 -5 36 -62 -3 -13 -8 -32 -7 -33 10 20 -21 -20 61 -30 -12 -18 -1 50 -8 20 -66 -36 0 25 -20 -46 -9 34 19 -16 17 34 -16 -44 13 -30 -14 -8 4 5 -26 7 -2 -21 -28 -17 -20 -2 31 17 -15 -60 -6 6 -2 -53 -20 23 -16 -11 -23 -55 1 38 15 -62 22 -47 -41 -4 13 30 -3 -13 -8 -10 5 31 -19 -72 -40 17 -52 14 0 -4 -35 -39 -7 -23 3 16 -23 -7 15 -27 34 1 -9 -22 0 10 -15 -4 24 -24 13 5 27 -7 44 32 47 67 45 -4 51 9 -9 19 -85 -7 20 -15 0 -74 33 5 19 -21 -25 -13 3 -6 25 16 24 -19 18 22 -7 -17 -52 0 -3 -76 -25 6 -44 26 3 9 13 66 14 -52 -30 25 40 19 -54 -23 54 -11 23 21 -5 4 -33 -14 -4 -44 -6 11 28 31 16 47 -12 -4 34 24 41 -1 33 22 -37 3 -36 34 -31 28 -46 22 -4 -54 6 0 -24 1 7 -31 -24 24 40 15 6 15 -27 1 64 -21 16 -21 -9 -6 -41 -17 -1 18 65 12 75 23 46 55 36 17 27 -12 5 34 15 -29 17 -38 -53 33 11 2 52 47 27 -1 11 27 7 44 -33 -1 23 -39 44 -23 1 -6 -17 18 -39 2 67 -65 8 -6 7 53 -8 126 31 -26 -25 48 -85 -5 9 0 9 -1 7 -45 -44 3 23 -43 -32 -1 -50 -16 -26 8 -11 -70 -30 9 42 -26 -4 17 -9 16 36 5 -7 -32 -1 -64 -50 10 -44 -9 4 -39 -11 -1 46 9 23 -15 27 -7 -20 36 -4 -56 20 9 60 -5 -28 -9 8 -21 7 47 -51 31 36 6 -25 -6 14 52 17 24 55 -3 -65 19 -2 -70 18 15 -4 54 -48 -28 -24 -39 25 11 -24 20 13 4 18 3 9 -6 -21 -6 -19 -16 13 -21 -16 -10 -46 6 29 0 -3 30 10 -3 -36 48 -55 22 -9 24 47 -3 4 8 -21 -11 64 -35 14 11 2 5 62 -20 -9 -1 32 5 -43 -13 -4 -53 19 -30 2 -7 14 53 14 50 31 -33 -19 -42 -45 -22 -57 -68 -31 22 4 -26 9 -10 56 -22 69 -32 -48 17 -43 10 48 -4 -10 26 17 -29 49 -11 6 -29 56 -14 11 -8 -18 -18 -45 -9 28 2 -10 9 -44 48 -15 26 -51 34 1 77 -66 35 -62 -4 10 -23 -30 -60 -33 7 -9 -13 -31 6 15 -15 51 0 -10 -6 10 21 -14 9 23 13 10 -48 34 -6 17 -33 -52 -2 9 11 100 -15 -10 -16 53 21 -64 43 8 24 -54 -14 21 1 6 28 -32 -3 5 33 -14 -20 12 12 -16 -18 -12 50 -30 -63 58 0 -40 5 4 12 53 -27 -24 37 -80 -5 -17 -10 -16 13 -43 -6 -6 -17 -47
-45 -7 9 -12 -43 -46 -15 -20 -80 -38 -4 -3 10 -13 16 -40 39 -24 39 -15 25 -76 -85 72 -14 -32 -36 24 2 -11 -17 50 -22 -30 -13 3 40 -71 16 34 38 -45 -58 8 13 -26 -9 10 -3 -19 -31 24 26 37 -6 21 34 34 -33 -38 -3 18 -4 6 -64 -48 -5 41 -64 -15 -10 25 -91 -55 -35 -16 8 20 2 14 10 -20 -42 -2 10 -18 -28 -22 -25 -19 -1 -25 14 18 14 -2 0 31 60 21 -11 9 -1 57 3 5 -36 1 16 1 2 -45 12 -19 -58 16 64 -3 -4 -11 -87 -29 43 -23 -4 -17 -21 -34 -15 -32 -15 8 -1 58 27 -83 12 -2 21 -22 41 22 -43 -33 7 -52 5 -54 38 7 -70 45 35 33 -8 36 1 -9 17 -14 7 15 24 1 94 24 30 20 64 19 -6 17 -23 -59 28 -70 0 -18 -33 -20 33 37 -44 32 -1 29 6 88 14 37 -4 -8 -6 -24 64 12 43 76 -40 11 -23 28 11 -2 -20 0 33 10 37 67 9 6 -48 54 18 19 49 21 45 4 -29 -12 -11 -10 11 15 23 9 -28 48 -75 -31 -8 5 -13 -17 9 -35 14 -65 -19 50 -10 -62 -68 80 22 -17 -22 -11 -33 23 92 -33 -9 -24 -3 18 22 -8 0 -35 31 -39 36 -36 12 -26 -18 -18 -26 2 -2 48 -29 0 31 -16 -7 7 39 31 -33 28 29 19 9 19 25 15 97 -77 2 32 -34 34 33 8 91 46 17 25 26 18 -8 -31 8 -21 -9 -26 21 -7 -1 35 2 -20 13 -22 -7 -72 17 -63 -14 -52 18 15 -12 6 20 -11 -16 -65 -49 9 -11 49 -38 23 -47 -7 5 -39 -15 -6 -45 15 -26 33 -14 39 89 5 70 39 -9 11 73 -53 8 10 46 7 -10 -53 -34 20 17 1 38 -16 26 -70 64 -16 51 -73 -11 48 -14 -30 67 91 -12 0 6 9 -1 17 -22 -25 -26 -74 -1 64 -31 18 58 17 -12 -11 18 23 1 77 20 -6 53 13 8 -20 -13 -62 3 33 37 55 -1 27 5 2 -13 -67 -13 -37 1 -14 -14 -30 9 -86 26 -4 -8 -21 2 -5 -8 5 -9 -26 24 56 55 -10 47 24 -42 49 -118 27 25 52 -55 31 72 -58 28 -40 27 76 -39 -1 -31 30 26 68 -19 4 -8 32 114 -51 -19 4 62 -1 -8 63 -29 60 -12 -16 7 -19 57 15 1 -9 -19 9 -34 -2 -28 -1 31 6 11 -44 13 -14 59 -31 57 -4 47 6 48 11 -99 67 -35 -19 -8 -12 25 56 -7 -16 -9 12 18 -34 -4 12 -44 -90 -32 46 -8 -35 38 -39 8 98 49 -23 16 15 -39 -42 -28 -36 -18 126 -15 -13 -24 -104 30 1 29 0 37 25 -46 68 -9 1 12 -67 6 11 53 -85 -21 63 24 105 -39 -46 -27 1 -40 8 52 49 19 13 -8 8 21 -35 -61 -41 -34 35 8 -26 6 18 23 -45 -5 -34 -79 3 -67 -25 -11 -5 91 -34 -80 -10 4 25 12 -19 -7 -28 -14 1 -5 -2 -57 -14 44 57 9 -31 2 -45 -28 -22 2 -3 -59 19 -5 -29 -2 -126 -15 9 10 -34 -7 -42 -2 -14 -11 -11 -75 -32 -68 39 76 27 16 -26 -50 16 -10 6 -13 30 -4 64 23 -52 11 31 -30 -12 25 -19 -9 -17 -17 43 -16 41 34 15 9 -15 -17 -52 25 -36 -3 73 40 -20 -50 -10 81 -33 -1 33 64 16 16 -44 -23 4 72 -9 9 -2 68 -55 14 7 58 -4 10 88 -7 -97 79 -75 93 -19 -41 -37 -30 -68 2 65 -13 -9 10 -12 -21 95 15 37 -25 -15 9 12 -102 32 31 -7 -71 -21 15 25 -6 10 5 38 -13 30 -74 55 -4 -6 15 -4 0 -26 53 -13 9 -53 22 32 -47 -55 -13 15 0 28 -29 42
-27 -2 60 22 -15 -38 4 26 -40 31 41 -10 -23 -16 -11 -6 -11 28 -25 4 27 82 17 5 5 -26 48 1 -8 23 43 43 -29 16 -33 64 20 11 -27 4 23 -3 36 -11 -18 -24 -3 -12 47 6 18 -3 -27 15 13 18 -26 -1 -2 4 -2 -34 25 -20 -6 -35 19 -38 -2 26 -26 36 43 18 15 -3 -8 -12 26 -37 -16 -20 -2 -16 14 -41 -18 46 3 26 -19 11 -19 10 -26 -13 50 -17 -50 -5 12 -43 -22 0 13 -5 -12 29 20 -19 -1 67 -49 -4 -14 10 -45 2 18 -18 22 20 14 -31 11 -20 4 -55 -39 -13 -10 -6 27 13 11 5 10 8 -35 2 -1 35 -53 32 16 42 27 51 -5 24 -8 16 16 8 -6 -17 -26 -12 -55 -24 -59 46 13 -4 10 34 -28 6 -21 -24 -78 -7 -25 4 -16 55 9 -42 31 -29 7 -25 -1 40 20 -9 -3 1 26 21 14 21 40 4 2 -20 34 -35 19 -13 -15 -19 20 24 -15 -12 40 -10 -3 19 18 -10 -26 17 23 6 -20 -11 1 0 -60 -1 17 2 45 23 14 26 -56 11 126 -19 35 -31 -44 15 42 -21 -17 1 -17 -17 -6 -3 21 8 6 -45 -39 -12 18 51 9 -24 -7 -51 6 -20 0 11 -3 3 27 7 28 6 28 26 51 -19 -35 5 -12 -30 19 -5 24 -8 -16 -49 0 -25 -14 -25 10 -22 46 27 35 -26 29 -4 14 -3 14 15 -27 26 76 -30 -25 -4 -58 22 16 46 -1 15 41 34 -34 -38 -58 -9 1 18 -21 25 56 -21 16 46 4 -49 -21 -67 14 -21 34 -41 4 -5 28 -15 -51 -9 10 29 18 -12 30 -50 -25 1 14 -37 8 -28 -21 -21 -8 -40 50 32 9 17 -19 25 -57 -10 -20 7 -19 11 -13 -25 17 12 -3 -47 -4 -35 -8 -21 28 -64 18 -10 21 1 -30 -29 -15 -93 -11 19 1 21 37 -14 6 -34 -8 -25 46 0 -7 -36 -11 -17 -36 49 18 34 3 -12 28 5 -4 1 55 -10 9 21 8 -4 11 8 -33 28 -30 44 25 29 14 4 13 16 -23 84 15 -34 -9 -14 23 -1 54 -58 7 21 2 -53 4 -46 -25 -15 -16 -5 -24 -7 -32 -19 20 27 -23 -19 -17 44 19 11 -14 38 -50 28 -46 42 -28 4 -2 -80 29 15 -7 -40 -43 -66 35 4 -26 -42 50 48 -7 -8 -26 33 -6 -15 -22 -80 -20 -25 -30 13 1 51 -17 -15 32 21 55 -58 39 -4 12 -22 -3 16 -12 63 53 -8 -32 8 1 23 4 -31 10 -26 -5 18 12 -45 -35 -18 -3 -17 -9 -45 -12 -8 -45 26 35 23 -27 19 8 20 -11 -18 -10 9 51 -30 -14 3 -3 -20 18 15 22 -11 30 -9 34 39 12 -19 -13 -7 -73 -20 28 4 70 -23 23 20 -4 87 72 -2 -13 25 62 -24 -10 7 -13 68 11 -3 -33 -4 -3 0 -9 47 -42 15 -41 7 -49 61 -62 29 26 2 -13 32 5 13 -21 13 -41 47 49 -10 13 44 51 -67 9 18 1 -11 22 -20 -43 24 20 15 -23 -14 -10 -15 39 -28 15 62 -22 -36 40 2 3 -22 7 -39 -18 10 62 -2 -26 2 13 9 -7 -7 32 -7 1 6 -18 6 -22 56 66 -48 -11 -19 -4 6 52 14 2 -24 80 -56 14 19 20 -4 10 -51 23 23 -14 -47 -25 -17 20 -17 14 -48 -25 25 80 27 -2 15 21 18 14 -18 21 -47 -33 6 -2 29 46 3 -26 6 2 -19 13 7 -56 -36 29 -38 -31 3 -17 -35 -33 13 21 18 4 11 50 -49 -2 0 -4 -9 -20 -30 -7 17 -30 1 7 31 37 21 -10 -3 -23 -8 -28 27 19 11 5 -3 3 -9 -1 12 5 17 1 -83 2 45 -77 8 -22 47 -14 -14 -36 -1
100 -2 3 -52 10 32 -2 -36 21 -30 19 24 -31 -34 -21 16 28 -5 67 -37 -1 36 21 -7 -10 -24 4 -5 -21 -50 -38 7 -6 17 -17 76 55 6 -4 37 4 4 -35 74 -18 8 -13 -18 4 -1 -41 -66 -14 41 0 -5 22 -20 -2 61 33 -12 60 3 -12 19 2 2 30 2 20 12 27 -26 -5 -24 -36 -9 55 10 -35 42 -8 15 -9 14 -62 -46 -4 -53 11 8 0 -16 -59 -18 -57 -1 -26 -12 -2 18 -19 61 -9 -20 -12 59 -2 -29 -12 -21 22 38 47 -25 36 6 -65 -21 15 -12 0 31 29 7 -6 -53 -22 -32 -64 -18 -33 -10 0 15 25 -106 -50 -55 23 -71 -5 -52 -3 44 -30 17 -37 36 18 -55 21 -43 6 48 0 -13 24 18 -49 -7 -6 23 -72 16 -73 12 -32 17 20 -54 -8 -19 21 -9 -15 12 14 -10 -24 45 -21 82 -25 5 28 -16 -28 25 -2 1 0 8 -30 -22 -14 69 -38 -4 -1 -25 15 19 -13 38 -12 8 20 26 14 -15 22 5 33 18 13 -21 -30 7 4 32 27 43 -40 -21 -4 30 -19 -13 13 9 -18 21 -64 42 -4 -38 -19 -27 7 7 -9 -48 33 -15 18 2 16 -12 -27 26 -37 -21 -2 38 52 20 -4 -19 6 -7 23 -20 -11 -17 -14 -38 31 34 16 -4 -8 -64 0 33 -2 55 -10 -1 -15 -16 -5 27 10 15 19 -6 -38 -18 11 -21 15 43 26 -28 -2 -11 -5 26 5 12 28 21 18 50 -20 50 -11 5 -30 -44 19 1 35 -15 15 -4 -20 20 -14 32 -41 -13 -11 20 23 13 -12 -15 -9 -35 33 -1 -36 -43 -3 -23 38 20 13 -20 9 10 -7 -33 -33 72 3 6 126 -28 -5 1 35 -25 14 7 -7 1 77 -8 -4 22 -32 -34 -18 -6 25 -42 -34 -31 3 39 12 14 -15 -72 1 -40 34 11 -37 -6 -7 7 -1 -11 -60 -21 -2 38 20 -4 -25 -38 -41 0 -33 -61 -9 -19 -60 -5 -30 -22 -40 28 6 10 -8 14 24 -25 24 -12 -50 5 -12 -14 -33 29 -28 -51 38 -68 44 66 36 -49 34 1 -14 20 -8 46 -17 -39 -21 -22 0 66 44 23 -24 35 15 -38 -12 14 59 40 14 -10 -39 -15 -19 -26 -22 0 -40 -5 -6 1 36 -20 53 4 40 -14 -25 33 49 53 5 -35 -9 33 -101 36 -101 -6 -44 -18 23 9 35 -34 -36 4 8 -17 -20 -14 30 17 2 -20 15 -9 -16 25 -13 -7 -60 35 -8 1 -21 9 7 6 17 41 20 6 34 -18 -40 -18 43 -38 21 30 -21 -24 41 -48 27 -12 48 -16 22 -44 -20 -87 -14 31 -23 72 2 -26 43 -15 -51 19 -11 -24 47 -17 -25 7 38 -95 -26 7 33 -30 14 21 -7 13 -63 90 -35 -13 37 -39 -18 -42 3 -40 -41 10 -2 -3 6 11 5 6 -5 11 -9 5 -52 -11 -24 -8 -2 -13 -45 39 36 55 9 78 -23 2 1 34 29 77 35 -15 7 -12 6 11 -33 -14 47 -4 -20 9 27 27 40 -16 17 20 -39 11 14 -4 -2 -33 -7 -16 6 -44 54 27 -42 59 -16 10 -1 -8 6 -18 -7 -1 -55 22 22 26 14 -21 12 65 4 15 -33 -15 9 -18 -19 2 64 -12 36 7 -18 -21 -2 -18 -50 14 -30 79 36 9 3 -11 -5 16 -1 -21 53 -49 -7 -18 -1 -49 -22 7 -23 -22 13 -6 24 18 -56 19 4 7 -52 -67 -16 18 -8 53 8 63 11 25 12 -6 5 33 34 -27 -26 -30 24 -36 9 -31 3 -1 -46 48 -26 -40 -10 8 1 6 24 27 -11 -15 22 -18 21 18 -47 14 24 28 45 -10 20 -35 -4 17 -30 -18 -40 0 60 8 2 -7 -51 -5 -17 17 -41 8 -27 -27 36 -40 -42 -53 42 15
-98 -42 -1 -11 -24 22 48 13 -13 41 -5 -33 -12 18 -6 2 -22 -49 7 -36 -15 12 60 -4 -19 1 66 42 43 -19 -20 -31 5 -51 0 -6 18 -88 35 43 16 -20 -33 36 -55 -14 9 26 -4 -51 3 62 -35 33 -31 -37 -42 13 19 -3 31 47 9 5 19 22 -66 11 -40 -38 -66 -28 16 -17 -33 -16 19 -6 -8 -20 -65 20 -17 -6 -9 -4 17 7 -6 -13 -4 45 -55 6 24 -8 21 -32 -67 15 -2 0 7 -90 -104 -7 30 -65 25 0 -4 -14 -2 13 36 -19 -24 23 16 -41 54 -2 79 -12 15 14 16 -49 16 21 48 -25 18 53 -2 -38 -21 -67 -34 62 -27 -20 -100 -66 -73 -33 3 -127 -39 13 -9 -31 22 -23 31 -16 13 30 -21 45 -28 -16 -14 -24 -97 -14 0 42 16 -5 -50 -1 10 -35 40 45 11 -1 4 14 40 19 -58 35 -23 13 -56 11 29 -13 -64 17 36 25 47 -7 13 -24 -5 25 -62 22 42 34 35 7 11 17 51 -12 -71 21 30 42 5 -3 -2 25 -6 45 41 -14 32 -32 8 19 -5 -54 -2 -67 -30 46 -41 -58 18 -37 -54 37 18 80 -24 39 12 -20 -18 26 -10 72 2 -13 -13 -32 39 -23 15 43 45 -4 7 -33 48 10 35 -63 15 -6 48 13 1 90 -70 23 36 -56 9 10 -34 -49 23 -19 -35 20 45 23 -13 -13 -55 -30 64 -31 -32 43 -7 52 -24 37 -67 -47 21 -56 -15 -1 37 16 -31 6 -8 -3 29 -30 -76 -84 43 10 17 -14 32 -25 8 -19 49 9 -34 -20 -2 -1 -19 3 -29 -62 12 46 -3 8 60 -9 0 27 -69 11 20 11 19 22 -35 -53 60 8 -32 -14 -23 -56 51 -38 -5 17 19 17 12 -43 1 -104 -16 15 -7 10 1 29 -29 35 -8 54 13 24 -13 -11 49 18 -30 -2 6 -1 -25 -95 -17 17 -32 -6 60 15 15 16 -9 54 9 60 -4 23 7 -17 58 -13 70 45 -17 -26 -40 -7 -9 -15 75 -3 -11 0 23 -28 12 -10 -5 27 -52 1 33 51 39 28 61 22 -3 -10 39 54 20 -32 -28 -13 42 -78 -52 -63 -27 -87 -19 -42 -74 2 3 79 -7 -1 32 -8 -1 57 4 -19 -34 -22 -28 -15 8 -26 9 19 -52 -32 20 6 0 46 -6 33 -2 -53 -28 -85 56 9 -7 -4 41 19 4 7 6 28 14 57 -21 -37 -27 -15 9 42 -12 15 77 14 -40 17 -47 1 -36 23 -5 -14 42 61 -44 49 -6 11 -19 15 14 -15 0 30 19 -8 -32 79 31 46 84 -12 2 -1 17 -11 38 -87 -28 5 -33 20 -45 16 -56 -24 -3 39 45 6 -111 35 23 30 26 8 31 15 34 -22 -19 19 9 -11 -65 -26 -39 -28 -52 56 2 15 13 -46 6 -5 32 1 -120 15 -32 4 2 7 7 5 17 26 0 -2 52 -81 -5 -42 1 -11 -7 -1 22 -7 39 -86 -12 -19 27 -11 -47 -16 17 -49 -45 -10 2 -30 42 -24 -54 42 37 -18 13 -7 -74 -30 37 21 30 -20 -95 46 77 18 -24 -49 40 -15 9 70 -88 -33 -20 -4 2 -41 33 -31 -43 10 69 -28 7 1 87 -35 97 86 -20 52 -47 1 57 29 40 60 -18 -2 -78 25 2 15 -35 52 -9 -26 6 6 46 -31 -50 21 34 32 -18 2 19 26 -21 24 30 -33 7 19 33 -26 39 -39 58 58 30 31 4 -28 -69 -28 -30 -18 -12 9 -13 -31 60 -11 -65 13 -27 -59 -10 41 -34 -53 1 42 -35 46 -35 -18 -2 -36 -10 -24 2 -53 10 -36 1 12 -16 54 -21 -20 -39 -12 -18 46 42 -51 -11 -34 43 24 11 -4 12 -34 2 34 -64 -20 13 18 -29 -69 -11 -99 16 46 -26 -14 -1 15 17 31 72 50
-64 -37 -20 0 -18 30 -78 0 -59 34 14 -13 3 4 1 7 -36 48 -25 0 -6 -3 -41 18 54 -62 -31 58 17 -29 -24 0 1 19 -32 -23 27 -24 8 31 -31 14 -7 54 26 -25 2 14 -4 -32 23 -8 28 59 -18 36 27 27 -33 -2 -6 -40 -37 4 2 36 -12 30 2 -63 -20 -3 -38 -24 17 6 -34 -23 2 8 -40 -18 31 -5 -44 22 -32 3 55 21 17 -73 63 12 38 -45 51 -56 106 42 -30 -35 14 67 -19 -9 31 -16 -39 14 10 7 -40 -53 70 -7 -2 50 -24 0 -16 -41 32 33 6 35 69 -12 -6 3 -40 -33 6 27 56 32 25 46 8 10 -35 -29 -8 -37 -10 38 16 -5 34 21 27 20 -28 28 -8 -27 13 26 13 19 26 -24 -15 -66 13 -31 36 28 -5 -23 44 43 -24 -41 22 15 -31 22 73 -11 13 0 -3 24 -9 -25 12 -5 -29 33 -1 13 -1 16 9 -6 -25 77 82 46 39 -127 -9 -50 -54 8 -39 -8 53 7 66 -36 43 -7 11 13 -11 2 9 -16 -42 -51 -32 -25 -16 -28 -2 -44 -11 6 -34 7 6 -36 -30 19 -30 -22 0 -20 -7 -8 73 13 -6 55 -14 -28 40 28 67 -46 60 -20 8 17 27 72 41 -18 16 40 56 22 -9 -10 -37 -65 64 -30 -26 36 -85 8 3 -30 34 -35 -12 -83 12 -3 35 9 2 -31 -8 17 36 -6 57 14 16 -12 -44 -3 43 3 68 4 -2 -1 3 0 21 -36 4 -45 11 -25 45 -20 63 105 -41 45 10 48 -30 9 -16 -11 41 -22 9 -14 -1 0 10 49 -15 -56 37 17 -29 14 -5 20 9 7 -24 -12 -12 37 -29 8 -9 16 63 22 69 25 42 30 -37 -2 5 -63 29 16 -11 7 -33 -9 -22 56 10 0 -48 74 -32 22 -110 19 15 -18 -47 40 3 57 3 -53 -68 -82 19 -4 -31 22 18 -29 25 -54 -32 70 -7 7 22 -29 11 62 -48 10 -94 -13 10 -11 45 -7 23 32 -18 14 -17 -9 -15 4 -24 4 34 52 -22 -82 46 -18 -26 -3 -16 -13 6 -33 53 21 0 -23 -62 -50 8 53 -35 10 7 17 -25 -64 -48 16 -5 -54 51 -6 55 26 10 -2 63 -13 38 83 -17 36 65 -58 23 82 18 -11 21 -17 12 1 59 -9 -86 -45 -3 -13 -9 -21 -42 -2 -22 -66 -12 -8 -64 -32 -5 -24 -3 29 4 11 4 30 -30 -2 -16 0 14 -16 -9 -11 -56 37 52 3 9 -53 -62 -74 -63 -28 -32 66 45 15 -6 47 24 -15 -37 4 -40 9 -37 26 -40 49 -4 10 -12 -35 -40 5 34 -3 31 16 -26 78 -39 22 6 6 5 1 -39 48 46 -22 51 15 44 43 -5 -102 -8 -24 -32 30 6 18 11 8 4 68 5 -7 12 48 13 55 -76 -4 -10 44 -8 -11 -16 -38 -26 19 41 10 -25 5 15 27 -4 70 -2 17 -22 21 -25 12 -97 -23 126 -44 18 -27 -65 -47 21 -2 2 -44 68 28 48 -24 -3 28 11 13 -66 55 -21 -37 -42 -54 67 24 10 -13 -117 -4 -103 -26 81 9 -43 24 -48 7 29 -70 -68 -28 -53 8 48 4 19 11 41 0 -10 -71 35 60 18 -13 -56 8 -13 -5 -36 -8 20 -16 -54 17 -23 25 31 9 63 -9 35 67 -19 8 12 -39 29 -35 -19 41 11 -35 -36 31 44 -10 -53 10 -30 25 23 -23 29 37 50 46 -7 10 -68 23 61 -46 -6 53 101 9 -27 48 47 4 -6 26 -3 -17 -73 5 -2 -18 27 -73 5 -34 -1 14 -30 69 31 53 36 -5 37 -2 54 26 41 16 5 -87 -4 47 -28 0 -7 17 24 0 32 55 0 27 -9 23 27 -26 -60 42 1 -40 13 17 -5 33 -98 -59 -24 -2 -80 -64
-3 7 1 -14 12 18 -14 16 14 29 -15 8 -43 29 -21 11 -17 -11 -22 3 -11 -6 13 0 -4 26 -6 48 9 29 24 10 -74 24 13 23 -20 -5 -11 -9 -18 -10 -5 -27 9 -9 29 -14 -24 -33 -9 30 17 -7 4 -23 18 3 6 31 8 9 -5 -23 -23 -18 -33 -11 -34 -15 -38 -28 -29 47 -17 13 -17 -20 28 -9 24 -28 16 6 -3 56 56 -13 -4 56 18 7 10 -22 -11 6 4 34 -18 0 8 70 29 -6 18 14 0 -8 -8 26 0 -20 -5 -16 -2 24 -20 38 -4 -13 9 34 15 6 12 12 16 -20 0 17 6 -3 -61 -18 23 -23 -27 35 27 -7 -10 30 27 12 -19 3 -23 6 23 -1 -7 -33 44 48 -22 7 5 -15 10 -12 12 -26 -9 3 -6 29 -27 -29 -8 -17 -54 10 20 27 -16 21 -14 11 10 -27 24 3 5 79 -26 -18 4 7 -2 -10 -14 -16 -56 22 -3 3 6 -17 5 -9 17 29 -23 -19 -20 46 4 3 15 -12 21 2 -24 -24 19 -34 -7 13 -16 27 -26 -20 -9 3 17 3 75 -26 -31 -13 -21 -15 -12 -17 20 -14 31 -63 47 31 -25 -33 -5 -12 -27 -21 -17 -5 -18 4 -19 1 -30 -46 5 49 -37 -22 -7 18 15 8 -10 29 -19 5 30 -8 -33 -66 -1 8 4 -39 -15 26 25 17 8 -6 -58 6 24 -32 24 -6 7 -5 -23 -8 -17 -38 -23 -2 19 6 -20 2 -67 -23 -36 14 4 -3 -14 -42 6 -11 -28 16 39 -3 13 26 12 7 -23 -3 9 -29 -1 42 27 -11 13 29 3 -2 21 6 -12 10 -13 -4 23 -19 -57 -39 10 8 37 -82 0 11 -2 -17 -55 92 -26 33 -5 -18 -1 -5 -47 3 -4 18 14 5 -5 23 38 -13 31 -17 -24 -9 -55 -1 20 -12 -4 6 41 -21 21 4 10 6 2 -31 -23 -8 -12 -5 -38 31 1 126 -1 4 14 0 -25 -30 -6 -5 -22 46 -9 12 -50 -37 -27 16 18 -4 -28 20 32 31 46 3 32 -48 26 -11 -6 12 7 -13 27 36 1 24 -63 -4 -4 26 25 -41 42 -13 -33 40 65 -23 -2 -16 29 -15 13 38 -50 -7 13 -10 61 12 28 -27 13 30 -8 1 27 17 -13 -20 13 55 34 -7 -17 -21 1 5 2 8 2 -57 6 -32 -25 29 -23 8 -38 28 0 -7 12 8 -25 -1 14 -28 -29 11 -19 23 29 -6 -9 12 29 10 11 -23 7 17 -32 4 -17 33 37 23 -30 10 -41 -7 4 -5 17 43 9 -59 -6 -4 -19 25 16 2 28 -28 -8 -12 40 20 -14 9 3 -9 18 19 1 -5 -24 22 -17 46 -4 -32 47 32 -3 1 -26 15 12 0 56 -31 -20 -4 23 16 -2 -1 -5 12 -9 34 33 -10 25 -10 26 9 -14 -3 -21 14 1 29 -13 -6 -34 -12 -9 27 23 4 -24 9 -6 -6 2 9 -39 9 14 -9 -10 50 31 -49 90 -33 22 17 -51 13 15 -49 -3 -3 -12 -32 -10 -17 -1 33 21 -2 -24 20 25 2 -13 -18 -4 2 24 42 32 -23 -7 36 -2 -19 23 9 -13 -3 20 27 -24 -24 43 17 12 3 32 -22 13 9 1 18 -7 12 5 -32 -9 39 -14 13 2 -63 29 11 -17 3 9 15 -17 27 -12 -9 -11 37 10 -10 10 -1 -31 31 -21 -9 -6 -17 33 -10 19 17 34 30 33 -6 -10 1 -1 56 7 22 -36 37 -30 9 8 48 -6 -18 7 -28 -12 15 61 -25 -1 11 -13 -6 25 15 16 -51 8 27 -4 64 13 32 -13 -56 45 42 -20 29 2 36 22 -14 42 14 -16 -36 15 18 16 -16 -3 29 20 19 18 5 0 -33 6 -20 -10 7 -6 -9 -5 -31 -12 -27 -2 6 5 16 9 4 22 -17
-12 40 19 66 37 -13 -84 -42 32 33 12 37 -8 -59 25 -20 -61 5 -76 7 25 -51 -26 -53 -15 37 0 -27 -85 6 -7 -5 75 -21 40 3 -58 -25 -2 23 -56 27 -40 5 18 -11 -4 -11 11 -29 7 -76 46 61 10 -15 47 60 6 -13 18 -86 10 36 -3 39 56 -5 10 12 -36 -41 -10 12 65 6 -11 -1 -15 58 34 -27 -32 -11 10 -16 30 -18 -19 -63 2 73 -28 -3 -54 17 -58 10 -10 -18 8 -61 -33 64 6 6 1 59 2 27 -3 6 22 10 -105 -9 -6 -18 -25 25 -42 -32 -14 -33 1 -1 -119 16 -16 -53 -1 -52 -31 -53 10 -56 -1 -97 -24 -24 3 -29 20 37 46 -33 7 -46 9 -17 -61 33 28 9 -26 -24 -11 69 -60 -29 -37 43 -45 30 5 -7 -51 57 26 -69 14 -33 2 96 -31 -53 -24 44 -9 -32 8 52 99 -1 -10 -14 14 59 3 -7 -23 52 -5 -12 28 -22 67 32 38 -19 28 46 63 -16 6 36 -6 -60 -61 17 -23 -13 25 78 -6 12 83 4 -24 -35 -39 -57 -21 -18 7 -1 -31 22 -8 -15 33 24 66 32 -1 31 13 -53 25 35 -39 5 53 -4 -21 -56 -16 -24 28 -21 -62 22 9 27 -20 -46 1 -19 43 31 -32 7 -36 -43 -38 2 -2 -8 -51 -63 -20 -39 14 -16 -6 -54 -103 -3 -11 -51 -72 28 -5 26 3 19 25 32 7 -127 -14 -43 -17 49 -100 -28 3 -93 -21 -42 14 -8 49 12 -76 -64 -13 -35 17 -20 75 93 -44 3 -57 -40 -59 -1 -38 -22 6 -40 95 77 -15 58 -26 -5 -39 39 12 29 -6 9 2 9 -23 -17 -26 20 25 -53 25 12 -46 5 -22 -46 8 28 30 28 16 32 6 45 -35 -19 14 -2 -15 33 -6 52 -11 9 73 1 -31 -49 -27 25 59 31 -59 -47 10 -11 -4 -28 -1 19 -4 66 57 21 -26 5 14 7 -26 5 34 70 35 -28 -29 -43 -39 -37 -51 14 3 17 -4 22 3 -3 -9 2 -54 -7 24 33 31 -39 -18 -13 -55 13 -27 -29 31 -77 -67 44 -26 -39 4 -26 -40 -51 -14 10 -29 -54 -27 -17 20 -89 -42 -18 6 45 -9 -13 4 2 31 -11 -76 -36 26 1 29 28 38 24 10 -46 27 -37 -3 51 5 9 -14 2 -60 -31 23 43 26 37 -45 17 -39 -43 -15 -11 33 38 -59 81 -20 15 47 111 -19 23 19 4 -38 -37 -62 13 -35 67 75 54 49 64 -16 5 18 -51 -79 -12 37 -14 -25 -8 -33 -101 47 13 24 -20 -58 -45 -46 6 -41 -49 20 17 -24 5 -9 1 19 34 52 24 6 54 -10 20 21 -28 11 -46 -63 -23 10 52 55 71 24 1 27 23 -48 6 21 -39 56 28 -57 33 6 39 53 4 18 38 65 -12 22 -57 20 4 28 27 -32 73 -13 10 35 -19 3 -22 12 -67 37 -39 -20 37 -6 -62 31 1 -53 2 -36 55 -28 -44 -53 -5 -34 -35 5 -12 5 12 47 -28 42 -21 -31 -37 48 -19 52 12 24 4 19 5 112 -69 -1 30 -29 -49 -55 22 -37 -22 35 34 8 32 13 -41 40 -11 -41 -67 1 16 11 27 -8 48 -73 39 -22 1 -60 -2 33 -34 -23 -29 -86 -46 24 -14 -3 -31 23 28 -5 3 -11 16 12 -2 -66 -20 6 -85 -34 7 40 -21 -6 -10 28 -95 -10 14 -14 -50 78 -65 -70 -22 20 -73 -24 5 39 78 -32 -66 36 -13 -11 45 16 2 -70 7 61 -10 64 -7 20 35 -35 78 33 29 3 33 -83 -57 -51 -7 44 2 -18 -24 -13 28 -14 -27 -45 -121 10 16 21 64 -40 39 11 -23 15 -10 11 4 -37 -1 -30 -55 12 6 -41 -6 -10 9 -25 -3 22 70 57 -46 39 -68 -48 -41 42 7 4 -4
-38 -12 -16 -7 24 -78 21 3 -44 -15 -44 -8 -36 5 9 12 10 -42 -13 -8 54 59 39 -39 -15 -41 58 -60 -51 -39 -17 -41 -17 -43 -15 -36 -30 3 5 -63 -47 3 29 -8 12 -20 -6 -12 21 3 27 2 29 -37 -25 13 -5 -28 -28 60 -6 -16 -2 10 -47 36 15 6 -39 -9 79 -8 41 18 -8 -17 16 9 28 28 -71 82 45 11 -16 -23 35 28 22 -15 -37 -23 -43 11 23 -11 14 28 -22 10 36 49 14 46 -4 -21 13 -17 -18 24 3 -6 26 -28 1 36 46 -54 -74 14 44 -73 -10 20 22 7 -3 -35 21 10 -31 -20 11 -8 -14 93 34 -7 -71 -95 56 -5 -25 4 16 61 63 8 3 28 37 50 26 -27 73 45 -11 5 -18 36 -55 5 -14 -20 28 -11 36 29 -6 -4 -11 -39 62 -45 20 4 -3 46 -27 102 -16 80 -24 -13 51 14 -26 0 43 -32 -22 -4 126 4 52 13 12 65 15 -43 47 -69 -49 -69 -8 -15 1 -21 20 3 -75 9 -44 3 -5 -4 26 89 -23 28 -12 13 16 -14 -14 19 -55 68 54 -21 31 -8 -26 11 -21 52 10 2 -2 -37 -25 58 21 -3 4 25 -20 9 -2 16 -23 -8 -75 0 6 73 8 -2 14 -59 34 -9 -12 -38 -1 -2 40 -24 13 56 -29 12 -16 45 59 20 76 109 11 34 -3 -63 38 -38 12 27 50 -19 71 -3 77 39 -71 33 31 32 -38 3 84 9 26 15 -7 67 1 26 -3 5 41 79 -46 -38 7 -46 -8 -38 -19 33 -8 -7 -26 -32 -3 19 -7 28 14 -5 5 1 -24 25 51 -26 14 -1 24 -24 -33 56 5 87 -47 -32 -78 0 42 11 40 30 -74 109 10 -16 73 -11 24 26 -87 24 13 -15 -5 -18 -28 -61 -30 78 2 -3 38 -11 11 37 -98 -17 34 -33 18 -24 75 10 -36 54 60 0 -53 -52 -16 -7 -33 46 27 22 46 15 15 -71 -42 19 7 7 54 -20 28 6 -35 42 -6 -28 -16 15 -1 -19 -28 51 -14 -17 -5 7 -63 -6 -6 -23 -5 -43 -49 6 -9 7 -33 22 -27 -16 -29 3 -66 18 -5 16 12 4 36 -28 62 -24 -29 -20 -2 1 86 17 18 16 4 0 40 33 49 1 -12 -9 -42 48 -23 5 25 -84 0 -45 15 38 -6 3 -37 -60 83 2 -52 -42 20 5 -69 -49 -25 21 10 -63 29 73 -7 26 2 -19 68 54 -7 1 -58 -2 -21 14 -4 -13 -23 -80 -32 -53 -12 -27 8 22 18 -31 18 43 6 34 -1 49 55 -38 -15 -43 -16 48 -24 44 -65 21 17 46 44 -30 -37 19 26 -5 24 7 -9 -37 -24 -90 -27 15 3 35 -52 -7 -7 17 -98 -28 27 41 17 74 -3 6 12 -4 30 -4 -26 -50 17 -25 -14 -11 -88 -1 -29 -7 13 -7 14 21 33 0 -24 -1 33 -15 2 -5 -18 0 8 -53 16 -35 -19 -8 -8 41 -45 28 -4 47 -34 11 43 -69 -19 -47 -16 6 -3 -6 -39 49 -29 27 50 -6 5 14 -38 14 -13 122 -35 12 -4 22 -40 22 -24 -71 34 66 75 6 18 53 46 -11 50 3 -54 22 -15 -29 -34 4 28 29 -77 69 23 -73 -57 5 43 11 10 -49 27 105 9 -15 -3 37 64 78 -39 21 31 21 57 30 19 19 -26 24 -31 5 15 31 20 88 33 -2 5 0 -6 8 28 -12 41 69 8 -12 -28 -17 -3 -21 -2 16 -29 -40 -23 24 16 74 -38 -12 -27 -40 53 60 -93 -28 41 50 27 66 -8 29 -1 -48 -34 19 30 4 3 28 -11 -46 45 59 9 -13 -33 -31 47 21 29 -61 30 -8 5 54 -45 7 -98 -15 -29 -25 24 -17 -7 -88 -11 -8 -21 34 -27 33 20 52 36 -13 1 -35 16 37
-6 29 21 -11 4 -45 -32 17 23 14 -35 -29 -23 0 -3 22 33 -33 14 49 -40 7 2 -2 -12 -7 -1 -27 -5 -19 5 22 -63 20 -13 10 -68 32 -7 52 5 7 10 11 45 24 20 -31 26 0 -23 11 60 -33 47 -19 -26 -2 -30 2 22 32 35 -20 5 -15 32 -6 35 48 -36 -14 28 13 18 -50 27 -1 2 -7 -1 -17 -12 -21 -20 -49 -62 -6 -32 23 -4 -21 47 -4 -8 -7 6 -1 -44 -33 12 -71 14 -24 -40 -1 12 -42 -20 -58 4 20 -4 11 -13 13 -20 -23 -24 2 -41 -29 -15 -11 -18 15 25 -44 27 -40 -52 -55 61 -24 -28 33 -5 14 -15 -1 -22 -27 -43 9 21 -53 -63 54 -1 13 56 21 -3 1 -3 -1 1 39 29 -34 20 10 -48 -20 -32 6 48 -20 -24 -39 -3 26 -10 4 10 -5 -34 -24 2 20 -1 13 -33 22 14 -27 -59 39 -34 -30 -49 34 2 19 22 13 15 66 56 13 13 -62 -1 45 12 -29 -20 88 49 5 -36 3 -18 6 -46 -33 9 6 -1 -32 -20 49 13 1 14 6 -32 34 -43 14 -21 -10 -32 -23 -39 -28 65 5 59 4 6 -48 -14 -10 -77 10 0 -70 25 6 -23 -6 -34 -26 13 -25 -34 56 -8 5 -90 5 -21 -34 -62 -3 58 -48 35 -18 15 24 -43 -20 26 -55 -36 52 23 -10 51 14 17 6 -57 6 -12 -27 -17 6 -13 -9 29 16 -85 -54 -26 13 8 22 -1 -14 -41 8 35 44 6 -13 -42 48 33 -12 -25 28 -10 -44 -41 -28 -73 81 -4 -21 97 -40 -28 1 -29 22 -37 -15 -4 18 76 16 18 -25 -7 71 79 59 -39 -34 -26 0 60 8 11 76 -26 5 29 48 -29 -38 14 9 -49 35 -57 19 -47 -4 7 11 22 30 -53 -10 46 -6 5 10 -8 4 8 44 -20 -7 18 31 30 1 -10 54 26 56 -18 17 7 67 -4 27 -29 -16 55 22 52 -4 10 10 -42 10 -20 -39 -40 -24 -6 48 0 -8 0 22 2 18 -22 14 -1 -5 1 -36 -36 29 51 -26 -20 9 -47 -33 -30 29 56 -46 7 -7 -54 -57 -29 72 -58 43 -48 81 -20 40 31 79 -37 12 -33 21 42 9 14 6 -55 30 7 -16 23 47 -3 39 -69 -44 -29 31 -6 -2 -34 55 35 16 40 -21 25 -29 28 -25 -13 122 27 -31 63 61 -21 16 13 -35 27 33 -18 38 56 -35 -15 89 40 44 2 -15 27 -3 54 -29 -29 -1 -59 23 16 60 35 -6 -53 23 -3 -37 -18 -6 17 7 -29 -38 -50 35 3 88 -32 19 31 -11 -7 54 -22 69 -62 33 -46 2 15 -41 -31 -30 27 -10 10 -35 -8 30 -26 21 27 13 45 -4 45 -61 1 6 -39 -23 40 -9 -25 -18 -10 1 42 22 21 -12 31 7 126 6 25 24 -9 -17 -14 22 8 -27 -18 -7 11 35 11 -46 -2 -29 -24 -4 -8 -29 33 21 -80 5 58 -1 14 7 -19 27 -16 -13 -24 60 -3 -8 -56 1 28 27 -61 20 30 86 -2 -31 -18 -13 2 -2 -21 11 41 33 6 27 -38 -38 0 -53 -14 50 20 19 -23 9 -49 2 43 -2 17 36 -73 -6 6 15 61 -49 -7 -36 23 -2 -5 -118 19 -48 9 6 -25 11 47 56 -22 -33 44 20 37 63 -6 18 5 16 -29 -5 -44 -29 -16 20 43 -26 28 -1 -50 23 -10 -13 77 6 -33 -26 -6 -42 -21 44 13 -1 -18 -3 -18 -21 3 40 -7 -51 19 39 -13 41 -29 -10 71 -10 31 15 29 -12 15 97 40 -34 18 29 28 24 -33 -28 -4 -34 -10 -33 26 7 -9 -19 -51 -9 -8 36 -38 60 44 -18 -46 -21 6 15 35 -30 7 1 21 39 3 35 12 2 100 76 -10 37 30 -15 -16 -5
19 -3 20 17 -2 -38 10 54 -24 -4 -28 -12 74 -6 -13 22 -21 -88 -21 52 -15 -49 22 -16 -64 16 58 -125 -26 3 -9 14 8 28 40 -30 -31 26 -38 14 6 25 -19 72 -56 -34 -8 -4 -18 -39 -37 2 -4 1 -39 -15 -74 27 -23 -12 15 5 20 0 50 8 51 -12 36 35 52 3 -7 45 -31 -39 -37 63 -46 -21 18 17 -3 -23 30 26 76 -46 17 -99 27 -19 4 -1 29 0 63 -6 -42 7 3 34 60 2 -75 24 -5 8 -23 -56 -5 -45 36 -14 4 -14 -80 -19 12 -15 13 14 -21 -4 -18 -5 -30 -16 40 -48 20 -38 -46 12 60 21 29 10 -9 29 -9 56 8 -42 18 36 36 23 -7 -15 13 -10 -7 -8 -27 -8 -42 8 26 -17 28 6 -115 19 -30 14 -54 15 -87 -22 5 -7 59 -20 14 -29 -36 43 -65 -9 -8 -48 10 -13 -9 -16 24 12 -25 41 -87 15 20 33 -1 8 62 -32 49 -29 -24 81 9 -29 -6 -18 -12 31 42 28 2 20 -28 -3 -33 -31 20 -31 23 24 -5 8 5 23 -25 26 -17 15 -61 -16 -10 34 18 -8 25 -23 33 3 46 -29 -33 52 20 -30 -61 3 28 -48 34 -10 19 60 -40 41 -31 19 -19 14 -6 22 70 -5 25 -5 47 -18 34 -1 -17 7 23 -32 12 5 -36 3 32 -60 -20 -57 -1 32 -19 60 4 -20 19 -6 -23 -37 -29 -34 -85 4 35 13 37 10 -83 11 13 41 0 9 -4 31 -3 70 -28 4 25 14 -13 35 -13 65 0 -33 67 21 -20 -26 -29 -75 -23 -52 -12 -1 23 -33 -7 -7 41 14 -6 -32 44 -5 29 -17 -31 -6 12 -56 12 14 -116 18 -3 -29 -56 9 -24 14 1 16 83 59 12 16 -4 -10 32 -57 37 20 3 -56 26 -34 -44 68 -25 32 22 -57 -28 2 0 -19 14 30 22 -60 -39 -16 -43 -6 18 -39 -51 -5 13 -12 -33 28 -29 -27 15 18 30 61 -17 -16 -11 -15 -1 13 -36 -8 66 -25 -39 18 18 14 -7 -2 7 18 32 51 43 10 5 41 19 33 -10 20 13 22 21 -6 11 22 37 14 -30 -56 -32 -62 -17 27 -44 -67 10 2 21 11 5 -28 -7 -26 -102 -4 -45 -6 9 71 2 -14 33 58 -41 -5 44 -66 -29 -5 13 -14 30 13 -13 32 7 6 23 27 0 -9 -14 -55 40 -46 -18 40 -37 19 -46 -5 3 -14 -3 -28 -55 -4 -3 8 -2 -21 12 55 -14 -33 -47 -55 -1 105 35 -37 -45 41 86 27 3 -56 -34 -8 -33 19 37 60 -23 -78 -7 -16 17 7 -22 10 -38 68 15 -27 -56 35 -1 -70 33 -48 -31 20 -45 23 21 -16 12 43 -23 39 66 -75 -8 41 10 -16 5 34 37 19 32 45 -8 19 -4 8 44 -13 -37 -34 -127 -3 13 67 -47 6 -27 13 -31 42 9 4 -4 -7 -26 -11 -3 10 -7 -39 -25 10 25 -34 79 -9 19 -24 -9 2 63 49 -26 -7 -2 -49 14 2 92 -1 -36 8 -14 -61 5 6 -1 -10 -47 33 -32 9 -14 -23 -68 48 14 -28 -7 26 2 -5 -9 20 -11 2 -1 42 -23 -16 -29 -43 -20 13 42 -9 -22 -15 -3 -33 -18 35 14 -11 -23 -64 -17 4 12 3 19 22 -6 5 -1 3 -26 30 -8 58 17 26 -8 -3 11 -6 53 4 -21 -30 23 13 -47 -35 62 -83 35 -1 14 -15 28 27 4 -58 -25 -11 3 23 6 -55 -6 93 -38 -1 -58 -45 -47 -40 9 -87 24 -44 -15 -2 11 -14 -34 -43 -26 30 69 -43 -6 45 13 -21 -20 23 58 17 4 6 35 14 -16 53 37 -8 9 5 -7 -40 -40 20 32 -22 -28 20 23 -29 -9 -9 29 62 0 -30 -17 25 17 0 26 15 49 52 24 8
-50 3 -2 17 -5 -41 41 -25 -5 -9 5 -29 -8 9 -25 18 1 -34 47 42 15 21 21 -11 -6 -5 93 28 -2 32 -21 37 1 41 3 -6 -16 32 -30 16 3 -11 -8 -27 62 -25 22 25 -5 16 1 -31 33 -12 -40 10 -88 -16 16 9 6 -9 4 11 -4 23 -32 -3 -15 26 32 -53 29 7 -13 -15 -20 3 -10 10 11 40 0 17 11 8 22 -34 3 -20 -18 22 -43 -13 -14 -36 -8 -12 28 -10 16 16 -22 104 -19 19 5 -13 -55 -18 2 28 14 -16 2 40 -9 0 -28 -11 35 5 1 -14 19 -14 54 1 39 -24 -50 17 3 22 -3 62 -8 -9 -38 65 28 -15 -41 -31 18 -18 14 -15 5 2 16 -33 57 48 34 -3 6 15 48 15 44 17 16 -14 92 -56 23 17 11 25 37 27 -27 9 -10 -42 35 10 -24 -23 36 35 -15 -53 42 4 43 -17 1 -63 41 -41 -13 2 1 6 -11 -50 -1 36 56 22 11 -28 -5 -7 -9 24 -35 17 -10 -15 -33 7 1 19 -29 -16 13 33 -3 -8 -2 33 -4 13 17 27 29 -26 -50 14 4 49 14 1 25 -1 -6 13 11 8 16 -24 39 19 10 16 -1 9 23 14 -43 -10 2 -5 -12 -34 16 -38 73 -6 16 -13 13 -12 -5 17 -30 -34 -17 51 -24 36 32 54 -20 25 4 31 14 2 17 46 -23 11 51 -26 0 59 24 26 -2 -20 -26 8 -27 8 -20 -7 43 20 0 12 -30 -8 -13 -37 18 9 51 52 36 -24 7 23 -60 0 30 -5 14 -26 28 32 11 2 11 23 40 -9 1 32 24 -43 12 19 50 54 0 -13 17 -41 21 -9 35 32 4 -53 41 26 -78 -36 -86 11 -106 7 22 20 12 3 2 -32 -75 -1 0 35 6 35 -14 -21 13 -69 -11 18 25 -26 3 14 30 54 18 28 30 -1 -5 8 21 4 -15 20 -2 -27 -21 -24 -52 18 10 -14 -21 8 -23 -6 47 2 -13 4 15 25 -7 -21 5 6 2 -19 -10 48 -5 3 -26 24 -26 31 -38 12 -30 -8 -23 32 -8 -8 -9 31 22 -24 12 27 -5 -25 44 17 20 45 37 -5 -7 4 21 -61 -50 35 -30 24 11 -4 9 41 8 -59 -16 -63 3 -49 53 34 -4 -48 17 22 -33 -37 13 3 5 13 -27 20 11 35 -6 -17 18 -38 43 -14 -46 12 -9 -5 15 32 -42 13 0 6 -4 -37 17 18 5 -9 -22 20 -37 -34 2 -8 42 126 -30 -72 -16 31 29 -68 25 20 -20 42 -15 7 10 14 -17 28 24 -2 -32 14 34 29 3 32 3 35 -13 -19 -9 -43 22 -38 -9 19 7 -26 -13 -13 -7 -69 -11 4 28 -22 7 -8 0 -8 17 34 24 -3 10 -6 27 32 10 4 25 39 -45 56 -19 37 46 27 -15 10 24 4 0 7 8 26 4 0 -13 -55 35 34 8 49 -21 32 -24 -44 -8 1 -26 30 4 -11 26 45 -40 24 -5 22 9 -33 19 31 52 26 -6 14 3 -3 45 28 19 10 44 36 -11 1 24 17 -18 21 -5 36 -14 4 52 10 -15 30 -51 7 -27 7 85 -2 -20 9 13 53 -34 -21 10 -29 76 -14 -5 13 43 25 0 9 1 -34 16 -7 -24 -2 8 -5 -27 -26 22 -8 44 -54 6 -28 57 31 -12 -19 -2 13 35 4 -27 -48 2 -6 -17 14 9 -9 10 -21 -21 -10 -12 -14 -1 -17 -37 27 15 -20 29 7 -18 9 -2 12 -14 19 13 0 8 -19 -24 -26 8 -23 -2 -21 26 27 -4 34 25 -18 7 -63 24 10 -11 31 28 21 4 -26 -46 -15 49 18 26 -9 5 29 37 27 -14 14 -1 18 10 2 42 0 6 55 -17 -25 67 -13 -42 -4 36 46 -16 -6 33 28
29 -23 -61 -44 1 1 7 -10 -31 22 2 46 -15 -15 7 -13 -12 53 -19 10 -29 26 18 -14 -28 -26 -4 52 31 38 -16 -91 -7 30 9 -82 -67 67 -6 7 18 26 -12 -4 -14 39 9 -33 4 -36 22 37 34 53 70 0 -20 -14 13 11 12 3 36 -9 -21 58 -9 -6 0 -15 28 29 -61 -44 55 1 39 19 69 -13 36 -11 27 17 7 45 -51 -29 -12 -23 -12 -28 45 10 -22 -19 -9 21 -22 6 -12 3 -16 -18 -6 -2 24 36 20 -7 -4 7 26 40 -67 -6 10 2 34 -1 -8 11 14 -19 -1 -6 57 7 18 -34 -35 33 9 26 -13 -14 -22 4 41 -37 37 2 -5 41 -16 109 35 33 -5 11 -35 -13 -9 16 -55 -5 -19 -21 4 -9 -35 7 -72 16 -46 -72 -37 -50 3 21 44 28 0 5 8 1 -4 46 48 -9 -15 -22 51 -5 76 17 16 -13 -2 -61 -10 -70 -2 -15 6 -36 -1 42 -2 8 24 24 -6 -26 -4 -47 6 55 0 32 52 6 -43 14 20 -1 2 10 25 -6 -11 34 21 40 -20 9 -17 23 12 -58 -31 24 -3 2 0 33 51 -39 0 -31 17 54 -52 -17 71 -3 -73 36 18 -46 25 -10 3 -28 -14 -17 20 10 8 5 -24 -23 -6 4 29 -6 45 -29 18 34 83 -28 -15 12 -8 -2 -8 10 -34 -35 9 28 7 14 20 -12 -27 -23 31 -7 -12 8 -43 -81 -15 -2 41 17 -3 24 47 -6 -4 -36 94 29 43 47 -69 21 7 83 -18 -24 20 1 -13 -31 14 -8 0 -43 27 17 12 67 28 -5 -3 23 -15 -2 -35 26 -26 31 47 -30 -28 1 3 -6 35 -22 -16 26 -60 37 40 -24 58 -28 70 -22 -31 -23 -8 -31 29 -34 32 -38 -27 17 35 7 42 12 23 41 -25 -15 -76 -25 -1 -15 35 -5 -24 -11 -5 42 39 13 42 6 -29 -18 21 -73 -35 -30 -32 -12 -1 -1 -6 8 -9 -21 4 -18 17 -7 -22 8 0 2 12 -29 7 0 -5 -8 -33 -21 -11 -4 5 -4 -20 -30 30 17 -26 21 -43 24 2 64 5 -17 -7 35 -1 19 45 -35 -38 -33 -10 20 4 3 12 -32 38 -2 -6 -14 32 -23 -43 11 7 -47 1 -15 7 61 -10 19 11 48 -25 3 31 -8 10 -28 39 10 -2 -17 32 52 -4 8 -4 16 14 -48 72 26 -12 9 -29 33 36 20 29 -35 16 97 -7 77 17 -8 -11 27 -39 -23 -55 -1 78 -3 48 -93 6 -43 -5 -7 12 62 -3 -14 43 -10 12 -1 -30 14 59 -53 -22 -67 -6 10 -46 36 12 -9 -66 -8 -28 25 34 -15 -4 -66 12 -19 -17 7 -6 5 9 73 56 -24 -51 -7 -6 50 -16 4 16 -43 37 36 -6 4 -17 24 -21 -39 25 12 -6 -6 -2 -13 -18 -23 20 -48 -26 6 -8 -28 21 -2 35 9 -5 -20 38 12 13 43 -5 -41 -19 40 51 5 -26 -1 5 -22 -24 -28 -45 31 -19 11 -5 -36 -34 -8 12 -14 -49 -18 62 -39 -44 -18 -7 9 17 -50 -11 -17 -3 -50 30 -5 14 -19 -22 -103 56 3 -18 4 64 5 -12 31 -56 8 -42 -15 -18 79 33 11 -19 -47 -35 -68 7 41 5 -3 14 -56 62 17 -11 -2 5 -47 -30 4 19 24 -18 -19 -52 4 4 -63 -15 46 2 -12 50 56 31 -41 8 2 -4 -12 -33 36 -25 -26 17 -15 -9 11 -14 -21 20 36 -26 15 -12 13 14 -81 -57 22 -5 -16 -25 7 -60 36 17 -8 -127 15 -19 -43 -12 62 -12 -23 40 23 12 -8 -46 -34 3 5 14 -29 18 2 -7 -4 12 17 -17 81 67 -28 -12 -21 -10 -63 18 43 -40 0 -9 -34 -24 83 15 49 1 -21 -19 -48 5 11 14 -40 30 -8 -19 -16
69 -61 2 6 17 -15 55 91 -36 7 -37 -39 -49 -5 21 -3 -8 -1 2 3 -21 -29 44 91 -8 -51 40 0 -2 37 28 37 -46 52 -18 65 30 -101 15 18 -33 -15 32 1 -7 17 -4 -18 -19 -35 3 5 95 9 -16 -12 12 25 37 -16 48 32 -15 -24 34 -12 -50 6 24 21 69 -32 42 -3 -38 -11 -15 27 15 -39 -1 6 50 -19 -41 -22 -24 3 -29 10 -36 -15 -46 15 -16 15 27 73 -29 -49 -6 -11 -28 -35 27 -2 44 -93 -2 18 3 -40 -35 5 -24 17 -29 -1 12 57 -25 -70 18 -2 -4 -22 -17 -56 -30 -41 -2 -35 -17 4 -67 -77 -46 -67 40 30 4 -73 6 -40 19 10 21 -35 -20 23 -53 1 105 17 9 32 10 30 -25 -1 61 17 -114 16 8 -32 -12 -14 52 38 -48 2 -13 44 0 36 11 -22 -78 62 -2 -48 65 48 -45 -3 -4 -7 0 -41 -15 -69 -15 8 -63 -16 -30 7 27 48 -77 40 66 44 -40 -32 16 53 -30 5 26 -7 21 -42 5 -30 -43 -49 -1 -55 11 11 -45 -7 27 5 -16 -18 -6 -7 -17 -41 45 8 -9 -20 2 -39 35 19 33 40 -4 71 11 -28 13 19 59 -43 85 -9 16 12 14 24 -64 -15 -7 -1 -31 -8 62 100 -13 28 -29 55 1 34 15 -7 -1 -42 52 35 36 -24 4 22 25 41 1 -81 -21 77 -73 -27 3 -38 87 -6 -45 -8 -3 -7 -30 -15 15 -44 26 17 21 7 45 14 -4 8 -31 59 13 10 -16 57 28 -60 17 -48 -58 -33 -29 -82 -101 44 -8 56 -22 52 58 69 -23 -7 12 22 -11 -34 79 57 25 2 -48 -9 -34 43 54 33 -29 -48 29 -38 15 18 63 -33 22 13 -36 8 55 7 0 18 6 -2 34 -10 -26 47 -51 -23 33 -60 65 13 -3 89 33 53 14 29 -25 32 10 -11 -88 6 15 -14 -50 -25 3 20 6 59 -118 21 -15 39 18 24 -22 11 17 22 30 -21 65 -28 -52 1 -56 -27 12 -30 4 -17 -21 -21 19 6 2 42 58 11 -22 -47 18 3 3 35 35 -6 9 -29 64 -16 -4 -66 -11 -32 -24 40 -77 -8 27 -54 -53 5 -33 -33 49 22 -24 4 65 -30 -37 15 -50 9 -21 -11 -13 42 -33 -50 -7 32 12 -35 -81 41 21 4 -50 -32 -52 -4 26 7 -32 60 14 -5 15 53 -24 -8 49 -91 -38 -46 -22 59 24 -14 11 -22 13 65 -56 15 10 -25 -59 5 36 -49 50 -21 6 28 74 37 -11 25 -34 10 -1 -35 59 18 -33 -93 14 -22 -3 14 -30 16 25 -39 22 -21 18 -50 69 -38 3 -47 -19 16 -17 -7 -32 -8 -5 -13 4 7 14 29 -50 30 46 15 6 6 -38 2 -22 21 -49 28 -13 40 29 -37 -85 6 35 4 41 0 -16 -28 -13 -12 -68 8 23 -23 -8 15 -5 24 28 11 3 -57 68 18 29 40 -50 50 9 -82 -49 90 16 -19 41 1 -10 -30 38 -52 56 7 -2 9 51 15 -34 73 -44 2 7 7 33 -58 -56 -2 -37 -14 -6 -13 -42 -33 -38 86 -109 -22 2 -6 4 49 -3 63 81 -60 -127 2 -10 -36 30 32 38 4 -110 -10 19 -25 122 -29 10 -2 -33 0 46 50 1 -14 -8 15 48 -110 83 19 65 8 -31 -7 107 16 -27 -5 -13 -12 -57 15 8 -20 -26 -25 38 41 11 -42 -25 63 54 -16 -59 -12 -11 6 0 7 -31 11 58 1 -23 34 5 -53 86 65 87 6 -41 71 -63 20 -25 -46 43 3 28 -49 -38 -37 -62 25 -16 -15 4 70 -18 -6 26 10 6 -15 12 -3 14 25 -1 -40 -28 32 -11 29 83 -33 43 5 -51 20 -26 5 -22 27 -14 -33 39 -12 40 -7 25 -20 -5 -9 9 -11
46 -26 23 -6 32 75 16 -8 -15 -11 16 32 -12 9 -6 -13 43 37 12 55 24 -27 -51 -79 2 -35 -58 83 11 -26 -34 -28 -17 -38 44 52 -13 -4 -22 5 7 -5 -58 -51 70 -49 24 -9 35 -47 -2 53 51 -23 13 -22 11 -15 -14 17 -54 4 22 -12 -17 -65 35 7 27 -26 49 -32 24 -1 80 0 -47 -1 -1 -1 -12 -33 25 6 -16 -56 79 20 -2 34 69 -21 -18 28 -22 -13 34 -21 93 42 -26 -31 2 15 -11 15 -36 -13 11 -40 2 23 38 -26 40 11 -36 31 25 13 49 -13 -12 -17 0 14 6 7 -11 28 50 8 47 -16 0 0 -5 78 -44 -31 -6 12 13 62 -6 64 4 -6 -27 35 -41 8 73 -2 42 45 -14 11 0 -2 -13 -16 8 4 105 -19 25 48 -60 13 -9 21 32 21 33 -6 -21 63 21 10 -63 30 36 -52 -37 17 -50 -29 9 47 -45 29 -11 -33 -31 -46 42 60 29 34 -105 -7 3 -22 29 -67 -16 -51 2 23 -9 18 -72 -56 17 -9 52 -9 16 0 50 18 -49 20 20 -9 13 104 10 -29 20 -34 19 15 46 33 -24 -69 65 -48 29 -62 -62 16 -65 -22 -10 -3 -52 -30 19 16 -47 8 -52 -89 -61 77 -12 -40 26 -8 -48 9 -16 43 -48 -17 8 23 -66 27 24 19 50 12 48 -4 -33 35 -32 -3 8 -70 62 20 47 18 -23 15 -104 36 -116 -59 43 26 -35 12 -32 50 -38 -33 -5 -2 25 -61 -62 38 41 5 -53 43 -9 -4 -34 -15 18 46 -53 7 35 1 -70 -22 -44 -77 33 -8 73 -9 -33 -68 -64 -24 34 23 -61 38 -23 -41 -49 -4 -35 5 -44 -26 -85 36 -8 33 -80 100 -1 -36 -8 -27 -23 12 -1 33 3 -26 121 -13 -16 2 -32 15 -52 -35 -12 -13 44 -42 1 65 1 25 7 -22 -37 13 58 57 -7 -87 -45 49 89 -10 0 37 18 -29 33 23 -23 22 2 9 -47 54 -56 -10 -1 -23 -36 22 -25 18 33 21 -47 50 72 51 14 -6 -19 -10 -26 -24 -18 -26 -23 -2 9 -1 30 34 -3 17 0 34 26 -24 31 15 39 -13 -8 -28 26 32 -26 -52 0 40 -111 -42 49 16 3 28 65 8 73 1 -9 -34 -48 -17 -31 52 -5 68 -76 -34 3 22 -10 -44 10 11 -9 -46 4 -4 42 -57 29 7 11 44 16 70 15 -34 -34 6 -16 16 -46 -41 48 -83 14 -12 18 -2 -47 26 -22 8 -58 -17 -82 2 5 -67 5 16 -18 -7 -65 -55 -23 30 1 4 8 -32 -29 -5 -34 38 2 60 -31 -4 11 60 44 -65 20 -22 39 29 -25 26 56 27 -63 34 -54 6 -34 49 -18 7 18 -7 3 12 27 44 38 76 2 51 -13 20 44 -34 30 -56 35 -2 32 7 21 -9 -53 -6 48 28 -53 -40 -10 -3 -1 -53 -2 2 -17 -27 23 23 10 -31 53 17 16 -68 -49 24 75 19 114 15 30 15 68 44 27 50 31 6 -64 24 -127 2 -41 2 -46 33 -52 -27 -24 22 14 79 -23 24 1 34 0 41 -69 12 8 5 34 -48 24 -9 -1 -35 9 36 -26 8 59 -24 -27 -43 4 -4 -9 -1 62 18 -41 5 0 23 2 1 -26 56 -5 -14 -20 18 -16 9 -4 34 -37 10 7 11 2 -25 26 -2 -16 29 -31 -40 -6 14 39 -13 14 5 62 -68 -33 -37 21 -70 13 53 33 41 75 42 22 -44 -49 24 61 65 44 77 -68 14 63 10 -45 -5 34 13 -27 41 49 66 -16 -33 -8 59 -34 -52 31 64 42 -39 -42 27 -16 -1 76 -53 39 -32 4 32 31 6 8 11 -27 29 -59 0 15 36 -31 24 -7 7 33 -36 -14 0 47 1 -24 -17 59 -48 -32 -65 -6 -30 -13 -56
59 18 19 26 -20 5 -26 34 39 7 -15 -8 -22 12 14 -16 -38 13 -2 8 -33 40 30 -8 -12 -56 -60 3 -3 20 -39 -18 2 12 -4 -3 -3 -11 6 -29 -19 -11 -26 -11 -57 39 -28 -1 -5 -25 39 53 3 32 68 -10 34 3 -3 3 -27 -11 -9 13 13 -15 -7 -29 3 25 39 4 64 2 24 -19 26 7 0 25 -49 17 -5 -6 39 -17 0 -13 -22 -39 4 -13 14 17 4 -24 -23 10 -59 -8 -15 25 -11 -7 30 1 -27 -9 37 31 4 14 -9 5 -7 -17 -3 -4 12 19 -11 26 2 -6 -31 -27 -26 23 19 -11 -48 5 -6 -16 45 -6 -2 24 41 36 -12 -38 -21 -42 -15 -80 -37 -37 3 -29 7 44 18 31 5 -36 7 20 33 41 84 -45 -46 28 10 -23 29 -9 -9 -12 19 30 -20 10 -6 2 -14 20 -44 -16 -3 -18 28 -7 -49 13 -33 31 -10 5 -86 82 -57 -7 36 -8 51 9 -8 40 10 -15 25 12 -7 -15 2 -30 10 -14 -3 0 -12 5 -10 6 20 4 -18 15 61 51 5 -63 11 8 -35 16 -16 26 3 8 -8 28 17 5 11 -14 68 -20 -9 -34 -25 2 27 -7 -39 33 56 -14 25 24 -16 -22 49 -41 -5 26 -59 -34 0 0 4 61 -30 10 40 -1 59 -7 42 -25 -24 10 11 -20 -36 47 24 -49 -29 -27 17 14 9 35 -3 -32 29 3 -64 -1 48 36 11 -28 -18 22 29 58 28 17 -24 3 21 6 1 9 -5 -10 -25 6 -34 -23 19 -30 -17 10 -33 -45 23 -6 -6 -4 11 0 2 1 35 44 29 45 -23 14 16 -33 42 43 39 13 -24 -32 -25 -28 -12 0 21 21 4 20 44 12 40 9 38 34 19 0 50 -34 38 10 -40 16 -8 41 15 18 -21 23 -17 -7 19 13 55 -47 -18 5 -4 -11 3 -18 21 -3 21 5 18 0 31 -79 -20 -16 25 18 19 44 27 -18 -30 30 -28 -33 -54 -8 4 4 16 37 -2 20 11 -14 -79 -18 -41 73 3 7 6 43 -25 -32 -6 -3 -18 -38 34 6 1 76 8 -10 28 -4 8 10 -5 16 13 -26 -30 2 17 -37 -1 65 -21 -2 51 -17 -24 9 -2 -26 -14 -48 -56 -27 4 -10 -7 -19 -8 5 27 -19 -2 4 21 -11 -6 -17 -35 -15 14 9 -39 -11 -34 21 64 -13 42 4 16 -24 11 -30 22 -11 -9 -22 0 8 -16 6 4 -20 -17 52 67 -19 -43 28 41 56 -75 31 -66 -29 -43 -15 -52 -20 -21 36 -20 9 -10 5 12 -29 36 -1 28 19 -3 71 -1 7 3 -45 59 -48 -41 50 12 1 7 -7 15 -5 2 -12 14 1 4 19 -35 -7 -18 -12 44 -6 -16 -32 -24 12 45 -28 -38 -5 6 126 1 -10 73 -43 45 -24 -1 21 -8 -15 6 -32 -20 28 34 -22 -37 -41 -13 -4 6 -20 26 -40 3 3 -7 35 2 4 -25 31 31 -55 3 -26 -38 24 19 46 7 -7 -27 -19 -1 22 -1 -9 -14 -31 -20 54 -56 -9 14 -39 17 1 -103 4 38 7 33 52 16 29 -9 -18 54 32 3 -15 63 32 7 -16 -35 -13 55 12 -25 -5 68 1 13 8 25 16 -36 -4 -4 -7 2 22 10 13 -9 28 -11 2 -3 43 68 -11 -1 29 -5 34 -12 28 9 -11 50 -18 -20 -18 2 13 -10 6 -15 14 -76 -15 -26 -20 -27 -28 -4 6 -3 -18 -24 16 4 -19 -30 8 28 -1 17 1 -7 -17 30 51 -36 -57 24 19 -21 57 -7 -53 -4 -33 8 70 -27 -3 -11 27 54 3 -1 -36 14 -2 12 -15 1 24 -13 48 -29 59 -21 9 -12 42 -14 -24 -13 -37 2 -28 -5 0 3 -9 1 10 -2 -16 -28 -22 -33 -31 -39 18 -2 2 -8 -33
11 9 -13 -29 20 15 -58 49 -4 -32 -30 3 -45 15 -15 0 26 -50 -8 -10 2 -63 19 11 -2 -38 -81 119 49 41 13 41 55 -30 -31 -18 26 -8 35 33 -3 3 -61 21 -34 -47 -24 -29 -39 66 0 17 -4 18 31 -31 -67 77 49 28 34 -13 6 23 7 34 -10 7 0 -24 -31 33 -1 67 103 -41 -56 -19 3 17 10 -25 11 -11 13 -28 4 34 -12 19 -1 -9 35 18 0 15 -12 8 9 -29 -3 -38 50 62 86 28 41 -35 -49 10 2 -33 4 -7 6 39 -25 -34 -68 38 17 -68 -39 -44 -2 33 79 -32 -43 12 -97 -42 -15 -56 29 -27 25 -22 -19 44 -6 -34 -10 43 0 -100 15 16 -16 14 58 -44 -68 -19 -41 -9 2 44 3 18 -17 -13 -62 42 38 84 16 23 45 -25 -59 67 80 -11 29 7 -53 -37 -4 77 -7 9 40 -62 71 42 -19 -7 -41 -69 -23 21 7 34 11 13 14 4 20 57 9 79 26 -22 -42 9 16 82 59 -24 48 -7 64 4 -13 -1 -5 -19 -45 -38 21 15 2 -62 20 3 22 -34 57 15 1 41 23 -15 45 0 47 -39 67 34 -1 -15 -39 -42 -7 0 24 26 -5 -16 17 7 -18 37 -12 46 -23 -39 -14 -11 -6 -26 21 -70 -1 43 51 -86 33 -34 30 -10 85 40 -55 -14 -20 68 -27 -28 -41 -24 -3 10 29 19 -27 22 47 -30 66 -36 -13 -2 -37 -12 -4 18 13 -40 -2 19 -5 -11 45 87 10 -58 -13 44 -44 -59 -4 -120 -9 -32 41 -44 16 8 17 39 -6 4 -41 -25 24 -8 58 -27 0 57 -35 -36 59 -2 -13 57 30 -30 44 -72 -11 56 -64 -36 77 64 -13 -47 36 -56 38 -25 63 -16 -55 51 33 12 22 -23 43 26 -23 18 39 -48 56 16 30 -24 -9 -5 23 20 -36 29 -29 -46 -22 -19 -8 14 -5 32 33 17 11 -16 0 -35 -23 5 40 110 0 -22 -37 -34 -57 126 27 -12 71 8 -11 17 15 3 -16 26 43 -78 35 42 20 -30 -35 -50 16 -55 66 -15 -17 39 32 36 -16 56 44 45 8 -96 53 -16 -110 -46 9 -82 67 -25 15 -23 -39 14 -42 -40 -47 12 -52 -3 27 -4 -22 -10 -87 26 75 -55 -31 40 -32 44 37 28 -53 -44 -21 29 70 -50 -22 18 -65 1 -13 41 -44 27 -73 -33 43 -52 -1 102 29 59 -40 27 75 -4 6 6 -42 -18 -40 1 48 23 1 61 -77 5 45 18 35 22 10 17 34 5 7 17 -99 2 -8 -68 -60 -5 36 -43 43 -68 -56 13 -8 46 20 -3 -55 -24 10 33 -2 15 -20 11 32 7 -4 37 -56 2 58 -18 28 -18 -1 -12 35 -14 -43 20 -43 76 21 -37 17 -4 5 13 -21 70 2 3 112 75 18 -52 37 -19 102 -11 -42 -30 -1 21 -11 -31 -16 45 40 -18 -69 -67 -22 -10 -11 45 18 -28 11 -67 42 50 -48 -37 32 -51 15 -57 27 72 21 2 -36 15 -32 2 26 -30 -41 -70 -23 38 25 -2 41 -6 46 -109 1 47 22 55 30 16 87 41 8 30 3 -5 15 37 11 -53 9 59 0 -21 -13 5 -10 31 -46 20 -99 -58 -3 59 11 -29 -44 -22 44 -12 35 -14 33 -27 3 11 -34 -76 10 45 -30 -25 -5 32 14 13 33 -11 -46 29 39 -3 102 19 26 -2 -5 74 -50 80 -28 46 -4 -121 71 58 -23 -34 -2 -15 16 -6 -73 13 1 25 -37 -26 55 -6 -1 53 -112 78 -45 8 -24 24 -25 10 -18 -22 -6 30 7 -50 -38 -8 25 -74 11 -17 11 -15 9 -43 4 -14 48 -8 -80 -44 12 -23 -24 65 -45 33 86 17 3 20 8 35 6 65 59 15 0 11 30 2 24 32 57 23 -11 -32 -40 -58
-41 8 0 -13 -13 14 -40 12 1 -21 -10 12 7 2 17 -36 42 26 -29 20 20 -41 -38 -14 -12 12 43 -48 -20 -33 -64 -7 39 -54 3 -3 14 55 -33 54 21 -31 6 27 -9 54 4 -1 -8 2 22 2 -56 58 -44 -11 57 -35 -13 -18 5 -22 -32 -23 -2 -11 -48 16 52 -23 41 -25 -52 -1 -10 10 4 -7 -20 -7 43 11 -11 -9 -37 -9 49 -21 -26 73 -11 -16 -50 26 -19 12 1 -4 -61 -32 20 -20 26 -26 -8 -12 14 -14 -34 -10 1 22 -10 -64 31 7 15 24 29 10 38 20 9 17 -18 0 -15 15 6 7 -33 28 -13 -18 126 -55 -55 -34 47 -32 37 -14 18 25 -6 120 50 25 64 -31 -17 -24 36 10 -3 -17 35 -21 -16 8 -91 -43 -5 12 -23 54 -4 1 -36 0 3 -36 11 44 2 3 12 -25 21 14 -12 -20 -21 -36 28 -27 16 1 -19 -36 -12 -3 57 -2 15 -27 -17 -17 19 27 0 45 -24 -17 -27 -1 24 -40 39 -15 -32 14 37 56 -1 7 22 11 14 12 -9 -48 -25 4 16 13 -6 -32 3 17 -17 -28 11 -26 -3 -15 55 45 -112 -88 -5 -23 13 -16 -15 -16 -6 20 26 24 52 1 -21 34 6 6 14 28 -3 -22 -36 -2 31 -22 -8 -46 7 42 61 22 53 -33 -37 -2 -37 74 -31 -29 9 38 -58 40 5 -3 -39 15 72 -25 -27 -6 -31 30 7 73 -42 2 -27 54 -1 1 -38 9 -21 55 -5 -103 -2 -10 -7 10 69 -5 -18 -22 -30 17 -56 3 -40 -26 7 -42 -23 -8 31 -4 10 18 23 -46 -9 2 56 -22 -23 24 55 48 44 3 35 26 -10 -35 17 3 39 7 -2 39 -42 -15 58 -35 -23 -20 18 44 16 -37 -17 -26 -19 -10 -4 -16 -3 1 23 -23 27 58 38 -8 40 19 -1 -5 18 -48 -17 29 0 32 26 -9 1 -1 29 -14 -23 71 -10 -31 8 -1 31 9 -49 -23 -21 -22 33 38 29 27 9 -35 7 9 -2 16 4 17 33 -103 35 18 -14 2 -2 46 -44 -114 6 -4 41 -28 -7 69 -8 31 -22 -1 51 19 29 45 20 -22 26 -29 -22 48 -35 30 -30 -58 51 14 6 -4 -3 35 -46 67 3 9 -7 6 -34 -26 -1 -33 -35 4 19 19 -9 -45 -38 -14 31 -12 13 -38 50 44 -14 -20 -10 13 -19 -17 36 31 17 -72 -16 -29 54 -17 38 16 1 -35 17 -52 -2 24 -31 -49 27 -8 -13 27 6 13 22 -9 12 16 -11 7 77 41 -47 -25 5 9 41 -20 19 29 -2 -14 -15 -40 -25 -9 -27 24 32 19 28 -12 -2 83 -7 -2 -24 -24 58 -7 -4 30 4 40 -9 20 -7 6 -13 -11 -32 70 -57 6 -48 -69 -66 -11 25 34 31 -8 -12 13 43 12 -6 -4 -32 1 27 -12 -60 7 -6 -10 31 -28 -26 -19 24 32 -1 70 -3 18 45 14 74 10 -57 4 31 49 -24 12 -36 -5 8 -15 -5 7 24 -10 -26 27 42 12 18 16 -22 2 -1 -10 10 -49 23 4 2 -18 -34 9 12 54 0 -19 6 -35 -21 36 3 3 -43 -6 -10 1 -34 -29 1 -20 11 68 1 32 -68 -52 24 14 -6 -17 26 -8 18 24 28 -8 -27 24 -11 40 -11 60 4 52 72 73 -17 -26 -2 56 15 -20 -5 -59 45 30 9 -18 0 -21 17 3 -4 11 -5 -1 -14 -3 -17 -17 4 23 34 -48 8 28 24 -19 74 37 -76 -41 -15 0 -24 -37 9 82 12 -7 -25 -22 -24 0 53 -17 -16 -34 46 42 49 40 58 -36 -7 5 -16 -5 39 2 10 -20 32 -29 -5 -17 -21 45 4 42 31 0 -26 14 33 7 -23 17 -25 -38 25 6 3 14 -21 -39 -28 28 2 -24 -21 -20 -11 4
74 2 0 -5 65 -2 38 16 1 -31 -15 10 12 -9 19 -30 30 59 34 17 -16 27 23 -1 19 94 11 24 -34 30 13 -32 28 -17 -34 -66 -17 -34 -18 -33 -36 17 -19 21 -29 47 0 -41 -1 -51 12 0 -36 51 31 3 6 38 30 14 17 -2 -25 -31 52 -2 -73 -41 -76 20 5 -59 4 22 -37 35 1 40 3 16 22 20 22 -16 -7 -1 6 7 28 29 1 2 -50 -18 -38 -16 -62 -23 5 19 1 39 -1 -38 31 30 -16 -84 -21 78 5 35 7 -5 17 40 53 -7 -7 38 37 -44 -8 18 -14 27 27 34 -44 14 17 -13 26 -6 61 19 -15 44 -21 -27 58 59 -20 -12 -28 -75 0 -34 17 21 -38 -12 -71 20 19 45 -1 -82 -18 4 41 13 -18 -36 -75 15 23 -41 12 15 -25 64 -4 -1 -8 -27 23 -25 -36 -41 -44 -30 11 37 -31 12 -72 46 -23 -22 7 11 25 -24 -46 60 55 -28 27 -49 10 -17 -60 11 -29 32 -44 -66 27 -44 -30 28 25 -65 -32 -44 -49 -39 0 -12 -32 -52 10 6 -17 -20 -77 -2 41 28 -50 -35 -29 -30 -9 23 89 -39 -19 -28 11 67 -40 55 41 -41 -19 4 63 6 -44 17 -4 34 -8 12 -25 -17 13 0 -15 -7 11 -43 -22 7 11 60 -23 -21 15 -53 -34 19 26 -56 40 -30 -9 34 -1 -33 1 -3 -36 53 2 -10 2 27 -1 -9 59 22 1 12 2 41 -45 74 14 20 -28 4 -90 -12 -44 -38 -4 -32 34 -9 43 7 -41 27 -70 8 -5 -119 13 -51 88 -59 -28 -12 11 20 -7 29 -18 -31 -97 -9 -19 6 -28 -70 36 -4 14 11 9 -30 1 68 42 126 34 3 -74 -28 33 29 11 -59 26 0 47 29 -15 17 -37 -48 -15 -2 -20 12 -21 23 60 -35 -48 -56 -7 0 -9 17 36 22 80 28 -45 31 6 23 -23 38 -7 -11 30 -6 -35 38 23 -36 21 11 18 -47 44 -10 -28 -21 -26 8 6 41 -47 -10 -1 -8 19 28 -28 15 27 -7 16 4 -35 -64 -52 -20 18 -7 62 -6 19 12 -66 -8 -20 -3 -22 39 -71 21 62 11 -7 -24 36 -54 -4 41 -8 -15 2 1 6 33 6 3 20 -16 8 51 31 -40 -3 34 -10 -14 83 65 -28 -79 16 -64 20 -33 64 8 7 16 13 -2 9 -2 -46 -27 -14 -60 57 18 -11 67 -16 46 24 3 30 -2 33 8 31 20 -1 -67 -15 -6 -6 -34 7 20 -40 -14 20 12 -8 -3 17 -56 -22 34 2 -34 7 17 -6 45 -49 -41 -16 -10 -74 -7 -52 -4 -67 10 -24 1 8 58 18 32 17 27 -16 59 -33 -38 30 -6 -49 -25 32 -30 3 42 -10 26 -47 -27 -33 -2 32 -5 -46 17 40 -26 -7 -15 8 20 -5 -13 28 6 -54 1 -62 -32 33 -2 -4 -41 -15 -19 4 -11 20 8 4 36 3 33 -93 29 -19 21 34 -1 19 -40 -3 63 1 24 42 -23 29 -21 -14 45 13 -11 -44 -19 -5 -17 34 14 -14 66 18 -58 37 -75 -19 -29 -21 22 10 32 -13 9 -50 30 2 21 22 -16 -23 31 27 -53 10 22 -6 18 -70 -13 59 11 -2 40 6 13 68 -17 16 -18 10 -35 -27 -37 -41 0 -14 -11 35 -30 3 -27 -56 -5 -5 17 54 31 4 -26 -45 -5 -31 46 -46 -5 -34 24 31 32 -47 -100 24 29 -29 -18 -22 2 -15 -5 -9 31 -8 17 -50 -46 -27 11 -42 40 -4 -2 -12 -43 -9 -80 1 10 63 7 8 41 -10 -32 16 -8 11 -15 17 22 -28 0 -12 -12 11 -125 16 -14 -20 -12 -11 -6 -29 30 -29 3 -35 26 -86 3 -16 -43 -5 -12 0 38 -26 27 29 -42 3 17 -28 4 11 -26 10 3 60 3 8 -31
84 5 -18 3 -13 20 12 -44 67 -25 7 9 56 49 8 -36 -12 1 5 -5 35 -60 -45 21 46 -16 -52 5 -11 -41 -20 33 39 -47 32 21 15 7 -5 12 -48 -9 -3 10 6 -22 -5 15 56 -26 -21 73 17 -29 -21 5 -30 2 19 9 -37 27 33 1 -6 -93 19 -11 -59 -3 -61 -25 126 6 22 22 -1 40 -48 27 4 -4 18 -2 -31 38 -46 -26 40 0 -23 31 19 32 5 13 -31 -24 -18 14 10 32 6 -8 -22 -25 -24 39 34 -10 2 -13 2 -70 -49 -16 -17 -24 -31 21 -48 32 -13 -16 35 -13 4 25 -41 -45 14 57 -18 -2 -28 -28 7 -13 -7 -56 26 17 -31 5 8 -40 -9 -47 -24 47 91 -53 68 69 17 5 17 -2 52 34 112 -10 -1 40 -9 55 53 10 21 -6 3 -25 -102 59 43 -23 29 -12 -8 35 -6 41 -17 44 39 11 50 -4 -37 -43 29 -9 -32 -1 24 14 -2 7 -8 40 -37 54 -10 30 39 -35 -16 6 10 -1 -69 5 20 6 13 14 8 -1 0 -17 -24 24 59 -65 2 1 -13 7 -54 -31 68 19 -5 -21 -25 -6 -18 -24 28 5 24 -61 -6 -31 43 -14 -6 48 24 -11 -16 -7 -6 -29 29 39 25 -76 -12 -47 20 29 57 50 -3 -10 -21 -4 -37 -9 53 -1 -18 8 -17 45 -23 32 27 -31 -15 -3 45 -17 14 3 20 -35 -15 19 23 16 30 21 14 -23 -8 -28 57 -21 -18 1 -18 -27 -27 2 18 5 34 -2 47 -70 2 -61 -31 -23 8 7 -7 -26 33 43 39 -31 32 -111 -4 36 16 9 -8 22 -52 -5 16 -57 -33 -56 7 10 5 -28 -36 9 -17 -35 9 90 -8 49 -52 -52 40 -4 -24 -4 -67 16 5 -4 -5 3 8 3 -53 -49 -32 21 -60 17 7 10 35 24 16 30 -5 1 2 -8 -32 25 57 28 -4 -50 33 41 -53 5 -17 -25 18 33 19 15 17 2 -25 15 -12 11 -33 -13 31 27 -18 14 40 -2 99 -11 -1 53 -9 -4 -27 -15 40 3 14 7 23 -15 -3 -41 -40 -9 -2 -48 7 -60 26 -5 -9 17 6 -34 44 -89 8 19 -16 9 20 -10 -10 -7 10 21 -85 -16 0 -14 3 -7 -3 -15 13 95 -28 -29 6 -19 -65 5 -22 33 46 -8 26 -58 -28 26 24 -52 -45 18 29 -126 -19 28 30 -9 12 -28 -6 -37 23 -47 -9 -6 8 -7 52 -27 -11 3 -12 -35 -10 -13 -1 -1 -47 -26 -24 63 -10 -59 24 -3 44 27 -37 30 -43 -29 -10 -42 -52 63 40 37 -31 18 -24 -44 -39 9 14 17 -2 5 -3 -6 36 66 15 82 -25 -36 -9 -62 87 -35 -5 -26 23 -2 -7 29 -44 -32 40 54 47 -24 -3 3 17 -7 15 19 7 -42 -20 -39 -66 23 -34 -49 41 -20 6 59 4 13 32 -31 5 28 -43 8 47 -7 4 -11 3 49 -33 76 22 48 -66 -10 12 16 12 -24 47 4 -21 45 -25 -9 -13 38 -43 20 26 -29 66 -35 -3 17 44 -28 7 37 -11 -35 -15 -5 -4 -25 78 28 13 57 95 18 39 49 -15 15 9 -25 -31 -66 46 7 64 61 -6 16 -9 10 -43 37 -43 -22 6 9 61 17 35 18 10 -24 -51 -7 -24 -42 45 69 -31 -11 2 16 -2 -43 1 -3 -37 59 0 12 -21 -32 -61 -41 4 34 -8 46 -91 1 -14 32 -16 20 -35 9 26 -4 -87 -52 21 34 20 49 -11 -104 -45 -14 30 17 -10 21 33 -64 78 -19 -26 -64 -16 24 26 70 51 -21 27 25 8 56 -44 -26 4 14 -19 26 13 29 18 6 -43 25 -4 -9 -19 -8 -31 19 -27 10 55 -12 -4 18 6 25 5 55 12 -23 0 43 -32 -61 -30 49 -10 -59 -23 -19 -10 -7
-34 3 16 -19 1 2 -68 -26 -15 23 -9 9 -37 4 -14 28 -6 -14 -37 31 7 25 -4 12 -5 -33 83 -16 -14 19 -29 9 -26 81 -44 18 -41 1 56 -42 10 -26 -42 -5 -36 69 -1 24 -21 -11 -13 13 22 -1 27 35 37 10 -16 33 -32 56 -26 -8 5 -11 34 39 -4 -36 16 -44 -121 18 -15 -9 16 30 47 -3 2 -22 45 16 31 24 12 26 22 -27 15 -22 -46 -4 -38 9 -10 23 -46 -34 -6 45 -8 36 -6 -20 -31 32 49 74 -3 -5 8 21 -31 0 80 38 -6 -20 -43 84 26 29 -18 -42 -31 39 -40 27 -32 47 -46 22 2 11 12 -35 -21 -36 43 -14 -10 -13 17 10 8 13 4 -5 25 27 19 -21 13 -25 -1 -1 -40 -15 42 35 -13 0 16 67 -56 -1 0 -70 -18 -13 47 -37 -30 -28 8 0 2 -35 15 44 -58 -9 -17 -29 -1 13 -43 64 68 52 11 -13 28 -2 -37 -17 -5 50 5 41 -7 -19 17 14 -6 -40 -2 -19 50 -12 5 -3 24 25 -67 -15 -51 -1 23 -25 9 34 8 25 19 -33 -9 54 -30 36 -14 -6 81 13 64 -9 -34 -23 27 44 -11 -18 -90 -13 -22 1 54 -21 -6 -22 -36 44 1 44 -37 24 -81 17 20 2 28 16 -37 -29 83 63 -15 -52 23 -32 24 -42 -23 22 10 27 -16 -38 -62 35 -1 48 -96 -14 15 -5 -127 34 52 -26 18 35 47 19 28 -9 7 16 17 25 -16 1 9 -1 22 -36 -2 55 -23 -37 15 -35 41 15 -41 21 -13 -17 6 -90 24 39 -22 30 -24 6 7 -2 -24 -16 60 41 -33 3 7 -53 5 17 8 -14 13 41 -21 12 -40 -20 -7 20 -20 -76 24 -38 -33 25 36 -40 -91 -19 -19 -18 16 40 28 -22 4 -30 6 40 39 -14 -10 15 -22 12 -20 22 -19 -73 31 9 -40 2 27 52 -4 -30 29 52 -14 -25 -27 -63 15 -24 55 26 -19 23 -9 -2 -35 -30 14 35 -32 59 -13 -10 -24 -17 14 -9 3 -3 11 -22 -5 -13 -18 -42 41 47 12 -52 8 -36 -13 -6 9 -12 26 27 -48 -104 46 -40 9 32 5 -31 -20 -14 27 -37 -1 59 25 10 115 -34 27 -4 42 21 -6 -16 -5 -22 39 34 -31 -7 18 -32 -40 -8 55 5 -67 11 -6 44 70 22 69 -19 4 41 8 37 2 50 2 73 21 -30 42 27 -33 -30 -37 -25 0 5 -16 34 -5 17 -55 -23 -10 -8 -63 -12 73 -28 -60 73 -49 18 -22 4 -16 -1 -2 -5 4 28 10 -42 52 7 -30 22 1 -40 -6 -40 -1 -21 -11 -43 5 24 -7 -37 -15 60 -30 -23 -11 -5 7 13 35 25 -10 -26 35 -3 -26 50 -2 -42 34 -53 57 -12 4 7 15 -62 52 -26 40 50 -48 -5 -2 -8 22 5 14 21 -30 15 24 -28 -5 25 -14 -22 5 -27 25 -59 11 26 -25 -30 4 -91 -42 -9 -3 -46 48 6 -11 4 18 -9 -36 35 -7 -2 17 8 -23 48 -27 19 13 -44 73 -40 -31 1 61 -23 64 -15 10 86 71 -11 43 -54 -29 -29 -39 -9 26 -5 57 21 50 50 -12 -1 -4 -42 32 -73 -5 5 28 -38 -47 -36 -65 -2 1 25 18 6 11 41 35 -7 26 -4 40 15 -37 -19 -26 9 59 -37 -21 37 33 52 -18 -18 10 -24 2 -25 65 1 -20 54 -50 38 11 5 24 10 9 30 20 45 -34 16 -8 -5 -58 -24 3 34 3 28 -10 42 9 59 -32 -45 -8 52 68 -3 16 19 -6 25 41 -47 -10 43 10 20 20 46 -12 -4 11 24 68 9 -55 -19 9 -9 6 -17 -15 -47 -24 115 -29 10 -27 30 18 54 5 11 -8 0 52 39 -18 19 -19 24 -47 -59 22 36 0 -15 -2 10
2 -17 -7 -14 2 -23 49 -51 -36 19 11 -21 9 -7 -19 6 21 -27 -17 -35 8 32 -17 24 34 -8 52 19 28 -2 -5 8 -42 2 -25 -72 10 -7 23 -57 -1 7 -40 8 21 -8 -40 32 19 -18 -11 20 -10 44 -48 32 7 12 -4 -13 -36 27 -6 2 -53 56 -19 7 46 -3 -23 8 -38 -21 52 -4 -33 -8 -20 -26 20 15 -15 -51 -43 -16 42 -15 15 30 -2 22 -63 -58 -13 -11 -21 -9 -82 26 -5 -33 34 -61 32 19 22 -23 -25 -23 8 17 0 58 27 -6 26 -14 1 -6 52 62 7 9 -30 -27 12 9 11 27 -66 -8 -15 32 -16 47 -10 17 -30 -28 4 -24 -19 -16 -3 8 -32 3 -4 -36 21 -35 51 52 8 0 14 8 8 -23 8 -7 -20 -3 -23 -39 65 18 -11 29 -35 20 -35 62 44 9 17 -38 11 0 9 60 -54 -12 50 19 22 33 -65 -44 -8 -52 4 -2 -37 16 62 13 -20 -56 73 58 -5 -21 8 22 -7 58 16 5 -57 -46 21 -15 -18 10 24 9 -20 -19 -13 7 -25 23 16 19 25 39 38 9 -13 8 -15 16 28 11 -18 -26 39 2 -20 45 3 2 28 0 -40 -35 -36 15 17 -49 -5 -39 -11 -82 16 20 -17 45 53 -22 24 -29 0 -13 30 21 33 28 13 -32 20 -2 -2 5 -2 1 9 33 -48 -12 2 28 -3 -41 -74 22 54 44 -93 13 16 -7 -40 -1 26 -39 -50 3 -34 20 -4 -25 35 -3 8 8 24 -44 -8 -15 -18 -38 33 25 -93 38 24 5 24 -19 -58 -30 2 -62 -22 -4 -7 -127 21 2 27 10 -61 -65 -4 -64 29 23 -22 -1 -3 33 27 68 28 37 19 48 61 -11 -11 -20 -9 -43 -1 -19 72 -6 -24 27 21 0 -4 13 -24 -23 41 -41 -45 -25 -6 -28 -9 39 -32 13 5 27 24 -48 7 -12 47 47 -9 -5 9 -24 -20 -9 -31 14 22 -13 18 -37 -7 -40 -21 41 45 2 -30 -31 -23 -59 -5 7 14 6 5 33 20 41 17 12 39 -19 -34 -38 17 -18 8 -9 -32 -16 25 38 7 -33 17 -5 -65 44 -47 3 -48 0 0 -6 -87 0 -10 22 3 4 -35 10 3 21 1 -9 15 -38 -33 24 -30 -28 -18 -40 -44 57 6 51 -9 72 20 -73 -17 -87 7 27 60 42 37 -11 -9 -19 -7 -23 -48 5 26 35 34 -10 -30 67 -11 4 -11 26 -16 18 -7 45 -21 24 -26 16 0 -23 -52 -13 -39 56 0 -52 2 -2 -26 15 -33 -50 0 33 21 -13 32 11 6 5 -72 -51 20 27 -16 11 -15 -26 -6 -6 -41 -19 -26 1 -11 56 -2 -33 9 4 50 59 1 5 0 -24 31 14 77 3 -18 3 12 -24 2 33 -52 -7 -12 14 26 25 60 -55 -35 20 -7 53 -50 8 46 -63 -11 -31 -33 20 32 -23 15 2 5 -36 16 46 -10 -69 9 -38 1 -2 -15 -13 41 -17 15 -2 27 10 -2 25 -13 -58 31 -42 43 37 42 -12 -35 -14 2 -33 -14 -59 -44 7 59 13 -79 18 -16 44 -9 23 -4 3 14 -54 46 -19 10 14 -52 -23 14 -6 -18 -3 2 -4 37 -44 15 24 -25 27 42 -29 2 3 94 19 0 36 -19 1 38 -7 -1 -15 -9 11 55 18 88 40 -57 39 -6 -12 4 16 22 -44 46 72 44 -8 17 -4 14 -10 18 -11 26 17 -37 6 31 3 41 -35 -2 8 52 -39 -22 11 21 -8 55 -26 24 -26 -22 -25 9 7 -1 33 4 -3 -42 19 5 17 36 32 3 -56 -1 -70 6 -39 -21 8 -11 -10 -18 24 4 7 74 33 -49 -2 -8 -22 10 -13 -37 -13 15 11 -9 -1 8 2 -14 -26 -60 -14 2 16 -4 10 -20 7 -16 18 -24 -39 -13 -55
39 -2 10 17 -11 -9 -9 -13 -27 -50 -18 -25 47 -3 -7 -17 -15 -21 5 -22 -23 -60 37 -2 -48 11 2 36 6 24 -63 -7 -1 -14 -35 53 13 33 19 19 11 14 35 -54 3 9 -26 -8 13 -1 -20 28 -1 -105 -44 2 -58 -28 -19 -15 23 -2 20 -25 2 5 -40 33 -28 -52 35 -6 -21 -5 6 23 32 4 19 13 52 2 22 -38 -41 4 -50 4 26 33 17 -39 11 1 -7 17 7 16 83 -2 -3 4 -8 -5 42 11 -29 -41 -11 -23 -4 -26 7 6 0 42 23 0 -1 15 -11 12 14 -11 -46 14 -66 28 -36 -17 -59 23 -7 -25 6 28 -2 34 48 -116 -2 -26 -48 -10 -3 -18 -41 -31 -39 -59 43 0 42 9 24 -3 10 -30 7 -6 -7 7 36 26 -9 -14 -29 -27 -14 8 2 -106 6 16 34 -10 -32 0 -28 -50 21 63 -53 18 -6 -2 17 38 10 -23 1 52 -24 -16 -10 19 -60 -29 0 6 -30 -45 6 -56 44 24 -21 -23 21 9 -43 -2 8 8 -44 6 -19 14 -15 -3 -62 -33 -32 8 13 -30 15 56 14 -9 5 38 -15 7 -10 36 -28 40 40 -4 26 -24 -18 6 12 15 35 13 32 -2 14 4 -13 4 -31 21 -50 10 -6 -14 45 9 -3 11 -22 27 9 69 28 5 19 -24 -11 -26 -12 -8 60 -54 -4 -35 10 28 -18 -16 27 8 -24 -2 37 5 -16 -22 -8 37 62 -35 7 20 -58 12 -13 -17 -29 20 -2 -43 16 -6 20 -24 -67 -23 16 -49 10 -27 9 8 83 23 -35 -10 14 24 19 -47 -7 41 -4 -4 -5 10 21 7 -27 45 22 -7 1 -27 12 20 -32 -28 -82 38 -5 -42 -35 29 40 -14 24 13 9 -27 5 -51 8 6 42 -7 -89 2 8 43 1 -21 -37 -33 16 93 -51 -8 -10 31 -2 2 10 -61 3 29 18 -40 -22 -24 48 18 33 -52 -5 44 -22 -32 -33 44 -67 33 4 18 -77 -62 -18 14 16 20 -4 -26 4 -17 16 -14 -52 -36 18 -72 30 -22 -23 -25 32 30 16 -54 16 -15 14 31 -18 -29 -23 120 45 16 -2 4 37 -3 -19 -4 18 -21 10 -25 33 -79 28 56 -1 23 12 15 19 -16 -42 24 7 -3 85 -66 -10 -31 -34 11 22 1 54 68 15 -31 28 12 -43 14 -21 -45 -41 24 -29 17 28 25 -1 21 -12 38 55 29 -9 -25 -16 -35 5 -48 6 -38 24 -9 -12 3 14 -24 -48 34 1 39 -24 -26 6 17 50 -75 24 12 78 -68 23 7 -16 -9 11 -3 17 -17 -16 -33 -11 14 -15 -5 -41 -2 -19 -27 3 -26 -71 25 21 -25 3 2 29 -9 80 -8 -7 -23 2 -7 -13 -8 -10 0 16 -2 27 -50 -1 3 -35 -6 5 31 -6 29 -43 -46 -16 -24 -7 -77 -20 -20 -40 -35 -47 -37 -11 -24 -14 5 95 -16 -21 -44 28 -15 11 -12 -76 39 -46 37 -8 2 -38 -4 51 54 27 57 53 1 -26 -2 -11 -50 -13 -20 -127 29 32 -28 52 25 32 6 34 6 -6 -17 31 -11 16 -24 14 11 -23 -45 11 -36 3 24 -2 -2 -34 4 -21 9 88 -22 27 45 99 -26 17 -15 -73 76 -23 27 14 -6 0 -18 8 -14 31 -13 29 -35 -5 -42 21 32 66 38 -4 -7 41 24 -12 15 -25 -17 -2 5 -10 74 37 -53 10 8 49 -4 -62 34 31 -27 4 2 29 23 -17 -65 23 -36 5 1 40 25 -3 48 53 -43 -25 1 -63 -34 -16 11 -6 -17 -60 -21 25 -25 4 -17 10 -22 -33 83 0 -19 18 -26 -4 23 -26 7 -19 14 -5 -55 -13 -10 11 -1 -4 -4 -13 -34 -36 -8 -6 -25 -14 -14 36 -1 -1 24 45 62 -16 -6 32 -23 -18 -7 4 34 39 13 -5 -20
15 2 9 -21 -8 -6 -43 0 -4 9 -20 -11 16 -30 -3 7 18 -19 -5 3 3 4 -28 -28 1 27 -31 -15 30 18 26 3 -26 16 -9 75 16 46 -1 -16 36 21 15 16 84 3 15 -10 -6 22 -37 -19 11 72 14 -24 63 -24 -15 -25 -21 -24 -3 -8 -23 3 1 21 55 -11 20 5 -127 15 59 -24 8 11 -10 -17 32 -17 0 -30 48 7 -34 -33 3 12 10 -31 14 -4 10 -6 -21 -1 -6 -15 -15 14 23 33 47 1 -4 -38 44 11 3 21 -5 21 -28 29 73 -20 -21 -43 8 -21 4 -16 -3 16 -84 0 -1 -47 -1 0 9 0 -26 -14 1 -16 -17 -64 4 -32 3 58 13 -62 -6 -27 13 7 -16 29 -2 10 14 26 21 -9 -21 -4 -4 -4 26 35 -5 -1 43 14 8 10 -30 31 -23 16 -46 17 -6 -4 -8 -11 11 9 18 -3 52 12 -3 4 43 -4 7 -19 -66 1 -18 3 -10 39 11 10 -22 15 22 -34 8 1 9 57 -11 1 58 3 -13 -3 -21 0 12 -29 19 5 -23 -11 -44 2 -25 -32 0 -17 -6 -5 57 -16 40 6 31 -11 2 44 6 13 16 42 13 -1 -61 -7 32 -7 -7 -2 15 -5 4 16 -18 -10 4 -68 62 -22 -6 13 -38 32 14 -9 10 -36 23 24 12 -16 6 27 30 22 -19 9 -1 11 -21 -30 21 14 14 16 -1 -3 24 -26 86 51 -6 -12 -7 -13 -27 24 -24 -3 4 17 -6 -45 68 13 6 24 -14 -30 11 -46 -24 -37 50 -9 26 -5 12 -43 -1 -1 -13 -5 -5 -6 -42 31 -35 53 12 13 5 -14 -18 25 -57 -32 8 4 15 -44 -12 9 40 11 22 21 8 -3 74 -18 7 -12 45 7 -58 12 -18 -31 -24 -10 -28 -43 55 18 -11 9 -56 48 -43 -6 44 8 -45 11 45 8 -33 -27 -25 -4 -1 -19 -5 -22 20 0 -3 -22 -10 -32 41 6 2 -5 6 -29 -4 38 -26 -21 34 22 12 1 -13 17 1 7 -27 15 43 -4 6 -7 17 9 -42 -12 -52 -38 -37 47 -5 -15 -25 -2 -5 6 13 14 14 1 -14 43 -3 -13 -27 16 -12 -14 9 -9 -5 43 8 -54 55 37 47 10 33 -10 40 -69 22 -19 7 49 -6 -8 -26 3 43 -19 -2 53 5 -21 -7 28 1 -2 49 -7 15 12 -21 24 17 1 37 42 -21 -36 4 13 40 0 -7 21 -3 -24 17 9 -12 23 8 -18 -6 -85 -36 8 18 16 -19 22 -25 38 -26 -17 -1 -22 -43 -23 -4 22 -19 -2 4 -17 2 -35 11 -60 2 6 18 -4 -40 21 -18 -7 7 29 -28 -71 -32 16 7 43 19 -24 40 -35 24 35 -32 -30 1 6 3 25 16 4 -21 11 -6 -15 -17 -1 25 -51 -9 -21 25 -31 -4 31 -12 -4 19 -15 51 -96 -1 -18 -1 -2 32 -41 -22 6 26 32 -4 9 2 2 13 -55 22 -19 17 14 -16 0 -9 -1 46 26 -1 29 -9 -23 -15 -32 16 8 -24 3 5 -51 29 -58 -28 13 53 4 25 7 3 16 12 49 3 8 -57 25 -13 41 31 -11 -18 -18 15 4 25 -24 14 -22 -7 40 -15 -33 12 -17 26 -25 28 36 -16 -8 21 1 -11 -3 -31 -30 -49 19 10 15 -10 14 21 -6 8 -27 -46 39 6 -10 -5 -13 9 42 -33 -38 42 22 11 -9 11 12 -69 -30 34 -34 -41 19 -39 -2 0 -1 17 19 -27 -12 -47 54 5 -56 -29 47 -25 -7 -14 5 -11 -32 -34 -23 12 35 8 -9 19 15 -25 -57 -5 -11 -22 -22 37 16 -3 0 -4 3 -15 -13 20 0 6 -13 -2 -20 -21 7 15 8 53 -17 32 3 21 10 10 -24 11 -36 -9 79 -15 -48 -41 -21 25 -5 -33 -29 18 15 3 -37
-32 0 36 -74 -10 23 -58 13 -13 37 20 13 8 30 5 32 -32 41 0 -23 -20 33 -11 -1 -25 39 39 1 27 -1 62 -88 -22 43 26 -30 -35 5 -6 -6 10 -46 -4 4 67 10 33 36 -5 -11 -2 5 -26 86 -3 9 -44 -13 -16 45 43 15 3 -35 -43 12 -29 16 -10 -29 14 6 11 -74 24 -10 22 42 69 -28 -18 -5 -26 3 2 6 47 -8 -29 7 15 89 28 -50 -24 20 -43 -10 -63 -22 24 -39 -18 2 11 -19 -35 65 -19 -42 -4 -35 -6 -30 37 -38 46 -15 5 -36 37 -50 23 18 46 -37 31 27 0 41 -127 12 21 38 -23 -57 -58 22 -47 46 -29 0 3 1 -23 42 8 36 3 12 -57 23 63 -2 -10 -31 -44 -24 -14 -10 -2 -38 29 4 -29 -16 -11 -18 -20 -14 -26 36 60 -4 -84 11 -29 -4 -13 5 -8 -23 37 37 68 -12 -10 -29 -28 24 24 22 -78 5 4 -24 -23 -10 -22 -9 19 14 3 -1 -9 18 8 -33 43 -25 -3 0 -21 -34 9 -22 7 45 1 -8 12 -22 14 28 -45 9 47 -86 23 -42 -77 -14 -6 65 -22 -33 45 -50 45 23 -16 -8 -21 8 53 -8 20 6 28 -2 24 -21 42 14 19 3 -68 19 2 -26 -48 -11 -41 -80 -42 12 -4 18 -38 -26 9 55 -73 -12 7 -38 29 2 41 -22 20 27 -12 -70 -50 -20 -32 13 60 32 -15 -12 -3 29 -35 -34 -23 12 23 -33 16 -39 34 -66 -1 -45 -39 -50 -12 -38 -39 -21 -11 46 -7 -7 -1 -20 -48 -69 -35 -46 -28 -48 -17 74 2 -28 -38 34 20 -37 33 -19 -12 -11 49 69 1 0 -7 -33 9 -23 -60 10 20 -28 -25 -27 82 -29 -52 -5 19 11 9 22 9 -28 39 -43 -13 37 32 31 -26 -29 32 -67 21 26 8 -4 20 57 17 6 -22 -26 5 50 10 -43 -27 13 30 4 2 -14 33 -66 8 -6 7 -29 -23 -5 7 50 -12 -18 -63 46 -48 6 -12 -22 3 7 2 8 -77 11 49 -98 11 32 25 -31 -66 -3 32 -34 28 57 -6 -15 37 -18 5 40 33 3 16 -18 0 68 11 -34 8 -15 -1 52 -91 -19 14 -27 47 30 -12 -28 6 -11 -27 39 -41 -31 -47 -37 22 -11 -34 -17 -12 -35 -2 0 22 -21 32 14 -51 13 13 -62 -36 -25 -85 -16 7 41 -25 -26 -25 -22 -12 39 -58 68 23 28 -17 40 -31 -4 -70 26 -18 13 -52 -40 15 20 44 -17 -23 8 -8 -31 -14 -1 21 -56 -65 -29 -4 12 8 -21 19 9 10 -50 -22 52 -34 -8 58 -27 -48 -36 -9 -57 -70 40 -47 16 -46 29 -2 -12 8 8 35 43 23 17 40 53 -52 13 37 46 -22 -53 6 -33 0 -20 -9 -33 -66 -14 -52 -18 -21 -12 -18 11 -11 19 -83 11 14 8 53 -14 11 49 33 -18 17 -37 -12 -5 -32 -66 -6 -30 -26 46 16 -32 -7 37 23 -14 66 -12 89 3 -76 34 -39 -58 12 18 -18 -3 -49 19 -44 -78 24 -27 -14 -22 34 6 -35 -110 29 -10 41 -36 77 -20 -58 -68 27 -55 -39 -29 -5 31 44 -70 -47 5 -49 28 50 69 -8 -30 -47 -29 -41 -23 -8 3 -55 8 -68 22 -7 -8 47 22 -15 24 -41 -26 -13 24 -2 -18 9 -93 27 -27 -6 -18 4 -3 -25 7 -43 -16 10 18 -6 4 -8 -11 -11 38 41 -1 26 10 54 49 15 29 -37 36 38 -25 -34 -26 30 -72 -11 38 -40 17 42 -41 -66 24 63 21 -31 -12 20 0 -24 -19 -6 -89 6 -9 -37 -15 -35 -32 13 48 -63 93 22 31 -70 -2 -26 46 23 22 1 -14 55 2 -2 29 -7 -59 9 6 -46 3 35 -38 -35 0 2 61 1 -20 -59 -24 -8 -10 -14 35 -13 5
-7 24 -14 -8 49 -12 57 -14 37 -1 -26 19 -45 -6 31 22 18 -25 14 -13 -23 -76 -65 -19 6 -61 -1 28 47 -8 17 -29 -24 3 -8 -32 -25 -14 24 47 -31 30 19 -40 -26 -2 -5 -46 38 -12 40 -20 -21 -28 -40 -58 -9 9 57 -55 -18 6 -14 33 19 -4 18 -27 -108 71 -6 40 110 24 -25 3 51 16 20 5 -3 5 17 -2 40 -4 31 7 -60 74 -1 -19 -47 1 -14 13 -6 -28 -41 23 -23 -35 48 -53 60 -7 -14 -12 7 41 1 -43 28 28 27 -16 12 -24 6 9 56 35 -3 15 -8 -14 -4 -20 0 12 19 -9 28 -51 4 24 -25 -62 12 -73 14 40 22 -85 -11 -17 -64 64 -4 -16 -41 16 -3 -8 47 6 27 -6 15 5 12 11 39 -3 18 1 -25 -72 82 -1 25 51 -25 -27 48 -45 -6 5 -36 -4 26 14 -53 106 -18 36 49 46 -24 18 -40 2 -17 0 -17 -14 -44 -30 -37 21 -29 -12 -34 19 -34 79 33 2 61 -8 37 -20 1 9 -2 -23 50 14 -1 9 2 62 16 -12 36 -9 17 17 6 10 18 25 4 67 20 12 22 0 12 25 21 -28 -37 -28 8 8 -20 20 8 -5 4 -23 -40 -33 -7 -29 6 63 -9 1 35 -16 -26 -46 10 1 6 -23 1 -46 -23 -12 -12 39 -27 -17 -32 -17 20 69 -11 -28 14 5 6 -21 -11 3 -54 9 -31 17 10 -24 34 48 25 -14 15 -6 -25 21 -15 42 36 -61 13 51 -67 -9 31 60 10 55 -67 24 44 -1 50 70 -48 11 -83 74 26 -14 -19 -39 11 -66 -16 -16 -47 5 23 15 -42 -22 39 6 15 -50 40 -39 17 -62 105 83 -14 -15 -21 -15 59 17 31 45 -11 -2 7 16 37 -29 15 17 -10 2 -3 25 19 -51 -29 -6 91 4 36 -94 30 -19 44 -18 15 23 -16 -31 -72 1 -24 -24 10 -35 -22 37 -22 -34 -12 -74 5 11 25 21 45 -34 43 16 -43 -3 -32 -14 13 29 37 16 -45 35 -20 26 -13 -17 -8 -16 6 119 -16 -40 -27 -70 -42 29 -1 13 -8 10 40 -23 7 11 46 17 -4 37 34 57 12 33 -37 9 -3 56 -24 -8 -57 -13 2 44 -19 24 -39 -58 -18 21 -5 45 50 -37 7 -16 12 36 -21 41 35 -49 -39 -27 6 22 -26 21 6 21 31 -14 -60 38 -49 -45 -14 26 11 -21 -5 7 -4 -31 4 86 -33 -8 -8 -12 21 61 -3 -14 16 45 7 -35 -30 -45 40 37 1 60 32 9 -11 -57 43 21 59 2 -2 -4 32 -30 -17 32 7 10 5 46 14 -13 44 -23 37 26 21 -14 11 4 -28 15 -29 -25 -7 -9 39 -14 -12 16 24 -3 -16 -70 -7 -33 -45 0 -6 -2 -38 -9 -13 -24 -22 -16 -32 -7 3 -10 -9 8 2 -82 16 -31 -9 6 5 -27 9 -26 7 27 1 32 4 -48 -20 -36 -34 20 77 -17 -1 18 -37 0 -54 -57 -72 4 7 1 -7 -1 35 -4 53 -22 5 22 23 75 -127 -26 -64 -5 31 -40 -20 -14 23 78 3 -13 -34 46 9 -78 -2 -27 13 36 8 48 -5 42 25 -27 -46 -43 19 0 -18 27 32 36 5 -45 -2 -35 -4 13 -3 -29 56 54 11 27 23 -8 23 -47 10 -24 -39 8 38 50 3 -44 -42 16 -7 -39 -26 -3 -39 37 7 -31 9 -44 43 -15 19 -69 7 53 -44 -2 -13 -7 45 -38 -52 20 59 -13 -7 42 1 -22 -32 22 -29 -25 -18 -69 -4 -28 9 48 11 -25 3 4 2 110 -2 81 -35 -48 -3 5 -52 -10 6 -15 -38 -5 -16 15 45 -6 -27 -5 10 -26 21 -39 28 1 -23 10 20 29 3 -23 -2 22 22 9 9 -17 -4 -52 -74 -48 -19 -9 -2 1 -29 -26
-16 -8 -11 -13 -17 14 -6 16 -38 -4 13 -42 23 -9 -9 7 -1 -26 6 7 4 -57 -25 -22 -7 46 0 6 9 17 -28 -8 -2 8 40 26 -38 -1 -4 -16 -26 37 -25 29 -13 43 8 39 -69 2 10 -30 -16 -25 -28 29 53 -5 -45 24 -52 -11 7 0 24 35 7 20 61 -15 33 -2 50 -38 31 2 -4 -24 27 5 -15 24 13 8 24 -21 5 15 -35 -17 -5 -31 -44 6 -33 40 -30 1 5 20 -25 -2 8 53 -3 4 -24 -24 -18 32 0 0 11 -10 4 -14 -2 12 -3 4 8 -6 17 -23 -11 12 0 14 -4 -32 -49 14 20 1 16 11 0 -26 3 -37 -41 24 28 46 -4 18 0 30 -49 26 -12 15 -29 -1 30 32 11 -25 10 -14 46 11 26 22 9 -8 22 20 33 20 39 -17 43 20 13 12 19 25 17 22 37 -17 12 17 13 -3 -12 15 -16 20 4 32 30 -28 -28 17 21 -14 -19 26 41 42 6 19 1 -47 -21 37 -12 -9 29 15 -26 22 7 6 7 13 28 -4 6 29 24 -34 -38 30 38 -22 27 6 -8 0 5 3 -17 -7 1 -56 7 35 -16 0 -46 1 -4 17 2 23 15 2 40 -4 55 1 10 31 6 7 14 -37 -22 -4 -6 0 6 5 26 -36 -48 -13 6 38 11 8 36 -10 22 22 0 24 19 10 10 -27 48 -29 46 -8 4 17 30 -1 1 -15 -27 -31 22 6 -12 -33 11 16 13 -12 -37 1 -22 -27 -27 7 15 7 76 -1 3 -3 26 17 -8 12 -11 -1 -14 45 0 -66 16 4 7 -9 -11 -31 -10 -10 -41 -10 39 14 31 5 -21 -51 -8 28 -23 8 -23 44 -20 -16 3 -7 21 0 -11 -9 14 22 -33 -7 -7 -14 16 18 8 17 -29 -2 45 -8 -55 8 25 -6 5 34 -4 -29 13 1 -22 -5 35 34 14 23 -2 -45 47 19 -16 19 6 13 -48 44 -2 -16 0 12 -11 -19 -26 -15 29 1 23 -13 1 -20 -7 2 23 4 -2 7 -5 21 -1 -16 17 -33 8 5 -2 -14 18 -13 8 -13 18 3 -11 -28 -10 11 -33 1 11 -5 -8 23 7 13 14 -25 -26 22 14 -17 -2 -16 -10 -31 -41 -29 -19 -3 15 6 2 -6 26 29 -40 -29 -51 32 -6 -3 -37 -15 9 10 2 3 55 8 -50 40 41 -28 -104 -19 -37 -24 -4 9 -13 -64 63 7 -25 -49 22 -15 23 29 -21 9 1 -47 11 6 -18 -14 -9 7 -20 75 -35 2 23 0 30 17 -8 17 10 24 22 -4 -20 16 -10 -40 -2 15 -49 -11 -16 -29 19 -10 10 75 -1 3 -23 51 42 25 -40 -42 126 -13 -8 -24 -7 18 -6 -12 26 -20 18 39 18 35 23 -26 0 5 -3 65 3 -13 -67 -13 -7 2 -17 -62 16 2 -44 4 53 14 24 0 -15 45 -6 7 -6 4 14 17 5 1 26 24 20 30 13 7 16 23 54 -2 -18 50 -19 19 17 -39 -16 -17 25 16 -27 20 28 -10 15 5 -28 4 -2 -25 15 10 7 -44 -6 5 8 -17 10 23 15 68 -52 11 18 4 29 -15 -4 -25 8 -15 -33 20 37 15 -39 -7 16 -7 -25 44 0 24 58 15 -3 18 25 -37 3 7 -27 -1 -19 -28 0 11 4 31 -20 15 -12 30 7 -13 -9 26 -19 -23 35 -28 20 15 28 -17 0 0 0 27 47 4 -53 -29 13 19 -8 -41 6 -2 -1 -34 -3 18 -13 -19 28 17 45 -4 -12 4 4 38 -30 15 9 -57 16 -3 19 -19 -56 47 20 -36 -6 -2 23 16 -1 -8 3 18 -44 11 31 50 -1 44 25 -19 -9 3 29 11 -48 -13 -13 2 -4 7 -9 3 15 -43 0 -48 -16 -15 19 -24 9 22 0 5 17 10
75 14 -24 -8 2 25 39 36 -18 13 5 32 -20 1 -22 -13 0 0 -18 -21 -23 47 26 23 -9 36 -2 -52 -56 41 23 -39 -38 18 21 -21 -24 -40 15 38 29 -27 16 38 -3 -127 5 14 9 8 -21 71 35 -19 64 19 34 -2 -21 7 -8 38 25 -23 -9 -35 38 -19 15 -8 -27 -24 11 49 -24 22 30 1 47 -2 -1 -12 13 -20 19 -27 -3 26 -66 6 -19 10 43 -17 33 -79 -52 55 -36 34 16 0 33 62 24 11 -47 -11 -3 17 0 38 -36 31 -33 -3 -23 30 -1 -18 -12 -2 21 -16 5 56 27 -19 -73 8 -54 15 -45 16 -42 -54 15 67 4 -15 -50 -13 -50 11 -18 23 12 17 4 -1 -8 32 75 -8 6 13 25 -20 -4 62 -18 7 -15 -22 81 25 4 -66 69 46 -18 -6 55 62 13 1 58 9 -61 -20 -14 8 -22 -1 -15 10 28 34 6 -2 -45 12 -28 -6 56 26 -63 32 -14 -41 -5 2 50 -8 39 14 -25 4 -35 26 -4 6 -15 17 -14 -33 -12 -20 -13 -23 6 -49 20 59 1 -33 -12 47 -12 15 11 20 18 4 18 46 67 62 35 9 10 -24 10 8 41 -42 -40 8 1 12 49 -20 -11 -26 -9 -24 6 33 6 17 -27 -15 -24 -17 -21 -26 -24 -2 82 16 44 -35 3 6 40 -32 -48 -21 2 59 -24 37 -23 -14 -61 -12 16 -20 -6 35 5 28 32 44 -21 10 23 50 103 -1 -18 31 38 6 -4 116 0 71 15 -6 -4 35 24 60 5 -18 26 52 -27 -21 -1 -6 -38 12 -8 -34 35 4 44 52 -24 -62 -37 34 -60 -17 1 -4 26 24 -9 27 18 59 36 46 -28 17 -18 8 62 43 37 -2 -30 26 24 -17 0 19 9 -17 -20 31 -6 30 21 7 46 36 9 3 -3 -22 51 21 31 -28 -17 41 23 57 -24 8 24 77 -8 -2 36 16 14 -7 33 -15 34 -41 39 6 2 -98 -13 -16 -48 2 -45 0 -53 33 35 -36 33 10 19 -2 -15 -10 -2 -19 -15 15 -14 -30 28 15 14 14 31 8 -3 -36 1 -21 50 -1 -53 14 18 -22 1 20 17 -9 -66 37 15 39 3 3 10 -50 36 -22 19 17 19 -17 16 31 19 -13 -18 23 7 -22 34 81 -27 -20 -36 10 16 13 -97 -30 13 -37 41 44 42 36 44 30 7 47 14 -31 14 23 -40 -69 5 -6 20 -75 40 89 -19 22 28 35 28 -18 -6 -2 3 38 35 37 72 33 -13 32 -97 -19 4 0 9 4 -22 -12 -30 10 -70 -7 -9 29 2 -18 -42 58 5 26 -63 -73 1 55 7 -19 3 75 21 28 17 27 -42 -15 -1 -1 7 50 -4 -15 -20 -100 45 25 48 27 24 27 16 -8 1 -124 11 42 -47 92 72 -26 -6 10 -28 2 -16 25 -50 -14 6 -8 -34 36 4 2 -8 -43 30 0 -6 -80 -42 12 -76 90 -23 95 66 2 21 1 -126 -2 -57 -49 23 -80 6 56 -47 -47 3 -47 62 25 54 23 43 15 -10 31 -34 60 7 7 6 0 31 2 44 42 -19 30 92 -45 -1 10 25 -10 -62 -17 37 18 -8 27 -74 -49 18 -15 -38 -44 -67 11 9 -14 -32 12 -12 21 30 -31 -6 0 -20 13 -58 6 17 13 75 -30 -47 25 51 -27 -27 1 -65 19 -15 33 -8 -51 -7 -12 0 33 92 -22 0 25 62 9 -7 -27 58 -26 -29 46 -42 -1 12 5 5 62 0 -33 18 14 -15 3 30 123 20 14 17 78 -10 11 8 -2 -59 48 -5 71 23 42 0 34 -23 -43 -4 1 -41 17 2 -7 -29 -18 -30 -14 -37 19 17 -3 35 9 17 -4 -2 37 5 0 2 1 15 -5 -50 4 -39 26 -10 -11 32 36 31 42 -30 -9
59 -11 19 -3 -4 -3 7 -70 -48 -35 1 2 -51 -9 60 -21 4 30 5 -3 -25 38 -3 -59 -14 -37 -39 65 -4 -7 28 3 -12 -41 -29 -4 -43 -46 -1 -32 23 -57 19 50 29 0 15 -20 -95 16 13 39 3 -45 48 -12 6 -52 36 15 0 13 -44 -5 -39 55 -74 38 48 69 -13 -23 8 -70 -21 -10 6 33 72 17 -20 6 -15 -21 -14 -44 1 36 -5 3 1 -6 29 8 -23 12 57 -6 68 29 17 28 -43 -25 -44 -6 17 51 -42 98 -4 15 25 5 10 -33 1 -6 -43 -8 -46 -52 13 5 -6 -59 -2 -2 12 5 -66 -28 -27 7 -3 -17 -36 -11 53 3 -16 18 10 -20 20 25 -25 -74 -3 3 8 0 -60 -4 -34 -65 -1 6 -2 5 -10 -5 -13 -2 -21 -3 -14 -22 18 17 36 -59 -15 4 -14 0 -16 70 10 -127 35 57 18 -18 81 28 -22 -7 -29 16 -43 21 -49 26 0 -20 11 -45 -12 -19 10 -23 5 -28 10 -7 15 76 -74 -18 -40 -2 6 46 6 -36 -3 -30 -6 29 4 -25 18 0 19 7 68 -8 22 15 13 13 0 15 -27 16 -50 -4 38 71 19 16 -2 29 10 19 40 -14 10 8 -40 -24 28 -77 28 48 -35 -6 -13 31 -47 -9 -9 63 -10 4 39 -44 -10 -25 25 -31 10 -60 -90 53 25 11 3 2 6 31 -28 -23 1 29 -91 7 30 0 -19 -35 -12 -11 69 48 -105 4 -36 35 -4 -28 25 -19 -29 -27 -9 -59 -13 -3 -20 11 -56 -62 27 -37 -84 25 -21 19 30 34 46 79 7 -29 -9 -10 -20 -25 8 12 -79 -3 -18 12 -5 -55 -52 22 40 -28 -11 49 -7 17 24 58 9 -61 -9 13 6 2 13 0 -58 30 19 21 15 -5 -23 29 -15 15 -20 -51 -8 -10 32 -78 15 22 2 -29 0 -15 19 -29 -35 -1 -14 41 34 16 -36 4 18 -18 22 -12 4 -27 10 28 -26 -16 1 -78 -4 -1 -51 12 15 -13 -17 -59 13 11 -69 1 -20 -58 9 3 -21 -8 -12 16 5 -45 26 68 15 15 -91 -29 28 -19 20 17 -6 -20 -10 0 -31 39 1 -36 -23 33 -24 18 -17 28 -29 21 -16 -35 17 -16 -35 -15 -14 -37 118 -3 21 -25 -6 63 -58 21 -15 -36 -26 5 1 -28 13 13 -6 -38 20 39 49 -22 -34 -3 10 -54 -19 35 10 -19 13 -17 -49 17 -1 22 26 37 25 -9 2 -5 -17 25 88 -46 7 -2 -7 37 -4 30 -34 -4 -42 14 36 17 -14 -11 41 12 3 9 -31 -67 20 -8 25 29 -5 3 -8 -36 27 -12 -43 10 -52 101 35 -40 -13 52 1 -17 53 -40 19 60 -52 28 -72 22 28 -2 63 -1 28 -9 8 3 -69 -10 -1 -23 46 41 -13 24 -29 -10 -47 22 -6 -8 34 -19 5 -6 -16 -25 -38 45 -31 28 -5 -10 19 49 12 2 9 -27 -2 1 16 36 -33 29 30 -3 -21 -10 -92 -35 -45 -68 39 16 8 -50 -44 -26 28 29 -56 -30 -7 -32 41 0 -9 21 5 -19 -3 -4 -17 -42 -36 -48 -28 -43 9 65 -10 57 11 60 -44 -9 3 -36 -60 13 -41 -17 19 34 -50 2 2 -35 -33 7 -30 9 8 -2 1 -6 24 -39 -35 -45 -27 12 9 7 -29 47 22 3 -111 16 -10 39 7 -18 8 8 -8 100 38 -77 -8 5 11 -18 -44 -31 -18 -17 22 3 -8 65 13 -40 18 -38 1 -6 93 -18 -23 30 -11 -4 -11 24 44 56 22 45 -35 -31 49 -34 -30 -21 -6 -23 4 -7 -12 16 -16 -26 22 61 -13 29 -58 8 6 11 -2 -5 15 3 35 9 6 -24 30 7 22 4 -17 34 -52 17 -18 0 5 22 19 -78 24 -30 10 28 8 26 -13 18 -29 -32 3 5
-7 10 -28 -10 -26 48 -37 11 -22 0 7 0 -1 0 4 8 -36 -25 -26 -21 -9 -57 25 -37 -15 -4 -59 -21 -12 -22 -4 -1 59 21 -12 9 1 -46 -25 -7 -15 6 -55 43 -23 8 -16 44 -89 -40 -25 -35 -66 28 -5 0 23 5 -2 -2 18 -77 -29 -5 8 15 6 7 8 5 -26 0 -22 -17 1 -5 -15 57 -66 -7 -66 1 -86 -20 -14 1 -15 3 14 -24 -15 30 -48 -29 44 -21 -8 -23 -20 -12 -44 -14 -5 33 -3 -4 -3 7 -58 -15 -7 -20 -9 -19 -35 -61 -47 -11 26 -36 -32 -49 -19 2 -61 -21 -24 -15 5 -18 29 -50 -32 -18 13 -38 -7 0 -31 -25 -42 -45 -5 18 -7 27 62 -39 29 -29 -23 -22 -26 -10 -18 -36 -14 20 26 -28 -42 -39 -32 -9 -43 -22 -10 -5 -38 -36 -7 -17 -22 1 -24 -10 -14 -9 -4 -41 -33 -6 -8 -40 9 -25 -8 -48 -13 39 6 19 -7 -13 -13 -12 -48 -11 -5 46 32 40 31 -36 -21 -50 -11 -34 -38 -25 -11 -49 -2 -40 -9 -30 -1 47 -4 9 -23 -47 -26 -27 -40 -2 -23 -27 -32 17 12 -5 7 -22 -13 -25 -43 -48 34 16 -15 -56 31 -10 -4 -21 -5 -1 -6 -19 7 -40 14 -12 -7 3 -36 -10 -68 7 13 8 -10 -33 -28 -11 -18 -20 -11 -66 1 -28 -1 -35 -33 -21 -33 13 13 -64 -23 -7 -16 51 10 -3 -42 26 -4 -4 -44 -18 30 18 -3 -29 6 -6 -61 2 -17 -31 -2 -53 -42 -25 -11 -32 -12 -48 9 -21 -32 19 20 1 -19 -2 -21 -45 2 -14 -28 -56 2 -47 -18 3 -3 -104 -21 16 -17 -37 10 -19 -54 -17 -27 -26 8 -28 -10 -5 8 -8 -17 -30 -15 -9 57 -31 -40 -35 -22 -8 -13 1 -21 -30 -9 3 -32 -5 0 12 20 -35 -5 -34 -71 -12 -31 -8 -3 -68 -47 -22 -42 -77 -37 -41 -35 -43 46 8 -15 -6 -9 -84 -31 -36 -9 -11 -112 -18 -21 -23 -13 -23 -27 -3 -16 -16 -22 -8 -10 -33 4 34 -22 14 -18 -50 -10 -7 7 -2 -21 -28 -2 -115 -22 -33 -26 8 -1 -13 -13 10 -23 -25 -10 2 -24 10 -18 -41 22 5 -13 -18 -36 -43 -24 12 1 -19 -16 -13 -37 -31 4 36 -30 -32 -37 -9 -20 -38 25 13 -18 -30 4 -13 4 16 -27 -16 -21 -8 10 25 -16 -4 24 -87 -28 -14 -11 -16 -15 -25 -47 -22 2 -41 -55 -5 9 13 -1 15 -64 -7 46 1 43 17 -3 -32 -66 12 40 -14 3 -28 -7 -35 -18 -32 -42 23 -96 -34 -12 26 -28 -24 -29 -15 42 18 -3 -26 -27 12 -2 -9 -21 -41 -21 -7 -5 -2 -33 3 -21 -4 -15 12 -8 -26 -127 -4 10 8 25 -5 -9 -82 8 -33 -17 -2 -16 -52 -87 -7 7 -23 -17 1 0 -2 -15 -34 4 -32 42 11 -23 -20 0 7 -39 4 -15 -7 2 -6 -10 -30 16 1 -15 22 -64 -8 44 4 9 3 -23 -30 -41 -10 3 -33 6 -40 -33 -7 19 -5 14 -14 -11 -25 -1 -72 -33 -14 -1 -12 -9 -21 14 -2 -27 -104 1 5 20 -13 -12 -28 -34 -4 -39 -58 3 -6 1 -2 -42 -60 -39 -6 -58 -12 12 20 20 15 -74 -21 14 -48 -30 -11 -3 -14 -26 -38 -18 -30 -21 26 -5 -12 2 28 -69 -25 -3 22 23 -74 -26 -12 -34 -2 -1 -15 26 -6 3 11 -5 -31 -42 23 -45 -32 -5 -52 -73 12 -14 -9 19 -7 12 27 -21 -39 3 -32 -26 -5 -40 4 -25 -51 11 -16 -14 17 -62 48 -22 -18 -36 26 -11 -42 -25 -51 -18 33 -12 -57 -38 -29 -43 -49 3 -12 -20 -17 0 6 12 52 -26 38 6 8 -7 -30 36 -40 -18 -26 -19 -17 -17 9 -53 7 40 19 -56 15 27 21 -3 -14 -9 -13 -64 16 -46 20 -33 3
-37 49 -25 16 14 -13 9 38 73 -37 11 -14 -37 7 7 -6 5 -14 42 -32 6 -32 -1 -12 -5 -37 -51 -18 -21 -10 4 19 85 95 -1 113 6 5 5 72 11 49 29 24 66 30 19 21 -41 2 12 63 -51 26 60 -44 53 -34 27 18 15 -25 -7 9 34 -1 -1 -23 12 30 -20 49 4 27 8 -6 -3 0 20 24 -49 8 28 -28 -10 -12 27 60 41 17 -23 27 -48 -12 73 37 48 18 58 -21 15 33 3 30 18 22 -35 17 0 -26 10 13 -3 13 7 -13 -9 1 -38 -17 3 -19 2 26 6 16 38 39 -8 -13 4 3 23 -35 51 -22 -7 77 48 -34 -20 -9 -19 29 44 -6 82 -57 40 4 13 21 35 -27 15 18 -31 11 25 17 25 12 -47 -15 -36 56 -18 -6 -10 19 6 -32 -67 13 -29 -5 35 15 12 -23 -13 -12 21 -43 -27 28 42 14 -5 52 11 26 9 31 57 25 -70 -12 21 -6 -8 18 42 -7 49 -66 17 -15 -45 5 45 -9 -2 6 -7 -12 7 30 24 -20 -106 5 1 15 3 -10 -56 2 48 40 -16 42 28 39 0 3 -2 -14 -9 -28 -24 9 -16 17 36 17 21 -31 -9 7 15 15 -43 76 26 -8 -2 74 -63 -10 71 23 49 51 -19 -9 61 55 87 14 -12 -16 -15 64 -51 24 45 -16 21 13 -6 -26 -16 82 26 -9 23 -31 -6 14 -51 -4 7 82 58 -8 26 12 -21 40 5 -29 12 -41 0 11 24 28 11 -2 22 3 26 87 25 25 5 40 6 -31 55 -49 -72 -95 16 -50 19 14 69 -14 -3 12 75 1 54 -14 -107 25 6 -8 27 -18 -5 -5 43 26 -9 33 -12 24 -21 40 -37 -21 37 4 41 20 -36 12 34 16 -13 -46 -2 34 -45 58 -21 -25 -74 -23 18 9 43 -42 -16 24 3 -22 -29 49 -12 -37 -26 -9 -48 -18 -9 12 -23 -17 9 -1 -46 16 0 -29 -4 -8 83 27 20 16 40 -19 19 43 -23 -2 42 17 54 -41 -10 -21 -13 -14 -12 29 49 -3 -44 -26 64 -43 -28 36 5 73 -30 6 26 55 21 45 -3 -16 115 76 48 99 12 31 29 126 50 -37 -85 -7 -21 -16 58 -16 43 -24 36 29 14 -18 44 116 31 45 25 14 -4 42 16 -43 11 6 42 44 51 32 -42 -39 40 66 34 31 31 30 37 31 7 -54 5 17 30 41 -32 13 61 16 12 18 -19 63 13 -23 -47 21 44 34 68 25 -18 -16 55 -6 -12 -22 -9 66 -20 18 15 19 16 -11 16 22 29 -35 -13 -54 26 44 -16 36 14 3 41 24 14 -20 67 -23 -14 -1 50 -25 -75 -55 -33 -20 -28 57 -8 49 8 3 42 35 13 -33 -9 -2 6 18 3 -13 30 -1 27 7 -4 -8 -8 24 42 -27 -16 1 -3 3 14 4 7 -2 10 9 81 34 -6 68 8 -49 18 -58 -2 -20 -1 36 -10 -23 -10 28 52 32 -27 66 59 1 -35 -19 37 40 72 46 -13 31 4 4 43 27 18 64 5 -58 45 26 1 43 -5 8 39 -42 -20 49 40 25 11 91 -48 12 -41 26 -6 14 12 80 -15 62 5 14 6 29 -35 -51 -9 6 -21 -41 32 1 -12 44 32 32 -25 35 34 35 -10 40 15 -23 20 -30 7 48 1 10 -3 3 -28 5 3 -58 6 13 -40 -44 23 -37 -31 -1 11 62 -31 -2 32 -22 -11 13 46 49 37 -1 -41 79 50 11 21 -12 2 35 -14 25 5 -70 -31 126 -11 8 45 -5 8 61 16 -3 9 -20 -6 9 -1 3 13 -19 -2 19 24 11 29 17 41 -59 15 -18 48 13 36 45 47 19 5 12 11 -20 20 7 48 -8 39 4 -36 11 -24 -24 29 16 -10 28 10 84
-91 26 -47 -23 28 -12 -44 16 17 38 27 22 -69 20 -17 0 -16 7 14 -33 -15 26 -42 -6 4 -10 -57 50 31 -15 -33 -30 -52 25 -42 72 -8 2 7 13 3 39 -36 -28 52 -39 -22 -4 1 -56 -27 9 0 -19 -56 -13 8 11 -35 -32 -4 20 -20 -5 -11 -13 -34 -29 -24 -53 7 -1 35 -22 82 -24 1 21 2 2 58 -27 9 -13 -30 -12 -17 18 29 21 -44 -59 19 -24 -2 -7 -13 45 44 -8 -6 33 29 27 -26 -3 10 -13 18 -86 4 12 -11 -16 58 8 9 17 -27 -25 -61 32 18 0 24 -13 61 -44 5 20 41 61 -64 -6 -36 -9 -16 -3 23 -5 6 -29 -1 77 -30 -17 -47 3 30 -2 -57 6 34 -7 -9 32 -45 -18 -5 -16 -56 -2 -17 9 -18 -21 22 -9 -28 7 -6 -15 -57 -31 -8 -19 51 -38 -2 -1 -18 28 -55 1 0 1 -57 7 -9 28 -69 -21 -37 -40 14 0 17 21 6 -57 -41 46 31 -36 14 -63 -29 -16 -40 -11 -25 8 14 24 21 -25 -2 -45 18 27 -59 10 -34 -1 21 -33 -21 -12 -8 0 -39 4 -28 -80 -47 12 32 -19 4 -16 45 -35 -27 -11 8 -3 -8 9 16 6 -37 -19 -34 -32 55 -47 44 23 -38 0 -20 -22 37 -29 0 -22 3 7 6 48 -21 53 5 38 26 4 -39 -21 12 24 -40 17 -37 -16 7 -3 -34 -15 -25 -82 31 -13 -12 -25 -62 -4 5 -24 17 27 -37 -58 25 -76 23 60 6 -59 -24 -13 20 -51 1 42 -15 -26 18 15 -58 -26 45 -23 -55 18 -21 -2 3 -6 -25 -24 23 -20 62 30 15 24 21 -54 -25 10 2 -43 -6 -51 25 -13 10 -45 2 -4 -50 -33 -40 9 76 -7 5 63 58 -17 -14 -2 66 -27 -21 -7 -45 63 -66 7 -11 -22 2 -21 30 42 1 -10 -18 15 44 36 38 10 -31 29 -19 -14 38 21 -19 57 -12 -3 46 15 37 28 -15 4 -30 50 37 18 -32 -41 40 5 33 -60 -19 -27 40 -50 10 -6 3 -15 21 20 -1 17 -29 -34 -18 17 -4 20 0 37 -6 -96 -25 3 -42 -24 -29 -7 -17 75 -19 2 7 -70 25 -7 8 4 -25 -15 -20 -9 -10 19 5 -79 18 35 19 3 51 58 -5 24 -26 -11 8 24 -18 3 18 -5 7 -9 7 7 -77 -26 10 55 16 22 -41 -23 -6 36 -19 6 -27 -61 -32 -5 -20 44 -48 52 -24 23 -56 8 -18 -11 -64 -5 -14 8 20 -58 13 9 43 -59 50 22 -15 -16 19 -12 31 -9 3 30 57 48 -22 -62 -21 -30 1 -23 -4 -24 -31 -17 -15 -7 37 29 10 -10 10 7 8 37 -25 -19 -38 11 8 3 -7 -29 -93 12 1 5 -43 -7 -51 13 -58 -4 -15 -120 -6 -61 -73 20 9 -83 12 46 30 8 -30 52 56 -29 -18 -43 52 4 4 -30 -30 25 -17 10 6 49 33 20 53 -2 5 -69 17 29 64 -23 -1 29 21 -5 35 29 -39 -13 28 -4 -4 -50 32 -4 -6 26 80 -42 -3 2 -55 13 30 -20 35 32 -8 89 39 -26 19 -26 40 -127 -10 2 -20 -32 -61 23 9 20 -6 -4 -22 31 -5 -1 -11 24 44 10 11 5 -35 -4 30 10 -21 39 -70 -24 -20 -48 -10 14 11 38 -12 28 22 34 1 40 -74 18 12 13 1 -29 44 -24 -19 9 48 -31 39 -6 -25 -9 49 -26 -17 -6 -6 14 -2 -41 33 3 -25 -50 -9 34 15 -21 -18 -20 19 -75 40 17 16 -75 -20 1 3 27 -13 12 1 7 42 41 34 -41 3 21 -45 -21 -2 -28 -20 67 26 -25 22 -10 -2 -45 8 -7 -29 46 16 -2 -36 66 -43 -19 -27 -8 0 35 -15 -19 17 29 -48 -27 -3 26 13 -33 2 45 1 16
-9 -7 44 18 16 -50 6 57 18 -13 -23 17 10 30 4 -32 -44 4 -19 -3 25 -30 -13 47 4 1 -22 -35 8 16 -28 -45 -5 -1 11 27 21 -18 7 -35 -23 17 -17 92 60 -14 -9 -33 4 88 -16 21 -30 26 -89 0 -14 -11 -22 26 -54 28 -35 -10 41 37 -20 -2 -71 -37 -1 3 22 25 13 18 65 -20 4 -17 32 3 -1 -15 69 -6 87 12 -50 -33 -56 -2 20 -1 103 35 -41 9 -27 6 -39 -3 30 -8 -29 -17 16 6 -58 44 -2 -11 -30 19 41 -7 -22 28 -7 -35 -40 -4 13 3 -13 11 -35 -10 -59 -21 -114 22 -40 32 -32 58 6 -10 53 -47 -31 78 23 -71 -29 47 -74 20 -8 -4 58 82 -54 31 20 31 -3 -39 -17 25 -48 4 -4 35 3 18 6 -26 -33 -17 -73 32 26 -27 -29 -10 48 15 -29 17 -19 -10 -47 -79 42 6 29 45 -18 32 -41 48 -39 -9 21 34 -53 68 23 55 94 0 -42 25 28 50 21 38 -22 -36 26 17 28 -48 27 -6 -16 -15 49 -15 -19 -28 -10 -47 -4 -7 -61 52 -14 -21 -45 20 5 15 -11 2 21 -32 100 -70 0 75 -27 10 117 6 -12 12 66 23 -5 -5 -25 16 30 -56 -11 -18 22 -24 -21 5 -30 24 49 -5 0 -61 33 28 -41 -71 6 4 -33 11 90 -36 4 -3 -1 39 -13 -66 -91 -69 -22 18 84 -23 -32 -7 -15 75 -52 46 -83 -31 26 -14 -41 49 16 -33 4 15 -10 -10 -72 -4 -27 -72 24 -84 -13 45 28 16 22 12 27 -13 6 46 -20 103 -34 47 7 41 7 -21 43 5 80 -57 25 1 -96 -27 -14 0 -2 -5 0 -28 -8 84 46 -12 44 5 -92 29 -22 26 -66 34 31 30 -19 20 -21 -38 -40 70 40 -35 38 8 -28 -28 -14 -2 -14 -7 13 17 -35 -24 -27 -72 14 -40 26 -33 3 16 16 -52 13 32 0 -12 14 -54 65 14 24 -15 -28 -20 10 20 17 10 -24 55 -6 23 -35 -3 15 -40 17 -13 26 -11 18 48 109 6 65 -30 4 -16 -24 -11 -22 -98 -24 43 13 -36 -17 92 29 20 67 -31 -4 -30 47 2 -14 -104 -34 40 6 22 -26 -45 33 1 -18 13 -83 57 -4 37 39 -105 -69 24 42 18 15 -56 8 -2 26 -17 -39 18 49 -48 -4 3 52 -35 -65 11 -2 71 3 -21 -1 42 -41 -55 -12 -5 -49 47 18 -94 38 1 -44 52 -18 29 32 42 10 -64 1 -44 -77 -30 48 -4 48 101 11 -48 -54 -38 54 4 29 45 12 -74 -25 -50 -29 -11 103 2 -32 28 23 -47 -15 -42 -2 22 -10 24 -2 18 74 -66 0 -17 -13 3 24 -14 9 -31 9 10 7 4 -2 22 80 21 71 6 3 -61 -2 -86 -26 -1 -43 -3 17 -35 -44 -33 10 -59 -6 13 2 -9 12 4 -47 -17 3 65 28 -16 5 17 28 -6 -57 2 -2 23 97 24 5 73 -33 -10 -24 -3 35 35 -24 -1 3 -6 87 41 -70 -54 7 0 7 -5 27 -22 3 -17 -53 11 -36 25 -59 29 13 64 -7 -16 -56 18 21 -47 43 -27 -70 65 -43 -11 -39 13 47 -8 -56 -29 -19 -100 14 -25 -33 -9 20 -20 6 -23 42 71 36 -4 10 44 -2 -9 -28 -53 17 -23 40 60 54 -32 -54 -29 6 -45 -21 54 -35 -48 33 28 6 -33 65 126 83 -16 -27 -1 24 45 30 9 0 5 26 51 -11 -4 3 -15 19 4 -37 11 61 12 27 -12 -43 3 21 -56 -43 38 -20 -36 -12 -11 9 -18 18 33 30 9 8 -71 61 -33 -6 0 -15 5 -68 83 3 -6 -38 -8 -32 2 107 -21 -28 69 1 -7 9 -18 10 -33 1 37 22 -12 -65 -17 41 -32 -19 -69 47 -11 0 -84
10 7 -19 -7 9 5 15 -19 -24 -35 11 20 -23 0 25 8 30 24 40 37 -33 -9 -36 31 -28 8 20 21 12 -15 -44 17 35 15 -32 49 -25 45 -41 -25 -25 -6 -104 64 33 13 12 7 10 61 22 7 65 -4 -42 40 73 29 -25 9 12 14 -14 -36 16 -7 39 14 37 4 -37 -19 -67 37 -10 22 -3 14 31 -27 -67 18 5 40 13 -10 -39 21 -48 -23 24 13 -126 -11 6 -27 -5 57 64 37 -8 -98 29 -41 -31 4 27 65 10 -21 -4 37 32 -30 -19 7 0 -20 24 -23 -34 34 -14 -36 -5 4 -6 74 73 -31 44 -16 77 3 35 10 9 -38 -99 -6 -21 -19 -117 43 -23 78 34 42 1 1 19 17 -12 -23 -20 10 36 -17 -8 14 57 53 19 -1 6 -22 34 -6 33 -19 46 2 -42 -28 37 20 21 -26 -3 -90 36 54 -39 63 16 -24 -2 3 -5 58 6 -70 -18 11 43 -52 -47 2 23 102 -41 32 20 51 14 5 -9 -25 -1 9 26 3 22 37 4 42 -11 1 -19 21 8 -79 34 -25 25 -34 -63 14 25 -35 -19 31 18 19 58 39 -28 72 44 -63 -19 -34 16 32 -20 21 33 6 93 -12 11 1 32 55 -13 -70 -4 -15 8 13 10 -37 -28 -42 20 28 -20 11 16 92 -5 -16 -26 10 1 20 -24 14 5 -54 39 66 -17 30 -5 -2 2 11 -1 -31 -4 83 -23 -41 -31 37 -36 -14 -16 12 31 -15 -14 -70 -68 -3 -11 23 3 22 -67 32 -1 -32 42 -16 36 36 -49 18 14 -52 16 -36 -31 -34 -3 -23 48 7 -8 -17 -19 -20 -68 -3 18 -87 32 35 -17 -30 1 2 -8 -61 48 -19 -39 6 31 5 19 -17 112 -18 -37 -13 7 -1 17 30 -9 66 14 -1 -25 -53 47 -21 -39 37 9 -15 22 -50 20 46 -19 -52 0 -50 -1 -42 -66 -3 23 29 26 -38 -11 -16 -53 -45 94 5 -11 -5 45 -62 -79 22 41 6 -12 19 15 17 -8 -26 36 -31 -29 1 31 38 2 22 18 -16 -18 9 22 -6 -4 8 10 -52 55 -1 8 33 -32 -28 50 -31 39 71 -23 14 8 -13 -11 38 10 68 -48 126 -8 -34 47 4 17 1 2 33 -90 3 31 70 -61 -20 9 28 13 -24 -58 -34 15 20 -1 18 -60 37 -38 -44 63 -19 -46 1 -27 22 -37 -12 -43 -38 -12 -6 16 -1 19 -24 7 -37 6 56 -3 30 5 34 4 -9 -35 62 6 -32 -1 -5 12 13 -15 35 -20 63 6 -53 -31 38 -10 -6 -16 -3 -24 39 -5 26 -36 -37 -98 25 -11 4 -28 40 -25 -4 -14 -3 35 49 46 4 -13 -30 -49 5 16 -39 -18 -20 44 -19 -14 -15 -37 41 19 -48 15 61 -4 3 25 33 -16 27 -1 -1 -31 -31 -11 -70 -32 32 -5 -83 -20 22 0 -61 -8 9 -30 -14 14 28 7 39 7 56 24 -33 -5 -5 18 -31 -25 79 -33 -61 7 -40 21 -41 19 37 4 -16 -4 6 -6 -33 -19 35 13 48 -38 -6 -34 -8 63 -64 120 0 3 -22 22 -30 -45 87 29 108 -117 39 33 22 -6 31 -29 -36 -2 9 3 29 -14 24 -51 5 55 -43 2 -31 41 -9 1 -15 -12 69 15 -19 -14 -39 -5 36 8 -31 -57 12 -35 -51 36 -3 22 -68 35 8 -28 5 -32 -9 -60 -28 -42 4 0 14 -33 39 12 13 40 -61 3 24 64 17 -66 36 2 20 -59 7 18 -18 -47 68 -12 -56 12 -21 -6 -39 -3 29 -51 36 16 88 -11 -11 16 -36 21 10 -56 5 2 -33 30 -34 -21 1 65 -12 -15 -15 -11 -40 14 -7 -22 -52 21 -43 4 -25 32 34 6 -49 -7 36 -18 -11 31 -15 -39 -2 36 -48 8 -62 9 88 6 -47 -42 10
