89
62
-242
243
-4
132
225
136
-57
-148
-42
-76
694
2
139
58
-80
-52
151
-95
-235
-235
343
204
-4
156
-144
43
-83
-204
-312
-316
-67
160
-129
220
172
-266
-233
-216
157
-12
160
-168
-211
-449
-81
3
-52
47
-470
-381
274
-28
300
-237
-13
-206
134
318
-116
170
-43
145
73
129
-38
114
40
296
-303
-51
-4
103
-56
842
-509
202
12
165
-212
59
-73
-315
138
225
30
212
100
10
-25
20
-54
200
-49
-285
172
-213
98
20
-15
-27
-90
32
121
47
-557
-141
119
-49
479
-103
-172
102
10
-169
-37
142
-191
-136
150
-126
64
-150
76
110
91
-99
-558
-191
-257
-147
213
384
-106
32
-267
-234
82
318
-229
-204
-109
-231
-39
91
-94
25
223
-28
94
-235
-277
111
-145
26
-131
-307
-422
260
-53
278
-300
-98
-266
-13
493
246
138
-227
214
15
16
250
-4
212
-110
29
41
-146
14
-236
48
-457
-32
30
149
13
-89
-151
-324
148
-354
46
-36
-355
192
135
-280
-27
350
233
233
44
320
-179
501
-751
-558
-70
-219
-469
-14
-312
277
-190
47
-196
65
103
633
143
-190
-479
-349
678
-584
28
390
-261
-132
223
-142
166
146
-277
-127
132
294
189
500
-420
0
174
236
2
-136
-379
606
-228
489
124
-171
-72
48
649
266
318
12
345
158
-252
209
6
-268
137
291
13
329
143
161
243
-61
51
-187
-15
-473
168
-70
591
72
816
725
817
60
-174
-157
255
374
25
-439
144
366
185
300
-84
-279
-122
49
295
167
132
-131
338
-649
-81
-4
-29
235
-20
213
-415
-170
-2
153
-49
11
190
-354
181
-33
-133
-42
-119
208
282
-144
52
-172
67
-443
393
2
236
54
-95
693
24
-245
1
495
-219
-78
-410
2
-536
-216
163
420
-192
227
277
-24
23
160
614
-236
610
-341
-213
-156
-40
130
-49
47
231
74
-110
-31
-6
-193
98
280
97
-17
167
-4
-256
134
-102
-238
153
16
-101
-269
57
97
142
239
-11
557
52
-137
-341
1
140
4
-104
-26
-80
-64
-139
-221
190
310
200
135
-73
-37
463
177
-114
-242
-9
1
-144
8
418
168
0
-210
-201
574
-25
-111
-221
98
-29
214
-105
263
415
-148
-414
320
270
55
-183
80
16
167
-92
95
3
256
-52
-127
-301
-165
511
-135
415
-42
-138
643
-100
-129
316
-36
588
-65
-295
344
74
-203
-583
16
-130
-77
391
252
-223
-221
-224
155
-84
-181
-131
326
-63
-104
-108
-554
-121
-88
-206
8
-111
166
-683
302
-129
-236
181
452
-10
436
-362
288
-162
488
22
-477
-148
105
195
189
424
37
-196
125
-585
401
-576
-493
-47
-14
142
444
-537
249
-433
25
-394
610
-554
-570
372
-26
-524
348
-340
47
589
841
-287
-344
-137
418
310
-293
-48
404
-476
-190
-278
-1148
-351
-211
8
128
-109
23
524
170
-170
140
301
-287
119
-26
-309
-991
43
-758
456
668
-36
700
-205
-312
-155
-241
168
-53
-162
141
-177
96
476
-95
-399
76
-333
-20
-113
-101
-128
153
44
117
65
78
-259
-38
66
243
158
110
-4
36
23
341
107
59
-61
-5
-268
177
-202
-45
-67
-140
-26
-292
-296
34
139
192
93
50
-9
-3
-4
-116
340
-131
141
76
-5
-79
-135
110
249
211
103
-39
-259
-266
79
449
-27
-60
-27
41
192
4
184
17
28
-398
-65
63
-126
-62
17
105
222
1
-103
-35
-2
202
17
16
-203
-3
72
-14
18
-211
-17
-16
74
-4
160
42
-188
-77
7
52
197
-45
-84
-78
85
153
-37
-46
-145
-133
-325
-21
8
-166
25
76
-66
-117
-45
190
64
8
35
-89
-126
72
93
127
33
-75
37
-115
-210
-141
8
78
216
-81
-92
7
-55
-43
-249
218
-55
-184
41
237
-31
-34
-111
27
-249
505
77
-74
-43
608
50
122
-56
-69
-51
146
293
-80
-32
269
229
-40
159
-28
-49
210
-1
-190
215
37
197
-62
-59
297
113
35
-188
69
-34
