-14
-14
-31
10
-7
42
-6
-28
-54
-2
5
20
-24
7
-54
-20
-3
-40
41
-37
-50
-25
-22
12
32
-11
-4
67
-8
-58
37
-9
-24
41
7
-9
16
-65
30
-36
-7
7
-6
-44
-76
-10
6
-62
-21
-10
30
-15
3
20
55
-35
-72
29
4
-7
39
83
-2
37
-96
-112
60
-209
-18
77
94
-149
145
61
175
-107
23
3
100
28
44
83
81
9
28
-58
-13
-38
8
-64
-29
34
3
108
-105
26
-81
-116
-150
-22
-29
9
-67
91
-103
66
164
91
34
-134
74
13
-120
366
-27
73
99
-1
-88
-61
-174
150
-91
-36
-41
29
130
-2
-10
22
19
-5
-7
39
-11
43
13
3
-7
-71
-10
8
-15
-10
9
19
56
-38
2
-32
16
39
-10
12
20
20
30
5
15
-6
1
-32
1
10
-12
0
9
29
-2
-28
18
-32
-13
21
13
26
-6
38
7
15
13
31
-14
18
10
0
-11
-10
3
14
-5
31
61
133
-61
48
10
68
-162
148
5
-11
254
105
134
50
-112
145
2
138
-247
58
-4
-117
130
359
114
-369
-105
-100
110
-32
47
-244
60
-29
108
27
-67
1
7
85
55
297
-34
52
-131
97
-42
94
86
306
0
41
56
-25
-203
111
492
37
363
-50
-137
-91
60
-125
-24
-17
-37
-7
20
-15
-27
6
-10
25
82
-6
-7
13
-27
53
0
2
16
-73
28
-66
-5
61
-23
-1
10
30
28
-22
-5
11
71
-45
37
-47
-20
-21
-13
21
13
-28
26
-13
-34
30
-37
41
-45
-30
31
36
-52
-27
-29
4
-10
12
-61
-2
14
-56
-20
46
8
19
-26
-29
-16
106
-226
-48
5
30
32
-16
9
-27
-36
-26
-76
22
-63
11
89
-65
3
-34
-12
-25
-22
4
40
-155
3
103
-8
4
-66
1
-44
-30
6
-15
152
35
37
44
48
53
31
24
35
-1
63
-63
-68
42
82
-56
1
-65
89
26
-9
31
3
23
-92
-75
70
21
-86
-1
15
-5
-25
37
13
-22
13
83
1
-10
-110
12
-51
55
-9
21
-1
-46
52
64
52
-20
-19
-9
63
-39
41
40
2
32
-20
-1
41
-2
-54
-6
52
2
-21
23
7
4
-1
26
76
5
-22
-5
72
40
42
47
174
25
27
20
13
-5
26
78
-8
-49
0
-44
27
-27
-50
-2
-18
-10
2
-17
-75
50
61
26
9
-32
94
-71
-6
26
-38
30
17
-13
19
-16
39
44
-71
-9
-60
-18
-22
62
-37
-40
0
-42
-24
-20
43
-5
-40
-15
23
32
-31
-40
50
-8
10
22
21
6
9
28
21
65
-23
61
-141
-9
-12
-52
11
-32
-64
-44
-62
32
-6
-68
12
53
-27
7
-84
-61
-135
10
-3
-18
-62
-29
31
-61
16
19
33
-9
-49
-40
29
12
18
20
30
-3
-73
-17
-11
-13
43
-9
31
-1
29
-9
-72
33
141
4
28
-133
-12
-15
-50
-102
9
86
47
-18
-122
0
15
-20
1
14
-3
2
6
-1
6
28
-6
-5
25
20
5
-25
-10
23
-11
33
-13
6
6
-16
5
4
20
10
7
-3
-6
4
6
27
-22
-22
-5
29
20
-43
-9
-40
-6
17
10
-30
-34
-9
17
4
-15
-16
-14
-25
-11
15
7
4
18
2
23
4
-15
9
6
10
34
-11
17
-13
34
-7
-23
5
-16
13
-1
5
9
-29
-39
18
13
22
-11
2
29
16
19
3
-29
-2
-11
-10
18
0
1
18
42
-6
-18
-15
2
11
8
-5
-3
29
-1
7
-37
5
-1
-47
29
12
31
7
-5
4
7
2
-2
-11
-29
-15
-9
-6
41
48
-4
1
0
16
13
10
-7
-10
30
-72
-5
22
-14
-27
38
-16
-25
25
50
23
-34
-14
25
-70
31
-20
3
32
6
-5
-4
10
50
-43
-51
-50
41
-3
0
14
-22
19
-7
5
-9
29
-23
-18
11
7
24
27
14
-9
11
9
11
-1
-24
-38
-15
18
