874
-1293
-162
-294
375
2016
454
-861
-377
1016
-469
346
-417
164
-67
-173
989
-865
-310
-23
1476
525
-1459
-12
65
1038
154
123
348
90
-181
48
-385
921
-536
243
154
-562
-176
-318
3
-1732
-636
-561
-849
-684
-462
387
13
-695
77
84
199
343
656
-766
487
365
-619
144
419
560
-1580
10
-2764
-405
-316
8
394
520
-785
135
-526
328
151
476
-23
-549
214
-328
-525
233
-21
72
309
-673
74
-107
-923
-462
-396
-382
1263
56
25
-726
-1100
-929
390
102
183
-416
-785
7
252
196
-416
504
-593
-436
-282
-49
1255
962
-907
285
-809
181
82
-96
-64
-121
-169
-44
1006
-342
83
274
80
-1003
305
269
91
59
113
-249
-331
194
342
571
-353
-75
-1019
353
-763
-134
-429
-747
485
71
-910
-63
-208
-469
-765
1051
-242
726
730
1309
-202
307
-469
-551
713
306
-583
-468
-295
180
-85
711
-1514
106
802
-1040
585
424
480
-192
1527
29
208
1006
184
636
-75
-190
-553
1050
-827
11
1
1062
1270
-750
1095
-62
-165
422
226
-17
-694
-203
1223
1318
-256
106
-354
-264
921
-151
-169
322
-5
167
411
-186
-382
476
-548
229
490
23
102
-340
-371
-638
-670
117
-116
84
-221
-1108
240
232
-906
1206
778
362
-52
119
34
-135
-109
416
778
142
167
655
291
-628
661
-1058
121
-577
79
305
-2127
-462
-197
225
1
9
430
321
657
193
-157
-14
-82
-54
-11
-222
-94
751
-287
731
-84
606
1282
729
-561
281
775
731
-205
-1035
-452
517
152
467
-415
-1102
583
-506
-858
1014
267
513
1409
217
278
277
-122
-81
-106
-927
-893
-429
-217
-63
444
32
315
-525
-312
369
149
-789
636
-596
139
-147
-635
96
-752
-643
-857
328
-65
160
97
-350
371
884
-716
660
596
-310
-456
130
18
-1152
374
-1800
-45
749
-273
404
-36
-427
525
845
-217
-337
685
-769
-128
-441
959
-492
-796
-67
-1125
276
-509
1016
720
-1007
581
-577
-809
-879
-520
-432
737
270
77
-927
479
-1262
-722
-1105
-546
175
737
-62
175
-583
64
-1175
211
411
686
26
916
829
721
405
-864
-416
607
1503
-836
-183
-805
85
401
1015
732
-23
121
346
365
189
-417
-1
-544
-334
-1491
-1340
639
-915
754
94
1670
1005
706
36
-16
-104
899
588
572
221
219
-396
716
-1187
109
226
1199
547
535
308
-778
-557
-452
348
41
-1388
-249
-1416
-624
-834
-326
-119
432
108
-852
-954
-459
674
132
253
289
2233
-1009
-203
-106
66
-1307
128
2
-1647
217
1417
-767
334
851
-435
6
721
310
118
-782
1175
1093
-368
-177
247
831
312
1045
118
-425
-304
-1569
221
-259
652
562
634
347
1159
1708
193
186
403
-59
478
-1580
-296
628
-46
-501
799
395
145
149
190
-363
308
-805
124
-1084
444
-474
-535
-105
-361
-137
153
-2147
-84
24
524
-294
-291
1035
192
-807
545
-614
-263
-1051
101
-7
433
756
523
166
-809
-78
-937
-497
-503
-367
-946
326
-267
-1664
-139
77
-548
-834
582
497
-462
922
-353
-48
271
267
357
-314
846
-666
-451
-491
-271
-1060
888
-52
679
-799
-923
998
-426
-270
451
331
800
0
-421
246
303
-841
644
1428
531
-18
686
-152
146
109
698
309
-603
-256
1184
-657
-282
450
-1654
136
125
-717
404
-308
-550
-293
-280
392
-412
-32
-226
207
-367
-892
-608
-815
-669
284
101
625
382
-1455
537
-999
34
1384
385
-650
1375
-328
-236
-180
-555
-301
-37
-657
447
-140
769
401
628
606
1068
743
-1371
-12
-814
12
1017
-734
-1346
-260
780
334
408
533
72
546
326
230
-270
327
106
771
-400
-745
623
70
370
-1153
457
273
898
-202
927
-62
66
128
-3
1117
-974
73
-1541
60
399
557
-240
-558
72
-666
-662
-738
691
267
731
-581
-687
1259
-925
-1222
302
-327
377
-859
104
804
275
1209
-445
-193
60
111
-514
-610
-680
-478
-953
-1748
26
204
-962
266
-780
-4
358
430
459
618
-483
-273
-381
-485
-1202
323
-742
176
-145
1
-1040
-396
1402
-396
-626
520
980
1305
125
-739
1627
66
-538
