1780
-1603
-1124
-1380
-916
-186
599
-942
5154
-153
-3470
368
-849
506
831
1804
-2618
899
-454
3265
-3330
-2308
1514
-3091
891
644
878
4656
-852
2982
509
2234
4529
-159
1372
2401
914
647
3778
2110
-1842
-2886
2077
-1622
956
-1767
-2079
-258
-334
-239
4689
1740
-2897
-2015
-819
1283
-373
2003
-1722
-1517
3366
-1564
1756
1649
-1978
-1848
-1069
-1988
2113
2345
1461
-1030
-1012
-2991
3522
-2833
-1971
1127
2579
-761
961
4092
108
1814
-919
-664
935
2216
184
-2140
2072
-268
-3177
1307
-622
-480
1210
315
-2476
-127
4938
1519
1759
1256
-630
-3582
1290
-2775
1188
617
-786
-153
765
-1276
263
757
42
-2671
642
-5496
-541
-273
130
2867
-2007
-973
-2051
265
2015
4068
1720
-4129
960
-957
-1465
-1394
-4959
2819
-233
-87
-1436
-4043
-1246
650
2153
-1963
2138
817
4075
865
2644
-652
153
-2218
807
-2184
-234
-343
1978
5109
-1979
581
463
2310
68
-1465
-3279
92
-4991
495
1960
2775
-344
3015
-2937
1466
750
1664
-711
-4826
-2846
361
-595
2210
6
-393
1729
-761
218
1896
-1700
4874
-1291
4332
2699
-3203
552
1365
-4747
301
2395
1210
3810
-2093
-1785
-872
171
1483
-345
-783
-3395
-640
2279
5198
630
1006
310
565
-387
66
738
1745
-1616
383
3950
-2819
472
2074
-1241
1251
-1782
-308
-1804
1926
793
1856
-2942
-2571
-4498
2177
-2028
-1493
-3104
123
-845
2545
690
-3188
662
2240
-3420
-1352
102
-919
643
2952
1510
1104
846
-3765
1204
1102
486
-185
420
2060
-1293
-2493
1180
1646
3785
2231
-1154
285
1643
-808
137
70
5612
1139
1815
1802
-4312
-587
-2673
1084
-1039
5595
5284
-85
5190
1134
1473
1710
1846
295
-3820
2090
-2404
-648
-2189
-341
-3227
-1673
1053
107
4257
-113
2407
806
456
-2284
-3615
-1171
-724
1564
436
-2946
-829
1349
-2690
721
5639
1624
-1864
284
-2664
-5340
-3241
-3131
-143
1773
-2190
864
2504
48
-284
584
-544
1837
-184
1483
-1874
-2549
-139
669
-2010
-3526
-532
2953
2957
-1025
-939
-689
1915
-97
-908
-3046
2060
-1055
1442
-285
1182
1866
-581
1105
-2774
2483
-2286
919
-597
985
229
4242
19
2657
-4
-3524
-727
2929
-155
-3340
194
537
-1490
-3328
360
40
903
1992
-154
2648
3466
-1576
246
-4105
-423
1748
124
-1858
1690
-1540
-2762
2075
-409
-2392
-1946
-1427
-962
2438
1964
-1691
-56
-1047
-224
-767
-235
-2577
-514
1697
-560
-352
-3150
3501
2761
-1125
-1843
-5060
1451
24
-1078
-1613
1559
3436
2890
570
2233
481
3027
900
-282
868
-517
-1122
474
3373
-3153
-212
175
935
-2751
2750
-2416
4549
-2309
-650
-2024
3207
-209
1498
106
-3540
588
150
-890
-5954
-82
951
1857
-1832
-475
-3831
-3369
-1178
-21
709
775
-1419
-42
-526
-52
2712
2756
586
3263
-1335
5072
2588
900
-3840
736
437
-1850
6025
-4555
2831
-6
-1816
2117
-620
-560
-1033
-136
1369
2630
1197
-3306
150
-882
-1375
-4545
1143
-1108
-191
-2970
3666
-457
-2492
1622
-2912
-2635
-2891
757
-2535
508
-634
5330
1502
-310
1952
-1596
230
848
-3306
1786
-9
-2812
561
1101
-1779
-2534
-857
2688
-453
-59
3773
-79
-2106
-6296
-1432
-1293
-1664
-842
3680
421
4071
-3198
1841
-2604
-1937
-1725
-5717
1734
-1830
1344
3302
3294
-319
476
-1661
3179
-840
-1071
906
-1893
-389
2093
2564
47
-449
601
226
-821
416
1282
1971
795
1815
-2056
-616
357
1065
2433
-1317
-1714
-1443
1155
-137
-3026
1070
725
-950
-655
-379
-1684
643
2732
-872
-1159
1872
-1113
2616
0
-124
-870
492
-270
-963
2816
-29
-625
-2358
747
2677
2877
2757
3730
-539
-2408
268
44
-2272
262
-1657
-5143
675
1964
794
-302
-3130
-335
3068
-2196
900
-592
-1788
-3905
-974
-366
-1508
-1791
-1105
1589
-4297
-4473
-1809
144
1717
3969
-1462
-1327
435
451
-628
5004
-787
1353
2345
-2775
-1164
-62
-3987
2990
-939
2245
-1348
3685
-2045
5032
1474
-2209
-2586
4706
-2405
-2361
-2143
-1336
-1358
4575
1861
-890
-1429
1248
3529
1658
-1434
-122
1897
985
2705
-624
1010
-928
3230
3602
3291
-21
-1624
1287
2928
-316
150
-4597
-1012
-2380
-3872
2295
128
-2155
1878
821
1075
-3520
-4192
592
3818
-72
585
1465
-1933
-1791
-1179
395
-1044
935
2044
-1655
-690
-3486
681
97
2214
4220
-881
-4736
165
342
580
694
569
610
-2535
7745
663
-1212
-2753
313
-231
-1683
-1481
914
-153
1242
-1733
-2326
467
-1103
-4209
