1953
3808
-676
-1016
-1136
185
3213
-327
-704
-448
315
1255
-4632
-4364
1106
-1091
-1605
1096
7025
-1662
228
-3090
-718
-919
2154
-2742
51
166
-2252
-906
-4373
-7401
256
-664
164
4098
609
261
-4140
3778
5763
59
2555
-354
267
71
-1890
1349
-1566
-1144
-450
3372
3856
-1549
1384
-1505
-2356
-479
2563
847
1095
-1734
739
1026
232
-1646
510
541
-4213
2138
-991
-3507
-4391
1688
2337
1760
768
4275
4554
-4122
360
291
11682
1555
-1141
-1439
4244
-1802
814
4729
-1674
402
-552
-3151
-64
-948
-587
4258
276
-2309
-1731
7135
592
1565
104
-1300
-3259
479
2369
-4164
1618
-893
2702
-1314
-914
-896
-4750
-2155
3557
-2476
2169
5135
1967
-1979
-142
-626
-5013
844
4481
-162
182
1680
4130
2086
76
3442
1126
-244
-1097
130
2404
-881
-1164
-250
-2595
1310
-2361
31
3051
-931
-1223
-3854
649
-3606
-568
162
-700
1542
3638
2179
3392
1405
678
3067
1613
3915
654
918
-138
308
-3317
-890
1392
1133
-2160
-3953
4364
96
-2780
-5379
-900
490
-1973
-1015
-6640
1695
-3436
937
-2305
1564
-1147
-2421
503
-2492
-1572
-3
-160
-127
-3012
2292
-1175
-141
2298
-1786
-849
-3703
2735
2697
15
-2452
-2886
-23
-297
1449
47
693
314
1950
1152
-1822
4181
-1893
1022
4495
-830
-2215
-2045
-542
1796
-2003
354
-1032
2630
-337
-1097
3055
-2837
-1912
-5076
-257
-27
-163
4216
-2002
-3649
-316
-2694
5415
5396
1093
-1201
3122
604
-1783
-70
1502
1341
-161
450
-4186
1584
-290
579
-3625
-562
-245
-2962
1883
-2361
1662
236
171
2192
-3298
500
217
2824
1477
147
1919
-86
-2176
246
596
956
4450
655
-1730
-388
-1068
-3698
-801
-1624
2900
-2269
2260
-2639
-2220
-3018
352
-1237
-641
-507
-4520
-836
229
-2706
-677
1617
-869
-1127
914
-4035
3353
1173
-1785
494
-5273
-4002
-3240
-4208
261
2480
-1086
3771
-504
261
102
-1205
78
-1286
6974
1134
1161
2398
1107
1699
762
2125
796
-1641
2358
-2618
921
-3682
147
-436
2301
-350
2262
-187
4020
-303
58
3593
-931
1072
-367
-477
3571
1845
-984
1388
3256
-3471
2954
491
2580
-2065
-3508
-3322
-2839
4396
-1029
1035
3188
-945
-667
0
348
1482
-3452
-2269
4697
2616
912
1808
522
-558
1865
935
-2835
-58
-183
5826
2812
2034
-1735
3191
-586
-539
-3987
-2691
985
1832
-3367
3021
-347
-977
2652
1900
-2992
3427
-1580
7440
-4428
-2366
-1101
1961
-4673
-2857
-2818
-3735
-2121
4218
-160
3801
-4942
-3165
-1426
-1693
-2022
-417
-954
-4551
1916
-4556
2615
-828
-129
-478
389
2470
-52
4071
3817
-898
2160
7956
-2455
4963
-2143
-3346
11394
884
-4269
-1988
-881
3651
-137
-2263
-361
2108
-2334
476
-5522
-4045
1059
-227
-7593
-2536
-3479
798
-684
-3693
-1208
-1706
279
538
1997
-1934
-1950
-2743
1304
2275
-997
1840
-1342
2885
1802
-489
-780
815
1937
-2908
-757
4500
-1536
1649
2246
-707
-1883
3389
1495
6404
5004
-2353
-787
2522
1021
-1846
1357
2375
-2581
1827
2822
-926
-2871
402
27
1427
4903
-312
-3192
-2665
-2519
-1809
-1102
3059
1392
-2540
1316
2486
4813
729
-3713
-2876
-1064
-794
3544
-1385
2215
1939
3264
1549
2901
-4349
-4149
2884
2987
59
-4365
2892
-293
-114
2541
-4868
-990
-4387
-1550
3449
2432
4650
-1038
934
351
3854
3719
1175
-587
-3152
-1198
-3853
-445
-4669
3441
3405
-1432
-912
-2367
-1131
407
5516
1433
-6160
3654
-1886
-401
-2765
5488
-4644
4852
3819
-13
-847
-3486
2925
-789
-2489
-2999
2752
28
-3962
1125
1288
-958
1529
-4056
1641
-823
-26
-664
156
-4240
1645
348
-5537
-1413
4217
838
-661
-1905
-1205
2530
2358
-2355
-3983
2067
2255
-906
-2245
928
6871
-3331
-1208
-2813
-3710
614
-4489
-3318
3173
1646
-1329
4631
3341
-572
-666
-349
-4808
3783
1062
1087
2689
-998
927
-727
1028
1973
1959
4544
-3532
2302
651
-2755
-5921
183
-2844
2563
-3305
-3456
702
-5681
5964
1309
3653
-1463
-510
-752
63
2177
-2456
-4708
-1792
-3483
-2813
-1915
998
-1125
7686
-207
2460
-1190
-997
1400
-432
-4365
-1098
-6511
-1741
-2431
317
1136
1308
-2193
607
-2093
2362
-3715
-469
-5316
3049
-2853
-1400
990
-1204
-464
-1272
-2125
-955
-1591
-1028
-3693
4874
-6
1797
2457
-2815
4653
-1688
-1733
579
1927
574
-1866
-622
1719
3212
-1795
-1070
930
1346
2529
2962
1539
-1520
1214
3476
1972
-1506
3449
770
-864
132
7075
-1911
2507
-2077
-1886
-2842
293
-1214
724
947
2197
-2182
-153
-1940
2093
