-101
107
-256
-278
-138
38
-47
-496
-163
-285
-465
19
59
-175
-587
-456
-202
157
-679
-478
-514
-420
-67
-61
-313
-362
-230
-63
-515
-225
-43
56
-796
-183
-87
65
-227
-609
89
-126
-109
-257
-25
-192
-311
-272
-485
-370
-470
-200
-230
57
-65
-393
-92
-536
-60
-2
-341
137
479
-215
-287
-287
-229
-218
-34
-234
-67
-354
-179
-362
-268
-147
157
-280
138
57
-185
412
110
-166
-97
-130
-362
-485
-258
-41
-388
-285
-188
-215
-128
-50
36
-366
-334
-169
-85
-520
180
99
-89
-389
-206
202
-288
-154
-50
-304
-105
-287
-548
-402
-25
-20
-206
-601
-287
-547
-408
-472
53
22
-134
-442
-39
-214
-451
-141
-396
-429
-348
-110
-170
93
-389
-164
-600
84
-756
-106
-86
-284
46
-308
-22
-186
-103
-17
-353
75
-350
-230
-439
-25
-137
-104
35
-524
229
27
166
-419
-516
-169
-16
79
22
-124
-749
162
-412
-482
-73
-314
-263
-97
-61
-158
-36
-30
-171
38
-737
-506
-504
-279
-180
141
90
-970
-329
-414
-155
-221
-93
-172
-445
-277
-174
-630
66
177
-300
-406
-560
72
-168
37
-131
-184
-190
-49
-101
-196
38
-324
-304
-484
216
-317
-98
-275
-149
-187
54
-294
-288
-12
5
31
-315
-565
-72
-39
-103
-271
-343
-42
-248
-668
-94
-34
-386
-534
-63
-558
-317
45
-52
-252
570
15
-112
-112
-169
-317
-78
-377
-13
-145
119
-200
57
-275
-98
-30
-40
-19
-150
-44
-76
-16
44
-245
-354
-93
60
-500
-573
48
-360
8
117
-383
-190
-290
-376
-172
-8
-525
-312
58
16
84
-590
-622
-96
-573
-4
-281
-71
-566
-186
-193
-98
137
-235
-270
-285
-84
-142
-105
-93
-73
-704
90
-88
-101
-27
-336
-559
-205
-184
-97
-576
139
124
-41
-352
-438
-284
-628
-65
129
39
-47
-413
138
-532
-165
42
-164
-664
-344
-176
-190
-477
-227
-9
-34
-501
-396
-191
216
-346
61
682
-62
-204
-169
41
-469
-578
-572
71
20
-30
-188
193
-306
-494
98
-545
-301
-349
-150
100
-190
-11
-66
68
-10
-144
-167
-550
-490
130
-177
-380
-261
91
-283
-336
-349
-485
-120
140
-104
-201
10
-654
-471
-249
6
33
69
187
-174
-319
-66
-253
-4
168
-760
-573
-356
-30
-515
-79
-32
-557
-111
-561
-109
-508
-52
-163
-564
-583
-39
-16
-6
-287
-293
-211
-422
-554
-119
-125
-245
-575
-279
-299
-500
248
-99
69
-769
19
-60
32
-265
-520
26
-503
-179
-268
-8
-83
43
-134
79
-365
-555
-65
141
-424
-7
183
-122
-700
-666
49
-34
-220
-231
91
-352
-585
58
-517
-211
-577
-114
-255
-531
-415
-566
-187
60
-210
-75
-52
-116
-105
-627
69
-503
-26
-475
-52
-330
590
62
118
-121
-247
-84
-192
-56
-297
-73
-63
-39
10
117
-116
-34
-162
-549
5
-153
140
-81
-44
-172
-449
-200
-369
153
-18
-193
-331
-145
-506
-36
-203
-176
-147
-578
14
-708
-252
-878
65
-477
-152
-413
-19
-573
-529
-79
458
125
-139
-421
-674
-250
140
-228
-76
12
-507
-183
-296
-345
-20
65
-31
-8
-141
-178
-636
-164
-430
-76
-175
-22
-244
169
-102
-33
-336
-797
-238
-3
-86
202
-98
-259
-380
-200
-184
-374
18
40
-7
158
-215
-407
-584
123
73
-47
-68
-154
-517
68
86
17
-209
-107
-534
531
-313
-185
-253
-358
-565
-49
-381
10
-746
-182
-387
-50
36
-156
42
11
-373
-70
-279
-449
74
-106
-158
-217
-188
-295
-359
-298
-594
-48
-328
-654
-501
8
-53
-175
-264
-332
-479
-492
-137
-34
-110
90
-445
-165
-314
-357
-234
-144
-373
-279
-32
-600
208
378
-16
75
-204
-85
-26
-3
-501
24
-364
-235
-234
-868
-58
21
-136
-44
-30
-267
-173
-104
50
-574
-196
-509
-258
103
-138
-195
-217
-94
353
-269
-10
-43
-86
81
-109
282
-47
-395
-68
-233
-282
-223
191
-46
-49
-3
-163
110
-42
188
-272
-266
13
-8
-752
-116
-411
-264
157
-45
31
-160
-276
314
142
-366
-201
-305
-23
117
-283
-104
-143
1
-245
32
-415
-277
-182
-218
299
-298
142
-235
63
-241
-462
-199
-189
155
195
-331
308
-124
-467
-647
-448
-51
-296
-100
-17
-455
-382
21
-156
-119
-75
-267
-239
-450
-39
-15
84
-233
-41
-59
-192
-514
-36
1
77
-51
-206
-285
102
-121
-258
-214
-197
-245
-31
-370
-481
-105
-194
-462
-159
-259
-290
-624
-707
-82
-322
181
-29
-512
-63
-307
-205
-183
-114
180
88
-373
129
-229
132
-74
-141
-244
-100
-94
-132
-34
-440
-42
-479
3
-155
-295
-364
-432
-277
-126
-433
-791
-93
-340
-367
-245
-243
-41
-160
-187
-495
-48
26
-354
-332
-217
-107
-243
-265
27
-345
275
-263
-21
79
-518
-444
-265
-254
-359
-184
60
-409
-86
-36
-404
41
59
57
-733
32
-445
-460
-166
-277
-246
-198
-625
-456
283
52
-634
-231
-91
-5
-500
-210
-298
13
-234
-65
-134
-488
172
-207
44
12
-162
116
-46
-83
-583
-505
-258
-132
-527
-179
-20
-283
92
-520
-117
47
-331
-3
-463
-523
-204
-213
-41
159
138
-178
23
97
-122
115
-1022
192
-6
-860
-265
83
-46
-61
-224
-58
-273
-20
-370
60
-180
-501
84
-275
35
-339
-384
-304
54
42
-139
-362
-171
-737
-72
-304
-160
-68
-483
-270
93
-136
-282
-414
84
289
54
-30
-74
-27
98
27
-407
-74
568
2
-13
-339
-125
-442
-113
-371
-509
-123
-74
-421
-313
-20
-212
-523
-396
-328
-341
-110
-299
-172
-222
-179
-10
-170
860
-223
63
-86
-593
-226
-235
-328
75
138
-381
-330
-109
-191
-61
-196
276
-237
147
-133
-307
-692
20
-136
-169
-308
-683
-191
-447
-60
146
-553
14
-610
-253
-267
-624
-4
-10
93
-78
189
-49
124
-5
25
-270
-193
75
-131
-612
-321
-419
-48
-217
33
-561
-187
23
-516
43
-40
-143
-91
-217
-71
-728
-57
-515
-360
-130
128
-166
41
-202
-40
-15
-116
-196
-505
-178
-560
-55
-433
-11
39
-84
-159
-82
-625
68
-145
-16
-553
-292
-292
181
63
-85
-34
-410
-187
-54
-328
-173
-286
-117
69
144
-184
-276
-296
24
-174
-192
59
-323
-435
-135
49
-219
-245
152
208
-30
-523
-93
47
-294
365
60
94
-388
-18
68
-228
-253
74
-146
-314
38
-49
-189
-94
-435
92
-289
-640
-231
-548
-156
-605
38
-91
-448
-4
-261
-189
-359
-339
21
-77
-531
-378
8
-79
-134
-252
-142
-833
-179
-491
-214
-159
-240
-40
-61
-348
14
-46
-524
-59
42
20
-658
-127
32
-60
17
-13
-613
-100
-123
-108
-212
-446
-300
526
-447
-70
-493
109
-82
66
101
-306
-180
-619
44
133
151
-360
-345
134
-307
-447
-134
-350
-180
-183
-100
-106
-83
-84
-389
-541
-495
-174
-64
199
-188
-101
-259
-565
-97
167
22
28
-551
-227
-224
-151
53
-71
-310
-420
-148
-555
-82
-322
74
-264
-171
-515
-505
-264
-91
-201
-285
-474
-334
-353
-9
-415
-136
40
-521
-232
-497
-283
-326
-7
-146
-151
-98
135
3
-296
-131
-424
-582
-354
-54
-498
-150
-226
-40
-346
-14
-98
-302
28
-500
-501
-233
139
-160
83
-342
-549
-86
-300
142
-99
-540
120
153
-346
-44
-93
-309
32
-69
-89
-472
-287
48
-310
-148
283
-205
-339
-579
-31
17
38
-129
46
-244
-168
-164
-100
-494
-242
-344
-604
-6
-3
-150
-379
4
-197
-150
-169
95
-134
-127
-249
-169
-451
-134
-437
-524
46
-687
-74
92
-156
-133
178
-80
-562
-506
-350
39
-270
-487
-47
-828
-372
-139
43
-337
-380
-192
-348
-474
-59
-158
-89
-51
33
-380
-673
358
-4
-34
-133
-139
-151
-606
121
-53
-102
-241
-332
-610
-145
-284
-539
-386
-107
-771
-394
-176
-295
-129
-151
-144
-113
-100
194
-258
-108
109
-261
14
-177
-510
179
-284
-162
-187
-507
-17
-221
-185
-16
-80
-306
-85
-90
-447
93
-31
-169
-448
67
-357
-485
-45
12
92
-35
-573
-26
148
-493
179
-590
-579
-453
-122
-626
-197
-491
-615
41
-111
-142
-187
-27
-80
30
-284
-220
55
-403
-89
-537
-519
-386
-298
44
-564
-1233
154
-544
-60
279
-83
-108
-234
-397
-187
-33
-22
-10
-10
132
80
-535
-267
-150
-40
-502
82
-590
19
3
53
-583
-18
-176
38
-7
-152
59
-504
-138
-303
-300
-365
17
80
-155
-162
6
-224
-233
12
-272
-205
79
-138
-231
15
-92
-337
42
-248
-112
-607
150
-145
-223
10
-158
-269
-97
21
-180
-139
-514
-241
-429
-331
5
84
-476
-123
-112
-382
-413
105
-8
-144
-31
-439
-77
-133
-20
-436
-395
22
-71
-26
-185
-178
-17
36
102
2
-373
-882
98
-77
107
-290
356
-331
12
148
342
-322
-569
94
79
-116
2
-90
-374
-512
120
-368
48
-53
-1043
-94
115
-424
-286
-684
-134
-147
-457
-167
67
-218
-210
-45
7
-331
18
-140
99
231
-104
-156
46
-232
-308
-230
-150
-230
-96
134
-269
-250
-286
-341
-315
-74
56
-310
-174
-8
-308
-107
-152
15
20
-159
-388
-137
-15
-265
7
-40
-289
-339
84
-12
-125
135
-148
-42
-510
170
-168
-91
-196
-230
896
-482
-179
-184
89
-73
88
161
67
-481
30
-408
-461
-154
-106
-265
-590
100
-232
-393
28
-281
-457
-545
246
3
-279
-394
32
-228
90
-89
-653
-31
-249
-179
-46
-249
-111
-347
-222
-16
-174
-336
-27
97
11
-4
-367
-587
-480
-192
-497
-470
-244
-641
-16
-322
-103
-677
-332
-59
-110
-11
-217
-51
-681
-479
-43
-222
-89
-166
-81
47
-384
-313
-274
-54
-166
-207
-242
-165
-598
-410
-38
-641
283
-552
-44
-393
-323
-60
-224
-517
-250
-278
-596
50
-159
-463
-177
-316
-102
-236
-98
-31
-25
-399
125
-6
56
100
-246
-70
-383
-228
-101
762
-208
93
-304
-299
21
-37
80
-24
-488
-774
-242
-54
-48
-171
-641
-64
81
-31
-54
21
-16
124
22
-162
-116
-183
-80
-374
-76
-514
-280
198
-204
194
56
82
62
-260
-20
-83
-111
-256
-266
-171
-499
130
-320
-153
-147
-441
-120
-291
-126
-408
-26
-211
-510
-106
-268
-22
85
-139
-354
-250
-315
-204
-15
-535
-474
-259
-195
-197
-501
11
-239
-352
32
67
-204
-58
-4
-11
-372
-250
-288
-139
-247
-618
-414
-115
-207
-240
-370
-167
-611
-356
-305
-13
-103
28
-635
-327
-454
-11
-530
-413
-180
-182
-397
-173
-298
-140
-65
61
-529
-490
-46
-127
-112
-147
-379
29
-275
-93
79
-555
-102
-297
-523
-309
-305
-176
-376
192
83
-176
-311
-170
46
-9
-101
38
-552
-428
-894
-152
-76
-46
-185
-741
-316
-527
-225
-570
-147
-629
-277
-10
-205
243
-342
-11
-197
-81
-34
-235
294
-277
71
-35
-272
-46
2
-3
144
-549
-244
153
-224
-402
170
-281
-17
15
-30
79
-535
-120
-205
-384
-450
0
-292
-639
-561
-126
-55
-139
-113
-84
99
-390
-231
-68
-615
-212
10
-412
-237
45
-97
-180
-213
-412
-597
-77
-310
-240
15
-278
-411
-460
253
-85
-500
26
-59
-49
-245
-155
-37
-660
-160
-479
-169
194
-295
-343
-235
69
-135
-11
-168
74
105
-140
43
81
-337
-502
47
-376
-757
-113
-172
-494
-215
-459
53
-33
-312
97
-101
-222
-36
-355
-502
-318
-105
-150
-293
-72
-186
91
-57
-96
-48
-382
177
-526
-26
-16
-178
-26
-30
-512
-164
-230
-300
97
-300
-372
-410
-566
-23
-335
-275
-145
114
-137
7
-244
26
-567
-304
-210
-154
-214
-160
-87
-177
-745
-267
-653
-47
-657
-533
-529
44
-300
38
96
-208
-311
-51
-613
-447
174
57
28
-156
75
-360
-368
136
-110
-68
-222
-72
-1168
-198
-168
-498
-279
62
-178
90
-41
92
-279
-79
128
149
-422
-69
-372
53
-94
-129
114
100
-146
-93
-147
-451
-279
-483
-216
-52
-261
-625
-115
-81
-85
-528
-557
94
-176
-118
-285
-131
-199
-159
35
51
-15
-4
-297
-52
-94
-439
-76
-167
175
-402
-307
-30
-396
-151
76
-74
-387
127
-471
-183
-183
124
-431
-761
-118
-465
199
65
-441
-109
-134
-567
-540
-683
-62
14
-24
-17
-203
-7
52
-228
43
-27
-103
-246
-222
-444
-74
-190
97
73
61
-373
-51
-419
-241
-95
-739
61
-375
0
-118
-3
-137
-607
-348
-146
109
84
89
-255
-29
37
80
141
-320
-137
-359
129
-519
-407
-262
2
-83
57
-157
77
-58
-255
-329
-77
-145
-261
-556
-431
-225
115
-505
-704
-725
-3
-115
-65
-286
-71
-194
-552
-802
110
-308
-54
-381
-120
158
-526
77
-348
-487
-77
-511
-229
-43
33
-178
66
-82
-622
-138
-86
-517
-35
104
47
14
-335
-309
-29
-205
-223
39
31
-144
-692
25
-429
-127
-872
-12
-70
-167
-126
-473
-128
-150
-462
66
-274
-300
60
106
141
-309
-183
-360
84
125
353
-468
-94
-344
-109
-377
-324
-135
-575
-176
-263
-32
-322
-536
-193
-232
-473
-68
-242
-76
24
-30
-128
-2
-283
235
-50
-309
-49
-531
75
164
-270
28
-263
149
218
-236
96
-242
-249
-184
-461
-217
-198
-375
-81
-371
-198
-234
-155
-210
-179
285
-694
51
-139
162
-409
-163
-228
304
-339
61
68
-266
-73
-1003
-715
-186
-452
-628
257
-158
-85
-188
-7
11
-226
83
-102
-559
191
240
-42
-50
-551
-164
763
-323
8
-92
-392
28
-427
-111
280
-298
-29
-357
-260
-255
-227
-277
1
-45
-247
-251
10
-323
-153
5
-416
-30
-490
-817
250
-319
-82
-183
-545
-242
-211
-138
-298
92
-288
-2
-77
27
117
-542
-135
-320
-230
-53
-314
41
-296
-111
38
-112
-334
-266
-382
-268
-512
-118
-597
-172
-83
119
-280
-120
15
114
-493
-61
43
66
-284
-135
173
-275
-444
-20
-514
-312
37
-73
-452
-123
-98
-233
-433
0
-124
78
-291
-281
-10
-274
-158
-263
-148
75
80
-52
-153
193
-501
-588
-231
30
-305
-263
-19
-12
630
-59
-506
-205
-51
-474
-18
-241
-239
-527
-58
-452
-299
134
69
-505
-477
-143
-415
-148
42
-230
32
-6
-84
-269
91
-723
-568
400
-374
-523
-204
-127
-539
-82
5
-244
-146
-417
-190
-174
-346
-167
-243
-662
-123
-436
87
-157
165
-549
-201
3
-615
-207
-587
-237
-52
-137
158
-99
171
53
-74
-318
95
-304
204
-7
-67
-209
-251
-28
-115
-648
125
-732
73
143
113
121
-259
-485
-49
-203
-18
-619
-203
-185
-412
-147
-501
-61
-670
-135
33
-7
164
31
261
-392
-146
-151
56
-359
59
155
4
-217
-76
73
-9
-54
-34
-6
-547
-765
-302
-325
153
14
53
-74
208
29
629
72
-14
22
-96
-626
92
-220
116
-250
-254
-155
-373
-37
-157
-249
81
-381
-136
-297
-241
-561
-232
-110
-79
-214
-333
-138
-738
1142
-392
-303
-328
87
298
-98
96
44
179
-185
-300
30
-308
-70
-4
-192
-391
-322
98
-50
-488
-109
-376
-490
184
-244
-71
-297
-154
-259
-256
-293
-273
-305
-382
-329
-474
-205
-873
-345
-484
-480
-42
-150
-396
-106
-280
-14
-537
49
-297
-164
-288
63
-260
-6
294
-273
-11
107
-123
-610
-72
-87
-100
-50
-694
70
-184
-555
-116
-220
-614
-190
-47
52
-209
-89
-716
-336
-445
37
-235
-10
-86
11
-536
-516
-291
124
-50
-330
-475
-15
-298
-631
-220
-265
-409
-215
-68
-88
-9
-106
10
88
-373
-202
32
-128
8
-198
-195
85
-562
-122
194
58
85
-429
-594
-99
-12
74
-126
-624
-191
-355
-13
-42
-231
103
-272
-323
-88
88
-106
-28
-752
-258
-202
-157
-441
-55
-304
0
-292
-169
-402
-448
-127
74
-243
-287
-129
-65
82
-354
0
-110
-676
94
-299
87
-18
-211
-335
-189
-611
50
139
8
-317
-3
-23
-523
-415
-575
-373
-484
-207
-155
-235
129
76
-230
108
58
-537
-270
-240
-43
84
-437
-160
-275
-162
-215
-77
80
-228
-305
-552
-327
405
154
36
105
-87
87
-264
43
-312
96
-93
61
-549
-223
-160
-5
-58
-209
-135
72
-136
-546
31
1208
-524
-510
-211
-256
-428
-233
-974
-23
-15
-30
-75
0
-10
-193
-229
14
244
-599
-170
-107
-161
-496
85
-16
-103
-356
-423
-21
89
144
17
54
-81
-201
-604
-74
-119
-123
-105
-101
-160
-106
-630
-156
-390
-67
-351
-111
-170
-175
-473
-103
116
43
146
-517
-20
-80
223
-46
-80
-436
-508
-22
-128
-141
15
-88
-35
-205
-175
-214
-196
-204
-165
-240
-374
-39
-101
-78
-152
-353
-82
-76
-132
-151
-578
-195
-518
102
-142
-174
40
-626
-541
-708
-464
-44
-153
-279
19
-98
76
-70
-223
-472
41
-284
-310
-285
-80
-74
-166
-303
-317
46
-13
-105
-408
-71
57
-2
-250
-141
-552
-476
60
-380
-61
-82
-485
-437
-542
-20
-226
-17
-37
48
