-55
24
101
102
50
-69
-86
35
-180
-7
-109
64
-108
-525
27
174
-58
-2
-205
-18
125
-82
6
-85
-135
99
55
23
120
31
-85
51
-70
-87
37
-24
-21
-161
18
-8
6
-45
-132
74
-81
-135
-11
-18
124
128
93
-112
90
93
-49
118
4
-72
21
-19
42
-182
60
47
37
180
-79
60
156
211
-233
-10
111
-111
-146
-14
-88
-39
66
410
-226
41
-72
92
11
-146
289
29
-85
-95
-154
-217
29
-234
-10
-142
-143
114
-4
-44
179
-442
815
16
51
149
-81
50
20
-27
-85
233
257
39
-96
-139
-59
6
73
100
414
22
-63
-202
285
-171
-75
25
8
11
62
59
-13
26
-32
-40
-28
-17
85
40
67
19
99
-101
-11
-32
-47
36
16
-10
-68
10
-44
43
46
56
2
-60
29
-86
-90
37
36
12
-2
32
16
37
7
32
31
-110
-14
-2
43
45
-69
12
8
1
30
-65
-17
2
-28
3
97
55
97
-72
-116
-12
-14
-20
29
-19
2
119
28
26
-22
-68
-6
-38
-39
46
-5
-2
45
-18
42
6
12
63
53
-23
-41
-7
363
71
21
99
-50
-29
118
44
103
-6
18
30
35
-7
1
-11
11
2
-57
-29
14
25
17
-42
-18
35
58
-14
42
11
57
37
12
-1
7
22
44
-17
-30
97
26
-201
57
81
-75
22
-53
59
72
52
38
-27
74
-83
-58
9
-71
-99
0
-19
12
21
79
-73
97
35
-10
-65
29
-46
-10
-51
-17
-46
-14
24
23
86
-51
55
-236
48
-26
230
71
-53
-32
2
-51
43
1
-4
13
-11
-76
-23
-80
-22
-21
-130
58
-33
63
72
19
-101
-38
184
100
-44
13
106
13
-197
-77
-184
61
-136
-102
79
-117
-34
63
118
75
8
-68
-144
104
-38
35
42
143
-46
-57
-12
170
7
-133
-107
142
-140
27
146
24
57
227
45
-179
106
-112
86
-36
9
53
127
132
27
-187
-13
-89
-113
-35
-59
-66
-5
-19
19
-1
-11
11
34
7
-43
9
-18
13
-8
-12
-6
-34
-4
3
29
-33
-9
-10
-2
-1
-4
-24
-12
555
13
9
-6
-18
-13
-6
-6
-16
-16
-3
18
7
1
2
-12
-26
8
10
-19
-40
-2
33
11
15
-10
16
16
40
21
19
16
-30
41
-9
37
0
-31
-31
42
78
14
-36
33
-6
5
-3
18
-41
23
26
22
45
-30
-36
23
62
-3
41
-66
16
36
-167
89
10
-4
-21
9
2
-8
-23
-31
25
-49
-50
-1
33
-13
62
21
-39
29
31
90
-11
3
35
-112
-42
-112
40
5
-11
9
17
31
15
-92
-39
-49
1
-2
24
28
-22
-15
-107
-88
22
27
-29
-31
-94
-34
34
37
-24
-49
55
-28
93
298
52
65
-17
3
12
107
36
-25
71
-97
65
-23
85
43
129
-171
-61
-65
-4
84
82
-44
-74
125
-47
53
-74
-25
-60
-22
72
25
-170
160
2
65
-14
74
20
12
6
-116
-7
-59
24
-52
-58
-48
1035
-190
-289
196
-40
167
-90
73
-150
304
-129
121
-57
-53
222
-10
200
33
-16
240
333
186
-69
-286
367
-200
260
-57
65
-58
-249
249
-323
-87
-247
-189
193
-9
-126
-139
-20
-112
-202
164
143
317
-231
91
-155
-191
396
-206
-41
-13
158
161
-157
-118
11
-205
41
-106
-12
84
104
-88
-4
16
19
-94
-111
85
-89
18
-30
-2
99
48
-99
-96
63
48
6
29
56
-36
46
94
-8
112
40
-23
-89
8
-54
4
-119
46
49
-92
62
26
46
-23
111
19
11
100
-20
-465
73
-10
-32
9
-71
55
-31
136
-9
-4
-3
16
-8
115
-16
-66
-63
-3
-7
26
-35
22
-29
-20
14
-23
103
-20
-1
-159
-26
28
17
69
126
-34
-30
-64
24
28
-38
-77
-3
-24
76
-75
-84
125
45
-77
6
-27
-16
-48
78
2
63
-74
56
53
-4
30
6
-34
74
-52
4
14
-116
81
19
-75
44
-37
-55
33
-12
-1
