460
-99
-507
318
105
177
297
-205
174
242
-475
-148
123
64
69
-290
531
-135
-422
150
48
252
-398
-322
20
33
369
-155
-36
164
-175
176
-30
-53
-345
247
-343
-57
271
-345
656
-500
-119
-137
219
242
4
-39
44
86
-60
-295
-154
88
289
239
204
261
113
32
43
-112
41
-178
-138
27
-181
-409
182
-636
-673
9
124
-8
-168
305
161
-845
-304
318
19
-173
-223
-60
-115
-367
-270
145
-177
244
111
-269
249
406
106
-28
-486
-352
132
-272
-91
202
-404
199
-18
261
-228
-222
-423
175
8
90
213
429
-107
-30
-29
40
96
86
-51
-69
84
370
331
210
252
67
29
-236
172
73
9
-59
-74
248
262
662
224
249
-331
-87
-57
325
-308
-393
-107
-421
-14
-153
-157
-179
239
-60
35
374
-172
359
250
469
-185
218
-116
-38
206
579
12
-128
287
181
288
-388
-227
-92
521
-11
427
300
-233
-119
309
240
218
54
288
306
65
-24
-304
587
123
-25
212
49
375
-28
-310
-145
470
-147
-156
-157
-418
-190
430
857
-100
143
73
-551
364
-146
-128
198
163
-131
-109
-316
-4
-319
131
184
-122
-221
272
87
196
-311
-256
-158
-565
131
-119
-15
-290
-76
-355
223
253
-118
-268
761
-259
296
57
50
121
-31
-518
298
-39
-220
373
-479
317
-4
-89
68
-767
-87
145
125
357
179
-50
-28
140
-49
-98
89
-322
243
154
-465
-139
91
-158
-23
-148
454
266
389
84
-94
646
-74
123
-300
-246
385
-76
170
-583
-73
49
-326
-343
314
-235
163
281
-49
167
117
-162
171
-111
-227
94
221
-77
-83
246
446
4
-721
-405
-195
37
-144
143
-32
-321
22
-231
356
-499
300
-42
-93
205
180
-202
-3
202
132
-36
159
157
40
-121
-66
-34
-515
144
-379
282
-33
-31
118
-194
-242
-125
111
-16
349
153
-116
65
-340
151
267
189
-296
-235
25
-384
511
-118
17
257
-127
-47
-388
526
66
242
62
-4
-131
528
-211
-194
-165
-601
-37
432
377
17
-343
146
-96
279
349
502
67
565
175
318
-38
-1
194
422
334
-121
-302
-480
62
-158
-243
256
112
-496
-296
205
365
-266
-4
-103
-67
-267
-323
247
-166
393
238
475
355
-182
-150
281
185
286
-58
270
-185
-246
230
-42
-197
42
353
724
92
-338
223
-147
61
32
475
55
-266
-321
-435
375
41
332
-69
73
205
-131
-487
-361
80
134
130
1
544
-217
173
206
-154
110
192
156
-424
-325
298
-291
82
9
352
-33
116
120
204
48
229
248
298
-583
-608
289
115
449
123
-436
-96
-235
-190
-44
91
56
233
64
636
333
108
-320
-122
-106
250
-383
196
85
433
-248
-108
62
342
66
-34
-493
295
-506
185
55
152
-239
-866
231
-580
74
314
-393
11
-276
309
169
-91
-77
7
-548
501
-446
85
-243
-132
192
-207
417
638
-193
238
-335
1
-223
778
175
-291
-11
-312
-771
-16
35
106
-221
324
371
46
292
267
-149
339
481
15
-25
-494
332
378
-128
-123
-152
53
57
-268
218
-202
372
-339
-372
-35
17
-38
-408
-78
345
224
19
297
166
-17
153
190
-195
364
237
115
46
-44
89
276
26
-33
184
-294
-412
61
-173
-212
143
-89
-63
-166
442
-335
-58
-243
-80
406
-84
-269
-107
-35
-312
-72
230
-116
-412
-21
-452
102
159
-195
-340
216
95
43
158
-278
-231
-252
2
-33
-189
209
208
153
342
-31
-161
-338
-343
164
133
221
41
-310
56
425
123
-89
-123
19
279
-130
216
-452
-140
274
444
-312
122
-435
-40
482
-1
371
-395
185
40
194
140
-248
408
-477
497
-136
-238
-390
-19
574
221
-318
124
-75
173
-309
-850
340
144
431
-2
-522
208
-28
-313
256
-189
487
-433
164
708
-1
500
325
-153
167
-11
-324
32
-746
-763
-267
-7
126
-3
-295
235
-104
195
342
-318
156
2
378
298
-602
189
-267
86
-195
-20
-82
80
-334
-66
270
-178
-422
362
255
261
225
-241
261
88
199
