30 44 -37 8 -24 -54 -45 25 64 -37 19 -11 40 19 -3 -12 25 -89 -13 -33 -66 -26 29 6 1 -51 -7 -9 105 -18 -16 -41 9 -24 -36 -117 25 -16 -45 15 -77 9 -14 -5 -12 -11 20 -12 82 -52 17 -10 8 9 2 16 -45 -33 42 36 0 1 52 32 5 -3 -27 -2 73 40 -79 -1 74 -65 3 -26 8 -9 18 -75 -54 -4 6 -23 17 0 -1 1 -32 -23 -100 -7 56 14 28 -56 111 -30 67 2 -21 26 -9 -29 -40 58 -27 31 -48 110 2 44 -12 -69 11 13 -11 105 20 -5 -25 14 19 -57 83 -10 97 -63 -25 37 59 -42 -13 -27 30 48 2 -24 0 35 -2 14 -10 20 55 36 80 18 23 43 -15 -78 20 -30 -32 -20 -25 34 11 -45 -32 -27 -15 -44 2 -33 46 -79 -41 70 41 -41 28 62 -31 -50 35 -25 -9 -85 34 -6 65 -3 7 30 -59 -1 23 -23 -5 -59 52 -7 55 -68 8 -30 -48 29 -56 -32 6 -30 -15 -81 -49 -34 93 44 -41 -3 30 81 31 -31 41 9 22 16 -52 -58 -36 11 7 32 -44 -16 -76 -31 -35 39 -30 56 -2 55 28 28 -38 -32 -34 -41 22 -58 83 -2 15 -33 26 -19 -17 -2 -39 -65 42 41 25 -15 10 -30 48 18 0 19 -8 16 -112 14 6 17 -21 -7 -86 -27 84 17 -19 -11 31 22 20 -40 -23 -47 -16 -9 23 16 56 11 64 14 51 6 24 55 13 -22 7 -27 -19 -2 -26 -24 -12 -53 -48 76 5 -72 -50 -50 -4 11 -28 -28 -1 -9 4 25 57 -53 33 -30 -1 -8 -72 -82 2 -65 6 0 33 10 -49 12 45 73 -45 8 48 85 -20 33 14 12 -13 -55 -127 -59 -21 -6 66 47 17 -58 -39 2 15 22 -31 8 10 -61 -12 88 -50 -4 -58 8 2 -39 59 -9 27 50 45 -38 -44 55 30 -63 -34 37 19 56 -87 34 13 -48 -3 -20 1 22 -3 -13 -14 40 -42 3 25 78 65 37 -17 -4 55 -88 53 -13 -32 -50 -46 -79 23 67 6 -1 65 2 3 29 92 26 1 -38 -42 -71 -6 -32 22 -6 -38 -74 25 31 -29 -51 -16 12 -33 49 34 40 1 63 19 -83 -62 -14 -38 52 -28 7 15 -12 10 -6 14 -67 -5 65 -70 -33 44 -10 3 62 1 -35 44 -9 45 -27 -26 21 -44 55 -30 23 59 -67 -79 12 -44 47 53 -29 -31 -53 32 41 7 17 -1 19 0 46 22 -28 31 40 -4 24 -34 -5 16 -24 33 -28 54 17 29 -19 3 -100 37 60 73 4 -45 26 67 -54 38 -32 49 -51 21 42 -3 -91 40 -29 -22 38 0 -33 -36 -7 -12 -23 6 123 48 28 -120 6 -10 -19 -5 7 76 1 20 11 7 13 -7 40 57 11 -48 16 -46 42 5 -31 -68 -4 -3 49 15 5 9 16 81 -41 -49 60 -8 -6 34 14 18 9 55 -39 -1 -31 26 44 77 42 22 -47 -13 15 -33 -49 -17 83 -47 -38 22 36 61 32 -23 -45 63 -24 -71 -41 -63 -45 -27 -55 -24 -68 -49 39 -1 25 10 -67 -47 35 -43 -28 -24 18 72 35 -65 12 -54 29 33 -21 15 -14 -44 -16 72 24 44 37 119 -27 5 33 -4 -13 22 10 -21 -28 35 89 36 63 -21 29 29 24 37 20 -43 1 -66 -13 93 28 -28 6 -31 1 8 -49 18 -59 -21 -73 -1 24 24 -8 -37 -41 -31 16 -14 -15 -24 -17 19 -3 -48 -11 86 45 -19 -32 25 19 47 10 -17 -30 -20 8 8 11 37 4 -27 15 30 32 -11 -39 5 18 -6 -9 12 -17 -72 51 -36 22 -15 1 18 -11 48 -66 11 67 32 -59 46 -68 -22 13 -65 7 -75 6 -43 -6 -6 -4 -10 37 3 -34 18 -26 -17 -3 -5 -21 -12 60 -42 -45
-47 36 25 -27 -31 -5 30 -3 23 -57 -24 0 -23 19 -20 13 6 9 55 16 -13 -35 18 33 40 26 12 3 27 12 -23 20 12 38 2 11 4 -5 -7 -52 28 7 59 30 -4 42 -30 -33 53 -12 -6 71 -55 -49 7 9 37 -54 -25 4 -35 -5 -41 -12 -22 -34 -52 -3 -5 -19 -64 3 63 27 -18 -15 38 1 -22 31 -33 -39 -15 -39 -27 40 -1 -12 7 18 -2 19 63 -35 5 29 1 -6 5 32 41 43 0 -72 24 -11 11 21 -53 28 -1 -56 -33 -29 36 24 -23 26 16 20 17 40 -55 5 -17 32 -48 22 -31 71 -57 17 -22 18 -17 2 2 72 8 11 37 -35 -50 -3 -10 -54 -29 -15 37 -40 -48 6 -12 32 -6 49 -2 -24 1 4 -9 22 -19 -2 -2 22 27 2 -9 -36 -5 21 -22 2 6 -31 -32 -9 -3 95 -25 -16 52 -38 -34 4 30 -6 -8 53 -38 -10 0 -4 24 22 -78 27 -31 73 10 32 -19 -3 -13 32 -11 -27 -19 13 21 0 13 90 -27 5 45 2 -10 -3 -29 28 14 -43 1 3 -25 -33 0 13 4 -23 -22 -14 36 11 -19 14 -2 -27 -7 15 19 -11 -30 2 -20 -16 27 99 2 22 -6 23 1 18 -49 -1 -14 64 -27 4 19 -19 -66 44 39 41 55 -28 22 12 -1 19 -23 25 -15 35 -4 -39 -28 51 5 44 17 -4 1 1 18 28 25 0 -76 -6 -75 20 19 19 68 -2 30 6 26 -19 33 33 24 3 -17 31 -16 -24 -38 6 24 -36 -21 10 -13 -66 -31 27 -1 62 11 -5 -31 -35 -1 -24 3 19 -17 -15 4 -10 -37 42 -5 -13 -22 41 -12 -43 -16 9 69 -3 -4 -31 -37 70 -42 -8 14 30 -10 -38 -25 -28 -12 -15 -32 -20 21 17 17 2 57 30 34 21 5 13 13 17 11 -28 -15 24 -3 10 -20 -16 -12 80 64 -11 52 11 14 -2 -20 21 3 47 44 -7 6 8 -38 14 -73 46 -12 -1 43 -36 16 -1 3 18 9 -4 13 -48 -9 6 -58 -12 31 -31 -42 5 5 -31 15 -48 -33 15 4 39 16 -22 33 14 5 -6 17 -28 -6 -31 -8 -14 60 -6 17 24 -35 66 7 -24 48 0 -24 -40 -12 -13 -2 -18 -11 -70 -21 -47 -1 53 43 3 52 16 10 -12 4 11 -66 -1 54 -28 -30 2 -39 52 21 36 64 13 -41 -14 9 -32 -10 8 21 -37 1 5 0 -20 -22 4 -74 1 -1 1 9 -18 12 37 7 -17 72 -27 -50 -18 -12 -28 -17 32 -51 12 -5 56 37 -17 13 16 18 -13 -37 21 17 -67 39 -47 6 46 -10 30 32 46 -15 36 -12 -56 24 -28 -34 -10 -68 -12 -31 -1 33 -7 42 43 -27 13 16 10 50 15 52 -35 10 28 -20 5 22 -21 6 -27 -36 -17 -47 11 18 13 -25 -36 -1 34 37 41 30 -19 -23 -46 0 -2 -47 69 -21 -14 6 1 -18 -43 -59 18 -27 30 36 1 -5 -46 27 -10 -46 -25 -29 -23 -2 39 -68 -15 38 23 2 0 -15 -127 55 -23 -1 -14 -7 -11 -61 3 4 4 11 5 -28 -3 36 -30 -58 35 -10 10 14 12 -29 -18 -30 -15 17 46 8 38 -13 -14 10 24 0 -3 25 9 -5 41 6 6 -12 -15 -11 -21 -2 -37 32 -26 22 7 19 21 -15 24 6 -1 1 -11 -12 -21 28 -36 28 14 -24 41 -14 -82 10 1 -86 -3 -21 -69 71 8 -11 21 6 -10 -41 1 53 8 19 13 -7 -23 5 -18 -31 -23 -54 31 -15 3 -21 44 7 53 8 2 31 -26 -12 8 11 -5 43 -12 -34 13 -3 -34 18 -31 -37 34 26 3 33 22 -72 65 32 -12 -46 23 5 7 -20 0 -24 3 48 -43 -19 -46 63 30 -3 -15 -84 -18
-72 -1 4 -22 -27 -46 17 17 14 -47 -23 -45 14 14 -28 5 36 32 -82 19 -23 -41 15 59 -7 -5 -12 -45 43 25 -79 -44 -66 -6 -15 -10 7 37 17 14 17 -26 17 50 10 26 6 9 28 -23 -33 11 -30 40 -3 -38 -5 -24 -19 -18 10 1 36 37 35 0 30 -27 -14 8 5 30 2 -4 -25 26 17 3 8 20 -42 -40 9 46 1 37 18 56 -13 -58 3 0 6 4 44 -30 -2 4 -28 -60 -8 14 21 -24 16 -26 31 6 16 23 -1 -55 26 11 -24 -49 -39 -2 18 -3 34 -25 28 -14 39 19 -18 62 21 62 -12 -18 -38 -27 27 -86 15 13 19 11 -29 48 27 -45 13 9 48 -27 -17 -18 0 10 0 10 59 20 4 3 12 -32 -18 3 -40 58 -38 48 -26 -69 -30 28 -14 16 65 -16 7 58 -27 -39 62 3 -30 -38 -33 -101 17 1 30 25 29 -57 -6 57 -4 28 -13 10 -47 12 15 2 7 23 18 -63 32 3 -58 50 -2 -1 -16 31 -31 -26 -33 -37 -39 -8 15 -10 -38 36 3 22 -27 -14 39 -76 8 51 -22 22 -13 20 35 -28 32 -9 -21 33 -18 -35 42 -2 52 13 -10 44 -16 1 3 -44 33 -6 30 -5 -5 5 -16 -13 -38 -19 33 -69 -27 -46 -47 -71 7 -20 -24 6 10 41 -46 -25 13 -43 7 -40 20 48 12 -65 56 21 -48 40 16 22 -7 43 -27 -8 -15 31 -34 5 -99 35 -65 14 2 -28 -22 -9 -13 8 -24 16 -32 -41 -29 32 7 -44 13 16 -33 35 -8 -71 -5 -22 -2 5 -39 -11 21 -21 0 37 -47 -3 0 10 -33 6 -1 15 44 8 9 -5 34 -29 12 1 -46 -54 1 41 19 -18 -16 11 -9 -29 -35 27 -8 16 -7 23 49 -40 27 19 21 14 90 -17 16 -48 24 30 -20 -9 14 -97 -21 32 9 15 -3 23 -44 -17 -50 -23 17 -12 9 -37 -52 -14 -29 -2 6 -23 24 -49 41 5 23 -7 7 -7 -4 -9 7 22 5 -39 -10 14 -24 -25 5 56 17 11 3 -49 -4 -1 35 -14 -26 -41 -73 30 5 4 -14 -27 -94 -21 -56 -63 10 -50 -23 -20 -30 38 55 8 39 13 -7 -4 -58 -11 2 -7 -22 -1 54 35 -53 -5 -2 -67 68 -26 9 38 -17 15 60 0 19 61 14 -44 47 58 18 77 43 3 17 23 -36 8 -11 -59 31 -37 35 22 16 -15 0 -11 2 -22 1 5 78 59 54 78 3 -6 -14 4 6 -14 -10 -22 -9 -2 41 9 -17 45 34 5 17 7 -20 -26 126 -25 -12 -55 7 -25 0 21 -16 -37 49 -10 -60 5 55 47 45 -35 29 -22 -12 8 -6 16 0 12 67 -2 -12 -9 -38 26 -50 23 -39 -46 21 19 4 80 -23 1 37 65 23 -96 -1 5 28 34 0 -21 -52 39 0 -31 6 54 -42 -22 -47 1 -23 -9 0 -35 13 -2 8 -3 -16 -48 -20 39 -60 33 12 7 38 24 32 20 -37 -24 -33 -3 15 8 -32 -2 8 -16 60 -48 26 10 -41 -5 -2 72 -23 2 -11 34 28 -91 -10 10 -9 -16 16 36 18 64 -59 -13 -18 -53 -7 20 -45 1 -3 19 30 52 -7 -10 15 10 -26 7 17 -4 36 -18 -1 -4 -16 -36 -18 21 14 13 -18 -16 -10 -5 -16 -33 94 12 0 23 -11 -44 -22 -63 5 -36 -48 10 13 16 22 -26 -20 -15 -57 -2 34 -36 0 51 50 9 0 8 -16 0 -69 -13 -58 34 -3 -15 -34 -25 -8 -50 -73 33 -26 -67 -45 77 -6 -41 -26 -30 -58 -55 66 74 4 -16 -33 3 2 -12 9 -10 -11 2 -35 65 -33 -24 63 5 -12 -4 -7 92 -56 7 -16 9 -1 1 29 17 73 -19 -4 0 -17 12 -63 27 1 -51 -40 -8
4 15 16 20 2 -4 -13 54 -18 -74 -23 -28 -16 -8 30 4 -18 0 -10 -24 -39 -20 31 -35 -96 -46 26 -12 -4 70 60 -20 2 66 5 -41 -1 9 -11 -45 8 19 1 27 -72 -26 -49 -30 -20 36 -49 -11 -5 -9 -15 -48 8 -14 -4 48 11 -9 28 -21 36 31 -69 -27 26 -32 23 0 -21 -17 -34 26 11 -3 -28 26 46 25 -16 -6 33 -5 67 10 -59 21 -13 0 0 -25 16 -11 -13 -16 29 -16 49 -16 -10 5 31 30 -8 27 -11 -11 1 -7 -24 -14 -35 -20 46 57 36 -2 -53 11 37 -23 -8 -3 -15 55 -28 44 6 31 42 -62 -1 -45 -49 2 34 19 41 17 -15 61 -9 1 -23 34 -11 -39 30 -1 -8 -17 -6 2 -6 -30 18 -25 43 27 17 -46 38 48 -17 -64 -81 9 -63 -5 20 -4 -40 11 40 -36 7 41 9 -65 9 -28 -18 -20 -51 -20 26 -9 -19 -35 3 -15 -36 8 -33 -16 -13 1 57 -1 36 -30 -8 41 4 -59 -56 -45 14 26 -19 1 -29 -47 22 -1 41 -6 14 10 -61 17 -49 -71 -12 -6 -26 14 9 -45 39 9 -50 2 -32 42 -27 32 -13 -73 -65 37 36 10 -11 0 57 47 -22 5 49 3 -6 -35 7 23 -39 17 -78 -27 -17 33 -57 35 -15 -9 -40 -1 -29 78 22 -12 8 -4 -44 -24 16 6 14 -4 35 7 18 -79 17 0 33 -25 5 -105 -9 -4 74 -12 38 57 14 -22 -15 -50 -15 35 -29 -34 -10 18 -13 22 76 38 -24 -23 8 -12 -91 -35 59 -49 17 -20 33 17 -27 57 40 -31 -87 -22 -5 -34 33 9 -56 -6 18 59 0 42 2 -5 64 50 -17 -19 7 7 16 -18 7 -42 38 -25 64 -47 24 -72 24 18 -31 -13 62 -20 0 -72 -16 -6 -34 41 -26 -16 -75 -21 10 -24 -17 -22 -9 -30 -44 66 10 20 -54 -77 109 -17 21 -25 21 17 41 22 -4 7 6 12 1 15 36 -12 -7 -6 -44 37 6 10 9 39 -6 48 7 -20 50 -30 -10 12 43 -1 10 -1 27 76 19 -5 6 36 -50 -45 -14 33 -60 -40 3 16 14 71 -32 64 22 -41 19 20 1 19 -22 -24 21 7 39 7 -18 7 -31 -28 -30 -39 33 -73 21 32 39 5 29 -31 -38 29 -45 -25 -109 -67 28 -29 -34 -16 -22 -23 -20 26 56 -23 -18 4 32 -39 -97 20 -26 -30 17 3 -16 17 -1 -32 -5 -25 6 22 -11 -56 -4 42 -74 7 -65 -25 -8 44 9 74 -47 -24 -43 4 -9 -26 -31 -14 40 -100 -38 -22 46 31 38 -14 62 24 -8 -17 -2 30 -16 -26 -17 -38 -11 8 27 -25 7 -31 -3 36 4 37 -27 62 -72 -2 15 24 -2 -44 -14 -21 48 -36 16 -9 -46 47 3 52 -9 -70 9 -26 10 16 -9 -68 6 -22 14 -17 -38 -16 55 -6 29 0 -43 -7 -32 -4 0 -48 26 -16 24 -1 -98 23 -13 -13 51 -11 97 -21 -20 26 1 29 7 -12 61 -41 10 38 -33 -42 16 -60 -2 32 -14 -37 10 -43 -21 -7 -18 -9 -8 -7 -43 8 -7 -42 16 25 7 30 48 -127 -11 -1 36 -6 -63 0 16 21 63 -16 6 -6 -26 42 27 -8 36 -22 6 -50 29 -39 -35 -21 28 9 0 12 42 -21 11 -43 1 64 -17 -40 -40 -15 -17 -68 -21 9 4 9 22 6 21 -22 25 38 -3 0 21 18 19 25 -6 -76 19 20 -14 -49 -2 -8 -51 47 -40 -30 63 13 66 35 35 -32 -31 -70 -30 -8 26 40 -19 3 -24 35 9 -42 43 -53 40 50 -56 7 15 -7 -53 2 49 -14 -30 26 95 86 -27 17 -27 23 14 19 -21 -36 -35 -19 -32 37 -15 -21 -15 -2 -1 -8 11 28 49 16 30 -10 -49 55 0 53
57 -5 5 27 -1 14 13 -50 24 12 -7 19 -6 2 23 19 -20 -63 12 -16 -28 65 -11 37 -5 -10 15 13 -22 1 20 6 -55 21 42 -27 22 -12 1 14 -61 -17 -35 6 -41 -38 -19 -1 -34 -10 79 47 -52 1 27 -8 12 54 -35 -16 -29 11 54 -4 -45 -50 -6 2 -35 13 -69 6 -11 -27 -49 -13 31 -6 -66 20 -20 -31 15 21 -38 28 44 -4 52 -30 8 -23 62 16 3 37 18 30 24 21 15 -62 -18 68 -23 -5 38 -22 9 -5 4 -32 -28 -34 -20 17 -25 -18 -4 24 -24 67 10 33 10 11 -66 48 -3 -22 43 -14 -27 14 9 -54 -28 33 12 -9 -54 -35 -9 -39 34 9 62 -6 7 -32 31 32 44 0 31 -22 -15 -62 24 8 59 -11 2 -17 41 -12 1 27 -28 41 -14 41 18 49 22 -9 -26 -42 -33 46 -18 5 -20 49 -12 -17 13 23 25 -12 43 29 -6 -27 17 -8 -78 -49 22 46 -46 4 17 -53 4 -11 -44 -15 18 -34 -29 20 -29 13 -37 -40 10 -2 -4 7 -42 68 45 26 -24 12 24 -39 73 11 -5 -1 -36 -10 -33 -69 65 -8 -32 -16 -28 -19 24 68 -9 22 -22 -21 -33 -7 -9 61 16 -23 -23 8 4 -26 -57 -3 55 -21 18 -19 4 -17 7 40 -27 19 -18 -50 -19 -13 -24 -16 3 -36 37 -22 26 -11 46 0 -27 25 -39 -18 -39 8 -44 -23 -26 45 -62 -22 51 -53 -16 -45 72 12 -10 -13 53 13 18 42 -7 32 -8 17 -14 53 10 12 -84 -65 -14 25 0 45 -25 -46 18 -31 -16 -16 70 -43 0 25 10 -17 77 10 17 85 18 37 -51 8 37 50 28 -54 17 43 -39 16 -29 71 4 -48 -37 -14 27 -42 -5 43 -23 -17 18 22 23 -28 3 76 -17 -13 20 0 -29 41 53 -24 -73 69 -16 17 -67 14 -46 4 21 -12 3 38 -48 -7 33 8 8 25 -11 57 -2 6 9 18 -4 43 -16 -24 15 -34 35 -10 4 18 1 -38 15 -47 12 -10 -21 -16 -42 -49 8 35 16 -26 3 27 21 -14 -2 -15 2 -7 16 -22 1 -27 -8 -17 -19 23 -18 40 -6 14 25 41 -19 16 41 -25 -11 -48 -39 -9 -10 -27 -9 28 20 4 114 28 70 26 -33 8 7 20 -30 -35 -18 27 8 -3 -9 -31 -23 -42 17 22 -39 -19 -36 38 18 -38 12 -7 -15 24 -2 -17 39 36 0 81 7 26 -22 68 58 -12 35 -26 -14 -13 -28 -10 -46 44 46 74 -14 -3 -16 -38 20 -31 5 -14 -23 35 -28 26 -40 23 10 -21 -15 13 19 33 -5 21 -14 -9 11 -3 -11 9 -6 -10 0 -81 87 -38 47 10 0 32 -63 6 22 -79 76 1 80 17 -21 30 28 2 6 28 45 34 -17 43 -34 52 -18 24 -16 18 41 -28 -14 39 -42 -33 -18 16 11 -9 -2 -3 17 33 0 -73 37 126 1 27 24 36 31 -24 -20 -38 -21 38 36 0 4 80 -68 -7 -16 -41 -13 20 -32 48 58 11 -66 -3 -29 -18 -75 15 20 -16 -13 1 31 -41 62 23 0 -45 1 -52 37 24 -48 0 -16 50 21 2 29 30 54 -44 -21 10 9 35 -62 -4 -12 -6 2 -28 2 23 -2 21 -8 30 -15 6 27 -1 19 40 -19 51 -71 -11 -32 20 -13 24 15 -60 2 35 -39 -42 53 -25 -16 -11 -29 9 9 8 -3 102 5 -64 10 36 41 104 64 61 -20 -75 9 27 -6 46 -13 14 -39 45 -5 -4 0 -42 1 8 -21 13 32 30 30 16 12 -5 -80 -34 -43 55 17 -19 56 32 28 18 -23 18 -6 -14 -12 -50 -54 31 -59 27 -15 18 18 -14 40 19 24 5 10 -33 11 15 28 21 -14 25 -38 5 0 -1 1 30 -11 2
14 4 -65 -16 2 -1 -33 -14 -64 9 -2 -40 45 -6 19 -15 14 15 54 28 0 -25 25 -22 -26 -4 -15 40 11 29 8 -41 4 40 -5 65 -5 -19 -22 -20 49 -7 20 36 -3 -24 -8 -30 14 12 35 11 -18 -49 -28 -4 -35 2 49 -39 -19 -13 54 -23 1 36 -1 -4 -38 -8 73 -12 14 25 23 31 49 3 1 -2 -1 -4 -10 14 -54 -10 96 -13 7 33 -73 -30 9 6 -40 -35 -30 -3 11 85 5 8 29 0 -27 -2 -42 8 -20 -24 5 52 5 -61 15 -9 -36 20 0 5 17 -37 -14 -30 14 -14 46 -34 -8 49 -20 14 -10 56 -9 19 -6 49 53 19 -5 72 -22 30 23 -67 103 -49 15 10 17 37 9 -48 21 104 -14 -24 44 9 59 59 25 23 3 34 -11 18 17 -46 13 6 -12 19 30 19 3 -7 -63 67 28 4 4 -38 5 61 -54 -10 59 -27 56 40 -63 12 36 3 28 -13 -32 6 -19 24 -8 -4 10 9 0 -19 -46 -5 3 52 -64 -16 -18 -29 -36 9 71 3 -15 -1 -4 -14 -5 11 -28 20 -40 -50 -12 -48 -10 46 -31 44 -78 -88 23 -36 -3 9 36 20 4 8 47 -14 9 8 13 42 34 -5 69 -27 44 24 -25 53 -32 7 -36 -14 -52 11 44 -38 40 -39 17 -9 -34 13 13 72 -1 14 -24 -15 11 7 5 35 0 -26 -1 -10 12 -72 -5 78 -35 -24 -41 2 83 -12 -78 5 -40 -41 56 -32 -5 -39 20 68 -1 20 -31 -2 30 0 8 -68 81 -12 35 0 -74 27 -37 -9 28 -15 1 0 -51 -40 2 7 86 38 17 -51 26 15 -31 17 15 -37 -27 -43 -48 56 -86 18 -13 -28 25 50 -4 -6 15 -21 61 21 28 18 19 -10 44 -11 76 20 -48 9 -57 -32 -63 -13 -26 -1 33 72 47 5 -46 -15 13 25 -24 -8 18 21 96 34 -60 45 -4 6 -11 12 10 -1 -24 -4 13 -38 76 -12 4 15 -31 -10 12 11 39 -22 5 16 14 -54 15 -55 -1 28 33 20 -17 18 -54 -61 41 -31 -1 8 8 -6 10 -64 11 7 -1 -20 26 -20 -31 23 7 -52 -24 -27 23 -8 -33 57 9 -9 10 -12 56 7 0 -30 17 10 8 17 -17 37 -13 45 -18 -23 56 -24 -73 2 126 -7 4 36 -49 -25 57 6 -19 71 -16 -41 33 -29 -20 87 54 2 -17 24 -31 -64 17 38 1 8 0 30 -25 -17 4 -69 15 61 -7 33 -21 -45 -25 23 -25 87 15 39 17 28 8 -21 14 3 -32 87 28 -10 9 12 -6 48 7 11 2 5 -54 -8 -41 -6 19 21 1 17 -8 -29 40 21 33 -18 14 20 8 5 31 0 32 28 46 54 -3 52 6 42 -29 -8 -7 22 17 -18 9 35 -24 -17 7 -29 -21 -26 48 -9 -52 -30 -24 -13 -24 -7 -40 2 -74 -40 -40 -30 1 25 -12 -26 -76 -49 37 20 20 -3 46 -16 12 18 43 47 -10 29 -36 3 11 28 -33 23 -15 73 -22 -34 -10 77 45 24 -54 -87 16 24 -10 54 10 -13 46 -92 -29 -10 -14 11 10 -25 25 -10 -17 9 26 17 -9 -20 -58 60 34 17 -36 42 7 -23 25 5 -32 -13 2 49 -19 82 -5 19 1 -23 15 11 -37 -1 20 27 -29 3 7 18 -35 46 36 22 46 -2 -7 -27 1 35 1 -16 -7 5 -42 -43 -12 -1 13 -2 29 87 -14 21 25 50 35 -74 -59 12 -11 30 -22 -17 -58 21 -10 -19 -49 95 -11 -47 26 5 -7 -43 -3 -38 44 13 -12 25 8 -5 -38 -19 -17 -5 46 27 53 11 22 42 65 -27 13 -50 60 95 -48 -42 74 77 -16 -4 25 18 15 -34 14 40 15 -11 37 -21 36 23 -94 75 1 32 44 -47
-8 -24 28 -11 -17 29 52 -3 2 22 10 36 -32 -59 51 9 49 20 -31 3 -10 1 -11 -13 31 20 4 -11 8 -51 -42 72 -96 72 28 -13 28 62 -21 14 -20 16 -56 20 -15 54 -10 -38 -3 52 -19 -57 -55 83 -52 -18 -27 8 -43 6 30 16 19 45 -35 -27 -2 -19 -54 34 66 -71 -93 43 11 10 -8 -4 6 9 63 15 5 -2 54 15 -99 -16 -76 58 -9 -20 -16 31 8 63 -58 -31 -10 -31 -15 -21 6 -7 96 10 -39 18 12 17 1 -2 -41 42 -26 -10 -9 -12 49 14 -62 -52 3 -17 -54 -13 23 -72 -44 19 22 6 24 -59 -20 -12 40 -17 -70 2 29 5 -63 -4 -8 29 27 21 -3 -21 49 -37 -29 70 3 51 51 2 -12 3 23 45 -33 38 11 50 11 -35 23 26 -12 47 21 -121 25 -6 -39 18 -28 -44 62 -7 60 -29 1 27 40 13 17 -21 -84 -54 30 7 -19 20 -23 -14 -66 2 -30 27 -28 -15 38 24 -21 55 -2 -22 69 47 -11 -40 31 78 39 9 -31 10 -86 -26 -2 -59 20 58 69 -12 6 16 -42 -7 -43 8 57 16 1 86 -1 42 -38 36 -6 -40 -36 -24 -63 -63 -44 39 -36 3 3 21 36 44 -13 40 -2 -43 -53 28 -81 15 50 14 50 -39 -28 -67 23 -16 30 27 38 0 -110 32 34 90 -17 -41 53 -8 6 -67 -50 27 -66 -41 -23 30 63 57 55 53 -30 37 -49 -36 -19 44 -60 -23 12 -80 -5 -64 -36 66 69 25 22 19 -9 15 56 -41 -10 -2 -38 -13 2 60 6 64 3 -24 0 -3 -1 -9 24 20 58 81 41 19 29 14 -18 13 33 58 -28 -24 89 56 -38 14 4 6 -45 3 67 -37 16 -6 72 17 39 1 -38 -6 27 24 72 5 -5 5 62 47 10 -34 51 -29 20 10 9 -35 31 -2 8 3 -52 -39 77 -44 19 62 2 22 13 -19 118 -30 -72 -39 -9 47 -6 -42 -35 46 -33 -52 -75 46 -13 36 86 28 -25 -32 20 78 34 25 35 -26 -34 71 -64 5 -25 40 6 -20 -5 -35 -17 -56 -13 33 -41 2 -30 11 9 -39 25 -35 44 3 26 -36 -52 75 2 39 -10 -17 -53 -11 27 -45 31 -27 26 -33 10 -17 -110 -8 -36 -44 57 -55 4 -14 24 41 73 -24 -20 38 -40 68 24 43 88 -20 -27 -28 25 -47 -18 59 -56 25 -3 40 -17 28 0 50 -2 68 9 -50 -14 -42 34 -9 74 -40 48 -34 42 59 0 35 -8 42 -36 -2 -12 -19 -18 5 29 -58 -27 29 82 -42 -12 3 42 15 -6 1 31 64 -6 -57 72 12 -15 19 -9 -24 23 -15 -50 -22 51 -28 39 -115 -39 1 -65 56 -16 14 21 -27 47 -10 21 -12 41 13 0 -27 -1 -89 -27 63 -20 -127 -8 -27 57 -38 10 54 0 -18 82 -4 -6 -28 -27 31 25 -6 0 14 -66 55 -33 -50 13 23 42 45 -80 -21 43 -12 12 32 72 56 -41 -10 -11 -2 66 -50 -68 24 -12 -76 -83 -43 19 -30 -21 -35 1 -54 -17 -23 5 -15 -79 -11 14 -34 5 17 -41 -24 -14 42 29 46 31 46 -45 3 -28 -12 68 29 29 9 8 -15 -47 -39 15 42 -20 17 19 66 -9 46 57 9 -21 -38 -64 -15 -47 74 73 91 9 118 -1 100 -34 9 -13 -13 16 0 -10 5 -37 8 41 23 -19 -39 46 -5 2 47 -39 62 -36 17 33 -31 26 10 -59 28 36 31 47 41 -38 50 -50 -29 -44 17 76 34 8 -13 38 35 25 -18 -28 13 -75 -42 2 -39 -41 -10 41 -9 45 -25 20 9 47 14 -3 35 6 -38 18 6 25 -24 2 -54 63 -13 38 -6 3 4 45 -59 33 21 -36 -57 -21 -45 -50 -41 21 -12 33 -55
-76 11 -10 1 2 118 -10 -42 -45 -49 -31 4 -30 -31 78 7 38 17 64 53 -41 -10 6 6 27 50 69 -64 0 -3 36 -6 5 36 -2 42 -79 55 -22 -9 21 44 25 41 -44 20 27 -25 13 7 58 -10 43 -44 -58 6 -11 -24 0 27 -16 7 -36 2 2 47 15 -5 -15 33 119 -22 35 58 -80 43 82 -7 111 5 -21 -63 2 43 14 1 -38 16 -15 10 -7 7 -38 33 -34 40 -39 9 65 -10 50 26 -44 -15 -32 -48 -35 47 -39 -24 6 -68 13 -46 -33 -26 95 64 -41 13 41 -37 -24 6 52 31 23 4 16 81 26 34 60 -4 62 48 -60 19 45 -17 21 17 45 5 19 0 -51 -14 -21 28 22 100 48 80 7 65 -65 -14 25 31 -10 14 8 24 67 32 -102 17 -54 21 29 26 9 -9 6 -123 -34 -33 4 -42 64 -99 -44 6 22 -13 14 27 10 -41 67 61 -37 8 -8 7 4 -24 39 17 -20 16 -13 -20 -9 -5 42 109 55 50 29 -1 13 -86 45 -39 -113 3 4 7 -42 16 -36 26 16 32 55 12 -17 87 104 6 74 -32 12 18 23 -9 -32 65 -5 -112 63 -17 -11 70 38 13 -40 50 -96 51 -40 -52 5 37 19 -38 92 0 95 19 21 30 -62 -49 26 -30 49 -59 -54 61 -91 -45 114 -6 -26 -15 29 -97 0 -30 42 41 -10 -15 8 -6 -2 37 53 -28 0 -60 29 30 -7 34 4 -45 34 -22 -40 35 -44 98 -20 -25 30 -58 7 30 15 38 25 -52 -31 21 25 -55 44 45 0 6 27 -7 21 38 33 35 1 20 27 -21 -113 -34 -50 -36 76 -12 -9 -4 -1 16 -18 -18 11 35 43 17 -28 -26 5 -10 -7 73 -55 39 -104 -36 -35 20 -4 10 -28 -25 -24 31 9 -3 -59 35 -105 26 -46 0 -20 -22 -2 67 27 48 -2 -5 12 -34 30 58 115 -24 18 18 -36 56 -6 26 18 14 8 -104 13 13 -54 -83 1 74 -26 -64 -2 33 52 -67 44 -39 31 50 -35 -29 -3 -72 -58 35 1 25 -27 -106 18 -31 -16 -61 33 3 18 -31 -43 61 1 46 94 -81 -90 -13 27 11 76 37 -46 -24 6 68 38 -35 -20 -6 53 17 25 -19 79 -45 28 -35 21 -57 -23 -78 -17 -6 1 23 -23 51 -16 0 32 18 18 61 -21 16 72 126 8 2 -19 49 -45 -39 13 15 -21 59 -39 4 1 -89 1 11 -2 -28 8 66 -48 -30 19 -11 -27 42 -5 -24 -80 -57 38 47 24 54 -17 40 -31 44 39 38 4 3 26 -111 17 -50 -14 -13 -40 -10 50 17 -1 -65 -97 17 47 31 30 51 -92 -18 -39 34 27 36 35 -16 -17 6 -116 -42 16 12 26 2 -66 8 16 -11 -7 -10 5 7 -43 28 -58 -61 -18 45 15 -14 -19 5 55 26 33 -30 -95 12 -53 -56 -9 11 7 51 -1 -16 -53 55 -12 19 32 -69 -35 6 41 61 -55 36 -22 40 -24 58 -9 4 10 1 83 -4 21 19 12 -38 1 -112 -3 -1 -23 106 31 -10 2 45 9 14 -98 56 29 -43 -29 27 31 -58 -56 -45 -33 2 -4 23 119 -43 2 46 7 -29 13 -36 66 3 31 -54 -52 -23 -13 -6 37 89 42 53 17 38 -3 -16 31 39 27 14 61 10 24 -21 -24 -3 -35 0 -4 47 31 -62 19 77 -1 -23 -70 25 42 23 8 36 -29 -15 -2 -19 20 30 12 92 35 11 83 85 106 -48 -48 -16 -32 -11 31 -49 -102 60 -45 -9 10 -4 8 56 40 -24 -14 -37 1 -22 4 15 -51 49 -27 8 -71 12 -42 -14 -6 42 -15 14 -34 -12 21 17 -20 -34 71 -70 -60 25 -74 1 11 60 13 30 -15 6 8 -18 35 22 -19 48 -34 6 -24 -51
3 9 4 -10 54 24 -20 -54 52 -1 -35 -22 -27 -21 6 31 -35 37 -21 39 -35 -80 -86 30 1 8 21 27 -5 55 -44 -21 -27 26 -65 -24 -15 -33 -15 97 -52 -9 -26 43 -22 11 -18 36 41 -17 38 -18 -41 80 -13 5 -9 -24 24 -48 -19 -8 12 -22 -38 -35 13 -22 34 13 -64 30 -66 24 80 11 -48 0 -45 -21 -41 38 -1 46 53 73 -21 33 -34 -3 -4 32 24 -43 -36 -35 -75 -14 65 8 60 25 -62 7 75 12 45 0 23 53 -3 -3 -10 41 17 -19 -52 43 28 14 -87 61 60 -7 24 14 40 20 -2 -18 17 -11 -37 -17 -22 -20 3 10 -37 -48 -25 -41 16 -28 -3 -61 4 38 -51 -89 9 22 6 45 -27 54 25 6 27 16 31 2 34 -30 -99 -55 8 -32 41 1 17 54 -55 24 -48 -38 -32 -70 27 24 -1 72 76 -56 -56 3 -18 12 26 29 0 -52 56 -33 36 -19 19 -20 41 -49 86 19 18 43 46 29 1 41 -24 4 -73 41 16 -70 7 -5 -30 -1 -13 -2 65 -29 -16 -45 -8 9 52 28 -3 22 -47 -51 -76 6 -12 78 -23 -9 55 -13 -2 -33 26 -22 -34 -19 -37 5 46 -36 -7 -28 -110 -94 -10 -79 -26 -19 72 21 -16 -29 26 -20 -127 -20 3 5 -67 -27 -63 6 43 46 -5 49 24 34 4 13 -26 -35 69 -13 -29 -45 -50 -5 47 71 -45 -12 8 78 -13 -79 -11 1 -22 -11 -43 3 -22 -21 -21 -43 -58 21 -83 -7 9 -8 -8 -44 -15 -17 45 29 85 -2 -8 -28 25 -26 13 -43 -18 42 -21 -33 0 -16 -10 60 51 -3 -19 -22 -51 39 -17 21 -32 -36 -31 -32 44 50 -13 -72 -13 -9 14 -7 -95 2 -14 -26 87 -63 15 9 5 -76 -18 -54 4 34 -6 30 49 -4 35 29 15 40 56 10 -15 15 -11 -69 16 38 -59 50 -30 28 1 0 15 8 -65 -26 0 27 14 22 37 86 46 -13 -57 -12 -68 36 -23 -26 -13 12 -46 52 -41 25 -88 -42 -49 18 56 69 -52 3 58 8 8 -18 21 -77 21 4 -33 -56 36 -36 -51 1 22 -27 -25 -23 -87 27 44 4 22 -23 -48 -53 14 63 9 -7 -1 8 -56 -2 -15 6 1 -17 -14 -24 -14 -87 -52 -25 57 13 3 -32 9 22 -45 77 32 54 23 -45 8 -26 -14 12 -9 26 18 -18 19 29 -10 22 -32 13 -4 -6 0 -11 -3 -18 5 11 -55 -39 39 -7 -33 16 -31 12 -20 -5 0 -67 35 -32 -33 -38 -18 4 33 23 -55 -45 -30 -13 -78 -19 68 -5 -4 -26 6 -24 -50 48 -9 -53 -21 -4 7 65 -7 -7 30 3 7 -62 3 28 41 -35 25 -4 13 -66 23 8 15 -4 31 -54 -53 -6 4 6 17 -31 49 -11 23 -14 16 -30 -63 -3 8 75 -12 -51 -56 56 -62 -31 -34 -24 -40 112 -10 11 2 30 31 20 -57 4 26 27 59 -3 -41 -73 1 -20 -28 -45 -56 9 -13 -73 23 -17 21 40 22 0 -47 -13 13 -66 5 47 33 -41 -74 -34 12 -5 -46 -32 10 13 -48 -23 -65 -18 20 -36 34 -29 62 50 -31 22 35 65 22 -40 26 6 90 36 19 -1 -40 -45 94 -27 -6 -21 -45 -58 30 62 19 -9 23 10 -36 14 -86 -29 -26 8 1 57 -29 59 2 -5 11 -38 16 26 8 -2 27 13 -42 81 -2 5 10 37 42 57 8 40 55 37 -68 29 -56 17 70 34 55 95 37 -14 42 6 -22 20 -12 -23 42 -19 5 8 -18 3 12 26 20 44 0 3 -44 56 26 23 40 -11 -34 -44 -16 10 -34 1 -6 54 54 -14 -21 -6 -14 -37 -58 -20 15 -1 -46 -20 -19 20 -76 6 4 34 57 94 1 31 -28 31 -24 7 73 18
13 -11 15 14 9 -23 -31 39 -8 22 -8 42 22 29 -16 -18 -33 -6 30 18 43 -20 -52 -17 44 4 21 40 31 8 36 -52 -34 61 38 42 -32 -1 -20 -48 20 22 52 -30 11 45 -16 -3 45 -35 15 22 -13 12 8 29 -20 -4 -5 77 36 7 -75 -60 21 53 -30 50 29 51 -53 -19 60 30 -11 2 -18 2 -1 -4 -35 -22 -19 1 -30 0 -47 14 22 36 -1 1 39 -13 3 12 -36 -20 -8 -11 34 -17 -51 -68 29 -5 -24 -35 -4 12 1 20 -15 40 -3 32 -17 -14 41 35 19 -38 -24 10 53 14 12 -10 -42 58 -31 -18 -32 -44 0 26 23 -12 42 -63 89 -14 -26 29 -1 -78 42 65 -7 -54 35 -44 0 9 19 -6 -42 20 6 26 -30 -21 45 -32 -50 -51 -35 -53 1 14 37 7 -1 10 16 56 -10 -24 -26 -29 -43 39 3 61 33 9 51 -30 -4 18 49 -52 0 40 -66 29 6 -8 12 -47 43 -21 32 36 20 -44 -19 -46 22 -24 -23 34 38 2 -10 33 70 5 15 2 -33 37 -14 24 25 6 -36 -34 -62 -11 -10 22 -71 -64 -31 13 -37 -17 -18 -24 -2 -12 -42 101 6 -18 13 -7 -22 -40 29 -55 -17 -33 49 34 67 29 -39 7 -19 17 -6 14 7 31 -12 38 26 -13 15 19 13 12 -5 39 28 42 3 36 36 -16 -35 17 23 8 19 5 6 88 49 -13 -14 34 47 -13 43 24 -12 3 13 -64 -4 -19 14 -22 45 78 -48 -11 -34 -22 63 22 -18 40 -44 -19 -14 -25 -16 28 28 18 -79 59 23 2 -6 24 -3 11 -38 12 12 10 -34 -34 4 -19 -17 1 -37 48 -7 24 49 -4 29 -11 -60 -19 -34 32 37 11 -41 -64 -13 4 -41 -10 2 -5 86 19 6 17 12 32 -15 -17 -43 -13 6 -8 -28 -19 -12 25 15 78 18 35 16 40 21 23 26 19 11 17 -40 41 53 -35 63 2 22 -10 -2 -82 -6 -9 -33 -21 -29 -42 9 -27 -54 0 25 22 -29 20 20 -38 93 -10 20 37 -17 41 -26 16 53 12 -12 30 26 -42 8 2 10 7 -3 -9 -51 25 28 -69 -10 -24 12 3 -2 36 -2 -4 -5 -8 -37 4 -34 55 -9 9 6 32 -49 126 -12 81 39 12 41 -5 3 -3 -34 1 27 -20 15 -13 -43 28 -17 -7 -8 -15 -51 16 -2 67 -37 20 36 16 -15 27 -15 11 -2 33 0 -7 5 -22 19 8 -26 -3 -21 -28 43 51 31 22 -29 -10 -54 28 16 96 -36 -6 -12 -26 46 43 -20 56 9 14 -47 -27 2 -21 -39 -9 -37 59 -36 -68 4 27 -1 35 20 31 -31 7 3 5 21 50 -14 39 -30 0 -74 -23 37 -40 57 15 8 23 44 -9 46 33 39 -26 50 10 -28 0 -5 7 -22 26 0 -58 -34 3 51 32 -26 6 19 -36 11 -9 -9 12 0 -21 9 29 -13 -18 -56 -15 14 12 -10 6 -35 -13 74 -12 -36 6 -50 2 22 46 10 -2 30 16 7 -21 -39 -25 12 45 -78 -57 10 17 10 -70 -8 23 -58 -23 27 -63 16 -16 31 64 34 6 52 -13 11 10 -18 -6 16 25 20 6 45 24 3 28 -4 -42 18 20 9 38 22 -68 43 -16 13 -28 -17 4 36 -78 -19 39 -28 -53 -5 -15 35 -8 43 -2 -67 5 10 -5 13 -3 -6 -79 -12 39 -31 -33 4 -29 11 -24 17 -12 62 -25 15 -23 32 -20 23 -32 45 -17 14 -42 9 -33 36 40 -18 31 40 1 21 -49 19 78 -27 -1 14 81 -9 7 9 7 21 -33 39 -2 25 -21 38 6 -81 -17 -16 -18 70 -46 25 -25 -37 18 14 14 9 -14 71 21 7 -17 -11 -43 4 25 9 1 32 27 38 82 -31 13 21 -28
-14 50 -22 29 15 27 -59 27 56 -15 17 41 29 17 -52 -1 34 -5 -11 23 -74 24 -80 -28 -115 80 -45 -126 -127 -36 -12 119 111 23 77 -17 38 29 -12 27 11 20 27 -46 -52 19 -61 -29 28 -58 -14 21 -3 78 51 -38 -20 -27 54 19 57 0 88 41 -25 -23 -88 -56 10 41 19 -23 22 -12 52 14 7 1 -31 51 7 -23 16 -21 -6 58 67 -42 -49 38 60 -22 -34 46 -7 8 -51 35 -1 54 -2 21 -56 -3 -40 -24 5 20 -46 5 -4 -16 -23 -31 51 -4 -76 -5 17 -12 6 -55 24 -28 75 -36 3 -20 4 -93 -21 -29 -13 -17 6 -35 63 26 3 -6 -58 72 -20 44 -13 49 27 51 -34 48 -63 8 -11 55 -5 13 -66 53 -2 47 2 10 65 9 92 -23 -67 6 4 65 24 89 -57 -5 -57 -48 72 -49 -1 -53 -35 -45 38 3 48 -16 83 -27 51 59 37 -7 -38 8 51 -57 30 -45 -14 -46 -9 -39 -1 87 11 25 -10 -51 61 23 -84 -13 -42 7 32 -1 -17 -10 -22 -8 38 68 46 28 75 10 1 30 -32 -9 -46 -2 29 -44 -14 14 46 53 10 -20 7 -17 -29 -53 -48 43 67 -17 -35 -32 -26 0 89 -44 -28 -29 -41 20 -37 -35 -43 26 -31 8 -72 5 -51 -60 75 6 23 39 -22 -23 -63 -80 -26 -18 -2 -8 20 6 15 1 43 -15 0 -16 19 49 28 31 -16 82 23 -48 53 61 -53 12 -96 31 14 -39 71 -3 -39 31 28 -89 19 -19 -36 16 -26 54 16 -9 42 48 -35 26 -42 -34 -74 -10 27 33 -9 -18 -1 -26 -15 -27 -16 -126 -14 21 -9 11 57 -16 -48 -2 -77 -39 -68 -2 -4 47 22 6 50 -63 -43 82 23 -16 -44 9 24 -1 -20 -119 4 -13 -34 -26 59 3 22 -73 15 -45 55 42 -43 16 26 -10 -15 -20 72 -50 -57 11 -31 4 -63 20 -33 90 35 -35 -7 -41 36 -21 23 -19 80 40 -50 41 -26 17 5 11 23 22 -17 -17 -12 -40 -3 13 7 10 1 -8 24 23 -30 -40 -93 23 63 -29 -24 0 -12 38 35 10 -30 -5 92 12 -24 -40 -64 11 -51 108 -84 96 -77 -52 -5 13 -19 -71 13 -4 -36 -9 -8 36 -4 54 -2 -21 -7 76 24 14 -43 -31 6 19 23 18 -11 13 -21 72 -63 91 -24 12 -62 -96 11 40 33 60 -100 31 -11 -31 -12 32 18 11 -2 -42 3 37 34 15 27 56 7 -47 -51 46 -27 14 0 31 -14 84 -3 -43 -22 -41 -4 37 -6 -63 73 -21 20 43 -6 112 19 20 -43 31 -5 42 -8 7 -17 -46 17 -6 -40 36 -22 14 -108 79 -32 25 -64 29 -24 -9 -6 0 38 -45 -80 51 17 44 0 -9 5 33 33 -54 -15 72 19 -7 45 40 -9 58 19 27 -27 -14 -35 49 -3 93 -21 23 -6 -29 -43 -90 -10 22 0 6 -82 -57 -25 17 -28 65 -56 -13 63 3 43 80 27 10 -7 -64 -40 7 -47 -74 -73 -72 10 -60 -41 -17 38 62 -71 -50 -2 -77 61 73 -17 16 13 -1 13 25 38 -46 -26 6 16 -3 -34 82 -32 -20 -3 94 16 -82 -9 0 11 71 6 40 49 59 -12 -5 3 23 -4 67 -53 3 9 -64 42 43 3 -21 54 -45 64 26 -12 16 72 4 -20 40 16 52 -19 -1 -23 4 6 -47 -78 13 7 10 -26 -27 -30 -37 92 11 -47 10 -89 -28 0 18 -36 40 64 57 90 -76 22 78 28 -14 10 -5 0 -109 -30 -60 20 -5 -17 13 -56 -23 14 103 -26 -7 33 -16 -57 51 7 -1 -38 22 95 -16 -13 -2 -11 25 52 70 -6 -3 32 84 -17 -34 76 16 -20 114 -19 -1 -57 -73 -45 -50 -25 -17 24 35 15 11 -46 -70 21 -1
73 -20 28 -33 -15 95 -14 15 -83 0 62 7 -6 -27 -1 -3 6 -24 -17 42 38 -48 -5 43 -3 -25 18 24 -24 -83 -41 -1 -109 18 -74 -19 49 -39 -11 29 24 22 -28 -71 30 -39 37 -23 -42 32 -7 21 30 4 -47 -54 -32 -65 -19 -29 31 -21 -26 21 39 -33 103 -34 -57 -57 59 -13 -127 -64 -56 -38 -26 -5 -40 0 -28 51 -3 -5 95 -2 -76 -41 -37 -67 42 -17 -39 -50 20 -16 -13 -44 -12 91 39 -20 -9 -23 30 -2 79 88 -21 -87 -9 -30 0 8 6 21 -19 35 -39 -13 79 -43 -2 -28 -18 52 -51 -57 11 -4 -10 -6 -25 12 -15 -122 97 -29 -4 50 55 -54 -56 -107 15 28 86 -35 -96 -5 82 23 37 -105 27 -17 -11 10 -86 14 -45 75 46 -68 -117 -64 16 10 -8 9 -43 73 -5 -29 59 23 -24 9 74 66 50 45 -18 -42 34 4 43 -54 28 -14 -42 -8 -21 -2 12 43 103 46 3 3 19 -37 -13 59 -31 53 23 8 -46 -55 33 32 41 25 6 -21 29 -1 10 3 -110 67 23 14 -7 37 -17 56 0 -22 6 14 -32 -48 -71 -17 81 -14 -34 43 -6 82 -42 108 -45 73 47 -22 29 54 -79 26 85 -15 -52 22 20 -60 37 33 7 11 36 22 -41 -52 -61 -17 -29 -2 39 -30 53 -27 31 -9 -37 -33 -25 -81 13 -57 -31 -75 -55 2 -86 30 -3 -25 -31 -33 -19 30 -43 -2 59 3 -67 -22 15 -15 -14 -51 -40 34 -48 -6 64 -3 -21 -55 -8 28 -10 13 -25 -2 -40 3 -60 55 -72 -59 -63 -14 -57 -7 10 -22 -3 -30 -67 -39 -25 -30 -31 -21 19 62 -40 42 2 -13 20 -36 -46 67 2 -25 -37 24 -50 22 87 0 -78 59 -16 56 -90 -21 19 -94 -30 -59 -32 29 -44 -16 46 57 8 37 41 -15 -18 -64 -5 -27 37 2 -69 21 8 -68 8 -8 -26 5 -28 2 -24 45 1 -12 7 -4 -44 -10 -31 32 -16 -3 -21 6 50 10 -8 -9 15 -72 2 -8 -48 14 -7 19 14 22 -33 -13 -26 9 12 -1 43 -41 -31 -27 21 21 14 34 11 8 -25 91 -14 42 -31 -106 27 17 -32 -62 46 -37 66 26 -54 32 -23 -9 -37 25 23 39 -58 53 122 -103 -45 14 27 9 24 27 43 -94 31 47 -16 56 11 -6 -46 -8 -33 6 66 -39 16 -27 4 -65 -22 10 -89 26 47 23 -49 60 -1 14 1 -62 -10 0 -47 -43 0 87 -8 -22 -22 25 -1 25 -65 16 25 15 -85 16 -10 33 -26 -8 -81 -26 -83 -14 -17 -19 -101 48 68 -74 -5 20 -42 -36 -74 6 -82 -23 -48 20 -42 0 -22 82 1 14 57 -46 11 -8 -78 -1 -16 15 67 -51 14 26 -90 -5 -56 9 4 -29 -28 -69 30 40 -65 56 15 -18 -82 21 -30 -27 -43 43 5 4 38 19 14 -8 -26 -39 65 -51 0 7 50 -80 21 -19 39 -107 -80 68 47 6 3 -39 51 -28 25 -20 -13 -10 18 -51 19 -90 11 -16 44 56 -3 -2 -53 3 -84 -83 29 15 5 -47 88 3 -50 22 -40 29 -15 12 17 -18 50 3 -74 -19 -63 -55 12 -3 -33 -117 -65 -12 88 10 32 -73 1 68 -22 11 -7 -15 16 31 -35 15 -9 17 20 44 -59 10 0 -44 11 9 -5 -17 8 -29 4 77 14 -60 -31 -23 -30 -42 3 -18 -4 16 -35 19 69 -27 29 9 3 -66 59 4 -10 -7 -36 60 -35 -23 16 -11 -34 -56 2 11 -38 -48 -29 4 -19 34 84 -26 -18 69 -1 16 96 57 -45 83 -68 39 -61 5 28 17 -23 -10 -73 -9 -19 -55 -59 67 10 -98 61 7 48 14 -66 -66 -35 -30 29 38 17 55 2 -10 -56 -48 33 1 66 -44 39 2 -2 -13 69 50
19 -4 -26 6 16 22 -30 -28 -55 -12 31 -42 -34 57 49 -6 -27 -36 38 44 33 51 20 11 13 -56 -11 -17 -6 -15 38 -1 -14 -23 18 26 18 -67 -18 26 -54 4 50 -19 -14 -80 -36 15 41 47 -19 53 -26 8 -13 -18 -18 -18 -11 34 -68 -7 40 15 -12 -50 28 49 15 22 -32 46 16 61 -40 30 33 -3 29 -7 -40 14 10 -41 -39 -21 -8 -31 29 23 -4 2 16 23 21 8 9 6 -47 37 20 -81 -27 12 53 -25 17 -64 73 -29 -3 -4 -6 -14 -21 -3 -12 25 92 2 -7 14 -14 -33 -18 9 -6 -16 -61 1 12 5 -27 -15 15 -35 -34 16 18 30 25 6 -95 12 74 -19 -48 -36 -48 42 61 -31 -7 -65 9 33 -48 -7 -42 -20 -12 28 -11 30 -13 26 21 20 43 -38 22 -26 26 -5 3 -44 20 -21 37 16 1 24 -12 8 27 62 -21 -39 -57 35 11 8 10 3 -23 8 -8 -42 47 -14 53 22 0 31 9 -49 34 -24 27 -26 53 -14 -36 -30 -12 40 -80 -4 -49 -1 -15 24 -9 -58 32 5 -85 52 3 -6 35 4 33 8 -48 3 -29 -3 -41 39 -9 -39 40 -24 3 -38 -19 17 -5 20 9 -14 -45 27 39 -53 -17 -45 -54 -6 -52 -31 20 88 37 -15 12 29 11 -55 57 2 -21 11 45 37 -55 23 10 57 -66 -10 35 5 -9 25 3 8 28 12 -47 36 -66 45 -46 -26 -61 6 -29 -18 6 38 -35 -14 76 11 -6 -79 -14 21 67 -16 -56 1 27 4 -78 -2 -21 -84 10 -17 26 14 18 -78 46 8 -52 -22 1 -5 -11 -4 53 -32 15 7 73 -24 14 32 -35 18 29 13 21 -33 -11 -31 -38 -83 -26 17 -2 -52 -58 70 40 4 -48 -2 10 -46 -36 7 8 -61 -32 26 2 11 -63 28 -1 87 -33 9 84 -22 -5 -70 -7 52 -9 -14 -21 -96 -34 61 39 1 8 -9 63 52 -17 -36 3 -27 -9 48 -33 -53 31 -6 -24 36 25 -3 16 66 89 92 -4 9 21 -45 -34 21 -43 73 30 55 44 -15 24 -20 -11 -12 -13 9 -21 22 -2 -41 12 5 20 38 -13 -3 24 -19 20 -29 -77 2 51 -53 9 21 19 -9 8 1 18 66 -57 20 -18 23 -27 -8 35 -5 -44 56 24 -3 26 19 27 -48 16 -63 -63 -18 47 74 -21 -23 72 13 -63 -54 -14 -25 -60 -32 -51 -8 -3 -49 0 2 0 24 15 0 -4 16 -52 43 -61 -75 49 65 30 -55 37 -21 23 -33 41 48 -13 -14 9 -17 -31 24 -5 0 44 4 71 -16 10 -23 25 -54 1 -4 29 29 -27 -46 -32 8 -63 13 51 -6 -5 -71 -39 -8 -32 67 7 0 -12 -23 -5 -21 -21 -60 27 76 41 -5 14 -27 -18 15 42 -40 -24 6 2 -55 31 20 31 30 -10 17 10 19 11 -21 -1 -38 -28 8 48 20 0 -42 39 -26 -28 31 -13 7 -36 -30 3 51 21 22 50 44 9 -11 -16 -29 64 12 56 11 90 54 -21 16 67 29 70 12 68 -106 11 5 20 21 44 -32 20 9 -55 10 8 -7 9 4 44 2 -81 -11 24 -36 -7 63 21 -34 42 40 -14 -38 9 -15 -33 15 15 -34 4 -30 -17 -20 69 27 -9 20 16 -53 13 10 27 -44 -12 8 0 -39 14 8 -6 -30 -31 -3 79 47 31 -1 -15 -7 3 34 21 32 -32 -85 -35 86 24 31 -9 -94 31 5 6 -25 27 -47 -15 5 36 -43 -66 0 9 6 -29 14 -34 -30 16 -33 -40 4 -7 38 -7 -47 22 32 76 -2 -65 -32 -3 1 16 23 9 -27 -103 -76 -11 -2 57 -21 -37 -31 -21 3 67 -29 -36 4 -37 70 0 -12 126 44 -12 -43 1 -31 31 30 32 8 -48 -41 -70 33
20 38 -42 46 1 -15 47 47 21 -37 -10 -5 -46 -7 32 -1 18 -43 12 24 -36 -3 35 -25 27 -45 53 54 -38 7 8 -36 49 46 25 -47 75 6 -23 59 40 3 22 38 50 -94 4 -6 -36 45 -33 36 -46 3 -48 60 57 9 -35 -9 45 -2 -22 -22 13 34 -94 -2 35 39 -48 53 38 -10 -70 -21 -19 3 37 11 -34 -51 13 8 -1 5 1 -18 -12 -26 -14 -43 -14 1 -33 28 97 14 -28 70 11 8 19 32 -13 36 14 -33 -22 29 3 -107 -73 18 26 13 -18 -97 -7 -19 -50 2 -10 11 -1 -2 42 -34 5 -20 -70 -30 -11 -7 -12 27 -17 -2 -13 -42 -17 22 -96 -20 -35 -67 -11 17 33 6 35 37 -51 36 5 7 36 -44 -31 12 44 38 -25 28 76 37 2 -22 94 16 -38 -21 -52 -53 -50 -18 50 -36 36 -49 -23 29 -62 1 -14 -10 47 66 22 20 23 40 58 32 44 45 -11 42 -33 7 106 38 29 -4 -4 86 -8 39 25 -43 34 -6 34 20 29 6 21 2 6 -3 17 -101 -8 -21 -16 25 -54 10 -120 46 7 -6 -33 0 23 9 5 -73 2 -28 -5 8 -95 -34 4 55 -62 30 29 10 -18 44 108 -54 -34 -30 69 -14 62 22 1 -35 49 -49 33 -9 -36 -17 -23 -56 -85 12 69 42 11 -3 -5 41 -26 36 -15 -19 5 0 -33 -19 -20 15 -73 7 11 -26 9 -56 -42 26 -5 -44 84 -63 11 27 40 38 -72 -3 20 56 -53 83 -43 -23 -46 -17 -49 -25 17 -33 -24 -6 13 4 16 -8 -23 51 -4 2 -9 0 1 34 42 -11 -2 -35 74 -87 -81 -16 37 3 -15 -7 43 8 22 26 23 -33 4 3 32 21 -29 -23 -11 -9 28 42 -65 17 13 -93 25 22 -17 10 -27 87 -71 42 14 10 -20 31 -57 -41 -11 8 -19 -46 -118 -61 -37 -64 -10 -59 37 -30 47 -76 -26 1 3 -45 28 -24 -46 -14 83 -6 20 33 24 5 -86 0 -28 13 -6 -43 106 14 -60 -15 40 -26 -15 -11 -70 67 0 -25 42 -5 24 63 -11 -33 -1 -25 8 -5 -21 39 14 51 37 -40 49 107 90 -43 53 -7 21 54 -20 -33 -11 -6 -50 11 9 -2 -36 13 -9 83 25 18 24 -4 -12 -19 2 -6 -2 -56 18 12 -71 16 -51 -26 -2 -19 38 -19 -64 7 -14 -46 2 -29 -21 -19 4 60 13 19 34 13 0 25 -2 -55 22 17 26 -8 -26 -95 32 -19 94 -29 33 -87 48 44 -45 46 10 -51 -52 26 15 27 31 24 -61 55 80 1 -87 -38 41 -19 27 68 43 -96 -77 72 -51 7 12 -66 13 22 -54 26 8 -6 25 -24 -22 -16 6 -4 27 -69 6 -23 -4 -57 17 -22 22 6 -67 39 -31 22 43 126 15 22 27 2 15 31 -48 77 37 14 -20 77 -30 64 -56 13 19 45 -36 -22 1 28 -15 -66 -37 -9 26 79 -45 -28 -33 38 22 8 -32 -75 18 -44 -20 -26 69 -32 34 -5 -28 -31 41 41 -3 -26 60 13 -32 28 34 3 -11 17 -14 9 80 -13 31 -2 20 108 -27 21 -66 10 3 52 -7 -1 -44 -8 17 67 18 -46 7 -7 13 8 0 -56 -16 15 -20 -33 -31 19 97 30 -7 40 1 -40 -37 8 34 -92 14 40 33 -45 36 23 -66 -36 73 5 15 41 40 63 26 35 46 -2 11 -15 33 -36 -19 19 3 -10 -46 9 -18 29 19 -77 32 1 -10 52 10 23 0 21 -18 37 5 -54 20 -96 -18 -66 -7 27 -39 28 -41 -18 -36 -2 9 -51 17 27 -11 -15 12 -39 69 37 -47 -34 19 33 46 9 24 -5 -13 -23 34 94 -25 17 -32 46 -15 -17 28 -34 -13 43 26 18 -25 9 -7 22 -39 23 -26 -56
-9 39 -73 80 -62 5 -109 -36 -64 27 36 68 9 -13 19 34 -58 43 -7 -33 14 -29 13 -98 68 -22 -89 24 -58 11 62 -51 12 6 100 55 -17 -12 33 92 -81 -27 41 -14 16 -1 47 5 -12 -58 1 -3 -18 17 43 -31 5 -55 -3 -4 -20 -6 -18 -17 68 27 28 -1 73 31 -24 -30 -2 33 70 -13 8 1 33 -13 -12 -71 -35 -74 -76 72 -44 -15 -15 7 -41 53 6 34 -85 43 -105 -5 -49 -25 12 -37 -21 25 -19 3 -30 6 -49 -64 0 -51 -17 6 48 28 -2 82 -20 -15 -49 5 33 55 -40 21 45 -46 -17 8 111 4 -22 -26 30 -23 -17 -24 -14 44 -64 34 37 10 -23 1 4 -1 56 69 17 -5 20 65 0 29 14 -10 -67 -9 -23 -9 39 -24 25 -33 93 19 -14 64 -7 -27 36 14 25 10 2 -107 8 -36 36 -22 52 -10 30 5 -35 9 8 -13 -99 -50 43 14 39 -42 17 -64 41 -58 -13 62 18 48 38 -23 -29 37 -44 25 -112 3 -61 -6 18 -42 -72 -11 -8 -17 -39 1 65 -37 -6 6 -34 -11 16 44 29 79 -45 -19 19 -53 25 38 -28 -15 10 44 60 10 -30 -19 -15 11 -34 -53 -60 9 -34 47 -27 6 5 -21 3 -57 18 -5 28 23 60 -19 31 -49 19 -78 67 -24 4 -49 41 -32 -81 -9 26 -17 2 -14 12 -54 -38 37 -1 -35 39 31 -14 1 -36 52 -13 12 -30 -58 22 -72 -9 -29 -2 17 -39 1 -69 8 -45 -44 14 -17 -25 26 -57 -29 -10 22 52 -7 -25 -40 -84 -26 2 -64 12 10 -3 -14 -4 -36 -52 -5 39 -21 -52 17 -73 -24 76 25 39 26 16 -14 75 -19 17 -36 -5 8 -7 65 -89 -21 38 -44 1 -20 -38 20 66 16 98 91 -1 -83 -31 -84 6 -58 -81 16 15 -82 -54 56 -4 -18 -15 -42 -36 25 42 6 65 -23 -19 -2 6 -9 -19 10 43 36 -27 -32 16 -55 13 83 -18 -5 -71 -36 -6 -7 9 4 43 -87 -38 -4 -4 -127 -10 -22 3 18 -92 -20 -83 26 21 -40 -10 -32 9 17 -14 -46 76 -5 27 14 0 22 20 -2 51 -45 -26 -63 -28 -13 -13 -21 -31 -75 -22 -60 -20 7 13 -48 -40 -17 22 -13 -6 -32 -58 -25 6 -19 46 58 -3 -87 21 19 -3 -22 13 -27 -18 -34 -30 -71 42 87 32 39 -56 -58 -90 20 -84 -19 -15 -30 -7 51 -1 -47 1 -22 17 66 3 26 70 -40 30 -23 -23 17 2 44 -34 -22 -2 -90 54 13 32 -15 15 -17 19 -14 -25 -26 -79 -73 -10 19 -78 -36 8 -45 60 11 6 41 33 11 -11 11 -21 -11 73 15 -10 8 -52 2 25 -22 -70 -3 24 -51 18 61 -27 29 0 -43 19 -10 -43 -20 -10 94 -57 -70 -111 -50 2 -123 38 30 -20 -13 28 -6 5 32 53 -37 26 -3 47 -46 1 13 0 15 -6 -12 -31 88 -16 -14 47 13 34 23 -7 -31 -39 25 -14 -113 -3 -45 -16 3 -19 29 -27 -21 -10 -34 82 10 65 -25 -71 54 -26 -28 11 17 -4 9 -12 -74 -7 37 -57 -62 -59 24 -9 -11 41 -28 -25 -6 34 59 47 -10 19 -30 -16 -37 27 11 0 19 78 -25 -16 -29 -9 10 -30 25 -34 -13 -13 37 -73 -15 -2 -34 11 -85 -36 39 -63 -36 11 16 44 -14 -55 -40 -38 21 -50 -4 -39 -37 -18 -29 32 28 6 -41 -40 -81 -18 91 -22 -25 72 -13 -25 74 40 31 -62 23 19 -6 -37 -20 8 34 -7 0 -65 -50 14 -62 4 -34 31 39 -42 -34 -37 -43 -39 24 19 -2 -18 7 118 4 -33 78 72 -11 -44 67 68 24 16 3 35 -13 20 8 -1 4 7 21 27 14 111 5 13 -5 -86 -15 -1 52 -8 -19 11 1
13 17 -19 -7 -13 -33 -10 99 41 -50 10 -3 14 -31 62 12 -95 22 -28 7 22 58 55 -54 -44 -44 -63 -15 8 34 -40 -8 64 -10 18 -30 41 24 7 24 36 -43 -10 -79 -2 -7 12 18 -11 32 25 33 -84 22 -7 38 -43 29 20 44 -8 -8 8 24 30 30 60 -38 50 15 6 -57 32 4 -6 3 23 -1 -10 -4 0 -18 6 43 -7 -32 -47 -12 -25 12 -28 -2 26 11 -66 22 56 4 -20 -3 -37 23 14 39 -56 -3 58 17 75 -39 -5 -4 -25 12 -94 44 28 49 67 12 56 -39 38 7 45 -42 13 50 36 -51 20 27 12 -9 45 126 87 0 3 34 -47 -9 24 15 4 -32 29 -31 -46 0 -33 -11 42 -18 -32 -22 0 -10 -3 18 -33 10 -24 -5 -21 62 27 -50 -64 -10 -21 54 7 63 -37 -79 39 -44 -22 57 35 -27 17 34 18 -25 -40 52 -18 39 -6 -69 18 -10 9 42 -6 8 37 45 -7 -6 25 51 2 9 41 -7 5 0 -12 29 -1 -48 9 -53 -74 0 -16 -1 -2 0 -22 -51 -5 -19 34 36 -13 -45 18 28 55 -64 -33 -58 8 55 7 29 -1 5 79 8 -55 -13 46 -26 -6 -10 30 0 -2 -29 15 54 -88 3 38 -6 96 -3 34 24 -14 -8 15 -7 -33 -26 -39 -6 12 24 -86 -9 20 14 14 -1 -38 -62 36 -2 -37 12 10 -7 3 44 3 -6 -10 16 83 -44 -24 12 50 52 14 -12 -20 73 74 8 9 -22 27 -26 -18 -30 -14 -40 -16 -38 -41 7 53 -59 19 13 64 -10 -3 -12 -91 11 -49 -36 -4 36 -2 19 39 -31 -43 11 35 -30 19 -6 -51 4 -38 55 27 23 -10 -63 -15 26 18 16 -28 34 25 18 -34 12 -17 -30 0 6 54 26 4 -57 -12 -9 44 1 41 6 -13 -44 -14 -38 -10 53 28 27 -60 -75 2 7 36 34 -19 9 31 -35 -14 -36 -31 65 18 3 -48 23 -56 18 -80 -3 -35 30 -16 -7 -15 0 -16 31 -33 57 -27 12 16 3 -30 -31 -37 9 48 -23 -10 33 8 7 22 19 33 15 -13 53 41 -30 36 -20 -35 -4 -9 59 60 18 -11 41 30 -47 70 59 -22 28 -42 4 -84 13 -23 8 38 -19 -2 -62 -38 18 -108 -18 35 14 1 0 42 -15 -42 2 -63 -43 -16 -34 6 -42 -30 -7 29 76 -67 30 8 -15 22 -28 19 3 -23 2 -2 -26 -2 28 44 31 31 -25 28 0 17 -8 44 47 -52 -8 -18 29 10 -55 54 31 -48 -12 -4 -30 -50 -5 -6 11 29 32 -86 -56 -27 -9 -66 99 33 -45 -21 -13 40 -22 -2 65 -13 -92 14 -45 -10 29 71 40 -24 26 -33 1 87 29 30 55 -35 6 20 -4 9 -3 70 -18 -28 25 -24 -58 -4 -40 12 11 -41 -24 -8 22 -11 7 -33 27 -27 62 15 -25 -27 35 39 -5 0 71 -17 -40 83 -77 -14 -22 18 -78 -33 -35 9 -18 -57 -58 64 14 -112 -89 -45 46 -59 -34 49 -22 -7 94 28 29 -2 -76 25 -57 47 -110 4 -28 -27 35 -2 -53 17 61 -4 11 -31 1 -61 4 -28 2 -15 11 -6 76 -26 -12 -3 -47 64 -38 52 -49 -11 -76 -12 3 -7 33 7 -32 27 1 20 -30 -21 3 -1 -4 -30 82 3 -60 -26 -1 -9 -14 31 66 -1 -26 25 -2 54 -13 -68 28 48 -16 -29 -3 -33 -13 11 9 -5 71 -17 25 -59 7 13 14 15 -48 -1 -36 23 -29 11 24 -18 -28 37 6 -44 -18 33 25 33 7 -22 -7 -34 8 21 23 53 -39 1 -10 -53 -1 -7 22 -48 -11 -8 -8 57 -15 -28 -16 15 -30 -15 -41 11 46 -48 -17 35 9 -7 16 20 2 15 -21 4 -47 -16 2 14 31 -7 22 -34 13
-35 13 12 51 -29 36 45 55 -13 -6 14 5 6 18 35 39 30 -12 6 -31 -29 -39 5 35 -14 39 55 -5 6 50 -4 87 -4 1 23 54 -21 -33 -26 47 -20 -33 25 5 6 -125 49 48 65 19 121 -42 24 55 -5 24 58 -21 58 -111 -50 9 -15 -25 -67 -56 11 -15 5 17 64 -15 54 -14 -60 17 -10 4 13 -19 23 -50 -15 17 -36 -4 26 42 -30 -53 -6 -2 -91 7 73 48 -48 -26 -2 19 -3 -56 -26 8 75 39 -48 33 5 -6 -1 -23 -16 94 42 -27 81 25 -17 23 27 43 66 -31 71 -14 -8 39 11 24 -1 -35 7 42 45 -48 -58 29 44 5 8 -79 -11 57 -52 -65 -20 33 26 14 -23 -3 3 -8 -1 -6 -23 65 -12 -72 -18 12 9 -7 75 -2 -62 16 -110 20 38 -87 7 34 31 74 7 -78 -28 16 -51 61 -49 40 32 -67 23 1 40 -48 -11 48 -56 -8 50 -34 -127 -18 13 10 -49 19 -23 10 104 60 15 -27 -48 -10 39 -36 -48 -52 -4 9 24 -4 -27 -9 -4 -1 -54 25 -3 -31 32 5 -28 12 -70 14 16 -89 -58 -3 -29 38 -4 -32 19 70 -24 -61 27 12 -47 -12 -1 -15 -32 63 -38 20 20 -18 -15 32 89 -20 -74 8 9 41 -18 18 -24 -9 -62 -51 -15 33 17 53 -22 24 23 15 7 47 -53 -82 -18 0 21 -28 7 18 32 -32 -32 2 -38 -72 -70 23 58 -9 67 8 27 58 -33 10 56 -64 14 -42 16 -26 29 -46 -42 18 -74 2 -21 -53 35 35 -37 -28 -17 -17 -2 77 -79 -34 -28 26 0 -41 -55 -48 15 30 -60 -72 -2 -3 -6 6 -58 90 45 6 -27 -18 -45 47 -9 32 28 -8 37 23 23 26 -33 -33 -20 4 55 -10 68 -83 5 -107 -2 -23 11 121 32 19 -44 -20 6 -21 -53 63 -50 56 18 -64 28 -30 -95 32 -12 -3 -95 -5 55 -12 24 72 -11 -21 40 -35 -93 7 -22 32 29 -16 70 -20 9 52 -21 30 -78 -5 -30 94 5 35 25 7 -18 9 31 -52 -74 -1 -10 40 -8 -55 6 0 30 75 -72 -16 8 31 13 3 36 14 -77 -47 36 -45 -33 -16 -49 -29 41 -12 -19 6 23 -38 26 -19 52 4 -21 10 22 46 -34 -111 14 -33 38 9 13 -60 28 0 40 58 61 -7 36 73 120 27 17 -23 -32 34 39 14 -48 19 -46 11 29 42 0 45 -4 62 24 -22 -19 37 -83 61 -123 87 2 77 -60 -3 29 18 13 85 -44 -30 24 77 20 -4 16 46 -3 33 0 79 -21 -29 -34 0 -9 -19 0 -5 -22 -43 34 -29 72 21 -41 -80 5 -46 -39 -7 -40 -113 -99 -69 -14 -4 -22 -23 -24 -24 45 -33 25 -57 -3 2 30 -24 -53 58 3 -24 33 2 9 -70 47 26 -69 42 -53 30 0 -47 9 36 15 -4 6 25 2 46 -1 48 42 -82 46 31 -21 -44 30 -54 -69 4 -4 1 15 22 -14 65 49 -38 -100 -27 27 -26 -32 20 24 -36 -52 12 12 79 14 -20 -47 23 15 -65 53 7 3 -45 -61 31 -7 10 27 -21 64 -69 -13 3 11 59 -19 0 -11 37 16 -15 -109 -40 -31 -64 -10 -77 -61 0 -17 68 -25 77 -58 42 -48 -15 -69 14 -13 -86 43 -22 32 50 -51 -31 -60 54 21 -20 -100 35 -27 -89 -47 -34 -29 -25 -26 41 -27 -8 48 -77 -38 -26 -23 -22 8 -55 21 32 99 -65 72 2 -86 1 29 -64 43 -61 -24 62 -10 5 43 34 6 60 -73 -112 43 6 99 -5 62 -4 -30 -28 -32 -32 32 -9 -32 2 0 27 -14 -64 -29 23 -44 -28 -47 -79 -17 22 0 -9 -15 -18 35 -3 23 20 29 48 -5 19 77 12 38 4 53 -19 -19 16 -12 -7
47 -9 -20 -27 6 -24 0 0 5 33 -6 -22 -16 -11 -57 -9 -24 35 -57 -9 -10 -68 20 9 11 32 16 47 -21 -17 -12 -40 23 -34 6 -44 29 81 26 -1 -65 6 -34 82 27 -35 -77 23 65 31 -6 25 -3 -53 -52 46 21 20 -3 -32 24 10 1 -35 57 13 -16 64 -1 -51 5 -22 -96 32 66 18 -43 0 -42 30 55 36 12 0 -51 -2 45 -5 -16 -1 -8 -14 15 53 61 25 -105 3 38 -16 7 -41 -14 -12 13 -20 47 -54 15 24 1 -3 -11 3 70 -49 49 4 -4 3 -127 -3 -10 46 3 -44 -11 24 7 37 5 12 58 15 52 57 33 31 -11 -23 -16 13 -5 41 7 15 -69 -43 -35 41 29 71 29 3 39 -67 8 38 7 -18 -62 49 -30 -6 70 47 -23 -23 11 -14 11 10 5 -75 -3 2 -40 -66 -2 62 -37 12 -60 -58 -22 -42 -37 19 -26 -45 -12 15 7 -18 -2 -19 -44 -35 -10 -33 2 18 -13 -38 20 -74 51 -60 60 -11 19 17 -15 -1 0 12 20 -5 -60 -2 -11 6 80 -3 -30 -48 -1 18 -66 -6 34 -34 32 -21 -4 -32 -3 58 25 -46 -26 -40 -43 -74 -73 -20 -34 -23 -23 -4 -11 -22 -5 64 31 -22 35 -9 34 48 -50 -17 -21 -37 17 -15 -93 14 -4 -15 -9 -35 -61 24 -65 -54 50 50 20 5 -23 -15 -37 -3 31 36 -22 -18 -4 63 -21 24 71 -1 6 25 8 -5 -3 -49 -24 28 -23 -20 10 23 26 48 14 -1 -28 35 37 -69 31 29 52 8 56 14 -70 -10 79 -27 21 -28 -22 -8 -81 -55 -3 -39 40 -20 -40 -52 17 3 3 -25 -63 -6 1 -26 -21 -38 4 -93 -75 7 11 36 10 45 3 23 14 -15 -2 23 13 -22 42 -1 -34 16 -22 -25 -44 36 -4 -18 -21 -22 18 -7 -62 8 -15 -28 34 -27 -23 -17 21 -46 -22 -42 -4 -37 -76 12 -18 -61 86 -66 18 35 44 -66 -42 -8 -22 -12 7 16 -11 22 -35 -24 76 -76 -18 -30 -49 33 18 -20 -36 -41 20 -37 2 13 48 16 -19 -18 -6 23 54 -28 -2 -72 105 51 -3 2 20 58 -9 -71 -25 20 38 -6 -50 44 1 -8 -25 -28 8 6 50 -20 -61 11 18 -30 -6 12 49 6 62 8 29 -15 9 -1 3 -1 44 19 30 -66 58 -98 0 36 22 4 -32 -59 -91 -3 -6 54 -32 -30 17 37 -2 -23 -3 -46 0 71 -13 -40 -1 -15 -10 -45 -88 21 -57 -50 -8 65 111 19 -46 -10 -90 -12 -27 4 3 8 80 -45 -49 -16 -48 -22 -26 19 -44 -70 18 -13 2 -68 18 -32 17 -15 -39 11 -2 -21 -34 32 1 41 2 -13 3 22 -43 -4 -43 21 -13 29 19 -63 -51 35 -95 -6 23 82 34 44 18 35 4 40 12 -11 16 -11 -7 6 -20 14 -22 0 2 -40 -49 -14 -5 36 -60 -17 1 -1 -52 -4 8 7 5 2 -55 26 -16 10 17 45 -38 -37 19 -23 -11 78 -43 54 -12 20 -8 2 4 -8 -51 -67 13 -63 0 -26 -19 -23 27 -1 98 24 24 49 -36 -86 43 36 0 16 -35 6 -82 -17 4 -4 18 -13 53 22 -28 -25 -81 30 65 -39 -38 16 2 21 28 81 20 80 2 29 11 -14 1 -78 12 -81 -35 13 39 -63 28 81 27 -31 3 29 -14 -32 -9 -25 41 25 47 15 -28 20 -39 -15 -57 -5 -4 29 27 6 23 23 3 -11 -36 38 12 -99 39 84 -20 52 7 -54 -2 5 74 -21 1 -27 -46 0 10 4 -5 -4 21 -2 -68 -17 -7 27 -7 -26 -25 -3 35 51 -106 7 47 -10 7 -17 -33 -32 41 56 26 -1 -36 20 -39 -8 -38 15 -24 110 -9 -13 9 9 38 -18 55 19 24 3 -6 10 -73 -18
-26 -15 -38 12 4 -23 -22 -39 6 21 -17 6 -28 17 -44 32 46 33 46 38 -17 -1 -23 5 50 -5 18 49 -16 18 53 -18 15 12 21 12 -23 8 10 5 -6 21 17 30 6 -83 4 -14 100 26 52 -57 1 9 6 10 -46 -21 56 -57 28 1 -2 9 -62 18 -27 -34 73 5 -44 29 -91 27 -47 -11 -27 1 -22 -10 37 -24 22 -38 18 -8 -26 -5 7 19 -26 -45 -55 -1 -78 27 -22 6 -76 -2 -18 -6 -14 5 -63 -28 41 54 -4 -54 -3 -29 9 11 -1 71 0 38 26 -13 4 16 -6 -4 5 38 9 -54 11 -51 -49 59 -35 -12 47 -12 -12 -2 -32 -22 -24 -23 -42 56 19 39 -15 -40 37 13 34 -62 59 -18 -24 -42 38 -14 -61 -5 -25 19 -60 -25 -28 37 32 1 3 -72 9 -68 -20 0 -54 -7 -13 -72 -6 -95 61 -30 -67 25 -38 -30 13 -37 13 -81 35 -82 50 -3 -3 -55 1 -66 17 13 13 49 24 15 -18 56 0 20 -11 19 42 -25 -94 5 -47 -39 28 -16 18 -16 32 -3 -16 26 -5 1 7 -47 -86 62 -3 -25 -1 10 30 -24 -10 39 -38 62 -25 -15 15 -14 89 -63 -30 -9 -1 -11 72 5 59 11 62 63 50 15 -17 20 -86 9 -16 -31 -56 -59 -34 36 -9 9 41 45 38 86 75 -13 -40 59 -18 10 10 45 -47 66 -15 0 24 3 -18 14 20 -1 47 53 29 24 14 -13 71 -20 -24 11 -20 -55 -30 15 0 -21 28 18 -8 42 0 60 18 -6 48 -55 50 -17 -28 -39 9 -8 54 -11 -20 43 -28 -31 -4 12 6 20 -22 -3 -47 59 35 69 -17 59 42 -70 35 -41 -8 -2 -39 -53 -19 89 34 -29 27 44 37 39 3 23 -22 10 -69 -20 -91 22 11 26 -36 30 37 -6 -12 -4 40 30 23 15 47 37 -3 -121 14 19 3 74 -20 -15 -18 -25 -38 19 -26 -89 23 51 50 24 34 46 45 3 -10 -94 16 -27 1 3 12 -41 -19 88 49 -68 -82 28 -28 -19 -36 -82 32 50 -75 -39 -21 9 -18 83 26 -54 -6 -63 7 -8 -43 17 -89 42 20 16 -52 -14 15 -2 -76 23 44 37 100 13 20 -41 51 -11 -47 -53 18 -39 -14 31 -13 60 40 31 -55 -39 60 1 -21 -32 15 -12 -43 9 -53 41 23 15 72 28 31 32 -35 -88 -19 -95 -11 57 6 57 31 -61 80 27 -3 -5 1 38 -43 -9 27 24 53 -13 -16 18 -29 -19 53 7 -4 -35 109 16 33 99 16 20 11 -1 49 4 32 -17 19 -57 40 15 42 16 -31 0 12 -11 -54 -20 -16 34 -43 -33 -26 -37 54 0 -28 -28 24 72 -37 5 -32 -1 -27 -89 -11 -30 49 70 -33 3 -20 17 -33 -65 -37 -19 -49 -5 109 -17 -5 21 38 -13 -15 4 0 1 -83 -14 59 97 0 5 -6 -9 -45 -2 0 -30 24 -70 17 37 -32 6 21 -24 -34 -42 -42 36 -56 95 -38 -11 71 50 64 22 75 -33 31 -69 14 -66 0 0 7 -14 -11 -49 15 -2 0 -45 -20 -36 26 -82 26 -11 -69 12 -14 51 -1 41 97 27 -24 -13 -27 8 -57 1 38 25 12 -45 9 6 -23 -21 -86 24 7 2 8 42 -27 -13 -62 -23 -31 -10 -43 27 6 21 -20 -45 -37 5 -47 -37 54 21 -18 -50 -4 82 -12 -62 -3 -58 -106 -21 -31 36 25 15 -5 -11 19 6 -16 -42 -4 35 -14 -7 -127 -15 -34 -55 -2 -79 33 14 67 45 13 -93 9 5 73 -8 26 10 -24 -23 -99 -35 -5 -38 -33 -65 64 14 96 0 5 20 27 -15 102 -63 7 89 82 -16 -18 -72 -29 0 16 -65 -23 8 87 -18 1 -69 -34 -80 -36 -4 69 -9 7 17 75 15 9 -13 51 28
4 -78 -6 15 9 39 24 -12 -86 -9 5 -74 -18 26 -11 -1 -15 -20 10 -34 -31 -34 -49 0 -68 51 -18 -38 -6 25 -74 -28 1 -16 5 -43 21 58 -13 94 13 -23 12 30 -15 -18 34 -47 -31 -55 -17 14 -21 -40 -14 71 -50 -23 -46 -39 47 -7 15 16 -44 -8 29 59 -22 -23 -31 -69 60 42 -3 32 -15 -1 0 45 -33 -33 -16 -21 -5 46 0 -4 84 -34 18 43 -41 3 9 -38 9 -36 28 6 33 87 -12 35 40 15 -118 -19 10 38 -1 33 76 -28 -8 0 -64 -51 -90 17 97 15 15 -34 -15 0 68 54 -26 2 -43 -9 55 -28 26 57 28 4 -42 -51 -75 -5 -5 86 -7 56 55 -12 1 50 -1 5 7 59 7 2 29 9 15 -8 0 -8 -30 -7 77 -28 -12 -73 -52 36 4 -85 22 -127 -7 -20 -11 -20 -1 33 30 44 -27 8 -54 -23 -10 28 61 -58 32 18 -90 7 44 -70 13 10 95 -86 109 -6 29 -62 -45 9 -37 42 72 -29 -2 5 -57 49 -22 26 59 4 26 4 23 -8 -17 -45 1 1 -42 -31 33 -4 11 2 -13 -46 -111 -53 -41 33 52 -16 -4 -23 -3 16 -29 -11 2 7 21 79 -33 33 21 30 -28 -13 0 -40 16 -11 -7 70 44 6 -62 -15 20 -19 -34 -25 -83 -56 -66 21 26 -62 4 -20 7 -9 9 37 59 36 12 9 -21 -18 -36 53 -33 -36 37 10 26 8 -6 -18 52 0 -70 7 -23 -6 -15 3 -66 33 0 -35 -25 -61 -30 3 7 -27 -32 13 -97 -19 103 32 69 -1 40 -32 35 -81 -16 -15 0 2 39 8 -104 -24 -23 2 -3 2 -3 0 10 65 -41 -27 -19 12 6 28 -12 -12 53 -8 -20 15 7 -10 11 -50 36 12 20 -11 71 44 -19 24 -29 7 74 -5 0 -30 6 -8 -66 -13 -10 -13 -64 2 -3 19 -17 56 5 73 56 2 38 -3 -40 -55 -37 -17 -46 3 -39 42 -10 28 -22 17 28 10 -59 14 -4 6 -3 15 -2 -57 -24 79 -21 -46 17 -62 -6 2 -70 -11 -6 16 -32 24 38 23 -91 78 -7 -80 9 -6 26 -43 -30 -9 100 13 79 20 -29 78 8 -106 4 11 -17 -13 25 -12 6 51 -35 38 8 -26 15 15 -73 24 -3 41 57 -69 9 34 27 -46 18 74 48 32 0 -15 -13 -45 34 -63 26 -65 -26 3 33 42 24 22 27 -81 7 37 2 -89 -5 35 19 9 75 36 -31 -38 -30 -18 28 32 -22 26 -4 -14 2 24 17 -35 -23 -52 4 -42 -96 -45 -17 56 22 90 23 -17 55 1 -69 38 -63 -36 -25 28 31 -6 -2 -60 -3 -17 -31 -9 31 25 17 -60 27 4 22 -1 14 75 47 -41 49 50 -17 -30 3 22 -53 -13 7 -84 -19 44 -45 -30 -2 -40 62 -67 -37 36 -48 8 -34 38 11 39 59 36 -61 6 -8 -25 1 -63 53 77 -77 -48 2 -50 -72 -14 19 11 29 48 -6 -7 -42 -48 -42 -7 4 39 38 -33 -25 26 42 -67 -40 17 -12 -37 38 34 -33 14 -25 39 -54 -7 13 55 53 96 50 43 13 -2 -1 23 -49 -87 48 34 28 32 34 49 61 -18 13 -12 -15 -11 -28 -45 27 -40 6 24 -26 -87 -34 -74 -19 -32 -23 6 20 82 50 22 18 -3 -32 62 99 66 -48 -12 -19 -110 -4 -31 -10 -42 41 -45 -24 -29 -11 33 -12 27 52 91 12 -45 -32 -110 -32 0 5 -42 -100 -35 25 89 33 -86 -2 -13 72 9 -86 -3 16 20 -4 35 104 15 17 -9 52 18 65 -34 46 -18 11 -39 17 -7 60 -11 -40 -37 -45 -28 36 -22 51 32 25 67 -71 -92 7 -7 29 -19 47 20 18 39 -46 21 -59 115 62 -20 34 -102 19 -70 2 -54 -27 -46
-57 45 31 -13 -4 -26 -92 -19 -42 -61 7 17 38 -41 -11 -18 -34 -53 11 4 9 -63 53 19 -43 122 -21 72 44 -35 -82 -5 36 13 21 -59 29 -49 5 -97 8 -46 11 -54 57 31 12 4 20 1 43 -63 86 -37 37 1 37 24 -14 -49 22 13 13 20 -58 36 -56 36 75 23 -48 42 47 -7 -50 28 -25 1 5 -4 -86 72 -17 37 39 13 -52 1 -17 16 14 41 38 0 11 -19 22 -11 -35 21 -26 79 46 -6 12 -25 18 11 -28 46 1 1 21 -20 113 -11 13 40 15 -11 -29 -29 -9 64 -28 2 11 -8 15 -95 9 56 -23 -31 14 -54 50 -18 19 53 15 -48 -41 -35 -3 -6 -23 -33 26 -58 47 6 32 22 -15 -19 -6 35 -59 0 -18 -1 39 -79 12 -21 -33 -11 64 -15 6 20 -7 16 -37 8 0 -50 24 -69 -29 78 -22 44 80 29 30 27 28 -14 7 -64 26 -7 -39 37 -77 -6 17 -30 17 4 -38 -3 46 -50 73 30 0 24 44 27 -1 21 -3 -3 -20 9 -127 13 -44 -7 42 52 87 3 -18 30 -18 31 43 23 24 -36 -18 37 35 -43 -40 65 39 -13 -15 -22 86 -13 35 -3 -45 16 23 9 7 64 17 37 40 12 -11 -14 87 21 -9 -15 -32 -22 26 -43 -4 10 35 -22 18 38 -102 -7 -38 -80 11 9 6 -46 -8 -67 -3 22 25 -52 -26 36 46 19 -1 -1 -21 33 50 2 -48 6 -24 38 16 23 23 -12 -41 -11 -56 38 14 -29 -45 -22 -31 -61 97 -27 17 -53 37 46 32 -95 37 -24 -2 17 -27 1 0 -9 -30 -31 7 -54 -42 -21 9 31 86 43 46 54 -11 31 43 17 2 38 -17 -75 -4 -20 -61 -54 0 18 46 9 41 26 6 24 34 -35 6 28 -12 15 38 35 1 19 -33 -92 2 -33 13 -23 -37 -46 30 -24 -22 33 -18 23 -51 -58 -16 -66 15 -70 -41 -47 -3 11 -15 9 40 -57 11 -23 -88 36 -19 -76 32 4 -30 -69 49 1 36 -20 -5 14 -24 5 12 14 26 -73 -26 -2 -44 22 23 20 26 -34 -40 -50 28 -14 -8 -41 -10 53 -34 -102 43 -22 22 85 -56 -3 32 -43 3 -102 12 0 14 -30 9 5 -35 -29 13 4 30 -11 57 10 29 -53 -8 -49 8 -75 -23 13 13 -10 -5 -51 -23 13 -23 -75 -46 1 -10 -45 38 -73 -3 26 1 0 -48 25 -1 8 -3 6 -54 34 -25 33 -9 0 23 39 59 31 3 -13 -4 66 -15 77 78 93 -23 11 -1 2 72 -30 35 10 -64 -21 -7 29 -18 -25 -24 -10 43 77 67 5 0 -24 49 0 -25 -34 -17 -90 -3 -59 18 23 -10 -12 -89 1 89 -12 40 20 34 -25 -10 46 10 -15 37 -10 21 -48 54 -9 -43 31 18 -10 -16 10 33 -20 39 39 -30 19 -8 -93 2 13 8 30 20 -3 0 -63 -13 16 31 33 51 7 -21 5 -3 17 -16 -10 26 10 -32 11 27 -22 25 50 19 -29 13 48 3 82 37 8 -91 50 -77 -103 -40 34 18 -12 4 -17 27 -81 -47 -59 22 34 -21 -32 -10 3 12 32 -72 -1 -41 23 1 43 -4 51 79 31 13 9 -13 -74 37 -14 -8 -38 66 71 -34 -3 12 -69 -32 68 21 23 52 -56 72 42 1 17 -39 50 -11 -9 -24 25 1 -45 27 -12 8 -1 -37 -66 33 -9 55 16 -17 -37 -29 35 -31 -32 -55 -2 -25 29 4 12 -3 25 25 -64 -13 -12 -58 25 -19 -99 -7 -43 -6 -15 24 42 14 -18 4 -67 42 18 48 -38 -4 15 37 -6 50 39 -13 -12 -26 77 -62 -3 -48 12 17 -16 111 -17 -31 -28 35 9 -11 14 -27 58 -37 -8 -12 -104 -42 17 -12 46 7 41 42 40 11 -10
-99 53 4 -28 16 -8 -27 -24 -66 8 -17 -2 35 26 -11 -17 -58 26 14 -47 20 42 22 16 -56 0 -17 -2 -66 21 -6 79 7 5 24 -10 32 -35 -9 -63 -52 20 28 28 -11 13 4 16 52 -15 -50 -16 39 32 45 69 47 7 -1 -7 22 0 20 -12 -85 -15 34 16 -37 -7 -9 8 28 -42 -6 -17 11 4 -4 8 5 70 6 -1 69 4 -11 13 43 22 -23 4 0 -56 44 -46 49 23 35 4 -36 -16 9 35 -12 23 -23 -14 -32 4 0 -21 -44 24 -31 -58 36 27 -48 12 25 -10 27 -31 -39 34 41 4 -56 81 -49 0 72 23 17 21 -26 56 30 2 -8 -14 12 -78 -4 -69 -70 -26 -24 -29 1 -62 54 15 38 4 56 -12 40 -5 37 -17 -20 -38 -14 -3 2 25 -17 -26 34 -43 42 -13 -28 38 40 -48 47 -46 22 4 -26 -65 16 8 36 -49 -39 8 16 -26 56 4 -13 48 9 -26 -43 -16 -9 -83 8 7 -19 -51 0 -3 25 -89 -13 21 4 18 -27 -16 -57 -5 32 -7 -32 -48 69 -44 -52 13 29 50 22 -19 -35 68 -24 17 -46 -25 -46 12 -29 9 -6 -74 46 8 -44 15 86 20 -45 28 -32 -4 126 47 -18 -20 39 43 18 -68 -7 33 -6 32 41 46 29 24 15 39 41 54 -46 -26 -24 9 -52 7 9 55 12 20 4 -50 33 -26 14 -25 -69 9 92 8 -22 55 -6 2 -42 45 -38 -38 22 28 -12 -22 -23 18 40 -45 -99 -52 28 41 -17 9 -3 -56 33 36 -4 -41 -13 -54 24 52 12 9 0 -31 -43 -44 2 41 4 20 -25 38 -40 14 49 4 -40 -33 0 20 -28 -29 -15 49 -17 -37 35 -12 -19 0 58 24 -16 3 -61 -15 -64 -9 -28 -47 -40 84 -10 12 35 0 42 7 -3 29 9 -29 33 2 -15 5 42 9 -44 -19 -10 -15 4 13 -42 43 -58 -62 8 7 6 21 -1 -12 -54 -27 8 16 -53 32 -13 54 37 70 10 -14 -27 64 21 -10 22 -1 43 -28 57 1 -40 -99 -24 -2 65 58 -29 -15 -35 -24 -5 31 35 -35 -45 -35 22 -3 12 5 -9 -26 -34 60 -3 40 -44 75 -26 22 -7 -26 -22 -2 9 35 21 19 17 38 -8 19 69 44 -28 18 126 51 -13 19 -8 29 -39 -49 2 52 -26 24 79 25 52 -23 -30 28 -10 42 13 60 17 41 12 25 -1 57 0 -26 6 13 25 41 -42 59 -3 25 -10 -14 16 37 71 -19 10 0 4 -34 -11 13 -43 -1 7 12 14 -66 -19 -46 50 -8 -68 38 -47 69 2 -39 -18 15 -47 13 73 18 -14 12 21 34 -36 -80 -16 -12 1 -21 29 -46 25 -2 57 -18 -24 45 8 -26 -56 -19 22 -18 49 63 -20 -31 -15 -8 -10 -27 15 -20 23 5 -47 36 -56 17 0 -55 -18 -2 -65 5 -10 45 12 15 -1 -22 -34 -71 -41 28 -20 -10 -40 69 -58 -29 -14 22 -1 8 3 -40 -13 -62 -24 12 -40 44 -16 34 -34 -27 -19 10 46 66 11 -16 -17 -59 -21 29 6 -1 -99 14 -1 -10 23 11 -21 6 -10 38 -12 67 43 28 15 -35 14 27 31 33 10 31 4 -14 24 5 -26 3 -8 1 -14 30 2 -24 -24 -15 -22 47 -18 9 -3 3 50 61 5 46 13 69 10 -115 -59 17 11 5 9 40 27 -32 -39 32 72 18 -6 14 21 -56 -17 -34 -46 11 -24 51 -5 75 -7 66 71 -76 83 -12 -13 -35 83 11 -29 17 0 -26 -20 16 10 -14 16 -1 15 18 -54 -11 -40 -1 22 68 -10 15 -21 -8 18 16 29 32 -5 -43 6 -7 31 12 -32 8 23 -27 -28 10 -4 -6 -14 -51 -17 -62 -21 -36 -2 4 19 -35 2 86 28 -14 26 67
31 8 -61 25 2 18 -26 25 18 -29 23 -7 30 -31 -10 1 18 25 22 -11 16 29 46 -17 32 -65 1 -17 0 57 -57 15 44 -6 -48 -32 -28 -9 8 23 15 3 22 -20 -10 33 -1 -35 81 -51 -47 43 4 -38 11 -3 -37 12 23 -53 -19 -4 10 33 -33 14 -14 -3 57 25 -36 30 5 -27 3 0 -12 -2 -78 19 54 52 18 3 7 26 43 17 -6 44 7 -8 1 -87 -3 18 4 -14 -32 0 52 -72 34 30 38 -10 -27 69 -10 15 -1 36 59 -32 -2 -16 9 20 -59 -16 12 -26 9 59 15 41 40 -27 -20 9 -21 -11 -53 5 12 5 16 -52 61 14 -15 4 -4 -47 14 -15 34 -8 -23 24 34 -41 37 -25 -21 15 2 10 -6 26 -8 35 19 -74 7 -7 4 31 13 85 51 14 -62 2 19 30 1 30 8 109 44 1 10 27 -36 38 19 -19 -51 -16 16 -67 -36 26 -32 81 -11 126 -4 62 -4 41 -37 85 -9 30 54 4 23 -51 -21 -21 -29 -5 11 -15 45 2 64 4 9 53 22 -26 53 42 13 -33 29 -33 -21 35 -13 -35 -5 13 49 23 -14 -68 12 -14 11 -13 34 10 -42 -10 -15 -5 -5 -1 27 25 55 -14 33 -24 83 -14 18 15 -4 44 -16 28 71 35 15 1 15 -18 51 34 11 -44 24 -33 -10 37 -23 56 -30 53 -63 -29 5 8 21 58 -29 2 49 79 16 -59 20 57 -36 36 61 2 -16 -34 7 -57 15 26 -13 0 -33 8 22 52 -23 -15 -95 54 21 17 -52 -26 4 -45 -70 -18 -2 14 13 -40 3 26 56 21 81 -52 -35 -38 -31 -15 -8 14 41 25 -21 29 -9 -16 -29 -18 36 -15 -38 20 15 15 -15 -27 -18 7 -1 -14 24 41 -23 -7 43 -25 5 2 6 36 5 -3 -72 -39 -10 -54 10 52 4 39 -30 28 -6 4 37 22 68 11 -44 45 48 -14 8 17 -32 -36 -10 -5 -18 0 56 19 2 63 -9 17 42 4 48 21 -2 -67 -57 -1 -12 4 44 14 46 20 -66 6 -10 -22 -41 33 31 50 -34 9 -8 -14 11 -1 18 -30 -29 -37 58 21 27 -23 -74 -36 -9 -52 -13 13 45 -53 -31 1 -14 46 4 -50 -30 35 -1 2 -2 -51 -28 -52 -2 -3 8 -77 29 -28 -16 5 21 -40 2 37 -43 11 -40 -51 -11 69 -50 -21 25 59 -38 -6 -23 -15 6 -42 1 -24 2 -40 7 24 -64 22 18 40 -3 34 -26 -32 12 -1 0 -34 -16 -11 -14 -51 -18 -5 33 -54 -16 33 41 23 -31 -20 -7 21 27 -14 -37 -18 18 24 -17 -31 -6 -27 42 -62 32 46 19 5 -11 24 -18 -56 64 11 35 5 -43 -52 -44 88 -19 -27 20 -14 6 16 -31 17 22 19 -19 61 -41 -9 -3 57 -21 30 -45 -31 13 -25 -28 27 28 -43 -5 0 -38 -52 -32 -19 0 -62 16 30 54 73 56 12 -16 1 -33 -28 -24 24 -9 60 11 7 14 -31 5 85 -18 -8 59 -75 -18 36 -8 39 14 -27 59 -15 68 40 -10 17 18 23 110 -26 30 -73 39 -38 -8 -6 -21 -7 -25 32 -65 -6 69 -21 -17 1 25 7 24 32 -11 -23 -21 -51 41 -22 -21 21 2 68 39 40 -17 -24 0 -53 22 -20 -8 -17 -44 -75 -33 -58 -35 28 20 -52 50 15 1 -34 44 6 -18 88 6 -30 -12 16 26 1 -53 18 -40 -28 -30 51 30 37 63 -24 40 -1 11 8 -12 -9 -41 -15 86 40 13 -61 -53 -20 -24 -51 -51 -17 29 13 32 -8 39 17 -37 -5 33 -32 29 12 -32 5 10 -35 48 15 12 -11 0 -3 -23 38 0 47 10 17 2 -18 51 -12 18 49 -15 52 -58 13 -48 -63 44 -29 -10 -32 17 6 13 -46
-40 -50 1 -7 48 6 -23 19 -10 24 8 11 1 -7 7 -15 -17 26 47 3 -11 23 126 32 -39 -25 36 -25 -48 12 -12 -21 24 55 -29 -15 19 13 20 43 33 11 10 -34 -12 -2 -25 6 6 -57 3 0 29 53 23 74 -42 30 -5 17 -25 -4 -49 19 72 26 35 -20 -21 0 25 -30 56 2 59 5 -10 0 -29 -51 -29 29 11 -14 26 -5 9 10 45 19 25 -33 -5 12 5 42 -21 13 14 17 25 -12 -22 -29 -8 16 -27 -2 -55 -24 1 -20 -18 41 -29 5 6 11 -12 16 -18 33 7 -4 -12 -1 41 22 -13 -41 -37 -1 -57 44 -6 -11 43 -24 -40 10 20 -63 31 5 -34 11 -16 53 17 -8 -17 52 4 10 28 -1 -42 -46 0 14 -49 12 -25 -10 17 5 24 -17 -3 1 25 -23 25 -58 9 11 35 -29 38 6 8 28 13 -4 30 43 10 32 27 -27 47 13 -7 -13 47 8 1 12 -17 -28 -5 40 -5 14 -52 -6 24 -6 4 -14 13 10 2 54 32 5 -44 2 30 2 24 -3 -16 13 -38 9 58 -29 -14 34 -9 24 17 -35 -2 -1 -3 67 27 14 4 49 -7 -9 -44 48 -21 -12 49 23 -30 -21 -50 10 -1 -20 1 20 -32 24 20 13 14 -5 23 -43 -29 -9 -16 3 -8 -26 -22 -6 -17 -10 -22 -39 7 -13 -8 5 -23 18 2 14 27 -11 28 44 66 17 14 82 53 -10 -4 9 -27 13 -27 -74 -6 -48 20 18 -17 1 -7 14 -17 -27 -3 27 32 40 46 0 -6 -26 30 1 14 -23 22 -5 -31 13 9 26 0 -17 -41 -22 19 -7 -36 -26 9 -27 46 46 10 6 56 46 -48 16 -14 -48 24 -32 -24 30 -28 -61 -19 46 -41 2 -9 -19 26 -60 -27 24 40 -5 11 -4 29 22 13 7 37 34 -21 -5 -15 32 -9 12 63 -10 -3 13 -22 -11 35 15 -16 9 -6 43 32 47 -30 -3 13 5 15 50 -10 -19 2 -28 -22 -20 13 11 20 23 4 31 -37 -12 -18 12 14 18 19 -8 38 -27 23 -16 4 59 7 9 -51 51 0 -12 -36 -25 -9 32 -23 -6 -32 2 25 -15 9 52 -23 -75 -3 -25 -28 48 -12 -10 -35 -18 -26 -30 -5 52 28 -6 -19 -26 4 -5 -32 37 20 -25 26 -28 -4 47 59 4 -10 56 21 -2 46 23 -15 -23 17 39 18 9 -13 -4 -3 -5 -39 -51 0 23 1 5 -50 21 19 -39 -43 -37 -9 -13 -19 -78 18 21 34 -9 31 4 -10 28 77 20 12 26 31 -25 22 31 34 25 30 -17 -42 41 24 26 -15 35 14 -55 50 18 31 -30 34 43 -3 6 4 -31 33 -46 9 -21 -10 3 -33 31 -9 9 31 21 0 20 29 -2 -54 1 -36 13 -19 -39 37 27 -5 -23 -23 -17 2 23 61 6 -17 46 -25 -29 -16 -10 -35 -19 -35 27 0 -67 75 69 59 -17 -10 34 28 -3 -35 15 -31 -11 25 33 5 -1 -61 35 -25 -53 78 10 0 54 31 17 0 85 7 -5 10 -59 3 2 0 -6 -13 27 -9 -17 13 -20 -34 -36 18 12 39 15 -35 -43 -31 -40 14 -13 59 -13 11 7 -37 -12 46 5 8 14 4 -14 -12 -16 10 -20 25 28 -3 23 -21 48 -43 -59 6 16 -11 7 -12 22 18 -23 -27 5 -3 22 -15 21 -41 -36 5 -8 -44 36 31 38 6 -25 25 -20 -23 -20 -52 -6 -30 -24 -66 -36 17 53 -50 22 13 -43 -18 -5 -42 -24 5 -27 36 35 -7 14 6 -58 -9 -16 13 2 -4 -1 33 -2 6 -12 -9 -3 -32 31 29 -1 23 6 13 13 -13 34 34 41 -41 -1 -7 -6 15 -3 -44 -6 6 12 46 17 -28 -33 1 20 -17 21 2 -10 -51 4 -3 -9
46 49 -23 9 7 -10 -59 -11 55 6 -24 23 28 -12 1 -1 -4 50 28 30 82 24 6 28 -55 -3 20 67 48 16 -3 -74 117 -33 -62 -78 -40 12 -14 -56 -15 4 -53 -77 30 42 35 -11 35 -11 51 -112 -63 36 53 -39 8 -1 39 -29 48 15 46 -28 -39 -43 -34 2 -97 -19 16 14 10 31 -47 30 63 0 -12 60 20 63 5 17 -3 49 55 -35 -30 -6 -4 31 -15 6 -21 -19 -6 -7 74 -17 28 -10 -62 -17 25 -16 -45 -31 -17 -40 -3 -44 -20 41 9 10 70 59 -33 -4 22 34 -20 -16 8 54 60 16 68 17 -8 -29 32 22 -5 21 -21 69 60 -104 -41 5 9 -45 59 -53 39 -26 1 67 -40 58 -48 -43 69 12 -50 -41 -6 5 32 9 21 8 -4 -62 -1 -22 4 48 15 40 26 -47 27 -4 -2 -26 46 -22 -56 -27 -1 52 -97 -52 24 5 33 11 -31 21 71 22 -32 -20 -7 90 13 -46 14 59 -26 60 -66 -45 -18 71 44 15 -45 18 -17 -43 -30 26 -23 16 18 20 -34 -41 -16 -32 -21 -52 -38 85 104 -63 11 -14 36 -66 7 30 27 -25 -35 -62 -8 30 -5 -36 -3 19 -56 -13 8 41 -11 50 -19 104 -25 37 48 52 4 -5 -5 -86 -39 16 20 24 -37 24 -52 77 -50 -87 44 45 79 10 -8 30 0 60 14 34 -9 -26 -3 51 -29 -1 -2 13 -64 66 -48 19 -15 78 -27 44 21 -107 54 2 -17 44 -48 -65 -27 -6 -44 -24 61 9 100 -14 -89 -23 6 -91 -8 -6 2 22 -49 38 11 5 42 42 -35 -34 -1 7 -4 -6 -10 3 66 100 41 2 61 -88 -9 -67 -37 1 36 -11 -62 15 53 -15 -66 -3 -73 87 -17 -50 14 66 -13 5 -38 16 -24 21 48 -4 81 -60 40 7 109 16 -55 -52 0 -26 -8 99 50 18 -30 -34 -3 10 16 -48 43 -18 -72 -10 -84 -54 21 -31 1 29 30 13 -14 -21 9 -10 -3 28 -16 10 35 32 67 78 -25 9 -75 -11 -32 -16 85 -33 30 -51 56 24 -5 -15 -7 -30 -28 -26 -7 -27 4 36 43 61 45 -28 -51 -14 -69 34 19 24 -53 -10 44 -27 12 -23 21 -22 27 0 41 1 -43 -23 -51 20 3 -17 39 25 -69 17 43 -32 25 9 -10 -17 20 -76 -13 -63 2 -44 -57 -14 -41 -36 16 67 41 -42 7 -52 -33 -60 -26 1 13 7 0 20 -5 -59 23 -32 4 -17 68 -6 -3 -7 30 -16 12 6 40 1 -7 4 47 9 98 2 8 -24 44 -3 60 -19 56 -63 39 -6 -58 8 7 60 -68 -45 -127 16 -6 17 -2 7 -21 -108 -44 -23 60 -42 -26 25 1 55 17 0 6 -45 -31 -65 4 44 2 8 32 9 -24 96 -40 6 1 -18 37 -96 -16 -35 -105 -13 -44 4 -11 45 52 -4 -1 -19 -12 0 -46 -59 37 51 0 35 61 -7 -24 -18 20 -68 1 -15 -7 -16 51 -21 -50 -26 26 -59 69 48 -15 -67 -82 -22 -21 5 -22 -15 -49 48 41 -38 -20 49 -25 -59 -1 77 0 -9 21 -45 83 44 7 11 -4 13 -24 29 -23 5 -33 -29 -40 -31 -23 -95 -35 -20 45 -45 5 6 49 33 -1 26 3 -5 -11 8 -79 -2 50 -14 44 -3 22 -53 26 11 -7 79 5 59 39 -59 -4 -53 -40 0 -33 25 -39 -7 -59 33 27 -44 -23 34 11 32 -18 -54 -21 -47 34 58 -35 48 -41 -14 8 -79 -54 86 -50 2 -2 51 15 1 0 15 -47 -23 50 5 14 46 -45 14 20 -27 15 -3 -50 -27 13 10 72 -9 48 18 48 -49 -32 45 -103 -32 34 85 4 -55 40 -92 34 58 -39 4 4 50 -19 -1 1 72 -45 102 -48 17 52 19 36 -42 39 -76 43 17
-3 2 -4 20 -17 2 -16 -44 -10 -16 10 17 16 -62 -27 -23 15 22 26 5 37 -1 41 -3 -70 67 3 59 -10 -3 10 5 -69 -55 7 67 -90 -10 34 80 -15 0 -109 -27 -32 -53 3 12 -96 51 -29 -21 -54 23 25 29 28 -17 -26 -88 36 -9 -21 60 -5 -29 50 22 0 -69 1 -36 -78 -11 12 -29 -46 -2 6 -5 -23 44 7 34 -29 28 -24 27 -90 12 -8 16 -38 -20 -45 -71 -20 12 -46 -48 -11 -66 -61 62 -34 -5 -23 -23 -18 76 2 13 25 48 -2 40 -15 13 -14 10 28 14 -18 -54 19 7 14 8 36 15 0 -3 51 13 74 -20 22 -65 26 55 -36 -46 -81 -47 -19 52 91 -18 39 11 -12 17 30 18 -80 -55 2 -15 15 -17 36 -12 -3 -16 8 -43 -50 -27 6 1 -36 -45 -55 41 -54 8 -10 -42 -35 -34 42 42 66 26 8 -3 -39 11 -61 -60 59 -30 -31 -26 -57 4 -11 -22 12 18 19 -15 -22 -47 -2 21 -36 -40 -67 -12 -6 -5 4 -12 42 -81 -1 -7 -42 -3 -11 81 -45 -127 -40 71 108 -1 19 37 92 -17 32 -14 26 7 -2 -28 -38 10 -8 -3 -19 -11 -80 10 -35 6 27 39 38 -61 -91 -6 16 65 -16 -65 44 -17 -22 -14 18 45 -7 -10 95 -1 -111 61 23 3 16 86 22 62 -13 39 34 77 -66 -4 23 -43 -71 -1 -8 6 -70 -59 -26 39 -17 -34 -49 -19 -51 -18 94 52 44 19 19 -24 35 28 26 -26 43 -9 -22 -56 -23 35 -38 -11 -19 -30 -19 7 -75 78 17 3 -19 14 0 13 -56 -105 -3 35 -3 19 -25 37 40 -11 -45 7 41 -64 -16 15 -54 -31 -24 28 -29 -2 26 -26 0 4 -49 -29 40 -23 -10 75 -57 7 -8 7 37 49 -31 -18 10 -67 -24 -24 -58 11 -29 -13 -7 67 13 23 -15 -33 -22 -3 -57 -11 11 -22 -4 20 -45 -27 -45 3 -3 5 -34 -8 32 -31 3 23 -2 -16 23 24 16 -12 -12 5 31 3 -15 7 36 50 42 26 8 30 37 7 20 16 79 -30 67 -13 30 -4 58 -37 -68 -45 -24 16 -56 50 11 45 23 -27 -12 57 3 -54 -6 0 68 64 50 -43 -5 2 68 23 -2 -13 -39 60 -38 -10 -74 30 28 -44 -62 -70 -27 60 21 -28 4 58 -20 -14 6 -7 3 20 28 -15 2 22 36 16 -20 -13 3 -3 9 41 -5 -14 -3 -43 4 -17 29 15 -43 38 36 -96 -47 -21 40 -29 -20 26 -49 -33 -42 0 -22 -10 16 36 26 -27 23 7 22 -54 34 -37 -15 49 13 58 -28 62 -7 21 31 -15 15 -2 -26 62 -11 42 46 -69 55 -27 -41 -33 -35 -26 24 2 -27 83 16 -17 22 -19 -12 34 -11 -5 -31 63 37 43 35 -28 -42 26 4 33 -19 30 58 -4 25 6 25 1 -56 -81 -22 -49 -1 -27 -28 15 0 -36 50 -60 -44 -46 -54 59 -72 -23 -9 -15 -51 11 -14 -17 32 32 -19 10 16 -68 -5 13 45 58 -11 3 4 88 -1 -19 -55 12 8 30 22 1 -17 -1 57 -29 -70 -11 71 -96 -9 51 51 36 9 -63 60 63 -26 -29 -10 0 70 13 -43 -8 -20 67 1 -42 -37 29 -38 14 -11 1 2 -22 35 -3 13 31 -22 -13 86 -12 -2 10 11 -6 67 -35 17 -26 25 -63 34 -105 79 -22 1 59 25 -7 11 29 -50 -11 5 -42 -25 28 35 -45 -4 21 -10 -4 51 62 -44 6 34 -37 14 41 -57 52 -25 79 24 5 -36 13 -31 26 19 -72 3 -56 -31 16 61 -57 -14 -33 -16 17 37 -20 16 22 40 54 63 -30 -27 -39 18 -30 69 36 5 -44 -14 19 4 10 -4 22 -53 30 -56 -26 23 11 -62 11 59 -17 -29 -62 -17 -67
3 -43 16 -14 -25 34 -105 -37 -3 -3 -4 0 11 -58 -10 38 8 78 24 3 2 -13 40 49 -13 14 -35 -45 24 -7 25 27 -6 18 1 -16 8 45 -17 67 14 -4 -8 -67 29 -26 17 -1 30 24 -16 18 -8 26 -50 33 -30 -18 -47 15 11 3 -1 5 -32 -8 -44 3 -63 69 -10 -22 21 16 -43 65 -35 -1 -4 -2 10 -12 24 -28 13 10 -26 2 10 3 6 15 3 -5 13 -16 -9 14 -10 -38 -4 24 -1 -50 -38 13 -7 -44 -22 -1 -3 49 -12 21 -20 -46 6 -31 72 7 -30 -24 -9 -3 45 -7 -25 0 -33 -41 -33 -7 7 6 81 -71 5 13 16 49 18 -20 -71 38 30 -2 66 69 -19 -37 33 71 47 -27 -6 -26 -52 16 18 -11 -22 25 57 -11 18 7 -8 57 -21 20 -48 0 72 -9 28 18 -77 -4 -37 -10 10 -6 -52 -9 10 41 -42 15 -3 -18 34 56 50 65 5 2 -57 9 5 40 -16 19 -19 -22 47 10 50 -31 2 -3 -41 21 -56 -30 -26 11 -38 -6 13 -1 -3 -16 -50 2 34 -47 25 -70 -20 -87 40 -32 -43 20 -53 37 1 90 8 -11 34 47 62 -25 50 -22 14 -30 0 57 -59 -59 32 7 -37 -41 -1 27 63 -20 -49 58 -30 -21 -27 -2 -13 27 46 69 -6 6 -13 33 18 26 -13 -51 43 79 -55 7 -23 3 -4 18 -31 -2 38 1 -30 -14 -1 -56 -18 -7 10 -16 -3 -101 -2 -17 12 -15 -33 -71 -20 64 83 -4 11 39 -33 20 25 12 -4 9 -16 -49 -20 -57 -8 -2 -13 15 -63 6 73 36 5 8 -8 -4 1 -38 -35 -26 -25 16 43 20 54 11 69 -50 -30 -44 57 -6 48 -76 -21 -12 -28 42 23 -15 -25 -14 -43 -20 7 -26 -76 21 -40 18 -18 -14 21 40 52 5 14 -22 30 75 0 33 0 -49 -14 32 -46 -31 -8 18 9 23 -11 40 15 8 25 47 46 -32 -10 -18 -112 15 82 -45 -54 16 -108 47 -16 -20 -13 0 -38 2 -2 -51 -15 -2 2 -6 -22 -27 11 -29 37 37 17 42 1 -6 41 30 -15 54 18 16 94 26 -28 10 -11 -32 -65 31 -2 5 46 -29 45 34 -22 13 -55 -8 -26 20 -15 -37 -47 26 -42 13 11 -65 -35 28 84 -10 -16 -26 -51 -41 22 24 14 -2 17 -24 4 -3 -20 53 40 53 0 -7 30 22 -24 0 25 -9 37 -26 0 6 3 35 22 31 -34 79 47 25 14 -51 -27 -79 -37 48 43 -32 -53 -14 48 6 -41 -12 -23 36 -5 -3 28 -41 56 29 -19 36 -70 37 14 14 18 -61 -34 33 41 -60 -6 -19 -1 -13 32 -37 49 -4 -26 -32 -32 -1 39 4 -36 -41 65 32 8 -57 51 2 28 -30 0 14 -3 -9 -39 -11 23 64 2 -13 12 -24 8 -1 -25 -9 -23 46 7 -15 26 28 22 39 16 -6 -1 11 -29 -7 6 -66 -3 -12 0 17 43 5 -1 13 17 -24 -62 -16 26 5 -43 31 24 -52 -22 31 -23 11 24 -13 -16 21 -36 -10 -16 50 -5 -73 69 6 16 -46 -9 22 0 40 -49 27 24 -33 -27 -22 -31 13 4 69 8 57 50 9 -107 21 -14 6 36 -18 -68 -5 -4 23 -32 -32 11 -30 44 48 16 54 -40 23 -42 36 39 -14 -27 5 61 -91 19 31 -3 14 34 27 72 5 16 6 -44 -3 -11 -22 57 -60 -27 -19 1 43 22 43 -11 -22 71 4 37 -37 -97 -24 -6 126 8 45 -22 -20 65 -47 18 28 14 -17 36 -10 -6 -13 4 80 15 -6 3 26 41 67 -77 9 40 13 26 -23 -34 -24 0 30 57 78 -7 9 -35 -68 3 50 33 -5 -18 -5 5 -45 15 45 -17 -22 -3 19 -21 -13 -10 20 53 -6 25 17
-54 70 -9 44 -16 -3 -55 59 39 -12 3 16 -44 -8 -76 11 -18 -30 3 -10 -9 -56 20 21 36 25 -50 -26 69 12 -68 -51 46 28 24 -8 21 95 -18 -39 -3 14 18 78 -4 -98 -33 45 43 9 -96 5 -34 -34 -25 -12 22 5 -18 40 99 -7 75 -26 22 -34 14 -11 7 -23 52 0 52 -87 -35 -12 -14 -2 -3 -31 -10 7 -5 -8 -48 46 -8 -23 15 -36 -3 43 29 37 58 -8 16 3 -53 14 -14 -80 43 55 -27 -6 16 -19 56 -15 2 5 -54 -44 -29 10 -47 67 34 24 -40 -107 -12 -11 -3 25 73 113 -15 -19 -58 17 -23 -12 21 30 -4 -48 -84 46 -22 -9 47 16 10 35 50 17 -70 -44 -9 -38 -19 24 -13 10 27 -8 17 8 54 -36 -74 51 58 46 -17 -36 -14 -9 63 21 103 -6 91 30 30 41 -63 39 3 23 98 34 24 -7 -6 -82 -8 -67 34 -33 -23 8 34 -1 -57 -41 -6 0 -47 -16 55 12 11 74 39 45 7 -30 94 32 -45 -42 14 38 5 2 -12 4 -41 -30 -10 2 -51 -9 27 -40 -70 -7 -2 19 -27 -40 40 -38 -41 -83 -52 44 5 -11 28 51 30 -2 22 0 6 -26 -33 -5 9 30 6 54 -50 -12 8 -14 59 1 -42 0 24 -4 -71 83 -5 -48 25 62 -2 95 -13 23 11 49 5 17 32 15 -10 72 1 -3 39 -56 14 -22 -108 23 -60 -7 68 34 10 23 -16 -42 -10 37 -27 34 9 -44 -29 4 -41 -32 46 41 -70 45 34 -9 39 -4 15 -42 15 -49 44 33 -37 23 7 38 66 -20 2 50 36 17 -23 -6 -17 21 -38 17 -34 -2 44 -40 -69 -22 -105 -29 -1 58 -40 18 -20 -2 -55 15 -50 -9 42 12 -34 10 11 -64 16 -60 28 -5 35 32 40 -31 -15 -43 -48 14 48 31 -44 71 -19 -15 11 21 5 23 -5 -49 61 71 37 -8 90 61 21 -22 21 13 -34 8 27 61 -26 -2 46 14 -18 -23 57 33 -11 -41 62 56 38 14 58 33 28 -41 -10 -37 -7 -3 7 39 1 -80 -48 52 -2 -86 36 3 3 -94 -27 -47 -25 8 24 11 -3 -48 27 22 -42 4 57 53 33 25 -6 -4 -30 39 29 -36 37 22 66 14 -99 -3 -22 -9 21 76 -7 -33 -2 51 47 39 -8 16 -28 22 2 5 -81 -15 -27 -42 -34 10 36 60 -3 8 -11 18 -40 72 0 -104 -6 -21 11 -1 -127 27 -73 -50 38 12 46 -54 -80 -120 -5 12 3 22 -85 -45 -41 38 -36 -13 -17 -8 63 -48 41 -45 -38 34 52 -15 -21 -1 -15 -26 20 -17 -46 7 49 -53 19 -18 29 -1 122 -73 13 -71 25 65 -19 -1 -34 18 -62 28 7 -26 -24 20 -9 0 12 -3 5 -18 41 -3 9 36 2 29 28 8 13 73 11 30 -13 17 0 12 17 26 78 10 -126 19 0 -25 -40 38 -3 -28 -28 4 -2 -87 25 -14 44 30 1 -83 -27 12 4 9 20 -45 5 14 29 32 12 -12 61 -15 -21 -12 -11 5 -11 30 -3 11 7 -24 1 48 -25 32 -3 2 -48 -15 -46 -54 91 -87 -23 13 11 61 -43 -1 -38 -42 41 25 -86 -46 -15 16 22 -54 17 49 25 14 -51 51 -14 -22 -33 57 28 46 -67 53 16 40 -67 93 7 -9 12 -38 -16 -33 28 31 -95 -12 -25 -26 -38 -13 -55 -19 0 20 -85 -34 -9 -59 13 -55 18 10 26 4 -34 13 24 26 74 2 25 -42 39 -24 -23 57 22 64 56 -45 -62 -65 -12 -19 -22 -24 44 -16 -21 -20 54 43 -34 -9 52 -5 0 19 -43 -7 -60 -19 22 32 -21 33 -78 -40 33 -30 16 3 -95 23 -8 -40 -7 21 -21 -23 63 63 4 22 -2 -22 23 -46 43 -59
36 -70 43 -8 1 54 55 49 -21 -6 -4 -19 -71 52 -20 45 -70 -31 30 18 15 17 -13 47 -32 -5 -41 -20 4 92 -18 -8 -75 -68 50 52 -16 -49 -7 -59 2 -22 -23 -81 16 -2 -2 -44 -52 -5 12 92 20 -26 -38 72 42 -9 51 82 40 25 58 6 31 -68 -35 26 3 33 -80 36 -66 0 5 8 -58 2 105 9 1 40 -2 33 53 -6 24 -28 7 46 -3 4 14 -11 28 15 -28 7 20 2 0 -17 -80 -16 8 -4 -45 -8 8 -127 -1 -34 47 -48 -34 -30 43 -41 -39 -6 43 -7 2 -46 13 19 -94 5 49 -4 -5 4 -25 -14 -25 -20 56 -2 17 31 34 -103 21 92 -18 5 12 26 -16 35 -8 -102 -32 -32 39 14 23 -64 15 39 36 -27 11 8 27 23 93 13 -61 22 29 24 33 -22 -45 14 71 -9 -21 14 78 14 -55 30 15 0 -24 43 -44 -45 38 -53 -17 15 -56 -4 8 45 18 -16 -86 -15 -19 -8 22 -79 19 8 -25 -24 -51 -62 -50 46 -75 -62 9 -5 14 -9 117 -12 -23 -37 -2 46 31 -75 -13 -7 4 -56 -7 20 17 61 -11 -2 -33 41 -13 86 35 -23 -66 -31 55 71 -3 14 66 17 -39 -60 35 -25 27 10 21 7 -30 -53 24 -63 -10 -2 -24 44 -9 -20 37 -10 -34 15 -12 7 47 -6 -2 -25 9 -58 45 51 -19 -11 13 11 19 12 -11 21 -32 -36 6 2 16 -2 -20 -41 -8 12 4 24 15 -73 -15 13 4 -71 31 -20 7 -12 67 22 41 21 84 24 -49 -24 3 41 -11 24 24 -19 66 -38 2 3 -15 -3 -7 -42 21 -50 -25 31 -46 -32 13 39 -7 -53 -75 -6 -1 18 25 14 -11 4 1 25 -22 5 24 6 74 -13 -27 -3 -10 -41 -33 7 -58 -49 -36 41 8 -56 -77 7 19 -36 -40 -8 21 55 -41 -42 31 7 37 -29 -22 -91 -47 -16 -26 -38 21 -37 -24 -39 -61 63 8 49 -102 0 -53 2 0 9 29 11 42 -66 -33 1 18 -9 -29 -11 -13 -12 -51 0 -12 36 -5 88 -51 -43 22 57 -34 53 31 -43 11 39 37 3 41 -19 39 18 -34 20 -19 -120 43 3 -22 -19 -24 33 -1 11 50 -66 -4 -9 5 -78 -46 67 21 -27 17 52 -11 -33 55 -21 -17 18 33 -31 -52 -33 -28 16 -15 3 -20 -63 -34 30 -11 61 -78 52 -59 28 -6 30 2 -20 0 10 2 48 5 -13 24 10 -42 39 -55 20 -7 56 -28 15 -102 -25 29 25 -25 21 -44 -65 28 -10 3 16 -68 -70 35 -51 -29 84 42 35 6 10 -49 -81 96 -52 21 -14 0 25 38 5 68 12 12 -13 44 -19 -8 5 -29 -2 -121 -10 -41 -17 21 -15 19 38 -25 -12 -17 -12 -25 -9 39 9 -36 74 28 36 -41 2 -56 -66 9 -12 -77 107 -7 -45 87 -35 -10 -42 40 -8 0 -30 6 58 49 21 31 14 -61 -11 -12 29 7 -11 34 -3 12 -26 14 -37 0 -77 9 -10 46 42 17 30 -89 35 -1 70 -53 45 2 8 8 -17 -21 -31 -26 26 -37 24 67 -2 -10 -68 2 32 91 8 -27 -30 -25 -43 29 41 19 -21 -17 -5 38 55 35 21 74 -9 -13 -19 -43 3 -4 36 -28 -23 -20 -20 12 -39 13 -30 -72 1 19 74 -40 -25 -17 45 53 -30 -27 29 -31 -5 -52 15 28 -26 -64 -9 71 63 -30 -33 -52 43 101 -65 -16 20 54 47 -13 30 8 5 -51 27 7 35 -4 38 -86 -36 8 8 2 82 20 4 -21 43 -59 57 -3 25 66 -40 16 -59 -14 0 52 27 9 -4 24 -7 -78 -24 -8 50 22 52 2 -32 47 6 -63 -3 -25 -15 -41 26 63 -60 -6 45 5 38 -17 -13 -44 -67 8 2 18 -25
16 48 -15 26 -10 -25 -35 57 10 9 26 -35 36 -19 27 24 -43 -11 -4 -47 -33 -5 13 -3 8 -41 15 76 16 19 -66 36 6 64 -21 22 -86 70 -33 0 33 29 -37 67 23 -37 40 -4 -80 55 13 21 -20 9 0 -12 -31 41 -3 -71 66 -7 -49 14 13 -65 -67 8 -24 107 -32 -32 -14 -65 53 15 36 -2 49 17 12 23 8 31 7 52 55 -8 0 -30 21 26 7 26 19 -19 -7 7 5 -28 -5 0 -3 -38 13 -17 42 58 -5 -28 3 21 29 21 -38 101 -68 22 -1 23 9 26 -3 33 41 -2 -13 -26 -2 11 -48 -4 59 -53 -5 21 7 41 -7 -33 10 -4 34 -5 29 -6 73 -49 43 38 76 18 -49 -13 31 14 -38 -20 -31 -7 -9 40 -43 8 33 -10 -12 47 71 7 -11 10 -34 -83 -38 -26 -9 -29 14 26 3 32 -14 -20 -29 13 1 27 -52 15 -24 -20 22 27 -3 46 -10 -107 -60 25 -40 -12 2 -11 50 10 -21 7 -2 3 0 -2 14 32 10 37 -33 5 1 2 2 -52 -52 -20 47 -46 -56 -37 -12 13 -44 -9 -46 -4 -22 30 4 44 7 6 -7 -28 14 -2 25 -33 26 -21 66 -1 33 3 1 84 -24 7 -45 30 -38 -19 3 -29 53 6 -22 4 0 -20 -70 17 -4 -12 -33 -43 -51 -11 -11 20 -3 -25 71 8 -55 53 -49 57 -9 -40 -34 -53 -24 -3 -127 75 -15 14 -14 40 16 -6 2 34 5 -44 -14 -43 -15 -66 26 6 -19 -26 15 6 -14 17 19 21 -37 -75 -6 9 18 -11 -6 71 -14 1 11 -20 -2 -4 59 13 -18 19 4 -34 -52 -22 -10 -11 4 -1 -59 18 64 29 25 6 -54 -14 -8 -46 -7 12 -3 -44 -35 -10 -38 -23 -25 -5 -30 19 32 28 1 -19 -32 28 -10 29 25 -31 -16 -43 -32 -2 31 -44 -2 -31 36 -42 -20 -25 63 13 -20 10 -69 -19 -2 33 -18 -7 6 -8 42 20 16 6 10 17 30 36 8 -27 -17 -64 -3 31 20 -33 -27 -14 10 9 8 49 35 24 -19 -17 -15 -20 7 -28 12 45 5 9 36 -42 62 21 9 19 -58 -15 51 -32 5 -35 -1 85 -38 -29 23 -51 21 2 -40 -7 9 67 30 22 60 -60 -10 -34 16 0 -75 8 -15 32 -22 23 -65 36 63 -36 -35 -28 9 40 -7 35 11 -121 -36 9 -22 -17 -32 -30 -15 -10 7 22 1 21 -5 93 29 6 -21 -45 45 44 2 13 5 -14 -34 -36 64 7 -25 112 -55 -31 -57 26 28 -32 -11 -37 -82 -12 -3 25 -3 33 -28 23 -33 40 -40 27 51 38 4 3 11 9 22 47 13 37 12 15 1 -17 37 -33 23 0 -41 56 -51 -23 39 -23 -1 19 45 24 -32 80 -85 -29 66 -11 26 -65 -1 3 59 -5 -35 6 -58 -1 6 -20 43 6 -28 11 4 -78 43 5 0 -7 -66 -47 -19 -7 -16 3 -3 59 -79 14 91 -6 -48 19 -14 35 6 -43 34 -8 53 20 -10 8 31 5 -22 -20 27 26 21 -16 35 110 0 27 13 36 14 -24 2 -70 -43 -24 -29 -19 75 -34 -3 13 -34 20 -44 -1 69 17 -7 15 1 -21 19 -9 28 42 31 -18 -8 47 -3 -53 -48 25 -47 13 -25 -18 -17 28 65 -61 24 25 19 0 -1 -50 -3 -41 9 -35 -2 -29 -35 -18 -24 -42 -68 13 8 -14 43 22 46 -78 5 26 -4 -52 55 -3 -5 50 -15 -75 9 -34 31 37 70 11 27 56 8 -30 -16 49 7 64 59 -34 26 -1 -43 -23 78 1 -24 39 42 -10 -16 -6 18 -17 10 -34 -5 15 -49 -27 -27 3 -7 -65 55 69 24 2 8 -8 21 -16 -15 3 14 11 11 -31 18 -14 -19 -32 14 -35 8 29 3 -40
-25 -20 36 -53 34 -38 45 2 -30 -9 44 -55 6 15 -25 4 8 -10 126 0 -10 -10 30 -23 1 12 0 -44 -8 -87 36 37 39 71 -7 -23 44 -1 -18 15 31 19 -86 37 -25 17 32 10 -27 -3 31 -39 -51 -9 -4 -59 8 -28 -29 -56 -61 -9 77 11 -49 17 52 -11 17 -20 -94 -30 8 -32 -37 32 59 5 41 2 35 5 -14 -56 12 12 -53 -44 11 14 64 -7 -37 53 -16 42 14 -25 -56 -45 -29 -69 -3 8 -5 2 -39 -48 -36 7 0 -9 -40 30 -8 19 -15 -6 9 8 58 18 -7 10 31 50 -44 9 -69 38 -41 10 48 12 7 3 2 -47 47 -58 -13 16 -40 23 -19 -5 -7 -31 -22 -19 40 -27 -13 -17 96 47 -86 -20 64 48 -24 -19 -29 34 9 -37 -18 19 -46 45 -76 -15 -17 -27 -68 62 -20 46 -80 -5 5 -18 25 -18 -9 11 -41 34 -34 -70 20 -55 -9 9 14 10 -73 -8 -69 51 -58 32 11 20 11 22 -42 -64 -31 1 30 11 23 -18 -28 -33 17 -10 0 -18 21 -17 -42 61 15 37 -14 44 2 -16 10 54 -15 45 -24 -39 -27 -85 -24 -47 34 -52 -15 -9 1 -12 36 -47 42 -33 32 -36 53 -65 20 -8 -28 -12 41 36 24 0 -8 14 4 -74 -63 -68 -21 -21 -8 -41 -28 -48 -14 36 -35 -21 3 6 -7 45 -3 18 47 -4 -23 74 -11 4 -66 2 6 18 -44 -92 38 -26 -6 -9 -18 -52 -43 21 61 2 -34 -5 -62 -94 18 -2 27 -5 -61 15 29 -18 -11 -7 -15 20 63 29 34 -26 10 11 22 -114 -6 -57 19 -51 -23 -38 9 -59 6 38 18 7 -65 20 -29 -74 -15 -111 14 -41 -76 -3 38 -49 -51 -7 9 -51 48 19 -2 -10 -33 16 -15 61 48 6 37 7 -88 -50 11 73 47 3 -6 24 8 49 14 -7 -27 -1 -19 -18 37 25 -27 -29 -27 -72 -36 37 -51 71 -101 -25 11 -34 -13 31 -30 -11 -60 -73 -45 10 -14 14 2 40 18 -41 -10 42 -12 -9 -59 -57 4 60 33 15 -8 55 -29 -29 -43 -30 -25 73 -1 36 -42 9 -48 40 -15 28 -47 78 -8 -16 56 1 -50 -24 11 -12 20 12 -32 10 -11 -45 70 -27 7 -31 20 0 -80 68 -86 77 -32 -5 -56 -28 -45 60 -14 -45 -19 61 -35 -31 -1 -12 -6 -30 -52 38 14 7 55 -34 -16 -35 -78 5 21 19 -2 -11 -3 3 7 -25 -41 -78 -64 -22 7 -42 -58 -41 -29 -49 -26 -91 -39 -22 -46 -6 74 46 44 22 -30 31 65 86 28 -94 -27 21 0 -24 -64 10 -12 7 -19 -30 -53 -1 -16 -65 59 92 16 -18 4 -37 -18 -2 -27 -21 38 -10 -17 15 -46 -52 -29 22 26 32 -34 -8 -14 23 -51 -2 -45 -9 -25 67 46 64 -78 -9 45 16 5 -14 -80 -21 -1 -59 -4 -1 -16 38 -24 -11 0 -2 -22 29 -80 -43 32 -71 -47 -33 9 -74 -15 -18 34 -15 0 5 -42 2 -27 -18 -67 -100 -8 16 36 -30 -74 -68 18 -12 9 -20 60 35 -4 -17 -6 -3 -53 -17 19 -43 68 8 45 5 -88 -32 -70 -24 24 -84 76 52 22 30 7 -26 -72 66 -43 39 27 -16 -55 -40 8 -31 48 23 -23 55 -2 -22 -10 -124 26 -1 -66 3 20 63 7 22 -97 -38 -9 -33 -63 -5 15 -26 69 -44 -34 -14 -19 7 35 -15 47 -44 -7 -55 27 74 -3 23 69 -1 33 -3 25 -51 -28 -45 16 12 17 -2 14 -17 -36 0 -55 24 -105 10 12 42 -17 12 -6 -65 29 -15 -77 -56 -10 45 -22 -11 22 15 -8 -21 -24 -9 -97 -36 53 3 -90 23 -21 25 -15 -89 22 -33 -16 27 37 -12 -38 3 15 -35 -83 -83 75 -11 -53 58 3 -2 10 -105
37 -35 28 -10 0 -28 -57 45 25 14 8 37 43 36 53 -2 -5 -16 -54 -20 -28 -17 -11 -46 -27 14 18 -9 -1 15 -23 50 15 5 62 42 57 -42 -2 15 -9 17 -5 -27 40 -36 -59 5 2 -15 34 19 22 28 40 27 45 -48 -44 -16 10 -5 11 -1 34 -33 15 2 67 -40 25 40 47 30 11 -24 -37 2 -29 25 28 -21 19 -36 56 -1 10 18 76 -11 -19 -58 -45 5 -63 -16 28 19 -9 18 9 -18 32 -14 -1 14 10 77 16 19 -1 -24 40 8 59 7 54 -1 -25 -30 -37 3 -50 11 -23 -31 26 0 -4 -21 8 7 17 -9 59 57 50 19 57 42 -21 25 -32 16 41 39 10 -29 35 -66 65 57 -8 24 -5 39 -25 6 6 -28 29 13 -97 16 14 46 50 22 60 -40 1 -41 -66 25 2 26 -51 1 -27 78 17 -33 30 -24 -5 -16 42 -8 -10 -4 21 -42 -40 2 -39 -79 -28 63 -24 -26 19 -21 -26 21 -14 8 -18 20 -36 -16 1 -8 33 -28 -24 -7 -3 -7 4 -8 -41 -12 -4 -24 -15 -28 22 -15 -46 -14 63 16 13 -19 -67 0 18 -26 43 2 9 -61 3 30 -27 -11 108 -24 -9 -1 20 -31 -113 20 -31 32 -9 -21 -74 25 78 9 -64 -18 -31 39 -25 -3 -32 30 -4 -29 -43 -17 -63 41 31 0 -21 -7 6 3 32 7 -67 -39 3 -6 78 -9 -11 75 16 -25 79 -46 70 36 -47 -20 5 -68 28 5 34 1 -3 2 -2 -5 18 -30 -45 -23 -2 -20 5 87 4 39 -13 -80 42 -33 -25 -17 -58 -7 13 -28 5 15 -13 -42 -19 41 30 -14 -93 12 -3 10 -46 31 9 -20 23 -25 -42 -2 0 -19 11 -57 -21 -21 -41 61 -23 39 22 12 -27 20 -7 -36 0 101 43 -22 16 22 7 -9 -16 44 3 -109 51 0 -50 -36 36 54 -36 -48 10 16 75 -37 -55 26 4 -10 -54 4 10 25 -14 7 5 27 69 -15 -30 1 -29 -6 -12 -23 -30 35 2 3 33 -16 8 -17 -22 7 31 3 5 29 47 -55 43 59 -59 12 -62 -51 30 -41 -22 -13 -39 23 28 -1 -3 23 -21 -31 8 -30 62 -60 -37 55 -21 -18 35 7 -16 -11 14 -13 10 21 3 -8 17 14 -2 30 21 -19 52 -6 -7 -10 31 28 -38 -82 -74 18 -19 2 48 15 3 71 35 -27 46 20 -13 -11 -8 37 18 -16 3 16 -1 45 12 -51 -13 -30 36 -54 16 2 15 -44 20 37 12 -56 14 21 11 29 29 -9 -21 -6 37 40 27 17 -54 -57 33 -54 44 50 -28 -10 41 35 6 4 -44 10 37 -9 22 -1 45 1 15 -8 -27 30 -19 -44 -42 -1 -3 17 49 -33 -44 -25 -52 51 -28 -20 -16 -92 -36 19 -7 55 32 25 -15 6 15 -31 -29 1 -69 36 35 27 -48 -9 34 94 -28 31 8 -4 1 -3 1 -27 -42 -29 35 18 7 47 112 -19 -27 -38 -22 -27 2 26 27 -12 -32 -31 4 25 22 -49 37 -15 13 75 0 61 19 -5 -30 -25 23 -33 52 34 52 -6 26 43 126 -28 32 -24 -53 14 29 71 -36 -36 9 -44 28 32 3 -29 -42 25 -86 6 3 23 9 -5 15 -19 -28 -12 -36 -9 -10 5 -16 -4 26 42 -12 8 -48 66 36 11 7 5 -7 -17 4 3 31 -41 -9 13 -34 -2 18 -1 -38 21 -12 62 13 11 0 -69 12 1 7 9 7 -18 8 5 44 31 -9 -25 -45 -5 -18 15 -37 -25 -59 16 -23 -22 17 -34 8 17 -80 10 50 41 -54 -21 -26 -22 46 -13 20 6 31 14 24 28 -7 6 -15 0 10 40 66 -14 -48 16 28 12 21 -33 -5 -4 33 8 47 4 19 -10 -17 -22 -30 -8 19 34 8 -20
6 41 34 3 -15 43 -35 30 -41 -28 -15 -41 -6 27 60 -14 12 126 -68 13 -19 33 56 19 36 -25 -11 -36 17 -8 -4 37 -49 -6 -40 -7 3 -4 -46 6 -33 -25 -44 -29 -45 -2 -9 -20 -27 -61 22 34 50 -72 67 30 16 11 -51 -22 35 -11 24 -46 -38 -39 -26 -34 74 -60 18 -36 28 17 37 -29 -72 -4 37 -9 -22 12 2 -17 -17 24 -10 37 -33 -65 -51 8 13 14 -62 -39 -34 -11 12 20 12 -36 -29 4 -28 -27 5 7 44 -16 0 15 32 -65 -41 57 -78 51 20 33 -41 29 -26 -15 -16 -55 -6 -60 -25 -10 27 -24 -3 8 44 -59 -7 -20 10 23 49 -1 -64 -22 -39 6 11 61 -7 -109 -35 11 -26 20 25 4 7 0 -124 9 -14 64 56 -23 36 -11 -9 -46 -42 -37 15 -29 35 85 -14 79 15 -9 43 40 7 27 -34 -88 11 -41 -36 11 -48 -27 -72 30 4 15 -12 22 24 13 -34 -25 -4 25 -9 7 -3 -20 33 -13 -12 -41 10 29 -36 23 -16 22 5 -10 -53 -11 -7 -15 16 -19 -11 -2 -12 6 31 12 4 15 6 -34 29 33 20 -5 -35 24 -14 26 -34 -51 -19 -26 -7 35 38 -17 -4 64 57 -50 51 4 1 -64 68 -8 25 -30 21 -28 21 20 -22 -16 71 -56 29 -73 67 24 24 -85 -12 -34 12 -16 -53 -23 -3 -1 73 25 12 -9 -68 -59 30 -43 -39 -5 87 72 -8 28 -58 18 11 15 -19 -49 56 3 3 -68 45 15 -16 20 14 -69 6 -4 14 53 -24 8 64 7 28 -63 51 -93 -8 12 47 49 -3 0 49 25 -26 16 -5 29 -22 -57 -33 -5 60 78 25 24 39 3 44 -4 -55 58 -9 -77 10 -8 -5 -117 10 -12 21 7 14 -51 26 -45 6 -23 -5 -35 9 -7 -14 -55 14 29 2 5 1 -63 -20 -16 77 -110 -70 -36 -19 -36 -10 -45 -71 -12 77 -14 -27 2 13 8 13 -37 -10 2 -15 -1 -11 -12 -26 8 -7 19 33 76 0 -42 -15 -74 52 8 -27 13 51 9 16 29 -23 31 2 -49 -12 58 -60 22 -17 47 -21 14 1 -60 -17 -18 -39 9 -35 0 7 -55 -8 -2 4 59 -48 57 32 -7 3 59 -13 -18 3 8 21 -11 33 35 -1 -13 -89 7 12 -95 20 -45 117 -3 -64 18 -14 60 -55 -59 -27 -2 -93 1 -31 -82 -1 24 15 35 -16 -25 -11 -37 -2 12 2 39 -2 -4 44 -110 12 32 -38 -17 -56 23 -93 -25 -1 -52 -47 39 26 -22 47 -37 -13 -31 0 15 19 6 -35 69 -28 12 -13 62 4 51 13 32 -3 -19 -51 35 19 -23 -31 23 -84 -17 -9 -13 9 35 95 -33 -24 0 -20 -41 27 -25 73 8 -8 32 -9 -23 -35 -20 -15 23 -4 51 -14 -81 1 9 -60 23 -37 -35 -23 -15 -36 -76 -5 -46 10 -2 23 -20 21 61 -1 57 4 6 4 -3 -11 64 -46 -61 31 -66 64 -17 -111 -65 5 -3 -24 9 26 8 -102 20 -35 -8 -50 54 58 -12 42 35 -10 69 -65 28 -7 -39 -24 54 31 15 6 -34 -41 -42 -25 -42 -8 -1 40 -31 -7 75 69 28 -9 7 -83 15 -2 -22 -42 7 28 79 -53 43 -19 -35 -39 -19 41 -7 -29 -49 9 -11 79 57 7 24 -39 44 -6 -22 22 -54 -18 -63 2 14 25 -2 -27 43 45 13 90 -45 -35 -74 -2 0 -11 -6 -23 54 -45 37 -47 6 -61 -5 -35 13 12 -21 -111 -36 -125 -10 -111 -2 8 5 -114 -16 0 -47 -18 65 -4 -18 -45 -14 36 -39 -1 -15 -20 -2 -39 12 24 -9 7 40 2 -1 29 49 2 27 1 25 -59 -1 -47 -68 -69 2 -60 22 -3 -5 10 -95 -19 -10 -36 4 -11 23 18 45 -51 41 11 -31
2 5 50 -7 -16 -16 27 27 -8 -24 -21 -22 16 27 12 -8 13 26 30 16 25 -14 -22 -31 30 8 7 5 -34 30 -25 36 -47 14 -4 31 -44 -61 -10 -1 21 5 19 -67 -16 -14 -6 15 18 13 10 51 -21 12 44 -47 8 66 -8 40 43 -2 3 11 12 -25 7 -18 61 29 -20 26 -37 -25 -51 24 -1 0 40 -17 -10 -98 -12 -5 -4 -1 44 53 -12 18 -4 28 10 10 2 18 11 -8 -3 13 16 -13 0 25 -1 -10 -37 -53 16 6 -2 20 41 29 39 -21 -9 10 41 13 -8 31 -33 48 -4 -7 -2 15 -46 -62 -15 16 -42 20 52 38 -67 26 -29 28 20 -1 -27 3 18 -3 11 1 21 -51 59 56 66 42 -5 -27 3 -5 -34 6 1 -1 -6 29 46 3 -3 -31 -7 23 33 -20 -47 24 -8 -13 -22 12 -15 18 63 -11 1 -11 -7 3 11 53 18 10 -6 10 -21 -12 46 29 -6 14 -14 -9 31 -54 -7 15 3 -55 -38 1 -35 18 -29 -3 -40 17 37 -56 48 3 31 0 4 7 -6 16 14 22 -14 -25 43 -63 1 -45 1 -55 -11 -45 6 -45 36 7 -3 -3 22 10 0 -9 86 -11 -12 33 -29 45 -21 -43 18 -14 4 -6 33 33 -7 -20 -36 35 -29 -46 3 18 -58 -29 16 17 -3 -42 -20 -26 -35 14 33 44 19 -19 21 12 9 25 27 -16 0 -25 23 -4 -25 -25 34 35 -7 -16 7 -5 37 -1 -15 -23 10 -60 10 -44 35 37 11 -69 -21 62 28 0 14 34 7 11 -1 -43 -17 34 6 37 20 -21 80 -40 -2 -37 -27 -9 35 -40 -8 -35 6 62 58 24 40 28 11 16 30 68 -11 -21 36 69 24 -23 -47 22 0 40 -36 -15 -23 -23 13 16 42 -5 3 -54 9 0 0 -25 15 -31 -24 -47 35 24 45 62 32 20 -38 0 -1 -41 -20 24 27 22 -47 -31 -23 -15 55 5 3 16 57 -41 -8 56 -21 -18 -63 -66 51 50 -31 -5 22 60 -33 -7 -8 40 -61 42 -27 12 39 -13 30 21 -2 16 -29 -33 1 -9 68 -29 1 2 7 -33 25 3 23 17 76 11 14 -13 -33 -46 10 24 -25 35 -54 -12 4 -7 -8 -12 -24 70 7 14 18 4 8 26 17 9 6 7 15 -27 -15 24 12 -80 24 -7 11 6 -16 -48 -20 11 -3 29 -6 -31 -26 11 -1 9 14 7 36 -18 1 76 -3 1 -23 24 40 -21 -55 -25 10 1 26 12 -28 -4 -1 -12 14 25 -9 -27 -50 -26 35 -18 27 -51 46 27 11 -9 18 -6 -36 8 50 14 57 66 -12 22 77 14 -18 -11 37 47 21 -10 15 5 -2 -3 -33 118 4 1 -5 10 -7 62 -35 34 -4 -2 29 9 3 -42 25 -11 25 33 53 12 -23 -49 -16 35 -8 -38 -40 14 5 63 -28 -13 -12 22 -10 57 43 19 0 10 17 15 -39 25 45 -22 5 47 6 -45 24 14 20 19 21 16 20 -16 98 -19 8 -19 -21 21 28 -8 14 -64 -22 -57 16 -11 29 10 8 3 -56 -24 53 58 -43 56 2 47 -66 -30 -2 16 -47 -8 -8 -53 -38 -17 -33 13 -45 20 -52 -10 -19 -11 19 21 -6 14 4 20 1 27 -3 -50 8 -23 31 6 -32 9 25 -60 14 17 -26 -20 6 -10 1 37 -41 -6 19 -44 10 25 5 12 0 -41 24 36 10 -1 15 18 28 -18 -38 31 -86 -14 45 25 34 65 37 25 7 -17 24 21 -14 -27 77 21 -42 1 -63 -4 1 -12 52 -30 -3 11 -40 -67 -4 -30 45 -22 13 -7 -11 39 34 17 -127 -31 -29 4 19 -46 -29 30 60 -19 5 16 -47 -13 -33 13 3 47 -52 26 -30 37 -4 14 -15 -22 -4 39 -31 -50 29 17
16 41 28 -14 1 41 69 80 -74 -20 17 -30 -22 -17 12 -3 4 5 -1 -30 -24 -6 43 -15 18 -18 -14 33 86 37 -22 20 -90 2 10 38 60 -25 -27 -18 28 0 118 -60 34 -33 21 -21 47 15 13 41 29 16 54 40 81 0 13 35 6 -4 36 3 47 22 61 24 -21 6 51 -33 -36 -17 -12 18 78 -2 12 3 -32 -19 20 32 66 56 64 -72 99 -59 18 28 30 28 -29 -22 -57 -1 -2 -90 19 -6 -45 -16 17 -49 -41 55 -45 -56 1 62 -59 -4 -12 -18 -23 -28 -13 33 1 -35 -18 -36 29 -26 11 -13 21 21 86 25 -55 15 -16 -4 44 -48 -43 17 -47 -4 38 -18 0 -22 4 25 -6 53 33 -9 22 -78 -9 32 -11 -8 38 12 22 -9 -67 -19 -40 -35 -68 65 -7 28 -33 -44 -10 62 1 55 -35 10 -46 52 14 -33 -32 -51 76 -3 -32 -7 -12 -1 0 27 -84 11 34 15 38 -7 1 -26 15 3 1 -14 -79 3 -30 34 32 11 25 -13 6 6 -1 41 56 -8 1 0 19 44 14 -8 -10 43 12 75 8 46 81 -64 -61 -46 -49 -46 -5 -15 45 -33 1 16 -22 40 75 -10 43 0 -64 -20 -27 -50 6 -44 -20 61 13 8 -8 50 96 4 0 -8 -10 -19 -3 -55 49 28 -38 -56 65 -8 30 12 -14 -39 -29 -57 -2 -91 14 33 32 27 15 -15 12 -3 -15 -13 -13 -17 -61 -26 -37 39 -65 -45 -19 -5 2 -16 15 69 20 -7 39 33 28 -13 6 30 60 43 13 -9 -21 -54 7 -62 -3 -35 7 10 -12 -16 -30 29 -1 26 23 30 -37 61 18 -41 37 -11 14 17 2 14 -29 1 42 -43 -76 -42 -8 58 -27 51 13 81 20 -44 42 -12 -10 -6 21 -3 100 -16 43 -62 1 60 1 -11 10 29 -40 68 27 63 -55 26 48 6 -57 -10 -50 -21 -45 4 -8 -1 -58 -10 15 36 4 32 -25 0 -21 30 0 -51 -13 6 13 -31 -3 -26 9 13 -28 14 18 77 -46 32 2 -13 -70 23 -57 10 -19 -42 8 -17 -20 -6 -18 -12 43 -63 30 12 1 23 14 31 5 -19 -10 -22 -9 6 -35 23 -6 -54 59 -22 -30 -21 -58 -8 0 42 97 19 -106 38 -29 16 23 29 24 1 26 44 23 -33 -4 -24 -19 25 -23 21 45 13 -54 -61 37 31 12 59 -46 -11 40 35 -20 -7 -16 -2 -19 -55 -1 51 8 12 -36 -29 7 -8 -5 45 31 32 -5 0 6 -41 38 -14 12 -25 -6 30 4 5 -3 19 2 -9 -35 77 -33 46 21 -37 -3 34 34 10 -39 21 -35 47 -63 -47 -11 4 -12 20 6 -41 43 24 10 -2 0 8 -28 3 -14 35 -7 -57 -61 -39 -49 16 -58 21 -19 13 -61 -5 42 7 19 26 13 35 23 -21 44 -32 -8 -2 -7 41 0 4 20 -58 54 -7 -38 -35 -1 71 -9 -13 11 126 8 26 16 61 46 28 -28 29 -6 95 -41 -47 -12 -12 -25 -1 5 11 32 3 -56 -15 12 -14 24 6 25 20 -22 -8 10 -23 32 -22 45 67 4 -39 62 2 -40 62 39 -55 -43 11 14 68 6 29 -51 -89 22 22 -31 16 -23 -27 -4 -9 -43 -20 11 49 32 -39 -44 -73 2 38 -21 -22 84 -57 47 27 -34 24 10 4 -52 72 43 23 49 12 -24 -21 23 20 9 65 -14 -11 114 14 -21 20 4 -64 -96 -7 -11 -6 -29 -21 8 93 0 -17 -35 80 29 3 63 -51 53 3 -55 55 -29 -23 20 -53 40 -1 18 4 22 -66 -67 -19 27 30 14 21 -17 22 19 2 32 13 -41 24 -21 7 -26 40 20 69 7 -14 -26 25 10 -1 9 -35 -14 -37 -77 19 27 -96 -62 -73 78 33 96 11 6 27 -72 -5
-24 26 -33 56 -25 17 63 24 -18 50 55 36 -70 23 -8 -14 9 -51 32 26 66 21 46 -15 -56 64 76 -1 24 73 62 10 38 -11 -27 -4 76 -10 -5 -78 -16 23 51 3 -15 -45 1 -36 30 26 29 30 -22 11 17 2 -3 -10 -65 75 -6 -4 41 17 64 44 -46 -21 20 -55 34 79 35 -9 22 30 25 3 -16 22 -29 11 0 67 -63 10 -34 -4 35 -6 36 9 15 46 -15 62 40 0 40 29 -13 5 -31 2 -79 35 113 -24 21 -19 6 -36 -35 42 4 -18 1 37 44 69 0 -6 -2 -7 81 40 76 -76 -12 39 50 23 -8 0 21 77 -47 -54 -16 -84 28 31 -7 21 -1 36 -86 20 33 9 21 14 34 -1 4 -5 24 -7 7 8 -54 7 6 20 -15 17 5 -68 -2 -31 -49 -5 -58 -52 -24 -49 3 -25 -29 27 -127 13 38 42 -3 42 -21 -39 -11 37 31 -29 -13 7 6 -8 37 36 51 49 7 -14 -11 -4 -12 -6 8 41 19 -35 69 0 -30 45 -7 -7 7 -10 18 -19 30 65 41 -22 -48 -31 6 15 20 1 88 -31 -31 16 64 41 -9 74 -61 -36 4 34 22 -37 -7 -34 -12 41 -65 40 36 -7 21 -28 -20 21 46 49 -4 7 41 9 3 35 0 10 -43 93 -22 2 -1 16 27 -3 33 49 6 -16 -1 24 4 -48 40 -44 2 -25 37 -10 45 -19 -48 50 -1 -70 -43 11 -17 -38 25 -12 -57 19 9 -44 31 -19 12 5 -70 -24 1 31 0 3 -21 -19 -34 -27 17 -4 -3 2 53 -6 -15 -64 -11 -52 19 -44 1 -21 -5 -44 -34 39 -16 -11 11 3 43 11 -3 28 -16 16 49 12 10 -56 10 -52 38 49 -10 -7 -16 10 -23 -30 26 -23 44 -25 63 -31 18 -2 -29 -11 3 -55 1 -13 15 -41 9 81 -46 -69 38 -38 -33 -1 -47 -24 -77 -9 -53 -20 -42 -15 -34 -45 -20 21 4 15 -29 22 -34 23 12 5 27 24 64 11 43 -19 40 -54 39 -32 43 -22 -22 -24 7 -25 -20 2 32 -2 86 44 30 -64 -3 32 -3 -26 -23 13 22 -28 59 40 7 -35 94 -22 13 -29 -50 -17 34 28 65 41 -32 25 16 -7 32 21 6 -12 -9 -10 13 -23 5 5 14 8 -20 31 24 -3 9 18 65 20 -52 20 -31 17 28 -37 22 0 -18 87 8 -44 8 16 -10 3 31 -66 -8 -13 3 12 -2 -13 -23 -10 -23 -38 -50 40 18 12 -37 1 -1 21 4 -1 24 -8 -9 -83 19 -82 -17 6 95 88 -22 -3 -17 -18 -29 -41 -40 -21 -14 12 55 -75 1 7 -33 50 41 -27 -13 58 59 12 26 -35 22 4 -7 -71 37 -1 -38 32 21 -21 -15 17 -2 -58 23 29 30 -32 4 49 14 -55 94 -54 7 46 31 -11 12 -3 34 22 8 -3 13 -3 20 33 -39 24 -18 9 1 23 11 46 -26 -10 -37 -25 39 28 47 0 -31 19 -67 -8 19 32 53 -18 4 -14 2 -29 54 -21 4 33 29 -27 20 10 -2 -74 62 55 -13 -40 -86 70 30 16 63 0 26 -15 63 -15 41 2 84 -37 50 -11 30 -26 -16 19 -22 40 -92 51 -1 11 23 58 68 -29 17 53 -55 34 35 -33 20 -4 1 33 -15 52 80 14 6 -77 11 32 6 -32 -11 -5 -22 37 2 -21 90 -47 66 6 -52 -13 -25 31 65 88 67 -28 -21 20 -2 -73 -25 70 -61 -53 54 -96 9 -7 79 57 30 15 -21 -11 -39 15 29 -23 -5 -7 -9 -10 42 -6 1 8 -43 89 20 21 25 -49 -17 -17 -6 -10 17 -43 -41 37 -30 12 5 -42 27 8 -18 71 87 -13 56 -27 -1 0 -20 11 7 -49 34 50 32 -3 -15 26 -18 -22 37 69 12 -45
16 42 32 -41 -6 10 -36 46 -24 -46 -4 -44 7 16 -2 40 -24 -25 -30 35 26 45 12 35 -80 -15 -46 -45 -2 -10 63 73 -34 -59 -1 -20 68 -41 -10 2 12 21 40 -33 -65 0 50 20 9 -57 -38 -30 -83 -99 -30 -83 -21 -16 54 -17 -6 31 -55 45 16 27 -45 -28 101 96 -23 34 26 -38 18 -127 43 1 75 41 7 -26 -1 -31 21 -10 -52 -16 41 38 -39 -39 -19 15 40 -6 17 -46 5 -64 -5 41 35 -31 65 -50 75 -71 -5 -27 -6 7 -15 40 -20 0 -56 -46 85 -9 -10 -68 9 4 -20 -33 62 -8 -79 -7 71 34 5 -13 20 -4 -21 17 74 45 35 -29 -22 -8 -20 -63 27 62 17 -16 21 20 -40 26 -26 -37 13 -43 47 -64 2 -17 -55 -1 40 -45 -96 -3 -18 -60 35 -11 7 34 -50 -44 -69 23 -12 57 -58 -42 26 -43 -19 -6 -31 -47 21 32 -49 42 31 -22 42 41 -90 -36 -21 41 -32 9 -24 -23 -57 0 27 34 44 -17 -35 12 -50 25 -3 -46 -35 7 -12 5 56 35 7 -39 -17 29 4 -11 32 59 -6 -27 10 -16 -73 -6 -6 -45 -16 14 6 20 43 -17 51 -45 -7 1 -124 -48 -13 -19 -20 -37 14 -64 -34 1 26 -70 -103 13 -89 -37 -28 -48 -76 7 64 27 14 -19 -40 -28 -90 31 35 -53 -43 -19 -31 24 -19 -31 35 64 103 -11 60 -12 -42 -59 69 17 -18 -98 41 32 6 -37 -21 -30 6 1 78 -7 12 3 -32 -12 2 -98 42 -51 -3 -51 -64 -118 10 33 -56 33 -42 -5 51 -82 -26 -66 -41 -70 -4 30 -7 30 50 27 -30 76 -37 -67 -36 14 41 15 -95 1 -11 65 -15 43 62 40 35 24 32 -37 -40 83 -78 -37 6 12 -18 -41 -44 40 25 30 31 22 -26 -54 -28 -25 -27 18 -24 47 34 43 -24 72 9 -3 -13 58 -33 -64 36 -4 43 -5 -88 64 55 80 6 39 53 -33 -101 97 -70 17 7 -71 -79 -74 -15 5 74 53 6 -44 44 -69 50 3 -30 10 -6 49 12 -19 -3 55 37 -23 -36 -100 21 61 -31 -86 31 44 6 -27 17 -49 45 99 36 -35 -43 40 -72 -20 -18 16 41 -40 5 5 -97 8 21 -15 -57 32 72 -30 -7 -64 24 -29 -37 -36 24 22 20 53 52 -51 11 -26 32 21 -48 43 -9 56 52 92 -36 47 24 -40 39 -19 -3 -38 -32 -11 -1 69 -6 11 1 50 23 -34 28 -61 -47 -33 73 -112 48 15 -48 96 -25 38 42 -26 17 -32 2 14 11 51 -24 -18 17 -21 -57 -57 51 3 27 -63 2 -30 47 -46 3 19 -33 -20 -14 -38 22 -36 -1 7 16 -30 64 -24 90 -6 -73 -74 -50 10 -18 -12 -36 -6 -10 -3 -41 -45 -48 -89 50 67 -102 -22 4 -12 -51 -1 5 -34 21 51 14 -48 26 -4 -4 -26 -31 -54 18 -17 1 -4 -72 -88 -28 -25 -10 62 -50 31 -20 -8 4 18 -12 5 -23 44 1 -33 39 -52 33 20 -6 1 -7 65 -5 28 -44 7 8 -98 52 -6 17 -90 20 -75 26 -7 4 -45 71 35 -57 -74 40 -11 12 92 -55 35 8 -8 -49 -11 54 15 28 -69 -35 37 -9 -40 26 -27 5 -3 -4 2 -11 20 -28 -9 -52 45 -31 -10 25 49 -26 -24 8 43 -38 1 8 39 6 28 34 -21 -20 37 0 -14 44 -12 33 -2 11 -46 -30 53 43 -56 47 -6 -29 22 72 -45 23 -49 66 -16 -15 53 16 -17 -80 -51 -32 -98 84 43 70 -50 2 -2 -17 15 -6 14 8 -18 -59 74 10 8 -23 -25 74 20 -6 -13 24 -81 35 -48 24 -35 34 -54 31 -31 49 5 -33 -31 -5 18 5 33 -48 -42 36 36 -8 57 8 20 81 -36 -8 -10 37 2
0 -1 -29 4 4 -36 21 67 36 -10 1 -1 5 63 -23 -1 40 -12 -11 -39 -31 14 2 28 43 -1 -37 33 -13 22 41 60 2 -4 19 20 -4 29 -19 -24 -32 -2 -59 17 0 10 8 -10 -31 1 9 -90 2 5 -20 -12 -6 9 -28 33 27 7 -53 33 -32 11 -4 -55 -10 -9 11 -19 15 17 51 -33 27 1 -32 24 -28 -19 -1 20 -1 17 2 -33 0 36 -58 34 21 3 18 3 -36 -3 -10 8 -3 52 74 -13 12 -5 -28 27 32 -35 2 53 22 -7 5 38 16 23 -15 2 35 -21 6 -23 8 -15 -37 -25 4 41 75 50 -23 -37 33 -36 2 10 -7 -35 -46 -64 -6 -17 24 -31 -22 13 -5 -127 -7 -18 -8 40 3 36 16 39 43 8 53 -37 60 10 -19 -1 -39 25 -22 -12 -63 -9 -23 -36 -12 -12 15 -54 23 -13 22 6 -26 40 -29 48 -17 -40 78 2 -46 -49 20 7 -2 16 -20 -35 58 -70 40 -1 24 -14 -40 14 36 17 -48 -9 -21 45 -64 -56 -5 -38 -19 -5 -22 -7 52 -12 12 3 -14 48 42 11 -5 -23 38 -16 9 -16 41 -38 62 -47 -34 -46 22 -13 -6 -15 4 5 -48 5 61 -55 -49 6 -37 26 53 -5 10 49 34 36 -14 -17 13 -22 -4 0 41 -11 -57 43 -5 -12 3 16 -35 3 -4 -47 21 18 -49 -38 4 -65 -15 1 -8 -25 20 53 22 -13 35 -39 -40 75 59 -24 30 9 1 -25 -8 2 -12 11 38 44 21 -1 43 -79 58 5 14 65 7 -19 38 -12 -12 70 -21 33 0 19 -58 -29 13 27 0 23 26 15 -33 -10 -19 -10 19 35 2 -34 -28 -21 20 -17 -78 32 17 7 10 -36 -31 -3 -6 40 27 15 27 -56 -36 -5 -32 33 -99 11 -11 18 -50 48 -21 17 27 -45 30 27 18 45 -16 29 52 -63 -17 -20 13 34 70 18 -11 30 -30 -54 27 58 43 24 7 43 -48 37 -4 3 18 7 16 29 30 24 -56 -8 34 29 14 -60 8 -20 -21 -1 -14 53 -26 33 -42 21 -8 6 -30 15 17 13 -13 -26 11 -51 -4 -12 32 -4 16 -30 31 -38 36 49 -28 -13 -27 -37 45 -4 63 34 -19 2 67 6 -17 30 -64 25 13 9 -19 1 6 40 -19 -53 79 28 -47 -15 40 -9 -1 -34 -15 13 -19 -14 52 -22 5 -58 67 14 -4 58 -20 32 -1 -11 0 -18 -1 -15 0 -28 -1 8 -9 14 -26 65 -5 19 69 28 -65 -8 -38 -33 31 74 3 -5 -6 -31 5 -18 25 61 -25 4 -15 27 40 15 38 -25 38 -19 27 -62 -44 9 -53 2 4 46 19 10 -16 -38 68 31 -51 -12 10 16 6 -2 77 -29 -17 -59 -27 31 6 1 2 2 -54 46 -60 -7 -47 35 -1 -6 -1 37 -20 -23 -46 -30 -3 22 21 33 9 3 -15 21 -112 15 -65 24 1 3 45 35 -20 -54 12 -32 6 -12 6 28 -26 56 20 -15 -3 -37 -63 -41 22 4 55 11 40 -20 17 -26 -37 9 -26 8 -30 -43 -7 -23 40 -2 61 55 3 -50 34 -25 12 -30 -18 -22 12 15 -60 16 39 11 -34 -4 -26 102 50 -28 27 17 -52 37 -7 15 39 -12 -16 23 43 -53 35 30 -30 21 0 -36 -21 -11 8 -18 -6 47 4 -25 -8 -48 8 -10 -4 -34 26 23 -26 -46 -5 -10 45 19 15 8 -5 5 0 -56 35 -1 -13 -16 7 -11 -4 3 -7 -72 -32 -40 -43 52 -65 32 65 14 56 -7 -68 -21 -11 -36 46 -38 -5 -43 31 -39 -47 -45 -33 -53 -50 14 -39 -10 46 10 -39 33 -20 23 51 28 -39 4 -53 -5 21 -15 2 -26 22 -7 -38 18 -32 67 52 -3 -8 -66 -4 -13 43 -38 -27 25 -21 7 16 -65
-98 2 -2 1 -20 -51 -25 -57 47 -11 -9 -31 -8 -41 -4 -30 38 -44 3 -9 3 -8 -33 -24 11 -20 6 15 -84 -48 -11 -24 -22 -20 -16 8 -40 -12 16 -11 -30 40 -50 68 -74 40 -54 -5 9 -43 -19 38 28 -17 34 -22 -49 33 63 42 61 3 71 12 -24 25 6 -37 -20 -1 5 -70 -98 34 -13 16 -20 6 37 -17 -44 -82 -3 18 9 7 -61 -21 -34 29 -13 -24 -15 -49 -25 21 3 3 -21 20 -12 -68 52 -55 -5 30 73 -82 -15 33 0 -6 -42 -91 -8 83 -69 35 -46 10 -28 42 -20 -21 23 -13 31 -2 31 64 34 -13 -16 -9 -31 -59 19 14 -103 13 -12 -38 -8 -8 34 -33 -79 64 -36 43 29 -85 -45 -5 -53 -6 82 -11 44 -68 -77 -29 34 -55 -48 -49 24 43 9 -85 37 40 57 13 30 -10 27 -26 -38 47 -1 -35 -99 -2 29 33 82 29 -29 8 -11 49 71 -29 30 -6 -16 22 15 4 10 18 -32 22 10 3 39 92 43 -44 80 -63 -29 40 8 -81 15 -6 83 -14 -54 82 17 -20 15 34 0 -14 -23 49 26 7 -3 4 -47 -17 72 32 86 -55 17 44 -24 26 -2 -19 63 7 -9 -27 -42 60 -47 -6 43 21 -39 18 -124 -20 -29 33 26 46 86 26 23 1 10 -100 21 -116 58 -22 6 -56 -9 15 31 21 45 -15 1 21 69 -14 -4 -43 96 -36 -60 45 13 -40 -69 19 5 -46 -16 -50 18 3 38 8 -30 -18 -51 16 11 -3 64 -51 11 9 26 47 -33 -2 34 -74 17 23 -25 -31 12 28 -25 -15 31 -82 -5 5 1 -3 -74 4 -61 -12 40 -32 19 27 9 4 -23 -27 44 3 0 13 -18 5 -29 -60 54 -45 -20 54 18 -19 26 -9 -38 -10 10 7 -48 27 -18 7 31 58 -4 -58 -29 -10 6 -4 22 35 43 -39 10 -43 34 7 24 -17 21 -36 -47 60 -51 126 9 8 29 62 52 23 14 -23 46 4 45 7 -29 -19 -33 2 14 -26 37 19 34 11 -1 -4 18 -37 -5 -10 -22 -4 47 24 -41 15 27 2 51 5 -40 5 21 64 56 -34 21 -39 38 -40 -101 39 10 116 22 -51 41 49 -40 27 18 2 -22 0 -43 -10 -21 19 7 -7 -12 -19 -24 -10 36 -27 20 -1 -57 119 -37 -9 -14 -41 67 73 -9 -39 -22 -60 13 84 -19 32 -85 29 71 79 -2 -53 -46 0 0 20 2 65 -39 -50 -75 17 -30 -18 4 -39 -110 43 -39 50 81 -14 7 -14 20 -26 -1 26 49 -33 30 23 -13 12 -83 3 1 -49 12 42 -58 53 21 -8 -37 72 45 46 16 -43 -13 -91 28 -36 89 28 -31 6 20 -56 30 -5 53 46 76 -12 -19 -32 -17 19 51 -38 -25 21 -16 45 -15 46 4 -14 10 -21 23 -52 -24 -44 -6 -2 -1 23 32 7 10 -55 -37 -23 11 30 1 11 4 -13 -32 37 17 -31 -8 -36 -70 -12 -5 -21 18 92 18 -58 -32 43 -61 47 118 -31 75 74 -33 33 24 2 -11 -34 25 -34 74 31 11 5 29 -22 5 43 -77 -115 -5 -31 22 36 0 -14 -45 -13 7 11 61 27 19 -83 -63 -13 34 12 64 -53 34 19 24 -29 12 12 -33 30 65 -34 44 -8 -2 -4 0 -26 -60 26 27 35 -16 -79 39 -20 -39 -59 110 -35 -66 16 -36 0 4 4 3 49 74 -8 -22 11 22 -60 86 -15 42 34 -56 -3 29 -25 54 -84 20 -64 -16 54 36 -78 -64 -16 -36 33 -40 -35 -4 28 8 9 22 22 -41 -33 84 -10 14 118 21 -51 -5 -2 -18 50 -30 20 -25 -8 -18 -1 63 -59 -34 12 -16 -3 -69 30 11 -9 113 1 -2 19 -19 49 21 52 -54 24 -43 25 28 -73 -2 -41 -30 -16
