-229
-71
206
-115
-19
-35
80
-13
33
-129
-124
84
71
46
161
-187
-25
-145
67
190
159
-16
-54
179
-100
-2
-1
145
449
-12
-98
124
140
-14
-148
-171
97
-175
119
-39
-71
5
-83
9
-104
263
7
-54
186
-124
-164
-241
-108
-44
-7
26
-75
-120
113
340
-8
163
1
74
97
18
-128
139
47
125
108
9
-14
132
12
-72
-31
112
32
-84
4
256
24
35
-23
116
-87
-31
65
119
15
59
-49
66
55
-190
-85
75
4
124
222
28
118
-80
39
218
105
-68
-81
18
0
-56
42
-61
304
17
-114
-221
-174
-35
-32
-92
189
-69
-33
-79
-86
34
-616
-332
-179
36
-701
368
-214
-24
-184
-43
129
1266
323
145
70
171
113
-219
-205
183
-245
-76
161
-297
248
-429
-1580
-253
-1144
340
-522
-80
-1177
-167
5
-199
481
-176
31
-1851
533
-944
-336
-26
-125
434
163
1379
327
-142
-8
-350
-103
53
-81
145
107
-27
1424
922
84
-659
268
287
-17
-67
-148
-69
63
-1136
74
-41
-111
29
129
-80
-22
63
-41
-270
5
-56
-19
-24
43
-72
-62
127
-9
34
-7
-383
670
-32
95
-131
157
-27
143
96
-63
20
-55
62
-131
56
-170
-13
-127
-62
189
-72
-83
213
6
106
147
45
-419
-31
48
25
59
-21
-857
67
69
56
18
33
-13
-6
86
864
30
-92
-97
-508
-76
51
-150
-42
-44
-77
91
-52
225
-215
-127
46
82
19
-164
-66
137
20
3
92
-9
65
123
-43
123
220
-395
-11
39
152
-65
120
70
126
-123
164
-128
159
-118
-99
-81
-38
-137
36
232
176
103
227
93
-82
-56
-26
-37
46
96
-14
-18
-15
-12
-42
37
-94
-45
-39
32
11
128
69
-21
17
-8
38
-98
-26
33
75
20
-80
-2
54
162
75
12
31
-15
52
52
-55
34
17
-55
60
78
3
-47
57
44
-38
17
-46
28
11
-102
-5
82
90
3
-61
89
-55
32
49
-51
-49
29
-88
44
-3
-59
-65
-4
-26
39
2
-14
-213
152
58
-28
103
27
44
-69
81
-84
16
66
72
65
-27
-66
11
55
-50
-44
-64
-63
3
60
12
-57
78
-6
-48
-21
-19
46
313
31
-72
0
16
30
47
41
-10
-73
-183
71
82
-45
53
35
51
-115
-25
61
-22
35
-49
4
-6
3
79
-30
43
29
40
-37
-30
-46
64
27
120
6
-4
-87
71
23
44
-103
38
122
-48
-74
18
-72
48
-23
62
49
11
40
-28
-92
39
-44
8
22
117
-37
-56
-32
42
-27
-11
43
-6
-43
1
-18
3
19
63
64
190
-43
-23
10
17
-79
-19
72
-12
-49
14
-47
31
-54
-6
-56
-13
-81
53
87
72
-6
94
57
28
152
39
60
-35
-16
46
39
-49
-29
-9
74
-104
3
-35
48
77
-94
0
79
-74
-139
-83
3
-8
27
-4
9
-62
40
-83
48
-24
-52
11
58
-51
5
-10
70
-96
14
221
53
149
-13
-99
31
-23
-57
-66
71
68
89
-13
-9
292
105
-20
-133
9
-25
97
2
-33
-126
-122
-73
11
-25
-8
-9
-13
-1
-11
113
-54
36
-53
130
-59
46
169
93
-10
-53
120
37
-9
27
51
-41
-6
-150
-77
-196
-58
10
-17
55
69
-16
59
-39
43
-64
-298
69
127
31
2
25
22
-109
105
-34
68
-37
-26
49
-27
-64
-64
-78
111
1
-41
-25
-6
-77
47
90
-122
32
29
-41
-24
73
-166
42
71
98
11
91
129
-29
-60
63
42
27
-6
-3
-52
22
38
35
15
15
155
15
115
-33
28
-89
24
-177
-54
-16
-225
4
-4
-26
61
-5
-53
108
134
31
-50
-176
100
-87
1
29
33
35
58
-12
72
-70
-24
65
49
-58
82
-18
-13
-40
-130
-1
163
8
-49
-25
13
-8
23
-40
56
-14
-173
-47
50
-2
-1
14
3
73
-10
-15
-49
-78
13
-12
-88
-31
67
-46
-3
24
63
91
23
20
171
8
10
55
89
0
-30
16
7
