-2 32 -1 6 1 23 -6 24 -42 -14 36 -5 -10 12 -5 -6 12 -23 -3 -10 -7 -9 -3 3 -12 20 -38 -5 -20 9 0 15 -7 -63 8 71 -10 -16 3 8 -8 -17 20 -8 -15 -10 -15 14 19 -39 -38 -41 -6 -24 -16 -53 40 -20 -14 38 -16 44 -6 8 2 -15 64 2 26 -31 16 50 -1 7 -30 -5 -13 -1 7 10 2 1 -30 7 0 9 58 -14 44 13 -40 -2 6 9 -5 -28 -25 33 59 -3 -20 -48 -12 15 -43 -28 23 2 35 40 -2 -7 13 -34 -42 6 11 -8 8 -13 -17 -8 2 -14 0 30 -10 -22 16 -42 36 -33 29 2 -1 -27 -8 4 -10 9 8 2 -42 -27 -23 28 -31 -15 19 -17 14 -17 -5 -27 -18 -4 -13 -11 -36 -14 18 -30 30 -16 -37 -14 8 -21 29 23 -18 -4 -16 -3 5 -12 7 9 -4 22 12 -4 -18 -9 -20 -22 -8 -13 -21 1 12 -42 41 -19 25 -52 4 -44 -30 -23 5 -15 -9 106 -6 -4 18 26 -10 7 -30 30 11 -21 -2 -11 31 -11 -8 -18 -48 -9 0 24 -8 -12 -40 -27 1 -14 -43 -11 -7 -1 -24 -7 -44 -14 -34 23 -52 -2 -47 -21 -9 26 18 -20 14 24 -35 -20 -38 -18 14 -1 -8 -33 6 17 -37 -9 15 -34 -14 11 9 -44 24 2 -16 48 -4 16 18 -29 -1 7 -23 -19 -22 -19 -15 15 26 -26 27 -16 -2 11 -23 -36 -30 -63 -4 8 10 -2 3 -28 -17 5 22 -30 6 30 -34 -14 -14 -26 -2 -25 -25 3 -2 -30 6 -9 22 -31 -32 -13 11 -33 9 -25 -20 5 -4 -14 0 1 -28 29 89 -25 14 21 -10 0 -26 79 7 -8 6 5 -25 -7 -21 -29 37 0 -27 -18 -36 1 25 -14 -28 -41 -35 -26 43 2 -12 -11 21 -2 -24 17 0 2 33 13 12 -16 -26 -4 0 31 -2 14 9 23 1 38 -9 -35 -10 -21 -22 20 -24 21 -98 -9 -7 -9 0 21 -42 -9 12 14 18 17 -7 16 -37 -13 -8 -23 -8 7 -25 12 21 -21 -26 -35 -38 14 30 6 -38 -16 -3 6 2 39 6 0 35 -3 3 29 1 -24 20 7 0 51 -1 -37 -18 -22 -28 17 -33 41 53 19 -19 -7 -19 -43 -5 34 -20 -70 -2 8 14 27 63 14 0 80 -35 -3 -20 32 -5 -18 -2 6 -55 -1 3 -63 0 24 6 -28 -24 15 6 -16 21 32 45 -39 11 15 -103 -10 3 -30 14 -19 -97 16 -30 -14 7 8 4 18 -15 -64 -20 11 1 21 91 -4 -21 -31 16 -4 -1 -26 5 5 52 -39 3 -30 24 23 -13 15 -35 -23 11 28 20 -30 15 -5 37 -1 -17 -64 24 23 -4 26 6 -23 -9 -6 10 9 6 32 -3 -42 0 -9 4 -40 -26 70 14 -2 -4 -7 -14 14 -25 -26 -20 -4 -13 -42 1 -29 -8 0 -21 -13 -16 -7 -13 8 -1 1 1 25 -10 -18 -17 -28 -21 5 17 -17 -8 -21 11 -32 -65 -37 15 18 5 51 -30 -3 -33 -36 12 -5 28 21 -6 17 21 3 6 4 9 7 88 -1 49 -31 -11 19 -17 -7 -15 9 -3 57 15 -12 -12 9 4 -11 28 -11 -8 -46 -19 23 7 -14 17 -16 -12 -1 -34 14 27 0 14 -6 9 24 0 -8 -27 31 12 3 30 27 -11 15 -33 31 8 -10 -32 12 -22 -85 -24 0 21 -41 -27 -20 38 26 27 10 -4 -127 11 0 -25 -24 -4 22 32 -9 -13 -24 28 -28 -21 -7 -35 -9 -27 14 -18 -6 -25 23 -53 -31 3 -3 19 -35 -3 -3 -31 -13 -14 -20 -4 -28 11 9 -2 11 -28 8 -1 -24 5 -20 -12 -3 1 8 -22 -10 -9 10 4 -19 -27 25 36 -21 31 15 -7 -16 -12 40 33 -11 -32 -30 13 9 -11 20 7 9
-33 50 5 -6 -19 28 -23 -41 -4 41 -16 -5 51 4 -19 25 0 -1 -9 4 -66 6 -18 -6 -30 22 47 -10 -1 -1 24 1 12 -7 19 60 15 -9 -38 19 45 52 6 30 -15 -40 19 -29 -27 66 2 44 38 17 -17 -10 -62 -41 -44 -16 -12 -7 -6 -34 25 -33 -4 17 26 15 -31 -40 22 -9 -31 15 -18 1 7 43 36 -13 21 -15 -19 -22 7 -14 6 -10 -16 33 24 -30 31 24 27 -6 -18 10 -19 1 -5 -19 -46 8 3 -2 -22 -69 -6 -7 -20 48 42 -11 13 6 -40 27 16 -9 -19 18 -6 49 12 -10 -39 39 -40 -15 34 -21 41 -31 -34 83 -21 12 -15 25 4 -4 0 17 -6 -3 -19 4 21 26 15 13 10 26 -7 -61 -61 -32 12 24 37 -21 -37 -16 38 35 1 17 26 7 4 23 -41 69 18 -27 -37 -52 -21 15 -11 -31 33 -41 2 -30 34 1 24 34 -19 -25 27 11 8 48 -18 36 21 45 -11 -1 29 -28 -38 -60 18 30 81 -21 -8 12 3 -18 34 -15 2 -21 -22 24 28 -6 37 -29 -32 -3 -14 -13 48 -12 -19 -13 -58 5 10 -54 16 22 -20 2 10 18 44 -7 -8 31 -4 -20 19 -14 28 37 -29 9 52 -2 -17 1 -29 19 -9 -36 -15 14 -9 -11 -85 5 68 2 51 0 21 -43 24 -24 -41 -28 20 -12 -6 -41 19 52 -35 -36 -13 -35 -39 -29 60 -19 0 19 -12 11 28 -20 -35 -3 -7 -24 47 -19 -9 3 -26 80 -22 3 3 4 -28 -37 10 -59 -23 65 -33 20 40 -16 -22 3 -21 9 48 -66 -18 29 25 -25 -90 17 -74 29 -32 -8 -26 -20 -34 60 12 -19 51 -39 -42 -47 18 -11 8 42 -10 0 -35 27 -15 -45 7 14 -11 -34 -12 13 -3 -30 -10 -49 -24 -69 35 29 20 -6 50 35 16 -69 -5 25 26 -90 -40 -2 21 -28 67 -39 2 1 59 31 3 -31 -26 34 8 16 35 -9 -45 29 25 -3 -2 20 2 -31 -59 -50 -5 38 -6 -2 53 -33 -38 11 36 -20 -17 -43 -23 17 57 -22 21 62 -24 28 12 34 -10 -107 -52 -30 -29 -19 -36 -23 11 9 52 -4 -29 25 -22 14 -41 -7 -3 -6 31 26 -127 -24 -47 69 40 21 -17 -51 -20 7 -49 24 12 -11 -46 -10 15 25 36 -12 60 -16 17 -16 22 39 -49 5 -23 -42 51 34 49 35 -66 -10 12 -27 13 7 1 -41 -30 -5 27 -30 9 -27 -6 32 -41 10 -24 -9 37 -17 -23 -51 -67 24 19 33 17 54 17 -75 -30 -80 -11 15 52 -13 71 30 -45 18 6 -29 -8 -4 45 -33 2 51 -6 24 -29 -1 -3 21 48 -65 61 68 5 -6 13 25 5 24 -27 2 -7 9 60 -4 -4 55 3 -16 -12 -94 30 6 11 -13 9 14 -46 6 35 -31 -4 8 -30 -43 14 17 3 1 1 -57 3 -26 -40 -17 -5 26 12 7 -32 -17 -33 2 -26 41 7 13 2 -9 -21 10 -7 7 -25 21 11 17 28 17 -42 -26 -7 2 -8 -66 -33 -32 44 1 78 -55 9 40 -8 -12 20 41 1 35 -32 -15 -6 -50 10 23 -67 -62 -16 31 -56 -8 11 -16 -6 14 -45 -31 2 4 1 9 4 0 -23 -40 16 -14 5 -12 25 -7 -17 -12 -71 27 -18 -39 41 26 16 39 -12 -6 -25 -17 6 4 19 15 108 -53 -31 3 9 35 -32 -39 20 43 21 5 59 -38 -7 5 -31 -39 -2 24 -32 51 -7 62 -43 -4 -32 3 -8 45 20 33 -13 17 26 -64 51 -79 -24 13 11 71 10 -17 -10 -6 -24 15 59 5 -23 26 31 11 -26 35 6 -1 19 -11 1 -5 45 4 -9 20 -14 -5 0 0 -40 -8 19 -82 -2 -24 -24 -49 6 -8 -93 -60
-89 -32 0 -25 20 -15 16 38 -40 31 9 103 -6 -44 42 16 -23 -4 37 14 -33 9 26 0 13 -61 -45 33 6 -43 9 36 -56 -57 -17 46 38 46 -54 50 -10 -10 -15 12 -16 6 61 -1 -6 -53 -3 -12 29 13 -11 5 -10 0 -68 -20 2 20 66 16 -6 24 -36 -21 38 -33 18 35 -18 -21 35 -16 -42 -3 53 -11 33 6 -1 -21 53 18 50 2 -57 -13 13 34 -38 31 -9 -15 22 3 -9 51 11 -15 -6 24 29 -10 5 10 44 -5 10 18 43 57 -12 47 65 38 61 6 -8 14 -5 -6 12 -57 12 18 -9 37 33 24 -16 43 -1 19 10 -16 8 0 17 7 15 -43 9 -38 -14 32 -7 -15 39 6 10 -12 -43 -12 0 29 -27 -11 -20 23 -24 -32 7 -41 44 2 -15 23 -16 -36 -17 75 48 97 -15 6 21 -26 25 23 -39 18 13 25 -43 17 -4 -73 29 -42 -4 7 21 18 -21 -60 -36 23 7 -38 -42 44 -11 16 -37 -50 64 33 -32 24 -9 -30 -13 -1 74 2 40 14 18 32 -11 14 16 -28 29 -30 -45 -31 21 -15 18 13 -26 10 94 -16 -30 -15 -13 -18 30 4 -46 33 11 -2 -26 15 -9 26 -35 15 -21 -58 35 19 -23 32 -27 11 -23 35 57 -7 26 39 -67 -47 9 1 21 12 -1 -7 36 7 36 -5 38 -1 -36 10 14 47 47 3 21 -40 11 -44 -20 -19 -27 35 19 19 -28 -5 14 35 -16 -30 -18 -34 -2 47 -71 -64 -47 10 -22 -31 11 39 -60 -8 75 -77 -24 9 -35 36 -32 -4 45 -1 42 23 57 -23 -38 -9 83 -13 -6 58 -1 37 38 46 5 41 -10 0 23 -11 5 -79 37 37 -33 67 -41 43 -9 -42 18 21 -27 2 49 -27 -3 -10 -11 -34 112 -13 -42 32 36 -29 63 50 -2 -36 -12 29 41 -27 7 78 -34 -12 -21 38 44 -49 -2 1 42 -13 -36 19 2 36 -26 17 -23 -10 -32 9 54 7 16 88 23 10 38 4 -71 -42 17 -87 30 -29 -19 38 -23 -47 -26 -19 -20 26 -24 42 0 17 -4 -6 4 7 -42 -9 -7 -27 -63 -25 -63 54 35 -29 -52 29 19 11 3 22 10 -51 -11 7 2 2 87 2 13 21 32 -10 -40 -29 9 26 82 -61 24 -21 -16 61 20 7 16 13 7 -18 -3 -5 2 31 -8 6 -26 -9 5 -51 49 53 15 34 65 29 -35 -25 2 13 -28 -30 -35 11 3 13 -58 4 11 124 -26 -45 -3 43 16 5 -36 39 -13 3 41 73 24 2 34 32 17 18 -12 -6 -37 5 0 -38 15 -71 45 26 61 -34 -14 16 23 -58 6 44 11 47 50 54 19 25 -14 9 -1 -37 -29 -4 28 57 3 -29 55 -6 44 46 29 24 -19 15 41 7 22 -97 23 -33 -20 -29 -31 -10 23 -60 21 -9 30 26 67 29 -16 58 -3 38 -34 25 -17 34 -15 -39 -23 -8 14 84 52 12 -47 11 5 -42 18 -1 -52 -25 -15 4 33 -22 -57 -26 -1 -10 -7 1 -38 2 74 -53 39 5 -33 -4 31 6 21 103 20 30 22 -32 9 47 43 -11 -13 0 -26 27 -27 -40 -34 -6 37 35 21 -46 -17 -13 47 3 -18 -62 16 -51 30 45 -17 -1 22 4 -6 7 36 -28 -22 36 66 -40 41 -51 -22 1 58 -22 -53 126 -26 -42 22 9 18 -96 -42 -11 38 -37 8 -3 -20 -50 -43 8 65 7 54 -24 34 33 -2 11 -8 -1 -12 12 32 25 -52 -22 36 -23 26 34 -13 58 -16 19 65 -29 -30 15 -25 16 25 -27 17 9 21 -43 -16 38 19 -10 -10 -27 22 37 27 12 -41 -19 27 82 -15 -5 -9 -24 -41 65 -31 54 -7 -13 -8 19 -48 -34 -57 -9 17 22 -25 21
38 20 -18 10 -3 25 -13 -47 -25 69 2 -18 7 -29 6 9 -21 29 46 -4 55 -22 -13 38 17 -40 -42 -68 23 15 24 -41 17 3 -44 43 -6 -87 -6 -29 -51 -33 -19 47 -26 -48 13 48 -94 37 16 -8 8 -115 67 -36 42 20 -31 99 -16 72 31 78 -28 29 49 1 -22 -25 59 23 -25 43 16 -2 12 6 -1 9 -4 -22 28 4 3 -17 -4 -39 46 -26 80 28 -9 -23 50 28 27 22 -24 5 65 26 -21 21 15 11 73 -29 -36 -67 -6 -56 20 3 -32 -11 48 -23 -11 -18 -28 3 26 35 3 -15 45 -53 41 -82 -33 10 -49 7 -5 35 21 -24 -6 85 4 -6 -47 -6 -27 -1 5 -1 -31 2 43 -19 -70 -50 -41 -11 4 -4 -36 6 -48 -13 37 -14 -11 -32 9 -10 32 40 -65 5 -32 9 -18 40 -4 57 7 -12 -17 -14 49 -74 11 -12 -80 -27 -14 -64 18 0 -11 31 22 -73 23 46 18 85 13 -67 42 84 31 -2 -24 -79 -43 -7 105 -13 8 -44 5 4 -14 -2 12 18 -6 49 -46 53 60 -27 -23 44 80 -7 -51 -1 30 -9 11 19 -109 -11 -35 2 87 2 20 64 -30 17 0 -25 43 -67 -55 -47 -45 9 -16 -18 12 27 -39 3 -53 17 31 41 -11 21 -76 23 30 64 -27 -27 -2 12 25 11 -42 -6 4 -43 24 47 -28 40 34 -15 -3 -4 -24 -12 -84 8 -46 -24 -27 43 14 72 -35 -17 -9 -31 21 4 -46 95 36 40 -11 36 0 10 39 -58 53 44 22 -27 23 -16 32 -80 126 -28 -10 -33 -38 -44 14 39 -13 27 -50 -3 -50 -101 55 37 31 -1 -25 -10 39 -40 -11 -47 57 11 -26 7 64 12 -17 7 109 12 27 -17 28 12 3 -37 38 1 -26 55 -25 2 54 -49 -23 59 -54 -7 -7 19 4 8 -67 52 -39 11 -10 -7 84 -29 7 -27 23 17 30 36 75 56 66 5 -44 59 4 18 -62 -52 -15 23 -46 -10 -24 27 29 28 48 0 -107 -33 -9 -58 6 -1 -24 -26 -27 -23 -2 19 -24 11 30 -19 30 23 17 -8 45 14 5 39 -31 6 54 -64 -52 30 2 -33 -40 -48 3 -95 -20 5 69 -29 -10 -5 -41 61 2 -13 -54 -70 -21 -2 27 -9 44 2 5 -8 -27 -16 -18 -35 88 -9 -43 -10 -39 -17 -10 -15 31 39 -6 -33 -6 40 -14 98 -23 -20 51 -28 -34 -80 31 6 -3 28 22 -46 -92 -9 24 -2 69 24 50 -29 -123 -52 4 28 13 34 41 -4 21 15 13 14 -53 -32 -21 8 -32 29 -6 5 8 15 -2 37 -49 -47 -15 25 19 -22 41 46 13 2 -34 36 -23 -34 0 50 36 -49 -21 -7 -35 -43 5 60 -30 -9 -18 55 -37 -28 37 -16 -14 -15 8 -5 31 -14 -9 -4 -14 25 -6 -10 -38 -38 -9 -18 8 34 -7 -30 -7 9 32 30 0 12 26 -54 -7 108 39 0 -6 20 -28 2 16 -9 -71 39 30 11 -15 10 11 -15 -28 0 37 73 8 -6 58 -22 38 -49 -95 39 53 -6 6 -45 -37 0 0 -37 -1 -18 -11 46 -30 22 95 -108 1 35 4 -45 -41 41 -12 -46 17 -38 14 20 -22 -10 -28 -19 23 -1 44 -16 44 50 13 -49 9 -24 -43 -47 -26 -24 -2 -27 -10 51 -34 7 10 63 12 0 -51 -35 -25 30 -33 -22 1 14 -62 26 -27 -29 -2 -47 8 32 6 -2 10 -42 -50 31 -67 18 43 -17 -12 64 -21 -50 -25 3 -30 11 -6 5 25 -31 -5 -12 -9 15 -45 56 73 85 26 -95 20 15 43 17 -5 23 -1 -43 80 2 -12 26 -51 -36 -9 22 20 -21 38 -44 9 40 15 -35 -45 35 -34 -57 -6 -12 -30 18 61 -53 -3 -3 3 -27 12 -43 8 0
-5 15 -16 -7 -10 1 5 25 -21 -10 -18 -5 35 -1 -18 -8 -4 -2 0 -8 10 1 38 1 -20 22 -14 -20 -14 -5 -26 -7 0 16 10 -5 -4 -20 -7 -41 -9 -36 21 1 31 -26 -25 -32 -43 21 9 -64 -28 13 -28 2 28 -9 1 31 -8 4 6 26 12 -23 37 3 -18 -29 14 -5 25 -3 26 -11 15 -1 16 -50 -30 11 -1 26 -1 27 6 -1 -42 -11 -7 43 25 9 -10 -4 15 4 7 3 -26 31 6 -14 31 3 -25 -2 -1 -49 3 -22 -12 6 8 10 -17 -15 -1 2 17 44 0 44 10 -22 -4 24 -38 -77 -42 12 14 23 -21 -2 -21 -38 -15 -37 -5 -1 -43 -17 -1 29 13 8 -14 -1 11 0 13 33 4 -18 -12 -3 -35 5 0 23 -22 -41 -10 -6 32 -21 -32 -9 3 10 46 -10 -1 36 2 28 34 29 -16 15 4 -34 9 -4 -16 -23 30 -1 -18 8 -15 -3 7 0 12 -20 -46 -36 2 -13 -18 -79 -3 2 7 -127 -24 6 16 3 -17 8 8 -8 -22 -17 -13 -10 -15 37 16 -12 -5 30 42 -6 -14 21 -57 -2 -21 47 16 -3 -48 54 -3 1 -2 -4 -21 -5 1 2 -23 6 45 -11 12 -11 7 -22 -18 -5 -21 5 -3 -21 -22 -20 -6 30 -33 2 28 35 9 60 -28 19 30 42 -50 -38 33 30 40 13 0 -11 29 -6 2 -66 -15 -2 -47 -15 15 15 -18 5 -24 2 -17 15 -2 44 -28 17 -5 -9 -29 -42 10 16 -1 2 -15 -6 19 11 -8 -12 -30 -14 12 -16 -25 1 54 9 17 10 -4 -30 -20 32 -7 -4 11 -16 25 -13 40 42 29 -5 -37 4 -34 28 -37 26 33 -26 13 21 -7 19 32 13 -30 9 -54 2 -4 -14 1 15 33 -9 22 -5 28 -14 56 11 30 32 44 4 -12 25 -11 -18 -14 26 12 5 -11 -87 -19 4 11 6 -15 70 -3 39 -49 31 39 42 14 24 -31 3 26 9 2 -19 -15 3 17 7 -4 -16 32 -4 -12 10 7 -32 0 -14 -10 5 -21 -12 81 28 -3 -10 -33 -1 6 -58 7 -6 -27 60 -16 -4 -25 0 -27 28 -16 19 41 24 -5 41 11 -16 18 -3 -9 0 -54 -1 16 7 -8 5 -27 3 22 -29 -7 -13 9 -2 -23 58 -24 -20 -8 14 54 -4 -14 -14 39 -17 -8 27 -18 -19 -5 21 -22 -8 27 -27 -24 -25 31 7 -7 -55 33 23 -2 -8 -1 -18 0 10 -11 -10 11 6 -2 -48 3 16 31 3 -7 37 26 -30 9 -2 0 -4 17 -18 10 -25 -30 -31 -8 3 42 -38 29 8 0 -18 -15 10 -6 -1 26 18 -7 -5 1 30 5 -8 -2 25 -15 11 23 3 7 -30 -11 11 15 -27 -19 -18 -5 9 6 -14 -1 -33 16 27 1 21 -13 -12 -30 -17 -55 17 40 -11 8 9 -18 7 -15 -9 -22 12 5 -31 -2 9 -45 -9 -39 -67 4 5 -24 10 -11 -26 -2 4 -11 -18 -1 39 1 12 -9 19 7 16 -44 -9 -84 3 36 8 5 11 29 -14 -6 -15 2 -7 -19 -4 29 -33 46 -8 7 -32 -8 -21 -21 9 3 -27 -6 -2 -6 -1 10 36 9 -10 54 -45 58 22 -3 2 2 8 -16 56 70 9 6 5 -33 17 -5 42 -38 -4 -23 -26 21 2 2 3 -3 -18 -15 23 -7 37 -25 -35 -27 -16 32 46 6 21 -32 11 -29 -46 -24 13 -14 11 -37 -6 25 -23 -25 -18 11 -31 -27 20 -12 8 -6 16 38 22 4 19 2 -22 -3 11 -21 -3 3 0 -7 9 26 13 -12 40 -3 -9 21 -16 6 -2 -15 9 -12 1 10 44 -19 -13 -18 -27 -7 3 12 10 -2 3 37 -16 -9 1 -23 24 -4 11 -20 -1 16 56 -8 33 10 -6 38 -19
-10 13 -16 -30 29 -2 -24 56 -21 -5 -34 41 -7 -7 -39 -12 -16 -26 6 -17 -83 -13 -10 -7 -37 1 4 -3 3 1 -25 -3 1 -75 -13 -82 34 -105 20 -12 -25 -23 -12 3 44 6 -21 -43 -76 -72 23 -44 47 -7 -25 43 8 9 -8 12 -7 -23 -16 38 18 -22 -33 -38 -12 21 49 19 1 15 -4 -2 5 0 -41 11 -91 16 4 16 9 21 -45 6 75 -3 -7 -10 27 10 -73 -17 -51 -8 -16 -10 4 -50 -40 48 20 6 -5 21 9 -1 1 -11 -19 4 -56 -50 68 -7 -48 -67 -35 28 -22 -4 -7 -29 -53 -26 40 29 -7 -26 -15 -17 73 -15 -1 -21 -13 -46 -9 35 21 -26 -27 -27 -127 -5 1 -11 -30 -2 -33 34 13 -41 -10 -11 68 28 -2 -63 -11 -18 12 40 -20 5 18 21 61 -26 -12 30 65 95 23 -14 1 -30 0 5 -40 -15 30 34 -11 -14 -11 -65 14 -44 -50 3 -10 -20 10 25 -21 40 -25 -26 15 75 48 -31 13 69 -32 5 -75 50 23 -11 -4 -4 -21 11 -1 8 68 -74 38 -58 6 -24 2 38 -56 -10 20 17 4 -38 25 -41 -12 -84 34 -22 10 -35 -42 25 47 -14 -59 -13 14 44 -3 -15 82 32 19 -50 91 15 -36 27 59 -18 10 -14 -16 -10 23 74 -2 13 -1 35 34 -8 14 40 37 -76 -18 28 2 1 -53 -35 51 66 1 11 15 31 19 49 53 12 5 -18 0 -18 9 35 -24 51 33 50 36 4 21 32 30 25 10 47 -44 -41 -46 -64 31 -37 -21 57 -12 32 43 -3 0 17 -12 -6 -47 62 3 -28 24 -2 -31 -50 -40 27 11 -1 -6 -1 -11 -47 24 67 15 0 -13 -51 -22 -34 -14 -43 0 8 -8 -39 -52 -9 -47 -2 12 2 -33 24 17 -11 -14 57 32 25 -2 35 9 -63 8 -17 -7 -31 -33 -2 -5 -50 -25 79 9 -1 7 -37 44 53 -59 -36 8 -11 -13 3 -22 1 51 -62 16 -18 14 35 -4 27 -19 2 -44 -28 34 -67 -36 37 -2 17 34 -10 17 -59 32 26 -14 33 22 -80 7 -12 32 -30 31 7 10 102 -40 22 -16 56 0 30 -7 -25 41 -19 64 19 -2 24 -72 -35 37 -6 15 37 -10 19 -16 -18 -17 -8 -89 -32 -55 2 28 70 38 -18 -39 -51 48 -10 33 -43 30 -27 0 -4 -33 -5 27 19 -60 79 -19 -72 -11 11 -81 38 -35 -4 40 18 2 14 -27 -1 28 -48 9 21 12 -36 59 13 38 7 -43 -22 -33 16 23 18 -33 -33 -35 -11 -10 33 -2 -25 8 -38 16 82 8 7 1 25 -10 4 -22 -12 28 -3 6 29 4 41 -41 15 -34 85 -5 13 -24 -25 0 -2 -29 27 -7 71 -4 76 9 5 82 7 -26 -28 -14 -38 -43 19 -36 -28 -2 -17 0 3 30 -47 -67 -11 -1 -33 2 -45 18 -44 -19 -38 15 -56 2 -9 -46 15 -10 -67 12 27 -4 24 -46 -10 -17 5 10 -14 -55 -55 -68 21 -3 21 71 -20 14 -42 -14 -31 -10 -19 -15 24 -46 -15 4 8 -36 1 125 17 -40 -52 55 32 -55 -15 10 9 44 -30 -28 1 -7 -11 41 51 -13 -7 -5 -82 43 11 -9 -27 10 31 15 -26 -6 32 36 -12 -22 4 63 33 -5 27 -62 46 -14 -19 -54 -32 -31 -5 2 -31 5 19 -8 47 44 -13 31 68 13 -11 -29 -16 -1 6 60 35 -9 7 -34 37 -41 13 84 8 -25 2 -28 -43 12 9 -28 -12 -49 -52 -46 -35 -5 -13 19 -1 -23 -1 -5 14 -29 -12 -67 -86 30 -3 8 5 -19 -9 3 -14 -9 -32 26 -13 -15 -28 24 -60 -22 3 -8 3 47 5 15 -5 -1 -8 -42 -2 60 -7 17 -11 8 32 -4 15 51 -20 31 29 -5 1 6 4
32 -47 -13 -12 -31 -33 47 -60 42 -24 -16 3 58 7 -5 23 6 21 -11 24 1 5 11 3 18 29 -15 46 -8 -11 -2 34 18 12 -31 80 12 12 52 -7 2 40 -13 35 15 26 -5 -9 8 16 -10 -41 -29 -14 12 -35 -39 -67 7 1 25 30 -10 6 64 26 0 25 -40 -6 56 -59 -8 2 10 -4 -11 8 5 -22 0 -22 -13 33 -8 3 -11 25 -22 27 -14 -9 -8 -1 82 -5 -5 11 -19 19 -20 47 27 -20 -57 23 -14 -16 -41 104 3 32 4 31 6 27 -21 29 36 -13 33 24 24 26 17 8 -65 -7 -16 33 20 -7 7 -16 -9 22 1 57 -4 -94 -22 28 49 18 -20 17 52 28 -13 41 5 68 -40 22 22 2 -2 -1 5 13 37 -19 -15 26 5 52 45 -81 -50 11 -32 1 -45 19 -9 -24 -14 -36 90 -8 -21 -30 -10 18 7 22 5 -7 -11 -5 -37 64 6 29 5 -2 53 16 -14 -14 10 -21 34 -10 -14 20 -21 -61 4 20 -29 -1 -2 -3 -2 9 5 -4 -14 12 -43 -77 -16 50 13 21 64 -4 -9 4 48 5 -28 72 -22 -39 45 -16 -58 57 19 -22 -24 22 -4 -34 -25 -16 8 -21 -16 -21 16 47 34 27 -56 -23 -32 13 28 -35 -15 -5 25 35 -29 11 35 -39 1 -52 -85 -18 -28 -116 10 7 -7 -25 29 8 -10 -16 56 23 -29 29 -24 8 -39 -53 12 4 -19 10 -20 -32 -4 -5 27 -20 36 41 -21 48 5 1 5 32 -61 27 -63 -5 68 49 -14 -3 23 -35 27 -46 24 82 -10 61 -21 -11 43 -38 22 13 -102 -39 19 -54 14 -62 -16 0 32 -5 29 -40 -6 43 15 14 -9 3 -5 14 29 40 1 3 -8 21 -13 -10 2 12 20 -5 26 -9 8 13 -52 -18 -22 21 16 9 -21 -14 -11 23 -34 34 -47 21 17 49 2 -72 6 -2 -29 -42 1 -19 18 -48 44 -15 -25 8 -14 22 6 36 -45 15 -34 -64 18 -8 -12 -22 -23 -24 29 -33 -22 23 -23 -6 15 16 11 22 44 20 15 32 -42 36 18 -40 -27 -3 -55 -48 -13 15 -3 -32 -7 4 2 -3 -45 69 -67 -1 -4 41 6 20 14 25 8 0 27 -14 -37 -37 -4 15 10 16 25 0 1 -47 4 -80 33 25 35 -71 -20 15 -17 -17 -8 10 -6 -27 -24 8 -72 22 20 13 10 10 10 42 61 11 10 0 -38 84 3 -8 -12 -18 1 12 -9 -17 -32 -13 10 7 15 5 -22 -1 4 -1 -10 -19 -16 -27 -3 -30 34 -36 15 8 -68 4 -32 69 -36 -9 -7 -48 19 36 8 13 10 -35 -53 33 15 5 -40 42 3 -60 -7 -36 67 31 39 -1 21 13 -41 -42 35 16 37 47 -17 -27 39 12 44 27 -75 -22 13 -46 -11 1 31 -41 -30 119 -25 6 -25 -2 22 18 33 3 19 35 -9 126 0 -49 -12 -3 11 -42 27 10 54 19 17 -70 24 36 -3 -41 23 3 1 4 4 -1 24 -34 -32 -33 -46 -29 -15 -65 5 11 -83 7 -43 -8 -5 10 -51 -19 -43 -36 -1 -64 -22 -17 8 -37 27 25 24 18 -31 -9 -25 -29 16 24 -5 -18 14 -54 -52 8 -28 -21 -5 -19 38 34 19 16 -44 10 10 24 -19 -26 -18 10 -9 -43 28 17 -49 33 -17 9 -21 -16 1 -65 54 18 19 25 35 67 68 -49 -52 -48 -1 93 21 -1 -5 -14 -2 -23 23 51 -44 -13 10 -6 -56 5 37 -39 62 16 6 -13 -24 -42 13 26 3 17 -12 2 -21 84 -41 -19 18 20 -29 52 26 33 -18 -16 -3 -2 -6 -28 -3 -26 -14 19 -17 -41 -8 33 -15 -22 -13 8 -5 19 -19 44 -27 -48 5 -73 37 48 -11 -11 -3 28 3 -28 19 -3 24 -7
-2 -24 -12 19 -3 -20 -25 -1 21 -17 10 -8 -23 3 -7 -17 42 17 -7 -5 56 41 -4 -19 17 23 1 28 -21 -8 -28 31 51 -1 -10 -19 -12 -33 10 -12 47 7 30 8 59 2 1 11 -34 12 14 -3 -39 -40 15 -38 -71 3 8 13 -28 -11 -3 -13 16 31 13 42 -74 20 -14 -3 39 5 -43 -8 18 0 -21 -11 15 2 24 26 22 -28 -8 -5 -6 12 -2 38 -55 -29 -17 1 -8 -14 5 27 -31 -32 -32 -85 -9 21 -13 2 20 31 -2 19 29 10 -10 1 33 12 22 -8 -38 -1 -11 -2 -4 -3 -42 46 -67 6 -27 16 44 40 -27 10 28 -22 32 15 15 39 25 -107 -5 -8 14 16 -11 40 34 4 -48 12 5 -16 25 -17 2 4 -7 18 -17 -17 36 13 30 -49 70 23 -42 -25 26 -6 36 9 0 -61 25 28 -37 26 -21 22 -24 7 13 24 -12 19 19 27 6 -22 7 7 -4 8 18 10 -14 26 -17 33 -15 -5 35 15 54 -3 -62 24 -48 -26 19 -3 -11 -26 -58 -18 -23 8 -4 6 -23 -26 -100 -17 -10 5 -4 9 15 -10 -37 0 41 -3 -18 46 -5 8 -86 1 -12 -12 28 0 35 -30 -25 14 3 15 -10 3 -21 16 17 -11 55 18 -19 0 -10 -20 -7 23 -17 55 -8 23 1 21 -17 -38 -21 16 30 32 -8 -25 -28 113 -10 20 28 9 -9 15 45 7 -4 22 -22 46 14 17 9 1 -32 7 0 -25 19 -24 43 -10 6 0 20 14 31 15 -9 -68 4 20 21 22 17 -36 -36 -74 -17 -12 -26 10 -14 6 -17 -8 -15 1 -19 -3 37 -57 25 -30 -22 3 20 -44 -39 -29 7 16 9 2 8 7 26 21 11 -13 19 -17 46 7 36 26 11 45 -29 -13 -7 3 -4 -14 20 77 -34 -58 -10 -7 -22 0 -22 23 -55 -15 -4 -4 -19 14 -9 -51 9 17 -10 -45 -28 -19 -58 36 3 -1 14 -10 -13 -47 -21 38 -25 -5 15 -7 -7 16 -81 7 -35 -11 26 64 5 25 4 -4 8 74 -13 -44 -2 0 1 47 15 16 -5 -3 25 -15 18 -90 0 14 -4 29 -8 51 21 -46 -72 39 40 -31 -21 8 10 9 27 0 -9 -50 19 0 15 -29 -34 -31 16 -14 -4 20 12 -68 21 9 20 -19 34 -19 37 -20 -9 28 10 16 1 13 -28 12 54 14 -11 38 -19 -12 4 -29 38 13 -42 19 -3 25 23 13 59 -33 -1 -16 -62 -5 -20 -29 25 -10 21 21 -1 -36 21 26 -13 -28 -26 36 45 9 -26 4 -19 17 27 17 23 47 -44 -7 28 -13 48 -19 -13 15 -3 -4 42 12 16 1 11 -46 -19 -17 -23 -22 27 -7 -15 2 -9 -40 -17 -11 64 7 -9 26 16 -25 0 -15 -14 -4 8 15 27 13 55 1 44 59 14 15 37 27 21 16 13 2 -3 -28 2 12 0 -18 -6 8 -15 72 12 33 -23 22 2 -3 8 45 -19 -34 31 47 17 22 -23 37 24 -19 17 38 -56 -16 9 -8 -6 7 -7 45 31 -38 -31 28 100 -7 -64 -55 44 5 -41 -1 10 9 -13 -88 -8 66 -14 5 11 -8 -5 54 38 3 7 -3 -2 -2 -9 10 -24 -20 -4 -27 21 7 -29 -32 29 -19 -10 40 2 -24 -16 -4 -30 -3 43 24 -10 14 -26 -18 -5 -5 -3 -22 -40 -10 -18 -15 12 14 -10 -22 12 -61 -42 -20 -1 25 -14 -27 -7 10 26 -19 63 8 -68 -1 -51 -19 47 -6 15 -95 18 6 34 3 -39 11 11 9 -9 15 24 31 -51 7 -48 -31 8 8 -47 2 5 -7 5 -8 -13 29 2 126 3 -24 16 19 4 -12 -7 -6 -20 -18 38 -13 -37 32 -7 -38 3 9 0 -24 8 -8 -25 8 5 -53 -7 -4
-26 63 -78 4 18 6 11 -30 38 4 -46 17 -15 9 15 -21 -45 -3 65 5 14 52 -9 -54 11 -56 48 -23 -55 -4 3 -5 28 -7 15 31 -40 -37 10 -55 11 32 -19 -46 22 10 12 17 -96 20 -77 47 -8 50 -32 -29 -4 57 -22 -17 -16 4 -14 18 -8 2 126 29 -64 26 45 -9 16 34 -41 -7 -31 2 -27 -5 58 -13 -2 -2 13 -31 62 -26 24 29 13 11 52 57 36 -45 -33 -25 25 -46 -4 46 -9 -26 -49 -40 29 -37 4 11 -2 -36 -12 -3 35 -35 -28 -19 -5 12 -21 78 26 0 20 -20 7 17 61 104 -3 9 6 29 -11 15 -3 -32 -27 19 2 -15 27 45 10 -46 22 -51 -6 -18 10 -1 25 -8 21 12 -5 32 -3 27 8 5 59 -30 33 33 -45 21 -30 -51 59 5 15 -63 -17 -10 25 11 -55 17 -1 47 -38 29 24 -17 6 -4 37 -11 -15 56 5 -9 -13 -2 -13 20 14 60 -10 -81 -28 -36 22 -43 8 63 -17 -3 -21 -8 8 23 -30 -12 18 -17 54 -15 13 85 7 -39 -51 20 65 -46 14 0 -20 9 -14 -7 -4 -26 -48 18 38 -13 -8 -22 -7 -36 28 11 -5 -13 47 35 63 -10 45 43 -1 37 -47 -30 -38 -18 19 2 28 53 30 -9 79 23 -6 -81 -58 13 -67 -5 -8 -21 15 -49 -24 -23 -18 -30 -6 -40 59 -35 39 -4 -37 54 22 23 -56 33 -39 -51 1 10 -11 7 -8 35 -9 27 -55 -82 -20 39 36 -13 22 -7 -4 -4 24 38 17 19 7 42 30 -10 -57 -8 -11 0 -31 2 -18 -80 7 38 -19 19 25 13 22 -19 1 12 -20 -36 39 -4 26 -62 82 10 -38 12 -19 -6 -42 15 -7 -12 -8 27 16 14 5 21 92 -33 -21 12 -41 -5 -24 -15 -37 -51 -61 5 -32 51 54 15 -8 4 1 -37 3 34 -50 -47 7 -43 31 -2 -35 56 -2 -18 2 -29 3 36 7 -56 -3 -22 23 27 -5 -34 19 -42 1 -1 -29 -32 -21 48 -1 27 -24 15 -45 0 -46 27 -19 -21 13 -85 -12 -7 -54 -89 -32 42 -20 -18 17 65 22 32 -55 -64 -14 -108 -61 -41 -89 79 -14 -9 8 -43 19 12 -33 0 32 23 -46 79 -20 -9 0 8 -9 -14 -51 2 15 8 -27 -34 19 32 -25 47 44 2 17 8 9 40 -2 -57 79 -4 3 103 10 -57 -22 -16 7 3 -14 31 -54 -12 2 10 11 33 52 4 38 -41 0 20 -25 -43 45 0 17 -12 11 46 72 31 86 -48 18 15 0 1 -14 -14 18 42 -17 -22 19 7 -21 -32 -8 -25 16 5 -10 -13 9 -33 6 -10 -34 -26 -51 2 26 17 -10 -23 -35 0 -4 -30 17 3 -29 52 -61 6 57 8 38 44 -12 38 5 -11 -2 -14 -2 28 -26 -1 -33 11 -18 -15 3 -17 17 26 84 -54 17 41 -14 28 -1 75 -1 5 -59 57 16 -16 -32 11 6 -25 -65 -2 -12 14 15 19 -16 -3 31 2 27 4 21 3 -52 -44 -43 -17 12 14 -34 -7 -24 -18 26 -3 -24 -45 -2 -39 1 3 30 -62 -29 0 -18 11 -13 65 -34 36 1 -36 6 49 30 -22 25 23 0 46 10 -1 -12 24 -5 -54 -26 -44 36 -29 22 -8 -11 -16 37 74 2 -13 -22 -32 -14 50 -17 -18 4 12 -4 18 21 8 -36 -30 4 -23 -34 10 -50 -32 9 55 -34 -15 -19 29 -21 21 45 -21 30 15 3 -3 0 0 42 -16 -65 59 5 5 -28 -8 13 -3 -9 -84 -5 8 -21 34 -34 -1 -5 -3 -28 14 -19 -23 -17 12 15 5 25 -2 -28 9 -11 33 52 -7 22 -6 -9 10 -4 7 -3 5 1 -3 -4 -27 4 5 -64 63 -13 38 -17 -27 34 -9 -5 62 -16 1
-31 8 1 -23 3 21 -49 -37 -10 9 -7 -12 -31 21 -5 -17 -41 10 -18 -27 -4 -23 -38 27 -20 24 22 10 -7 20 21 -25 -11 -22 5 77 11 -30 5 1 -18 -14 -10 1 47 -10 -9 -16 -50 -19 3 -11 18 34 5 -14 -6 -14 8 -34 -3 2 -7 -10 -25 -18 20 -17 -9 -5 -26 26 5 14 5 -4 -14 0 13 -20 11 -11 -28 17 10 -1 -28 -10 51 -16 -6 -24 64 9 26 -15 -32 -10 15 19 9 -24 2 3 3 9 25 21 21 -17 1 -8 -24 37 25 13 -52 -27 -17 12 -41 27 14 11 1 -28 33 26 -6 -18 -40 44 15 -22 12 16 44 -5 -48 -9 15 16 -25 2 3 -99 14 -12 23 -4 -46 26 35 -2 2 -10 2 -37 7 23 -78 -14 22 31 -17 -14 12 6 -40 29 1 -5 8 1 -6 20 -12 0 45 2 -14 -1 -1 -8 13 -20 -39 21 -24 -27 -14 -34 7 -9 -5 -10 -15 34 7 42 17 4 -21 -31 -2 -1 10 92 34 10 46 10 19 13 3 2 8 15 6 8 -2 46 -20 -30 8 -11 9 -9 31 -12 -10 -9 -17 15 18 17 73 -45 -19 4 31 9 21 -27 39 -7 6 33 27 53 8 -6 -4 9 -34 -23 51 6 23 29 -16 19 -2 21 23 1 49 -17 3 -62 -50 11 27 -43 -2 23 -8 -4 47 -29 -25 -2 15 -8 -20 4 18 -44 -4 -4 -42 -27 -2 -9 -48 -13 -9 -1 -12 -21 -15 -18 -5 -20 20 -34 10 -16 -17 4 -61 -22 -27 -25 9 -29 -8 -38 3 7 -24 19 45 16 -5 -11 -4 -2 -5 27 24 16 -5 -1 -28 1 -127 -4 -16 -14 12 12 13 41 -17 -9 -19 -22 1 8 -27 2 -2 6 -21 7 -45 1 -3 -33 10 -9 31 33 3 -23 12 9 32 0 -25 -7 20 17 -31 54 28 -1 32 9 45 59 2 2 -25 16 13 -4 -23 -7 2 14 -22 11 12 -38 -5 24 -11 -1 20 -15 21 27 17 22 5 24 9 -47 14 -6 -1 -63 -32 -90 4 -12 -15 18 -26 29 30 4 19 10 5 5 -6 53 -1 -27 -20 18 11 -20 -3 9 34 -3 4 -56 19 -24 54 7 16 -14 -10 -1 32 6 1 -7 0 -41 -36 8 12 -1 -10 13 -28 12 36 8 5 -22 -18 1 32 -45 -11 -7 2 45 -28 -3 -9 17 22 0 -36 -23 9 25 -11 -16 18 -2 8 -5 1 7 -67 -19 -9 -5 -4 -9 -91 6 7 -31 15 8 16 -10 -9 9 11 4 7 -5 -25 -13 -2 -60 -34 2 2 5 -31 8 9 33 -28 -19 5 -4 4 -30 -47 42 -50 12 -18 -56 0 -15 4 5 17 -45 -4 -13 -39 29 -5 1 -17 5 34 -25 0 -114 -13 1 -15 7 22 -17 -40 35 -41 31 -18 -30 24 -4 6 25 -15 3 4 -51 -33 -32 21 -18 8 -34 -7 -30 7 1 -4 101 5 -33 -28 -34 3 54 -2 -21 3 -25 4 -15 8 -9 6 2 9 7 -14 21 39 16 29 -15 -6 30 -44 37 16 -2 27 0 -39 -45 102 -18 -1 -20 -15 -32 57 21 14 33 10 23 -20 18 30 11 -36 85 -56 15 -67 -12 -35 23 -37 -2 11 18 10 -42 14 2 -18 4 -1 -42 5 -35 -24 8 -29 -19 12 2 42 -13 -43 -22 -30 13 30 18 8 0 -21 0 16 -61 -22 22 23 -23 -19 13 6 -47 -5 -1 14 1 -52 -8 -24 -6 -36 -4 12 13 17 14 8 -87 -19 22 14 -6 3 -10 -46 -2 -20 -10 11 -10 26 3 13 11 -3 -44 11 -27 14 7 -27 -17 -25 17 -27 7 3 -4 -13 7 13 -2 0 2 16 -5 -7 -5 -25 -1 19 -1 -17 -9 4 21 -13 -12 7 19 20 -5 -1 4 -7 -7 -17 17 -26 -12 1 -23
-4 -11 -26 -42 -55 -53 39 -1 15 36 -4 4 -9 73 -20 -12 5 -16 32 -65 38 57 -29 17 -27 -16 -47 -16 4 -18 -9 14 11 -29 -66 -40 -21 23 61 7 36 -25 -14 63 -24 -11 -13 38 73 2 -15 70 -95 27 -21 -9 85 -27 -24 -34 -42 -2 5 -16 27 55 -49 -32 -13 35 14 45 11 -13 78 5 41 1 -14 -1 -49 0 -31 -24 -34 36 -15 -10 -63 5 -17 34 -58 -35 -35 -2 -9 13 29 -4 4 -52 7 4 18 -1 -10 -18 1 26 -3 -21 8 -5 7 -10 -4 -34 40 -20 58 -84 11 -36 -48 28 4 -38 35 27 24 4 -48 21 74 -53 24 31 52 53 -3 -9 -12 -30 -4 10 46 7 3 40 40 -42 31 -42 -11 -35 -27 32 -4 -13 26 -2 -11 -16 -41 -54 37 -1 16 18 -24 45 -49 -49 -5 -14 10 -20 37 2 -22 -54 -1 6 -11 -60 -25 -25 -14 -53 52 3 0 -22 -68 3 13 39 -17 3 -29 -53 4 -1 -4 -37 -14 31 31 42 82 -47 -69 -7 -54 -34 17 -23 29 -25 -72 -41 13 49 79 12 -56 19 35 11 -27 7 5 -28 -5 -7 -45 -18 7 38 -12 32 24 24 28 32 -25 -7 16 10 42 0 2 -7 14 -56 -82 -12 -23 47 -16 -6 -16 -30 0 13 -10 23 44 -28 23 -62 -51 -20 -40 86 -2 -24 -4 -59 -3 15 23 11 50 -20 13 -48 51 19 -13 -14 23 12 -18 -22 -52 -19 -1 13 -44 1 19 -27 -32 -15 2 -10 -34 -35 -23 -59 -21 39 -6 7 9 14 12 -28 20 -34 -35 -14 28 -19 -34 25 1 -47 1 -27 -10 54 94 -57 -10 87 -38 -19 -38 -3 96 30 -13 -44 -4 -19 -57 -12 0 -27 42 -32 17 -1 121 27 42 -46 -17 -13 -40 -74 2 -30 -32 -6 1 20 12 2 20 20 23 0 -40 -15 10 6 27 -29 19 -7 -87 48 13 2 15 -60 -87 -6 19 -35 89 20 -8 42 -45 -16 26 48 24 47 62 -35 4 -7 -21 16 39 -27 78 0 -38 -12 14 6 10 10 -48 27 36 3 -43 -53 89 10 -12 4 -44 50 31 8 9 -61 -66 14 15 -15 -37 65 47 -42 8 7 -6 57 -72 -20 22 42 -25 -5 4 -20 -26 27 2 -22 -20 -26 -13 -37 35 22 28 -83 -20 -8 -22 8 -24 -43 -21 -12 -30 26 -11 -63 81 22 117 50 -5 -62 6 126 -35 66 6 -10 -22 28 -10 -17 10 35 -37 -3 -70 -11 -19 -5 48 25 -43 4 -41 -16 6 43 -15 -31 -47 3 1 30 53 -14 -34 8 -57 -8 31 13 4 43 -19 63 23 38 -28 -53 27 46 -38 17 52 9 13 -46 -65 -3 -59 -46 -54 9 -13 26 5 1 -59 19 -9 42 82 -38 13 11 -41 22 -20 -22 0 -7 -35 -2 -17 -19 33 -15 -25 -41 -13 -16 -16 -25 -31 -21 -14 6 -50 22 30 -23 0 10 3 21 51 15 41 6 -37 0 8 28 24 10 -64 6 78 5 11 -1 -11 61 -23 -3 -37 9 -5 76 -12 -46 6 -7 41 38 5 23 86 9 4 -54 -12 -6 2 -50 -49 81 41 -18 -26 54 -38 -3 21 -109 49 2 -72 -52 -46 -9 -53 39 3 -30 68 -13 16 -4 -45 -8 24 61 17 -17 22 30 -19 6 -2 -35 -25 16 45 29 -5 -10 -30 35 9 -16 -14 -4 -9 -93 -53 28 60 -52 5 0 -65 35 -32 -33 -23 -123 18 -19 -3 -9 -9 23 11 -38 -52 59 -6 39 25 -1 36 6 62 13 17 8 -46 10 4 34 1 20 24 -2 -21 5 19 -13 -23 -24 6 -5 -11 32 -8 -3 -31 -24 23 9 -42 -61 90 -84 15 -4 8 -1 109 -7 -1 53 8 4 -44 -42 -42 19 26 -84 -25 25 24 -14 2 47 5 -1 9 22 -36 4
-83 -51 -14 3 60 -4 -31 6 -14 45 -33 -21 43 -12 -31 -16 1 -33 -7 74 20 18 25 69 -24 -27 -41 35 19 9 13 -22 66 30 -7 -24 36 16 -22 -17 -40 -16 59 40 -2 -34 -29 -2 19 0 48 1 28 45 16 16 40 6 16 41 10 -2 12 22 18 -19 -1 -21 56 -5 72 10 24 5 -15 20 41 11 21 -8 -52 13 -2 -24 39 31 -30 -32 -7 -1 -2 -6 10 -63 24 -6 -14 18 4 -5 7 47 17 105 -32 -1 -5 -8 8 9 3 27 20 21 -31 10 15 -16 7 -7 28 -42 -38 5 10 49 1 -16 -22 -49 30 -29 -51 10 -43 27 18 36 30 40 -23 -12 -31 35 28 11 31 7 4 6 11 -14 -20 -37 34 -11 11 -1 16 7 2 33 3 25 22 2 11 -3 -40 -2 44 30 -26 20 41 -58 -14 40 -12 101 -19 -20 0 1 -39 -63 37 -12 38 -19 6 7 -33 44 -50 -3 6 5 -69 -68 59 14 -53 45 13 -23 2 -15 -69 14 62 -3 10 57 -54 -26 -57 5 16 -6 -34 21 -23 -16 -15 0 -10 32 6 11 30 7 31 -32 70 10 -127 -59 37 -33 14 -5 -32 2 -30 -3 14 17 62 34 7 -28 -45 -26 -25 64 51 0 16 29 -2 -35 -11 15 32 -16 -44 -20 -110 4 -4 4 21 23 8 -51 16 -20 40 -42 -45 41 12 -24 53 4 6 68 -12 -20 13 -64 25 -35 -14 31 2 2 -16 5 -36 -13 19 8 16 93 -14 -30 -1 3 56 -61 -10 -27 8 -22 -28 -18 -84 -12 2 -33 16 21 -17 47 -35 3 43 -58 6 17 -91 -22 -32 -42 15 27 3 17 -6 46 2 -1 33 3 9 -19 -34 41 -9 -64 12 38 -59 10 -25 4 -60 25 70 -7 38 -34 0 10 4 14 6 -17 39 20 -7 -26 -3 -16 9 -11 28 27 17 -30 -9 -60 -10 -29 -22 38 6 7 -9 13 1 28 -9 -47 -1 15 -1 -45 -44 -5 84 13 36 -28 -31 -20 -2 -18 -23 17 39 5 1 0 -8 7 11 9 17 -16 -101 30 -25 31 41 18 1 -36 0 -34 7 -18 -51 -46 3 -8 0 56 -1 75 22 9 -36 39 -22 64 -74 -73 -2 35 19 -1 -21 -4 34 26 -22 -22 39 14 90 -105 40 -9 -14 -90 29 -3 -64 -46 -55 29 20 -28 -58 3 20 -43 -10 -36 87 -2 -10 -22 -3 31 42 11 -42 52 16 -73 -38 -7 3 -4 -2 41 61 46 -31 33 9 -21 -37 26 55 1 6 57 -20 -51 72 -24 -22 7 -29 11 -13 9 -6 -9 21 -11 -5 14 54 21 23 44 16 -2 -16 -4 -13 27 -30 -11 31 16 7 19 7 -14 20 -15 22 36 -11 2 29 -50 -27 -55 14 0 12 -43 0 -8 6 22 8 36 -64 85 -34 21 -2 26 12 35 28 16 -81 -29 30 3 -1 -10 7 -6 37 4 -8 -3 2 -24 -20 -15 -7 -46 8 78 -50 30 -30 -5 27 -11 9 -70 18 7 32 -25 18 39 -66 -24 -35 -25 13 -25 3 -31 25 9 81 -55 3 -23 -67 -20 11 -19 42 4 53 -50 65 -74 -22 -24 57 39 3 -65 42 52 -13 -43 8 -14 -7 13 3 -28 -26 23 37 -6 -44 15 -16 7 -32 -22 -43 24 -11 1 -3 9 37 -28 5 -45 -66 16 34 1 53 52 2 23 -5 21 -22 -58 9 11 -77 -2 -36 -5 -12 -6 1 -21 23 27 5 -6 -22 6 -42 -26 -25 -15 4 28 -37 81 46 -20 -17 16 16 4 -19 20 11 -34 26 -69 -28 79 3 17 17 -20 10 -11 52 -27 50 24 29 -23 9 -23 13 -42 22 66 14 56 20 26 24 -13 -14 49 32 -43 -8 5 17 -13 -26 19 28 -32 -3 0 -24 -32 -62 -23 31 -45 24 16 -45 -20
1 13 26 24 43 15 -28 21 26 24 35 20 3 11 -14 -5 73 9 59 -5 47 17 22 16 38 -2 -30 -35 41 -8 41 -60 -28 -57 9 16 1 29 -16 -15 -9 -19 56 17 -32 29 -13 -36 -57 -12 -21 -78 49 35 40 33 44 -1 43 -2 36 6 -9 -1 17 -15 71 32 13 1 -58 -2 -51 17 -8 11 48 9 -35 -20 3 -25 0 7 -33 -8 -27 10 -6 52 -4 11 28 -26 -77 21 -15 17 -66 -23 20 44 6 -12 -1 25 -12 -21 -58 14 0 -46 -38 -4 -35 15 -31 5 -8 8 10 -41 8 -25 31 18 9 -39 22 -21 -20 -1 -13 7 -40 -20 13 7 23 7 -73 -38 -38 -7 13 -16 -18 -31 -49 -49 -3 -1 -14 8 -28 -1 20 3 23 14 29 -23 -20 -20 -3 39 32 -38 39 -12 -10 -36 10 -31 -17 -23 -23 21 24 -43 21 -18 -8 42 -29 38 -8 -26 -8 -19 26 6 50 43 77 24 -8 55 12 -16 -22 -14 39 27 -3 27 11 12 14 -41 19 -2 -10 -39 7 40 73 1 -46 -3 -4 -21 -23 45 24 -56 -9 0 -28 -24 -23 -33 7 15 10 12 16 -48 16 3 -19 39 -8 4 25 -8 12 4 97 -12 -46 -82 8 35 -80 -6 -17 -5 8 -47 18 -5 -5 112 5 -12 3 -25 52 -6 -25 -23 -72 4 -11 15 -34 10 52 -54 5 19 -12 69 78 -24 -38 6 1 44 -15 7 32 -17 24 -2 -24 15 -72 -17 24 -13 18 15 -57 59 32 -41 28 -1 24 1 -34 -17 -12 -18 -20 8 -35 -1 -11 37 46 -34 -6 39 1 -15 38 -22 -3 -32 -36 23 -34 -55 13 -24 7 22 -1 -8 -34 16 34 11 -46 32 10 52 -4 -40 -72 14 15 27 2 0 0 -4 23 -34 22 26 -20 -3 -11 50 -72 -18 34 -43 -32 8 -8 8 -24 63 11 23 37 -1 -44 -39 -16 -39 9 38 25 -7 -14 31 -71 12 -55 33 -34 19 60 -9 15 -27 106 -18 6 -27 -12 -7 2 3 -32 18 -41 34 -24 -30 -9 -7 -1 20 -31 23 -19 -33 -19 15 -3 -42 16 1 -28 -42 33 -9 -1 8 49 47 10 -71 41 11 23 24 -61 26 -19 -14 2 23 32 -17 43 -4 26 7 -15 -38 -10 33 -35 62 21 -1 -32 -6 14 77 -8 8 2 12 -21 -45 -11 -3 -64 -81 2 -59 14 44 -41 -82 -23 24 25 -27 -61 -27 18 32 -16 -7 21 -33 4 21 -10 9 80 28 -49 1 -12 35 -9 -26 56 -28 17 8 0 43 54 -51 22 -4 -50 -17 86 -46 -3 25 -4 64 13 65 3 -19 1 18 46 31 -27 -33 24 -31 -5 14 -11 32 46 47 11 -13 43 -29 -7 -7 46 -8 -40 -10 7 -48 -22 16 -34 58 -32 5 4 -29 33 -42 40 -37 56 -28 66 13 52 34 -41 10 3 -26 -32 -8 13 -33 27 19 -21 49 -19 21 4 -43 -12 -39 -8 97 35 38 11 1 -23 60 48 -82 -2 -4 -16 53 9 -12 -37 -21 64 -28 65 55 65 -38 -11 -23 4 35 -13 19 27 53 2 -37 -40 9 -19 -35 18 -41 -127 19 -14 27 26 36 -34 39 -1 34 -2 -25 10 -12 52 -1 -5 3 -53 14 16 13 15 6 24 -30 -67 47 -4 47 -25 -11 19 102 19 2 70 23 -43 0 22 -31 -7 7 5 2 61 -27 20 -61 57 5 31 14 8 -72 40 6 4 -104 -16 -4 -11 23 43 -31 -51 32 -23 -13 -17 68 -8 -72 -34 -27 -31 27 -50 -29 -1 16 -6 38 42 -12 -41 -15 -5 1 -4 4 9 -39 54 10 -15 -10 11 -14 -1 20 5 -33 13 -42 -34 -9 -7 -34 19 -28 -33 19 17 -71 36 -11 -19 14 30 -43 -17 -1 -1 -7 -52 19 -37 11 34 4 -46 -35 -39 -3
15 -13 -14 29 -23 -1 -13 -2 24 20 -36 -1 58 -9 10 -1 26 6 16 28 7 -20 78 -8 -7 11 -13 -1 -13 5 -29 24 -22 23 -13 39 37 -15 -24 34 21 5 40 -19 4 16 -1 32 -50 31 -8 -2 -15 48 -17 -4 25 -14 -50 13 -40 -25 -34 14 -4 1 8 20 58 -6 6 108 -14 2 12 -3 -4 7 -29 5 21 1 -13 -41 29 29 15 9 1 -95 -9 -1 -17 16 19 -3 -2 -31 -32 -37 -14 28 10 -5 -5 -4 13 38 8 28 5 8 26 -7 24 -20 1 24 -12 -11 16 75 0 17 -16 14 45 -20 -7 55 -2 16 25 58 -38 20 13 67 23 -25 18 -15 -39 24 -6 -50 9 51 -13 -25 34 -5 44 12 -16 -56 29 3 -11 8 54 2 -1 -15 -27 -1 -24 -7 10 -15 2 6 37 -26 26 -73 8 -34 4 18 -34 -8 -65 -3 -27 -39 25 17 -21 3 33 -6 13 -22 3 -28 -9 -6 -14 1 37 -39 -17 -49 10 -11 13 2 40 23 29 20 4 20 -5 9 10 -10 11 -21 -4 42 44 6 13 -34 1 6 36 -6 -10 3 -17 77 0 -9 -4 -11 7 -8 -30 -29 -46 23 -52 2 -14 14 39 -61 -18 -35 32 42 24 22 -12 17 -8 -18 8 -2 21 -24 -27 -7 1 -21 53 -73 -9 28 39 28 33 -13 7 0 0 -24 -1 6 -4 -5 56 9 13 18 9 -39 9 24 11 32 -42 6 -15 -13 36 4 -57 7 -25 24 46 34 31 52 6 -20 -32 0 -15 -26 -38 19 7 -6 51 13 -2 10 10 47 -3 49 5 19 15 7 38 -10 -22 7 22 48 32 2 -19 5 26 8 -3 30 -18 -22 -63 14 -19 -1 7 -20 37 13 -33 -19 -30 -13 53 -41 -13 20 -29 16 4 -10 -33 2 12 16 41 -14 56 5 -43 43 -5 15 14 -26 -9 -1 -5 -65 -41 -28 18 -47 18 -61 -30 5 39 7 -57 -3 32 -10 12 11 4 21 6 4 28 -9 -19 8 8 -13 8 3 66 9 -17 18 -18 -9 24 -42 -17 1 40 4 27 -41 13 -3 -11 -127 -17 1 26 32 -2 1 1 -35 -20 13 -6 -22 31 44 -25 25 17 -3 18 -1 14 6 4 4 -5 -23 10 -8 47 -6 -3 23 -9 24 -4 -1 -13 -27 -22 -41 25 -14 70 18 -2 19 12 33 8 4 35 24 10 22 -32 34 -9 54 18 -44 62 -7 -5 4 -73 -36 1 -13 48 32 -20 1 -14 42 1 -18 11 -27 16 39 -5 -3 12 2 13 12 -26 12 38 0 14 -26 32 56 12 9 3 7 0 20 -17 17 14 42 13 -29 -37 38 29 8 -1 8 -11 69 -14 -41 -18 20 -31 -4 -2 7 47 -38 2 -18 -8 23 12 -19 -15 8 -21 -4 12 -36 38 16 -10 -10 -9 29 60 -7 -18 4 -12 14 -30 -8 -14 -12 -65 -11 7 31 17 -17 -1 64 -12 19 -11 -20 21 -8 10 6 31 24 4 24 -25 -11 -37 9 -33 17 28 28 57 -2 -19 -7 -52 -57 74 21 -7 0 24 3 37 7 34 -1 27 -18 1 41 -48 11 7 34 -28 3 -5 42 -11 15 -15 1 -69 -21 22 -15 4 11 -12 22 25 28 -12 -7 2 -14 12 -8 -26 8 -23 6 8 11 18 6 25 -2 -2 -16 -47 21 -6 10 0 -12 3 -6 -10 33 -48 -1 -53 -17 -2 7 -3 -28 -46 -16 -31 47 -3 -11 -35 0 22 -16 -16 -3 -22 52 -30 -22 23 -22 -3 3 -29 -1 -49 33 7 68 11 -37 1 24 -4 -47 8 -34 -75 6 19 -10 4 -17 4 20 -22 27 30 -16 -19 4 -15 -30 -29 -16 -37 45 51 -3 1 -21 -35 2 -15 13 34 24 -11 -19 2 26 6 -4 -38 27 -54 22 -27 3 -5 5 -1 -9
-3 -4 -1 -2 -12 25 73 -5 43 -8 39 -11 6 -3 6 4 -29 -15 23 2 -33 29 -13 18 -17 -4 15 2 -39 6 -11 6 -37 40 10 -1 -44 9 -18 11 15 8 7 -12 -26 -7 -41 -4 19 -26 5 50 -14 -14 -14 10 64 -29 42 -21 -23 -30 59 13 23 -2 29 13 1 -19 46 55 -36 72 -27 -5 18 7 -2 13 -12 3 -36 14 8 -16 9 15 -53 -11 29 40 -8 0 13 5 5 11 33 -33 32 3 30 2 21 -7 8 -12 14 62 2 -12 10 26 33 9 -54 -14 20 -14 18 23 -16 46 -5 13 -34 4 -15 13 39 -10 -15 2 -9 39 -4 -14 -52 58 1 -1 53 61 -5 45 18 25 5 -22 12 40 11 80 -18 6 -10 45 20 -18 7 -20 -11 14 1 -45 -15 7 -24 12 12 23 -23 19 -27 23 0 2 -24 -18 8 12 -7 -27 23 -8 27 16 7 3 -2 8 -2 -11 -48 -3 -6 -3 23 -42 -3 -24 -32 13 -4 25 41 -9 -62 -8 30 -21 4 -6 36 22 -3 -3 13 2 25 -4 1 4 14 27 14 -7 -36 19 17 -17 0 -9 77 -16 47 126 50 -51 10 2 3 23 -20 16 -31 -3 33 7 -12 -47 -19 28 -19 -22 -21 23 18 -19 -20 24 -44 -7 17 7 -39 26 -19 -29 2 13 44 47 17 41 16 -66 42 35 -8 -45 2 -42 -18 14 -42 -21 -3 -54 16 -15 -3 -37 7 -1 28 -40 37 -43 10 -30 30 -15 10 54 18 44 -17 0 -44 1 -12 40 -14 27 8 37 13 -14 4 37 -36 16 36 36 1 12 -11 56 1 72 -23 -12 56 -5 56 0 -1 77 56 28 -55 -46 20 19 24 34 -28 -15 -18 15 -29 -58 -29 39 -20 7 15 -19 -34 -3 -35 -10 18 18 -30 16 25 18 -9 -25 -13 -16 -22 3 1 -7 -6 2 -21 -39 -4 45 11 -18 -14 6 43 17 4 -12 2 -6 -16 -18 -28 -29 -31 15 5 51 21 -10 1 27 7 4 8 10 -33 11 58 27 0 41 -5 23 -11 -25 19 4 12 22 23 15 12 -44 -35 -26 19 54 17 13 -23 50 22 -18 10 64 -22 3 23 28 -81 20 26 88 -63 45 95 30 -12 7 -10 8 -49 7 -44 27 5 -2 66 44 24 15 10 13 -8 -43 44 39 -16 36 -4 -29 -22 27 -10 15 -31 18 29 43 3 -17 4 40 30 51 69 -17 -22 22 -40 -24 12 52 -4 -19 97 -11 -29 27 0 43 18 26 -19 6 -3 -24 -38 20 -2 43 9 15 -45 8 23 3 39 -2 -13 -97 28 -98 -1 5 21 -11 -11 66 48 -3 22 1 13 12 19 -36 -20 9 16 -6 21 -17 -53 5 -34 0 41 33 21 -3 -23 -46 1 36 18 13 -13 21 -23 -30 0 41 6 39 38 7 40 4 -37 34 14 -10 -15 -38 44 -4 47 10 -35 36 25 25 -1 28 40 18 -11 7 -18 10 6 11 -17 -22 -40 20 -39 60 2 -36 -14 -15 28 -13 46 3 -17 -6 -15 37 18 9 19 10 -15 13 -82 15 -53 4 5 -3 -45 36 20 -34 -25 -59 12 -17 -47 -17 -32 -6 21 16 -20 -42 28 1 -53 15 -6 39 0 8 -43 7 -17 5 6 -56 56 48 -31 -9 -15 -19 11 21 -6 -19 -7 16 17 28 -5 -20 -36 1 -1 -5 21 16 -35 33 -14 6 17 -24 2 28 43 -25 -13 32 45 8 -3 5 49 4 -13 33 -5 46 26 54 38 39 -42 45 33 -57 4 -59 -26 28 8 21 -19 -27 -59 -19 -2 5 35 -41 13 3 17 -2 4 34 -41 20 -9 6 -22 -6 32 22 27 -5 72 0 10 -4 -30 -19 12 -6 28 10 69 2 11 29 -21 -44 40 14 -17 14 -49 -15 6 25 2 -4 58 9
-21 -16 -51 -1 4 -49 -26 1 -61 3 23 33 -3 19 34 -19 -7 9 -25 -19 -14 1 0 14 -11 -49 -2 -33 -1 -2 -23 -4 -30 18 -21 37 -12 -25 -1 -11 -2 -2 -9 -27 -3 -6 -18 -11 -14 35 4 23 -13 -16 -5 1 -30 55 -1 -55 20 -31 -46 -34 68 21 -27 3 -63 -20 -19 -43 -13 2 56 -19 11 2 -27 11 -3 -18 28 1 -40 33 47 60 29 20 10 16 -76 -14 49 30 -13 21 18 -3 22 -47 35 -55 44 -23 -18 -76 -35 -12 -9 18 1 -8 96 20 -6 1 61 8 3 -55 15 -2 -2 -6 -34 39 -28 -98 -61 -13 -51 9 21 11 32 -83 34 -3 -40 -6 -7 37 45 22 -37 -26 24 -49 41 22 -51 -54 -20 -29 -11 -48 8 8 -3 19 3 39 19 -13 8 -3 41 64 -36 -20 -19 10 -8 25 -32 49 -8 -18 -22 -10 32 56 -4 12 15 -4 19 22 -42 2 8 31 -36 0 -5 86 -6 22 -32 29 -34 5 -24 11 -3 -88 -11 -5 22 8 20 -9 -19 -12 -20 -30 -24 -7 -69 -2 -49 40 0 21 -77 81 24 -37 4 47 4 26 -11 -22 -57 11 -4 -27 9 -19 -20 -21 -8 10 -21 -1 -9 10 -20 44 -8 -24 -2 32 7 15 1 33 -54 17 18 3 13 -10 66 -35 -39 -35 63 -42 -111 11 26 -87 38 -2 -10 77 -3 -15 -10 -19 -14 42 -10 37 21 -1 19 -3 26 13 41 40 -18 11 15 -55 35 42 -36 -12 62 28 -1 -9 28 -21 29 46 -27 22 5 2 -21 -50 -49 -22 -17 -39 -24 -82 -49 13 -2 -26 3 -57 6 2 86 13 28 -48 95 -29 -14 -37 29 -6 -54 -92 -6 11 30 -5 17 -33 -49 23 -18 -52 -29 -31 14 -7 4 -15 41 -21 -19 -30 9 -1 -42 26 -53 -38 -11 -38 -40 2 -63 -47 2 -28 -44 -57 -127 -13 38 21 67 -43 18 -4 -8 17 21 -22 -9 -40 -41 -2 11 -33 -16 -25 -11 44 -52 13 1 -14 21 -47 -9 37 -27 -12 5 -8 -43 10 27 19 -8 12 -11 -61 23 -105 -15 -8 -97 12 20 9 6 13 42 -45 9 -102 34 4 -63 44 -18 -13 5 28 -23 -43 -19 -5 32 -23 -19 -45 -33 -12 38 -66 37 -48 -12 36 -39 10 1 38 -14 -9 -7 -9 42 -15 24 22 9 -11 30 -36 -10 1 -6 -14 -93 -3 -2 12 -22 -22 -2 110 -15 -25 -61 49 9 -3 -43 -29 -9 3 -9 -104 -16 -1 14 15 33 -43 -30 -6 -18 -7 -10 14 -30 -8 55 -46 -23 -4 -11 -42 36 -5 -9 -70 -54 -71 26 28 -29 15 38 -97 -43 25 -3 -10 12 -41 -16 -26 -6 -1 47 -9 12 37 -9 -57 10 20 6 -20 -13 15 -29 -62 -6 -47 8 -4 -4 -21 7 -25 3 -38 24 -56 -27 -7 38 19 -26 5 -4 -19 -5 -72 -9 19 6 8 1 16 9 -17 12 -18 5 -99 -51 29 -43 -14 11 23 56 16 -39 -19 -24 -51 -16 -33 -22 6 7 17 14 -2 23 44 -20 12 20 -13 51 -41 -55 7 21 -120 -55 -1 -25 7 -8 36 -76 -47 -9 -43 18 38 -19 -12 -17 0 5 36 30 4 11 -5 -50 -16 52 6 -43 -28 -10 16 35 -48 11 24 -4 40 -34 -19 -48 43 -5 -9 20 12 -28 -14 25 29 -46 -29 -15 1 27 33 21 -11 13 51 42 -19 -2 -24 -54 -17 -39 5 22 18 29 10 -17 36 24 -15 -5 -25 79 -22 -56 -23 -20 17 -32 -34 16 -1 74 5 60 -21 19 -14 -11 43 -14 -25 -58 29 11 -20 -11 -35 48 23 14 13 35 16 -20 -40 2 -12 -28 1 20 35 -20 3 27 -9 42 -38 9 -21 21 -58 8 -22 57 -15 4 15 -20 -42 46 -15 25 4 49 -2 6 -14 -4 2 57 16
-81 -8 -36 7 -46 -15 7 -2 28 -10 -17 -22 9 6 -11 28 0 41 76 -15 21 -39 14 13 -1 -33 74 -84 -25 -49 30 4 -76 36 16 17 13 -9 9 10 -24 -6 -70 60 10 94 -26 25 -43 -17 55 7 -5 -50 67 30 18 -32 -75 -28 -32 88 -2 -35 -27 59 36 71 -27 -36 -18 -44 -21 21 -26 -4 23 2 -46 -10 -23 -39 -18 22 36 38 23 56 19 -4 9 -43 0 13 -10 2 -44 0 43 32 0 -20 -20 23 33 41 -6 -34 -19 -42 1 -32 5 26 -61 13 -6 -2 -11 -29 41 39 16 11 19 30 -15 27 -69 68 40 -8 -5 -12 47 16 26 -38 20 -35 4 20 -18 -25 -48 -13 -12 -13 12 -18 -55 -15 17 -12 -22 -60 25 9 -11 -41 -46 -46 -24 -5 -41 -62 -15 -18 13 -11 18 29 -43 -2 25 42 12 18 59 -10 -31 30 39 72 -2 -22 -24 -22 -6 -27 0 -14 21 42 61 41 -57 1 12 -8 41 11 -20 34 -1 23 -20 92 79 -13 101 -7 8 21 -23 1 57 4 16 13 -60 -18 -19 42 -4 -10 -30 -46 -43 -18 -7 8 -14 59 21 7 20 -18 50 34 -56 -7 96 -13 16 -3 13 -12 -23 -20 -1 14 61 39 -16 -17 -23 62 36 3 -52 41 -17 -10 -24 20 -9 -24 47 83 -10 16 80 -17 -14 4 33 5 -11 -9 -19 29 13 23 46 -104 -34 34 -38 15 24 10 -13 -7 17 10 23 -40 -61 59 -22 37 -33 1 -37 11 17 -27 -9 -17 68 69 -53 -84 17 17 -6 -8 17 62 -56 -56 20 44 50 -29 31 -5 57 42 -15 -52 5 19 -38 -44 23 -73 31 25 26 -44 -49 -81 52 3 -25 45 31 -40 13 -6 8 -8 -41 20 65 -27 -20 34 -29 -4 -94 8 26 18 24 50 34 -41 -5 -22 -52 -31 42 -15 -33 -25 -15 82 -15 20 -67 35 -51 -44 78 -38 66 78 30 -24 24 -22 -46 17 -53 -42 27 -42 21 -30 48 58 -31 15 56 -24 46 14 45 7 91 -67 41 48 -34 -1 -6 23 -21 63 -49 5 -15 66 30 -3 5 -88 0 -71 -48 -98 -45 23 -34 31 -38 -56 22 15 62 -8 16 38 44 -30 0 15 23 14 -3 0 -67 -63 69 52 4 6 -4 -27 -8 -5 2 71 126 34 18 77 -12 -22 -45 33 19 83 -6 -8 -31 57 -11 50 25 -98 29 23 -10 7 9 -11 3 35 -49 -36 -43 37 8 -5 -57 8 -45 -3 8 -27 -45 8 -19 -47 -13 -22 43 -77 -67 -12 29 30 -15 17 24 -7 57 8 -11 3 -87 58 29 -13 -11 40 7 -33 92 -7 -8 21 -11 -51 -26 -21 20 51 26 39 5 -48 -8 27 -12 -8 42 -4 -7 -24 24 -18 -31 -12 -2 47 -78 -4 -33 30 -5 15 31 -1 13 69 -25 -63 54 23 13 22 -6 -19 7 25 -67 -112 44 57 -72 -84 -23 10 -2 7 -108 55 15 18 64 -19 13 28 57 -45 4 -12 -36 -33 -7 15 -5 14 -17 -34 -95 -13 -9 30 17 -14 29 3 -24 -12 -20 3 -71 -61 -1 45 -127 5 18 -42 -25 -72 7 -31 12 -57 -37 -74 -31 28 -42 17 23 -7 0 -21 -20 3 27 10 0 -2 -1 61 5 -34 2 30 12 -19 -24 -65 -11 -2 -15 -34 -58 -30 -49 -66 55 42 1 1 -37 -8 -9 80 -34 35 -60 -46 15 13 34 36 -84 -30 28 -10 82 -20 -70 2 22 -29 -16 -16 -73 20 14 -18 -20 -38 47 -15 60 14 47 -3 -3 17 -5 -47 33 -24 26 53 -44 35 28 15 6 26 26 13 2 -32 17 28 -28 18 17 15 45 -31 -6 11 44 23 59 -15 -17 17 15 -9 57 -89 13 18 46 -33 -4 -69 -24 41 -59 14 -55 -34 -50 -4 5 9 5 1 -46 3
-1 -16 -32 -12 46 36 -20 -38 6 4 -13 16 2 -1 11 20 -3 -17 6 -1 -21 -31 -1 -36 20 34 -1 -32 -48 -31 12 33 34 -5 -9 35 -16 -62 -30 -28 -40 14 21 -15 -9 21 41 43 22 -26 18 -47 3 33 10 -4 -45 24 -1 -9 39 -8 -42 41 -50 27 -26 33 34 -10 -4 -35 58 20 28 4 -19 -8 26 -3 35 -16 -2 24 -30 -10 2 -1 -20 -31 -16 -3 -15 -1 29 -10 28 21 -15 -28 -17 -12 6 -48 14 31 2 28 -22 13 -2 -25 54 -10 -38 -12 12 -51 -3 -6 18 25 1 -8 -29 43 3 43 39 -2 -30 -26 -36 24 72 35 -3 40 13 -1 3 39 9 37 -3 0 -5 -69 -18 40 -20 17 -19 5 -11 -28 14 20 7 1 -10 6 -65 50 -72 -28 10 -32 12 -50 15 2 -17 -11 -4 -37 1 -11 11 -44 8 -2 39 -30 -22 -10 -12 -32 -10 -35 14 -77 15 12 -53 -21 29 47 5 38 -6 8 42 30 2 -3 18 -65 -8 13 -3 -8 -4 -13 -34 16 40 -8 32 10 33 29 -30 -35 27 6 50 -23 20 -36 5 16 9 0 19 8 -14 66 -3 29 6 -20 16 16 -32 32 -63 -10 -26 42 21 -13 -20 13 -15 -49 -44 3 24 18 -49 -18 -18 53 13 -36 -59 -57 16 37 -11 -45 -60 -6 -9 -32 30 -7 -51 -13 80 29 30 6 41 -24 42 -61 41 -16 -19 -5 37 4 -35 3 54 26 15 -69 -38 -4 -5 -3 -6 -20 0 18 9 12 -8 40 16 80 14 -36 -53 -10 9 6 -39 -42 -28 -28 -15 -49 -7 -31 8 91 -11 28 31 -32 -40 60 -6 1 -11 2 19 -28 2 10 19 5 -29 -47 18 24 -1 -3 30 -42 1 -27 -20 -25 -43 11 -25 -32 39 10 60 -16 -17 -9 -20 -2 18 3 -49 9 -32 30 -21 10 -5 23 8 11 21 11 1 -15 -1 8 35 -1 -12 -44 11 13 10 -14 12 -5 -24 2 20 -14 13 0 15 -3 -18 8 -8 -34 42 -3 -11 4 8 -74 -1 -29 -2 0 -7 20 5 52 6 -18 -16 -58 -10 -37 -12 13 16 -17 7 -5 -15 21 45 -22 8 29 3 -8 -88 5 28 -37 31 -24 9 20 -3 -4 -73 -11 -22 0 -20 -42 31 -23 -11 -16 -12 -42 -1 -26 48 14 8 -21 -33 14 38 -14 18 -32 -6 82 57 -55 23 43 -46 -30 0 -60 -22 -44 60 23 9 -62 -45 39 -3 -25 -18 52 -48 39 1 11 -22 -14 26 -45 19 -46 -6 -20 -22 -66 -63 -28 14 -3 -7 5 -28 -39 -18 37 -39 52 16 5 -8 14 5 -80 5 -6 4 -6 -31 10 -17 20 8 19 -21 -14 5 -55 -14 -14 11 -14 -34 10 25 18 -28 -82 -31 -47 35 -32 -69 -33 35 -29 -34 38 -42 1 -23 21 -24 -6 -48 1 19 -58 -13 34 13 34 7 -29 -15 13 10 32 -3 -127 0 -27 36 -9 -38 -41 52 29 -6 -17 -21 -16 9 17 -16 -28 -3 24 -13 38 30 -38 -44 36 -33 55 -9 62 -41 -44 -43 7 -19 -6 4 8 0 -33 13 -8 39 12 -18 -42 -43 43 4 -5 -22 14 5 30 -7 4 48 -5 -15 -3 3 43 -45 12 -7 -10 -21 -14 -6 15 -5 37 -22 -10 -1 45 -8 50 2 7 9 -38 -27 21 -13 -43 -3 -15 -19 -27 35 -6 18 1 -53 -27 2 -23 -3 -7 69 46 -15 -41 -6 -10 8 -31 -18 -20 -55 -15 -31 29 12 18 -29 -46 60 -13 5 -21 16 -71 21 -26 41 -28 -39 7 3 -6 30 6 10 19 -13 -22 10 -5 28 8 13 -6 27 22 -10 17 -27 14 3 39 8 -16 6 -12 7 -8 -25 -17 13 -59 12 4 20 19 10 -10 -55 45 0 -4 -35 -8 28 71 0 19 -30 -6 -20 -30
62 11 26 16 11 -22 -11 -5 10 25 -21 6 71 6 16 -7 3 23 -44 53 10 9 -7 0 -32 31 57 -31 6 -7 -64 30 39 11 3 -29 26 -54 3 9 71 22 17 12 -74 11 -15 -49 -32 41 20 -4 6 29 62 15 -5 -29 5 -79 4 -10 -11 -44 -14 19 -71 -5 47 -37 40 -73 -61 -27 -53 -6 -18 7 -50 -12 73 -11 12 37 54 -7 -37 31 -34 -8 -4 50 -76 35 -40 -31 -39 10 11 14 -32 4 -45 16 28 62 -20 22 42 24 4 -31 -20 32 61 0 1 -20 33 26 25 -17 0 -10 9 7 -25 -8 21 46 -15 0 -9 9 16 -45 -4 -4 -24 -52 35 3 -32 24 -3 12 73 32 18 19 9 -67 16 -10 -16 -5 11 -10 -29 -17 -10 -10 -44 -31 37 21 -10 -21 77 33 -7 -4 54 57 14 0 7 0 11 51 11 -58 -42 -46 25 12 15 9 -33 40 -17 28 62 -42 -35 16 -11 60 -14 -52 -42 31 26 -34 11 0 -1 -45 -2 16 -34 -5 33 -4 40 14 -10 8 -22 1 -21 28 11 45 20 -3 24 9 0 -42 11 -8 -19 15 -92 -37 -5 -45 11 0 12 -18 43 42 1 15 -14 -20 8 -9 17 39 -4 13 2 42 -32 -23 16 -21 17 -5 20 -39 -59 30 34 -73 34 -31 4 58 -7 21 -44 81 -10 15 27 -15 50 -53 8 -8 -11 -4 -20 43 -84 62 -11 -26 13 27 6 1 3 -24 -10 -35 15 2 7 -20 -28 -70 2 6 36 -9 -24 33 28 -10 28 -13 -8 -13 -33 15 49 12 34 -56 -4 11 -24 6 23 48 -6 -73 -25 8 29 12 -10 -28 -31 -16 38 -12 -31 -9 20 6 -25 -21 56 -30 -19 -9 -35 6 15 3 7 25 62 7 13 -4 65 -22 -25 -38 -27 -7 42 53 -42 -4 -17 -1 -20 11 -8 49 13 3 23 59 -9 -27 52 -12 27 16 -12 -21 40 7 20 -45 35 61 -6 -8 -2 12 -16 -4 40 23 59 19 63 -60 -12 -7 14 -14 -4 6 11 55 16 1 -21 -16 32 36 29 -20 14 -9 -20 20 4 -11 21 29 32 11 16 55 22 -7 29 8 30 30 -56 -5 21 -46 -10 -25 34 1 -48 38 2 7 -46 6 -2 8 -9 1 10 -29 -2 76 15 -60 -4 -32 -17 -24 -18 -6 41 100 -12 46 30 -17 5 25 17 2 52 -34 -8 15 29 -14 -23 59 1 -11 -39 -33 -12 32 6 22 11 28 -32 -6 -26 9 126 -2 37 15 -31 -32 12 -65 3 25 -76 -7 20 1 16 16 61 0 -4 29 20 -8 0 -13 -17 -11 5 -44 -12 12 -61 3 -18 14 10 -10 28 7 -2 23 15 73 -24 -27 37 -2 -23 0 -8 -1 6 -21 -4 -6 8 -35 65 -7 24 0 -15 -17 -75 -8 -8 -67 -3 5 10 -11 -8 -13 -30 1 24 5 0 44 14 8 -12 51 -3 -2 -1 13 6 10 -11 34 36 38 -10 -22 28 26 70 -4 10 -42 -18 -10 10 -2 65 60 -34 29 -7 11 11 28 -62 -14 39 -38 31 6 -7 25 27 -31 -48 -5 -16 -40 21 -65 1 -84 -9 -50 0 -8 -10 44 -9 7 39 45 20 -19 -93 40 -30 -92 -13 2 67 -20 48 15 -46 -38 19 21 -17 53 -21 -5 8 71 -21 -36 -3 7 10 28 -35 -40 -76 0 6 33 35 -20 33 7 34 3 20 28 70 23 76 56 -11 -26 -70 53 -12 16 11 11 6 15 -14 71 -24 24 56 -6 11 63 7 18 -31 -15 -2 -9 -86 31 12 9 -7 3 17 10 9 11 6 -7 16 4 5 -26 -20 -4 33 -35 20 -11 7 12 -9 38 1 26 -12 -26 3 3 85 38 -10 1 22 11 -15 25 12 25 -6 -28 24 29 33 -1 22 48 24 23 -29 -2
38 -7 -19 3 -10 10 50 34 30 41 15 47 10 -6 -27 -9 17 32 -43 8 54 45 -26 -24 -21 -12 -19 -32 -27 24 4 64 -41 27 29 92 -44 33 57 14 49 -9 10 3 49 0 41 12 -12 -13 -28 26 -29 28 60 30 -58 9 -28 -9 -8 -14 23 -5 -7 11 -12 7 22 -10 -5 -9 33 -3 -2 -3 -30 -16 23 -9 62 -13 -1 16 13 49 74 -32 -54 24 -20 -8 50 10 19 -22 -17 28 39 38 -7 -26 -29 -34 26 38 -18 -31 51 -8 2 -19 7 13 -16 40 7 -28 -1 -12 -5 37 13 -19 35 -42 0 27 22 -18 -19 46 30 -50 41 -9 40 5 41 8 19 -7 17 -23 27 50 -51 -93 0 34 36 -19 -34 9 -42 -19 -11 -2 12 -45 -70 7 12 23 32 32 16 7 -32 1 -23 -35 -5 10 -41 -31 12 -1 23 10 -20 23 -8 -24 18 6 -19 -12 4 40 -34 40 -44 4 -18 0 -14 26 -42 35 -17 20 -12 13 -22 13 -38 89 1 16 5 -63 39 -5 23 23 -48 9 8 16 15 -66 -54 41 69 26 5 30 -16 -4 -33 -22 10 37 6 3 -127 -27 26 -35 -6 -63 -7 5 19 32 -27 63 50 58 22 102 -3 15 -16 33 14 -87 22 7 13 7 -3 21 64 -19 11 -61 -7 -21 57 11 -21 53 10 -46 -9 -8 -35 10 36 42 -14 -2 51 50 -43 -15 -30 62 52 -23 -30 11 47 31 21 18 71 -19 -41 9 -11 -23 13 -60 -11 -5 17 18 1 51 -24 -17 -46 -13 -30 2 60 10 -23 -30 37 -25 -60 38 27 -21 33 -71 -5 -56 -54 -19 49 -70 8 88 37 -72 -20 9 -18 -22 -32 8 -12 -24 25 -49 14 -19 -44 44 29 2 33 11 -5 -39 12 -17 30 7 -12 4 20 8 -53 -20 16 32 31 -10 -4 40 1 33 -1 -3 -43 -3 -49 45 14 11 20 24 -39 55 13 -13 11 -24 26 -15 -42 19 -21 -5 20 -44 36 11 -7 -5 -1 -48 -9 -22 -68 3 90 29 -32 41 -21 11 -42 28 5 -20 -11 20 4 19 22 8 16 -87 15 44 3 -9 -17 -26 -22 39 6 13 5 -6 -6 -72 -6 -67 10 14 5 -45 -54 25 43 0 -45 1 -33 59 -1 35 46 49 1 0 59 48 42 49 50 -37 -37 -68 14 -16 35 -4 15 -13 -28 -46 9 -11 3 6 -5 23 15 51 55 13 -28 -13 9 1 -3 -80 -12 -30 9 -29 40 -5 20 -5 -1 -15 -32 -43 -42 17 9 53 23 -47 21 -14 -7 -28 40 -9 88 -87 -19 36 27 46 -57 39 6 23 -45 -8 45 48 -36 -13 -27 3 41 56 10 45 -24 -55 0 -18 -26 23 -29 -61 60 16 -5 -1 6 0 46 2 31 41 -10 34 80 -17 62 -41 23 -63 22 6 -43 4 13 -36 23 -78 11 3 -48 31 44 -28 -4 2 54 31 -8 -12 1 40 27 -11 38 25 -33 8 -56 -1 -26 -47 -9 -17 -14 9 -32 38 -23 -15 -4 -16 -89 -24 9 23 -32 -9 -71 -30 40 -16 -7 -62 -45 33 -25 -42 34 -17 22 17 5 1 -28 13 -50 69 -40 -9 -11 35 -33 -5 36 -25 6 -53 -63 18 0 -36 32 22 -31 13 -3 18 28 -91 28 11 -19 -12 22 -6 37 40 66 3 -6 2 27 -26 1 1 -20 44 20 2 38 10 19 -10 58 11 37 12 44 54 -66 15 -20 -4 2 41 13 0 17 42 5 119 -43 4 -2 -18 30 -43 -3 -6 43 26 2 -55 -36 42 -23 6 -6 11 -39 2 -37 33 21 -22 -26 -49 -68 -10 -19 64 44 -15 17 24 -9 -12 -7 -7 13 40 -10 5 13 -49 24 -19 -49 12 28 -2 -2 76 -30 -5 29 79 -28 -34 -12 10 -44 3 11 27 -13 5 8 -23
14 1 -16 33 -8 -8 -8 14 -6 17 6 2 -13 -5 -4 17 5 -3 46 6 19 -10 23 35 18 14 18 -1 11 -29 -13 11 5 16 3 59 45 -21 3 16 3 39 10 -27 -7 32 2 -1 20 11 11 -4 3 -27 5 7 4 -23 1 7 8 -61 15 2 -4 -25 -12 12 -5 2 20 2 24 -3 35 -15 19 -11 32 39 -39 0 21 -4 1 -14 44 18 -7 28 4 -4 37 21 9 48 5 8 -26 -25 -9 31 8 16 28 1 -7 5 30 -4 1 23 30 23 -18 14 2 50 45 12 34 1 4 23 -17 37 11 -2 -6 -22 -15 -21 2 -10 22 -17 14 -34 -5 22 -1 8 2 -10 8 25 1 14 13 17 13 12 -15 34 -8 2 -1 -1 -2 -6 3 -11 -26 -21 -1 -2 8 -4 -7 15 -11 18 -50 32 20 -13 20 44 1 -1 9 -9 -12 -9 -3 21 2 1 2 5 27 2 1 -21 5 1 10 20 21 23 8 -54 7 36 -4 -6 6 19 -7 -10 -52 -22 -21 23 -8 2 -20 -9 6 -18 23 -20 7 21 -20 5 15 31 14 -5 -2 7 45 10 4 12 -39 -10 -12 -25 -63 -31 14 18 -9 2 -7 -19 8 -23 11 -5 -14 -1 28 -10 -9 9 14 -21 -2 -7 -5 5 -27 25 6 10 10 -19 -25 4 18 -4 0 41 48 -21 -4 17 -6 -23 3 36 56 11 2 2 -1 -5 18 28 27 34 0 -3 11 -18 8 10 21 -42 1 10 -38 24 36 75 -8 25 36 10 -20 8 0 14 12 5 42 -46 24 16 -28 -27 -26 -24 15 10 16 54 3 33 44 -18 24 0 6 -3 -8 -18 1 12 17 51 8 -5 -9 11 -14 3 39 20 24 -15 10 -16 16 9 26 6 0 16 16 -22 12 -3 -28 9 93 -20 20 20 -3 -19 -10 -17 -13 -26 4 -24 6 3 -7 18 23 -12 -11 -2 1 -52 -8 -11 13 -14 10 15 5 -43 -6 1 -30 -39 -7 -12 -12 -25 -10 -23 -20 27 12 14 -44 18 23 10 1 13 17 12 24 -127 -18 -17 8 5 3 -24 -5 5 14 0 45 21 15 41 4 8 -36 0 3 47 7 58 -24 16 17 -20 20 26 -11 20 15 3 44 14 -9 -9 19 9 21 -10 -21 1 -28 -5 40 38 9 -3 -7 -13 -19 9 -15 5 25 -4 33 10 -2 -21 34 21 -2 31 6 -17 -26 11 13 9 -9 18 92 1 -10 12 24 24 -46 28 -6 2 -5 8 -14 -5 -16 2 39 -13 -18 9 -13 -1 -8 21 -18 1 -21 7 19 18 -8 -43 13 -11 -1 -2 9 -6 -4 10 14 15 -6 -19 8 30 9 -15 -8 -6 -7 29 22 20 12 1 30 9 23 10 5 9 -4 11 -29 3 -5 9 3 -26 4 6 6 42 39 5 21 -28 23 4 24 -33 23 -14 3 12 -17 66 0 6 0 -28 -25 -63 3 -51 32 -5 28 20 15 30 -2 25 14 5 -13 8 5 3 7 -12 2 30 -7 22 -27 9 25 6 5 -28 42 19 -1 -4 -7 33 73 32 11 -31 -1 32 -13 22 12 -32 58 -8 -7 -4 36 -13 7 -23 6 18 52 -12 36 -19 16 32 23 -25 -10 5 -18 -22 31 6 -25 28 -11 7 -10 22 -12 29 11 12 -27 32 4 -1 27 39 -6 -10 11 -14 -4 10 -13 23 -3 16 6 -9 7 8 -9 -8 9 7 21 -34 18 -8 25 -1 10 -7 -9 -1 -1 16 16 7 20 23 -10 -2 18 -26 -43 42 4 -19 5 17 10 11 28 -4 9 -2 31 22 14 -27 -5 19 3 10 -4 -26 15 -22 25 8 20 -34 -6 -11 1 24 -9 -27 7 13 18 21 27 15 2 -39 22 14 3 26 6 22 13 -1 6 -18 -16 0 2 5 -18 5
-6 -11 -24 15 23 -15 -12 16 -10 -19 4 12 -17 -15 -14 -8 3 20 -31 16 -1 26 36 12 10 7 8 5 -12 9 40 -19 -1 6 17 -1 -12 -23 -8 18 -14 -20 12 -22 -13 12 7 -10 -3 -5 5 -79 15 38 -4 -21 4 -14 14 9 2 8 16 -10 30 -1 -10 -15 -1 5 -3 20 16 -10 19 -11 29 -4 10 -6 -4 1 19 10 7 -2 -3 8 5 9 22 3 25 -21 14 14 13 -7 -1 27 2 9 6 12 9 12 7 13 -4 56 -1 -10 16 3 31 24 -16 -46 20 -8 -1 7 11 -13 -8 -11 6 -17 -35 3 69 -16 -5 5 -6 -11 -16 23 -24 15 -11 22 -9 -13 4 40 -10 7 5 18 -7 9 19 9 -15 1 13 5 22 -18 16 -16 1 -3 2 26 -15 -33 -28 -6 8 5 -11 37 -15 31 6 16 -26 -42 28 8 13 -12 16 -4 7 7 -32 -1 15 -3 19 29 -35 0 5 -22 16 -25 -2 -25 15 25 7 -11 17 8 4 1 -32 -3 -1 52 30 28 -21 -13 4 -8 16 17 17 -48 15 -13 -4 -6 2 -23 -8 -3 13 -20 32 -1 -14 -23 24 -58 -2 -16 -6 10 9 -5 22 -7 26 -5 -10 -17 -29 24 -36 17 -23 5 19 13 9 -4 11 55 -24 7 61 -17 20 47 -10 10 -1 -1 -4 -33 -10 -16 -7 10 32 -15 -13 -12 0 -26 -27 -22 32 11 4 -27 -21 -12 2 6 -8 -13 15 16 -3 6 6 -10 11 4 14 -9 -6 2 -57 -22 -14 -22 30 31 15 -2 -58 -4 17 7 -37 -19 3 6 12 -1 -19 -24 35 44 -11 -12 32 9 41 48 19 -8 -4 9 -3 24 -26 -6 2 11 11 26 19 -2 18 11 -4 16 7 5 -17 -11 -2 -5 -46 -11 -19 -2 8 7 46 -11 -46 39 29 -12 -24 10 -10 12 15 -8 0 21 -44 -24 -8 0 -17 -4 11 -57 18 8 20 -20 -54 -32 6 -7 4 14 -30 -50 18 3 -9 -5 -34 0 1 -7 -11 -23 -10 3 -21 10 18 3 2 -11 -21 19 -4 -7 -12 -10 -26 -14 -15 24 -24 -11 1 -15 3 -7 -7 -13 10 -32 32 -42 -6 -15 -28 -9 21 18 1 63 126 1 0 0 -3 -36 8 3 21 22 -19 10 -1 5 -11 2 18 18 -8 3 5 -1 10 16 -7 9 19 -30 7 -16 -20 -39 37 20 -2 -25 -10 46 16 10 -34 4 9 -22 9 -20 -5 15 39 34 -24 -10 5 15 1 20 -15 -20 11 5 -6 12 -30 6 -34 -3 19 -16 21 -5 11 8 9 -11 2 7 -18 -2 -1 9 -10 -12 -8 31 -14 -7 -25 -16 -6 -15 17 1 -3 2 2 -26 13 31 -10 -27 -14 3 18 -10 -14 3 -1 -10 -3 -1 33 12 -17 -15 5 8 -45 10 28 7 4 3 39 20 -3 -13 18 -15 -25 8 -9 16 -7 13 38 3 -4 -23 0 25 30 -20 24 4 5 -15 13 -10 7 -10 -3 13 -4 -10 -34 16 -19 -9 -10 -14 36 3 1 6 -28 6 48 -2 -9 -17 -19 27 -21 3 -6 -8 18 13 25 0 -8 7 51 -5 -13 38 -21 28 -23 -11 -22 11 -32 -27 -3 -12 -7 2 -14 -19 -6 -1 -9 9 8 -11 -6 5 -2 6 -3 -11 -14 -2 13 14 4 17 40 -9 -29 24 5 -18 1 -19 13 -7 13 -5 -7 -44 -13 -2 -1 10 43 -19 13 -1 28 -5 -22 11 5 -1 3 10 -7 -2 -9 44 21 -3 -35 13 -5 -21 -36 -2 -42 6 -12 1 4 24 17 -16 -7 -1 11 -15 27 -2 -13 -27 -10 26 -19 5 -10 3 16 -17 -8 8 9 -15 -25 41 14 6 -1 -14 -14 4 5 -14 11 -13 18 -18 -21 22 15 -21 12 -8 18 -34 -22 -14 12 17 -1 -10 -29 4
16 -51 43 -94 32 22 33 27 -62 -35 -16 -24 24 -20 -69 27 -18 42 3 -73 -16 -27 -20 -83 -44 -17 49 -55 -17 0 -26 -8 26 -11 -40 66 50 -43 23 -39 -10 -68 -72 29 -77 -46 14 1 109 -6 18 -33 26 -111 37 29 1 22 93 28 35 -2 -6 20 -4 -4 -15 -17 6 13 -45 -23 -36 41 -43 -34 32 -5 4 -25 -15 -28 -34 66 -5 19 46 -8 27 -45 50 14 -29 -4 42 -9 19 0 93 14 -28 11 31 -111 20 28 -41 -34 80 -2 5 -21 -43 -29 -32 23 -5 31 -32 -7 30 -36 20 -1 38 9 31 10 32 45 -3 -6 -54 42 79 -39 7 11 61 -34 29 -7 -30 -42 0 47 13 -12 27 64 -11 8 20 24 33 -11 33 -94 -6 4 -42 2 28 -94 6 63 -37 22 43 17 19 13 -36 96 -19 -39 -42 38 20 -5 -29 27 -4 -38 -19 -8 -5 37 12 57 23 4 12 2 -16 10 -14 -30 22 -11 17 13 -12 16 8 -45 -23 -61 -79 32 6 -53 -14 -17 -34 -16 41 -40 -41 -11 9 -33 21 -99 31 15 36 54 9 36 -13 64 -3 37 -17 -31 -35 -5 -38 -75 7 -37 36 18 -50 26 100 -3 -20 14 -3 -9 -37 -15 -7 10 2 -19 20 32 5 -65 -11 -43 -30 -44 80 -37 -9 -67 22 -12 -1 14 0 21 -31 -32 -12 97 -37 5 -33 -40 57 26 -64 -30 -16 -61 1 -25 44 -28 14 -27 -48 -27 -33 -93 3 82 18 9 -12 47 -26 6 77 -13 -13 -24 -53 1 -62 -17 -73 34 -11 -73 33 -26 -72 100 7 97 21 -7 14 -127 -3 1 40 -59 -20 -85 -11 -41 36 89 -10 -14 15 -45 16 -48 -31 22 -21 -62 36 -31 -67 21 -10 13 -55 26 68 21 -33 -15 -80 -33 -5 -23 -42 -18 -27 69 58 71 -95 -48 28 58 -16 -32 7 -26 35 78 46 8 -84 -77 -17 12 -75 -104 -19 89 28 -10 52 39 -23 5 9 32 -40 -23 17 -45 -8 40 -7 -7 48 18 -20 26 -11 33 -32 -37 39 45 18 -4 -12 -21 -3 -25 -2 11 31 18 24 26 -127 7 116 23 -14 -30 10 3 74 37 -17 10 -38 -13 7 29 33 91 3 44 -14 -24 49 -1 49 25 5 -15 1 -57 -37 -34 53 -43 51 -22 8 7 -15 -47 -26 76 9 30 -35 2 12 28 12 -2 2 23 56 -20 -33 -72 -14 23 68 4 46 22 46 -14 -35 -23 8 -15 -55 15 -25 -39 -67 74 22 59 24 -64 -52 -27 7 18 25 98 -9 -77 -18 29 34 18 101 71 43 -38 7 -6 -91 -42 85 79 -14 -11 22 2 -93 -15 -11 -15 -33 104 -46 -8 11 3 30 4 -41 18 101 2 -14 14 -1 -19 11 65 21 104 65 -41 45 7 55 -49 -13 -29 -47 -18 -22 -12 -14 -20 -23 14 -27 -80 80 -2 -10 -18 -1 16 16 8 -42 -23 8 -35 -2 28 -23 -29 -6 -66 -4 -9 14 -70 -55 99 -61 -21 -51 -45 56 -4 24 -10 -47 51 19 23 48 -70 22 15 -71 -9 -21 -4 21 12 -31 -53 3 20 -46 3 -85 -48 -82 -70 36 -52 2 60 -106 50 65 48 11 -11 27 6 43 32 -38 21 -36 24 -58 -43 -5 -17 -60 -6 33 -15 14 10 -1 10 -26 -32 5 35 -15 -15 36 25 -9 -44 55 -14 -13 -23 -30 -14 -19 -18 9 -39 -6 -1 1 -21 -46 19 -11 -29 -1 47 -87 12 27 18 31 50 -36 -67 -5 33 45 12 20 -75 -20 13 -85 45 1 42 -51 22 -60 34 29 -38 50 -4 -3 -73 -4 61 -48 -33 -14 -24 29 -4 -39 61 39 11 11 7 1 -64 -60 26 -14 -28 34 -21 -27 12 15 84 75 -23 2 -3 4 36 -6 16 8 18 -4 -3 40 -12 -20 -22 -26 6 -26 -34
46 -8 62 8 -5 -6 19 -39 -4 -33 -32 6 -2 10 54 8 -44 -5 -23 -6 -31 -79 11 7 -25 0 -30 -19 42 30 -23 30 18 -27 -50 -103 -2 35 11 4 51 11 -20 38 20 -24 -5 -3 -22 -9 -42 35 -28 15 -32 16 28 -4 -10 2 -46 -17 32 -17 24 21 -8 -17 86 -13 -7 18 9 -39 -6 -12 39 4 -10 23 -24 42 2 19 -37 -15 0 24 -54 21 -26 59 -21 0 50 29 0 -27 -11 4 26 -21 12 -58 50 15 5 -49 -14 2 8 -14 8 -3 14 -39 37 -30 16 11 -17 36 -19 37 -29 34 -3 -11 46 82 66 26 3 24 -16 91 -1 -68 29 43 -15 8 13 28 13 -1 82 63 0 9 -4 -28 -24 -32 70 46 1 6 46 -12 7 -15 13 -8 -46 -14 21 -36 79 37 11 2 -33 -37 64 -80 -15 32 8 -7 3 -1 -51 64 18 14 -15 -22 34 -25 70 -58 4 -13 -4 33 -40 -55 4 -4 60 -25 5 -45 6 13 26 -9 6 13 42 -2 -20 -17 32 21 -78 2 -17 -30 1 -13 -19 27 -63 15 -68 -42 -22 2 34 26 0 18 38 15 -65 -12 55 26 -29 -1 5 11 -27 5 -63 -10 34 4 7 -1 -33 -12 -4 12 33 10 -48 -8 -5 -39 58 80 36 26 16 -18 -43 126 -26 0 14 3 47 -11 22 -64 -1 -6 4 7 16 14 -42 21 79 -18 11 -3 61 22 55 17 69 -41 10 -6 -57 28 6 -12 14 -10 -16 -6 -12 12 56 37 19 -89 6 5 0 -21 -29 -28 -80 10 12 6 -13 12 -3 57 -21 0 43 -49 36 -38 61 -8 39 24 -6 6 -23 -81 -3 -43 2 57 -10 -35 -23 28 -3 6 3 -24 35 33 -67 36 -26 -5 -3 8 -4 33 3 22 -21 0 62 32 -60 -12 16 38 -2 49 6 65 -11 50 -19 53 -25 -18 78 72 11 58 22 -12 8 -74 2 49 -17 -13 -15 -8 30 -25 12 36 34 11 0 2 -18 -5 41 -12 -27 -10 55 -11 21 -22 -1 29 -27 -7 -42 -8 35 79 7 -1 -1 -33 -60 -62 -3 -72 -79 10 35 -3 16 33 9 16 43 54 -18 18 -21 7 52 30 5 22 -1 -48 -22 50 8 8 -51 18 45 51 -3 -45 7 -2 -7 31 25 -47 45 78 -50 -6 19 17 54 7 69 -29 -4 -21 -26 34 18 -13 31 -19 22 -47 -2 -17 -17 9 39 -3 7 20 68 -9 5 18 7 2 -9 -22 1 -27 19 12 31 -29 71 -23 36 -7 33 -6 -47 5 25 -23 -53 -15 -19 43 45 -81 -21 19 77 21 -6 -15 67 -38 -57 -45 36 -15 27 -20 -36 2 33 -13 8 33 -32 34 35 -45 2 -1 18 3 -13 -12 60 59 19 59 -4 -17 -31 11 27 -40 14 18 -97 -48 -28 3 -8 59 -7 -11 5 -41 -48 31 -10 36 15 14 -17 -8 -83 46 5 -26 -4 -21 -75 -41 -50 35 19 -3 -42 32 8 16 -17 18 66 -49 -16 -9 8 -71 18 23 43 -11 -45 17 -20 43 -26 -7 48 4 -18 1 -6 39 -39 -2 -49 -4 -66 0 -61 -19 -36 -49 17 66 6 -22 -69 10 -28 57 31 44 23 -11 1 -27 43 -5 12 -9 25 41 -5 30 -17 41 37 -46 -22 22 7 1 -18 16 -10 -6 -13 28 18 -50 -56 26 37 -31 20 22 -69 -16 -7 -16 -12 -19 -2 0 20 23 10 -9 -47 -69 55 -7 -22 48 25 -1 -25 21 -15 -1 15 35 14 23 44 32 -1 31 51 1 47 3 -37 46 -18 36 -2 -7 -5 -5 -6 -22 -12 10 -7 -10 -8 8 -50 13 47 24 10 24 -57 29 -51 -38 1 33 -5 19 -9 -56 -4 -36 -22 -3 33 0 15 -21 -9 29 30 24 43 14 -18 6 24 16 9 -7 -17 -38
-8 1 -32 -22 18 -8 -65 -94 -21 24 -25 -30 -25 15 -14 54 10 46 -62 23 -7 -19 40 31 -41 0 -1 20 -4 -25 3 44 3 -55 2 -25 -66 -58 6 14 6 58 -9 -69 -27 -47 0 -9 -4 -10 7 47 15 -14 -41 -7 16 -8 0 0 12 -34 35 -12 -19 78 -35 -5 -34 -31 0 49 37 -50 76 -12 -53 5 -35 3 -14 -22 2 46 35 -11 35 5 -18 50 -32 -56 40 -17 52 31 63 10 -3 -21 32 -8 5 -40 -73 33 68 41 17 -126 -6 -33 -3 -18 1 -66 -15 23 7 0 36 4 40 29 -13 16 1 -18 22 -15 57 -66 -40 -64 66 6 6 22 -8 83 3 -55 -127 -49 15 17 -8 -24 -5 -35 14 4 -23 37 -4 -10 19 -43 31 8 -8 -21 -34 -15 -86 16 9 19 -27 -13 44 24 -47 -40 37 14 49 9 -16 31 68 25 2 23 39 -14 -23 -19 -52 45 -7 -24 6 25 40 3 45 67 7 46 -4 -24 8 8 -54 47 -24 -33 -55 9 -11 -21 49 -28 -20 11 5 -22 10 -30 -45 62 -28 74 1 21 -5 -28 -6 -3 -4 25 12 9 -23 13 -52 -2 -12 67 -3 24 -10 -20 -2 -17 28 23 -27 -15 -19 -38 37 -30 -25 -59 -53 17 -67 2 11 17 -52 -5 -9 8 1 -34 101 71 -45 -28 19 24 2 -29 -39 -29 3 12 47 6 -6 -37 19 -8 35 14 -27 -20 39 46 5 32 74 -26 -60 -19 4 66 -24 4 12 -12 20 -42 -6 -40 12 40 21 52 -68 85 2 10 -28 -19 -25 11 37 -24 -41 -53 -6 4 8 11 3 64 -17 15 41 -8 -4 22 57 -29 4 6 -24 -49 2 47 -24 64 -31 -6 22 -58 29 13 -1 9 -29 30 -49 -7 -22 -36 -12 -11 77 -14 -13 40 1 -9 -15 12 88 -43 70 29 -3 -6 -15 -23 13 -12 -9 -21 -30 18 0 -30 -11 -43 4 23 24 49 -13 -43 -39 40 -46 7 -8 33 -45 -33 6 32 11 -19 -81 -75 27 -25 19 -44 -39 21 2 10 1 -19 50 6 13 -32 -24 -21 19 33 -1 -39 12 12 -4 -16 0 23 -3 77 7 -16 -12 -41 -7 12 22 -31 30 -65 36 -17 -56 -21 -2 -22 -37 -3 -34 -7 0 1 -14 -3 0 -1 22 39 54 6 -26 21 -2 16 -16 -13 -29 -16 -11 -5 14 17 -14 -1 4 -50 21 51 89 72 -22 -25 48 -11 2 -20 17 18 58 -68 1 35 35 3 26 -1 30 -2 -81 24 -5 -35 4 1 -27 -58 30 13 2 -17 -27 -42 31 0 38 -36 -34 10 50 87 61 2 94 -13 -83 -29 -33 21 -5 -26 -19 17 10 22 62 -51 -31 2 -25 -3 -24 42 -10 27 -19 -7 44 -52 5 -13 70 -5 -43 80 -24 -35 32 19 17 -23 38 0 54 -74 -24 3 -21 9 -27 11 34 -12 15 42 -44 -59 -11 -8 -57 19 15 -24 0 -45 -31 -10 20 -2 -22 -38 -11 105 -44 21 104 1 10 -40 7 9 -14 -50 -29 -24 -12 -24 -15 -2 85 -85 -18 -36 -39 -25 -9 -8 -12 -29 24 -3 23 -68 28 29 74 -10 13 -6 4 5 -69 -28 10 -47 35 -9 -76 -54 -55 -19 18 23 35 42 25 10 16 14 -7 -1 -7 20 -23 -45 -28 38 -17 -9 -36 -26 -41 -8 -1 9 -26 22 -21 -15 -33 14 29 7 -36 48 3 -1 16 35 51 21 -13 -12 -19 -5 59 17 -12 -12 13 14 15 42 9 -50 -59 30 14 10 -7 -107 -23 8 -83 -13 -36 -31 -5 113 -3 -55 8 -23 2 19 -2 -44 7 53 1 -63 1 -27 -35 32 70 24 3 -62 -16 20 22 -5 -7 -50 -8 -20 20 15 -3 56 42 92 -13 -6 -23 -33 -8 -43 9 65 13 23 17 -27 34 7 40 8 1 6 -8 -11
50 -46 -67 16 37 -6 -62 -23 88 -15 8 -1 -1 -29 31 16 44 -3 19 5 -3 0 24 12 30 34 -10 4 -33 52 12 50 -35 -39 -1 41 17 35 29 52 24 -22 1 -64 12 -23 6 -42 32 -18 20 46 -44 -19 -10 -55 -20 -23 64 -83 -3 34 -39 0 24 51 30 -20 23 22 7 -15 31 19 43 -31 2 -5 -11 22 32 -9 -22 -1 20 -9 -25 5 0 20 -14 23 36 -10 53 -6 42 -8 -3 4 10 -3 -22 72 32 20 -51 14 -24 -32 -9 9 -57 6 89 -10 18 -37 16 -2 38 18 1 50 18 -6 18 37 -7 32 -7 -9 16 1 30 -2 26 -11 0 -6 12 -8 -47 -67 -72 19 57 -39 53 79 14 -9 -44 15 -7 11 8 24 94 -14 19 -36 17 12 51 110 -18 35 -58 -40 3 49 -15 11 -11 0 -15 28 -35 15 20 21 -2 50 -5 -34 15 22 47 -80 7 -18 -43 -17 4 -14 -2 11 40 -18 28 1 6 88 -22 -12 3 2 11 -44 24 4 -41 -8 -23 0 -87 5 -10 -5 -24 5 60 -40 -33 -25 13 -42 5 8 15 -20 40 -34 76 1 -62 -33 -55 -49 -31 2 56 -1 10 18 -6 -9 -16 -24 3 82 15 1 17 -52 -28 -11 -58 -20 41 -31 16 57 -78 23 26 2 23 33 -36 48 20 -16 -30 73 24 -20 -62 -14 -28 4 -1 -30 45 -23 -52 -5 -22 56 57 -62 42 40 20 73 -28 -13 82 -94 -1 23 12 77 6 8 -32 -39 -25 45 -29 -11 61 31 18 35 14 50 19 68 31 26 -78 -34 -4 -23 -13 -44 -16 -64 28 92 -13 -90 31 -38 -35 -29 -28 -61 25 28 39 34 -52 -7 11 -33 -2 34 -18 -47 -2 -49 6 -10 39 41 70 34 -7 -31 -127 -60 26 38 -24 -15 -90 -9 4 15 30 -4 -23 -23 -46 -4 -11 -42 17 -40 58 -42 -70 1 36 -13 8 -42 13 -35 19 9 65 57 -15 59 42 -4 -62 -55 37 -21 59 -8 26 -17 30 27 36 -51 38 -36 4 0 27 30 3 15 27 10 -41 -43 -37 -39 35 12 -24 -59 -3 51 -64 8 15 24 -52 -29 -50 -63 -67 47 -62 -39 75 5 19 29 -11 28 -17 -34 -67 3 63 41 6 -29 -10 -30 -16 37 -38 33 -21 14 51 -59 27 -11 -12 14 52 4 25 4 -23 -27 -44 31 -44 20 -21 61 16 -15 13 57 -1 4 -21 -1 13 -8 -19 -31 7 27 -35 -18 81 -33 43 -28 -27 -6 -17 59 22 9 7 -4 52 14 -17 7 -40 -76 8 -7 -20 -30 57 -65 -58 -68 25 81 33 -14 27 56 -24 -67 12 33 8 -6 -16 2 -24 -76 12 37 11 0 -26 -23 -7 39 -29 -1 40 -26 -3 -2 37 -17 55 9 -59 1 33 -12 -12 6 -73 23 -34 9 35 22 -80 -2 18 30 73 -19 44 -20 56 -12 6 25 13 -10 23 -21 -2 -4 74 -7 55 32 -2 11 -52 62 -23 27 15 20 10 -33 1 -6 10 46 21 19 -53 34 14 27 -13 -8 91 -5 54 -10 51 29 -28 27 6 11 -16 26 14 -39 -20 14 -4 26 3 44 7 43 -39 17 39 25 -44 -45 -5 -39 14 16 49 18 -22 -31 4 -3 -66 -46 38 66 35 -55 -23 21 -7 -15 15 -48 19 -8 -8 12 -24 14 -13 3 24 8 -21 13 -28 -34 58 -44 -5 -16 21 -24 85 27 -30 17 33 -44 2 -15 -33 33 20 24 -69 10 -23 -5 24 -13 35 -34 82 -25 -52 33 -26 29 -50 24 -18 22 0 5 -22 -8 -15 -11 33 -8 -17 -29 -40 11 -19 1 53 11 -23 22 18 -18 -15 13 8 -67 29 3 -38 -45 5 0 -26 9 1 -21 41 -10 -62 -6 18 -35 -14 -83 29 -48 10 -47 -42 -65 -14 -8 28 -46
-57 4 -15 5 -84 18 -69 -6 1 22 -38 -23 -28 12 -23 -39 -54 -2 30 48 -16 17 21 28 3 2 -40 38 -24 -18 -20 21 8 -2 -12 -33 31 -19 -21 -28 16 -16 77 -9 -14 -12 -3 13 17 -35 17 6 -36 52 22 38 30 -6 -2 78 -19 25 43 -27 -37 14 16 37 -63 21 -5 64 34 -5 -41 13 -8 -5 -19 13 29 -25 -1 -22 2 10 51 -6 -4 28 -9 20 19 9 51 22 14 7 -15 0 -17 -48 -28 -51 30 10 -9 -27 -29 32 7 19 29 -15 10 10 6 -42 -51 -29 -19 -31 23 -65 18 -1 12 -39 11 -18 -3 -37 -27 45 36 35 27 -80 -18 -13 77 1 14 -21 37 -7 37 27 -24 -33 32 21 -39 40 -7 15 -2 -1 24 15 -97 2 15 -20 29 -35 -6 -3 21 3 -69 5 38 -13 -10 1 12 4 0 13 -26 1 -13 -42 9 -11 6 21 -25 18 -13 -9 -37 -2 12 11 14 -13 -23 -67 2 12 20 -35 -43 -12 2 50 0 -18 -15 39 58 49 23 28 14 -11 -6 -47 -2 -23 56 21 25 19 51 -5 -12 9 17 1 17 -19 -47 17 76 14 -6 33 -43 24 -4 25 12 21 -9 34 -7 10 33 11 -29 -20 3 -3 4 27 -15 7 2 38 -18 52 4 -21 26 13 32 37 -31 45 8 1 8 50 -28 24 6 -53 -114 -5 16 6 21 -78 -2 -24 -40 28 30 4 -40 -48 -27 1 -13 7 -3 13 -8 51 -7 60 25 -13 5 -5 19 -28 109 -20 26 -4 15 -22 -3 -61 29 28 -69 -13 21 -60 21 20 15 36 -17 3 11 -8 -29 -3 -26 -21 24 62 0 45 -52 30 -2 29 26 5 -19 23 3 1 4 -4 6 -4 8 15 92 -2 9 -35 -6 15 -9 12 30 -3 54 -7 0 -6 -49 -5 -9 33 2 -12 -49 46 0 -18 3 -18 -5 -37 -8 -14 19 1 19 7 34 -2 -29 4 -35 37 9 -16 -22 50 17 -31 21 -23 -4 7 -35 -8 5 17 21 -34 10 40 6 34 17 5 -18 21 -14 89 75 23 -7 42 -12 -25 3 24 1 8 2 -22 45 19 -63 -29 56 -30 -14 3 -7 2 -42 18 -33 -16 -49 -20 -37 -7 4 -4 -54 -67 26 -127 -20 -80 -5 -80 10 -35 77 -26 -80 -121 14 15 -8 28 16 -14 -19 -8 -1 23 1 22 11 -2 -19 -36 31 -42 4 -22 -17 36 58 -18 48 34 -12 -9 12 -27 18 -21 -17 15 21 -10 -39 -16 1 -31 26 -27 43 -7 -35 23 -76 28 17 -43 7 -16 -36 32 -26 76 -1 24 -14 31 -44 -8 4 -12 11 -37 -15 29 -15 14 -16 7 -7 5 12 15 -7 -16 27 23 -24 -17 -32 -5 -37 47 -21 21 -21 -12 42 -13 -17 1 -28 1 -34 25 58 -18 51 -2 41 -39 20 28 8 2 31 -16 39 -40 1 39 38 2 -17 3 -8 32 4 0 -11 41 -8 15 8 -28 42 51 -27 -32 -14 -8 -19 -28 -35 25 36 11 26 33 4 15 2 24 -25 -16 52 -3 -40 14 -42 -9 34 5 -8 -26 16 56 2 -25 -23 -9 4 40 -31 -11 64 6 -22 30 -1 -4 -4 -13 5 21 36 -9 21 -42 40 -23 23 -20 -43 23 -24 -29 5 -69 37 20 9 -14 -6 15 10 4 2 41 -7 -18 44 30 20 -52 6 -18 43 5 5 -26 35 -18 4 25 -21 45 -5 -5 4 -97 -28 -5 -14 26 -7 -37 -13 -3 31 16 41 15 4 -27 -55 5 -31 -9 25 46 4 -27 -2 9 -9 -12 -15 2 12 35 -15 -17 38 -32 30 30 3 -27 -43 3 1 0 -25 -19 0 -42 -53 47 31 15 -10 18 43 -29 47 -44 24 12 -20 -15 -69 18 -37 -32 5 4 -27 68 -28 10 -12 4 -7 13 -17 1
-6 9 -2 -32 10 -6 -1 3 -6 15 -8 12 27 25 0 -12 29 28 -34 2 -37 18 2 -36 -20 15 19 -77 23 -15 -5 -16 -38 25 41 31 28 -53 26 -4 29 -20 -8 7 45 46 -14 -20 -37 13 23 -19 -37 36 -31 41 76 -10 34 21 15 -23 3 -12 15 23 43 -39 -34 -37 32 -33 -47 -10 -17 15 -36 -8 10 0 -44 27 23 -30 -5 2 -32 -19 -55 -61 7 60 -15 -1 -72 -19 22 5 63 19 -16 -23 -26 -11 25 -21 45 5 0 -17 -10 -5 29 1 29 10 -10 -37 -45 35 -6 -35 -54 -34 34 26 -60 68 12 -62 35 -32 -45 -7 -13 -10 19 71 -30 -81 -21 17 47 -17 -42 29 36 11 -2 -3 52 -1 -7 0 -38 -14 5 30 43 1 -20 -18 10 55 7 29 15 -27 -126 4 4 1 -24 24 8 -2 -5 -103 33 -38 20 -66 70 49 -51 15 -5 -28 24 -25 -13 -47 -28 13 -14 40 10 76 -95 116 -41 -12 -13 34 43 -15 -17 34 0 -24 35 -20 46 -43 -7 -1 39 -5 -23 -9 4 79 20 -40 2 -10 -20 72 -21 15 -57 19 -46 -52 -53 -28 -15 -40 -10 38 -6 39 -42 55 12 28 24 -7 57 19 -22 -26 16 55 34 25 2 -18 39 34 15 -24 26 13 -40 34 84 2 -5 -18 10 5 -31 34 80 -1 45 7 82 7 16 4 -20 -53 74 -3 -15 -28 -64 -91 -22 34 28 4 28 61 39 -12 -79 12 -4 33 -14 -60 0 30 17 12 6 18 82 1 -66 6 -42 -16 -41 40 -73 59 4 10 44 5 16 20 -26 4 21 67 14 35 8 -45 42 25 -42 -43 84 60 -30 8 -12 60 -21 -26 55 -12 38 -30 48 39 -15 23 -41 24 -16 22 -50 -17 11 4 17 59 4 57 26 -4 70 91 74 -7 -114 -25 53 -3 20 14 38 -31 8 35 38 8 -8 -27 -37 33 8 -18 3 52 -14 -59 126 34 10 7 11 14 -21 4 7 19 8 0 23 -50 -30 -15 -36 -4 5 -28 -17 -13 -21 4 16 34 -1 2 -25 -92 -43 -69 36 8 -43 45 21 0 -62 13 2 -55 2 17 14 -39 49 -40 60 6 -34 96 7 11 -33 10 -14 5 -24 -1 -48 27 39 25 -22 72 -46 -1 -3 4 75 24 4 -37 -14 10 -15 0 -7 -16 20 0 -22 -61 -17 39 0 35 -92 -10 -41 0 -11 -39 30 -1 -80 19 26 -67 -80 21 6 26 -43 -36 -73 -27 39 66 -12 -35 47 23 5 -38 32 23 -67 10 5 51 17 9 89 38 66 -26 11 54 28 81 15 -56 40 -31 -15 39 109 54 51 36 -18 -16 -3 -10 22 39 -15 2 6 -3 -51 31 31 10 -20 0 -31 28 -8 -3 -4 -73 27 22 -11 -4 -35 50 16 -24 -6 41 1 16 26 -59 -11 -14 -55 7 -16 14 18 16 6 -5 2 10 2 -29 12 -45 0 -50 5 12 27 -46 54 -40 70 -32 -22 -50 30 -19 38 1 -26 19 -15 17 43 -40 54 35 -32 13 -32 46 -16 23 -1 -44 -29 -10 60 52 48 -4 -41 -26 26 16 -51 42 39 -80 -6 24 26 -46 3 56 0 41 -95 28 -13 42 -17 -7 -101 6 35 27 -7 -26 64 11 -22 -50 -21 9 25 10 -28 -30 -1 46 76 -56 62 23 -44 -21 40 53 -7 29 26 -6 13 19 50 46 25 -16 -17 13 -71 11 64 55 10 -54 -31 -21 29 14 17 -1 -31 11 -5 -76 -12 8 -26 12 -13 4 33 -69 -18 27 -4 -17 5 2 41 -64 -51 34 -25 -13 -49 -2 45 3 -37 33 -38 -36 -25 -3 -96 17 -2 10 -124 -75 26 -9 -19 16 -2 41 -7 47 -16 -46 -41 3 -4 -43 14 -13 4 0 5 26 12 4 73 -1 45 14 29 5 53 -14
18 16 0 32 -32 -6 5 1 9 -15 26 32 -4 48 8 -11 2 -2 3 -4 19 3 11 30 -6 3 45 24 25 -12 12 -13 14 -9 6 76 -22 7 8 5 -6 -1 21 -14 -1 -17 -3 -25 -48 14 14 20 29 42 18 26 -30 36 2 11 5 48 -18 -10 0 -11 30 2 -7 -13 16 -7 19 -20 27 4 23 -3 -29 19 21 0 51 5 20 14 11 13 62 32 27 -23 9 28 -52 33 1 39 -40 2 41 1 21 16 -9 -22 16 21 -28 19 10 33 29 17 40 16 18 17 15 -10 21 -15 18 -31 1 3 11 3 11 17 -27 -23 14 18 25 -28 11 5 30 23 31 9 -13 11 10 -23 -26 24 6 -5 28 1 -13 17 3 -4 7 20 -1 20 58 11 19 26 15 -7 23 1 24 18 7 3 38 4 20 75 26 -2 -14 16 23 24 22 33 -1 26 17 12 33 -2 13 50 1 18 52 27 49 26 12 17 -15 42 2 36 11 32 18 -89 -2 19 -4 15 -10 41 10 13 42 1 -2 1 -3 -29 33 31 8 12 -2 38 27 7 31 -14 -4 -13 36 17 25 28 20 11 -33 -8 17 9 7 42 13 -15 32 8 13 11 34 17 20 -56 -6 27 7 -2 2 20 4 6 37 11 14 16 33 1 9 -11 -6 -24 17 25 1 2 15 0 20 -7 -4 36 43 -13 45 3 23 32 -4 2 33 24 -6 12 -3 24 55 -9 18 21 27 32 -3 -9 30 3 -6 -12 34 3 62 84 27 35 38 -8 -47 2 14 -10 25 -68 4 -8 -1 14 16 43 -8 -22 41 24 1 28 47 -9 4 42 18 5 5 -5 3 28 -6 -4 6 9 9 21 1 -7 4 25 -1 25 18 23 -11 17 -9 -13 13 -16 12 20 -91 18 0 10 55 14 -10 20 16 -10 -10 12 10 -6 28 40 40 30 -4 26 -5 -88 29 7 10 -2 -34 -9 11 18 5 -11 13 16 18 5 19 3 -9 36 11 31 -6 -1 -49 26 3 -13 24 21 19 -7 -8 -127 2 -25 11 21 -15 14 17 18 15 32 2 -14 -1 -30 23 28 -8 29 -5 53 13 37 25 0 9 25 14 8 0 24 14 18 12 -17 5 -17 23 -20 1 4 -3 14 8 -5 19 35 0 13 11 45 28 -22 -17 -29 1 10 14 5 41 42 37 -25 13 3 9 16 -6 35 -27 21 -14 30 -15 -32 2 27 -13 -26 26 6 17 15 30 4 9 -8 30 -8 32 2 26 13 -27 -16 5 38 8 -6 -20 34 13 -15 21 -19 30 16 7 29 15 -18 19 3 -13 19 8 10 22 38 -7 7 52 -23 -21 65 27 -61 10 46 17 12 27 28 1 12 10 13 1 -15 48 6 8 5 9 4 42 -35 32 -2 -55 -11 35 12 6 15 23 13 35 7 10 -16 0 32 12 7 27 47 -3 21 16 14 1 122 18 5 15 7 8 29 -28 -16 19 0 -5 13 31 15 9 23 42 16 31 66 22 25 -14 12 -34 16 31 23 29 1 2 8 9 16 -3 -39 3 -23 0 21 -8 -14 18 34 -18 24 27 31 -12 16 19 -3 22 30 45 5 33 12 32 6 38 0 20 41 14 30 13 29 14 17 30 -16 3 22 17 -28 -10 37 44 33 7 3 -2 6 -1 24 12 28 31 8 -13 -19 8 7 42 15 -6 74 -28 33 20 15 -19 10 6 -14 13 6 9 27 -25 2 21 16 4 3 34 -23 6 3 -3 -4 7 -40 15 10 4 5 14 12 30 6 35 27 38 12 11 5 4 7 10 9 26 16 12 -41 28 8 8 0 7 43 -12 -27 5 38 30 -8 28 8 18 1 21 18 0 30 35 -12 9 8 8 -18 -13 7
-127 24 -4 -11 26 -36 39 -21 20 -36 26 -3 14 53 -47 -28 53 23 1 3 1 -7 6 -35 -14 25 -39 22 28 47 25 -34 32 12 35 -42 45 -31 20 41 -25 -28 -8 -30 -77 -39 8 2 65 46 6 -94 -9 19 -1 22 -69 35 47 32 3 6 22 -4 51 45 26 -59 -40 13 13 -65 -61 14 -25 16 20 -3 7 14 -4 15 3 -5 -15 -22 -61 16 67 -83 -1 31 -59 -10 -12 26 33 2 15 -13 4 37 -16 -53 19 -14 -7 -7 71 76 3 -30 20 42 6 -25 -34 -55 -23 -26 -17 15 -62 -39 2 -6 -20 -23 -15 0 -8 65 42 -13 -24 16 -4 12 57 53 31 22 -12 -9 22 72 40 -24 -10 33 13 36 -43 28 -18 -1 -10 26 -12 -6 -22 3 8 -28 -51 -29 -25 -2 -27 -2 23 -49 -24 -9 43 53 38 2 24 58 44 -4 18 19 26 -33 25 23 -41 55 12 14 -51 -18 -12 26 -9 22 32 -1 -10 12 -25 -41 33 48 -13 22 -11 -18 -10 15 -7 17 -37 -19 7 7 -17 21 26 -25 13 -18 10 -18 -30 67 42 -29 -26 -39 -15 -47 -9 -37 27 -31 -28 79 9 -17 34 7 47 -28 6 3 62 41 -12 -50 -22 35 23 -10 -30 -25 -31 -38 -3 -25 32 7 26 18 -14 0 56 97 45 -40 -67 -6 3 -47 11 16 18 40 14 -23 -31 17 9 30 -41 25 38 -14 25 50 -20 -23 -10 -47 -29 43 24 58 -15 -69 -9 -21 -28 -38 25 -70 -29 -11 14 -38 -14 -24 -66 0 -6 -35 -88 44 -25 8 15 -32 20 -104 -11 14 -14 -75 -14 -10 -38 26 -3 -35 -19 30 16 38 -30 -34 25 -78 24 -48 59 45 -11 57 9 -32 -27 -25 32 -20 -35 -48 10 21 -14 -24 -3 33 -59 -3 28 25 47 -18 0 37 -60 -18 -5 21 -23 37 -8 26 -13 52 1 -54 -43 19 -32 -6 -56 17 -27 14 -3 -39 -22 23 7 45 3 -2 -4 -19 53 11 -2 11 -3 57 -5 -20 -75 -21 -19 -43 24 9 7 -24 104 -38 -39 58 0 28 3 -39 9 -10 9 -29 -2 -58 -15 -4 19 -39 -13 14 -6 3 -24 -4 6 -18 55 18 2 -6 7 -13 114 -2 -38 -3 -51 -40 -26 82 20 -12 12 -4 -9 -44 31 11 7 -37 -37 0 -25 65 19 -39 -25 -2 14 31 -20 -34 -14 5 -30 0 -9 7 -10 -38 -4 31 19 11 -45 -12 59 34 7 -22 -16 2 18 -2 -39 -37 -5 28 -34 -48 43 9 28 -37 69 -18 60 -15 -8 32 -9 14 48 60 -25 -22 -12 0 12 28 -4 20 9 6 -33 18 35 -2 33 -38 -10 48 -4 77 23 -31 6 -18 26 64 -21 -6 39 -3 3 -16 -5 -47 27 27 17 -8 44 -14 44 -22 11 -31 -34 4 22 -2 38 14 32 -4 -1 -24 29 -4 -21 -2 -39 76 31 -7 77 -27 -18 62 3 1 1 6 -55 34 15 20 -7 11 -28 -25 -19 7 2 -27 7 -22 -8 18 32 -1 54 9 9 -47 11 -21 -62 14 -56 -13 13 35 -36 -11 -49 45 12 -22 49 -68 52 -62 -42 30 11 -42 -72 34 -47 -22 -6 50 11 -42 2 82 -44 -13 22 -38 39 12 1 24 2 -12 14 -3 45 55 25 -40 -32 4 -26 -11 -50 15 -9 -53 -33 21 14 -10 -30 -20 -5 46 -28 -21 10 -50 10 41 -37 24 51 -22 -3 -21 -35 54 -15 77 9 8 -3 -8 35 -26 23 -61 36 -8 -80 -15 11 9 46 46 -9 8 3 -23 11 33 11 -10 -3 57 4 -36 20 4 -47 -2 0 34 34 23 -83 4 -24 -3 52 2 56 63 0 36 -1 -26 -21 -10 35 25 10 -60 47 -26 45 -7 23 -12 14 11 26 24 9 10 17 -10 8 -31 13 29 -19 9
64 0 -25 -24 12 14 46 32 -45 12 -37 76 -65 18 39 9 15 8 -65 -33 -23 14 -50 -76 10 27 62 48 -2 0 3 -59 -29 -11 9 -22 -43 20 19 -30 -10 -11 -82 10 -52 -6 -2 33 -22 -22 3 -43 6 -101 76 -41 -42 -58 21 -49 -25 -21 82 -41 -11 -33 -24 -47 -21 -25 37 -34 26 -7 -4 -25 9 -17 40 -52 -65 -17 -2 -26 -15 5 -8 8 -44 7 -50 5 15 -47 -9 -47 -18 -7 77 -40 -1 -5 -6 -58 -58 -2 -10 -59 -24 -77 -5 -34 -69 -70 -38 -58 1 -32 -54 55 4 0 3 -67 -26 22 -53 2 -35 -53 37 1 35 -3 -37 -30 -24 8 -61 0 -33 18 34 -5 14 47 -26 -10 12 -24 -27 -2 -18 28 -2 -20 -21 10 -3 19 37 19 -14 27 -48 -57 -3 -29 8 -39 -72 80 67 26 -12 13 19 -7 52 -15 -18 26 -86 14 -50 -23 -16 -48 51 126 30 -21 10 4 -16 -7 20 11 16 -15 83 -26 -32 24 -8 24 -3 -82 10 -8 53 -28 -8 -15 32 30 33 7 -21 20 34 -1 18 -40 19 48 100 19 11 -59 23 -7 -17 -15 -33 -5 53 61 103 45 18 19 -71 -6 23 -21 -30 -24 53 -19 -13 3 -6 -35 4 -39 -41 -67 -11 44 -66 -11 -33 79 60 37 -41 -19 -28 -10 -16 39 -15 23 -14 -5 -3 -28 44 -46 20 -30 -4 -23 -29 -49 -25 26 53 60 -92 29 44 22 7 18 73 92 54 54 29 1 7 -14 49 -13 -11 28 36 37 26 9 2 12 -10 -43 10 20 80 6 37 -53 -115 41 2 -33 -10 -41 -29 44 3 64 -8 10 -83 22 30 -12 -23 19 23 9 84 7 32 55 -63 -1 21 -27 14 48 -34 -36 98 -38 8 -15 78 -34 -17 -5 33 17 3 51 19 -32 -65 67 1 -4 -32 46 -85 0 -53 -48 21 -30 15 -15 11 37 37 34 -35 28 -33 -106 -8 -73 -43 25 -52 54 -61 -20 53 -2 -115 -49 -45 49 -5 -1 -21 -12 -22 0 -37 -29 -26 -33 15 4 10 4 -69 -8 46 -77 -52 -51 6 31 67 4 1 49 25 0 10 10 26 -2 22 29 -61 3 5 -29 -34 61 -76 42 31 14 -19 -57 -8 -41 2 0 13 1 52 0 -59 -24 -27 29 53 -13 12 -26 15 17 -36 15 60 -32 50 -28 29 17 12 13 -24 -30 68 7 -11 15 16 -15 2 5 -23 -19 48 8 40 17 -28 -10 -3 34 -24 12 -107 12 -1 17 107 61 -45 21 -27 -85 46 -21 -41 -35 -37 -35 -67 -70 -74 6 12 -24 -35 -80 -12 -92 34 24 76 -22 -26 5 -18 17 -21 7 29 -19 36 -50 22 31 55 7 42 -57 -9 33 -16 40 -21 7 -48 -41 6 -46 4 -13 -2 52 6 -21 -37 -53 -4 30 -63 -29 0 41 -30 50 -20 -27 -60 54 -1 25 -42 0 19 -21 -17 38 -8 94 -77 -3 -1 -41 13 9 5 -32 59 52 35 -38 -33 49 23 42 -11 -19 21 28 17 16 -7 6 -90 37 14 -13 -43 75 -115 4 -82 28 -22 79 7 3 -21 -6 22 15 -29 -34 -13 44 36 -46 43 -14 6 -26 28 18 32 -2 28 52 -76 118 36 54 4 -27 -26 -39 18 -35 64 32 -28 53 18 33 -1 24 6 -6 18 -21 -25 40 -40 -12 80 -7 24 -13 -12 -26 -44 11 22 -22 35 4 26 -18 -13 35 40 13 17 -57 31 -81 -4 -26 -47 -39 -10 36 19 11 -24 -25 7 41 18 31 47 -26 29 21 -35 21 -15 22 -18 -12 25 7 38 16 5 10 -12 0 -2 -8 4 6 -13 -32 33 41 1 -4 -46 5 42 79 -23 -11 1 8 13 11 85 0 80 23 9 0 -49 -2 4 7 -11 -34 -3 6 -15 -25 -35 -57 12 35 -3 4 -24 26
-41 -27 8 -12 -17 32 25 -9 19 -15 24 -31 16 -3 -1 -17 -29 15 53 23 -9 -43 -14 -38 32 -41 40 49 -43 10 4 -5 -5 -5 12 14 61 46 -42 25 34 10 63 43 9 8 -47 -2 2 24 -50 29 18 -39 -15 -11 56 -1 17 -7 18 -5 29 0 -15 35 9 -5 4 -2 9 57 72 -6 -54 -7 -27 -1 29 -37 37 16 -23 -5 34 -11 -2 21 11 2 39 2 84 19 -27 -42 62 -2 -7 10 -7 22 16 41 -58 -24 -34 35 -54 -2 5 -21 -8 29 -35 -20 9 -8 -23 40 16 -47 2 -24 -13 17 -12 7 -38 -4 -16 14 14 46 -12 -22 1 21 33 59 46 8 -28 -31 14 -37 7 -40 14 41 126 16 -6 45 -31 26 -17 -3 -2 50 -77 -17 34 8 22 -5 -3 -23 38 -13 -47 14 -1 8 -76 95 16 37 37 -53 10 -58 29 68 -26 -18 -37 -10 53 9 -11 30 23 27 -27 22 18 15 -4 78 3 -7 -40 -50 -15 36 12 -32 -21 2 -24 11 -62 19 9 -9 29 -4 -17 -1 68 -53 -35 11 -23 36 -38 104 -2 13 110 38 17 -36 -22 5 37 68 -36 26 9 39 -19 10 6 23 44 -5 -25 -1 21 -20 -11 48 -27 -29 40 37 -33 -14 -72 -1 -23 3 -3 23 46 18 -31 3 14 -44 -34 -28 2 -9 27 29 11 -34 -5 -32 11 67 46 25 -5 -20 3 2 16 10 45 -24 21 0 9 -20 29 4 36 45 -16 5 -40 2 -16 18 -13 -22 -45 17 -8 -35 -24 -24 7 31 -32 -29 -1 26 56 -43 0 19 2 -9 -17 -41 -23 60 27 -20 30 -24 3 -6 -30 69 -14 -61 -7 -19 -49 12 50 18 -19 -13 -13 -74 16 -7 -14 10 25 -5 30 -44 -22 17 -9 9 -6 22 -1 9 -96 -15 21 8 -37 -7 52 -49 20 -24 -17 52 75 31 -17 20 41 -32 -19 4 25 9 -1 6 26 -18 -6 -43 10 1 -17 24 -48 -12 -15 -6 -28 38 6 8 -8 44 12 38 40 -25 -3 4 -27 -1 10 9 9 -36 -6 -28 -28 42 -13 -25 -9 9 6 4 -46 -9 -4 67 -47 10 2 -12 -10 29 29 -19 58 -31 -17 26 -31 -2 -32 18 -24 3 20 -4 44 -2 17 43 26 39 -15 7 -20 26 -20 -18 -6 -52 -19 -1 3 -15 8 52 -24 25 -15 -49 -45 47 23 -21 20 -41 39 35 -5 14 -4 -26 44 39 8 -36 6 11 3 -2 71 23 48 49 17 -14 1 40 -15 -42 -12 25 -10 -28 44 -12 -12 -21 -15 24 12 37 11 34 -4 -27 -6 -25 -47 -28 -33 -12 -63 0 -17 10 -19 48 -13 -7 25 -10 -77 35 27 14 -2 15 46 19 -26 0 11 -15 56 -1 16 6 -5 6 -42 -23 44 48 29 -34 13 0 -44 -17 14 69 1 -32 -11 -31 -29 -18 43 -13 -17 6 -4 -5 43 -4 -18 11 -1 -6 20 20 -1 -3 -40 -4 2 56 20 -15 30 9 -10 2 -19 14 46 69 -55 0 74 -30 -7 20 11 -8 107 -52 2 16 19 -14 7 4 -17 -25 -66 21 57 -17 2 -27 1 34 -11 -49 30 -23 -23 1 -3 -66 48 -34 -54 27 37 -27 -5 -76 -42 9 24 7 -32 -17 -4 63 60 -32 7 38 -26 9 21 11 12 -42 36 -63 -60 -12 15 31 26 -36 11 -7 19 12 38 16 -25 -15 25 -1 41 20 -10 18 23 57 31 -7 2 20 -7 31 -3 33 43 -11 21 1 9 18 25 30 36 60 3 -8 -14 -47 -11 -61 -21 -14 24 -8 15 41 -24 -18 10 60 8 42 -15 5 -33 8 10 19 -39 12 -26 -32 16 16 -45 9 -16 14 21 27 25 70 -26 14 10 -12 27 14 13 -62 2 -65 15 -27 3 -49 -25 2 -8 17 -62 20
-63 4 -2 -1 -39 -80 -41 -102 27 -15 31 12 -12 -11 -11 19 27 7 12 -44 7 -27 37 19 -27 13 -12 -5 25 -8 -4 -8 18 28 28 -8 16 42 9 36 22 33 -25 -49 -9 -15 -22 39 18 -10 39 -58 17 11 56 2 45 -42 -46 10 16 -25 21 23 32 3 22 31 -7 5 23 -22 -22 -5 8 8 -16 -6 1 -9 25 33 13 -10 20 0 39 -12 -49 48 -19 12 -70 -18 2 -8 -34 -8 -55 -5 -4 -47 -32 18 44 -7 17 -14 17 65 4 36 21 -8 16 -33 -8 14 -26 11 13 75 -29 -27 27 4 30 -20 52 -20 88 14 2 14 37 22 -27 -62 -39 112 24 -29 -5 -4 7 65 85 8 -2 33 23 1 -8 -17 38 8 72 -19 20 -37 31 49 -80 6 58 -35 7 -45 0 3 -2 -15 -10 -3 54 -69 -3 39 47 65 21 25 -49 -10 -8 25 -22 18 20 -32 11 24 -26 -14 3 57 12 15 42 -10 13 -34 -13 20 -28 54 2 39 57 -23 13 -62 75 21 -21 5 -24 -24 -18 10 -49 60 -11 -30 8 5 20 27 19 4 -5 14 -19 -23 3 8 -16 -2 19 18 50 -30 -43 30 14 0 29 24 1 15 11 -15 -2 -26 35 33 47 24 7 -33 -34 -27 2 52 -1 2 -5 26 -41 -7 35 6 1 29 14 95 10 0 -39 36 -68 -7 -12 -33 75 -5 -68 75 -3 50 17 27 20 -35 -32 30 -13 -4 126 -15 43 -16 -40 -26 35 -5 -31 32 -32 -7 31 28 -46 39 -11 12 52 -16 30 53 -13 -22 4 41 66 -33 4 27 27 16 -26 8 11 -27 43 17 34 18 -27 -51 49 8 17 -31 15 -18 -37 9 1 -13 -24 -39 57 -11 19 -1 24 0 41 32 9 2 33 16 48 -24 -14 -7 -46 -20 -35 -9 -12 44 5 41 -43 42 -20 -53 -53 14 36 18 51 21 -4 54 6 -39 45 36 -25 -10 3 40 5 27 -16 7 39 32 -6 -2 -6 -21 33 -22 49 6 51 39 34 51 23 -78 -1 2 65 50 28 7 -14 2 -23 0 2 -1 10 4 -24 28 -12 19 -23 24 -4 -28 82 34 -33 -9 3 -24 -35 -51 35 -33 -34 -35 10 -21 14 7 -11 -13 32 75 -27 44 -8 21 23 17 -34 -9 -51 -37 -3 -9 -14 30 35 -7 11 -26 -15 20 23 -22 56 15 -72 40 -17 52 -7 3 26 -6 36 9 15 -6 -12 13 1 -9 -24 -16 -13 19 -55 22 55 -26 -11 20 42 66 -4 17 14 -64 42 3 -4 17 15 8 -34 -32 27 12 -35 61 36 14 -16 -39 -10 29 50 -11 -20 11 41 -7 -10 -28 -11 3 -25 28 6 23 42 -11 2 54 41 1 -2 1 -57 29 -2 -22 64 14 -35 -25 54 0 -24 12 -39 86 -34 25 35 -32 -27 3 -32 72 -25 41 33 -28 18 91 62 -4 -5 -32 -1 9 -1 -86 83 20 8 -18 8 -20 -59 -37 16 38 19 -31 19 -41 -34 25 20 25 46 46 9 69 9 -40 -9 -42 21 -83 5 -32 -1 3 -102 -5 -7 11 18 46 18 7 41 30 -78 49 1 23 73 69 14 13 -5 27 13 14 -12 -35 20 -45 26 32 16 -9 -3 -28 -37 -5 -3 11 -19 23 -9 44 31 5 2 17 -9 -5 -4 2 -10 -14 27 5 -40 -21 -8 -22 10 -17 -39 21 17 -21 40 -18 28 41 35 -7 -5 8 79 6 29 6 25 9 -13 11 46 -46 -34 7 24 2 24 62 0 -64 -60 -1 93 -13 16 18 33 -66 11 4 17 6 79 -50 82 2 -33 -4 -26 30 22 -9 0 7 20 -37 29 62 -14 -19 -15 -21 -9 7 41 30 2 -9 -13 -25 12 -17 15 -53 -15 -39 18 8 17 18 -16 -10 -4 23 2 16 -3 12
-33 -7 -4 -3 -1 -6 126 4 2 -28 7 -19 16 -2 22 -36 3 42 22 41 -12 -6 5 -14 4 -14 50 21 17 41 -3 23 -13 -19 10 38 3 18 50 12 -21 -14 44 21 -39 -30 -8 1 -47 -8 -19 -23 32 -3 34 18 -24 -17 27 13 -10 -3 12 -22 24 -7 6 -1 0 0 13 9 5 -8 -23 6 21 -5 -19 25 6 -26 -5 -35 27 -20 -22 1 54 -41 -57 -11 -21 26 -49 -7 30 6 51 7 10 44 -30 29 -2 -22 -5 3 -24 -31 -1 1 16 28 -16 12 40 -41 -55 -16 -32 46 5 11 17 -11 -45 18 1 -15 -9 5 -5 -22 -49 22 -14 -5 42 -62 22 -6 10 14 11 8 48 22 3 -3 18 61 -3 -50 15 -11 6 49 22 10 -18 15 -39 11 -4 -32 -31 -31 -29 -21 -34 -25 24 -36 0 35 10 -23 14 25 26 17 -6 -10 11 6 36 -8 20 21 -17 -23 -23 -11 30 -13 -38 -45 -28 17 43 -6 -5 -55 -12 5 -1 -32 -4 -3 43 13 -9 -26 -29 15 -10 -2 -46 -9 52 28 22 4 -16 4 21 -13 8 33 -39 -36 -12 -25 -7 12 38 25 -65 6 -13 -34 15 47 18 23 -15 4 -22 -22 2 5 47 -13 40 6 -14 -12 -11 -8 25 11 16 24 26 -9 38 -14 25 -39 23 -21 -5 14 -1 15 -6 -24 34 2 28 -13 -34 -26 -9 18 -3 -3 15 -15 19 -44 -17 -16 31 -25 27 -7 -66 -15 33 3 7 -11 18 3 23 7 -28 16 8 -47 9 -15 11 -37 11 -10 -18 16 -16 1 -4 13 58 51 13 -23 50 -36 1 8 18 12 10 -25 -46 -15 -11 18 -7 -30 -23 -4 42 -3 46 -12 10 14 31 55 -26 -14 14 -23 -33 -8 -16 24 -13 -7 46 19 7 -25 18 -17 -28 15 -30 -19 19 33 16 4 -3 -20 3 9 0 15 3 -3 -2 -24 -12 43 20 -65 0 22 -3 -2 -44 13 8 -7 31 -11 -1 16 8 -1 12 11 3 57 -22 38 -30 -4 -32 -18 0 -42 24 16 0 -2 -39 -19 -20 -27 24 -1 -41 -30 3 15 -40 5 -9 -12 -16 -16 -4 -17 -47 -33 -2 28 -83 29 39 36 -11 -14 1 14 -23 -6 -33 -3 -10 -1 -29 1 13 4 29 -6 -33 2 23 28 21 11 37 -3 14 8 54 2 -32 45 22 17 -17 2 -11 15 -67 44 10 -50 -12 -20 3 39 -7 27 -10 14 28 21 3 43 -12 4 -18 -3 26 -12 -11 -29 -21 50 50 -34 -14 -29 -1 24 -4 5 -12 16 19 -4 -5 -9 13 -3 18 -62 18 -12 31 5 -12 -13 -20 27 -2 -20 41 -35 -12 24 -34 32 -17 -5 -12 4 -4 -15 -16 -10 13 -7 -53 -24 -7 -30 -16 -7 -45 -63 15 -22 26 49 40 -2 9 -31 36 45 -2 -2 27 -2 24 -7 -25 -21 -13 -17 -54 20 23 6 34 3 31 -45 1 -36 -15 -6 7 78 -53 -5 -59 1 -33 -9 38 10 -37 17 -35 -52 5 30 -1 3 72 -1 10 -18 39 -5 -51 9 17 12 29 19 32 11 7 -8 -13 8 6 -24 18 44 1 -34 12 -39 -1 14 -18 14 -25 -4 4 -25 17 -16 15 -6 -16 -24 3 18 26 -19 -9 -9 -17 -78 27 5 19 -13 2 -24 12 -2 12 14 -5 -31 -13 -30 21 -61 -10 33 8 -9 -2 -18 -10 6 35 4 -13 -2 77 -31 -15 41 -29 35 38 4 -8 4 -24 -16 -11 -6 5 -10 -22 10 6 36 -34 -24 -8 14 -11 42 -21 6 -24 51 11 -5 -16 19 18 8 5 -29 -14 -47 33 -19 3 -5 -37 2 41 40 22 -7 21 -15 -7 -32 -8 7 -15 67 -36 -4 27 4 -2 4 30 -16 3 2 14 45 -13 -16 18 4 9 9 -15 -9 -14 -17 -10 28
-7 -7 0 96 -49 15 37 3 14 19 28 -84 24 -36 -23 -36 -45 15 -19 -48 -23 11 -2 16 21 0 -46 109 -8 -11 30 -21 0 21 7 46 -13 1 32 -67 -14 9 8 20 37 56 0 17 0 -49 33 -60 -5 -20 26 -2 -67 19 -15 12 6 28 -30 17 -3 49 44 37 20 -29 -27 29 17 -27 -38 -7 -41 0 -34 3 -9 -9 2 -11 11 -20 -2 39 -5 -29 -16 62 6 -29 48 7 -33 13 -2 -33 -1 -1 -3 -19 -21 35 -11 -29 -10 45 6 36 -4 1 -7 -81 -28 -45 36 21 -56 14 35 6 -28 -21 89 -43 17 10 -41 -18 28 10 -34 32 -11 17 -30 -32 -11 -49 8 82 -32 44 63 36 -12 57 -36 33 66 40 4 -3 9 23 67 1 14 -1 -61 10 -32 -55 -14 -1 1 -2 43 -14 67 11 -9 21 -7 3 -46 9 6 12 29 55 -34 -12 -6 16 46 27 16 10 -6 12 -59 -1 -39 -15 -35 -93 60 -75 -1 30 6 -63 17 -14 29 -6 -17 -22 0 10 -16 -11 -48 -25 28 9 -33 -22 33 25 -31 8 10 -63 30 21 9 -7 7 27 39 3 -39 126 40 -7 -7 -47 6 -24 -11 27 1 -22 8 0 24 10 22 -28 -51 -34 -13 30 -22 -29 -8 -20 32 11 -17 9 -26 -81 -10 -14 73 62 8 -13 13 45 -17 -25 -40 9 -39 5 21 -40 23 -8 -77 39 72 4 -16 -35 -12 -30 -34 2 29 8 35 36 25 -6 -19 -36 -53 -88 -9 -3 47 -19 36 -58 19 -23 -19 5 -3 -69 -93 23 -49 -30 -14 19 40 46 20 -13 -41 65 4 16 -34 -36 -39 31 5 11 -49 -43 4 -8 -24 35 -42 33 -87 -6 -37 -3 8 6 -3 -3 -1 -18 -18 -53 -60 0 -60 -27 32 -12 67 18 25 -35 -4 -10 4 97 13 35 67 53 -20 34 -34 -34 45 1 -52 28 1 12 -22 -19 -41 -29 -2 9 3 58 -23 -23 8 -15 3 61 59 -11 -10 -24 22 -23 67 4 39 7 -31 28 -14 47 -1 35 9 -6 -48 -6 35 -16 20 34 -13 -64 -21 -16 -7 -77 11 26 -4 -9 48 -52 16 72 12 -14 36 -25 10 -7 7 -25 3 8 -14 -24 -51 -16 6 -4 7 -104 18 7 49 -4 -23 68 -8 47 7 -2 21 100 54 -1 -18 14 -48 42 -4 -22 8 31 33 34 1 53 -14 49 5 31 -42 -46 21 -14 -20 53 7 -6 -53 -16 -2 35 43 28 -54 -45 10 -33 38 38 -51 -11 -5 -23 -4 -2 -51 -32 -97 45 18 32 32 12 -40 -16 -7 -62 27 58 23 -37 5 3 7 44 -33 57 -8 -18 -57 -64 -8 -16 -19 -7 16 4 2 -31 -30 15 14 -18 -38 7 27 -41 3 -69 2 10 6 11 22 -18 -46 -75 -2 38 -51 -15 16 50 3 7 11 -24 -35 30 6 18 30 26 46 33 -38 -26 17 -11 14 -17 0 38 12 -39 -9 -33 39 73 -82 -56 -16 -28 -21 -44 -90 -62 9 -40 -23 58 34 -41 -67 1 -6 -8 -44 -28 -61 -44 53 17 -17 34 -31 -17 21 40 -5 -62 35 -8 -12 41 -56 -26 39 11 -73 -81 -31 36 7 -14 0 26 -98 -15 49 -32 -21 -54 6 -33 -24 18 4 -55 0 3 -12 60 -4 -24 -25 72 6 -35 -20 42 -47 -12 -7 -82 21 3 71 -24 -4 -13 6 14 0 -60 -12 -23 -22 -12 91 -48 -33 -17 -38 65 -5 -9 -26 -26 0 -34 -20 -6 -29 33 51 -24 -87 40 55 -13 58 4 -110 11 11 -40 5 15 14 64 -15 -57 1 -20 7 -47 35 35 -3 11 -3 45 34 18 18 -33 -33 11 0 12 24 -98 6 -30 10 -17 -24 -24 -10 32 -18 4 -16 15 33 -51 20 -38 17 -6 38 -7 9 -27 2 39 18 32 29 31
122 55 20 21 8 -19 2 15 -33 3 -11 -24 -19 -51 -26 -39 -54 -31 9 -11 31 -1 -6 -26 13 1 50 8 10 48 -35 16 -86 -11 -9 -27 -41 29 21 13 -22 -19 -15 -48 -6 -62 0 -32 -10 -23 1 -26 -1 0 -16 -37 38 -33 12 28 -19 -7 7 -2 -39 -25 32 -53 -1 -23 -1 17 -26 25 20 -12 -13 -2 -29 9 23 -15 67 -55 13 -9 49 -5 53 -41 -29 -41 0 22 -34 0 -11 9 51 -29 -2 16 -3 -1 -2 -23 -27 -45 6 -8 1 31 -14 -2 44 -4 -22 -19 17 -4 26 -5 -15 -11 -5 3 19 -4 -17 14 -9 -16 15 -78 5 11 26 -24 -47 52 8 10 -31 -17 -28 -41 17 7 0 -5 -8 -13 -37 42 -55 -21 13 32 24 22 -29 10 -26 -45 31 40 -13 8 4 -6 -19 -16 -51 23 21 -22 17 42 -19 3 -20 19 -11 -55 -28 10 -19 22 46 -25 54 10 -20 8 30 3 -1 -62 9 -47 32 43 15 -10 25 -14 -28 2 3 -1 -8 -7 -1 54 -19 -12 -2 9 2 21 22 -9 -2 -69 -31 -8 -17 15 12 8 -8 1 -11 -17 22 34 -87 -14 -10 8 38 -32 9 70 8 -12 -34 -2 -85 -10 28 -12 -5 35 57 -15 22 -22 -5 -62 -46 -20 -4 -10 12 2 -20 -4 -42 19 -43 -11 5 -56 -5 73 85 -17 0 45 16 40 -4 14 -12 -54 -20 36 -23 -41 -67 -21 -60 24 -36 -32 -26 -45 4 -25 18 2 -2 -23 -28 17 29 43 6 -1 -11 -25 30 8 8 12 40 10 -9 27 15 -2 66 -5 -26 -44 12 7 -53 8 -7 -6 103 -28 -20 -24 -77 -19 -9 -2 3 -11 31 47 -6 -32 -3 20 -18 31 0 -14 -7 -4 -5 -16 29 22 -30 -9 0 -21 -39 3 -105 29 16 31 79 -89 15 -4 19 -4 23 -11 -21 -2 -30 55 17 -38 -14 67 4 18 -29 45 -27 32 -2 29 2 -2 -9 -92 5 51 9 -22 47 31 -7 -63 -9 3 -25 0 -20 16 -4 4 -9 -2 -8 -54 -2 -29 53 20 -17 -62 -31 13 58 -6 -122 12 -9 69 65 -8 -15 1 -25 -33 20 1 -2 -22 -3 -12 -57 11 57 -7 -40 6 -29 -7 0 -14 -6 -3 50 2 -12 23 -48 45 -18 -37 -4 10 -45 15 13 -43 -4 -55 23 -24 -8 1 -36 -26 -14 27 -7 -18 23 -63 23 -12 3 39 12 -65 -23 7 -4 1 24 -50 126 42 -16 44 -40 6 -119 10 -21 -3 21 21 2 -16 32 -16 -10 23 8 -40 19 -17 -5 53 -21 42 3 -27 29 44 34 -2 -33 -34 -68 -10 -3 -48 8 -29 -8 39 -13 -27 71 11 -44 -7 -15 47 5 33 -23 14 -10 -25 -47 0 -14 -21 -27 -39 -12 19 -25 19 -4 23 28 -23 31 5 6 -49 7 -27 32 -73 -19 23 -4 -56 -2 4 -6 -16 -46 -12 43 3 -67 -19 12 39 -2 -19 26 14 -22 -22 -69 -65 9 -48 -20 -64 -29 17 51 -12 15 -52 -6 -43 -31 14 -38 -2 21 -43 47 14 1 -8 -15 28 -1 79 96 18 45 -22 -36 -17 -17 17 -65 -52 29 0 8 -20 -15 19 -18 -31 18 9 -14 -12 -3 -37 -18 -14 -30 27 -4 -22 -8 17 16 -34 55 2 18 -44 -28 25 -3 -23 -11 22 41 63 -18 -43 61 14 -15 15 -31 -47 -9 20 -16 -55 39 31 -12 29 20 19 14 -2 -13 9 -14 -15 -13 5 -5 55 19 6 25 67 28 48 -21 45 -18 -18 27 9 34 -20 66 -16 -19 -29 -32 -29 -10 -31 3 25 7 -38 -14 -24 3 -53 2 25 -36 2 -34 -2 22 -18 33 -40 61 21 -29 29 3 -16 0 17 -6 26 38 -30 -3 -16 53 -23 -30 2 29 -67 -34 -9 -5 13 -28 -36 -31 -6 1 -22 22 17
-8 35 20 -6 -54 -65 8 92 -51 8 -2 20 -2 4 11 15 -7 -2 8 9 -5 42 -53 -52 26 -50 -6 7 0 -4 -2 5 11 -2 -15 112 11 74 54 -12 58 -65 -15 -7 -43 28 -3 24 21 37 33 -4 14 -3 -40 29 -63 -20 -13 18 -5 -18 -28 43 36 -15 19 59 -9 12 2 56 -21 8 -1 -10 -47 10 41 40 24 14 -54 46 30 5 25 13 5 -26 22 -16 -22 -18 39 42 72 1 32 -47 -3 31 19 20 -27 4 45 -41 6 6 10 0 27 47 15 45 95 52 42 -11 8 -35 -1 -15 -18 -1 23 43 -37 15 10 -26 -89 2 -25 7 -22 5 -21 -36 -72 -56 -33 -51 -2 40 -67 39 24 -14 103 -40 -7 -7 17 7 -21 5 -10 39 -28 -11 -28 32 5 -17 14 0 38 -37 -41 13 -36 23 -18 7 95 -1 -23 -8 57 -60 44 0 26 -12 -83 -16 -12 30 1 45 -40 -8 -22 36 57 -44 -33 41 -2 -1 -27 4 -4 16 32 -52 54 -8 58 7 -19 9 10 32 -3 16 -21 3 -35 38 22 0 13 -12 -93 13 -14 -44 14 13 21 17 124 40 -10 -75 -8 -37 72 24 -41 -7 -34 -23 -62 -14 -78 -30 16 -15 -25 -23 -11 32 49 17 8 -16 -8 -29 -48 41 -33 9 74 12 -18 -27 -64 -1 -14 42 -16 68 -6 -81 -4 54 11 27 -21 -30 9 -65 -26 50 9 -69 -6 -38 13 -23 39 10 22 22 81 -53 6 -6 -22 -19 -14 44 19 -66 50 -10 15 7 71 42 83 -68 20 -27 76 -36 -6 43 16 -2 -7 -47 -24 4 -14 -34 2 -30 18 -10 10 49 18 55 17 10 13 -8 90 75 -47 30 15 2 9 -27 24 51 48 -19 9 70 53 3 46 1 -19 -7 -76 10 47 12 12 14 -10 21 26 -1 -44 0 56 -2 -51 -14 22 -39 25 -31 -1 11 76 -32 -10 11 -8 70 -21 61 8 40 -25 -29 -33 -37 36 -61 63 -69 -37 -22 -43 47 41 22 -36 -5 59 19 24 31 25 83 33 -22 -8 27 48 -8 -12 49 51 -11 -83 -21 -21 -22 -63 5 45 -5 16 21 35 38 -100 -11 39 -57 35 -8 14 5 -5 37 -30 52 53 -13 -28 4 30 -27 10 73 -39 24 -11 -19 -24 6 -16 12 46 62 -27 58 7 27 -8 42 2 -46 23 -63 -2 48 71 12 -7 45 40 45 51 76 -24 -17 -68 -20 -23 45 -37 -22 7 72 41 -53 -9 -30 28 24 -55 -10 110 42 55 -48 -48 -23 38 52 -26 33 47 1 32 44 -19 -7 4 -44 12 3 -23 -24 -47 -13 30 18 -12 -62 53 43 4 36 -14 10 15 -12 -26 50 48 30 70 -56 13 -36 11 -4 -23 3 9 -17 -31 64 1 -2 1 -10 9 -57 -22 47 104 -51 -33 -45 -26 7 15 35 29 -24 9 -8 22 32 53 6 -42 -15 75 -27 -27 -27 0 9 -6 28 -70 46 1 1 10 8 28 -40 -13 84 -56 2 -11 27 -3 8 46 -14 31 28 17 2 -27 32 -49 24 -24 10 -27 2 -27 8 -6 55 -85 6 22 -55 12 -9 10 -24 2 -28 -10 55 39 -11 -21 43 -23 -14 7 25 -20 -5 -28 22 -45 3 46 -25 -46 13 1 34 -18 26 -22 35 12 -49 -27 -1 43 -3 36 -65 -19 -14 1 7 -12 -48 22 -19 -18 -40 -62 27 8 -10 12 -39 126 -42 -47 -26 7 -58 41 29 25 -45 16 1 5 -15 12 -60 -8 42 -61 5 -49 -24 21 -27 24 37 24 29 -26 -88 14 4 2 15 -19 -22 -34 -34 33 1 5 -28 -79 -14 1 -12 88 -24 9 -9 -38 120 -12 -5 -8 16 30 -69 5 39 4 110 -15 -21 11 8 -18 21 3 -32 34 -12 36 -29 8 -10 -17 33 -3 63 11 -45
51 -24 17 15 37 12 17 -34 -11 45 2 34 68 2 47 -21 -7 -42 -11 1 -23 3 9 1 43 -23 -37 10 -26 -21 6 -11 -28 23 -6 -4 102 15 -3 23 18 -53 -21 -19 15 47 -38 -39 26 9 -32 -11 44 -45 -7 33 -127 -42 1 28 -40 10 -1 61 46 36 -29 24 -46 -16 -55 -10 -27 21 16 -19 29 -15 -43 2 -60 -4 2 5 -5 16 8 16 38 4 9 12 16 62 7 2 47 -7 10 -25 -18 41 -40 -7 -8 34 -30 -15 -28 -17 3 -20 43 18 28 67 32 -45 -40 9 43 -48 -43 12 -35 34 -57 -8 40 -23 -32 -3 16 31 56 -10 21 -25 10 27 8 -22 -20 8 -3 31 8 12 20 42 3 -14 23 -49 -1 -9 -2 -8 45 -15 -22 17 26 -67 23 -23 -54 -1 -10 8 32 -35 38 29 16 -2 -2 97 -35 -42 -13 22 60 -20 18 -27 18 -33 -9 12 -60 -1 28 -39 -39 41 -15 -27 31 5 26 -46 -2 -4 30 -51 61 24 1 2 -28 14 15 -21 10 -10 -7 -13 35 -4 -2 -4 5 -12 -36 42 24 27 -33 23 -2 -36 4 -3 1 37 45 8 32 -44 21 43 56 -23 8 14 -39 -26 33 16 -5 -35 -20 29 23 30 -24 13 28 7 -94 19 47 43 -24 -1 4 28 -54 -21 -8 -49 4 2 39 8 -8 -31 39 -17 6 9 36 -80 39 -78 15 13 15 -30 55 -34 -76 40 33 30 54 11 26 28 21 -67 -15 3 56 2 -17 23 2 -8 19 -54 -6 21 -28 -14 -36 37 -4 -42 9 -11 -33 -46 -58 -48 28 -10 7 -30 -13 -27 -8 18 -108 62 -3 -33 -38 -29 -27 -9 -45 12 15 9 -36 21 -54 34 -44 55 0 40 -9 -2 -14 -21 28 -45 44 45 -59 26 -11 -19 25 -35 48 -12 29 -19 94 -34 2 70 -21 11 -22 21 23 35 -13 -13 -26 72 24 -9 19 7 4 4 -11 27 -35 29 66 6 -3 36 -49 31 24 -12 18 -18 51 -26 18 -22 -20 -24 62 -37 -58 -9 -24 -23 -8 -5 49 33 33 0 55 -20 -36 -12 -23 -30 24 -21 -58 -42 -46 -9 12 45 1 -48 20 24 29 32 4 -74 -44 -52 -1 62 -15 -79 -57 1 18 28 16 29 24 -10 7 25 -30 25 -49 -17 -44 7 16 7 -39 -48 4 -4 9 0 2 33 -1 -9 -3 -26 -29 96 29 -28 10 12 8 -24 -5 -73 -16 58 -16 -9 -8 8 -36 28 -10 -12 6 -30 61 -64 -55 17 16 45 -29 0 -100 -32 54 24 -30 -16 -25 -17 -5 -7 -39 66 8 54 -9 -10 -14 53 19 49 94 -30 33 -16 28 -8 -35 19 7 -7 8 35 -18 -27 8 -36 -40 -60 -61 3 -32 -2 95 -20 -10 22 -33 1 28 25 34 44 28 -31 -4 97 -69 -4 -65 41 -16 4 -9 13 -31 -7 -53 18 59 26 40 20 10 41 -44 -18 -1 -7 23 -29 0 -1 70 -39 -12 22 -25 -12 17 30 -12 -10 -17 -36 36 53 4 33 -59 23 -63 -29 -51 40 68 -43 54 -41 -31 117 -4 30 -49 6 58 54 -1 96 1 62 -50 10 10 -18 -26 -19 -23 -43 -32 20 63 0 -1 9 27 -11 22 37 -45 7 25 -10 -54 -24 -43 2 26 -66 -17 10 -19 -8 -21 -8 38 -31 47 -8 17 -41 -23 50 10 12 48 -9 27 -15 1 53 -36 -23 -2 34 6 6 -19 -10 18 -36 11 6 -46 -18 42 -31 -2 -48 -31 36 40 7 -3 0 -7 7 28 36 -2 1 14 6 -16 10 16 -6 -15 7 19 -44 -26 -22 64 -5 -64 -32 -41 16 20 -2 -74 7 37 18 -11 52 -75 34 -20 28 -8 31 -51 -43 26 -27 -7 -9 -25 47 -4 -25 -33 -40 49 -12 -11 -15 -41 50 -10 53 4 -2 37 7
-26 -6 -65 -3 -8 68 5 87 2 -13 -10 -41 29 -17 -12 19 32 13 4 -23 -18 29 -1 21 6 45 16 49 -27 21 -28 -24 -41 -46 34 83 5 -14 -1 22 10 -6 -18 -42 12 -43 18 22 -73 -14 -11 -68 24 45 -10 36 -86 14 -6 -34 20 -12 -17 8 -39 11 1 -19 -5 70 -5 3 -35 19 -34 -8 -15 -11 14 29 6 14 10 -8 -44 -31 10 23 -22 -25 31 -9 25 -10 -8 -38 -44 13 70 -12 28 35 -18 88 -10 35 71 -44 29 -84 -11 6 31 7 46 32 -8 25 18 -22 -25 7 13 -13 35 1 -8 -23 -29 1 28 10 31 -7 -33 89 -38 -8 32 43 -9 5 -2 31 25 31 22 -11 -12 -26 -32 16 -66 10 15 8 19 13 -22 38 -49 -46 -4 17 -16 13 -5 39 -46 29 -21 13 37 -28 69 -46 12 -46 -45 -13 -61 -29 45 -59 2 27 -49 -9 -29 14 -12 -42 3 -28 62 -32 -16 20 16 9 50 58 4 -8 6 -2 -21 63 -2 15 3 22 15 -49 38 9 -48 14 -6 14 80 -12 -11 -9 -13 -54 30 -13 -13 10 -12 -26 -5 -45 -34 -46 -35 -27 10 -21 -41 13 -11 45 75 -15 19 31 22 -10 29 -3 33 -44 -10 53 -13 18 9 9 -64 -4 -25 68 24 10 51 65 -51 20 23 -25 24 45 7 -87 3 13 26 10 0 9 3 -13 -41 42 -22 -13 25 -4 13 52 8 55 -55 -29 -30 -34 11 57 11 -35 -1 -15 -7 -5 69 47 47 -21 2 45 52 -69 24 8 -3 -27 -35 -16 25 -11 18 2 -2 25 -53 21 32 47 -8 -26 -2 3 -95 -51 -33 -3 -12 6 8 22 14 -20 33 13 -1 72 -34 23 36 -34 -8 -57 51 -36 -36 -4 14 19 58 4 -12 -39 8 -12 7 10 24 22 12 0 -13 18 27 27 -1 28 2 -78 -25 -42 -37 -30 -43 15 28 15 -6 6 20 -4 -46 35 22 23 -9 -34 57 48 -2 -4 -81 10 -39 1 -36 -56 -76 -19 -44 -33 13 -23 12 7 6 0 -2 -24 -7 14 59 -53 -12 -25 4 20 40 12 50 37 36 -1 8 13 -30 13 -12 -48 6 26 -49 28 -45 35 -39 36 30 -68 58 -9 9 7 27 0 -9 -8 8 54 -16 23 55 -30 1 44 -35 24 -6 -7 -23 31 -8 -24 22 29 -27 28 20 10 41 39 -40 69 24 -71 -1 -23 11 69 56 -15 -18 6 5 6 -1 -17 18 2 -4 -31 -6 -31 -17 28 2 46 9 -10 -57 -36 -22 55 9 -16 -32 7 29 3 -46 -29 -16 95 51 -22 -23 -24 5 38 23 13 15 2 39 20 12 82 16 -7 3 -17 -4 65 -40 13 0 81 26 4 12 11 -37 42 -16 -49 44 -12 42 17 -1 12 17 5 26 37 -19 -60 -23 3 -18 20 -16 -37 16 -6 -22 -45 -66 50 -39 56 -19 0 -6 -63 1 18 -3 54 -38 16 17 -13 -61 57 32 13 -68 9 -46 16 31 -24 43 -64 63 45 81 12 8 -19 11 -31 -9 25 -18 -3 23 -21 32 -71 8 22 41 22 40 22 12 76 -21 -13 8 7 34 24 25 -10 72 109 -27 -5 -40 29 -34 -14 21 -28 -51 -9 70 -14 8 7 20 5 -56 22 -22 82 -33 23 -35 -20 -32 82 1 33 -16 2 50 3 -52 -46 -15 -33 -1 14 8 13 32 9 -13 2 17 -7 10 15 63 4 -34 -42 -55 -15 1 26 -17 9 31 10 -29 -57 9 -12 -127 -23 40 -36 18 1 35 -43 -40 27 2 -34 8 -13 42 31 -11 44 43 14 -25 22 -44 9 53 31 -15 29 54 -7 -4 2 0 72 31 11 34 15 12 56 42 -11 -12 -15 27 14 45 -34 8 -86 -16 -31 -21 -43 -7 -52 54 -2 9 54 16 18 -33 30
-3 -20 15 -4 -3 -10 31 -22 -14 -17 -14 -30 11 45 -5 20 8 -15 1 -8 -32 81 -21 1 13 0 14 37 -30 10 15 19 30 -26 -14 -42 -15 19 7 0 21 -50 -30 30 -12 24 5 0 -60 40 -21 5 -6 -66 -41 10 35 2 -62 -20 7 8 31 38 14 35 -21 -60 3 11 -43 -19 33 13 31 -25 -29 -8 5 -30 39 -22 9 41 -30 4 -33 -7 -46 12 31 5 85 -14 24 -3 -29 3 19 -47 15 -44 19 56 -22 -2 -40 12 14 -27 1 -14 20 22 -18 -42 -41 -3 -2 1 -2 3 -11 -3 4 -8 -47 7 -20 -15 -8 14 -16 3 -2 -13 40 -41 -38 -37 4 30 -22 18 2 6 -37 -51 9 -8 31 -39 11 28 -18 43 -3 -6 3 10 36 0 8 -5 -58 -22 5 -14 30 20 -20 14 24 47 -3 16 -9 -3 24 62 2 -27 -36 19 -5 -24 -27 14 -28 -12 -3 20 10 16 -61 4 -19 -29 55 14 -3 10 6 56 12 3 4 -81 73 33 57 3 -4 13 -18 25 -38 9 33 14 -47 61 7 -10 -16 19 19 -14 36 -4 15 -32 17 -4 -22 -2 -8 -53 56 16 -31 18 -45 -44 -5 -16 -20 36 -9 9 -7 -11 -7 -16 21 -33 21 11 -4 -45 -63 -24 11 16 43 -49 -19 21 -5 1 -9 15 21 8 7 -33 7 -2 -37 -43 -38 -10 6 -37 -105 1 57 1 -33 -78 25 36 0 50 -22 44 -6 -18 17 19 -24 -41 27 -4 -24 -5 -35 -17 -45 11 30 -14 54 34 30 -10 17 -4 4 -51 14 14 17 -1 16 -2 -39 -24 76 49 38 73 23 9 51 -1 -4 37 -35 7 1 7 -3 -22 0 -11 19 -27 10 -53 -7 -33 34 -39 19 -38 -2 -12 -1 -46 4 -6 -3 -43 42 -34 -20 27 60 4 -58 -37 -25 56 21 -14 -4 17 25 -50 -37 20 -32 -1 -82 1 35 34 38 -61 -50 -6 -30 9 -33 -28 21 -5 -27 18 35 32 37 -23 24 -23 -11 -1 -20 48 24 16 3 52 -2 -15 21 -30 -37 9 -38 -39 -13 20 5 0 5 -26 -22 55 -4 -29 10 57 -3 20 13 -26 -44 11 -6 27 73 1 -104 -22 -11 -16 0 15 27 -24 -1 -1 8 -9 8 11 17 -30 -21 -14 -1 -17 27 37 51 8 11 99 -69 -5 -3 3 2 17 30 -12 20 27 2 -65 -19 -36 39 52 34 48 -13 15 -33 21 -9 14 -25 -13 -7 -15 13 7 -73 -11 -18 -46 -14 5 13 59 -28 -11 -7 8 15 34 -50 43 -27 -6 12 -1 9 6 41 -58 4 -7 -57 5 31 -15 -57 82 -53 45 -14 27 -19 -17 -18 7 -41 -10 -31 -36 6 25 -33 -8 -21 -17 39 10 -41 59 -17 -28 -36 -24 -56 -6 68 34 -25 29 52 -65 -14 59 -17 -3 11 -20 -59 1 4 5 -13 16 30 -14 21 0 15 -19 2 -9 -6 -68 0 18 24 -4 -16 -14 12 -49 -35 3 -2 11 68 3 -61 40 -4 44 43 8 20 -10 21 -5 -3 -8 26 33 -2 16 35 -13 -25 100 8 1 -73 -57 17 -10 6 48 -43 57 25 26 7 -127 17 10 22 37 -9 13 23 -56 -33 11 -21 -14 -27 63 -22 19 52 7 15 6 31 95 -41 -74 19 -35 -39 49 12 7 -52 -46 -21 14 -21 -8 49 -9 49 -12 -23 -16 -56 -44 5 -3 30 1 -25 2 46 2 -20 -38 6 32 -39 2 21 -53 6 -4 63 -33 -31 8 14 -6 -9 -10 -80 12 87 16 -35 46 -21 -12 -29 -48 -15 -7 18 -27 -2 -32 -39 -22 25 12 46 9 0 -13 -23 -12 -28 24 0 -13 -75 14 -39 -15 9 -13 -11 -22 2 -17 47 16 2 -5 6 8 20 -3 16 -55 -23 -14 -21 13 68 -1 17 33 -57 28 23 -23
