-37
-33
53
-18
-59
137
150
40
77
-59
83
251
47
-81
175
-65
-39
-44
-71
311
-89
-166
61
80
54
-65
8
527
249
-9
97
-137
-25
-158
151
34
213
-226
-112
304
14
-155
-12
703
6
56
-4
-237
51
127
-51
-120
-139
-127
-148
-89
-94
37
158
28
-98
-248
-23
94
66
-214
154
-32
-276
9
-88
81
-157
-126
117
41
-142
-1
3
0
30
438
-92
167
344
-164
-91
17
272
297
-395
39
53
-45
-85
-45
-77
16
69
30
20
19
-131
65
104
367
-453
-39
-116
-83
238
23
-80
-230
157
108
62
-75
-87
57
-42
-36
-184
-190
155
196
-160
23
-154
-5
-57
-251
493
-64
132
182
-10
-355
-154
125
283
748
-130
-90
-158
194
-10
-569
-57
147
-82
-112
-294
46
347
40
-446
85
125
-76
-250
-304
-108
-193
-598
-79
-149
285
27
68
259
-110
26
164
-15
71
84
-138
-50
94
262
-433
316
177
-162
114
-6
-102
126
-259
-121
74
-481
-204
-13
283
250
38
-285
67
273
6
18
-68
-11
-614
176
288
196
-148
647
623
-204
-435
-216
-365
-169
397
647
78
72
428
-185
90
-139
403
83
-510
-69
-336
-272
35
-109
-554
433
401
143
-111
-263
130
-125
244
417
-121
357
-761
-19
209
334
5
-168
34
-54
32
59
92
-34
46
70
-10
49
57
212
36
-78
58
56
-110
14
-56
-141
205
-38
22
-570
72
-106
-43
31
113
114
3
48
165
49
28
53
187
-20
-203
-122
11
56
-42
91
172
-113
16
-6
68
82
-447
-70
36
-18
11
-12
57
-13
1
-17
178
-27
55
27
-50
81
-288
44
72
-66
196
162
218
-330
-56
426
-47
79
-198
438
182
-678
82
-94
204
-141
184
76
66
-46
47
-147
-139
147
622
88
75
263
-391
12
437
510
-460
69
162
398
50
21
196
-153
-260
48
-236
144
266
95
-330
165
186
-73
-234
-185
-314
247
169
62
125
498
-51
-122
-82
-36
95
231
481
82
497
45
-80
131
154
484
429
30
52
-384
-964
185
-795
189
-231
-255
-476
49
409
54
188
-661
437
96
-559
721
-678
267
188
9
140
263
86
86
-13
-719
-15
151
-232
-303
275
784
-78
-561
-168
-245
-1
282
290
120
-297
149
210
665
244
103
-268
-348
509
309
-205
-18
-643
-45
-108
7
-235
83
68
-264
31
11
-281
169
-14
-144
67
13
-103
-249
-66
40
-109
106
-40
-19
-11
47
-70
172
80
144
-2
181
149
-128
99
-74
163
-105
145
-231
-117
280
-367
-141
-90
-123
-5
110
70
-109
0
-70
-43
-78
-84
121
7
-131
-60
-272
20
-242
69
18
507
9
139
-438
-70
74
-43
188
87
-86
-309
-39
195
32
384
-51
-459
-157
-81
184
205
-4
200
134
-258
-110
-190
-543
-156
93
59
103
392
16
-72
-82
85
129
33
-14
-129
-269
189
-305
101
-178
46
-66
13
322
70
100
-35
104
-194
-153
-309
2
-49
132
-6
32
22
-4
95
-257
334
-201
-177
8
636
326
-140
-71
54
-243
-263
-223
-9
262
-75
-21
-238
-290
23
-57
-152
-17
187
-120
494
-3
-131
218
-122
4
451
-172
211
-24
167
17
-140
325
-140
257
-154
118
-108
-141
-107
169
-235
-868
-70
-91
-142
91
-369
123
316
-179
-59
258
219
232
226
39
-252
-374
-94
-357
100
-15
42
13
-95
154
-2
163
-100
203
7
-181
-157
14
15
131
3
-249
-43
-5
-150
82
316
-76
25
6
-83
-62
22
-53
-76
-216
-8
136
127
-36
96
344
36
-1
-55
36
-13
-145
112
85
18
-230
11
70
-79
120
44
6
101
35
27
-127
7
-668
-478
798
-1038
322
596
990
919
-480
703
-686
797
724
811
754
-577
706
-1077
-546
-785
-863
-577
-494
710
582
676
-536
856
-403
-450
436
734
163
-610
-746
639
241
579
874
-692
-9
-721
-582
572
-735
-789
-585
-421
-758
593
-737
507
-498
523
753
1203
256
620
-646
-759
-229
81
-701
724
