-4948335
6309857
-639815
-3730344
3623907
4274725
4304328
4290516
2300897
396771
6663586
671423
-82834
6703325
-7926518
9699811
-4043792
3261025
-3874446
-2456741
-2667329
-3896631
10267339
2307393
7329310
-5822766
4402354
5439716
2772948
3790465
9473594
-872476
2376992
-10076666
6389765
4235221
4819977
332163
-6272083
2831075
-3997657
8163333
6368056
5981491
24461
208819
3866372
20248692
1179226
-646815
3126379
-1811983
633630
6034103
297252
-3222082
14392601
956625
2971572
4377847
-10917013
16264419
153049
1035804
3677035
4070849
62900
2333216
3050634
16739368
4791904
8584106
-10179536
21249528
386628
15716112
3656610
-26352096
4032130
-15174549
2808188
20785620
13023939
3960584
-12954143
14565966
5220478
4590117
-3759705
3566170
4192633
6191938
109262
3708736
-2035789
-8873641
3546349
2460255
15484252
-2699570
-4228660
1683081
6514757
-1181164
4282579
-9248126
-569885
-7173769
-14907523
2106616
31796534
-7108053
8147223
-2926252
2713803
2293642
7872455
7819805
7028620
-15834540
542181
726886
5647503
3654868
3737603
-2541272
-6645934
-517606
3757062
-1614364
-9651007
-5375951
12080104
2492204
1391429
-470591
7577720
5149204
-877727
-843713
5241768
-5142696
7806516
7279939
-10996867
-18517950
42151
-10194201
4426738
2389108
3754411
5472380
-478892
3968459
-1193539
-1331006
-13437927
235101
5922155
-8924474
3828508
-6151296
1659194
993843
-2823321
1228326
19120610
-1062427
1760411
838622
8092381
18616410
6340877
4208376
3118978
3815293
-820951
2260049
3492229
5452720
3101368
1595536
447395
3430108
-4706087
-802048
9092269
-153304
2007593
8233675
2588746
3607627
-13264073
-4348811
2527401
4885895
5725429
1565544
3800622
5356637
4073862
17387962
5932056
1892313
-12090159
7823889
7294483
6126473
3749574
31403
7488649
5036603
1404702
2094753
12864412
17746762
7329712
13006141
-303068
-1690005
-1099943
5597355
-506785
2877432
-8145344
-583153
-1804097
3276604
1587589
-14575181
3681294
3134297
110857
4863939
2104236
1678290
4912675
898637
4026887
3402697
13576766
-5576170
2242820
1629849
-1985891
-452172
3621214
1618559
1541224
3609241
5096869
4185053
5700843
-9439925
577793
-1355940
5241886
-22230108
2015035
-5026521
4408746
18137632
1950045
4527082
-1506184
18945636
5935627
-4179166
486136
25122874
792759
7421989
3865994
-7786929
1998289
4844675
1227382
4192362
16623696
5326851
2298427
118761
11843491
2712960
-2559486
645523
-6567245
13287
5906864
-3263536
-2603820
-4377384
7952415
3044843
-5979809
5970672
3446746
-1396478
46382
4050444
3560871
-980410
7093062
8594896
2051000
3748885
3452422
-6299687
8211579
-868240
-4115849
-4584066
4194586
-3817338
-373295
2170828
5664072
2797435
5303150
7610042
2654617
-9852886
-1474678
3541945
5986994
-3795102
9471948
4292577
-8874450
7720176
-17326928
131214
7102229
-692795
5021945
4008416
1512164
830983
-13974294
2296870
4856581
-7132787
3006915
5358278
-4000568
3552558
7697584
-15568101
2049318
4769449
24269600
517531
319620
5735760
2130004
10555805
3283842
-8901897
2922644
15420042
6020339
-8489877
-1394814
5864357
2674219
-179741
9380584
5523359
200851
4079097
-7631004
3051280
2482774
3657808
354067
6304001
-8549681
4639497
-5622193
2731559
3526531
-5764055
4824329
6728398
3937054
1932805
-1556425
-3342009
5368023
1052324
-11313868
-8854333
3259426
8329014
-2193400
-3577684
221891
-14040249
15825163
6179103
4166801
2822668
2301194
-16298513
7105239
-7752808
3460028
-1526968
12428230
17226444
500512
4629405
5199283
250307
11052603
5195048
1387691
11516072
2969291
-1485370
1475158
-1852929
3046109
2824317
3011898
3676551
2268965
5172267
-8248206
5500011
-5574707
-3478113
165185
-7405901
-17755008
7439990
-1483837
3602033
7401872
3720036
216907
-1341389
-1823119
3595074
7099401
-1259752
3481770
7855428
2196058
-2899505
3103977
280362
185145
34233628
3002200
10139355
1033366
3942682
5707116
2802501
4056794
2989882
2978668
5430617
2581450
-7626628
-1600687
3423047
683909
3351672
-183570
5195377
6427938
8970387
3967920
2637224
19083942
4767475
34166968
1130295
3580542
-2011408
-4607881
2747366
3633956
-1709081
11353451
3312423
1104699
4753483
4384426
2914760
1936992
5115596
-4077268
6590134
-34360
7570627
15545791
3988650
3803878
2452350
-746192
-2031882
7148388
-5665733
1048768
5042560
-3009515
16498576
7594846
1707387
3273135
3903334
7724912
-5234344
3227263
3751380
2553747
-11532102
3304534
2469272
3758597
6990436
6966673
-1925099
-2051834
2734442
2647221
5689869
-2057722
4286757
1854499
-4377222
1796182
-21633066
4106361
7207190
-11570393
-2555207
1323833
2132810
-210036
4305274
12484304
122359
-3100519
3521823
284632
1298019
1951362
21850278
5424873
-7372176
3211789
4725436
754531
5550633
7148257
639691
-1011135
26888786
-2303237
2355124
3134118
2820314
825994
-936715
41014
1994859
-49301172
-2970235
1766304
-12806156
-2973783
-3103143
1453890
-2911201
6903928
-159058
5791545
208328
875070
2879772
-2844360
392126
3604127
7766067
52141820
2679523
5486779
-10117547
6384742
2187706
-2047056
-1131848
-10819504
-1436543
9182751
4662143
4536274
-2486595
-2172123
6184758
-7374431
2274966
3894795
1523555
591194
-209009
4954617
943984
-21938964
6111484
2469299
872740
2556870
3875096
864455
-1391924
179742
3985161
1589522
6993134
12858496
5338977
4635166
2713463
-3848957
822799
3692839
-6782591
-1972050
4041725
14367146
1096157
3481084
4813161
4499963
-86837
28360364
4567596
-2484220
12244451
1863667
2374072
-17814848
3803706
2970833
6425821
3452698
-565192
9610521
363363
6638232
-3982805
-7011798
5399408
3692635
-4863842
4674884
10243210
3448957
-5955503
-20112986
-2258147
92367
7271779
4016972
-9280349
7667281
5617348
-669098
2016678
3003757
1299717
14724103
8580012
8274228
6193798
2277519
4827329
3169750
4733849
3006080
1605830
-2020327
3457662
-2954521
1950361
-15939817
893967
1727596
3424185
5216354
5098004
1067855
-15961997
4328155
3669967
733532
1604254
2047901
7108897
2831419
1458732
5047908
2261449
6866737
2279903
-6452416
1050488
-11538814
-8728535
900419
1452084
1605584
-19915396
-2934510
-1941642
-14063740
1460316
2034114
3671060
4006690
-249816
-389520
1515454
-3971177
3055021
1331488
28725980
-1243549
3300163
973246
13566526
-5034587
3103403
4167294
2603958
10573893
-9621962
4085181
1507112
3174087
4889665
4292435
6125064
-8581840
16130501
4206014
4571342
12259656
6812683
-6065690
2881430
3058437
-6264079
925572
2658006
-2621225
7506650
-5521103
3800958
-2921299
1231259
-3762291
-16168796
