33
137
108
172
388
52
-313
-15
217
-21
60
10
218
-117
103
212
123
171
-66
152
-9
481
-66
-23
31
56
-300
253
-47
69
133
36
-1
-88
-9
-882
260
-146
-25
-103
-6
-292
-39
-126
88
102
43
-66
167
59
-281
88
331
90
-45
67
25
-51
-51
1003
-3
-16
6
-13
394
-65
256
-8
92
19
-31
424
-23
65
-88
-400
172
-152
31
26
-1
113
97
-204
-18
120
-111
-211
229
-239
495
-129
-152
-390
-246
147
26
-114
233
-111
-113
-202
146
383
186
118
155
128
-254
-108
-145
-135
185
-515
-116
32
315
-305
871
67
35
-219
-316
-255
-254
12
201
-248
-108
-339
151
194
-409
-490
-20
-467
2
-54
39
179
67
-62
-21
164
143
-433
90
-46
-90
19
-273
-272
-86
-303
-146
-240
-357
-461
-72
234
-901
-216
-232
75
-366
30
-147
345
44
-26
-721
-178
81
-461
-215
-147
192
-71
25
-261
-171
-605
211
298
114
-109
-103
615
892
51
78
156
72
124
-468
110
-114
-215
19
129
-137
1
-85
154
154
-31
-52
-128
-29
135
42
34
-41
-52
102
71
-118
293
-248
54
-93
-295
123
72
-35
51
179
-32
-129
53
27
14
-60
129
-82
91
-70
-333
90
92
64
2
-71
-18
231
-347
-187
91
-70
-236
-125
-50
111
88
75
119
67
141
-78
540
145
88
-506
-314
19
27
-359
39
-121
-194
-758
-15
-214
103
287
53
75
-474
133
-139
81
4
3
17
131
-310
11
96
72
-244
-30
-57
-162
16
-59
274
-466
227
-32
-50
-176
131
-8
-180
-551
-267
-21
-104
-3
-270
-8
-175
198
-267
112
235
-171
208
28
81
-972
94
-154
-122
-282
49
181
-28
78
-39
-133
162
-151
-39
-86
183
146
38
-27
336
104
-94
93
38
85
-41
65
-509
55
110
257
-331
135
51
50
66
-73
-22
-63
25
43
126
18
103
64
55
-209
-326
-7
-199
-116
269
32
202
-59
259
50
17
39
-170
-87
-1
22
20
-729
14
-768
-922
-1147
-1271
-589
1161
296
-690
-568
36
764
-485
-78
-69
-241
928
-856
-577
-422
-750
589
-516
-556
-755
-579
182
239
365
-866
322
-597
-193
24
589
-403
755
-1186
-885
-570
483
-735
-548
632
-142
654
967
-319
778
-262
-679
-1026
-967
-726
959
934
377
957
-438
-734
-376
-285
-408
9
-36
-252
138
-74
-89
-161
-771
40
-213
-27
-10
-113
172
-19
36
-41
237
49
35
-87
29
207
53
-228
92
117
-203
209
-42
32
-182
82
-600
14
-120
77
196
-108
-95
-49
614
164
-100
-154
-4
-10
-69
-18
31
165
-132
66
-118
212
-195
-166
137
228
3
-106
76
-190
-21
-115
242
107
-111
-95
149
-295
-7
140
61
153
-2
335
210
-419
-412
201
-141
234
-115
-443
-132
71
368
-129
-316
20
-7
142
34
527
-93
33
-34
212
-173
319
-3
149
-446
-72
-286
317
446
-83
311
493
-485
129
450
-115
-73
-247
-264
-3
-35
637
-210
120
366
-27
27
-202
118
353
86
99
-464
191
123
85
5
-233
-207
-41
-116
-333
-571
167
-990
57
-166
-223
898
-227
27
51
267
166
167
-63
197
164
-121
-228
-297
-22
56
162
-217
-121
2
-54
31
-93
-13
-7
239
104
-5
804
-557
-50
542
-220
-158
10
-10
-354
-101
-155
134
304
-246
-44
-50
-155
-26
1171
788
1226
-769
-968
-57
-622
-1050
1084
874
-1342
-1122
1032
776
-228
-33
-789
1080
-1322
523
-909
666
238
-894
-941
-871
-998
367
1102
948
175
1183
0
-506
-342
870
-792
-1183
1035
-1155
-707
-437
-894
-1212
-998
-238
361
-1099
-867
-423
607
-999
-1044
1110
-634
-981
-786
1312
-925
-833
-72
-709
-879
446
-34
-46
352
98
212
274
-925
-42
441
463
-267
281
-206
128
156
261
78
303
-111
-360
451
-108
-57
211
-107
-171
-35
154
-105
371
-285
85
-956
18
-191
12
-107
-305
-380
-746
272
-64
-70
-7
119
12
-66
96
-299
209
-287
186
-337
222
-12
151
312
234
61
-30
-58
-16
-55
159
