-69 -47 39 21 43 12 37 -22 -49 -60 -30 13 24 40 9 -27 28 -44 1 0 23 -10 -35 -31 -33 -46 -27 32 -20 31 94 79 26 8 -3 8 -3 43 37 -9 54 70 -10 -14 17 -3 3 36 -11 -105 -8 -99 3 -30 -43 39 21 56 12 -59 43 -1 -10 7 94 19 -1 -11 -47 20 41 -63 -30 -46 36 31 18 -2 -46 -51 69 31 8 4 66 -13 51 59 -19 3 -58 77 -45 4 0 -41 24 4 44 -5 -46 36 45 16 -37 17 -29 -65 40 -15 46 33 -7 41 5 2 -16 -6 1 -40 43 4 45 6 -42 -8 90 -30 106 0 -3 7 -5 49 14 17 -37 1 29 -58 40 -20 35 49 -17 85 -55 22 28 -3 -8 -32 -48 60 -17 11 -13 -24 13 16 75 -22 -20 -26 45 42 -2 2 -28 -7 27 5 -56 -15 15 60 40 41 -19 -91 -8 -71 -10 69 65 -2 7 53 19 1 -10 -3 -53 -32 -58 38 -17 -27 38 -32 -44 -13 41 -49 -6 -51 16 -30 -11 -56 -10 -2 64 -44 -15 -29 -10 -25 36 10 122 -16 -5 70 58 -29 -6 -29 -30 -25 -49 15 -21 64 28 -26 48 22 -42 30 -24 101 66 -5 42 5 -31 -50 -16 29 12 41 -34 85 -17 -59 103 -24 21 -25 -11 -50 15 15 -93 9 13 29 -21 52 -22 26 50 2 52 44 -47 6 -7 19 34 -21 38 -21 -63 3 85 13 -52 87 16 -61 -4 3 5 -86 17 -32 16 -3 23 57 20 43 -14 49 41 -45 -78 -71 32 31 6 -24 37 46 -50 -26 -23 -42 53 -18 8 20 33 94 22 18 36 -59 -24 -15 -44 50 0 -31 -6 -7 -46 5 9 -64 19 -77 61 62 5 27 30 -71 2 -3 32 -4 -35 -27 -67 -31 64 -6 -62 -8 15 -40 -30 4 28 -18 -64 25 2 -21 -9 -28 7 -34 -26 78 -32 4 27 0 6 -57 -10 -14 -23 -27 -22 -1 27 -19 -13 -2 39 35 -15 -17 -19 -39 -33 -70 -17 -2 48 -13 89 39 -24 -17 0 -15 -36 -56 -29 -4 -25 -6 0 -5 -15 -10 -87 12 -4 -21 27 -56 1 9 5 82 23 84 -17 12 -10 0 -11 -10 44 1 -42 21 -23 2 21 25 -11 -61 20 -8 -38 20 17 -38 -17 6 -57 38 53 34 5 33 13 -22 -66 23 28 1 12 43 -42 23 26 -62 -6 -29 -114 22 71 64 -84 -53 -50 -27 35 17 20 56 -5 -15 47 106 -13 -33 -89 -33 1 -19 30 -17 39 16 15 22 -30 94 35 0 8 4 17 49 -35 68 2 69 -15 2 34 63 -13 20 9 45 33 39 32 -5 -39 15 -60 36 23 43 -35 3 -28 -84 -12 41 -86 -2 -35 -8 -47 94 28 -10 -21 -84 66 -70 42 -6 17 -9 -43 -35 23 41 -11 -44 22 -69 2 16 26 17 -40 -28 44 -20 42 -7 -127 27 -34 -13 17 -68 -5 -47 -20 66 -18 7 5 52 94 -4 -65 -38 65 -41 12 41 -81 -6 -24 -18 -10 42 29 -16 -28 14 45 -29 -33 -16 -46 -40 -15 -50 65 29 40 -22 14 -11 112 32 -25 20 2 51 -22 -50 36 -90 65 -32 -29 0 33 81 -17 -4 13 -7 19 -19 -24 -33 -9 -17 43 29 6 4 -3 23 25 26 40 99 -94 16 13 -10 -24 8 -57 -11 80 -6 60 57 -40 57 -2 54 -27 7 -8 5 -54 -46 27 -41 3 -12 -16 -35 -30 87 -46 26 -36 1 34 1 -5 -6 36 -34 -36 18 -76 22 34 17 14 95 7 52 -50 32 -27 63 -83 -1 -51 2 -12 36 -8 5 0 23 27 -37 37 -5 34 -5 51 -24 -50 -31 46 36 -9 10 -25 -105 -11 4 -63 38 -20 26 46 -6 -30 -28 -8 6 6 16 21 -72 -31 -74 -8 45 -81 10 -25 -40 25 3 42 59 20 -40
19 29 44 19 6 -6 -11 32 -10 -61 -1 -42 -10 -4 5 6 -7 -10 53 -14 2 2 -10 6 17 1 3 21 -34 39 14 1 45 -12 7 33 -27 10 -4 4 -39 -2 19 66 52 11 -14 40 -22 -21 24 99 19 5 -61 -18 58 -4 -51 15 -31 29 33 -31 -6 -39 -59 -41 -44 -4 -27 98 -22 -28 -28 41 3 -1 57 44 56 31 -6 21 17 -15 -25 -9 60 2 -36 39 -24 10 -64 17 -18 -19 -19 16 7 -16 -13 -18 -34 -41 3 20 -14 32 16 -48 16 42 42 -30 -63 -5 -46 1 21 39 23 -27 -23 -18 8 -43 -41 -80 0 -11 54 7 -40 15 -34 17 33 83 -17 -10 32 47 15 -56 5 -2 22 18 11 47 -51 -24 2 33 24 -5 11 3 -30 -37 8 -17 0 -6 -10 -53 -45 34 10 21 29 -45 18 8 -25 20 -17 -9 -2 24 -34 20 -8 13 -24 39 -45 2 11 -5 25 -11 65 6 -6 -10 -37 -42 -18 -40 -19 -35 -32 5 21 -8 33 31 47 -18 -12 -32 -4 -50 13 -2 34 -11 21 -46 28 -41 -3 11 4 -17 -8 46 -25 54 -2 22 17 -36 20 72 -45 15 -23 -34 0 -38 10 17 9 -4 90 10 -34 -26 13 -5 -1 27 -38 23 -21 -12 -39 -15 8 48 -26 -38 0 -8 45 3 -62 6 -12 3 8 21 -15 53 -9 -61 40 -76 -16 -19 -7 12 35 2 -35 42 22 24 -30 11 -57 -17 24 18 -7 23 13 -31 15 -37 19 16 13 25 33 -19 56 33 -1 -47 -7 25 -34 22 11 1 12 19 13 -43 4 -4 2 -13 -46 37 -41 38 62 31 65 -27 -8 -26 5 19 18 -7 -7 67 23 7 0 32 -34 18 -17 34 30 -7 42 -2 34 -45 -48 -28 70 26 -17 -8 -21 -14 6 3 -41 49 -39 -7 -40 27 -17 23 2 22 -1 36 36 41 17 -25 62 -18 21 -20 8 46 -35 18 -16 42 41 -6 43 -22 19 28 7 59 45 20 83 38 26 -30 -12 -8 13 1 -56 9 20 -8 -21 -20 34 36 41 41 4 42 -3 14 -34 7 16 -40 -47 -43 -7 34 18 8 -14 26 19 -6 27 -127 8 14 3 20 -17 17 10 8 14 -11 -43 -30 -39 -20 -5 50 31 -28 1 42 25 19 -32 24 -13 25 -15 24 58 28 38 -44 -19 -10 -65 42 -69 1 -7 28 23 -16 -24 -36 8 10 -20 50 39 -26 -17 94 9 50 -3 28 26 -48 53 -25 -44 6 -22 19 33 -49 53 -7 5 9 37 15 -51 -13 -24 -59 -29 -3 41 -31 -15 18 47 -62 -7 -36 -32 7 -3 12 -20 20 -28 -51 50 -9 0 4 17 5 33 -89 25 -56 24 -11 -19 -17 -1 3 -20 -1 -5 8 -45 -29 18 6 52 -27 -25 45 -12 -14 -18 16 -29 31 20 36 -66 -17 -25 -5 10 -10 -12 41 28 5 43 -27 30 -64 -9 20 -1 -68 -43 24 16 30 11 -15 -25 10 -7 31 20 -80 -1 85 -21 25 27 -10 -20 -14 14 -41 69 -36 52 38 30 -62 3 -10 34 3 -7 18 -6 -54 6 -28 11 6 61 12 -18 0 -14 -25 61 -22 20 9 10 -58 -32 1 53 12 19 1 45 -13 26 45 20 42 -4 -19 -32 33 -5 9 -6 -7 5 -50 -22 -10 -16 -12 35 15 -6 44 -16 -14 -30 -5 0 14 37 -5 8 -6 22 -18 20 11 -77 31 -5 10 -12 -29 -1 -19 18 -1 15 2 -39 -7 12 -9 36 -15 38 47 32 13 9 -19 32 -66 -5 1 -16 6 13 8 -6 -24 28 -47 -20 -5 10 -92 -12 15 44 47 22 7 47 24 22 2 11 -6 23 64 1 -57 -4 74 -46 41 -5 13 22 21 29 4 -19 14 -40 16 -32 -30 13 -18 34 66 -21 6 2 12 -1 -29
-9 -3 0 -9 20 -18 9 9 -2 17 0 9 -4 -6 -8 -7 16 0 -4 21 -16 3 -13 11 15 14 15 -21 1 3 10 -4 27 13 4 -24 -9 0 -3 29 0 20 -11 -16 13 -12 -2 13 26 9 2 26 3 8 12 12 -2 17 9 -27 -2 -4 28 12 38 -3 -25 4 5 3 -17 -9 -5 -11 -2 11 9 -48 -9 -11 -12 22 -8 12 -13 11 16 15 -6 -8 4 -8 12 -16 -4 17 -7 61 70 -8 -3 -2 -6 -24 2 16 -16 11 18 21 -127 5 -5 13 23 -18 -3 12 -4 16 27 -8 -15 -21 -4 -3 25 15 4 -35 0 -3 27 7 16 1 18 6 -9 -6 3 -11 -8 19 3 6 15 23 11 -7 12 19 17 8 7 10 9 -7 13 6 9 3 -20 21 18 8 30 11 25 10 -3 -4 3 -5 37 -21 -13 -14 -30 1 -4 18 0 3 9 -6 4 0 14 -31 10 11 27 17 2 -4 10 -18 6 21 -11 -18 0 9 8 -14 5 15 35 5 4 10 -8 12 11 9 6 -3 -6 23 -8 -17 25 -16 13 -12 -13 12 17 10 -15 -6 -17 -5 -8 16 -27 -21 -5 8 -8 30 -7 7 -12 -15 -15 20 -17 3 -7 7 -13 19 -4 -10 25 32 2 5 6 -10 -4 -10 2 16 5 15 28 1 -10 33 -6 1 -1 8 -8 12 4 -15 -1 -2 1 -2 -12 1 -15 23 21 2 -13 15 -1 35 8 8 -1 6 30 7 -7 13 -8 7 -37 -14 14 -1 20 5 5 6 15 -20 9 2 -2 3 -4 30 -17 -27 5 44 9 15 13 -7 -4 33 16 0 24 -11 -1 7 48 14 4 18 7 1 -7 12 6 4 3 4 23 25 13 9 -25 10 -2 -7 7 -4 16 -2 1 43 -21 16 -3 20 -13 23 7 7 5 4 -13 -11 -31 8 9 9 -5 3 15 -1 18 -2 -7 -4 3 13 -24 15 -13 6 -11 -10 -6 -13 -19 2 35 16 4 -14 16 -18 -13 -7 10 0 -8 2 -3 2 -24 -21 3 11 0 9 12 4 1 -6 29 -2 -10 5 15 7 -2 26 9 24 -1 -11 4 5 11 -11 2 -4 11 19 -1 1 -6 15 7 -9 1 8 -21 -4 -20 -8 -12 48 -24 -19 -12 -6 10 -6 12 4 -11 19 9 12 11 -11 19 3 -36 8 -9 11 32 4 -34 -4 -6 9 2 9 17 7 2 11 5 26 24 -19 -4 2 31 40 20 0 -11 -14 98 44 -31 -11 7 -1 28 7 27 -23 -21 16 -14 -4 1 7 1 -13 -8 -9 12 3 0 6 2 5 2 -5 -1 8 10 9 4 3 6 19 -14 16 -14 3 -4 -2 11 2 -35 -9 -1 9 18 -23 -14 -35 10 -2 -4 6 4 5 5 20 28 15 -23 -17 13 7 8 11 12 3 -12 -14 19 -5 -16 -7 1 7 10 -4 26 -4 3 10 -9 -1 25 -1 0 13 -13 5 8 -10 -6 16 -10 -8 20 24 24 14 4 -4 7 7 -37 1 10 11 4 4 -2 5 -4 -4 -24 -1 3 -4 11 -34 -13 30 -2 17 -22 19 8 16 -18 -15 -16 -11 -1 -11 -1 -2 1 39 3 4 20 1 -10 -10 14 -14 2 1 20 -18 7 -4 1 -18 -21 25 3 -37 14 6 6 11 -29 -20 5 4 0 -6 9 -13 2 7 -13 8 -5 -9 3 9 5 7 9 18 -13 -8 46 -16 18 9 -2 -6 -19 -8 3 -7 -9 -5 24 4 23 26 -6 28 -17 -19 23 1 4 6 14 -20 12 0 0 16 21 9 -11 -4 -10 7 1 0 18 -17 14 -16 9 14 -1 21 -15 4 -4 8 -6 12 2 -5 11 -1 -3 12 9 7 18 -6 2 -67 -9 9 -4 2 9 -12 19 10 2 10 1 3 8 -4 6 7 0 -12
-30 -15 27 -15 -5 -39 -47 -9 1 -100 8 -20 -18 13 5 -17 -29 26 34 12 -3 28 18 21 -5 -17 2 2 -3 11 -35 44 4 8 -2 -20 15 33 -8 46 -12 -7 31 -12 -33 -32 12 -10 -25 -7 -11 -46 36 0 -9 8 38 21 -12 23 -1 -11 -42 23 0 27 -19 -5 31 12 -55 -15 -20 -14 68 -16 2 46 42 -9 -18 3 -41 26 -20 -42 -12 -9 -13 5 28 -6 -22 8 6 6 7 87 39 35 22 66 -9 41 -16 -47 19 -35 -10 -28 -77 17 -6 -47 -51 8 -43 -25 3 -20 41 15 -13 24 -3 -3 16 -20 33 -23 2 16 4 22 -26 -6 -22 -19 -47 -6 23 -12 -21 15 5 44 -28 -21 -8 40 9 -12 3 -4 25 -16 15 5 -31 20 10 7 33 -28 13 -12 -2 -24 3 20 20 73 -21 -35 -49 -4 -16 2 47 -4 20 -84 -35 25 26 3 -13 -12 -1 -9 -5 -2 -66 -18 11 17 8 -23 -10 37 11 -11 16 -16 -7 0 -20 19 18 -7 -11 9 -14 2 -44 -16 -2 64 42 42 51 29 0 22 -1 24 -19 9 14 -7 -8 -15 -3 -16 21 -12 -12 -3 11 -78 -10 -52 -11 -37 27 -4 -6 9 -4 40 -40 25 30 32 -31 -14 20 -21 -7 -3 -9 25 29 3 -3 -10 -23 9 9 30 -13 -6 -38 32 33 40 -31 -8 23 32 -10 8 -31 -52 -20 24 15 -29 -42 21 -30 14 39 -97 -6 -11 -54 -9 -33 44 -3 -7 37 -33 25 -7 -5 9 -7 -23 -11 39 -30 48 -6 1 4 -23 -23 13 -30 -18 -35 57 17 41 -5 -8 17 -24 -1 29 -1 -12 -22 -30 -14 23 -15 -26 -40 -43 -13 -2 7 -9 -43 14 -27 -9 -12 7 -19 -2 23 4 15 37 63 3 22 90 18 -8 -21 -3 2 18 -30 12 19 -1 14 16 27 -27 -16 21 35 -23 -2 65 -1 33 2 36 32 -30 42 -41 18 22 -13 0 41 6 18 12 -55 36 -20 9 31 3 -48 -10 18 34 20 12 31 13 49 60 -27 26 -20 -12 15 4 -22 10 -7 23 -32 16 9 -8 5 -10 -32 36 35 -32 -10 -14 -17 -35 11 22 -8 80 -14 -12 -8 1 8 3 29 7 0 35 -13 29 -1 -4 17 -52 74 50 -19 -4 -15 38 30 -31 4 -13 -2 26 0 -16 -16 -5 37 31 -45 -5 -33 -27 3 40 -65 0 17 -2 20 -29 29 -3 7 20 4 35 -51 15 47 -18 -17 -13 -27 -33 93 32 15 19 -4 27 -41 39 -13 -13 42 -12 -21 -4 0 -8 0 -23 -2 19 -32 -12 -18 21 6 -4 -11 -31 4 3 -55 47 47 24 19 3 7 8 -8 -5 -3 -54 -15 -16 -13 33 50 33 30 126 46 -44 5 -3 -32 5 -1 -50 9 6 33 2 -13 17 41 -13 -22 50 -37 -5 38 -8 5 15 -15 -16 -31 6 -11 -12 7 -21 2 2 -18 3 3 -49 46 -40 29 2 41 -50 3 -19 20 -1 17 -3 -54 17 3 -4 18 -1 -20 -12 5 -12 -19 -17 8 -36 7 13 41 10 26 -40 22 -12 -26 -34 6 -7 -41 -21 18 16 23 -22 -17 26 -18 35 -24 27 -14 16 19 -14 22 11 28 -5 9 -15 -22 17 40 28 -20 -12 -30 4 -5 18 -21 1 -23 -1 16 21 43 3 79 -20 0 22 -4 33 -34 0 28 -35 -19 -29 -4 8 20 4 -8 -6 -5 46 -20 15 -18 11 23 -65 28 -25 -7 -39 4 -18 -35 -2 16 -19 7 -7 -37 31 -9 7 36 -28 -18 -11 20 3 21 -49 34 16 22 11 53 28 -10 -17 -13 -19 25 -8 20 -59 31 30 -39 0 -20 -24 -13 32 -45 1 -27 15 3 -20 -8 -8 -10 -87 6 9 -6 0 -8 -35 1 35 45 -17 8 30 22 9 3 18 -28 -41
19 -31 12 17 23 31 -10 20 -3 26 38 9 -35 15 38 -45 0 -127 -49 9 15 -64 4 2 44 67 -9 61 51 43 80 18 10 -8 29 -8 -21 16 -26 -14 18 18 7 86 -39 -9 13 -34 -47 25 18 59 -43 57 25 65 -92 3 50 -12 45 96 33 40 66 48 -16 -27 9 -23 -71 -13 78 -13 31 -52 21 -68 -3 -5 -93 26 -17 29 -48 36 -12 -12 13 -3 21 15 31 -11 62 -9 3 7 57 45 -2 -21 -77 59 28 -58 5 0 -18 35 94 30 22 -11 -31 -22 45 -19 23 -15 -70 16 42 -44 -8 -30 -74 -80 -22 112 46 -1 28 40 43 -7 -12 -37 18 -18 32 64 12 -8 24 16 30 -32 -20 60 28 -23 35 -28 35 20 39 19 -9 22 -14 35 -17 -72 -30 14 7 -57 -8 -44 51 16 32 -55 -5 47 50 44 101 38 -9 42 7 -38 -30 -36 -49 16 -21 -3 -28 -45 -2 1 29 24 40 59 17 16 -52 -27 11 6 11 41 10 -26 -31 54 -5 -5 -18 -5 0 -97 -17 -84 -15 81 41 16 -33 -46 48 -16 43 8 -24 19 30 17 -6 63 50 90 121 43 12 -17 -42 -25 -31 -17 81 50 41 -33 55 28 -13 23 -53 39 -35 -83 42 52 58 -1 61 -10 -2 38 -24 16 50 38 12 37 24 14 -2 59 -94 -23 -7 46 49 -3 75 22 15 -69 78 15 31 -12 46 0 -22 -58 -4 11 0 6 4 15 9 -2 -25 0 33 -18 32 66 6 -15 16 -29 15 42 -15 78 62 12 87 33 -13 25 33 52 25 92 -13 69 54 14 32 -68 -9 38 54 16 70 -76 -108 5 22 7 -58 -33 -43 37 2 36 1 5 8 -9 -8 -11 29 10 8 17 -38 9 51 12 73 53 -30 64 32 -22 -3 -16 -11 92 2 35 43 -1 12 -30 -13 -22 -6 31 -53 -51 12 -1 50 -6 -24 -21 19 -19 22 3 31 18 -79 23 -41 26 -4 -47 81 9 41 0 37 -3 78 6 -7 36 -15 7 -33 8 -17 -49 17 13 -11 -18 -91 -45 32 -12 -23 -45 -8 54 -4 -66 14 80 39 -10 49 -2 7 -27 -69 -15 -26 -31 -29 -20 14 -46 12 -26 -12 77 68 11 -7 -14 30 1 -17 -21 -14 -13 -4 22 66 -13 -57 10 -11 27 4 51 -25 60 17 51 23 0 82 0 42 -10 -40 27 47 36 -4 51 53 14 22 -30 -16 7 -54 -5 26 -7 -110 -20 -55 -23 15 83 -26 -16 92 35 52 24 19 49 35 39 -12 15 -1 4 29 -3 16 22 -5 35 18 -25 -20 -3 47 -64 -61 -5 -11 40 18 2 -22 -13 -21 62 24 -10 21 6 58 -13 61 59 -59 38 -29 2 -20 -68 -20 -9 16 -14 29 -25 59 -4 45 -35 -32 11 30 53 7 10 -6 5 -49 -5 29 21 3 60 -7 31 -28 -20 -2 -19 19 34 -16 42 72 -69 6 -79 25 -48 -20 -57 -48 -72 43 22 40 69 -50 29 65 -20 -33 -20 -28 59 1 -16 -75 -2 47 -21 0 -12 22 22 30 19 59 -86 -18 48 28 -36 58 -8 39 58 -12 90 -13 -2 -9 6 10 9 76 -66 -39 -4 30 -32 -62 -6 -28 -20 48 -11 -6 34 19 4 40 -34 2 63 18 83 5 -12 14 2 -16 57 22 -2 37 -33 -10 30 -5 -7 -29 -4 -27 -57 56 -12 45 -41 -20 29 59 -67 38 2 22 -18 35 22 -12 29 47 32 -9 -7 80 6 91 14 29 9 39 88 29 10 30 34 14 74 23 -8 5 35 39 -114 7 55 -50 12 79 -46 -15 84 -9 8 -5 50 10 102 53 56 -64 9 42 13 -6 -36 -20 35 16 11 -19 77 40 -27 10 -22 52 -30 47 -30 5 -12 -22 -6 39 -16 7 72 -53 42 -20 1 31 83
-21 39 -11 27 -64 -23 -58 9 13 39 -28 -25 -33 -74 15 -25 10 -2 86 35 -79 75 -15 -68 6 -16 -65 -27 19 22 23 56 -30 67 -23 -104 -34 -49 53 53 -2 13 -88 37 34 15 3 16 46 51 21 38 -44 -33 -58 -33 34 -28 -7 -32 5 22 -23 -26 -52 -12 0 37 47 -35 -68 -49 -19 75 -6 -1 -34 -36 10 28 7 6 -15 11 32 1 -43 -40 -37 31 -3 17 -36 46 -17 -12 -13 23 -52 -7 -11 60 -14 -1 47 18 90 1 -44 -28 39 -29 37 19 29 12 -48 -54 10 -9 27 -65 50 -4 -40 -2 48 -15 -38 80 -62 -11 34 17 -4 -51 46 -14 -13 64 34 4 -26 -34 -9 -12 -31 36 37 25 -57 97 -55 -9 11 37 25 44 16 6 -28 -27 66 -24 81 47 88 27 15 57 75 13 -4 19 46 -35 -6 35 60 7 -7 11 -35 -46 51 20 27 4 16 -78 9 -33 -20 5 -37 -9 20 37 -42 68 -19 -25 -44 -37 -27 22 -14 -73 -55 14 -82 -19 24 -90 6 -11 72 60 29 35 -40 -23 -21 43 41 -17 -17 -41 -21 18 80 -47 14 -35 -16 47 -50 -19 -56 -20 63 -61 5 -8 32 23 -10 68 -38 18 -44 -2 -13 7 39 14 33 -27 -18 -6 -22 -23 15 -62 3 -4 59 23 32 36 18 -66 -46 2 -2 84 -61 6 -16 66 9 22 -2 44 47 68 -27 11 -45 -20 63 -5 -34 -1 1 7 -33 -23 -52 20 14 -40 -29 -30 -77 -2 5 -21 13 -21 32 9 54 53 -48 -18 6 19 -8 -25 -53 -43 -90 -16 24 -11 -26 16 -86 -8 -29 30 52 -56 -98 77 -10 104 -11 -31 22 -17 -37 -58 25 -115 11 -67 23 -15 49 4 -39 41 45 15 -19 52 -24 -5 1 -16 71 47 -41 -2 -2 26 -33 56 -31 25 23 -15 -54 37 1 -32 -2 -6 -69 -40 0 6 -16 -15 -35 -32 -13 -42 20 -42 -11 -46 28 -51 72 -26 44 -71 109 13 39 -53 -26 23 48 -74 3 -8 40 25 62 21 72 91 -3 24 -16 40 45 -48 -8 20 -57 32 -33 32 75 4 44 -28 -40 52 5 30 -20 15 79 48 -6 -7 93 -65 -34 113 -25 -71 41 8 85 -11 -12 -36 -22 -3 -13 24 -15 39 5 -46 25 -19 -22 -17 5 46 50 -3 34 39 28 -51 39 1 45 47 20 -31 -60 -75 -37 8 89 -71 -3 -25 8 1 -4 -18 -13 -54 38 52 -57 -29 -22 62 -41 -1 -37 12 -11 20 -48 68 -43 56 22 21 13 -25 -26 -9 -5 16 67 49 -6 12 45 86 -5 71 -21 42 15 -32 40 4 -94 -103 56 126 7 42 -2 52 -51 -29 30 45 -55 -1 80 -6 11 -4 47 -48 74 66 76 31 23 5 61 -23 32 40 51 -47 -7 15 -27 -10 -14 -32 -68 91 0 -27 13 30 0 -14 -7 30 -42 34 -68 6 35 -58 47 -19 4 24 -50 -44 48 10 -3 -43 27 -12 -18 -32 -5 -45 -46 -21 15 21 -42 -26 -34 -33 -38 -17 -5 17 -13 -26 3 9 -70 22 13 -14 76 28 7 -8 -44 -12 -28 -8 -2 112 42 3 -1 -24 -4 31 46 70 98 -50 19 1 36 80 13 37 -30 -43 33 -13 4 -63 65 10 0 15 -40 2 -1 -31 104 -15 -54 29 52 0 -7 -3 25 6 9 -79 30 1 -50 -51 -32 93 29 -45 -8 2 26 67 13 -20 3 -34 52 82 9 0 3 29 28 41 -78 -6 -15 -64 -24 83 -52 -6 33 10 77 6 21 -69 35 -47 6 -11 16 -33 -12 -10 -12 -48 31 62 14 38 37 58 20 3 43 68 -34 18 -37 12 -12 12 32 62 -45 10 -27 22 -23 -68 -26 22 -23 10 -39 82 36 -26 -10 -12 -81 63 -12 -19 -39 6 -3 -95 -16 43 -61 -22
57 -24 -31 32 5 22 -47 -22 -11 -31 36 -19 20 -1 -30 -58 -8 -3 12 2 7 -70 39 63 6 34 6 -25 6 46 2 -23 -50 -22 15 -67 36 53 -9 58 18 11 12 23 22 -11 -13 -6 10 -7 -1 18 14 37 9 5 -124 -24 45 9 -32 27 -58 -16 -62 -17 10 -4 36 -42 1 8 61 -33 -29 -92 -35 -29 52 49 17 -39 -26 -28 -20 52 -20 12 -12 -43 34 -15 -14 19 20 20 -32 11 -32 22 15 18 -59 24 -7 -56 -2 44 -20 -32 111 -15 0 26 -46 39 1 20 -21 -9 -2 52 18 -11 47 -19 -6 30 -56 -40 60 36 3 40 16 -29 -33 -29 -6 18 -18 0 -61 63 73 3 7 -35 9 -70 -3 25 -125 5 -65 -13 -9 45 -30 21 -6 -3 59 -23 -37 -44 -25 91 -14 28 31 -36 42 28 8 -49 -37 -15 19 7 57 -76 1 -21 12 -41 -22 -11 34 100 24 -23 -15 4 1 -23 -11 -22 -12 12 -6 18 -37 83 8 -10 -9 -65 -45 21 -14 3 12 2 13 -10 0 -68 27 74 6 -10 29 -38 10 -51 28 13 -20 -16 -28 29 -5 -3 4 -19 32 -19 41 -8 -55 21 -34 -36 -99 -43 8 50 -24 57 -16 -14 8 2 -28 35 -29 37 -32 -3 24 -4 31 -46 14 19 -8 28 3 -37 -27 -2 -77 -17 115 9 -35 19 71 -3 12 4 -47 -47 46 48 -19 -19 52 15 -8 21 -39 -26 38 54 -4 3 -52 -5 -21 9 3 42 -14 40 13 0 13 9 -18 -53 -60 38 24 -11 -127 -20 6 9 -22 63 2 -8 0 -35 26 42 50 -50 34 28 48 -13 8 1 -70 -38 13 -21 -15 1 -26 37 -8 -16 -18 -21 -28 -20 15 5 38 20 -19 1 56 42 36 30 29 38 75 -59 -42 23 -22 1 79 73 2 -18 37 -15 -77 15 15 41 14 58 -70 30 -10 2 -8 -40 -19 -1 -46 -7 30 -35 -19 24 -12 -39 -19 0 -5 17 -64 -28 34 12 -36 8 8 -23 -4 44 -6 18 23 -11 0 -10 -31 36 75 -11 72 6 30 61 22 -10 -25 23 -6 -58 34 -42 -20 -26 -5 -15 27 -23 1 4 -22 -4 -40 -11 -26 -53 -1 -23 28 -63 18 20 11 14 -42 -87 8 -26 -53 18 -7 -1 15 11 123 -10 8 9 -13 68 18 22 19 -33 -24 -78 86 -14 72 -39 14 7 13 -20 -34 -15 -18 -17 -38 -58 6 -5 -17 26 -14 17 12 -62 -7 -19 19 -36 60 -24 40 25 4 -7 -18 -3 -39 -35 0 -56 -37 -16 -18 -52 27 41 -15 -62 46 11 -47 -9 -65 7 17 -30 -3 20 7 -13 18 16 -1 -20 -15 25 -14 -12 2 -37 55 19 33 4 7 -48 31 -16 7 -9 18 -14 -12 28 11 9 -5 -35 15 -13 -1 2 27 -30 56 -21 36 -36 5 12 -9 40 90 -42 -28 -50 2 31 -14 26 -7 23 -11 64 -2 -56 6 3 -20 12 40 -4 -43 11 35 -52 9 -22 -11 5 -28 -47 -6 -36 48 14 -18 -11 65 -14 8 27 7 42 14 5 -15 21 26 -1 12 20 -57 -9 -46 -53 -19 1 2 -2 4 28 -25 -21 -39 17 67 19 29 -29 -15 -27 -35 -38 18 -18 -25 -24 -2 12 -5 -70 -5 7 -30 38 -8 -5 -2 -31 -13 -23 10 -10 -41 -8 17 4 -17 46 -2 -26 -2 30 -5 -43 29 -29 -26 13 7 35 -15 38 -32 -7 41 -9 29 -15 29 -9 7 -32 29 -39 14 1 -25 -33 51 14 -10 -9 -25 -21 11 -34 32 1 -24 -27 27 -7 -5 20 -29 35 -66 -38 -11 -8 24 24 16 -8 24 -23 -36 33 -8 -41 -10 -20 -12 -14 -40 -17 -2 -25 33 43 26 -7 51 -23 -3 -31 3 -44 -12 25 13 -31 -7 41 52 -72 -49 -3 -63 14 -20 -80
16 10 72 -25 -71 1 -67 48 -63 14 -28 40 7 -36 -18 -14 10 -15 21 -35 77 -9 -35 -17 -27 -1 -13 59 -11 -25 -48 36 -79 -43 9 -65 -48 29 12 -16 14 44 -44 -64 56 30 6 -24 -65 43 -42 -117 -15 22 -84 -10 40 -10 5 -41 -3 30 25 -87 -31 24 -35 -10 -44 -11 -54 68 33 27 0 49 -46 19 49 7 -3 -5 -24 58 -56 13 -56 27 27 -23 -46 22 41 5 -20 -24 -25 15 88 36 73 28 10 -11 69 20 -8 21 48 -96 15 46 54 -29 3 -60 -27 -32 -58 -6 34 -12 4 19 8 -48 51 -55 -45 -40 -20 21 -3 5 3 -6 -56 -14 66 46 -32 28 -9 -15 -25 -44 -44 -7 36 -46 45 36 -14 18 -40 -45 -5 -59 -1 -52 45 24 12 -21 -41 66 -5 -61 51 -17 -6 31 -47 -64 11 31 51 -26 -14 -27 -56 13 53 33 19 -3 -64 -22 9 15 65 9 -1 -59 27 47 -34 11 -33 114 -69 -80 16 26 16 32 7 -17 45 -61 80 1 -23 -19 32 13 -8 84 10 -46 46 -71 15 -41 7 9 -11 33 -33 -24 8 -31 1 -23 22 -13 0 59 116 -29 -23 96 -5 -17 -18 14 -70 32 41 -18 -9 25 -40 -54 34 1 -10 -47 -18 -28 -13 45 36 -71 9 13 55 35 2 -81 -28 -40 38 106 -2 1 -31 -27 -17 43 30 15 -14 -40 56 44 -20 -43 43 95 -62 34 12 49 23 -55 -82 50 53 63 -61 -11 0 51 -75 56 14 -35 16 -71 -33 35 40 50 -49 91 -14 5 22 -3 10 38 -61 27 -27 -29 20 16 -10 -116 81 11 79 49 24 -3 -13 1 20 58 60 -18 -43 33 12 -52 37 -25 4 5 -63 -31 2 -32 -41 10 0 -21 21 -50 38 -19 44 31 -18 15 54 -20 6 33 46 -41 -13 -79 5 -11 14 7 -25 -31 -20 50 -30 -86 20 12 -11 -47 2 41 -30 11 54 -69 -50 -24 -5 -42 -14 89 -10 44 -11 20 -26 27 -22 -4 -21 -68 4 23 -2 -71 10 38 -16 30 -9 29 71 -39 18 64 -32 56 -17 -20 22 -23 -37 34 -1 -24 12 62 33 -55 7 2 -12 -11 5 92 65 -34 27 -6 -32 -5 43 0 -12 -22 -14 44 12 58 13 6 68 -44 -9 -24 44 4 96 -4 -21 25 -19 51 -70 15 -7 -29 -113 -20 60 14 19 -31 -66 59 37 -82 79 30 13 -66 38 8 -22 65 70 -35 -24 -3 -50 26 15 -7 -47 -51 -69 -43 -45 -6 -58 -3 -56 -22 -32 -32 -4 22 -70 -55 25 -2 -1 16 0 -30 -51 126 39 56 61 -61 -32 22 -112 -31 -67 -16 25 -88 4 -77 -25 -38 4 57 44 14 -29 -14 -29 -10 48 27 -50 11 14 18 -49 39 -41 32 -13 3 12 40 21 13 -88 -55 13 -12 3 37 29 -21 16 -8 -11 3 -46 10 -34 42 -1 -3 66 -76 45 43 5 -58 44 34 -46 116 -23 -41 44 -5 -24 12 16 -51 -20 1 16 13 -39 68 62 -79 -65 -45 9 -38 -32 -16 85 -2 16 -22 49 12 9 -58 -44 50 46 30 27 4 14 -6 27 -20 -5 19 4 26 48 -99 28 11 -8 -30 36 20 -22 51 -9 -13 46 -20 47 32 -64 -3 97 -26 -4 7 11 2 -1 -46 -43 7 48 -17 0 -4 45 -42 -9 -58 -7 -13 3 25 -30 72 -17 -30 -71 39 -6 -20 76 22 5 11 -50 17 -1 -20 17 -29 -20 22 35 16 26 -80 17 -93 -47 -20 25 4 -5 -52 15 -6 87 -8 17 -93 -16 122 -68 44 -59 42 16 -16 -1 -9 13 75 -32 4 -68 15 46 -3 -22 -45 53 33 -57 -37 17 -20 29 13 -54 -37 50 49 5 11 -21 90 -28 25 15 14 18 17 -33 25 -27 -72 10 33 -43 26 -4 9
25 29 -34 -17 -55 6 -37 -35 16 38 -16 75 15 -15 28 67 -28 -8 50 46 -5 45 -18 -6 -11 4 78 38 8 -57 18 -4 -65 53 -9 -87 18 62 -34 8 24 10 64 -26 71 19 45 -6 24 14 8 -5 42 24 9 -16 69 -12 -56 29 -50 63 27 26 1 15 111 -32 89 12 27 -45 126 -31 10 -19 26 -71 1 24 16 2 -9 15 -29 -45 9 -15 18 -90 59 79 -43 -46 -4 33 -57 -48 40 -17 -19 54 -19 53 53 -23 9 24 46 -46 -42 56 40 -37 31 -7 15 12 38 19 -18 15 -17 -39 -51 37 9 -3 54 47 41 -13 27 -25 -12 26 -33 -2 9 28 65 -30 -24 14 -40 -19 31 -15 8 -9 27 24 -21 35 -18 -46 0 -28 12 7 -46 -26 48 -28 33 -38 -11 -29 20 -8 13 20 -97 -29 72 29 -23 47 90 -10 -18 -22 59 19 17 -20 58 29 -72 68 -11 6 -36 -17 -7 77 -51 -30 -2 -50 121 7 41 -29 -8 -55 -10 -79 -5 4 -16 34 21 20 -52 -17 23 -40 -5 -7 -44 54 -3 52 -32 34 18 -20 -22 0 105 33 -35 -12 10 -4 -71 26 -32 5 -21 3 79 20 38 -39 41 -42 39 51 -34 -51 -9 -44 56 -33 -62 33 -42 7 -30 -27 1 -25 -47 24 5 30 -94 14 33 123 5 -40 38 18 32 11 31 73 36 44 44 40 -62 -59 57 -26 -16 -19 10 -5 25 30 47 -46 34 -8 -12 68 -33 34 27 56 38 14 26 60 -29 -32 2 13 25 49 -25 -20 4 21 39 13 5 13 -23 35 -44 -10 51 22 -55 -16 9 110 8 16 -65 12 -67 13 -6 74 -10 60 26 -5 84 57 -12 -72 16 -9 -82 10 75 78 29 -29 68 75 -50 15 75 -40 75 -5 -45 -13 49 -26 -17 53 80 -13 4 -18 -18 -47 -21 -49 3 2 36 54 9 23 81 31 25 -37 -16 -31 8 44 -51 -57 -7 -11 8 3 23 15 36 37 16 -17 -70 21 12 44 1 -7 31 13 19 56 -7 27 -19 -3 29 36 -63 -75 -15 -14 -8 -10 64 68 -1 13 -15 11 27 50 19 -50 12 -84 24 30 -13 25 5 22 0 -6 25 -33 -1 18 -53 58 -24 54 5 11 -40 27 -31 16 -13 -34 68 13 14 3 54 -31 23 -25 -24 24 -8 11 57 -17 82 49 -17 -23 -41 64 9 34 -81 -27 48 59 22 19 55 -34 9 -18 15 50 49 -31 -6 7 -39 -25 16 -14 18 -1 0 1 -52 -77 -19 25 -2 9 -8 15 1 6 20 3 -27 51 -20 28 49 -24 -72 41 -121 69 52 77 -34 -52 71 33 -28 -6 45 -52 39 -13 -5 -15 -3 4 -8 -9 7 -61 8 -2 79 -41 10 -41 16 66 14 -43 56 -5 4 20 -38 -1 -6 -23 -27 19 -27 -14 18 -3 -75 39 -12 6 1 16 3 -12 -15 -19 -56 -42 -57 5 0 41 -17 17 -23 53 32 -24 -26 -25 27 -19 -23 16 -29 8 -6 18 -5 1 -49 32 -13 -10 12 -12 46 -111 54 -17 85 28 -4 -36 -15 -25 -12 -9 7 45 38 61 28 42 94 32 -10 5 -43 -16 3 -9 8 -29 3 -32 3 46 78 -6 3 7 -26 71 59 14 -10 -56 9 -49 -26 46 24 1 20 -45 23 -42 24 -100 -54 -24 62 40 -21 20 -27 9 48 0 48 63 -24 12 -20 -32 42 56 81 39 -48 13 -40 -10 37 -105 15 7 58 -17 -17 9 -25 46 16 35 20 -23 -81 -29 14 98 71 -102 -32 -26 -9 -24 -5 31 -23 0 6 -66 21 100 -12 7 16 -32 1 -37 34 43 53 -27 6 15 -11 53 114 61 28 13 -1 37 2 -22 -34 -90 -10 89 -25 -10 13 56 -7 -32 44 8 -6 -22 -44 45 6 2 44 46 -44 10
19 23 -48 32 5 6 -5 -54 -25 47 8 37 -1 -20 30 -8 -12 10 37 17 -8 2 -28 15 -9 -127 50 39 5 -16 30 -25 83 26 6 -20 -1 31 -2 19 17 -10 9 -36 -17 43 -18 15 -2 38 19 -26 -33 47 33 -26 -26 25 -31 -8 34 16 38 -1 -18 39 34 19 -12 -11 19 -8 81 -24 -48 -6 35 49 14 29 63 23 19 -33 -12 1 7 0 -22 35 -32 -32 -25 -46 -20 4 -16 -14 -16 32 -24 30 -32 24 -9 -18 -33 37 -43 -10 -22 -27 7 -30 21 -13 -12 -10 -11 11 38 14 55 26 10 -7 -21 -34 -10 76 -51 -8 -32 17 25 2 -17 57 33 -8 51 -61 26 -10 3 62 -16 -13 8 30 57 5 14 -1 79 -11 17 -40 9 14 9 19 29 -30 15 -2 -8 15 36 21 59 -5 9 37 -36 39 -27 4 75 -15 23 2 40 -60 34 -9 44 27 13 -23 27 -44 -11 28 10 -18 -33 -97 -8 17 -21 -14 -31 39 -7 20 -1 -32 52 -27 -4 38 7 -19 36 10 -27 60 11 -24 23 -34 6 -61 -13 -16 -25 2 -4 46 55 6 -11 -6 33 -8 -41 -35 -34 -47 18 -16 -36 -43 -16 -46 -12 35 -20 -49 35 12 -48 -17 -5 -1 10 7 -82 14 -45 -28 -32 -2 32 6 -4 17 12 -6 -6 2 -41 9 -23 -82 25 38 -5 -23 8 -21 13 -82 -55 -36 -64 7 -45 -6 -61 -20 10 -59 32 42 -1 13 -11 -86 -14 20 -23 17 -63 37 -41 30 -32 -41 -34 37 -30 12 35 -17 19 -30 10 48 6 2 31 3 16 28 -11 -38 7 -33 -5 38 1 1 -29 -22 -31 -29 -16 7 -25 15 -4 -2 -8 23 27 77 -10 48 -86 -11 4 -16 16 -21 -9 22 0 11 2 -32 -18 -24 -9 -10 -11 21 50 83 -31 40 -11 0 -3 21 26 9 6 46 53 -22 13 -5 58 -43 37 28 27 7 53 -15 -62 -31 17 -20 -15 -67 4 -51 20 -30 -29 -32 -15 25 10 -18 -35 29 24 -1 -39 12 -44 67 11 0 -8 7 11 9 59 21 -37 -43 32 0 -17 -46 50 30 7 -52 5 22 -46 -63 -33 -1 22 55 -68 -46 8 -43 3 -33 -48 40 -7 22 -21 48 -18 -71 -10 -34 -36 16 -2 -1 25 -26 8 19 9 -5 36 -40 -42 55 37 -23 33 -11 9 -47 -18 -30 -70 10 -30 9 -56 9 37 1 32 -36 -26 -25 -8 -36 26 22 -30 -47 -21 -3 43 48 -3 -42 19 -26 45 -2 -22 -12 14 4 -52 -22 -120 10 12 -5 4 24 -62 -16 5 8 -32 22 -45 -31 45 17 -16 -7 39 18 -21 -14 -6 -26 7 -50 3 11 -54 -22 -36 -3 35 24 31 -22 -9 65 8 22 -13 -63 13 13 -38 -39 -2 -25 -16 -45 -12 -48 -29 -44 -13 -2 7 15 0 -4 -31 -49 81 36 19 -4 -22 64 17 -11 3 -3 -28 -30 -4 10 -47 22 -61 -46 1 49 -28 29 -12 5 18 -3 6 48 -41 -27 -58 -45 4 29 -34 3 85 -11 -16 -37 72 36 19 36 -72 -2 -9 21 24 18 17 -3 29 25 11 -15 48 33 -24 -32 61 -22 6 -34 0 19 92 -25 49 -7 -20 -42 44 -17 -37 70 -16 41 -25 11 19 -20 5 -12 -8 11 1 36 -7 -20 -35 -1 6 6 -16 32 2 -57 -19 10 -23 -18 2 34 11 5 11 6 -31 -22 -7 -37 -1 26 -37 -57 1 27 -12 -10 15 48 16 9 71 -30 13 19 -37 77 -53 -34 -8 75 -33 -75 44 6 -13 15 3 -21 -21 37 19 0 3 71 39 -52 33 7 12 -35 18 58 25 12 -19 -1 0 26 -16 -27 78 3 21 5 -92 -19 0 -39 45 -27 32 3 22 -11 -11 -78 1 33 -27 -16 11 14 -1 14 7 6 -28 -7
-23 -6 -4 6 5 20 28 17 29 -53 -10 39 -39 14 -9 12 -42 -105 24 39 -24 -16 48 9 72 -14 -47 -25 39 3 -18 26 -25 41 8 20 -25 -29 -5 -24 -4 -5 5 5 -11 32 -3 4 -16 -2 -44 -127 25 -40 56 27 -35 54 21 -8 2 -5 -2 36 -12 4 12 42 -21 15 8 -44 17 -9 21 5 -33 -24 -14 -20 -6 66 -15 -4 -19 31 -34 14 -40 0 14 19 -18 -22 -34 -12 22 -15 19 -37 16 30 27 -12 -37 -15 36 -5 -19 51 73 13 42 38 28 -93 -14 -14 45 -6 -15 0 -28 -38 -11 20 -70 5 -13 89 41 -25 -32 -12 31 5 5 -8 8 -8 -18 -21 40 2 -1 -75 12 37 40 -20 -11 -17 -42 0 -20 24 50 -3 -39 -27 61 55 46 -24 -73 41 -9 47 -49 -44 9 -24 -11 42 -48 41 -22 68 82 -21 22 -32 29 103 -6 20 -20 -37 11 -50 -29 -40 -24 30 -33 -29 66 -17 32 -34 29 -85 26 -5 29 12 -10 -35 -40 10 -47 -8 -37 1 -31 -18 -17 79 -34 -36 -28 -5 30 -49 -15 -14 89 -10 -21 -56 8 -7 -91 42 -36 -3 43 8 57 8 20 -19 40 48 -31 6 9 -17 -2 17 -44 -16 -31 23 -18 5 6 -22 -8 49 -44 -60 -12 -25 -42 36 29 0 -12 18 20 38 -32 34 -34 -35 -31 10 15 73 46 6 34 -23 19 -11 -87 15 -44 12 8 19 -16 46 72 23 21 -12 40 43 9 1 -19 30 4 -55 -28 1 -11 -35 21 -22 -47 5 10 29 -7 33 -48 23 25 -21 -27 60 31 -16 24 -19 -75 -47 -39 -21 42 -25 82 -70 -58 -6 -17 3 -19 -8 -7 -74 73 -27 44 14 10 -48 43 -16 -21 87 -35 10 -67 -24 8 46 -14 -29 -61 54 80 -55 -41 -26 44 12 -6 61 24 -28 13 -14 -7 -24 -29 43 3 34 -3 -28 66 -47 -11 -42 4 -42 -17 24 -22 -54 -73 -2 -5 -1 -8 -55 18 46 5 13 -45 -23 50 26 -8 3 -5 22 -83 28 23 -37 -21 12 52 -10 -65 -83 4 51 -31 -47 -3 45 -16 11 -42 21 -16 1 55 -3 3 15 -35 -14 -63 -101 -4 -24 -71 -15 15 -31 -11 15 72 -12 -14 13 -12 22 39 -15 37 72 49 13 -3 -55 -53 62 -5 -6 31 13 -30 54 34 -17 -47 -90 -3 38 2 -36 51 4 -8 9 22 43 72 1 36 10 47 -13 -31 -22 -81 -48 78 6 -7 19 39 -23 -4 15 8 19 16 14 -43 22 36 -8 21 30 12 73 -1 -23 6 29 53 79 13 52 -26 23 -2 -9 -33 2 11 -53 -10 -19 -32 67 53 43 -28 11 13 3 97 -16 21 -47 -37 74 -25 -71 -22 27 7 48 -93 -12 36 -22 57 3 -8 -10 66 4 38 -42 -77 -26 -14 -14 9 33 -25 43 -39 33 -17 15 25 -37 -2 -19 28 60 22 -28 53 39 -1 21 -13 -36 34 -3 32 -6 -5 8 -42 -11 25 -49 -2 -10 9 -34 -119 -20 5 -36 -41 54 23 -2 83 -10 -13 -77 23 -37 31 -58 -101 49 -16 -96 -9 0 -12 9 -2 12 71 13 -34 -29 20 -41 -42 -4 -47 -27 -46 30 40 48 -39 -53 -38 21 -8 -31 -42 -1 7 37 5 36 16 55 10 -21 13 19 -27 -28 -27 -3 -21 -50 2 -32 -48 23 28 39 8 13 35 -80 -10 -18 21 80 -6 39 22 91 -36 47 -9 68 -77 13 65 -56 -54 7 -9 3 17 4 29 -82 -23 8 16 6 -47 6 -105 -10 -10 -57 -11 3 62 -75 -28 -23 12 13 -66 -47 15 -11 -42 -35 12 43 17 -74 -19 -25 -32 -14 18 -23 -16 50 11 23 -13 -15 -48 -7 -33 11 -37 40 2 34 13 -2 -50 -50 14 59 -20 -17 -48 16 -10 -8 4 6 -3 -33
66 23 -16 6 30 -6 -38 67 -2 21 -4 9 -23 -1 -18 7 -19 15 -8 -11 11 50 -76 -7 -15 28 25 -8 3 16 -15 11 -19 -9 -27 -32 24 -36 27 -35 -12 7 -19 38 23 4 3 -11 21 22 19 60 -14 -5 7 -42 8 -18 18 -16 -2 36 -61 29 -40 30 -99 -31 33 -13 10 -21 -95 -1 1 -32 4 90 11 27 39 6 -24 13 5 9 11 -24 7 37 -13 14 11 16 -52 -5 40 11 23 -4 -17 22 -45 -40 -33 22 -1 -12 -48 -10 -43 -17 -40 22 -9 6 -8 -30 45 38 -46 -8 -33 0 -53 -27 -21 -10 -44 -33 -26 -16 -15 -33 37 -29 -12 -20 40 -13 -41 -31 -9 9 -30 33 34 -24 -24 49 13 14 -46 -3 -11 -23 -22 -33 35 -12 -1 -27 -16 -44 -6 -23 -7 -35 -2 -38 26 -45 17 -20 4 -14 -29 -29 15 -16 36 13 59 2 -38 -32 -37 30 22 -34 -53 -35 15 31 -5 5 40 28 -11 24 47 -16 -14 23 39 34 -24 -9 12 22 -44 -29 -15 8 -37 -6 17 -20 20 5 -82 -53 -21 24 -34 -7 -8 6 10 2 38 24 -32 -2 -21 40 10 28 -27 1 31 -23 49 17 -9 -4 28 -11 15 32 -9 -9 -23 35 15 42 15 45 -1 15 48 -24 33 -27 19 30 48 -20 24 -58 30 -2 -8 3 47 85 46 19 22 -4 -22 16 -7 80 13 -26 -13 1 2 16 -27 -27 -30 22 -26 -9 -34 -43 -19 1 -29 -24 36 55 -6 2 -2 -11 -21 -5 -26 -28 64 0 -7 -46 16 9 -32 -5 -24 -15 -9 58 13 -44 -15 35 -44 -13 54 -54 17 -72 29 -65 2 -26 -31 34 9 -24 -1 -11 23 -7 28 -16 -1 -6 -23 -37 8 -12 1 -67 -52 -8 9 27 10 4 -10 24 -12 13 -58 -10 31 -25 -9 -9 -13 27 -38 31 -18 33 -6 21 2 -21 -13 1 -4 -5 -10 -30 -32 91 -3 38 30 -15 12 -2 9 -8 -3 11 -38 39 21 2 10 -32 7 13 30 17 34 -15 15 -64 -10 -6 -17 -12 -6 72 15 -68 -7 16 -15 6 1 15 -7 28 6 5 13 52 14 -40 25 43 33 -9 4 2 -67 6 -48 8 32 29 48 -20 33 -22 20 -13 72 70 12 54 -13 -37 -22 44 -4 2 15 31 15 35 4 -12 23 30 -45 40 22 -23 1 17 -75 24 -12 -19 -16 -40 89 3 26 41 45 -45 -24 36 -1 8 -12 -25 -105 6 -35 20 -65 12 -45 8 -4 0 -51 37 3 -21 -3 37 22 2 15 35 -20 -7 -11 42 19 9 26 34 15 43 13 11 -77 15 11 25 43 0 -23 -2 -25 24 37 59 0 -5 46 -31 53 -1 -18 -16 43 9 7 59 -12 51 -17 -19 75 -38 12 19 -70 6 -14 13 -20 17 -48 13 -43 30 31 -31 4 -2 -47 -33 24 -18 9 13 1 -9 -5 -33 -8 -40 -12 46 -3 20 -31 6 23 0 21 -20 -27 30 -47 0 -50 -16 12 16 16 -50 18 38 -10 -4 -74 17 32 -10 59 12 33 -25 -24 -4 43 -3 18 -31 11 -25 -39 -7 -29 6 16 7 -37 -35 9 -23 -10 10 -29 9 10 1 39 23 37 33 -61 3 -22 9 -27 -9 -26 -33 -3 -36 -31 -5 45 20 29 -8 -18 25 -4 15 12 15 -10 -12 -37 -70 9 30 2 18 27 -54 -24 -127 41 -24 -30 33 12 -31 20 29 -81 -15 -6 -15 -43 -3 -29 -6 28 -20 -35 -5 -14 5 -23 15 4 10 -3 -12 2 -3 -28 -27 -3 -20 -35 -31 6 2 -25 32 -23 -9 -33 -25 -11 15 -12 27 -9 -28 16 87 37 -31 -31 16 43 28 54 -5 28 -42 -4 13 -63 -16 10 37 -27 -24 29 35 -30 12 17 -51 1 4 9 8 -2 -29 -28 -26 10 3 -37 14
65 -40 7 13 26 22 0 30 -10 -12 -26 3 -1 24 26 -23 -54 21 27 -25 48 9 15 50 66 -38 20 -27 38 12 -25 26 -5 -61 -39 -81 -26 5 7 -13 -39 -39 9 19 -10 -15 -63 22 73 41 -3 59 -11 24 69 8 -66 26 105 -46 -32 53 68 -24 86 10 3 -23 5 10 15 10 -62 -22 29 0 -14 -47 -37 -12 -66 14 9 29 50 -6 -36 34 3 49 -33 -10 38 -47 37 -31 0 -4 -59 32 19 12 11 -38 -123 -24 2 -78 -41 85 8 12 16 -17 55 55 75 -64 0 17 -25 13 19 -22 -18 41 -63 28 46 20 -21 -16 6 27 17 -18 52 27 -3 49 32 -25 40 -23 -26 18 48 -15 -11 -25 30 10 24 5 -10 -25 7 50 -16 28 70 0 -7 19 -37 -19 61 33 -10 -42 7 57 27 19 -24 -15 -67 -25 -2 55 72 -80 -19 74 -33 -13 -96 -16 -2 -21 -39 -29 -15 72 58 50 -6 -37 45 6 2 -37 -3 15 -22 15 4 0 45 -19 86 31 -19 17 5 26 -32 -31 36 37 -3 -14 0 41 8 -25 -20 -73 -18 52 76 -61 -19 -26 -40 22 22 84 -44 -7 -23 -28 -50 -9 -5 -3 23 0 36 10 25 -40 31 -13 -14 23 -76 1 25 -16 1 -42 2 17 69 -18 54 -36 -18 15 -9 -42 -78 -21 -17 -25 -124 -48 8 -56 -10 25 37 -42 -48 39 16 5 -21 47 26 7 -43 -32 -3 47 13 27 13 -68 27 -32 9 -56 56 -31 -33 -4 70 -77 -19 29 6 28 84 1 -29 6 -44 -11 83 -16 48 0 10 -26 -11 27 -31 58 27 -22 -39 2 48 -45 38 65 18 -6 -40 4 19 -21 53 35 -17 -59 -60 25 -36 82 -36 -29 -83 -30 3 -13 13 -30 44 -4 3 -32 5 -31 23 31 82 20 -25 112 -61 -3 31 -20 -8 28 -26 31 28 -38 -38 20 -38 22 27 92 5 -10 33 34 13 65 -24 71 -10 11 36 28 -41 -27 8 -12 -44 16 -9 6 6 -3 82 -6 -2 36 -19 -32 10 -21 -9 9 1 13 42 -31 24 11 114 -20 -5 -74 14 16 8 27 -1 -9 2 19 -6 22 -28 -59 77 -51 -30 -57 -16 111 -39 62 29 0 -7 50 106 -47 101 -14 -23 42 -11 68 -48 -15 67 -8 -90 -52 -9 11 16 -52 39 -6 59 40 36 28 -97 5 -8 50 -27 -6 89 -51 -11 96 41 113 -59 7 -12 30 -26 -21 -20 17 -28 -44 16 34 -17 -42 -7 -7 -61 -8 72 -22 -28 12 66 56 59 -13 23 7 14 30 -55 93 -20 68 4 -79 -12 6 -57 -4 -49 -37 -23 -32 73 -25 38 88 -53 20 3 63 18 108 -36 -32 47 5 -9 6 32 -2 23 17 -12 83 62 21 -17 -24 52 -46 -60 28 19 -21 4 34 57 -34 -53 52 -27 -33 -12 69 49 -28 5 -32 -5 -6 77 48 -77 71 25 15 1 62 1 16 -53 41 -84 20 35 0 32 60 20 111 52 -39 -7 7 7 -11 58 40 26 12 42 -7 107 13 -84 -18 37 -4 21 10 92 3 47 3 8 -1 52 -86 11 13 3 -48 8 -15 -24 50 42 6 10 22 -106 -44 -2 -64 -31 -7 -45 -57 21 10 32 18 85 -10 -9 53 -24 23 28 -81 -28 -2 -38 40 -59 54 61 -11 40 -38 18 15 -15 73 7 -18 -44 36 -5 -6 38 18 38 22 30 -17 57 46 11 -49 -46 -20 -3 -49 -35 32 -17 -57 39 30 6 25 -69 34 10 20 -39 -33 7 82 12 -61 -19 25 -13 -110 15 -22 7 76 27 26 27 79 32 -53 1 7 2 13 -53 -22 6 -54 -47 14 -13 22 48 34 18 70 69 5 55 4 -13 82 62 12 -79 18 31 -127 37 -2 -3 16 61 -23 -40 -4 -12 39 -11 -38
68 9 -6 -26 27 32 10 -29 5 -45 7 -38 -41 0 1 -17 21 -14 -4 -11 -10 25 37 -39 0 -40 44 -11 32 4 44 -65 -3 50 42 -7 84 -50 -10 -44 35 80 -49 -46 -29 53 -19 24 -8 69 -21 -15 49 -16 -61 -1 45 -29 -42 -67 1 -102 -21 -59 -1 -55 55 5 100 4 -64 -14 -34 10 35 14 36 6 -76 62 -44 -18 -22 -2 -43 -15 -31 -10 -37 -75 -44 31 4 7 -1 86 4 -49 46 -24 -41 -4 27 7 -46 -25 -24 -10 -52 -57 3 23 5 22 -42 4 11 -32 43 -55 37 -49 9 -3 3 38 12 12 -41 35 24 27 37 21 -33 70 -4 16 9 3 -19 16 -37 34 5 29 16 -34 19 28 -28 -9 29 24 -12 23 51 -32 27 64 77 -29 -10 -4 8 -16 7 -18 42 59 -16 7 -27 -17 -66 -53 -8 -29 -31 -10 -13 -37 -10 21 27 -2 -6 5 -11 41 -114 -72 19 -37 -30 -22 45 18 -27 21 2 -99 -9 47 37 0 2 3 46 -14 19 36 24 -10 28 21 -110 17 23 -5 -9 47 -36 6 9 8 15 -47 52 28 37 14 40 15 -30 -6 -3 40 21 -54 -24 53 -56 -7 4 -76 77 -9 31 -1 -29 -45 26 78 -49 -68 74 -23 21 15 -4 75 -43 -1 -54 -33 28 -38 14 80 -86 -45 63 50 38 6 -18 43 -20 -28 -17 -7 15 15 7 3 -34 -22 76 22 42 -41 30 -16 33 28 70 41 -41 8 -37 -21 -6 -43 3 8 5 -7 -26 -18 -15 -58 6 17 -39 -49 -29 -17 -8 -81 31 8 -63 48 -14 -4 6 31 -20 4 -30 36 58 33 -26 -51 45 -27 -8 -11 -20 30 -15 6 63 14 3 16 13 2 28 1 48 27 37 -12 -19 13 8 3 -70 -33 -11 -47 13 39 10 24 25 -22 -17 -18 -6 20 -20 49 17 -31 27 -26 -30 -4 15 -28 -2 3 58 11 -26 -59 7 -20 -14 12 -77 -21 -34 -26 3 -36 -44 34 7 16 34 -20 -2 -29 -56 -37 9 14 15 -33 -4 0 24 18 -5 15 29 66 -51 49 12 16 -58 -12 11 18 -11 30 4 -29 -56 -15 -22 24 59 -19 -10 11 -20 76 -3 -39 52 53 10 34 -2 12 -30 -26 -20 19 41 -34 56 40 -21 -58 -22 -31 -55 40 -17 -81 27 -19 -5 33 -1 -23 -19 9 1 14 -31 -48 46 -9 31 -37 21 -6 -27 -8 8 53 -11 0 -4 52 -66 6 -28 9 -10 -35 -127 -23 45 -16 -25 32 -88 -50 28 -101 54 28 42 47 -39 -38 -53 -32 -21 34 22 40 -2 -42 3 -58 -3 -44 8 -17 -22 -18 43 28 0 62 9 31 -33 101 3 25 74 5 54 8 27 -43 -10 7 -33 -17 37 -3 45 35 12 -24 17 -23 26 7 -55 31 -54 -5 39 -75 -23 -31 34 -20 -41 45 17 -67 -46 -20 66 -3 7 -7 -9 -31 16 35 -80 4 -2 -39 35 8 52 7 -98 46 -18 -14 -54 9 -15 27 -35 -8 -34 -13 -12 37 17 -9 30 22 -11 12 26 -33 60 66 71 -4 29 -20 101 -60 35 60 -17 37 40 10 -1 -2 15 -52 -9 5 22 4 40 -14 -28 -15 -1 -33 37 -19 -41 44 -17 -33 3 -36 8 -41 -41 18 -13 5 72 -52 -101 -91 -9 -36 25 -40 -41 15 -6 47 -13 -36 -15 18 36 -7 -32 23 12 70 18 39 6 13 -4 -3 -70 -49 -1 -12 11 -71 -108 -8 -16 22 19 0 -73 -30 -19 -13 22 -58 -14 9 -8 -36 17 -94 -64 -37 19 -1 2 -27 -17 -45 40 30 2 20 -2 -18 -13 51 -27 -36 3 30 20 -31 -19 10 31 14 17 20 -53 -35 -6 23 22 38 59 31 0 0 -11 -26 -19 -33 11 16 -2 68 3 -9 -18 6 20 28 7 -51 -24 -23 -24 -35
-12 -10 -9 4 6 -32 -8 -13 -15 -5 26 3 29 -17 -35 -17 -4 34 -5 38 8 -1 12 17 7 49 4 8 -19 -15 -2 12 8 22 5 -7 36 -29 5 -13 -5 13 20 -77 32 -50 -28 2 12 -5 -7 -31 -30 30 9 4 9 -23 -1 23 10 -21 -2 -22 15 -19 -25 9 29 5 -5 -24 55 0 8 13 41 12 -5 49 -39 36 -20 -10 -12 14 19 -17 34 -32 68 13 18 -16 -14 21 -14 -91 -2 11 -5 -15 -21 -62 9 -7 7 -14 33 23 46 38 7 -25 23 -11 -64 27 26 11 41 -61 -31 3 -12 16 28 12 6 27 33 4 21 -20 -46 -10 -10 -54 -17 -8 -24 3 14 4 3 12 -6 9 11 -25 81 -14 65 11 8 -22 2 -36 -12 -31 -9 6 50 29 39 20 50 49 17 23 3 40 -4 21 46 56 22 -31 -43 9 2 -67 6 -5 16 -6 34 -9 60 -56 57 17 1 -20 1 16 -14 -33 -1 12 -27 -7 -22 -4 15 -81 -2 19 -6 37 12 -11 -16 16 -9 36 -17 -37 29 -55 42 -53 5 -23 -5 -7 -46 62 15 -4 3 -69 16 -26 35 28 4 -20 4 -12 27 1 2 -7 -16 27 -2 27 31 -8 -33 24 -6 -12 -28 -37 -7 -12 12 10 9 -18 -5 -19 58 -3 -50 16 46 51 14 -22 33 -15 14 -47 -114 18 -8 5 -20 -20 -16 -38 -23 -70 5 18 37 -23 -4 37 1 -16 38 11 -5 23 81 19 -2 51 -13 -45 -56 -11 -1 1 14 6 20 24 -24 1 -42 -5 -9 -11 23 20 -38 4 -15 82 28 -36 -1 5 33 -28 5 28 52 -19 -112 -10 2 36 25 -1 -25 14 5 16 -38 -56 -4 60 26 -1 7 3 -16 13 36 -7 10 7 19 14 7 -2 -9 -37 -29 1 7 13 -47 1 57 10 31 4 -21 43 -10 -18 36 23 21 -2 18 24 -3 26 12 18 1 27 21 3 23 -15 34 -10 9 6 12 32 28 -55 22 -2 -38 9 -22 10 12 19 2 10 -13 2 13 58 -3 -17 1 9 20 -16 6 -49 25 25 13 -4 -7 24 5 18 5 -27 10 20 16 -24 -48 -24 -10 -19 -13 -56 -13 49 -3 -82 -22 -24 -26 26 0 -43 -21 58 -21 -27 9 73 -35 -29 0 39 58 3 77 0 -6 -25 3 -61 -12 -11 9 -12 -33 -38 71 -16 -24 38 3 -2 -18 10 -9 45 51 26 35 10 4 -39 81 -15 -127 13 26 -19 -39 6 62 23 -13 29 -2 16 -14 19 18 -40 -54 -5 -8 1 -22 7 -4 -42 62 -32 28 32 3 46 -5 -9 87 -9 -19 -20 -26 -2 -3 66 -18 -12 23 -42 2 -22 12 -13 29 -25 -41 -16 12 -13 17 -29 1 -50 6 -33 -38 12 53 3 -36 32 25 30 22 15 13 6 -26 37 12 6 -2 -11 -14 -5 7 -6 -10 31 6 -30 -18 24 -11 -32 19 20 -4 24 -11 -29 -6 -9 7 37 -39 9 16 40 26 14 42 -2 32 52 -27 -10 -17 7 -4 2 10 -1 -11 -25 23 -13 -21 -13 4 20 -80 8 -42 46 -7 41 53 -46 -4 82 -45 61 -1 -33 -14 -54 -7 -3 -9 22 71 12 29 66 50 11 22 11 26 -5 25 11 -21 -5 2 -33 44 -63 0 8 -25 15 8 -7 -47 -15 -9 -41 28 22 17 58 -29 -27 29 8 -19 41 -8 -6 24 24 -38 -17 92 -68 50 28 1 85 -63 -13 40 -2 -6 32 60 29 2 62 -1 40 18 -8 3 11 6 52 57 -51 15 6 45 27 8 17 15 -9 -12 -50 32 55 41 -29 3 -36 15 -1 -35 -2 -26 8 -30 14 -22 -31 0 1 -15 -25 -19 -57 28 30 -41 -18 13 80 -21 -18 17 31 6 26 42 25 33 16 -12 -1 13 -14 10 -18 -59 -8
-28 19 -4 11 3 -8 -28 25 55 12 33 -11 11 -9 -20 28 -7 33 21 15 1 -44 -1 21 -22 20 -3 -17 -43 22 0 16 -14 -21 -28 98 -11 19 14 -44 -21 43 -29 34 -11 -57 34 7 8 10 64 -9 -18 -4 20 22 -22 38 44 12 -15 17 5 8 -13 33 17 -22 -17 -45 -23 11 -103 -25 -12 -17 -10 31 64 -40 68 -48 17 -18 15 -21 -5 23 -22 52 8 19 -45 -26 70 26 8 66 53 3 12 -31 20 -57 98 15 31 -16 -36 -12 -22 11 -3 37 18 -7 -23 48 -29 10 -13 -10 33 -8 7 -2 0 -64 -20 62 -8 -28 -30 28 22 73 -6 -48 -34 52 14 -27 11 -35 -4 96 -63 54 -42 17 7 11 23 66 16 6 -25 23 -84 -10 39 -34 28 -10 -12 -15 -48 11 -11 33 -13 -5 67 84 20 36 7 18 61 -52 -11 41 -20 -10 37 2 -54 7 6 -45 -30 -49 -25 50 2 11 28 4 21 -10 -41 39 18 -30 7 -10 1 -37 -13 2 -46 -25 51 -19 27 -20 2 -4 -28 49 16 -18 3 -18 12 48 -9 -8 -24 -10 -1 -34 -5 -9 -1 55 58 28 24 28 26 -21 -11 -2 19 3 20 -26 -11 25 -52 -8 -58 46 -6 -22 21 26 -4 8 2 1 -10 -19 -24 -11 11 67 12 -45 -7 -41 62 37 -46 -12 -58 -34 -12 -59 20 -7 -2 -33 -12 -46 -35 -32 -38 -55 61 36 8 -12 26 12 -18 -33 -36 35 15 -24 23 31 -34 29 10 -82 -2 46 -15 25 6 49 2 0 -4 2 -35 33 0 -9 -2 91 -27 -24 13 23 5 -42 16 -10 -1 48 -38 -14 -15 -43 20 93 -1 7 -3 43 41 -10 -36 19 46 -7 26 54 -19 60 -45 -50 -15 -8 -15 34 -71 -19 -39 1 10 -40 -22 21 -41 -62 36 -2 -1 -2 -4 3 30 31 -31 -31 23 21 16 28 66 -32 2 50 13 -19 21 39 -8 24 40 -35 11 14 25 -69 -41 11 12 -14 -19 20 1 -5 31 8 -87 15 16 9 16 -40 -36 -24 11 27 -15 0 -26 -19 33 -2 -18 16 4 -37 -5 39 17 7 17 14 -16 13 6 -6 9 -20 42 3 23 -9 -2 -37 -20 17 25 -12 -3 -21 -31 13 100 11 -85 21 -14 25 -33 13 12 37 -7 -66 1 71 58 46 32 75 -31 -102 -28 15 12 -21 -37 9 -7 -3 -4 -43 46 -27 16 -14 5 -8 -23 -33 35 -73 19 40 7 -46 31 17 31 3 -40 -35 25 6 -29 14 41 -29 -42 25 30 -16 -19 -27 2 2 11 -8 78 39 15 49 -8 19 8 3 26 -58 12 46 5 -17 20 26 58 25 28 -20 -1 -21 -4 0 -18 -35 -23 -53 -16 8 9 55 -23 26 1 -34 -21 32 -30 57 -17 6 -8 30 -22 43 -35 -5 -48 -52 32 52 -29 -5 17 61 -28 11 61 -58 -16 8 -2 -64 -27 -1 6 37 -69 -21 4 28 40 -2 31 -2 23 45 -8 37 0 1 43 1 8 31 -10 -39 -15 50 -20 42 -111 -78 72 9 18 -16 31 49 -25 -14 8 17 -22 41 15 -5 46 -58 -15 -43 43 -5 50 22 17 40 25 11 -8 -61 -13 -3 -35 -8 93 -4 -57 20 -21 -43 -44 -10 26 6 11 -42 -9 16 -7 10 0 12 -15 15 -26 55 49 4 -47 1 -28 -55 -16 12 53 3 4 -5 43 -11 62 -45 -16 23 51 -1 -27 86 7 4 -34 36 46 9 17 35 -1 23 -6 41 53 -27 12 18 6 25 126 8 58 -32 -11 -6 -11 -39 -3 -3 -9 0 -28 23 37 34 -24 -18 55 -6 -9 31 12 19 -5 -22 6 41 49 2 74 -31 31 -25 -44 11 46 95 20 34 6 0 25 -31 3 21 25 -15 -26 13 17 -25 30 -20 0 -6 -61 32
-26 -47 29 37 -28 21 20 46 -27 40 -31 -20 -7 46 -6 -23 -40 20 -27 -42 -14 -88 23 -49 -79 -48 42 -29 -28 -25 -10 1 1 65 -37 73 -36 29 -27 -27 3 9 48 -28 38 28 -2 -3 41 18 4 108 29 -8 20 -4 -61 -31 -16 44 20 10 -32 -32 26 6 -18 -1 57 -12 -21 -127 -26 -53 45 36 6 40 -8 -33 31 -2 -5 -7 -35 60 37 8 -33 29 -3 -31 -88 9 32 6 -13 -7 16 -30 33 -89 -3 -114 -13 -29 -6 -20 45 115 -14 0 -13 19 67 6 52 63 74 -20 19 43 16 -66 41 -4 -51 17 53 73 40 -9 -64 18 0 7 -22 -11 -43 -20 -15 42 -26 -25 -20 81 -52 13 37 -25 -15 -75 -8 7 -38 50 7 13 20 17 14 38 6 0 11 5 20 -39 7 44 -35 -51 42 -32 13 -12 8 25 -46 -5 -51 21 6 -63 -25 -10 3 57 -27 14 37 -36 -33 25 32 7 -87 82 48 22 -32 -5 -93 -10 24 -21 -33 48 -35 14 -40 12 40 37 25 39 5 3 10 8 10 -1 0 -6 39 -12 13 -42 47 17 -89 -11 -22 -2 -29 -30 22 6 -17 41 -38 -34 10 -5 -54 -14 16 2 17 -12 -71 -14 9 21 -30 -49 88 15 -15 -2 -37 -15 4 -1 -13 -1 -11 -39 -27 -2 25 35 13 18 -9 -16 13 -5 -12 -1 -24 21 -33 12 30 -48 1 31 -5 -23 -4 52 45 -17 22 72 26 73 -72 6 15 -21 -5 12 30 -17 8 -37 40 -15 58 -46 31 -17 -18 67 37 -21 76 18 34 -122 -13 27 26 -6 16 42 -10 8 -30 24 26 -6 -20 3 -20 41 -72 11 -76 -2 2 -15 27 19 -25 -47 36 7 -25 -55 -20 77 -12 13 0 -39 0 -1 16 20 -11 26 -23 11 -15 30 -86 -42 6 15 15 43 67 -15 -20 23 42 42 -26 70 -57 -11 36 -18 2 97 -79 51 12 -20 -40 59 -40 49 -53 74 -11 39 -63 -31 -39 -42 12 -8 -5 9 -23 -9 13 -35 -30 3 -34 -33 -15 -3 9 -36 -2 -65 16 -78 9 30 53 14 11 58 5 -29 -8 16 9 -32 -34 30 -18 -4 2 -5 -3 32 14 -29 -69 -51 28 -27 48 46 -23 19 -28 -11 -41 -33 5 -29 18 25 -36 20 38 -41 16 23 4 -87 -43 -56 -26 47 -37 -42 14 -43 -15 47 38 42 53 -8 -13 4 -3 14 -11 38 -53 -18 52 -22 10 68 4 34 -37 -36 16 3 5 -13 44 -16 20 22 16 15 12 -22 -83 4 35 -2 88 50 40 18 5 -29 -48 35 31 -10 31 -65 -2 17 32 -11 18 -5 -28 -80 54 1 37 13 -25 -6 17 52 21 -11 33 36 -23 23 -20 1 51 -61 4 -15 -22 -64 14 29 -32 8 31 27 -12 -14 34 21 87 13 -30 -9 -27 11 -19 20 -67 -13 -12 -1 -53 64 -2 25 56 53 7 -5 12 -11 18 1 30 -102 47 58 33 12 -12 59 16 45 73 6 -18 -33 7 -11 67 24 -87 -53 -68 -21 6 -19 22 -27 -55 -28 4 -67 22 -22 31 2 -35 34 8 -31 71 27 78 12 -12 -25 -18 -39 15 26 24 -28 37 -44 -51 27 12 53 52 -16 -4 -26 81 11 34 -31 -19 25 3 13 -10 17 -5 -35 36 -19 52 49 14 32 108 30 94 -43 24 -22 -6 -7 24 91 124 70 -34 -54 70 -1 79 -9 39 -4 -19 42 -25 27 6 -14 44 -6 38 23 38 31 -36 -20 10 18 -11 -46 -33 10 28 12 -30 58 54 28 47 -96 -24 -40 36 -10 -8 -21 8 11 -2 -38 -3 -15 27 40 -2 -22 31 5 -33 7 -31 41 -21 -25 7 33 -12 78 38 12 36 19 21 -27 -63 20 -2 -35 -18 19 -22 14 -33 33 -8 29 13 3 10 -24
36 -47 22 2 -4 50 -14 0 74 -7 12 15 57 -7 35 1 37 -53 0 22 -52 21 -53 85 36 101 31 -51 43 5 -81 11 0 -25 24 -78 -82 -2 -25 -33 17 -9 -36 7 -57 -47 1 0 -3 -17 -7 -25 -18 -2 20 59 57 -16 -24 -10 -3 -14 3 5 -23 -13 1 61 -8 -44 45 67 27 -19 8 44 43 9 30 -33 -20 -21 -21 -6 35 -26 -10 57 17 -11 -4 -67 16 -20 -33 9 24 -3 51 1 39 9 25 30 88 53 -9 80 31 -7 -21 20 -36 -31 11 -7 60 -26 -22 -10 -58 80 -33 8 36 6 -22 -24 -8 -42 -57 -36 101 24 51 81 -8 13 -90 -43 49 48 0 28 -6 -62 -77 53 -15 -17 46 23 55 -20 -39 58 26 8 -31 33 45 77 12 0 12 54 -44 -16 59 50 -19 -24 -25 89 -22 -86 -11 -36 51 1 16 14 58 -8 33 5 17 10 43 10 34 -2 42 -9 -13 -67 -6 63 -60 -4 -6 56 26 -12 71 -19 8 8 69 31 -39 8 -17 36 -9 39 18 -10 -15 57 9 17 49 -32 10 -63 44 17 9 -59 -60 13 -63 36 27 -45 -11 -63 -3 -30 -22 54 -57 12 -13 15 -15 -23 -35 18 12 -23 -17 42 -6 0 5 9 42 -19 89 -14 45 40 -50 50 11 19 24 84 13 43 75 15 -17 12 59 -2 -24 -33 -12 -33 -77 35 -4 22 25 -12 0 22 18 47 -33 -50 25 -20 52 29 35 -11 -10 -49 -20 7 1 25 -44 7 -19 25 33 -18 -59 6 44 1 17 41 10 -14 -19 74 39 6 36 11 29 0 95 118 -23 -122 1 -34 -14 9 -33 1 -23 -24 46 -50 -16 -115 -85 5 58 26 -41 49 89 22 -74 -40 11 -9 65 -59 1 -6 6 -22 -43 1 49 -21 38 -12 -48 -8 32 -35 22 -38 56 20 5 70 -1 50 58 -29 -40 -38 -20 76 14 -23 -47 -2 86 20 -3 78 -44 -57 -78 -2 -1 -32 -10 -26 -89 20 -40 19 27 11 43 -6 12 -40 2 11 79 -23 -6 6 -15 76 -39 83 38 29 60 -4 -37 60 -6 108 38 45 29 16 -30 -33 -7 -29 -36 -19 39 33 93 23 -29 31 -26 49 10 -8 50 42 10 30 24 -4 52 21 48 -51 14 18 24 19 4 10 4 4 22 12 25 -11 -109 -67 -18 12 106 -27 -16 -57 47 -83 1 -31 -15 -51 -11 -76 -6 -2 35 0 0 -61 -3 -31 -65 53 6 0 -91 23 -41 4 36 51 -80 20 24 -13 20 -16 -53 -63 -127 -36 -24 38 -29 -27 26 21 7 -10 23 -18 29 97 15 -3 65 -31 17 18 -60 3 64 -4 10 23 53 -15 -42 13 47 0 60 -51 42 53 -1 -4 4 79 63 -18 3 81 -63 -61 -12 -21 23 -9 -67 -9 16 45 -22 45 -63 26 34 35 -55 -7 23 21 39 4 29 3 12 3 -8 -43 0 65 7 4 -30 10 -16 42 58 -2 0 29 -2 -80 10 -4 28 39 -2 70 19 -36 47 9 18 -13 -35 10 61 5 34 20 50 19 -12 6 -21 17 -41 24 -59 65 -20 -68 -83 -12 -58 21 24 9 45 -18 -4 4 -71 42 14 38 27 -32 104 -57 -60 -29 -68 -65 -38 -54 -53 25 -35 -14 -25 26 -24 57 -4 -15 18 -42 19 -30 44 29 -47 -22 -5 -48 22 -10 -25 69 -56 52 15 -73 1 7 19 -43 68 -12 52 -52 14 15 11 43 -7 -7 -1 68 33 6 92 23 65 -23 0 -2 65 37 7 57 26 -51 29 30 21 20 -42 51 0 13 13 20 -31 18 56 93 56 16 50 14 -19 15 -4 -32 27 10 3 1 33 -46 -21 11 28 -49 88 -15 12 2 10 67 66 -27 -50 -20 11 -33 -8 24 -31 34 14 -56 10 -12 13 11 59 43
16 4 -52 18 -1 12 -6 5 -6 46 0 3 -17 -24 23 5 9 -25 -12 -34 -16 -2 33 42 26 1 -8 36 -6 -56 0 2 17 8 16 -14 -14 -35 -27 -4 32 -2 12 -24 15 -10 -30 11 21 8 8 -22 -7 33 12 11 40 -4 -18 46 -1 -25 86 -39 -5 -53 22 24 -24 -15 28 -22 46 25 -25 25 -4 81 26 -37 -16 -22 -15 -16 -18 -1 2 3 17 -54 19 29 -12 2 -38 -7 -39 67 6 -8 -25 -24 32 -5 -15 -37 19 20 64 -10 17 -7 14 8 47 7 45 0 -21 -24 5 -19 18 14 -13 -41 -36 14 -19 13 41 24 31 16 30 -18 -4 40 -5 -17 -13 3 34 -23 -9 -65 20 -19 9 -25 -32 -12 8 -67 28 -4 -10 -6 -35 19 6 -2 70 15 -33 -10 13 9 0 7 -4 21 -5 24 16 25 -38 -40 31 22 -20 -4 -1 40 14 -10 50 21 -1 -6 -3 5 -10 -11 -10 22 -3 9 50 -33 25 -62 26 -14 -10 -8 14 -8 -61 19 36 -2 6 -26 3 2 -19 -34 -38 75 -22 0 24 -9 25 -3 -78 -50 -8 -62 -18 -3 -5 -24 -28 -1 -20 -38 -15 -83 -51 41 12 15 54 4 35 1 55 -13 -23 -39 24 -43 3 9 -24 32 -4 -34 3 6 5 10 2 -15 8 -63 -7 56 36 -3 36 -35 33 -3 -41 32 -24 0 23 -22 12 -25 1 -49 7 14 -23 -26 -24 -35 -57 19 6 -13 -10 53 71 13 -13 -17 -40 -4 11 47 -2 -4 -27 -26 16 6 -19 1 -32 8 -37 -15 21 1 35 -29 16 45 -15 27 15 -15 -32 37 -73 32 49 2 46 13 -10 9 59 -22 -28 40 -13 0 -10 -38 2 -17 -45 42 59 2 51 5 47 -7 8 1 -13 22 18 38 22 -21 -6 31 -25 -16 16 -33 41 34 11 -19 18 -2 10 -30 -14 54 -32 -49 -59 -2 3 -15 -10 1 20 -68 2 -42 3 -19 -2 -91 35 -5 13 -1 -26 -13 -11 -19 -18 44 -14 18 18 -6 -21 42 -33 -6 9 46 17 35 3 -2 -6 -41 31 -55 18 39 37 -8 -17 -62 -20 -14 10 22 43 3 -38 4 -32 -50 -20 -21 60 -27 -21 2 -4 -11 12 -12 -54 24 -20 27 -7 -5 29 0 15 43 -14 -52 -36 -1 27 -62 -42 -67 10 0 -15 -55 10 10 46 14 2 -1 47 4 5 -10 -4 10 -2 -32 33 5 8 -2 51 15 10 -1 2 -51 -18 19 21 -7 -14 -27 9 12 -37 -4 -8 -58 4 -49 29 -32 7 33 23 -17 -1 -24 -44 7 56 31 32 -40 -9 -25 6 18 5 -18 6 2 -27 -38 45 -30 1 -1 21 -28 -2 22 3 -6 23 17 1 27 -6 5 5 8 6 -7 17 22 -23 36 -1 -33 -5 -27 -35 -27 6 -21 -25 -20 -56 -18 5 3 -32 -15 -50 45 -9 -1 -18 0 11 -18 -26 -14 -9 -33 6 27 0 101 12 -66 -28 51 -63 -25 -29 19 4 -49 -13 5 -32 25 -26 5 28 -65 -40 -1 -36 -19 15 -38 36 -18 -10 14 -30 4 -22 -2 18 -1 -12 35 39 -7 50 25 22 9 3 1 16 -19 -61 0 -26 2 20 -25 -64 -49 -27 -19 51 37 7 -33 -30 -9 39 -15 1 8 -14 -60 -5 15 7 -24 18 -42 34 5 -63 -32 11 -17 19 13 -13 4 -10 25 -13 22 -40 43 -19 46 -11 -30 29 34 76 3 -27 16 -27 39 -46 38 -17 -12 -3 14 -5 16 -23 27 -1 -9 -34 -2 -23 -2 1 21 -21 33 27 -21 -13 -3 -82 41 16 -3 14 -29 -2 19 33 6 -22 4 -21 34 12 -17 42 -5 -12 10 33 23 7 -28 -4 -9 -9 2 11 47 -23 2 -25 -127 -11 14 -1 20 1 -7 22 12 -9 -6 -46 9 5 -50 11 -41 -38 8
-81 -34 47 -49 4 23 54 -23 16 26 -22 17 -4 -5 -1 -33 3 -56 -36 -15 -1 -46 57 -8 19 -60 -32 -62 8 -18 109 -17 8 22 24 -8 -22 36 9 19 3 -32 11 44 -26 -22 -9 -2 -84 -18 -20 43 -4 -13 -23 -20 -67 20 -23 39 15 -48 -8 -11 37 17 -7 -11 -99 25 -16 13 8 -29 -7 -2 -45 53 -118 -35 -26 -14 58 -23 -59 5 -57 30 38 -42 2 13 -31 -11 45 52 -16 40 42 -15 25 -25 -17 11 -31 -9 -12 13 41 61 29 -5 75 41 37 -12 27 -15 -55 7 67 5 15 -71 28 -23 -20 -44 33 13 -47 -53 22 17 3 67 25 26 52 -21 66 0 -11 -8 14 -7 27 -7 -23 -53 -33 -38 -11 -10 -75 -25 24 9 -13 -22 5 11 -39 18 80 -34 -16 -11 28 0 -45 45 36 -42 21 24 47 33 -113 45 25 -17 -25 -7 -1 -34 6 3 17 -4 5 -43 -35 7 -24 20 49 23 -43 28 -3 -32 -4 -6 47 -19 46 -54 -21 100 50 -25 26 47 -8 -11 -10 57 46 -48 20 -43 79 -32 50 -8 -34 108 76 26 56 -40 32 9 -49 20 -6 17 -33 39 -15 32 10 9 4 -12 13 -18 21 5 -8 23 8 -9 -26 -50 -31 7 26 67 -66 -15 26 -45 -4 21 42 51 11 -62 -6 17 -9 -24 20 -1 46 24 20 -24 20 35 0 -37 -45 52 -8 8 2 -5 75 23 -20 -6 -46 -26 18 -41 48 -13 50 25 32 64 70 -31 14 -12 -6 14 -12 -24 -4 -2 11 -23 14 -1 -34 -24 5 -21 40 -76 12 73 5 38 99 24 -11 10 -14 -33 -36 59 -8 -36 11 -31 0 81 -10 -24 -17 23 -36 26 23 22 26 42 -59 -32 1 26 -18 -12 -50 -2 -35 -22 2 20 30 49 25 -25 5 -24 63 -6 -11 -14 -7 -31 22 15 -9 -43 -24 13 31 -50 -15 -10 -10 -10 -35 15 -33 -65 -45 -41 23 12 -94 -18 -26 66 41 -36 14 -40 -30 12 8 -7 -25 -35 5 -16 -36 -27 33 -54 14 19 24 -11 -13 25 37 37 3 59 4 -18 7 10 74 -8 39 5 -12 -30 26 -7 -8 -75 11 -79 -24 10 14 -22 -15 20 -3 -48 5 -9 -92 -8 68 18 -7 -49 -42 -12 20 29 42 9 -33 33 -38 5 43 -47 11 3 3 35 -41 52 21 -38 -9 25 15 52 42 21 4 12 3 10 -64 54 -44 -21 -29 18 -55 36 -75 -34 -6 -62 97 51 24 22 27 -34 -65 50 37 23 -21 32 26 24 29 -74 -2 -53 3 -6 3 29 20 -61 -22 12 66 -10 -20 23 -16 -6 -50 -29 43 -74 38 -59 -48 27 5 -16 39 15 -40 61 18 -9 29 -2 -3 35 19 15 -2 20 18 -59 -51 21 6 14 -45 -1 -33 -3 103 -9 1 -1 -57 -28 10 -16 20 -7 26 -20 -18 -20 -4 15 -27 -2 -102 83 12 10 -2 -36 -15 54 10 -42 -59 -4 7 -22 39 3 -34 56 64 19 -31 5 1 30 -57 3 -33 24 19 -2 -50 9 -127 52 12 36 83 102 59 55 -38 -78 -1 42 27 -38 -26 80 -94 1 -21 80 -10 -17 22 -38 37 30 -86 -5 26 -84 73 46 -7 -37 33 -11 15 -11 18 -20 -19 32 -36 6 24 28 -1 27 28 12 24 0 40 -18 52 -31 18 36 -15 61 -14 -38 -12 10 -84 6 61 12 -3 10 -16 9 -10 -41 39 -8 74 -32 7 -34 -36 -18 -16 19 63 -51 8 48 57 13 34 26 11 23 -4 114 0 38 30 50 -61 -71 4 12 -27 22 -1 20 25 -12 32 12 19 31 -37 -12 -4 0 -13 46 13 60 -24 -5 19 10 20 44 58 51 -20 8 18 34 32 11 -31 16 1 18 8 -52 -25 -32 -8 23 38 49 -25 -1 74 -29
-64 39 39 -10 19 -11 31 -33 57 -16 -6 8 4 16 -28 18 -30 -6 -25 -12 -17 -1 18 -52 3 -7 -16 2 -62 41 10 -11 12 -79 29 -114 -14 -20 -38 23 -37 -37 24 -40 7 -8 47 20 42 32 9 26 -53 17 2 29 24 -5 11 17 20 -41 -33 -27 26 20 -49 -19 -3 1 3 -4 49 -21 -25 -23 -6 3 9 14 15 -6 2 27 -28 19 27 -6 -50 36 7 -21 13 -26 -10 18 0 -37 39 17 -23 28 -19 22 9 -9 -19 21 -25 -48 0 13 -29 -12 -50 -34 21 10 -51 -1 42 0 -14 3 5 3 -49 8 8 125 49 0 1 28 22 -48 -15 -12 -63 33 11 5 -68 36 12 21 -46 16 -8 60 53 -29 -80 1 19 -8 30 -61 -42 -25 -57 14 -38 9 18 24 4 -5 -23 -22 -48 -41 -30 -46 55 -61 -74 -26 77 43 2 -33 -32 -59 -19 25 37 6 20 -55 -80 30 15 32 62 -64 -17 -23 25 -2 45 12 15 126 1 -57 39 4 -3 -18 -5 7 73 32 -11 8 -62 40 12 25 11 39 -2 15 3 2 50 50 9 28 5 18 -55 26 -6 -19 72 -20 25 -109 -13 -12 31 -33 -81 31 25 17 38 12 31 5 -4 47 80 -32 4 36 -61 -28 30 -29 77 -57 38 -9 -4 -60 58 0 52 2 -83 -16 8 -9 -36 -72 -20 36 -50 22 0 -22 46 -51 -3 5 16 -24 59 -7 -56 24 37 -54 -27 18 17 4 26 -31 -47 -34 -47 -55 0 -23 18 -11 -36 38 8 -4 24 0 -37 -21 -10 58 105 -57 35 42 41 0 54 -4 37 2 -48 9 63 40 -7 13 -62 -18 -21 27 -51 -8 -2 78 -62 -10 29 -23 29 -41 45 18 -23 50 15 23 37 -39 -36 -9 -32 -40 41 -18 -13 -25 44 -8 -78 -8 -29 -30 -46 7 18 17 -11 -15 23 -50 -29 3 -105 -11 43 -50 -8 13 12 9 -60 4 51 19 15 -46 45 -23 51 26 41 89 -83 2 -12 1 47 -25 46 -23 -13 -12 2 20 23 -7 32 -28 65 25 -28 -74 20 46 -49 60 -50 113 1 37 -35 36 6 -36 -4 40 54 27 -13 66 63 -26 28 14 -80 76 12 -3 -8 -1 61 -41 27 -19 76 -87 45 9 -12 -26 -17 42 16 30 22 -3 5 38 2 45 -36 43 10 -76 26 15 -84 -8 30 -27 -75 -5 -1 -31 14 12 24 7 33 15 87 -36 -47 -44 -48 92 7 -4 -39 -11 -76 33 0 61 -28 17 3 -23 8 50 24 -14 36 10 69 12 -14 44 48 1 64 20 -22 48 20 -52 16 -2 30 14 -47 84 24 -13 15 -5 -11 13 -69 34 2 21 -4 7 -76 72 -25 -71 9 -10 45 0 2 -70 65 -16 52 74 -21 -33 -41 -33 96 88 1 11 -2 43 -80 -22 1 28 60 -33 50 -5 1 17 10 17 -34 51 -5 -40 -37 -45 -21 16 -2 -88 -56 -42 -51 36 -3 -62 30 9 41 10 4 -10 23 -36 -33 53 -2 -14 2 -1 -18 44 -83 19 -57 -24 22 47 -42 32 -9 -60 -45 37 -51 -28 -40 52 -9 -63 54 -20 73 -51 -27 -25 -27 2 35 -36 8 -1 -12 18 5 -4 -29 -49 -87 55 12 9 -20 40 -16 11 34 5 -58 -24 32 -36 -44 3 47 1 -23 -10 9 34 -26 -55 20 14 20 -2 35 -13 -19 39 10 -65 5 34 -3 82 112 16 43 8 34 -36 9 19 35 -4 22 -12 33 16 -21 -71 -26 -12 -17 4 7 8 -45 32 16 38 -15 -36 94 -27 -7 -41 -9 -7 34 -10 -42 50 -6 19 -45 49 7 32 -6 -11 -3 16 52 -22 2 -7 43 -7 -46 -44 -11 40 62 -45 6 -47 -14 -43 43 -30 4 1 -26 73 21 -22 14 7 -20 -28 4 -43 10 -25 -26 21
-52 -4 14 -28 30 -29 -46 49 23 48 9 46 0 11 -18 29 -14 -3 20 121 -2 -29 -28 -40 -12 48 -42 -32 10 1 -47 -31 0 30 -8 1 17 5 -42 -27 20 -6 -25 -47 30 20 67 -22 -66 -34 20 -10 -19 -79 7 -5 -26 33 17 -11 -24 56 -45 41 -6 -5 -19 3 23 -28 0 10 20 2 -57 -29 9 99 -25 -7 22 14 44 -24 67 -10 24 28 -54 8 43 -18 16 -41 18 -1 3 36 6 -15 64 -14 60 8 36 26 -8 -11 -45 63 126 49 6 -12 48 -13 22 60 7 22 22 3 -57 -8 -11 8 24 38 24 -7 97 -15 -75 -21 14 16 5 -54 37 -16 51 -16 -14 17 20 -49 24 1 47 -36 -65 4 16 13 -29 34 15 6 -26 4 -27 18 10 -46 -20 20 3 33 -16 -8 -32 28 -13 4 19 22 10 39 -8 -16 4 -2 21 24 -53 30 4 -12 -1 -53 -18 89 38 23 -3 -16 -65 0 -9 1 63 -65 34 -14 -7 -52 -18 -26 29 -67 60 52 -32 3 9 -36 -2 -70 -48 78 54 -26 23 38 -37 26 40 -21 -30 4 -3 2 -13 12 -34 8 35 -33 6 7 37 -29 6 20 -81 -28 -41 -15 23 -26 -36 -45 35 24 19 -31 49 -41 -45 -80 -3 17 -26 -36 -9 10 -45 10 12 -14 44 69 55 -37 -21 -43 15 -18 10 11 44 -63 61 92 5 -27 15 -39 -47 -48 10 -2 45 55 -53 -48 42 20 16 61 16 -7 -33 59 -5 21 29 -16 -8 28 83 22 56 -7 2 47 33 6 38 -101 43 -36 -12 -78 -50 44 19 -41 -28 3 -31 -3 -13 15 -2 34 -30 44 31 90 56 -74 -8 59 -10 66 -18 24 37 -11 -9 -84 38 52 19 31 66 -11 -7 -11 -25 22 -23 38 8 -10 0 16 1 32 7 -20 46 -6 -23 11 45 47 -51 -59 -2 5 14 27 -20 -8 -67 -20 1 10 -19 40 16 1 29 -23 36 -26 48 -13 23 -3 27 -7 19 18 45 5 34 26 7 72 -10 24 11 -4 24 20 25 16 -14 48 -9 42 -13 -99 6 56 -21 70 11 -24 -32 -7 -54 19 -48 -54 39 -7 12 -63 43 -36 -19 51 11 -37 -55 26 -4 -81 38 -10 -40 -25 -35 16 37 27 -17 -36 -22 -46 -7 -24 67 -60 -31 -11 32 14 27 6 -36 26 82 50 93 -5 -50 35 35 17 -27 -50 16 -1 23 24 -6 19 2 23 5 78 -47 51 -7 -12 -22 -6 -31 16 53 -13 -13 -28 -15 -79 4 -5 -27 35 67 54 12 53 1 17 16 -49 -41 -6 7 -3 0 -8 -41 -5 -47 -20 84 -48 -39 -22 4 -19 -43 -28 8 21 70 -18 66 -31 -41 -92 1 -24 30 112 42 36 51 12 -2 -13 22 1 -10 44 -14 22 -20 77 -9 91 -28 12 -60 -17 -45 16 -19 -9 30 39 48 -13 -11 2 -27 32 19 -38 23 7 3 18 -17 30 -26 14 -16 -18 10 -28 37 28 -27 -16 14 2 37 33 -86 71 10 -64 74 -13 -15 16 50 -54 -53 -1 49 -35 -21 45 -43 16 -48 -29 -69 -32 10 58 -25 67 -50 -43 -19 -45 21 -32 56 -69 30 10 4 38 -68 21 10 -54 -25 -70 -9 45 -47 -32 -8 32 -7 -31 -41 -43 -80 31 -17 29 -22 -24 -11 22 -67 10 58 8 25 -5 14 -43 22 32 38 17 11 -15 -12 3 48 47 1 -15 -16 -2 19 14 51 -30 51 16 -16 -4 -5 0 -45 13 26 -19 4 -26 -20 13 31 -5 1 -8 12 15 -11 84 4 35 7 -14 -15 6 50 0 47 12 -4 16 29 -32 -20 71 -19 -20 -1 -24 -54 -4 3 -5 41 64 -7 36 -9 -12 -27 -62 11 -74 -50 61 -13 -65 -22 21 52 3 -1 -1 24 -39 -34 -53 50 48 34 21
-16 33 -2 -58 -37 0 6 -27 65 -16 -24 14 23 5 -27 23 13 -20 -44 18 -30 25 -41 0 -22 21 -64 33 -39 8 53 17 57 -26 -45 -77 -20 -40 -19 -5 6 3 -17 18 -4 -17 -37 18 -31 24 -32 101 -38 -17 -69 -23 43 24 47 -4 83 36 1 -2 18 29 2 -35 68 1 11 -29 -6 -7 68 8 11 12 23 30 2 -3 -8 -46 -26 9 -16 -41 -19 27 37 -21 41 -47 18 -22 8 21 19 16 -32 22 10 24 2 15 -41 -13 60 -84 8 18 7 6 8 -9 26 7 23 -1 -45 -23 19 -47 -23 8 -14 52 -85 16 16 -57 30 38 -7 -9 -8 -19 -20 47 34 56 28 -81 -8 -3 -68 20 -30 -3 -1 8 -82 46 -19 -6 -5 20 -3 -52 126 -3 12 21 -38 21 16 16 -14 14 -61 37 78 1 0 29 17 -36 -25 -14 -4 8 -22 29 38 5 -16 42 36 54 -24 45 -17 -1 -32 6 -8 24 -8 7 18 -34 21 12 -10 36 49 7 -14 -18 68 14 -69 -22 -17 -24 4 -24 -14 -18 9 67 -19 56 -22 -36 -9 4 -41 21 26 -33 -27 -7 -12 26 34 27 22 23 -49 -22 -33 -13 22 -6 -62 -34 -20 -3 46 -21 -60 -11 11 -61 -21 39 43 -3 -37 -39 47 -25 -50 -12 7 48 47 -18 -5 -15 -1 -13 -4 34 -46 4 8 -10 -11 8 13 -21 48 24 29 24 57 41 17 38 21 -15 60 -44 24 -32 3 -28 14 -12 43 -3 -17 -51 17 21 -13 -22 -70 -13 -50 25 -15 7 28 15 -30 32 34 68 63 -70 7 -22 -1 40 20 35 23 26 98 -5 -45 46 13 -2 -38 0 -52 6 -5 -107 -14 11 34 -26 22 3 101 6 -9 -17 -14 -3 -57 -29 -21 -22 -18 30 60 -57 17 -16 24 29 -22 -9 -10 46 67 -55 -42 18 7 -31 41 47 -16 33 -38 -65 -7 22 0 32 34 -6 -48 -44 16 -38 -34 -4 5 2 6 -15 -53 -52 9 -6 -45 -21 -6 2 -2 -6 34 -42 -2 -25 16 21 -30 2 -13 35 -55 0 -38 -19 -7 35 -3 3 4 41 18 36 -14 -2 7 -29 -31 30 -26 -20 -9 32 13 27 -8 -45 -52 -21 3 -56 59 -37 -40 -1 9 -56 -55 -37 14 -39 -30 31 -55 31 20 3 -25 79 -21 -49 -3 -11 73 27 4 -41 -10 7 -17 24 31 53 11 -22 18 4 1 4 -24 -65 -20 -26 -19 -41 13 -91 32 12 -10 23 -22 -33 5 59 3 32 -19 37 -64 40 57 13 2 10 -50 17 26 -22 6 15 19 27 -15 30 38 28 23 42 53 7 -3 -47 37 -63 12 4 -4 30 -21 0 19 -10 -22 11 5 84 2 0 -19 11 -52 -12 -30 13 10 -19 9 3 7 -64 38 -24 39 -11 -24 -16 26 10 20 -5 -9 -40 -26 28 -12 -32 -38 27 1 24 39 46 3 -10 32 11 35 -31 6 4 -48 12 5 -77 -33 -1 -62 34 -40 23 24 -43 86 12 -19 -69 13 -19 56 6 40 -74 -5 15 -3 41 48 28 -11 10 2 -23 -23 -28 22 79 9 -28 1 2 -20 -39 -73 -26 48 -10 -82 22 23 -79 -38 -15 16 -9 13 8 27 25 -52 -56 -18 17 -29 45 41 -33 10 -47 -22 8 10 10 -19 -17 2 23 -12 -57 47 44 -5 -29 9 -29 2 -38 4 32 -7 -86 -36 -8 -34 -9 33 -45 10 -63 -15 0 -12 73 -10 -32 24 3 19 41 -49 -9 17 -13 24 12 -24 40 -20 16 -35 8 26 -27 16 28 -23 18 -49 -20 -26 43 2 -7 -24 -17 -8 -35 5 -27 9 23 5 31 -37 -1 -8 34 24 -22 -4 14 -10 31 -5 -34 50 6 -5 5 7 -19 -21 -58 -47 -63 -6 -1 6 12 8 -22 -36 -8 1 33 -29 6 -22 56
-49 -41 -28 30 -13 -33 7 12 -43 57 -40 3 -35 -46 -19 -15 38 4 -75 -8 20 -35 -2 -28 24 67 -36 0 -12 -16 -17 -35 10 30 -13 52 -59 23 -29 5 -22 -24 1 -12 -46 -55 9 -24 -10 -50 33 37 -47 48 0 -3 -59 -8 31 9 -47 46 -2 -10 12 -63 -45 -27 4 -30 -22 5 2 2 -14 -14 23 -23 -9 0 -19 7 20 -27 3 -32 17 -8 -6 8 -17 -10 54 -20 -29 -45 -6 -18 -37 29 26 -49 -11 -18 -28 -14 -13 -34 13 24 121 -15 -31 9 61 -3 -20 -6 13 15 -44 12 7 -18 -46 0 -22 -10 -31 67 40 -54 5 18 15 29 29 -12 6 14 1 20 -16 -48 -48 -19 -24 13 -20 16 -20 -26 57 -32 -1 24 -29 -24 -8 31 -4 8 -24 11 30 -38 52 -57 -30 -18 14 16 19 -8 -16 -20 -8 -45 -43 59 -15 -25 -5 -23 18 -22 23 32 7 -34 -3 5 81 44 2 19 8 -27 32 35 -21 52 29 -2 18 -22 -22 16 21 27 65 -6 12 -16 -11 -23 28 30 -4 -49 46 -16 -3 -42 31 -19 -8 -12 -38 -8 -9 -40 -3 -17 -23 27 -13 -56 -37 52 -1 56 -9 -12 -12 37 -19 -30 43 24 22 -25 -68 8 7 -31 55 33 -2 -47 62 -1 -2 43 1 21 10 3 34 23 -26 37 64 8 -1 -4 -55 68 -10 -110 2 6 -3 0 26 13 -60 -27 51 -34 -54 27 -2 0 -66 -21 -14 33 37 4 -30 -27 -1 32 -39 11 -48 -42 9 -2 0 38 51 31 21 26 -16 16 -47 -64 25 -68 7 11 -25 -27 7 -2 3 -46 -26 -4 -70 -29 -46 -17 -35 -37 21 -40 -38 -26 -8 -61 -4 18 17 5 2 -6 19 -26 13 -1 53 -32 19 -18 -34 5 -19 -5 -34 -22 -59 4 0 37 -102 34 -40 35 -22 -1 2 -23 4 23 -19 73 36 -70 14 34 -51 20 43 38 -46 -31 1 -11 58 56 31 14 24 31 7 34 35 -17 109 1 -23 -19 1 -15 30 12 1 -46 -36 -21 11 -36 54 -18 7 -28 34 64 12 -1 -3 8 18 -40 -7 40 6 -17 -2 -50 -41 -34 -20 -34 -48 -38 22 -32 -43 -31 -10 20 -75 -20 -12 -4 4 23 -21 4 -8 3 35 -36 -4 -36 11 -21 32 -3 10 -2 -2 21 -3 7 41 30 -63 4 -35 3 28 18 -14 26 -41 36 2 49 36 -42 -3 -27 -8 6 -56 27 -8 9 -8 -21 126 14 -29 -10 -11 -31 -39 12 35 23 -19 19 54 24 -39 50 -16 -19 -64 -3 -21 8 5 20 -62 -8 14 34 77 5 -22 -33 -60 -6 -18 34 -27 -24 -18 -38 -78 -14 46 -8 -9 -1 -36 -12 52 4 -18 13 10 -23 -73 66 35 -43 -46 -4 -7 -15 34 -33 2 20 -96 12 28 -22 -60 43 -28 47 13 -47 45 18 -87 39 -13 -8 -1 6 -5 -13 -33 17 -36 23 22 -52 -18 -41 4 -74 8 -5 -1 -32 -32 6 17 62 18 38 94 27 10 -10 33 46 28 13 -19 0 -28 -37 -7 -22 14 13 -42 -19 10 13 3 -28 17 46 -25 17 4 2 -12 96 -34 -28 -19 -3 22 3 -26 31 -40 32 57 -37 -52 32 9 14 26 -33 -6 -44 27 -12 19 0 13 35 6 -54 -13 12 17 18 -15 -20 -36 5 43 -6 -30 3 12 35 6 -20 -18 10 -40 67 20 -14 -10 -42 -22 -35 37 -24 -10 20 14 31 -59 14 -24 -8 -1 18 20 81 87 19 -31 71 -39 20 97 22 -19 28 52 91 4 2 14 58 -37 8 18 22 -11 -32 -4 -12 13 -32 -16 31 16 -33 33 -35 -7 -9 -50 7 12 8 -14 -54 -4 -19 -39 81 -27 12 5 -25 -50 18 21 -27 -21 36 23 -21 -43 49 -53 14 -71 63 -4 -31 26 9 8 12
-15 23 -87 -8 -18 -22 30 40 -35 3 4 -4 -39 8 -9 21 5 -41 -3 1 -27 -28 -6 -32 -15 -16 -5 36 -10 -36 -15 -22 -97 -12 4 48 10 6 0 2 -42 -55 -24 50 -18 54 1 -13 42 54 40 -5 34 40 -5 -10 8 -16 10 28 -2 51 52 -26 27 -13 21 -6 75 21 -6 6 62 6 20 -26 5 -2 64 31 -1 34 42 25 27 1 28 -1 -8 -4 8 -50 -60 45 45 30 37 -25 -80 81 -1 -68 15 -39 -12 -38 -75 -1 21 51 1 -29 8 42 36 19 61 -18 -53 -20 -11 -41 -1 3 -47 27 49 8 32 55 11 5 -14 12 -57 36 -44 19 39 13 37 33 -12 -33 -27 33 -56 -14 -20 6 -3 30 10 -32 29 -5 -36 -57 -25 7 -32 19 -51 -24 -67 34 2 -20 -18 14 -40 -29 -7 -51 5 -43 -70 9 61 -38 6 -8 34 -18 20 9 26 21 43 -43 -62 37 -25 -7 5 -17 25 -77 -56 -18 6 -18 -16 28 33 83 5 -44 -15 -56 -48 21 8 25 -6 -2 48 -9 -16 -18 -14 -12 -31 -23 18 -5 -7 29 -18 45 5 20 -63 -66 44 -11 -43 11 -33 55 17 43 -11 -4 -45 0 58 -37 18 9 -29 16 -33 -37 -31 -62 33 58 18 16 29 -41 52 -39 25 25 9 -18 30 97 -51 4 -14 3 -15 -18 -36 59 -19 -19 -13 33 -25 -25 -3 -10 74 -11 -72 10 -11 -23 33 19 -21 11 -42 -7 36 52 -61 25 6 25 31 -86 -14 21 -5 -53 56 41 62 -13 -5 5 56 77 -1 -15 -54 30 -41 6 -45 -4 25 -39 -15 -32 21 -17 -14 -34 -44 -4 -42 1 -23 -14 -4 -3 26 -39 -10 12 2 -8 49 18 -31 35 24 18 -17 -50 24 -14 46 49 41 51 -25 -20 -14 58 13 12 -33 89 44 -13 16 -1 5 37 -2 38 22 70 -40 -42 9 67 49 3 -10 26 -9 34 11 -33 42 83 74 28 57 40 35 -8 -4 -13 27 33 -85 20 33 -2 -47 28 -76 -35 -6 24 -47 7 12 2 -45 -24 37 -59 -8 -10 -44 19 16 -3 14 -9 -64 26 -11 1 -3 21 -18 24 28 47 -22 34 -34 -4 51 10 27 12 -21 -16 -29 -10 3 25 19 21 24 34 0 -12 -37 -56 22 -12 32 19 -44 -9 -37 -104 -32 30 23 5 11 78 55 -11 -26 -23 87 -42 1 72 21 1 -7 80 -3 -32 -32 -15 4 5 31 -8 -7 61 -70 -37 40 -68 -29 1 39 39 10 28 -34 -77 126 33 2 -81 35 -30 3 -28 -2 16 33 41 9 23 2 -52 -22 -16 -22 -30 -10 57 -27 4 23 9 -31 44 9 -36 12 39 -18 27 -102 13 -15 31 -29 -34 -15 12 -29 29 47 -28 -8 -4 -37 0 -55 -26 43 -20 -31 37 -4 -4 30 -21 -26 -46 -11 -3 -60 20 9 28 10 -14 9 -13 8 38 15 -54 -4 -71 -5 -34 50 37 0 -66 23 25 84 -21 11 -4 10 -31 21 20 -2 -74 -21 -7 -10 -3 -3 62 68 -44 -6 20 38 94 -24 -62 70 -1 -17 13 -36 -34 4 -60 -28 -45 -32 47 43 67 13 -26 19 -21 -16 67 80 -2 -4 -39 36 -29 -4 0 35 17 26 4 13 16 -3 -18 4 -73 24 13 23 6 29 -22 38 -8 -54 56 42 33 4 -38 7 44 -12 -63 -16 -7 2 62 -52 20 -2 -9 9 65 -36 23 4 12 13 15 13 9 11 -65 43 56 24 16 71 -6 -32 36 -16 -16 -52 -54 -12 -1 24 -103 -5 9 29 -2 12 -98 26 3 -11 35 -44 41 7 34 24 -4 -9 -28 33 0 -23 35 -12 9 -76 -2 11 28 6 18 -32 -9 -58 32 -64 28 -45 -12 -35 13 -38 -24 3 25 -18 -71 -1 5 27 1 -21 22 48 36 -17 -25
9 51 110 17 34 37 -69 -26 10 3 -24 -4 -8 22 27 -2 73 24 -82 38 -104 25 50 7 -32 22 -5 41 44 44 -1 -11 40 -42 -42 119 22 9 4 43 30 32 -34 8 24 48 -16 62 -66 -26 -20 -30 -60 -39 49 -8 -47 -36 -50 22 -42 3 -50 42 9 -11 81 60 -27 22 21 -30 83 10 -4 -14 51 5 -56 -71 45 -38 -25 -35 -35 -38 -29 -20 17 -33 -6 -14 -29 -6 43 -5 35 61 126 -57 2 -12 -4 20 37 -11 4 5 83 -12 6 42 -44 11 -9 -2 24 -17 60 -61 -2 4 5 8 -7 28 -3 -16 40 51 114 12 -6 21 8 -40 56 6 -38 -10 -17 2 -61 -4 -29 36 -41 30 -7 -7 3 34 -22 9 -8 11 -11 23 -7 21 5 11 -4 92 22 33 36 53 65 41 -20 -49 31 -86 61 -106 48 -6 50 16 7 0 8 6 49 13 11 -13 -30 -9 -48 -51 97 -30 -29 28 70 29 33 -16 79 -15 22 -111 19 55 -20 -28 -44 71 30 23 51 8 4 18 -29 -10 15 -102 -40 -40 -36 -69 32 -24 79 -31 38 31 -57 22 41 9 -24 -17 8 -2 34 4 22 40 7 -30 -35 14 -101 12 -20 -33 -27 -56 4 -37 -1 45 -13 -33 -29 23 -61 -78 33 -48 28 15 32 69 2 5 41 20 -29 -6 -20 -8 22 48 -17 48 60 25 32 -49 44 -8 37 -8 -57 -96 24 34 3 56 28 -15 32 -43 4 70 -8 -53 12 -51 64 -20 -7 70 -61 -11 15 -27 93 30 27 -20 -6 -54 18 11 8 53 21 50 -31 -59 -36 46 40 -55 -16 -28 22 13 -24 1 -7 80 35 -36 3 57 64 -43 25 -22 -6 56 20 8 -5 30 -31 24 -16 -29 -53 9 -38 -32 19 0 52 6 22 -77 50 18 -51 -9 9 -54 -14 -38 -10 47 1 22 -24 18 -100 -62 25 117 -35 -30 28 -3 64 -87 24 -59 14 -47 8 9 -30 -1 19 -67 -38 -15 -4 117 -12 -44 1 -12 -16 -12 1 -37 81 22 6 -25 64 15 -5 -6 -59 -45 -62 20 15 -7 58 23 -32 5 -83 -28 -13 -31 37 -63 49 -8 28 35 -63 -20 -31 -30 6 31 -60 -19 13 6 7 -44 -57 31 0 -94 0 77 -17 -102 -54 80 19 -12 -12 18 -50 -17 59 1 -6 -3 -77 -21 6 6 -16 68 82 -50 -14 -85 -15 16 32 -23 -38 -4 8 -50 28 -33 2 58 -79 30 -6 22 28 -30 -70 51 41 -28 -59 7 49 40 29 8 22 38 60 -11 56 40 2 7 -18 -20 60 -57 -33 -2 -51 41 -46 42 -18 27 28 -11 13 59 11 -49 5 34 -7 -49 -31 -53 11 -15 94 49 22 77 -24 -14 -7 35 71 83 -9 -42 -35 -9 -25 -2 -16 -27 -13 -58 45 59 91 -1 -5 -41 27 -21 3 -3 59 -29 -39 -14 40 -7 -10 44 -18 -84 41 22 31 37 -6 73 -36 22 -6 -34 -46 22 40 32 8 -43 13 -13 26 -38 8 24 -2 8 43 -47 22 -77 -18 25 54 -15 -56 -13 -80 31 -6 -94 -61 3 -8 38 84 62 13 28 25 -28 -61 56 -18 46 -77 -9 -11 77 90 -33 55 17 -113 -17 -5 -4 54 -21 18 107 56 7 68 18 11 -16 20 -35 5 13 -12 24 -28 -69 24 36 47 -3 -19 -26 8 49 48 -61 19 -15 19 -51 2 -59 94 -56 -58 -5 -14 -7 50 28 -19 -22 5 0 27 -8 -52 -48 3 -5 17 -109 28 4 31 3 0 37 64 -38 -18 -1 -16 1 -21 -6 -18 -2 33 12 -2 -30 -14 40 -24 0 53 7 19 76 -7 -50 2 27 -4 25 0 -5 -15 -14 -43 9 24 -26 6 -19 14 -16 -23 -2 3 -23 16 41 -62 50 -16 7 9 -33 -41 -49 8 43 -26 4 -10 20
49 -105 27 -7 -29 -16 40 -9 15 26 -30 9 13 -21 -12 -16 3 -23 -36 33 17 -39 82 -58 28 -31 22 39 29 -49 0 -15 -36 -56 22 30 0 10 -52 38 11 16 30 75 -19 -6 40 -17 113 -24 1 -2 -14 41 -17 14 -14 -52 -37 -21 -23 -30 -24 26 7 -20 12 -21 -22 -25 79 -26 -11 -15 -22 -4 -23 25 -54 8 -45 28 -27 32 -35 7 -56 -27 -31 23 32 37 7 -19 77 -8 -47 28 -63 -2 17 -58 -23 6 -2 -3 -19 -36 31 72 -28 31 50 -29 64 -1 -38 27 -87 -26 -46 -70 -50 3 29 26 54 20 23 59 -31 2 37 21 -104 -107 21 -38 28 38 12 19 38 31 -42 -24 15 23 -71 -36 69 -30 66 10 -37 -9 -16 13 -19 -22 -5 25 -12 7 -23 55 -19 39 -37 10 1 -36 11 43 -8 -13 22 44 -65 65 1 -127 15 5 -57 -34 -44 -19 -19 32 4 -2 -13 -27 15 2 -42 39 -27 -8 1 10 -27 -40 39 32 -29 47 12 4 10 -24 -51 34 -9 27 14 16 39 -4 -36 30 -13 -23 6 -4 2 -34 -49 3 64 -43 1 -15 33 -39 -1 -45 13 36 25 10 -32 -17 16 3 -41 -22 -33 -24 24 -1 -27 46 -46 4 -60 -6 48 10 37 -66 24 -19 -19 21 49 1 -44 9 -11 -38 -14 -1 -8 -35 -24 4 -1 -19 58 10 35 -53 -32 -2 -26 -33 -23 -99 46 38 -13 7 16 -81 25 -19 -29 -61 2 -12 20 -27 9 36 -48 11 -23 -58 23 -40 -56 -38 -49 -6 -12 51 -55 -34 -55 -87 33 13 19 -98 9 35 -8 91 10 25 -45 -7 -48 21 -40 31 14 -79 -56 32 -10 -47 -33 -17 -17 -29 -25 -56 76 -36 -47 26 -5 57 -30 -10 9 -6 -35 56 -20 0 20 -21 19 14 -25 0 -80 23 14 0 27 50 36 -47 21 56 -32 12 -8 0 -55 16 59 -20 -49 -8 16 -33 -23 -23 -58 -18 -53 -18 2 -10 -18 17 8 -29 -28 -17 1 7 28 1 11 -22 -103 19 45 -85 -46 -15 6 -24 31 -59 0 20 -21 -14 -24 6 13 26 36 8 -46 7 -11 -22 1 23 -2 -91 26 -10 -27 -12 24 39 -52 -115 -8 -37 -89 40 28 -31 1 -67 16 14 -31 10 28 20 -12 -5 -19 -43 -6 -47 -28 -93 -21 -46 -3 -7 -8 -48 79 -15 -46 0 -20 -20 -30 -38 -59 -38 -19 -61 77 111 43 13 -18 50 -5 21 0 9 -33 -6 -28 6 15 47 10 8 87 -28 -50 30 -24 -16 11 -4 -12 -25 14 13 24 13 -5 -16 39 4 -25 -31 -19 26 34 -22 45 -22 -54 29 38 10 -6 57 -25 21 21 -45 -22 61 -10 -10 -18 -42 -52 -51 -50 9 -3 65 76 -26 9 -44 18 -37 70 10 28 2 -43 -16 22 58 67 -32 60 37 -43 -29 -43 13 -68 -32 -24 -6 -54 -33 19 14 -18 10 32 -55 -5 19 40 30 -6 51 -8 2 -17 -18 -55 45 -25 26 -6 -38 1 11 11 13 7 -8 -14 -1 3 31 -12 31 28 -65 30 35 -85 -25 74 7 -32 15 0 2 -37 -24 -30 13 13 54 -31 3 -26 -49 19 5 13 15 -5 2 -15 9 4 -9 -14 39 -3 -16 37 4 -8 -56 -45 9 -45 6 81 24 8 17 -18 -11 -15 -75 32 42 52 13 -5 -10 50 14 32 49 19 42 55 -19 4 0 17 24 37 -38 80 -53 -42 5 20 -34 4 -26 -8 -24 48 21 34 25 -28 6 5 29 60 -43 32 3 18 69 -69 -20 35 4 -32 2 -32 -14 3 -23 11 -45 -21 75 46 -27 27 -31 12 -15 -56 -15 -9 31 -64 -73 38 36 -18 7 -43 3 22 -15 -22 -29 -40 -74 -14 27 -39 49 30 42 -55 33 -53 -19 16 49 44 -28 13 34 53 -23
-5 0 -40 -5 -5 2 55 35 -53 -43 -53 27 -26 -4 4 -19 11 -75 -26 -8 38 10 33 -55 -22 0 3 25 -7 9 11 14 49 10 18 -52 -35 38 -8 9 -26 43 -56 73 -44 28 -18 26 106 24 -34 65 -26 30 -22 36 -5 -12 5 14 -6 -15 -5 23 -31 0 51 24 -27 -36 13 -44 -10 47 -37 68 -29 40 44 -19 13 29 -93 -16 17 22 -55 -31 18 28 -13 -21 64 -46 -33 14 -20 -82 -10 -53 -22 1 62 51 -5 2 -16 13 -48 -32 -55 -32 -7 26 33 -31 17 30 8 33 6 -6 49 29 -53 24 56 28 -20 2 32 -5 -7 26 28 -54 -4 0 -92 5 14 41 10 -16 -17 8 -6 29 30 12 -35 32 -10 33 21 -5 -27 -53 -19 -2 -11 2 29 126 -3 25 -62 13 20 -2 -40 25 9 36 -29 -54 15 -34 -29 -15 11 -30 43 -40 -24 14 35 6 -3 20 -20 28 0 3 -15 4 5 41 20 6 -59 -1 10 -76 15 46 33 43 -31 -10 -18 9 60 13 22 -10 -7 -122 -42 110 16 -3 -27 49 30 26 -30 -45 25 -22 -31 26 -3 26 19 39 -17 -1 -11 32 -54 -46 41 -27 23 -18 -10 11 -26 -18 12 34 -24 -9 15 18 30 -22 16 42 8 -16 36 1 -8 13 9 -26 43 -1 -36 7 44 -14 83 -9 86 75 -2 7 -31 45 47 40 31 16 32 -1 35 56 4 30 63 13 -8 -54 65 -16 21 -3 -4 -35 2 59 -69 66 -24 -41 -22 28 -33 -14 -10 -90 5 -2 29 29 53 49 5 -41 11 17 22 -10 4 -2 9 21 38 -9 -19 27 36 31 24 -29 6 -12 9 6 48 11 11 52 5 10 -20 -48 62 -2 8 -45 -29 22 -32 28 21 -4 41 -37 -20 -25 34 19 51 -17 10 18 -13 5 -30 -35 -25 -20 6 -1 -4 -21 2 -55 -5 -37 -46 4 -67 57 7 -24 6 -63 36 4 -44 -11 -13 -30 60 38 13 -6 -24 -36 28 2 15 -16 -7 -18 7 7 11 1 28 23 31 -16 5 -11 -16 32 -12 -46 6 -3 43 -17 19 74 -15 39 -36 -27 -61 -11 -44 99 30 15 2 19 -47 74 52 70 1 35 27 -15 -54 -20 -20 14 22 45 -3 60 -32 24 16 11 40 -28 -35 -74 -34 75 27 0 -2 -51 31 8 -69 -1 63 81 22 50 3 -53 1 34 10 35 45 11 24 30 2 -27 -29 -38 50 16 42 -4 -12 104 -5 49 49 63 -24 15 -4 -5 22 -59 -22 3 20 34 0 7 4 0 -44 -18 -16 0 38 19 -16 -45 8 -10 -41 -25 49 71 -6 17 -4 58 -30 45 -82 15 4 9 23 37 -30 -19 14 19 -22 16 1 89 0 3 -44 9 44 -10 10 25 1 8 -61 -8 9 -27 -55 -1 23 -19 -111 27 -25 20 7 13 12 3 72 13 -33 -6 36 1 27 -6 42 -15 17 14 -56 14 73 8 5 49 42 -107 -13 12 -24 22 -12 -20 20 -18 -51 -5 18 17 41 -29 -27 -57 -9 70 -23 -20 -34 19 -6 -20 109 53 -27 28 70 15 28 27 -22 -74 17 -3 -25 2 3 38 -24 29 61 -11 -65 -8 73 -18 -6 -11 10 81 18 13 -11 -3 28 31 22 55 33 22 28 -9 63 20 -58 14 46 -49 8 11 -35 19 4 -62 33 29 -32 -31 -46 3 39 -58 -47 12 -2 1 -2 -37 -45 -12 68 -21 -2 25 43 11 -51 28 -7 19 -45 3 -13 39 10 55 13 7 -26 -54 1 44 40 -4 26 -17 19 -2 -20 10 -3 -11 37 -16 19 -2 37 29 2 5 56 -44 -16 12 -8 8 16 -21 27 1 31 16 -3 -35 8 7 22 3 -10 61 25 45 -8 -63 -17 3 8 14 16 -12 -43 -38 39 0 51 -3 41 27
-26 -18 -18 -24 -1 24 -12 12 -54 -5 25 -19 4 -47 -32 9 -15 26 -54 9 39 -25 12 2 4 37 -23 19 -26 9 -17 72 9 -42 -21 109 19 37 -16 11 -8 16 -19 -25 -33 -29 15 -9 14 28 55 36 34 52 -11 -38 37 19 0 93 -19 -29 -34 -57 100 -43 -33 -23 -9 -5 4 4 29 -5 -21 0 -16 -15 -15 32 -24 42 14 11 -45 28 32 2 29 14 37 56 -68 -19 13 18 32 -19 2 56 13 -43 39 -43 -75 13 -6 -38 -36 -13 6 7 14 40 15 48 -42 -25 95 -16 4 41 1 -6 -24 15 -15 -62 -17 -1 8 -28 16 -36 -15 84 10 67 10 -35 24 -54 24 21 7 -64 19 3 20 -16 -50 -14 -19 6 2 -35 52 -40 -17 -28 11 -17 18 -1 -19 13 12 25 31 37 -2 0 58 -73 41 67 -31 -45 42 -39 2 -43 -15 28 3 -1 39 21 2 -64 18 18 17 -17 -45 45 19 20 -24 -8 73 -23 41 24 -31 99 24 13 -3 -1 -77 24 -50 -21 -3 -38 46 -21 12 17 -30 -69 24 -80 -15 -12 30 -88 -35 -10 3 -50 -34 4 -6 36 21 -68 19 45 -50 30 -31 -19 -39 -18 -41 18 -25 -6 -8 11 -61 -11 -2 -28 -25 -88 25 7 -7 23 22 20 26 -12 40 -22 -19 -31 -22 9 12 -32 -15 52 -42 88 29 17 27 -23 -18 41 40 -14 38 1 -21 -28 6 -2 9 -23 6 16 -26 26 -26 -51 -10 -41 34 -42 24 2 0 -9 -59 19 -14 40 21 91 -1 -28 2 -39 -16 6 4 -73 39 -24 15 -10 -16 -8 -13 22 25 16 -34 -45 -18 -10 -20 -37 -16 13 17 36 -14 46 -32 23 -25 -28 19 7 -3 19 1 20 13 -41 -14 6 -6 -28 24 1 -25 33 4 -7 29 9 -41 28 57 -25 27 0 22 -11 -15 3 -16 50 35 57 13 -1 18 -11 -11 27 5 -4 -20 3 30 31 -24 78 -57 -21 -43 2 -43 -44 30 -1 -11 -16 18 -11 -11 21 51 -32 7 11 11 -37 28 8 -6 28 -50 9 -2 -69 -19 -28 -88 -12 -22 -47 -28 46 -16 8 -7 30 -28 29 90 -57 -24 -12 34 40 42 45 22 20 -1 32 3 -59 3 -15 50 -45 -36 -34 -4 -32 22 84 -13 -62 16 -26 -33 29 -20 2 -12 0 16 17 0 4 59 -34 -43 19 -3 8 2 66 2 42 -3 41 57 3 -127 -11 -37 -67 -38 -23 1 33 20 19 9 34 -78 -14 44 18 -42 -21 -56 56 48 -47 -6 65 -83 50 -34 17 57 -15 -18 21 -28 -11 30 41 -8 28 3 13 -6 -20 36 -9 -22 -3 -61 -63 1 14 -29 -8 -37 43 -46 -7 -22 60 6 37 -30 3 31 -56 -2 68 -15 9 -30 54 10 47 76 35 1 -46 98 43 0 -38 -11 -29 61 -15 -12 -35 -52 -22 22 -8 -7 23 66 -2 -16 -34 -3 -6 -3 40 9 0 31 4 73 -62 26 97 23 -18 -3 14 -45 2 -13 13 -1 48 41 -10 40 -13 -58 -14 12 66 -12 -43 -6 -5 -89 -4 -1 10 35 -4 -45 -17 2 5 0 -20 83 -41 -29 -10 -18 69 55 51 -28 -28 33 13 -96 -88 -1 -50 -59 22 -20 0 -15 -65 18 26 -24 12 10 -22 -11 -12 -11 14 -25 6 25 46 -26 40 34 -39 54 -21 -48 -21 -3 -29 -25 64 20 29 -28 22 6 -49 50 67 21 21 -8 -6 35 12 24 39 -29 -8 33 10 -60 11 -29 1 -42 23 -19 12 38 1 7 76 -6 32 7 33 -3 54 -20 25 2 -71 39 5 -30 -78 37 53 -18 -45 10 -51 11 -22 -78 37 -3 -3 22 -68 49 11 -11 -8 19 34 -19 13 8 -3 31 -5 -15 -42 -12 10 20 19 31 -40 -1 21 27 -15 6 -2 -1 -73
93 -79 -33 -31 -48 8 112 6 -29 8 22 61 4 64 66 -6 -39 -30 55 -34 49 59 7 -30 43 0 30 14 21 1 -37 -24 8 19 -16 42 -32 58 10 -14 54 -16 18 2 -87 9 5 11 -45 -11 -38 8 39 -14 48 28 -27 60 45 -25 3 20 -12 23 -51 -24 54 2 -25 -48 -30 29 12 -13 -101 22 -59 -35 15 -62 -32 -1 -54 -54 28 -15 -46 -58 -17 44 30 39 23 -44 21 41 6 -15 40 -24 40 -21 64 55 10 17 -14 -10 -60 -52 11 -17 -23 69 -41 -35 -61 16 33 30 37 -21 -4 -21 -23 -7 39 40 -49 31 -64 22 12 80 -60 30 -12 1 -29 11 6 -45 -18 2 14 -51 -47 -26 28 -6 -29 26 10 -12 -8 -104 47 -37 41 40 -54 10 -16 -19 -111 41 29 21 2 38 30 -50 -35 82 -48 -19 -25 19 59 -8 -31 22 40 5 -9 13 30 -9 -52 39 -1 38 -48 49 11 9 101 -9 -9 -3 92 -12 21 -104 -53 -34 19 28 -52 57 16 -34 -32 -44 8 30 24 16 -9 -5 1 -14 51 17 52 -14 -48 -27 65 81 4 -23 -20 43 -20 7 50 13 50 -78 -26 -56 28 45 29 18 7 -10 41 -45 -29 -66 29 -49 -25 120 4 47 2 2 -13 3 41 13 -8 -15 30 34 30 16 -31 -5 12 67 58 29 31 15 -17 8 14 100 -5 -39 -25 17 -7 30 2 120 72 41 -22 21 -94 -21 49 2 -22 -22 25 -32 9 20 66 29 7 21 -70 33 1 -37 -17 -74 -34 -34 9 -13 -88 19 -6 14 18 60 13 -11 29 -4 -33 -37 -16 7 -18 29 37 43 -3 44 8 -8 -6 -4 -38 -7 78 56 -50 -17 54 -22 -24 52 -20 -18 -59 -9 -7 -5 42 46 -39 17 -22 59 -31 41 -13 29 50 -36 -65 -1 -23 34 -28 25 39 11 15 44 -20 10 1 -18 -40 -9 -4 5 -15 -25 -60 43 -7 13 -71 -6 48 4 -2 -11 77 46 30 7 -55 -7 -19 39 4 45 -32 -37 -28 36 -13 68 42 31 0 -40 -10 120 -82 52 22 -9 -11 -28 -46 -77 -17 -18 56 -5 -63 -13 -3 -21 -81 -33 1 59 -9 35 -9 -46 -11 4 -8 104 -7 10 48 30 45 22 80 21 35 41 0 -15 -49 -30 85 72 -11 84 -5 -58 15 -21 3 12 -11 84 32 34 -45 3 -17 19 21 29 4 5 -20 -80 12 -20 -33 1 45 -5 -100 33 -45 17 11 -51 19 34 -42 -28 4 83 -100 -61 14 50 -30 13 59 118 -43 13 1 -35 -28 -3 58 -15 9 -30 27 58 -13 34 -42 27 26 -2 -47 14 -126 -83 -30 -58 1 -4 -70 -20 -53 0 40 -79 21 -16 -2 6 50 -8 30 0 71 37 39 63 -82 -77 -34 31 -38 7 23 -30 -51 -22 -48 -11 -15 -23 -13 25 -14 -24 32 7 -28 -18 7 -18 55 -35 -15 21 -9 -12 -4 -63 -27 -8 76 65 34 -11 12 -58 10 2 -14 -28 -61 -17 -24 25 44 39 -39 46 29 -45 -39 -12 97 50 126 -22 19 29 36 -25 7 -33 4 11 50 -27 -44 -8 -93 23 58 20 -39 11 54 7 3 -32 -25 -17 -38 27 20 24 25 21 -95 -23 -16 -66 27 -1 -5 25 3 52 -21 36 -5 -59 23 -12 -9 14 -23 -118 -1 26 25 71 15 -12 -40 32 -2 -20 55 -12 47 -4 13 -22 71 30 -32 -22 -52 -88 -8 -21 -2 -15 20 34 -63 27 14 14 -12 30 7 -3 -17 -39 -52 -15 -4 -29 42 -45 -11 34 -17 73 20 62 28 30 18 35 -15 -14 -21 -5 2 43 37 -19 -15 32 46 1 5 44 24 66 -30 16 -13 39 2 -40 -16 -81 -26 -2 -3 21 -21 46 -5 -85 -11 18 -7 55 0 -11 -60 -1 6 12 3 7 10 -24
-1 20 27 -20 7 -21 0 -14 4 1 -11 -1 -24 -16 -7 -1 10 47 18 23 4 10 4 6 -6 -23 38 6 -24 -5 1 7 58 -31 1 18 -18 18 6 65 14 -7 41 -11 34 20 -7 2 -42 -52 44 -48 59 -32 -31 -18 -20 -10 8 47 32 22 -41 -17 -40 24 -49 9 -8 -11 7 -3 -34 -5 -28 -25 4 -53 -16 -17 52 14 -6 12 -42 -13 -10 9 -18 26 1 8 -17 11 -30 -6 53 -54 52 6 20 21 9 13 -50 -5 14 14 14 42 -39 25 -10 -29 -1 22 -29 -25 -16 5 63 -18 5 20 2 -24 -1 27 -48 3 -10 -10 -8 17 11 -11 3 10 52 -45 -8 -13 9 11 -7 75 -20 -1 -22 35 34 -24 11 -55 -14 6 -7 -41 -35 -11 30 3 -25 -56 -4 29 7 -7 -22 4 7 -8 -2 0 -8 19 -1 3 17 29 13 9 -4 -31 -13 31 -10 22 22 16 11 -12 -22 23 44 33 27 13 -4 43 24 -45 -15 34 45 46 -5 -26 10 -29 48 0 -48 9 12 -3 -28 -117 3 126 -1 38 31 -4 8 -5 -12 31 38 -22 6 -19 17 17 -15 -13 7 -28 23 -64 49 -26 31 24 29 -1 -27 14 27 -19 -17 -15 -8 58 -3 43 -16 4 -18 9 16 -2 20 9 -1 14 -14 -6 32 -2 53 -27 -27 5 15 42 16 -2 -2 25 48 14 -1 -51 4 21 -19 -4 -37 -28 -41 -20 -23 14 -4 -6 -31 -8 44 -9 0 -4 -4 -14 30 -4 -9 6 -34 -29 36 12 -22 -14 -33 28 0 -27 19 -14 6 3 7 41 10 32 19 6 33 -10 -30 6 9 -16 -3 -37 39 3 -4 -13 20 -18 -18 -1 -8 -1 15 58 27 36 -14 -56 18 -26 33 -6 -5 -23 11 9 18 -53 48 51 -36 31 -29 45 45 -4 -16 28 12 0 12 29 41 -29 2 27 -29 1 -4 36 -21 3 -25 -21 1 3 -9 -51 -6 -43 60 -19 1 -39 -23 -11 -39 14 9 -18 -35 -9 8 45 22 21 3 25 -19 3 6 5 8 6 -4 19 73 -31 34 54 -30 31 12 -15 -7 18 19 -15 8 12 -6 25 30 -23 6 -50 9 14 -6 -15 -9 -19 -15 -4 15 -2 9 -9 -4 7 -11 10 -19 -21 59 32 1 15 -6 29 18 23 18 7 32 -53 12 44 20 54 28 19 -53 -23 14 -23 8 1 -24 -1 30 -2 3 -13 45 -4 36 12 24 86 -31 28 71 -8 -21 2 -71 1 -34 -5 -3 -23 24 20 -30 -34 31 21 39 19 23 -6 7 18 24 44 0 -17 -31 -29 15 52 42 -27 47 -13 9 -21 -8 0 15 -16 1 -6 27 -10 -39 -1 34 5 -7 9 9 6 44 2 10 -51 -7 46 15 14 18 -31 -27 2 -42 9 25 49 2 19 10 -8 -35 -11 -25 4 -8 15 2 -14 31 19 18 18 -23 37 -4 -14 21 0 12 31 4 -18 28 6 -31 -41 13 6 -4 -10 -84 0 -36 6 -5 30 -31 -6 33 14 -1 -46 -18 10 4 -2 51 -29 19 -6 10 17 19 33 -14 -12 -26 -42 28 -25 -34 13 31 1 -52 28 3 -12 -22 -32 -22 -28 76 52 -14 19 16 48 11 7 45 -2 -2 -19 -7 17 -14 8 20 -65 14 -30 15 19 -25 16 -9 -14 -13 0 48 -25 10 -33 2 61 30 26 -5 -19 34 -18 -13 23 -1 12 14 19 33 14 -6 0 -7 15 50 -18 2 -29 -35 -10 2 7 49 -35 0 6 -17 24 15 15 1 53 -21 26 17 14 12 10 -30 -36 29 68 21 24 14 -5 -1 -15 -10 7 27 11 0 -42 35 -41 2 -8 15 -22 22 6 36 -2 -1 34 -50 25 -30 0 17 63 14 6 -26 9 -7 -26 8 14 -32 -27 -1 11 16 34 9 -18 0 -1
23 6 -86 -3 -28 34 -75 10 28 30 56 2 -4 -23 -88 -15 -14 53 -60 12 89 22 55 -60 65 11 -76 29 66 2 26 -14 49 97 -32 -102 -4 60 -11 -33 -42 -5 29 28 -54 -60 -28 28 -14 -37 -85 2 12 -42 5 43 45 -15 25 47 21 -6 -31 -20 68 -25 -21 -5 32 7 -21 -91 83 -9 -101 -17 -47 58 -96 -18 -47 18 7 23 -14 -57 -39 -7 51 31 9 -14 -62 31 -12 -20 22 15 -63 55 36 -58 10 33 27 -13 3 -30 -53 -63 22 40 12 -32 -67 50 -17 -18 8 1 -72 38 -17 11 -7 45 -24 10 59 13 -14 2 49 31 -41 69 66 64 14 7 -50 12 0 35 -27 -18 -80 35 -23 3 -42 -28 17 33 -52 55 36 -6 13 15 15 -28 16 -4 -6 85 16 -2 -46 -8 1 -58 4 83 29 11 -28 -26 120 -12 -21 25 -16 49 1 -6 20 36 19 2 -24 62 -23 -26 -30 -15 62 5 57 -4 -35 25 24 72 -10 -44 10 -21 -31 -26 35 -10 66 46 -15 3 -37 -7 -40 33 -59 -48 81 56 65 -41 -8 72 41 22 18 2 105 58 -54 24 21 -18 20 -8 -51 90 6 -85 -42 36 -57 3 30 33 -63 -16 -29 -3 57 25 14 1 13 -66 4 -6 -50 17 -16 0 -53 12 42 -2 -2 9 55 10 -35 47 -60 21 -17 52 -36 24 11 -45 -37 58 -59 -11 -9 -81 5 71 4 15 95 6 13 13 -2 5 26 24 -26 3 -63 -26 18 0 -54 -52 -11 -4 78 54 -17 52 -56 -52 17 21 -91 28 2 -36 -45 7 21 -16 45 14 -15 -83 -98 -4 -34 60 40 43 -26 48 48 33 -33 13 -33 -37 85 -12 29 -43 -21 -5 51 1 10 -39 -12 50 53 -11 -7 -27 35 23 35 -30 -4 51 -16 62 -31 -41 -45 -28 -12 6 -14 9 -14 -55 -11 29 84 -10 126 6 -36 38 13 84 -18 52 -8 42 38 41 44 -2 25 0 -44 -31 -42 -55 28 -3 20 21 13 7 19 49 -81 37 -58 33 -14 8 12 -25 8 8 8 48 10 -35 7 22 13 55 -63 -58 32 65 21 17 33 57 22 60 -11 29 -50 -20 11 18 15 -23 85 -2 46 -29 -12 2 -62 48 43 7 0 33 54 -12 -38 -42 8 67 75 84 22 -80 -7 45 -41 25 -5 93 22 -40 92 13 15 -46 44 58 35 48 -21 -15 32 1 110 -46 7 9 90 24 -45 -37 27 25 -49 15 -10 10 -30 40 -32 23 53 26 4 81 -63 -32 -40 -43 28 -24 30 -13 -2 35 42 23 33 -24 10 -2 -12 40 47 10 -34 -87 114 2 -21 5 78 -12 -50 5 -18 -9 -70 29 31 -4 -56 -52 -38 1 49 19 -54 6 -20 64 26 10 -42 29 7 41 7 1 -50 32 56 30 4 36 55 22 4 13 23 -18 54 22 -8 -17 36 34 13 -1 -44 -125 6 -94 72 -106 -48 -57 -16 95 41 -64 -94 23 44 35 38 39 -6 16 54 34 -48 1 -17 2 -44 -4 18 -27 -14 14 17 -47 -51 -49 -38 1 65 -4 -3 43 20 -1 -8 -41 32 0 -38 -23 13 -24 10 -67 -42 -31 -33 -41 43 25 43 23 21 -41 17 -36 -19 -30 -27 -2 -31 49 25 -29 18 5 1 -5 41 -95 -4 20 25 -40 -21 -12 37 7 49 21 -12 13 10 79 -28 -9 28 -16 -5 2 62 -14 56 72 14 -48 -40 -37 35 -25 6 13 -62 9 22 -21 -37 -54 15 -8 29 -1 -54 14 6 79 10 17 -73 8 53 -111 2 22 47 22 31 32 -13 23 2 -46 6 41 -77 -23 -48 2 39 -24 -50 6 12 -14 2 -28 -14 50 -70 37 56 -18 -29 -33 -40 -56 24 -17 -16 -13 27 25 3 25 -2 16 -10 27 -4 3 -3 59
30 -21 -8 -18 -48 -13 8 -44 1 -8 -7 9 -72 0 -5 -33 25 34 83 -17 -25 9 -75 -8 48 -58 -36 -3 -49 -1 22 7 -72 64 -13 -4 -1 8 -40 -127 -16 24 32 33 -4 2 31 19 32 4 5 1 41 30 54 13 41 29 -36 24 11 4 -28 17 17 8 -17 1 48 -24 -39 -30 82 -14 -36 36 8 22 38 -11 17 -19 6 43 -26 27 24 -22 8 -51 -52 22 -31 47 -69 21 5 37 22 -4 -28 6 3 -35 -19 -37 9 -36 -10 -13 16 38 -6 45 41 -47 51 0 0 -9 7 -40 40 28 -5 -17 -33 -25 -40 20 81 -32 17 23 -5 24 -18 26 -5 -8 18 -38 3 18 -17 36 36 -29 -27 -48 -16 -5 -15 25 -70 -15 -23 -7 17 31 54 43 65 -5 -14 -77 -39 5 -29 -9 4 28 -38 -14 -35 91 -8 16 17 -5 26 -22 -23 -6 -9 20 10 -12 40 -11 -22 -2 -43 16 11 -25 31 6 11 -41 84 -27 32 -14 0 -25 -33 26 -38 -36 -34 18 68 16 -32 -4 4 -3 8 12 17 24 13 7 29 15 -6 -25 12 -18 33 44 -27 22 59 31 -36 40 26 -62 58 74 -29 55 48 29 14 37 13 33 12 -11 30 3 30 -16 3 -63 15 -17 36 2 -19 -44 64 -41 5 -47 -32 -41 -20 2 -8 51 12 -56 38 -5 17 25 -15 -1 -8 -41 14 -81 29 17 25 -29 -10 48 36 31 7 -18 74 8 48 21 -22 32 13 23 1 1 32 -1 27 6 14 -103 -12 -19 -81 14 38 -1 4 -25 41 16 -32 23 -37 4 -12 -23 52 -82 -25 -57 57 -15 -4 -77 3 -64 -2 17 -25 -19 40 -14 1 14 -55 -30 -15 -24 -69 -25 -70 -17 34 3 -51 6 41 -20 11 -11 -27 -4 -41 -24 -1 74 26 -30 34 -4 -25 9 21 13 -25 26 -3 -35 -13 23 1 18 18 41 12 -5 -39 27 -20 -32 -31 -29 -87 -6 -7 10 30 19 -36 24 -39 15 -48 10 6 -30 37 27 40 7 -21 59 23 13 -21 -8 -1 -4 -30 28 -66 71 44 48 -18 36 48 -53 -34 -49 -37 61 35 -28 13 12 18 99 -22 -40 37 7 -12 -48 13 5 -14 28 63 -53 -34 25 -45 12 8 -21 -46 -29 0 -14 7 4 13 -39 -55 -118 12 17 -29 -18 -34 -27 28 -18 -14 63 40 -45 -14 -10 -9 -61 -44 41 -19 27 -36 -16 -9 -12 1 -53 27 -44 43 -65 6 14 -47 43 -9 -40 -64 -40 14 10 -2 -4 -12 9 13 -26 -2 -28 -25 46 3 10 -15 5 -50 29 -14 4 17 45 20 43 67 -26 -8 31 7 27 97 40 2 -12 -16 -19 -41 37 59 12 12 -96 -73 -6 19 -17 20 -20 16 -41 15 59 -39 -24 -82 8 11 37 4 -9 48 -33 -15 -81 15 -37 59 35 37 -84 24 41 9 3 7 66 2 66 55 -56 -5 1 5 -26 20 4 3 -27 -17 -6 38 43 -41 -72 61 47 -64 24 -8 84 -33 39 -76 -12 18 17 -44 74 4 -70 -21 -50 -12 11 -10 -40 71 4 -5 -10 32 -7 -17 14 3 -71 99 -31 -14 3 0 17 45 -80 -13 10 -5 30 7 -34 -5 -69 -7 16 -8 119 -27 17 -3 65 -33 -38 -18 54 40 -46 -7 -3 -9 -9 -4 -38 -1 14 29 -32 -37 -2 -38 -7 -5 -37 -3 -47 31 -15 11 10 67 42 19 10 1 20 -8 1 46 -17 -7 -30 -6 -45 -51 1 -51 -1 50 22 -14 5 17 17 -14 -16 -76 -33 -6 -76 18 -26 17 -45 3 31 23 124 -3 -10 23 15 -5 9 24 -8 -9 16 -14 -45 -53 6 -31 19 15 17 -42 -16 -1 -18 -17 -14 68 -13 3 5 1 22 16 -51 69 -15 -4 -6 -14 27 18 -17 3 56 -1 24 11 -29
-25 18 -3 -4 2 4 34 -89 -38 -13 -23 -22 13 -34 -19 -9 -34 -25 58 -41 28 1 6 -3 25 8 21 -48 13 -12 -16 10 12 -43 -26 33 -52 41 7 1 -48 -36 60 -62 66 1 -56 -24 -12 -46 51 -84 6 23 -5 -48 -69 -44 14 5 4 -39 -52 -26 -109 -80 3 15 20 3 11 33 -11 -1 24 -13 43 21 -6 27 50 -12 -15 -42 19 19 -57 19 95 21 3 26 -8 -28 -127 10 27 100 11 -32 -36 -21 -21 -1 26 -6 -7 24 -86 17 29 -21 17 -8 -14 -1 -70 -11 7 -16 21 7 24 21 34 5 -14 -26 -39 35 -11 -12 -49 -34 -14 -8 9 28 34 26 -66 -3 -53 -26 -12 -40 -14 42 59 -7 18 39 24 5 -8 -39 45 -8 -11 -34 -15 17 -40 3 37 -6 32 -58 -43 18 -10 29 -29 -5 -21 27 20 10 69 10 -15 -2 33 -14 22 -18 22 -23 -17 48 27 -28 -24 12 -15 40 -51 -23 -21 10 -5 -26 -15 29 9 -58 10 -34 -5 -31 -9 -29 -7 14 -25 -24 -44 -79 26 77 -21 -25 -4 -49 -17 -28 37 1 21 54 44 -22 23 -4 22 -26 20 34 36 4 -52 0 15 52 55 -19 -17 15 35 12 15 -19 -30 -1 35 81 -1 -4 -19 36 39 20 -41 36 24 17 -12 -20 38 53 -11 -41 12 25 14 -5 -57 -24 21 14 -18 38 27 -9 -25 19 3 -33 22 16 4 -18 41 -4 -50 45 -3 -5 7 0 -14 39 10 -19 -5 21 -11 14 38 17 -63 17 -4 7 -5 6 16 7 19 2 11 -27 19 -58 -5 -76 1 37 40 -49 20 30 9 19 -72 -9 -13 -86 -53 8 -23 8 18 -65 1 -17 21 35 -6 -62 22 -54 12 -1 38 32 16 21 -69 42 -32 42 40 -20 21 -16 15 -24 -11 32 -10 -10 -16 -8 63 -37 2 -19 -23 25 77 -19 1 -37 -25 69 -30 -54 42 15 -9 18 32 49 -32 30 19 -6 25 -16 1 39 23 6 0 -19 10 5 -17 -18 -2 -6 51 -41 38 25 20 -15 -13 5 5 35 -19 -1 13 50 -6 -40 8 66 -38 -39 -7 55 -67 -14 34 38 -8 32 7 -13 10 -18 7 -12 -35 -19 -65 8 23 66 -71 8 12 36 -1 22 14 17 5 23 4 4 12 17 34 5 25 -4 22 -9 -18 -11 -19 -30 -1 -6 -1 -22 26 -20 -13 6 41 -22 24 2 16 -31 10 16 -43 20 -9 -34 -25 -26 30 35 -29 -35 -21 -27 -6 20 -80 1 -36 21 -8 -9 9 -28 -34 12 -19 15 22 23 -30 1 -37 0 45 -33 -58 -5 21 -25 -22 26 9 19 -69 40 -17 -81 -55 64 -5 15 -53 -17 -30 -12 -3 -4 -19 31 37 -21 -29 -30 -17 10 -32 6 -17 -8 -66 20 40 19 -2 -14 -34 -80 -4 14 15 52 -19 -4 -12 -44 -19 -43 5 -28 -26 20 -15 54 16 3 27 72 -3 -80 -14 -12 -47 31 62 36 -84 27 -38 -11 16 21 34 23 26 -5 -86 24 -10 17 17 -14 -43 46 -20 -21 22 -27 -29 2 10 11 -21 62 -2 6 9 37 12 -47 29 -16 16 19 -18 49 49 -44 -3 -4 61 13 17 23 41 47 28 -16 57 44 33 -17 3 -15 -34 20 31 65 17 -6 3 17 32 24 13 15 -18 23 -39 27 -52 4 3 17 45 -12 22 45 14 -37 -38 7 -4 43 -18 -14 -33 34 25 22 72 26 -15 -19 23 21 -10 13 -22 31 -11 -46 -20 100 55 -36 16 -15 -46 42 20 -80 -8 -9 0 -60 47 -68 5 -17 4 17 25 18 -35 -28 9 -6 -2 -22 23 -9 16 -7 8 0 12 -65 22 44 -1 33 16 -3 6 -13 -25 23 59 -78 10 35 5 11 11 5 6 6 -17 -37 -14 61 -32 19 -51 7 -66 22
-18 10 30 10 -18 -31 30 36 16 46 0 9 -55 -7 66 -29 -33 -23 -67 5 -8 32 15 7 -26 44 -32 21 -22 11 -30 47 4 -25 -16 -41 -30 -85 24 8 8 22 71 18 39 -32 -5 31 -28 -17 20 -18 -25 -2 5 -2 -20 39 -79 -22 -30 62 10 21 -80 -4 5 -10 -57 -82 -34 -67 95 9 -13 30 41 6 -1 11 4 -32 7 -15 18 1 -42 33 -88 -48 1 -14 51 11 -12 24 -56 23 -5 31 2 25 -11 65 -12 -30 -23 38 67 -2 7 -13 -23 24 18 -31 -1 0 22 3 0 8 23 -30 -32 20 94 33 36 -30 34 25 -24 20 10 -55 11 -72 -86 -3 -31 -2 42 -26 0 83 -15 1 -34 -8 -22 3 -11 49 57 7 0 36 44 29 -81 -47 28 -31 34 5 32 30 -24 -7 71 26 -39 -16 26 -7 22 -54 -14 -16 -34 125 -48 5 -48 -5 -2 10 -60 0 28 29 30 -19 -15 43 -6 -34 -12 44 14 -22 -33 126 -17 -4 -23 49 4 91 52 21 -46 15 -5 -22 25 -40 -4 -36 -10 77 6 -18 -27 -32 -21 -32 -67 -12 -29 -12 -21 -4 29 24 -6 -54 1 62 -27 -46 -103 21 47 -6 61 6 20 4 -19 11 -11 -7 10 47 21 -38 -11 -4 8 3 -18 18 -50 -30 15 10 29 39 53 18 -48 14 8 34 102 -20 1 -13 40 40 25 44 57 38 -34 0 10 -13 42 1 -41 51 -62 -7 8 18 66 -5 -14 15 10 -50 -12 13 23 -52 -7 -26 -29 54 -25 -8 17 42 -112 -16 -51 -16 -44 42 110 -49 41 26 -9 54 -33 -31 -19 -84 64 -9 -14 -35 6 -8 3 36 -18 -24 15 -42 -43 23 39 8 -17 -29 -52 -58 -39 90 7 0 -28 46 -1 -6 18 28 14 36 -12 -7 23 17 -90 7 -18 -19 -2 14 -29 40 -32 27 -41 -1 9 44 -16 14 38 35 -10 30 77 8 -16 -46 35 9 44 -37 -9 50 48 4 -11 16 69 -17 -20 -31 -33 -11 -16 8 -18 42 36 -19 -8 -45 -12 3 -57 3 -8 -4 29 -43 0 -3 -93 80 29 64 -68 16 0 -14 -17 12 10 -12 92 -18 15 -2 19 25 69 57 8 -12 15 -40 38 69 18 20 18 -20 -9 -24 -38 -38 7 -68 28 35 47 27 74 22 -11 1 -17 24 64 -33 -8 -15 -31 -21 -55 41 15 -56 -42 -19 -6 36 31 -71 44 -42 -15 20 -34 -28 -38 -3 4 -22 -37 -2 -4 -15 -5 -35 -19 -12 -38 -7 6 -36 -23 25 -50 4 -43 8 36 -89 34 -7 -86 -1 -70 42 26 21 1 33 -23 2 -28 4 38 -17 48 48 44 -1 20 1 -18 -26 -6 -15 0 -40 -13 35 51 -12 15 3 -51 25 -91 32 -8 34 -16 -11 61 -8 64 30 9 12 62 23 43 18 25 -11 -78 -4 -18 -14 -28 -19 -12 -41 -25 -76 -16 -2 35 -65 26 5 -4 1 51 36 3 3 -41 41 26 54 44 -1 19 -19 42 -75 27 -1 27 -58 -16 -3 -64 -12 26 34 -16 -35 -95 32 4 10 -45 53 -5 -14 7 -28 24 36 -16 -47 36 45 10 -44 -2 54 45 41 -21 -47 75 -18 31 -70 -15 54 60 37 -24 -47 -38 17 38 -28 -11 1 15 3 -48 -6 -3 3 39 22 -9 -74 13 21 -69 30 -4 10 60 -9 -34 75 -25 19 -24 -50 -41 7 -59 2 -4 14 58 -17 -38 -23 10 88 -42 -15 -27 15 -13 20 -68 -9 -9 40 25 13 -5 1 -49 23 -2 2 27 -72 18 -10 15 -52 1 -2 -16 -35 -24 -14 -12 -45 10 -47 -46 35 28 -67 -19 -28 -20 34 9 4 -13 -15 -13 14 -1 -26 -35 24 32 -12 -11 -17 -30 27 32 10 19 73 17 43 -4 -46 55 12 -26 0 32 42 -10 -30 -79 60
-8 -36 -21 -22 -35 5 -16 -9 9 -22 35 4 -8 12 -9 -16 -19 -6 1 -11 -18 -41 -21 -8 13 20 4 -13 -8 -6 -1 -8 -33 -7 7 -3 -6 -21 -20 -20 -12 -7 -5 -3 -46 21 -8 -15 19 -27 -20 -23 -22 -11 -1 -9 -34 -21 -9 -30 30 -77 -19 -39 -15 -2 -20 -52 -19 24 -15 8 -46 9 -19 1 -10 53 -32 0 -25 4 -48 -15 -22 -31 -14 -29 13 -26 6 -23 -11 30 13 20 -16 -8 4 -2 14 -5 -11 19 -14 -43 -19 -38 -24 2 -52 -17 -17 -14 -32 -16 -16 7 44 -18 1 24 20 5 -28 -12 -17 2 -36 -63 -51 -22 -3 -74 -6 -22 -14 -27 -19 -37 -71 -27 29 3 34 -29 -41 -36 2 -3 8 -11 -17 -24 -14 -3 -4 -16 10 -70 -12 -12 -23 -8 20 -4 -4 15 13 -14 -16 -13 0 4 -9 -26 22 -33 14 -3 3 -21 -4 14 -26 14 -6 -12 -21 -9 -38 11 -38 -38 -41 -2 6 -13 -34 -29 10 -21 -4 -43 -19 -9 -27 19 -15 -19 -5 -86 11 -6 9 -8 -18 22 0 9 -7 50 -31 -37 -46 0 -8 24 4 -20 2 -17 13 -25 -20 -14 -1 10 -49 -16 4 2 9 -42 -8 -9 6 -13 -13 -25 -3 -31 1 -10 -21 -12 3 -73 4 2 -29 -8 -10 -47 -7 -15 42 -15 6 4 -7 -23 2 -20 -8 -22 -1 -9 39 -13 -19 -24 -6 -37 -25 -39 -9 -35 -30 -12 -36 -6 -5 -9 -20 -15 -23 6 -34 -9 10 -44 14 1 6 -7 0 -10 -7 -9 -32 -28 -18 -8 -13 -16 -21 -30 10 -22 -1 -5 -21 -40 -37 -12 -12 -6 -9 26 29 -16 -8 -25 -21 -8 -53 2 -48 -22 -37 -14 15 -25 -7 -26 -23 -27 -18 -3 12 7 -30 -14 -43 -25 -6 -43 -26 20 4 8 -20 -33 -10 -5 20 -25 -40 -31 10 -14 -5 33 -21 21 -20 -11 -27 -17 19 -14 6 22 -22 -16 -5 14 -17 -22 14 -33 -6 -8 -56 -11 -33 -12 8 7 -5 -20 -11 7 24 10 -13 -33 -25 22 13 -3 17 0 11 -14 15 -13 -24 -1 -8 -54 -27 12 -17 -18 -14 -26 26 -27 -51 -21 0 -12 -27 8 4 -14 -38 -8 -19 -21 -28 -17 -12 -37 3 -28 -32 11 1 -3 -8 5 -10 3 -25 -19 -4 -4 -6 3 -21 -14 -9 -23 30 -21 -7 -12 -9 -28 -1 -22 -21 0 -59 -24 32 2 -22 -21 -40 -20 -13 -18 -19 -15 2 -44 -9 -18 -21 -17 -14 -11 14 -18 21 -26 -97 -45 -17 -10 -7 -2 -2 -6 12 2 -11 -24 -21 -34 15 -28 -12 -28 5 71 -21 -18 5 -27 -15 16 -14 4 1 3 2 28 -18 -13 -17 -20 -16 -3 11 -6 -2 -50 -11 -7 -106 -22 -27 -62 -19 3 15 -78 -14 -52 -19 12 4 -13 -2 -9 -18 -23 -21 -1 -1 -2 16 -19 -46 -5 60 -3 -8 -10 -3 -15 24 2 -14 -26 -16 -6 1 -6 -7 8 -26 -14 -24 25 -17 14 2 -61 7 15 10 -16 29 1 -17 -30 4 7 -33 -18 -40 -20 5 -1 -2 -20 41 0 -17 10 -15 -38 -21 6 -31 -49 3 29 2 -16 0 -6 -20 -26 7 -127 -28 7 6 -5 0 -14 -10 -38 -34 -30 -8 14 4 1 -78 17 -10 -19 -32 -16 7 17 -16 39 -2 -51 -6 -8 -34 -7 -40 4 9 -13 -17 -24 -36 -21 -48 -25 6 17 -4 -1 54 7 -9 31 33 -33 5 7 -30 -21 -69 3 -27 -23 -25 -24 1 13 2 14 -1 -42 -17 -49 4 11 14 -15 18 -19 -30 -21 30 -27 -35 -24 -14 1 -3 -29 -11 31 1 -3 -10 -3 -27 -42 -5 -27 -27 -11 -12 -23 -7 -77 -10 3 4 1 -23 -8 4 -13 7 0 31 -16 -37 -38 -6 3 -4 -43 25 15 17 49 -47 -23 -50 -52 12 8 -30 -42 -25 16 -33 -3 -25 -18
57 2 4 -5 -40 -31 -18 30 24 -25 -6 -26 38 20 6 -42 -9 -18 -3 56 -17 17 -17 43 -21 -20 -10 -11 -34 10 9 -48 32 -92 0 -28 7 -47 11 13 17 -38 3 -12 -18 22 34 -2 12 28 -39 -47 34 -20 -34 4 41 -48 -39 12 1 69 -31 -18 3 -20 -41 14 18 -38 22 -43 37 -26 17 0 -19 0 -47 9 -10 -2 1 -3 -10 14 44 50 -34 3 -13 -7 -39 -7 -25 12 30 32 38 12 -8 29 -36 87 4 24 -17 -1 82 -68 34 -58 77 9 7 -10 -57 -9 24 -18 31 -1 -21 -11 -25 22 20 47 -47 15 -20 14 49 8 -27 36 31 19 39 -113 21 6 -65 -2 -40 36 26 -22 35 7 92 14 11 -38 3 -31 14 34 -15 15 -31 38 -41 0 30 8 13 5 76 -12 -17 -26 -34 20 0 24 -48 80 20 8 37 44 -33 56 -44 -18 -2 -38 -18 -22 2 -82 -42 43 -44 -12 2 17 -29 -27 -29 -32 14 24 10 -3 -12 -22 60 -32 -102 -33 20 -27 -14 5 21 -51 43 -7 -102 -37 19 11 7 -4 -22 3 74 -1 55 -31 -5 17 -7 55 46 34 -16 56 -45 41 -2 -23 -9 20 80 18 -28 -15 29 -3 68 36 -40 27 59 4 -16 12 -68 -45 20 72 -20 -11 -50 47 -7 118 -6 67 24 -29 18 -39 73 31 33 10 -6 10 -5 -72 -77 48 -38 -11 76 35 -37 -12 -7 -16 -42 -17 15 38 52 -90 15 -29 2 -32 43 26 49 -63 11 -20 8 -36 41 27 1 -16 -5 -11 30 38 43 21 29 33 13 -12 -4 -33 22 17 15 55 -58 2 65 5 -46 44 -49 22 19 -31 -37 28 22 -6 14 39 15 -13 -41 7 81 -13 5 -38 18 4 -11 -49 -58 -47 -43 0 -20 -12 -72 -18 17 -5 3 4 58 57 -16 -20 8 -21 -13 5 -5 20 45 -20 12 -5 2 28 28 -15 -34 77 10 -19 -14 -3 -22 36 33 -12 17 36 -38 3 -11 31 29 49 8 -4 9 7 12 -55 -5 3 8 -7 9 28 35 -22 -8 42 -28 52 -58 -5 44 57 -5 -11 -52 26 18 22 -38 32 20 5 19 18 -4 66 32 -9 5 32 16 0 2 -22 -11 23 -50 43 -30 -13 23 37 -34 22 -17 22 68 16 5 -13 -8 -31 32 -37 -35 20 24 -4 10 -9 37 24 0 26 24 13 85 54 2 66 -50 16 -10 -11 -53 -34 59 4 35 14 -34 -8 19 13 42 8 -26 9 -16 38 -7 21 46 -9 -37 94 -52 -9 -33 1 -18 32 76 11 13 -1 -14 17 34 -15 56 -15 -65 87 -25 -90 21 51 7 61 -5 -20 4 11 -35 8 -11 12 2 10 50 -1 -14 46 44 -36 -37 -9 45 -31 32 -8 -41 17 82 -19 -25 15 -26 -5 -1 28 -68 -15 23 1 -20 -2 23 29 2 35 22 2 -24 -19 47 45 22 4 4 57 16 0 5 -45 43 -10 -105 27 -48 -42 82 -3 -29 18 15 3 4 12 -86 -35 2 -2 7 14 -19 -23 57 -35 40 -32 26 -41 -16 67 -4 26 -30 22 28 6 44 78 99 95 6 -58 -1 36 -10 -30 -56 8 -18 91 -26 -41 7 -8 42 -33 6 -32 28 22 -30 -24 64 -19 -11 -31 -25 -23 -14 6 -32 -22 24 -25 5 25 23 1 -51 16 13 18 12 0 -41 48 8 23 44 -4 -82 -10 12 71 -18 1 -89 -13 -63 17 -22 17 -39 10 -37 -14 1 5 33 61 126 -52 -69 -55 37 20 14 8 -48 -22 11 -3 43 78 9 -22 -39 -7 8 -36 -53 27 -10 7 -16 36 -85 95 25 -23 -57 -30 10 20 -43 -27 27 -5 6 80 51 -57 -67 -45 -23 -4 13 34 23 52 -27 51 -16 -27 29 -21 -11 61 35 19 8 13 -29 -39
-21 23 36 10 -22 -15 21 21 3 -54 -19 8 -40 -4 -20 23 12 56 -47 25 -1 -58 4 -4 -2 2 -3 -23 -10 -7 15 -17 12 23 -19 64 -56 11 -35 13 6 -16 2 -18 1 29 47 7 -12 10 2 17 9 -16 -14 2 24 51 -49 14 -72 41 10 7 15 -17 8 9 -4 -29 11 6 -13 30 -20 -23 3 -26 -13 -20 7 -20 47 -24 -12 -14 18 39 -11 -3 7 -103 18 -12 -16 -91 -28 36 -2 34 -15 -19 43 -16 39 13 35 -42 26 59 -59 30 22 -8 49 2 31 -31 -6 -7 -17 33 -22 -10 -3 -4 -20 14 12 -17 17 -39 10 -2 20 -20 23 10 -16 -34 -11 -21 -1 -17 -17 50 -32 9 -34 0 2 13 11 -29 3 -7 -61 -10 -29 -17 6 -7 -16 7 11 -40 -52 5 -10 -31 -9 87 -18 27 -25 -21 -4 49 10 34 16 -53 13 22 -9 27 28 0 -25 -21 -36 -4 51 71 -11 44 16 2 37 -27 26 -2 35 49 48 4 -39 18 38 -13 1 -5 7 41 10 21 23 -62 -25 39 -42 51 11 -73 -3 -8 30 23 26 -11 4 -7 8 30 -22 7 -50 -9 10 78 22 -59 17 21 12 11 -9 -13 1 -32 21 -13 -18 0 -4 12 -23 36 -35 -2 -15 -22 47 28 -39 17 -6 21 -8 -38 33 53 -7 31 26 26 10 30 18 26 34 -21 -30 -7 4 46 -83 -29 28 -55 -47 90 -5 -37 7 7 34 4 14 14 -17 2 -28 -1 35 0 27 12 -19 -13 38 -15 -16 39 11 13 4 5 -9 -28 -12 -12 45 -8 -8 -10 21 -18 -63 26 -10 -7 -104 50 10 28 23 -1 -22 -45 46 -34 15 -15 40 26 4 -16 48 11 -47 -38 -2 20 5 0 -9 59 -17 -12 -42 -17 4 -13 109 3 19 26 12 2 -5 14 -19 11 11 -6 -39 55 -33 46 -9 29 15 24 2 35 58 24 44 11 -25 13 21 5 -1 5 1 12 -46 82 29 106 72 10 -38 6 -49 34 36 9 -6 1 -33 1 -9 -50 38 18 57 -6 -56 -42 9 31 -49 1 -28 3 -4 14 -23 21 -15 -68 -31 -20 -81 13 -19 -25 18 -42 -55 -22 2 -3 -22 -37 9 -49 -34 -13 49 -18 -20 22 61 -10 54 -23 30 67 14 -66 -53 45 -31 -18 1 3 3 59 -22 -7 -74 -6 30 -7 -31 -4 -10 1 30 35 5 -21 3 -26 26 17 8 27 -1 -32 1 24 -107 53 -32 12 23 8 74 44 29 -55 28 -5 -21 -10 11 -10 12 4 3 39 -5 0 31 48 -48 37 -44 4 -40 -45 -27 9 -3 -9 -32 9 38 -44 -5 -77 92 39 15 13 -41 6 39 22 -38 -1 -1 18 -30 -54 -21 -127 -1 23 -86 38 8 -15 -6 -38 21 18 -3 7 13 -63 -18 16 9 30 7 -18 -12 -9 -23 14 22 5 21 93 -47 47 26 -22 -1 -11 -30 -28 -1 7 7 -16 40 3 -3 3 1 17 -8 22 12 -10 -3 -26 19 12 42 10 32 -33 37 7 -11 -82 4 1 28 2 -1 -45 -14 -31 -72 3 27 21 -20 30 12 38 -34 -78 34 -49 1 9 2 -27 -19 47 -36 17 -21 36 -23 -15 -33 -43 18 -11 16 36 2 -22 -14 0 10 -12 -37 3 5 -7 -3 10 -31 5 40 -5 27 -21 15 46 -14 16 16 11 6 -52 0 62 30 18 -12 -56 -4 17 65 -54 1 -12 1 -55 -24 1 -37 -70 -9 26 9 8 53 -44 -23 -1 -48 -10 42 0 16 -15 -3 62 33 -15 14 46 -92 -70 17 -3 2 -1 12 -33 -58 -68 -29 45 -21 -70 -5 114 -40 -31 -11 -11 -19 -9 -38 -9 -49 -46 -42 69 -22 1 20 7 -6 -49 -12 -19 7 -8 -9 -18 -17 36 -14 -49 -5 58 3 19 4 51 44 -96
67 -12 -36 26 14 -20 -81 22 -36 -1 0 37 -2 6 -22 -40 20 -54 -4 2 44 -3 11 -51 -2 30 -7 -22 8 36 38 21 -75 69 2 -69 39 -8 60 -67 38 35 -109 -51 64 -17 -20 14 -61 52 -40 -7 -32 -60 41 7 18 -26 -59 -24 -33 -22 -14 -73 43 -14 36 30 -68 12 52 68 7 28 -61 -12 -11 37 -31 49 17 42 38 7 60 7 75 5 -10 -44 15 30 14 -12 51 -47 22 9 90 41 20 23 -29 -41 64 -2 -25 -25 -3 -36 -37 50 27 -31 -29 9 6 -59 25 -9 -8 -75 11 -23 -4 24 41 -3 32 -30 -98 -21 11 7 -18 29 -48 -33 17 71 9 58 -49 1 11 18 -67 -16 -11 14 6 -25 35 10 -46 3 -11 -20 29 -4 -30 -31 34 12 -12 39 -23 5 24 -22 45 21 -43 -18 35 -1 53 14 -1 -3 13 -6 -23 -72 4 -19 0 1 -20 62 61 1 66 -53 -42 27 -9 -30 -29 25 -2 -1 -6 -44 -40 -75 21 -70 -48 71 25 -22 49 -29 55 37 17 -87 39 86 8 -45 -11 41 38 -66 43 46 12 -28 69 0 -20 17 55 53 36 -18 12 71 -62 -7 -9 -8 10 47 53 -32 16 -34 4 18 -3 -56 0 -2 -39 58 -7 -49 -37 -54 35 -40 -19 -3 16 59 -29 39 28 35 37 -1 -53 -23 -71 6 -7 22 -34 27 -3 8 7 -5 59 16 48 28 62 12 -21 -20 54 5 -16 -2 3 -5 -4 50 -38 -54 19 14 3 -24 -29 32 91 -44 59 35 13 33 21 10 7 -46 -53 57 -48 16 56 -64 1 30 26 -77 -29 -81 79 14 -99 -12 21 53 -30 -1 92 20 28 5 -4 -21 52 49 72 18 -30 88 -11 7 -92 -21 -24 -3 -51 -18 22 60 27 0 9 -89 25 -24 -65 14 -40 -24 4 -32 8 24 -50 40 4 1 -88 -2 10 -31 -28 22 44 1 -3 21 16 -54 -16 16 -11 -14 -31 2 4 -38 82 20 -33 31 25 -23 -17 -12 -45 11 -6 -29 60 1 -25 3 -18 -23 -49 -6 -31 -80 -14 -14 73 12 4 38 -19 -46 5 -16 -9 -21 -3 33 -46 -46 -17 -84 -9 0 -32 8 -37 -14 22 25 -7 -36 71 1 25 -26 -6 31 12 98 -27 -24 -62 -18 1 -11 28 54 100 21 26 -10 6 20 -55 -41 9 8 4 -40 -12 -54 -27 6 54 -46 -56 -14 5 52 19 3 -98 -35 20 -42 21 -35 82 17 35 -1 43 -2 17 2 -45 3 -72 9 2 -3 39 -30 -63 0 20 -9 -9 39 52 -26 -3 -39 5 46 36 34 1 72 43 57 -6 -60 -29 -104 -31 -11 29 -11 40 -127 -2 -5 0 96 7 4 -9 -77 -29 -77 11 36 11 16 16 -33 29 52 -3 13 -3 -32 -17 74 42 9 -55 -28 25 -13 40 5 44 12 56 12 -8 2 -40 -7 -43 -38 -37 -16 -20 38 -30 47 -6 76 33 25 0 -12 -7 31 12 -6 -41 0 -13 -37 10 -32 9 89 29 63 -31 0 -33 46 23 -29 37 -55 16 27 -39 -18 1 30 47 -13 76 -32 -40 6 9 -83 2 31 -55 1 20 -64 6 -8 46 -37 -69 38 19 20 78 65 44 21 -3 -47 44 -26 -22 -11 76 -13 20 51 -2 12 23 -29 1 -67 -31 -47 -12 2 -7 11 43 -9 7 -22 -34 -41 -51 3 35 32 -8 -80 18 -75 -12 -15 27 -25 18 -19 -10 36 -28 -31 21 -8 -37 93 0 17 5 23 23 19 -13 43 72 46 19 -18 5 -87 9 22 3 -50 -17 62 -16 8 -47 -51 6 33 52 20 -45 15 -6 2 -68 -102 -22 -2 18 -54 -45 -24 -2 3 -19 -14 40 -33 -3 -2 -22 -8 -30 -68 -14 -38 18 9 -48 -6 -25 -18 -19 5 -33 -35 29 11 -22 -10 -2 18
