88
198
-585
615
133
-165
-174
-432
126
-40
365
116
-628
188
134
-339
461
-12
-193
-219
-148
133
-452
161
231
-597
253
-9
-146
45
-101
41
-149
304
99
55
-298
-654
111
-402
-77
-143
190
248
-146
605
102
-285
-26
-15
-113
-143
569
176
-135
-8
-281
248
585
-328
46
-16
755
-153
392
-78
-404
-75
-300
94
76
-184
293
409
-5
-61
113
-385
-379
319
435
-5
-43
-156
42
-416
-484
55
-382
4
123
116
153
289
289
228
49
12
-19
-226
-71
-39
-130
239
205
77
-193
-117
-9
-189
-24
-101
-226
73
-354
-27
176
176
-407
229
-256
-415
-150
206
323
136
-99
13
50
112
-10
161
441
14
205
-244
355
190
14
-77
-404
372
158
-187
164
-7
135
-39
-303
62
-44
243
427
-263
-254
96
-47
289
55
125
239
351
114
-442
-84
143
53
225
-154
-385
206
-222
-196
-12
1
93
-76
487
-86
794
58
-157
-256
599
58
72
401
-132
-311
-61
-229
-145
2
-179
195
250
290
-329
2
152
144
13
-203
-250
399
-174
104
-61
152
237
494
-151
221
113
-281
177
-114
-149
-238
-127
230
-8
337
211
-65
226
-414
-395
-183
79
-100
207
166
-179
-526
219
-177
139
394
44
-236
-40
17
275
57
127
-213
-231
-293
187
159
167
165
-80
141
-477
112
731
172
-54
18
2
329
131
-244
-64
-298
-68
447
94
25
-20
-210
228
54
-75
79
-520
-91
210
436
-503
65
-263
461
161
-102
-268
51
58
90
-251
259
-188
-123
-257
-241
103
292
298
525
-8
-99
310
365
-3
469
-263
501
654
357
-286
-305
-103
-77
188
-581
-25
-129
-33
216
18
-278
348
18
-9
-85
-79
-169
211
39
129
208
332
-235
146
274
16
-564
-77
270
213
-99
-124
-410
-375
-39
454
21
-65
-265
487
-79
-171
67
75
129
167
-105
-111
-44
34
-460
-327
-479
-157
-118
-225
-335
-84
392
-15
27
37
3
32
64
-42
-203
9
381
337
-278
272
-194
104
477
-86
-316
-64
275
-338
-188
-57
141
121
249
-178
-152
611
13
-86
274
264
199
-253
5
-233
-4
-149
-159
99
31
56
161
-29
-276
-10
96
286
-122
-118
236
-191
391
-235
-28
-601
-238
-127
-586
44
-149
59
525
153
346
-76
-96
-161
167
-206
346
31
-23
-384
148
-101
119
405
180
-284
82
-435
82
-213
-284
-291
523
474
-210
-100
-112
39
261
442
-86
-163
-100
202
-33
-22
334
-401
410
176
-316
440
105
-224
-166
226
33
200
88
432
59
-368
462
174
93
66
-14
-23
241
-387
-181
-414
-131
-303
-3
-71
42
-394
461
203
544
460
-169
71
410
325
-263
135
45
-180
-513
-335
-58
-67
267
172
-531
107
350
311
321
87
-338
-118
91
-464
73
62
-237
-272
74
-390
224
-123
-57
-537
-24
165
253
161
213
275
74
-187
239
328
-57
-286
-371
-72
99
-31
372
-148
230
-53
-353
-142
-106
131
206
8
-37
-107
-150
-350
187
103
134
-295
144
-281
138
9
-20
28
-99
-153
-299
-292
-243
-26
418
-244
-290
-390
-99
345
93
369
317
-234
-94
412
-589
75
-369
-98
-207
193
-197
510
160
185
10
293
441
124
-178
-68
358
135
-343
-322
-159
61
-19
68
-33
-34
-158
247
-271
436
-218
-41
-190
-93
-449
528
-7
187
470
-89
-477
-92
-214
4
26
-290
-69
338
-64
-21
-552
-318
-179
-189
-267
65
-96
192
274
118
181
-90
-300
138
178
88
-836
161
477
217
-39
-171
182
392
81
-267
-297
-413
-5
-359
221
-162
-112
-162
-167
156
-213
395
-74
-228
-367
257
-103
239
-193
-249
-219
588
-215
14
-441
143
-198
386
-327
299
154
173
-552
261
-2
-455
-67
-120
151
148
-34
135
88
145
183
354
52
288
-100
-155
-394
55
-574
-404
362
-295
524
-173
-157
155
-422
-600
609
-646
-220
224
-51
533
202
86
-1
-577
308
-41
204
-91
-44
-174
411
-79
-331
-389
12
427
-260
114
-4
86
-160
218
166
-411
