1
-59
-14
-22
83
-13
-23
-51
-4
24
67
4
7
55
5
28
-9
-20
36
28
-38
9
-27
-76
48
8
54
29
-9
16
-31
-46
145
11
15
-1
79
-96
-65
-30
-56
26
-7
-8
-78
36
-58
13
-76
-1
30
12
15
11
-1
-61
-45
2
-12
5
-52
23
-33
3
-63
7
-23
122
39
145
90
39
23
-29
74
24
-7
-142
77
-2
36
-47
195
156
-5
-160
31
42
248
-110
-72
-55
74
115
-177
61
-72
212
-19
-138
-145
-10
-46
22
132
21
139
208
-37
-26
-271
-96
46
32
-16
-93
113
-9
21
85
-120
194
-156
-52
-180
10
171
12
-8
-12
36
26
-18
-6
3
4
-29
-8
-26
-18
-16
22
51
16
19
31
-5
-14
-2
2
-1
-25
2
17
2
16
-10
16
7
7
-14
-24
21
-11
-1
-46
-3
3
6
-1
-12
-4
-47
6
-23
12
-9
10
-3
-12
-7
9
0
-8
2
-6
-9
-48
-7
2
18
-35
-21
79
41
21
-14
-6
-142
143
-56
11
-28
90
-43
-105
-134
173
111
-172
11
-233
156
126
91
-71
-44
58
-111
22
95
-102
122
-55
29
-57
85
-18
-151
-45
130
-12
-254
-58
-60
432
-124
-44
62
61
57
-14
40
96
3
102
102
131
174
32
68
-55
-24
-50
-38
81
24
-32
20
14
26
-19
-12
10
1
-21
2
38
9
-12
-20
-17
25
-31
22
-16
-14
-36
-41
12
-5
14
-15
30
-13
6
-44
16
15
23
7
11
6
-3
-9
8
-4
-8
1
-6
-33
-15
25
12
-8
-29
26
-49
-39
-5
6
13
41
1
-19
23
-27
-10
15
-8
32
-144
160
51
-125
115
-92
97
-24
23
-112
-29
-81
3
-113
10
-200
-86
7
-3
-105
-138
-74
20
-57
-96
-80
142
64
87
-94
-168
453
-119
57
-110
213
-135
9
209
-108
13
31
14
-48
84
-32
96
-75
13
90
-141
60
63
28
30
6
-15
137
102
-85
-34
135
27
12
-2
-19
-29
-8
4
-18
-16
22
10
-6
3
-16
17
-40
5
-4
-21
-15
0
5
1
16
2
18
-2
12
-22
-39
22
-2
-2
20
-23
5
25
-40
-21
-2
12
36
1
-9
8
5
-22
-151
5
-4
-12
17
46
-27
15
18
3
16
11
47
12
7
-40
13
-60
-21
-6
-1
-8
8
26
8
36
-7
-11
-26
4
5
7
-43
1
3
40
-3
-36
23
24
-21
292
7
-19
38
-13
-13
-56
-1
-5
1
-6
11
8
12
34
-35
-2
19
-29
21
-26
-27
13
14
9
-16
-15
-15
-32
14
32
29
12
-10
19
69
30
21
-2
-36
19
14
-11
-3
-25
-76
-18
-49
31
-7
-3
23
1
-16
0
5
11
-94
-23
13
-4
19
13
3
-10
-332
9
19
-29
-17
13
7
-11
5
-21
-17
12
-42
-3
45
18
-4
22
-9
-15
-6
-2
25
-54
-10
-8
-9
15
12
13
24
-38
-55
13
24
-31
-30
-29
6
26
17
-24
-16
2
3
-174
1
13
-7
-7
8
5
30
6
-20
7
-6
-23
0
3
25
4
-3
-23
-12
-7
26
-3
-19
-49
-12
2
-8
38
-10
-16
-18
-4
0
-29
17
-8
25
23
-30
7
9
-17
-8
-26
-2
-1
-10
21
11
-4
13
-5
-17
-12
7
-13
-18
16
28
-28
42
13
-45
0
-12
-25
64
28
3
13
-52
22
18
37
3
-36
16
35
70
-3
7
-15
-9
9
-11
-11
-26
38
2
46
48
2
29
252
4
-25
39
5
-44
41
-56
48
9
-34
-60
-38
15
13
-38
24
-24
-28
-2
6
29
19
5
39
-65
5
-11
-29
-24
-83
74
-2
-35
99
23
-6
-12
33
-75
-57
59
35
30
50
-66
-85
22
-3
-31
59
40
75
57
20
47
52
-52
-27
60
-50
17
-4
-62
-71
25
37
-77
-23
-36
-2
-35
39
271
-29
61
-57
27
-109
13
20
21
22
27
-53
29
16
-1
88
64
-35
96
-22
