68
202
134
-200
-140
-107
-154
-144
-81
186
-55
98
1
181
168
119
98
38
-142
32
-128
-315
-159
-252
116
-62
-170
306
-51
69
58
59
480
-30
-44
143
-129
-18
-153
223
4
49
-334
137
10
62
13
201
-90
74
-27
-52
95
130
75
51
123
-68
3
-177
81
86
-34
-136
12
-103
28
114
14
-1
74
-32
56
-55
-42
50
11
-22
52
-98
-44
47
-86
-11
-87
-96
-114
-102
110
-23
117
-15
-33
11
15
-15
-45
8
-47
-14
-114
45
-41
-10
15
-14
-15
-93
-82
-45
51
-102
-23
53
-10
43
18
47
118
41
8
91
60
-169
-12
-30
-26
103
-20
-68
-26
67
-49
113
39
57
-27
20
-15
-101
-44
-528
20
5
3
20
0
-51
54
-15
-54
18
5
-14
8
4
37
91
-14
-2
57
46
-25
16
-14
32
0
58
31
86
-21
-55
40
76
25
-19
-69
29
58
16
39
95
37
-66
-18
-12
-10
26
20
-97
-35
-28
9
51
-44
46
-38
-98
-2
125
-21
-117
29
19
-108
23
82
-27
-78
-37
5
54
37
-102
-49
9
22
4
75
-32
92
53
-67
47
98
111
-68
49
75
27
24
-18
-83
-97
13
3
20
59
73
7
-11
32
-103
-21
-75
-40
-6
-33
-7
-27
-79
-21
-39
-51
-73
377
20
38
0
-118
30
34
-64
-75
-13
-17
31
2
38
-24
5
32
16
-22
3
-42
11
-6
1
22
25
-49
-26
-40
-37
-1
-17
-47
24
36
6
-10
40
-7
59
24
20
19
-13
5
-42
-25
7
14
-4
-13
-37
28
0
-43
46
10
-13
0
48
39
-12
32
41
10
2
5
-3
-35
-34
-5
27
-4
3
-4
-48
12
7
61
12
6
-4
1
18
-12
-8
11
12
13
11
-25
43
24
-24
-20
9
-3
-3
-11
7
-55
-118
26
-20
-17
-2
38
-2
1
19
21
14
10
48
25
41
-63
-10
-36
-33
-4
25
0
4
-36
16
-38
23
-29
31
-33
67
85
-5
-27
-23
26
-45
127
54
50
86
31
-124
84
22
-162
53
-35
24
-79
-3
-12
2
-4
12
17
67
101
-68
12
-72
-69
-30
0
48
-15
-28
-20
9
38
24
-72
33
-78
37
10
-1
45
-28
9
14
-45
-35
33
-50
-78
-145
-99
305
37
-23
-3
-72
23
34
112
-44
0
-61
-17
-68
118
-23
33
25
71
132
335
-6
-36
-61
-63
-217
134
-106
51
14
-237
154
17
-26
29
35
-42
17
47
-66
-111
3
-55
-107
7
74
86
0
21
-74
-187
26
1
47
-7
48
77
-104
18
18
-9
-58
-8
-112
-340
111
26
-3
34
-7
15
-15
7
128
-54
-36
27
-53
-18
110
-43
7
19
-25
-170
-16
-87
41
-34
-48
-135
11
42
-50
2
-56
54
-32
3
-5
73
29
25
93
-63
-111
-45
-16
-42
26
-49
-10
36
567
-29
-32
-176
-15
-19
29
-26
-3
-134
80
-100
-22
-129
-116
-22
96
18
33
75
-281
154
122
-89
-301
251
210
139
216
148
76
-238
-280
-134
98
-67
115
-3
-347
-313
185
-145
114
-63
-156
-33
-39
-23
-96
86
125
174
-466
-80
65
145
55
190
-30
23
173
-99
185
-43
-208
123
-375
387
-282
268
155
-165
47
-36
-27
-83
116
-457
135
87
69
-242
-176
3
16
13
3
32
20
-39
17
-37
5
-28
6
-37
29
25
12
-21
-62
101
3
-15
-19
-1
22
-34
33
-35
-33
-10
-10
-14
-26
-1
10
1
-75
8
-18
-2
37
-1
20
-39
-3
35
18
10
-5
0
77
-9
-12
-14
-43
11
16
-37
-13
4
31
3
35
-22
26
4
0
49
-14
16
-83
23
9
-39
22
-36
17
23
10
-53
-54
88
-115
-20
-24
-6
32
62
7
51
6
-10
46
33
55
17
79
17
0
85
26
28
26
49
35
-40
1
1
7
1
-15
3
-74
17
-22
35
-26
68
27
37
32
-6
48
-86
34
-118
46
56
71
93
