879
2834
1223
199
-1741
1716
3795
574
242
1506
3100
587
532
-3087
-1575
-3929
586
2381
5610
-861
561
-3033
2136
54
-1729
-820
-2597
-1039
-2587
318
-1513
-7048
352
-2370
1901
5427
1318
-997
-920
3892
864
-615
293
-690
2812
-926
-1592
288
1080
-3794
-4844
-55
-2206
-2838
3331
-356
-4407
-2601
4018
-371
-921
-4234
-2260
-372
-2574
-1352
2283
1046
-936
1564
2663
-4053
-5728
2737
2453
3060
1737
5413
5113
-6977
-84
249
13692
-151
246
-357
-2958
-1101
-1389
1966
1173
-1036
4108
-1006
2108
-873
1487
8868
906
-1415
-840
1865
1389
1143
-3770
-2448
-226
-46
4551
-4779
-837
-3080
1467
-473
-117
1636
-5723
-5039
6346
-1884
-1911
4274
3301
-3201
-571
1476
-505
158
90
3442
-3133
2822
-24
4423
-563
-548
-581
-2384
1313
551
3181
-6365
-282
-6546
-5117
3794
-4445
-155
5025
-479
-2150
-5696
-1789
-4663
-628
1146
-599
335
4101
4233
1111
1353
1380
-239
398
3281
825
-782
-831
820
-74
3464
1926
2304
977
-2961
3341
-1144
-3621
-4615
-1435
4035
-976
2082
-3926
1007
-4115
1761
1639
3111
-415
1461
432
-1609
-515
-292
-1645
424
-4363
900
2621
-1241
1103
774
-437
-3648
1912
-428
-782
-3496
-5054
1073
-2424
-936
556
151
-281
3519
-54
-1498
-1765
-528
-398
6394
866
-3637
-2260
-1879
-2822
-2375
-1613
-285
2555
-2339
509
2991
-2915
-3818
-4279
4607
425
-4060
2536
-4011
-4927
1529
-1628
7740
6246
746
-2206
3611
1930
-263
-1318
42
-1119
563
726
-8329
1372
2111
-2792
-2110
-1864
-850
413
345
1858
-148
2453
779
1310
-534
2301
2491
2093
2725
-98
-2982
465
-4765
795
430
-1293
4309
-2844
-1955
1628
-1761
-2180
351
-991
2970
-2108
5721
-2102
-964
-3929
2236
-2943
-2576
-2101
-5284
68
-243
-1310
4062
1740
613
-3196
-477
752
-3382
6675
4366
-167
2375
-38
-2095
-3337
-1972
1187
1067
2316
-4151
3219
149
-2065
-3680
-2541
3962
3412
2372
1859
1026
2424
-2088
-3097
1620
-377
4049
-3195
-2181
-4183
708
-955
1774
341
-921
-678
-416
489
4035
-165
-2474
1043
551
2978
7130
1015
-3760
2267
4843
-1736
693
808
2902
-1316
-1539
-4036
-2740
1683
-437
-236
5059
-1459
50
1812
-464
-50
-5018
-3190
2959
1902
2174
2939
-909
763
5562
2946
-1546
724
-1892
2504
58
823
-882
5544
-1399
-2140
-2137
-4365
-137
2379
-953
2004
2639
1490
1767
-3497
-3477
4225
-772
6116
-5142
-2090
844
-89
-3436
2275
-2212
-5758
-982
-103
-1346
4243
-537
-1039
-868
-1785
-1840
235
-2999
-2589
-3925
-3506
-310
3808
1957
1684
1247
2787
-1404
1539
3514
-2917
1750
5528
-3770
5553
-1162
-4136
7358
-1834
-4810
-5147
-3854
2723
-50
-4713
-1977
-272
-2820
3383
-4970
-2230
-1537
-1479
-6873
-8059
-1268
776
2154
-4433
-48
2259
2472
2850
6023
-732
-3395
-2733
-2910
539
1262
885
-1344
4858
-1515
1846
-1808
-822
3018
-6984
389
2875
1185
1863
1138
-2222
-3784
2421
1382
6365
2682
103
1220
1003
-136
-1648
2976
-933
-1695
1207
2876
2196
622
-283
-408
-2346
3479
5020
-1628
-1400
-3675
113
-2296
71
-279
-3568
2504
758
1757
2940
-2006
-76
-755
1456
6176
147
3861
-1071
-461
1507
1030
-4382
-4536
1057
1440
-2836
-5692
4689
-372
-2476
-2339
-4466
-403
-2186
-1925
2387
1695
4129
-3725
-403
-207
-1728
696
539
-491
3296
-5399
-733
-877
-6375
1558
4448
353
-1334
-1200
-3103
4416
5296
2906
-4983
1646
-1806
89
-2880
3029
-3215
4881
3739
1396
604
-4062
3450
-396
-944
-3543
2588
2564
-5178
-1745
-1878
-311
150
-2220
711
-1466
112
754
-1968
-4719
1497
-2696
-1924
-3673
1587
4825
-4564
-2906
-758
756
2274
-790
-5591
3195
2508
-318
-226
2531
7383
-1007
-1880
48
-2078
-3234
-2634
-1743
2225
-2569
-3362
2595
1138
-3723
-1252
341
-164
-475
1352
1950
3461
-119
3841
-3289
1829
617
-3018
7317
-5014
523
512
-2871
-1242
-1740
-329
4380
-5248
-6028
2914
-4141
4025
1500
1205
3311
-1892
2860
4276
787
-4760
-431
-1713
-3113
-1988
-1118
3274
-2120
4215
713
-595
-1794
-2585
-810
-1103
-3821
2134
-4898
-1919
821
-888
-2452
2270
-1143
3061
1079
4457
-2479
1322
9
3934
-1034
1638
816
-4882
2382
1954
-3734
-2096
-3317
-495
-1320
3966
-3966
3275
3847
-3092
454
-1172
-3295
2777
-924
1230
-442
664
130
-216
-99
-2152
1640
4849
605
1787
1573
-2364
-1133
1710
3996
-4093
4465
3372
405
348
8564
500
-2451
-3855
980
-2140
-447
599
984
1286
3069
-2023
-632
-1887
3194
