121
253
-13
48
-8
-117
14
124
-109
-68
35
14
-102
-69
-125
190
-74
77
-64
-36
-121
197
-8
114
-62
-87
-19
100
-81
17
34
148
-126
31
30
133
-74
34
112
130
-27
-162
-32
-25
471
177
-124
-92
-69
-11
68
-29
36
16
117
72
153
122
50
-61
18
-111
-63
-205
63
115
88
18
-53
-20
153
-51
-23
-29
3
24
-1
-49
-28
79
-109
-9
-98
81
57
-32
12
44
-26
-66
121
28
53
-16
66
-44
-12
17
249
-27
-107
27
-146
98
68
27
-43
-49
-29
51
30
-8
58
77
-57
-121
-116
86
-69
22
11
-23
-50
40
69
46
84
66
43
3
-44
7
6
-18
-21
-18
39
-55
-6
-16
-3
-27
-23
24
3
35
38
-22
-5
21
-47
11
-32
-33
7
3
27
20
45
-4
3
28
-14
21
10
7
-29
31
4
-3
-4
-64
15
8
-60
-25
41
4
6
-3
-32
16
-15
-38
27
22
28
17
-10
34
-81
-3
14
30
-7
67
-21
1
-10
-34
-5
36
-42
5
23
-37
-2
20
-58
-43
-44
25
-30
-34
-32
58
38
2
-14
-12
0
10
-21
13
23
-15
-73
-53
75
35
-31
-20
-1
38
-20
38
61
-90
2
-17
-37
-23
-67
3
-78
11
21
-2
36
-24
14
-7
54
-65
-64
47
-16
57
20
-16
-53
-35
2
21
29
0
14
7
-15
4
-20
7
10
8
-28
-17
21
5
-9
10
-26
-26
301
-19
-9
3
-14
4
23
52
8
-30
4
-4
-13
-23
-43
6
28
-3
-37
-6
-14
28
0
-49
-15
-14
-6
-2
19
-15
-50
10
19
-2
2
-13
-29
-47
60
-18
51
-29
-15
49
129
-48
85
21
20
41
80
29
-14
-23
-26
19
40
54
50
-28
-39
-23
12
4
33
46
104
-48
-104
9
-57
60
2
-21
-12
-71
39
-47
45
-6
61
66
46
-93
68
-168
25
-13
-48
-48
2
127
-13
68
3
-44
-22
62
7
121
-39
-113
-35
-54
23
-143
-641
427
-19
-349
29
-342
-230
-755
-109
148
-1623
117
342
275
-454
-699
243
-395
291
-133
174
-714
99
20
82
-192
180
-302
250
-26
-65
-37
185
87
-199
-145
-160
-116
-290
-190
-184
-92
133
-74
-215
-258
406
-94
74
-156
-389
-263
72
151
-50
0
118
-177
-181
393
-76
49
96
26
19
9
42
-27
-24
-478
21
67
-32
-29
-33
55
21
-95
85
63
27
-101
87
-33
-81
-71
49
78
27
-29
-130
-38
150
119
38
-48
77
6
58
27
-6
-71
-29
155
-194
92
28
8
-44
-68
22
-82
-105
18
44
-46
-19
46
-45
7
41
115
129
38
-50
52
372
-1280
-229
231
-206
443
18
122
245
-113
-291
-7
112
-321
100
-143
-133
-86
79
-244
-237
-140
-162
143
26
535
-163
728
280
-158
-597
722
-298
-129
15
-443
315
96
251
265
-64
-43
-209
-103
18
-84
576
-522
290
84
-43
-242
97
-288
153
103
-512
-111
-446
121
-296
278
18
24
27
31
-67
-2
-42
26
-3
-9
-23
-7
-3
-108
12
13
26
13
46
-90
-21
47
6
3
-5
63
-24
-26
-13
6
-19
-5
-8
11
24
10
-46
-51
44
29
-12
-39
-66
-5
12
35
45
-6
-44
29
22
-25
-85
16
13
2
48
-20
-12
43
50
-8
9
-80
-20
-13
59
-50
-12
-14
-12
3
10
-15
-13
14
-18
11
-22
7
14
0
19
-25
-5
15
-52
11
-33
15
-31
8
44
-63
3
31
33
-8
-75
-29
53
-4
-25
-35
-7
50
18
-42
-4
-32
18
-9
34
-2
85
-62
-15
-8
-7
-15
58
12
-19
-5
16
9
5
-7
45
-75
-124
94
50
-9
13
-175
52
10
-1
-95
-274
106
-48
29
28
-8
-25
24
-91
-29
42
109
-176
4
18
6
5
41
85
90
82
-72
-57
-78
-193
104
36
-82
11
63
0
16
-323
-55
-88
7
29
-133
-303
-53
44
104
44
-15
-118
-23
117
40
117
-60
-371
-49
