-21 9 -3 3 -52 19 7 -54 -41 18 -26 9 21 -13 3 6 15 2 2 -5 -28 -48 21 -3 50 -3 -31 20 -3 4 -15 17 47 -7 -25 -25 -4 26 22 80 16 -9 -8 -46 -40 -5 -44 7 30 23 17 47 59 25 -19 -7 44 -1 56 -28 24 7 43 -2 28 45 36 -23 4 14 22 18 -24 0 -64 -17 -25 15 -13 12 11 -4 24 16 -5 1 1 -22 20 31 -5 -44 36 -10 -64 -8 -36 8 32 -21 -15 40 -28 0 -14 -33 -43 28 17 16 3 9 23 1 -28 31 -12 -25 37 -29 24 4 -18 0 17 -25 47 12 29 -12 -9 35 14 33 -12 -39 -11 13 0 15 43 25 -28 -71 9 23 -17 -24 -5 0 7 -16 36 6 27 7 -15 -10 35 -4 -60 5 -29 38 -13 10 37 1 -1 47 23 -29 -28 40 -8 -16 -19 30 21 40 -57 -75 -22 45 -10 -6 17 -11 -31 -27 14 -3 -11 -16 -37 9 64 16 22 -4 -24 6 -19 -23 27 -27 -4 1 11 -27 -5 9 26 -16 23 37 1 10 20 9 28 13 -9 39 32 27 -82 -7 6 -6 4 -10 -2 -1 28 -3 44 12 -40 23 17 3 -15 1 49 -16 21 -4 12 20 49 -9 4 10 29 12 -10 37 11 45 19 36 1 5 -20 -1 20 19 44 53 15 -18 3 9 -21 27 -22 -30 -6 30 -9 45 -7 -54 50 -33 35 19 11 9 22 13 20 -40 -30 5 -8 23 48 -2 12 -4 12 1 -16 20 11 -1 -17 23 -27 2 5 5 -22 21 8 -12 -9 -35 -15 31 27 -2 -30 -1 19 -2 -4 -56 -25 -6 75 21 43 27 -59 -21 -6 -9 -33 -5 -23 -20 71 13 -20 29 -18 -27 26 -29 -3 6 2 21 14 -35 -24 50 15 2 -60 20 -31 -2 15 20 -59 -44 12 -11 -24 -25 25 -11 5 9 14 22 -16 19 20 36 22 -34 48 0 -24 21 -12 -32 -26 -14 6 -27 1 28 -14 22 -10 33 -6 -17 35 -14 4 -13 -17 9 -4 59 -62 6 5 12 47 24 -14 -5 -18 -22 40 1 -42 -11 -19 -33 -17 11 -9 -27 1 2 -47 30 -9 -1 26 7 21 -3 0 -16 -79 -9 3 60 16 -10 20 25 -20 14 27 -1 -33 14 -15 3 -15 -26 7 -43 28 -23 -11 29 24 7 -51 19 3 -13 39 -5 15 -23 34 -7 54 -16 -64 74 28 16 -5 19 -16 -8 -3 -6 -13 29 18 6 8 0 8 36 31 -11 33 -55 29 16 9 4 0 13 -15 34 26 10 -127 -79 1 9 4 11 12 -3 -31 39 66 29 5 -26 -21 17 28 -30 11 -80 37 -78 23 -30 7 23 -43 -9 32 6 -1 -11 18 -20 -37 4 -2 -10 53 18 -7 -12 13 50 16 -37 -55 -13 34 -15 49 27 -40 -31 56 28 2 -19 -34 -21 24 52 53 -3 -3 -14 0 -36 9 14 87 -37 19 -4 4 -21 -6 -31 38 -31 3 -39 -15 30 -3 -8 -12 50 3 -14 -26 10 -9 9 59 50 35 17 2 -14 -21 24 24 32 -18 -6 10 7 14 17 -3 33 -20 9 -25 61 -12 -53 -27 3 -13 12 -11 -59 -6 -8 -30 -18 -10 4 17 -5 -36 29 12 -28 5 15 20 13 59 -8 13 -50 -11 -92 44 -9 17 -41 -1 62 -34 23 1 -26 -21 36 21 -14 -27 38 13 -10 25 -44 -21 7 1 22 44 -2 45 16 42 5 21 -41 18 30 30 -48 -17 -33 29 19 -10 -11 18 -2 -46 21 -13 29 9 14 -40 46 -27 21 9 -37 7 6 -4 6 24 -10 31 8 25 -4 34 0 15 -19 37 -2 7 3 20 25 23 23 51 -2 34 11 -26 -26 -20 18 -15 67 -9 1 39 5 -6 32 20 1 25 17 21 -14 15 1 -14 34 3 -32 38 -38
62 29 19 65 24 -11 -60 47 23 36 33 8 10 -46 22 42 28 20 -36 31 -12 44 0 15 -1 -11 -24 -55 9 20 -12 1 -15 25 17 46 15 -22 44 -26 50 48 31 -21 2 5 19 -7 24 -38 -20 -24 40 -6 -3 -1 91 -6 36 44 -27 -24 -9 32 61 -11 53 -44 21 11 21 47 63 36 -5 1 11 1 10 47 13 22 1 13 62 23 -23 -53 25 22 35 65 24 21 19 -9 60 14 57 9 -59 20 -17 72 22 18 11 20 -6 12 43 47 -26 -32 30 62 -42 -22 -26 15 20 -26 13 8 -7 17 -16 48 19 82 48 49 126 43 76 11 3 12 36 45 67 -2 24 36 -12 3 33 -25 25 -39 26 10 -33 5 19 18 27 11 -7 -12 -10 -1 -27 5 -3 -4 8 0 13 20 -4 34 -4 -14 -48 -10 19 46 53 -24 14 1 -30 -23 -34 -8 -46 -2 11 38 32 -22 6 -39 28 -3 2 -2 -26 19 48 23 -1 62 12 -51 34 5 104 20 -4 0 -13 -43 26 15 2 -9 7 -21 47 57 -6 24 26 37 27 -31 -21 30 -5 18 11 -14 69 7 -12 -30 27 11 -7 -53 38 6 59 -20 42 32 22 64 -35 -2 -24 -1 46 -7 28 9 20 29 58 42 13 -35 14 27 77 10 -56 -17 52 -71 -26 2 -7 41 9 29 5 61 28 -18 22 41 6 10 17 -17 66 -46 3 43 52 37 6 28 -38 6 37 38 29 10 11 8 -14 68 21 21 34 -5 104 61 40 15 -42 -19 -6 48 49 6 12 55 -2 74 -6 43 3 14 8 37 36 36 -39 15 19 19 100 19 45 16 -33 27 33 13 -11 23 7 24 -1 -26 45 -2 24 2 -17 -4 11 36 18 34 22 -8 -12 -30 3 9 15 10 39 -8 -3 -9 44 0 -11 39 11 26 -27 47 -14 -7 31 -35 25 -2 -43 -5 3 -10 -39 12 -4 12 46 20 48 14 -4 -10 -6 30 18 3 -28 -7 50 30 -28 -18 3 3 24 60 5 13 2 1 10 19 -47 18 31 43 -52 0 -4 63 -17 -7 10 25 -13 30 25 3 -23 55 0 21 2 126 43 35 52 -17 94 -29 18 -6 -21 57 16 -25 71 16 27 85 53 93 -2 -18 -40 10 82 18 14 36 -2 14 -29 -46 23 21 9 12 -11 -10 50 40 8 13 25 -60 18 48 26 21 -13 8 27 -16 3 23 10 81 -8 4 31 -16 -16 -19 22 -10 3 16 24 -35 68 48 -5 9 40 -24 31 28 21 47 47 6 52 64 -1 -42 -34 2 -25 41 64 32 1 31 41 26 -4 25 20 -1 50 33 56 2 21 -45 59 76 5 -73 -5 -35 74 12 10 45 35 47 24 36 -2 19 30 30 22 8 23 -11 8 -7 4 -9 25 24 -17 20 52 57 -37 -3 -6 0 40 -37 37 9 -3 31 12 11 -13 65 18 -8 32 46 -3 -25 24 -16 -8 35 19 -16 87 -39 2 40 29 -19 26 45 -48 6 18 -12 30 52 37 -6 16 15 -9 -24 -12 1 15 -20 -12 -48 -22 -43 48 -44 54 -28 -5 28 22 -9 5 56 14 -2 50 42 35 56 9 64 -12 -46 3 -8 21 29 11 -41 42 2 26 90 -8 -7 38 8 53 3 55 61 18 6 50 28 7 33 6 42 14 29 -2 12 50 39 -9 -1 34 -4 -18 20 -15 10 -5 75 27 -44 43 3 -4 50 -1 28 -30 26 53 67 16 48 1 -30 -4 9 -2 -8 49 -53 -8 -22 -6 39 15 -26 56 47 -21 27 41 -5 56 9 -11 -7 -4 -37 38 14 13 15 47 32 32 -14 35 -6 7 -20 37 -10 13 34 -4 -17 1 32 5 -19 -6 64 26 -28 47 -6 10 18 -27 33 8 6 15 51
25 -6 14 8 -35 27 -11 1 43 -9 21 -19 0 -31 -24 -5 -11 36 29 -31 51 -35 14 -67 -19 -1 -22 3 -10 -9 -26 30 -2 -35 4 30 -13 6 32 -12 -30 1 45 -58 -43 -8 -40 -4 72 -20 -18 34 3 -58 -14 4 -88 -35 18 -3 -16 -22 7 32 -23 17 16 0 -50 -38 -19 5 -22 -19 -47 -1 -15 6 34 11 -17 -60 11 25 -19 19 -87 -21 -59 -36 15 -42 -50 -13 33 2 -27 7 23 -4 -16 3 6 -14 -16 -37 19 -31 -20 54 19 -1 -43 0 -52 -31 2 -16 -2 11 7 9 9 -27 48 1 -40 26 -5 -11 -90 5 59 -21 -2 12 6 -16 -2 13 -24 8 -39 16 -14 -19 41 -29 10 -21 -80 -50 -45 -28 -24 10 -22 -29 -18 -2 -25 -5 -85 11 23 -7 20 -8 -20 41 -5 -52 -30 -30 -34 -13 -23 9 -29 6 26 -42 16 -36 35 26 33 21 1 74 -5 29 33 -4 18 51 -29 13 19 35 9 -14 -22 66 22 -2 -29 4 35 24 -79 22 -17 29 -24 3 7 7 10 -2 34 10 -12 -25 18 -5 1 4 11 -26 -3 -4 25 -57 -39 24 -25 11 -6 15 -3 -64 16 5 -45 -20 23 -3 2 -33 -28 21 86 -30 -11 6 -20 -51 46 14 -93 -13 -25 -43 6 -5 12 -13 24 28 40 83 -44 -5 -118 1 -40 -4 -21 -34 1 -48 0 -86 -3 10 -63 -17 30 33 -31 -4 -18 37 -34 27 37 -3 -64 31 17 13 25 -8 -49 16 -14 -1 43 -21 26 -8 -32 -13 -3 -24 -40 7 -26 -27 -8 64 17 -3 37 -2 -7 4 -1 -67 -28 -30 43 23 15 28 -72 11 15 -24 -17 24 12 -42 7 -55 4 37 -19 -1 -23 -93 -7 -8 -38 14 69 13 -33 -6 -23 -6 8 41 -5 9 -11 17 40 -42 -10 6 49 -30 -20 87 -10 -35 -37 42 -53 -20 11 24 -14 -3 1 18 36 42 -42 -59 -16 21 24 43 36 -12 21 -10 -23 62 -40 -2 78 29 -25 -9 -2 8 -23 -41 1 -25 21 -17 -68 26 -10 -7 -3 -1 -14 -63 7 30 1 -2 -5 -43 44 22 -12 25 24 -3 3 17 18 -32 1 13 46 -60 -24 -46 -27 62 25 -21 9 -29 16 9 -15 -24 31 -25 4 47 9 -39 44 3 -14 -17 -1 -18 -7 33 -32 -34 -5 -8 -93 -127 -16 4 8 3 9 11 -39 -43 23 10 -13 4 -14 19 13 27 -13 -86 4 59 0 -2 10 -64 13 15 33 -24 4 -22 -31 -20 19 -55 -16 -12 22 -28 -22 -12 -36 15 -21 19 19 4 -7 43 73 -51 24 9 -1 1 -65 6 -52 -5 23 -50 3 -6 1 -8 7 -20 48 56 46 -5 -33 -14 -13 -28 32 -12 -15 -3 22 1 15 -13 7 -11 9 -10 -9 64 -22 -6 33 14 25 -6 -20 -9 -35 -28 16 -27 29 1 -33 -29 14 -19 56 -13 1 -43 -31 16 6 -8 8 17 -28 -15 -5 -50 8 -28 -18 28 -51 -61 12 -53 16 0 -20 -17 12 48 -24 15 -21 -37 59 19 -1 -31 -15 -31 -4 19 -9 25 -18 -40 24 17 -30 3 -20 -23 56 21 9 -27 -10 -42 -29 19 -18 -10 -20 49 -25 -6 39 2 -2 -44 42 -33 10 -11 -17 10 -4 26 10 67 -29 1 -18 26 -5 -18 26 4 77 -34 -48 49 19 43 -2 -18 -7 -13 -28 16 -68 8 -15 8 -25 2 7 -15 3 15 39 37 8 -1 -2 1 -45 7 3 -31 27 -11 21 50 43 23 -20 42 -14 -29 16 39 -64 -23 48 14 -2 -18 25 36 15 -8 -32 -10 -5 24 9 -17 12 23 -66 -11 -29 -25 30 -11 60 35 32 78 27 15 1 -32 28 13 60 -23 46 1 11 -2 -8 -6 -15 -2 37 -37 -10 -35 23 -7 32 31 17 -9 -8 6
52 18 42 38 9 24 -24 -10 -11 2 -25 28 -72 -32 23 -45 -18 -7 -59 -4 -24 -2 -30 17 14 10 4 42 17 37 21 21 -2 -21 -4 -23 6 43 45 37 -23 -16 7 70 15 46 -11 21 -43 -22 -20 50 -60 10 19 16 -46 49 -40 -23 0 8 -44 43 -23 60 -3 36 -35 -106 36 -8 -29 35 -29 -8 -9 -13 52 6 -80 -56 -4 -11 -6 52 25 23 25 -13 36 -9 9 15 -50 -13 10 15 -83 1 -11 -53 9 16 -42 62 40 29 -55 -11 -25 -36 36 47 -3 31 60 -42 32 17 -10 36 44 -13 -20 30 5 -93 25 13 18 -15 -24 3 -21 113 71 29 45 -40 -3 4 -4 -55 -27 -21 0 32 23 -20 3 -32 3 5 -49 -15 9 40 45 -14 66 31 18 -24 44 17 -23 -11 61 -1 -39 -34 -21 32 6 13 -10 -8 -2 -3 8 -42 84 40 -48 -13 -29 0 -36 65 40 -52 -18 8 -42 32 9 -12 -5 -9 7 -43 50 14 37 33 14 6 80 34 17 -35 -4 -20 -5 -13 -48 14 -2 27 -1 -39 -50 -18 67 13 9 41 2 20 38 7 -6 27 -16 12 -49 50 -4 -13 0 14 81 9 -70 41 -39 -12 -33 -46 15 9 -18 73 -13 7 -31 51 -20 34 34 -21 2 -54 -25 15 2 9 -49 -22 20 12 15 40 7 -29 -10 5 -54 55 1 54 -14 42 0 40 61 30 9 56 25 -34 62 4 -2 -41 -18 -11 -51 -18 -25 -49 28 23 15 1 2 0 -50 10 50 -5 46 12 25 26 -13 22 -20 90 -45 17 -43 4 17 58 18 1 -57 -26 5 5 4 -48 49 -74 60 -29 115 5 19 -15 42 -17 -63 2 37 -41 26 9 -9 18 73 4 18 -3 -29 32 -1 -5 -40 -25 28 6 5 17 26 56 -34 11 77 69 4 -39 -19 42 19 11 -61 31 18 -46 1 71 -15 -18 57 38 -12 36 1 -10 77 21 50 8 0 23 1 0 -1 5 -52 -11 2 -26 9 13 22 -34 32 11 -2 -7 20 -50 -2 4 -32 21 -26 16 8 24 23 34 -7 -48 -32 -12 0 87 2 -34 -7 3 71 -13 38 1 -10 -60 35 9 -63 0 5 21 -19 27 -51 -34 -16 -7 -44 -7 60 53 11 -31 39 53 -27 7 24 -38 -3 73 -3 16 45 -19 28 43 19 3 10 46 20 -30 14 100 -45 -10 24 26 12 -21 -23 -27 -40 5 -42 39 -16 19 -12 8 -4 6 71 57 10 13 -50 -20 -8 36 -64 10 17 25 -10 69 -64 -49 -6 -61 -3 23 52 15 11 17 -9 -57 7 -31 -26 19 -3 29 -30 12 10 50 -35 44 31 4 20 -5 1 73 17 12 10 92 -31 23 23 17 -6 28 -18 -38 9 7 -32 44 -24 33 2 5 50 -57 38 29 31 5 16 18 126 21 -12 39 9 -21 35 -25 27 20 -4 2 -5 -15 53 -31 -7 15 35 -3 10 6 -15 -33 18 -29 -40 -29 54 -61 -79 65 -21 21 -22 8 -26 -32 24 -23 30 68 -6 0 -74 17 15 -5 34 -68 18 20 31 5 -29 -15 -7 69 -34 103 47 78 3 -35 16 -92 35 -22 43 10 -32 14 73 67 -41 46 16 27 -56 33 27 -10 16 35 53 -18 41 -56 -19 7 43 54 -28 -7 2 -18 7 -24 -61 -37 -1 -31 22 0 3 38 -18 45 6 -6 40 24 -7 -54 -26 11 -29 -19 -17 -13 -11 47 2 4 26 20 -15 -18 55 -3 -74 34 18 -28 82 35 13 -8 -57 -12 7 71 30 -66 -18 -10 -42 70 -19 88 -8 -4 39 48 -12 7 -12 -24 -20 -2 17 1 -5 -34 2 -5 -38 -51 -10 57 -3 -20 74 16 -2 -4 -8 -2 9 -4 -5 83 -16 26 -10 -34 -4 -39 -31 -46 22 5 12 22 6 15
51 14 35 19 -26 22 37 -23 61 -13 -7 15 -17 -15 -34 -11 9 51 -17 16 33 37 21 7 23 17 15 -8 68 6 30 -39 7 19 20 -28 -7 -6 9 -81 7 -13 26 -56 -19 32 -20 -45 -35 16 -26 17 -1 -21 -92 -38 0 -20 9 -4 -1 -29 45 -34 -10 -75 -5 -24 16 -5 33 -14 12 -9 -22 3 40 9 -13 31 50 15 -18 -21 -19 41 -77 -11 -37 -7 -47 25 102 -24 -90 5 -26 -22 -26 28 -26 -6 -18 -53 19 40 -23 31 -33 14 17 16 -48 3 17 -1 27 -50 -26 -31 -61 -36 -10 54 11 16 17 9 -52 -17 -68 31 47 3 11 38 21 45 -10 17 -10 -11 -67 46 17 62 -32 -24 2 -11 28 2 13 47 -26 -72 -20 -15 18 13 -6 -18 10 29 -11 2 -35 16 -44 4 29 9 22 -37 27 -7 -6 -45 37 39 22 5 35 4 2 -33 4 -12 1 -27 -21 -39 -36 5 -41 18 -36 2 -13 102 -33 27 -31 -18 -5 -40 33 -66 -16 51 -2 9 -18 -14 11 25 -20 -1 13 -10 56 33 90 -21 2 -24 45 45 -12 -15 44 -42 -5 -21 -12 -7 10 36 71 17 -12 -19 -34 -2 61 -36 -30 -47 52 -13 38 29 13 15 26 4 -28 54 -4 30 5 1 31 42 15 34 -31 -55 -95 56 16 26 92 -13 69 51 -32 -54 1 -6 8 36 -51 21 -14 -58 -19 2 -14 49 -13 38 50 51 29 -6 18 26 -14 -16 21 -18 -31 21 46 -44 -42 55 50 13 -15 -57 -33 -21 -38 -10 14 -14 9 25 -1 -23 13 27 32 -4 -21 -22 -38 72 8 8 16 36 -32 77 -6 32 -28 1 -34 38 -4 -31 -53 -3 -65 -7 -27 39 25 -79 19 5 60 19 -19 -51 39 42 -2 13 44 34 -6 22 24 30 -39 8 30 32 -36 4 8 -8 -13 -31 48 66 -44 18 -10 -10 -57 -12 -58 28 41 -11 -1 40 -2 19 -45 107 -23 -37 -6 -108 -25 19 -56 34 50 0 4 13 2 -15 12 -3 60 -59 30 -25 38 -29 40 -24 10 -19 27 39 -5 1 17 8 -9 -32 -26 -13 -17 49 -45 12 44 -18 -69 -50 29 -20 45 -51 -74 3 -55 37 -13 -77 -31 -53 32 2 -1 14 -40 -1 -42 30 52 9 -74 -50 34 39 -46 -11 15 -117 41 -65 53 1 126 88 -66 -7 -19 34 40 29 -13 13 -41 -18 -15 17 25 -1 6 -10 8 34 8 -30 -2 14 16 13 -42 16 -23 36 -15 -12 48 -19 -14 17 48 -10 19 3 -2 33 -2 14 -3 11 -80 -46 49 -42 -21 14 46 -17 -29 -18 45 4 31 -7 -18 51 -4 11 6 38 35 4 -15 27 -4 8 2 17 -38 11 -22 -10 -9 45 -5 -36 4 -13 -27 -44 -27 3 9 12 35 -74 42 -59 -34 -26 5 14 -2 -53 39 -32 35 -7 43 -8 23 -46 8 -23 74 26 -27 -4 4 -4 -44 -48 44 41 -76 71 28 4 -14 30 57 38 -77 -47 -19 47 -28 65 -8 1 7 -29 5 18 -28 -37 -2 35 -3 -49 -21 -11 -29 -14 -22 91 -74 16 -59 -49 -48 45 51 29 -16 -74 25 17 -10 12 -25 14 -20 6 -8 61 -46 4 -42 48 50 15 11 -2 79 11 9 52 -23 -10 58 -5 -24 18 3 108 -78 -56 -10 33 14 -8 36 -14 54 -8 34 12 -22 40 31 -31 4 17 0 17 62 50 60 3 -24 44 -38 56 31 -21 5 -23 80 -37 -20 28 65 -49 46 25 45 -5 -14 21 -20 -80 -34 12 5 18 64 30 39 28 -47 78 55 -11 48 30 -12 -3 -12 -51 21 -25 -14 -21 1 -10 60 -27 -15 -9 -21 52 -16 2 11 59 17 -66 -21 -18 52 -18 10 -2 28 -14 40 36 -14 13 47 55 41 26 6 -30 3 20
-21 48 49 47 -13 -27 0 5 -9 16 12 11 24 0 -2 3 -23 3 32 1 -56 -63 -27 10 31 -15 -61 -27 -18 12 -30 -3 -39 -16 -18 -46 42 14 -22 -48 -35 -11 1 -42 0 -29 -25 -15 -24 -25 11 24 -47 7 -45 -9 21 24 -30 -15 0 2 16 22 -1 -10 -14 36 2 -25 -2 -16 10 4 -21 -7 -43 -10 -54 -16 36 -56 4 15 12 -6 -2 4 -43 -4 1 3 -17 -5 30 -15 -6 22 41 -12 10 -20 -27 -44 -48 -13 -26 -42 -1 -30 -34 -18 -19 19 -23 27 -46 -21 -9 8 -20 14 -12 -5 27 -14 9 12 -22 18 -47 -14 -84 -6 15 -30 -1 -22 -8 40 25 -17 -6 -9 8 19 13 -41 -2 -12 30 28 -16 -6 6 26 7 -2 -36 -36 37 -12 -10 10 -21 -45 12 -10 28 -21 -11 -4 -7 -32 -54 -46 44 18 60 -21 -9 41 -18 38 -32 -2 -50 11 5 22 -14 39 10 -9 3 20 33 -80 5 81 13 63 -1 -48 -41 -1 -10 -30 23 -20 -127 -29 -35 -30 15 -12 15 -2 19 -1 6 34 -25 -48 3 18 51 23 31 32 -19 -54 -12 -4 -66 4 -40 60 -31 36 8 11 -20 -11 -20 27 8 4 44 29 -88 24 50 -14 20 17 -2 -30 -64 -18 -21 -6 -54 -24 13 27 32 47 -27 29 24 4 -80 -54 -90 -79 46 -5 -4 -51 11 -2 -7 29 -18 -22 -3 -4 16 52 -36 -63 -25 -14 45 -3 114 -53 18 -2 45 -36 15 2 25 52 -18 32 24 -16 -4 2 -56 -32 12 51 15 -39 17 13 14 -43 -39 -76 -37 38 -17 6 -5 -13 -19 -15 -5 -19 -74 -40 -83 22 10 12 3 -38 -33 36 12 53 -4 9 26 -7 19 -32 -29 32 65 -29 -34 -4 -6 36 -39 -10 -70 -42 0 50 12 11 13 20 -65 18 71 -10 8 -24 3 -59 -27 -1 27 -46 -27 -1 -3 -39 -38 -27 -43 16 16 -50 30 -16 -57 18 32 -24 -55 22 -17 33 -12 9 -30 15 85 22 -21 -29 26 4 29 6 3 -55 -30 22 19 -14 28 -2 48 8 -34 -20 5 12 24 56 34 -45 -29 29 -1 -38 -43 53 12 10 16 -41 -6 -6 -2 -68 1 63 21 0 -5 -34 -13 -9 9 -40 19 33 -4 54 6 -9 -40 13 -30 49 -41 -78 18 45 -9 -63 -47 -51 31 11 -11 -7 -65 -59 -2 -38 -71 -36 3 -1 -49 -32 17 6 -18 -6 -13 5 -15 -20 -11 -5 -10 -104 -51 -4 -27 -1 -16 10 32 -9 -102 -14 -2 26 -4 -2 25 9 -17 -17 -1 -15 14 43 22 21 -59 -38 4 -20 30 -20 48 23 -18 1 9 -9 67 9 -28 -5 -9 -19 2 -14 58 -43 0 30 -38 -22 -21 0 -44 37 10 -2 -5 11 -20 7 14 -9 9 0 -20 -18 -42 30 -2 -20 -24 18 18 -23 -36 -72 10 1 13 29 10 26 -63 -37 -17 27 5 -5 0 34 48 17 12 -31 26 46 -43 -29 -15 -55 -47 36 40 -64 8 -74 -44 -68 -14 -19 18 1 -31 8 -19 -7 10 -26 -60 -24 62 46 -26 -11 13 -12 -4 15 -63 1 14 -45 3 10 -4 -13 30 -28 22 -21 -30 0 -30 19 -19 25 -23 -24 -46 15 20 17 -29 -16 38 13 -8 35 -36 3 -61 -64 -2 58 -36 8 -18 -36 -21 23 -67 -25 -39 7 -14 21 -4 28 54 -21 -27 20 5 2 22 -14 0 -12 -33 23 7 45 -29 -7 18 1 56 22 17 0 -60 8 -49 -35 -2 21 -87 15 -4 -9 -51 -100 27 56 50 24 -13 -53 -5 6 -5 3 -51 -20 -20 -26 2 -8 18 -7 -19 -23 13 -6 28 -24 -52 -45 -2 16 18 -64 5 21 -27 19 -54 12 -52 3 -23 11 -25 -36 -32 -3 1 86 -29 56 34 -23 -3 3 -20 -21 -2 12
-6 2 -66 2 41 -12 11 -41 8 -45 -21 14 19 -4 -20 -9 0 12 99 5 11 -28 9 -21 -33 29 4 -33 26 -43 -8 31 -38 17 -13 13 -29 -31 12 13 -10 -40 -24 14 -43 18 -4 -1 -32 -6 32 -79 38 9 -57 20 17 48 21 -58 19 -11 -14 -15 -45 12 -74 13 29 36 77 -16 20 5 27 12 -19 2 1 -33 75 32 1 -13 -2 -6 9 -31 -50 44 1 -14 -7 -32 -78 37 46 22 -8 -13 -2 -27 -40 36 21 42 1 -17 66 27 40 -7 7 -3 -17 0 20 -11 13 10 -1 48 -23 45 -7 -9 36 15 -54 4 -36 8 44 -15 -59 -51 -13 7 -56 -7 -64 62 35 43 10 -70 15 -14 35 10 6 -4 -62 2 -2 15 -2 -14 -29 16 46 1 64 82 -44 -4 -24 -17 -35 15 -6 -75 -10 4 -16 -10 -27 20 31 34 54 15 53 46 -61 7 -27 32 35 61 -72 51 25 10 12 -22 -32 48 13 -27 65 11 27 -16 -4 3 7 44 -1 -22 -73 39 -24 -37 5 25 6 -1 -30 -3 22 -9 -6 -44 -57 16 21 -10 -2 -11 -71 -5 -9 -66 -22 -12 -47 37 17 21 39 -20 7 34 58 3 -6 -7 -58 -61 45 -16 46 -19 -24 -54 -43 27 -32 19 61 21 29 -24 -40 10 84 35 47 81 -19 -27 -8 -54 -23 100 -25 57 13 5 36 4 22 -9 59 -15 -26 -39 31 25 13 -21 -13 -30 37 29 8 -2 -62 27 31 1 -11 13 38 -33 11 -46 -3 18 37 0 -79 -4 -56 14 33 -14 26 8 -9 -35 34 22 37 -36 22 -31 5 6 -1 -10 4 6 -21 -11 78 3 -35 17 23 -6 -40 25 54 -36 46 -18 -41 2 0 -22 26 -1 -27 -9 17 -19 2 -2 28 -6 -51 -40 -26 6 10 47 10 -27 46 4 16 33 -20 -46 38 16 10 60 -3 -3 -15 67 13 19 -1 4 23 -21 -45 49 19 -31 37 15 -17 -1 -24 23 -11 3 27 15 16 12 18 1 -11 -10 -36 -12 21 20 -2 -45 -4 13 18 32 3 27 56 -22 -27 17 -40 9 26 77 50 -5 4 24 17 -5 62 24 -22 52 -14 -7 -37 35 -38 126 9 50 -24 -16 34 -7 -11 2 5 -55 -74 -76 22 34 34 -23 -30 -35 7 -3 -27 -10 -6 -30 -16 42 31 49 9 -12 -18 10 3 -64 0 9 48 -28 87 0 17 -3 31 20 4 29 2 46 -2 19 -3 16 19 1 1 34 23 10 -47 27 1 41 -4 26 25 15 16 44 -4 23 25 -37 -31 -8 -13 -25 -22 92 -34 68 -20 33 0 -17 -6 -4 81 54 8 79 -21 27 -7 -4 2 -10 11 -65 -52 -51 13 28 36 17 -26 -1 -34 16 -6 -41 45 1 -1 14 -67 -9 7 33 -15 7 -37 -17 -3 0 -13 -62 -37 1 8 -1 -40 -10 16 -9 11 -43 -15 -24 -6 -24 -5 48 0 45 9 7 0 -5 78 -20 -65 23 -5 6 -20 41 16 40 -47 14 18 -28 69 -8 -24 -30 33 -1 12 28 -6 24 -14 61 -9 -16 58 -5 -35 0 -21 -30 -2 -33 -11 21 49 -42 -24 25 58 -9 -21 14 4 -8 -12 54 42 -27 0 16 19 24 -53 -12 7 -2 4 2 40 -14 -4 -21 -19 9 22 -43 37 -63 -9 -58 61 52 -2 10 -2 -15 8 3 11 14 -4 -5 -22 -21 11 1 -19 16 -59 24 -11 1 -11 -7 17 7 3 -27 -14 -69 -6 -37 -48 14 14 -21 -15 3 38 -27 4 28 -67 -46 -7 30 39 36 -3 36 -9 17 -18 -38 -17 57 7 -1 13 -33 -44 16 -14 -9 -41 17 7 6 64 -32 -21 18 5 -2 -40 -80 26 -33 39 -15 23 -5 -21 14 -24 17 -22 2 -8 21 -2 -28 23 -2 7 3 23 32 60 70
19 -20 43 -2 27 33 0 32 -6 -40 27 43 -9 29 38 -10 42 4 6 6 51 -19 -29 42 3 -14 60 48 58 -4 4 -5 -40 65 11 111 27 -14 7 47 -21 28 61 6 35 37 -35 1 39 78 14 -86 25 -18 13 13 78 -1 40 22 -12 -7 -19 -43 -6 34 23 -9 3 -17 -16 -27 -55 -48 -3 -29 -6 7 -18 15 11 29 20 -29 22 -18 -100 -8 45 25 31 -43 67 19 59 17 -3 -6 17 11 9 65 -9 52 -1 46 -1 14 3 -71 82 -27 -33 16 -64 -12 9 29 3 2 -4 0 -16 3 -13 -7 -23 12 74 -61 8 8 27 -36 94 -26 36 -43 -4 74 -78 20 -44 8 -6 5 -8 -61 14 15 -17 30 -24 -16 40 -20 -21 -27 1 -15 122 37 -2 31 54 -63 14 36 -6 10 27 12 20 -16 18 -8 27 29 -65 -16 16 10 7 6 -54 32 51 9 5 5 7 65 -33 19 39 -14 1 -20 -3 100 -67 -22 -38 -27 -6 -21 47 74 -31 28 -5 -14 -52 -13 25 19 20 10 7 9 -14 -77 -17 -41 18 -36 14 28 6 -19 -3 -13 -17 56 28 16 -72 69 37 63 14 44 14 -2 7 12 74 -7 2 -47 -30 16 3 54 -11 35 -15 74 -46 19 6 -42 32 24 1 -3 -19 60 -38 27 50 35 22 -42 -106 91 19 30 7 0 44 16 -7 59 -21 41 39 19 6 -17 28 -21 29 -45 21 -34 -4 -4 -23 47 46 -69 14 -4 -14 -22 35 82 -28 38 39 -74 45 -20 -48 58 7 57 8 32 79 -121 -38 64 37 -1 -35 -1 -19 21 -5 -32 72 -9 -60 -35 63 44 -9 -72 15 -118 0 -65 52 11 7 119 24 -32 31 -127 -10 7 10 -22 63 10 43 10 71 5 13 -24 9 54 -28 -10 21 -41 -33 -2 43 4 18 -18 22 10 -38 1 -37 25 38 62 -24 17 66 6 6 63 0 21 37 -36 -80 45 -33 19 -45 53 38 -35 -37 51 11 1 84 -9 24 18 8 -7 -26 -79 39 -35 -22 -32 -10 -39 -1 72 12 -98 18 32 38 15 3 43 15 67 6 -54 30 13 2 31 -26 -4 8 -16 -60 -10 33 81 -7 61 9 15 -2 27 4 13 -52 36 -36 -17 6 -62 -25 -32 31 27 12 91 -3 18 -9 -37 -3 15 -24 61 79 0 -1 37 46 22 -34 26 39 -9 37 12 29 16 22 -88 -3 15 -16 54 14 -29 1 25 10 -2 -48 40 74 46 -21 -1 6 22 82 -1 4 -2 -51 -14 -78 -34 -63 -19 -5 -8 39 14 19 -69 32 84 -10 -18 41 -38 52 1 24 72 3 -36 12 -38 41 -16 21 -8 62 22 23 3 25 -70 -19 39 -31 -2 55 -28 10 37 -27 -2 -62 -35 -20 17 -45 -53 -8 -3 29 -14 6 -25 -13 94 -34 -9 -54 -64 40 4 -7 19 37 29 -2 -21 25 18 -37 -9 2 -5 5 11 22 36 66 -2 50 52 7 41 -42 -21 66 65 9 -6 -5 24 8 -4 -60 -17 -16 52 -55 -12 39 20 -35 -9 -64 32 85 -43 -7 -27 -11 2 -84 -50 29 -40 69 -79 42 -25 15 -42 93 1 10 6 27 -11 -15 45 -49 38 77 -78 -44 52 -20 -23 30 -36 4 108 29 29 -10 -3 3 66 19 -9 5 -34 39 -53 14 5 -28 14 4 16 -11 -25 25 4 38 67 -4 -32 -44 -20 22 -20 41 15 34 6 -43 16 7 -11 -9 71 43 43 24 -25 11 -45 1 -81 27 -3 -42 87 1 -3 31 17 -22 22 7 88 54 -77 20 -19 3 -25 -25 12 63 16 17 -8 14 -10 23 31 -1 3 61 92 3 -86 -60 -2 20 17 76 19 21 0 -11 -5 8 -17 -6 86 9 8 -2 -11 -7 -53 98 -34 11 37 -30 -29 -63 -18
-1 6 -48 34 31 -48 41 -2 53 35 0 -28 37 10 -29 4 -65 33 27 27 -59 -59 -34 -35 11 38 -3 46 59 -55 17 -46 28 -106 -5 -43 45 48 16 -54 18 35 53 -48 70 -14 -3 -15 -54 -67 16 28 1 22 13 -5 29 21 -113 22 -38 -25 -9 -38 17 -40 8 -8 -17 -56 -19 42 -32 5 -26 -13 -27 3 -35 56 48 -7 -17 -49 -33 -3 18 -8 -1 17 -3 -50 0 -24 10 70 8 -28 36 -4 -28 6 27 28 112 5 -44 4 -45 -35 45 33 14 -64 -31 -20 63 -53 -62 -6 23 -7 13 17 -27 12 -15 6 -59 -25 85 4 -43 -12 -80 19 -22 17 -54 -45 -33 -59 -55 28 -18 34 52 6 21 -53 -17 -22 26 -47 11 -1 53 -20 -10 16 -126 -36 0 -35 30 13 40 -32 -49 7 16 5 5 -15 -10 -54 -16 -24 -51 -23 3 -52 -79 17 25 -5 -64 -11 9 -22 41 67 11 -39 -59 -87 33 -52 -1 71 -12 12 -28 38 -28 -38 -4 93 21 -7 -91 24 9 -2 7 -8 54 14 -23 9 -14 17 27 -23 -37 -23 55 -35 -23 -43 -68 23 -78 73 -15 -16 -24 -36 31 -79 -32 -68 -30 -18 60 3 -36 39 37 11 63 -26 4 -44 38 -84 62 -46 -20 15 10 -35 -92 -25 -87 13 -71 34 -89 35 19 -58 -50 20 67 -10 -6 25 2 -4 4 -56 23 -84 52 52 47 -20 -69 43 -11 2 -13 -29 49 -30 29 -24 -28 9 -59 53 -27 -32 -49 40 -40 52 -28 41 29 -18 9 -45 6 -43 2 -38 -2 71 -40 -2 -49 -27 -25 88 -36 30 55 -69 -9 7 100 -16 -31 67 18 105 -28 14 -109 -55 6 21 22 -14 6 -105 -34 -18 -42 54 -26 1 3 3 -12 17 -56 29 -16 16 -29 10 -53 15 6 -34 -10 51 -71 57 -5 8 -14 -61 1 54 19 -45 -4 47 -57 -94 -24 -57 39 -6 3 33 25 -36 -3 34 25 -23 -22 4 23 35 -11 3 -127 17 -36 -1 -37 -32 20 -4 -11 36 23 36 -21 18 -32 -2 -8 -15 35 11 -33 37 -36 11 -44 75 8 58 45 -35 -32 18 -45 20 -26 0 -3 13 23 77 -43 -51 -11 -16 10 2 -7 -22 17 -55 28 -5 6 -96 37 -29 -24 52 56 -33 37 -1 17 -13 -5 -54 8 65 -31 86 8 35 -58 14 18 -35 10 35 -17 -22 -75 -15 55 -43 51 5 57 -66 -18 4 -15 -5 23 -24 -11 -46 -1 17 -12 32 69 48 50 -7 6 -54 30 47 -47 -27 -20 49 0 -46 -30 61 20 -13 -28 -43 5 28 -13 10 -40 20 18 25 7 69 -25 -14 23 -48 -10 -48 23 28 14 47 -2 28 52 5 -64 -28 6 57 18 -10 35 -21 23 -96 -50 10 10 -6 -25 -6 -62 13 -1 -15 22 -22 30 -18 20 -31 69 -38 -11 -10 47 5 6 -12 13 -69 -27 32 -14 -68 -69 -43 3 13 0 5 -11 1 81 -20 3 2 48 -24 62 -65 -56 -34 -29 -37 52 41 -33 21 58 -18 40 120 16 41 31 -51 5 3 87 67 28 4 19 14 53 67 32 68 -4 -46 -78 124 -32 -77 -41 -44 81 7 37 30 28 -47 24 -76 1 -4 36 6 -5 -62 -9 -9 32 11 -9 123 11 -26 -87 70 -27 6 25 36 -25 -7 33 -8 60 52 -16 27 -24 -14 -22 9 -6 1 -3 -45 -32 -31 1 -31 -44 35 5 -35 -77 34 -5 25 -6 -2 -25 -96 42 64 -34 3 20 31 70 38 46 -34 -62 52 -76 32 3 58 -40 11 15 62 10 9 24 -68 -79 -15 57 76 -81 -14 13 -17 31 -32 -22 21 -16 31 12 -61 -33 -12 28 5 16 -18 -19 -30 -82 -7 -2 -1 -5 -30 -30 -106 21 42 -8 -38 -6 13 -35 -40 1 26 -36 15 43 2
-92 41 -19 9 10 23 31 -72 15 -5 -3 -13 -15 -15 -42 10 -1 -2 -20 -11 -26 34 -24 24 13 17 -35 7 6 12 -9 -11 -13 23 -25 -48 5 59 5 3 16 -29 -36 -16 68 -27 4 9 29 -60 -21 -50 -14 22 -13 -3 0 -15 46 -4 26 -23 -37 30 48 77 -34 -7 -42 -29 -69 18 -17 -7 -4 16 20 -10 26 9 -10 -24 -13 31 -32 -34 -34 -32 24 17 -12 -25 -15 -8 8 9 53 32 24 -16 -39 124 0 -20 36 6 -4 40 -35 14 -44 -23 -33 -3 67 -47 -60 19 -59 -28 31 -5 -11 -16 -1 -8 -1 -26 -4 32 -26 -7 31 16 42 -45 27 -51 -61 33 53 -13 -5 -19 22 -26 -47 -69 21 7 16 43 1 -8 -13 -13 -10 20 -2 -12 18 -48 -16 -11 -22 -8 51 -45 -32 45 -35 -7 -22 -22 -25 -18 43 -2 126 18 24 42 -14 -26 3 40 9 -4 32 35 13 -46 16 43 -39 -23 -45 56 12 -62 50 12 19 5 15 -15 10 48 -30 -18 40 1 -21 3 4 -22 -5 -10 3 -12 7 27 -7 -1 -22 30 18 25 24 -24 -8 20 37 -15 25 -18 -22 -1 -33 -12 -7 7 -20 -13 -33 -10 23 3 -64 14 22 1 31 23 -38 39 24 11 25 12 -9 -21 35 -20 29 12 -18 -11 -17 26 -61 -81 -5 -34 -30 -43 34 0 15 -27 -6 -46 36 -1 -54 11 -2 -30 -6 7 13 11 -21 30 26 23 -23 -17 94 7 27 7 54 43 -41 21 -21 -21 -23 3 -14 -10 8 -45 -2 0 -21 -48 -58 37 -16 -15 66 46 -14 70 -23 18 14 -90 -11 -43 -16 -12 -26 -14 47 -6 -61 -25 -19 37 11 -7 -12 -43 20 20 -6 3 24 -86 -21 -10 -4 23 -45 23 -5 11 43 1 -22 16 -3 3 6 -17 -26 -38 28 21 33 16 48 35 14 1 7 -23 -6 64 4 10 -11 14 -36 -14 -18 -19 -52 -91 -21 31 54 -34 39 18 -21 -20 -26 41 -58 -18 -16 -21 -14 -4 -3 -6 17 -19 -31 -22 49 -30 -22 7 -3 36 31 29 11 5 9 -26 24 56 3 -49 7 -68 -24 -25 -52 -28 -21 -25 -61 6 -24 49 -5 36 11 -35 -10 -90 80 29 -4 -31 2 -19 -29 25 29 -13 18 -17 14 -7 13 -1 -21 41 57 31 -18 -40 -12 -64 -4 -15 -7 -81 4 30 20 63 34 -57 -32 13 -4 -48 3 44 37 0 15 -22 -29 49 5 -33 -7 -24 -14 26 63 -56 -34 12 -49 8 -29 -26 53 -34 -30 -3 -20 4 -56 29 -44 13 1 0 -51 56 13 8 -34 17 28 9 -12 32 -18 -44 12 -76 2 44 33 -1 -29 -33 36 -29 71 -11 63 17 3 1 -22 41 28 8 -5 42 -12 -2 9 -1 45 -15 18 2 -35 12 9 38 -7 -5 8 30 -11 -44 -13 31 -29 -3 -20 -27 -20 -36 19 -50 -43 -16 57 -13 28 -1 -3 32 31 -49 18 -48 58 -54 -6 -21 104 24 46 21 58 3 4 42 32 -36 -35 21 61 -30 -48 -4 14 14 37 -19 0 -1 3 67 -4 25 23 7 6 -24 7 8 -16 -23 -59 -1 -14 4 21 -66 -14 1 16 9 0 -55 -24 56 26 10 -13 19 31 5 4 38 -22 -34 4 -92 -9 -4 -28 7 1 -18 -10 45 7 26 -33 -12 -26 28 27 -57 -30 -2 -11 67 -25 -6 43 6 -9 25 -22 -14 -11 34 37 20 -29 12 19 -15 32 -18 -37 -16 -3 -6 26 3 7 -6 24 -5 16 43 2 -75 13 35 5 -3 10 -18 -5 -41 -35 -21 -19 -37 -47 28 44 36 5 -26 -28 -17 60 -4 -9 14 34 33 5 6 -26 -57 -37 38 -1 -29 -45 18 -72 15 1 25 -10 -36 -6 23 -28 -52 17 36 -21 8 -17 -52 46 -35 25 7 9 -18
14 18 -27 32 21 -17 -17 40 1 3 -9 39 8 5 19 -12 14 36 -23 14 -19 70 -18 6 -24 -94 -4 93 -24 19 -48 -32 24 -39 -32 8 9 1 -6 39 -43 6 13 53 -29 20 18 2 35 63 -73 1 -4 -24 36 16 16 -40 98 5 59 -29 -14 -6 -33 17 55 8 -10 24 16 15 8 27 31 11 -9 5 55 23 47 9 16 -16 38 17 -25 -14 7 90 -40 -32 13 41 31 -16 -29 23 -20 8 -6 -11 51 31 -3 24 30 7 15 10 -19 64 -58 -12 2 6 -22 -12 27 -17 -48 20 41 35 1 -11 7 -28 38 42 86 5 12 -27 -47 -13 -28 14 -24 55 -21 12 68 -45 -16 3 15 -21 29 3 26 50 -15 -32 13 14 -4 22 15 2 4 30 -19 15 -22 -2 21 -7 -11 37 -30 44 12 9 0 -58 10 -15 56 20 -18 -10 -12 -2 21 36 -29 -1 26 1 70 -9 -56 -29 4 -19 -9 -35 -22 -19 1 27 35 -19 31 15 11 -34 45 -3 -17 11 2 31 9 50 -80 9 -29 5 -4 -1 47 1 16 -6 -7 25 30 58 50 6 35 42 5 29 33 69 -63 60 14 35 -60 5 40 -28 -54 29 1 -20 22 42 -21 -39 28 6 -7 21 -13 25 8 24 46 8 -46 5 -12 -10 -31 69 -27 49 25 24 4 -11 -25 1 23 -12 33 57 -42 -25 31 -3 10 13 58 89 25 23 60 35 -24 -11 -10 -40 13 -13 8 -21 -7 -10 10 -12 29 -6 -35 25 -12 14 -46 39 -62 -23 25 -12 16 60 -21 -19 -45 64 -7 -25 1 -20 -27 30 -2 -23 38 18 44 26 79 -11 -29 -22 -11 9 20 74 21 -4 9 -14 48 18 45 -25 -47 -65 23 -10 -56 -7 -9 -13 -16 -5 21 -19 46 62 21 -55 -29 23 39 12 -26 -23 -44 65 26 7 -2 7 -21 -29 15 -74 19 1 18 6 36 1 -13 -2 6 -58 10 -4 -4 -27 -8 -39 -38 -23 17 24 58 26 20 -10 5 6 -3 8 -15 39 21 -12 -15 18 -7 67 20 47 -7 8 22 23 -9 -53 -9 -29 -95 26 5 46 69 51 -21 0 -7 109 12 -11 -17 10 28 39 -36 -64 41 62 16 -3 -19 -3 -22 -65 49 -4 -17 32 58 28 -23 22 -28 -15 -8 89 61 -16 -36 21 -10 22 -5 -56 98 20 26 7 -28 2 -23 -20 31 -8 7 -61 51 -7 -19 -4 10 28 0 8 -9 -22 -5 -19 -5 -52 -3 -44 52 -11 46 10 -127 -73 -35 -12 -26 -34 -38 15 33 4 -5 -17 0 -18 -14 21 5 23 -4 -39 -29 8 12 -5 -12 -29 -2 14 -48 -9 4 -11 26 -43 -27 -7 7 -5 16 -42 -1 -32 -53 -4 6 -60 2 18 -3 -15 -56 -8 -8 -4 -68 9 -17 12 39 -62 -27 43 -16 12 -1 15 3 62 -6 -9 4 0 98 -58 17 -23 16 25 7 -13 -1 -60 -20 24 2 -5 59 -7 -24 15 -30 -14 22 11 92 23 10 -41 5 0 -8 4 29 -9 6 16 -37 31 53 -22 49 46 10 8 -17 -36 -4 17 6 8 38 -26 4 37 -8 -51 11 -21 -54 -12 -82 19 58 14 18 -5 -9 27 14 4 -32 -21 0 -13 -24 -18 36 -16 12 -19 11 32 23 60 0 0 0 17 1 22 -29 7 -5 -2 2 -17 60 -6 51 15 35 57 16 36 5 40 -2 46 25 -48 -45 -19 49 35 -19 17 -18 11 -24 18 -12 39 4 -32 8 43 39 62 -15 -25 -7 25 -58 -15 11 -19 -7 -48 47 3 33 -4 -13 -40 17 -12 -18 22 17 23 -3 6 -25 -31 -32 10 -9 0 80 1 36 30 12 40 11 -59 17 21 9 9 -10 1 1 19 3 -19 -18 -5 3 -36 -27 -14 2 -17 -15 8 -29 25 49 -55
7 16 -90 2 -12 -47 23 -36 39 -1 -16 5 -13 -37 44 11 30 -33 32 24 -40 20 16 19 -18 -17 18 12 6 -26 -6 -7 -11 0 7 -9 -38 -17 -7 87 8 10 10 -29 13 38 -15 8 70 16 29 -22 -52 66 10 4 -52 9 -47 44 9 13 27 -5 25 1 18 -5 -32 -62 -52 9 24 -49 -7 -12 41 -15 -34 -12 71 13 23 -29 3 2 25 28 -62 -6 57 18 75 -1 -36 -19 5 15 11 17 7 67 -17 35 -40 22 -10 16 71 20 16 40 -10 -31 1 -4 29 28 -36 -10 47 17 10 5 -16 16 -11 -4 -18 31 -24 -32 -23 -32 18 14 53 -22 29 -25 11 -1 -87 -72 -1 105 -14 -30 -24 -9 -15 2 -30 -33 -42 25 5 36 23 13 0 -2 -112 -12 14 -61 -12 5 48 9 9 59 20 -56 19 -57 -16 3 -66 -19 -14 19 49 48 -34 1 19 17 -62 20 46 2 -8 43 -18 24 58 48 18 76 -35 15 54 2 33 -24 -5 25 11 -38 -4 -14 -33 42 -3 -23 -4 -19 21 -8 23 90 0 -33 3 -23 -56 -90 57 7 -28 -17 43 15 2 7 -37 -56 -12 22 24 -1 -19 15 39 -6 -25 5 82 -2 -9 -3 48 2 -7 12 69 -60 -60 17 -6 -19 -52 6 15 34 2 -31 -39 63 -54 11 10 5 49 34 -42 22 -20 74 21 24 -26 -65 17 10 1 5 -47 -56 -127 -20 -2 37 41 -30 -28 8 13 -9 35 31 3 17 8 31 25 72 43 -28 -34 28 -32 4 -64 28 -9 13 20 55 35 -30 2 -23 22 16 -18 38 27 -14 -4 21 -19 35 69 -18 -1 -65 27 -2 9 12 12 -8 -15 59 -29 -40 -40 -7 -12 -13 -77 -34 -39 21 7 -21 26 -27 10 -16 6 -1 -2 -14 15 47 -9 42 36 54 -50 4 25 -3 2 -9 7 33 -13 -62 -14 -7 0 3 -4 -42 52 -68 6 -10 10 20 -7 -45 -39 24 -18 -8 27 12 26 24 -37 16 1 27 8 1 -13 -9 28 -59 -32 12 -12 -20 29 4 -44 -1 13 24 13 9 -26 14 19 -24 -45 -19 29 0 27 -5 15 -1 -5 35 24 42 -1 5 -31 50 -35 -21 4 -17 -70 7 -21 -15 19 21 -46 -40 -12 -59 4 -52 -26 -28 -12 26 31 60 10 97 2 49 -41 26 -8 -32 -25 -8 9 -25 -13 27 -13 64 57 -26 7 -10 2 17 19 -25 11 3 -5 62 5 -19 11 7 104 0 -39 17 -48 21 48 -3 -43 66 -37 9 -36 -26 -6 -2 -1 50 -4 -1 -1 28 -36 9 -43 -6 6 22 104 23 23 -3 -7 -47 -1 15 -36 25 25 1 -3 46 42 -6 2 -30 7 -56 -37 -42 -61 20 -7 15 0 -17 14 -52 12 8 -71 -9 66 25 4 12 22 -32 -49 -33 5 3 22 8 32 81 -26 15 -13 10 21 -16 36 1 -59 46 -9 20 -7 40 91 5 25 -3 -11 9 -37 57 -51 55 9 -17 0 23 10 26 43 -16 -12 15 43 -24 -14 -15 35 48 23 -23 41 -24 36 13 -27 0 26 -20 10 -23 20 27 3 35 9 50 2 18 -9 68 -58 -61 -81 -42 79 -23 8 -36 86 3 67 -58 35 -11 16 -27 -12 -35 8 27 14 21 45 -9 -19 -26 -15 41 -41 -64 8 50 76 19 7 -20 -21 -34 3 35 47 -10 -29 15 42 44 20 -59 -58 38 -24 3 -52 2 25 11 -10 -31 -11 -22 -12 51 4 3 20 -47 31 0 20 29 44 57 -30 -11 49 10 -45 -76 -13 -10 -10 2 -59 13 -26 22 24 -21 4 3 27 29 2 45 -1 2 -4 -9 -11 -22 22 -18 18 43 78 3 -20 -19 -68 -6 -12 -2 24 -5 -14 51 -28 -13 -20 -27 31 -76 12 3 -10 -4 -30 47 15 -26
-3 -50 -38 -36 -49 -1 50 -34 -56 -4 24 -9 12 -44 -54 5 -22 -7 6 -6 44 97 -39 -27 19 -51 -4 -11 7 -11 19 -17 -89 -25 20 60 61 6 3 -60 9 -73 52 -13 27 -67 27 -13 -90 -27 -39 -24 -12 5 -56 46 19 21 9 10 -8 -23 -7 0 39 4 71 12 -9 -81 -26 -22 -27 -11 -12 -14 12 -7 72 -16 19 -122 18 60 -18 42 22 49 20 3 5 -25 -24 9 -56 41 -11 24 -99 54 -10 -115 -5 117 -36 -3 -6 21 -19 -5 73 -36 19 87 -23 8 14 29 -7 -29 0 -17 -37 -13 33 -44 -30 -59 -15 -18 89 0 -79 -22 -110 10 24 37 -2 -77 -47 -26 -84 -6 30 34 6 -23 42 -14 -57 -25 -6 41 -2 11 -6 -12 32 -53 -15 -20 -35 72 32 -40 -30 5 104 -26 -16 42 -45 89 -4 -47 -55 31 -57 5 38 40 13 -13 23 -41 0 -2 -22 30 25 9 -48 2 -2 -14 72 77 42 -79 -4 -10 -23 -89 -33 -53 -68 62 5 -80 62 -18 -78 -19 -19 36 -9 -2 -27 4 -72 -14 5 8 -8 28 -33 -49 12 18 12 -10 16 8 70 -28 14 29 30 21 57 -25 -38 49 4 -7 -100 -16 14 -11 -28 -62 -7 41 15 36 5 2 -4 15 -43 2 -21 -34 10 -28 -56 -3 -7 42 -46 60 -54 -86 -7 65 -106 10 -6 32 -60 19 -34 6 -98 -8 -38 1 -32 -35 -33 -45 26 -13 29 53 -56 -18 -38 -6 23 -9 -13 13 -79 7 12 -12 -9 49 -15 -61 9 23 17 51 6 26 -37 95 10 25 15 -99 -10 17 -4 -22 15 -78 -37 -13 7 -25 4 -19 41 97 9 -37 -37 10 4 1 -32 -55 -37 86 -55 -61 -33 32 16 41 22 -31 -26 14 47 21 3 -25 -11 -23 -3 -41 -41 34 6 59 44 24 -33 11 -106 14 -13 -43 16 -10 86 -25 -69 -46 -34 -10 -74 -8 4 -83 -66 -15 4 -1 -15 51 -28 -9 45 -32 -23 9 -62 19 -51 0 -18 -2 75 -5 -51 1 40 -27 -26 16 -10 -24 -21 -35 30 -61 1 19 -1 40 -3 -59 32 -28 -4 -29 20 35 0 72 -46 -60 4 20 -6 6 71 21 -10 0 -12 -36 -6 44 24 -54 -10 -3 -50 0 -22 -91 -17 0 11 47 -111 20 5 4 54 -34 -25 -28 21 28 -49 21 -65 65 -13 -13 -44 12 33 2 -14 -41 58 -57 -69 -30 -53 -52 -35 -11 6 -34 -12 15 -9 -18 27 -5 -55 -40 -75 11 -32 -78 13 22 -28 -55 27 -64 52 -14 -2 2 27 -9 -17 -11 20 -33 -118 -102 20 -46 -6 13 -36 -29 -38 -68 -29 119 -21 73 -60 -12 -63 -46 25 -34 22 -52 39 -46 47 -75 -12 -6 35 -2 -8 7 36 -32 9 15 33 19 23 4 66 60 16 -20 -39 -63 -92 51 -19 -16 -26 -4 -17 39 34 -6 -38 4 -12 10 -56 28 -30 -62 -9 6 2 0 -44 -15 -13 -4 10 31 -47 -17 33 -34 -61 52 5 66 -11 -7 6 55 -54 -6 73 43 -19 43 6 15 1 -72 -44 -18 -53 -40 -18 -69 -50 21 -41 -38 -31 61 -42 20 75 19 -47 -7 51 -32 -44 25 31 -20 -21 13 -20 7 20 -8 -65 15 9 32 -30 -32 58 29 -2 15 -39 34 -40 -44 -20 15 55 -25 -85 5 -5 -9 50 26 -31 3 16 -20 26 -38 -18 -50 -8 41 -73 16 -31 32 25 -28 28 0 18 86 -29 35 48 0 29 -36 6 10 21 59 -52 -36 0 7 -22 14 -19 21 -77 -103 60 -11 10 40 9 -127 -2 40 24 -4 1 37 6 -30 42 83 57 21 -58 -8 21 40 -52 8 -13 11 -5 28 23 -33 -66 49 43 -8 -54 37 22 -16 -51 51 6 11 6 -105 21 -12 31 -49 -7 52 -2 -1 -18 24 -71 -44
57 31 -5 -8 -43 3 36 17 -72 114 -34 -55 22 16 10 37 -33 57 -105 -11 34 -103 -38 40 9 0 -38 47 46 -32 -41 -19 -8 -8 5 8 -56 2 -12 32 -34 -3 14 32 -19 9 5 10 -56 18 45 -57 -107 29 48 54 -21 31 -45 -7 71 25 40 -11 -68 31 3 -56 -51 29 -25 8 36 -54 11 -26 -17 -4 2 23 -11 -43 -37 40 4 -4 34 -17 17 -4 -13 -29 58 2 -31 -38 -21 -50 126 -10 35 14 -25 28 -23 -15 -15 -14 48 59 51 62 -7 -53 22 -34 14 28 5 36 21 -6 0 47 -27 -42 -39 -4 2 16 63 -9 -52 -4 -22 -10 -25 13 -2 -62 8 -10 -15 2 26 -23 21 -50 32 -77 56 24 -37 -5 -15 -1 -46 -38 -4 5 39 -26 -55 -9 -10 -23 30 -25 70 2 -4 22 95 -49 -20 -52 -2 -11 -64 -19 -28 -60 19 -49 -38 -37 35 -1 37 19 75 -117 -7 -10 17 18 8 95 70 -28 24 -13 -16 -29 -14 33 22 15 18 3 -19 12 27 24 62 -10 -13 -5 10 2 -2 79 -35 0 16 -72 1 40 23 -28 -3 -31 -40 13 16 43 46 9 16 -27 -7 -14 6 -54 24 -33 8 -37 -41 -8 72 3 -1 9 39 -32 71 53 9 4 22 0 -10 -34 -53 44 -63 -39 26 -36 33 17 16 -4 33 -11 -38 -14 -19 76 3 35 95 -17 -23 25 22 0 31 -24 -21 -4 -97 -51 -3 40 -31 52 -3 17 -38 -22 -1 25 62 48 -38 15 50 31 -29 73 10 28 67 54 31 -15 8 46 80 7 -46 -27 -16 59 39 4 -35 -3 24 0 -63 -4 72 -7 -41 -115 40 -73 28 -20 -4 10 27 -18 -22 77 29 -29 87 8 36 -8 -62 -75 -1 37 -10 -44 -16 11 -97 65 -5 -28 -25 -19 -86 4 16 -16 8 -11 2 8 -12 -33 1 -5 22 -1 69 37 -2 53 12 14 -31 22 -16 -45 -7 25 42 8 -20 19 -76 -64 9 10 -69 -41 -31 -3 -20 8 49 31 -45 -33 25 17 -19 13 -34 41 -8 -41 27 -12 -38 -39 -38 6 53 -14 36 -27 -3 -41 -50 78 18 -69 81 -5 15 -54 -41 -25 54 42 -36 -4 -36 -28 -124 -2 48 15 -16 -15 -85 113 17 37 -47 -60 -18 -5 -16 -50 78 -42 -2 16 -35 -63 -47 32 4 17 -22 -21 -28 45 -40 17 -97 78 8 43 20 -81 27 50 23 28 -13 -11 96 61 -2 53 8 20 0 -24 -86 6 -30 23 30 29 19 -27 -2 56 -84 -8 -61 44 -5 65 -6 5 -45 9 13 -17 -34 11 -45 -62 25 -38 -32 -11 22 -107 26 41 30 -19 -47 28 -32 -64 10 -29 74 91 -102 11 -54 47 22 24 -85 5 -6 -115 -53 -5 31 39 -56 -29 8 -19 -79 -5 -7 56 19 23 8 -62 15 -1 -30 20 -13 40 4 7 4 21 -29 40 11 15 40 -37 -55 -17 -3 41 23 15 30 -7 -25 -63 13 -8 -2 47 -47 -50 -26 16 39 52 0 -37 46 2 70 -38 5 -48 -68 -8 62 -26 -4 -7 19 -30 -50 -22 41 42 9 -14 51 -34 -81 10 -26 44 -34 -2 -42 6 -16 64 -26 39 -46 -14 15 6 -61 -3 48 -25 -33 -38 3 44 63 49 -2 58 58 42 -6 -10 39 -19 -10 -10 18 1 6 -32 20 28 -32 -15 -54 -48 -13 -43 -42 -10 21 -29 -44 -5 -26 -75 34 12 -27 -19 38 -2 75 -6 -25 -11 7 63 11 -30 36 -15 32 82 -22 17 -12 -14 -4 3 -53 -16 -11 73 19 4 44 -2 4 25 7 64 72 -14 -59 7 3 50 -45 13 10 30 5 -31 67 11 1 4 13 -31 -25 6 -15 -14 -25 -12 -18 65 -33 -11 11 -20 -7 -66 -61 25 1 -42 -20 30 -44 -46 -30 22 9 -32 -2 44
21 28 -22 0 20 9 3 -27 41 15 -6 -42 32 -8 45 17 -3 -58 -28 34 24 -14 -5 2 10 -8 -31 52 -5 -22 -75 -28 -34 -39 27 43 -27 1 2 -15 9 13 -39 34 25 0 6 -16 72 -19 37 103 35 -16 -13 -62 -49 -4 40 -11 15 16 -38 3 -47 -11 -45 15 -5 91 7 50 13 -2 -87 -27 -65 -8 -1 -13 -58 -14 27 -22 12 -68 -71 -8 -58 49 18 43 32 13 -57 19 -31 4 26 -6 -45 50 20 -71 -28 -46 8 -55 -35 -21 4 -39 62 -65 16 4 16 -33 78 15 -11 -60 -29 50 -17 41 -6 -2 -18 -2 51 -50 -59 -22 33 34 -3 -77 53 29 49 -14 -9 43 40 -96 -27 92 -19 45 25 56 -6 67 -27 53 -11 2 -80 11 7 -8 4 62 26 4 -6 -59 37 -45 -1 -25 68 36 -40 63 -1 25 -37 -38 51 -87 22 19 -29 35 -96 -29 -26 -9 14 -69 -3 -1 9 16 -34 -4 13 -1 23 26 26 -69 -36 7 10 -80 -38 12 28 2 -12 -11 2 16 45 -1 -3 5 -20 -20 21 12 18 13 -57 -33 -9 -36 -8 -14 -10 2 -13 -54 23 -52 -2 -20 -22 16 31 20 12 35 -21 -2 34 -16 -48 5 17 79 62 13 -34 50 -6 -28 12 -39 -36 48 -43 24 -14 47 54 27 70 -14 33 -22 28 15 -45 -32 11 -13 -8 42 20 60 21 24 9 -48 -2 -41 9 41 28 -52 -5 45 -38 21 -40 -35 -56 -36 -46 16 39 -1 -8 71 -51 -1 65 2 45 -26 -41 14 -28 -3 31 16 -87 37 16 30 -14 52 -60 -6 3 -12 -17 0 5 31 42 38 37 18 40 -59 11 -20 9 -28 6 -42 -7 7 -53 -32 33 -29 18 -19 14 -1 -28 -30 19 12 31 11 -27 -68 -31 -45 15 -52 7 -39 -17 1 -1 26 -32 29 4 -1 -40 -13 -86 -20 45 -15 -39 -43 -56 -22 12 -12 -11 -82 3 -5 -46 -3 39 -11 -10 55 -44 -9 56 48 -15 -22 -3 -29 -12 2 -2 6 -33 78 26 28 -19 18 -62 0 -11 46 -28 -23 4 -32 12 5 -42 -59 6 -8 -23 -9 20 -44 -65 18 -59 49 1 67 70 -34 -45 1 -46 -31 55 8 10 -4 -8 5 -15 16 49 58 44 2 -58 -11 10 -13 -12 16 20 14 39 -56 -7 4 -52 -31 -88 -32 -41 80 79 -66 71 -24 7 21 -39 97 -29 126 -35 38 -3 -3 -22 -47 -18 45 -4 -3 1 -24 11 -27 43 77 15 -15 -32 41 40 -9 3 12 43 45 -2 -3 -7 6 -6 3 48 -27 -46 22 19 -84 -52 -60 -75 21 -20 -35 -91 -23 19 27 -48 19 -12 -53 -42 -26 -23 -2 7 -9 -11 -21 -14 10 26 -2 -3 9 3 16 -15 -11 9 -38 -5 -34 10 4 -1 18 32 -49 -87 -39 -8 29 17 29 6 34 3 -16 5 10 22 -34 -45 -35 -25 -12 -46 -2 -1 -36 -12 -43 -45 -30 8 15 -35 -19 -25 -55 -14 -63 -9 -30 -37 35 4 -39 -27 -17 18 9 -23 -47 -32 -10 -30 -3 -8 -6 -51 52 -3 12 20 -38 -24 -3 -15 67 -45 20 -14 -36 -17 -18 16 -18 67 40 -37 34 -35 35 9 13 -50 -52 -9 15 -34 9 -50 -76 -23 -4 -4 34 0 -8 -30 4 50 -21 5 -4 -120 45 -18 -23 12 -48 -30 -62 -55 -35 -9 -6 -43 31 79 22 26 -27 -4 -21 7 -5 -16 -36 -15 -69 1 -39 -42 38 -4 -77 59 -10 -56 -10 14 124 -9 32 -25 19 -21 -63 -53 22 1 -31 28 -17 3 -2 31 1 32 49 -26 -1 17 -16 31 -10 -21 20 -21 -9 3 -63 -27 19 -11 24 24 -48 -22 -10 -19 31 10 47 -47 -25 45 15 -20 -46 -10 15 -60 66 -2 10 18 -15 10 -19 -27 77 19 -38 31 -3
23 1 -16 -3 41 7 3 55 51 -26 -24 -16 -22 -19 -31 -17 36 10 -10 10 -10 -13 21 -14 -11 18 -11 25 26 31 -19 70 58 -1 2 -27 56 47 8 -22 0 -25 10 96 55 40 -16 44 52 25 8 68 -11 0 -15 14 106 -5 9 -15 15 3 7 -26 -2 -22 103 19 24 25 36 8 84 -47 12 24 1 5 -21 23 -15 -16 30 32 37 -2 7 -11 -29 18 -10 7 21 7 -33 -5 -38 1 28 -12 0 26 15 28 39 30 -14 -7 -26 -1 -20 14 4 0 35 18 20 -66 54 -3 17 22 48 0 31 15 -35 28 -50 -52 -18 37 38 5 -9 8 23 35 40 24 -10 73 9 58 9 -44 -39 -2 21 -30 1 -21 18 -31 -8 31 24 -5 -12 38 -15 -14 -15 -54 -4 19 45 -25 62 38 21 85 30 32 22 -7 13 -13 13 -20 10 13 5 -9 13 5 51 41 26 19 29 16 67 -18 31 1 -26 -4 35 1 1 -49 14 38 -10 26 35 -25 -28 -16 97 17 21 29 14 26 23 2 1 -2 -3 25 38 -13 -22 -14 44 26 41 6 31 -13 11 10 -35 12 14 22 -18 28 -2 -15 43 4 4 -27 -22 -22 -4 -33 6 18 -49 -17 14 21 53 19 43 12 8 -3 46 -48 20 -13 -1 -63 -21 -55 2 -34 16 18 16 5 48 4 23 -52 -16 26 42 -19 11 11 -41 -5 -36 55 12 -26 23 -36 126 -41 40 -18 40 -1 41 24 5 9 20 28 -36 -51 11 37 32 -58 24 8 39 46 -31 0 22 -100 4 -19 -49 -57 -4 37 31 14 2 6 9 35 32 -4 -6 -7 75 -8 -28 19 1 52 66 10 -7 0 52 1 -4 32 -15 -13 32 -39 -18 33 -13 9 -44 28 6 1 -18 4 -37 11 -1 19 -10 27 18 -47 -17 -25 -7 17 -15 80 58 -3 37 -35 -4 13 -13 -12 18 33 -32 48 4 8 -42 -12 -21 -46 13 -9 -22 20 34 -51 33 -18 -40 17 25 -36 -31 29 -49 -13 49 10 11 61 9 2 2 41 -13 111 -52 -43 58 18 -20 -49 5 -32 -2 32 15 -16 36 -20 8 -7 -15 19 12 1 -13 21 -16 -16 -1 26 18 29 -72 50 -14 7 6 21 38 -3 -63 36 7 -28 -12 -28 -42 -39 47 25 41 55 47 36 -20 56 28 24 -21 34 -44 14 -72 -10 45 18 37 60 14 37 -6 -10 26 41 32 1 1 2 -2 28 -1 -31 33 -10 -26 -21 -4 13 6 10 21 43 32 46 -15 69 -45 11 0 -33 5 40 -30 59 20 17 -14 8 62 47 -26 26 40 -7 7 51 12 42 19 9 33 26 33 7 102 15 32 13 22 8 -57 -21 -42 6 50 29 28 -11 28 38 18 -44 -49 34 -8 19 13 27 -28 2 3 -17 6 -41 25 -2 4 -30 69 2 42 26 -15 -8 -18 29 53 24 17 46 -5 -17 -6 -7 -50 23 -1 -37 -8 -9 36 48 1 11 -11 -39 8 25 -17 -45 28 39 10 -5 6 14 -48 45 -22 -34 -22 -4 -7 -41 59 9 9 57 90 -1 -83 49 53 -15 13 -34 -3 -38 51 60 62 -33 -20 15 -21 -11 44 6 -19 32 21 32 -21 -18 -16 -44 73 24 4 80 5 -17 -28 69 -1 12 19 12 -24 -1 6 47 66 -8 10 -13 45 7 -16 29 -34 37 19 27 -11 -36 3 0 40 11 -1 67 9 -43 16 -12 4 8 8 -15 46 -8 -41 22 69 10 58 0 88 65 43 3 6 -51 -6 13 -34 23 -14 6 26 55 45 -32 31 5 19 37 -12 30 -4 4 17 -13 11 24 -1 -8 -34 -15 22 -28 30 -5 20 31 -59 1 -27 18 -9 -4 -46 5 -32 -24 16 -19 -26 24 17 72 28 7 11 -39 -9 -32 -29 -24
-86 -91 72 -10 -25 -9 -24 -2 65 -29 13 -15 13 21 -7 22 43 63 30 30 24 -83 -51 -61 14 -72 -25 -48 -8 9 47 20 97 -34 0 -64 67 -6 9 -68 -30 -45 -28 -35 10 -22 17 -12 25 -114 -19 -19 46 -2 47 32 -17 32 -56 34 -13 -17 -37 -16 -2 -91 3 27 26 -24 27 -43 43 27 36 9 -18 -15 -1 -7 -22 -66 -21 -46 -1 1 -20 20 -35 1 -20 -71 -19 -33 -7 -2 27 7 52 -2 10 1 26 -30 59 24 3 27 -3 -41 88 -8 -11 -26 19 13 -7 34 31 -8 2 -3 -16 -33 12 -30 28 3 3 -11 -48 20 2 16 -17 67 17 -18 -12 -19 -5 35 4 -29 24 47 1 52 19 -2 51 75 1 -73 -2 -17 -26 2 -3 0 -51 12 8 44 14 37 -54 -16 -39 -54 -78 -26 35 28 -27 27 33 -23 -29 59 7 -108 -31 -52 -65 -20 2 31 31 -108 -24 -35 -29 -12 37 -48 95 28 8 -6 14 13 -11 -33 -24 -9 16 -45 15 -40 -47 -2 -17 -29 4 14 -6 -7 -28 -7 -14 28 90 -55 -5 14 -15 13 68 -35 -12 31 23 54 -22 -6 -8 6 -19 -13 48 32 15 19 -54 5 51 40 58 -7 59 14 14 -47 -28 -31 53 62 -21 4 -65 17 -10 -44 -25 -21 -15 2 -24 -29 -20 -1 52 -67 -21 66 24 65 -37 -39 36 -34 -21 10 25 -3 17 18 98 -17 23 5 -8 63 -12 29 51 3 39 -51 5 30 -2 -12 -42 80 -8 35 19 -37 -8 -92 -15 23 -9 -47 -67 21 62 -57 -20 54 57 -10 -42 37 18 -23 43 -16 21 36 56 8 -21 -71 -8 26 25 -46 33 42 44 -46 18 -36 -29 28 3 66 -48 -60 -44 -8 31 -24 -17 -8 -49 -22 -64 -4 3 0 12 23 -4 1 2 23 0 15 -16 -29 -35 72 37 -34 -46 -19 -5 -62 24 -2 -19 -27 -30 8 8 -13 -25 -5 -20 -31 45 -11 -37 -35 -2 5 -24 -6 8 26 -55 -22 3 -17 -29 -20 21 -46 -33 -81 -10 2 9 27 -14 -18 -51 -121 -61 44 5 -43 7 -3 33 97 -1 10 -40 -45 -45 95 -60 -8 -24 11 7 94 35 -38 -15 -6 -32 5 41 -38 32 8 35 -20 -35 68 -42 18 33 35 13 -13 12 11 24 12 -16 59 -17 9 2 5 -1 82 -16 -79 50 47 19 -20 10 -74 -8 -47 89 101 34 3 -12 -19 20 -18 -33 -8 -34 -7 -18 33 -15 31 -18 65 10 15 -49 -29 -16 -48 50 -3 68 -23 -11 51 50 13 42 33 -47 -19 -3 5 19 40 -4 3 8 14 -40 -49 33 -46 -29 -26 31 -46 -71 -6 -37 -69 14 -20 -78 -25 70 -5 36 10 -1 -5 6 9 94 44 -14 15 -26 5 78 -22 9 5 5 -43 31 86 -49 -3 9 -42 1 74 24 -2 41 -6 30 -7 39 -23 -5 41 -22 -28 -13 -16 -18 14 -7 31 37 47 -76 -3 -15 -63 6 -19 -26 -32 41 23 -35 -37 18 -27 2 -25 -6 7 -3 -63 15 -3 -17 -22 -63 -31 26 -5 -26 -5 18 -3 -41 -18 -44 61 -41 -4 -31 41 12 71 16 6 -9 14 34 1 64 -53 42 27 -1 0 92 -19 50 13 -26 -18 -33 46 -45 28 19 81 -38 73 -1 36 16 27 -35 -3 -69 -66 47 -33 21 -16 -49 -18 33 33 -9 22 -14 11 52 4 -9 18 1 86 -19 42 -38 -13 -62 -56 1 25 -29 37 57 -48 4 30 64 -70 -20 31 -40 -87 -15 6 19 -76 -95 32 -10 1 19 -43 -30 -6 -53 0 2 8 -37 0 -17 -10 -30 35 9 29 41 -25 -43 9 -29 -23 -45 11 8 1 -48 8 -30 -127 26 7 -19 32 -10 -13 19 61 -13 -49 -17 69 13 -17 -55 -70 -15 -16 -13 52 0 32 -71 2
-34 -33 -26 22 10 -46 1 16 -8 50 50 23 -72 17 41 4 59 6 62 -35 -27 -22 27 20 -29 45 -18 31 -16 -34 22 5 44 5 -18 41 -37 -58 23 6 16 17 1 3 40 36 23 -16 -35 -19 10 -16 -31 -3 28 -9 -72 -31 -14 2 20 -4 -3 -10 -42 0 18 -21 -7 -6 6 20 -30 23 -31 -20 28 -3 9 -11 -45 27 -15 -29 26 -23 9 8 51 46 22 -28 -16 -23 -36 1 25 -7 -50 -16 14 -58 -46 -64 24 4 20 55 -79 22 28 -26 9 63 48 8 -44 34 -3 28 14 -3 1 50 20 -15 29 6 21 -14 -18 17 -12 -16 -58 11 -17 0 8 -70 72 -45 96 45 0 -8 -9 23 21 4 -32 -19 -3 6 9 -26 6 12 10 41 72 26 93 -4 -8 33 -8 21 -5 55 -7 22 -16 1 -22 59 1 18 58 -32 -29 -14 -1 -15 -6 -11 -15 -4 24 -4 43 40 77 41 14 19 92 19 -46 126 60 7 -12 -15 -21 -38 13 -17 31 28 31 -21 -62 -4 48 -7 48 2 17 0 -26 -62 55 2 33 -5 -5 -8 27 3 -8 -34 20 -12 -2 -5 -14 -18 -9 76 -1 14 20 40 -81 -30 -15 -28 11 -20 18 -20 2 -35 -18 28 -37 79 -49 -13 18 -54 47 20 16 22 -14 1 -1 9 -22 38 -50 -31 -26 34 19 -1 -39 -60 16 -18 -22 46 37 -17 -14 3 -1 51 39 -4 34 4 40 30 28 38 -5 47 6 -27 1 43 -51 83 22 23 -2 -1 -89 16 -14 -25 -28 20 8 23 -2 9 29 63 -48 -19 13 -9 -53 -10 -35 49 20 33 53 8 81 -48 -3 47 -19 2 21 -36 44 -52 38 21 -30 -35 -8 46 -53 12 -28 28 -13 3 58 -40 -33 35 9 -6 -30 13 -4 30 -33 31 -42 78 24 -10 -7 25 -21 96 -15 12 3 -5 55 -23 66 -26 -22 -48 -24 5 56 -7 7 -65 64 16 50 46 4 -34 35 16 0 -2 -48 26 90 9 -43 9 -3 -2 -19 44 20 39 31 -8 -25 6 -14 31 5 71 5 -35 28 -2 -27 -6 20 39 5 77 -47 21 -4 47 31 7 -9 23 23 -90 18 30 -19 -30 25 48 -8 18 5 -5 23 -9 -25 59 -59 -35 38 18 47 -36 -26 -70 73 -14 6 117 -10 -2 15 21 28 -29 -19 18 18 -109 16 35 47 9 29 87 -8 47 -18 -13 8 -30 -29 23 17 -13 -9 -32 -3 -6 -1 35 -22 114 -14 42 -5 52 -13 117 64 39 -2 -12 27 -39 -70 -7 19 -22 5 16 -42 39 -12 43 61 69 5 61 -47 20 24 -62 11 -27 10 25 16 -31 -8 27 7 -2 -30 13 120 2 24 8 -64 21 9 8 19 -25 24 -45 -20 -39 -30 30 46 4 32 -14 13 -9 9 79 64 37 13 -15 -28 -11 7 46 -8 43 -31 18 15 -38 -41 3 -20 65 -16 12 -7 39 -47 -10 35 -8 -1 90 37 -29 38 -46 -11 -42 -23 5 33 31 -9 -42 -22 -55 64 19 -6 29 1 -34 -22 31 6 14 -56 46 -39 12 -12 16 -2 -40 -25 -38 -80 37 -4 77 25 -32 18 1 54 -39 7 1 94 -38 -2 117 33 -5 105 -66 -3 9 -2 5 26 8 -12 -20 55 -35 17 -19 57 18 24 42 -45 54 -30 23 4 -8 9 38 -28 25 -1 34 34 -19 12 -12 16 -12 -2 3 -6 17 4 12 -72 -26 -30 73 -8 -1 18 58 59 6 24 67 -44 -19 25 -66 -1 -27 13 60 -71 -27 -54 29 -13 13 26 -9 2 -51 -24 -43 40 -43 9 7 -37 75 -24 25 -1 -3 0 -20 -30 2 53 -28 2 29 -24 11 44 -7 -17 2 -20 37 66 -9 16 -8 2 9 -3 -46 -1 7 -52 -8 -23 35 39 8 -15 -4 70 -36
3 42 3 -29 -15 5 62 -20 39 -15 -10 3 38 -20 -37 19 27 -32 57 -7 7 -9 -9 20 39 4 46 38 -12 -13 8 40 -26 23 -4 15 20 -36 17 49 -11 -27 -27 -16 21 3 65 16 35 3 -25 -29 17 -40 -96 -37 57 2 -13 1 -7 -29 -9 10 10 -4 33 46 -31 13 13 -24 -92 13 29 -5 70 -14 14 6 -6 -16 5 -15 44 42 -46 -4 -32 -3 18 18 18 -6 3 -7 -3 -17 12 -35 -66 -40 15 -73 29 20 -21 70 -77 71 -4 4 22 -1 -21 -9 -72 -21 72 -17 -39 19 4 -20 -24 -21 8 -5 -47 -42 -92 11 -50 -11 -37 -1 40 20 23 -11 -63 -31 -28 -78 4 -25 -44 8 38 39 -25 31 -18 -1 67 23 27 -14 16 -31 71 -2 -62 31 -9 -27 -28 63 -57 -4 -6 -17 27 -10 28 22 -20 4 -28 -3 10 -8 27 -83 46 26 -62 16 3 -60 -30 -30 -6 24 -47 18 -33 -8 -24 49 -46 -20 16 58 -17 19 -8 13 35 -36 -14 -14 -54 -27 -7 10 33 0 21 -1 19 13 -13 11 16 -14 -25 -3 -18 6 14 1 -5 17 -43 -13 -5 -4 -32 -73 12 -14 -28 15 -14 -11 -11 -6 -2 -44 49 -50 -5 11 9 -19 -6 23 -28 -44 73 -18 -11 -33 31 12 -93 62 32 -73 15 61 26 13 32 -14 -49 51 -14 -42 3 3 21 31 -70 -17 7 20 -41 2 -31 45 -15 -33 46 -6 -5 -11 -3 -15 -63 -6 -21 -87 -4 52 42 9 54 3 -13 -23 12 -19 8 -9 -15 -3 41 -27 9 -65 -59 56 38 40 -15 25 -3 -5 1 -14 31 -29 10 5 -110 -3 -25 15 27 4 37 -37 -24 23 43 23 -16 0 -65 -11 11 -6 -1 1 32 -29 2 -21 -24 -31 14 -14 46 30 -22 -6 2 -35 -26 28 -77 5 19 -7 -9 -70 -5 43 -37 8 14 11 -33 14 41 -9 -19 -50 -2 -6 -19 -72 -127 13 -25 -41 7 -38 13 24 -36 -26 -61 27 -9 -33 -15 -13 43 7 -13 0 -7 37 18 17 -5 7 17 -13 -4 32 -48 63 -32 4 29 -34 4 -75 -8 21 -26 -14 -29 27 24 13 9 1 -15 60 20 -7 21 -28 -25 -12 -60 -3 8 -10 -39 72 41 31 -45 -56 5 3 42 -40 -30 -50 22 -34 41 2 32 21 27 -77 11 -48 -59 39 17 9 -12 98 -21 34 -35 20 19 -35 17 -52 12 10 -24 -35 -3 1 -15 34 -3 20 3 8 -52 46 -53 13 5 31 -38 -18 0 -38 5 -21 -10 1 -13 0 -18 16 -47 -21 -15 -25 -56 25 17 37 11 52 -17 -30 8 26 -20 -48 83 -40 -42 -38 -6 -24 -6 -10 66 53 -21 -33 41 12 0 4 0 13 1 -46 43 7 -29 -31 -21 -14 73 -7 -3 11 30 -44 -32 47 -21 -63 -15 -21 11 -7 12 -5 -31 53 29 6 -14 26 29 -17 16 -29 -1 -25 -58 -38 16 -31 42 34 -71 37 -49 -24 -5 -19 -76 -21 29 31 -19 -12 9 -28 10 10 -35 -35 -31 48 51 49 -8 -5 57 10 28 14 -9 -53 33 -16 25 -52 29 -84 -126 47 15 -27 20 14 92 -44 -16 -3 -52 58 22 -37 -1 1 15 -6 -17 5 1 -24 -27 -17 12 -14 70 -52 -55 -8 -30 5 27 -33 -9 -8 -69 -32 -66 -24 -19 -20 -3 -10 18 3 33 20 -37 -16 -61 -40 42 16 28 5 -11 -15 11 31 -33 -17 -22 -28 -74 24 8 7 23 -27 -20 28 -87 -23 39 -66 -5 -55 46 4 -13 -54 -37 46 -88 12 33 -31 -3 16 -4 -40 14 -68 -34 -2 -23 28 15 -21 -5 -44 58 -23 26 -27 16 15 -64 -2 12 16 1 -51 -73 -29 -53 -35 23 22 -4 -35 -41 27 5 23 37 0 -14 0 -2 -38 27 17 -63 -3
-56 -31 -62 47 -20 -11 11 60 43 14 -36 -12 -24 -23 -3 -44 -14 -31 -29 -4 57 -3 9 -8 -16 -47 16 34 9 -36 -43 44 -48 71 -8 -75 30 -70 -48 -80 -30 41 -9 -50 31 19 -10 13 -32 -30 10 12 23 7 26 8 21 31 12 38 6 -19 62 3 82 -10 79 31 45 -8 33 13 5 39 21 68 -84 -10 33 13 28 -20 -16 -21 31 -11 17 33 57 -103 -47 16 28 -12 -4 29 -49 -23 30 5 -13 -17 18 -26 -100 -33 -35 -45 -30 -29 31 44 10 16 33 16 30 -23 44 12 44 30 -47 -17 -25 15 -98 18 13 30 2 -25 -20 -21 -47 -7 -9 -3 98 -3 -83 9 18 22 12 -3 9 17 29 -25 10 -10 -9 7 44 28 -15 -48 1 18 -7 58 -44 -11 -34 -59 -34 18 12 -8 26 62 52 -63 -3 -30 -43 25 -50 36 -32 6 4 -5 3 44 8 31 64 -25 -7 19 80 57 35 -9 -7 -40 8 9 62 41 -17 48 14 -5 -34 62 16 -48 -7 48 12 -3 -13 50 46 13 -11 16 15 -10 3 -32 -3 -18 29 -27 -81 -1 -43 1 -15 -36 -30 -50 -29 -43 19 -34 -39 29 -26 -5 -89 -5 -7 21 43 9 -7 -18 24 -26 -4 91 -2 -4 -42 -12 -2 -69 18 20 -7 29 -36 -78 -1 4 38 -7 -96 -2 -44 -63 -34 -63 -13 14 -26 -28 18 -17 30 15 13 5 -127 -11 10 -20 3 3 -4 20 -77 -10 84 12 -47 -40 -45 -3 4 8 19 -48 12 14 5 -2 53 -36 -7 -19 10 -55 -35 13 57 50 -43 33 1 24 -73 -30 22 -8 -10 5 -77 16 14 2 -42 -47 -44 -5 -10 -11 -23 -72 32 -58 15 45 27 -6 78 -30 61 13 -58 -34 80 -14 -15 28 60 -11 -48 8 -40 -18 -4 -57 25 16 -43 14 -19 1 67 -118 -32 27 -33 -1 30 -6 -39 40 -1 -26 40 44 -16 -13 24 -30 20 18 69 -89 -38 -44 57 28 40 -23 -56 -37 -44 39 -19 18 17 -6 5 -37 -43 0 30 -33 58 4 -24 7 -19 -46 -9 44 21 10 10 -7 29 -11 -24 -2 -36 0 -2 -3 9 -72 -23 23 -13 100 27 1 42 -14 10 -62 -3 -14 -77 20 5 8 -39 38 45 -37 -25 -33 -59 -50 4 18 41 14 24 25 35 -5 14 66 5 9 0 24 -27 29 9 -1 72 -20 52 -19 -19 31 21 -47 2 36 29 14 47 -22 14 0 0 22 41 -40 -58 -51 -17 11 -37 -39 31 -38 66 21 80 -9 -37 69 66 30 72 -35 -36 -1 15 -83 21 14 -27 -81 -26 9 12 -4 -36 -14 -62 37 -2 -8 53 25 -2 15 -27 32 -25 -30 5 33 -24 -51 39 25 15 12 23 -24 -6 -41 -36 72 -36 17 5 -15 38 13 13 14 -41 12 35 -12 -44 -48 41 19 0 86 -5 3 73 -54 -73 38 9 37 73 -76 -1 65 4 -40 35 52 -15 22 -43 18 -15 -24 -43 -44 -2 -57 -60 38 77 -28 8 29 20 -70 91 -1 -41 14 8 -39 14 -13 -44 -2 -20 -14 -50 -27 -16 -7 -1 2 31 27 43 80 55 58 40 52 1 -5 -39 8 -91 -18 -65 28 -74 -27 87 -27 51 9 20 57 17 28 -23 19 5 -51 19 44 -63 58 13 76 1 22 -37 37 101 30 -62 8 14 -22 -25 7 -17 -18 -3 4 36 13 -11 -7 3 -2 2 -46 14 20 -54 -10 -2 22 -5 5 34 -1 -13 36 -4 52 6 -4 29 -32 43 11 42 17 -43 14 -25 8 -11 52 -4 -41 -9 -18 -13 -8 -31 4 22 -19 -12 8 46 42 -12 38 22 -16 -18 9 -47 -52 48 68 19 -25 -30 49 -43 -9 -13 2 -15 3 19 14 -41 89 -40 -23 18 -11 -8 14 -28 -11 -7 -23 64 30 5 -20
31 -84 33 18 -22 34 56 48 0 30 -22 -19 13 -25 -9 -10 -11 -30 -63 43 82 -3 2 47 -35 -64 27 -29 -46 -12 -82 13 -21 23 -28 42 -26 39 6 35 5 -25 -77 -70 -16 47 -1 -4 17 12 6 26 -16 -17 -6 36 -21 -31 -6 -9 -39 34 10 21 -38 -31 -92 -40 -38 -19 -36 -60 -30 -24 -67 -33 34 -15 8 -36 -25 62 9 -10 -38 12 -32 -9 -35 -27 -42 -39 36 -6 38 -23 -49 7 -4 14 0 -86 10 11 -59 20 -14 1 -51 85 72 12 -25 -3 -59 -21 -30 -27 -2 25 -9 0 -17 -4 -31 35 9 -47 -18 4 44 -28 15 17 -69 26 18 59 30 32 -57 28 55 -74 -20 -47 -50 -34 38 24 -11 -28 -28 45 -16 -41 -3 27 13 -14 -100 -21 -7 5 -40 6 -43 -44 25 -75 0 43 0 -57 46 28 7 -23 32 -17 -33 59 15 70 -15 -14 85 14 -14 -82 -90 14 48 22 -21 -51 -21 -46 -41 22 29 -70 -32 -31 -13 28 -11 3 -55 -52 -42 -20 39 -4 3 -29 -51 -17 1 -8 26 51 -16 -63 -17 8 11 10 -20 -25 -19 -14 12 5 1 -1 -49 -37 -32 35 5 59 -70 8 -37 3 -36 5 -55 23 -60 -17 31 6 30 13 52 -17 32 -37 -22 -37 -1 -51 -43 3 -47 -44 -8 58 22 -34 -17 16 -61 -38 -30 43 -5 20 -15 -11 -36 17 -4 -22 3 -15 -47 -3 19 11 -44 -19 -11 2 25 13 35 -36 9 10 -19 38 -24 8 20 -13 -83 -12 -52 18 30 -1 -52 71 8 19 10 -13 5 -13 -48 0 42 -13 -36 -19 42 -11 22 1 62 -29 -50 19 11 21 1 -19 3 -21 1 -10 24 -13 -23 -34 17 -31 25 16 9 -24 -14 -14 9 -22 -17 -66 45 0 -50 38 -27 9 4 -34 -29 66 -10 -34 1 2 57 27 -13 -58 -37 -52 -12 -41 -44 47 8 6 -21 11 36 6 -14 -22 33 16 -40 14 27 -27 11 84 -10 10 -9 -40 14 -16 -8 -4 16 -22 -55 -32 -19 -57 -25 2 -12 -5 -45 18 -48 47 7 -47 -18 26 -14 9 0 31 -6 7 -62 22 -8 28 -14 -12 0 -41 21 -127 -14 6 8 -35 -13 14 -66 -47 -76 -38 -18 -14 -8 48 14 -12 -40 -29 16 -46 -11 -32 -12 3 25 -44 1 5 -67 -23 -39 8 -58 13 11 4 16 -15 -10 6 10 61 21 -50 10 -15 -12 38 -67 -15 -7 -24 -4 -24 -6 2 -33 -24 33 48 44 5 -28 -74 -28 17 52 -47 -69 -6 20 -54 18 -59 7 52 -15 8 -40 -12 23 87 20 33 -14 -4 -5 -11 -8 17 62 -59 8 75 0 30 -1 -14 -8 34 0 20 -64 -16 -20 20 -31 4 19 8 12 -20 -74 -15 45 -63 49 -12 -37 -10 -68 -26 21 12 -18 33 -93 -41 -4 -17 -28 43 -40 15 -2 51 29 12 -58 6 -4 18 23 -38 10 -14 -6 46 3 -30 3 -11 68 -4 8 21 -7 -32 55 32 34 31 -10 11 -16 -17 44 -19 38 -32 28 34 26 -24 -18 29 -34 -2 -14 5 -55 28 7 68 -25 -40 26 13 28 -28 91 -13 -41 24 4 -66 0 60 51 -28 -36 0 -41 -39 39 -3 10 -11 -70 0 14 -14 -12 -10 1 103 -51 7 61 -21 -1 -15 -46 42 -37 24 11 35 108 -63 -6 -29 38 -16 -36 32 -2 -13 38 -18 -49 3 -10 35 -13 -64 -8 -26 -14 -55 -56 -17 -3 9 -34 -69 -33 -37 -52 -8 -26 49 15 -56 2 -53 -57 -79 -29 -20 -32 22 -10 -3 38 33 -21 21 -1 -77 -18 16 30 -1 -14 -51 -20 -44 -6 2 26 -23 8 -11 13 -20 -9 -55 -19 3 25 18 -31 -49 7 22 -20 -1 -51 -1 -5 27 -36 41 -26 12 13 -27 11 25 -52 -29 13 -3 0 9
-37 10 -2 28 -10 29 41 0 68 12 11 22 40 75 5 17 -38 -30 -17 5 39 10 31 23 46 39 33 33 43 44 -23 50 11 10 26 7 -9 29 30 33 8 -43 50 43 13 28 4 18 81 45 33 6 41 41 -22 31 7 17 16 -14 11 10 6 21 21 49 -57 36 21 13 0 -23 103 19 2 17 -24 -39 -12 50 96 4 -29 17 36 9 5 12 -39 -25 52 13 24 36 35 26 20 -48 18 2 22 15 -12 38 57 -11 32 -3 22 25 17 16 -19 35 -94 -28 53 23 42 6 59 17 -30 28 32 22 21 -7 2 0 1 -17 -52 12 11 1 48 24 51 63 39 30 -3 -2 41 -30 13 36 -8 46 27 66 16 -6 18 -46 12 31 28 42 44 -2 -25 42 -12 -32 41 -1 37 -16 56 -17 -6 3 18 -13 -10 37 35 68 30 15 19 58 32 36 23 -19 1 62 0 29 -12 45 -2 1 3 14 38 5 15 10 -17 -2 38 36 10 40 23 17 -2 -2 5 40 8 47 12 20 12 43 43 52 22 -1 -4 48 -1 -8 5 9 35 20 -11 26 -6 14 52 47 -17 0 -45 3 4 33 65 61 38 -7 24 42 -1 11 30 68 36 34 27 19 -7 11 14 17 21 33 33 7 14 18 73 68 37 55 31 14 4 16 27 58 60 -8 -6 14 24 -2 39 61 2 -9 40 15 19 -30 -35 -6 -21 -12 46 15 38 -14 47 23 8 36 25 -18 49 20 59 -24 37 -21 -23 -19 -3 38 -23 -34 22 50 0 0 63 38 9 54 11 -24 1 37 124 126 53 8 -56 74 -1 6 20 -4 19 54 -11 19 74 -2 -20 51 8 25 38 30 19 -20 25 64 14 16 51 -18 9 18 20 40 35 4 54 -1 13 0 39 -17 23 47 24 -7 44 -16 -1 -12 25 41 15 19 30 57 31 -1 14 33 1 0 36 8 7 35 56 -44 -8 9 30 27 46 -16 20 18 42 7 15 6 71 30 15 -26 -19 47 4 20 3 33 4 78 18 8 19 -9 -2 4 25 28 53 -6 55 23 14 24 52 22 28 19 22 15 27 26 37 70 -5 22 50 49 28 -7 43 5 36 -5 31 17 -8 -49 9 25 25 39 7 55 -14 15 23 2 2 39 -23 -24 14 26 17 90 34 16 22 51 -8 59 43 2 1 43 -13 30 53 13 -11 46 -29 39 -14 -25 -25 24 55 43 33 2 76 7 45 57 -13 40 -19 24 -5 33 -21 25 4 39 -13 -4 5 51 -28 30 28 69 72 2 57 -13 28 -12 -8 18 39 -20 43 23 -8 5 -30 20 8 34 5 0 32 20 35 -33 33 57 3 1 -9 75 39 42 37 -4 -20 -35 9 67 -9 46 17 12 19 28 -80 9 44 22 50 26 49 -13 40 49 15 -28 14 3 13 -1 5 17 -33 -25 9 31 -12 13 41 19 25 34 60 -27 -10 18 -6 7 -23 37 22 71 63 36 16 22 30 3 -4 27 -6 16 -9 11 43 41 31 69 28 26 -24 -1 44 23 29 45 5 -9 0 71 -28 17 13 21 -11 4 0 5 50 -22 46 3 -5 38 3 19 -15 19 -16 38 -32 24 2 33 24 -8 -5 23 8 1 19 -15 37 -6 33 18 26 -9 28 23 34 -27 6 26 34 23 8 24 -36 34 1 17 -2 12 33 58 34 22 -4 3 -13 -8 -10 -47 9 16 -17 9 78 19 3 48 -29 79 57 74 -14 77 21 -14 48 91 36 57 47 41 -27 42 -26 10 12 -5 -26 33 17 46 26 -23 16 25 26 -16 43 52 37 38 30 5 -18 -3 61 -13 34 20 37 -18 38 17 -4 12 -2 38 16 19 -6 48 1 21 -4 47 10 18
8 30 14 -12 2 -17 -10 55 78 -62 44 14 5 34 33 41 -44 10 -52 -34 31 -1 5 49 0 48 91 27 -8 35 -64 9 6 22 -9 -67 -27 -47 -6 -13 -5 -27 101 -80 31 1 -15 -22 -31 30 7 -46 41 11 -93 2 23 -23 4 5 -46 24 24 22 0 -30 -14 42 4 -12 -61 -9 -23 26 47 -33 -14 14 20 23 11 -19 1 -32 32 28 -27 4 16 49 -9 -26 -31 -20 39 29 -61 6 -27 11 14 -5 -28 6 37 -7 45 -37 -55 30 58 4 -24 19 3 15 8 -28 76 -4 10 49 45 6 16 -43 -117 -31 39 -3 45 -7 90 -5 -10 44 -46 -26 -54 86 16 -25 -39 9 5 21 -56 -27 7 -24 16 -7 22 1 -8 -49 -9 14 -32 -18 -27 5 -22 -63 -83 5 -15 -8 11 1 27 29 -20 -24 84 37 3 -2 -81 20 -2 -30 -28 -10 -31 12 -33 -3 16 -45 15 43 -36 -12 -26 30 -73 -22 19 48 -13 3 36 -93 -2 -36 46 29 31 56 -26 -38 -38 -8 13 -26 11 -7 0 -8 -15 67 35 -60 -3 -23 62 18 -79 -14 37 -11 -40 11 16 -22 -75 30 37 -58 22 -10 -39 -32 -23 27 -72 -25 4 6 50 -19 23 -29 0 47 11 -14 2 -25 -37 27 29 44 1 -22 21 -49 -10 -71 -13 -26 -1 36 -12 3 6 -7 -2 33 26 -39 -58 -108 -10 -43 -3 -32 -69 -17 -17 -62 -29 -56 5 -17 51 -31 -13 -36 -29 16 23 -12 40 71 -8 -61 -9 -17 62 -11 -5 -40 -8 -83 -74 -2 -20 56 83 67 114 -5 -32 -58 -10 0 28 -7 23 -39 -46 5 -20 -19 29 -20 59 18 -10 85 -7 -26 -17 -36 -81 64 -19 -18 -36 -59 8 -1 6 -67 0 -28 23 35 -1 19 -53 -31 -64 11 10 -9 -3 -30 11 -114 7 3 -29 24 1 26 23 10 -11 -16 37 60 -17 -77 12 -27 46 75 -11 -27 13 28 89 30 17 -16 20 -100 -16 -19 126 -20 -22 -33 33 -18 -22 46 120 29 -27 1 -29 -11 -29 -23 -8 32 20 -52 -51 0 0 -14 -21 0 -3 50 -35 -15 37 42 -26 17 100 23 -8 -29 -7 24 13 -15 44 -13 16 -49 -42 5 12 24 -41 14 35 -39 -13 22 7 -1 5 -51 5 16 56 -42 -10 11 -32 -17 -8 21 -2 6 -16 8 33 -19 -59 -24 69 21 46 -18 -67 -32 17 13 8 35 26 48 -5 -56 7 -15 8 -8 16 -4 1 58 -34 21 -31 -14 36 53 74 8 31 -21 6 46 33 -47 -4 14 -9 -31 -20 -55 30 36 54 -66 -22 -8 54 -24 -18 -19 -4 44 2 19 -21 36 -21 51 -33 9 45 6 -62 34 23 4 -72 -6 2 -14 -29 72 7 42 -29 -40 -51 56 36 -2 31 11 27 -33 -68 -8 -2 16 6 -74 -17 -4 9 8 10 43 -8 -26 22 34 -90 26 13 -29 -25 -3 5 58 -22 11 37 -1 7 -40 -105 -16 -37 -2 -61 -27 -21 26 -21 62 2 -17 1 -44 -59 18 7 -34 11 11 -37 2 39 -5 15 -54 3 -21 29 -5 13 -12 46 -32 -52 -46 31 -1 31 50 44 -46 -3 28 62 37 18 16 -3 -12 45 -20 -59 -9 -88 17 -34 -18 -34 3 -8 -16 21 -15 19 65 -38 23 19 -38 -65 -33 -1 -42 -71 1 -28 27 -28 51 -3 -48 9 -73 40 -23 2 29 25 53 63 25 5 -21 8 -33 25 19 31 -40 34 62 -5 37 -20 -7 -24 -4 63 -23 -3 37 -1 -34 -32 30 -13 35 -32 -11 -3 -17 32 19 2 20 -35 -19 -16 -1 -10 -37 1 38 -17 -14 42 11 8 5 62 -1 68 -8 -2 -51 -7 -42 -33 23 -99 -6 -6 8 2 -15 30 -34 -23 -18 16 -1 -6 32 33 14 -17 -38 -2 -25 -29 37
10 -26 -18 16 16 2 78 -31 19 -1 14 22 66 -5 50 1 -41 12 43 30 9 8 39 48 31 46 57 39 30 37 6 15 42 35 -12 52 42 -64 -32 22 38 7 101 23 4 47 12 -7 -23 10 -32 84 -2 36 -18 7 52 2 -50 4 2 -10 32 3 -25 10 -1 20 -15 -56 -23 16 65 -9 -83 12 -30 11 -5 -50 -40 -10 2 50 81 -24 -6 -21 -16 -20 -29 -23 36 -11 8 -23 30 -22 -25 -52 -69 -3 25 46 -50 30 14 9 55 -60 33 -9 2 2 -1 1 -28 -58 27 2 -18 46 -2 -24 29 14 34 -1 5 6 12 57 77 33 29 91 22 15 -72 29 28 42 37 -50 -14 44 -9 27 49 23 15 69 -32 -5 41 -7 4 -36 -29 40 47 57 54 4 -31 20 -7 -12 11 10 46 27 22 -16 -41 -21 10 -10 109 37 -18 47 25 3 14 49 -22 2 -22 1 3 -41 6 4 -28 18 -50 35 13 -47 5 29 -25 29 -8 50 9 -39 -25 -12 62 29 29 27 -19 6 -66 -4 -28 -5 13 22 -4 -88 -16 4 9 -18 60 -22 -39 5 -22 7 21 -6 55 77 17 -45 3 -13 102 9 -5 -8 15 -3 30 -13 -32 -55 -15 -96 10 -43 -78 11 22 12 -56 11 -23 57 26 5 18 2 72 87 -26 -45 -8 -9 -21 33 47 42 -10 0 1 35 36 5 15 -49 -9 -23 84 -52 6 47 21 2 24 -45 13 -13 4 9 67 -49 -35 44 28 29 47 -69 39 -17 5 26 -12 -29 -42 -33 53 1 39 -12 8 87 1 -9 4 -55 28 -11 4 27 -29 22 34 43 47 26 13 33 16 -10 -14 23 -40 -29 -8 40 8 -15 -49 -51 20 41 -96 -18 21 -8 -22 -12 -80 4 46 16 -38 30 -88 53 -15 20 -17 55 -22 -12 15 -15 4 3 51 4 -43 89 -6 -47 43 -40 -20 68 55 -16 -91 -60 -3 31 6 38 -84 -23 53 -10 13 1 17 -2 -54 5 -31 -4 -40 36 14 4 45 1 -12 56 -12 -2 41 42 -48 -51 13 39 -9 -20 -22 69 1 46 20 39 -11 1 8 -36 34 -8 -8 -73 11 7 37 -43 -72 40 58 89 16 -28 75 80 -14 4 9 3 22 35 67 -17 -51 -39 22 14 46 35 48 -36 46 -52 1 30 -13 1 12 -15 22 34 2 50 -6 92 -14 -37 6 -5 -34 -4 -14 107 -85 41 28 -12 11 -16 27 -30 9 -6 -19 -36 -8 39 27 4 47 -8 -65 -13 33 42 -17 45 -98 -21 -42 41 27 -17 22 40 15 28 71 -44 -39 -58 4 -20 18 9 5 0 -13 44 3 -21 51 36 -6 28 16 -20 -23 -8 45 66 44 -13 -28 26 4 -3 6 47 -5 20 4 27 17 38 58 26 30 8 16 -4 33 29 -10 35 26 21 -115 34 15 15 -15 23 27 -9 24 101 67 8 6 1 16 20 1 33 21 28 34 -72 27 -15 -9 23 -10 30 64 12 -25 13 -11 -32 5 24 13 -17 -14 -13 16 -53 5 15 21 43 24 48 8 -23 126 -42 -17 -9 -18 52 -18 -24 -23 -59 -9 52 -28 51 9 42 58 56 -16 -31 -88 -33 -23 20 32 -6 -12 62 22 -17 28 19 -5 41 7 -22 14 58 50 -26 20 -72 -26 -51 9 -10 62 -86 50 5 12 -22 5 59 23 8 59 16 -6 -31 17 13 -12 -6 -47 -16 0 20 -19 20 -4 9 19 -12 -15 27 6 16 -3 -60 29 -47 36 -37 61 33 29 -56 -52 14 -50 58 89 4 -7 26 24 -44 24 -50 -44 25 -11 53 13 60 24 -14 -9 8 47 2 65 64 -18 6 -26 -6 -23 44 8 21 -27 46 -47 -31 30 -12 26 -4 -22 14 -17 -18 31 -4 29 -50 0 13 -28 86 -13 -14 -5 6
3 8 85 24 -9 20 53 -31 33 13 3 6 -17 14 8 -1 -10 1 4 -26 25 -17 3 7 -4 -26 -25 -14 2 -3 -21 35 -17 13 -17 10 0 -27 27 32 3 -5 4 7 -20 -47 -27 -1 -33 31 -20 67 -12 -65 99 -1 -6 -8 -47 -16 13 7 -14 32 -12 16 12 -3 22 1 -8 -13 21 -40 6 32 -17 -6 41 -9 40 -25 6 -37 -4 -47 -43 -35 8 -42 70 35 30 -10 -24 22 -19 40 -4 -55 7 -26 -6 -16 -22 18 -15 10 -37 -7 49 18 0 -45 -50 -16 -23 -34 -23 3 -30 -51 28 14 -21 -17 -43 -3 -10 46 46 9 0 -8 -33 -4 -3 33 -4 7 29 4 40 38 11 50 -24 18 9 13 -4 -47 -16 13 -44 -2 -12 34 15 15 -98 17 -20 34 13 15 8 -19 -22 25 14 12 44 -15 14 -18 4 9 21 32 28 11 -1 15 12 -11 49 -31 -38 43 -27 25 8 -15 15 -26 -36 -11 -7 -49 -28 -28 20 -29 25 -66 16 -51 8 -43 9 -13 -69 -24 11 11 43 -21 -10 -20 -40 5 -18 -34 27 31 2 -52 2 30 -11 -3 -8 -7 -65 -9 -21 40 -13 0 21 -21 -33 15 -8 18 6 2 5 14 -19 -4 0 -33 -26 -9 21 -19 -53 -3 37 16 -10 -32 -6 3 -43 -41 -45 23 50 11 -43 16 16 -18 -4 -10 -19 20 12 12 -24 16 14 5 -31 11 -12 29 -54 63 7 1 0 23 37 -9 60 6 -2 -50 4 -37 -4 42 56 -2 -58 -5 34 -4 21 -31 -18 -83 18 34 28 25 2 14 -23 -16 1 55 14 22 -32 -20 7 -27 77 -8 -4 7 65 -4 -6 -6 -16 49 19 -14 -45 58 -8 -30 -33 -9 -25 31 8 19 -44 26 13 -46 -26 -28 -41 -8 -61 -16 -14 -26 35 8 21 52 -10 7 -48 -13 -6 15 0 0 -35 64 16 45 34 -45 -5 14 35 -6 -21 -64 -31 -6 -6 -11 -76 -14 -8 11 14 25 10 -127 25 18 -14 -64 -11 22 17 0 -49 -24 -40 -19 -23 -43 -8 -30 15 -3 -8 -22 26 64 -5 6 46 -19 -21 -72 -20 51 -10 37 -3 24 -16 -24 -54 -16 -57 -11 -26 -58 4 -94 -1 -49 24 2 -4 9 -44 -12 -16 -18 31 -14 -45 13 9 12 6 -39 1 15 9 -2 2 29 -58 16 12 14 -9 40 21 1 40 2 -1 30 22 -19 -18 -43 -16 36 42 -28 83 -19 -13 74 -20 23 -5 -4 -13 -20 43 51 3 16 25 -24 19 -20 -10 -28 -4 7 3 2 41 19 1 -53 -16 16 31 -38 -53 -25 18 -23 -34 -1 -40 6 -18 20 29 22 -3 -38 10 -16 -9 -30 -7 -7 6 55 4 -67 -24 7 -20 45 -1 3 -27 -4 -3 -25 -7 39 0 1 64 -2 41 35 20 -39 19 -18 1 -49 8 9 14 -65 42 -61 -25 0 -30 0 10 50 53 8 28 13 23 -12 -2 -28 -24 27 45 9 36 11 46 -6 2 8 21 33 5 12 -48 -19 19 -6 -19 -13 20 -14 32 -13 12 -15 -8 -13 10 -18 7 45 -25 -7 -20 33 26 13 -62 -7 24 -67 21 -26 -29 -44 -4 44 12 -17 37 22 10 -2 2 -65 16 -28 14 -5 0 54 19 33 20 -16 10 -8 -1 8 15 16 -41 23 -10 26 -13 -13 5 27 20 5 -18 -50 -53 1 -5 14 5 -29 21 -48 1 10 -15 6 9 -104 -31 -4 25 36 1 19 4 -44 52 0 44 -4 -28 52 14 -61 -34 2 42 -21 18 -33 -13 1 -9 37 -8 -31 -13 -93 -13 -32 -35 4 -50 -25 -21 44 -14 -1 -16 13 -15 -12 17 9 -34 -5 30 7 -28 -19 -3 9 8 -21 -54 3 37 72 1 2 -4 0 -11 -46 -1 -23 14 -17 37 -25 -20 16 -1 9 -26 2 -18 -50
-44 27 67 34 26 -29 48 -33 -7 6 -2 37 -70 25 6 16 -52 -5 -13 0 -60 -10 5 3 8 -112 -86 18 32 -2 -16 0 -46 -58 -5 10 -50 -38 0 -10 -2 17 -17 -42 -16 -49 -44 5 38 -66 43 11 73 92 33 -20 20 -35 18 71 -32 39 -32 -52 46 -10 3 0 -86 6 21 -9 126 -5 -27 -20 5 7 20 8 -20 16 -18 -6 -41 -4 17 1 -51 28 56 24 -68 -4 -105 -19 -43 -6 32 48 -22 52 -27 -27 -18 -15 23 -6 37 -50 -71 38 -41 -7 -36 -36 11 -10 49 -32 3 86 -7 42 5 47 -17 58 -46 5 -56 31 -43 15 51 -27 26 -40 -63 -50 -113 20 -19 -39 -43 -92 62 -2 -59 -47 -37 29 -40 92 13 -13 -25 -4 -1 -32 -1 -20 -37 -38 -19 -64 25 -31 -42 -8 -54 1 27 -3 -23 -68 -23 -7 27 77 -7 -1 22 14 -17 16 -2 8 49 7 -24 35 55 -7 -7 52 38 23 -10 -16 -42 16 4 38 -9 6 -34 10 -33 7 -26 10 79 12 -13 21 -1 -21 15 -29 -3 -5 -36 15 -9 -13 15 -9 -6 -7 24 27 -58 20 28 27 2 -51 -4 -6 25 -1 -72 9 21 -12 6 3 4 -20 36 1 20 29 27 40 -17 53 -71 68 30 -3 -28 -58 24 -4 -68 26 45 -50 3 8 -12 -8 7 -14 -54 -13 -6 3 2 13 -13 14 -21 24 14 -16 -94 11 -31 -24 -3 -32 22 26 -31 -28 -66 40 49 -29 38 -27 -12 -37 19 23 8 -12 22 -36 -36 -10 -40 -40 36 5 48 -34 9 -37 -75 -58 24 -53 -8 20 -1 -45 19 -11 -19 -11 -38 -50 91 -79 5 36 -3 -11 62 -84 -44 -8 36 -83 -18 -9 -22 -3 30 32 -12 45 -67 18 -5 7 -7 56 1 -49 30 -34 62 -17 -41 -46 36 -5 -31 -33 9 -85 8 -14 4 3 -3 -2 37 13 38 12 23 4 1 -12 48 11 -11 -13 -21 29 19 -2 8 10 -24 11 -28 53 71 -41 -15 -53 28 9 -1 -41 -26 23 -4 39 30 -57 -11 -24 17 -41 -37 6 -31 -80 -11 63 -6 -97 -15 66 1 -19 82 10 -36 10 49 26 -41 -28 -5 15 -44 31 -24 -78 72 18 -9 0 25 -20 26 24 -7 43 -50 -76 35 -23 45 3 -15 0 -3 -31 0 19 -114 52 32 23 25 -66 -91 -33 46 18 -2 -19 -67 -34 -5 -16 46 -33 0 -8 84 -22 -28 36 0 -23 -6 -45 -29 2 -2 15 14 -55 54 5 -64 7 8 23 -46 -39 77 -35 -24 -29 24 22 6 -7 -84 7 19 -49 -44 108 -25 34 -79 -16 -17 -35 -39 6 -5 -28 -33 -5 -11 7 -26 -3 -31 25 37 16 17 -9 -42 -88 -1 -12 13 -18 -93 -41 15 44 -9 26 27 -69 13 5 24 34 -4 28 -26 -6 44 35 33 27 56 -29 -89 -46 5 -14 17 57 -6 -7 16 -47 18 -32 0 -45 21 -46 -11 -7 -11 3 -27 -24 -32 -51 68 26 0 -20 -4 18 -44 -88 43 18 -61 -22 19 5 -9 -45 -61 -15 -38 -30 -44 -54 -54 1 61 -15 25 53 -52 27 -6 28 -58 -86 -20 -54 15 70 33 -4 11 -2 -46 -24 24 34 -44 -15 33 58 17 0 -29 -28 35 23 -20 -21 0 -30 -34 -31 48 26 -21 -5 -55 -36 16 -37 -47 5 10 63 -27 -7 -11 -7 15 -84 -81 -11 -40 23 16 -3 -65 -1 11 -32 -20 -65 20 31 32 -12 23 38 -98 33 -93 -25 2 -48 -7 -16 14 -2 -68 62 -26 -15 -7 -21 -5 -89 5 -29 13 -41 3 8 6 57 -33 -47 -23 -51 -8 16 -42 -51 -62 67 20 25 -5 6 48 22 -32 -64 10 -22 20 0 28 -37 -19 4 -20 -12 15 31 -7 -29 -42 14 21 -20 21 -47 -40 8 -13 31 -91 -13
-7 -53 -42 16 -66 11 -8 48 -29 -3 63 -1 -63 6 -28 13 -18 -38 6 -2 57 23 -7 66 -38 51 -29 -61 -19 0 74 18 -40 -28 -15 -13 28 10 8 14 -24 -2 47 -51 15 24 3 21 4 -50 -10 62 47 66 -69 30 -16 34 33 -83 -6 -7 -5 8 24 30 73 27 -107 -21 37 -4 27 -52 14 21 46 2 -20 -46 23 24 -7 22 -4 -10 -28 -20 -80 -15 29 -18 -45 28 -28 -8 20 -8 -50 -2 -9 28 24 20 99 2 -12 26 27 1 19 1 -34 -33 -56 -30 34 -13 71 -11 55 -20 1 -5 15 -87 -78 -76 38 35 16 59 -19 11 56 65 -13 -70 126 6 3 2 13 81 15 16 -53 -4 9 19 31 -2 -13 1 -14 -46 40 -9 -42 -26 15 5 22 -31 -82 39 -1 -25 11 -2 58 20 104 -83 -74 14 -1 85 84 -117 10 37 36 15 -48 -33 6 -16 4 -39 23 -31 12 -31 -13 -33 45 0 24 34 18 -8 -14 2 -17 18 27 61 37 -2 -36 -1 7 -1 18 -20 -81 -1 -15 3 -23 -105 36 20 -31 36 21 13 5 21 -65 40 3 25 -27 24 23 -40 -70 97 32 -24 -24 -34 22 9 39 66 43 11 -49 3 -16 -35 -6 14 16 82 90 45 -9 -1 7 -56 -24 8 -3 13 -9 97 26 -72 26 9 52 -21 -65 26 -7 -27 4 -16 -16 10 17 44 -4 -17 101 1 -39 24 -6 -9 -108 35 -1 19 46 23 -43 39 -25 57 -2 44 -12 61 -74 -5 -26 -100 20 124 -46 -7 -14 52 87 27 26 8 23 -32 35 -86 15 4 -16 -22 -2 -10 27 23 -104 -12 31 -25 -85 51 -8 20 23 89 -69 2 -19 -71 49 -15 35 -62 26 17 33 -36 -36 -23 35 -34 19 -4 -48 25 54 62 -8 -7 -29 4 -43 26 -29 -17 98 -57 -56 -3 -10 -44 75 -5 1 30 37 25 -18 -45 15 71 20 -15 -24 -7 34 -14 -44 -8 -2 -20 -13 37 24 5 43 40 -53 -30 17 -1 -21 14 -3 14 26 4 -73 -2 -12 -65 -33 -29 -4 61 34 20 -48 -102 32 50 9 11 23 -52 27 78 24 -35 35 20 -22 -98 57 -20 -20 17 8 -62 -19 -52 20 -19 -18 -4 9 82 -16 24 11 -39 34 -27 30 5 72 -64 49 40 58 -98 -25 -16 -13 -49 60 -31 31 0 -4 -18 39 39 -69 -32 -50 43 -24 26 -25 -47 13 26 -19 -65 -2 -33 -4 -17 -8 -36 -49 25 -22 71 -94 36 -43 -20 -19 72 -70 -16 29 -45 -6 -36 70 -96 -16 -28 66 67 -52 69 26 24 21 -16 27 -31 -26 19 -55 -90 20 -50 15 53 -19 -13 -25 -4 5 25 -16 -94 7 -66 61 -14 -24 -4 -57 -55 -5 -9 -108 -12 -34 23 23 -11 -32 68 -27 -28 -18 -65 20 31 14 -60 -33 -22 54 -13 -8 20 -25 9 -10 -16 64 13 46 -16 -37 28 2 51 -5 -71 11 24 22 -38 64 43 58 -4 107 -53 22 -25 -1 9 48 -45 68 22 -63 4 -38 43 -27 -10 36 4 87 -8 26 -16 -92 -33 0 -95 -20 36 62 68 4 -62 -3 -1 20 -25 49 -123 -41 2 -39 7 6 61 -23 50 -81 -40 -53 2 86 30 3 65 49 25 17 -24 41 -8 -22 -31 -18 54 -45 -28 -63 -6 -39 -2 -14 -34 -12 -18 -3 21 1 -53 5 -52 2 -3 29 18 -6 -83 8 37 -20 27 -100 100 -58 3 -60 56 -2 -69 -12 -16 -126 42 4 -59 -32 -21 46 57 33 -31 -28 -9 20 -95 -46 50 21 38 -4 -21 9 20 3 -19 34 122 -24 -25 23 32 -87 -11 8 -6 -36 -45 -24 -30 46 -8 19 80 -16 45 -52 -48 44 -4 16 -19 -52 25 -2 42 -20 32 16 -23 48 22 27 5 -21 -61 3 -16 -39 48
84 -33 -30 19 15 -19 -4 -24 87 -41 -24 -17 -51 -8 -11 -18 -23 20 72 19 -32 4 -16 -48 -3 8 22 13 -19 37 16 14 16 -5 -4 -15 8 31 -15 44 0 11 -58 27 -75 23 -2 1 -58 -32 -5 47 32 12 -49 8 -10 -2 -27 -14 35 9 -12 0 49 2 -16 22 14 -14 6 20 -127 -18 9 3 9 4 7 5 -26 -11 31 -6 -31 -20 44 10 -7 -38 -30 -20 44 24 -5 10 19 24 -28 23 -7 37 21 -5 20 -4 -31 7 27 -52 -46 25 11 17 32 3 24 21 17 -30 12 26 -5 -20 6 17 -36 9 -10 62 88 0 -38 28 -33 87 -22 36 25 -34 53 -2 2 36 -32 -7 -16 -93 31 -26 -29 49 -13 16 38 2 -2 9 30 20 -22 17 -22 38 45 -8 -10 9 -24 23 41 -25 -12 44 -5 17 -11 21 96 -39 -19 47 -36 -66 -18 -13 4 26 -14 -18 -9 11 21 3 25 4 -13 -11 -26 60 -17 0 27 33 7 64 15 18 0 13 41 27 8 1 -5 -8 -6 -4 -10 -6 11 -19 -28 32 1 1 11 24 8 -7 27 14 52 25 32 27 -59 23 -49 -31 3 27 10 -6 55 -3 37 3 45 14 -14 9 -8 -11 -2 5 43 66 17 2 -41 -1 5 -28 22 -31 -52 -27 72 14 48 27 -34 -26 -2 -18 47 -2 -20 7 23 -17 -13 -32 6 31 -23 7 8 -31 -21 -23 -32 -38 -9 -14 -13 50 6 -35 41 -7 1 -11 21 -15 11 10 33 6 27 49 -36 11 64 -6 -21 -27 -16 -19 20 42 -18 -74 20 92 16 7 16 -18 9 4 89 9 -33 43 -51 30 78 31 6 57 -2 -33 2 7 -32 47 -22 19 58 1 18 59 42 15 27 65 1 18 -1 -4 -63 -6 60 20 30 -10 34 43 -42 -62 35 -27 -23 17 20 0 31 25 -55 -5 1 73 30 32 24 12 90 10 -8 -28 34 -10 18 -20 -3 -15 -11 25 -27 46 70 12 -15 6 0 -46 -33 -19 36 16 22 4 -18 30 -19 12 33 -18 -26 27 6 5 -10 56 -11 17 -17 46 -6 4 -33 27 -23 -28 -35 -21 -27 41 -41 43 -14 -7 3 17 10 2 24 -23 22 -21 14 17 -1 -46 30 5 40 6 -19 29 2 16 -14 -14 43 22 -8 35 -5 31 -16 5 63 39 -31 7 -69 -21 -24 0 26 -30 -8 -16 6 27 8 30 24 -17 7 22 20 5 2 26 -11 8 -51 -6 10 -61 -3 30 -103 18 28 -1 8 2 40 23 1 30 -30 -39 -15 17 -49 -11 -15 -8 -14 9 17 4 5 -6 -40 -3 -32 -3 17 -39 71 -37 -22 44 6 -35 8 38 -6 4 -32 -22 -31 26 -3 1 -13 9 -23 -1 14 9 30 -8 55 7 30 3 33 1 4 25 66 18 -2 -27 -1 15 43 -5 57 -10 -12 19 51 37 -77 -12 4 7 -73 -13 0 22 -53 16 19 80 27 10 -16 1 33 13 78 -37 37 44 -22 32 14 48 15 33 95 23 -30 17 17 17 -37 61 33 -10 8 -38 -1 21 15 2 -7 -2 57 22 0 37 43 -26 -1 63 7 -60 5 65 -35 -27 44 4 6 75 3 27 17 31 -16 15 18 17 -3 27 2 0 24 14 -48 -95 5 -33 -20 -38 33 -56 32 -46 38 -34 24 39 -38 18 -15 23 -3 -61 3 13 -25 -49 3 -23 -37 37 54 -37 -23 -1 -19 -18 32 -31 -25 78 33 -24 -22 15 28 46 -8 -18 36 27 26 -21 -24 60 6 -25 -10 -4 -23 29 5 -8 -28 -9 -1 -34 -8 2 23 30 -47 6 4 -2 36 16 4 -11 13 -13 11 2 1 -13 -26 -28 22 11 9 29 15 2 -2 -22 -15 -42 -13 31 -16 4 15 -16 7 49 -5 58 4 -7 -15 30
-55 -65 35 -24 21 -13 63 -8 63 -24 -2 -57 -60 -24 -22 -2 36 -3 14 22 -1 -65 15 30 -7 -51 26 45 -52 -119 6 53 -26 4 -30 -32 63 23 -31 -26 25 4 -11 31 -46 65 -2 9 87 -32 -21 -17 74 27 21 1 1 -11 -25 42 35 12 37 6 0 46 -35 -12 13 -49 -59 -6 -5 -1 -16 5 -23 -12 9 -23 -67 8 -3 -20 -53 -25 -3 8 -65 3 1 -77 -51 -41 4 46 -52 -2 -57 -2 -6 0 -8 64 52 -5 -21 25 11 5 73 -6 -43 -14 55 -5 -17 31 33 12 32 -4 -11 3 -16 5 57 1 -22 -19 -12 28 52 17 104 -13 31 -40 -119 -18 -3 -41 -62 -35 -12 -25 47 21 6 37 22 -25 -33 23 -12 18 -68 -42 4 -6 103 51 -65 -18 47 -8 15 41 -29 -28 1 -49 23 -23 8 -20 10 -21 -11 -50 49 1 -32 -30 -85 -31 4 42 73 -15 -26 14 47 27 -3 42 79 -20 41 -31 -50 -16 31 6 32 23 -62 11 10 -13 -25 23 -42 -15 -1 -33 -22 1 13 12 -6 -30 -24 12 25 32 32 -29 23 -4 97 -34 -10 27 -56 4 62 16 5 -44 1 -22 -53 5 -66 5 52 -39 -61 27 45 29 -27 26 -14 -32 22 -3 -58 29 -115 -25 2 -43 -107 3 40 3 50 -57 -37 -25 92 -37 43 -12 -48 -69 33 10 -26 -26 31 20 31 -25 29 -9 -38 4 31 28 38 76 20 -23 55 -41 -39 14 4 20 -28 -55 -29 -1 0 34 50 -17 14 -18 30 63 -56 33 7 -96 -32 5 -22 -9 8 39 -10 78 -46 -10 -22 31 12 -3 -14 -9 -28 -18 -34 -100 -35 -3 -28 4 -46 -14 -2 13 -18 -39 42 17 13 -60 12 15 26 -10 -6 31 -2 23 -51 -9 -33 17 -20 41 -23 54 -79 78 -85 -32 -3 -7 -1 -15 25 -16 -35 11 -69 20 17 36 50 -20 -29 -2 -32 -11 43 -43 18 35 7 -48 23 14 12 -57 -38 -63 21 5 -19 -38 41 2 3 12 -107 -2 -33 -51 -29 -20 48 7 -18 -1 -34 80 78 22 -55 -31 -2 9 55 -87 34 29 -21 48 0 4 -35 13 10 -58 31 124 -23 -24 41 12 -43 -81 -40 5 -20 44 -36 -12 -10 1 -12 -31 21 -62 17 -8 63 51 88 34 -112 -115 7 2 -60 -66 26 32 -29 18 71 -24 -48 -24 -2 -1 -16 7 -23 -12 -10 0 -44 81 -51 45 6 12 -33 29 -4 10 -12 -39 -9 -14 -13 61 -48 24 2 -54 -7 -38 -25 -25 13 -14 -21 -31 25 51 13 10 -60 81 -50 -31 11 -17 -17 -8 -101 16 39 -61 -63 24 45 -9 -46 -34 -22 15 -56 8 -34 3 92 10 14 13 -23 34 -45 11 -41 8 -19 62 19 -7 18 28 78 1 50 23 18 25 -27 -18 -13 45 11 -27 55 7 -30 -48 18 18 -20 -29 -17 17 63 37 -42 -9 -34 -50 -4 -35 -45 -24 72 16 2 43 8 -53 17 58 -27 -25 43 -10 -14 10 20 41 -4 19 66 -19 42 -31 6 -32 10 31 66 -18 -29 -19 -62 -81 -8 -1 -39 -28 30 -68 -39 -23 25 -63 -12 42 -21 25 69 41 -54 54 -41 -51 -7 57 -9 0 -75 -49 -43 -20 41 -25 59 -18 19 21 54 -34 -55 34 -9 -28 -10 -47 6 27 -65 35 -9 -4 14 -25 76 8 -3 0 -55 -86 47 46 26 31 -41 -39 40 -34 -25 7 -18 -6 -53 -39 5 3 7 -110 54 -54 23 -15 -6 -126 -25 18 16 42 -2 12 -25 -10 10 -84 15 4 21 40 -27 1 30 22 9 -127 13 -54 -42 -27 9 -27 -30 18 7 -7 18 42 -53 7 44 2 10 39 -4 29 57 -1 -38 -28 41 -4 19 55 25 -66 -1 32 -48 42 -24 -1 -15 36 25 -1 -15 6 -68 18
-9 1 -20 28 4 3 -1 -40 -52 41 -4 10 -13 -8 19 9 29 -33 -57 -26 44 -5 -13 13 39 16 -20 -1 21 -51 23 -3 -10 -47 -1 46 -14 40 -38 31 -1 4 13 -27 20 -36 18 38 -112 53 14 62 53 8 50 -4 14 36 79 0 -18 -42 -26 8 29 8 100 -17 17 19 101 12 65 -20 37 -4 -28 -6 -45 -36 -38 5 8 -19 21 -10 18 2 -48 -13 18 -17 9 -6 3 -24 27 -22 -12 2 -11 -72 -24 -3 -127 5 -10 -30 30 -37 1 -7 19 33 40 31 7 46 7 23 -3 -4 -9 -7 -32 13 -46 73 -18 38 -57 -49 81 -29 -52 19 13 29 -37 -54 1 -7 -18 -27 -1 -62 61 62 -44 -23 56 13 -15 2 25 10 69 -18 36 25 25 5 8 51 4 38 3 45 0 8 21 4 -3 -54 33 -34 -28 -53 -14 -17 21 4 -8 26 10 -1 -60 10 -39 -14 0 19 30 19 7 18 37 -2 0 4 -52 2 35 -25 0 20 12 43 -104 -14 -49 16 11 -30 -20 31 39 -12 16 -12 -19 -1 -5 -76 -46 -33 67 39 35 13 67 -24 12 -24 3 20 70 2 32 47 -11 87 -8 18 -5 -15 49 -8 47 16 56 -4 -62 -12 -35 4 63 110 43 -28 -8 29 4 43 -30 11 -10 62 -11 0 4 -71 11 -76 -11 30 4 -46 9 -22 5 -4 40 -38 -36 -16 -2 20 56 -2 78 22 -2 0 13 -45 -22 3 -28 -35 67 2 -51 -23 -20 -25 13 -22 -36 30 19 -14 14 17 49 -29 9 12 16 49 3 17 3 -49 -23 -25 -8 -10 -16 41 15 11 -4 -23 -30 -19 -39 45 -17 -36 -3 -27 -20 -35 63 -9 -9 -3 35 -3 -20 -30 37 3 -30 1 -12 -23 2 14 -5 -27 -4 -30 23 -12 -6 9 -41 -45 -8 -31 -25 -5 15 69 11 15 15 -35 52 9 -61 23 17 12 -10 22 26 55 2 41 16 -18 23 39 -12 -5 27 14 -2 -18 16 -11 20 6 -10 -19 6 4 0 -6 -13 -84 13 52 4 2 -11 0 -18 -37 -6 -7 -3 12 -29 -45 3 56 35 10 5 24 84 -5 7 -11 -1 -23 18 -56 38 -14 -37 48 -6 1 -43 33 -22 -18 -1 -7 9 -58 -42 6 -10 42 -31 42 4 -45 96 53 40 1 -7 -5 -39 -54 24 25 40 32 61 63 50 10 10 77 -7 23 -5 -36 -16 20 44 -48 -27 33 35 6 -19 -22 2 43 15 50 44 51 -30 33 -8 31 48 51 -49 -8 -9 3 36 -17 4 -15 -31 38 -5 24 -25 50 4 -18 33 -34 -20 -2 -73 15 1 18 21 -28 -56 -21 -48 14 -20 -19 24 -18 -28 28 -61 -73 -20 -23 37 -16 8 9 -8 23 -3 -32 -19 24 -26 -21 22 9 2 27 -21 -32 47 -6 -23 -19 25 43 27 5 6 -32 -9 49 19 38 -10 -16 44 -22 60 23 52 -18 -6 21 10 -15 -24 -59 -14 4 61 9 10 -12 -12 -25 -26 -22 -13 -20 -31 -16 6 41 25 33 -6 9 -12 64 30 58 29 13 -16 6 66 28 -1 -23 74 -21 -2 32 -25 -36 22 11 11 45 19 -2 -20 -20 -9 11 -8 10 -37 -40 -26 -15 -9 64 -56 -20 0 -14 -3 7 15 69 33 -6 40 19 -36 35 10 14 -23 27 -39 -20 2 19 27 1 35 19 -15 -52 62 9 -5 26 -39 6 1 -14 -6 -21 39 -5 30 -7 13 14 26 -23 19 51 -33 10 -15 14 -8 1 -65 42 -23 30 42 20 20 7 14 0 29 -5 -1 -57 4 -3 14 72 -18 54 23 -56 -18 -4 9 -24 -6 29 40 -52 -11 15 -22 67 9 -33 -16 -3 1 -27 73 6 51 56 22 -27 -3 -27 13 -31 -15 -19 21 68 31 -24 -29 22 -13 -5 17 37 60 -12
30 -23 7 33 5 6 9 -2 7 -25 14 12 -24 3 -2 -10 -2 14 16 -11 -26 -47 -15 20 -73 46 -23 47 -14 37 -26 23 5 -41 -17 47 33 45 0 -22 26 -8 -93 45 25 34 41 -33 8 -80 -6 52 71 67 -44 29 11 -13 -37 14 39 -28 -67 -14 -57 -6 -122 18 23 39 5 -38 -12 -6 1 0 -50 5 -14 15 66 -21 30 -7 -2 10 28 8 -24 38 -40 -69 43 -9 79 30 -4 -3 98 19 -1 -19 18 32 -41 12 27 15 -59 -9 -43 -66 -56 -33 31 -24 77 2 3 26 -27 -38 -3 26 -7 1 11 15 52 -5 16 18 -86 6 -50 14 -3 -10 -37 -29 20 -71 -10 46 -22 -95 -18 75 -11 77 69 -10 -52 -69 19 49 -10 -17 52 -11 -85 5 -78 -5 86 -50 14 4 -29 12 -9 12 11 -69 63 -15 -17 8 -95 24 -26 126 65 31 -117 17 31 -39 9 -30 12 -37 33 29 -33 -22 6 44 -14 -69 76 66 11 -1 -11 -27 0 -16 -9 -60 40 10 10 5 -17 -27 61 4 -26 4 34 -10 17 -72 -39 7 -13 8 -24 23 -4 50 26 3 3 0 93 29 -33 42 38 -21 -42 -22 79 -25 10 33 -2 -12 52 37 -27 3 4 14 -9 -15 7 10 -22 -4 -16 30 -25 40 67 -20 -52 -16 -13 33 78 22 -26 2 -7 -32 -18 -14 5 18 38 -6 -20 -105 10 -23 1 5 75 -8 56 -35 19 -18 -39 36 47 1 9 -26 -44 -17 -27 -7 19 23 16 47 -42 43 10 11 27 17 -1 -11 -36 35 -11 22 40 -27 -27 -17 -18 -48 38 34 3 9 -51 6 -12 63 121 -93 53 59 3 -31 -25 -64 25 -13 50 70 2 10 46 -1 84 -32 -33 14 45 10 5 6 -46 -12 -62 4 -4 -18 -13 19 40 48 -21 34 9 -10 -16 -57 -20 -26 39 -73 37 4 59 38 -21 -7 -18 -8 45 -10 -22 69 -21 33 -36 10 51 31 -30 2 -47 69 54 2 14 44 28 -7 0 24 14 -30 15 -89 18 -53 1 7 35 47 -26 -58 6 32 -22 -35 -18 49 9 -3 96 58 42 -57 45 79 27 5 9 -33 -6 24 55 -9 87 -13 5 47 34 35 50 -50 -22 5 -1 67 17 16 -31 16 41 -103 10 1 50 -4 20 -42 42 -28 31 17 56 13 -15 -2 27 27 -25 16 -31 16 42 4 17 14 19 -39 57 -51 64 -5 0 92 -18 -29 2 28 -16 44 14 70 -63 38 52 -7 64 21 -56 -10 3 -15 26 7 16 12 60 37 -21 11 18 5 -60 -95 -11 -56 41 43 2 -39 -24 -22 -17 -34 -6 -14 8 -58 26 17 -21 5 15 59 29 -26 4 31 29 56 -45 -3 33 23 34 44 -6 30 -58 -40 -10 12 26 4 5 -35 -48 34 -4 -5 -9 36 -57 9 -41 7 -68 30 29 -3 -9 3 55 19 27 -7 -3 -45 1 51 49 8 10 40 73 4 -57 50 77 -29 26 -10 -63 -31 -35 -3 24 14 -8 13 -23 23 56 50 -46 -45 -44 86 15 -2 1 -17 1 17 1 -32 -23 -17 -17 5 -14 -50 13 -90 60 0 -26 101 -47 38 -23 -8 -16 -34 8 -2 60 16 31 26 9 12 -9 18 66 -24 -2 -74 -53 9 -46 -3 14 5 26 -20 -48 -1 -39 -28 -49 -42 31 55 34 -44 -9 18 37 25 -14 -81 10 -22 -1 50 -25 0 10 1 -33 -9 65 45 24 -49 10 -26 -49 -41 -53 21 42 50 1 -52 38 -16 16 13 64 -45 53 34 -8 29 -40 -12 -5 -36 -12 24 -4 60 11 60 24 -27 -43 -15 18 -6 -1 28 6 11 -40 -6 29 5 15 15 -18 -92 30 61 -8 -25 -25 -13 15 25 6 -42 43 46 -5 3 -72 -7 46 -13 -13 35 -23 27 -16 101
-33 8 -41 16 7 -5 -23 13 -17 37 29 40 -20 3 -24 -23 8 -18 -41 4 -36 -27 16 17 14 51 2 58 70 15 -53 38 20 27 57 5 31 -13 -14 17 29 23 27 -38 -32 4 7 16 23 -19 38 -9 -11 14 -16 -11 -7 17 -3 32 -11 -21 17 -8 -10 6 17 -1 -41 28 16 10 -68 10 17 32 35 14 -12 22 52 -28 35 17 19 40 4 41 -15 9 13 -13 19 43 -7 33 30 26 25 -28 -29 72 22 -58 -19 -10 -25 25 54 -9 43 -15 1 13 19 -1 -1 8 -5 41 5 46 0 35 69 -14 -66 24 4 99 -2 -15 -30 48 20 26 21 26 -1 -54 80 20 37 -16 8 -29 30 64 46 -28 0 69 22 -44 -12 -16 -31 -1 40 -14 11 1 64 -41 -5 -8 43 -55 -81 14 -12 59 32 -54 81 9 26 10 31 83 21 75 -74 -62 51 3 36 21 11 -25 -5 -8 14 11 -30 -5 49 -3 -2 95 87 10 -50 16 47 5 -12 -5 22 0 -39 -24 19 18 46 -27 13 7 1 1 44 -16 61 34 43 24 -19 52 -2 -10 26 -56 -20 -15 -28 35 19 28 2 13 -5 43 -2 42 69 37 -2 19 -1 -23 43 3 100 -16 33 52 21 -66 15 3 8 26 7 36 54 20 30 74 11 30 15 3 -32 -39 -24 -9 27 14 -13 -36 13 -46 -17 -36 -34 47 34 -7 14 -4 40 8 -42 15 -48 -32 -11 -56 21 39 64 35 -52 43 23 3 -7 25 85 38 54 -20 53 55 74 -6 -44 -23 43 60 25 -73 -38 -40 26 -19 -27 -12 -48 28 -23 -36 29 26 6 7 54 51 69 32 70 82 -32 -8 69 57 -61 -20 10 58 50 30 -1 4 53 25 62 18 24 -6 13 -20 74 -12 15 -5 11 -28 60 77 -10 -20 -67 4 98 63 3 14 -26 42 38 10 -34 -32 19 36 -41 -17 0 -71 -36 16 2 18 -24 -31 17 -27 -14 -5 38 21 59 35 24 -19 -26 8 6 0 -4 -37 -30 13 10 -16 -34 10 -16 -2 15 18 24 13 13 -5 -17 21 -11 20 7 -23 9 20 -42 36 3 22 19 43 15 22 52 26 -37 23 41 29 -1 2 14 -23 -9 6 22 4 18 -11 26 11 11 78 4 78 -7 -24 -54 44 6 51 -4 49 -36 -4 64 3 -1 -23 7 -1 -71 87 -4 -88 -49 -18 -3 25 -25 -40 2 18 -10 -14 1 83 3 4 59 43 73 10 33 2 -34 2 46 6 18 35 84 14 5 -3 10 -25 21 -17 91 8 74 -24 25 -30 37 32 -45 -52 24 37 -13 12 1 -4 12 -65 48 -8 20 -2 6 26 79 -54 -61 7 29 -41 -40 5 -43 -2 -32 -9 58 14 19 88 9 8 -60 -7 -20 6 -5 -22 9 -36 47 -65 28 -17 -25 39 39 72 7 11 25 53 -22 52 -41 34 -31 38 3 15 0 -3 9 -29 40 -58 -37 -27 40 -40 80 9 22 36 -28 35 0 25 -24 44 -27 -12 35 50 82 35 26 5 -1 -19 -41 17 -10 118 -5 29 19 -30 26 -1 27 -24 -32 45 23 -102 -22 41 30 70 8 14 79 -4 0 12 21 4 -37 13 35 -76 -57 24 7 39 62 -1 37 0 -16 -2 39 8 28 53 12 12 1 -15 -61 20 43 -20 -6 21 -4 60 17 17 -62 24 -19 26 39 -16 -32 10 15 53 5 46 12 17 40 11 34 39 87 0 -13 -41 2 -17 6 10 26 -14 62 23 20 -50 -18 126 0 48 -27 -8 34 21 -27 -33 58 -45 44 18 -19 12 -58 -24 5 -1 -9 -11 -6 26 17 36 24 21 -15 -14 -25 -5 11 -21 30 12 -11 24 10 -1 34 30 68 6 42 8 -16 -85 43 -9 20 4 5 -10 14 -20 38 -18
-11 11 -33 -41 33 42 26 -51 -40 -19 31 24 -19 32 -6 -17 -16 -22 -17 -29 -21 -50 14 41 43 -8 -8 54 17 -3 -45 -29 -36 -41 6 -42 -27 9 -16 8 -21 27 1 -64 -47 -62 -20 19 -127 -8 -6 36 -12 -74 -47 -7 37 13 0 -28 -8 -23 -45 -20 -49 -15 9 -24 -33 -31 -86 -77 -67 24 -24 8 -33 3 29 -4 -49 36 -12 -7 0 -27 -77 -34 -20 -38 -14 -9 27 -1 89 2 -27 -17 -11 -6 9 -2 -10 98 10 -37 42 -18 -36 -60 39 -15 4 3 20 2 -84 5 -52 -18 9 53 -15 -27 48 8 29 84 -70 -77 66 1 -76 13 21 -74 -30 45 41 41 6 -31 46 22 -12 -11 -55 27 -15 4 1 -4 -6 4 44 -21 -4 -23 -7 -16 -66 -21 -20 -2 29 -39 63 20 -50 20 -9 28 -11 -5 -11 16 -7 -3 32 7 16 24 24 -31 45 -19 -11 -8 -44 32 14 62 -35 -36 -32 -54 17 -44 -39 -12 11 21 9 21 20 20 9 -63 1 -23 16 -16 -44 4 11 32 0 -2 8 -11 19 62 -38 25 38 -8 -1 -26 -8 12 -62 -20 48 -3 -28 -18 11 -3 -17 5 -26 -8 -40 -42 -58 -51 -41 13 49 -23 -64 40 -40 -10 46 -74 37 -6 -8 14 -83 15 -21 10 -4 -13 22 9 -11 -6 -2 18 -72 -3 1 -105 66 -30 16 65 21 -53 -18 -46 -10 -16 -19 -20 31 64 20 13 54 -1 -2 42 -19 3 -21 13 40 23 -10 -15 -4 34 25 -9 1 -3 48 10 -53 -81 -70 -12 -62 0 -49 32 -1 23 -45 -17 -21 -51 -19 -11 -8 79 -12 -7 -17 -14 7 -8 -9 19 -41 -28 -58 31 3 -43 39 8 -3 -27 -21 -29 67 36 33 35 7 58 -35 -46 20 1 18 0 33 7 21 15 -15 59 -15 -35 -31 32 -6 -10 -44 38 -31 -31 2 -45 -25 -45 8 80 12 17 -15 -4 9 -46 -44 -47 -5 -36 -50 -104 -16 11 30 -21 -11 -10 -10 7 -45 -7 10 44 -52 -29 48 2 -54 -76 -28 34 -16 -44 20 -15 16 79 -17 56 9 -42 -75 -50 -12 -7 28 -8 11 23 -48 -29 -29 31 -9 40 -14 10 -51 13 18 -52 40 11 58 -26 52 -2 -3 0 -19 74 -44 12 27 16 -5 36 -13 -15 -26 4 -41 32 18 -46 22 3 9 -15 21 13 -7 19 30 -39 -2 23 -55 -5 -12 77 -7 42 -21 -27 -35 11 -29 9 -5 7 -5 -49 17 43 10 -2 -5 -46 -114 -15 -36 7 83 -12 -84 6 -11 4 -10 1 5 -9 9 -31 -13 5 -31 33 44 54 15 18 25 -3 10 -40 14 4 -8 36 1 -43 14 68 32 -9 -36 11 -28 4 9 -60 15 16 -28 -12 -53 -35 8 27 0 -23 7 -43 9 -4 -38 -38 6 11 -39 -42 -84 -16 21 -66 -42 7 61 -42 -36 5 -8 -40 -8 10 27 -18 46 0 36 15 6 -45 -36 16 -69 -9 33 -4 -15 72 4 -21 7 19 -37 -56 9 37 -56 -9 62 45 19 -8 -50 -30 -36 33 -51 -8 -27 -29 -28 5 16 -1 -1 6 -33 -59 -44 -69 4 22 63 1 40 33 -18 7 -23 -35 -39 -17 -71 -14 -52 63 49 12 6 -21 22 -6 -3 6 109 -25 -38 28 2 -33 -16 11 -20 -53 -6 29 -24 -4 -18 -45 15 21 8 -31 32 -21 11 35 -41 -72 -59 -4 -54 -23 -26 -37 -51 -1 4 36 67 -19 -6 33 -19 25 -25 -71 57 8 16 -33 -3 -97 -45 12 -70 25 10 -45 13 -5 66 -18 35 17 -13 3 -21 73 32 66 -38 22 -4 -1 -26 26 -42 -18 -37 -23 -48 -10 -16 10 -26 -21 34 -40 -8 -17 -7 -1 -13 2 -52 -61 -10 -5 -10 -7 11 -47 28 19 17 51 -32 -66 -32 10 -5 -32 -12 37 26 -22
-97 -12 7 -11 11 60 22 -21 23 24 48 -36 -23 -35 4 11 -35 -36 60 -9 38 -25 14 -3 -19 -29 26 -54 14 44 -61 -48 -38 13 19 22 -23 47 -26 0 -11 -15 -18 44 1 -7 -12 67 -14 -2 22 25 33 47 -56 43 26 -25 17 13 -46 -33 -48 -1 35 -50 9 -26 -23 -55 0 25 -11 -37 23 23 22 7 -52 53 -37 -33 30 12 -17 -6 5 -29 22 -17 -50 11 -14 3 20 16 85 -38 -5 -21 2 31 36 -69 53 -1 9 13 -41 -53 -45 11 8 12 33 -11 23 13 36 -20 -65 -27 46 -17 9 27 15 3 23 -27 -40 1 -28 34 -26 22 -7 -34 -6 30 -13 0 43 36 -14 -46 -23 -18 -69 9 99 20 -14 82 -26 35 -9 0 -63 -17 25 -4 -20 -32 -12 16 -64 -6 86 37 -26 -54 79 -4 -29 -73 30 -35 -25 -85 25 16 -77 26 -68 -14 -48 19 -40 -24 18 -18 -14 -18 36 -18 78 7 4 46 57 -16 -14 -35 18 -66 7 16 9 10 -8 43 63 -22 -2 -18 -14 16 -32 8 -30 52 -8 19 -18 39 -35 27 58 12 -22 -29 8 80 -7 -4 -21 35 -75 -59 -60 -37 -50 2 -11 24 34 36 20 59 0 -11 42 4 33 62 74 -39 -38 33 -54 14 23 -25 0 -21 36 32 18 -45 48 -7 -26 -22 -32 8 60 -11 -22 -31 -127 -39 5 -7 19 45 53 -10 -73 61 -64 23 19 -6 15 82 66 31 -86 -25 -27 28 79 -11 -26 -22 -3 -73 20 -37 34 15 -32 31 -79 -61 8 37 33 -14 39 16 48 -31 27 10 38 22 23 49 -35 -36 13 30 -2 16 -66 -19 75 34 1 24 11 32 63 -33 0 -8 8 -61 38 -24 -43 -51 -16 -1 -11 65 -11 13 -6 29 22 66 46 -60 11 -16 -85 -50 25 -12 13 -4 -44 29 -28 10 -40 61 -41 -18 -2 -65 -34 -10 -26 12 -19 -27 -10 -11 -20 0 -37 -69 14 -2 30 7 2 -49 -14 -10 11 -18 -30 -76 -13 -12 -49 10 13 24 -28 -16 -16 34 18 42 17 51 -23 10 -34 62 -3 18 -2 -70 -27 52 -12 50 -26 -22 80 64 33 -49 18 71 17 76 56 -16 10 44 -56 -6 -48 -45 4 28 -25 -4 -6 -16 -72 37 22 11 -1 59 -27 18 3 -13 -44 -22 7 6 15 -8 -19 53 56 -1 -21 -20 -1 -72 71 -37 7 -42 28 -28 -9 -28 -42 -27 -62 0 -14 52 -2 2 -69 47 -22 38 21 37 19 49 49 -6 29 73 20 -5 55 14 -13 -76 31 61 0 5 -68 60 -9 -44 -8 23 42 -2 21 -26 -16 1 49 22 12 9 63 -9 -23 87 44 -9 -9 13 28 -60 -19 -22 -11 27 13 -9 -32 -32 -38 25 -2 35 -5 31 -49 10 -5 11 25 -53 -49 -23 63 25 -31 37 -31 44 -11 -40 18 -39 31 -16 -8 -52 9 -66 -26 54 1 61 9 -12 -7 -20 -19 0 -21 -6 13 62 74 -82 -53 31 25 -41 28 -1 -19 16 -4 23 -30 27 -43 -18 -35 17 -107 12 -17 27 -17 -10 101 -49 -37 -2 -41 37 -77 -75 8 -49 13 -60 2 -65 66 27 20 14 0 -11 -31 20 27 -1 42 -56 -61 -42 -41 38 29 18 -77 -4 19 -3 -84 -21 48 2 -35 -18 -17 -29 20 24 -58 -23 21 16 19 -22 -44 -63 -20 4 6 -26 124 19 47 18 -65 31 25 20 8 6 75 -79 42 -12 13 -7 -4 -101 -3 -13 16 11 27 8 -59 33 -9 -1 23 56 -51 -12 13 45 -36 -31 -17 -51 24 -36 -1 -16 -42 100 20 1 -2 27 39 0 -19 -6 49 25 -8 -19 14 50 -9 -42 21 -32 9 31 -4 29 -37 -25 21 1 15 -48 -15 -26 -9 29 19 -71 -33 0 -11 -3 -8 -81 21 -13 10 69
-54 -14 47 -50 25 42 -31 11 -28 29 24 13 -6 63 4 -3 13 36 -53 -5 -29 -17 -26 15 34 62 17 -54 -23 13 -37 -6 55 14 -10 -18 100 -4 3 -23 -35 31 -20 39 48 40 -54 29 1 -52 -43 -25 46 83 3 -25 -58 15 -46 39 12 -20 40 -4 30 -7 -2 -18 -13 4 -73 52 36 8 -80 23 -29 6 22 45 -49 -32 -7 -56 30 4 39 21 25 28 4 -39 -66 21 50 -30 -32 -14 -59 -17 -5 17 41 68 -21 2 23 -42 61 49 -55 26 -60 75 -30 -12 -48 33 -81 41 30 -35 -27 18 -39 -12 -9 -71 30 -32 15 -2 7 7 -20 -50 4 78 3 -32 -11 -44 4 -38 7 -13 -33 -27 -11 -13 -61 4 -9 5 -37 25 -16 12 43 30 -28 -6 3 -17 69 42 5 -25 14 -41 52 -70 6 -17 -16 -29 44 16 -62 -45 -8 45 4 51 -59 18 11 -7 3 18 -3 24 0 -26 0 -14 -43 7 -14 15 3 -57 -2 -26 16 -36 -1 54 16 12 -12 -14 -18 12 18 39 14 -12 1 -16 83 -23 29 53 19 5 -31 35 58 19 13 12 -2 1 -14 17 -67 -38 -79 -28 19 -16 -13 12 42 -10 -90 -16 72 9 -1 14 -7 -52 29 25 -34 -7 -6 16 73 42 -33 -18 3 14 -22 -9 62 17 27 -6 47 19 -73 60 -21 -1 19 33 -77 -49 -51 59 14 -6 5 16 -39 0 -47 32 23 -37 -36 40 18 8 -43 11 -1 -11 -32 20 -24 66 21 -4 1 -9 -3 -95 39 8 11 -61 33 -11 -32 -9 1 -12 21 56 0 66 -8 -38 40 48 -11 -20 56 -7 9 -34 -29 -33 16 -30 21 99 -10 71 -40 26 -13 -18 -52 -14 45 -20 48 -16 30 -18 -41 -29 48 29 -78 15 8 -39 29 9 -13 17 -44 -38 28 -70 14 -3 94 40 -8 2 19 -20 27 69 12 8 -31 93 7 12 36 -53 -52 32 -10 -24 74 -5 21 -18 16 5 -38 55 -19 56 13 16 3 -22 -49 28 -58 40 -20 -41 2 20 28 -4 0 -5 -14 -81 49 -35 41 28 -60 -18 -1 46 41 9 16 -16 -30 23 12 -40 -5 66 -7 -30 -14 13 13 52 -10 92 34 46 21 37 16 1 -9 41 28 28 -46 60 10 19 17 17 -9 13 -15 -50 -3 -1 -3 -99 -69 8 -7 -10 -39 39 24 51 29 24 20 -21 11 18 -56 -47 24 3 28 -23 33 15 -2 16 1 26 30 25 48 14 -56 -3 45 31 50 -52 -41 6 15 -68 42 -68 20 4 16 -50 -9 3 25 -30 -31 71 17 1 7 4 -41 -3 14 -59 20 -19 15 27 34 -103 19 14 13 13 3 -22 1 -73 11 13 -45 -1 5 -5 -59 61 43 -29 1 9 0 12 12 -12 -81 60 -10 68 28 -3 1 28 -16 0 -35 -9 47 10 -27 -8 -10 0 8 -34 -36 -19 -75 21 -10 64 1 -65 31 -30 -18 -61 -16 -54 -47 65 -7 27 13 7 -50 41 -11 3 9 -28 -6 23 12 1 23 9 9 12 96 35 -15 -1 30 -15 -30 -5 11 107 -21 -27 12 40 46 -96 20 -19 -14 33 -68 -24 -4 -24 -18 -29 -75 27 38 -13 43 14 -51 -13 24 -27 -3 -3 -48 4 6 33 43 -14 -59 -34 -9 -55 18 -11 124 62 17 36 28 -9 10 -15 -65 -29 -14 -12 -8 -26 -9 -6 -61 24 -45 -2 -16 1 -27 -3 -16 19 5 13 -42 -49 -127 -10 -74 3 -18 63 11 -3 -46 -24 -34 9 -67 -4 15 57 -2 7 -13 -18 0 28 1 -14 19 55 85 -1 39 26 7 8 -3 11 4 -12 22 29 -21 39 -4 17 -51 -51 21 -62 -19 -25 38 8 -1 41 -28 -8 44 29 23 -30 -21 18 44 -44 -31 -69 -24 7 21 55 18 -29 36 12
-66 -14 -24 -4 34 21 5 -7 -8 20 19 12 -8 8 56 -2 46 27 46 24 23 -5 -69 -50 21 -3 37 -1 40 -27 72 36 -12 -43 1 -65 5 4 -13 -18 -17 13 -27 -110 6 -6 -22 3 25 21 -10 41 39 16 36 -10 21 25 4 22 -9 36 41 -7 41 38 -22 -40 32 -8 15 -6 24 -8 82 -5 0 2 3 13 -27 25 19 -5 -8 17 22 -9 -5 -80 9 -26 49 -2 6 -24 41 -6 35 -15 -16 -28 25 -11 23 10 32 30 72 -5 33 28 2 11 49 1 -46 2 53 25 -37 30 16 6 3 -3 26 -28 9 -51 30 -16 10 7 0 34 24 -20 -30 67 -12 -32 37 -11 6 -22 -18 16 -11 52 36 33 -16 15 -4 -26 21 -27 13 29 -42 -16 3 14 36 30 25 14 -50 7 -32 8 5 -68 -28 -14 30 -76 -40 -2 -11 0 26 24 -48 -13 52 23 14 -20 -19 46 -1 -22 -13 -4 -36 44 -11 0 18 29 -10 79 -16 -46 19 -41 -36 24 33 26 12 6 50 4 19 -2 -6 0 -42 23 -12 3 -20 6 55 -31 -26 26 4 13 32 35 41 19 -4 -3 -12 27 -31 61 42 -15 -14 7 39 11 0 -7 41 -4 -16 12 14 -15 -16 -43 6 -55 53 69 14 49 -1 -7 13 -36 2 34 19 42 28 24 73 -16 -4 10 -4 -19 83 -2 12 43 1 -32 10 -1 102 14 21 -20 -30 -22 -2 19 -26 11 -38 -35 -38 24 -1 -61 58 -14 -10 22 -61 15 91 7 20 -7 52 -5 -8 3 5 22 38 -24 10 68 28 -64 -28 9 70 -26 5 31 -59 -2 -9 27 -26 14 71 27 67 26 30 70 -22 12 -13 34 -9 41 58 26 57 -13 4 -17 -17 54 -50 24 34 9 -9 -8 -51 -9 1 63 24 18 5 -46 35 29 -45 17 -20 29 -2 14 38 -79 -48 -35 -38 -10 29 -4 -8 83 -7 19 31 9 -49 21 -7 19 35 17 -17 24 -23 9 -23 22 14 -42 -39 30 23 -17 26 28 2 56 29 7 4 14 -22 1 30 35 33 23 -10 0 29 21 13 -30 -42 47 -15 54 2 -22 93 39 -57 -7 23 36 28 -34 -21 -43 -25 33 -37 -30 -14 2 0 18 30 -25 36 -15 -19 -23 14 -68 9 57 66 -12 -1 39 -16 16 22 45 5 -1 -35 -2 -40 -21 -26 -1 -11 7 -9 34 49 84 63 -2 -34 19 0 33 -3 33 4 -13 6 4 -4 44 -2 7 4 15 29 26 -31 26 15 -28 -9 8 37 -14 -4 12 4 -12 47 -57 -20 -44 36 6 17 4 11 17 3 2 11 56 3 -3 44 42 3 -30 12 -21 -40 -17 -47 29 37 -46 10 -19 6 6 20 43 6 -40 -4 -1 -67 14 28 -2 27 48 20 -4 -25 44 -20 22 -10 -38 7 -7 -13 40 -38 -2 -20 -2 51 51 22 7 -51 43 -3 -27 -4 -57 13 77 46 -15 -51 77 -18 -13 -35 67 -1 -4 41 -47 48 -5 28 -2 -48 15 -122 -49 19 40 90 54 -20 49 15 4 48 -18 -2 -23 8 -7 -24 -4 64 14 -41 14 60 -25 3 42 126 22 36 48 -17 12 30 -38 -3 -14 -12 18 -7 -10 -4 7 6 20 37 20 46 26 8 7 -18 -22 51 -27 -5 -18 6 46 -26 -11 -74 46 -11 53 -72 -29 -8 32 40 47 28 12 24 -8 20 -2 34 -9 74 -13 -11 27 1 34 20 -3 30 67 -14 12 -9 -26 0 -10 -18 0 18 42 36 -4 -6 2 5 62 42 56 -10 -52 40 18 -45 23 11 -11 11 60 28 -30 -4 -26 10 -4 30 22 15 19 -24 -53 -7 2 -31 -9 53 52 16 31 -59 7 -35 -2 -9 12 -26 -99 -9 11 17 2 -12 16 -40 -20 -22 -37 14 12 51 -3
-122 0 -38 -30 13 -43 -66 4 -19 -37 -30 -25 8 15 -11 -11 -23 3 -14 -44 -127 7 45 1 -33 9 -22 29 51 27 -37 50 42 -34 -7 -15 -6 -88 -34 48 -12 10 38 16 -25 -7 -30 -12 -49 13 -2 66 -38 -1 -69 5 4 -34 53 -7 43 50 -28 -24 10 -45 41 48 -19 -98 111 -7 -55 32 -34 -9 -1 -4 -65 -28 5 -15 -3 -6 -16 35 -55 8 3 18 -7 49 -32 -38 43 -3 -31 -12 -69 -13 41 -57 -31 26 -9 -19 -2 -20 19 55 53 1 18 -54 -19 13 -46 -16 -25 -25 29 -76 -43 23 39 2 17 58 0 -13 -85 -30 -19 13 25 -15 4 -66 48 43 121 9 -2 12 -16 -11 -31 -28 41 -14 40 -5 38 15 -26 22 -28 -14 -3 -4 -58 4 15 19 -67 16 -13 22 33 48 -9 -57 2 16 -18 -82 -21 86 -48 -8 0 13 -68 -1 -10 -2 52 -5 5 -66 24 -54 -23 -27 -54 15 32 1 9 -9 75 -68 -47 13 -7 -3 -26 -31 -30 -3 -27 6 2 -25 13 24 25 -3 7 -4 61 28 -51 14 -15 -33 -45 11 5 -30 -23 -19 24 -38 -27 6 -21 15 -81 3 -24 -53 46 21 31 51 11 -24 -47 40 -3 -39 31 14 -11 6 18 -2 -8 23 -68 23 -41 67 -6 -47 101 -5 -26 1 -17 -5 -11 -13 -113 -68 -19 -42 -13 38 7 40 -16 18 51 -19 48 30 30 10 6 -23 27 -24 -2 -46 12 29 -41 40 10 -11 10 -27 -53 78 -51 18 13 -18 -26 -11 56 42 -6 -19 6 -5 15 33 -42 45 -46 94 29 5 16 8 -15 32 -18 28 -48 -35 -83 18 52 34 4 26 -34 48 -29 -42 33 34 29 -24 -34 35 -47 5 -18 -36 56 36 8 12 -33 15 2 13 64 -21 -60 -13 40 -41 -26 31 -46 38 41 -20 -8 -18 23 2 -29 -2 -67 -24 2 -18 102 13 33 67 6 -48 4 14 -14 -4 -35 -86 -24 10 -45 -4 11 51 -2 11 -7 -39 13 36 57 27 119 -26 -37 39 -2 9 -32 5 -39 -2 0 -24 -7 -37 8 62 -31 -32 -28 -51 -7 -50 20 -14 27 -14 11 -39 43 60 5 57 115 27 73 -3 -27 120 -88 -3 57 5 -41 -11 34 -50 -61 -50 40 12 -24 39 -8 31 1 10 73 -56 -23 -18 36 60 -100 46 23 -3 -71 -25 28 36 25 58 30 -56 -10 -45 -28 -55 3 -10 -18 -41 7 -32 -9 4 -2 -46 -20 -30 64 -70 44 -29 -58 -8 68 41 88 -67 20 11 -30 -10 17 -30 -29 21 -34 22 -60 -47 51 -10 -33 37 12 -62 -37 -10 -19 7 -31 -35 58 -52 -38 6 -16 5 -11 -41 -58 6 23 -20 -7 -32 -14 -27 -18 -1 51 23 -11 -3 17 11 -98 34 70 25 -3 25 21 -7 -59 -62 65 -30 6 -7 -13 -19 -34 22 2 -7 -43 -17 61 52 -9 17 -23 6 61 -21 -1 -42 50 -52 -24 35 35 46 -15 -25 74 50 20 -14 10 -19 1 -53 -21 -6 -64 -24 99 -24 -32 -75 -17 -10 -66 1 -17 -9 -32 -102 8 -31 -2 -20 10 -36 -6 -4 -24 -11 60 -40 -7 17 48 29 -12 -21 -33 -22 -43 0 -33 -46 43 10 57 19 -6 -39 -7 15 -49 34 -3 27 38 -1 -59 -17 -5 -9 -11 -39 -64 56 9 -50 4 -45 12 -35 -18 30 -28 26 -98 6 7 -11 20 24 8 31 19 39 10 22 9 2 -91 -15 25 -10 -13 -69 -19 8 -25 76 23 -13 -105 2 9 -16 -1 -44 -68 -23 19 -52 7 84 21 34 16 -2 11 74 -39 48 -26 -1 52 -50 34 57 78 -5 43 33 33 -2 6 -18 -9 8 -64 -29 -11 8 -14 -23 -48 -58 -19 -2 32 -27 -3 -82 -27 -67 4 -39 7 -11 -14 15 10 30 -19 29 38 38
-122 36 -33 -6 -5 24 -20 17 32 26 -23 29 -14 25 -17 41 4 22 -6 15 -16 -35 -10 -15 53 -48 13 -42 -7 -4 -26 12 2 25 -14 62 49 13 17 -2 10 -24 40 -32 38 -77 -41 21 -69 9 -23 4 29 8 -31 15 -30 29 -12 -21 -7 66 -3 18 -6 32 0 -2 66 26 13 43 15 -20 -19 -69 -49 2 48 58 11 -54 51 -31 27 -6 98 11 -51 -2 -14 -35 -27 -8 -1 24 76 3 80 -13 20 22 -32 -1 -38 20 23 -63 42 -17 51 -13 -28 46 -52 9 33 43 -52 6 17 -49 -9 49 -6 14 16 55 -25 19 11 -7 -38 9 9 -16 4 10 -6 -3 27 -7 17 34 27 19 9 26 6 -13 -14 37 41 -18 41 -1 -5 5 3 -28 -13 5 -10 0 -42 -23 -11 28 7 10 -13 -19 -79 59 -25 -37 15 -6 25 38 38 59 -58 -64 31 -46 -52 -44 -44 2 -22 4 46 23 13 -15 39 -21 -9 4 3 -14 46 32 34 15 -3 -11 60 12 39 4 -17 -21 0 -9 -21 -17 -31 -6 78 7 36 -36 -30 -19 -30 57 -37 50 -67 3 5 11 -25 -4 62 19 -77 9 -15 -63 62 42 28 -9 -21 -48 6 51 -8 -15 -32 -13 14 -18 2 -7 -24 16 28 12 -10 -33 -36 3 13 11 -11 14 -14 67 -16 -64 45 -65 34 -16 5 20 -40 -25 7 -76 -12 2 19 33 -22 -8 -39 3 -44 72 -7 -34 -45 -11 -30 1 -52 -8 34 -32 36 -78 -28 -8 -5 -6 -51 9 13 -33 -42 1 -21 7 -78 -26 5 15 11 88 -13 -32 -47 -1 -62 -40 26 26 -1 -7 51 9 -39 -58 41 -21 23 -16 -15 43 38 -4 0 29 -24 40 20 24 -21 -39 -4 -24 105 -24 -13 5 -9 23 69 70 61 8 -13 -7 -6 6 -3 33 -33 -13 16 -45 -1 -28 -53 -38 31 23 13 17 -17 -18 31 -13 -22 -127 -2 -68 43 43 -52 -17 -22 7 -26 -8 -60 33 -87 -1 -49 -4 2 14 18 27 48 18 54 3 6 11 12 -20 46 -12 -2 69 1 11 33 33 26 0 -41 -6 -35 -26 15 -16 -23 -22 24 -8 -12 13 -7 43 15 16 6 7 39 38 41 -17 24 5 -7 11 6 -42 -9 -11 9 -14 17 -19 32 37 19 12 18 54 10 -24 33 19 62 22 -10 25 -14 50 37 11 -21 12 52 69 39 -8 -14 -42 -24 1 22 -8 -10 -2 -1 32 9 5 -17 -24 -48 35 -53 28 -56 -10 29 22 -9 -53 37 1 -52 24 -59 -11 29 10 1 -4 -12 28 -3 21 58 8 60 12 18 -4 20 19 -4 13 -23 -53 49 -10 2 41 -9 -37 5 19 15 16 0 -28 48 16 24 6 21 18 -15 47 -7 84 -61 31 -36 -2 -38 -94 -3 -24 -49 39 -51 45 0 5 2 7 -16 55 38 6 71 30 5 34 -12 24 -36 -18 -1 -64 -5 19 -50 -26 0 24 6 -16 4 -4 69 -2 20 37 107 -46 6 -10 -5 44 11 -38 39 33 7 12 40 -3 -5 8 -39 -2 -14 4 58 -1 34 9 -21 -11 -60 -17 9 -20 -31 -23 12 -35 30 -28 15 34 48 -1 -34 40 -58 28 -21 -36 -17 -35 -2 52 -33 9 -10 56 -9 -91 -25 21 30 36 6 79 -14 -15 45 -8 7 -34 3 7 -59 7 -8 -2 0 -29 11 -10 23 -4 2 29 -36 0 15 18 -8 -4 -10 -1 9 29 -1 12 -26 68 -2 -31 -32 43 -28 8 13 32 -5 16 -32 5 5 63 -32 30 -14 73 27 61 22 20 10 -10 -42 15 -3 -50 33 43 -10 28 -21 12 -17 34 1 -5 28 -28 -7 23 53 30 34 41 -8 -7 38 4 21 11 33 -20 31 33 -4 3 9 44 -6 -14 -35 14 -11 -24 30 -43 11 30
-14 10 9 -5 9 -3 -64 -9 15 16 6 9 14 -10 15 -6 -36 31 -16 -2 10 29 25 29 15 14 16 28 27 -22 32 -6 39 6 -4 39 53 6 -19 14 -31 -7 38 74 -16 -30 31 -53 -41 -7 22 2 42 11 -15 -6 -9 40 2 -22 25 -32 25 3 -12 4 -2 3 56 50 -15 -27 31 -26 -7 15 21 24 47 -3 44 0 41 -29 6 3 7 15 24 19 28 -27 -11 2 10 53 -11 16 -14 10 7 24 -53 44 19 -27 -29 -11 16 53 -18 6 25 16 13 -1 26 -12 -4 37 -8 -11 -23 7 3 -13 11 18 0 38 -2 -31 -29 -17 -20 67 -7 6 -23 0 30 24 35 10 65 10 2 -44 -17 6 16 3 102 6 -1 13 -1 35 6 -52 28 57 13 32 15 32 11 14 -6 2 25 21 6 -6 28 45 -24 45 -26 -3 8 30 10 41 -2 2 60 26 7 -13 29 40 -25 -3 43 -1 -8 15 14 22 11 7 7 12 13 29 -12 27 38 -2 46 -16 -14 53 -4 6 -5 -12 -14 -37 -4 -27 6 -10 5 35 10 27 -41 -3 -6 6 34 -23 -1 31 4 49 -30 40 36 42 10 -15 47 12 -5 -46 -7 15 -12 32 28 2 2 -21 -4 -25 42 21 22 -36 39 1 3 13 4 23 15 35 21 21 3 5 23 -16 -49 12 20 -24 8 18 5 -27 32 -31 -3 13 27 27 19 14 -34 1 -4 19 3 -7 26 -6 17 -11 33 23 10 12 7 19 6 -11 -20 -14 11 -5 2 -21 -4 4 50 -8 -7 -16 61 33 -29 50 -13 10 -27 45 3 4 -53 -4 6 54 -17 19 19 -16 -11 -14 -1 26 13 -4 33 55 13 9 86 38 29 36 -1 15 40 -22 34 29 31 83 -15 22 -6 5 7 28 -17 14 -55 -18 15 4 -28 48 13 2 55 17 -10 25 18 20 -9 8 -5 36 32 8 55 31 -16 -27 38 9 45 -6 11 37 1 -1 53 -7 25 1 -19 6 28 56 24 21 -9 1 -3 31 -19 12 13 -4 22 -18 3 -23 38 48 10 1 4 -52 33 22 25 -4 16 -23 -1 -5 15 -10 35 -29 2 16 -27 15 -26 89 15 -13 4 -7 -12 -28 -26 2 -37 19 -11 -7 47 23 -19 6 -28 -6 2 13 -2 -6 -4 -3 8 -7 15 -24 -12 -18 -1 23 5 -8 41 45 21 40 9 43 -5 -19 7 14 7 -24 1 -8 -16 17 51 -29 -1 -2 10 52 -42 -29 66 33 -35 -17 -12 -8 -39 0 5 8 -9 -17 -27 -31 22 -5 -9 31 23 -4 9 12 -19 -11 6 6 5 -1 -23 -5 14 3 14 6 -14 -10 -42 56 -3 -61 11 21 24 -16 -3 -22 25 26 22 -12 -6 6 17 -13 -14 55 -19 5 -22 -20 10 -9 5 60 40 -3 12 2 10 -36 16 -4 7 18 -19 -5 4 14 31 15 40 -8 -4 1 22 -33 -16 -10 -13 34 5 17 -1 43 -6 41 41 41 -17 -3 3 20 35 -12 18 32 12 2 -7 -16 10 35 -11 -12 11 21 51 -7 -79 6 -27 37 49 -11 34 43 -22 29 23 -12 -36 33 -30 34 11 32 27 31 -9 -65 49 17 39 6 2 -1 55 -3 -31 -41 -103 -16 -46 -37 5 32 -23 24 64 -26 -62 -41 -17 -35 -3 -30 24 2 -11 -41 34 -7 3 12 21 -43 -34 23 24 47 2 59 36 22 31 13 13 -11 -20 5 35 -10 -6 -31 10 8 -12 -12 22 -27 -21 5 -3 4 -16 -9 11 49 10 -1 14 -43 5 1 22 -17 -3 18 -9 40 -18 -8 0 -26 -5 -127 -7 7 -13 76 11 48 0 10 -11 -9 -1 61 -13 19 -45 -20 55 3 -4 12 7 28 12 -10 31 -7 36 13 -1 13 -5 -22 30 -22 8 61
27 34 -5 1 -15 -6 36 -35 -27 -51 -3 -37 15 -23 10 31 2 -26 67 -23 -74 3 62 16 25 2 -31 63 9 20 -72 2 20 89 6 -37 10 38 24 43 21 19 8 18 -6 30 -18 -15 82 55 18 -33 54 38 31 -5 -1 4 -25 41 18 49 -21 18 37 89 10 -32 15 88 55 27 3 -22 55 -20 24 11 -21 24 -50 54 41 -23 4 -27 -2 -31 81 6 32 20 26 11 13 30 -113 -11 14 27 -26 13 -42 21 66 -40 103 -37 -5 -32 9 49 33 -25 55 -4 -85 -8 -38 -13 94 18 6 9 7 97 3 -19 -51 -100 -7 -11 -6 -6 64 106 16 -27 -7 -40 7 -21 3 3 -22 -44 74 -57 -62 -25 17 68 60 -23 36 42 -41 -3 42 13 12 29 20 -56 28 43 9 39 -36 22 54 -60 -48 39 -54 -4 -23 -12 31 62 -11 18 72 33 5 -18 38 26 0 -32 -10 -1 56 -8 31 -14 -28 -7 -18 22 50 89 -8 -28 -24 9 21 80 62 -5 -12 10 -48 29 12 -19 21 -6 40 -8 -71 12 -40 -53 -36 27 40 114 23 33 30 48 -28 -26 37 7 51 31 -3 -32 -73 37 -8 14 -18 21 -63 -20 26 1 43 68 -34 38 30 3 17 21 -40 11 -43 26 14 -5 33 24 104 26 66 29 78 -32 -3 -9 -27 66 13 -27 9 -93 38 3 -18 -45 -4 11 39 -17 11 25 -89 24 53 -17 -4 68 -32 -4 6 42 14 -83 42 -3 73 2 8 36 22 12 31 34 30 -118 0 22 -63 -30 -7 -7 22 -8 -12 39 -15 -12 17 37 -20 -10 24 18 -21 -39 50 -19 -7 -38 -21 48 4 15 12 6 31 26 126 -23 53 15 60 -34 20 11 10 -16 30 7 37 -21 114 37 4 44 -52 15 -3 -14 69 -15 -5 -32 -39 -24 38 48 -9 -4 53 29 4 64 26 86 -28 15 4 -27 13 27 11 84 -7 81 55 20 -6 -20 -14 66 -11 7 -1 17 38 -28 26 -17 -41 20 -13 39 -47 -1 -5 -12 21 -31 -14 -13 10 59 -44 -29 3 9 30 -15 27 -65 86 43 44 20 66 -28 37 38 -59 -4 10 -52 -23 0 8 -60 -4 91 -69 18 -26 35 -4 18 -40 47 47 -5 42 52 22 -6 33 44 -61 -51 73 76 -4 27 -15 -52 3 21 -21 57 -52 -22 30 54 26 -17 2 9 21 74 -11 30 -37 -27 -32 -46 3 97 -5 4 13 10 -28 1 20 -54 29 0 -6 15 -21 -85 -5 -4 48 25 -51 10 -27 -18 86 65 -2 -16 15 -20 -92 -17 46 8 -24 5 -29 44 13 -7 -12 -104 9 -20 20 -29 20 76 76 19 -50 16 6 -31 -6 -18 24 16 -38 0 -3 91 -34 -44 35 19 38 25 -63 -27 6 6 -20 -17 -6 -51 48 -3 9 29 25 -1 -55 -21 -34 15 3 -70 18 -23 -24 -27 -36 -26 32 10 -2 52 42 -21 13 25 -11 4 29 26 4 39 71 -23 -38 2 1 12 26 -80 -22 71 11 -8 -46 21 47 7 -44 -9 -48 40 -8 55 79 -30 39 20 98 26 48 80 6 -12 -13 -23 -40 42 13 68 33 45 8 27 63 -7 40 -63 -36 20 25 20 7 -27 13 16 48 -20 13 78 55 39 -30 -48 8 -44 -10 -22 74 52 -41 -1 61 -26 6 -43 -21 7 -12 7 -8 28 32 7 -36 -36 20 76 1 -42 46 31 36 31 29 27 -46 43 13 33 -24 -54 24 10 -44 -59 35 44 -9 -22 -45 -48 -65 -89 -80 62 23 54 16 -83 -54 2 20 54 53 48 -6 -25 -5 -24 24 30 -43 20 -48 -8 17 -47 -2 -66 -3 17 13 -24 38 -53 -71 -25 -28 -4 -23 27 -1 -22 -59 -62 -18 60 23 39 26 -37 39 -22 -8 -9 -59 -45 -72 33
