-22
-18
23
-119
-70
-63
-38
37
2
-16
-12
25
-31
-77
11
-23
-39
8
-32
-52
54
31
22
47
-59
-51
-3
16
-17
7
-34
-8
35
-7
6
31
-38
-2
23
61
21
-57
37
0
-6
-4
-21
1
10
6
46
4
-2
-45
22
-3
-26
53
-10
17
183
-71
15
-4
16
-86
58
-103
-14
-78
-96
33
227
-176
38
-25
-80
-155
-66
272
-65
46
266
29
-71
-30
94
47
22
20
23
-64
15
-80
89
26
-97
-77
82
113
6
71
249
164
-205
48
-322
109
183
154
434
-201
-99
27
-51
-87
-52
46
180
97
121
-29
141
-104
-57
-355
-201
44
11
23
-116
-55
-56
-12
-24
2
32
20
121
-34
-1
-55
17
33
-33
-65
63
-68
22
43
97
10
-11
36
17
-24
-82
42
-37
-6
33
-19
2
-51
23
89
-28
-52
83
20
-7
-43
-59
-26
27
6
45
-41
-33
8
43
28
49
30
-74
49
-3
47
17
48
-77
-46
7
-26
3
78
-27
-9
35
-3
92
-13
35
-31
17
-61
5
9
-98
-51
40
-17
-61
-41
44
-80
11
26
-9
4
-53
-32
52
16
-19
19
43
-3
3
6
21
1
30
16
-4
-30
-48
23
48
-59
-9
22
-24
15
15
0
11
-31
-6
24
-8
77
18
3
-23
-27
83
-19
-101
44
-21
-84
-101
-102
47
-41
149
69
-119
-95
136
49
137
90
87
-273
53
75
40
-116
-34
-56
118
-65
9
-194
256
-19
-36
18
42
-62
89
34
-70
-68
184
-48
-262
241
74
-20
63
241
-16
103
-168
-72
-8
159
13
-32
101
-10
223
-53
143
-71
141
162
154
-191
-89
-221
104
-186
33
-24
155
79
-57
-156
-269
-298
-156
-21
-130
-14
271
118
159
47
-102
37
117
-130
-147
147
11
372
353
26
-39
-81
-55
-36
-110
767
161
198
-201
-276
-55
-62
-49
-189
-221
172
262
-211
217
118
228
-89
-87
-145
347
-37
-431
4
14
30
-253
-359
179
329
48
-446
-56
190
29
200
159
132
77
876
35
-118
-39
304
-490
9
-54
-328
131
16
203
329
-512
-9
212
-320
-526
115
-28
-69
103
145
55
-143
0
-247
-268
25
89
261
151
-7
-66
-175
6
-255
-322
-23
109
472
-57
-17
-587
-103
-436
350
-66
111
-284
-159
58
113
64
7
-13
37
10
15
-34
-46
-184
197
173
-6
-93
-120
4
-35
24
126
-98
48
198
80
97
-6
-143
-10
43
-184
-5
-21
47
80
117
-99
129
-17
-34
-105
62
47
149
-105
-67
139
-10
59
-42
-100
-17
62
-246
118
111
43
-162
-34
-39
-116
196
-99
-66
-92
70
-4
29
-105
-113
42
24
179
-93
46
35
23
-209
-90
-65
100
-36
72
-67
-228
1
11
11
9
-33
-32
42
-23
124
37
55
-10
31
-55
-49
-26
-5
-45
21
-51
-26
-4
-156
-25
-40
96
50
7
-6
35
-27
84
58
-17
74
75
26
106
8
129
25
81
93
-23
-97
102
57
-51
505
-66
168
4
201
162
406
-181
121
121
-51
196
224
104
59
-22
-64
-46
-124
332
-84
-71
-92
-10
-18
-170
-32
-13
66
-38
322
-155
104
-19
101
-62
86
56
105
-209
74
34
-29
-11
38
-100
188
385
178
177
-66
-138
-120
-1
204
-126
-207
-357
77
2
-331
22
23
-22
-40
74
87
-66
-14
-92
41
47
-6
-45
43
-24
39
-76
129
56
-33
32
-20
13
49
38
-54
-93
-41
-75
-147
-88
-14
-17
3
35
78
-49
46
36
46
87
29
-67
-76
-28
72
-57
7
71
-52
-116
19
35
-10
-16
-50
-10
67
128
-444
-17
-47
60
-92
-111
-39
82
65
-71
19
19
15
12
1
87
17
24
39
-15
-50
13
-46
-16
-61
78
-41
36
42
-6
58
31
-55
178
4
4
56
-26
63
-67
-5
-50
-10
-109
-2
25
-78
79
13
-90
-47
-6
-48
-2
30
-30
-32
4
-11
-51
48
12
35
128
59
-33
87
-82
168
31
